-0.10691	-0.10544	-0.10516	-0.096662	-0.090936	-0.074911	-0.10344	-0.097265	-0.10477	-0.090373	-0.067541	-0.087885	-0.12234	-0.10321	-0.1062	-0.10651	-0.081584	-0.094699	-0.11566	-0.18744	-0.13536	-0.11454	-0.096545	-0.090509	-0.11232	-0.09675	-0.087966	-0.14484	-0.16492	-0.18556	-0.16872	-0.15028	-0.089077	-0.077899	-0.10152	-0.071258	-0.094303	-0.083627	-0.17373	-0.22345	-0.31459	-0.39898	-0.18645	-0.12748	-0.10956	-0.13079	-0.077281	-0.095352	-0.088126	-0.01246	0.070136	0.47953	0.31276	0.035512	-0.054102	-0.10872	0.86633	0.33266	0.01859	-0.11872	-0.14339	-0.12251	-0.088226	-0.075434	-0.13678	-0.14915	-0.13966	-0.055082	0.018922	0.31782	0.74191	0.66189	0.30934	0.017417	-0.10935	-0.16461	-0.12692	-0.1156	-0.096895	-0.10588	-0.11962	-0.11694	0.0082422	0.0937	0.25576	0.98157	0.54357	0.034434	-0.072946	-0.081221	-0.12544	-0.11737	-0.14131	-0.186	-0.33024	-0.39845	-0.23372	-0.12075	-0.094552	-0.096817	-0.086875	-0.097625	-0.10732	-0.076787	-0.07844	-0.13058	-0.15904	-0.12979	-0.1224	-0.10014	-0.072615	-0.089382	-0.088186	-0.085088	-0.098457	-0.11219
-0.010352	0.0076882	0.0013671	-0.016146	-0.007758	0.090965	0.33421	0.45362	0.29328	0.096232	-0.045486	-0.040321	-0.017177	0.016571	-0.01834	-0.001686	0.026984	0.11671	0.3329	0.17644	0.11439	0.01328	0.0017768	-0.023382	-0.037991	-0.0077605	-0.070554	-0.13803	-0.26239	-0.374	-0.26723	-0.099829	-0.045532	-0.037084	-0.0044351	0.0099022	-0.022257	-0.019296	-0.1788	-0.26014	-0.50946	-0.34326	-0.1531	-0.065857	-0.021735	-0.029623	-0.0077512	-0.0044106	-0.0074206	-0.050107	-0.064835	-0.11889	-0.013976	-0.0042825	-0.026317	-0.0037249	-0.0094426	-0.0027883	-0.035615	0.041811	-0.014901	-0.016055	-0.028246	-0.0060179	-0.033704	0.038391	-0.032945	-0.0092955	-0.018655	0.0048879	-0.03859	-0.021565	0.0040591	-0.026916	-0.0066817	-0.013965	-0.0080117	-0.010085	-0.010201	0.0055114	0.012325	-0.0075368	-0.015985	0.0044915	-0.0030097	-0.025451	-0.088448	-0.038079	-0.0076127	-0.010155	-0.0057561	-0.016604	-0.018352	-0.062803	-0.13649	-0.19378	-0.082749	-0.027192	0.010245	0.0068648	0.0024488	0.0019547	0.011368	0.009707	0.050433	0.05165	0.11092	0.66155	0.58487	0.34878	0.071725	0.015884	0.019892	0.016799	0.46912	0.75037
-0.23632	-0.34778	-0.066126	0.37122	0.84841	0.21159	0.10321	-0.022717	0.013936	0.012324	0.26502	0.28743	0.013531	0.048944	0.21922	0.37695	0.14191	-0.034371	-0.03982	-0.05497	-0.039898	-0.027424	-0.014392	0.10537	0.13024	-0.017366	-0.14229	-0.05601	-0.028763	-0.01684	-0.028589	-0.038894	-0.095652	-0.024501	0.0022262	-0.025916	-0.015235	-0.034715	-0.024623	-0.027733	-0.071608	-0.075532	-0.028629	-0.028291	-0.075911	-0.04715	-0.049784	-0.081207	-0.019365	-0.061697	-0.038133	0.020799	-0.058756	-0.040605	-0.0047965	-0.055991	-0.04379	-0.024798	-0.034903	-0.031698	-0.032416	-0.10815	-0.047971	-0.089141	-0.092478	-0.057816	-0.032988	-0.036648	-0.014418	-0.032258	-0.039631	-0.039345	-0.058785	-0.043773	-0.10669	-0.060267	-0.14274	-0.1017	-0.12517	-0.022501	-0.13201	-0.075629	-0.027919	-0.049394	-0.028809	-0.045346	-0.044332	-0.056131	-0.071644	-0.056359	-0.057339	-0.057873	-0.071479	-0.067436	-0.069392	-0.099034	-0.046184	0.015357	-0.010351	0.011663	-0.040504	-0.036509	-0.0035816	-0.043843	0.02933	-0.020671	-0.011119	-0.081377	-0.062674	-0.045312	-0.037734	0.14441	0.28038	0.4253	-0.03252	-0.080513
0.34938	0.79372	0.2835	0.22102	0.040353	0.017828	-0.057789	-0.038645	-0.0013341	0.16302	0.1684	0.13563	0.4112	0.27514	0.062864	-0.0045642	-0.0094881	-0.016105	-0.079866	-0.10389	-0.034434	-0.059451	-0.054684	-0.061143	-0.080662	-0.056357	-0.001259	-0.049331	-0.061369	-0.070968	-0.06828	-0.0010838	-0.021281	-0.050246	-0.10298	0.095526	-0.0015698	-0.0076072	-0.07794	-0.079165	-0.19432	-0.097001	-0.06851	-0.035454	-0.04386	-0.021948	-0.010404	-0.024518	-0.072623	-0.056999	-0.056973	-0.064851	-0.047317	-0.036282	-0.032474	-0.032895	-0.041294	-0.04219	-0.057058	0.027858	-0.06657	-0.064984	-0.13534	0.3122	-0.20454	-0.079042	-0.057176	-0.047862	-0.039284	-0.037085	-0.032853	-0.0589	-0.027527	-0.0009996	-0.027238	-0.0080315	-0.12489	-0.14283	0.091442	-0.14584	-0.064168	-0.023546	-0.01692	-0.011889	-0.03333	-0.023173	-0.033572	-0.022098	-0.020205	-0.030298	-0.039004	-0.050117	-0.037378	0.0019562	-0.059873	-0.10138	-0.072596	0.039861	0.027492	0.030229	-0.039957	0.044112	0.14626	0.037123	-0.026087	-0.025979	-0.039269	-0.097214	-0.12931	-0.04266	0.015049	0.0091186	-0.059975	-0.019604	-0.053669	-0.078163
-0.14818	-0.15424	-0.003078	-0.086652	-0.076277	-0.036306	-0.13736	-0.033324	-0.063662	-0.055167	-0.036251	-0.047427	-0.097909	0.0045851	-0.047587	-0.043664	-0.059305	-0.061745	-0.054697	0.073087	-0.046208	-0.033985	-0.072912	-0.030982	-0.033113	-0.018087	-0.068962	-0.034361	-0.011847	-0.023709	-0.038221	-0.029582	-0.032262	-0.045436	-0.066546	0.041059	-0.014564	-0.012919	-0.056997	-0.07758	-0.18594	-0.12095	-0.085371	-0.063559	-0.038434	-0.039108	-0.023457	-0.028368	-0.099961	-0.041116	-0.048394	-0.080131	-0.04673	-0.027835	-0.046317	-0.043244	-0.084462	-0.04718	-0.027924	0.02546	-0.00096391	-0.10346	-0.059801	-0.037618	-0.14385	-0.10452	-0.011935	-0.022878	0.015623	-0.020082	-0.020393	0.028587	0.028412	0.025275	-0.029888	-0.1012	-0.11961	-0.17457	-0.096884	-0.021087	-0.087361	-0.001836	0.051575	0.072232	0.038055	0.04419	0.084207	0.11719	0.13261	0.090265	0.076581	0.10485	0.13345	0.22105	0.12096	0.045215	0.21299	0.54205	0.42907	0.29519	0.13616	0.047869	0.16188	0.21028	0.18919	0.2782	0.17528	-0.056062	-0.12346	0.046929	0.17916	0.07217	-0.0091541	-0.0099895	-0.047523	-0.026828
-0.15788	-0.14875	-0.011754	-0.026536	-0.00051854	-0.025793	-0.019297	-0.030444	-0.020003	0.006353	-0.0080493	-0.058618	-0.10579	0.093719	-0.088375	-0.099252	-0.093254	-0.054972	-0.051728	-0.082743	-0.060108	-0.060622	-0.044794	-0.011776	-0.046274	0.18109	0.15001	-0.0020568	-0.098607	-0.097748	0.04489	0.23215	0.25609	0.14259	0.19448	0.53146	0.21927	0.25921	0.14624	-0.0044321	-0.16923	-0.097038	-0.037135	0.064918	0.11913	0.10064	0.14702	0.055071	0.07965	0.054077	0.019584	-0.035987	0.056587	0.06182	0.096318	0.093635	-0.0085028	0.03552	0.12896	0.17533	0.1685	-0.047156	-0.099392	0.057641	-0.17824	-0.057136	0.036034	0.066886	0.034208	-0.0070596	-0.056176	-0.075174	-0.030104	-0.055138	-0.031464	-0.094159	-0.12944	-0.054269	-0.063214	-0.04363	-0.095715	-0.049795	-0.072518	-0.056806	-0.054349	-0.097379	-0.067911	-0.081959	-0.052107	-0.056387	-0.054713	-0.06865	-0.057693	-0.087033	-0.12104	-0.17938	-0.069582	-0.066847	-0.010146	-0.0038783	0.0038564	-0.0086618	0.015552	0.03362	3.5759e-05	-0.0076916	-0.062249	-0.03862	-0.065354	-0.047903	-0.024824	-0.020719	-0.043515	-0.052441	-0.033596	-0.0073772
-0.084994	-0.072181	0.18322	-0.023417	-0.0081463	-0.010084	-0.0070537	-0.039288	0.018451	0.0094523	-0.0063935	-0.022378	-0.063947	-0.010887	-0.035201	0.0032555	-0.027657	-0.017559	-0.043089	-0.07643	-0.049556	-0.04063	-0.030767	0.028258	0.012664	-0.015842	-0.012177	-0.038955	-0.058793	-0.054467	-0.042106	-0.023587	-0.0077239	-0.0060873	0.02009	-0.0086797	-0.0080966	-0.016217	-0.057175	-0.037182	-0.059853	-0.059117	-0.055022	-0.027104	-0.041945	-0.025471	-0.015292	-0.06129	-0.03102	-0.024525	-0.032994	-0.057275	-0.024038	-0.036703	-0.020336	-0.0448	-0.023285	-0.046281	-0.0070712	-0.020412	-0.07107	-0.15053	-0.093442	-0.059548	-0.19518	-0.11055	-0.082573	-0.044598	-0.03721	-0.041716	-0.030583	-0.020534	-0.023102	-0.051798	-0.017582	-0.034154	0.1143	0.40481	0.38982	0.54879	0.26601	0.077445	-0.017279	-0.008034	0.0044234	0.013138	-0.033272	-0.011221	0.0084356	0.031131	0.17064	0.09197	0.02344	-0.053378	-0.080761	-0.10953	-0.090215	-0.13563	-0.050595	0.071426	0.16898	0.30121	0.18098	0.093326	0.03246	-0.010682	-0.051913	-0.063265	-0.062569	-0.063153	-0.013842	0.034244	0.039824	0.023542	-0.046446	-0.05667
-0.055619	-0.075068	-0.11364	-0.20877	-0.23364	-0.057107	-0.075019	0.0039444	0.015525	0.054208	0.059067	0.16814	0.028868	0.35819	0.36485	0.30783	0.14673	0.080956	0.028061	-0.038657	0.018177	0.041746	0.11491	0.20431	0.30035	0.10791	0.044002	0.018273	0.0070756	-0.018291	0.0040628	-0.036867	0.017095	0.117	0.20987	-0.031417	0.016619	-0.0082475	-0.053562	-0.039482	-0.062342	-0.047088	-0.043553	-0.038306	-0.061773	-0.031533	-0.03092	-0.056007	-0.059304	-0.031242	-0.030068	-0.026571	-0.031329	-0.034456	-0.022101	-0.055104	-0.017973	-0.009258	-0.01234	-0.042082	-0.019131	-0.046998	-0.043451	0.013604	-0.048002	-0.04469	-0.011486	-0.02213	-0.018739	-0.013338	0.003558	0.0019245	-0.010749	0.0082121	-0.015605	0.015362	-0.012034	-0.027195	-0.027169	0.070927	-0.010708	-0.021375	-0.0018036	-0.010747	-0.0076595	0.024393	0.0034895	0.011876	-0.013122	-0.011389	-0.0085269	-0.0023972	-0.0066987	0.016415	0.029238	0.0070719	-0.0017393	0.00763	0.012183	-0.003134	-0.019977	-0.036112	-0.087478	-0.053331	-0.038015	-0.000996	-0.012328	-0.0023892	0.013466	-0.02383	-0.043968	-0.10129	-0.22769	-0.21152	-0.043814	-0.023882
-0.039261	-0.058465	-0.005442	-0.089297	0.02902	0.0010423	-0.031915	-0.042399	-0.043208	-0.032718	0.010227	-0.0024038	-0.010004	0.0029785	-0.036347	0.0012585	-0.031884	-0.030595	-0.066197	-0.1359	-0.036472	-0.042044	0.028673	-0.006993	-0.019109	-0.034272	0.033261	-0.032531	-0.047227	-0.05069	0.0003843	-0.025727	0.030659	-0.01986	-0.029941	-0.017674	-0.023089	-0.0038774	-0.025417	-0.034815	-0.036885	-0.038882	-0.048417	-0.038368	-0.052362	-0.047498	-0.0003043	-0.03884	-0.080423	-0.030757	-0.032776	-0.048022	-0.039568	0.025415	0.0048838	-0.013984	-0.051496	0.031958	0.049127	0.072528	-0.031439	-0.076141	0.071349	-0.01688	-0.073809	0.039972	0.033471	0.12797	0.11275	0.0013391	-0.056738	0.0030199	0.055431	0.14263	0.22224	0.76662	-0.052569	-0.060222	-0.0063363	-0.00069731	-0.18997	0.11176	0.15424	0.096832	0.037818	-0.016538	-0.039554	0.029028	0.016719	0.063539	0.010463	-0.013285	0.0042314	-0.041935	-0.014481	-0.06229	-0.04658	-0.085191	-0.065047	-0.028272	0.096175	-0.039542	0.075646	0.051075	0.0038121	-0.0012698	0.0048274	-0.0083586	-0.0059345	-0.016154	0.012101	0.011636	0.013919	-0.00032587	-0.0067492	-0.0018684
-0.059896	0.031016	0.028489	0.040926	0.10414	0.0095854	0.0093153	-0.01666	-0.004104	-0.12161	-0.014523	0.032909	0.018109	0.011983	0.028119	-0.010454	-0.017027	0.0086782	0.0055225	0.011425	-0.0074872	-0.0077693	-0.0034918	0.017679	-0.0073231	-0.044246	-0.079454	-0.024371	-0.018727	-0.011094	-0.049907	0.0044927	-0.019428	-0.047006	-0.05745	-0.011284	-0.0044493	-0.0048031	-0.025394	-0.018798	-0.053894	-0.0094237	0.0033573	-0.0064371	-0.027307	0.015472	-0.01027	0.011178	0.011298	0.0075856	-0.0010792	0.0043041	0.034728	0.030026	0.031725	0.010884	-0.050137	0.030222	0.067871	-0.031004	-0.099023	-0.042916	0.086565	0.014258	-0.058418	0.03359	0.75204	0.1201	0.10666	0.074753	0.040544	0.0046059	0.04836	0.05076	0.08132	-0.14466	-0.0026294	-0.016915	0.023686	0.066784	0.049882	0.026499	0.025766	0.045367	0.038536	-0.045792	-0.045157	0.0099182	0.022971	0.0098402	0.015835	0.0020514	0.0071339	-0.014224	-0.019733	0.023876	-0.012163	-0.0133	0.019641	0.016246	-0.020987	-0.0016956	0.029889	-0.025531	-0.017468	-0.0144	-0.01826	-0.029732	0.043628	-0.039478	-0.04957	-0.047377	-0.16894	-0.087761	-0.013207	-0.0087845
0.023616	0.049471	-0.023123	0.035561	0.06183	-0.018963	-0.032909	-0.022198	-0.018179	-0.014541	-0.01629	0.036802	0.018312	0.11923	0.040602	0.0097661	-0.045487	-0.015632	-0.019348	0.035186	-0.024632	-0.025562	-0.034402	-0.033754	-0.04319	-0.045021	-0.085556	-0.02678	-0.020232	-0.023755	-0.023994	-0.019823	-0.0071902	-0.030091	-0.065016	-0.23049	-0.037639	-0.038592	0.042794	-0.017796	-0.069711	-0.031559	0.0017173	-0.0092675	-0.023931	0.048747	0.011042	-0.019081	-0.040201	0.039028	0.02197	-0.0071149	0.050641	0.052677	0.067198	0.10078	0.027945	0.030553	0.092242	0.025587	0.68562	0.040002	0.15878	-0.12486	-0.070855	0.059345	-0.065245	0.091897	0.038751	0.018268	0.0015919	-0.0053071	-0.013311	0.00012748	0.018021	-0.035073	-0.02296	-7.7845e-05	0.037534	0.12714	-0.032399	-0.012019	-0.041825	0.021341	-0.0071332	-0.026936	-0.0087547	0.011354	-0.019971	-0.012293	0.0064846	-0.0018928	0.012725	0.02517	0.01839	-0.021076	0.0068427	0.018872	0.0047088	-0.016618	-0.014721	0.0057876	0.015021	0.0020602	-0.026768	-0.00584	-0.016366	0.0046527	0.017291	0.0029548	-0.016795	-0.042781	-0.072886	-0.042992	-0.022083	-0.0299
-0.042932	0.043146	0.031754	0.011682	0.21609	-0.0074667	-0.0073999	0.007043	-0.043804	-0.10484	0.037838	0.022634	0.066888	0.054394	-0.053424	0.0015316	-0.021696	-0.0065686	0.0084229	0.1741	-0.0041383	0.015025	-0.054648	-0.026063	-0.026794	0.043195	0.039551	0.041267	0.038178	0.049827	0.066241	0.062089	0.028839	0.024023	-0.0051075	0.090533	0.024027	0.043432	-0.022434	0.055468	0.34106	0.078606	0.033488	0.038354	0.0048787	0.050067	0.023393	-0.043838	-0.011583	0.0088177	0.042742	0.06736	0.01379	0.018757	-0.01114	-0.013522	0.12044	-0.0048113	-0.013585	-0.097391	-0.016951	-0.14166	-0.042829	0.084859	-0.20046	-0.045522	-0.099431	-0.011232	-0.025471	0.01181	0.040585	0.01102	-0.0015553	0.018624	-0.012553	0.05733	-0.043265	-0.051994	0.015161	0.12191	-0.032314	0.0065087	0.024504	0.022533	0.00059546	0.060677	0.050244	0.060766	0.030858	0.029241	0.027778	0.019465	0.017507	0.043695	0.098875	-0.10235	0.032445	0.024009	0.059801	0.017213	-0.032801	-0.0028222	0.057018	-0.047487	-0.0014252	0.016671	0.068925	0.031937	0.40545	0.023772	-0.028887	-0.048145	-0.17319	-0.10929	0.040966	0.0073935
0.047443	-0.065525	-0.014336	0.010764	0.0049661	-0.0095579	-0.00070857	-0.014307	-0.016265	-0.012117	0.010214	0.009173	-0.0063197	0.0028472	0.0016762	0.0018124	0.014251	-0.0019836	-0.020798	-0.0082176	-0.009524	0.0054298	0.0071517	-0.0017975	0.0044995	0.00012751	-0.0046198	-0.013859	-0.016479	-0.014191	-0.0064788	-0.010011	-0.0063094	-0.00051914	-0.010563	0.071749	0.052345	0.021725	-0.037663	-0.024997	-0.020695	-0.043693	-0.035905	-0.023097	0.0031356	0.046192	0.19928	0.12217	-0.075379	-0.03384	-0.028024	-0.038447	-0.042239	-0.017339	-0.034616	0.0030698	-0.0018395	-0.020694	-0.050928	-0.070097	-0.10815	0.077055	0.63407	0.15527	-0.068386	-0.0053003	-0.076348	-0.038338	-0.029911	-0.022977	-0.0091098	0.00054148	-0.0068882	-0.032926	-0.031678	-0.032881	-0.046859	-0.022713	0.036248	0.046412	0.017055	-0.033654	-0.00091935	-0.010481	0.0068011	0.035209	0.0048306	0.0052025	-0.0023116	-0.018437	-0.0018336	-0.015501	-0.016776	0.019267	-0.0037017	-0.0045257	-0.0066725	-0.0028869	-0.0037199	-0.0040121	0.0093005	0.018565	-0.005196	-0.0069335	0.0017636	0.0069023	0.0063727	-0.015405	-0.0023339	-0.019216	-0.0032607	-0.014242	0.0029473	-0.0077821	0.00020319	-0.01663
-0.019524	-0.0059418	0.0075465	0.021088	-0.010327	0.0026863	0.030497	0.12782	0.070684	0.0028751	-0.046674	-0.03106	-0.0026402	0.012734	-0.0039218	-0.021287	-0.0015857	0.087937	0.18939	0.46288	0.21025	0.11566	0.031863	-0.0056803	-0.02623	-0.015406	-0.010528	0.056848	0.12337	0.15173	-0.0032045	-0.014595	-0.017633	-0.00024033	-0.002722	0.0055075	0.0037258	0.0014597	-0.030274	-0.043322	-0.12462	-0.091604	-0.031458	0.0039056	-0.010859	-0.0069812	0.005942	0.018559	0.0087305	-0.012397	-0.008354	-0.025797	-0.014328	0.012225	-0.0099626	-0.0067821	0.041059	0.0086849	0.0080112	-0.067451	0.0090388	-0.00091505	-0.0036775	0.002902	-0.0020016	-0.049433	0.011521	0.014766	0.0082759	-0.016861	-0.010056	-0.034416	-0.0056764	0.014833	0.0081852	0.10772	-0.032977	-0.011069	-0.00027257	0.0045993	0.0091107	-0.024151	0.0052423	-0.0074676	-0.020582	0.0052823	-0.036833	-0.0054304	-0.032456	0.0010329	-0.0016942	-0.0049112	-0.011618	-0.014935	-0.053719	-0.22456	-0.089187	-0.0037057	-0.00078302	0.011349	0.0064693	-0.0038416	0.0097954	0.0081289	-0.0010843	-0.0091944	-0.057361	-0.15127	-0.13419	-0.050829	-0.015565	-0.0074568	0.0043041	0.0027838	0.010273	0.060243
-0.029287	-0.031746	-0.040011	0.061776	0.061488	-0.022297	-0.04547	-0.011501	0.0087838	-0.044755	0.01538	-0.033328	0.0061405	0.033233	-0.026594	-0.013011	0.0063575	0.03922	-0.018061	-0.028628	-0.010049	-0.014901	-0.04084	0.015972	0.02022	0.0016911	-0.0038563	-0.014439	-0.012875	-0.016011	-0.030411	-0.0019572	-0.025288	-0.0015513	0.014433	0.042883	0.021373	-0.011216	-0.016218	-0.018783	-0.01491	-0.028638	-0.0060176	-0.0075884	-0.022096	-0.0096976	-0.0012576	-0.022197	-0.013655	-0.0071231	-0.012745	-0.019883	0.013685	0.00089208	0.013062	-0.0043369	-0.035724	0.0044561	0.011715	-0.013621	0.046823	0.0017055	-0.0036566	0.0076562	-0.055702	-0.011436	-0.075714	0.02966	-0.0011711	-0.0067153	-0.016399	-0.016535	0.0048767	0.05406	0.060511	0.016848	-0.0084885	-0.090003	-0.060657	-0.19872	0.50936	0.11706	0.079481	0.050983	0.0084627	-0.015685	0.019888	0.014493	0.075146	0.1095	0.068276	0.065082	0.047674	0.02101	-0.021478	-0.039632	-0.021613	-0.0096572	-0.014701	-0.029498	-0.0040555	-0.035868	-0.058591	-0.054148	-0.034942	-0.027043	-0.022913	-0.014	-0.0098758	0.0030014	-0.023154	-0.017492	-0.015896	-0.028706	0.0072654	-0.012958
-0.010738	-0.0065134	-0.017934	-0.014699	-0.012951	-0.018371	-0.014825	-0.0027928	-0.017138	-0.0094801	-0.0095206	-0.0060547	-0.020282	-0.008784	-0.0047735	-0.011086	-0.013204	-0.010927	-0.0070463	-0.010745	-0.0092174	-0.0017167	-0.011257	-0.00064748	-0.011481	-0.010102	-0.011601	-0.0058522	-0.0061768	-0.00017752	-0.012314	-0.016963	-0.00061989	-0.016573	-0.0063312	-0.014131	-0.013129	-0.025632	-0.0085936	-0.011888	0.0048867	-0.01436	-0.024026	-0.02422	-0.022431	-0.021155	-0.012537	-0.025512	-0.057979	-0.023217	-0.019966	-0.031604	-0.047188	0.61903	-0.032826	-0.035378	-0.049052	-0.039204	-0.061654	-0.060965	-0.029205	-0.013801	-0.015555	-0.0050712	-0.013359	-0.017024	-0.015662	-0.032032	-0.037356	-0.02611	-0.024347	-0.025157	-0.017248	-0.014008	-0.0099162	-0.025294	-0.0087875	-0.0054557	-0.011984	-0.007735	-0.0085237	-0.0038778	-0.020285	-0.025117	0.0043164	-0.018109	-0.011624	-0.01773	-0.0097364	-0.0067701	-0.0059259	-0.018833	-0.011237	-0.018222	-0.0043432	-5.8644e-05	0.00047591	-0.013439	-0.0061448	-0.007147	-0.016437	-0.0067495	-0.0080053	-0.0091435	-0.0093176	-0.017318	-0.012747	0.0044967	0.0028425	-0.0084308	-0.0054369	-0.010064	-0.010513	-0.0055841	-0.002378	-0.010908
0.0078488	-0.0029423	-0.0015099	0.0063313	0.0071729	-0.0013689	-0.0088513	-0.0050191	-0.0049039	-0.0033822	0.0027201	0.0039992	0.0043628	-0.010935	-0.020196	-0.010829	-0.00053576	-0.00054724	-0.0029976	-0.007499	0.0036641	0.012421	0.032246	0.099473	-0.051706	0.49042	0.13254	0.023774	-0.0044315	-0.010179	-0.00075812	-0.012989	-0.12381	-0.26011	-0.11355	-0.031474	-0.036005	-0.025524	0.0036041	-0.0062984	-0.019296	-0.012292	0.0021052	-0.0016995	0.00041949	0.00047455	-0.0045586	0.0034016	0.0029043	0.0026606	-0.0023623	0.00078511	-0.0033329	0.00018826	0.0064593	0.00086903	0.001844	-0.0010379	0.0045515	0.001697	0.010463	0.0041515	0.0038275	0.0082003	0.00046023	-0.0027977	0.0078735	0.0041715	0.0057212	-0.0043173	0.0040308	-0.0072223	0.0010943	0.0018354	-0.0014712	0.0010593	-0.00083735	0.0053026	0.0001941	0.0072252	-0.0011971	-0.0012111	0.0020759	0.00051097	-0.0036892	-0.00091818	-0.0040619	-0.0027537	-0.007269	-0.0013977	0.0038906	0.00019854	0.00059477	-0.00099854	-0.0069805	-0.0093401	0.00041199	-0.00074608	-0.0014458	-0.0016676	0.0015484	-0.0019665	-0.0029159	-0.0010367	-0.0035412	0.0016631	-1.1706e-05	-0.00013247	-0.002212	-0.0080907	-0.00065025	0.0010472	-0.0028606	-0.001422	-0.010043	-0.0058941
-0.053177	0.025226	0.048256	0.013241	0.12941	-0.015336	-0.003594	-0.012247	-0.036273	-0.064875	0.049929	0.015984	0.02374	0.0094264	-0.038757	0.006607	-0.012447	-0.015509	-0.016471	0.022929	-0.031243	0.0069154	-0.0090394	0.00194	-0.031657	0.0040211	-0.02487	-0.01364	-0.00177	-0.02125	-0.015275	-0.0081698	0.018738	-0.0025417	0.0020957	0.073732	0.00017067	0.021622	-0.011327	-0.025077	-0.076387	-0.025393	-0.016972	-0.0085115	0.01541	0.0080035	0.0061711	-0.0027006	-0.035659	-0.022211	-0.012183	-0.0074611	-0.0089278	0.0079336	-0.015199	-0.0069905	-0.026189	0.0073799	0.013672	0.042002	-0.012018	-0.081252	0.005878	0.037563	0.47401	0.028274	-0.091862	0.016922	0.021572	0.014969	-0.0010106	0.0051035	0.010203	0.021394	0.0046766	-0.0051944	-0.097943	-0.0025704	0.028057	0.10742	0.013082	-0.0078613	0.016487	0.00086526	0.011058	0.0015488	-0.0023745	0.0010776	0.0072393	0.023954	0.027781	0.031654	0.0099963	-0.0032056	-0.0068367	0.01257	0.0079138	0.0041716	0.018698	0.0068043	0.010159	0.0071811	-0.014929	-0.010977	-0.016201	-0.015114	0.0064489	-0.011222	-0.011572	-0.011737	-0.0027537	-0.041907	-0.14902	-0.10223	-0.011524	-0.0033603
-0.041813	-0.084943	-0.0099829	-0.061784	-0.018091	0.036377	0.03802	0.046946	0.11314	0.33801	0.28772	0.094034	-0.028733	-0.088186	-0.10386	0.00068575	0.10576	0.085992	0.030717	-0.050374	0.010292	0.018418	0.020793	-0.054081	-0.12478	-0.057994	-0.024953	0.012775	0.019317	0.024543	0.016405	0.039663	-0.0093378	-0.055588	-0.10781	0.015867	-0.0069531	0.0036333	0.030889	0.012825	0.012467	0.017712	0.009477	0.0093488	0.0069129	0.012479	-0.0045509	0.014509	0.0095817	0.0024576	0.0027215	0.014959	0.0070547	0.017584	0.0077123	0.011788	-0.0018219	0.015799	0.0095616	0.015761	0.0107	-0.0067817	0.0014002	0.0059786	-0.041575	-0.0061912	0.0081829	-0.0069791	0.0090734	0.0048997	0.00036203	-0.004621	-0.0037715	0.0093008	0.0059849	-1.4175e-05	-0.014568	-0.00012691	-0.018585	0.026971	0.013271	0.006838	0.0079534	0.020697	-0.0006394	0.0092476	0.021865	0.018162	0.015108	0.014439	0.018922	0.0091229	0.01481	0.0036806	0.010592	0.0054396	0.012521	0.012207	0.01768	0.00043227	-0.0091775	-0.0044996	-0.015934	-0.0062168	-0.0098109	0.0029064	-0.0027639	0.0036462	-0.036013	-0.035212	-0.030499	-0.051855	-0.089131	-0.11658	-0.027971	-0.006509
0.0041527	-0.0062268	0.0087057	0.0063588	0.0016861	-0.0034551	0.0024853	0.005866	0.0039589	0.017417	0.00040951	0.010255	0.0026376	0.0057677	0.00077867	0.00077019	-0.032862	0.018003	0.0074516	-0.0091673	0.0056054	0.0060939	0.005236	0.0023747	0.0085272	0.0091225	-0.0020952	0.0038765	0.013963	0.0051334	-0.0031503	0.0027234	0.018182	-0.0027571	0.0080011	0.0083674	0.0089129	0.0021064	-0.015843	-0.0015301	0.0018389	0.012454	0.015996	0.0036277	0.001304	0.019454	-0.0040993	-0.0013254	-0.001143	-4.8943e-06	0.0087294	-0.0029608	-0.018234	-0.011861	0.00097631	0.0073588	-0.0012058	-0.0043639	0.0017084	-0.024348	0.02023	0.015252	-0.0099444	0.0086362	0.004159	-0.015037	-0.011758	-0.0065616	-0.025322	0.0056529	-0.008346	-0.040569	0.015228	-0.039397	-0.020218	0.0037614	0.00071714	0.010924	0.0050447	-0.022698	-0.0072559	-0.00068844	0.020763	-0.026436	0.52706	-0.084478	-0.0095247	-0.0074923	-0.028502	-0.014638	0.0013229	-0.0020659	-0.00078289	0.0078161	-0.0081393	-0.013454	-0.0087513	0.0058377	0.0022467	0.014144	-0.013087	0.0079386	0.0025542	-0.004488	0.0021695	0.0070818	-0.00091397	-0.0029277	0.012743	-0.023056	-0.0038298	0.0077813	0.011451	-0.010371	-0.00095074	0.002072
-0.0003997	-0.001606	0.0029377	-0.0029461	0.0034415	-0.0039619	-0.0024264	0.0026559	0.0023229	0.0082442	0.0027397	0.0017172	-0.00030715	-0.0014814	-0.0027744	0.0026789	-0.0025517	-0.00061042	-0.0052191	-0.0057957	0.001974	0.003639	-0.0032801	0.00022534	0.00089878	0.00041806	-0.0023586	-0.00045526	-0.00019793	0.0019038	-0.0031588	-0.0063306	-0.0055586	-0.0011218	0.0033432	0.0020003	-0.0026868	-0.0048389	-0.0060979	-0.0074766	-0.018239	-0.041315	-0.036894	-0.017696	-0.022464	-0.008612	0.001262	-0.0055483	-0.025183	-0.032355	0.53395	-0.038513	-0.03252	-0.0058689	-0.012047	-0.01012	-0.030466	-0.017016	-0.018328	-0.0052596	-0.00777	-0.0061563	0.0050895	0.0056688	0.0022123	-0.0029305	0.0040819	-0.0050443	-0.0072799	-0.0096655	-0.011889	-0.0031287	-0.0037821	0.008627	0.0071287	0.0047674	0.0033226	-0.00077924	0.00096974	-0.0055067	0.0036784	-0.0026532	-0.0020202	-0.0019561	-0.014464	-0.0065673	-0.0051138	-0.00079864	-0.0040004	-0.0064263	-0.0022031	0.011761	-0.0024379	0.001098	-0.0069628	0.0088531	-0.0019821	0.0028745	0.0023614	-0.0067618	0.0033824	-0.0023463	0.0030324	0.0042543	-0.0050233	-0.0030122	-0.0052996	0.003471	-0.00086235	0.00014215	-0.0015797	0.0040897	-0.0018091	-0.00056437	-0.0020386	0.0016624
0.011025	-0.0052526	0.00074256	0.007363	0.021201	9.0648e-05	-0.028451	-0.0003419	0.014817	-0.011939	0.016181	0.008105	0.0051974	0.0092313	0.0037541	0.0015489	-0.0085665	0.011824	0.0065346	-0.014867	0.015683	0.0055181	-0.019774	0.0049295	-0.031417	0.067214	0.030085	0.019809	0.014583	0.0018986	0.014231	-0.0092173	0.46668	-0.0053116	-0.11336	-0.12492	-0.01081	0.014734	-0.028759	0.0011039	-0.015103	-0.027044	-0.0012169	-0.0080242	-0.018665	-0.0093981	-0.024126	-0.029136	-0.018254	-0.015998	-0.0045223	-0.010883	-0.0052974	-0.01866	-0.021451	-0.021281	-0.003984	-0.012979	-0.015947	-0.049312	-0.033262	0.0079577	0.011587	-0.023697	0.0077549	-0.0010696	0.011546	-0.022999	-0.0067077	-0.0079071	0.012591	-0.0082508	-0.0053287	-0.012338	-0.0098192	-0.0061795	0.0039481	-0.0055045	-0.0013673	-0.00091523	0.028163	0.0074657	0.0026634	0.0051374	-0.016879	0.000757	0.012026	0.0024795	0.010655	-0.011147	-0.0004986	-0.00059807	-0.0011025	-0.001182	-0.0077067	-0.0067404	0.0015135	0.018287	0.0024389	-0.0044679	-0.027748	0.001104	-0.01905	-0.0042299	0.0024961	0.0021514	-0.0029471	0.012247	-0.011231	0.0072934	-0.0047787	0.0056482	0.0088901	0.014075	0.011772	0.0017517
-0.042697	0.018448	-0.024705	0.020112	0.0023592	-0.0048682	-0.006698	0.0032075	0.0029974	-0.035845	-0.011458	0.012813	0.015473	0.052114	0.0061432	-0.00012499	0.0092945	0.017723	0.020064	0.052488	0.034444	0.0037077	-0.010478	-0.015903	0.0050251	-0.019136	0.010299	0.015269	0.0077701	0.029314	0.01668	0.0094756	0.0046157	-0.021407	-0.04093	-0.082847	-0.023287	-0.018663	0.039569	0.017727	0.005214	0.00026653	-0.0029356	0.0091198	-0.015896	-0.013566	-0.03128	-0.068807	0.0080212	0.011385	0.013406	0.0034878	0.060227	0.037472	0.021733	0.015469	-0.022873	0.037558	0.045922	0.41645	-0.12999	-0.015944	0.073077	-0.051597	-0.058622	0.0020552	-0.063541	0.004607	-0.012062	0.026719	0.0016714	-0.0010654	0.021308	0.00093649	-0.020203	-0.040786	-0.018957	-0.031711	0.027131	0.0065342	0.012683	-0.010421	-0.034396	0.00022779	0.033751	-0.014914	-0.0050519	-0.01626	0.05671	-0.026939	0.0017874	-0.008771	-0.0097212	-0.026291	0.011616	0.013673	-0.0016398	-0.011707	-0.0066957	-0.013379	0.019893	0.004254	-0.0088272	-0.0019649	-0.0056876	0.013696	-0.0034623	-0.016773	0.020092	-0.0096859	-0.0069836	-0.016615	-0.018621	-0.015256	0.0082303	-0.0045131
-0.025059	0.058557	-0.049478	-0.017823	0.099682	-0.0066036	-0.030026	-0.0077245	0.0011367	0.004601	0.042686	0.0039868	-0.0051393	-0.0077956	-0.01667	-0.008249	0.013839	-0.011799	-0.016314	0.045158	0.0028214	-0.0068148	-0.027764	0.00099935	0.036116	0.019586	0.01451	-0.0054163	-0.03103	-0.017654	0.0032638	0.003343	0.0035256	0.034826	-0.011763	0.059528	0.0019406	0.021546	-0.024135	-0.019635	-0.033855	-0.026669	-0.038229	-0.013344	-0.018925	0.0090271	-0.0017595	0.0012945	0.0085918	-0.0087176	-0.011214	-0.01813	-0.01201	0.010753	-0.0060513	0.0040925	0.0018207	-0.014373	0.029597	0.015055	-0.0059148	0.00071296	0.028191	-0.015647	0.010387	0.027162	-0.037976	0.014755	0.00084153	0.0068509	0.0064027	0.011339	-0.0013088	0.031364	0.035979	-0.022432	0.43468	-0.017999	-0.0034852	-0.021833	-0.067004	0.032079	0.016806	0.016954	0.0088038	0.0037665	-0.0011075	-0.0091964	0.009409	0.0022957	0.027422	-0.0040632	-0.0062045	0.017225	-0.02138	-0.012213	0.0041226	0.044177	0.0019428	-0.0027611	-0.016261	-0.0060873	-0.013751	-0.0092826	-0.0069539	0.010293	-0.010455	-0.018744	-0.021159	-0.0010539	0.0060615	-0.0039221	-0.027801	-0.030238	-0.011207	-0.011418
-0.01008	-0.019626	-0.0078079	0.013607	0.022267	-0.0072497	-0.037628	-0.0019417	-0.0022638	-0.0085338	0.03328	0.012018	0.011384	0.017178	0.0088381	-0.0076371	-0.002975	-0.0082028	-0.0047494	0.0085427	-0.0011488	-0.0044927	-0.011738	0.0093328	-0.0028209	-0.0073409	-0.012949	0.0052312	0.018559	0.0082755	-0.003244	-0.0031809	-0.0035617	-0.017573	-0.007097	0.0063612	-0.001363	0.0079259	0.00099338	8.7893e-05	0.038427	0.010768	-0.018125	-0.00055668	-0.012451	0.007401	-0.0044228	-0.0078564	0.0013565	-0.0081149	0.00032417	-0.022729	0.0033852	-0.0054284	-0.0015258	-0.0021196	0.0088761	-0.011454	0.008775	-0.0092097	-0.0014987	0.01562	0.0011351	-0.020534	-0.018084	-0.012399	0.011598	-0.0020537	0.0027605	0.0030943	-0.010755	-0.0040808	0.0049948	0.0010744	-0.00024812	-0.022187	-0.018264	0.019207	-0.0034946	0.0085517	-0.0052516	-0.0010805	0.017225	0.0083975	0.0030428	0.0044556	-0.0057704	-0.0021801	0.007837	-0.0051242	-0.0071273	-0.0099096	0.0016977	-0.03146	-0.016133	-0.011515	-0.016931	-0.080989	-0.04088	-0.023515	-0.048216	-0.0024051	-0.01814	-0.021428	-0.069595	0.027513	0.015604	-0.013259	-0.043043	0.058099	0.42962	0.058036	-0.00024792	-0.10006	0.023105	0.0090059
0.00025302	-0.0069581	0.021039	0.0010311	-0.0040851	0.0043033	-0.026776	-0.010191	-0.004614	-0.033232	0.018845	-0.010407	0.0074681	0.039767	0.0076305	-0.0055672	-0.0090529	-0.018954	0.0031256	-0.026053	-0.0095482	-0.0062175	0.023074	-0.012182	-0.010726	-0.0093469	-0.029374	-0.015974	-0.016647	-0.025453	0.0090455	-0.011241	-0.015014	-0.0015708	-0.016271	-0.060608	-0.010351	-0.0011323	-0.024165	-0.006161	-0.055828	-0.01897	0.010865	0.049705	0.023845	0.037715	0.0058438	-0.055141	0.41829	0.047117	0.022527	0.012913	0.027699	0.030322	0.042053	0.041411	-0.01887	-0.00087533	-0.010872	-0.065437	-0.050626	-0.047501	0.050418	-0.015031	-0.0041929	-0.038605	-0.040212	-0.030891	-0.014363	-0.016265	0.011363	-0.028194	-0.019995	0.0098873	0.00096628	0.040271	-0.0014537	-0.038465	-0.0047472	0.022309	0.00037239	0.00025622	-0.010856	0.0071202	0.00059036	-0.010019	-0.011143	0.020932	-0.02887	0.01594	0.0013794	0.0061255	0.0055801	-0.0041503	0.0091801	-0.0020098	0.0046718	0.021855	0.015569	0.014868	-0.012172	-0.0011599	-0.011768	-0.005195	-0.0035568	0.0047555	-0.00029048	-0.0050553	-0.018261	-0.0012484	0.0078094	-0.011162	-0.036341	-0.0072726	-0.002433	0.0012985
0.033898	-0.011068	-0.0021221	-0.0065444	0.066099	0.023386	-0.0037166	0.01314	0.0056318	-0.0015246	-0.0047495	-0.0166	0.011607	0.00022417	0.019629	-0.0087712	0.0094007	-0.0094852	0.0082026	0.10409	0.020846	0.020893	-0.011205	0.00048343	-0.023645	0.014191	0.028822	0.016086	-0.00034241	0.0094627	0.0051353	0.0040547	0.020147	0.026021	-0.011672	0.074443	0.011057	0.006916	-0.013435	0.0057344	-0.13197	-0.0117	0.0025225	-0.020535	-0.028909	-0.0072678	0.015686	-0.0048614	0.0092507	0.0069557	-0.0042605	0.010353	-0.007747	0.014567	-0.00035615	-0.004947	0.036125	0.00021011	0.002681	-0.015999	0.016135	-0.030751	-0.028604	0.022441	-0.075198	-0.015969	-0.027608	0.0050871	0.0054747	0.011046	0.027754	0.023587	0.018432	0.018981	-0.016735	0.018117	-0.014527	-0.0065557	-0.018695	0.026731	0.0019039	-0.008083	-0.017259	0.028917	0.027596	0.031317	0.025023	0.045598	0.03137	-0.0060702	0.01682	0.014962	0.054764	0.043726	0.054136	0.34591	0.023148	-0.17994	-0.019036	-0.018256	0.0025114	-0.0045812	0.0078769	0.027175	-0.0056715	-0.00094159	0.012527	0.0077495	-0.03218	-0.0070593	-0.009029	-0.0010974	-0.026377	0.029896	-0.0059681	0.0065503
-0.01425	-0.0051614	0.030592	-0.044597	0.091427	-0.013831	-0.015636	-0.011456	-0.02636	-0.02484	0.016975	0.010419	-0.0028414	0.039598	0.012208	0.0046627	0.0034241	0.0016999	0.0017248	-0.0025684	0.00021584	-0.005635	-0.019455	-0.0080363	-0.0086155	-0.013926	0.0077975	-0.0082963	0.0061811	-0.012088	-0.0095758	-0.0046095	-0.0049719	-0.015503	-0.0043324	-0.0027116	0.0018273	0.0047771	-0.0065215	-0.010375	-0.030949	-0.0022352	-0.014242	-0.0067439	0.019455	0.019158	0.032109	-0.00017065	0.010407	0.012065	0.009265	0.012007	0.012278	0.016849	0.019277	0.032912	0.0092252	-0.00044817	0.016755	-0.0093851	-0.070092	0.42648	-0.078573	-0.010433	-0.018062	0.0089061	-0.027632	0.018657	0.02232	0.0091139	0.001155	0.0045442	1.8779e-05	0.01376	-0.012524	0.028132	-0.022408	0.0036691	0.0080595	0.050631	0.0048007	0.0092767	-0.0072573	-0.0013129	-0.0058094	0.0060648	0.0071497	0.00092112	-0.017105	0.0088169	0.016257	0.01058	0.00039391	0.0017695	0.011037	-0.0072095	-0.0037076	-0.0023345	0.038734	0.035964	0.022839	0.0082697	0.028476	-0.0028206	0.003071	0.0045688	0.0031581	-0.0044253	0.010682	-0.0020871	-0.013688	-0.016683	-0.056954	-0.016054	0.012732	-0.009644
0.00076063	0.0055041	-0.015011	-0.0038022	-0.0032975	-0.014517	-0.0051696	-0.0040123	-0.0010456	-0.0077303	-0.0021295	-0.0046025	-0.0034016	-0.00014771	-0.0042489	-0.0055513	0.0044105	0.0059488	0.001049	0.0015385	0.011094	0.0036991	-0.020448	-0.0017887	-0.0051858	-0.0043173	-0.0071356	-0.0023256	0.00019593	-0.0012105	0.0062767	-0.0057963	-0.0025221	0.0012602	-0.017674	-0.0056403	0.0019581	-0.0014534	0.00014769	-0.00050293	0.00040989	-0.0083893	-0.014051	-0.0023821	-0.0073089	-0.0046967	-0.015769	-0.031762	-0.062886	-0.013031	0.0010225	-0.012187	-0.0067953	-0.0052682	0.43941	-0.016923	-0.0068426	-0.017087	-0.036908	-0.043053	-0.04223	-0.021029	0.007601	0.0034354	0.004732	-0.0013773	-0.020417	-0.01052	-0.0055539	-0.011469	-0.0058744	0.0046841	-0.0075017	0.00077129	0.0067742	-0.0087565	0.00099282	0.011359	0.0012462	-0.0037797	-0.013273	-0.011116	0.00061471	-0.0060044	0.0009464	0.0024813	0.0016801	0.0035253	-0.004375	-0.0066947	-0.0019464	-0.0045748	-0.0027626	0.0055353	0.0025871	0.0045924	-0.00093261	0.0017911	0.0006399	0.0094809	0.0078259	-0.0026111	-0.00441	-0.010202	-0.0058677	-0.0018374	0.0027331	0.0080227	-0.011559	-3.3657e-05	-0.0033672	0.00016026	-0.0057204	-0.0050621	0.008399	0.0040485
0.009685	-0.0019015	0.0042638	0.0011652	0.0089839	-0.00213	-0.0045635	-0.00061882	0.0074339	0.0062804	-0.0037136	0.0028209	0.0098327	0.0055237	0.00052893	0.0035978	-0.00099002	0.0021029	-0.0027578	-0.010862	-0.0012993	-0.0055913	0.0077946	-0.0005859	0.011796	0.006612	-0.0039715	0.0014663	-0.0060372	0.0036586	0.011573	-0.005834	0.0032784	0.0059702	0.01041	0.0030083	0.0067283	-0.0028923	0.0014423	-0.0049101	-0.0019023	0.015329	0.0017439	0.011429	-0.014111	-0.0055065	-0.00377	-0.0034401	-0.0010188	0.0043652	0.002269	-0.006836	0.0032035	0.0075762	0.0024803	-0.0029089	0.011582	-0.0045048	0.001119	0.005149	-0.011081	0.009742	0.01401	0.0014325	0.0048846	-0.0013229	-0.0011792	-0.00056642	0.0087853	0.0083877	0.00098867	0.0085848	0.0077789	-0.0025126	-0.0060488	-0.012955	-0.001613	0.0147	0.0084428	-0.020647	-0.038939	-0.0091805	-0.019202	0.00030159	-0.0036191	-0.0021589	-0.0012868	-0.0087368	-0.012541	-0.014918	-0.006987	-0.0014219	0.4372	-0.051501	-0.029935	-0.049427	-0.0069717	0.0070453	-0.032209	-0.01487	-0.014595	-0.0073989	0.0052353	-0.01418	-0.00079569	-0.0086504	-0.0043393	-0.003323	0.0034679	-0.001423	-0.014022	0.0060455	0.0070562	0.0017929	-0.0016617	0.004208
-0.0066838	0.001251	-0.0017301	0.00055678	-0.002849	-0.011929	-0.021243	-0.0052455	-0.0015925	0.009364	-0.0064071	-0.0039189	-0.0034464	0.0031755	-0.0024226	-0.0012906	-0.0074247	-0.0098879	-0.00083548	0.0053176	0.0002433	-0.0064888	-0.00085922	-0.0059622	-0.0039032	-0.0023686	-0.0061963	-0.00078116	0.0010427	0.0052052	-0.01323	-0.0079644	0.0033026	-0.0022031	-0.0027128	-0.0031692	-0.0025999	-0.0041586	-0.010703	0.0055315	-0.012665	0.0049284	-0.010442	-0.0009957	-0.0038795	-0.013655	-0.0036311	0.00779	0.0054135	-0.0049696	-0.0015981	0.0048792	-0.0030708	0.0026217	-0.0015612	-0.0019102	-0.0033142	-0.0054786	-0.0017332	0.0049059	0.0093879	0.0030179	-0.0029693	0.00055	-0.0029093	-0.014052	0.0072354	-0.00045956	-0.00058508	0.0047458	-6.3122e-06	-0.011969	-0.0061249	0.0035071	-0.0011526	-0.010392	0.013677	0.0037714	-0.00045715	-0.0080014	0.0086837	0.00047459	-0.013133	-0.019913	-0.0011835	0.0050954	-0.010633	-0.0060587	-0.0056237	-0.0050062	-0.0091919	-0.0028139	-0.0080175	-0.027885	-0.0083749	-0.044839	-0.023544	-0.062451	-0.02596	-0.014013	-0.0016431	-0.0099396	-0.0076037	-0.018984	-0.014146	-0.017896	0.4316	-0.0088997	-0.042578	-0.022385	-0.039728	-0.0053574	-0.0021756	-0.0077531	-0.024731	-0.013793
0.0086624	0.0068084	0.0048685	0.0020797	0.0009785	0.00065538	-0.0093438	-0.0030937	0.0025425	0.0047363	0.0049297	0.0014848	0.010344	0.0068073	0.002994	0.01203	0.0023026	0.0050605	0.0014475	-6.0029e-05	0.0032096	-0.0055863	-0.00019919	0.0010143	0.0035816	0.002135	-0.0026688	0.0012806	0.0045289	-0.010327	-0.0020847	0.0028433	-0.00019757	-0.0025569	0.00037093	-0.0061046	0.0062146	-0.0020596	0.0067252	0.0062723	-0.00094404	-0.0014727	0.016283	-0.0027878	0.006965	0.0059566	0.01036	0.00078232	0.0018488	0.0077357	-0.0051021	0.0016807	0.0089514	0.010474	0.010723	0.0038265	0.0030836	0.00023282	0.0021788	0.0060308	0.0067085	0.0016035	-0.0004136	0.0071379	0.0053462	0.00053367	0.0001279	0.0052749	0.0092679	0.0067656	0.0047105	0.007838	0.0063387	0.0031771	0.003323	-0.0008057	0.0055102	0.0059721	0.010455	-0.0069681	0.0077905	0.0015906	0.0063767	0.0061614	0.00019851	0.0017244	0.0014243	0.0035332	0.0030664	0.0037722	-0.00026222	0.0013982	-0.0057455	0.0099754	0.007881	-0.0081187	-0.0091388	-0.033287	-0.037565	-0.03828	-0.025355	-0.0087352	-0.015069	-0.084626	0.44031	-0.057307	0.0030123	-0.0092034	-0.005911	-0.0017661	0.056492	-0.010505	-0.019971	-0.012198	-0.012206	-0.0068464
0.00027339	0.010031	-0.0063969	-0.0037927	-0.0040685	0.0037826	0.0079181	0.0053188	-0.013436	-0.0022253	0.00098716	0.0066369	0.005385	-0.0020014	0.0016113	0.0017838	0.00082754	-0.0036522	-0.010625	0.0016482	0.0034452	-0.006463	0.0016567	-0.010887	-0.0072865	-3.6827e-06	-0.002673	-0.0047714	0.0051305	0.0039611	-0.0069492	0.00038071	-0.028991	-0.021199	-0.045674	-0.078645	0.43084	-0.026995	-0.014003	-0.0040037	-0.00061872	0.0060807	-6.8455e-05	-0.0033988	-0.016194	-0.010638	-0.028511	-0.018457	-0.0043744	0.0028705	0.00023553	-0.0037997	-0.00085333	0.00049598	-0.010846	-0.011943	-0.00038163	0.0087687	-0.004428	-0.006217	-0.010709	-0.0042527	-0.0089316	-0.023879	0.013233	0.00079049	-0.005628	0.00096722	0.0079536	-0.0017097	0.0034743	0.0023631	0.00061946	0.00038683	0.002776	0.0022494	0.007427	-0.00123	-0.0019754	0.0059258	-0.0081328	0.0043931	-0.00012495	0.0010948	-0.0015891	0.0026868	0.0033612	0.0049081	-0.0042769	-0.0065395	0.0086295	0.0032938	-0.0040376	-0.0024703	0.0019891	0.0068604	0.00045994	0.00073909	0.0022511	-0.01031	0.0057555	-0.0032502	0.0048485	-0.00089099	-0.0034572	0.004272	0.0026678	-0.0015724	-0.002073	0.0020292	-0.0017441	0.0030653	0.0013746	-0.0047624	0.01413	0.0010978
0.029201	0.061497	-0.00030085	0.080071	0.059149	0.0079093	-0.037753	-0.00056815	-0.020262	0.045759	0.023752	-0.049941	0.0015241	-0.18444	-0.093221	0.0009961	0.0036127	0.037236	0.011529	-0.017328	-0.00030561	0.013849	0.021401	0.042604	0.04576	0.043309	0.067843	0.016611	0.0032694	0.00018335	0.0032363	-0.0043229	0.01799	0.040607	0.2617	-0.11963	0.0081052	-0.0032856	-0.010351	-0.012105	-0.034001	-0.0192	-0.05299	-0.010625	-0.015705	-6.8538e-05	-0.019119	0.0062939	0.0017438	-0.0078	-0.011065	-0.011281	-0.010654	-0.003773	0.0070013	-0.0061526	-0.0038985	0.0015489	0.0022391	0.0029056	-0.0081514	0.005998	0.025626	-0.076097	-0.037935	-0.017823	0.002114	0.00027825	0.010598	-0.00095267	-0.0090076	-0.0075568	-0.0063879	0.0087032	-0.011238	-0.00014308	-0.036224	-0.028111	0.017727	-0.0024872	-0.011705	-0.008975	-0.0010172	-0.0026062	0.0011366	0.0068768	0.0017414	0.0050902	-0.0027644	-0.0033046	-0.0057906	-0.0082309	-0.0059003	-0.0067338	0.0077094	0.017533	0.00051129	0.024611	0.002255	0.0070422	-0.0079092	0.0043678	0.024286	-0.0061265	-0.00089797	0.0050365	0.005761	-0.0077683	0.0023162	-0.00026162	0.0103	-0.019447	-0.088611	-0.029716	-0.008239	-0.0018217
-0.033459	0.010572	-0.0045035	-0.011835	0.018183	-0.0037591	0.0027146	-0.0039237	-0.0049019	-0.024631	0.0048985	-0.00485	0.012122	0.023445	0.013413	0.0050227	-0.016632	-0.0051539	-0.0064817	-0.0049327	0.0022481	-0.014292	-0.025589	-0.0029979	0.021032	-0.0033316	-0.024377	-0.012426	-0.0064889	-0.013795	-0.015224	-0.0017492	0.0029796	-0.0092903	-0.026456	-0.081243	-0.0029229	0.0018173	0.011483	-0.0036737	-0.0071233	-0.01373	0.0039109	0.011493	0.0067258	0.020961	0.0089822	0.38969	0.0082701	0.0094734	0.0060305	-0.012843	-0.0058689	0.0086161	0.023619	0.034901	0.0017657	2.885e-05	0.0028427	0.013766	-0.04397	-0.044387	-0.064659	-0.043924	-0.027804	-0.0039932	-0.033735	-0.0099379	-0.008788	-0.0048447	-0.0095511	0.0078946	-0.0047984	-0.009895	-0.00067191	0.0078111	-0.0043699	-0.020789	-0.020567	0.019068	-0.0035778	-0.0047542	0.0031943	0.0033693	0.0047376	-0.0072573	-0.0069463	0.0014941	0.025138	0.014819	0.01657	0.016754	0.0091437	-0.0079755	0.010683	0.0005752	-0.0068417	-0.014506	-0.0069445	0.0062213	-0.026188	-0.0097031	-0.0052111	0.00020412	-0.0061707	-0.0095893	-0.010408	-0.0037613	-0.0044779	-0.025963	-0.0052787	-0.0058841	-0.00897	-0.027582	0.0084771	-0.0015519
6.9824e-05	-0.0048354	-0.0020044	-0.0091147	-0.010146	-5.008e-05	-0.0096028	-0.0017244	-0.013392	-0.016651	-0.011703	-0.0054553	-0.010754	0.0030801	0.0093587	-0.0012329	-0.0063249	-0.0094231	-0.0035207	-0.0043804	-0.0094861	-0.0049834	-0.013235	6.5383e-05	-0.008814	-0.0060299	-0.025458	0.0075338	0.0028861	0.00017968	0.038154	0.39726	-0.027654	-0.016107	-0.011326	-0.054925	-0.024977	-0.050576	-0.080423	-0.016763	-0.03485	-0.023162	-0.018023	-0.014107	-0.032139	-0.017993	-0.020005	-0.009883	-0.013697	-0.0067097	-0.0063052	-0.011414	-0.011548	-0.013183	-0.0097456	-0.0081036	5.4296e-05	-0.0061636	-0.0091057	-0.022433	-0.013845	0.0062765	0.0060355	-0.010076	0.012372	0.0020954	-0.0099258	-0.009169	-0.0012759	-0.0066826	-0.0087082	-0.0035696	-0.0012347	-0.006158	-0.0075407	0.0022909	0.0014067	0.0028924	-0.0002347	-0.00011558	-0.002394	-0.00052643	0.0020475	0.0014802	-0.0018061	-0.0052041	-0.0057883	-0.00085077	0.00029967	-0.0035717	-0.001057	0.0022787	0.0018715	-0.0060182	0.005376	-0.0040226	-7.2559e-05	-0.0084388	-0.0072719	-0.0076773	-0.01766	-0.0099458	-0.012839	-0.010872	-0.0040336	-0.0025478	0.0024074	0.0031056	0.0047501	-0.0035482	0.0032519	-0.0094911	-0.0065233	0.013811	0.00039546	0.0019454
-0.0021762	-0.014508	-0.0042598	-0.0087545	-0.011411	-0.0097245	-0.009346	-7.0208e-05	-0.0016808	-0.011769	-0.0065658	-0.0019387	-0.0097179	-0.010284	-0.0013595	-0.004932	-0.0022254	-0.0025474	-0.0066399	-0.0020364	0.00020484	-0.0036744	-0.0087754	-0.005757	0.0013346	-0.0098714	-0.015965	-0.0083847	0.0029629	-0.0050865	-0.011998	-0.010566	-0.013685	-0.015034	-0.014767	-0.030098	-0.0085717	-0.0079945	-0.016674	-0.003169	-0.019379	-0.0054067	-0.02207	-0.0041679	-0.029584	0.40128	-0.019331	-0.042078	-0.048173	-0.0098445	-0.0075565	-0.019145	-0.014834	-0.013109	-0.017982	-0.014929	-0.00012265	0.00020134	-0.0067292	-0.0051562	-0.032069	-0.0198	-0.028537	-0.012965	-0.0064687	-0.0061995	-0.0089586	-0.0064727	-0.011904	0.0058718	-0.019289	0.0068738	-0.0013844	-0.0039358	-0.0064296	0.0043905	-0.0028373	-0.0061008	-0.0026962	-0.023856	-0.0063754	0.0030683	-0.00072018	-0.00035639	-0.015358	-0.0091308	-0.010192	0.011248	-0.0017407	-0.01504	-0.0097588	-0.00021312	0.0014194	-0.01845	0.011036	0.0053826	-0.0058375	-0.014448	-0.0064698	-0.0082838	-7.9999e-05	-0.005193	-0.0044607	-0.0024217	-0.0031056	-0.01076	0.0019267	-0.0056916	-0.0099694	-0.0026375	-0.015548	-0.0076501	0.0024443	-0.0038724	-0.011551	0.00094589
0.0021115	0.00055102	-0.0047543	-0.020611	-0.036684	0.41303	-0.042292	-0.0072251	-0.027612	-0.025171	-0.02982	-0.014695	0.0048341	0.014257	-0.0095175	-0.0026998	0.0011058	-0.0096723	-0.0022723	-0.0019815	0.0014446	-0.0033263	-0.016656	0.003758	-0.00095564	-0.00033561	-0.0046257	0.00075853	0.0034203	-0.0076703	0.0023087	-0.0036213	0.0035851	-0.0075959	0.0060324	0.0031908	-0.0023436	-0.0025465	0.010202	0.0032474	0.002451	0.0018177	3.1115e-05	0.0023239	-0.0026946	0.0051108	6.9542e-05	-0.0011427	-0.013352	0.0010834	0.0040067	-0.0014222	0.0027923	0.0091497	0.0078179	0.0019779	0.00063537	0.00071195	-0.0035944	-0.0026828	-4.4915e-05	0.010419	0.0033462	0.0036238	0.0036519	-0.00588	-0.014781	0.0044394	-0.0018979	0.0064865	0.0011854	-0.0084637	0.009232	0.00058144	-0.0045769	-0.0011007	0.0091086	0.012388	-0.0028277	0.00057599	0.011224	-0.0016109	0.010891	0.0082694	0.00040332	-0.0046776	0.00046142	-0.0099224	0.00016092	-0.010029	-0.0023696	0.0052112	-0.00054756	-0.0014286	-0.0038232	-0.013899	0.0076653	0.00085533	0.0096448	0.0043837	-0.012284	0.0016367	0.0037356	-0.0043921	-0.0047997	-0.0058902	0.0059999	-0.010184	-0.0078648	0.005228	-0.010851	-0.0062232	-0.0069006	-0.059525	-0.0099094	0.0063986
0.033996	0.0032602	-0.01891	-0.013727	0.017971	-0.016519	-0.012328	0.0032772	-0.017605	-0.021965	-0.013116	0.013762	0.003703	0.0017294	0.016867	-0.006492	-0.0019558	-0.0026784	0.013611	0.0066658	-0.010049	-0.0039106	-0.021356	-0.0048392	-0.010313	-0.0098684	-0.037847	-0.010485	-0.012563	-0.013279	0.032319	0.040946	-0.010424	-0.026599	-0.00051667	-0.044272	-0.003539	0.0067351	0.37025	0.021615	-0.07374	-0.025008	-0.011867	0.010044	0.012947	-0.0087244	-0.012343	-0.031742	-0.024952	-0.0061461	-0.0058584	0.0030413	-0.017976	-0.019344	-0.026469	-0.024245	-0.0060602	-0.014	-0.0145	-0.063191	-0.052811	-0.014276	0.0069822	-0.0021384	-0.012964	-0.016316	-0.010411	-0.0067545	-0.016924	-0.00515	-0.0025398	0.01241	-0.0046605	0.0024292	-0.0090059	0.013215	0.018934	0.00059659	-0.010631	0.017082	0.010217	0.0071667	0.0035416	-0.0022422	0.014143	0.0021236	0.0029541	0.0024715	-0.0012456	0.0075722	0.0037385	0.0070892	-3.8571e-05	0.0017959	-0.00035811	-0.015526	-0.0024856	0.0074267	-0.0086914	-0.014444	-0.022678	-0.0061439	0.0075879	0.0052708	-0.0054254	-0.0013305	0.0090747	0.0090693	0.010646	0.0074003	-0.0018533	-0.0013925	-0.0352	-0.0024219	0.0012922	0.015945
0.0054847	-0.010154	0.0065809	0.0068693	-0.016634	-0.0070938	-0.0012012	-0.0068074	-0.0047362	0.0062118	0.016665	0.015039	0.004853	-0.0050047	0.0024232	-0.0019991	-0.019839	-0.0036069	-0.0059123	-0.013574	-0.0028209	0.00036436	-0.001086	-0.0048666	0.021913	0.0086719	-0.020637	-0.0056486	-0.0043451	-0.009017	-0.0077203	-0.0063876	-0.005045	0.010351	0.0023477	-0.0079235	-0.0044021	-0.0090514	0.0029439	-0.0064737	-0.019958	-0.00020335	0.003866	-0.0092407	-0.034653	-0.0062978	0.00074818	-0.0031782	-0.023098	0.0045973	0.013545	0.03487	0.040842	0.0197	0.0020608	-0.0059301	0.28474	0.04168	0.011793	-0.011979	-0.039271	-0.0066075	0.013446	0.0004233	0.011805	-0.016014	-0.0095917	0.004977	0.0076375	0.017511	0.046096	-0.083132	-0.0093916	-0.0013822	0.0046287	0.010551	0.0037792	-0.0066108	0.0030183	0.012063	0.015572	0.00022824	0.015604	0.0067197	-0.040531	-0.23987	-0.017116	-0.030536	0.0033652	0.011152	0.0010548	-0.0020444	-0.002836	0.019368	-0.0058931	0.024394	0.001283	0.041	-0.0061217	0.0041454	0.02104	-0.003155	-0.0006669	0.0074741	0.005442	0.017829	0.012705	0.0057557	-0.0177	0.0061696	0.0074494	0.0068805	0.0013524	-0.0024293	-0.006414	0.0045191
0.0079229	-0.0022184	0.025055	0.021931	0.010797	-0.0019564	-0.063203	-0.01679	-0.027529	-0.01364	0.014255	0.0071095	0.020465	0.00063639	0.0057121	0.017427	0.019681	-0.0095706	-0.0099213	0.056581	0.010663	0.013524	0.014406	0.010573	0.0052453	-0.0018636	0.006613	0.006015	0.022242	0.024472	0.021965	0.0119	-0.0022088	0.0048125	0.0074916	0.01101	0.0088066	0.0094181	0.004945	0.0080333	0.02839	0.011772	0.0013361	0.0069038	-0.0056846	0.014275	0.0038106	0.009403	0.0032165	0.011733	0.0055603	0.015689	0.0053434	0.015415	0.00067688	0.0042573	0.0014343	0.006476	0.003681	0.011378	-0.0051151	-0.0020254	0.0030323	0.0079119	-0.0063096	0.0038999	0.0077247	0.0067295	0.007656	0.0096156	0.014222	0.0057077	0.016853	0.0053152	0.0087015	-0.0018504	-0.0029982	-0.0069697	0.00053075	0.012876	0.0065066	0.0088414	0.015729	0.016952	0.0083282	0.020143	-0.0015938	-0.00080605	-0.0068401	0.0051253	0.0093933	-0.00094956	0.00042632	0.010554	-0.0073242	-0.035524	-0.014989	0.013044	-0.010717	0.0051787	0.0080286	0.011956	0.021769	0.0056315	0.0011701	-7.1645e-05	-0.013192	0.3536	-0.11714	-0.046664	0.0033876	-0.0025567	0.0066238	0.010371	-0.069444	-0.041118
0.0037635	-0.015427	-0.021274	-0.006045	0.0069621	-0.0052435	0.0091225	-0.0069075	-0.011193	-0.013632	-0.0042233	-0.012287	-0.016313	-0.0093305	-0.013391	-0.013242	0.0090656	-0.015903	-0.0073307	-0.016123	-0.0099722	-0.0027726	-0.026856	-0.0043024	-0.021593	-0.008069	-0.0064619	-0.0097515	-0.014064	-0.006946	-0.012936	-0.017438	-0.0054964	-0.0044812	-0.002587	-0.022833	-0.0044666	-0.0081975	-0.017383	-0.010809	0.0049649	-0.012956	-0.026392	-0.021316	0.015777	-0.0095659	-0.0053644	-0.014762	0.0055387	0.0044669	-0.0046771	-0.010713	-0.014801	-0.013325	-0.01091	-0.0040426	-0.016912	-0.0022052	0.010165	0.015997	-0.026216	-0.0050021	-0.014377	-0.012216	-0.0083117	-0.012651	0.003261	-0.0012864	0.00042095	-0.0073812	-0.031221	-0.0041045	-0.0054013	-0.013751	-0.025217	-0.0087981	-0.013459	0.012452	-0.0079104	-0.0077764	-0.033671	-0.0097961	-0.012976	-0.013125	-0.010632	-0.033028	0.003173	-0.0041067	-0.0070895	-0.015246	-0.016562	0.0067497	0.025253	0.35541	-0.029528	-0.076079	-0.012904	-0.093228	-0.023999	-0.035333	-0.020609	-0.0053993	-0.021568	-0.0097547	-0.023211	-0.031288	-0.011101	0.0010844	-0.0096438	-0.0069191	-0.0094213	-0.012878	-0.018042	-0.017209	-0.019176	0.0024859
0.33346	-0.16431	0.032607	-0.024464	0.050869	-0.0010729	-0.016058	-0.0027961	0.015207	-0.0075792	0.0087712	0.015314	-0.026247	0.022505	0.0044325	-0.0048624	-0.01684	-0.00048153	-0.0050009	0.029892	-0.0088852	-0.003842	-0.020797	-0.0048349	0.0022722	-0.0031695	-0.0037711	-0.0036252	-0.02547	-0.0051931	-0.0099369	8.6479e-05	-0.00088693	-0.0070296	0.01268	0.0043846	0.0076711	0.0051843	-0.022056	-0.012659	0.0066375	-0.0058435	-0.017135	-0.0012667	-0.0013445	-0.0038926	0.011609	0.020661	0.008589	-0.0095138	-0.0015529	-0.00017226	0.014504	0.0099074	0.0097364	-0.0051695	-0.012517	-0.0014449	0.0087239	0.043989	-0.0052816	-0.020602	-0.040762	-0.010522	0.0070042	0.016583	0.013502	-0.0035529	0.012908	0.0018507	-0.0075784	0.0026547	0.012695	0.0029042	-0.0097033	-0.0047745	0.012345	0.0065832	0.018475	-0.00869	0.0010751	-0.0056	0.019117	0.0028309	-0.0027005	0.00041543	0.001289	-0.0028887	0.0086048	-0.0022241	0.0019485	-0.011298	-0.012526	-0.0126	-0.011796	-0.018297	0.0040533	0.047284	-0.0067945	-0.01284	0.023822	0.0040066	-0.019375	0.0038716	-0.0056392	-0.0018253	0.0051745	-0.01708	0.020941	-0.016286	0.0028591	-0.0051846	-0.022111	-0.021844	-0.020949	-0.0090258
0.0065141	-0.0040508	0.0036543	0.0044024	-0.00028876	-0.0044986	0.0047125	0.0021081	-0.0040238	-0.00020933	0.0010565	-0.0055802	-0.005495	0.0037306	-0.0010438	0.0036157	-0.0087009	0.0047982	-0.0020472	-0.0043899	-0.0034726	-0.0043371	-0.0012666	-0.00017571	0.0049922	0.0027548	-0.013053	-0.0046663	-0.013306	-0.014782	-0.015593	-0.0084099	-0.010702	0.0019748	-0.0043254	-0.0035808	-0.0014257	-0.013698	-0.044954	0.38599	-0.060022	-0.042538	-0.035729	-0.0074409	-0.0092403	-0.0086599	0.0035141	-0.00073624	-0.0093005	-0.0017331	-0.00017608	-0.012353	0.003774	2.0765e-07	-0.0052247	-0.0043629	0.0079342	0.0023951	-0.0002548	-0.0085339	-0.0019119	0.0005981	0.00018796	0.003823	0.0020808	-0.0014641	-0.0017646	-0.00088626	0.0021486	0.0046545	-0.0103	0.00061592	0.0013796	0.0027574	0.0010742	0.0026033	0.0035816	-0.0051787	-0.0076474	0.0017366	-0.00034966	0.00060346	-0.00070237	-0.0062314	0.0014551	0.006216	0.0030881	0.00092568	0.004218	0.001865	0.0001261	-0.0048935	0.003789	-0.0018441	-0.0070119	-0.026284	-0.0038676	0.0021355	0.0064477	0.0011927	-0.0066397	-0.0011684	0.004592	0.0011203	0.0040439	0.0066967	-0.010455	0.0056775	0.0033298	-0.00038086	0.0035397	-0.0038703	-0.010537	-0.0095612	0.0066082	0.0076333
-0.0052774	-0.00025116	-0.0060611	0.0041129	0.0043933	-0.0045465	-0.017738	-0.00084199	-0.0098666	0.0018443	-0.00032233	0.0065319	0.00098518	-0.0047139	-0.0024638	0.0039797	0.0036645	0.011432	-0.002361	0.0031806	0.0061915	-0.0029414	-0.0022167	0.00022075	-0.0078762	-0.0042966	0.010457	-0.0016169	0.00072341	-0.0006227	-0.0029834	-0.00056371	-0.0067195	-0.0049485	0.0035897	0.0069328	-0.0027267	-0.0016826	-0.0014176	-0.0070585	-0.0057194	-0.010282	-0.01732	-0.0037731	-0.0050656	1.3156e-05	-0.01051	0.0099622	-0.041806	-0.0044145	0.0064859	-0.032997	0.37522	-0.0049142	-0.016081	-0.011605	-0.063929	-0.0021041	-0.044045	-0.047704	-0.012316	-0.0081285	0.0035732	0.0028484	0.0047085	-0.010508	-0.0046481	-0.012189	-0.024	-0.014627	-0.019883	-0.036546	-0.012812	-0.0067729	-0.006952	0.022493	0.010979	0.0015307	0.00078161	0.001034	-0.017292	0.0043413	-0.0096172	-0.013779	0.0049126	-0.0052462	-0.01381	0.0033969	-0.026841	0.0047481	0.008679	0.0035549	0.0029614	0.0096266	0.0055724	0.015572	0.0056052	-0.0059163	0.0040644	0.0046233	-0.005655	-0.0071581	0.0027226	-0.008555	-0.0023822	0.001284	0.0009376	0.00103	0.0029853	0.001866	-0.00073991	-0.0099198	0.0084334	0.0030565	-0.0036822	-0.0040516
0.0048361	-0.012135	0.026773	-5.0835e-05	0.0072454	-0.00055896	0.0067171	0.0045008	0.003863	-0.0073556	0.010195	0.0050118	0.0077468	0.003704	-0.0025856	0.0051115	0.0046854	0.0071645	0.00054389	-0.0081086	0.0050924	0.0038518	0.0011231	0.0054685	-0.0022101	-0.0063142	0.0072374	-0.0019265	-0.0014308	0.0045591	0.00088066	-0.0043352	0.0011169	-0.0036359	0.0048544	-0.0042379	-0.0041223	0.0054156	-0.0059088	-0.0051335	-0.0074561	-0.01959	-0.018817	-0.0047216	-0.020738	-0.0041325	-0.0078418	-0.0069713	-0.052398	0.39494	0.0063569	-0.019367	-0.016894	-0.0023149	-0.0055211	-0.015271	-0.0084412	-0.0058111	-0.030575	-0.0086347	-0.014304	-0.010971	0.0074264	0.0050086	0.0076522	0.0047055	-0.0026278	0.0015434	-0.018275	0.0021457	-0.00068868	-0.00084657	-0.0033477	4.2842e-05	0.004528	0.0059932	0.0078447	-0.0041083	0.0047828	-0.0099402	-0.00033268	-0.0014484	-0.0015496	0.0019407	-0.00095444	0.001818	0.0022208	-0.0042065	-0.0047837	-0.0027618	-0.0011041	0.0034398	-0.0038634	-0.0044642	-0.0064964	-0.0035577	-0.0014176	-0.0017279	0.010926	0.012068	-0.0035771	0.00099284	-0.0092502	0.00014051	-0.0035377	0.0032308	0.0068429	-0.0080145	0.0013526	0.00049304	0.008975	-0.0062868	-0.0026732	0.0044967	0.0026261	-0.0026888
-0.0067872	-0.023471	0.0057111	0.00025916	0.02462	0.0036009	-0.0059521	-0.0031482	-0.00075304	-0.034456	-0.0018911	5.4337e-05	-0.0024452	0.023683	0.0063088	-0.0050261	-0.02067	0.016786	0.0039674	-0.043265	0.016794	0.025338	0.034264	0.011165	-0.0085489	-0.1503	0.33083	0.033486	0.011772	0.0056457	0.0074493	-0.0026712	-0.034484	-0.038716	-0.062361	-0.013112	-0.010054	-0.01519	0.013456	0.0007843	-0.040753	0.00086061	-0.01526	-0.010255	-0.014961	0.0010602	-0.0069449	0.011509	0.0029798	-0.01504	-0.0034641	-0.0066928	-0.014892	-0.0078758	-0.00045978	-0.0053679	0.014759	0.00017424	-0.011577	-0.023437	0.01589	-0.017678	0.003144	-0.012334	0.0077559	-0.018381	0.0044183	-0.011728	0.013701	0.0030896	-0.0088818	-0.013055	-0.0037976	-0.0040319	-0.0059696	-0.027635	0.0033884	-0.0077746	-0.0061893	0.0075582	-0.0032375	-0.0009383	-0.0066027	-0.0064788	-0.0011184	-0.018015	0.00020444	-0.00063236	0.009157	-0.0022461	-0.00012264	0.00026874	0.0028244	-0.0057614	-0.01345	-0.020281	0.0093509	0.0037236	0.010298	0.003366	-0.0092665	-0.0010649	-0.019296	-0.0041225	0.0039838	-0.0025252	0.00090708	0.0083502	0.014615	0.0044059	0.00079295	0.0078668	-0.013996	0.00012338	-0.0054618	-0.0034421
0.0062441	-0.0026083	0.0075607	0.0032809	-0.0076527	-0.00049619	0.00022245	0.0036108	0.010292	0.001801	0.0044651	-0.004948	-0.0018589	0.0016656	0.0044506	0.0061155	0.0056024	0.0031019	-0.0011827	-0.0040184	-0.0083797	-0.0048091	-0.012373	0.009505	0.00085695	0.012911	-0.0042759	-0.0024752	0.0035958	-0.0022079	0.0082263	-0.0052059	-0.012855	0.0095767	0.014856	0.0040259	0.0051852	-0.0032722	-0.00019085	-0.0059871	0.0055899	-0.0084843	0.0085461	0.00029117	-0.0026791	0.0014991	0.0012347	-0.020383	0.017478	0.0043966	0.0029713	0.0015843	0.021564	-1.7571e-05	0.0027014	0.0043312	-0.0052325	-0.015956	-0.0041142	-0.045596	0.011209	0.021632	0.0034038	-0.0020123	0.016902	0.0066427	0.00075522	-0.0068903	-0.0082791	-0.0026019	0.0013478	-0.0030266	0.0063379	-0.014245	-0.011875	0.0042392	-0.0062159	0.002347	-0.0023084	0.0043708	-0.047571	-0.0020591	-0.033803	0.010061	0.010028	-0.019323	-0.0041873	-0.0022533	0.37322	-0.013415	-0.010806	-0.00088584	-0.0090883	-0.018759	-0.019961	-0.039592	-0.010592	-0.030497	-0.013214	0.0097324	-0.047699	0.0075733	0.019176	0.0028285	-0.0036229	-0.0039449	-0.0074338	0.0041437	-0.020016	0.0030738	-0.021285	-0.0018125	0.0042475	0.012594	0.00042772	0.0005762
0.0083296	0.0014876	-0.0079339	0.0059474	0.0025908	-0.00012466	-0.0017779	-0.0065594	-0.0034155	-0.012808	-0.0020098	-0.0041607	-0.0051283	-0.0012368	-0.0097794	-0.0047111	-0.0061155	0.00071317	-7.9336e-05	-0.0086011	0.0018025	-0.0040627	-0.0072402	-0.005166	-0.0089568	-0.0062468	-0.0088496	-0.0057298	-0.0040605	-0.0061761	-0.0071875	-0.0098269	-0.0066187	-0.0032845	-0.0087048	-0.0037101	-0.0088113	-0.0064197	-0.0050899	-0.011162	0.0021037	0.012845	-0.0033195	-0.0037182	-0.0062757	-0.0073577	0.00044454	-0.0013981	-0.0028825	-0.0047066	-0.0017716	-0.0018416	-0.0087544	-0.0073723	-0.0047386	-0.0052836	-0.0078879	-0.003565	-0.0054669	-0.014294	0.00034254	-0.0018287	-0.0095224	-0.0039578	0.0048738	-0.0021548	-0.0049191	-0.005601	-0.00053057	-0.0012422	-0.014902	0.00027906	-0.0004031	0.0017369	0.0020823	-0.0055711	-0.0031086	-0.0012431	3.8887e-05	-0.0070677	0.0024656	-0.0044596	-0.0080755	-0.016505	-0.0093543	-0.0046537	-0.0025218	-0.0094512	-0.010595	-0.01011	-0.0075106	-0.0011944	-0.0047753	-0.015578	-0.0021974	-0.020384	-0.025369	-0.070666	-0.036591	-0.019106	-0.021463	-0.014828	-0.013556	-0.047583	0.0057841	0.36821	-0.0181	0.0018013	-0.0049562	-0.027146	-0.042851	-0.023019	-0.015664	-0.0088964	-0.01687	-0.0079424
0.0007552	-0.00015856	-0.005335	0.0050839	-0.0039255	0.0058826	0.00022914	0.0024435	-0.00137	-0.0088194	0.0007027	0.0018442	-0.006634	-0.0036443	0.0051999	-0.0079273	0.017016	0.002501	-0.002215	-0.0073125	-0.0035353	-0.0046414	0.00052882	0.0014079	0.0027496	0.00123	-0.00090896	0.0012399	0.00076199	-0.0014248	-0.0063614	0.00063735	0.0036561	-0.002613	0.010823	0.0040649	-0.0021568	-0.0074853	0.0054969	-0.00036071	-0.00086852	0.0021644	0.0038785	-0.0042317	-0.0036503	-0.012379	0.0057674	0.0044299	-0.006942	0.0019228	0.0064593	0.0011799	-0.0029187	0.0051275	-0.00013024	0.0041836	0.00040739	0.0026711	0.0010841	0.020348	0.0008438	0.0085025	-0.004985	0.011167	0.012638	0.0042432	0.0011086	0.0062214	-0.014607	-0.005347	0.0059396	-0.018135	0.00038454	-0.02594	-0.010974	-0.013284	0.010861	-4.7855e-06	0.0041462	-0.0096143	-0.0085452	0.00075743	0.004069	-0.016603	-0.012821	-0.046023	-0.0046976	0.37118	-0.010402	-0.0071056	0.0065814	-0.022701	-0.0088832	-0.02012	-0.047206	-0.031225	-0.0083562	-0.020261	-0.0030903	-0.007556	-0.0007605	0.0022224	0.0024746	0.0056726	-0.0022343	0.0015915	-0.0059645	-0.00028642	-0.0038433	0.0018875	-0.0029985	-0.0031549	0.0093891	0.006041	-0.0017253	0.0012462
0.0021883	0.0080377	-0.038131	-0.018223	0.021882	0.0052435	0.0072964	0.00033718	-0.00082768	-0.010059	0.0076419	0.017037	0.0044622	-0.0001702	0.0096044	0.0075359	0.0097851	0.0037948	-0.011849	-0.0035464	-9.1628e-05	-0.0023494	0.004815	-0.0061915	0.0057102	-6.5452e-05	-0.0009345	0.0003871	0.015509	0.00013936	-0.0023794	0.0034521	-0.0044121	-0.0045118	-0.002893	-0.0076456	-0.0027846	-0.0024848	-0.0098871	0.001675	0.041736	0.0099289	-0.00038154	-0.0077473	-0.0034974	0.00066216	0.00080176	-0.0011581	0.0074949	-0.00027237	0.0002877	-0.0053146	0.011334	-0.00093529	0.0060842	-0.0034866	0.0040173	-0.001732	0.0015988	-0.010733	0.0022012	0.0050719	0.012026	-0.014357	0.01356	-0.0047175	0.002151	-0.0041843	-0.021438	-0.00091606	0.004586	0.0048022	-0.0025622	0.0091138	-0.0079822	-0.0095631	0.0013473	0.0023685	0.0033433	-0.049458	0.022912	0.0014414	0.0013204	-0.013812	-0.00033189	-0.00013345	-0.0056299	-0.013486	-0.01366	-0.013015	-0.0086498	-0.0056299	0.001401	-0.015001	-0.015391	-0.024447	-0.014212	-0.044028	-0.039408	-0.0012744	-0.035417	0.0065119	-0.026326	0.33832	0.04949	0.016181	0.0034304	0.0020295	0.0013737	-0.00018261	-0.0019864	0.0059904	-0.080703	0.01143	0.019504	0.0036487
0.0026917	0.0046977	-0.014868	-0.0026046	-0.010439	-0.0028845	-0.0094969	-0.0017132	0.0059675	-0.0054892	-0.010657	0.0084254	0.0064485	-0.0002578	-0.0053666	0.0017861	0.0052544	0.0045131	0.0020676	0.0014137	0.0007479	0.0016473	0.0022512	-0.00038076	-0.0075364	-0.00069418	0.0028116	0.0002642	0.00078252	-0.013277	0.008305	-0.0017786	0.0024184	0.0030831	0.0033366	-4.1539e-05	0.0051745	0.0036899	-0.019851	-0.0018813	-0.042345	-0.015653	-0.026941	-0.00032987	-0.0068549	0.0097985	-0.00043956	0.010812	-0.031025	0.0046464	0.013112	0.34728	-0.0012004	0.0031019	0.0018424	0.0059898	-0.07648	0.0071176	-0.0087345	-0.0035864	-0.0008418	-0.0090707	0.0089164	0.0038813	-0.0026292	0.007931	0.0012444	-0.0065962	-0.011941	-0.011581	-0.031143	-0.035461	-0.018767	-0.0080048	-0.008808	0.018116	0.014317	-0.001105	0.00090481	0.0093355	0.011266	0.0070561	-0.0049072	-0.018029	-0.0062768	-0.030209	-0.00031176	-0.006132	0.00092886	0.0012624	0.0034325	-0.0029342	0.01203	0.0021826	0.010618	-0.010454	0.0033494	0.0017269	-0.001449	0.007818	-0.00094291	0.0017225	0.0069067	0.010308	0.001958	0.0045789	-0.0022825	-0.0044935	0.0053564	-0.0024299	0.028952	0.00018918	0.0016367	0.00032274	0.0049089	-0.0012342
0.006661	0.005263	-0.0025488	-0.0057077	0.0019001	0.0079943	0.006848	-0.0010721	-0.0011888	-0.0037005	0.0044721	0.0064946	-0.00099503	0.0079426	-0.0024275	-0.0024464	-0.01133	-0.011517	-0.01666	-0.071585	-0.029128	-0.024218	-0.015585	0.0064056	0.0136	0.0095841	-0.010722	-0.010851	-0.034141	0.3384	-0.014119	-0.0064484	-8.3036e-05	5.9496e-05	0.0054103	0.0106	-0.001309	0.00081808	-0.0022926	-0.0098766	-0.058471	-0.043746	-0.0053658	-0.005085	0.0085861	0.0076925	0.0082425	0.0052168	0.0069568	-0.0032935	-0.0045625	0.0057818	0.0048056	0.0014113	0.0048831	0.0082148	0.0080116	0.00068832	0.012885	-0.0036532	0.0020818	-0.0014713	-0.0026758	0.0023022	0.004536	0.0037065	-0.00070471	-0.00044229	-0.0084341	-0.0014566	-0.0075102	0.010654	-0.00010442	-0.0031259	0.003746	0.00086007	0.0087993	0.0022425	0.0082324	0.0024022	0.0013172	0.0069956	-0.0085735	0.010271	-0.0011815	0.0036255	0.00038708	-0.0027548	0.0004479	0.010492	-0.0024248	-0.0016799	-0.0047226	0.0010893	0.0010925	-0.0084936	0.00020289	-0.0065878	0.0051468	0.0027479	0.00033331	0.0015669	-0.0013154	0.0038213	0.0092364	0.0070417	0.00193	0.027837	0.040796	0.0096246	0.0048617	0.00054155	0.0025759	-0.0011537	0.018179	0.020036
-0.0048424	-0.0052519	-0.0087916	-0.0043283	-0.010229	-0.010804	0.0016942	0.00062356	-0.00067668	-0.01835	-0.0029881	-0.0019373	-0.0064021	-0.0032137	-0.0066751	-0.0087263	0.018782	-0.0053956	0.0041217	0.0012532	-0.0003588	-0.00017698	-0.0084636	-0.0061857	-0.0037904	-0.0021853	-0.0012034	-0.00027318	-0.0063246	-0.0033314	0.0030275	-0.011114	-0.0051895	-0.0048404	0.0034491	-0.00057829	-0.0013906	0.0011383	-0.0021614	0.0042677	0.011619	0.0026071	-0.026311	-0.0001394	-0.0079431	-0.013548	-0.0046714	-0.0016164	-0.004061	-0.0067928	-0.0038336	0.0037515	-0.003396	-0.0089209	-0.0027962	-0.004875	-0.024463	-0.0070767	-0.014464	-0.0088263	-0.00091432	0.0091479	-0.0080596	0.00027733	0.0065355	-0.0089267	-0.011325	-0.016851	-0.022841	-0.0035903	-0.021568	-0.029107	-0.010568	-0.053251	-0.014406	-0.027329	-0.0052171	-0.012002	-0.00079722	-0.0052173	-0.017631	-0.018312	-0.02058	0.32592	0.0055629	-0.027086	-0.002221	-0.0080676	-0.026574	-0.021276	-0.0091058	-0.012723	-0.010137	-0.020575	-0.011092	-0.010579	-0.0095119	-0.021392	-0.010193	-0.0070585	0.0051432	0.00035675	0.005874	0.0021323	0.0006873	-0.0059454	0.0034308	-0.0085389	0.0057302	-0.0055984	-0.014897	0.0027153	-0.0091222	-0.003242	-0.014449	-0.0041892
0.00018975	0.0026311	0.0057053	0.016017	-0.0031473	0.0025638	0.0090943	0.0054798	0.0025825	0.00052228	-0.0033636	0.0010024	0.00448	0.0070264	0.0084383	0.0026584	0.0030374	0.004315	0.0026635	0.014051	-0.011637	-0.00083775	0.0086123	0.0075675	0.01069	0.00050168	-0.0013752	0.0017515	-0.008027	0.0014774	0.0020625	0.0072928	-0.0018839	-0.0029003	0.003633	0.0024222	9.1539e-05	0.0017119	0.0023182	-0.0010995	-0.0017793	0.0069647	0.00021256	0.00031044	0.00062346	0.013042	0.00041121	0.0090408	0.0078249	0.0014137	-0.00026877	-0.01978	0.00047702	0.0031859	0.0033251	0.0060235	-0.031094	-0.0052427	0.0040321	0.0078358	0.0022696	-0.0011395	0.0050247	6.8234e-05	0.0097738	0.0018714	0.021001	0.0083804	0.0018184	-0.012674	-0.024508	-0.035252	-0.0082513	-0.0013639	0.003007	0.02299	0.0082331	0.007497	0.0014655	0.0044102	-0.00022682	-0.0035315	-0.025578	-0.011384	-0.0091317	-0.058147	0.3333	-0.013017	-0.0090124	-0.0061451	0.0010731	-0.00064092	-0.0043731	-0.013512	-0.024569	-0.0054062	-0.010125	-0.010259	-0.00066416	0.0031572	-0.0047249	0.006564	0.01641	0.0037826	0.0014195	0.00091079	0.0036055	0.0057838	0.0010616	0.0037809	0.0027639	0.0073946	0.0010664	0.0042206	0.0022007	0.0042578
0.0035656	-0.012137	-0.0092204	-0.0056052	0.014479	-0.010268	-0.023432	0.00095863	-0.0051183	-0.013372	0.0007153	-0.026594	-0.025169	-0.013631	-0.0050405	-0.011126	0.0092665	-0.015966	-0.0078224	-1.959e-05	-0.0039002	-0.021344	-0.021133	-0.0056277	-0.017243	-0.0078157	0.0010547	-0.008257	0.0031323	-0.0086302	-0.0068022	-0.015904	-0.013226	-0.0040372	0.01356	-0.018459	-0.0056073	0.0011526	-0.03373	0.0038286	-0.078788	-0.0056135	0.30421	-0.0012749	-0.003924	-0.013207	-0.0071621	-0.01979	-0.043851	0.0013474	0.010812	-0.0042356	-0.0046722	-0.013697	-0.0071851	-0.012757	-0.025564	-0.0033741	0.011486	-0.015642	-0.026461	-0.0084566	0.0018825	-0.0031793	-0.028932	0.00015501	-0.021929	-0.014228	-0.019017	0.0035069	-0.020987	-0.006007	-0.0059836	-0.010684	-0.0078972	-0.0043001	0.011047	-0.0294	0.0041487	0.0042205	-0.018348	-0.0076567	0.0026482	0.0018772	-0.012008	-0.020516	0.00033098	-0.010442	-0.013955	-0.0018843	-0.0071025	-0.0045397	-0.0050603	-0.017247	0.0096312	-0.032141	-0.0070647	-0.012524	-0.0017149	0.0086682	-0.0075231	-0.0071855	-0.0053778	0.00056443	-0.013294	-0.014704	-0.0057833	0.0074294	-0.0019867	-0.0033004	0.0076995	-0.015677	-0.038372	-0.026429	-0.016029	0.0023326
0.0094879	-0.00038461	0.0039419	0.0016244	0.002016	-0.0017611	-0.0010634	0.0017459	0.0024561	0.0042564	0.003644	0.0047671	0.0052611	0.000717	0.0030616	0.0015863	-0.0038744	0.0051789	0.00044522	-0.00011962	-0.0023375	-0.0023655	0.0032733	0.0014913	0.0014069	0.0050264	0.0055379	-0.0021711	-0.0047521	1.8594e-05	0.0029733	0.00060705	0.0040066	0.0058464	0.0070793	0.0041267	-0.00060816	0.0019903	-0.0013616	0.0031723	0.0014029	-0.0019712	0.0025427	-0.0011472	-0.0013579	-0.0015127	0.0027749	-0.0065916	-9.8583e-05	-0.0032312	-0.00567	0.0087927	-0.00031117	0.0061341	0.0047134	0.0024516	0.0031557	0.0054313	-0.0020683	0.0069089	0.0014026	0.0029124	0.01104	0.0016779	-0.0082479	0.00053971	0.0056634	-0.00024349	0.006279	0.0074976	0.005163	0.0072834	0.0033972	-0.0041882	-0.00044896	-0.0067214	-0.0025613	0.0032221	0.0017122	-0.028974	-0.042344	-0.010148	-0.0129	0.0048203	-0.0033243	-0.0078673	0.0019172	0.0094555	-0.012696	-0.010463	-0.020032	0.33243	-0.024343	-0.018044	-0.0095593	-0.012139	-0.0038614	-0.0055799	-0.021345	-0.012711	-0.006428	-0.0073092	0.00054714	1.3886e-05	-0.0061837	-0.0030477	-0.00627	0.00076333	-0.0018135	0.0028917	0.00081698	0.0001538	0.0056394	0.0027296	0.0033722	0.00019347
-0.0050855	-0.043056	0.0058375	-0.036951	-0.015001	-0.0015082	0.028957	0.0063941	0.0033246	-0.016331	0.021595	0.0090249	-0.0071274	0.0068442	0.028716	0.0024804	0.0048293	0.013624	-0.0059161	-0.00079124	-0.0065605	-0.0033048	-0.017978	-0.011956	-0.002191	0.0025357	0.013816	0.0062931	0.0068178	0.006249	0.0049764	-5.9103e-05	0.0036988	-0.0013325	0.00058004	-0.027301	-0.009406	-0.010866	-0.0038143	-0.0017046	0.016669	-0.004841	0.0041787	0.010378	0.0016429	-0.0039285	-0.0048999	0.0033767	0.0069611	0.0019393	-0.001697	0.0023727	0.0021013	-0.0028042	0.00046329	-3.2205e-06	0.0072595	-0.0070374	0.001366	-0.0042444	0.0042858	-0.010079	0.014216	-0.0062479	0.03321	0.0022581	-0.011919	0.0020026	-0.00054111	0.00080092	0.007003	-0.0062131	-0.0021598	-0.0023974	-0.00096229	-0.024093	0.019872	-0.023754	-0.019968	-0.08106	0.017928	-0.0089823	-0.0067629	-0.020441	-0.0043984	0.0057837	-0.014286	-0.01082	-0.018359	-0.021786	-0.0081112	-0.0086031	-0.0083078	0.0015308	-0.020603	0.0061231	0.0011678	-0.036196	-0.03206	-0.0024491	0.013574	-0.00084244	0.30045	-0.01896	-0.00047472	-0.0048782	-0.0041482	-0.0049454	-0.0022577	0.0010894	0.0053232	-0.00049959	-0.041416	-0.00064467	0.013472	-0.0042907
0.0018861	-0.00034541	0.00041178	-0.0088542	0.0019766	-0.0018719	-0.0057009	-0.0042051	0.0028422	-0.0046937	0.0058438	0.0049692	0.00077524	0.0014346	-0.0018973	-0.003393	0.00024041	0.00061434	-0.0052562	-0.0055635	-0.00023937	0.0001906	0.0040163	0.0029123	-0.002526	-0.0035733	0.0034429	-0.0054555	-0.0043228	-0.001701	-0.0038541	-0.0050923	-0.0072886	0.0010515	0.0027341	-0.0063228	-0.003581	-0.001798	-0.02129	-0.0056914	-0.02163	-0.025724	-0.013624	0.32851	-0.027204	-0.0096255	-0.0034673	-0.0085804	-0.043017	-0.012043	0.0024659	-0.0088951	-0.0050661	0.0019636	-0.0095024	-0.0069011	0.0066037	-0.0013779	-0.0090958	-0.0038871	-0.0022503	0.0060654	0.0031819	-0.0092122	0.0008175	0.0052779	0.0028975	0.0045946	-0.0026278	-0.005797	0.0043132	-4.2376e-05	-0.0029986	0.0042478	0.00022734	0.0019915	0.0021874	-0.001678	0.0013737	0.0025545	-0.00062881	0.0039191	0.00043973	0.00059624	0.00058448	0.0057712	0.0051184	0.0068674	0.0027732	-0.0060205	0.0020493	0.0017954	-0.0066581	0.019371	0.0038864	0.0071293	-0.0035218	-0.0042504	-0.0043846	0.0030162	-0.0076596	-0.0008582	-0.010379	0.0076949	0.0048347	0.0021902	0.00088221	-0.0011513	0.00054268	-3.4936e-05	0.00024399	0.008088	0.001675	0.0015414	0.002282	-0.0026425
0.0047282	0.0038136	0.0017734	-0.0046645	0.0013847	-0.0020306	0.0076411	0.0004343	-0.0019981	-0.0020356	-0.0019854	-0.0027312	-0.0090662	-0.0051972	-0.0024797	0.0020327	-0.015402	-0.0042723	-0.0025475	-0.011143	-0.0057922	-0.012141	-0.01615	-0.0033389	0.0016505	-0.0074365	-0.024679	-0.0068845	0.0023626	-0.010112	0.31566	-0.049501	-0.018507	-0.010289	-0.011468	-0.00011443	8.1251e-05	-0.009512	-0.038148	-0.009442	-0.03882	-0.032504	-0.016291	-0.0083004	-0.0053721	-0.0033965	0.00095768	0.0074422	-0.011044	-0.0066729	-0.0073123	-0.017024	-0.0012881	-0.0054139	-0.0079529	0.0013319	0.0028473	-0.00054629	-0.0064647	0.0029445	0.0046023	0.0028443	-0.0084465	-0.0038827	5.2105e-05	-0.01088	0.01177	-0.00219	0.0084264	0.0039495	-0.0024945	0.00081834	-0.010884	0.00030367	-0.0040204	-0.0077833	-0.003548	0.0016294	0.0009208	-0.0070648	0.013435	-0.0022557	-0.0013762	-0.0079772	0.00077003	-0.0075964	-0.0034828	0.0030381	-0.0063147	0.002773	-0.0075432	-0.0010092	-0.0086998	-0.0065816	-0.002689	-0.0094726	-0.001263	-0.010276	-0.0012701	0.0024909	-0.0089496	0.0032784	-0.0078688	-0.00090334	0.0012284	-0.002581	0.003551	0.0065121	0.017121	0.0031673	-0.00046522	-0.002554	-0.0012881	-0.0070537	0.0064488	0.0058194
-0.010588	0.014796	0.0018223	0.022876	0.0004872	0.0086057	0.012597	0.0016472	-0.0097952	-0.012853	0.016694	0.028933	0.0017118	0.0087663	-0.00054294	-0.0054998	0.026536	-0.0089435	-0.00057724	0.0045994	0.0014153	0.0088161	-0.018421	-0.0044682	0.0044652	6.689e-05	0.00036167	0.0017329	-0.002614	0.0009525	0.011116	0.011957	0.011352	-0.0087946	0.005865	-0.030887	-0.0053893	0.0076513	0.013239	0.0084759	0.0053171	0.013848	0.0045007	0.011227	0.0025419	0.0007981	-9.5166e-05	0.015416	0.0093552	-6.3678e-05	0.0027092	0.0049799	0.0048092	0.0048973	-0.0068784	-0.003263	-0.0044754	0.0054177	0.00026683	-0.033376	0.011151	-0.0042723	0.0038926	0.0024298	0.0040598	-0.0073914	0.0034923	-0.0084861	0.0020271	0.0021724	0.006009	0.0018413	-0.0021022	-0.0058175	-0.0043377	-0.018512	0.011906	0.00022173	-0.008252	-0.067753	-0.018953	-0.019099	-0.0054737	-0.015464	0.0055937	0.0045469	0.0032606	-0.0072274	0.029602	-0.013571	-0.00593	-0.00077989	0.0061056	-0.0048986	-0.018549	-0.012391	-0.0090979	-0.057048	0.014948	0.013108	0.29534	0.010982	-0.048981	-0.0017073	0.0087999	0.0035729	-0.0063765	0.0016725	0.016868	0.0080212	0.019556	-0.0074676	-0.025671	-0.011043	-0.015207	0.0085029
0.0046256	0.0086076	-0.015996	-0.041276	-0.03123	0.027698	0.033831	0.0029976	0.003048	0.013418	0.00686	-0.010337	-0.0078987	0.0056579	0.0015118	-0.0028105	-0.013581	-0.01804	-0.013158	-0.0017843	-0.0045382	-0.0090881	-0.01291	-0.0098926	-0.0091482	0.0029013	0.00077615	-0.00080994	0.0064416	0.0036255	0.0011954	-0.011805	0.0016171	-0.0052849	0.00069556	0.0086888	0.0032857	0.00089456	-0.0057642	0.0023216	0.018886	0.0043166	-0.0027669	0.0019971	0.0033575	0.0066808	0.0081787	0.011375	-0.010517	-0.0056232	0.00082983	-0.0033562	0.0031038	-0.0021444	-0.0014213	-0.0028592	0.00040819	0.0012781	-0.0065486	0.011258	0.0021945	-0.010229	-0.0029179	0.0056187	-0.0070015	0.010708	-0.0025625	0.00054478	0.0069193	-0.0013081	0.00091428	-0.010675	0.0075726	-0.00079456	-2.7802e-05	0.0068476	0.0065169	0.0011955	0.0081723	0.014297	0.013435	0.0020953	-0.00071559	0.0033141	0.010216	-0.0022584	-0.00019797	0.00050057	-0.00072541	-0.0039924	0.0071888	0.0049826	0.0051163	-0.0026742	-0.0044048	-0.018383	0.00030438	0.012783	0.0066705	0.0071587	-0.0043781	-0.0074813	-0.031731	-0.052918	-0.018783	-0.0014773	0.0044518	-0.00023747	-0.030796	0.0022728	0.05656	-0.037134	-0.18214	0.23723	0.017247	0.0026185
0.0079318	-0.0052208	-0.00093939	-0.0084382	0.0018164	0.0057861	0.0062579	-0.00070426	-0.015858	0.019421	0.00049839	0.0049978	-0.00023598	-0.003935	0.002373	-0.00095482	-0.0071313	-0.0013119	-0.0053719	-0.0095696	0.0060135	-0.0015	0.0014245	-0.0059811	0.0011535	0.0057579	0.0084746	-0.0021457	-0.011348	-0.014384	-0.0096569	-0.0063704	0.0064163	0.0059362	0.0037894	0.0092088	0.0016053	0.00071878	0.00051765	-0.0093878	-0.030019	-0.015696	-0.020272	-0.0068559	-0.0037411	-0.010802	0.0033374	-0.0026137	0.0047599	0.00217	0.00091571	-0.010626	0.0025221	0.0020625	7.0318e-05	-0.0010419	0.015773	-0.0042177	-0.00022679	0.0038643	-0.0042526	-0.003788	0.00014841	-0.00029487	0.018021	0.0099067	0.011971	0.0056805	0.0069852	0.0060215	0.0046887	-0.0038096	0.0064941	0.0045012	0.011715	-0.028289	0.0093056	-0.0029168	0.006805	-0.014362	0.0031119	0.00065446	-0.0083123	0.0049598	0.0057849	-0.0061374	0.019304	0.020621	0.00078653	0.0019899	-0.0014407	-0.0020199	0.0047825	-0.011342	0.2922	-0.08799	-0.003791	-0.053202	-0.018619	-0.0053388	0.011641	0.0041159	0.011664	0.0092485	-0.011429	-0.011388	-0.015056	-0.00066811	-0.0098908	-0.0028799	0.0056858	9.7342e-05	0.02263	0.019125	-0.0040228	-0.0012831
0.015868	-0.00073021	0.0021972	-0.0020491	0.0061742	-0.0021154	0.010699	-0.0021408	0.015325	-0.0061511	0.0023829	0.0071026	-0.0075011	0.0059086	-0.0036777	-0.0049605	-0.014702	-0.019769	-0.015627	-0.050589	-0.020945	-0.023414	-0.024027	-0.0031578	0.0053085	0.0068643	-0.013999	-0.0037976	0.29901	-0.012711	-0.02154	-0.0056986	-0.0022423	-0.0058243	0.013264	0.017702	0.0014763	-0.0030429	0.001175	-0.0046787	-0.043978	-0.016773	-0.018205	-2.3356e-05	0.001425	-0.0047699	-0.00073447	0.0027223	0.0080321	0.00075333	-0.0044268	-0.0054129	0.0013802	0.0027332	0.0040377	0.00054518	0.0024273	0.0093897	0.0035297	0.012155	0.0035075	-0.0099623	0.0039685	0.0044201	-0.0079847	0.0007372	0.0043475	-0.0034183	-0.00028507	-0.0042302	-0.0017582	0.0069777	-0.00030827	-0.00094755	-0.0080248	0.0039121	0.020046	-8.7456e-05	-0.001038	0.0061572	-0.0013095	-0.0026906	-0.0045319	0.009139	-0.0060245	0.002624	0.0087428	-0.0029279	-0.001652	-1.6187e-05	0.0022257	0.0026207	0.00062213	0.0010665	-0.0013409	-0.0062316	0.0040638	-0.0068339	0.0031371	-0.0061997	0.006296	-0.0011524	-0.002146	-0.0054705	-0.001694	0.0014283	-0.00089256	0.015517	0.029435	0.012939	-0.0090329	8.4985e-05	0.0093977	-0.0030427	0.0048424	0.011449
0.016903	0.01209	-0.020465	-0.029428	0.039601	0.0063298	-0.013149	0.0034331	0.0019676	-0.048376	-0.025235	0.0021384	-0.0042462	-0.034781	-0.028971	-0.0094367	-0.0042682	0.0010522	-0.0035763	-0.038701	0.021075	0.0091652	0.27362	0.016071	-0.0089504	-0.013234	-0.059093	0.0084947	0.010677	0.0017275	0.0015015	0.0040067	0.010391	0.0098844	-0.047793	0.024723	0.0013377	-0.0037346	0.0028208	-0.0044028	-0.013487	-0.012498	0.0020713	-0.006364	-0.0075834	-0.0020619	0.0054962	0.0087106	-0.013371	-0.0017783	-0.0019633	-0.0082882	0.0009138	-0.0054068	0.0062894	0.0018671	0.0082433	-0.013056	-0.0089324	0.01107	0.012766	0.0011835	-0.020515	0.002178	-0.022671	-0.007723	-0.01635	-0.0083164	-0.019142	-0.0070653	-0.011491	-0.0064481	-0.006274	-0.0012753	-0.0092008	-0.016348	0.0051846	-0.01574	0.0010836	-0.0062489	0.0043635	-0.0042691	-0.014807	-0.0027808	-0.0022701	0.00052268	-1.4313e-05	-0.0028345	0.016279	-0.0014095	0.0041489	0.0017875	-0.0036569	0.0084606	-0.002683	-0.0087267	-0.0023682	-0.00078818	-0.0088738	-0.0016386	0.020976	-9.8608e-05	0.018813	-0.012157	-0.0030463	-0.0042895	-0.0022215	-0.0029828	0.013368	-0.005021	0.010494	-0.00027821	-0.029134	-0.0042388	-0.016837	-0.0035522
0.0024575	0.0023285	0.001666	0.004704	-0.0094883	0.00368	0.011768	0.0015988	-0.0056902	0.0019011	-0.0079774	0.0014206	-0.0053844	0.0042788	0.0027288	0.0074376	0.00073403	0.0023933	0.0033802	-0.0056632	0.00024562	0.0028113	0.0078125	-0.0040527	-0.0016229	-0.008787	-0.0049466	-0.00038833	0.0063702	0.0037566	0.00078313	0.011513	-0.037536	-0.016718	-0.018495	-0.063326	-0.0074358	0.29626	-0.022933	0.00184	-0.0085608	0.0027326	-0.008137	-0.0090778	-0.022159	-0.010096	-0.017147	-0.012483	-0.0099925	-0.0084822	-0.00012135	-0.0038731	-0.00017662	0.0056686	-0.0037861	-0.0060919	0.0049411	0.0022816	-0.0044115	-0.0046897	-0.0054017	0.0012204	0.00074637	-0.0071152	0.0047288	0.0023595	-0.0016697	0.0030985	-0.0029906	-0.0064764	0.0019967	0.0025527	7.1699e-05	-0.00022924	-0.0065047	0.0025064	0.0013497	-0.0020599	0.0011803	-0.0026176	0.012706	-0.0046219	0.0019321	-0.0021264	0.0011871	0.0022912	0.00089212	0.0073351	0.004117	0.0022677	8.3518e-05	0.0018898	0.0018064	0.0047501	0.0024981	0.0073365	-0.00068029	0.00099451	-0.009593	0.0035929	-0.009395	-0.0026816	0.0045327	-0.0023408	0.0018376	0.00043824	0.002697	-0.0020382	0.0067564	0.0013086	-0.0035916	0.0082562	0.0033173	0.0074277	-0.0077569	-0.0041941
-0.0015974	-0.001294	-0.0010078	0.0040807	0.0021683	-0.0031486	-0.0015169	-0.0028433	-0.00094546	-0.0034372	0.00087063	0.0018008	0.00063533	0.004794	0.0011784	0.0028566	-0.0045343	-0.01485	-0.012018	-0.021267	-0.014019	-0.019475	-0.017639	-0.0066295	-0.0032807	-0.0097635	-0.038078	0.30861	-0.017392	-0.016531	-0.0084667	-0.016419	-0.011728	-0.0042137	0.00077118	0.00093915	0.0020485	-0.00034739	-0.0017546	-0.0074861	-0.018635	-0.017572	-0.0018069	0.0014764	0.00026037	0.0032853	-0.00022756	0.0025847	0.00016978	0.0021612	-0.00066899	-0.0030962	0.0024538	0.0029673	0.00064444	0.00084374	0.0023208	0.0017609	0.0019245	-0.0038907	-0.0023669	0.00093651	0.00046237	0.0013016	0.00095109	0.0019831	0.0017656	-0.0018417	0.0017923	-0.0014663	-0.0016372	0.0014942	0.0014751	-0.00047674	0.00039043	0.003492	0.0018877	0.0020106	0.0017319	-8.8128e-05	0.0015206	-0.0015424	0.00095649	0.001366	-0.0012253	0.004535	-0.0018449	-0.0046196	-0.0010737	0.0012989	-0.00092983	0.0038372	-0.0021647	0.00048392	-0.0025449	-0.0066768	-0.0015871	0.0012573	0.00083108	-0.0035301	-0.00062759	0.0044278	-0.0031405	0.0021446	0.0005152	0.0013446	-0.0006861	0.0074961	0.0055387	-0.00052838	-0.0031039	-0.00018021	0.0018157	0.0023576	7.2681e-05	0.0036218
0.00030778	0.0090062	0.0050491	0.0012108	0.0037172	0.0076654	0.0014063	0.005869	0.0019315	0.012298	0.0076064	0.0090694	0.0019849	0.0027899	0.0019735	0.0026971	-0.016707	0.0050554	0.0033718	0.010607	0.0095911	0.0047893	0.012461	0.0078523	3.0124e-05	0.0069784	0.013921	0.0063673	0.00045466	-0.0018134	0.0030552	0.007675	0.004442	0.01017	0.004912	0.0085303	0.0030243	0.0024646	-0.0044311	0.0051339	0.0020763	0.00091222	0.0028926	0.0049395	-0.0037871	0.0010574	0.0035744	0.00089863	0.010331	0.00051502	0.0005376	0.0048561	0.016394	0.0090349	0.00051445	0.00015765	-0.041725	-0.0025249	-0.0091156	-0.0053803	0.0042413	0.00020388	0.0065607	0.00092681	-0.0017862	0.0006283	-0.0031714	-0.0014561	-0.017592	0.0067228	0.021086	0.26846	-0.018435	-0.0086548	-0.0092582	0.011811	-0.0062953	0.0070374	0.0073994	0.0003922	0.011701	0.0022641	-0.0026248	0.013027	-0.004576	-0.13315	0.00058737	-0.0013198	-0.0065069	0.0016572	0.0028984	-0.0089015	-0.0045531	0.004001	0.0021996	-0.0083383	0.0023222	0.0094902	-0.0039108	0.0018089	0.0063572	0.0023071	0.012126	-0.0037294	-0.0049096	0.0051161	0.010731	-0.0042508	-0.0032234	-0.00046953	0.0085746	0.0020721	-0.00013293	0.0076732	0.0044274	-9.4214e-05
-0.0045398	0.0072522	-0.010718	-0.0044721	-0.0091485	-0.0078405	0.0013994	0.00054548	-0.0083191	-0.0066526	-0.010233	0.01044	-0.0010143	-0.0068268	-0.0022643	-0.0036065	0.0083189	0.0029457	0.01068	0.0006575	-0.0024826	0.0050292	0.0052486	-0.0053272	0.0038647	-0.0022171	-0.0027433	0.0020784	0.0054802	0.0081751	-0.0001724	-0.0059679	0.0020075	-0.0034229	-0.0053112	0.00063168	-0.0010829	0.00051267	-0.0015061	0.00046416	-0.011317	0.00021748	-0.014381	0.0025923	0.00087768	-0.0038344	1.707e-05	-0.0071698	0.013998	0.0054115	0.0014712	-0.00043822	0.0054705	0.00068324	-0.0013744	0.0049056	-0.025987	-0.00263	-4.9533e-05	0.0030583	0.0072823	0.0072284	-0.00099846	-0.0034451	-0.015776	-0.001799	-0.02492	-0.006051	-0.0046659	0.007713	0.0014152	-0.0080942	0.002416	-0.012472	-0.0087336	-0.071937	-0.020049	0.010128	0.00013842	0.0049459	-0.054685	0.024788	0.27973	-0.0037243	-0.014913	-0.024178	0.018484	-0.012229	0.010064	0.016355	0.00097346	0.0027164	0.0038332	-0.014173	-0.0030127	0.0016991	-0.01041	-0.03132	-0.010744	-0.0019412	-0.0044365	0.00093802	0.0069466	-0.0045423	-0.0043785	-0.0069288	-0.0019509	-0.0072655	0.0034195	-0.0055123	-0.02018	-0.0055157	-0.0043127	0.010417	0.00063596	0.0026541
0.0057024	-0.0009335	0.0016593	-0.00066887	0.0078465	-0.00053014	0.003134	0.0026974	-0.004086	-0.00024175	-0.0016237	-0.0053968	0.0086432	0.004588	0.0010649	-0.0041612	-9.9952e-05	-0.00014955	-0.0018351	0.0016753	-0.00015617	0.0010498	0.0075906	0.00050812	0.003413	0.0049582	0.00047368	-0.00072371	-0.0042593	0.0021467	0.0021676	0.0019312	0.0021898	0.0076257	-0.0033416	0.0042181	-0.0041141	-0.0019768	0.0023675	-0.0024271	0.0069881	-0.0011218	-0.0017793	-0.00050288	-0.0011634	-0.002532	0.0021382	-0.0014616	-0.0041278	-0.0023004	-0.00054849	-0.022978	-0.020241	0.0030459	0.0021942	-0.0040516	-0.040512	0.28669	-0.029128	-0.023017	-0.0022874	0.0030252	-0.0033353	-0.00092031	-0.0029926	0.0099534	-0.0038361	-0.012703	-0.030105	-0.0094157	-0.012673	-0.0095688	-0.010081	-0.0024088	-0.0038368	-0.0054466	0.010304	0.0024757	0.0012897	0.0069484	-0.0001642	0.0044976	-0.0017992	-0.0040016	-0.00075711	-0.0047904	-0.0034286	-0.0016057	0.0080523	-0.0012006	-0.0021665	-0.0015525	0.0051935	0.0028488	0.0093334	0.0027775	-0.00014817	0.0011848	0.0022435	0.0051757	-0.0035037	0.0019126	0.012774	-0.00018257	0.0049912	0.0027349	0.005788	-0.0025125	-0.0035323	-0.0012132	0.0078972	0.0053168	-0.0002888	-0.00092283	0.002064	0.00088218
0.0065876	-0.0016258	0.0024316	0.0017603	0.0083453	0.0065501	-0.013316	-0.00032423	0.0064625	-0.0040849	0.0095002	0.016812	0.0046443	-0.0040476	-0.012616	-0.017836	-0.0040981	0.0088917	0.00333	-0.015761	0.0064069	-0.0063263	-0.014599	-0.0026932	-0.036289	0.078473	0.032221	0.0033976	0.0064647	-0.0011191	0.0015173	-0.0016176	-0.057462	0.24941	-0.086308	-0.045916	-0.010625	-0.0042234	0.0097326	-0.0052679	-0.0070026	-0.010178	-0.00058129	-0.0047846	-0.0015551	0.0020287	-0.0039969	-0.0016037	-0.0078016	0.00045058	-0.0018768	-0.0044298	8.0847e-05	0.0027585	-0.0068276	-0.0040794	-0.0054519	-0.0073024	-0.002349	-0.00057859	-0.0090178	0.0055792	0.0035098	-0.0085762	0.0041044	-0.00018021	0.013854	0.0038873	0.0003578	-0.00094399	-0.0049794	-0.0065767	0.0012989	-0.010769	-0.0011619	0.00046064	-0.017964	0.01291	-0.010299	0.0021959	0.006017	-0.0010861	0.0050484	0.002097	0.0045718	0.0071128	0.0059223	0.0042386	-0.0048192	0.0033707	-0.0052497	-0.0023704	-0.0017923	-0.0056642	-0.0071477	-0.0097835	0.00095025	0.0044056	0.0065873	-0.0092339	0.0065756	0.0056426	-0.0022528	0.00034173	0.0017614	0.0011137	0.0031088	0.00031711	-0.00059003	0.00049094	0.0069693	0.0050901	-0.0062165	0.0032083	-0.00078981	0.0017061
-0.004682	-0.00099362	-0.0099102	-0.0059626	-0.010955	0.011608	0.051226	0.024423	0.019471	0.0075496	-0.016735	-0.01582	-0.0070975	0.0035482	-0.012127	-0.0097019	-0.00951	0.02339	0.028031	0.013053	0.011272	0.0035563	-0.007377	0.0011355	-0.0071012	0.000954	-0.010946	-0.0039803	-0.0060947	-0.0078432	-0.011986	-0.0056036	0.0004131	0.00013139	0.00044643	0.0012967	-0.00048265	-0.007132	-0.0006239	-0.0079166	-0.038176	-0.014887	-0.00637	-0.0037645	0.0016917	-0.0026688	-0.0029311	-0.0010052	0.0047114	-0.0041899	-0.0046694	-0.0098378	-0.0049072	-0.0081114	-0.0002962	-0.0022184	0.0017254	-0.00057678	0.0025353	-0.0045911	-0.007534	-0.0014814	-0.0031668	-0.0030654	0.0051238	-0.0018846	0.00084251	-0.0012809	-0.0055667	-0.0046256	-0.01415	-0.0030864	-0.0038917	-0.0056679	-0.0013195	0.0052405	-0.00090041	0.0025858	0.00031371	-0.010045	-0.0083723	0.0023099	-9.3987e-05	-0.0053429	-0.0024178	-0.0098956	-0.0047714	-0.00077252	0.0018547	0.0044667	-0.0063579	-0.0013502	0.0033204	-0.0045967	-0.0056024	-0.0017456	0.00237	-0.002104	-0.0040189	-0.0042541	0.0044559	-0.0050295	-0.0099297	0.0036157	0.00011364	-0.0035127	0.0026744	0.03378	0.055938	0.03701	0.012974	0.003551	-0.0041314	-0.0043186	0.040124	-0.26387
0.0015609	0.0037463	-0.0092264	0.0026673	-0.0082492	-0.0025279	0.0072161	0.0038538	-0.00096887	-0.0006696	-0.0020979	0.0042824	0.010656	0.0027729	0.0014912	0.0021599	-0.0023243	-0.0023446	0.0017699	-0.0056719	0.014112	-0.00015352	0.01707	-0.0068918	0.0062447	0.0048294	-0.012643	-0.00051102	0.0038624	0.0076751	-0.0045543	0.0012394	0.001619	0.003326	-0.0023066	-0.0022072	-0.007657	0.00088689	0.0048498	0.00055759	0.001188	0.0049718	0.0097805	0.0044907	0.0045154	0.0035306	-0.0023165	-0.0010391	-0.0042195	0.0080969	0.0051247	0.0025135	0.0077188	0.0075842	-0.0048321	-0.0083714	-0.035084	0.017724	-0.020675	-0.026212	-0.023008	-0.01388	0.0022258	-0.0014109	-0.015087	-0.0099734	-0.056937	0.017743	0.26999	0.027812	0.0074804	-0.0018348	0.017224	-0.011623	-0.011457	-0.029736	0.0052839	0.0089711	0.0082513	-0.0078105	0.0032496	-0.0032204	-0.013944	0.0089151	0.0042788	-0.020993	-0.0009419	0.0060684	0.00091556	-0.0070396	-0.0057611	-0.0080028	-0.0078227	-0.00031059	-0.007071	-0.0016946	-0.00035173	-0.0034307	4.887e-05	0.015452	-0.011	0.0046384	-0.0015097	0.013971	-0.0027207	5.8616e-05	0.002316	-0.0026485	0.01101	-0.0073745	0.0018857	-0.0094388	0.0093973	-0.00076056	0.0068567	-0.0039255
0.018529	-0.0072455	-0.00065433	0.012842	-0.0062417	-0.0071235	0.0024168	0.0013636	0.0044488	-0.0042789	-0.0013756	0.010316	-0.0025238	-0.0065051	0.00028606	0.0069467	-0.010942	0.0095681	0.00046445	-0.0073448	-0.00041832	-0.008286	0.013425	0.0012385	0.0062737	0.0010553	-0.0077619	-0.0013205	-0.0048814	-0.0048138	-0.0029125	0.00083053	0.00038366	-0.0022918	0.0054371	-0.011835	-0.00093755	0.0049624	0.0053046	-0.0027855	0.0096204	0.011256	-0.00085298	0.004051	0.0061342	-0.0038761	-0.0023962	0.0007699	-0.0020504	-0.0093856	-0.00012275	0.0039145	-0.0017726	-0.001607	0.00067734	0.0027569	0.012738	-2.2979e-05	-0.01049	0.0087086	0.0016203	-0.0096914	0.012165	-0.0067134	0.0072112	0.010896	-0.0035103	-0.0022963	-0.0046846	0.0016595	0.0073151	0.0019996	0.0024698	0.010105	-0.0048162	0.013194	0.016464	0.029559	0.0033614	-0.03018	0.00092974	0.003773	-0.00066273	0.00058591	-0.0067015	-0.014036	-0.010612	-0.012171	-0.010109	-0.0058495	-0.0012408	0.0055827	0.0069311	-0.024292	-0.010994	-0.020752	-0.013973	-0.11422	0.24531	-0.0089141	-0.041391	0.0018661	0.0036866	-0.0030086	0.0060236	-0.0080779	-0.0090373	0.0082514	-0.0055232	-0.0088422	-0.0023086	0.0049784	-0.0019173	-0.00050197	-0.0077575	-0.0053171
-0.026393	-0.048633	-0.0015569	0.0042019	0.0079231	-0.0016617	0.0046871	-0.0048429	-0.0060464	-0.0076909	-0.022153	0.015298	-0.029234	-0.031348	-0.010174	0.0013577	-0.0056698	0.011046	-0.0053193	-0.0017405	0.008934	-0.0077215	-0.0011747	0.00058839	0.001429	-0.0043126	0.0034985	-0.00078628	-0.0020906	0.00018334	0.00038088	-0.0038238	0.0027772	0.0051672	0.02211	-0.09174	0.00071067	-0.0091968	0.0024609	-0.0051016	-0.011328	0.0044488	-0.009255	0.0063331	-0.00094716	0.00036677	0.00067476	0.00298	0.011705	-0.001867	-0.0013042	-0.0044911	0.0049019	0.002836	0.0056368	0.0043661	-0.0043038	0.0046585	-0.00065235	0.029176	0.027376	0.0011152	-0.041073	0.24566	-0.0086478	0.012089	-0.0042199	0.0025699	0.0038957	0.0066682	0.0059548	0.0021935	0.00267	0.0046835	0.0043442	-0.0033505	0.022595	0.0011636	-0.0019677	0.0039444	-0.0044622	0.001661	-0.0023859	-0.00076172	-0.0031993	-0.0058918	-0.00067664	-0.010931	0.0034355	0.0020172	0.00049937	0.00083505	0.00084201	-0.0033265	-0.0007923	-0.00089351	-0.004848	-0.0037005	-0.0056116	0.014022	-0.010762	7.9702e-05	-0.0074253	0.0095967	-0.0036384	0.0021538	-0.0038608	-0.0021193	-0.007707	0.0033275	0.0098538	0.008872	-0.0069615	-0.0064211	-0.00038987	-0.0010276
0.017021	0.010431	-0.017065	-0.0011397	0.024447	0.0066932	0.21371	0.010934	0.020992	-0.074939	-0.010785	-0.0087216	0.013391	-0.0043172	0.0043941	-0.003823	0.0066692	0.0095816	0.0044287	-0.044355	0.012338	0.0019449	-0.013786	-0.00091863	-0.0045092	0.011125	0.0055244	0.0046641	-0.0032784	0.0046426	0.0069754	0.0093643	0.0066771	0.0071856	0.011057	0.0071306	-0.0038739	0.00034528	-0.00099693	0.0017292	0.021106	0.0095686	0.0060436	0.004118	-0.015253	0.0029521	-0.0045598	-0.011131	-0.0037191	-0.0036362	0.0034877	0.0092012	0.010969	0.0039854	-0.0055428	-0.0061082	-0.0033611	-0.0067101	-0.012858	-0.0031366	0.00671	0.00048901	-0.0013571	-0.0041162	-0.033818	-0.010996	-0.01625	-0.004326	-0.0041303	0.0027278	0.0073103	0.001778	0.0010797	0.0055595	0.00098053	0.0067743	0.00092927	-0.0082762	0.002802	0.021319	-0.0048998	0.0050603	0.0038667	0.0014379	0.0052172	0.0059844	0.00601	0.0054346	0.000854	0.010997	-0.00030508	0.003277	0.0046626	-0.003366	0.017093	0.0014307	0.01279	0.033546	0.014247	-0.025485	0.0019397	-0.0010267	-0.0098312	-0.0050892	0.0027293	0.0016518	0.0094303	0.0089902	-0.11213	0.0048246	-0.0032645	-0.0078345	-0.022047	-0.064644	0.0022169	0.014527
0.0039889	0.0069332	-0.0024945	-0.010436	0.016417	0.0041232	0.0021676	-0.0012447	-0.0016463	-0.0086073	0.0038387	0.0027866	0.0025412	0.0012675	0.0086672	0.002243	0.0074891	0.014476	0.0059884	-0.0019127	0.0047314	0.00085107	0.0041855	0.0058812	0.018556	-0.0085878	0.0028052	0.00084717	0.00070101	-0.0064503	0.00017209	0.007216	-0.0063483	-0.0052672	-0.0086257	-0.032308	-0.00010735	0.0050504	-0.02931	-0.0015816	-0.015453	-0.0071323	-0.013075	0.0091429	0.26916	0.0040372	-0.0040559	-0.020912	-0.037485	0.0048056	0.009193	-0.00014907	0.0017288	0.0074176	-0.0048021	0.0022121	0.0182	0.0026426	0.0065985	-0.0078061	-0.0090441	-0.020415	0.0012462	-0.0065185	-0.01479	-0.00073734	0.00016545	0.0020069	-0.004142	-0.0036339	0.0025607	0.0034198	-0.0056418	-0.0022517	0.0044158	0.0059089	0.0067345	-0.011688	0.0026419	0.0035367	0.0055234	0.00026442	0.0028444	0.010453	0.0017903	-0.0071442	0.0025453	0.005659	0.0055764	0.0013152	0.0036023	0.0023961	0.011152	-0.01081	0.004366	0.01136	-0.00017237	0.0023904	-0.0062287	-0.0059584	0.0004493	0.0018393	-0.0012175	0.003002	-0.0041977	0.0054667	0.0051821	0.00042586	-0.014909	-0.0030597	0.0053799	0.0010505	0.0019947	-0.0012589	-0.0036988	-0.00072649
0.017052	-0.00021949	-0.0023823	0.001608	0.0091566	-0.0037307	0.023796	0.0037677	0.010048	-0.0084256	-0.0040173	-0.00066643	0.0037909	0.0039956	-0.0021208	0.00024405	0.0013346	0.0040517	0.0030753	-0.0085245	-0.010768	0.0019198	-0.00011759	0.0093394	-0.0039554	0.002306	-0.0010386	0.004514	0.0027436	-0.0020183	-0.0024818	0.0045156	0.0012386	0.0076694	-0.0054947	-0.0028052	0.0062959	-0.0054731	0.01198	0.0027179	0.01188	0.00048057	-0.0026051	-0.0034336	0.0058076	0.0014614	0.00096708	-0.0060705	-0.0014968	-0.0086009	0.0039693	0.0017794	-0.00087444	0.0019878	-0.0073026	-0.0025481	0.011096	-0.0017888	-0.00029751	0.013411	0.0080395	-0.009148	0.013473	-0.015609	0.0021836	0.0044007	-0.00027445	0.0026432	-0.012717	-0.0015427	0.0068627	0.0022618	-0.0013922	0.0044447	-0.0025048	0.012246	0.0037983	0.031453	-0.0054325	-0.038855	-0.0016124	-0.0025034	0.00056394	0.0046122	-0.0087194	0.0029726	-0.0030131	0.0013344	-0.013706	-0.0027676	-0.0010654	0.00051821	0.0016253	0.0023783	-0.00073234	-0.00033583	-0.0098337	-0.045824	-0.03638	0.26055	-0.029418	-0.0054065	-0.021256	-0.02708	0.0053829	-0.0075274	-0.0030171	0.0038356	-0.0092156	0.00066873	-0.0058902	-0.0035046	-0.0061692	-0.018263	0.002343	-0.00043634
-0.0062744	0.0029845	-0.0028841	0.0071551	0.0054769	-0.0059331	0.0017433	0.0033233	-0.0018147	0.004587	0.0048925	-7.2271e-05	0.0039431	0.002897	-0.00016587	0.00044519	0.0061326	0.0023502	0.0028355	-0.0041331	0.0029085	0.004322	0.0036526	0.0011686	0.0014103	8.3766e-05	0.00076178	-0.001599	0.0023393	-1.6917e-05	0.0099496	0.00078572	0.00095577	0.00065092	0.0028298	-0.00084525	0.0012119	0.0005808	0.0014638	0.00028941	0.00077211	-0.0058928	0.00071705	0.0046363	0.00501	0.0012723	0.0028649	0.0030055	0.0073423	0.0007651	0.001234	0.0051901	-0.00092352	-0.0021982	0.0036343	0.00015326	-0.016695	-0.0018413	-0.012271	-0.012418	0.0086575	0.002088	-0.00054073	-0.0025319	-0.0015873	-0.0061643	-0.007309	-0.0053972	-0.027079	-0.0099388	-0.014495	-0.0037699	0.26956	-0.018756	-0.0080146	0.0012398	0.0050073	0.0060065	0.0046476	-0.0007684	0.0023907	-0.0042753	-0.0089554	-0.005117	-0.024135	-0.031959	-0.0041225	-0.0062522	-0.0091732	-0.0023189	0.0022172	-0.0010754	-0.0054887	0.0023183	0.00087591	0.0015755	-0.00056865	0.0066771	-0.0010026	0.0020764	0.00047732	-0.00068155	0.0018472	0.0012277	-0.0015621	-0.00069158	0.0040578	-0.0063888	0.005896	0.00026704	-0.0012464	0.0021303	0.0010453	-0.0020466	0.0012355	-0.0010318
-0.0010333	-0.003791	-0.001234	0.00036245	0.0024773	-0.0017656	0.0041701	0.0037101	-0.0031747	-0.0088616	0.0075641	0.0023182	-0.0007431	0.0062909	-0.00018597	-0.00074073	-0.00062589	0.0037011	0.0014766	-0.00012751	-0.00045061	-0.0028857	-0.0015622	0.0066184	-0.0028762	0.010174	-0.011874	0.0027069	-0.0074136	0.0056763	0.007348	-0.00083656	0.0075259	0.0076731	0.0012535	0.0050911	-0.0020075	-0.0060949	-0.013206	-0.00076007	-0.10874	0.23871	-0.028327	0.0059356	-0.0023921	-0.0020288	-0.004421	0.0059724	-0.0086599	0.0046213	0.012271	-0.0069163	0.0045772	0.0059543	0.002737	-0.0031951	0.0058866	0.0018836	-0.0068851	-0.002926	-0.0035177	-0.0082792	0.0092884	-0.0072756	-0.0091793	0.00091777	-0.0069939	-0.0022699	-0.0069788	0.003451	0.0095815	0.0056533	0.0080853	0.0015262	-0.0016529	0.0042846	-0.00086344	-0.00013321	0.0012022	-0.0016025	0.0049791	0.0028915	-0.0021176	0.0031602	-0.0018048	0.019445	-0.0007733	-0.0014841	0.0058599	0.0030838	0.0012312	0.00051794	-0.013054	0.0093971	-0.0071643	-0.032878	-0.00018566	0.01151	-0.0049556	0.0043571	-0.0090052	-0.00093889	0.0098226	0.0037178	0.0014869	-0.0026383	-0.0049933	-0.00093052	0.018123	-0.00038718	0.0057394	0.0028145	-0.0010428	0.0033281	-0.0024258	0.0055662
-0.0013736	0.00040581	0.0046677	-0.00028517	0.0079704	-0.0040645	-0.032924	0.25462	-0.024046	-0.016553	-0.0029289	0.00018363	0.0085957	0.0013055	0.0026696	0.0043158	-0.0069114	-0.01989	-0.029353	-0.031369	-0.015739	-0.010762	-0.0078403	-0.00077173	0.007313	0.0018279	0.0052036	-0.0016005	-0.00062954	8.2853e-05	0.0052965	0.002455	0.0021475	-0.00069872	0.0029609	0.00049199	-0.0010222	-0.00057412	0.0025151	0.003562	0.015278	0.0050571	0.001853	0.0034804	0.00082135	0.0014079	0.0013304	0.00031765	0.0013824	-0.0012845	0.00084471	0.0063241	0.0026131	0.003815	0.0052237	0.0023283	0.005154	-0.0012223	-0.0010594	0.0048418	0.0031029	0.0022807	0.0036591	0.0044755	-8.8539e-05	0.0063845	0.0037406	-6.4797e-05	0.0018342	0.00066106	0.0048447	-0.000199	-0.0012883	0.0035035	-0.00016911	0.001517	0.0011226	0.0014912	0.002986	0.0048856	0.001878	0.001532	0.0042157	0.002261	3.9927e-05	0.0058234	0.00048845	-0.00070197	-0.0012587	0.00092987	0.0014136	-0.00021426	0.00039429	0.006767	0.0026153	0.0042008	0.0020858	0.0040329	-0.00096985	-0.0014218	0.0017883	0.005421	-0.0015835	0.00064451	-0.00065243	0.0047261	-0.0011426	-0.015262	-0.018711	-0.013702	-0.0016586	0.0024433	0.0022036	9.4116e-05	-0.02225	-0.015643
1.0989e-05	-0.0071601	0.0056387	0.0013946	-0.018404	-0.0005191	0.005033	0.00020079	0.0036627	-0.0025454	-0.000863	4.104e-05	0.00076076	-0.0040853	-0.0056314	-0.0013847	0.0076691	-0.0041712	-0.0018751	0.00039835	-0.0082457	-0.0018059	-0.001835	0.0019079	0.0039226	0.0027491	0.00071121	0.0011647	0.0018148	0.0015521	-0.00081281	0.0012097	0.0049061	0.0078737	-0.0073166	-0.0023454	0.00034709	0.00098014	-0.0016454	-0.00043944	-0.00043732	-0.0025955	0.0010527	-0.0020774	0.0059017	0.00024358	-0.00024093	0.0066873	-0.0046357	-0.00024598	-0.0041401	0.0035235	0.00051643	-0.0035738	-0.0041903	-0.004044	-0.019722	-0.0026624	-0.0038932	-0.013028	-0.0034462	0.00077306	0.0014243	-0.0031527	-0.0088119	-0.004828	-0.023416	0.0044912	-0.014942	0.0076958	-3.4827e-05	-0.0090442	0.010568	0.24977	-0.014048	-0.049386	-0.015361	0.010618	-0.0017295	0.0092336	-0.020024	-0.0072032	-0.01623	0.020956	0.0124	-0.029311	-0.0026231	0.0092053	-0.0028839	-0.00040954	-0.0088124	-0.0046296	-0.0049007	-0.0042753	-0.0129	-0.011585	-0.0019616	-0.0046643	-0.01179	-0.0030933	0.0019109	0.00042458	0.00090918	-0.0034913	-0.0016269	-0.0052914	-0.0046369	-0.0010598	0.0088064	-0.0045508	-0.0016618	0.0015421	0.011568	0.010337	-0.0024236	-0.0034462
0.0080577	0.0015216	0.0052236	0.0010072	-0.0029799	0.001255	0.0032792	0.0057857	0.0037602	-0.0012064	-0.0062092	-0.002987	0.007496	-0.010824	0.0096165	-0.0043366	-0.0023381	0.0022726	0.0053878	-0.011658	0.0080538	0.0034028	0.0075094	-0.00037148	0.0084186	-0.0058634	-0.00083406	-0.00095661	0.0016015	-0.005233	0.0051974	-0.0042654	-0.0038762	-0.0027565	-0.013654	-0.0074179	-0.0040893	-0.0033804	-0.0051978	-0.0020385	0.0089456	0.0073202	-0.020616	0.0049598	-0.014089	-0.007008	-0.0076926	-0.0062429	-0.016958	0.0096918	0.0050064	-0.0032705	0.010607	0.0099685	0.0042633	-0.0043438	-0.031233	0.013725	0.24033	-0.053319	-0.033661	-0.012554	0.0060606	0.010755	-0.0055745	-0.011092	-0.032562	0.00094641	-0.0093656	0.0060123	-0.0014722	-0.0011645	0.0046831	-0.009771	-0.0019416	-0.010512	-0.01012	0.0074708	-0.0074739	-0.0056412	-0.0047086	-0.011493	-0.010212	0.00043156	-0.0040171	-0.0065539	-0.0022579	0.0011445	-0.0047637	0.0011858	0.0027942	0.0012877	-0.0031241	-0.0079826	0.0051489	0.0047166	0.0027186	0.0021769	0.011967	0.0038146	-0.0055851	-0.00093752	-0.0019898	-0.00356	0.0028306	-0.00017653	0.0037639	0.003225	-0.0066387	0.0028343	-0.0028577	-0.0063857	0.0004422	0.0079106	0.007224	0.0034272
0.01683	0.017885	0.0064853	-0.0061564	-0.022812	-0.0053849	0.0052481	-0.0025142	-0.0034343	-0.010148	-0.020836	-0.041382	-0.0034977	-0.047312	-0.046042	0.22974	-0.020121	-0.012158	-0.00063439	0.0074804	2.457e-05	-0.0031976	-0.015142	0.00056076	-0.036472	-0.0046669	0.0063295	-0.0012255	0.0017475	0.00093462	-0.0034731	0.0081121	0.0040728	0.006016	-0.034181	0.020741	0.0010578	0.00058727	0.011699	-0.0014176	-0.0081904	-0.00061165	0.0048713	0.0072227	0.0071601	0.0067471	0.0033601	0.0048044	0.0093853	0.0030904	0.0024415	-0.00046811	0.003494	0.0085483	0.0054934	0.0063025	0.0049076	0.005839	0.0088136	0.005769	0.0035362	0.0053772	0.00050491	0.0041324	-0.0045732	0.0078281	0.001756	0.0024493	-8.4921e-05	0.0045646	0.0017296	-0.0026107	0.0035261	-0.0017107	0.0031303	-0.0053817	0.0041346	-0.0050522	0.0056731	-0.009872	0.0039764	0.0036631	0.0016803	0.0071087	0.0019311	-0.00159	0.0016978	0.0050096	-0.00027428	0.0057564	0.002631	0.00027906	0.002081	0.0049799	-0.004573	-0.0056029	0.0027827	-0.0033607	-0.0027473	-0.00096479	0.010883	0.0074787	0.0049287	0.0037842	-0.0059167	0.0038326	0.00054043	-0.0090347	0.0044308	0.0041667	0.01047	-0.0018272	-0.00071249	-0.0071701	0.00013545	9.7334e-06
0.0058168	0.020803	-0.0054526	-0.0051058	0.0073212	0.0036921	-0.0032307	-0.0031162	-0.011772	0.0093188	0.0071918	-0.029185	-0.0016854	-0.13854	0.19419	-0.012561	-0.0071993	-0.012709	-0.0020491	0.0040354	-0.0056389	0.004837	-0.010241	-0.00059074	-0.020763	-0.0016612	0.0046232	0.00016983	0.00091489	0.0010734	-0.0036556	0.002588	0.0061129	0.0011835	-0.02968	0.029098	0.0033939	0.0086706	-0.0024387	-0.00078706	-0.007072	-0.0043872	-0.0057189	0.0055038	0.0017228	0.0039134	0.00020012	0.0032515	0.011299	0.0061583	0.0022876	0.00025394	0.0040839	0.0039356	0.005065	0.0059078	-0.0016918	0.002108	-0.007202	0.019314	0.0099046	-0.0020224	-0.0014647	0.0063667	-0.0069984	0.013849	-0.011145	-0.0018955	0.0017843	0.0037335	0.0014053	-0.0055866	0.0016287	0.0038393	-0.00080892	0.0093763	-0.010433	0.014525	-0.0031379	0.00125	0.011351	0.0052596	0.00045072	0.0060234	0.0013655	-0.0033461	-0.001473	-0.0035444	0.0041957	-0.0017551	0.0048289	0.0017097	0.0030393	0.0009858	-0.0062589	-0.0222	0.00041808	0.010012	0.0045931	0.0040815	0.0095086	0.0029844	-0.0052143	-0.0033507	0.00062843	0.0055621	0.0018139	-0.0029145	0.017592	-0.00049894	0.0031401	-0.0089251	-0.011366	-0.019476	-0.0066635	-0.008097
