-0.12917	-0.11599	-0.09133	-0.11367	-0.10339	-0.073828	-0.13963	-0.11914	-0.18018	-0.15664	-0.21051	-0.18024	-0.17465	-0.1321	-0.17437	-0.12598	-0.10838	-0.133	-0.11626	-0.1206	-0.09592	-0.10261	-0.13942	-0.17796	-0.16227	-0.12271	-0.12379	-0.11927	-0.11696	-0.15574	-0.18299	-0.11563	-0.03172	-0.071175	-0.15502	-0.20471	-0.15211	-0.11135	-0.14244	-0.096825	-0.059043	-0.092677	-0.1324	-0.23962	-0.54806	-0.37534	-0.15677	-0.10281	-0.098872	-0.079388	-0.090832	-0.096269	-0.08523	0.13048	-0.10888	-0.18292	-0.12604	0.8612	1.0295	0.17549	-0.036122	-0.098862	-0.11991	-0.10522	-0.14333	-0.10831	-0.15915	-0.13605	-0.064778	-0.069617	-0.067092	0.017251	0.12528	0.46999	1.464	0.27573	-0.03657	-0.11409	-0.12548	-0.090085	-0.086068	-0.088185	-0.062173	-0.10803	-0.098271	-0.11188	0.02023	0.41472	0.040619	-0.020343	-0.13601	-0.33912	-0.68939	-0.16828	-0.14217	-0.057711	-0.072656	-0.094622	-0.11152	-0.11519	-0.13392	-0.16863	-0.11921	-0.13104	-0.06857	-0.062898	-0.14607	-0.19565	-0.17671	-0.13244
-0.12455	-0.15705	-0.17442	-0.2203	-0.18889	-0.074398	0.32712	0.33391	0.022804	-0.16829	-0.049805	-0.19955	-0.13644	-0.017871	-0.15413	-0.24567	-0.29437	-0.26277	-0.22755	-0.24091	-0.23363	0.026494	0.14167	0.0769	0.038246	0.47173	0.73245	1.0646	0.50556	0.15168	0.13953	0.53603	0.66499	0.362	0.089398	-0.020119	0.019873	0.05783	-0.060296	-0.10009	-0.061126	-0.022368	-0.040897	-0.095424	-0.098826	-0.1215	-0.040035	-0.0081635	-0.07771	-0.086619	-0.12995	-0.0467	6.6167e-06	-0.056088	-0.16321	-0.16894	-0.066115	-0.029794	-0.11082	-0.12154	-0.079105	-0.051433	-0.13988	-0.099292	-0.053028	-0.12541	-0.12736	-0.12652	-0.099483	-0.060965	-0.039219	-0.086614	-0.17552	-0.31568	-0.1136	-0.091546	-0.057664	-0.077035	-0.097144	-0.11748	-0.11833	-0.17179	-0.067739	-0.11716	-0.14136	-0.0613	-0.075786	-0.020453	-0.051581	-0.096652	-0.12828	-0.060311	-0.16915	-0.037908	-0.075721	-0.026088	-0.030752	-0.054608	-0.13895	0.0063297	0.00943	0.021257	-0.064059	-0.18574	-0.1321	-0.048345	-0.010879	0.066893	-0.050397	-0.017932
-0.15688	-0.18343	0.068604	0.15625	0.1337	0.085275	0.016527	-0.034767	-0.034653	-0.055461	-0.047578	-0.085091	-0.14395	0.23358	0.65605	0.55277	0.25112	-0.067345	-0.033659	0.15817	0.58679	0.95807	0.38264	-0.17599	-0.055032	-0.12511	-0.11812	0.25361	0.47182	0.29847	0.075831	-0.12611	-0.35101	-0.2693	-0.042303	-0.14894	-0.22922	-0.15464	-0.070471	-0.0035394	-0.065807	-0.077698	-0.095244	-0.054916	0.052342	-0.035193	-0.051302	-0.08285	-0.10807	-0.082752	-0.1453	-0.12688	-0.060064	-0.047517	-0.091897	-0.07481	-0.11456	-0.041614	-0.039809	-0.039954	-0.012898	-0.074345	-0.050619	-0.10926	-0.12519	-0.075823	-0.15347	-0.073588	-0.0037535	-0.03948	-0.0020479	-0.03959	-0.048056	-0.043342	-0.014327	-0.057277	-0.077523	-0.068083	-0.070367	-0.13684	-0.14624	-0.018125	-0.037201	-0.063672	-0.056048	-0.03564	-0.075414	-0.058376	-0.023878	-0.064865	-0.0079631	-0.02787	-0.049282	-0.032423	-0.055521	-0.062785	-0.035007	-0.017372	0.028185	-0.039959	-0.12269	-0.12247	-0.16554	-0.09553	-0.18062	-0.14908	-0.11986	-0.059301	-0.027353	-0.091448
0.043444	0.47122	0.22284	0.27991	0.11775	0.01887	0.042966	-0.0061281	-0.084371	-0.10726	-0.11402	-0.088038	-0.065993	-0.15622	-0.39592	-0.14316	0.34268	0.79368	0.52617	0.4545	0.22549	-0.24483	-0.20406	-0.073397	-0.075462	0.0018068	0.073807	0.11801	0.15201	0.20851	0.11733	0.17196	0.14499	0.02465	-0.091369	-0.098807	-0.04215	-0.061172	-0.10831	0.10404	-0.098263	-0.11615	-0.091748	-0.087672	-0.025421	-0.078341	-0.083408	-0.095626	-0.10804	-0.13738	-0.13306	-0.18728	-0.08917	-0.09701	-0.062405	-0.032672	-0.0961	-0.074575	-0.041722	-0.025144	-0.026823	-0.04491	-0.025555	-0.11141	-0.25831	0.0224	-0.085298	-0.073883	-0.0068694	-0.034572	-0.072375	-0.073738	-0.010951	-0.0069202	-0.052828	-0.02707	-0.053291	-0.048075	-0.040691	-0.058443	-0.047071	0.031106	-0.12299	-0.10591	-0.069031	-0.076049	-0.12872	-0.077717	-0.038605	-0.10053	-0.047164	-0.071204	-0.027742	-0.036868	-0.0091802	-0.10749	-0.095082	-0.043361	0.11942	-0.093215	-0.058883	-0.074712	-0.071448	-0.059044	-0.057137	-0.029341	-0.063452	-0.083646	0.014617	0.065984
-0.10583	-0.068099	-0.060393	-0.065849	-0.017924	0.010252	-0.054899	-0.069992	-0.11576	-0.12552	-0.11754	-0.11335	-0.07708	-0.035005	-0.037494	-0.032354	-0.038117	-0.099546	-0.10356	-0.071361	-0.13162	-0.069605	-0.0842	-0.15277	-0.15218	-0.13756	-0.20665	-0.12166	0.070983	0.17909	0.5426	0.41823	-0.18905	-0.029445	-0.12301	0.61373	0.32395	0.24326	0.03016	-0.057579	-0.094894	-0.012045	0.25784	0.41489	0.18988	0.12134	0.027898	-0.012825	-0.04086	-0.1169	-0.048563	-0.039864	-0.084241	0.16702	0.21087	0.27467	0.13062	0.15863	0.20036	0.31831	0.20764	0.16512	0.14626	-0.032819	-0.080795	-0.096322	-0.11562	-0.11373	-0.069917	-0.043167	-0.057639	0.023493	0.11708	0.18111	-0.20657	-0.11934	-0.1549	-0.14985	-0.12593	-0.11314	-0.099817	-0.079175	-0.055484	-0.07094	-0.058877	-0.1034	-0.10784	-0.14833	-0.1387	-0.087195	-0.11041	-0.098846	-0.019262	-0.11045	-0.094559	-0.1183	-0.076575	-0.067144	-0.035165	-0.051266	-0.11642	-0.12671	-0.092706	-0.16877	-0.15018	-0.12189	-0.047013	-0.066246	-0.01674	-0.014632
-0.097414	-0.079195	-0.010618	-0.0013974	-0.027466	0.012422	0.068113	0.0058719	-0.044955	-0.093348	-0.13198	-0.085174	-0.062835	-0.029445	-0.072206	-0.059554	-0.063475	-0.011618	-0.058011	-0.053564	-0.025051	-0.00024212	-0.045989	-0.086799	-0.066148	-0.035993	-0.0041201	0.061792	0.035246	0.10273	-0.076032	-0.030291	-0.021923	-0.036425	-0.050953	-0.016877	0.0049237	0.033092	0.024146	0.01057	0.028423	-0.01423	-0.032181	-0.0015336	-0.096784	-0.020157	-0.084224	-0.057965	-0.0055042	-0.01038	-0.017349	-0.045698	-0.11024	-0.086432	-0.025666	-0.0088024	-0.045807	-0.14115	-0.095779	0.040505	0.20235	0.25945	0.12837	-0.068649	-0.049387	-0.042685	-0.10824	-0.11883	0.099319	0.40146	0.6463	0.53364	0.593	0.055672	-0.023532	0.39966	0.53852	0.36216	0.18306	-0.0071197	-0.061402	-0.016526	0.0040406	-0.10897	-0.16906	-0.095393	-0.0097342	-0.14043	-0.20119	-0.26795	-0.095076	0.10361	0.037265	0.14812	0.031898	-0.0090976	-0.061025	0.034985	-0.046219	-0.035431	-0.11409	-0.015736	0.070485	-0.060386	-0.022128	0.013986	-0.058806	-0.12265	-0.00094643	0.079451
-0.047691	-0.070275	-0.13902	-0.0053289	0.017988	0.16925	0.12652	0.052698	0.11036	0.08191	-0.01738	0.041944	0.091423	0.070173	0.060159	0.10906	0.14454	-0.0069608	-0.023593	0.067438	0.14384	0.072167	0.055592	-0.0039742	-0.10435	0.050934	0.021697	-0.070999	-0.029232	-0.061925	0.058091	0.10054	0.21948	0.15283	-0.17151	0.010539	0.016156	-0.075929	-0.012467	0.016601	-0.056584	-0.039489	-0.030268	-0.009639	0.10598	0.074996	-0.0031964	-0.048041	-0.08238	-0.017293	-0.016853	-0.12063	-0.080767	-0.052581	-0.03317	-0.0048517	0.010344	0.002989	0.034943	0.038385	0.017457	0.0060015	0.050646	0.018845	0.025094	-0.030074	-0.0084003	0.033087	0.041274	0.025379	-0.02374	0.0022895	0.0039876	0.087065	0.054102	-0.0019045	-0.029061	-0.0051502	-0.026604	-0.061561	-0.088023	-0.1064	-0.018025	-0.10192	-0.10492	-0.092509	-0.030548	0.023955	-0.060804	-0.15184	-0.1883	-0.10922	0.06728	-0.2517	-0.35164	-0.33158	-0.19751	-0.064395	-0.077827	-0.0072739	-0.044125	-0.09791	0.19318	0.29197	0.83278	0.58819	0.22715	0.10035	0.061039	0.13728
-0.14429	-0.12855	-0.19837	-0.065566	0.062754	0.048058	-0.090861	-0.13058	-0.11989	-0.14719	-0.15317	-0.074801	-0.063996	-0.056063	-0.060891	0.0051026	0.021067	-0.083109	-0.075842	-0.042414	-0.031476	-0.016936	-0.013082	-0.076736	-0.13729	-0.10684	-0.07084	-0.087924	-0.072334	-0.0032532	0.090652	0.04433	-0.080731	-0.12557	-0.1543	0.032621	-0.0096957	-0.020049	-0.043931	-0.082938	-0.090784	-0.13759	-0.066974	-0.0066031	-0.077849	-0.069818	-0.1036	-0.10611	-0.099137	-0.099404	-0.060396	-0.07951	-0.17174	-0.099466	-0.05523	-0.0057371	-0.024644	-0.15744	-0.074422	-0.060429	-0.1087	-0.067212	-0.071849	-0.097337	-0.075801	-0.0932	-0.092851	-0.07413	-0.11635	-0.083517	-0.047369	-0.0043544	0.058382	0.029225	0.10918	0.10862	0.032652	-0.040216	-0.020841	-0.030467	-0.1299	-0.20662	-0.15603	-0.010743	0.081437	0.029451	-0.028971	-0.01798	-0.0058472	0.0061512	0.088071	0.07759	0.0014665	0.26546	0.28819	0.037774	-0.1179	-0.23978	-0.0018025	-0.063962	0.25359	0.31854	0.18118	-0.18117	-0.070674	-0.093965	0.56743	0.40663	0.4092	0.51228
-0.14092	-0.051766	0.020827	-0.023892	-0.071883	-0.043502	0.08749	0.011057	0.0037059	-0.019203	-0.12528	-0.051504	-0.035232	-0.056239	-0.055419	-0.082754	-0.035819	-0.10527	-0.039875	-0.04795	-0.0071	-0.072862	-0.0067528	-0.034329	-0.024181	-0.046055	-0.027591	-0.03932	-0.053636	-0.080675	0.03706	-0.056675	-0.00039057	0.067786	-0.022928	0.034492	-0.029754	0.017392	0.052494	-0.0098266	-0.019207	-0.032826	-0.062595	-0.027086	-0.035324	-0.11712	-0.075248	-0.10697	-0.13635	-0.078228	-0.059508	-0.15953	-0.10526	-0.055621	-0.02575	0.13318	-0.016727	-0.13977	-0.079513	-0.041473	-0.017164	0.064655	0.08574	-0.083303	-0.095614	-0.11751	-0.11473	-0.1066	0.02886	0.0052003	-0.020327	0.0080297	0.034256	0.072388	0.11015	0.089234	0.011833	-0.024776	-0.081665	-0.12442	-0.094755	-0.077691	-0.033577	-0.059533	-0.065917	-0.079261	-0.019371	0.19445	0.7074	0.16298	0.36808	0.39983	0.51691	-0.17182	-0.091199	-0.033922	0.046393	0.045781	-0.07107	0.074499	-0.0045842	-0.17353	-0.23784	-0.046892	-0.00088401	0.012539	-0.076799	-0.021816	-0.078772	-0.070498
-0.10401	-0.016584	0.053483	-0.07216	-0.092781	0.075892	0.048145	-0.025955	-0.023601	-0.039487	-0.02151	-0.029126	-0.0005377	-0.01062	0.0097679	0.027477	0.031465	0.046316	0.016866	0.021512	-0.008269	-0.037881	-0.020175	-0.01285	-0.049136	-0.022067	-0.030758	-0.04106	-0.018644	0.025552	-0.032195	0.0010561	0.026412	-0.0008926	-0.045971	0.038486	-0.0040663	-0.033555	-0.086497	-0.035756	-0.058835	-0.039048	-0.059647	-0.041305	-0.00036721	0.0085745	-0.079326	-0.05805	-0.086492	-0.055252	-0.045564	-0.065117	-0.046525	-0.016037	-0.010109	0.027062	-0.051095	-0.0015243	-0.010844	-0.035248	-0.055935	-0.0065369	0.015256	-0.063563	-0.068717	-0.031331	-0.14323	-0.085597	-0.042087	-0.033157	0.0082439	-0.013201	-0.0013735	0.035796	0.017821	-0.024492	-0.057864	-0.062379	-0.092613	-0.080884	0.11254	0.15337	0.69564	0.18103	-0.060737	-0.12729	-0.091021	-0.088567	-0.095082	-0.13844	-0.088713	-0.060769	-0.031623	-0.042772	-0.019088	0.13028	0.36745	0.41485	-0.12384	0.5659	0.20792	0.037645	-0.0071674	-0.030508	0.0090972	0.013682	0.082447	0.1353	0.0088718	0.030455
-0.056987	-0.058779	-0.012064	0.068082	-0.016551	-0.00053709	0.07525	-0.0039089	-0.028188	-0.041839	-0.065591	-0.071685	-0.046247	-0.025898	0.001654	0.052207	0.087369	0.085921	-0.026051	0.060739	0.065879	0.011756	0.0011735	-0.066439	-0.040074	-0.050925	-0.056805	-0.035472	-0.079286	0.016629	-0.032888	-0.16936	-0.044726	0.011987	-0.046372	0.011776	0.37292	0.6706	0.39056	0.030534	0.27882	0.34309	0.0047965	-0.10883	-0.23157	-0.097209	-0.013505	0.062308	0.0482	-0.010666	-0.077765	0.1699	0.15064	0.17039	0.10938	-0.01565	-0.078869	0.051545	-0.042628	-0.076539	-0.10276	-0.086242	-0.14041	-0.17186	-0.096118	-0.053844	-0.10325	-0.058943	-0.059114	-0.0704	-0.037797	-0.067154	-0.10205	-0.062665	-0.06406	-0.069805	-0.021763	-0.021893	-0.024696	-0.084604	-0.069415	-0.066289	-0.048462	-0.078717	-0.11085	-0.10023	-0.048022	-0.097969	-0.043627	-0.10239	-0.067656	0.016559	-0.028426	-0.022192	-0.039735	-0.062489	-0.054033	0.0064263	-0.028122	0.043906	0.043295	-0.0039597	0.034991	-0.0044016	0.044426	0.069139	0.03123	-0.02014	0.0024678	-0.0059694
-0.048598	-0.11945	-0.030213	-0.07664	-0.062731	0.018469	0.020961	-0.021067	-0.045168	-0.079552	-0.06784	-0.047934	-0.021716	-0.034948	-0.061213	-0.13359	-0.1526	-0.2431	0.37216	0.0042983	0.028914	-0.058822	-0.049547	-0.037136	-0.058957	-0.047178	-0.031312	-0.035662	0.087619	0.35775	0.21954	-0.037682	0.0023367	-0.028198	-0.052431	-0.069236	-0.1041	-0.077721	0.32529	0.68892	0.014586	-0.077634	-0.099696	-0.098677	-0.0040556	-0.035761	-0.052665	-0.039509	0.014062	0.30731	0.10638	-0.024571	-0.013837	-0.047779	-0.038488	0.0043217	0.017508	-0.039373	-0.033317	-0.015491	-0.030156	-0.022399	0.001159	0.066982	0.1754	0.29522	-0.050925	-0.015727	-0.018895	-0.049228	-0.055013	-0.018765	-0.013802	0.010302	-0.0063999	-0.026243	-0.0090766	-0.017832	-0.018087	-0.051902	-0.026416	-0.031992	0.019398	-0.023242	-0.012723	0.018983	-0.0082602	0.0087662	-0.0084459	-0.020997	-0.019443	-0.049477	-0.033599	-0.041213	-0.064576	-0.022166	-0.026387	0.064243	-0.046482	0.024608	-0.034841	-0.014857	-0.022481	-0.06525	0.0039775	-0.0085314	-0.012585	0.044786	0.017144	0.026009
-0.17137	-0.12873	-0.090422	0.03723	0.028161	-0.082997	0.025642	-0.058895	-0.046193	-0.011429	0.056672	-0.0059169	0.022789	-0.067403	-0.1641	0.0575	-0.016296	0.022824	-0.0087479	-0.067485	-0.030634	-0.036311	-0.082643	-0.077902	0.00031047	-0.023895	-0.034533	-0.020923	-0.068437	0.067548	-0.16238	-0.03333	0.033587	0.018463	-0.059831	-0.14874	-0.072135	0.0094127	0.02703	0.041355	0.031181	-0.0092535	-0.091177	0.02601	0.6161	0.42897	0.18743	0.10306	-0.030608	-0.066135	-0.02792	0.053552	0.1786	0.033617	-0.06911	0.0081193	-0.085105	0.032792	0.022466	-0.11795	-0.19257	0.022176	-0.013349	-0.043799	-0.1151	-0.068688	-0.26068	-0.065234	0.1065	-0.024446	0.11864	0.023237	-0.022569	0.0035857	0.020919	-0.063159	0.019947	-0.025686	0.035785	-0.0076035	-0.10314	-0.13155	-0.069879	0.030455	0.023434	-0.06461	-0.05149	-0.051124	0.18154	0.028193	0.018789	-0.042384	-0.25412	-0.00065003	0.032698	0.054913	0.0014793	-0.016765	-0.053553	0.018591	0.0047681	-0.036087	0.0086955	-0.011943	0.0018483	-0.012327	-0.090549	-0.061017	0.017139	0.030112
-0.069548	-0.059894	-0.11096	0.098176	0.077284	0.059725	-0.0091099	0.047353	0.13572	0.076155	0.042586	0.057401	0.00358	0.023053	0.072769	-0.05001	0.088979	0.066215	0.095242	-0.0088665	-0.050682	-0.049566	0.012762	-0.033358	0.2138	0.08828	0.028458	-0.041761	-0.019668	0.16983	0.086038	0.013159	-0.12793	-0.043193	0.71606	0.062786	0.10583	0.016173	0.032167	-0.00035955	-0.082716	-0.027423	-0.13272	-0.0044045	0.028296	-0.048065	0.0012416	-0.047546	0.045072	-0.032866	-0.043701	0.013316	-0.044023	-0.0090582	-0.036063	-0.0085464	0.013612	-0.015911	0.038844	0.24446	0.16704	0.069896	-0.10087	-0.024051	0.0039209	-0.017305	-0.082511	-0.14741	0.034652	-0.010201	0.043398	0.037457	0.0069386	-0.092433	0.15185	-0.11539	-0.036349	0.045132	0.13688	-0.089971	0.017522	-0.10991	-0.0008536	-0.051028	-0.10588	-0.008964	-0.0049753	0.053291	0.15952	-0.02347	-0.011192	-0.023588	-0.10956	0.051851	0.037412	0.028813	-0.018494	-0.050522	0.1188	0.1341	0.09698	0.053678	0.032937	0.10837	0.067211	0.032663	-0.040708	0.10486	0.033126	0.045929
-0.10003	-0.035906	-0.013641	0.0095855	0.014721	-0.046333	-0.069029	-0.056564	-0.035242	-0.048048	-0.056494	0.002098	-0.029162	-0.046824	-0.013591	0.013104	0.041809	-0.0063006	-0.0018442	-0.018165	0.0036733	-0.014018	-0.026048	-0.003098	-0.035677	-0.0098304	0.0028713	0.010967	-0.0077562	-0.05347	-0.10423	-0.054225	0.04769	-0.048075	-0.059713	-0.23918	-0.084532	-0.054076	-0.044131	-0.042503	-0.00051854	-0.016732	-0.13902	-0.18389	-0.1362	-0.088958	-0.027785	0.0030852	0.085544	-0.037517	0.055944	0.2038	0.049538	0.11061	0.24791	0.48364	0.28582	0.041412	-0.053516	0.055632	0.16632	0.32448	0.35197	0.064704	-0.067401	-0.055995	-0.10545	-0.090576	0.013607	0.06993	0.003085	-0.031075	-0.16809	-0.17914	-0.11393	-0.076022	-0.065267	-0.050729	-0.071499	-0.067553	-0.087929	-0.03637	-0.04485	-0.091803	-0.0526	-0.012427	-0.013349	0.013656	-0.0077676	0.013152	-0.075974	-0.096887	-0.10923	-0.051707	-0.054022	-0.019742	-0.056827	0.0062891	0.060058	0.020551	0.034723	-0.0052072	-0.0017327	-0.03771	-0.016661	-0.042577	0.044381	0.10198	0.046982	0.025206
-0.024603	-0.028203	-0.052651	0.036003	-0.0072643	-0.0060024	0.039967	-0.016396	-0.036532	-0.033183	-0.047733	-0.02232	-0.0073458	-0.0054911	-0.0028021	0.0020951	-0.011297	-0.015561	0.0064982	-0.0079064	-0.010658	-0.049027	0.00064075	-0.025186	-0.026499	0.010502	0.067568	0.035906	-0.048314	-0.0013282	-0.13791	-0.13979	0.093165	-0.0032849	-0.072334	-0.16961	-0.14653	-0.085707	0.0055418	0.029433	-0.0040495	-0.052309	-0.047536	-0.024163	0.034822	-0.06658	-0.10105	-0.047184	-0.019322	-0.020611	-0.052126	0.0014119	0.062745	0.23513	0.16279	-0.12551	-0.14531	0.19391	0.20356	0.40499	0.2271	-0.0094106	-0.19793	-0.14755	-0.021445	-0.041834	-0.074018	-0.076283	-0.087729	-0.084238	-0.092018	0.062924	0.18988	0.22712	-0.43586	-0.17454	-0.057546	0.050456	0.054082	0.0051227	-0.0067693	-0.072534	-0.024407	0.076084	0.094619	0.12723	0.052875	-0.14535	-0.021367	0.10264	0.0050428	0.078518	0.1031	-0.0093473	0.0031676	0.011762	-0.056324	-0.019193	-0.02863	0.046237	0.074891	0.030224	0.01028	-0.031511	0.033751	0.0019756	0.046339	0.046802	-0.039087	-0.079278
-0.10349	0.023746	0.17249	-0.011955	-0.041302	0.1063	0.1791	0.027318	0.12155	0.097153	0.17697	0.019052	-0.042537	0.043391	-0.0071578	-0.15719	-0.094812	-0.0045128	0.020375	-0.014019	0.075395	0.046392	0.011823	-0.015793	0.10528	-0.0065172	-0.012232	0.055977	0.10517	0.04202	-0.032036	0.025977	-0.011505	0.030548	0.14536	0.040177	-0.0059169	-0.02164	0.018799	0.035821	0.054779	-0.061125	-0.12947	-0.058423	0.11558	0.074421	-0.0029942	-0.0019648	0.03611	-0.044841	0.032492	0.075573	0.036722	0.099028	0.18838	0.30226	0.067743	0.10732	0.032297	-0.041459	-0.086596	-0.032998	-0.069295	-0.11751	-0.11212	-0.04988	-0.10833	-0.094586	-0.043079	-0.11973	-0.1806	-0.02084	0.0063031	0.11415	0.17298	0.17682	0.11535	0.071165	-0.013713	0.061904	-0.010215	0.080138	0.12071	0.07707	0.11552	0.18909	0.013874	-0.015411	-0.16685	-0.11412	0.043136	0.034798	0.24502	0.070459	0.018831	-0.11276	-0.051543	0.0061865	-0.10209	-0.17543	-0.093174	0.17911	0.012939	0.046246	-0.028599	0.019206	0.16981	-0.20698	-0.078768	0.10086
-0.059949	-0.13031	0.3671	0.26986	0.2645	0.054999	0.0060408	-0.04226	-0.012931	-0.017677	-0.016525	-0.0094961	-0.01152	-0.020183	-0.059728	-0.12337	-0.10856	-0.16251	-0.15007	-0.12193	-0.14323	-0.060931	-0.021193	-0.0074471	-0.028314	-0.01633	-0.017167	0.015545	0.030234	0.0431	0.0078705	-0.0055062	0.0081939	0.0046541	-0.042562	-0.027325	-0.033831	-0.019697	0.045563	-0.021575	-0.023029	-0.005113	-0.025186	-0.016378	-0.0056295	-0.0089352	-0.0082531	-0.0093491	-0.022227	-0.013903	-0.043624	-0.039608	-0.0058569	-0.010065	-0.028549	-0.033086	-0.055626	-0.0092945	-0.0034821	-0.016753	-0.02097	-0.059348	-0.047847	-0.068783	-0.065305	-0.10354	-0.0054301	-0.0043843	-0.012222	-0.010976	-0.019861	-0.014955	-0.0083653	0.006277	-0.0080979	-0.052518	-0.0080136	0.001119	0.020969	0.03668	0.0526	0.16789	-0.036421	-0.013531	0.013447	-0.0051339	0.0065979	-0.016307	-0.026605	-0.010194	-0.027897	-0.0027578	-0.016433	-0.028849	-0.072893	-0.10849	-0.085223	0.30384	0.51613	0.029002	-0.097346	-0.092577	-0.021548	0.014077	0.017925	0.020985	-0.048147	0.097044	0.26369	0.10989
-0.0023094	-0.010237	-0.069323	-0.026593	0.18449	0.61606	0.40389	-0.01394	-0.046833	-0.028643	-0.037916	-0.038158	0.017405	0.14084	0.26389	0.14125	0.02957	0.013258	-0.0042777	-0.016532	-0.12714	-0.24478	-0.12124	0.0035166	-0.029559	-0.025592	-0.010533	-0.065787	-0.11844	-0.069293	-0.06173	0.046229	0.028579	-0.019115	-0.021719	-0.048814	0.0063292	-0.030107	-0.024358	-0.021286	-0.029571	-0.014251	-0.036961	-0.024568	0.0022396	-0.03572	-0.0045697	-0.0067525	-0.02029	0.0067764	0.017723	0.0048504	-0.0039419	-0.020368	-0.04919	-0.034576	-0.022029	-0.031588	-0.041094	-0.031149	-0.0097367	0.036499	-0.0066793	0.0051137	0.036824	0.018762	-0.0013857	0.0037654	0.0045101	-0.036128	-0.029574	-0.026584	-0.026688	-0.040549	-0.04133	-0.014251	0.0050537	-0.0044713	-0.026726	-0.014831	-0.01464	-0.055266	-0.012108	-0.007022	-0.029119	-0.0042319	-0.011445	0.0062096	-0.0079465	-0.028975	-0.042688	0.0096441	-0.04491	-0.047582	-0.058099	-0.0024418	-0.015455	-0.089486	-0.052286	-0.044025	-0.080978	-0.050981	-0.047668	-0.074442	-0.13959	-0.10633	-0.11076	-0.10179	-0.010987	0.13195
-0.083065	-0.058248	-0.024042	-0.00331	-0.02898	0.022397	0.030565	0.010639	0.0011114	-0.019594	-0.0051411	-0.021954	-0.024362	0.017378	-0.040847	-0.014824	-0.0086322	-0.0053032	-0.010516	-0.0057861	-0.0010808	0.0073915	-0.011089	-0.013618	0.0076594	-0.030342	-0.035972	-0.017429	0.0081659	-0.0019793	0.036364	0.045726	-0.036606	0.04613	-0.024085	0.060392	0.026696	0.026329	0.02266	0.010659	-0.019347	-0.0032696	-0.028769	-0.035871	-0.16347	-0.11978	-0.079726	-0.047424	-0.059191	-0.030487	-0.034824	-0.029643	-0.067264	-0.077647	-0.044236	0.025086	0.013506	-0.054171	-0.012157	-0.071623	-0.023234	0.038937	0.06266	-0.033241	-0.11159	-0.050758	-0.095113	0.073887	0.2692	0.15177	0.041399	-0.031198	-0.11947	-0.0052607	0.020157	-0.26383	-0.075207	0.16346	0.34233	0.19059	-0.015276	-0.049155	0.011768	0.18069	0.3908	0.1799	-0.086065	-0.15238	-0.012192	0.054779	0.097996	-0.033381	-0.15389	-0.076189	-0.0063214	-0.029095	0.0097382	-0.0064116	-0.060932	-0.013479	0.0056587	-0.018027	-0.06737	-0.027437	0.048312	0.046385	0.055584	-0.058881	-0.066856	-0.029458
-0.067629	-0.024265	-0.011604	-0.00063544	-0.048092	-0.030167	-0.01199	-0.02921	-0.044407	-0.041421	-0.070958	-0.034814	-0.027828	-0.0031788	0.038141	0.024006	0.046647	0.066676	-0.013514	0.029893	-0.031094	-0.038903	-0.025287	-0.023868	-0.019351	-0.014413	-0.025566	-0.02933	-0.023808	0.077898	0.037236	0.054297	-0.028693	-0.040261	-0.046913	0.058086	0.057241	0.0064641	-0.013833	-0.041553	-0.032432	-0.042399	0.017437	0.028264	0.022653	0.00091798	-0.015464	-0.01455	-0.022732	-0.024956	-0.0061425	0.040785	-0.032275	0.0065909	0.0050974	-0.015879	-0.028187	-0.065858	-0.0886	-0.027348	-0.03869	-0.012354	-0.070497	-0.066087	-0.015456	-0.033702	-0.059337	-0.058383	-0.059257	-0.070094	-0.055063	0.00041515	-0.056819	-0.12213	-0.033129	0.23582	0.17761	0.11628	0.036833	-0.022881	-0.07419	-0.0025768	-0.021631	-0.011634	0.12855	0.26033	0.29453	0.19637	0.024405	0.20842	-0.17703	-0.10591	-0.060258	-0.1271	-0.096643	-0.051342	-0.051566	0.050298	0.051258	0.12439	0.07184	0.01784	0.052813	-0.03127	-0.0048056	-0.00045525	0.026492	0.076266	-0.065925	-0.16532
-0.014603	0.037918	0.091187	-0.03321	0.068598	-0.10161	0.089187	0.087661	0.0076107	0.016204	-0.026712	-0.027359	-0.016837	0.049922	-0.042505	0.071695	0.03704	-0.0091646	-0.062961	-0.0095712	0.030119	0.034724	0.027144	0.62475	-0.020369	0.001596	0.083613	-0.12304	-0.042146	0.014067	0.030931	-0.017593	-0.027242	-0.029009	0.0019145	0.061851	-0.0038149	0.012117	0.031312	0.062945	-0.031153	-0.027395	-0.042607	-0.029231	0.043927	-0.070655	-0.013441	-0.023242	-0.0086878	-0.0077425	0.069386	-0.031193	-0.024337	-0.0037585	0.014917	0.0053827	-0.010681	-0.0086458	0.0038242	0.071357	-0.03744	0.022668	-0.004388	-0.061473	-0.040939	-0.026942	-0.04794	-0.03189	0.0095014	-0.047274	0.09161	-0.0032478	-0.071948	0.098382	-0.026503	0.056237	0.0094082	-0.07081	0.05883	-0.046327	-0.059364	0.035274	-0.086441	0.023773	-0.0096077	-0.046213	0.036606	-0.0076314	0.020137	-0.033295	-0.038306	-0.033993	-0.073721	-0.0004825	0.022076	0.0013368	0.035056	-0.009511	-0.030779	0.028561	-0.04109	-9.7479e-05	-0.0082164	-0.038374	-0.021518	-0.013388	0.028393	-0.013202	-0.049595	0.05588
-0.052992	-0.012927	0.067045	-0.067944	0.026029	-0.023523	0.099238	-0.010965	0.00093678	-0.032156	0.060619	0.066872	0.65214	-0.14089	0.04687	0.0015838	-0.025445	-0.005735	0.042205	0.047548	-0.031814	0.028444	0.069771	-0.028495	-0.0076637	0.025596	0.0087121	0.019796	-0.0067277	-0.001762	0.037446	-0.01988	0.002254	-0.0036802	-0.024276	0.023231	-0.0408	0.032582	0.030343	0.024131	-0.028152	0.006175	0.019547	-0.00068787	-0.0041892	-0.055133	-0.031952	-0.026171	-0.010761	-0.053822	-0.051924	-0.015121	-0.031587	0.032289	-0.0042672	0.025824	-0.034937	-0.025892	0.014059	0.0020593	0.0092111	0.011373	0.026044	-0.02298	-0.043991	-0.031061	0.011987	-0.011502	0.0071266	-0.0069224	0.033035	-0.0067063	-0.017095	0.017549	0.048329	-0.011703	0.068555	-0.038365	-0.027008	-0.032005	0.049449	0.0071639	-0.02264	-0.012758	-0.0051104	0.025945	-0.032098	-0.047342	0.030382	0.0029577	-0.013651	-0.032339	-0.036528	0.050918	-0.0047759	0.022956	-0.084458	-0.031396	0.019909	0.038524	-0.038329	-0.012689	0.050284	-0.028584	-0.046892	-0.050534	0.080524	0.014695	-0.053197	-0.085119
-0.037625	-0.020295	0.041619	0.053523	0.038956	-0.014067	-0.0079701	-0.05736	-0.022015	-0.062111	-0.055463	-0.038405	-0.020432	-0.0026485	0.029914	0.066212	0.018396	-0.036875	-0.021093	-0.016375	-0.031836	-0.033894	-0.045767	0.0044828	-0.055962	-0.0236	-0.022358	-0.0010432	0.033472	0.042174	0.027772	0.045748	-0.0146	0.023697	-0.050177	0.086339	-0.023832	-0.06137	-0.020095	-0.017363	-0.0039694	-0.055882	-0.055473	-0.025398	-0.053861	-0.067504	-0.066276	-0.036125	-0.020112	-0.0041544	0.0013635	0.020881	-0.0010991	0.032107	-0.023436	0.025567	0.033572	0.00022	-0.031265	-0.051505	-0.04481	-0.018471	-0.016844	-0.017971	-0.0088193	-0.014812	-0.04384	-0.01701	0.00068579	-0.035399	-0.054667	-0.031702	-0.020708	-0.045558	-0.01027	-0.036016	-0.032438	-0.052205	0.006234	-0.015341	-0.0029809	-0.01902	0.0065816	-0.0016866	-0.018945	-0.048851	-0.022563	0.018727	0.065519	0.026038	0.00313	0.037916	0.014989	0.24609	0.12421	0.024669	0.010106	0.036999	-0.0084503	-0.010106	-0.042934	0.12773	0.45078	0.022956	0.14846	0.074835	-0.24861	-0.14549	-0.081532	-0.13646
-0.0013826	-0.045978	-0.0074278	0.012085	0.021482	-0.04933	-0.13447	-0.10446	-0.044314	-0.0088813	-0.02136	0.015853	0.014945	0.020864	0.13518	0.10175	0.059697	-0.0014289	-0.033118	0.03055	0.088544	0.062823	-0.014603	-0.024823	0.036611	0.022405	-0.015258	-0.19064	-0.087267	0.055457	0.01465	0.093784	0.40689	0.3196	0.074373	0.012236	0.090057	0.015021	0.052384	-0.0055555	0.010238	-0.045522	-0.11522	-0.067075	0.025022	0.014003	-0.043151	-0.037382	-0.045478	0.016651	0.027266	-0.027132	-0.027444	-0.0078486	0.0089969	0.017142	0.023369	-0.0077763	-0.00025892	0.0090718	-0.010248	-0.018467	0.0096342	0.0090299	0.015326	-0.017945	0.0082124	0.033345	0.0080753	-0.010389	-0.021219	-0.0055583	0.039774	0.051729	0.016361	0.039791	0.013991	0.0091873	0.026608	0.0011612	0.023472	0.0093984	0.0025335	-0.015556	0.024131	0.010309	0.015907	-0.0054459	-0.046793	-0.035507	0.010578	0.047878	-0.0041121	0.032831	0.031393	0.017199	-0.010126	0.0025023	0.033598	-0.016842	-0.027118	-0.034296	-0.036008	-0.061718	-0.099975	-0.075591	-0.018464	-0.00035544	-0.0036372	-0.025174
0.0054908	-0.0026995	0.032723	-0.002449	-0.026307	-0.10611	0.14289	0.44925	0.025533	-0.021313	-0.024567	-0.10271	-0.0074001	-0.0082998	0.045923	0.013451	-0.011741	-0.041707	0.02888	0.011726	0.0038599	0.050882	-0.14118	-0.13345	-0.016466	-0.005572	-0.05926	-0.1698	-0.026087	-0.029095	-0.001015	0.0053854	0.034	-0.0091024	0.0057282	-0.0082819	-0.0041853	-0.031353	-0.033274	-0.021231	-0.0024615	-0.021682	-0.01766	-0.0078164	0.0019756	-0.0082034	0.0030353	0.0030892	-0.001058	-0.007572	-0.011281	-0.004076	-0.0017873	0.0064507	-0.0043965	0.020559	0.0079613	-0.0013248	0.0021424	0.0092386	-0.00063051	-0.052975	0.0054931	0.00033783	-0.0089626	0.0045032	0.011568	0.0027876	0.017075	-0.00087703	0.0095593	-0.0048706	-0.0050828	-0.01808	-0.025832	-0.014394	-0.00019759	-0.02531	-0.0098008	-0.0092564	-0.019139	0.025864	-0.045325	-0.029943	-0.01936	-0.013705	0.029892	-0.021227	-0.015907	0.0089671	0.012406	-0.012282	-0.037655	0.038768	0.025921	0.026522	0.01497	0.04124	0.022435	-0.019181	0.020806	0.02683	-0.012414	-0.0048494	-0.034748	0.053679	0.034465	0.0018673	0.019332	-0.027637
0.062078	0.037708	0.0027456	-0.030172	-0.010545	0.16285	0.042066	-0.044645	0.0095382	-0.068615	-0.043998	-0.035483	0.016123	-0.089877	-0.24563	-0.058797	-0.0043319	-0.053457	-0.0792	-0.020711	0.081672	0.22354	-0.073325	-0.019133	-0.030328	-0.021013	-0.05198	-0.051322	0.074002	0.010655	-0.029302	-4.7297e-05	0.010485	0.0041498	0.05799	0.0096555	0.05049	0.04899	-0.078957	-0.038076	0.031167	0.022999	-0.093901	-0.054611	0.02539	0.0016965	0.011513	0.0083987	0.0031298	0.019728	0.018602	0.00066426	-0.011555	-0.0036775	-0.021499	-0.022476	-0.027961	-0.017797	0.00035644	0.050871	0.036978	0.061358	-0.010414	0.010598	0.063257	0.031029	0.071354	0.02995	0.040005	-0.030999	-0.043337	-0.0099833	0.016972	-0.032725	-0.04294	3.4457e-05	-0.019964	-0.041137	0.038907	0.016279	0.044423	0.074317	-0.0054782	-0.040713	0.024252	0.0049615	0.046206	0.017165	0.091044	0.036501	-0.076106	0.0070876	-0.02338	0.0099024	-0.0020598	0.046553	-0.042477	0.027782	-0.060635	0.047101	-0.059365	-0.036387	0.047318	-0.0054023	-0.017303	-0.0090105	0.046249	-0.027671	-0.032783	0.058003
-0.015803	0.0043922	0.072349	0.26591	-0.075917	-0.014376	0.030666	0.0032763	-0.00081963	-0.14039	-0.055235	-0.017381	0.020522	-0.00046842	0.0031398	0.034843	0.085615	-0.054298	-0.017166	0.0084628	0.0083283	-0.049609	0.05261	0.011425	-0.011105	0.00010258	0.011911	0.033622	0.038904	-0.1988	0.04483	0.011792	0.0036592	0.015052	0.054556	-0.0071667	0.014361	0.020488	-0.0043055	0.019254	0.025377	0.038344	0.018662	-0.045481	0.052641	0.035945	0.044696	0.0037617	0.0087561	0.0026292	-0.054302	-0.037473	-0.042219	-0.0061244	0.0018301	0.01267	0.014284	0.019722	0.0015364	0.0097948	0.0084816	0.016696	0.021211	0.0093601	0.12769	0.097473	-0.0083842	0.027205	0.022027	-0.026517	-0.0011942	0.057266	-0.0098987	0.052213	0.022671	-0.0045956	0.0077631	0.035676	-0.0086281	-0.038176	0.0072246	-0.027517	0.014634	0.013672	0.026154	0.046657	0.0012095	0.026795	0.0065855	-0.014658	0.03498	-0.13051	0.030742	0.028343	0.0035124	0.016092	-0.021544	0.0033978	-0.05043	0.0020914	0.032995	0.051416	-0.021549	-0.12827	0.014908	0.00018015	-0.015421	0.0024411	-0.017674	0.02122
-0.037193	-0.0022655	0.01718	0.0078528	-0.024632	0.039195	-0.0076431	0.10584	-0.083898	0.01551	-0.00061434	0.40287	-0.059873	-0.037115	-0.011259	0.039305	0.037111	0.00040513	-0.033844	-0.001656	0.011409	-0.006828	-0.038559	-0.019603	-0.034794	0.073169	0.010811	0.025921	0.041122	-0.01626	0.037229	-0.064626	0.028033	-0.022571	-0.017417	0.0081308	0.0044003	0.058311	0.019604	0.041524	-0.055425	0.0067227	0.0090063	0.012813	0.035588	-0.045011	0.0050407	-0.0054034	-0.0099099	0.0059555	0.022654	-0.0082057	-0.0005162	-0.0025046	-0.027118	-0.047123	0.0048334	0.007726	0.021287	0.037487	-0.021767	0.0047957	0.075623	-0.025111	-0.039374	-0.012815	-0.01601	-0.030967	0.048786	0.055188	-0.053026	-0.00477	0.0032642	0.025102	0.0086881	0.0011792	-0.008363	0.0067369	0.012963	-0.026674	0.015183	-0.023794	0.00055157	-0.057528	0.032256	-0.0144	0.040281	0.043365	-0.020016	0.014078	-0.011199	0.0075141	0.021405	-0.0084678	-0.011533	0.040828	0.018852	0.037273	-0.028135	-0.0053419	-0.044148	0.020593	0.069717	-0.012592	-0.049489	-0.019306	0.020571	-0.021787	0.044785	0.0094458
0.020366	0.014664	0.01786	-0.008595	-0.0090121	0.0094186	-0.02757	0.0010686	0.010166	0.034978	0.028142	0.011121	0.011693	0.012586	0.03368	-0.020781	-0.018345	-0.0043234	-0.049007	-0.020945	-0.047551	-0.013245	-0.0048492	0.019378	0.020171	0.00076803	-0.017937	-0.027286	0.004108	0.02926	0.19089	0.20145	-0.026937	-0.12013	-0.040114	-0.2874	0.020447	0.1202	0.048673	-0.047867	0.014144	-0.0086113	-0.070692	-0.081261	0.03158	0.018353	-0.0048796	-0.021474	-0.015102	-0.016112	-0.01372	-0.01853	-0.010603	-0.029471	-0.01408	-0.0065762	-0.0097833	0.0018724	0.017258	0.011356	0.010556	0.0050665	0.02148	0.021795	-0.010478	-0.016228	0.034465	0.017191	0.0024559	0.0089317	0.0028363	0.01335	0.034789	0.027372	-0.0052262	0.013685	-0.011749	-0.0091239	0.0090041	-0.0050472	0.019739	0.024924	0.005975	0.0077127	0.010542	0.0035909	0.027221	0.00043901	-0.0061391	0.017445	0.024927	0.0053589	0.022482	0.0090246	0.037517	0.038079	0.024115	0.0068849	-0.015058	-0.0093497	0.041248	0.0067509	-0.0059729	0.033029	0.026073	0.016704	0.0014807	-0.020248	-0.041084	-0.024681
-0.020769	0.048749	-0.033255	0.0097744	-0.0045803	0.036758	-0.045114	-0.015696	-0.026596	0.007118	0.0010734	-0.026062	-0.0069875	-0.020508	0.015976	-0.020514	-0.0042871	-0.013793	-0.052694	0.013329	-0.017063	-0.016544	-0.029656	-0.046814	-0.053013	0.017657	-0.0076354	-0.0094226	0.020898	0.0048245	0.034358	-0.025743	0.013991	-0.013042	-0.041891	0.01637	0.012859	-0.045046	-0.0013847	0.011617	0.0075596	0.0064341	-0.042459	-0.039865	0.057651	0.0043431	0.035115	0.0036988	0.023199	-0.0017623	0.0021609	-0.0025076	0.010851	-0.01632	0.023173	-0.037821	-0.02638	-0.017109	-0.0035236	0.088051	0.076297	-0.019325	-0.075408	-0.0046281	-0.014899	0.0039556	0.036583	-0.026141	-0.0022327	0.032219	0.15535	0.007139	-0.29392	0.038398	0.045059	0.027993	-0.026307	0.044592	0.0017369	0.04169	0.0030183	0.044834	-0.013957	-0.050287	-0.012969	-0.012941	0.022788	-0.033903	-0.0092439	-0.094409	0.048048	0.035876	0.059722	-0.023117	-0.055384	-0.01196	0.016365	-0.0046934	0.00049893	-0.003009	0.022058	0.065737	0.050571	-0.0066135	-0.032262	-0.027679	0.026736	0.0044067	-0.023423	-0.050034
-0.0052445	-0.0092361	0.026988	0.037382	-0.021411	0.041156	-0.03351	0.0062041	0.0458	0.017548	-0.0055839	-0.016294	-0.0041447	-0.0068883	0.0069024	0.011451	-0.0038815	-0.0038608	0.017243	0.0063676	-0.0063536	0.01751	-0.045294	0.0049291	0.35368	0.055524	-0.0073433	-0.0074252	0.018928	-0.033585	0.026518	-0.017526	-0.0047613	9.0531e-05	-0.17714	0.037879	0.021387	-0.013556	0.0094892	0.019209	0.0065426	-0.0090169	-0.0041271	-0.014829	-0.0065577	-0.0059996	0.0085022	-0.00044306	0.02563	-0.0099965	0.014169	-0.013182	-0.017228	0.0073328	-0.016508	0.0033828	-0.021572	-0.0098447	0.013295	0.036226	0.035619	0.012177	-0.013505	-0.021832	-0.0001628	-0.0026456	-0.025442	0.01105	-0.012048	0.01369	-0.0019896	0.0035149	0.01551	-0.032961	-0.002826	0.015877	-0.024461	-0.0076175	-0.0042118	0.0054451	-0.014493	-0.014525	0.0064075	-0.0040129	0.012032	-0.0087293	0.0017268	0.023031	0.063322	-0.069932	-0.017071	-0.012622	-0.030356	-0.0064073	0.011063	0.01557	-0.0062247	-0.01028	-0.019709	0.0096706	-0.010657	-0.0084486	0.038836	-0.0034042	-0.032602	0.0044016	0.021461	0.0029995	0.040121	-0.01371
-0.044712	0.0006977	0.049753	-0.024421	0.019756	0.033171	0.027589	-0.045947	0.029699	-0.0017678	0.017551	-0.02981	-0.017474	0.020621	-0.009346	0.0058716	-0.0071654	0.031348	0.033561	-0.029452	-0.036635	0.034635	0.042658	-0.039229	-0.012949	0.0087598	-0.00031579	0.0020646	0.010227	-0.031971	0.017932	-0.0087736	0.015066	0.018062	-0.0091808	0.043224	0.0072431	-0.004776	0.012423	0.036487	0.004881	0.01324	0.012093	-9.2375e-05	0.0042803	-0.02519	0.00264	-0.0011409	-0.019838	0.00056862	0.004885	-0.040235	-0.0097222	-0.014209	0.030237	0.01949	-0.008258	0.015804	0.0070401	0.025562	-0.0095694	0.010779	0.019853	-0.014571	-0.066304	-0.0041464	-0.0034664	0.018244	-0.0069131	-0.00048615	-0.039144	0.0039468	-0.039688	0.0064096	-0.023232	0.067166	0.0096705	0.0066283	0.021632	0.030719	-0.011274	-0.014818	-0.062008	-0.025888	-0.03708	-0.024581	0.035491	0.0065889	-0.051242	0.015585	0.040032	-0.015693	-0.023027	-0.02088	0.016971	0.33422	0.0074435	-0.011177	0.020278	0.0093107	-0.036823	0.055926	-0.080432	0.013817	0.095555	0.059193	-0.020535	0.0093055	0.02054	-0.020635
-0.060288	-0.033982	0.032947	-0.010689	0.0098278	0.030705	-0.011521	-0.019496	0.0053278	-0.026167	0.016787	0.012248	0.016864	0.025863	-0.013109	-0.032282	0.057932	-0.012067	0.0024466	0.013085	0.053555	-0.016402	0.007125	-0.012967	-0.01109	-0.0018034	-0.0019035	-0.04638	0.04899	-0.0096414	0.081986	0.038945	0.040837	0.018953	-0.0021236	-0.026239	0.037048	-0.067025	-0.072716	0.011194	-0.022542	0.020301	0.042281	0.038237	0.0068597	-0.15974	0.081306	0.04552	0.15307	0.0036478	0.030992	0.14301	0.050245	0.050731	-0.0081161	-0.056263	0.013548	0.041931	-0.029658	-0.022188	-0.014151	-0.044513	-0.048423	0.010389	-0.0098312	-0.0043823	-0.052425	-0.0029735	-0.010258	0.014163	0.073696	0.011015	0.030037	-0.011701	-0.001603	0.054104	-0.020094	0.011273	-0.047263	-0.068705	-0.029741	0.011849	0.016484	0.017266	0.046628	0.010224	-0.012266	-0.081271	0.064061	0.048613	0.026296	7.6767e-05	-0.014021	0.0072078	0.021314	0.029575	0.045658	0.018994	0.0029421	-0.047921	0.011343	-0.06092	-0.017004	0.0091637	0.035204	0.021372	0.025762	-0.0036734	-0.015462	0.045075
-0.026777	-0.05576	-0.00038536	0.01527	-0.039058	-0.038483	0.045014	-0.0089078	-0.0043583	-0.027526	-0.0094091	-0.023291	-0.038849	0.007458	0.0328	-0.0094006	-0.0072954	0.051388	-0.018115	0.012256	-0.0032154	-0.039622	0.063131	0.0033671	0.00035616	-0.025549	-0.0078208	-0.0073596	0.025373	0.040222	-0.040724	-0.010425	0.0036073	0.0087296	-0.019143	-0.016529	-0.0078522	0.02524	0.027709	0.00035118	-0.018989	-0.0025294	0.017129	0.029247	0.11982	-0.13554	0.025727	-0.0025346	-0.014096	0.0098278	-0.0025264	0.0041981	0.010606	-0.02607	-0.008917	0.050928	-0.0051099	0.02351	0.0029764	0.022246	0.0072165	0.0033665	0.0089706	-0.018609	-0.032003	0.0050433	0.25086	-0.043987	0.044284	-0.0058444	-0.05147	-0.007502	0.029184	-0.02884	-0.0049138	0.047541	0.0094813	-0.0068852	0.028539	0.054017	0.024447	-0.0026694	0.050134	-0.007973	0.0098097	-0.024105	-0.033382	-0.020899	0.074215	-0.044124	0.008549	-0.0068706	-0.063324	0.012775	-0.048126	-0.0080543	-0.033182	0.0034323	-0.006535	-0.015693	0.035751	0.020338	0.022616	-0.013708	-0.0063815	-0.0077201	0.016869	-0.0039121	0.014745	-0.0061239
-0.020032	0.024685	-0.0071848	-0.002831	-0.00026749	-0.089821	0.015454	-0.020818	-0.019322	-0.010638	-0.0082861	0.043912	0.078602	0.32034	-0.037347	-0.080852	-0.014945	0.0061617	-0.0070706	-0.0048919	-0.017294	-9.3869e-05	-0.040837	-0.025092	-0.0011934	-0.033753	-0.051824	0.0030054	0.016208	-0.0047306	0.0045861	-0.029529	0.004897	0.0086686	-0.020871	-0.00016756	-0.0084522	0.02398	-0.034434	-0.021145	-0.006052	-0.01505	-0.027149	-0.030213	-0.01317	0.023185	-0.0012165	0.0016709	0.016783	0.00090408	0.018755	-0.005693	-0.022601	-0.0088115	-0.017078	-0.0179	0.00018955	-0.019232	0.00071809	0.019478	0.010002	0.036145	-0.039867	-0.030078	0.017123	0.0088632	0.0037689	0.0063531	0.0071228	-0.0246	-0.031113	-0.010581	-0.01595	-0.027874	-0.0094025	0.015984	-0.01485	0.029738	0.036147	-0.044508	-0.020825	0.0080418	0.0073556	-0.044704	0.0062967	-0.046364	-0.032793	-0.0054963	0.00074258	0.010122	-0.014133	-0.0061367	-0.0034864	-0.007883	-0.0091182	-0.0077359	-0.017544	0.0054405	-0.038332	0.01111	-0.017224	0.020129	-0.010732	-0.0042793	-0.0031988	-0.022542	-0.018871	-0.014268	0.03795	0.0045843
0.0019787	0.012856	0.0030187	0.03734	0.014283	0.0048111	0.021896	0.011898	-0.0049737	0.0052087	0.004752	0.023584	0.027102	0.017562	-0.027856	0.01642	0.024041	0.021838	-0.06421	0.018195	-0.0017369	-0.025087	0.011523	-0.010853	0.0014443	-0.013451	-0.011545	-0.0021933	0.021123	0.038657	0.016927	0.066641	-0.016412	0.0071435	0.015179	0.025147	-0.075075	-0.10473	0.025541	-0.014264	0.29723	0.025699	0.010217	0.015268	-0.0021919	-0.03535	0.012422	0.0050471	-0.010334	0.038901	0.06356	0.010989	-0.014417	0.010166	-0.035923	-0.012693	0.021118	0.0080524	0.015193	0.0074151	-0.035032	0.0011608	0.030021	0.020362	-0.026586	-0.02163	-0.004997	-0.014713	0.0021805	0.0046875	-0.016277	-0.0096022	0.030083	0.018693	0.0091239	-0.008597	-0.023034	0.001489	0.021959	0.02739	-0.027325	-0.049791	-0.030308	-0.043555	-0.0035952	-0.0041932	0.013572	0.007685	-0.0047504	-0.040971	-0.031803	0.024286	0.013984	-0.024382	0.011068	-0.0008083	0.015673	0.0039143	-0.0024112	0.066139	0.037966	0.0057935	-0.0050345	-0.0051057	-0.020602	-0.0055998	0.026326	0.02298	-0.0081641	-0.017059
0.039253	-0.029406	0.020431	-0.024428	-0.024455	-0.0053021	0.0054272	-0.033558	-0.0052524	-0.015585	-0.021619	-0.0069134	0.0094259	-0.060513	0.040482	-0.031827	0.014229	-0.0022135	-0.010355	-0.015532	0.0010716	-0.012585	0.0027936	0.0078658	-0.011059	-0.0099668	0.038424	-0.013962	-0.011509	0.013949	0.0036434	-0.0029645	-0.014448	0.0020738	-0.031323	-0.018379	0.015038	-0.054909	0.010903	-0.0035682	-0.005561	-0.0075998	0.022415	0.014537	-0.029942	0.053338	0.017979	0.011579	0.044088	-0.00055869	-0.011163	0.0082527	0.013652	0.0083121	-0.012448	-0.001977	0.015861	0.0082415	-0.00018285	0.037244	0.01585	-0.03004	-0.064561	-0.022437	-0.011303	-0.016335	-0.01724	0.05688	0.26506	0.029523	-0.10019	-0.010685	-0.0039869	-0.027473	-0.016266	0.041027	-0.013172	0.022783	0.030407	-0.10607	-0.054449	0.049042	0.0014954	-0.027286	-0.062508	-0.032524	-0.0078958	0.024734	-0.01474	-0.02251	-0.027044	0.016181	0.018416	0.00912	0.0228	-0.017223	0.00029522	-0.023165	0.023073	0.02567	0.032689	0.070176	-0.044407	-0.0098113	-0.0014966	-0.0077198	0.014747	-0.034168	-0.011364	0.0062363
-0.021064	0.016894	-0.0040981	-0.0063694	0.0062034	-0.0004296	0.00051716	0.014736	-0.0063642	-0.010711	-0.024078	0.0065234	-0.011969	-0.00081905	0.0043873	-0.00081664	-0.0079068	-0.001452	-0.012628	-0.0073104	0.0092077	-0.032798	0.029153	-0.018249	-0.0017927	0.0069886	0.021375	-0.012733	0.016692	0.031044	-0.024791	0.0030576	-0.018879	-0.0052993	0.028098	-0.0030505	-0.0087959	0.0055677	0.0051643	0.017734	-0.0081111	0.013859	-0.015404	0.0093667	0.037794	-0.040835	0.009261	-0.0012176	0.0095984	-0.022515	-0.017636	-0.01527	0.011001	0.0013204	0.01612	0.014648	-0.02335	0.013582	-0.0078065	0.040156	0.0033236	0.021139	0.01512	0.0098543	-0.041321	-0.012497	-0.036867	0.31607	-0.091445	0.020696	-0.013675	0.00031068	-0.012209	-0.0025467	0.0095948	0.032132	0.031715	-0.030409	0.045497	-0.0082962	-0.02194	-0.0085715	0.0028509	-0.01091	-0.016935	0.0094725	-0.049874	0.0075358	0.019766	-0.0024693	-0.020748	0.01163	-0.0011649	0.0052764	-0.013052	-0.02718	-0.0030654	0.024848	-0.011254	0.015564	0.021663	0.014989	0.01331	-0.0088195	-0.013594	-0.0057348	0.012309	-0.016178	0.0073204	-0.0095497
-0.029728	-0.019868	0.01251	0.0017726	-0.016474	0.019883	0.00037065	-0.008983	0.010581	-0.009497	0.0063084	-0.046462	-0.0021577	0.033305	-0.0068092	-0.044165	0.015153	-0.010601	-0.013617	0.011267	0.039506	0.015791	-0.030637	0.015655	0.0079008	-0.012379	0.041277	-0.037883	-0.012769	0.029074	0.0087191	-0.057041	0.049427	0.0029351	0.029417	-0.13109	-0.0082536	0.039383	-0.050452	0.03318	-0.0042225	0.021743	0.17689	0.13086	-0.030845	0.0096379	0.0019187	0.013704	-0.062284	-0.023761	0.010712	-0.021013	-0.011769	-0.0060561	-0.02254	-0.011307	-0.0047333	-0.001024	-0.0056396	0.028752	0.0021042	0.022721	0.053483	0.032492	0.0076275	-0.0040138	-0.035961	-0.010721	-0.0069989	-0.013103	-0.016811	-0.0033292	-0.045251	-0.0070361	0.019031	-0.00025008	-0.0095157	-0.010101	-0.0061557	0.027871	-0.0078436	-0.046366	0.03241	-0.034655	0.0042303	0.046441	0.033094	-0.0051949	0.015625	-0.070508	0.01376	0.020079	-0.00026785	-0.012669	0.060792	-0.0061773	-0.03648	0.017709	0.027829	0.036027	-0.05149	0.047556	0.036512	-0.002244	-0.0040867	-0.0049006	0.016997	-0.039491	-0.015215	-0.0036073
-0.0035837	0.014203	0.016385	-0.010983	0.016973	0.0045509	0.015877	-0.0033508	0.013457	-0.010563	-0.010482	0.0011813	-0.0015792	0.004209	0.017495	0.0040045	0.013468	0.0035164	0.0092709	0.011242	0.016118	0.0012315	0.015942	0.0049182	-0.0090734	0.0066918	-0.0012132	0.0024651	0.007183	0.0033165	0.0059082	0.0036645	0.010818	0.003859	0.0069788	0.0069407	0.014004	0.0086025	-0.00083262	0.018158	-0.0038156	0.0020998	0.0030995	0.0020529	-0.0050533	0.0088115	0.019191	0.0050734	0.0092742	0.013359	0.011478	-0.0013259	-0.016322	-0.049854	-0.0092918	0.012983	0.018463	0.003767	0.31308	-0.074951	-0.018147	0.014466	0.002214	-0.0035854	0.0026692	0.0030457	-0.0025097	0.014444	0.00032696	0.0076555	0.0295	0.0033807	-0.038019	-0.10018	-0.074005	0.014381	0.032888	0.020892	7.9378e-05	-0.0038623	0.0080861	0.00086471	-0.0016322	0.0046619	0.006276	0.011021	0.011572	-0.0078791	0.024961	-0.0029464	0.012091	0.020409	0.028371	0.010016	0.01707	-0.012879	0.0090622	0.0040977	0.010848	0.014932	0.016681	0.0031794	0.01344	6.1447e-05	-0.0043969	0.0072336	0.0038671	0.01241	0.0036378	0.020866
0.0041217	0.002681	0.0056948	-0.0081736	-0.0020623	0.010748	0.021537	0.0067846	-0.010569	0.0040984	-0.012679	-0.0076305	-0.010789	0.001145	-0.010572	-0.0089156	0.0034495	0.0034451	-0.002089	0.0084817	-0.0101	-0.0033323	0.021726	0.010465	-0.022441	0.15989	-0.088292	-0.010638	0.0063136	0.019085	0.020025	-0.010703	-0.17006	0.24179	-0.015215	-0.077989	-0.024014	0.0013152	-0.0040342	-0.0069045	-0.010539	-0.0030814	0.0064088	0.0085658	-0.0088533	0.011722	-0.0042375	-0.0037041	0.0028703	-0.01078	-0.0019898	0.0061869	-0.0015929	-0.00021134	0.0084934	-0.0034309	0.0034774	0.00026138	0.00025397	-0.0012563	0.0044851	0.00018331	-0.0001977	0.0034473	0.0046345	0.0014386	0.0064042	-0.0067335	-0.0094611	-0.0015567	0.0035304	-0.00092122	-0.0070712	0.011174	-0.0072517	0.0064273	0.0029657	0.0010057	-0.0026097	-0.0079117	-0.0081192	-0.0011456	0.00017315	0.0018802	-0.0065714	-0.004664	0.0068132	0.0024701	-0.0083337	0.0047377	-0.0011418	-0.004626	-0.004316	0.0038124	0.0074735	0.0029642	-0.0001923	-0.011005	0.0026758	0.0059356	0.0079219	-0.007618	0.012266	-0.016105	-0.0074602	-0.0042884	0.012948	-0.00060393	0.0057091	0.0020059
-0.010925	-0.0055654	-0.010199	0.010272	0.00587	-0.0063104	-0.020609	-0.016945	0.31237	0.052432	-0.081761	0.054687	-0.0039142	-0.0064407	0.00080998	-0.0022767	-0.0010736	0.00095449	-0.0093106	0.001387	-0.0094177	-0.015538	-0.0098475	-0.014279	-0.069681	-0.012879	-0.010729	0.00034276	-0.0067804	0.0039129	0.00036323	-0.0036161	0.0033656	0.0059669	-0.03457	-0.0046222	-0.0021061	-0.0032961	-0.0058963	-1.3135e-06	-0.0042925	-0.00086149	-0.0022134	-0.0066649	0.0043718	-0.010342	-0.0029486	-0.0068666	-0.0064301	0.0026015	-0.0018743	-0.0014468	-0.0060768	0.0036942	-0.0050635	-0.013977	-0.0025111	-0.0040458	-0.0087238	0.0047541	-0.002927	-0.0079065	0.0015211	-0.0067367	0.0023542	0.0041796	-0.012777	-0.0041905	-0.0030812	-0.009597	-0.0059193	-0.00035061	-0.006628	-0.0076639	-0.0090736	0.0078421	0.0026427	-0.0048037	-0.0027968	0.0023236	0.00070978	-0.0019613	-0.0051288	0.0017309	-0.0014331	-0.010296	0.0017768	-0.011789	-0.0010274	-0.010882	-0.005238	-0.0061517	-0.026509	0.0024311	0.0086284	-0.0086148	-0.010358	-0.0008337	-0.011649	0.0033277	0.003738	-0.010581	-0.001642	-0.052395	-0.046952	0.0054417	-0.0012217	-0.013262	-0.0016801	-0.01017
0.017336	-0.017919	0.021134	0.11564	-0.042756	-0.020487	0.012541	0.0022937	-0.0099403	0.023539	0.019768	0.00057413	0.009851	-0.012116	-0.0062552	-0.0075629	-0.01319	0.044954	-0.05876	-0.011903	-0.037578	-0.022104	0.026198	0.0061276	0.0068474	0.0087898	-0.0077933	-0.025288	-0.015438	0.12443	-0.0066851	-0.01051	-0.006629	-0.025885	-0.013038	0.027026	0.0087164	-0.026642	-0.033533	-0.042038	-0.058263	-0.016797	-0.034431	-0.012873	-0.027145	-0.013621	-0.037241	-0.0072406	-0.023447	-0.037397	-0.016902	0.096258	0.038171	-0.0063034	-0.036258	-0.011154	-0.0253	-0.0011885	0.021393	-0.046392	-0.035143	0.026422	0.029878	0.016834	0.091144	0.059854	-0.013576	0.016948	0.0048457	-0.017805	-0.023687	0.041546	-0.023868	0.019614	0.0035672	-0.028646	-0.00076854	-0.026121	-0.012296	-0.020233	-0.034872	-0.026601	0.0053394	-0.00095269	-0.018866	-5.5617e-06	0.037019	-0.03945	-0.029514	-0.032952	-0.010739	0.11065	-0.0064192	-0.031863	-0.029824	0.056352	-0.030956	-0.012963	-0.03898	-0.013004	-0.021517	-0.012675	-0.022712	0.0081841	0.0016973	0.0082179	0.049128	-0.012615	0.0011313	-0.02329
0.0016873	0.0012642	0.00057538	-0.012278	-0.0036202	-0.0049803	-0.011309	-0.049975	-0.039197	-0.015772	0.0055459	0.0063441	0.002845	0.010433	0.0037307	0.0066743	-0.0030883	-0.0040133	-0.0016509	-0.0011053	-0.012209	-0.0077547	-0.0026947	0.00096417	0.0034104	-0.0034643	0.00087121	-0.00030897	-0.0045792	-0.0021226	-0.00047414	-0.006667	-0.0097696	-0.0074859	0.027383	-0.010583	-0.010142	-0.0078923	-0.0072209	-0.0010135	-0.004055	-0.002752	-0.00020549	-0.00064127	0.0066554	-0.0030878	-0.003281	-0.0030493	-0.0040108	0.0032796	0.00090909	-0.0036694	-0.0021942	-0.0013337	-0.003758	0.0055108	-0.0001845	-0.0053144	-0.007399	0.00015989	0.0024274	-0.0051133	-0.0075305	-0.0023924	-0.0020542	-0.0019304	0.0011628	-0.0023852	-0.0024937	-0.0036399	0.00194	-0.0011389	-0.0037076	-0.0080631	-0.0088786	-0.0023468	-0.0087413	-0.0010579	-0.0085638	-0.0022748	0.0092732	0.0026891	-0.0099206	0.0034304	-0.0048243	-0.016058	-0.0060484	-0.0039157	-0.0016019	0.0033524	-0.0034754	-0.0070909	-0.0014774	0.0047882	0.0020005	-0.0049315	0.0015124	-0.0059334	0.0016877	-0.0015503	-0.017873	-0.00033528	-0.0056267	-0.042984	-0.16712	0.29343	0.021767	-0.0070269	-0.012661	-0.01242
0.0043822	-0.0034758	-0.0063817	0.0078236	0.0019228	-0.0023019	-0.0083674	-0.0016537	0.0041397	-0.0015481	0.033005	0.0091407	0.011907	-0.0024904	-0.0056533	-0.0024134	0.010313	0.0055194	-0.0018549	0.0025648	-0.0020487	0.0050675	-0.00056359	0.010004	0.003659	-0.0022801	-0.0072407	-0.02935	0.0054567	-0.0039387	0.02266	0.010933	-0.013976	-0.00018354	0.0084298	0.015813	-0.00014687	-0.00511	-0.0023525	0.0052481	-0.0096251	-0.013044	-0.0064336	-0.0056606	0.0057575	0.012738	-0.082075	-0.023569	-0.034317	0.0095711	0.0073002	-0.06362	-0.018367	0.099787	-0.027215	-0.028341	-0.017174	0.24398	-0.046051	-0.035096	-0.036163	-0.0033725	0.014005	0.013775	0.016146	0.0075711	0.0098481	0.0024202	0.0064428	0.017729	0.029738	-0.0053183	-0.044681	-0.12271	-0.049484	0.0030223	0.031636	0.035369	0.007042	0.0095277	0.0021297	-0.006996	-0.003851	-0.0059827	-0.0071331	-0.011287	-0.0059888	0.002983	0.022798	-0.016381	0.011113	0.0084508	0.024935	-0.0035249	-0.0059842	-0.0088767	0.002584	0.0021048	-0.0049532	-0.0033596	-0.0024568	0.0026329	-0.01276	0.0010357	-0.0069512	-0.006191	0.0033377	0.0072921	0.0047402	0.032824
-0.0043645	-0.0086116	-0.0027944	0.055115	-0.0037705	-0.0078193	0.016304	-0.013958	-0.011968	0.12264	0.2075	-0.01679	-0.027195	-0.011702	-0.011254	-0.0042586	0.014189	-0.013539	-0.011928	0.00087626	-0.0032833	-0.00083549	0.002569	-0.020505	-0.076583	0.0056296	0.0055419	-0.015881	0.010758	-0.02818	0.019713	0.0048028	0.010343	0.011626	-0.046001	0.019383	-0.0039053	-0.0011757	-0.00059434	0.014155	-0.0035466	0.0068522	-0.0088096	-0.011878	-0.041193	-0.014098	0.00050326	-0.0013081	-0.011586	0.0008161	-0.013338	-0.021477	0.0071766	0.036284	-0.0082384	0.0089691	-0.01128	-0.096809	-0.032903	0.077142	0.020049	-0.0025099	-0.008226	0.0046452	0.0037711	0.0093129	-0.018902	0.0092253	0.0014811	-0.016349	-0.013972	0.006278	0.026771	-0.024759	-0.021472	0.03777	0.0053858	-0.0011342	-0.01045	0.0030522	0.0026851	-0.019831	-0.0046286	0.0014499	4.2502e-05	-0.010199	-0.0080916	0.032403	0.045598	-0.016764	0.0086261	-0.030163	-0.068276	0.033988	0.016619	-0.023365	-0.0080345	0.015248	-0.032916	0.01155	0.00074376	-0.0027946	-0.0086875	-0.0032384	-0.020486	-0.007732	-0.0035647	0.0025992	-0.0059723	0.0051359
-0.017681	0.015323	-0.0035092	-0.022194	0.001763	-0.014455	0.050449	-0.0078037	0.012578	0.0076052	0.030289	-0.018495	-0.0092028	-0.017382	0.03193	-0.017388	-0.013763	0.050627	0.017549	0.00018585	-0.029549	0.042246	-0.051081	0.033027	-0.012792	-0.01198	-0.017248	0.032645	0.016172	-0.012162	-0.0051468	-0.015718	-0.0023472	0.0073513	-0.0076261	0.0010287	0.020049	0.034053	-0.0050494	-0.0082107	0.0083074	-0.020047	-0.0082176	0.010177	0.037427	-0.011863	0.0036171	0.00034652	0.0059038	0.0099049	0.021467	0.0092325	0.0029695	0.00355	-0.0069089	-0.029018	0.0045837	0.026022	0.0040627	5.2099e-05	0.018151	0.032265	0.029837	-0.0050048	0.018866	0.0041194	-0.0010807	0.040081	0.053889	0.0049323	-0.028963	-0.0024826	-0.0031444	0.026609	0.052576	0.029891	-0.047773	0.03944	-0.025291	-0.017922	-0.03934	-0.0068934	-0.011507	-0.007822	0.0070337	0.081432	-0.0075298	-0.030635	-0.036482	-0.034386	0.030926	0.016894	0.040689	0.021404	0.035048	0.0091565	-0.054692	0.045123	-0.035448	0.0067212	0.018968	-0.090258	0.047759	0.00875	-0.025637	0.013996	-0.089831	0.16924	0.019356	-0.0069986
0.020519	0.0015281	0.0063016	-0.00155	-0.0029833	0.0037543	-0.010428	0.011506	-0.01555	0.025789	-0.066979	-0.010484	-0.0021975	0.013592	-0.00061715	0.0046683	-0.010841	0.012442	0.0051118	-0.0011709	0.0024594	0.00065404	0.011723	-0.0062554	0.0098099	0.00075617	-0.00038928	0.022387	0.0049382	0.00067901	-0.00048068	0.018636	-0.0015587	-0.0074681	0.017705	-0.015072	0.012466	0.00087097	-0.0022848	-0.0021618	-0.0023973	-0.013345	0.0069289	0.011268	0.033442	-0.024117	-0.032024	-0.0072762	-0.00312	0.0042127	0.015271	-0.050792	0.0058753	0.26555	-0.0019102	-0.017604	0.00027474	-0.12281	0.039071	-0.04245	-0.0023697	0.0087967	0.019669	0.01853	0.018185	0.01383	0.014873	0.003418	0.025475	0.012438	-0.00086557	-0.0026879	-0.033283	0.025706	0.024424	0.022836	0.0074075	0.013521	0.010079	0.010527	-0.00020883	0.0047948	0.0097311	0.0098632	-0.0061636	0.0015175	-0.016836	0.0071757	-0.0018155	0.0049011	0.0042908	0.0069635	-0.019062	-0.0066286	0.00012306	0.010836	0.013224	-0.0048569	0.0092869	-0.0040883	-0.0086149	-0.0025522	0.00057161	-0.0015097	0.0083294	0.0069855	0.0034732	-0.00051897	0.013563	0.022554
0.010835	-0.003809	0.028744	-0.056917	0.011792	-0.014271	-0.016733	-0.025292	-0.0011076	0.015166	0.0056893	-0.02154	-0.00017468	0.027161	-0.014284	0.012135	0.0082098	0.0062172	-0.0080701	0.016366	0.0092396	-0.017444	-0.023553	-0.049726	-0.0042601	-0.0094235	-0.01759	0.039603	0.012777	-0.054731	0.0022939	0.0062703	-0.0083337	0.0086062	-0.0011602	0.019821	-0.033187	-0.0063756	0.047133	-0.0013889	-0.04034	0.0032423	-0.0039391	-0.0081791	0.031478	-0.053363	0.0051223	-0.0050933	-0.0045195	-0.0064852	-0.0049206	-0.0059848	0.017465	0.0051014	0.0061329	0.0052435	0.0059541	-0.00067636	-0.0067807	-0.0067791	-0.041527	0.009674	0.019639	-0.013816	0.011832	-0.0061545	0.022797	0.023327	-0.0035253	0.0023312	0.0089829	-0.0041057	0.011571	0.016826	0.0074518	-0.092329	0.01888	-0.02367	0.052041	-0.081406	0.001935	0.00093263	-0.020488	0.023921	-0.029808	0.012946	0.19685	-0.015483	0.023842	-0.10876	-0.0094855	-0.000929	-0.0040685	0.0070203	0.036771	-0.024158	0.029494	0.0067727	-0.0013018	-0.003263	-0.012682	0.012529	-0.022749	0.013113	0.0011833	-0.00061576	-0.0073298	0.012107	-0.031895	0.036204
-0.006956	0.0076054	-0.051356	0.01353	-0.03847	0.0036479	0.016676	0.0058736	-0.0082667	-0.0051306	-0.012208	-0.018915	0.015746	-0.00020901	-0.017018	0.027282	-0.0080251	0.0045493	-0.026146	-0.0048793	0.054342	-0.016237	0.0030672	0.0084376	0.00067999	-0.0017968	0.0045125	0.018555	-0.035176	-0.0094079	0.058647	-0.0041602	-0.005907	-0.010745	-0.02189	-0.002125	-0.0077329	-0.017265	-0.017633	0.00567	-0.03199	-0.00039584	-0.01369	-0.0058738	-0.002994	0.010203	0.019474	0.010616	0.074428	-0.0045376	-0.0040347	0.013553	0.014366	-0.0017672	0.03365	0.0033451	-0.00064504	0.0016631	0.0058793	0.019236	-0.027893	-0.07846	0.047174	0.031794	-0.016127	-0.0091664	-0.0052284	-0.026217	-0.027166	-0.022946	-0.047593	-0.010362	-0.018587	-0.0096579	0.0098325	0.0043091	0.0090568	0.071223	0.11822	0.048127	0.036051	-0.029556	0.009771	0.022612	-0.085395	-0.024242	-0.0047393	0.015699	-0.0074226	0.00053653	-0.018679	0.024992	0.019272	0.031734	0.031726	-0.0035426	-0.045615	0.03866	0.0083742	0.023057	-0.038639	-0.054598	-0.013569	-0.019211	-0.0064969	-0.0032243	-0.0048254	0.010353	0.01058	-0.0010345
-0.0052371	0.011874	-0.0053698	0.0021351	-0.014001	0.021735	-0.041949	0.023529	-0.0016659	-0.0033181	0.0069667	0.024649	0.0028737	0.0063288	-0.0027183	-0.0011808	-0.00069958	0.011007	-0.030777	0.0018767	0.0099167	0.0044899	0.034514	-0.0063233	0.0076886	-0.0053393	-0.003914	-0.019559	-0.013039	-0.014862	-0.14274	0.15823	-0.028533	-0.0064628	-0.0081036	0.0073383	-0.041347	0.047462	-0.018004	0.085063	-0.013645	-0.014007	0.025666	0.010803	-0.023483	-0.0020822	-0.0052455	-0.0010713	0.0049812	0.0034674	-0.00051056	-0.0052317	-0.0036734	-0.0063328	0.012555	0.01976	0.002194	-0.0040366	-0.0021388	0.026854	-0.0032398	-0.035936	-0.0095909	-0.015332	0.021816	0.0082101	0.0044799	-0.015603	0.0037843	-0.035978	0.018726	-7.955e-05	-0.023865	-0.0067436	0.0090071	-0.0092834	0.0013664	0.035204	0.0079637	-0.048534	-0.039521	0.01737	-0.00035254	-0.014899	-0.0052298	0.012768	-0.0083646	-0.020437	0.0081096	-0.0063107	0.017945	0.0045974	0.0060899	0.0045883	0.014044	0.024527	-0.020735	0.0046046	0.0054017	0.021162	-0.010798	-0.042306	0.014567	0.0053752	-0.0048559	0.0034107	0.0024405	-0.013003	0.0262	-0.0055582
-0.01667	-0.014072	-0.0029838	-0.0074707	0.0092151	-0.00016958	-0.024344	-0.024404	0.010027	-0.023717	-0.0046466	-0.04183	0.0063489	0.03418	0.0030843	0.0006427	0.00034892	0.011313	0.0026258	-0.0034471	0.020052	0.0033854	-0.014748	-0.011209	-0.039733	0.22875	0.014777	-0.047067	-0.0082964	0.00056335	-0.014213	-0.0081497	0.022187	-0.11059	-0.010117	0.032044	-0.0019989	0.012116	-0.0064669	0.0080874	0.023062	0.00551	-0.00067412	-0.0014271	0.011996	-0.0068603	-0.0021092	-0.0023567	-0.0058798	-0.002346	-0.0021563	-0.00084905	-0.0020908	0.0046625	-0.0044315	0.017697	0.0044993	0.0016956	-0.0016126	0.0021645	-0.025173	0.0073896	0.0019548	0.0013581	0.0025034	0.007095	0.0040243	0.0017169	0.021343	-0.0044466	-0.015404	-0.0031955	0.024424	0.0042177	0.0098447	-0.0056564	-0.0059104	0.012065	-0.0024997	0.0088106	0.0067378	0.0091128	-0.00025564	0.0048366	0.010097	0.0011137	-0.00076007	-0.0017186	-4.9319e-05	-0.0045981	0.0074087	0.00033086	0.014509	0.0085519	-0.0039961	-0.012141	0.0030175	0.0032634	0.0082287	-0.0064382	-0.00025785	-0.0086452	-0.0067121	-0.0077126	-0.0021685	-0.003021	-0.011035	0.00061144	-0.0031681	0.0024341
-0.036101	-0.0058382	0.027442	-0.079333	0.016227	0.0066786	0.0043734	0.0093401	-0.0024037	0.00084077	0.01659	-0.0019017	-0.016842	-0.030068	-0.0092488	0.033001	-0.010231	0.060146	-0.0028046	0.0042222	0.0089993	0.00096262	-0.0016519	-0.0078234	0.00018049	-0.0058062	-0.0059879	0.020545	0.0034886	-0.0086255	0.028617	-0.010018	0.014007	0.00079584	-0.0097795	-0.0050274	-0.04468	0.02839	0.0010943	-0.055309	0.017855	0.010187	0.010821	0.0079531	0.023016	-0.028475	-0.0004428	-0.0018464	-0.0072496	0.016321	0.029707	-0.0096104	-0.0045499	-0.011409	0.00029645	0.02664	0.0052545	0.0067214	9.2362e-05	0.028524	-0.0044775	0.00016312	-0.0078823	-0.032831	0.17381	0.02722	-0.057844	-0.0097743	-0.015049	-0.0001804	-0.016338	-0.0017371	-0.013484	-0.0017316	0.014527	0.024992	0.018438	0.0027284	0.056531	-0.017603	0.0075495	0.01904	-0.0080679	0.015237	0.021599	-0.040168	-0.039698	-0.020144	0.0057325	0.0064568	0.022648	0.00096652	-0.0066891	0.0028781	-0.019525	-0.0122	-0.006908	-0.01594	0.048183	0.0096683	0.019709	0.017799	-0.0080989	-0.0049095	0.0061438	0.0016752	1.7514e-05	-0.02449	0.040418	-0.032531
0.0095298	-0.010968	-0.00090357	-0.0065482	0.026865	-0.11844	0.13543	-0.10014	0.008648	0.0089432	-0.01088	0.013256	-0.032351	-0.036613	0.016943	0.038832	0.0093161	0.0066676	-0.0099094	0.0011528	-0.01501	0.0055785	-0.047149	-0.041125	0.03129	0.0109	0.042482	-0.047331	0.040038	-0.014685	-0.0014669	0.028587	-0.0098026	-0.0051262	0.012227	-0.0088018	-0.01903	0.012242	-0.017534	0.02783	-0.00021728	0.0015225	0.0079404	0.0066183	-0.019487	0.014659	0.0010687	0.0055399	0.01138	-0.011028	0.01544	0.0060201	-0.0071806	0.0054988	-0.0072774	-0.011165	-0.0020793	-0.0072904	-0.0020283	0.00046893	0.02426	-0.018558	0.013114	-0.0046575	0.011206	-0.0024943	0.020443	0.002358	-0.027148	0.0032163	0.011683	0.0034231	-0.012715	0.0024234	0.014272	-0.023675	-0.0085686	0.028817	0.0055717	-0.016197	0.0070489	0.015956	-0.017632	0.01064	0.0002178	-0.020938	-0.0065485	0.0090514	-0.015826	0.031229	0.0025806	0.0016263	0.011643	-0.027036	-0.019168	0.0052407	0.016216	0.0098428	-0.0096359	0.014275	-0.03024	0.00331	0.028382	0.0061059	-0.0025002	-0.018885	0.035985	-0.012902	-0.012066	0.037596
-0.021734	0.0079584	0.012177	-0.0028006	0.0037446	0.014844	0.0020549	0.0079364	0.011919	-0.0077945	0.0054528	-0.025644	0.019755	0.01206	0.0023077	-0.003141	0.010536	0.037945	-0.024822	-0.008916	0.0027232	0.0066195	-0.0032544	0.010212	-0.019573	-0.010495	-0.0033713	0.0044926	0.013767	0.034974	-0.0046871	-0.0045778	0.014469	0.012865	-0.028305	0.0040118	0.0074691	0.012246	0.00838	0.014306	-0.0073149	0.0084431	0.0036878	0.012326	0.037087	-0.03698	0.020932	0.0040931	0.012721	-0.0029687	0.010415	0.005888	0.019889	0.0090275	-0.0025249	0.01142	-0.0079937	0.01003	0.0017074	-0.00085941	0.03723	-0.0044385	-0.0097607	-0.004911	0.0056434	0.0071992	-0.0008037	0.0026073	0.0056952	0.0055958	0.055276	0.0096498	0.024745	-0.022504	0.012018	-0.092685	-0.012082	0.01081	-0.0093565	-0.0016783	-0.0062527	0.016773	0.010705	0.015043	0.01792	-0.0060206	-0.017549	0.19687	-0.05632	0.0097782	0.019353	0.025425	0.0167	0.0085771	0.040255	0.0053806	-0.01099	0.0030413	-0.013345	0.00061191	0.0060816	0.0084425	-0.014163	-0.0066432	0.0051865	0.0097033	0.019169	-0.0065313	0.022875	-0.0048711
0.0019044	8.4565e-05	0.029329	-0.008063	-0.022783	0.0034633	0.038516	-0.020701	0.0029407	0.024613	0.0044085	-0.0027395	0.006602	0.0040829	0.012289	-0.020549	-0.016614	-0.066567	0.0032517	-0.017649	0.1682	-0.10199	-0.018571	0.0057078	0.0087486	-0.0034502	0.0042098	0.015238	0.017231	0.028285	-0.026614	-0.0022494	-0.019185	-0.0039605	-0.010854	0.016358	0.034301	0.0068771	-0.019978	-0.029495	-0.0014831	0.0041804	-0.01075	-0.01309	0.011896	0.023364	-0.015382	-0.0020132	-0.035621	-0.0072046	-0.0033733	-0.018802	0.0044666	-0.0019428	0.0098651	-0.0066025	0.0075684	0.0056787	-0.0017068	0.012793	-0.0052037	0.0057732	0.0071887	0.0036049	0.017717	-0.0053557	0.024787	-0.011545	-0.010555	0.035486	0.0017357	0.00095302	-0.0065523	0.0011696	0.0071637	-0.0026518	-0.0061029	-0.0032308	-0.0016813	-0.031775	0.014328	-0.0056906	-0.036663	-0.044783	0.027707	0.0086922	-0.0062145	0.0029104	-0.025495	0.0070568	0.0060288	0.0013766	-0.017323	0.0080795	0.033419	0.029812	0.026874	-0.0042138	0.019507	0.0052201	0.049141	-0.041248	0.0048414	0.0056085	0.006073	0.0087683	0.010416	0.0058078	0.00079174	-0.027609
-0.0021105	-0.014392	0.0082144	-0.014923	0.0013582	0.027561	0.068046	-0.00087421	0.013673	-0.0083518	-0.0037656	0.0048812	-0.016333	0.024557	-0.10495	0.0038253	0.030961	0.0023019	-0.001543	-0.003848	-0.0070166	0.0051173	0.14812	-0.038928	0.031389	-0.002198	0.044456	-0.056543	-0.043005	-0.0042926	0.029806	-0.017404	0.010761	-0.011398	-0.0013899	-0.010484	-0.0002492	-0.0073927	0.0049792	-0.0037751	-0.0046973	-0.014672	0.0039482	0.0001115	-0.0028454	0.020743	-0.0094101	-0.015251	-0.0092242	0.0070217	-0.0049283	-0.015923	-0.0082814	0.0034662	0.039171	0.007371	0.017332	-0.0045332	-0.0019975	0.0038285	-0.012139	-0.030155	-0.0051124	-0.00053396	-0.0033748	0.00052077	0.012308	0.0015234	0.0068073	0.038163	0.020868	-0.0010211	-0.0093412	0.00069282	0.0074778	-0.0021315	-0.015014	-0.0039204	-0.019399	-0.031116	-0.014578	0.0004724	0.0052112	-0.0082326	0.016754	-0.01513	0.030807	0.00027376	-0.037064	0.016078	0.024633	0.0058356	-0.014773	0.017017	0.011997	-0.040557	0.0063067	0.0016968	-0.014349	-0.010379	-0.0024733	-0.0063352	0.019426	0.01301	-0.029324	-0.010221	-0.040089	0.037202	0.021497	-0.048601
-0.012761	-0.0012712	-0.022793	0.0049887	-0.035965	0.015007	-0.00075839	0.01039	0.0094459	0.012107	0.015129	-0.0088286	-0.0038287	-0.033841	0.0041945	0.017248	0.011006	-0.017113	0.024518	0.014202	-0.00994	0.014861	0.015215	0.0011113	-0.00019724	-0.00064557	0.015314	-0.024074	-0.016407	-0.0071748	0.014829	0.012239	0.0079135	0.0045238	-0.018199	0.0087709	-0.027055	-0.0068521	-0.0029183	0.0098239	-0.00017119	-0.00031978	0.011546	0.0096944	-0.011496	0.020597	0.0088646	0.0046209	0.027664	-0.01244	-0.012929	0.01729	0.0041496	0.0096954	-0.0073258	-0.058345	0.00012172	0.00018279	0.00030511	-0.019915	-0.047595	0.17484	-0.037414	-0.012957	-0.020955	-0.010376	0.047953	-0.025917	-0.059328	-0.0032143	-0.028934	-0.011094	-0.013868	0.015652	0.012772	-0.011109	-0.0033927	0.02172	0.062937	-0.057259	-0.010339	0.030007	-0.0022738	-0.024247	0.015364	-0.015263	-0.030626	0.013064	-0.020154	0.0057165	0.0093838	0.0063112	0.012433	0.0073829	0.019553	-0.010345	-0.012555	0.038066	0.020166	-0.013815	0.016344	0.019382	-0.020524	0.0010008	-0.0040152	0.010388	-0.010754	-0.014001	-0.0018581	0.0019276
-0.00056573	0.017331	0.0010747	-0.014478	0.010272	0.00011016	0.002134	0.008272	0.0018481	-0.00074161	-0.013959	0.0013057	0.005931	0.015895	-0.0055716	0.0094498	0.0047194	-0.0010908	0.012508	0.0069583	0.013856	0.011245	0.0067112	-0.00063726	0.0032546	0.0001034	0.0013774	0.0084632	0.0088056	-0.047711	0.028885	0.02815	-0.0033221	0.0027096	-0.0012762	0.013841	-0.0088172	-0.0079082	0.0078946	0.029334	-0.013796	-0.01661	0.0055747	-0.0011634	-0.0036512	0.018114	-0.020195	-0.0056173	-0.14658	0.008379	-0.017315	0.17173	0.037022	0.01411	0.039663	-0.018322	-0.037969	-0.00059118	0.0037054	0.014897	0.0078182	-0.0061725	-0.0056847	0.010636	0.0025736	-0.0021453	0.010068	0.0097587	0.015062	0.017211	0.0055006	-0.0012947	0.0081216	-0.0074026	0.010831	0.027854	-0.0078605	0.0045644	0.019569	0.021591	0.017107	0.0026689	-0.013362	-0.00049816	0.0019618	-0.01123	-0.023831	0.02709	0.020265	-0.015684	-0.00182	-0.0068177	0.0098859	0.00098927	0.0036782	-0.0076408	0.0085534	0.0027042	0.016015	0.019964	0.00041501	0.012318	-0.0081172	-0.0034747	-0.0042596	0.0023784	-0.013456	0.010334	0.0068125	0.021217
0.003793	-0.022828	-0.026946	0.0087531	0.042262	-0.0030495	0.018428	-0.0023347	-0.0023428	0.0052535	0.00603	0.028068	0.027018	0.0049202	-0.05357	0.025509	-0.011072	-0.010758	0.0051229	-0.0072969	0.018758	0.031571	-0.020785	0.014715	0.0050362	-0.004598	0.016371	-0.027181	0.029248	0.016302	-0.010935	0.016751	-0.0050213	0.01122	-0.024543	-0.0057935	0.024147	-0.0024052	-0.028279	0.0089126	-0.027603	0.021408	0.021578	0.0035456	-0.020968	-0.0049359	-0.0022398	0.0020053	0.0066772	0.0018517	0.00073361	-0.00089406	0.0027319	0.010227	-0.017037	0.031199	-0.0091504	-0.0028744	0.0042991	-0.015026	-0.00067654	-0.012787	0.0089766	0.019623	-0.0072362	-0.0023449	-0.013103	-0.0061878	-0.012301	-0.023389	0.0026434	-0.00058981	0.01542	0.017958	0.0079159	-0.0051865	-0.01197	0.015346	0.020536	0.0095367	0.016948	-0.0027813	0.001783	0.0059842	-0.025328	0.031683	0.016973	0.0066919	-0.0063824	-0.038736	-0.00022323	0.021988	0.015754	-0.00468	-0.074223	0.015721	-0.01456	-0.011251	0.014315	-0.031486	0.15323	0.049977	-0.019688	-0.0042691	-0.017665	0.012145	-0.078497	-0.016796	0.00889	0.0063764
0.018737	0.012989	-0.031508	-0.020143	0.010628	0.011709	-0.021838	-0.011352	0.0034778	-0.0059125	-0.0068885	-0.007192	0.010453	0.013101	-0.0011852	0.043893	-0.011178	0.0080843	0.021053	-0.00082927	-0.0038971	-0.021517	0.014072	-0.0005289	0.016278	0.0039717	0.013073	-0.0012594	0.0050717	0.012998	-0.00099249	0.0022026	-0.011007	0.0065676	0.017246	0.0052468	-0.013108	0.0058739	0.0028454	-0.034517	-0.00087227	-0.0021532	0.0050066	0.0069684	-0.0088562	0.00085949	-0.00093306	-0.0041366	-0.0022265	0.0089452	0.00079081	-0.01159	0.0058294	-0.0077078	0.028868	-0.0056048	-0.017482	-0.00358	0.0056196	-0.002043	0.013464	-0.018829	0.014052	0.0015751	0.015186	0.0058434	-0.0040691	-0.011534	0.033113	-0.011259	0.0064698	0.0015192	-0.0043825	0.0057872	-0.0026286	0.00010626	0.0071766	-0.0017082	-0.032737	-0.0082194	-0.007775	-0.022533	-0.0665	-0.0095101	0.017575	0.00016266	-0.016414	0.0042735	0.019348	-0.011033	-0.0085122	-0.0057161	-0.01054	0.0050198	-0.0006223	0.0089675	-0.024171	0.19098	-0.040601	-0.055762	0.016259	0.031162	-0.012333	0.005317	0.0039538	-0.0043583	0.034988	-0.020193	-0.011607	0.0078317
0.0012064	0.0016974	-0.0030385	0.0018041	-0.0095127	0.0012628	0.0043735	-0.0059292	0.0031782	-0.0017468	-0.013988	0.0022677	0.0078601	0.0124	0.0037571	0.0012869	0.0009368	0.0056792	0.0037618	-0.0056073	-0.0084515	0.011327	-0.00085904	0.0014363	0.0049257	-0.0010693	0.001939	-0.013825	0.011722	-0.016319	0.018821	0.014978	-0.0056885	0.0012617	0.011109	0.010031	0.0050482	-0.0087737	-0.0098986	0.0057469	0.00468	-0.0082901	-0.0037802	0.0041118	-0.025719	-0.012686	-0.020118	-0.0040503	-0.014956	-0.0028221	-0.0015095	-0.076661	0.22559	-0.029146	-0.01124	0.0061892	0.005711	-0.0040166	0.0044289	-0.0042206	0.0010657	0.012813	0.0018046	0.0044589	0.0016535	0.002661	-0.0077203	-0.0092696	0.0011303	0.0075209	-0.00043007	0.0059777	0.0027107	0.010163	-0.0030511	0.016183	-0.00038662	0.0036002	0.00027426	0.0059427	-0.0011074	0.0017089	0.0064795	-0.011354	0.0089676	0.0012217	0.0020063	-3.849e-05	0.0041522	0.0029694	0.0042663	-0.01457	0.0050039	0.0087011	-0.0044225	-0.0089519	-0.0042319	-0.0076	0.0085966	0.0098601	0.00030639	-0.0055298	0.0078433	-0.011666	-0.00032614	-0.0028529	0.015086	0.0058393	0.0092855	0.00063338
0.0090545	-0.05161	-0.0078353	0.026866	-0.013807	0.014036	-0.0010397	-0.0091297	-0.001742	0.011266	0.0056226	0.022281	-0.0023266	-0.0012436	-0.0073199	-0.018765	0.014288	-0.059103	0.15659	-0.00017902	-0.011446	0.01708	-0.00099958	0.033204	-0.016294	0.0048127	-0.010971	-0.010532	0.012573	0.010287	-0.018481	0.034282	0.015178	-0.0043086	-0.013117	-0.0031438	-0.016765	0.010184	0.00078474	-0.10126	0.012645	0.0084902	0.014027	0.012089	0.00534	-0.010987	0.0084867	-0.0001675	-0.0010843	0.0029986	-0.011984	0.013776	0.0081226	0.0046487	-0.0072911	0.02677	-0.0049096	0.0046751	0.008031	-0.0057815	0.0035689	-0.038163	0.0019266	-0.033798	0.011797	-0.0034076	0.018808	0.020133	-0.016211	0.011492	0.020415	0.0031134	-0.014992	0.016772	0.0028457	-0.015352	-0.011985	0.036538	0.022263	0.014383	-0.04504	0.0028231	-0.00029265	-0.0051897	-0.010993	-0.022425	0.017527	0.016412	0.0020262	-0.0024486	-0.0073388	0.0048352	0.013169	-0.00080558	-0.0011648	0.0069074	-0.0060265	-0.0049994	-0.0067112	0.033459	-0.03297	0.0088986	0.0066823	0.0061021	-0.017415	-0.0076591	0.0036233	0.0035288	0.000614	0.00358
0.0031758	0.0016234	0.0058427	0.031267	-0.0091129	0.0009447	-0.011185	0.0046295	-0.0015573	-0.0023936	-0.0027298	-0.019227	0.015221	-0.023134	0.0054507	0.00054657	0.0010806	-0.009435	0.0033313	-0.0010035	-0.0043703	-0.0078115	0.020869	-0.024611	-0.0060365	0.0083146	-0.0081694	0.0093395	0.0043449	-0.0080683	0.00020937	-0.00028907	-0.0013462	-0.01085	0.01126	-0.0086272	0.0060038	0.0070546	-0.0062159	-0.015347	-0.038416	0.014234	-0.00015691	0.0011649	-0.010453	0.012924	-0.0027704	-0.00034485	-0.033311	-0.012433	0.22036	-0.0028366	0.0017975	-0.010437	0.0034089	-0.0093931	-0.010221	-0.0026026	-0.004987	-0.0065591	0.0045868	-0.0066098	-0.0087543	-0.045632	-0.032701	0.0033722	0.0017447	0.0037312	-0.0074032	-0.0014153	-0.0011387	-0.0059799	0.0022404	0.0049884	-0.0082725	0.00034027	-0.010906	-6.6453e-05	0.017242	-0.013212	-0.0037237	-0.0055787	-0.0016399	0.0029847	-0.011855	0.002228	-0.0055711	0.00061835	0.00029503	-0.0020377	0.0026338	-0.0039597	-0.0066016	0.012114	-0.0090498	-0.011922	0.00058648	-0.0014998	-0.017182	0.0011911	0.0064774	-0.0063459	-0.010505	-0.0090481	0.0071509	0.0015895	-0.0052033	-0.005809	0.0028478	0.0014921
0.00031029	-0.0039523	-0.00042593	-0.02459	-0.0047836	-0.0093088	-0.0022347	0.0059858	0.00047964	-0.0021838	-0.0042348	0.0014008	-0.0088214	0.0069922	0.0030449	0.0057635	-0.00086332	0.00263	0.0039743	0.0068181	-0.0042611	-0.011608	0.0045599	0.0051857	0.011322	-0.0054681	-0.0057002	-0.0039984	-0.0098535	0.012895	0.017034	0.018237	0.0015827	0.00075356	-0.00075519	0.0024001	-0.032206	-0.039968	-0.027226	0.012844	-0.036025	0.21389	-0.044326	-0.0051484	0.0023445	0.0033262	0.0044028	-0.00064627	-0.040239	-0.0058659	-0.013089	-0.015946	-0.0059346	0.00996	-0.0076887	0.0056387	0.018217	0.0010981	0.0022172	0.0035028	-0.002407	0.0086391	-0.010256	0.00076391	-0.0046765	0.0025597	0.0036288	-0.0032687	0.016116	-0.017219	0.00022803	0.0038832	0.0065089	0.0050935	0.0020395	0.0058134	-0.0028944	0.017845	-0.020382	0.0029552	-0.010654	0.0027346	0.0050595	0.0055257	0.0065951	0.0097417	-0.0016063	-0.0039505	-0.00086309	0.0044372	-0.010022	0.0040293	0.007754	0.0041054	0.011412	0.00015304	-0.017514	0.0011169	0.0042284	-0.00066571	-0.016409	-0.0019257	0.013657	0.0066114	-0.0073429	-0.0057782	-0.00099802	0.011211	0.010049	-0.00063708
0.00018614	-0.014193	0.0066388	-0.0058152	-0.013208	0.0084287	0.004532	0.00089253	-0.00098672	-0.0044634	0.016872	0.0019767	-0.002947	-0.0069256	0.0087148	-0.01747	-0.0015206	0.0091904	-0.0098033	0.0075151	0.0025935	-0.0089027	0.021511	0.020985	-0.0125	0.010743	-0.014165	-0.018999	0.0020307	-0.0050768	-0.0012131	0.0017075	0.012597	-0.0089084	-0.0034215	0.01833	-0.027498	0.014498	-0.011566	0.015798	0.0076213	0.0073554	-0.0035448	-0.0052625	0.017171	0.012774	0.0037818	0.011661	-0.0059365	0.000541	-0.011762	-0.002949	-9.593e-05	0.0035182	0.0088363	-0.03899	0.011092	0.010083	-0.0076105	-0.10956	0.17321	-0.020904	0.0069946	0.0064527	-0.016089	0.0016222	-0.024576	-0.009088	-0.029897	0.0032191	-0.050965	-0.0006108	0.00064295	0.00016275	0.016461	0.00029232	0.0040539	-0.011746	0.038351	-0.0015407	-0.012802	0.0080044	-0.0032693	-0.023893	0.015641	-0.026214	0.030607	-0.018484	0.015441	-0.012513	-0.0046696	0.0012503	-0.0086683	0.013813	0.013082	-0.0062365	0.0034478	0.00087997	-0.0067583	0.0013482	0.01451	0.0061184	-0.013596	-0.0032262	0.0023667	0.0029291	-0.0016654	-0.0082867	0.014007	-0.0087149
3.17e-05	0.0013231	0.003348	-0.0024149	0.0038218	-0.010111	0.015661	-0.0176	-0.014582	0.0029744	-0.035397	0.029836	-0.0042246	-0.00041499	-0.00092124	0.020568	-0.012329	0.0024432	0.015153	-0.00077017	-0.018039	0.0069436	-0.019994	0.0022312	0.0092973	0.0029867	0.00044567	0.0092012	-0.0048463	0.0061821	-0.010052	0.01157	-0.0071843	-0.00030274	-0.010336	-0.003207	0.026831	-0.0096586	-0.013024	0.005625	0.023121	0.0083716	0.0047079	0.010027	0.00098541	0.0012623	0.0050201	0.00020409	-0.010359	0.0048358	-0.007048	0.0036106	-0.010259	-0.0010734	-0.0090383	-0.0047944	-0.012345	0.0018174	-0.0039243	0.031426	0.0076491	0.012282	0.0078345	0.00073004	-0.0031956	0.0040693	-0.0020875	-0.0049735	-0.011641	0.0072271	-0.0051896	0.0017551	-0.035648	-0.016401	0.0017571	0.013053	-0.0008471	-0.017474	-0.022809	0.0093077	-0.010821	-0.0030814	0.018403	-0.0071782	0.01738	0.012838	0.035045	0.0025393	-0.01341	0.0072586	0.030926	0.025728	-0.02935	0.1699	-0.03366	-0.036388	-0.012869	0.0028759	-0.007084	0.023972	-0.0084415	-0.026393	-0.093827	0.005778	0.043577	0.017298	0.00911	-0.016031	-0.0033166	-0.002039
-0.0053531	0.00053082	0.0076465	0.016372	0.01555	0.012284	-0.012572	-0.0047051	0.0059653	0.0090564	0.020297	-0.01	0.0020281	0.0010029	0.0065364	-0.0057782	-0.00781	-0.00052549	0.00014631	-0.0002261	0.00098096	0.0025665	-0.0082691	-0.0018157	0.028163	0.0057521	-0.00046081	-0.00011517	0.022216	-0.009756	-0.018752	0.0012442	0.00028512	0.010042	-0.019466	0.01348	0.013401	0.0038719	0.0068934	0.013647	0.0031483	0.0045188	0.00045127	0.0041501	0.033505	-0.0488	-0.0013932	-0.0090064	-0.037757	0.00054497	-0.0013704	-0.0039308	-0.0026299	-0.0080231	-0.0025394	-0.0039638	-0.00044271	0.0055432	0.0048511	-0.0046151	-0.0016062	0.0088297	0.017643	0.0053907	0.0085683	0.00069409	-0.0084836	-0.0050041	0.01674	0.0061549	0.023223	-0.0011543	-0.012022	0.0096141	0.01469	0.0040385	-0.019225	-0.0081354	0.014441	0.0090029	0.015808	-0.00053358	0.017203	-0.035	-0.082036	-0.01267	0.031722	-0.044742	-0.041696	0.1394	0.011474	0.0060722	-0.005099	-0.023785	0.053421	-0.050923	-0.038162	0.015386	-0.027767	0.010195	0.020513	0.043347	-0.02102	0.0054968	-0.0012578	0.0021542	-0.0050223	-0.010535	-0.0095824	0.01644
0.0015356	-0.0086865	0.016967	0.0072152	0.0057939	-0.0081732	0.012596	0.0036687	0.0014377	-0.0090713	-0.0097764	-0.0053893	-0.0023208	-8.7627e-05	0.0043235	-0.0064819	0.0022562	0.00027285	0.023999	0.011294	-0.0042511	0.0047425	0.01522	-0.0035351	0.0033555	-0.004348	0.0059913	0.0040311	0.012117	0.0048043	-0.023272	0.0037354	-0.0011043	0.0034641	-0.021782	0.01947	-0.026313	0.050144	0.016496	-0.04239	-0.0092566	0.0022774	-0.010341	-0.0063443	0.016871	-0.020589	-0.00096443	-0.0040438	-0.0065492	0.0084476	0.030916	-0.0016298	-0.0013631	-0.010819	-0.0022657	-0.015204	0.011004	0.0042767	0.0038451	0.038014	0.00012739	0.011563	-0.04143	0.18548	-0.033717	0.0048448	-0.037761	-0.017854	0.01136	-0.010591	-0.019531	0.0024556	-0.0098213	0.0043847	0.0030017	0.0019959	0.03486	0.0092427	0.00058882	-0.019667	0.0063266	-0.0025583	-0.0001241	0.013973	0.017882	-0.010177	0.0042647	0.00059385	-0.0035291	-7.2892e-05	0.011009	0.011172	0.0033728	-0.0016935	-0.0067893	-0.0036321	0.0079712	-0.003029	0.0029726	0.0065727	-0.0062739	0.0021891	0.0085303	-0.0043286	-0.0032974	0.0038502	0.0038049	-0.00099412	0.0037067	0.013465
0.0017779	-0.011411	0.0059233	0.0095691	0.015355	0.0041842	-0.0033711	0.0051282	0.0062649	0.0010593	0.001069	-0.045385	0.010578	0.0098021	-0.0045137	0.0069122	-0.0037868	-0.0038076	0.02429	0.0010392	-0.00614	0.004655	0.013272	-0.0061639	0.0019372	-0.0063949	0.0024211	0.010564	-0.0068328	0.016222	-0.023784	0.017627	-0.005303	0.01026	-0.0012614	0.024532	-0.024122	0.038478	-0.0076972	0.0068172	-0.013636	0.011326	-0.026677	-0.014726	0.0043534	0.009457	0.0092102	0.0043898	0.042338	0.00027055	0.0027266	0.015651	0.012779	1.7863e-05	-0.0063623	-0.089956	0.0076683	0.004721	0.0048343	0.050781	-0.005994	-0.010587	0.13134	-0.03063	-0.0081625	-0.0034228	-0.0063012	-0.0055205	0.015545	0.0011535	-0.012403	-0.001735	-0.005708	-0.0059705	0.0046036	0.034531	-0.003401	-0.014746	-0.01847	0.0007038	0.020072	-0.015125	0.0131	-0.00044292	0.058087	-0.030187	0.0090424	0.011854	-0.0068929	0.0025947	-0.0051489	0.012021	0.026344	-0.0083725	0.00094404	-0.020851	0.021274	-0.023212	0.024134	-0.0048173	0.012976	0.04236	-0.0028301	0.001646	-0.0037116	0.0072911	-0.0036856	-0.00089701	-0.013148	0.007119
-0.0031748	0.0010596	0.0063942	0.016122	-0.011746	0.0081202	0.0048813	0.0020854	-0.051175	0.17183	-0.099678	-0.025851	0.021298	0.0073325	-0.016906	0.0086534	0.0053674	-0.0036411	0.001093	0.0037296	-0.0099866	0.013161	0.009868	-0.0059687	-0.010977	0.0073345	0.011675	0.0064877	0.0050789	-0.0069611	0.0019189	0.00076718	0.010695	-0.0050436	0.0038526	0.0042835	0.00059751	0.0018072	0.0061386	0.0091207	-0.0010705	0.0055134	-0.0010419	0.012963	0.008833	-0.0039714	0.017073	0.00064975	0.0081649	-0.0037691	-0.0023858	-0.0010624	-0.013336	-0.022612	0.0023774	0.0093581	-0.0009305	0.051554	-0.014294	-0.0099521	0.010513	0.0032149	-0.0025105	0.0018098	0.0087282	0.0076934	-0.0047972	-0.0038807	0.010112	-0.0062276	0.0013302	5.9006e-05	0.013401	-0.02699	-0.00077729	0.00070973	-0.0032423	-0.0065784	0.004841	-0.0031305	-0.00033432	0.0041574	-0.0031972	0.0016821	0.0066305	0.013273	-0.0082983	-0.010122	0.00032724	0.0011455	0.0089005	-0.011622	0.011035	-0.0021134	0.0061093	0.010859	0.0045036	0.0042377	0.0012749	0.00087048	0.0022548	0.0042049	0.019808	-0.015553	-0.0086756	-0.00086742	0.0028031	-0.0037809	0.0057916	0.0031223
-0.0055695	-0.01193	0.0010937	-0.017544	-0.05599	-0.011261	0.011901	-0.0015264	0.00055933	0.0084828	0.0057725	0.0040077	0.0055343	0.0092839	-0.0302	0.042981	0.0031548	-0.0083055	-0.0043553	0.0014531	0.054876	-0.020502	-0.010927	0.0047323	9.4828e-05	-0.003909	-0.00088876	-0.0017005	-0.017526	-0.014861	0.013184	0.026666	-0.012292	-0.00029024	0.015031	0.0054831	-0.029335	0.020946	0.017679	-0.0031472	0.0047028	-0.02887	-0.014303	0.0028195	-0.00024371	-0.015646	-0.0022958	-0.0067869	0.0069273	-0.017794	0.018027	0.0077506	-0.00014514	-0.005557	-0.012845	-0.036787	0.033119	-0.0045018	-0.0015503	0.00016401	0.018683	0.04174	-0.038668	-0.021504	-0.0093956	0.0030657	-0.015007	0.027216	0.023614	0.0088998	-0.0024063	0.00054041	-0.0062091	-0.011833	0.0077922	-0.019236	0.0068866	0.015706	-0.087807	0.07334	-0.019039	-0.0021472	0.026441	0.054759	-0.024412	-0.026595	0.032747	-0.011249	0.0023559	0.0038864	-0.01205	0.012836	0.0029298	-0.0064943	-0.01526	0.015039	-0.061304	0.0020939	0.037046	-0.0067178	-0.0055191	0.018724	-0.0035364	-0.0044676	-0.0068347	-0.0063234	-0.015225	-0.008614	0.024189	0.0024235
0.00077172	0.018624	0.028718	-0.0018847	-0.0062933	0.017119	-0.041962	0.004772	-0.002647	-0.0090824	0.0044459	-0.0020607	0.00011166	0.024571	0.018909	0.0043869	-0.010212	-0.0094883	0.012084	0.0088685	-0.0073664	0.013298	-0.031357	-0.025659	-0.025029	-0.017304	0.17198	-0.040829	-0.012739	-0.0022449	0.0095903	-0.006911	-0.068116	0.033692	-0.014768	0.0074411	0.011231	0.009216	-0.0078386	-0.011582	0.0064667	0.0001084	-0.02614	-0.012187	0.027002	-0.0077343	0.0068592	-0.0014761	-0.002896	0.011277	0.0097398	0.0057524	-0.0041406	0.0048854	-0.0033154	0.008844	-0.0028185	0.0028268	0.0049533	-0.018324	0.0056881	-0.00045377	0.0095483	-0.0059148	0.00089785	0.0057753	0.0010759	-0.010158	-0.0065626	-0.00067639	-0.0040652	-0.0018629	0.019932	-0.0031519	0.011412	-0.0061816	-0.0087117	0.011935	0.00018642	0.0029979	0.0066693	0.004507	-0.0029733	0.00087042	0.0052949	0.0044631	0.0027259	-0.013056	0.0096867	-0.0098441	-0.0030294	0.0045452	-0.0025638	-0.0010211	-0.0013987	0.0041791	-0.017782	-0.012524	-0.0072613	0.018633	-0.007845	-0.0099682	0.00017021	-0.0023791	0.0036097	-0.0035069	0.012358	-0.00095081	0.015652	-0.017881
0.0021949	0.0037948	-0.030382	0.021309	-0.020735	6.6474e-05	0.0019404	0.0020552	-0.0012359	-0.0048145	-0.00045904	-0.0010668	0.0055668	0.0098854	0.0099798	0.023311	0.005225	-0.014983	-0.011225	0.012298	-0.0066194	-0.031198	0.012736	-0.0088091	0.0072847	-0.0020224	-0.00092958	0.011746	-0.0030496	0.030387	-0.0030308	-0.0096157	0.0040007	0.0069128	0.0064336	-0.0043684	-0.010689	0.012372	-0.0033616	0.0018114	0.00070173	0.0033868	0.015256	0.015975	0.0050527	-0.010773	-0.0020824	-0.0069426	-0.00471	-0.002129	-0.002103	-0.0052629	-0.00027471	0.00015185	0.006825	0.00474	-0.0019781	0.0005234	0.0041028	0.010668	-0.021007	-0.010283	0.01758	0.0017609	-0.0046434	0.0030539	-0.044536	-0.013098	-0.01624	0.031887	-0.01631	-0.0037476	0.017827	-0.010089	0.0023941	0.00097243	-0.019239	0.0057131	-0.0025705	0.029539	0.0010089	0.17189	-0.039711	-0.010205	0.0049062	-0.0040502	0.0072759	-0.0030384	0.024169	-0.010256	0.0013382	0.0031769	-0.01472	0.0030885	0.00094787	0.004571	-0.016704	-0.016911	-0.035939	0.0026286	-8.1514e-05	0.015809	-0.001762	-0.00077997	0.011184	0.0037129	-0.011649	0.032883	-0.016505	0.024868
0.0031404	-0.011206	0.0029098	-0.014398	-0.011481	0.0047644	0.0073321	-0.007036	0.004206	-3.5191e-05	0.0024529	0.00050908	-0.0068131	0.0011272	-0.011701	-0.0021865	-0.023273	-0.056348	-0.041194	0.1948	-0.027642	-0.0051726	-0.0052096	0.0093873	0.0026279	0.0061722	-0.00083107	0.0080725	-0.0002978	0.010453	-0.0084634	-0.0053374	0.00029182	-0.010174	0.0030781	0.00211	0.012548	-0.001165	0.0026847	-0.011925	-0.0049798	-0.0075217	-0.0053024	-0.0034431	0.0042215	0.0086653	0.00032774	7.5651e-05	-0.0032213	-3.0878e-05	0.0015641	-0.00022974	0.01117	0.0022929	-0.0032381	0.010542	0.0055018	0.0022627	0.0023271	0.0064564	0.0019584	-0.014287	0.0068027	-0.0032477	0.0072337	-0.0041332	-0.00041299	0.0072602	0.00031965	0.0021188	0.0042344	-0.00013961	0.0055708	0.00099608	0.00041526	-0.0013032	-0.0012443	0.010605	0.0030042	-0.0075224	-0.012945	-0.01727	0.011698	-0.0043399	0.001996	-0.0018531	-0.010988	0.0098192	-0.0039605	0.012188	0.0064077	-0.0016691	-0.0041452	0.0018704	0.0041354	0.020091	-0.003228	0.0050335	0.015802	-0.010496	-0.00091148	0.00584	-0.0097264	0.0025131	0.0057243	0.0029187	-0.0136	0.0037345	0.00036641	0.0073364
-0.012758	4.6594e-05	0.0086542	-0.017848	0.0014329	-0.0044481	-0.0088422	-0.0010793	-0.0033104	0.035009	-0.0091254	-0.0065697	0.007068	-0.001041	0.0012753	-0.014935	-0.0096314	-0.0022464	-0.008346	-0.00063801	0.011954	-0.0047117	-0.00082253	-0.032121	0.024615	0.00099478	0.013336	-0.008162	0.0070572	0.00057688	-0.0060022	0.0033175	-0.0082896	-0.0094541	0.034321	0.004057	-0.0090967	0.0082499	-0.0032316	-0.0040016	0.0044842	-0.0025967	-0.0055986	0.0056806	-0.014303	-0.023554	0.0056233	-0.0036208	0.0018397	-0.0095669	-0.010276	0.0084844	-0.019778	-0.022083	-0.008989	-0.0092105	0.00046718	0.031582	-0.0035441	-0.052995	-0.014446	0.0018471	0.018246	0.0072349	0.0049856	0.0024245	-0.010769	-0.0033875	0.018515	-0.0018006	0.00064685	-0.0030568	-0.045161	0.11306	-0.10572	0.033343	0.0015851	0.012646	0.0011592	0.0027412	-0.0031566	0.0052327	0.016737	-7.0124e-05	-0.010814	-0.01489	-0.009477	0.060697	0.013226	-0.011591	0.0060123	-0.023365	-0.031812	0.016619	-0.00053849	-0.012778	-0.019931	-0.011551	-0.0083682	-0.004666	-0.0002392	-0.012466	0.011047	0.0064608	-0.0057618	-0.0020681	-0.015692	0.0093107	0.0071932	0.018742
-0.001529	0.0011641	0.0036839	0.011626	-0.00073025	-0.00018645	-0.00045757	-0.00045525	0.003805	-0.01113	0.0028544	0.0028626	0.0044563	-0.00012282	-0.0024597	-0.0016476	0.0014038	-0.0024801	-0.0026098	-0.0001957	0.0050552	-0.0032282	0.00036619	0.0033955	-0.0013964	0.0030252	0.0013116	0.005837	0.0054437	-0.01912	-0.0069468	-0.007095	0.0054342	-0.0032453	-0.015879	-0.018001	-0.00025712	0.0092915	0.0097233	0.0020634	0.0049095	-0.01028	-0.13087	0.16784	-0.02935	0.0019277	0.001199	-0.010688	0.0014267	0.0092959	-0.0029488	0.0026029	-0.0032066	0.0014081	0.0063854	-0.00012839	0.000154	-0.0016919	-0.0019381	-0.0073029	-6.5592e-05	-0.0061026	-0.00038845	0.0026204	0.0057498	0.0039586	0.005158	-0.0019172	-0.0031634	-0.005215	0.0059407	-0.001445	-0.0055368	-0.0050833	0.0030913	0.00065208	-0.0018955	-0.00045222	0.004841	-0.0076198	0.0031456	-0.00057884	-0.0034805	-0.0026263	-0.00047539	-0.00026362	0.00044113	-0.00075371	-0.0021217	-0.0043157	0.0022912	-0.012176	-0.0023788	-0.0024845	-0.0052941	0.0036552	0.0073618	-0.003565	-0.00024151	2.7929e-05	0.0050142	0.0079845	-0.0093508	0.0043401	-3.4326e-05	0.0020064	-0.0028311	0.00029793	-0.0083418	-0.0038925
-0.013097	0.0050241	0.00055934	0.0059121	0.014418	0.0053518	-0.030133	0.0085088	0.019176	0.0023044	0.035736	-0.036602	0.0038458	0.021293	-0.063955	0.12806	0.0018395	-0.024277	0.0062656	-0.0099996	-0.031709	-0.02778	-0.041203	0.006315	0.0037116	-0.0014469	-0.0090898	0.024891	0.026841	0.013261	0.0088016	-0.017716	0.0087969	-0.00032526	0.02371	-0.0092471	-0.011913	0.011277	0.0025833	0.0073124	-0.013318	-0.0036644	0.0071816	0.0046377	-0.0066917	-0.0022742	-0.0017061	0.00043972	0.0028923	-0.00063115	-0.0049336	0.0047364	-0.0029677	0.0025315	0.011997	0.0065359	0.00015519	0.0090607	0.0053705	-0.021969	0.0090905	-0.014652	-0.010401	0.011645	-0.019766	0.00062405	0.03161	0.0073074	0.021905	0.018756	-0.018056	0.0034952	0.0010079	0.014324	0.002682	0.011394	0.009042	0.0062169	-0.0015881	-0.029844	-0.011355	0.0044142	0.017412	-0.040365	0.0092005	0.014413	-0.0059858	-0.0066785	-0.015532	0.010537	0.018809	0.001081	0.018856	-3.4914e-05	-0.0071428	0.0013812	0.0012739	-0.026184	0.0024518	0.030332	-0.00061792	-0.032635	0.012675	0.0033545	-0.0049252	-0.0064968	0.03471	-0.018404	0.014777	-0.014221
0.019165	-0.0070019	-0.0094766	0.0096386	0.0036751	-0.012322	0.026463	-0.0039283	-0.013782	-0.01154	-0.018318	0.039141	0.0028669	0.0029754	-0.020364	0.039584	-0.017846	-0.0016053	0.011438	-0.0092246	-0.017652	0.017118	-0.0022356	-0.014267	-0.0086641	0.013165	0.0031178	0.0040717	-0.0082974	0.01284	-0.0068471	0.007683	-0.0057245	-0.0059624	-0.013051	0.0089973	0.020824	-0.010348	0.00175	-0.0081259	-0.0065031	-0.0017782	-0.013596	-0.0089807	-0.0019224	-0.0086324	0.0011792	-0.00031019	0.0096891	0.0014728	0.010257	0.00010347	0.0024806	-0.0046966	-0.0048663	0.012847	0.0097166	0.0076399	-0.0073057	0.0090237	0.017769	-0.0080834	-0.013824	-0.0034904	0.0090233	0.002357	0.011964	-0.0056284	-0.018006	0.0035203	-0.0029437	0.001932	-0.026547	0.0082333	-0.0078324	0.021829	0.032564	-0.017149	-0.021556	0.0079881	0.0071626	0.0033083	0.010728	0.0016868	0.016317	0.028777	-0.029634	-0.00027423	0.018174	-0.043677	-0.0035172	0.0071244	-0.015857	-0.057242	0.13494	-0.026014	-0.018327	-0.0068331	0.018061	0.013632	0.010596	0.0027007	-0.044549	0.0012412	0.033143	0.018922	-0.026519	-0.011363	-0.013154	0.0025713
-0.0072088	0.0050313	-0.023517	-0.015759	0.018774	-0.037232	-0.027214	0.032035	0.00082474	-0.0019168	0.0023233	-0.01459	0.033131	-0.03079	0.0028888	0.008894	0.0080058	0.0018165	-0.0026652	-0.0062978	0.0085363	-0.02571	0.044898	-0.0087434	0.0025241	-0.0027477	0.012626	0.0048405	-0.0040904	0.019744	0.0075516	-0.021453	-0.011459	-0.00090038	-0.018058	-0.0077846	0.030642	-0.0052762	-0.009674	-0.012406	0.024382	-0.0080607	-0.014513	-0.0075868	0.0027103	-0.0058888	0.0011855	-0.0015704	-0.012893	0.00078	-0.0085195	-0.0057889	0.0041805	-0.012425	-0.0036526	0.0014062	0.010417	-0.005542	-0.0016816	0.018301	0.022279	0.0047115	-0.0071575	-0.0088703	0.020758	-0.010915	0.010456	0.005523	-0.0088446	-0.021803	-0.015552	-0.0016301	-0.0075283	-0.0098373	0.0019634	0.0095106	-0.023696	0.034405	-0.0069376	0.0026543	-0.020321	-0.0068054	0.016247	-0.019507	0.025309	0.02321	0.029701	0.0014808	-0.016229	0.0035702	0.012328	0.0038799	0.00062268	-0.017141	-0.009229	0.012317	0.024348	0.0073954	-0.0122	0.017448	-0.032817	-0.018553	0.010115	-0.0045454	-0.0049819	0.012022	-0.059898	-0.058203	0.023901	0.11404
-0.0014527	-0.0027327	-0.0024011	-0.0047571	0.00038347	-0.0028872	0.0034799	-0.0018474	-0.0021423	0.0029544	-0.0010587	0.00037593	0.0034518	7.5212e-06	0.0013774	0.0013785	-0.0027519	0.0054556	-0.00053341	-0.00087398	0.0019965	-0.0033249	0.0029749	0.0036018	0.0013103	0.0017172	-0.0040321	-0.0010638	-0.0024688	0.011455	-0.0012819	-0.00035631	-0.0030853	-0.00034195	0.0044147	0.0066271	-0.0049724	0.0013812	0.0052274	0.0011619	-0.012107	-0.02955	-0.012596	-0.019191	-0.052434	0.0012131	0.18151	-0.041327	-0.059036	0.0040789	-0.0025526	-0.021626	0.00050266	0.036812	-0.010935	0.002642	-0.0098969	0.026126	-0.013702	-0.0023325	-0.0033389	0.0035011	0.0068	0.0050776	0.0046576	-0.00090168	-0.00057111	-0.0017711	-0.0023379	0.00046374	-0.00067661	0.0032724	0.0038137	-0.0029092	-0.013778	0.002414	-0.0015866	0.0017521	0.0040614	0.0040971	0.00067382	0.0023974	0.0036781	0.0032268	0.005118	-0.00054199	0.0018476	-0.0087909	-0.0032812	-0.00063642	-0.0037805	0.0068549	0.0080647	0.00014504	0.0030262	-0.00032956	-0.0036876	-0.00031764	0.0016756	-0.0010294	0.00066747	-0.00075989	0.0079754	-0.00096045	-0.0012203	-0.00026496	0.0037572	0.0015415	0.0047016	-0.0070549
-0.019133	0.1597	0.003787	0.00097593	-0.00913	-0.0080125	0.01894	-0.01207	0.0019986	-0.0040571	0.0034968	0.0052538	-0.015361	-0.0029046	0.014451	0.011183	-0.014291	-0.067438	0.0097207	-0.014955	-0.011189	0.01209	0.028662	-0.0076731	0.0037461	0.0088311	-0.017483	-0.014988	-0.0084212	0.035698	-0.0086349	-0.00043272	0.022726	-0.0026156	-0.0085911	-0.002677	-0.0078904	0.0035184	0.014144	-0.02313	0.0037716	0.0057468	0.014942	0.01408	0.0074015	-0.016334	0.0049055	0.0023125	0.0019553	0.0046607	-0.0091275	0.0042823	0.0067307	0.0063205	-0.012171	0.0062063	-0.0088291	0.0077359	-0.0096071	-0.0089444	0.011282	0.0013189	0.0094609	-0.014437	-0.0093597	0.0095214	-0.012119	-0.0084429	0.018174	-0.0047262	-0.00076754	0.0023689	0.0050064	-0.0063108	0.0087928	-0.00087454	-0.0027223	0.017882	0.0019756	-0.027871	0.026736	-0.019709	0.0049968	0.031938	-0.0044046	-0.0020625	0.0087417	-0.0047334	0.014035	-0.002084	-0.003395	0.00028095	-0.017597	-0.0026187	-0.0069297	-0.0014872	-0.016839	-0.013251	0.01488	0.0012168	0.0078188	0.0052678	0.0029259	-0.0081321	0.0087351	0.0025723	-0.0020007	0.003002	0.013855	0.0091401
0.17362	-0.014233	0.0027191	-0.01089	0.005861	-0.0052075	0.007234	0.0060328	0.0072092	-0.0077985	0.010272	-0.0048487	-0.0027063	0.017532	0.0023543	0.0097094	0.010073	-0.0082675	-0.0042088	-0.0055258	0.0044875	-0.012091	0.018141	-0.01449	-0.008609	0.0042902	-0.0041175	0.0061017	0.0083517	0.0033506	0.0070747	-0.0052817	0.01114	-0.001033	-0.011352	0.00027197	-0.00086614	0.0095235	0.0026191	0.012251	0.001575	-0.0030771	0.0022204	0.0096959	0.028969	-0.030139	0.0096182	-0.0036988	0.00037424	-0.0070766	-0.0058204	0.0066668	-0.0041731	-0.0084649	-0.0010936	0.020115	-0.010806	0.015274	-0.0041986	-0.0016997	0.0005156	0.029876	0.0033417	-0.026994	-0.019198	0.0064696	-0.050253	-0.0142	-0.00017604	-0.01064	0.0093843	0.00031749	-0.01015	0.0047242	0.013723	0.013821	-0.0033461	0.010589	0.015988	-0.0069712	0.0071433	-0.014552	0.015933	-0.00058023	0.0045994	0.011279	-0.011918	0.0066883	0.0074366	0.0044171	0.019312	0.0016005	-0.0055105	0.0076339	-0.013184	0.012063	-0.0098495	-0.0010903	0.018606	0.01064	-0.0046282	-0.0072147	0.019606	-0.006872	-0.0016591	0.00064201	0.011663	0.0058197	0.0065074	0.00042182
-0.00053416	0.010368	-0.020615	0.033494	0.0027669	0.0067425	0.011248	-0.010109	0.0036553	-0.011622	0.0046646	0.0027961	0.019862	0.0064919	-0.011565	-0.00017162	-0.0097489	-0.010128	-0.0012242	0.010061	0.0014082	0.030889	-0.01054	-0.0057669	0.0062329	-0.0067373	0.010848	0.012956	-0.03693	0.015074	-0.00034846	0.012613	-0.00248	0.0079502	0.00086589	-0.00086549	-0.0107	0.015694	-0.0076658	0.011083	-0.018517	0.0084678	0.005768	0.0099564	0.011415	-0.032563	0.0071033	0.00082811	0.0005845	-0.0026098	0.00052543	-0.00061345	-0.0032083	-0.0076569	0.0027174	0.019349	-0.021777	0.0084217	-0.0012266	-0.00042152	0.0092995	0.034958	-0.010706	-0.015617	0.016512	0.003576	-0.010183	0.0040084	0.020219	-0.0045071	-0.040673	-0.0079072	-0.0037894	0.0085689	0.0008247	0.0064972	0.022412	0.030907	-0.019522	0.057652	-0.023811	-0.0071959	-0.038363	-0.0060454	-0.031983	-0.016648	0.016664	0.0046453	-0.018501	0.0021808	0.018043	-0.0043558	-0.0078456	0.0011874	0.013358	-0.028866	0.13431	0.0069064	0.011812	-0.019139	0.013751	-0.02528	0.013997	-0.0053692	0.0081825	0.0016655	0.014046	0.0050488	0.0062797	-0.0097463
0.011029	-0.0065085	-0.0010985	0.0018596	0.011231	-0.012318	0.010085	-0.018342	-0.0014904	-0.0053172	-0.001649	-0.0148	0.0065807	-0.016853	0.0099198	-0.0096725	0.0033124	-0.011458	0.0074481	0.012455	0.00044604	0.0015047	-0.010459	0.0096676	-0.010956	0.0039391	-0.0049892	0.0004848	0.0011808	-0.0088458	0.0022932	0.0074208	0.0033851	-0.0029835	0.02335	-0.0049287	-0.0023098	-0.01021	0.015058	-0.0063885	0.009378	0.0018047	0.00045912	0.0060758	-0.0026697	-0.0065885	-0.0041415	-0.00042795	-0.0011385	-0.0036587	-0.010404	0.0051306	0.00044925	-0.0013343	0.0048985	-0.020334	-0.00345	-0.0015459	0.0030012	0.017684	-0.011424	0.0070192	0.016516	0.0030536	-0.012666	-0.0064523	-0.0049895	-0.011865	0.0030585	0.00704	0.0054218	-0.0027682	-0.013839	-0.0085519	-0.0037161	0.0083215	-0.0017559	-0.014456	0.0067879	-0.0043221	0.0083764	0.020152	0.0096516	0.017033	-0.010934	0.031648	0.012792	-0.0016828	0.012647	-0.0048391	-0.024623	-0.009446	0.011292	-0.010512	0.015581	-0.003592	0.013961	-0.003489	-0.067423	-0.027013	0.0022854	-0.012768	-0.0079668	0.0053531	0.0046967	0.0048755	-0.0065523	-0.047054	0.14798	-0.04833
0.0031444	0.0047535	-0.0043405	-0.01631	0.0045565	0.0053586	-0.00028315	0.00066461	-0.001208	0.0018331	0.0003777	0.00084732	0.0042187	0.0029214	0.0017881	-0.002957	0.0035862	0.0011587	0.0046223	0.0059411	0.0049388	0.0059903	-0.0024625	0.0018903	0.00039253	0.00057044	0.002461	-0.0011521	-0.0010616	-0.0032246	0.0023379	0.0018369	0.001217	0.0037321	-0.0018068	0.0021332	-0.0034227	0.0024352	0.0041801	0.0012079	0.0038666	-0.0027428	6.9591e-05	0.0013482	-0.0010866	-0.0039981	-0.0015102	-0.0012042	0.0011212	0.0011252	0.0088063	0.00095108	-0.0023031	0.0020441	0.0031859	0.00075293	0.0048148	0.00094719	-0.004316	-0.0090742	-0.019825	-0.010781	-0.0025342	-0.0033066	-0.0099463	-0.010595	0.0053775	0.0013145	-0.0039379	-0.016161	-0.043272	0.1885	-0.030269	-0.010739	0.0021123	-0.014314	-0.026404	-0.015464	-0.00045257	0.0041412	0.0026437	0.0063189	-0.0014562	-0.0034811	0.00094962	-0.0014266	-0.0038668	0.0038172	0.0044859	0.006436	0.0035266	-0.0073977	-0.0054276	-0.0038466	0.0017474	-0.0089759	0.0063619	0.0012515	0.0061482	-0.0022036	0.0063478	-0.0019195	0.002008	0.00019064	-0.0030315	-0.0027568	-0.0011489	0.0019612	0.0029977	0.00074852
-0.013245	0.0045561	0.00029113	0.0079381	0.13022	-0.027083	-0.0065484	0.021122	-0.0096526	-0.0030318	-0.0043602	0.0043768	-0.01808	-0.00068803	-0.0047565	-0.013182	0.010541	-0.031954	0.010734	0.021683	0.022729	-0.018306	0.026098	-0.020414	0.0033477	0.0034071	0.0052875	0.016108	-0.02351	-0.0087586	0.0039721	0.015565	-4.6674e-05	-0.0023613	-0.0052833	0.0011964	-0.0069844	0.0082448	0.0050427	-0.0016508	-0.016137	0.00052232	0.0063932	0.0074119	-0.0051324	0.010135	0.002024	0.0061576	0.020696	0.0077242	0.00073854	-0.00021269	0.010116	0.0040951	-0.0026315	-0.0077146	0.0031979	0.0082688	-0.0073436	-0.0085445	0.0084764	0.037335	-0.019425	-0.0083962	0.018073	-0.0020833	0.001551	-0.0060641	0.022593	-0.0015304	-0.0091426	0.00076117	-0.00025229	-0.0075066	0.011591	0.01434	-0.00059048	-0.032101	0.014029	0.043196	-0.0065896	0.0070032	0.017817	0.011991	-0.0073611	-0.0059873	0.0085297	0.010313	-0.004242	-0.012574	-0.0060917	0.010887	0.012533	-0.0006993	0.0060227	0.020696	-0.034323	-0.00085809	-0.042559	0.017993	0.010601	-0.028829	0.0083938	-0.012922	-0.0048227	0.00016887	0.032308	0.00022599	-0.031841	-0.016686
-0.0018872	0.0039518	-0.0011944	-0.035887	-0.001961	-0.0053256	0.0023253	0.0028395	0.00086794	0.0068625	0.0012425	-0.0076952	0.009363	-0.0062002	-0.0036436	-0.020793	0.16025	-0.046666	-0.020458	-0.016023	-0.031388	-0.0076788	-0.022896	-0.00051468	0.0099195	0.00066805	0.0027118	0.024936	0.0030049	0.028327	-0.021641	-0.0035958	-0.013314	-0.0050269	-0.0087222	0.0025044	0.012125	0.0068377	-0.0096387	0.011167	-0.0050334	-0.0059663	-0.012055	-0.00779	0.0060788	0.0015429	-0.005945	-0.0028403	-0.0091025	0.010497	0.0060105	0.00024027	0.0049656	0.0028067	-0.010127	0.010102	0.0019564	-0.0013147	0.0026588	-0.0059985	-0.00019874	-0.0057083	0.004913	0.0069279	0.011763	-0.001892	0.0083537	0.0038521	-0.0098071	-0.0076622	-0.011375	-0.0029384	0.0038974	0.015003	0.0013225	0.0060044	0.00583	0.014908	0.00021275	0.019068	0.0050996	-0.0045021	-0.0011654	0.0060176	0.001966	-0.011551	-0.0061578	-0.010928	-0.0039418	-0.0050836	0.0040168	-0.00046073	0.0040847	0.0024743	0.0086409	-0.0020761	-0.004404	0.013658	0.0094875	-0.015061	-0.0036321	0.010808	-0.024977	0.00042589	0.0034719	0.00030441	-0.0037716	0.0047462	0.0054261	-0.022354
-0.0058407	0.0067866	-0.00081591	0.022752	-0.00099389	-0.00094324	0.0020613	-0.00011731	0.0050553	-0.025778	-0.039026	-0.007346	0.0043579	-0.00052312	0.0041831	0.0087619	0.0052692	-0.0079552	-0.0060759	-0.00016963	0.0043192	-0.0061968	0.0039753	0.0038384	-0.023895	0.0036392	0.002033	0.0098876	0.0056774	-0.0073974	0.0109	0.0018615	0.0058762	0.011091	-0.018932	0.0074803	0.0011376	0.00167	0.0072425	0.0091019	-0.0038161	-0.0031363	0.0072179	-0.004803	3.0456e-05	0.0013644	0.00093924	0.0033535	0.0021413	-0.0054036	0.0050167	-0.0065324	0.0015648	-0.0012579	-0.0047225	0.0055969	0.0089812	0.0076466	0.00076015	0.0019503	0.0060313	0.0069803	-0.0014454	-0.0050109	0.010196	0.0011549	-0.010968	-0.0012958	0.00032522	-0.0066817	-0.0074222	0.0026929	0.0041814	0.0024268	0.0022607	0.0040173	0.0059082	0.0054939	0.0047359	0.0072283	0.0044175	-0.0067733	0.0014443	0.0042017	0.00091208	0.0049889	-0.0066122	0.0020515	0.0092887	5.5545e-05	0.010155	-0.0064202	-0.012979	0.0044788	0.0025031	0.0067242	-0.00015662	-0.003975	-0.0063292	0.0069309	0.0026036	0.009034	-0.0078851	0.1698	-0.060652	-0.0061591	0.0088357	-0.00024483	0.0012653	0.0052644
0.00077121	0.0012041	0.00014732	-0.009406	0.0012899	0.0026169	0.00037943	-0.0061193	-0.0097911	-0.0069604	-0.019235	0.010684	0.0077452	-0.0091331	0.0070623	-0.0023013	-0.0056466	-0.0017448	0.0022597	-0.0013608	0.0021391	-0.00067983	-0.011197	0.018172	-0.0036475	-0.0013028	-0.0049267	-0.003441	0.0066436	0.015856	-0.0036528	0.010097	-0.0048394	-0.0030887	0.0079611	0.011466	0.00056689	-0.0064372	-0.021606	-0.011107	0.010172	0.007584	-0.015177	-0.0099501	-0.01265	0.016592	0.0050387	0.002745	0.011941	0.001535	-0.00072273	0.014378	-0.00063288	0.0083775	0.016863	-0.017314	-0.014629	-0.0071063	-0.0043921	0.0043075	-0.0073471	9.358e-05	-0.0010452	0.00016998	-0.0056432	0.0016382	-0.0049674	0.006655	-0.0063875	0.0016176	-0.012288	-0.0042949	0.030687	-0.026131	-0.020699	0.011999	-0.0043796	-0.0079902	0.0059429	0.0069604	0.0017711	-0.001707	0.018738	-0.0084979	-0.024825	-0.0065702	0.032744	0.0084534	-0.014007	-0.023495	0.1482	-0.036731	-0.034964	-0.04307	-0.007371	-0.019728	-0.026909	0.0092766	-0.0048582	-0.001817	-0.0075318	0.0082764	0.018049	-0.0050309	0.0042758	-0.00012187	0.011516	-0.0025794	0.0075638	-0.015565
0.0014851	-0.0014337	-0.0025184	0.0013813	-0.0046056	0.002227	0.0016486	-0.0013756	0.0021357	0.0005459	-0.0028008	0.0014206	0.003407	0.0028325	0.0026205	0.0032653	0.0036662	0.0037793	0.0034056	0.0017259	-0.0036304	-0.00031879	0.0067704	0.00024983	0.0012934	0.0015288	0.001484	-0.00069822	-0.0012992	0.0081903	0.0046844	0.0028821	-0.0014121	0.00034376	0.0021022	0.0017994	-0.0045835	-0.0022986	0.0047781	-0.00096416	-0.0087708	-0.020202	-0.022292	-0.0049232	-0.014898	-0.014262	-0.00055009	0.18385	-0.032416	-0.0011516	-0.0049294	-0.024557	-0.015344	0.0044601	-0.00048954	0.0043262	-0.0033714	0.0041033	-0.0027942	0.0074746	-0.0057642	0.0024733	0.0024565	-0.00016438	-4.1197e-05	0.0016482	-0.0013985	-0.0024876	0.00056998	0.0060601	0.0034375	0.0021212	0.0018456	0.0046393	-0.00077907	0.0020188	-0.0042159	-0.0012992	0.00093912	-0.00015486	-0.0023337	0.0033375	0.00093002	0.0049683	0.0012243	-0.0016134	0.0051646	-0.00023242	0.00032001	0.002388	0.0018282	0.0035	0.0081194	0.0018875	0.0016823	-0.0027767	-0.0058586	0.0017649	0.0038554	0.0010334	0.0048026	-0.000856	0.0061144	-0.0029129	-3.4905e-05	0.0011369	0.0019422	0.00027842	0.00044724	-0.00051614
