-0.029938	-0.012463	-0.014528	-0.020455	-0.030016	-0.026594	-0.042991	-0.096901	-0.22609	-0.18519	-0.22226	-0.16746	-0.078045	-0.030369	-0.0075374	-0.025112	-0.0080399	-0.0015583	-0.0097311	0.002455	0.0076832	-0.0063749	-0.036568	-0.095556	-0.15078	-0.21847	-0.17927	-0.10562	-0.06979	0.011024	0.0039382	-0.0081094	-0.020305	-0.015126	-0.023813	-0.15578	-0.25396	-0.10372	-0.076322	-0.062743	-0.036812	-0.018326	-0.062798	-0.14686	-0.21019	-0.18577	2.478	0.51062	-0.11241	-0.14672	-0.032128	-0.012723	-0.025449	-0.034493	0.75942	-0.07312	0.035012	-0.013832	0.88052	0.082285	-0.1331	-0.053501	-0.013128	-0.030103	-0.032937	-0.021436	-0.046882	-0.063216	-0.066606	-0.10916	-0.11808	0.36123	-0.035268	0.46934	0.021972	0.014951	-0.027268	-0.039781	-0.035117	-0.0079759	-0.049397	-0.0439	-0.001138	0.11125	0.35188	0.39604	2.5774	1.4104	1.415	0.43482	0.0076641	-0.027988	0.031228	0.28175	0.25398	2.3983	3.199	-0.05911	-0.18954	-0.20086	-0.23119	-0.12065	-0.051049	-0.023207	-0.087671	-0.13434	-0.13095	-0.1809	-0.27043	-0.20527	-0.069824	-0.059615	-0.066344	-0.028967	-0.023468	-0.027416	-0.1183	-0.14555	-0.20869
-0.080871	-0.068474	-0.07588	-0.045686	-0.070437	-0.076712	-0.075003	-0.042814	-0.066658	-0.097312	-0.094611	-0.056112	-0.0786	-0.072639	-0.056251	-0.069093	-0.047201	-0.050692	-0.054836	-0.05023	-0.06844	-0.078195	-0.069367	-0.081908	-0.064052	-0.088204	-0.058347	-0.085381	-0.081639	-0.070416	-0.074555	-0.070191	-0.074257	-0.050959	-0.055989	-0.058803	-0.050542	-0.046366	-0.077364	-0.049749	-0.066857	-0.058648	-0.064001	-0.063831	-0.10071	-0.040346	0.91127	-0.049017	-0.096544	-0.055759	-0.049362	-0.08961	-0.079614	-0.078326	-0.0018592	-0.14912	-0.10756	-0.056897	0.64309	-0.1313	-0.16054	-0.095846	-0.079496	-0.041116	-0.048739	0.013183	-0.047452	-0.05098	-0.069217	-0.14475	-0.23702	0.29632	-0.21914	-0.24732	-0.20956	-0.043262	-0.042828	-0.050577	-0.062295	-0.085461	-0.063498	-0.027878	0.084894	0.030584	0.12415	-0.077251	2.765	1.5054	1.1312	-0.098769	-0.011566	0.13154	-0.1548	-0.24909	-0.098339	0.23184	0.009154	-0.043559	-0.082952	-0.1537	-0.11175	-0.068754	-0.077946	-0.070736	-0.087846	-0.074506	-0.047557	-0.10275	-0.051214	-0.10813	-0.048791	-0.045346	-0.079744	-0.055323	-0.090496	-0.074823	-0.098599	-0.066274	-0.071501
-0.16972	-0.13832	-0.10021	-0.10116	-0.1314	-0.086518	-0.10869	-0.091766	-0.27923	-0.1718	-0.27138	-0.2173	-0.12817	-0.070797	-0.12714	-0.15651	-0.14822	-0.1152	-0.12574	-0.12712	-0.10752	-0.11902	-0.065071	-0.11068	-0.18358	-0.29485	-0.18074	-0.06351	-0.10122	-0.03031	-0.0501	-0.14052	-0.10622	-0.057054	-0.043863	-0.11691	-0.2674	-0.12193	-0.18052	-0.14081	-0.1586	-0.1329	-0.076246	-0.19213	-0.25905	-0.21568	-0.43797	-0.24738	-0.21637	-0.15383	0.0334	-0.11267	-0.091639	0.19773	0.13999	0.1937	0.45898	0.066063	0.856	0.38873	0.33698	0.12093	-0.12745	-0.20814	-0.16978	-0.16281	-0.31466	-0.32519	-0.15933	0.097571	0.38968	0.50181	1.3222	0.30085	0.31176	0.14195	-0.18	-0.22488	-0.1916	-0.14752	-0.14964	-0.14827	0.015778	0.33917	0.19546	0.10289	0.13498	0.020456	-0.1485	-0.14122	-0.028908	0.051237	-0.11964	-0.162	-0.25744	-0.38763	-0.51055	-0.36745	-0.18891	-0.19867	-0.16349	-0.10311	-0.14681	-0.1477	-0.14531	-0.10346	-0.096752	-0.14022	-0.19843	-0.096508	-0.070955	-0.090831	-0.12758	-0.10377	-0.082344	-0.070695	-0.15435	-0.096875	-0.17212
-0.019832	-0.024063	-0.020412	-0.02644	-0.023524	-0.021738	-0.030951	-0.042118	-0.060222	-0.056028	-0.060519	-0.053791	-0.029919	-0.018286	-0.011061	-0.024905	-0.012823	-0.006114	-0.016623	-0.014917	-0.016158	-0.01496	-0.02655	-0.039494	-0.05336	-0.065229	-0.05885	-0.040547	-0.036659	0.001309	-0.013287	-0.0043881	-0.022038	-0.016793	-0.010066	-0.067944	-0.090206	-0.045929	-0.035273	-0.038107	-0.029898	-0.017751	-0.025202	-0.077966	-0.10038	-0.12039	1.4951	0.06183	-0.097628	-0.07584	-0.026156	-0.025773	-0.02437	-0.013954	0.11764	-0.044907	-0.0054312	-0.013232	0.6053	-0.0033577	-0.058301	-0.035941	-0.028269	-0.025631	-0.015467	0.0064599	-0.020335	-0.026202	-0.030254	-0.051298	-0.08965	0.27289	-0.10811	-0.040315	-0.036908	-0.0053916	-0.010929	-0.011986	-0.024533	-0.020234	-0.017089	-0.0063975	0.016026	0.037327	0.066924	0.0061113	1.2422	0.87156	0.80591	-0.012353	-0.01328	0.051666	-0.020978	-0.031518	0.13235	0.35675	0.21832	0.074137	-0.029198	-0.068251	-0.052893	-0.032106	-0.029522	-0.021355	-0.037896	-0.038859	-0.017119	-0.03979	-0.065457	-0.052679	-0.01816	-0.019249	-0.028284	-0.01361	-0.022132	-0.010667	-0.053206	-0.04807	-0.064549
-0.061613	-0.066451	-0.026854	0.017667	-0.0033796	0.0039288	0.0034215	-0.022299	-0.076367	-0.071301	-0.099569	-0.096655	-0.041152	-0.002117	-0.0070103	-0.042435	0.0090686	0.019661	7.0694e-05	-0.026169	0.001119	-0.033965	0.01738	-0.025177	-0.08183	-0.094465	-0.056467	-0.034957	0.011897	0.003083	-0.018979	0.031053	-0.02319	-0.080071	0.063664	-0.062493	-0.083095	0.089853	-0.10245	0.021259	-0.0013055	-0.0032866	0.027342	-0.0094979	-0.16456	-0.063845	0.20691	-0.12456	-0.15456	-0.055923	0.14366	-0.01416	0.017074	0.057257	-0.28724	-0.073794	0.17875	0.10188	-0.21932	-0.13814	0.094279	0.058891	-0.00026441	-0.042829	0.0057795	0.012496	-0.1038	-0.078778	0.036734	0.086008	0.028364	-0.17397	-0.52834	-0.042656	0.10628	0.52802	0.15431	0.047564	-0.0052446	-0.014163	0.037405	0.16752	0.62255	0.53042	0.41272	0.24443	0.026911	-0.37826	-0.14239	-0.33135	0.086863	1.2022	0.44846	-0.3079	-0.23144	0.093973	0.064285	0.044609	0.20517	-0.34464	-0.35691	0.12401	-0.01823	0.011591	-0.10556	-0.011557	-0.081691	-0.011931	-0.053646	-0.092209	0.12512	-0.028075	-0.028409	-0.0055499	-0.048658	-0.045912	-0.084785	-0.015285	-0.05638
0.040217	0.0028135	0.028757	0.050384	0.047605	0.040418	0.013586	0.051566	0.028171	0.065438	0.084744	0.14262	0.078592	0.0562	0.043925	0.025201	0.040901	0.039007	0.011158	0.031428	-0.002664	-0.02215	0.053332	0.2652	0.23784	0.11489	0.083345	0.37091	1.1676	-0.36976	-0.23688	-0.1102	-0.23626	-0.68129	-0.58822	0.48626	0.12275	-0.30322	-0.18806	-0.28516	-0.097363	-0.0068145	-0.10026	-0.076207	0.0067991	-0.11943	-0.014084	0.057676	0.04791	-0.014	-0.0441	0.0034162	-0.012196	-0.039793	0.085004	0.059288	0.0084263	-0.00021662	0.059251	0.055176	0.042301	0.039475	0.02235	0.0056363	-0.013449	0.034509	0.017453	0.024355	0.035186	0.063774	0.068961	0.061176	0.090885	0.021455	0.065597	0.05251	0.046954	0.034257	0.034593	0.033919	0.018406	0.035247	0.048664	0.025941	0.037742	0.048895	0.059379	0.017115	0.008356	-0.00068416	0.049731	0.091874	0.021191	0.037197	0.056774	0.009555	-0.0041998	-0.010316	-0.0080328	-0.035567	-0.053886	0.038492	0.012062	0.020545	-0.00087328	-0.082028	-0.17648	0.11445	0.054932	0.28267	-0.082006	-0.081889	-0.0090991	0.035668	0.012957	0.028655	0.18053	0.16705	0.069433
-0.088968	-0.11132	-0.075568	-0.14351	-0.1133	0.0090221	0.080804	0.051505	-0.084971	-0.01438	-0.026203	-0.021823	-0.042976	-0.10651	-0.24024	-0.28562	-0.17976	-0.092612	-0.080189	-0.096787	-0.012077	0.10155	0.2145	0.25569	0.086908	0.025089	0.032903	0.46961	0.57083	0.97864	0.60285	0.19132	0.16659	0.4043	0.14185	0.1394	-0.027249	-0.059421	-0.0040547	-0.0065686	-0.042165	-0.020439	-0.040481	-0.094267	-0.11848	-0.127	0.014347	-0.094314	-0.098346	-0.10436	-0.1024	-0.044385	-0.075767	-0.055068	-0.068908	-0.086557	-0.020938	-0.062291	-0.047446	-0.036798	-0.068483	-0.065677	-0.068742	-0.06639	-0.073662	-0.079947	-0.048492	-0.055534	-0.063917	-0.08216	-0.066139	-0.060888	-0.11024	-0.033998	-0.070148	-0.052696	-0.044081	-0.054512	-0.079408	-0.06527	-0.065333	-0.080085	-0.034363	-0.0072995	-0.039394	-0.016357	-0.0070542	-0.019946	-0.014181	-0.048137	-0.047502	-0.059259	-0.090171	-0.08543	-0.10074	-0.0079058	0.043337	-0.098787	-0.084004	-0.087568	-0.098674	-0.070632	-0.048231	-0.069396	-0.054783	-0.036638	-0.010918	-0.069445	-0.057777	0.028683	0.061305	0.043048	-0.022439	-0.024546	0.11337	0.13474	0.052974	0.09107	-0.024198
-0.01837	-0.00097364	0.032569	-0.0035836	-0.034062	0.010298	-0.027943	-0.09817	0.013996	-0.035321	-0.029759	-0.014857	-0.043812	0.011224	-0.030552	-0.0088858	-0.0084829	0.015064	-0.012296	-0.020883	0.0033306	0.024272	0.02493	-0.070907	-0.038644	-0.037926	-0.022207	-0.025778	0.073041	0.042343	-0.05394	0.010189	-0.019234	-0.043732	-0.11114	0.00051537	-0.035124	0.060294	-0.0023035	-0.077078	-0.046216	0.013471	0.071482	-0.013017	-0.072698	0.0070542	0.04495	0.02366	-0.061471	-0.040646	0.26226	0.054776	0.16678	0.18745	-0.2342	-0.012675	1.2518	0.33378	-0.30744	-0.3125	0.038824	0.21904	0.20594	0.12441	0.0097878	0.029486	0.022751	-0.045773	0.067238	0.058153	-0.018535	-0.046652	-0.10587	-0.12978	-0.03964	0.021611	-0.031132	-0.01489	-0.040953	-0.028198	-0.084412	-0.079231	-0.10372	-0.012674	-0.14314	-0.16427	0.071407	0.024295	0.071434	0.19675	0.066275	-0.27841	-0.096163	-0.023287	-0.044789	-0.055148	0.052799	0.13067	-0.06933	-0.014671	-0.062235	-0.037132	-0.050736	0.036397	0.059226	0.030371	0.03023	-0.0092799	-0.054318	0.017266	-0.040439	0.058126	0.026175	0.015905	0.068091	0.066829	-0.02553	0.0401	-0.015868
0.0076404	0.0064662	-0.0056555	-0.00329	-0.010241	-0.040484	-0.0097777	0.059265	0.026064	0.039786	0.026551	0.044198	0.030224	0.030406	0.017497	0.025276	-0.0028195	0.0064844	0.027083	0.024315	0.023795	0.018649	0.021952	-0.053054	-0.0036365	0.0067349	0.01149	-0.060374	-0.22767	0.11116	0.082132	0.064834	0.061647	0.094965	0.0073707	-0.053367	-0.0075204	0.11558	0.021886	0.060648	0.038134	0.026945	0.041972	0.032026	-0.0052782	-0.0040387	0.013608	0.0093562	-0.0038084	0.060553	0.029297	0.010235	0.032927	0.040551	0.0073268	0.072538	0.039709	0.051289	0.021788	-0.0035758	0.02684	0.026329	0.020817	0.027694	0.033014	0.023272	0.0056403	0.015275	0.030641	0.019171	0.011298	0.025308	0.032229	0.022497	0.021096	0.020492	0.037362	0.0088219	0.029675	0.0011734	-0.0050426	0.00073613	0.035938	0.049276	0.0092673	-0.046479	0.0083698	0.021969	0.027615	0.015838	0.041733	0.052011	-0.0088196	0.027932	-0.02333	0.0051274	-0.0083985	-0.053129	-0.1835	-0.14692	-0.10609	-0.009908	-0.01364	-0.065299	-0.036322	-0.13636	-0.30226	0.031418	0.1077	0.4466	-0.38595	-0.2743	-0.12566	-0.078555	-0.19321	-0.29758	1.1507	0.25361	0.092111
-0.1526	-0.17416	0.070689	0.014485	0.023706	-0.03549	-0.033144	-0.029725	-0.10097	-0.04011	-0.084653	-0.052589	-0.045744	-0.025444	-0.069008	-0.088903	-0.13183	-0.16019	-0.079296	-0.10459	-0.076885	-0.062407	-0.021026	-0.044725	-0.063213	-0.082972	-0.10103	-0.079108	-0.03323	-0.044124	-0.0058771	-0.0061565	-0.010092	-0.072445	-0.017031	-0.095356	-0.11864	-0.061916	-0.066211	-0.047946	-0.070286	-0.061003	-0.066332	-0.094572	-0.099824	-0.11002	-0.053952	-0.086052	-0.0962	-0.09876	-0.060362	-0.097924	-0.097452	-0.044255	-0.076384	-0.056982	-0.032978	-0.04682	-0.034093	-0.071198	-0.078947	-0.063258	-0.080329	-0.074865	-0.10839	-0.068059	-0.092719	-0.092506	-0.08852	-0.059506	-0.02808	-0.016252	-0.031626	0.017059	-0.0037207	-0.010871	-0.035059	-0.048171	-0.089142	-0.012442	0.056921	-0.0034769	-0.015623	0.049789	0.025422	0.0023122	0.0013774	0.029249	0.024276	0.045846	-0.0032882	0.00045232	0.068159	0.027548	0.046926	0.044064	0.0082108	-0.053629	0.099549	0.093529	0.0961	0.12033	0.36734	0.61052	0.46161	0.25885	0.23874	0.26091	-0.080898	0.27167	-0.098332	0.1035	0.29373	0.35386	0.13222	0.014701	0.21531	0.047702	-0.022249
0.047471	0.0045696	0.0048266	0.03767	0.054423	0.082647	0.02414	-0.010765	0.007158	-0.037855	0.016106	0.039097	0.022384	-0.0085838	0.024267	0.0010378	0.043383	-0.0050585	0.020082	0.0040452	0.0054031	0.027212	0.0037218	0.0094074	-0.047495	-0.048471	0.017896	-0.006882	-0.019641	0.031283	-0.017175	-0.030037	0.011057	-0.026538	-0.030665	-0.023961	-0.011688	-0.011283	0.020303	0.011265	0.040018	-0.0034838	0.03127	-0.0052836	-0.010048	-0.0059551	0.032453	0.0035234	-0.015309	-0.00072787	-0.018574	0.006282	0.01138	0.021886	-0.018644	0.11228	0.042132	0.017766	-0.0026741	-0.12236	-0.014381	0.013425	0.034655	0.014559	0.082131	-0.00021653	0.0041699	0.030922	-0.024137	0.021679	-0.0067866	-0.011307	-0.047607	-0.047291	-0.063394	-0.0097832	-0.029071	-0.0088549	-0.035149	-0.04217	0.00054941	-0.050941	-0.029229	-0.092686	-0.10963	1.1318	0.030215	0.048295	-0.071551	-0.21752	-0.079369	-0.17083	-0.054786	-0.06873	-0.13132	-0.08654	-0.02715	0.023446	-0.03312	0.057313	0.043789	-0.021918	-0.028192	0.021147	0.051759	-0.010806	0.072556	-0.022551	-0.0013107	0.038601	0.003236	-0.074068	0.0088644	-0.0117	0.016175	0.051771	0.058444	0.024351	0.014539
0.025885	0.019261	0.0015431	-0.031085	-0.015524	-0.012778	-0.046094	-0.0050392	0.0057335	-0.00067542	-0.019641	-0.039251	-0.017902	0.030344	-0.016799	-0.05252	-0.008888	0.032104	0.045508	-0.02545	0.016972	0.0049792	-0.013245	0.0087906	-0.0014089	-0.026039	-0.066456	-0.041484	0.013227	0.028828	0.087923	-0.0039899	-0.010363	-0.01648	-0.059401	-0.1189	-0.015714	-0.040808	-0.026127	-0.012338	-0.060362	-0.017487	-0.007639	-0.081332	-0.041035	-0.084655	-0.14538	-0.19679	-0.087889	-0.10583	-0.040015	0.0055664	-0.032864	-0.011936	-0.067559	0.01084	-0.028105	-0.060391	0.018188	-0.048399	0.021611	-0.029245	-0.017946	-0.037827	-0.018529	0.0044648	-0.024056	-0.0016174	-0.010771	-0.034528	0.032344	0.0344	0.18135	-0.058782	0.0032408	-0.014149	-0.0071048	-0.0095294	-0.035521	-0.092217	-0.039541	0.016234	-0.020935	-0.082515	-0.10599	-0.0089478	-0.025015	0.071816	0.079837	0.03199	0.0524	0.14497	0.090181	-0.029067	-0.08932	0.1217	0.08534	0.81526	0.28782	0.25221	0.15263	0.043132	-0.13818	-0.27106	-0.081737	0.083376	0.10398	0.24931	-0.026516	0.067254	-0.031897	-0.065906	-0.036917	-0.071742	0.037555	-0.021613	0.07256	0.051158	0.022685
0.16837	0.47598	0.29228	0.25213	0.045473	-0.018009	-0.0289	-0.011544	-0.058593	-0.022166	-0.06376	-0.066825	-0.04019	-0.076485	-0.088168	-0.10281	0.15657	0.73177	0.1664	0.18512	0.06647	-0.023009	-0.046192	-0.050249	-0.044097	-0.070926	-0.087671	0.0034321	0.020955	0.051427	0.0045048	-0.0085423	0.022362	-0.0044255	-0.0097719	-0.027182	-0.065669	-0.061172	-0.037494	-0.06033	-0.069211	0.0081327	-0.040332	-0.055782	-0.015267	-0.050136	0.0058992	-0.050757	-0.031195	-0.024796	-0.02666	-0.056189	-0.053119	-0.02162	-0.038382	-0.081199	-0.026436	-0.036429	-0.01719	-0.041034	-0.037179	-0.044275	-0.087213	-0.10182	-0.10182	-0.0014008	-0.096729	-0.098157	-0.061384	-0.045885	-0.012379	-0.023869	-0.037608	-0.030887	-0.040212	-0.045181	-0.056398	-0.104	-0.07589	0.11818	-0.051082	-0.074256	-0.053736	-0.021951	-0.029521	-0.037873	-0.0098023	-0.019007	-0.045419	-0.042675	-0.040936	-0.0067206	-0.075477	-0.04016	-0.04697	0.016762	-0.018147	0.01465	-0.056133	-0.064785	-0.09974	-0.048922	0.066681	0.099499	0.028438	-0.053227	-0.03563	-0.040895	-0.033873	-0.020181	-0.072979	-0.026839	0.02357	0.068131	0.007872	-0.041213	0.0019719	-0.025267	-0.038975
-0.0036981	4.8101e-05	0.009103	0.027112	-0.11523	0.082799	0.19111	0.079787	-0.05043	0.016783	0.029697	0.092799	0.3035	0.83297	0.19263	-0.015561	-0.077115	0.0060155	-0.012533	-0.0097848	0.054201	0.28789	0.30659	0.10165	0.052056	-0.008734	-0.042334	-0.06945	-0.10204	-0.025665	0.06535	0.0052219	-0.019192	-0.09734	-0.0092936	-0.12703	-0.061156	-0.078139	-0.038189	-0.091867	-0.05118	-0.0078462	-0.054448	-0.040648	-0.032274	-0.026832	-0.0025808	-0.03432	-0.052924	-0.030637	-0.030867	-0.019481	-0.038579	0.015407	-0.011868	-0.023311	0.0082193	-0.015687	-0.029576	-0.014695	-0.052833	-0.054377	-0.047669	-0.029349	-0.059139	-0.028966	-0.07252	-0.050044	-0.084563	-0.0397	-0.024558	-0.035168	-0.030164	-0.039334	-0.024104	-0.013756	-0.052772	-0.0088958	-0.026319	0.0083707	-0.086347	-0.064222	-0.0245	-0.0042445	-0.03118	-0.030258	0.0025888	-0.0068552	-0.0095038	-0.028537	-0.035598	-0.02019	-0.029926	-0.026713	-0.025047	0.0083518	-0.0017564	-0.022019	-0.045217	-0.039054	-0.04863	0.025732	-0.01151	0.060434	-0.028444	0.014085	-0.046685	-0.027951	-0.046071	-0.063159	-0.04288	-0.086004	-0.0063042	-0.018687	0.00011472	-0.081858	-0.069334	-0.033969	-0.019242
0.019748	0.00093299	-0.0061388	-0.014204	0.0060345	0.018173	-0.012959	0.060392	-0.02403	0.013657	-0.0025752	0.019706	-0.027747	0.0078227	0.038963	-0.014044	0.0024927	0.043795	0.018037	-0.050661	0.0031592	-0.004667	-0.0094854	0.010632	0.019403	-0.0036517	-0.029939	-0.027123	0.003929	0.023848	0.013293	0.015606	-0.00035994	0.043234	0.015971	0.034743	-0.038926	0.069689	0.018564	-0.015848	0.028883	0.018064	0.0033339	-0.023051	-0.077711	-0.044416	-0.0092019	-0.00083966	-0.047232	-0.097031	0.026244	0.0053962	0.0091848	0.05297	0.94072	-0.003236	0.07962	0.031127	-0.22598	-0.12071	-0.021024	-0.063983	-0.0068163	-0.0084039	-0.039565	0.061102	0.03321	0.001808	0.019914	0.0088819	-0.036395	0.01449	-0.0060409	-0.094892	-0.020884	-0.0028666	-0.0031965	-0.0030435	-0.025143	0.037071	0.03598	0.025436	0.020322	0.048138	0.03846	-0.002805	-0.01338	0.062502	0.037111	0.029479	-0.049888	0.1027	0.011181	-0.066234	-0.077569	-0.21591	-0.031871	0.021718	0.07044	0.032593	0.044136	0.020104	-0.023606	0.044788	-0.040672	-0.021727	0.015843	0.035072	-0.020372	-0.0037603	-0.00039829	0.050685	0.0046772	0.063264	-0.015573	-0.01401	0.017007	-0.018759	-0.0091405
-0.026547	0.036162	-0.011433	-0.012084	-0.040651	0.026523	0.0021035	-0.065098	0.12638	-0.0032367	0.048885	-0.022615	0.012616	0.085986	0.035446	0.052676	0.023067	0.038617	0.0020637	0.0027273	-0.0070803	0.03961	0.0071456	-0.055826	0.05092	0.039862	0.06328	-0.078716	-0.19826	0.03921	0.012343	-0.056557	-0.00159	0.053096	0.13958	0.86337	0.15953	0.29394	0.083962	-0.090334	-0.067818	-0.026932	-0.017717	-0.03805	-0.03333	-0.030606	0.0089823	-0.0011019	-0.063364	-0.030876	-0.0088582	-0.024515	-0.01943	0.025786	-0.061958	0.014715	0.025107	-0.042296	0.025525	0.0076529	-0.016143	-0.0091871	-0.034288	-0.068141	-0.038848	-0.085275	-0.0074985	-0.021831	-0.032519	-0.022823	-0.014546	0.032732	0.12273	-0.031996	-0.016177	-0.03309	-0.017968	-0.022427	-0.00045913	0.0081949	-0.0048176	-0.0087504	-0.02673	0.088615	0.031498	0.030831	0.00041445	0.0019555	0.021865	-0.029737	-0.019298	0.018106	0.034521	-0.034328	-0.030725	0.035694	0.030873	0.10055	0.05719	-0.010261	-0.032639	0.055125	0.010212	0.083232	0.031407	0.074306	0.0099763	-0.040049	-0.011962	0.02396	-0.083021	-0.011067	0.0032519	0.022409	0.004498	0.049613	-0.031198	0.00064648	0.028814
0.0050887	-0.032627	0.044916	-0.0022196	0.013296	0.019741	-0.010739	-0.016913	0.0069504	-0.0094711	0.002298	0.007558	0.014439	0.0091892	0.0070755	-0.050448	-0.026304	0.034337	-0.040741	0.013298	0.012743	-0.006015	0.02037	-0.05104	-0.027359	-0.050485	-0.021813	-0.027662	0.019168	0.010534	0.024246	0.05742	0.010464	-0.022789	0.028374	0.026519	0.021352	-0.0081762	-0.01598	0.015294	-0.03066	0.028942	-0.0054033	0.02087	0.006322	0.0053575	-0.054086	0.036012	0.082435	-0.038076	0.0075497	0.076712	-0.047119	-0.031363	-0.072309	-0.10339	-0.023772	0.036996	0.071753	0.043439	-0.15351	-0.064647	-0.023394	0.01418	-0.003774	0.05424	-0.0073772	-0.036919	-0.066387	-0.12122	-0.022204	-0.0028256	0.0085543	-0.042809	-0.016718	0.015362	-0.024841	0.015054	0.060238	0.010359	0.060649	0.0015881	0.029222	0.062098	-0.048008	0.21124	-0.14875	0.22385	0.097203	0.7943	0.11839	0.17865	0.07911	0.13028	-0.16977	-0.077675	-0.087436	-0.066487	0.047145	-0.062256	-0.067312	-0.054573	-0.0039118	0.019408	-0.072646	-0.045736	-0.048018	-0.02736	-0.0019867	0.017689	0.0029104	0.018677	-0.015345	-0.021368	-0.032565	-0.018583	-0.052105	-0.019824	0.0089744
-0.029707	-0.013654	0.033263	0.041037	0.064198	0.018686	-0.028163	0.034808	-0.065031	-0.011829	-0.042937	-0.02433	0.085058	0.059457	-0.058918	-0.06416	-0.051119	0.099114	0.034013	0.0061479	0.0079899	0.04924	-0.052849	0.036143	-0.036823	-0.013909	-0.091493	-0.051728	-0.01737	0.099189	0.020143	0.073445	0.0018518	-0.023075	-0.010587	0.022184	-0.061565	0.013839	0.036102	-0.047419	-0.013705	0.042029	0.011555	-0.036545	-0.0072072	-0.1164	-0.053663	-0.0087798	-0.069098	-0.059113	-0.011045	0.15316	0.075759	0.051473	-0.0248	-0.026	-0.06064	0.058844	0.045124	0.0076649	0.064726	-0.013019	0.13101	0.13556	0.070469	-0.01943	0.045888	0.81678	0.16656	-0.053253	0.021103	0.054463	0.10575	0.014282	0.081872	0.012288	0.073549	0.062157	0.025666	-0.0034403	-0.012256	-0.0031637	-0.005956	0.082449	0.028357	-0.0066702	0.063884	-0.01874	-0.022601	0.046883	-0.012533	0.0090352	-0.013923	-0.050735	0.010556	0.015271	-0.041485	0.027322	-0.028083	0.027252	-0.070182	-0.031477	0.029285	0.097245	0.091474	-0.055285	-0.023609	-0.0051988	-0.027659	-0.04221	0.0068449	3.2334e-05	0.015005	0.080047	-0.028543	0.052837	-0.028702	0.027352	-0.044275
0.047484	0.032658	0.0089327	0.02045	-0.015544	-0.010298	-0.016649	0.00010894	-0.00025352	-0.0005465	0.022868	0.0022361	0.0098853	0.054705	0.01427	0.01327	-0.0085375	0.022555	0.0041734	0.038727	0.00441	0.011511	0.027676	0.033023	0.0068386	0.016326	0.0071242	0.025856	-0.00093186	0.016836	-0.013405	0.024774	0.010972	0.035047	-0.0036891	0.045651	0.0049532	0.042241	0.033623	0.012988	0.002924	-0.015833	0.0094039	-0.0088018	0.011578	-0.017507	-0.033618	-0.020174	-0.0041795	0.013425	0.04614	0.020158	0.031886	-0.0066075	0.050831	-0.050446	0.064985	0.028889	0.052235	-0.018048	-0.014066	-0.043188	0.00046313	0.018996	0.072002	0.026812	8.5597e-05	-0.021287	-0.0036057	-0.05472	0.0086601	0.017344	-0.20128	0.88575	0.002329	0.032548	-0.022122	0.018623	0.038312	0.017925	0.022922	0.017376	-0.026249	-0.085374	-0.018512	-0.006292	0.068001	0.042801	-0.011881	0.00093539	0.068012	0.010776	-0.0017162	-0.057046	-0.11526	-0.036873	-0.11818	0.065418	0.060645	0.036412	0.055588	-0.0052156	-0.010803	0.014715	0.012982	0.014105	0.028496	-0.013532	-0.012661	0.027441	0.036654	0.02615	0.0084284	0.022802	0.0095233	-0.0024414	0.0038081	0.045845	0.0067468
-0.00805	-0.0012232	0.0038795	0.0055642	0.014833	0.014026	0.012772	0.045711	0.0067914	-0.0013942	0.003442	0.016851	0.016091	-0.012066	-0.015582	0.002222	-0.0069873	0.022633	-0.00040064	-0.016128	0.0094076	-0.0050278	0.011703	-0.0017386	-0.0035163	0.0041635	0.016139	-0.023189	-0.0039351	0.0092171	0.023062	0.0016797	0.0095583	-0.0039723	-0.018227	-0.0023619	0.0011361	0.020161	-0.010639	0.014543	0.01068	0.0038926	0.014189	0.0089941	0.022316	-0.00067231	0.046658	0.011837	-0.0087789	-0.022369	0.022306	-0.011118	0.022301	-0.0072785	0.033583	-0.024188	0.11346	0.052045	-0.12652	0.86006	-0.0058433	0.0054323	0.021637	0.037475	-0.036994	0.03814	0.011183	-0.0066283	0.022024	0.004753	0.016118	0.0086008	-0.13474	-0.070563	-0.061422	0.023272	0.014835	0.0046966	0.0072668	-0.002299	-0.0048235	-0.020945	-0.037969	-0.089234	-0.027827	0.019554	0.08709	-0.039886	-0.05577	0.0018204	-0.037524	0.001847	0.0032747	-0.10245	-0.18329	-0.0052711	-0.0062123	0.07163	0.0054623	0.028469	0.024222	0.0018981	0.027224	0.02818	0.05966	0.015351	0.045003	0.011271	-0.010186	0.0034829	-0.046264	-0.019906	0.018012	0.030458	0.004935	0.018308	0.013864	0.0021577	0.013584
0.02377	-0.013252	-0.033829	-0.00691	-0.013759	0.0050006	-0.04105	0.044836	0.018268	-0.0055217	0.010077	0.0072005	-0.031063	0.00946	0.0342	0.031148	-0.042059	0.026402	0.040746	-0.010107	0.0022873	0.023512	0.024422	-0.01791	0.0201	0.018474	-0.033818	-0.015188	0.021428	0.094206	0.088564	-0.014847	0.0042525	-0.032582	-0.020471	-0.015738	-0.020162	0.012142	-0.00092872	0.076562	-0.0063473	-0.02274	0.0036694	-0.033237	0.82315	0.092395	0.020176	0.0028867	-0.13301	-0.033603	0.027759	-0.014434	0.00025644	0.012824	0.043151	-0.022825	0.05201	-0.0037992	0.010228	-0.026757	0.078352	0.010044	-0.017353	-0.027906	-0.050514	0.00071982	-0.0040403	-0.04586	0.0044481	0.0064105	0.0049432	0.021522	0.092821	0.0027661	0.0015965	0.012493	-0.016343	0.00077526	-0.013679	-0.028478	-0.011181	0.039044	0.047645	0.025746	0.030652	0.034751	0.052367	-0.027745	-0.016883	0.033883	-0.0060397	0.032323	0.029768	-0.014022	0.051179	0.019829	-0.032301	0.046298	0.011163	-0.0043295	-0.047375	-0.003631	0.0024349	0.10756	0.031031	0.0092301	-0.03499	-0.0092983	-0.026559	0.021606	0.020435	-0.023726	0.0066344	0.039729	-0.013958	0.023932	-0.023894	0.022549	0.0034973
0.004894	0.0037134	0.00087218	-0.00010635	0.0054356	-0.004882	-0.0046835	-0.018352	0.00312	0.0065564	-0.011146	-0.0052094	-0.0031575	0.00043159	-0.0059434	0.005545	0.00037561	-0.012579	-0.005562	-0.0046813	0.0037059	0.010015	0.0031403	-0.0011815	-0.00369	0.00061463	-0.012664	-0.0011301	-0.019759	-0.0031133	-0.0088834	-0.01223	0.0022585	0.0070969	-0.0046291	-0.01207	-0.0099261	-0.026102	-0.0084442	0.0041673	0.014373	0.0084425	0.0018487	-0.0020344	0.016579	-0.065894	-0.0045032	0.019286	-0.0010737	0.01292	0.014561	0.0042512	0.0048415	0.0050528	-0.016865	-0.0051586	0.006039	0.0054595	-0.013415	0.024482	-0.0018932	-0.0089669	0.0092286	0.0079677	0.0038939	0.01376	0.017188	0.010017	-0.0021716	-0.0010158	-0.005695	-0.010575	-0.0066645	-0.0054952	-0.0014961	-0.011113	-0.0082778	-0.02002	-0.0018803	-0.0081905	-0.01797	-0.045777	-0.025488	0.007151	-0.016348	0.00032836	-0.019989	0.015385	0.02276	-0.039943	-0.025421	-0.15139	-0.11039	-0.065534	0.044512	0.026338	0.0042309	-0.19438	0.75561	-0.074739	-0.22682	-0.10462	-0.0052627	-0.011131	-0.054574	-0.05007	-0.03995	0.076444	-0.002295	0.023155	-0.045285	-0.040546	-0.025748	-0.015226	-0.028801	-0.0044188	0.023645	0.010609	-0.0020628
-0.018005	-0.0094089	0.025332	0.0075853	0.01386	-0.011378	-0.019592	0.013264	0.028325	-0.023128	0.0066067	-0.011178	0.012977	0.030476	0.011474	0.015844	-0.0032412	0.029487	0.016929	0.0042588	-0.00084503	-0.0016428	0.0019736	0.088914	0.0055435	-0.0071372	-0.0084268	-0.010636	0.25393	-0.12187	-0.11854	0.0065052	-0.0016447	-0.059862	0.75561	-0.033993	-0.02349	-0.036547	-0.034395	0.082987	0.033972	0.029385	0.014607	0.016957	0.0094447	0.0091889	-0.01519	0.0078355	0.018937	0.018576	0.027444	-0.0039463	0.0073278	0.0017277	-0.0059427	-0.01703	0.04966	0.014065	-0.012959	0.0057336	0.027573	-0.0067933	0.0091812	-0.0018641	0.013832	-0.017041	0.032459	0.009855	0.012481	0.0015202	-0.00079207	0.015406	0.060669	0.0089769	-0.026607	0.023487	-0.012847	0.0045023	-0.0030037	-0.0086194	-0.02079	-0.033895	-0.03784	-0.033331	0.025994	0.014207	0.033058	0.0046663	0.01433	-0.00042987	-0.02173	0.0078908	-0.018818	-0.0008466	0.027697	-0.0039752	-0.0051828	0.040833	0.0059593	-0.028778	0.038158	0.021336	0.0022411	0.011444	0.0281	-0.019208	-0.038609	0.062985	-0.03484	0.041923	-0.011599	-0.097385	-0.011749	0.012578	-0.0012872	0.01587	0.020668	-0.006364	0.0018267
-0.11835	0.0065107	-0.046945	-0.013031	-0.004189	0.0012896	-0.017003	-0.031924	-0.018186	-0.01232	-0.010107	-0.060809	-0.0057046	-0.047944	-0.041533	-0.007177	-0.026536	-0.069865	-0.0096683	-0.031947	-0.00055582	-0.033749	0.0076938	-0.029611	-0.050038	-0.0041924	-0.037814	-0.016219	-0.0059868	-0.030665	-0.014519	-0.0018843	-0.0012009	-0.016544	-0.024784	-0.010323	-0.019265	-0.03472	-0.036949	-0.011955	-0.0065378	-0.048086	-0.015346	-0.023375	-0.038729	-0.048126	-0.0039277	0.12522	-0.097911	-0.025049	-0.046007	0.001633	0.017699	-0.0080638	0.010551	-0.055816	-0.018852	-0.0068463	-0.10183	0.11147	-0.028749	-0.020866	-0.026403	-0.012952	0.019865	0.028454	-0.025146	-0.020519	-0.064715	-0.077522	-0.01803	-0.015994	-0.13201	0.090209	0.017328	-0.049036	-0.075229	-0.048467	-0.055434	0.0054497	-0.042984	-0.048533	-0.1142	0.23859	0.14712	0.083236	0.020567	0.10488	0.075765	-0.02502	-0.13524	-0.092178	0.015267	0.21038	0.40541	-0.11314	-0.039858	0.3122	-0.060697	-0.12885	-0.1858	-0.057874	0.0047827	0.039545	-0.05305	-0.07977	-0.11148	-0.07693	-0.074526	-0.056463	-0.010127	-0.052273	-0.014555	-0.022666	-0.007148	-0.045515	-0.019719	-0.024538	-0.026197
-0.04682	0.017589	-0.013045	-0.013461	0.011923	-0.0079689	-0.0069392	0.026076	0.67511	0.15889	0.2035	0.1052	0.027313	-0.021367	-0.02714	-0.016381	0.010272	0.027353	0.064288	0.012246	-0.0014751	-0.032409	-0.00056299	-0.0079937	-0.0082964	0.036047	-0.076949	-0.10116	0.022977	0.044165	0.035362	0.11102	0.025846	-0.0021674	-0.015581	-0.13483	-0.049179	-0.045437	0.0036785	-0.048759	-0.0098516	0.025606	-0.032233	-0.024852	-0.062945	-0.084272	-0.022475	-0.062046	-0.06155	-0.057871	0.0064531	0.0038566	-0.0079352	-0.028921	0.0061863	0.0069977	0.044076	-0.042031	0.013085	0.012977	0.023602	0.016454	-0.0096248	-0.035526	-0.0085214	-0.015288	-0.0185	-0.020811	-0.0034818	-0.031556	0.010104	0.030305	0.077447	0.035153	0.017969	0.0064307	0.057112	0.010309	0.0013993	0.033207	-0.0063957	-0.0050214	0.00097992	0.074384	0.055013	0.0182	0.022313	0.0054472	0.015895	-0.0022235	-0.0086644	0.0012615	0.0080968	-0.014748	0.015997	0.014072	0.020918	-0.047044	-0.0081457	-0.021409	-0.030374	0.017983	0.0034335	0.056513	0.0081877	0.024722	0.038639	-0.047334	0.1008	-0.047144	0.027651	-0.024181	0.0041052	0.026368	0.0034535	0.051755	-0.029957	0.032991	0.17233
-0.02031	-0.0041828	-0.0095718	0.016843	0.017618	0.0013402	-0.017481	0.0065747	-0.17721	0.81408	-0.031334	-0.039393	0.017429	-0.0080568	-0.013684	0.0022767	0.0075667	0.0062185	-0.010882	-0.010283	0.0065306	-0.017543	0.0080272	-0.019857	-0.024924	-0.021516	-0.027108	0.01998	0.0021042	0.00055213	-0.01474	0.033468	0.021237	0.0038953	0.019121	0.020297	-0.0096994	0.017658	0.0060095	0.018946	0.0082619	-0.0012238	0.0082916	0.0010163	-0.00067591	0.01218	-0.0047728	0.011887	-0.014293	0.012048	-0.0026781	-0.0017644	0.0041526	-0.013582	-0.024682	-0.0076811	0.035169	0.010427	0.0075881	0.00020772	0.014911	-0.021504	0.00065549	-0.018484	0.0011929	-0.015589	0.017787	-0.02477	-0.0020583	-0.0073713	-0.014519	0.0093384	0.030343	0.0048958	0.0079886	-0.0083866	-0.011582	0.030837	0.021657	0.0087945	-0.0059434	0.018485	0.017216	0.013338	-0.0087387	0.032644	0.020634	0.0013885	0.0038827	-0.0042907	-0.023855	0.008731	-0.0059703	0.0017836	-0.013694	-0.0024254	0.0096022	0.0070763	0.0055977	-0.0080985	0.014322	0.017716	-0.0080153	0.0069461	0.02512	-0.010706	0.00041731	0.012368	-0.00038371	-0.030207	-0.012159	-0.0063817	0.0045173	0.0022494	-0.0022622	-0.0055827	-0.011065	-0.03296	-0.031394
0.01762	0.00095038	-0.0057177	-0.0058015	-0.015801	-0.0083499	-0.048977	0.007206	-0.032403	-0.005898	-0.0089674	0.026242	0.0053483	0.0027474	0.016927	-0.018577	-0.014585	0.065076	0.0039912	0.0059823	0.010323	0.012877	0.010535	0.022407	0.020471	0.0065665	-0.0091327	0.0037558	0.0049717	0.049105	-0.012239	0.046313	-0.0065354	-0.006077	0.0080805	-0.030118	-0.023126	0.047922	0.0044149	-0.0062129	-0.021681	0.00066048	0.013707	-0.012122	-0.026872	0.027847	0.010959	0.017246	-0.066243	0.038583	0.014165	0.032819	-0.0054437	-0.044274	-0.038492	0.78071	-0.05227	0.0042236	-0.073438	0.0034112	0.0089208	-0.0085122	-0.0095021	-0.0044378	-0.040147	0.032739	0.028136	-0.030962	0.015275	-0.002338	-0.03014	-0.0065315	-0.026656	0.039353	-0.051319	-0.027275	-0.025748	0.011246	0.0086976	-0.0020059	-0.0052957	-0.0065168	-0.01228	0.033286	0.027643	-0.041184	0.076804	-0.03518	-0.016886	0.14577	-0.039987	0.031861	-0.0048075	-0.027596	0.045563	-0.015347	-0.022219	0.025389	0.022175	-0.04681	-0.0050313	0.0082637	0.001603	0.037263	0.010712	-0.018899	0.035641	0.0057787	-0.0080166	0.0015591	0.011697	-0.018655	-0.0078862	0.040509	0.0064608	0.068087	-0.028959	-0.0021879	-0.016134
-0.077385	-0.036426	-0.017129	-0.0040428	-0.022076	-0.033301	-0.039129	-0.04546	-0.038672	-0.053187	-0.042729	-0.039518	-0.012721	0.0021505	-0.0040855	0.040087	-0.0016426	-0.063324	0.1378	0.066738	0.11101	0.026244	-0.035333	-0.025905	-0.031451	-0.061491	-0.036553	-0.039071	0.084945	-0.18956	0.021768	0.61342	0.1824	-0.036364	-0.083574	0.092822	-0.043016	0.019714	0.076907	0.07503	0.19367	0.086783	0.027931	0.0098329	0.019498	0.02125	0.014752	-0.0033652	-0.0085668	-0.0095497	-0.022124	-0.030837	-0.039598	0.019953	-0.0075027	-0.0022863	0.0071548	-0.036216	0.0062353	-0.017703	-0.005014	-0.015582	-0.034812	-0.073518	-0.041521	-0.013764	-0.061772	0.0017596	-0.034731	-0.056108	-0.0068472	-0.0094985	-0.0074734	-0.014154	-0.020118	-9.5991e-05	-0.020744	-0.041995	-0.012554	-0.027597	-0.028864	-0.019539	-0.024561	-0.028295	-0.023105	-0.012621	0.0036575	-0.022334	-0.024125	-0.032673	-0.019466	-0.018856	-0.022626	-0.027901	-0.049556	-0.0047775	-0.00033611	-0.011145	-0.0083181	-0.0083302	0.012655	0.0042663	-0.026323	-0.0098797	-0.0029681	-0.0064326	-0.0019286	0.024565	-0.068942	-0.0089999	-0.052642	-0.02297	-0.0034552	-0.027451	-0.0074033	-0.031091	-0.028984	-0.02224	-0.031239
0.0098519	0.016323	-0.0071758	0.0041015	0.017949	0.019143	0.011941	0.037535	-0.020155	0.015137	0.0023729	-0.0044981	-0.0078255	0.029051	-0.010737	0.0068183	0.013429	-0.0027887	0.0095556	-0.0037824	-0.011469	-0.040541	0.014626	0.037391	-0.0014992	0.0084643	-0.0013777	-0.0083128	0.017415	-0.021622	-0.0067683	-0.0094678	6.1722e-05	0.010063	-0.018711	-0.001877	-0.0092009	-0.010667	0.03758	0.0054096	0.013421	-0.0060999	0.0065089	-0.029884	0.0239	-0.013354	0.027199	-0.034519	0.018696	0.024632	0.0037893	-0.0122	0.012889	0.023825	-0.037462	0.0049708	-0.002024	-0.030199	0.034105	-0.040479	0.0054523	-0.0018632	0.0018833	0.018356	0.0029878	-0.0032495	0.03482	0.00049499	0.0069516	0.0090792	-0.0054103	0.0027829	-0.067444	-0.04638	-0.024253	-0.028295	-0.019681	-0.021017	-0.028385	-0.0092455	0.0022352	-0.058779	-0.070042	-0.080458	0.70743	0.0051735	-0.0671	0.031614	-0.012474	0.067228	0.052434	-0.15164	-0.039357	-0.071568	-0.16831	-0.0047816	-0.012636	0.03555	-0.00087334	0.093338	0.0085819	-0.02551	-0.020426	-0.035794	-0.01109	0.058963	0.017072	0.0028033	-0.00016873	-0.039349	-0.034737	0.057181	0.0016272	-0.0035899	0.0026639	-0.022227	0.041672	0.018553	-0.0066813
-0.032453	0.003038	-0.031452	0.012201	-0.00062528	0.012291	-0.0054191	-0.032577	-0.0083036	0.020026	-0.0092396	0.01896	0.0050623	0.010586	-0.010967	-0.0037189	-0.0060504	0.02682	0.0039565	-0.0066483	0.0071511	0.03055	-0.0027831	-0.011976	0.0045235	-0.01026	-0.022929	0.0028712	0.0064435	0.025204	-0.026257	0.024384	0.00026352	0.028361	0.019978	0.0038038	-0.0079923	-0.019191	0.011146	0.014564	-0.0075344	0.0092326	0.012133	0.0040149	-0.011422	0.017278	-0.0059297	-0.0072913	-0.027159	-0.020051	0.017811	-0.013407	0.0034863	0.035784	0.051753	0.03783	-0.04248	0.018374	-0.0086618	0.053236	-0.018033	-0.0020152	-0.0019447	-0.0063691	0.031898	0.028116	-0.0021073	-0.010493	-0.0093338	-0.026932	-0.015268	-0.0044298	0.0053436	-0.040938	-0.026866	-0.016031	-0.015357	-0.016778	-0.013986	0.0081695	-0.017071	-0.0288	-0.02198	0.043158	-0.018601	0.039146	0.025745	-0.026863	-0.012838	-0.098351	0.7539	-0.057654	0.0041507	0.021991	0.096293	-0.0087487	-0.0092326	0.02801	0.00047103	-0.013685	-0.02098	-0.017058	0.013185	0.048608	-0.016092	0.0038103	-0.041392	-0.025981	0.0013766	-0.00047203	-0.0095823	0.004019	-0.00014571	0.021516	0.0062076	0.016232	-0.023465	-0.020416	-0.0056003
-0.0092643	0.012011	-0.0097231	0.0058632	-0.033588	0.0070881	-0.018845	0.024544	-0.028629	-0.0032515	1.135e-05	0.0029469	0.031498	0.013028	-0.009327	0.0017899	-0.0053324	0.023405	-0.0052487	0.023044	0.019359	-0.011161	0.020976	-0.02869	0.0036569	-0.009562	-0.00176	-0.0093072	-0.032615	0.0022329	-0.033002	0.055509	-0.010572	-0.050125	-0.0019338	0.067814	-0.010722	0.0074579	-0.074645	0.0047776	0.033301	-0.0057088	-0.02825	-0.010182	-0.014922	-0.011253	-0.0033701	-0.020575	0.0064706	-0.011704	-0.0059863	-0.027586	0.03532	0.00084611	-0.0050008	-0.0030267	0.017866	0.023271	0.0014032	0.022577	0.047293	-0.012066	-0.0033082	-0.0085024	-0.01604	-0.013495	0.0052647	-0.011596	-0.01977	-0.0047469	-0.00051791	0.0049368	0.039015	-0.028532	-0.03431	-0.04493	-0.0025065	-0.01198	0.0073002	0.03274	0.010113	-0.052079	-0.018439	-0.0189	0.0070371	-0.0089307	0.0075701	0.008163	0.0051275	0.01352	0.010712	-0.026601	-0.019355	-0.0012955	-0.016103	0.011638	0.0072657	0.022972	0.026718	-0.0096862	-0.025576	0.0034661	0.042987	0.018823	0.021632	0.0044893	0.0039789	-0.01547	0.0088332	-0.032051	0.71977	-0.028199	0.0090052	-0.0008151	-0.024677	-0.084618	0.22626	-0.017009	0.0063719
0.019716	0.0067632	-0.0036677	0.016321	-0.0034128	0.016272	0.021509	-0.0012475	-0.015105	-0.00217	0.0080756	-0.017938	-0.0029563	0.011222	0.0023991	-0.00039492	0.014832	0.024032	0.018934	-0.00012542	0.002164	0.011861	0.011809	0.0022196	-0.009735	0.0039633	-0.0060443	0.0074434	0.011109	0.019387	0.0010892	0.020048	0.010628	-0.012353	-0.0041445	0.0072139	0.010425	0.012791	0.034837	0.011755	0.028676	-0.018087	0.026266	0.030334	0.040584	0.022681	-0.23194	-0.088636	0.021878	0.0346	0.0039314	-0.0098657	0.011648	0.01333	-0.086902	0.065007	0.0088644	-0.010325	-0.042669	0.055263	0.075338	0.020051	0.0035514	-0.014386	-0.0056803	0.033828	-0.0042794	0.0091014	0.036103	0.079044	0.045495	-0.012682	-0.023382	-0.037016	0.013117	0.037067	0.028006	0.013644	-0.012511	-0.010697	0.021256	0.019591	0.045979	-0.0046902	-0.0072696	-0.042873	-0.1524	0.54616	0.31876	-0.19668	0.015528	0.065488	-0.016427	-0.16416	0.029368	-0.089765	-0.12777	-0.076947	-0.04433	-0.026669	-0.0061946	0.041242	0.020927	0.010511	0.0026297	0.01253	0.02746	-0.009344	-0.02187	-0.018907	0.006158	0.012309	0.014803	0.0098026	0.0099081	0.018415	-0.0079195	0.0043339	-0.0013073
-0.010406	-0.000493	0.010448	0.0034375	0.0077348	0.0060351	0.00072375	-0.0027799	0.0083418	0.0048721	0.015976	0.0042315	-0.005245	0.014235	0.013482	-0.0056241	0.021378	0.030246	-0.010287	0.0065633	0.012118	0.026384	0.0053026	0.013138	0.0066482	0.017064	0.0078265	-0.0022102	0.00096106	0.03031	-0.00055232	0.031362	-0.0058851	0.0085294	0.019612	-0.0098505	-0.0045852	0.022554	0.013574	-0.0046362	-0.0071607	-0.011251	0.0093768	-0.009085	-0.012693	-3.9352e-05	-0.015698	0.048635	-0.044753	-0.034296	0.045677	-0.011468	-0.0012259	0.036421	0.11614	0.035444	0.11908	0.040099	0.70333	0.039067	0.020195	0.054601	0.00093555	-0.0044011	-0.0040736	0.0006835	0.0081997	0.0030502	0.00071975	-0.016937	-0.080287	-0.0068036	-0.33657	-0.12477	-0.074728	-0.02439	-4.9278e-05	0.027545	0.02235	0.0090739	0.0077569	-0.0019312	0.0091084	0.0020475	-0.0094725	-0.01461	-0.0006479	-0.012156	0.046739	-0.024421	-0.040451	0.035983	-0.0005657	0.028631	0.1566	-0.091822	0.0049306	0.090086	0.033834	-0.0077918	-0.0020833	0.0046582	0.00087921	0.022016	0.012486	0.0069535	0.021687	0.025927	-0.0040633	0.011985	0.0078086	0.013105	0.010563	0.018138	-0.0029476	0.025779	0.0048748	0.011539	0.006471
0.029797	-0.0022026	0.029821	0.0026612	0.03853	0.0053462	0.010583	-0.027601	0.029834	0.028064	0.0064167	-0.0057901	0.034946	-0.026837	-0.0044601	0.0035706	0.020678	-0.032977	0.0047822	0.014919	0.00035577	0.012138	-0.010162	0.020858	0.0050466	0.010687	0.016718	-0.008575	0.040519	0.022027	-0.0023077	-0.023115	-0.014011	-0.0061611	-0.0021064	-0.016413	0.0017286	0.015515	-0.0065804	0.0075361	0.019769	-0.014025	0.0095737	-0.0043348	-0.0058599	0.0033051	-0.0024531	-0.0020204	0.020313	-0.087293	-0.014766	-0.014812	-0.01537	0.74351	-0.04598	0.020397	-0.10781	-0.063855	-0.027832	0.012276	0.012217	-0.033512	-0.021204	-0.015684	0.012911	0.050707	0.0099885	-0.035675	0.0085434	0.012077	-0.010876	-0.0020635	-0.021609	0.011684	-0.0043777	0.010784	-0.040401	-0.01733	0.0042975	0.026437	-0.011018	0.0039537	-0.015708	-0.030091	-0.029943	-0.0099559	0.036628	-0.011043	-0.0016481	0.048662	-0.03661	0.024357	-0.0082631	-0.0068468	0.028873	0.0014387	0.0024997	-0.011784	-0.00060098	0.017954	-0.0029373	-0.017015	0.0068454	0.0099795	-0.029269	0.045509	0.01526	-0.017966	-0.031701	-0.026055	0.002407	0.006943	0.0090593	0.026944	0.022471	-0.015454	0.020897	0.009931	0.010845
-0.025257	-0.048799	0.025777	0.068244	0.69759	0.14245	0.025641	0.015935	0.011284	-0.0087821	-0.0010978	0.0021314	-0.0097727	0.046072	0.064548	-0.0077164	0.010605	-0.070354	-0.015521	0.0086108	0.028576	0.018635	-0.012386	-0.014239	0.020955	0.0086372	-0.039993	-0.016688	-0.0042713	0.025851	0.038714	0.00033121	-0.024314	0.0074979	-0.0019041	0.02887	-0.011747	0.0013812	0.046828	0.049967	-0.0031931	-0.020947	-0.025944	-0.029674	-0.00088239	-0.0071268	-0.0005377	0.024056	-0.032169	0.0033119	-0.0015304	-0.04074	-0.026973	-0.047158	-0.013213	0.0093383	0.012922	0.032155	-0.0074612	-0.012499	0.01149	0.02756	-0.019366	-0.024515	0.0062607	-0.017261	-0.036113	-0.0299	-0.025388	-6.9745e-05	0.0056426	0.001767	-0.00032185	0.011325	0.0099717	-0.033178	-0.039476	-0.058156	-0.045125	-0.028043	-0.00034764	-0.031451	-0.018597	-0.0034271	-0.021789	-0.052131	0.015451	-0.003419	-0.0029926	0.0057087	0.0037069	0.030561	-0.0055104	-0.036502	-0.0016955	-0.0073031	0.002273	-0.01388	-0.01044	-0.014776	0.009634	-0.031289	0.0006535	-0.10554	-0.049398	-0.018291	-0.0062266	-0.033573	-0.033611	0.010987	0.031638	-0.040453	0.035815	0.099786	0.038596	-0.0076042	0.0090136	-0.0031402	-0.021221
-0.011536	0.00288	-0.006449	-0.0092173	-0.002252	0.0079444	0.0013921	-0.014115	0.0048501	-0.0064086	-0.0042754	-0.02196	0.0074493	0.0068593	0.00015014	-0.0068786	-0.0066569	0.0044833	-0.019009	-0.004443	-0.0041405	0.012415	-0.00049191	0.0050188	-0.033787	-0.022241	-0.0092334	0.00060696	0.16128	-0.012122	-0.030444	-0.021448	-0.023056	-0.098523	-0.029158	-0.19342	-0.032415	0.66145	0.065172	-0.07487	-0.042804	-0.020872	-0.019102	-0.050421	-0.0014033	-0.0067657	0.007307	0.0096732	0.01736	-0.039674	-0.046146	-0.0092708	-0.021639	-0.036705	-0.024953	-0.043499	-0.038412	-0.029973	0.0077766	0.0059301	-0.0096879	-0.0053841	-0.016844	0.0014074	0.0029281	0.0096218	-0.0057459	-0.0093445	-0.013504	-0.024972	-0.014186	1.9081e-05	0.01664	-0.0037296	-0.0045244	-0.025296	-0.01372	-0.014004	0.0035902	-0.00746	0.00072163	-0.010359	-0.01396	-0.0011881	-0.008544	0.0012789	-0.018155	0.00016944	0.0028836	-0.019475	0.01468	-0.039511	-0.023157	0.0019766	-0.015673	-0.0012394	0.0086733	-0.017333	-0.0088498	-0.008078	-0.028558	-0.012945	-0.0043616	-0.010022	-0.01658	-0.00082275	-0.041611	0.033856	-0.0037389	0.0068517	0.02105	-0.00734	0.00040264	0.009243	0.0035614	0.0089351	-0.014584	-0.01486	-0.0002116
0.01487	0.022778	-0.0054319	0.015197	0.033967	-0.019581	-0.0010238	-0.0019269	0.011537	-0.0037604	-0.0030762	0.0075424	-0.0012178	0.03943	0.018273	0.017898	-0.031886	0.033283	0.017868	-0.015255	0.013598	0.017715	0.023216	-0.0033999	0.012988	-0.0053518	-0.035194	-0.017546	0.0033638	0.10837	0.095407	0.030198	0.018062	-0.015843	-0.027374	-0.00092918	-0.031011	0.0090087	-0.023691	0.016219	0.0078678	0.044879	0.02264	0.057136	-0.0058241	0.11106	-0.0016608	0.11085	0.60968	-0.019281	0.021869	-0.0041495	0.0045932	-0.012679	0.015221	0.014538	0.054594	-0.011923	0.027751	0.0087157	0.016834	-0.0039691	-0.010765	-0.0010375	0.0036017	-0.00033004	0.015733	-0.017736	-0.0083556	0.0009896	0.0045294	0.024014	0.11305	0.017472	-0.017618	0.044813	0.011623	0.026372	0.0019286	-0.0029546	0.0046837	0.0047222	-0.0036289	0.098905	0.050726	0.024117	0.063944	-0.026472	-0.013047	-0.038935	-0.012277	0.030122	-0.00049442	-0.041828	0.086798	0.0097316	-0.049113	0.10102	0.03445	-0.0022272	-0.02546	0.026078	0.005971	0.075037	0.0076296	0.02858	0.020176	0.039297	-0.013638	-0.029249	-0.0096784	0.0098854	0.014146	0.06359	0.02936	0.015378	0.0095295	0.015116	-0.0090216
-0.044192	0.01527	-0.03062	0.041619	0.00011176	0.0096582	-0.0029601	-0.023598	-0.031737	-0.0038345	-0.0033142	0.043398	0.0134	-0.072781	0.014314	0.65477	-0.011392	0.015074	0.030879	-0.011423	0.07898	0.043722	0.039932	0.030497	-0.0012998	0.0082179	-0.0083792	0.0037596	0.036629	0.079772	0.021112	-0.017863	0.0040831	0.035508	-0.0010395	-0.049633	-0.014998	-0.021556	-0.018146	-0.027944	-0.080309	0.0037735	-0.013553	-0.015737	-0.050151	-0.031119	-0.0149	-0.023069	-0.033458	-0.015961	-0.016564	-0.00023792	-0.014402	-0.015691	-0.0051392	-0.014196	-0.010057	-0.032883	0.011898	-0.013973	0.018906	0.006539	-0.012097	0.026452	-0.07049	-0.024505	0.018285	0.011489	0.028898	-0.00014661	-0.015863	0.001706	0.0058854	-0.0021604	0.0043974	-0.0056374	0.0028214	-0.030081	0.010232	-0.014944	-0.033631	-0.043142	-0.03711	0.022976	-0.016311	0.0043501	0.00017028	0.0084063	0.0022848	0.0342	0.00017482	0.029697	0.0072761	-0.03252	-0.038212	0.0027792	-0.0092007	0.01075	-0.0092144	-0.025759	-0.016217	-0.052129	-0.0071945	0.045691	0.00011298	0.023119	0.022233	-0.0078654	-0.036012	-0.0076046	-0.0029596	0.010575	0.0096643	0.0080997	-0.00075249	-0.01313	0.0059335	-0.016467	-0.009186
-0.0082784	-0.026159	-0.00039632	0.011626	-0.0029507	-0.010713	0.0082266	-0.014277	-0.003733	-0.00016559	-0.016874	0.013497	-0.021713	0.016759	0.0036851	0.021726	0.0048478	0.05264	0.014507	-0.00051446	0.016591	0.011092	0.023009	-0.0016467	-0.0078379	-0.020546	0.0013882	0.0039624	0.0099952	0.041497	-0.011077	0.024649	-0.001293	-0.014949	0.029155	0.015926	-0.015785	0.013338	-0.0011067	-0.011086	0.018425	0.0078716	0.0024252	-0.0051799	-0.011811	-0.0032657	-0.013448	0.028191	-0.023874	-0.01154	0.048104	0.015957	0.016022	-0.016364	-0.032073	0.01409	0.044177	0.022293	-0.026493	0.035627	-0.016197	-0.017522	-0.013004	-0.011526	-0.021526	0.0058892	0.0026112	-0.030014	-0.0068495	-0.00037194	-0.013336	-0.014632	-0.0074424	0.013395	-0.014285	-0.030979	0.011135	-0.011106	0.0019712	0.022673	-0.012507	-0.022991	0.053466	0.11035	0.017639	0.015333	0.028863	0.0061435	0.014295	-0.033922	-0.013062	0.11241	-0.040239	0.14088	0.092763	0.017534	-0.034596	-0.14604	-0.00081841	0.59564	-0.07461	-0.057271	0.016465	-0.022779	-0.081723	-0.0305	0.015409	-0.025746	-0.029188	0.0016208	-0.0018656	-0.029229	-0.019002	0.0062358	-0.024735	-0.0073038	0.025966	0.017681	-0.011463
0.002403	0.0064738	0.0083442	-5.1521e-05	-0.0015888	0.014228	0.0029097	-0.0089502	0.0060779	-0.003219	0.0026724	-0.0010758	-0.0060567	0.0096205	0.014717	0.0019601	-0.0007349	0.014286	0.013968	0.0015969	-0.0052494	-0.0012759	-0.0096156	-0.0096903	0.0078995	0.011919	-0.020305	-0.0051086	0.025372	0.021618	0.030848	-0.0013258	-0.00043778	-0.03432	-0.0078664	0.0027778	-0.0048676	-0.015698	-0.010033	-0.015679	-0.0046951	0.014242	-0.0033287	-0.093444	-0.12023	0.61649	0.020857	-0.097673	-0.12666	-0.1153	-0.0057142	0.0076063	-0.010242	-0.010983	0.012547	-0.044694	-0.020422	0.0036346	0.003219	0.015021	0.012899	0.03439	0.0036242	0.010588	0.01051	-0.021346	0.0085885	0.020974	0.012402	0.0039838	0.016349	0.0082483	0.023621	0.026626	0.021332	-0.0022519	0.016553	0.013866	0.00039453	0.0099771	0.0095485	0.0093052	0.010059	0.025437	0.026448	0.014764	-0.0035672	-0.0050722	0.011606	0.029494	-0.022564	-0.039092	0.00086771	-0.03114	0.034839	0.021689	-0.020326	-0.0045201	0.035985	-0.002698	-0.033252	-0.00022938	0.0061694	0.0016278	0.0039354	-0.019415	-0.0013687	0.018318	-0.015147	0.004928	-0.00051734	-0.01279	0.0011034	0.01725	0.0036331	0.049031	0.025575	0.013677	0.0032204
-0.0028826	-0.0017667	0.00094997	-0.021129	-0.028389	0.0699	-0.00062966	-0.0049766	-0.05162	0.0062137	0.0021774	0.0079384	0.015047	-0.00026419	-0.0023851	0.023705	0.0077572	0.0085719	-0.021348	-0.007266	-0.017684	0.029855	-0.0042008	-0.0075342	0.0039317	-0.027238	-0.033885	-0.047988	-0.064537	-0.068771	-0.024612	0.026779	-0.010311	-0.0079106	-0.0016188	-0.021094	-0.01588	-0.019751	-0.0403	-0.016437	-0.0032551	-0.016023	-0.03262	-0.021511	0.010201	-0.03769	0.0022632	0.003772	0.037435	0.019649	-0.016077	0.013311	-0.043107	0.011615	0.00989	-0.042714	-0.0096132	-0.060888	-0.01245	-0.0069961	0.017723	-0.0071565	-0.022015	-0.015116	0.020405	0.022944	-0.028638	-0.013372	-0.026092	-0.011364	-0.013824	-0.010391	-0.021263	0.0072334	-0.024118	-0.0019822	-0.0044184	-0.030395	-0.041894	-0.011822	-0.015462	-0.0070277	0.038529	0.0085228	0.0042479	-0.038042	-0.0037356	0.00010074	-0.0014992	0.006028	-0.005025	-0.0021647	-0.0075516	0.0081988	-0.036187	-0.0248	0.010802	0.010334	-0.01689	0.0020958	-0.035293	-0.016039	0.0094468	-0.064268	-0.01759	-0.019926	-0.060105	-0.053765	0.00098989	0.029811	0.021803	-0.028332	0.0075403	-0.0023704	0.0081829	0.6113	0.12346	0.022026	0.0085018
-0.0358	-0.027155	0.030154	8.7305e-05	0.0095414	0.021052	-0.033891	-0.0082846	0.010335	0.0046524	0.022769	0.030818	-0.0077534	0.074166	0.011413	0.009994	0.012266	0.064793	-0.0019458	-0.0075196	0.0050341	0.0017412	-0.01724	-0.01357	-0.0059952	-0.0070494	0.053414	-0.0067761	-0.0023355	0.0027292	-0.042583	0.03923	-0.021298	-0.016545	0.053594	-0.012005	0.012921	-0.0068795	-0.00668	-0.022452	0.016409	-0.0060389	0.0051847	-0.019994	0.030199	0.0022032	-0.0053385	0.027025	-0.025538	-0.026304	-0.023928	0.022009	-0.04667	-0.01078	-0.022035	0.016729	0.0096216	0.00043184	-0.0083494	0.034439	-0.021834	-0.033121	-0.0162	-0.0059915	-0.0072631	-0.0050193	0.0079722	0.0031893	-0.00019451	-0.019526	0.0092037	0.0031698	0.038673	0.0051692	0.0060492	0.050831	-0.007044	-0.018678	0.01927	-0.036647	-0.061148	-0.007962	0.0070228	0.023105	-0.022581	0.044332	0.025116	-0.0094791	0.0012395	-0.024574	-0.015657	0.0061115	-0.01856	0.0054994	0.0528	-0.0034216	0.0026771	-0.001638	0.0087267	-0.021361	-0.017619	0.024639	0.0039795	-0.12084	-0.035112	-0.025034	-0.042944	0.021628	0.020098	-0.017988	-0.011768	0.58847	0.049515	-0.0017449	0.043887	-0.017576	0.11826	0.037224	0.0093578
0.026727	0.017172	0.00071952	-0.0046302	0.010801	-0.021733	-0.01069	0.01837	0.015598	-0.013307	0.011237	-0.00075081	0.011618	0.019636	0.019194	-0.00093381	-0.016987	0.011373	0.019042	-0.019984	0.0070455	0.0021814	0.019226	-0.019507	0.033908	0.013394	-0.027327	0.0059462	0.040207	0.070981	0.029062	0.026422	0.0046479	-0.017014	-0.02955	-0.016303	-0.018719	0.039975	0.00019344	0.001457	0.018402	0.0013265	0.041944	0.048267	-0.056571	0.059118	-0.00021312	-0.019619	-0.092369	0.59245	0.03545	0.001522	0.0027747	0.070811	0.039446	-0.066543	-0.0045047	0.023576	0.025715	0.01384	0.0069192	0.013954	-0.0047482	0.0040524	0.007793	0.0018551	0.0084038	-0.0058644	-0.028641	0.010329	0.012989	0.017431	0.083414	-0.010012	-0.049047	0.00618	-0.013788	-0.011706	0.009555	0.004008	0.012987	-0.016202	0.0040176	0.04598	0.0048271	0.023908	0.026332	-0.013252	0.001818	0.031399	-0.0066715	0.02616	0.0046132	-0.00010847	0.020944	0.028278	-0.025416	0.061975	0.028458	0.0083549	0.0017473	0.022802	0.032909	0.058515	0.0036273	-0.0022128	0.0025914	0.025016	-0.010681	-0.027712	0.0012971	0.035838	0.0181	0.028804	0.023313	0.024969	-0.0047351	0.0086255	0.00066266
0.055639	0.0026313	0.017713	0.017099	-0.049165	0.058057	0.0043	-0.02268	-0.015264	0.0013863	-0.0048324	-0.011228	-0.013182	-0.13395	0.56967	-0.041446	-0.018597	0.01945	-0.0138	-0.010503	0.028515	-0.010801	-0.0089504	0.0086948	-0.039278	0.00090362	0.0025149	0.011021	0.026446	0.023216	0.054978	0.044615	-0.02076	0.029663	0.012283	-0.0094817	-0.027452	-0.014131	0.0035732	-0.024531	0.0052391	-0.0055155	-0.011652	-0.023441	-0.027692	-0.053373	-0.019377	-0.025903	-0.026756	-0.029325	-0.0057806	0.045516	-0.0010296	0.0022224	-0.036584	-0.026471	-0.0094607	0.0059578	0.0011638	0.017794	-0.029478	0.0022789	0.0056078	0.0248	0.01262	-0.021494	0.015392	-0.01639	-0.0034199	0.0064354	-0.0049985	0.0015023	0.025301	-0.0016465	-0.010053	0.018842	0.017591	0.016839	0.026184	-0.0080998	0.058885	0.040638	0.0053624	0.050311	0.019289	-0.018221	0.018959	-0.0055258	-0.0032301	-0.011135	0.0043529	-0.050306	-0.022401	-0.003976	0.0039906	-0.0050876	0.0023685	0.016321	-0.0063753	-0.0025619	-0.019914	-0.0055425	-0.032875	0.021499	0.025622	-0.022992	0.01435	-0.011777	0.0019694	-0.011711	0.005794	0.0039644	0.007346	0.033598	0.012898	0.0012905	0.014284	-0.0041228	-0.0085218
0.012937	0.010703	0.011283	0.010152	0.0087506	0.0082391	0.0069178	0.005879	0.00088242	0.0033203	0.0098067	-0.0021952	0.0059906	0.006898	0.0072252	0.0070482	0.0089454	0.0095818	0.012362	0.010158	0.0072127	0.0074289	0.0035298	0.002076	0.0047058	0.0049673	0.00047661	0.0020814	0.0036459	0.0053605	0.0046436	0.0070378	0.005957	0.0017847	-0.0010405	0.0011329	0.0027519	-0.0027731	0.0064498	0.0058212	0.0074927	0.0093203	-1.964e-05	0.0054576	0.010507	-0.010266	0.029192	0.01737	0.012575	-0.0024464	-0.0080278	0.0067788	0.0047396	-0.0074811	0.025224	0.00037157	-0.012535	0.001057	0.021216	0.0064751	-0.0030154	0.0012897	0.0076608	0.0089799	0.010239	0.013175	0.012135	0.010334	0.0055466	-0.0020579	-0.0044279	-0.010088	-0.048533	0.018418	-0.0046317	-0.0091331	0.0026963	0.0067845	0.009333	0.0096658	0.0066836	-5.9723e-05	-0.01447	-0.027131	-0.0045795	0.044314	-0.094144	-0.43317	0.47882	0.033014	-0.001746	-0.032237	0.0045799	0.016227	-0.012261	0.028794	0.043797	0.0045632	-0.0054754	0.016151	0.013299	-0.0027116	0.010762	0.0098293	0.008639	0.0070881	0.0034244	0.005981	0.0018806	0.0050797	0.0022047	0.0029348	0.0058261	0.0072924	0.004854	0.0050964	0.0058114	0.0033901	0.00061578
-0.0025251	-0.003826	-0.020276	-0.0034758	-0.037131	-0.010381	0.0097692	0.020859	-0.014806	-0.0042175	-0.0063568	0.0025401	0.0038385	-0.014079	-0.0053533	-0.0039828	0.017583	0.011628	-0.017187	-0.019801	-0.014181	0.022451	-0.0072969	0.018852	0.0044629	-0.00011546	-0.016446	-0.013257	0.039635	-0.014354	-0.019873	-0.054778	-0.00017578	-0.020812	-3.4993e-05	-0.036237	-0.014006	-0.095494	0.58223	-0.059661	-0.022077	-0.01043	-0.014051	0.0018328	-0.018696	0.0043222	0.0010489	0.037352	0.0044916	-0.010145	0.024249	-0.034707	-0.0066631	-0.0059088	-0.012026	-0.012738	0.014373	-0.024785	-0.004204	0.012483	0.024167	-0.010645	-0.016094	-0.022281	-0.019068	-0.0050904	0.01133	-0.010595	-0.00095642	-0.0064074	0.00039712	-0.0046734	0.030495	-0.0045932	-0.040133	0.015029	-0.042677	-0.021886	-0.01099	0.0058417	0.019621	0.012882	0.0010955	0.0087089	-0.018035	0.0035221	0.018583	-0.016582	-0.0077006	0.01813	-0.010975	0.032175	0.019266	-0.005198	0.0094586	0.0095984	-0.014399	0.012017	0.013858	-0.0058659	-0.027943	0.021708	-0.004863	0.017984	0.0039899	0.018012	-0.033129	-0.019804	-0.020161	-0.011551	0.049454	-0.00068959	-0.0024721	0.00051121	0.00037482	0.013183	0.042463	0.0019036	-0.010124
0.017554	0.013411	0.015506	-0.0027463	0.0019889	0.0069931	0.0145	-0.0025497	-0.016279	0.006842	-0.010219	0.024076	-0.0076772	0.016379	0.012574	-0.0067002	-0.0092596	0.030638	0.0026617	0.012191	-0.0014203	-0.0036779	-0.014135	0.0062176	-0.0047796	0.0014735	-0.0097842	0.0031321	0.016084	0.019028	0.0074567	0.029538	0.0065201	0.011313	0.014383	-0.0036586	-0.0038121	0.0060869	-0.004094	-0.017187	-0.019619	0.018955	-0.0025014	-0.0047637	0.0010106	-0.0032928	-0.021577	-0.00088455	0.01159	0.0090394	0.0054138	-0.016736	-0.0041728	0.0097841	0.0037699	0.016648	0.010525	-0.00042749	0.013379	0.00057224	-0.0011838	-0.0032335	0.0065328	-0.00089593	0.017497	0.015493	-0.0040637	-0.00069176	0.030919	0.0082716	0.010213	0.00094706	0.0079921	-0.0052022	-0.0054386	0.020658	0.0032421	-0.010898	-0.011801	0.016917	-0.032181	-0.053107	-0.037004	-0.0031461	-0.0080834	-0.012572	0.038787	0.019869	0.010321	-0.039401	-0.025632	-0.15919	0.56685	0.058197	-0.029448	-0.017647	-0.012124	-0.05964	0.028838	0.025173	-0.00039666	-0.053845	0.0019524	-0.019278	-0.028089	-0.0072585	-0.003594	0.0011616	0.0053831	-0.00064338	0.0063357	0.0039272	-0.0011131	0.012019	-0.0017216	-0.00039929	0.00735	0.0091545	-0.011666
0.00012283	-0.00091795	0.014872	0.01917	0.026052	0.012823	0.033075	-0.0048684	-0.0014153	-0.01182	-0.00011245	0.0097017	0.0046482	0.015643	0.0003791	0.011895	0.026701	0.021483	0.0033511	0.013227	0.020182	0.004558	0.012199	0.0161	0.0098219	0.0034957	-0.00037572	0.010985	0.012138	0.033676	0.022258	0.01209	0.021677	0.01256	-0.00066869	-0.0072095	-0.007466	0.0071833	0.018965	0.0045767	0.0093676	0.013238	0.0034616	-0.0062481	0.010798	0.042064	-0.011738	0.028078	-0.0029803	-0.011825	0.037846	0.01953	0.021577	0.016588	-0.0085619	0.039126	0.0059086	0.0027053	0.0077035	0.010371	0.027265	0.01021	0.008851	0.0083018	0.015314	0.023872	0.019478	0.010525	0.014385	0.01863	0.0032605	0.0021658	0.023255	-0.014709	0.048015	0.032546	0.010867	0.0079905	0.011624	0.01143	0.0035018	0.0059135	0.018962	0.028199	0.026115	-0.022497	0.018507	0.043695	0.036836	-0.13286	-0.0027921	0.026192	-0.069812	0.48721	-0.23802	-0.029801	-0.011146	0.02184	0.074562	-0.098157	0.063495	0.043706	0.024034	0.040667	-0.0077618	0.027068	0.033193	-0.016354	-0.016095	-0.018202	0.0039031	0.01072	0.01315	0.020656	-0.0041547	0.012208	-0.0081851	0.04064	0.0063854
0.002638	-0.00018593	-0.0036085	-0.0078599	-0.018789	-0.0012008	0.010067	-0.028822	-0.0036075	-0.0095997	-0.01785	-0.011139	-0.0074515	0.032402	0.011523	0.01364	-0.034538	0.075431	0.0031082	0.018198	-0.0013472	0.0034025	-0.012894	-0.0044507	-0.013787	-0.012886	-0.019077	0.002814	-0.0035381	0.04575	0.035908	0.026628	-0.0089611	-0.0030878	-0.031195	0.013055	-0.017119	0.017425	0.010741	-0.015455	-0.034579	0.00090815	-0.0038838	0.01857	-0.0076894	-0.015758	-0.021495	0.028801	-0.037036	-0.028935	0.037194	-0.0084187	0.022621	0.0059643	-0.044428	-0.038826	0.028187	0.029909	-0.037566	0.031509	0.0095329	0.0095338	-0.0030347	-0.011164	-0.010599	0.018963	-0.0045021	0.0017767	0.0090393	-0.0086194	-0.02769	-0.0067058	-0.0011055	-0.0049182	0.033509	0.021683	0.0026394	-0.020353	-0.018728	0.027105	0.017531	-0.030111	-0.012744	0.060042	0.078508	0.044327	0.033728	-0.0085365	0.0026322	0.022306	-0.015264	0.044812	-0.01014	-0.0077284	0.17024	0.020475	-0.019858	-0.095124	0.09191	-0.054066	0.4936	-0.024506	-0.00098563	-0.015989	-0.067722	-0.029894	-0.081266	0.021643	-0.00047064	0.018933	0.017367	-0.02368	-0.022407	-0.0011388	-0.027294	0.037239	0.012586	-0.012721	0.00037405
0.01575	0.0080662	-0.011106	0.002582	0.0063148	0.0022867	0.0079771	-0.0032384	0.018811	0.0037074	0.0009065	-0.0023466	0.00031712	-0.0083171	0.0034802	0.012026	-0.0027295	0.014214	-0.0074122	0.011564	0.01032	0.013645	0.0035477	0.0073729	0.0037278	-0.0026173	-0.0070607	-0.025157	-0.062136	0.025764	0.01291	-0.001642	0.0082832	0.017224	-0.005224	0.03718	-0.010289	-0.023541	0.028579	-0.023967	-0.016853	0.0028186	0.005709	-0.02113	0.011832	-0.014392	0.0012243	0.01726	-0.0080379	0.0044727	0.010625	0.0036593	-0.0014781	0.024145	-0.0016535	-0.0042388	-0.0066753	0.0036647	-0.018522	0.015849	-0.00023668	0.018214	0.0035952	0.0047482	0.011662	0.0015417	-0.012241	-0.019183	0.013412	-0.0070745	-0.00011147	0.0011557	-0.028373	0.021446	0.00082076	0.00076238	0.0031561	-0.00017428	0.0056288	0.0006882	-0.00062199	-0.012571	-0.0047368	0.03297	0.019707	0.015635	0.0098837	0.0066526	0.0016989	-0.010309	0.0059528	-0.021015	-0.023244	0.039388	-0.0027677	-0.0091828	-0.0047926	-0.076563	-0.11678	-0.03267	-0.065732	-0.035957	-0.015109	-0.052835	-0.042392	-0.054211	-0.052013	0.53564	0.022025	0.019586	0.051294	-0.02004	-0.012813	0.0055067	0.00034456	0.032276	-0.08139	0.017086	0.017203
-0.0026303	-0.0058382	-0.0067865	0.01187	0.0047981	0.020406	-0.0015272	0.012116	0.010646	-0.0003449	0.0047575	-0.0083493	-0.014853	0.017404	0.0074037	-0.0028387	-0.012292	0.010781	-0.015798	-0.013828	0.0085901	-0.0037491	-0.0026544	0.007821	0.0036776	0.0034489	-0.010736	-0.0008139	0.004261	-0.0056847	-0.0044918	-0.010767	0.0015476	-0.024623	-0.003864	0.0020788	-0.0074986	-0.0131	-0.0052135	-0.05464	-0.037558	-0.025299	0.57214	-0.03178	-0.0045356	-0.015114	-0.0019828	0.00054242	-0.0070754	-0.026837	-0.051944	-0.049966	-0.034728	-0.013637	-0.0025099	-0.013355	-0.011017	-0.031653	-0.0021031	-0.0021301	-0.0088801	0.0029366	-0.0078344	-0.017193	-0.014116	-0.014047	-0.009408	-0.0077929	0.014155	-0.010298	-0.0020372	0.0056018	-0.0011491	0.0045162	0.0032375	-0.011917	0.019364	-0.014105	-0.010269	-0.0016917	0.0099241	0.0065835	-0.0091784	0.00076923	-0.0034855	-0.011245	0.0058907	-0.008017	-0.0022972	0.0085192	-0.0050417	0.0038519	-0.0020128	0.014215	-0.0025754	-0.0059869	0.0047354	-0.010766	0.0014048	-0.002688	-0.00093031	-0.018794	-0.016538	-0.00072681	0.01523	0.0044636	-0.0062639	-0.01561	0.0092952	-0.0038399	0.021833	-0.01032	-0.0085606	0.018885	-0.0090673	0.013916	0.0058484	0.0014545	-0.0064291
-0.0023301	-0.022554	0.0028666	0.016829	-0.010074	0.013566	0.0031073	0.0048549	-0.051227	0.010667	-0.0042701	-0.029659	-0.0087737	-0.0053944	0.0042825	0.017484	9.5354e-05	0.003692	-0.017987	0.018232	0.0167	-0.014242	-0.0076735	-0.05183	0.025448	0.0055785	-0.01504	0.0098301	-0.048196	-0.0073522	-0.014988	0.01649	-0.013566	-0.02568	0.02757	-0.020416	-0.0082404	0.0085818	0.0015824	-0.0078043	0.010126	0.010073	-0.0029117	-0.016962	-0.017435	-0.011631	0.006506	0.0055313	0.00057221	-0.0047855	0.021443	-0.018708	-0.021898	-0.0068271	0.015574	-0.0076117	-0.016844	-0.020923	-0.006722	0.0066363	-0.014094	-0.014462	-0.0083011	-0.016885	-0.0012822	-0.014747	-0.0085682	-0.0055454	-0.001777	0.03242	0.0024411	-0.0021317	-0.0010461	-0.021881	-0.014827	0.020108	-0.03921	-0.0039394	0.016612	0.009449	-0.025088	-0.0049624	0.003572	0.026013	-0.0049643	-0.0035887	-0.0052436	-0.0005528	-0.0015315	0.013642	0.0039688	-0.029042	-0.010255	-0.036	0.0094881	0.0086672	0.0052991	0.00017669	-0.0092516	-0.0074351	0.014118	0.0015207	0.0089816	0.0034239	-0.016253	-0.0055354	-0.011111	-0.045733	0.0020037	0.018512	0.040489	-0.019568	0.0017409	-0.0089299	0.0092472	-0.021111	-0.13122	0.54316	0.061776
-0.021237	-0.016379	0.0060141	-0.0039318	0.035109	-0.0023576	-0.019583	0.0022634	-0.1061	-0.032424	-0.012349	-0.035924	0.015179	0.025987	-0.0058129	0.027285	-0.006021	0.01901	0.033468	-0.011865	0.0046484	-0.0064307	0.0046473	-0.023964	0.0033498	-0.0033626	0.0014013	-0.0013257	0.019475	0.0066402	0.048932	0.022002	0.015214	-0.013709	0.020252	-0.0092354	0.011216	0.0026584	0.024663	0.011989	0.039314	-0.014572	-0.0023104	-0.010357	-0.010575	-0.0052729	-0.0083758	-0.018346	-0.01485	-0.018422	-0.00070535	-0.0051546	0.013973	0.034478	0.0023751	-0.00066375	0.023925	-0.0028379	-0.0037362	0.013202	0.015217	0.018705	-0.0067659	0.012029	-0.011008	-0.025389	-0.0093227	-0.012449	-0.040281	-0.0086537	0.0012105	0.0049499	0.020892	0.017357	0.014621	0.00099389	-0.013612	0.0018846	-0.0058274	0.028107	0.0062101	-0.018877	-0.0023725	0.022539	0.016395	0.0079167	0.0075949	0.014124	0.014792	-0.0028081	-0.012385	0.0060328	0.0006048	0.013685	0.019824	-0.0022663	0.016492	0.022558	0.01206	0.015227	-0.017787	0.015331	-0.014513	0.049546	0.014687	-0.014992	0.0092815	-0.016404	0.54147	0.021098	-0.0036851	-0.0042345	0.0077573	-0.016673	0.0056465	0.01312	-0.048234	-0.02826	0.027561
-0.0015956	-0.022637	0.0060062	-0.011277	-0.018468	-0.011274	-0.041191	-0.0076923	0.022868	-0.0040108	0.00088945	0.0027415	-0.0078462	0.013255	0.013494	-0.011137	-0.027737	0.037925	0.012753	-0.029545	-0.0047023	-0.025541	0.0044538	-0.01455	0.012675	-0.0047511	0.0070789	-0.025278	0.0098827	0.026984	0.01477	9.3016e-05	-0.0025569	-0.0048681	-0.0098916	-0.02515	-0.0096528	-0.016838	-0.041971	-0.011833	-0.0068062	0.0058136	-0.0042804	0.026923	-0.03886	0.048725	-0.011289	0.50026	-0.11467	-0.02172	0.024847	-0.003913	0.012145	0.010558	-0.038038	-0.022742	-0.045402	0.0061927	0.0088917	-0.034048	0.025598	-0.016293	-0.02089	0.0027159	-0.042144	-0.011694	0.012456	-0.016232	0.017363	-0.030551	0.00589	0.0007857	0.04226	0.00017052	-0.0094763	0.0086405	-0.00056807	-0.0096177	-0.014366	-0.045488	0.012471	-0.015561	0.0010663	-0.016579	-0.0046576	-0.027486	-0.030398	0.026178	0.021686	-0.043396	0.018647	0.012227	0.011972	-0.095141	-0.10904	-0.036976	-0.010436	0.033542	0.0075875	0.023937	0.0048811	0.0086831	-0.021019	0.0037896	0.032978	0.0064536	0.010745	0.0078405	0.016701	0.0085545	0.0069269	-0.020106	-0.0011539	0.006579	-0.011176	0.0053274	-0.0017528	-0.00056387	0.0056509
-0.031814	-0.0055846	0.031171	0.0057063	0.033963	-0.021784	-0.020718	0.0017242	0.0055843	0.015223	-0.004511	-0.018504	-0.0056562	0.024343	0.0061989	-0.0052407	0.024768	0.025478	0.025125	0.0019181	0.012585	-0.014015	-0.0090772	-0.043185	0.016677	-0.033158	0.52598	-0.019095	-0.0025469	-0.0012147	0.05804	0.013775	0.014932	-0.006801	-0.0034678	-0.075631	0.05019	-0.009217	0.0084867	-0.015674	0.0045844	0.016541	0.0055435	-0.0080638	-0.007531	-0.0057321	-0.0048443	-0.023938	-0.0048128	0.0041384	0.0050083	-0.01524	-0.0020436	-0.002807	0.014487	-0.0043916	0.023756	0.0053362	1.2396e-05	-0.0039767	0.0042397	-0.028835	-0.011523	-0.0031779	-0.053832	-0.011385	-0.030672	0.038214	0.0015155	-0.030105	0.02087	0.011871	0.032175	0.011871	0.021936	-0.0056711	-0.016201	-0.0059178	0.0016327	0.01913	-0.015707	-0.021866	0.017702	0.024427	0.025869	0.0060587	0.0075991	0.0063574	0.012002	0.0090385	0.014813	0.0055973	0.014238	0.0017081	0.026125	0.0060776	-0.0030772	0.0076063	0.01251	-0.010111	-0.0060677	0.013625	-0.037148	0.036424	0.026488	0.011413	0.0006701	0.017149	-0.035389	-0.011603	0.0092332	-0.054175	-0.0042849	0.025746	-0.0017173	0.042319	-0.0067243	0.0064598	0.010359
0.0095584	0.041276	0.014092	-0.018562	0.013009	0.01427	-0.010766	0.03243	-0.0060709	-0.0043861	-0.00052498	0.0074734	-0.0035076	-0.0019534	-0.036746	-0.0090634	0.0079712	-0.026156	0.0027083	-0.0018625	-0.017042	0.0039786	-0.015614	0.014154	0.00488	0.013117	0.0096743	0.040631	0.0058061	-0.040238	-0.022375	-0.018797	-0.002717	-0.0297	0.031198	-0.014897	0.0048992	-0.022181	0.01077	-0.0062624	0.015292	-0.007448	-0.0093143	-0.0084303	0.042962	0.0047009	0.020913	-0.014823	0.018443	0.01851	-0.026466	-0.0077614	-0.03363	0.021771	0.0011807	0.015702	-0.024471	-0.030333	0.020547	-0.00074304	-0.012754	0.010585	0.0010463	-0.0048787	-0.02473	-0.027449	-0.021536	0.0056399	-0.0013196	0.0027181	-0.0068935	-0.023867	-0.080766	0.010423	-0.01424	-0.03648	0.0521	0.015287	-0.012147	-0.02031	-0.0058052	0.01107	0.040717	0.42085	-0.07426	-0.02794	-0.033152	0.013542	0.0024406	0.01222	0.0037173	-0.17614	-0.036967	-0.076202	-0.16594	0.011938	0.019797	0.022352	-0.0066612	0.031237	0.089007	-0.023387	-0.027538	-0.021673	0.010102	0.039545	0.0068449	0.002377	0.0086609	-0.033815	0.00016979	0.0027754	0.0030145	-0.022914	-0.010904	-0.032027	0.029449	-0.023897	-0.0045604
0.023348	-0.037026	0.0078173	0.014186	0.036187	-0.023462	-0.051193	-0.015333	-0.016544	-0.019752	-0.0041168	0.0070167	0.021757	0.025121	-0.019885	-0.024271	-0.029404	0.025177	0.01878	0.0048986	-0.020077	0.037855	-0.010639	-0.062936	-0.0083554	-0.0012013	0.012543	-0.014182	-0.0023957	0.0096599	0.009051	0.04409	-0.0017833	-0.022017	-0.013754	-0.0071012	0.0025809	-0.009179	-0.0074805	-0.021696	-0.0070208	-0.005681	0.0050554	-0.0043859	-0.0196	-0.029432	-0.0085029	-0.046778	-0.018538	-0.021521	-0.0086721	0.026999	0.027232	-0.0083356	-0.010084	-0.029039	-0.02136	0.0085821	0.020983	0.00062674	0.0033714	-0.027581	0.029341	-0.022257	-0.040288	-0.0014348	0.49762	-0.088855	0.01874	-0.020631	-0.00012459	0.00319	0.01871	0.010974	0.0062178	0.013302	-0.0088289	0.0032899	-0.05706	-0.035283	-0.025913	0.018684	0.011031	0.03101	-0.009035	0.0023321	-0.0049084	-0.0036579	-0.0078008	-0.018036	-0.0091327	-0.0056832	0.0017334	-0.01348	-0.0091398	0.0060178	0.0031266	0.00060386	-0.02361	-0.013414	-0.010765	-0.031212	0.042253	0.020874	0.00273	0.016733	-0.031625	0.0029183	-0.0096004	-0.010887	-0.0078482	-0.018536	-0.0040273	-0.02501	-0.0066456	0.017392	-0.012982	-0.0013097	-0.00077945
-0.011602	-0.021867	0.033426	0.0083907	0.005858	0.00022498	0.017836	0.0061741	0.0032876	0.0035946	-0.0022122	0.0005411	-0.022829	0.0041557	-0.031012	0.0072706	0.0019194	-0.0065548	0.020215	-0.004439	0.020694	0.009509	-0.001359	-0.0080511	-0.0016531	-0.018896	0.014002	-0.024503	0.017885	0.016287	-0.011555	-0.020413	0.017496	-0.029887	-0.00047466	0.016016	-0.0090967	-0.005076	0.028189	-0.0030033	0.0573	-0.079219	0.044841	0.031701	0.002943	0.0065287	0.0027397	-0.015692	-0.0024203	-0.01248	-0.013561	0.47931	0.072513	-0.0097871	-0.0020668	-0.016507	-0.024728	0.0040228	0.022154	-0.001481	-0.017303	-0.029307	-0.019331	0.0075618	0.0066287	0.054893	-0.059826	-0.083383	-0.023302	-0.0041976	-0.020781	-0.00015241	0.015221	-0.015986	-0.0080179	-0.015383	-0.042346	-0.016542	-0.038613	-0.013658	-0.011319	-0.030095	-0.0082911	0.0079339	0.0026459	-0.023497	0.0055991	-0.011552	-0.010567	-0.041569	-0.0033875	-0.0026597	0.015646	-0.038017	-0.0099334	0.0013403	0.012714	-0.0057829	-0.0059853	-0.018397	0.01557	-0.016944	0.013313	0.01647	-0.016572	0.011637	0.029814	0.0034296	-0.0036857	0.0071834	0.0094946	-0.015597	0.010919	0.018244	0.0027062	-0.0097448	0.0061033	0.015585	0.00081007
0.013028	0.0075534	-0.0085394	0.0053183	-0.022696	0.016517	-0.019457	0.49362	-0.028684	-0.013271	-0.0034049	0.0037752	-0.030058	-0.039244	0.0049905	0.0094136	0.01688	-0.00067985	-0.0036764	0.0048592	0.0056615	-0.017554	0.014816	-0.0090484	0.031189	0.044368	-0.0022824	-0.012272	-0.028556	-0.014281	-0.012653	0.038695	-0.002554	0.0070312	-0.0035428	0.0169	-0.0080659	0.02783	-0.011053	-0.011692	-0.0067949	0.023847	-0.010981	0.010245	-0.028697	0.0026014	-0.0023284	0.0092646	-0.0055324	-0.020146	-0.0089728	0.0085003	-0.01302	0.022936	-0.040724	-0.014145	0.030393	0.0005487	0.0034964	-0.014914	0.010627	-0.023092	-0.0011946	0.017483	-0.0291	-0.012449	0.016971	-0.015299	-0.012732	0.0061623	0.011926	0.00041367	0.012079	0.0080932	0.010045	0.0045106	-0.0041045	-0.0030556	-0.016861	-0.0016538	-0.00043009	-0.018932	-0.033819	0.011624	-0.0087643	0.01992	0.0064506	0.0052435	0.0064028	-0.0017433	0.023692	0.024486	0.0033893	0.028029	0.04469	0.004212	-0.00062277	-0.01722	0.01469	-0.011437	0.0026205	-0.0042346	-0.014436	-0.043687	0.023741	0.0018435	0.024539	-0.0041225	-0.012794	0.027534	-0.016058	-7.8488e-06	0.0095766	0.029154	0.021266	0.0058185	-0.029274	-0.019266	0.016913
0.0048559	0.0088523	0.0028627	-0.018137	0.010426	0.0016794	-0.010641	0.022886	-0.003261	0.0046113	-0.0019158	0.015088	-0.014564	0.010861	-0.0068596	0.011334	-0.026592	0.0068875	-0.039034	-0.015661	-0.012544	-0.015061	0.0090586	0.013611	-0.017267	-0.0091363	-0.00099275	-0.010775	0.026289	-0.0093748	0.015956	0.0083796	3.1659e-05	-0.015954	-0.019115	0.0064815	0.0023024	0.013949	-0.017844	0.014707	0.0086412	-0.019425	0.036058	0.014104	-0.013872	-0.017707	0.0064857	-0.049833	-0.0064234	-0.041047	0.48522	-0.014117	0.03946	-0.0095665	-0.0056334	-0.011937	-0.11753	0.00064478	-0.00059793	-0.0017992	-0.037168	-0.020444	-0.019034	-0.019197	-0.01345	-0.020118	-0.018416	-0.0015987	0.0011556	-0.017014	0.0068664	-0.007975	0.015709	-0.0082725	-0.011035	-0.0051428	-0.0093578	0.00068513	-0.0068188	-0.025598	0.0092836	-0.010581	-0.011069	0.00456	-0.019301	0.0047352	-0.0099162	-4.1402e-05	0.0071743	-0.0063551	-0.025512	-0.04216	-0.0084554	-0.014647	0.0040741	0.0035713	0.0077507	0.02012	-0.0224	-0.015294	-0.024413	-0.0079396	0.00020129	0.00052695	0.012001	0.025135	-0.020916	-0.0037908	0.0017452	-0.011523	-0.0048646	0.018554	0.00053289	-0.0081412	-0.00041234	0.012387	0.0099574	-0.017044	-0.011184
-0.0058796	0.01308	0.019111	0.0022576	-0.014997	0.014861	0.0061544	-0.0363	0.0097927	0.021249	0.0020749	-0.0043282	-0.005012	0.017791	0.0027474	0.0030431	0.00067938	0.016183	-0.0059664	0.01079	0.019408	0.012072	-0.0043626	0.024644	0.0066735	0.0073216	0.010039	-0.022452	-0.028527	0.0048318	0.00040989	0.00942	0.0081232	0.036642	-0.0039594	-0.031437	-0.0035533	-0.006131	0.015794	-0.01226	0.014035	0.015497	0.0075998	-0.0029221	-0.0040052	0.009497	-0.0017821	-0.0012646	0.02099	0.023484	0.013906	0.0048288	0.0073569	0.022545	0.0058787	-0.00457	-0.0085317	-0.0068361	-0.0067465	0.015379	0.021142	-0.0046946	0.00070462	-0.0089994	0.016103	-0.019196	0.014497	0.012741	0.0078723	0.0046199	0.0056004	-0.0036893	0.005531	-0.0076952	-0.0063484	-0.0058241	0.02271	0.003307	-0.0093541	0.0018522	0.010589	-0.013406	0.011006	0.044926	0.034613	-0.0035091	0.012302	0.0014949	0.0039657	-0.012716	-0.015103	-0.014611	-0.0095921	-0.00015991	-0.0078553	-0.0069112	0.011144	0.011999	-0.011853	-0.0079936	-0.023545	-0.013965	0.0013633	-0.046547	-0.020108	0.00061732	-0.00037965	-0.065244	-0.030536	0.4551	0.068763	0.038635	-0.012445	-0.0064826	0.018521	-0.013602	-0.1504	-0.065026	0.012303
0.0094024	-0.022759	-0.020901	0.0026637	0.018711	0.0082475	-0.016362	-0.020056	0.033529	-0.0073216	0.028837	0.02937	0.003851	0.022254	0.00098097	0.0097492	0.0050099	0.038752	0.023924	-0.0041325	0.0059805	-0.0070618	0.020346	-0.051412	0.028638	0.077442	-0.0068036	0.43719	-0.14642	-0.054228	-0.057998	0.056644	-0.0018276	0.0066024	0.023235	-0.04504	0.015162	0.025411	0.018267	-0.019656	0.018731	-0.0091085	0.006865	-0.012418	-0.0028405	-0.0013537	-0.010159	0.0086964	-0.0053955	-0.028083	0.018844	0.022881	0.013317	0.014998	-0.00092125	-0.017586	0.00088439	0.029036	0.004219	0.0063762	-0.0027498	-0.0053241	0.0056106	0.024391	0.00027587	0.006883	-0.0097393	-0.00059248	-0.0031395	0.0090389	-0.010543	0.014581	0.054491	-0.0095667	-0.0087494	0.023961	-0.024798	-0.012584	0.0036206	0.0041285	0.0091272	-0.029525	-0.0020798	0.0044287	0.02423	0.010688	0.016348	0.0026159	0.0070616	0.012742	-0.011099	0.024767	0.011633	-0.0096016	0.0064604	-0.0041693	0.0072493	0.026727	0.007736	0.0029563	-0.014123	0.012294	0.011088	0.023226	0.037289	0.015664	-0.017291	0.019747	-0.0089675	0.0088046	-0.0077571	-0.017597	0.0043268	0.017955	0.015943	0.022915	-0.0047972	-0.030279	0.0082438
-0.0044423	-0.019524	-0.0086915	-0.007351	0.0045505	0.012416	-0.035783	-0.004571	0.014034	0.0033174	-0.010818	0.0043358	0.0071073	0.020219	-0.023433	-0.010613	-0.0057318	0.029455	-0.017508	0.0062747	0.0049039	0.012463	0.023377	0.003371	-0.048904	-0.023457	0.021724	-0.016772	-0.0031792	0.022505	0.0024379	0.053706	-0.0083568	-0.00070401	0.0020517	0.007437	-0.00066102	0.0092535	0.011032	0.0071457	-0.014047	0.010898	-0.0013506	-0.024325	-0.01101	-0.016073	-0.010365	0.025399	-0.012588	-0.016223	-0.0038163	0.018127	-0.028241	-0.017366	-0.0099388	-0.035624	-0.043384	-0.013099	0.003653	-0.010081	-0.036662	-0.016624	0.0083025	-0.021253	-0.023082	0.012127	-0.0036579	-0.013703	0.048667	0.466	0.067223	0.014874	-0.028645	0.01826	-0.016503	-0.0047666	0.018212	0.012413	0.0031446	-0.01371	0.0069452	-0.015099	-0.0225	0.0041249	-0.0050534	0.0034217	0.041757	-0.015953	-0.012261	0.058587	0.010052	-0.019495	-0.012786	0.011936	0.015318	-0.022256	-0.0031244	0.037532	0.0074279	0.0021736	-0.0074881	0.0057163	-0.0006542	0.035745	-0.010119	-0.025381	-0.012511	0.0017257	0.0088165	-0.0051033	-0.00088233	-7.4864e-06	0.0054116	0.0077295	0.0078279	0.0069186	0.0014498	-0.029549	-0.0023074
0.026333	0.010856	0.0058507	-0.003999	-0.015629	0.0080307	0.012193	-0.0012297	0.0073956	-0.0015928	0.00049481	-0.0028438	0.0058664	0.0019542	0.0047475	-0.0013202	-0.006433	0.0060373	-0.00039978	-0.0051793	-0.0017053	-0.0036013	0.0075441	0.014976	0.0031228	0.010737	-0.0032288	0.011497	-0.0029402	0.0044184	-0.0052016	0.023527	0.0044756	2.4514e-05	0.021309	0.0046077	0.001705	0.0063671	0.031708	0.01426	-0.010718	-0.0046175	0.0016486	0.012179	0.0033931	0.0035689	-0.012517	0.014884	0.013396	0.039449	0.0096782	-0.0019379	0.0034	-0.0032128	0.010468	0.015672	-0.00089608	0.00051641	0.011203	0.0073133	-0.013852	-0.020203	-0.011059	-0.012298	0.007515	-0.010877	0.0008791	-0.03788	0.00067684	0.0045907	-0.023638	-0.044663	-0.06028	-0.040034	0.46932	-0.022944	-0.011463	0.0016812	0.0018729	-0.00025931	0.013997	-0.0029534	-0.033076	-0.017595	-0.016826	0.010806	0.045304	-0.0052634	-0.0055508	0.019706	0.0093194	-0.027272	-0.0061388	-0.041563	-0.016062	0.0021131	-0.012903	0.028137	-0.0034732	0.027819	-0.020554	-0.0067904	0.011346	0.018805	-0.02077	0.0030667	0.0036176	-0.0012733	-0.0037215	0.0051766	0.01926	0.0063821	0.0038305	0.019747	0.0049861	0.017166	0.01001	0.0087532	0.0030862
0.0058209	-0.041227	0.0049751	0.028223	-0.0043186	0.0033528	0.0064989	0.018053	-0.0084159	-7.9453e-05	0.0023974	-0.012179	0.023213	-0.0010462	0.012107	0.0047482	0.011494	-0.0053459	0.026736	-0.009073	-0.011316	-0.0070333	0.027152	0.001066	-0.0086613	-0.0072685	0.0079052	-0.01038	0.0042997	0.019964	-0.01459	0.019473	0.0037812	0.019868	0.01667	0.018823	0.025325	-0.0069963	0.0043555	0.0057753	-0.0059823	-0.046182	0.0050693	-0.017688	-0.011933	0.0036682	0.0036394	-0.0021231	-0.012607	-0.010344	0.010621	-0.075201	0.0090183	-0.03298	-0.026204	-0.018648	-0.0087182	0.0012344	0.023557	-0.017658	0.00041021	0.025042	-0.001664	0.017488	-0.01213	0.44721	-0.0044593	0.0073829	-0.021135	-0.0077099	-0.0122	0.027993	0.046343	-0.0029638	0.012505	-0.022003	-0.00028154	0.014819	0.017504	0.033751	-0.0028562	-0.0025974	0.0044912	0.032813	-0.0013506	-0.0041918	0.003083	-0.018022	-0.022603	-0.015504	-0.019425	-0.016137	-0.011599	-0.035025	-0.011428	0.0054183	0.017636	0.0081334	-0.013404	-0.0049328	-0.010549	-0.013861	0.024518	0.010016	-0.023561	0.02204	0.030299	0.0014508	0.008343	0.01898	-0.00052464	0.010342	0.011106	0.010282	-0.019061	-0.0041882	-0.011069	0.0039313	-0.00039599
-0.0005002	-0.011886	0.0164	0.0011446	-0.0059769	-0.0031899	0.017748	-0.012594	-0.0004078	-0.0052344	-3.1898e-05	0.007736	0.0027244	0.0078381	0.017844	-0.018508	-0.01613	0.0051286	-0.0038607	0.010051	-0.004021	0.011822	-0.007776	-0.0070168	0.00896	-0.0039481	0.004311	0.0074995	-0.0063592	0.0095035	-0.0047359	0.011813	-0.0039888	0.00028526	0.0011147	0.01329	0.0073466	0.0093765	-0.014616	-0.0072347	-0.0046931	-0.015932	0.0047694	0.0032672	-0.032644	-0.013846	0.0092398	-0.011547	0.0090895	-0.0044762	0.016196	0.011052	-0.0029355	-0.028846	0.0033045	-0.03097	-0.039991	-0.012918	-0.02904	-0.010884	0.44973	-0.061694	-0.014367	-0.011515	0.0031501	0.0094429	-0.013151	-0.031395	-0.0013618	0.0053513	0.0029721	-0.015322	-0.066176	-0.013943	-0.010293	-0.0042938	-0.014701	-0.0013775	0.012126	-0.010579	0.018559	-0.010176	-0.0085039	0.0016003	-0.021501	0.017175	0.029813	-0.0057071	-0.009961	0.075939	0.013378	-0.031491	-0.0043079	0.017859	0.0060921	0.007087	-0.012937	-0.0012532	-0.0022717	0.010887	-0.0080871	-0.010266	-0.0023509	-0.0035969	0.016049	0.0022479	0.015171	0.001968	-0.0016085	-0.014852	-0.035266	0.01933	0.0031746	0.0029429	-0.0057586	-0.017261	-0.0036448	0.0024661	0.0070105
-0.029385	0.0045994	-0.0044248	-0.0046942	0.010128	-0.01851	0.0067148	-0.012966	-0.015438	0.00074801	-0.0040696	0.0092993	-0.0024198	-0.0074847	0.0089337	-0.011368	-0.0010063	-0.018456	0.028381	0.020298	0.0046518	0.033093	0.0061279	0.0062467	0.023975	0.011634	-0.0085992	0.0075256	-0.0017556	0.0052548	-0.0041643	-0.093584	0.035887	-0.010337	-0.01843	0.0072217	-0.0060996	0.01596	0.0053159	0.041807	0.02196	0.42942	0.027785	-0.0038394	-0.0074937	-0.025881	-0.013795	-0.016369	-0.040924	-0.019709	0.0031632	0.029694	0.04498	-0.0034999	-0.0096354	-0.0053477	-0.015639	0.0027695	0.02041	0.0010216	0.0088391	-0.019003	-0.013778	0.012229	0.017197	0.053696	-0.01211	-0.047076	-0.012501	-0.0010292	-0.00070007	-0.0044182	0.0088013	0.0044192	0.0063033	0.0087993	0.0067961	-0.023073	-0.034375	-0.027094	0.0010942	-0.011821	-0.015168	0.018726	0.0029637	-0.003379	0.0042695	0.0053328	-0.00069744	0.0014119	-0.014872	-0.0066316	-0.0057453	-0.016651	0.0044861	0.012217	-0.0052825	0.010583	-0.0086537	0.0021419	-0.0029847	0.022031	-0.001397	0.022753	0.011294	-0.0061324	-0.018788	-0.00146	0.0041967	-0.0089375	0.0099559	0.018353	0.0096	0.010251	-0.0010665	0.01957	0.0018814	0.00038427	-0.0053567
-0.0027313	-0.00075145	0.0037105	-0.011579	-0.0055383	0.00073392	-0.0041312	-0.0012093	-0.0048648	-0.004766	-0.0029931	0.0040325	-0.00089306	0.005418	0.0022469	-0.0010248	-0.0053513	0.00623	-0.0024751	-0.0041344	0.0018739	0.0021812	-0.0038955	-7.7046e-05	-0.0070091	-0.0079077	-0.0057905	0.0012332	-0.00031346	0.0015801	0.0035822	-0.0014235	-0.00085255	-0.0020466	0.0014659	-0.004731	-0.0020029	-0.0012214	0.0061058	0.00074921	0.0044189	0.0061117	-0.0046981	0.0035243	0.00038826	0.0044653	0.0023707	0.0012083	7.2667e-05	0.0046703	0.0071143	-0.0017938	0.0055605	-0.0036861	-0.020387	-0.0037512	-0.0036903	-0.0038936	0.0036077	-0.020471	-0.0077296	-0.016522	-0.0094771	-0.00077037	0.0015764	-0.01387	0.00027947	-0.013251	-0.017538	-0.01867	-0.020202	0.44222	-0.12395	-0.043046	0.016488	-0.0026563	-0.0080259	-0.0018692	0.005754	-0.0022612	-0.0060798	0.0044612	0.00044956	0.011218	-0.010757	-0.0036311	0.036359	0.020353	0.029203	-0.0069476	0.0012168	0.010588	-0.00010473	-0.0030063	0.005539	-0.0099891	-0.014945	-0.0029221	0.005233	-0.001451	-0.0042021	-0.0018815	-0.0068104	-0.005354	-0.0014593	0.0038235	0.0023846	-0.0061264	-0.0028903	0.00078679	0.0048203	0.0006925	-0.0043082	0.00019377	0.0052368	0.0017674	-0.0018252	-0.00097657	-0.00067932
-0.0064243	-0.025359	-0.0077257	0.00119	0.032811	-0.0087919	0.022615	0.0098792	-0.020984	-0.023204	-0.013655	0.013427	-0.0035672	0.0045184	-0.034051	-0.019713	-0.0018718	0.031616	0.012252	0.0065637	0.0099393	0.012029	-0.0075814	0.0098528	-0.0091037	-0.015137	-0.012466	-0.010622	-0.0018279	0.015065	-0.0081551	0.0030021	-0.0051733	0.00095316	-0.0079085	-0.0069642	-0.0055108	-0.0090161	0.0032326	0.0012644	-0.0050132	0.022607	0.0040002	-0.0095439	-0.009454	-0.016136	-0.0084468	-0.0036434	-0.023371	-0.012302	-0.0029221	0.021515	-0.0064103	0.0039412	0.0034305	-0.01591	0.011247	-0.0085019	-0.012508	-0.0051271	-0.010204	-0.0095243	-0.010716	-0.013555	-0.017196	-0.016779	0.011293	-0.055625	0.017963	-0.014325	-0.0062042	-0.0041094	0.026727	-0.0087379	-0.00071201	-0.0052727	-0.016615	0.034263	0.42273	-0.026707	-0.014113	0.017801	-0.014234	0.023424	0.026	0.0058952	0.0038549	0.0033134	0.003722	-0.03046	-0.0058677	-0.021053	0.0034717	-0.013421	0.01582	0.0013022	-0.0046922	0.013761	-0.0036196	-0.008302	0.0012718	-0.022843	0.0003544	0.0022124	0.028936	0.012302	0.0038422	-0.0081052	-0.0076335	0.0072426	-0.0015467	-0.01772	-0.0026048	0.007401	-0.015724	0.031658	-0.00033946	-0.01618	-0.0030614
-0.013906	0.02296	-0.0045536	-0.0081568	-0.012705	0.011974	0.022839	-0.038294	-0.012862	0.0050577	-0.015499	-0.012738	0.0021536	-0.037266	0.0097419	-0.011636	0.011414	-0.01222	0.01274	0.0047499	-0.00019095	-0.01582	-0.00999	-0.040389	0.4174	-0.0019246	-0.022222	-0.046586	-0.019691	0.0044916	-0.0025857	0.015415	0.0075117	-0.0013023	0.0095781	-0.037982	-0.016576	0.012612	-0.0042445	-0.00068856	0.010412	-0.026741	0.0012077	-0.0059523	-0.011034	-0.016257	-0.0049717	-0.0063126	-0.0087954	-0.027296	0.019057	0.0027464	-0.012048	-0.0083216	-0.014929	-0.0092872	0.017187	-0.013364	0.0027454	0.0043111	-0.014404	-0.022867	0.0029205	-0.0042433	-0.012491	0.0070024	0.0064811	0.021089	-0.020732	0.044675	-0.0095938	0.0082283	0.0017676	0.0094238	0.0039751	0.015186	-0.0063679	-0.010317	0.010349	-0.0065566	-0.0081051	-0.0020539	0.0034383	0.0063207	0.0056702	0.02121	-0.0038138	0.0049934	0.0020186	0.0025527	-0.0046461	-0.0048291	0.0026553	0.00016908	0.0024888	0.010968	-0.0075693	-0.0024237	-0.0059275	-0.0013789	0.00075522	-0.01384	0.004539	0.010212	-0.0017797	-0.0090398	-0.0057391	-0.00094516	-0.0068879	-0.01209	-0.00481	0.0064565	-0.010799	0.01453	-0.0025129	-0.011471	0.0033386	-0.033333	-0.012309
-0.010235	0.013739	0.022865	-0.0037227	0.015139	0.02498	-0.021335	-0.021975	-0.021909	-0.00017108	0.012474	0.030089	-0.0026342	-0.044411	-0.013538	-0.016007	-0.0017156	0.023534	0.0028267	-2.1935e-05	-0.0046671	-0.030191	0.0074145	0.39787	0.025638	0.016265	0.021168	-0.01698	-0.10613	-0.016241	-0.018475	0.030611	0.0073392	-0.010772	-0.024143	-0.011897	0.025752	0.028882	-0.0058277	0.010703	0.038324	-0.015126	-0.00049154	0.013749	-0.0036182	0.0084034	-0.0020929	0.0042555	-0.015774	-0.0005589	-0.0054184	-0.00028469	0.011198	-0.0079425	-0.0087522	-0.025636	0.022069	0.0053195	0.0012998	0.0021015	0.0048366	0.0018614	-0.00089093	0.00035928	-0.0038504	0.00017156	0.034512	-0.033024	0.0069257	-0.0046842	0.0023884	0.0081915	0.040176	-0.0055817	-0.0066375	0.0052603	-0.0071184	-0.0063341	-0.01791	-0.0025517	-0.016151	-0.0038209	-0.0062275	0.020305	-0.0071694	0.0079975	0.0072733	0.0022185	0.0086179	0.02177	0.0087496	0.023224	0.0079429	-0.00011058	0.024423	0.0018774	0.00043905	-0.0019768	0.0055033	-0.0053681	-0.0056314	0.004073	-0.016484	0.017254	0.026163	0.0085843	-0.0001081	-0.0040472	0.010939	-0.022208	0.00033157	-0.0029225	0.012461	0.0024371	-0.0027463	-0.0042604	-0.0018812	0.027876	-0.0011529
-0.0011134	0.010883	0.023171	0.018253	-0.0017762	0.015282	-0.00081688	-0.0028304	-0.00417	-0.0024426	-0.0016181	-0.030558	-0.022463	0.049285	-0.050351	0.029931	0.0050228	-0.001058	-0.0032012	-0.0069863	-0.020093	0.033713	-0.017015	0.017867	0.011956	0.0035523	0.0093325	-0.0031879	0.0016281	0.0030001	0.0060311	0.024875	0.010661	0.00303	0.0069709	-0.010192	-0.0058724	-0.00384	-0.015385	0.011616	-0.018885	0.0035556	-0.010351	-0.016932	0.0025357	-0.018582	-0.0091968	-0.0027149	-0.018625	-0.0091449	-0.0063475	0.01331	-0.0026812	0.0076109	-0.016432	0.0048822	0.026585	-0.02266	-0.0032579	0.0063988	-0.012114	-0.0041487	-0.0012863	-0.0035331	-0.0080628	-0.0012808	0.014393	-0.017299	-3.0643e-05	-0.013172	-0.0039707	0.01182	0.027564	-0.0073831	-0.01209	0.014948	0.011678	0.015681	0.0015463	0.042555	0.40865	0.0094589	-0.0011065	0.0072435	-0.001561	0.00027183	0.023008	-0.011857	-0.0073235	-0.018937	0.000535	-0.036969	0.0076737	-0.00015891	0.015327	-0.0050316	0.0023022	0.011933	-0.0033416	0.00029525	-0.024992	0.012176	-0.0086377	-0.030001	-0.0095449	-0.029622	0.00021227	-0.0056658	-0.01297	-0.018351	-0.0086786	0.016484	0.0084596	0.0051759	-0.011318	0.00080866	0.0027072	0.020069	-0.010448
-0.0072491	-0.0059815	0.0019926	-0.0013979	0.0022194	0.0031271	-0.017386	-0.0039152	-0.0113	-0.0025986	0.0042446	0.0040746	-0.0026961	-0.0090955	-0.00095491	-0.0019629	-0.0099492	-0.0093086	-0.015187	-0.0086539	-0.0095047	-0.0053371	0.0032122	-0.003658	-0.018754	0.00061666	-0.0016094	0.00096946	-0.0054733	-0.0058474	-0.0052199	0.0099068	-0.0065743	-0.00083312	0.0033338	-0.00086113	-0.00071125	0.0028572	-0.0089207	-0.00028639	5.3744e-05	-0.0077033	0.0015434	-0.0046917	-0.013651	-0.011812	-0.091121	0.046323	-0.0069461	-0.017267	-0.0013545	0.0086746	-0.0059411	0.0044857	0.08369	0.0022757	0.01844	0.0037142	-0.034067	-0.0036602	-0.017906	0.0065076	0.0026804	-0.019223	-0.0033338	0.0099304	-0.0085729	-0.0087262	0.0015084	0.0068864	-0.014138	-0.016801	-0.017952	0.0074362	-0.012426	-0.0015246	-0.013369	0.0098199	-0.011616	0.0076034	-0.00035343	0.0054396	-0.0050744	0.0034029	0.018341	0.034224	0.038525	0.014997	0.0060557	0.011809	-0.0072812	-0.021723	-0.0016033	0.031387	-0.013953	0.41906	-0.067313	-0.0084298	-0.031293	-0.034659	-0.02877	-0.020008	-0.0065902	-0.014043	-0.0057958	-0.011493	-0.010927	-0.020801	0.00015096	-0.0027664	-0.0028528	-0.0011614	0.00068323	0.00097549	0.00035305	0.0058224	-0.0096235	-0.013446	-0.0096483
-0.0058306	-0.016118	-0.0037585	0.0064187	-0.005284	-0.010761	0.4021	0.0069056	-0.0006195	0.0019691	0.00086142	-0.024012	-0.009539	-0.05149	-0.020439	0.0010839	-0.018767	0.029438	0.00086103	-0.0046208	-0.0035721	-0.012523	-0.032403	0.00038879	-0.025546	-0.002322	0.017374	0.0093124	-0.005659	-0.032858	-0.00058412	0.024849	-0.00023377	0.00052617	0.0021422	0.00051575	-0.0081594	0.0074707	-0.012058	0.012265	0.0034719	0.001485	0.0017726	-0.0073342	0.014482	-8.0237e-05	-0.0059017	0.027713	-0.017108	0.0044577	0.01101	-0.0057672	0.0042285	-0.0043965	0.0026162	0.013829	0.0079493	-0.016863	0.0072419	-0.0087107	-0.01094	0.00017406	0.0053172	-0.0074135	-0.0028538	-0.010702	0.041737	-0.00025399	0.017102	0.015054	0.020177	0.011687	0.022037	0.01336	-0.013538	-0.0077031	0.0020862	0.020109	-0.028926	0.015143	-0.0066783	-0.0012899	-0.015074	0.018004	-0.006896	-0.00014857	0.014953	-0.0052933	-0.0034738	0.020651	0.0061884	0.014209	-0.0045881	-0.019625	0.0067732	0.0081457	-0.012994	0.022965	0.0074748	-0.0035974	-0.010357	-0.0041511	-0.0088662	-0.0022227	0.0042972	0.0041762	0.011414	0.0047728	0.015036	-0.0012922	0.0034109	0.01883	-0.00054962	0.01951	-0.00077191	0.0029996	0.014508	-0.0032168	0.0031427
0.01372	0.016276	-0.010866	-0.00060199	0.021832	-0.014951	0.0043622	0.001392	-0.011174	-0.0082911	-0.0033019	0.00033313	-0.0085981	-0.02171	-0.0080926	0.020878	-0.028083	0.020636	-0.013539	0.0078974	0.01641	-0.00018294	0.0018386	-0.0073077	0.0033329	-0.0068413	-0.012264	-0.0074081	-0.0026677	0.020233	-0.0035091	-0.0012625	-0.0024787	0.0021082	-0.0086127	-0.0087512	-0.0060972	-0.0041968	-0.01233	0.0014512	0.012468	-0.027987	0.010649	-0.014177	-0.0014051	-0.01751	-0.0044074	-0.0012667	-0.013238	-0.014298	-0.0032486	0.01307	-0.0068634	0.0042539	-0.0039105	-0.01402	-0.0077118	0.0057696	-0.00037583	0.0047876	-0.00099455	0.01044	-0.0017661	-0.0037226	-0.0031079	0.018516	0.019861	0.00097748	0.0019247	-0.018896	-0.0041085	-0.0023649	-0.014045	0.0032624	0.0029219	0.024681	0.0042123	0.010431	0.012947	-0.017185	-0.018434	-0.033031	-0.028034	0.017418	0.0030702	0.0084751	0.010512	-0.0046773	-0.0049981	0.026723	0.00022613	-0.058776	0.0087723	-0.0039272	0.014397	0.0069255	-0.012554	-0.038622	0.015814	0.023843	-0.020305	0.39029	-0.045521	-0.0087858	-0.052163	-0.0091683	-0.026528	0.0018816	-0.014744	0.0081415	0.0027897	-0.023404	-0.0097551	-0.00086916	-0.00015405	0.0076914	-0.0066054	-0.0093623	-0.01467
0.0061584	-0.0011641	0.0031017	0.003994	0.017143	0.00071087	0.0065428	-0.010304	-0.0068462	-0.0014787	-0.0028229	-0.011053	-0.0041034	0.015293	0.0058267	-0.00039512	0.0083415	0.0034207	-0.00013067	0.0014764	-0.0018995	-0.004237	-0.0046546	-0.0064001	0.00013134	-0.005067	-0.0076738	0.010779	0.010015	0.013607	0.01711	0.0085161	-0.012561	-0.012597	-0.00026481	-0.0043207	-0.0024352	0.011426	-0.0052767	-0.047266	-0.026895	0.0050764	0.0057089	0.3997	-0.0032633	0.015888	0.0082016	-0.03765	-0.056172	-0.056056	-0.019533	-0.023146	-0.025631	-0.0025509	0.0048586	-0.0016326	0.0062311	-0.015597	0.008741	-0.0018174	-0.0027046	0.0014159	-0.0074508	-0.0018812	-0.011633	0.0037517	-0.0071804	0.0040143	0.0020963	0.013452	0.0040737	0.0057579	0.016635	0.011411	-0.0031764	-0.00045369	-0.0031572	0.0083463	-0.0016319	0.0079052	0.0034327	0.0066547	-0.0074125	0.01504	0.01896	0.0029534	0.0080265	-0.0050959	-0.0057633	0.0036661	-0.0052266	-0.020447	-0.0039523	0.0037526	-0.0051811	0.0038989	-0.0018908	0.01529	0.0021499	0.0047011	-0.024886	0.010112	0.0095256	-0.00047072	-0.0022459	-0.0027369	0.0068532	0.014854	-0.0021016	0.0095165	0.0063245	0.0051422	0.0039217	0.0090529	-0.0012478	0.019597	0.0027984	0.0099153	-0.002759
-0.0067802	-0.0049036	0.00063035	0.013059	-0.003234	-0.020791	-0.010007	0.026972	-0.0096166	-0.0050352	0.0041624	0.0030751	-0.0096091	0.01688	-0.011326	0.026161	-0.016826	0.031534	0.0029367	-0.013996	-0.004228	-0.012563	-0.0055635	-0.0070276	0.016556	-0.017995	0.032622	-0.010144	0.0076036	-0.00029669	0.041215	0.025065	0.0051491	-0.01198	-0.0059735	-0.00058679	-0.0054653	-0.0070977	0.004332	-0.0078891	-0.013624	-0.022097	0.0027635	0.0015608	0.0062213	-0.01261	-0.004424	0.0055127	-0.025223	-0.026044	-0.0057794	-0.030848	0.02187	-0.0095353	0.0036288	0.0094191	-0.013369	-0.0066169	0.0077502	0.0041969	0.00044927	0.014554	0.0067238	0.015937	0.38178	-0.0097592	0.0082633	-0.057689	-0.009345	0.015485	-0.016515	0.0015265	0.025484	-0.026733	-0.011434	0.0018674	-0.0065696	-0.0087383	0.0071364	0.020504	-0.0019177	-0.036034	-0.038318	0.032381	-0.0088779	-0.024499	-0.0024333	0.0024385	-0.0012086	0.0058785	-0.019329	0.025054	-0.010184	-0.02845	-0.025304	0.0082358	0.0047012	0.0022176	0.0026577	0.013202	0.00027953	0.00041091	0.0080241	0.035711	0.016512	-0.0055351	-0.013182	-0.0011918	-0.01433	-0.0084954	-0.0038203	0.008948	0.0055508	0.0036127	-0.0026113	-0.0022636	-0.0063877	-0.005634	-0.0075847
0.015502	-0.0056589	0.002219	-0.012256	-0.0033251	-0.0053717	-0.018616	-0.026578	-0.013928	0.00014782	-0.005886	-0.0091114	0.00070836	0.016972	-0.0059675	-0.0051586	-0.014947	0.038484	-0.014732	0.01053	0.010545	0.02963	0.015127	-0.0047526	0.012868	0.010845	0.0039488	0.015184	0.0052773	-0.012003	-0.012074	0.0017669	0.007682	-0.034189	0.0021651	0.0081069	-0.022104	0.011907	0.01827	0.0023225	-0.016211	0.017148	8.8197e-06	-0.0073354	0.020982	-0.010665	-0.0028559	0.016664	-0.013319	0.0033265	0.013135	-0.015611	0.011578	-0.0027063	0.0048935	-0.032844	-0.012273	0.0056717	-0.0152	0.010985	-0.013813	0.0049821	0.001175	-0.0074677	0.021876	-0.016003	0.014877	0.0033276	0.014274	-0.0011124	-0.0056958	-0.0033288	0.0081399	0.0052681	0.0030958	0.0061209	0.010141	0.010611	-0.0095534	-0.0097808	-0.013959	-0.018706	-0.013824	0.037881	0.019698	0.0018239	0.012322	-0.010581	-0.0017144	0.018884	0.01342	0.0082523	-0.0030005	0.010663	0.06243	-0.0050277	-0.005667	-0.040206	-0.018507	-0.062231	-0.016818	0.0014143	-0.020434	-0.063862	-0.053907	-0.022548	0.35858	0.0054168	0.0014677	0.0084184	-0.014391	-0.017972	-0.014612	-0.024528	-0.01732	0.01601	0.058183	0.01246	0.0024948
-0.031772	-0.023219	-0.0058126	0.036112	-0.025306	0.013116	0.016492	-0.0085327	-0.013035	-0.011998	-0.0045447	0.010198	0.011277	0.016044	0.0023048	-0.011565	0.37714	-0.061702	-0.0029304	-0.013447	0.024075	-0.010106	0.022515	0.0075651	-0.016638	-0.0032827	-0.019275	0.0025918	0.012102	0.034285	0.015821	0.013001	-0.0067843	0.018804	-0.00054154	-0.0081743	-0.0177	0.0032832	-0.017335	-0.003762	-0.018668	-0.0021017	0.0094406	-0.010343	0.0072197	-0.0070395	-0.0088681	0.018266	-0.0072706	-0.0031964	0.021164	8.7039e-05	0.0053182	-0.012659	-0.0014451	-0.0066029	-0.0083846	0.012265	-0.0045965	0.0081829	0.0090866	-0.013951	0.00073623	-0.011717	0.016971	-0.021794	0.025493	0.0013356	0.010134	-0.0047997	-0.0051821	0.0092064	0.02138	0.0069237	0.0047885	0.0069471	-0.0079773	-0.0009619	-0.0015483	-0.011401	-0.0046376	-0.013413	0.017244	0.014242	0.00047343	-0.0080767	0.015065	-0.0035499	-0.0024153	0.02685	-0.0010847	-0.011361	0.0082712	-0.020035	0.018445	0.0063828	-0.016054	0.00072647	0.0012263	-0.0033408	0.013867	0.023549	0.0026103	0.025296	-0.01448	0.0073528	0.014081	0.012706	0.0046103	0.0037553	0.00073605	-0.0046761	-0.0063314	0.011042	0.0078254	0.0053614	0.006077	-0.0010432	-0.019119
-0.0071794	0.0053825	0.031728	0.01693	0.0083459	0.010356	-0.0085659	0.0026671	-0.0049175	-0.0052275	0.0035526	0.022212	0.0093538	0.053466	0.0048059	-0.005997	-0.019061	0.015089	-0.0050771	-0.0079391	-0.014824	0.0081673	-0.0062206	0.0068802	0.011446	0.014924	0.0045119	-0.0071397	0.10462	-0.10096	-0.10474	-0.020687	0.025422	0.33248	-0.053911	-0.0068112	8.8255e-06	0.018917	-0.0080735	-0.0063698	0.014707	-0.0032157	0.011984	0.010228	0.0141	0.016254	-0.0025579	0.0050413	-9.9468e-05	-0.0072378	0.006925	0.011587	-0.0046174	-0.0032749	-0.015364	-0.0028055	0.010746	-0.017332	0.006247	0.010874	0.0081443	0.005203	-0.0018997	-0.0030388	0.0080848	-0.016255	0.011387	0.0017401	0.0022618	0.0080751	-0.00015389	0.0082312	0.031884	-0.008239	0.0043101	0.0061123	-0.01021	0.0065485	-0.0015649	-0.00055523	-0.0089578	-0.0036659	0.0096193	0.032026	0.00016825	0.015597	0.0092077	0.0010978	0.0058748	0.011728	-0.012127	0.019925	0.0017644	-0.0095605	0.015082	0.0087739	-0.0038088	0.011908	0.0041346	0.0035837	0.0010554	0.0065857	0.0042707	0.04195	-0.016675	-0.009306	0.015129	0.019053	0.0081992	-0.014229	0.018958	-0.011654	0.005392	0.0022213	0.0080015	0.0047224	0.016345	0.027033	0.0014766
0.0046213	0.018866	0.016855	0.0074017	-0.023381	0.014299	-0.0034954	0.014885	0.018981	-0.0029822	0.0089959	0.0063493	-0.0036929	0.035181	0.018693	0.0061288	0.0013561	0.022922	-0.0056617	-0.012955	0.0026645	0.0058066	-0.0028751	-0.0067751	0.0052056	0.0011412	0.0013886	0.023316	0.029272	0.0018821	-0.0019466	-0.037464	0.010648	-0.031727	-0.048674	0.012186	0.0077016	0.021818	0.028425	0.36594	-0.02953	-0.048141	0.022106	0.025243	-0.057406	-0.018906	-0.00091801	0.0016103	-0.023578	-0.0276	-0.023182	-0.0073477	-0.0030155	-0.0034266	-0.0021793	-0.0028578	0.01406	-0.010513	0.0046483	0.001502	0.0065981	0.003656	0.00097415	0.0018158	-0.0054691	-0.017353	0.0091925	0.010699	0.00070926	-0.0014314	-0.0030212	0.0069345	0.026947	0.0001043	-0.0059484	-0.0052231	-0.002694	-0.0090528	-0.00063552	0.013199	-0.017182	-0.0022929	0.034153	0.016023	0.0044509	-0.0044218	0.0092386	-0.0011529	-0.00069543	0.0047665	-0.0083718	-0.01811	0.0091017	0.0029983	0.0079746	0.0010499	-0.0023903	-0.0011132	-0.0039853	0.0030176	-0.0081485	-0.004965	-0.0082015	0.034326	-0.0069568	0.01172	-0.0048498	0.019757	-0.013744	0.014662	0.0040784	0.019949	0.00056555	-0.011473	-0.021985	0.024754	-0.009906	0.0084969	0.0055576
-0.0043214	-0.0016748	0.0052602	-0.0017449	0.0096786	0.0024797	-0.0030918	-0.017866	-0.083786	-0.0093445	-0.019861	-0.022857	0.0051648	0.0017426	0.0013088	-0.002049	0.012903	0.00094286	-0.0010908	-0.0047844	0.0077799	0.00012547	-0.0020751	0.0043592	-0.00032677	-0.01152	-0.012828	0.00058346	0.004551	0.0058569	0.0013472	0.0024445	0.0024635	0.0039925	0.0003244	-0.00029828	-0.0021181	-0.0020726	0.0024067	0.00096248	-0.0063365	0.00078583	0.0079778	-0.00036798	0.0017587	-0.00073334	0.0023608	0.0030959	0.00025068	0.00035511	0.007983	0.00096209	0.0028964	-0.0046742	0.0013798	0.0051118	0.006175	-0.0072327	0.00094479	-0.0032251	-0.0069828	-0.0060149	-0.00072561	0.0026511	0.0059641	2.1905e-05	-0.0027637	0.0062792	0.004651	-0.00019112	0.0045067	0.0022419	0.0033367	0.0015787	0.00028091	-0.0029588	-0.00095767	0.00052735	-0.0047461	-0.0012367	0.0060732	0.00096739	-0.0014174	0.0058528	0.0031979	-0.0029381	0.0044511	-0.0017776	-0.00068507	-0.0027917	-0.0022651	-0.003099	0.0051262	-0.0038924	0.0034962	0.005349	-0.0035361	-0.0062519	0.00029497	0.0034824	-0.0055575	0.0091945	0.0039026	0.00027553	-0.00017479	0.0022663	-0.0044797	-0.0058813	-0.041413	-0.024527	-0.0047793	0.00094033	0.00071177	0.0013366	0.0044004	-0.0074173	-0.0059007	-0.052866	0.38785
-0.01385	-0.0093411	0.012812	0.014093	0.014683	-0.0096773	0.0054611	0.011691	0.0049022	0.0088648	0.0016343	-0.019822	0.001774	0.0058554	-0.012208	0.00079687	-0.0037586	0.00068037	0.0041769	-0.010929	0.0073801	0.0097313	-0.015216	0.0051536	-0.0065608	0.0065048	0.0041884	-0.0042675	-0.0051923	0.0087384	0.0036813	-0.012794	-0.0053033	0.0031588	-0.0053834	0.01861	0.0049528	0.010991	0.0027603	0.0008863	0.0072266	-0.013019	-0.0023533	-0.0032326	-0.00066664	-0.0014391	-0.0053797	-0.0025639	-0.010566	0.0087163	-0.009296	0.0050313	-0.023797	-0.014657	0.013814	0.01133	-0.027336	-0.022954	0.0062192	-0.011534	-0.013711	0.010067	-0.0063428	-0.022057	-0.0032881	0.016062	-0.012756	-0.012611	0.021817	-0.02039	0.0067818	-0.0010884	-0.016836	-0.017368	0.003109	0.36143	0.018296	-0.0057495	-0.0040024	0.011238	-0.020266	-0.014857	-0.017357	-0.020152	-0.013995	-0.014996	0.0036181	0.0029313	-0.00038135	0.026115	-0.00032264	-0.085369	-0.041472	0.0065557	0.01361	-0.0055233	-9.4514e-05	0.019435	-0.012154	0.039119	0.0029652	-0.043343	-0.01444	0.018115	0.0081172	-0.011839	0.0067881	-0.0064872	-0.00018206	0.0051407	0.018898	-0.023657	-0.0036612	-0.0056986	-0.0058619	-0.0018697	0.0051528	-0.020762	0.0028052
0.012069	0.017021	0.015741	-0.019135	0.0065657	-0.024571	-0.010313	0.005522	-0.011956	-0.012524	-0.0021896	-0.0008012	0.35515	-0.097829	-0.01299	-0.0086609	-0.0038495	-0.006233	0.0084152	-0.013188	-0.0059284	-0.016726	-0.024816	-0.015118	-0.01459	0.025088	0.0062887	-0.0031509	-0.0007482	0.0029219	0.0093379	-0.0029004	-0.0064877	0.0036148	-0.0022528	0.0014222	0.0090732	0.0037436	-0.0035283	0.017773	0.013522	-0.00068159	0.018195	0.0062409	0.010689	0.0085625	-0.0015914	0.0042245	-0.0060429	-0.01131	0.013836	0.0086502	-0.0089794	-0.020615	0.0059368	-0.00083367	0.024262	-0.016054	0.002156	-0.008113	-0.0014357	0.0046811	-0.0049901	-0.024647	0.0050953	-0.014638	-0.011108	-0.014924	-0.01035	0.005664	-0.0051229	-5.868e-05	0.0055513	0.00015325	-0.0048723	0.0069069	-0.033925	0.0093289	7.1527e-05	-0.0099006	0.030767	-0.0373	-0.0084811	0.013222	0.0084208	-0.0054606	0.0035353	0.0015298	0.0036297	-0.0095462	0.0038575	0.016132	0.0078065	0.0010183	0.0011102	-0.0034895	0.0049837	-0.0091327	0.0072605	0.010722	0.0078957	0.00047453	-0.001851	-0.020017	0.00033105	0.0030576	0.0051359	0.0036812	-0.012884	0.008563	-0.0096962	0.015053	-0.0021914	0.015755	0.016689	-0.0029735	-0.0044326	0.0049995	-0.008481
0.0042731	0.0097502	0.015273	-0.0052092	0.0043905	-0.0089748	-0.0070022	-0.0075325	-0.016869	0.0026259	0.00053554	-0.014251	-0.0042103	0.0016086	0.012995	-0.0074931	-0.0061	0.0211	-0.0060717	0.0068572	0.002178	-0.013487	-0.00064924	-0.0046317	0.0051431	0.0091108	-0.0074299	-0.0036603	0.011615	0.0091355	-0.012464	0.01849	0.0040454	0.0052687	0.0028401	-0.0019531	-0.012038	-0.0060154	-0.011515	-0.0077019	-0.014767	0.017701	-0.0050422	-0.0002553	0.0034656	0.003424	-0.0028075	0.014835	-0.01599	0.0085416	-0.014078	0.010572	-0.0042521	-0.019189	0.014079	0.0028076	0.0042801	0.009546	-0.0089912	0.013888	-0.0042822	-0.0091783	0.00466	0.0042231	0.019242	-0.0077533	-0.0055302	0.021446	0.0090658	0.013638	0.011316	-0.0023398	-0.00079594	0.0056163	0.00015357	0.014454	0.0057121	1.7887e-05	-0.0021325	0.015154	0.016263	-0.01359	0.0023591	-0.0010216	-0.010569	0.016623	0.013574	-0.00091264	-0.0017073	0.010335	-0.0079613	0.0020975	-0.010676	0.012884	0.044058	-0.007888	-0.0077723	-0.033168	-0.010874	-0.019426	-0.029023	-0.014514	-0.035621	-0.043976	-0.063888	0.3418	-0.029327	0.0081914	0.015444	-0.0021836	-0.0018296	-0.015237	0.0013544	-0.0096328	-0.015831	0.0035289	0.013679	0.003654	-0.0063194
