-0.23632	-0.34778	-0.066126	0.37122	0.84841	0.21159	0.10321	-0.022717	0.013936	0.012324	0.26502	0.28743	0.013531	0.048944	0.21922	0.37695	0.14191	-0.034371	-0.03982	-0.05497	-0.039898	-0.027424	-0.014392	0.10537	0.13024	-0.017366	-0.14229	-0.05601	-0.028763	-0.01684	-0.028589	-0.038894	-0.095652	-0.024501	0.0022262	-0.025916	-0.015235	-0.034715	-0.024623	-0.027733	-0.071608	-0.075532	-0.028629	-0.028291	-0.075911	-0.04715	-0.049784	-0.081207	-0.019365	-0.061697	-0.038133	0.020799	-0.058756	-0.040605	-0.0047965	-0.055991	-0.04379	-0.024798	-0.034903	-0.031698	-0.032416	-0.10815	-0.047971	-0.089141	-0.092478	-0.057816	-0.032988	-0.036648	-0.014418	-0.032258	-0.039631	-0.039345	-0.058785	-0.043773	-0.10669	-0.060267	-0.14274	-0.1017	-0.12517	-0.022501	-0.13201	-0.075629	-0.027919	-0.049394	-0.028809	-0.045346	-0.044332	-0.056131	-0.071644	-0.056359	-0.057339	-0.057873	-0.071479	-0.067436	-0.069392	-0.099034	-0.046184	0.015357	-0.010351	0.011663	-0.040504	-0.036509	-0.0035816	-0.043843	0.02933	-0.020671	-0.011119	-0.081377	-0.062674	-0.045312	-0.037734	0.14441	0.28038	0.4253	-0.03252	-0.080513
0.34938	0.79372	0.2835	0.22102	0.040353	0.017828	-0.057789	-0.038645	-0.0013341	0.16302	0.1684	0.13563	0.4112	0.27514	0.062864	-0.0045642	-0.0094881	-0.016105	-0.079866	-0.10389	-0.034434	-0.059451	-0.054684	-0.061143	-0.080662	-0.056357	-0.001259	-0.049331	-0.061369	-0.070968	-0.06828	-0.0010838	-0.021281	-0.050246	-0.10298	0.095526	-0.0015698	-0.0076072	-0.07794	-0.079165	-0.19432	-0.097001	-0.06851	-0.035454	-0.04386	-0.021948	-0.010404	-0.024518	-0.072623	-0.056999	-0.056973	-0.064851	-0.047317	-0.036282	-0.032474	-0.032895	-0.041294	-0.04219	-0.057058	0.027858	-0.06657	-0.064984	-0.13534	0.3122	-0.20454	-0.079042	-0.057176	-0.047862	-0.039284	-0.037085	-0.032853	-0.0589	-0.027527	-0.0009996	-0.027238	-0.0080315	-0.12489	-0.14283	0.091442	-0.14584	-0.064168	-0.023546	-0.01692	-0.011889	-0.03333	-0.023173	-0.033572	-0.022098	-0.020205	-0.030298	-0.039004	-0.050117	-0.037378	0.0019562	-0.059873	-0.10138	-0.072596	0.039861	0.027492	0.030229	-0.039957	0.044112	0.14626	0.037123	-0.026087	-0.025979	-0.039269	-0.097214	-0.12931	-0.04266	0.015049	0.0091186	-0.059975	-0.019604	-0.053669	-0.078163
-0.14818	-0.15424	-0.003078	-0.086652	-0.076277	-0.036306	-0.13736	-0.033324	-0.063662	-0.055167	-0.036251	-0.047427	-0.097909	0.0045851	-0.047587	-0.043664	-0.059305	-0.061745	-0.054697	0.073087	-0.046208	-0.033985	-0.072912	-0.030982	-0.033113	-0.018087	-0.068962	-0.034361	-0.011847	-0.023709	-0.038221	-0.029582	-0.032262	-0.045436	-0.066546	0.041059	-0.014564	-0.012919	-0.056997	-0.07758	-0.18594	-0.12095	-0.085371	-0.063559	-0.038434	-0.039108	-0.023457	-0.028368	-0.099961	-0.041116	-0.048394	-0.080131	-0.04673	-0.027835	-0.046317	-0.043244	-0.084462	-0.04718	-0.027924	0.02546	-0.00096391	-0.10346	-0.059801	-0.037618	-0.14385	-0.10452	-0.011935	-0.022878	0.015623	-0.020082	-0.020393	0.028587	0.028412	0.025275	-0.029888	-0.1012	-0.11961	-0.17457	-0.096884	-0.021087	-0.087361	-0.001836	0.051575	0.072232	0.038055	0.04419	0.084207	0.11719	0.13261	0.090265	0.076581	0.10485	0.13345	0.22105	0.12096	0.045215	0.21299	0.54205	0.42907	0.29519	0.13616	0.047869	0.16188	0.21028	0.18919	0.2782	0.17528	-0.056062	-0.12346	0.046929	0.17916	0.07217	-0.0091541	-0.0099895	-0.047523	-0.026828
-0.15788	-0.14875	-0.011754	-0.026536	-0.00051854	-0.025793	-0.019297	-0.030444	-0.020003	0.006353	-0.0080493	-0.058618	-0.10579	0.093719	-0.088375	-0.099252	-0.093254	-0.054972	-0.051728	-0.082743	-0.060108	-0.060622	-0.044794	-0.011776	-0.046274	0.18109	0.15001	-0.0020568	-0.098607	-0.097748	0.04489	0.23215	0.25609	0.14259	0.19448	0.53146	0.21927	0.25921	0.14624	-0.0044321	-0.16923	-0.097038	-0.037135	0.064918	0.11913	0.10064	0.14702	0.055071	0.07965	0.054077	0.019584	-0.035987	0.056587	0.06182	0.096318	0.093635	-0.0085028	0.03552	0.12896	0.17533	0.1685	-0.047156	-0.099392	0.057641	-0.17824	-0.057136	0.036034	0.066886	0.034208	-0.0070596	-0.056176	-0.075174	-0.030104	-0.055138	-0.031464	-0.094159	-0.12944	-0.054269	-0.063214	-0.04363	-0.095715	-0.049795	-0.072518	-0.056806	-0.054349	-0.097379	-0.067911	-0.081959	-0.052107	-0.056387	-0.054713	-0.06865	-0.057693	-0.087033	-0.12104	-0.17938	-0.069582	-0.066847	-0.010146	-0.0038783	0.0038564	-0.0086618	0.015552	0.03362	3.5759e-05	-0.0076916	-0.062249	-0.03862	-0.065354	-0.047903	-0.024824	-0.020719	-0.043515	-0.052441	-0.033596	-0.0073772
-0.084994	-0.072181	0.18322	-0.023417	-0.0081463	-0.010084	-0.0070537	-0.039288	0.018451	0.0094523	-0.0063935	-0.022378	-0.063947	-0.010887	-0.035201	0.0032555	-0.027657	-0.017559	-0.043089	-0.07643	-0.049556	-0.04063	-0.030767	0.028258	0.012664	-0.015842	-0.012177	-0.038955	-0.058793	-0.054467	-0.042106	-0.023587	-0.0077239	-0.0060873	0.02009	-0.0086797	-0.0080966	-0.016217	-0.057175	-0.037182	-0.059853	-0.059117	-0.055022	-0.027104	-0.041945	-0.025471	-0.015292	-0.06129	-0.03102	-0.024525	-0.032994	-0.057275	-0.024038	-0.036703	-0.020336	-0.0448	-0.023285	-0.046281	-0.0070712	-0.020412	-0.07107	-0.15053	-0.093442	-0.059548	-0.19518	-0.11055	-0.082573	-0.044598	-0.03721	-0.041716	-0.030583	-0.020534	-0.023102	-0.051798	-0.017582	-0.034154	0.1143	0.40481	0.38982	0.54879	0.26601	0.077445	-0.017279	-0.008034	0.0044234	0.013138	-0.033272	-0.011221	0.0084356	0.031131	0.17064	0.09197	0.02344	-0.053378	-0.080761	-0.10953	-0.090215	-0.13563	-0.050595	0.071426	0.16898	0.30121	0.18098	0.093326	0.03246	-0.010682	-0.051913	-0.063265	-0.062569	-0.063153	-0.013842	0.034244	0.039824	0.023542	-0.046446	-0.05667
-0.055619	-0.075068	-0.11364	-0.20877	-0.23364	-0.057107	-0.075019	0.0039444	0.015525	0.054208	0.059067	0.16814	0.028868	0.35819	0.36485	0.30783	0.14673	0.080956	0.028061	-0.038657	0.018177	0.041746	0.11491	0.20431	0.30035	0.10791	0.044002	0.018273	0.0070756	-0.018291	0.0040628	-0.036867	0.017095	0.117	0.20987	-0.031417	0.016619	-0.0082475	-0.053562	-0.039482	-0.062342	-0.047088	-0.043553	-0.038306	-0.061773	-0.031533	-0.03092	-0.056007	-0.059304	-0.031242	-0.030068	-0.026571	-0.031329	-0.034456	-0.022101	-0.055104	-0.017973	-0.009258	-0.01234	-0.042082	-0.019131	-0.046998	-0.043451	0.013604	-0.048002	-0.04469	-0.011486	-0.02213	-0.018739	-0.013338	0.003558	0.0019245	-0.010749	0.0082121	-0.015605	0.015362	-0.012034	-0.027195	-0.027169	0.070927	-0.010708	-0.021375	-0.0018036	-0.010747	-0.0076595	0.024393	0.0034895	0.011876	-0.013122	-0.011389	-0.0085269	-0.0023972	-0.0066987	0.016415	0.029238	0.0070719	-0.0017393	0.00763	0.012183	-0.003134	-0.019977	-0.036112	-0.087478	-0.053331	-0.038015	-0.000996	-0.012328	-0.0023892	0.013466	-0.02383	-0.043968	-0.10129	-0.22769	-0.21152	-0.043814	-0.023882
-0.039261	-0.058465	-0.005442	-0.089297	0.02902	0.0010423	-0.031915	-0.042399	-0.043208	-0.032718	0.010227	-0.0024038	-0.010004	0.0029785	-0.036347	0.0012585	-0.031884	-0.030595	-0.066197	-0.1359	-0.036472	-0.042044	0.028673	-0.006993	-0.019109	-0.034272	0.033261	-0.032531	-0.047227	-0.05069	0.0003843	-0.025727	0.030659	-0.01986	-0.029941	-0.017674	-0.023089	-0.0038774	-0.025417	-0.034815	-0.036885	-0.038882	-0.048417	-0.038368	-0.052362	-0.047498	-0.0003043	-0.03884	-0.080423	-0.030757	-0.032776	-0.048022	-0.039568	0.025415	0.0048838	-0.013984	-0.051496	0.031958	0.049127	0.072528	-0.031439	-0.076141	0.071349	-0.01688	-0.073809	0.039972	0.033471	0.12797	0.11275	0.0013391	-0.056738	0.0030199	0.055431	0.14263	0.22224	0.76662	-0.052569	-0.060222	-0.0063363	-0.00069731	-0.18997	0.11176	0.15424	0.096832	0.037818	-0.016538	-0.039554	0.029028	0.016719	0.063539	0.010463	-0.013285	0.0042314	-0.041935	-0.014481	-0.06229	-0.04658	-0.085191	-0.065047	-0.028272	0.096175	-0.039542	0.075646	0.051075	0.0038121	-0.0012698	0.0048274	-0.0083586	-0.0059345	-0.016154	0.012101	0.011636	0.013919	-0.00032587	-0.0067492	-0.0018684
-0.059896	0.031016	0.028489	0.040926	0.10414	0.0095854	0.0093153	-0.01666	-0.004104	-0.12161	-0.014523	0.032909	0.018109	0.011983	0.028119	-0.010454	-0.017027	0.0086782	0.0055225	0.011425	-0.0074872	-0.0077693	-0.0034918	0.017679	-0.0073231	-0.044246	-0.079454	-0.024371	-0.018727	-0.011094	-0.049907	0.0044927	-0.019428	-0.047006	-0.05745	-0.011284	-0.0044493	-0.0048031	-0.025394	-0.018798	-0.053894	-0.0094237	0.0033573	-0.0064371	-0.027307	0.015472	-0.01027	0.011178	0.011298	0.0075856	-0.0010792	0.0043041	0.034728	0.030026	0.031725	0.010884	-0.050137	0.030222	0.067871	-0.031004	-0.099023	-0.042916	0.086565	0.014258	-0.058418	0.03359	0.75204	0.1201	0.10666	0.074753	0.040544	0.0046059	0.04836	0.05076	0.08132	-0.14466	-0.0026294	-0.016915	0.023686	0.066784	0.049882	0.026499	0.025766	0.045367	0.038536	-0.045792	-0.045157	0.0099182	0.022971	0.0098402	0.015835	0.0020514	0.0071339	-0.014224	-0.019733	0.023876	-0.012163	-0.0133	0.019641	0.016246	-0.020987	-0.0016956	0.029889	-0.025531	-0.017468	-0.0144	-0.01826	-0.029732	0.043628	-0.039478	-0.04957	-0.047377	-0.16894	-0.087761	-0.013207	-0.0087845
0.023616	0.049471	-0.023123	0.035561	0.06183	-0.018963	-0.032909	-0.022198	-0.018179	-0.014541	-0.01629	0.036802	0.018312	0.11923	0.040602	0.0097661	-0.045487	-0.015632	-0.019348	0.035186	-0.024632	-0.025562	-0.034402	-0.033754	-0.04319	-0.045021	-0.085556	-0.02678	-0.020232	-0.023755	-0.023994	-0.019823	-0.0071902	-0.030091	-0.065016	-0.23049	-0.037639	-0.038592	0.042794	-0.017796	-0.069711	-0.031559	0.0017173	-0.0092675	-0.023931	0.048747	0.011042	-0.019081	-0.040201	0.039028	0.02197	-0.0071149	0.050641	0.052677	0.067198	0.10078	0.027945	0.030553	0.092242	0.025587	0.68562	0.040002	0.15878	-0.12486	-0.070855	0.059345	-0.065245	0.091897	0.038751	0.018268	0.0015919	-0.0053071	-0.013311	0.00012748	0.018021	-0.035073	-0.02296	-7.7845e-05	0.037534	0.12714	-0.032399	-0.012019	-0.041825	0.021341	-0.0071332	-0.026936	-0.0087547	0.011354	-0.019971	-0.012293	0.0064846	-0.0018928	0.012725	0.02517	0.01839	-0.021076	0.0068427	0.018872	0.0047088	-0.016618	-0.014721	0.0057876	0.015021	0.0020602	-0.026768	-0.00584	-0.016366	0.0046527	0.017291	0.0029548	-0.016795	-0.042781	-0.072886	-0.042992	-0.022083	-0.0299
-0.042932	0.043146	0.031754	0.011682	0.21609	-0.0074667	-0.0073999	0.007043	-0.043804	-0.10484	0.037838	0.022634	0.066888	0.054394	-0.053424	0.0015316	-0.021696	-0.0065686	0.0084229	0.1741	-0.0041383	0.015025	-0.054648	-0.026063	-0.026794	0.043195	0.039551	0.041267	0.038178	0.049827	0.066241	0.062089	0.028839	0.024023	-0.0051075	0.090533	0.024027	0.043432	-0.022434	0.055468	0.34106	0.078606	0.033488	0.038354	0.0048787	0.050067	0.023393	-0.043838	-0.011583	0.0088177	0.042742	0.06736	0.01379	0.018757	-0.01114	-0.013522	0.12044	-0.0048113	-0.013585	-0.097391	-0.016951	-0.14166	-0.042829	0.084859	-0.20046	-0.045522	-0.099431	-0.011232	-0.025471	0.01181	0.040585	0.01102	-0.0015553	0.018624	-0.012553	0.05733	-0.043265	-0.051994	0.015161	0.12191	-0.032314	0.0065087	0.024504	0.022533	0.00059546	0.060677	0.050244	0.060766	0.030858	0.029241	0.027778	0.019465	0.017507	0.043695	0.098875	-0.10235	0.032445	0.024009	0.059801	0.017213	-0.032801	-0.0028222	0.057018	-0.047487	-0.0014252	0.016671	0.068925	0.031937	0.40545	0.023772	-0.028887	-0.048145	-0.17319	-0.10929	0.040966	0.0073935
0.047443	-0.065525	-0.014336	0.010764	0.0049661	-0.0095579	-0.00070857	-0.014307	-0.016265	-0.012117	0.010214	0.009173	-0.0063197	0.0028472	0.0016762	0.0018124	0.014251	-0.0019836	-0.020798	-0.0082176	-0.009524	0.0054298	0.0071517	-0.0017975	0.0044995	0.00012751	-0.0046198	-0.013859	-0.016479	-0.014191	-0.0064788	-0.010011	-0.0063094	-0.00051914	-0.010563	0.071749	0.052345	0.021725	-0.037663	-0.024997	-0.020695	-0.043693	-0.035905	-0.023097	0.0031356	0.046192	0.19928	0.12217	-0.075379	-0.03384	-0.028024	-0.038447	-0.042239	-0.017339	-0.034616	0.0030698	-0.0018395	-0.020694	-0.050928	-0.070097	-0.10815	0.077055	0.63407	0.15527	-0.068386	-0.0053003	-0.076348	-0.038338	-0.029911	-0.022977	-0.0091098	0.00054148	-0.0068882	-0.032926	-0.031678	-0.032881	-0.046859	-0.022713	0.036248	0.046412	0.017055	-0.033654	-0.00091935	-0.010481	0.0068011	0.035209	0.0048306	0.0052025	-0.0023116	-0.018437	-0.0018336	-0.015501	-0.016776	0.019267	-0.0037017	-0.0045257	-0.0066725	-0.0028869	-0.0037199	-0.0040121	0.0093005	0.018565	-0.005196	-0.0069335	0.0017636	0.0069023	0.0063727	-0.015405	-0.0023339	-0.019216	-0.0032607	-0.014242	0.0029473	-0.0077821	0.00020319	-0.01663
-0.029287	-0.031746	-0.040011	0.061776	0.061488	-0.022297	-0.04547	-0.011501	0.0087838	-0.044755	0.01538	-0.033328	0.0061405	0.033233	-0.026594	-0.013011	0.0063575	0.03922	-0.018061	-0.028628	-0.010049	-0.014901	-0.04084	0.015972	0.02022	0.0016911	-0.0038563	-0.014439	-0.012875	-0.016011	-0.030411	-0.0019572	-0.025288	-0.0015513	0.014433	0.042883	0.021373	-0.011216	-0.016218	-0.018783	-0.01491	-0.028638	-0.0060176	-0.0075884	-0.022096	-0.0096976	-0.0012576	-0.022197	-0.013655	-0.0071231	-0.012745	-0.019883	0.013685	0.00089208	0.013062	-0.0043369	-0.035724	0.0044561	0.011715	-0.013621	0.046823	0.0017055	-0.0036566	0.0076562	-0.055702	-0.011436	-0.075714	0.02966	-0.0011711	-0.0067153	-0.016399	-0.016535	0.0048767	0.05406	0.060511	0.016848	-0.0084885	-0.090003	-0.060657	-0.19872	0.50936	0.11706	0.079481	0.050983	0.0084627	-0.015685	0.019888	0.014493	0.075146	0.1095	0.068276	0.065082	0.047674	0.02101	-0.021478	-0.039632	-0.021613	-0.0096572	-0.014701	-0.029498	-0.0040555	-0.035868	-0.058591	-0.054148	-0.034942	-0.027043	-0.022913	-0.014	-0.0098758	0.0030014	-0.023154	-0.017492	-0.015896	-0.028706	0.0072654	-0.012958
-0.053177	0.025226	0.048256	0.013241	0.12941	-0.015336	-0.003594	-0.012247	-0.036273	-0.064875	0.049929	0.015984	0.02374	0.0094264	-0.038757	0.006607	-0.012447	-0.015509	-0.016471	0.022929	-0.031243	0.0069154	-0.0090394	0.00194	-0.031657	0.0040211	-0.02487	-0.01364	-0.00177	-0.02125	-0.015275	-0.0081698	0.018738	-0.0025417	0.0020957	0.073732	0.00017067	0.021622	-0.011327	-0.025077	-0.076387	-0.025393	-0.016972	-0.0085115	0.01541	0.0080035	0.0061711	-0.0027006	-0.035659	-0.022211	-0.012183	-0.0074611	-0.0089278	0.0079336	-0.015199	-0.0069905	-0.026189	0.0073799	0.013672	0.042002	-0.012018	-0.081252	0.005878	0.037563	0.47401	0.028274	-0.091862	0.016922	0.021572	0.014969	-0.0010106	0.0051035	0.010203	0.021394	0.0046766	-0.0051944	-0.097943	-0.0025704	0.028057	0.10742	0.013082	-0.0078613	0.016487	0.00086526	0.011058	0.0015488	-0.0023745	0.0010776	0.0072393	0.023954	0.027781	0.031654	0.0099963	-0.0032056	-0.0068367	0.01257	0.0079138	0.0041716	0.018698	0.0068043	0.010159	0.0071811	-0.014929	-0.010977	-0.016201	-0.015114	0.0064489	-0.011222	-0.011572	-0.011737	-0.0027537	-0.041907	-0.14902	-0.10223	-0.011524	-0.0033603
-0.041813	-0.084943	-0.0099829	-0.061784	-0.018091	0.036377	0.03802	0.046946	0.11314	0.33801	0.28772	0.094034	-0.028733	-0.088186	-0.10386	0.00068575	0.10576	0.085992	0.030717	-0.050374	0.010292	0.018418	0.020793	-0.054081	-0.12478	-0.057994	-0.024953	0.012775	0.019317	0.024543	0.016405	0.039663	-0.0093378	-0.055588	-0.10781	0.015867	-0.0069531	0.0036333	0.030889	0.012825	0.012467	0.017712	0.009477	0.0093488	0.0069129	0.012479	-0.0045509	0.014509	0.0095817	0.0024576	0.0027215	0.014959	0.0070547	0.017584	0.0077123	0.011788	-0.0018219	0.015799	0.0095616	0.015761	0.0107	-0.0067817	0.0014002	0.0059786	-0.041575	-0.0061912	0.0081829	-0.0069791	0.0090734	0.0048997	0.00036203	-0.004621	-0.0037715	0.0093008	0.0059849	-1.4175e-05	-0.014568	-0.00012691	-0.018585	0.026971	0.013271	0.006838	0.0079534	0.020697	-0.0006394	0.0092476	0.021865	0.018162	0.015108	0.014439	0.018922	0.0091229	0.01481	0.0036806	0.010592	0.0054396	0.012521	0.012207	0.01768	0.00043227	-0.0091775	-0.0044996	-0.015934	-0.0062168	-0.0098109	0.0029064	-0.0027639	0.0036462	-0.036013	-0.035212	-0.030499	-0.051855	-0.089131	-0.11658	-0.027971	-0.006509
0.011025	-0.0052526	0.00074256	0.007363	0.021201	9.0648e-05	-0.028451	-0.0003419	0.014817	-0.011939	0.016181	0.008105	0.0051974	0.0092313	0.0037541	0.0015489	-0.0085665	0.011824	0.0065346	-0.014867	0.015683	0.0055181	-0.019774	0.0049295	-0.031417	0.067214	0.030085	0.019809	0.014583	0.0018986	0.014231	-0.0092173	0.46668	-0.0053116	-0.11336	-0.12492	-0.01081	0.014734	-0.028759	0.0011039	-0.015103	-0.027044	-0.0012169	-0.0080242	-0.018665	-0.0093981	-0.024126	-0.029136	-0.018254	-0.015998	-0.0045223	-0.010883	-0.0052974	-0.01866	-0.021451	-0.021281	-0.003984	-0.012979	-0.015947	-0.049312	-0.033262	0.0079577	0.011587	-0.023697	0.0077549	-0.0010696	0.011546	-0.022999	-0.0067077	-0.0079071	0.012591	-0.0082508	-0.0053287	-0.012338	-0.0098192	-0.0061795	0.0039481	-0.0055045	-0.0013673	-0.00091523	0.028163	0.0074657	0.0026634	0.0051374	-0.016879	0.000757	0.012026	0.0024795	0.010655	-0.011147	-0.0004986	-0.00059807	-0.0011025	-0.001182	-0.0077067	-0.0067404	0.0015135	0.018287	0.0024389	-0.0044679	-0.027748	0.001104	-0.01905	-0.0042299	0.0024961	0.0021514	-0.0029471	0.012247	-0.011231	0.0072934	-0.0047787	0.0056482	0.0088901	0.014075	0.011772	0.0017517
-0.042697	0.018448	-0.024705	0.020112	0.0023592	-0.0048682	-0.006698	0.0032075	0.0029974	-0.035845	-0.011458	0.012813	0.015473	0.052114	0.0061432	-0.00012499	0.0092945	0.017723	0.020064	0.052488	0.034444	0.0037077	-0.010478	-0.015903	0.0050251	-0.019136	0.010299	0.015269	0.0077701	0.029314	0.01668	0.0094756	0.0046157	-0.021407	-0.04093	-0.082847	-0.023287	-0.018663	0.039569	0.017727	0.005214	0.00026653	-0.0029356	0.0091198	-0.015896	-0.013566	-0.03128	-0.068807	0.0080212	0.011385	0.013406	0.0034878	0.060227	0.037472	0.021733	0.015469	-0.022873	0.037558	0.045922	0.41645	-0.12999	-0.015944	0.073077	-0.051597	-0.058622	0.0020552	-0.063541	0.004607	-0.012062	0.026719	0.0016714	-0.0010654	0.021308	0.00093649	-0.020203	-0.040786	-0.018957	-0.031711	0.027131	0.0065342	0.012683	-0.010421	-0.034396	0.00022779	0.033751	-0.014914	-0.0050519	-0.01626	0.05671	-0.026939	0.0017874	-0.008771	-0.0097212	-0.026291	0.011616	0.013673	-0.0016398	-0.011707	-0.0066957	-0.013379	0.019893	0.004254	-0.0088272	-0.0019649	-0.0056876	0.013696	-0.0034623	-0.016773	0.020092	-0.0096859	-0.0069836	-0.016615	-0.018621	-0.015256	0.0082303	-0.0045131
-0.025059	0.058557	-0.049478	-0.017823	0.099682	-0.0066036	-0.030026	-0.0077245	0.0011367	0.004601	0.042686	0.0039868	-0.0051393	-0.0077956	-0.01667	-0.008249	0.013839	-0.011799	-0.016314	0.045158	0.0028214	-0.0068148	-0.027764	0.00099935	0.036116	0.019586	0.01451	-0.0054163	-0.03103	-0.017654	0.0032638	0.003343	0.0035256	0.034826	-0.011763	0.059528	0.0019406	0.021546	-0.024135	-0.019635	-0.033855	-0.026669	-0.038229	-0.013344	-0.018925	0.0090271	-0.0017595	0.0012945	0.0085918	-0.0087176	-0.011214	-0.01813	-0.01201	0.010753	-0.0060513	0.0040925	0.0018207	-0.014373	0.029597	0.015055	-0.0059148	0.00071296	0.028191	-0.015647	0.010387	0.027162	-0.037976	0.014755	0.00084153	0.0068509	0.0064027	0.011339	-0.0013088	0.031364	0.035979	-0.022432	0.43468	-0.017999	-0.0034852	-0.021833	-0.067004	0.032079	0.016806	0.016954	0.0088038	0.0037665	-0.0011075	-0.0091964	0.009409	0.0022957	0.027422	-0.0040632	-0.0062045	0.017225	-0.02138	-0.012213	0.0041226	0.044177	0.0019428	-0.0027611	-0.016261	-0.0060873	-0.013751	-0.0092826	-0.0069539	0.010293	-0.010455	-0.018744	-0.021159	-0.0010539	0.0060615	-0.0039221	-0.027801	-0.030238	-0.011207	-0.011418
0.033898	-0.011068	-0.0021221	-0.0065444	0.066099	0.023386	-0.0037166	0.01314	0.0056318	-0.0015246	-0.0047495	-0.0166	0.011607	0.00022417	0.019629	-0.0087712	0.0094007	-0.0094852	0.0082026	0.10409	0.020846	0.020893	-0.011205	0.00048343	-0.023645	0.014191	0.028822	0.016086	-0.00034241	0.0094627	0.0051353	0.0040547	0.020147	0.026021	-0.011672	0.074443	0.011057	0.006916	-0.013435	0.0057344	-0.13197	-0.0117	0.0025225	-0.020535	-0.028909	-0.0072678	0.015686	-0.0048614	0.0092507	0.0069557	-0.0042605	0.010353	-0.007747	0.014567	-0.00035615	-0.004947	0.036125	0.00021011	0.002681	-0.015999	0.016135	-0.030751	-0.028604	0.022441	-0.075198	-0.015969	-0.027608	0.0050871	0.0054747	0.011046	0.027754	0.023587	0.018432	0.018981	-0.016735	0.018117	-0.014527	-0.0065557	-0.018695	0.026731	0.0019039	-0.008083	-0.017259	0.028917	0.027596	0.031317	0.025023	0.045598	0.03137	-0.0060702	0.01682	0.014962	0.054764	0.043726	0.054136	0.34591	0.023148	-0.17994	-0.019036	-0.018256	0.0025114	-0.0045812	0.0078769	0.027175	-0.0056715	-0.00094159	0.012527	0.0077495	-0.03218	-0.0070593	-0.009029	-0.0010974	-0.026377	0.029896	-0.0059681	0.0065503
-0.01425	-0.0051614	0.030592	-0.044597	0.091427	-0.013831	-0.015636	-0.011456	-0.02636	-0.02484	0.016975	0.010419	-0.0028414	0.039598	0.012208	0.0046627	0.0034241	0.0016999	0.0017248	-0.0025684	0.00021584	-0.005635	-0.019455	-0.0080363	-0.0086155	-0.013926	0.0077975	-0.0082963	0.0061811	-0.012088	-0.0095758	-0.0046095	-0.0049719	-0.015503	-0.0043324	-0.0027116	0.0018273	0.0047771	-0.0065215	-0.010375	-0.030949	-0.0022352	-0.014242	-0.0067439	0.019455	0.019158	0.032109	-0.00017065	0.010407	0.012065	0.009265	0.012007	0.012278	0.016849	0.019277	0.032912	0.0092252	-0.00044817	0.016755	-0.0093851	-0.070092	0.42648	-0.078573	-0.010433	-0.018062	0.0089061	-0.027632	0.018657	0.02232	0.0091139	0.001155	0.0045442	1.8779e-05	0.01376	-0.012524	0.028132	-0.022408	0.0036691	0.0080595	0.050631	0.0048007	0.0092767	-0.0072573	-0.0013129	-0.0058094	0.0060648	0.0071497	0.00092112	-0.017105	0.0088169	0.016257	0.01058	0.00039391	0.0017695	0.011037	-0.0072095	-0.0037076	-0.0023345	0.038734	0.035964	0.022839	0.0082697	0.028476	-0.0028206	0.003071	0.0045688	0.0031581	-0.0044253	0.010682	-0.0020871	-0.013688	-0.016683	-0.056954	-0.016054	0.012732	-0.009644
0.029201	0.061497	-0.00030085	0.080071	0.059149	0.0079093	-0.037753	-0.00056815	-0.020262	0.045759	0.023752	-0.049941	0.0015241	-0.18444	-0.093221	0.0009961	0.0036127	0.037236	0.011529	-0.017328	-0.00030561	0.013849	0.021401	0.042604	0.04576	0.043309	0.067843	0.016611	0.0032694	0.00018335	0.0032363	-0.0043229	0.01799	0.040607	0.2617	-0.11963	0.0081052	-0.0032856	-0.010351	-0.012105	-0.034001	-0.0192	-0.05299	-0.010625	-0.015705	-6.8538e-05	-0.019119	0.0062939	0.0017438	-0.0078	-0.011065	-0.011281	-0.010654	-0.003773	0.0070013	-0.0061526	-0.0038985	0.0015489	0.0022391	0.0029056	-0.0081514	0.005998	0.025626	-0.076097	-0.037935	-0.017823	0.002114	0.00027825	0.010598	-0.00095267	-0.0090076	-0.0075568	-0.0063879	0.0087032	-0.011238	-0.00014308	-0.036224	-0.028111	0.017727	-0.0024872	-0.011705	-0.008975	-0.0010172	-0.0026062	0.0011366	0.0068768	0.0017414	0.0050902	-0.0027644	-0.0033046	-0.0057906	-0.0082309	-0.0059003	-0.0067338	0.0077094	0.017533	0.00051129	0.024611	0.002255	0.0070422	-0.0079092	0.0043678	0.024286	-0.0061265	-0.00089797	0.0050365	0.005761	-0.0077683	0.0023162	-0.00026162	0.0103	-0.019447	-0.088611	-0.029716	-0.008239	-0.0018217
-0.033459	0.010572	-0.0045035	-0.011835	0.018183	-0.0037591	0.0027146	-0.0039237	-0.0049019	-0.024631	0.0048985	-0.00485	0.012122	0.023445	0.013413	0.0050227	-0.016632	-0.0051539	-0.0064817	-0.0049327	0.0022481	-0.014292	-0.025589	-0.0029979	0.021032	-0.0033316	-0.024377	-0.012426	-0.0064889	-0.013795	-0.015224	-0.0017492	0.0029796	-0.0092903	-0.026456	-0.081243	-0.0029229	0.0018173	0.011483	-0.0036737	-0.0071233	-0.01373	0.0039109	0.011493	0.0067258	0.020961	0.0089822	0.38969	0.0082701	0.0094734	0.0060305	-0.012843	-0.0058689	0.0086161	0.023619	0.034901	0.0017657	2.885e-05	0.0028427	0.013766	-0.04397	-0.044387	-0.064659	-0.043924	-0.027804	-0.0039932	-0.033735	-0.0099379	-0.008788	-0.0048447	-0.0095511	0.0078946	-0.0047984	-0.009895	-0.00067191	0.0078111	-0.0043699	-0.020789	-0.020567	0.019068	-0.0035778	-0.0047542	0.0031943	0.0033693	0.0047376	-0.0072573	-0.0069463	0.0014941	0.025138	0.014819	0.01657	0.016754	0.0091437	-0.0079755	0.010683	0.0005752	-0.0068417	-0.014506	-0.0069445	0.0062213	-0.026188	-0.0097031	-0.0052111	0.00020412	-0.0061707	-0.0095893	-0.010408	-0.0037613	-0.0044779	-0.025963	-0.0052787	-0.0058841	-0.00897	-0.027582	0.0084771	-0.0015519
0.33346	-0.16431	0.032607	-0.024464	0.050869	-0.0010729	-0.016058	-0.0027961	0.015207	-0.0075792	0.0087712	0.015314	-0.026247	0.022505	0.0044325	-0.0048624	-0.01684	-0.00048153	-0.0050009	0.029892	-0.0088852	-0.003842	-0.020797	-0.0048349	0.0022722	-0.0031695	-0.0037711	-0.0036252	-0.02547	-0.0051931	-0.0099369	8.6479e-05	-0.00088693	-0.0070296	0.01268	0.0043846	0.0076711	0.0051843	-0.022056	-0.012659	0.0066375	-0.0058435	-0.017135	-0.0012667	-0.0013445	-0.0038926	0.011609	0.020661	0.008589	-0.0095138	-0.0015529	-0.00017226	0.014504	0.0099074	0.0097364	-0.0051695	-0.012517	-0.0014449	0.0087239	0.043989	-0.0052816	-0.020602	-0.040762	-0.010522	0.0070042	0.016583	0.013502	-0.0035529	0.012908	0.0018507	-0.0075784	0.0026547	0.012695	0.0029042	-0.0097033	-0.0047745	0.012345	0.0065832	0.018475	-0.00869	0.0010751	-0.0056	0.019117	0.0028309	-0.0027005	0.00041543	0.001289	-0.0028887	0.0086048	-0.0022241	0.0019485	-0.011298	-0.012526	-0.0126	-0.011796	-0.018297	0.0040533	0.047284	-0.0067945	-0.01284	0.023822	0.0040066	-0.019375	0.0038716	-0.0056392	-0.0018253	0.0051745	-0.01708	0.020941	-0.016286	0.0028591	-0.0051846	-0.022111	-0.021844	-0.020949	-0.0090258
0.0065141	-0.0040508	0.0036543	0.0044024	-0.00028876	-0.0044986	0.0047125	0.0021081	-0.0040238	-0.00020933	0.0010565	-0.0055802	-0.005495	0.0037306	-0.0010438	0.0036157	-0.0087009	0.0047982	-0.0020472	-0.0043899	-0.0034726	-0.0043371	-0.0012666	-0.00017571	0.0049922	0.0027548	-0.013053	-0.0046663	-0.013306	-0.014782	-0.015593	-0.0084099	-0.010702	0.0019748	-0.0043254	-0.0035808	-0.0014257	-0.013698	-0.044954	0.38599	-0.060022	-0.042538	-0.035729	-0.0074409	-0.0092403	-0.0086599	0.0035141	-0.00073624	-0.0093005	-0.0017331	-0.00017608	-0.012353	0.003774	2.0765e-07	-0.0052247	-0.0043629	0.0079342	0.0023951	-0.0002548	-0.0085339	-0.0019119	0.0005981	0.00018796	0.003823	0.0020808	-0.0014641	-0.0017646	-0.00088626	0.0021486	0.0046545	-0.0103	0.00061592	0.0013796	0.0027574	0.0010742	0.0026033	0.0035816	-0.0051787	-0.0076474	0.0017366	-0.00034966	0.00060346	-0.00070237	-0.0062314	0.0014551	0.006216	0.0030881	0.00092568	0.004218	0.001865	0.0001261	-0.0048935	0.003789	-0.0018441	-0.0070119	-0.026284	-0.0038676	0.0021355	0.0064477	0.0011927	-0.0066397	-0.0011684	0.004592	0.0011203	0.0040439	0.0066967	-0.010455	0.0056775	0.0033298	-0.00038086	0.0035397	-0.0038703	-0.010537	-0.0095612	0.0066082	0.0076333
