0.025218	0.0074132	0.015726	0.024944	0.051746	0.036167	0.063386	0.12323	0.049945	0.053091	0.057707	0.056419	0.012464	0.030497	0.03969	0.0099648	0.2557	0.26732	0.26461	0.027367	0.055401	0.021926	-0.013702	0.041008	0.083091	-0.078241	-0.072466	-0.012335	-0.015012	0.029564	0.049499	0.017359	0.022852	-0.014595	-0.069113	-0.11513	-0.058281	-0.025419	-0.0023652	0.021704	0.013141	-0.050915	-0.050714	-0.072309	-0.18199	-0.056521	-0.0010753	-0.013921	-0.015208	-0.087216	-0.016587	-0.0024264	0.026624	0.0040548	-0.00088202	-0.0050809	0.0028211	-0.019825	0.031909	0.025545	0.0076075	0.022686	0.035089	0.0014795	-0.0068632	0.016047	-0.003833	-0.0023946	0.02236	0.030717	0.046216	-0.014606	0.011255	0.016744	0.023198	0.013232	0.0024773	0.027628	0.048378	-0.025918	-0.025418	-0.16683	-0.081893	-0.012313	-0.012851	0.012645	0.0047727	-0.029027	-0.084153	-0.22071	-0.019916	0.020925	0.0038583	0.030247	0.018094	0.03319	0.026843	0.046177	-0.01344	0.0035305	0.40696	0.1882	0.014098	0.04992	0.043206	0.044793	0.048526	0.088487	0.14763	0.34628	0.75996
-0.031652	-0.014408	-0.022253	-0.025478	-0.02135	-0.038974	-0.021725	-0.010927	-0.0029805	-0.023394	-0.014741	-0.01708	-0.0049145	-0.026236	-0.014966	-0.023917	-0.013792	-0.047585	-0.021888	-0.035514	-0.036817	-0.015975	-0.018468	0.0034449	-0.06524	-0.14737	-0.08166	-0.043826	-0.014	-0.025961	-0.01049	-0.070425	-0.073172	-0.026728	-0.099409	-0.13887	-0.028325	-0.0439	-0.10515	-0.035144	-0.024148	-0.087751	-0.012063	0.0039452	-0.014085	0.13203	0.02879	0.0049253	-0.0026958	0.38576	0.60779	0.1204	0.069998	0.0046912	-0.011229	-0.021254	-0.038033	-0.021353	-0.012417	-0.018592	-0.029066	0.00057029	0.046067	0.13326	0.1515	0.13373	0.23647	0.0916	0.061977	0.01673	-0.034683	0.0021607	-0.050827	0.0081795	-0.041772	-0.034959	-0.023821	-0.0085682	0.063628	0.11518	0.12649	-0.080266	0.025066	-0.01292	-0.015936	-0.075118	-0.062608	-0.06676	-0.16025	-0.23726	-0.046831	0.0013924	-0.02608	-0.052227	-0.042757	-0.047344	-0.029046	-0.055415	0.010199	-0.064127	-0.051824	-0.036229	-0.013799	0.0093053	-0.016776	-0.032066	-0.022539	-0.015235	0.01428	-0.0060625	-0.010977
0.0019136	-0.0060739	0.0016271	-9.2926e-05	0.0042568	0.001778	0.0062857	0.0083379	0.0074718	0.001742	0.00904	0.0057197	-0.00616	0.0009349	-0.0037764	-0.002976	-0.0018	-0.0014125	0.0038254	-0.0097856	-0.011705	-0.015894	-0.0092136	-0.0067517	-0.00088904	-0.0063385	-0.0070532	-0.024287	-0.031516	-0.019189	-0.018392	-0.011015	-0.040925	0.89351	-0.028669	-0.013708	-0.028037	-0.035391	-0.026833	-0.016324	-0.014465	-0.016768	-0.012497	-0.0084621	-0.0067517	-0.0012416	-0.0051705	-0.010281	-0.012436	-0.00019474	-0.0029004	-0.0042848	0.00036275	0.0028794	-0.0036434	0.00019513	-0.013219	-0.010597	0.0048575	-0.00065187	0.0032096	0.0013637	0.0039685	0.0031883	0.0036896	0.010868	0.0010002	0.0064956	-0.00056818	0.00011356	-0.00080358	0.003639	0.0055115	-0.0073788	-0.00094987	0.0056295	0.015435	0.0098604	0.010571	0.0036161	0.012355	0.00097722	-0.0019047	0.0038674	0.00049554	0.001671	0.00093985	-0.010179	0.0031248	-0.005452	0.0078749	0.0028614	-0.0015924	0.0027313	0.0012241	0.0006598	-0.0014994	-0.0041696	0.0062829	0.0037072	0.0012603	-0.0044409	0.0072865	0.0042964	0.0077508	0.001104	0.0016886	0.010354	0.0059759	0.00081025	-0.0011116
0.055587	0.072134	0.0329	0.074534	0.066578	0.064239	-0.025744	0.0039369	-0.047752	0.094382	0.05104	0.63766	0.073019	-0.069362	0.066411	-0.012297	-0.017364	-0.079108	-0.069484	0.015097	-0.032876	0.026476	-0.056078	-0.02792	-0.064379	-0.085472	-0.054785	-0.023787	-0.0031543	-0.012798	0.0058858	0.078555	-0.020181	-0.0076589	-0.037927	-0.018707	-0.043516	-0.017752	-0.0055253	-0.022071	-0.031947	-0.033485	-0.048276	0.0067433	-0.076765	-0.020283	-0.033871	-0.025442	-0.0037759	-0.082396	-0.073357	-0.016775	-0.032298	0.0096368	0.0028798	-0.0046879	-0.012245	-0.059381	0.0078326	-0.017827	-0.0098707	0.01872	-0.051717	0.027723	-0.0020399	-0.10403	-0.058477	-0.054676	-0.0487	-0.058254	-0.037326	-0.0069706	-0.020284	0.051203	-0.011529	0.0031713	-0.013923	-0.072097	-0.058101	-0.079772	-0.13076	-0.11234	-0.03851	-0.090608	-0.039048	-0.064858	-0.13786	-0.096484	-0.23582	-0.16076	-0.072656	-0.010361	-0.026562	-0.019913	-0.04599	0.035983	0.020734	-0.042797	-0.040553	-0.115	-0.063496	-0.052261	-0.051703	-0.013804	0.015328	0.0037281	0.095537	0.013501	-0.012876	-0.11194	-0.066032
-0.025038	-0.023428	-0.0078687	-0.037418	-0.036916	-0.0083756	-5.6417e-05	-0.010639	-0.014216	-0.010869	-0.0095657	-0.004672	-0.028005	-0.020041	-0.013424	-0.0088864	0.0013261	-0.020943	-0.014911	-0.01868	-0.022686	-0.02225	-0.0049961	-0.016745	-0.023333	-0.040841	-0.025275	-0.021488	-0.025056	-0.012617	-0.028036	-0.02167	0.018336	-0.017171	-0.0017312	-0.039666	-0.00013867	0.056715	-0.01081	0.020679	0.13731	-0.054562	0.0076094	0.081402	-0.077596	0.0549	0.059397	0.081517	0.042369	-0.10137	-0.085102	0.069893	0.15496	0.024872	0.033171	-0.035869	-0.038857	-0.025199	-0.044407	-0.049316	-0.085058	-0.12472	-0.015097	-0.077347	0.00011529	-0.072511	-0.072017	0.10163	0.22244	-0.084647	-0.19203	-0.085991	-0.057646	-0.025366	-0.0075549	0.15088	0.32501	0.41515	0.27219	0.068644	-0.083046	-0.1216	-0.038766	0.11966	0.12499	-0.041819	-0.035447	0.046788	-0.084469	0.0087477	-0.081048	0.0029567	-0.12784	-0.05214	-0.032861	-0.034572	-0.032161	-0.031342	-0.014923	-0.0026816	-0.01858	-0.0028851	-0.017675	-0.0036387	-0.023846	-0.047781	-0.02275	-0.018845	0.021093	-0.019684	-0.025213
-0.00081967	-0.011787	0.0019162	0.0064619	0.014864	0.0037115	0.0069799	0.0012779	0.0058954	0.00033034	0.0044224	0.0051403	0.00051682	0.00086351	0.0055266	-0.00055769	0.0025796	-0.00041861	0.0041371	0.0035499	-0.0044152	0.0075787	0.0077383	-0.0116	0.0025337	0.00836	0.0063819	-0.00081944	0.004163	0.0019756	-0.01143	-0.019868	-0.0011915	0.001552	-0.003095	-0.0035304	-0.053117	-0.054344	-0.012659	-0.013566	-0.041251	-0.029603	-0.017656	0.033424	-0.019067	-0.0066096	-0.005054	-0.02707	0.77138	-0.015511	-0.015157	0.028103	0.00079119	-0.0010433	-0.020625	-0.00067745	-0.013681	-0.011275	-0.00067953	-0.0046882	-0.018139	-0.0061676	-0.0080157	-0.024144	-0.004819	0.00099048	0.00066133	0.0024018	0.01964	-0.011317	-0.029023	-0.0020004	0.010635	-0.010519	-0.0017481	0.0015442	-0.019339	0.01758	0.0022899	-0.0059083	0.0063523	0.0032135	0.010777	-0.013599	0.0035517	0.014216	0.0088279	0.02116	0.028679	-0.010302	-0.0069266	-0.050548	-0.012821	0.010606	0.011448	0.005615	0.00078344	0.0050608	0.0067641	0.0039302	-0.0011978	-0.0063102	0.010537	0.014854	0.0073222	-0.0012209	0.0026372	0.0042293	0.006313	0.00025473	-0.002396
-0.01009	-0.018024	-0.012315	-0.018434	-0.017554	-0.02672	-0.019601	-0.026997	-0.02832	-0.015702	-0.013249	-0.015871	-0.015805	-0.018342	-0.021541	-0.024832	-0.012058	-0.0060418	-0.01844	-0.019224	-0.022434	-0.018358	-0.020477	-0.016278	-0.013725	-0.014674	-0.016161	-0.015487	-0.014667	-0.020267	-0.025133	-0.0091828	-0.011308	-0.0024227	-0.022947	-0.023026	-0.025726	-0.016799	-0.02651	-0.017839	-0.0068898	-0.032881	-0.015726	-0.027421	-0.033628	-0.04317	-0.041914	-0.019953	-0.012728	-0.074423	-0.061283	-0.027683	-0.018261	-0.016165	-0.018906	-0.016717	-0.017108	-0.01394	-0.019113	-0.018257	-0.026372	-0.037003	-0.040578	-0.04396	-0.039105	0.66475	-0.049391	-0.044277	-0.025173	-0.036718	-0.035095	-0.018442	-0.012155	-0.01797	-0.016834	-0.0061421	-0.0062939	-0.009452	-0.029377	-0.036382	-0.062203	-0.046078	-0.035906	-0.022134	-0.013712	-0.020413	-0.018922	-0.017272	-0.036164	-0.024193	-0.017264	-0.021714	-0.023525	-0.01963	-0.013488	-0.027227	-0.0096595	-0.015534	-0.010321	-0.016448	-0.0086851	-0.0056248	-0.010545	-0.007882	-0.014299	-0.022451	-0.017907	-0.028098	-0.012365	-0.015604	-0.006758
0.0076289	0.0096355	0.013647	0.0087404	0.0089614	0.017373	0.0023742	0.024461	0.011158	0.018552	0.010566	0.0091463	0.0015524	0.022754	-0.012766	-0.011944	0.077077	0.35549	0.16901	0.0090579	0.0022089	0.023072	0.03247	0.075844	0.17976	0.34321	0.0013418	0.025956	0.0060936	0.0067578	0.013315	0.0071194	0.010051	0.0068605	-0.0078894	0.010978	0.011489	0.013977	0.0030688	0.0083654	0.027881	-0.0069185	0.0030385	0.007258	0.0080783	0.015932	0.021662	0.005539	0.0065324	-0.0070534	0.016257	0.0074856	0.023794	0.010098	0.011443	0.0044459	-0.0062302	0.007556	0.010283	0.0043103	0.014569	0.021588	0.0064759	0.050252	0.0081645	0.021037	-0.0074008	0.0091982	0.015424	0.0048786	0.016792	0.02499	-0.010958	0.012795	0.021334	0.002719	-0.010329	0.0094633	0.029599	-0.019804	-0.0060866	-0.059098	-0.022467	-0.015008	-0.0041254	-0.0024834	-0.012228	-0.022335	-0.087894	-0.11884	-0.029943	-0.01255	-0.012623	-0.040422	-0.0039541	-0.0027277	-0.0089524	-0.00060867	0.042843	-0.041858	-0.12149	-0.07081	-0.049952	-0.037495	-0.012708	0.0094142	0.00021512	-0.0016821	-0.0091325	0.0070144	-0.16138
-0.052426	-0.037463	0.0085682	-0.021832	0.019868	0.0099254	-0.015429	-0.0039462	-0.018643	0.014947	-0.015839	-0.035175	-0.071192	-0.062716	-0.01538	-0.01722	-0.0027026	-0.024554	-0.00021803	-0.033051	-0.030842	-0.0045042	0.042605	-0.015738	-0.040864	-0.049238	-0.0085593	0.016654	-0.030264	-0.00077643	-0.034103	-0.069212	-0.023183	-0.014152	-0.042779	-0.024564	-0.030897	-0.0076992	0.011324	-0.031192	-0.013628	-0.023153	-0.02727	-0.043336	-0.035668	-0.04631	-0.00048644	-0.0011252	0.011438	-0.03876	-0.047113	0.0082681	0.018454	0.05169	0.046073	0.036886	-0.048263	-0.054001	0.024089	0.064298	0.06692	0.065976	0.056167	-0.080421	0.031134	0.0018332	-0.00355	0.02129	0.051502	0.061236	0.51271	0.069601	0.012684	0.010015	0.041953	0.073204	0.027519	0.058663	0.077628	-0.0048535	-0.018195	-0.023262	-0.0050226	0.0032907	0.021046	0.029504	-0.0015032	-0.015092	-0.062372	-0.037203	-0.0040949	0.00198	0.011753	-0.013496	-0.013541	-0.021668	-0.026941	-0.027847	-0.0040452	-0.076095	-0.017562	-0.031193	0.046537	-0.015287	-0.0069834	-0.036585	0.036955	-0.020959	-0.016666	-0.051992	-0.032468
-0.014188	-0.041842	0.0028151	-0.011906	0.004904	0.04266	-0.014709	0.0016159	-0.030029	0.024908	-0.019704	0.017043	0.019037	0.021293	-0.01385	-0.023457	0.0024321	-0.0082074	0.030582	0.0057046	0.011272	0.012996	0.014848	0.061463	0.064796	0.023012	0.015524	0.023525	0.011058	-0.010778	0.0060345	0.02174	0.014493	-0.00056042	0.021732	0.019212	0.013351	0.0025379	-0.037403	-0.021158	0.0097556	-0.0040807	0.021416	0.019453	0.0035591	0.033994	0.015043	-0.009573	-0.0086931	0.017419	0.022844	-0.0054597	-0.006315	-0.010036	-0.012417	-0.024878	-0.039191	-0.002957	-0.025437	-0.02949	-0.02943	-0.027362	-0.0041342	-0.017128	-0.015661	0.0022729	-0.0088669	-0.025678	-0.013844	-0.034539	-0.010672	-0.026008	0.0032531	-0.016664	-0.0047014	-0.029376	-0.011712	0.017744	0.0039258	-0.029264	0.0014096	-0.0057301	0.0071122	-0.011678	-0.014757	-0.011655	-0.038178	-0.00079356	-0.059356	0.0025792	0.014	-0.019283	0.00948	-0.0088482	-0.015832	-0.0098054	-0.0044457	0.0067345	-0.033697	-0.0066523	0.056888	0.12443	0.54243	0.0072754	0.018549	0.0047036	0.045501	0.034047	0.049514	-0.04848	-0.071224
0.030231	0.025993	0.019711	0.03355	0.017484	-0.0088132	-0.011919	0.0028641	0.0070235	0.0068456	0.013424	-0.078083	0.019605	0.55092	0.025976	-0.0057578	-0.025799	-0.018922	-0.028552	0.0049635	0.02102	0.0018091	0.013554	-0.024662	-0.069894	-0.05119	-0.00087217	-0.023204	-0.0038516	0.0011971	0.029421	-0.0098475	-0.0026993	-0.002025	-0.0079311	-0.015004	-0.014546	1.7795e-05	-0.022311	0.0047563	0.0095784	0.0018739	-0.009995	-0.004878	-0.017887	-0.021111	-0.0065607	-0.0064093	0.0027999	-0.060037	-0.0015709	-0.016014	0.0076622	0.017418	0.0080139	0.023631	0.01969	0.027189	0.03595	0.021153	0.027491	0.013405	0.016687	0.029628	-0.0059374	-0.0069794	-0.019133	-0.015474	-0.0059355	0.0064333	0.0041378	0.022354	0.039653	0.037581	0.021194	0.031767	-0.0024385	0.0020493	0.015396	-0.0059652	-0.029989	-0.036098	-0.01173	-0.014445	-0.012018	0.001049	-0.032281	-0.031458	-0.070314	-0.075482	-0.022724	-0.015693	-9.4146e-05	0.012384	0.016709	0.0052908	0.0084272	0.0010557	-0.019886	-0.0034583	-0.017554	-0.027805	0.0087576	-0.0054029	-0.027615	-0.041592	-0.011677	0.014435	-0.012299	-0.024904	-0.033378
0.010688	0.0096767	0.0014646	0.015331	0.030118	-0.018073	0.0075712	-0.0010265	0.012847	-0.0035092	-0.0022342	-0.011389	-0.0053959	0.0083313	-0.0016607	0.0092114	-0.0034075	-0.0021465	-0.00048625	-0.0067907	0.00043666	-0.0058779	-0.0099889	0.020069	-0.0075224	0.00010253	0.0028275	0.0066107	-0.008631	0.009025	-0.0051322	0.012597	0.0039246	0.0017591	-0.0018519	-0.0016374	0.0055845	-0.015536	0.0057442	-0.013428	-0.0022625	0.00032516	-0.027649	-0.0050814	-0.0072161	-0.031746	-0.0063285	-0.02946	0.0075584	-0.036091	-0.048523	0.58944	-0.016999	-0.012878	-0.0067414	0.00012809	-0.002641	0.003578	0.016683	0.0062121	-0.001735	-0.0082871	-0.0041607	-0.010823	-0.033661	0.0018588	-0.013566	-0.026765	-0.0029503	0.0099998	-0.013099	0.0071043	-0.0089983	-0.0055423	0.01411	-0.019175	-0.0010264	-0.03881	0.013515	-0.012978	-0.004643	-0.01149	0.015576	0.019819	-0.00028145	-0.003327	-0.011077	0.010086	-0.0080962	0.012466	0.016623	0.035672	0.0089367	0.0059015	0.0085453	0.012869	0.0043629	-0.015415	0.0037643	0.010271	-0.011006	0.0058218	0.0081644	-0.0054816	-0.00071963	0.0042388	0.011241	0.014933	0.007425	-0.0044268	-0.0059628
0.0038837	-0.01947	0.0019291	0.0062857	-0.0072827	0.021364	0.51071	0.069473	0.010239	0.029884	0.024487	-0.079484	-0.013223	-0.03833	0.0093441	0.016428	0.023579	-0.057454	0.017976	0.011962	0.026085	0.0093725	-0.0073625	-0.010223	-0.021199	-0.031217	-0.026095	-0.0015572	-0.011804	0.018949	0.060693	0.0042258	-0.006853	-0.0068703	-0.0021323	-0.0063972	-0.019977	-0.0081042	-0.023526	0.0091955	-0.0024362	0.021165	0.00093555	-0.0054597	-0.00938	-0.0099704	-0.010916	-0.013401	-0.0073561	-0.0038997	-0.0096021	-0.014702	0.0066733	0.00043893	-0.013731	-0.0090711	-0.043581	0.00092153	-0.011089	-0.01186	0.00078619	0.0099166	-0.0068286	-0.021448	-0.026564	-0.006981	-0.012133	-0.01852	-0.010797	-0.012709	0.0028053	-0.016675	-0.020826	-0.013486	-0.0028196	-0.017966	-0.014812	-0.0086734	0.0044437	-0.030983	-0.025711	-0.014377	-0.0065813	-0.029933	-0.02277	-0.010666	-0.036488	-0.013823	-0.060849	-0.03756	-0.013192	-0.0074878	-0.0090397	0.012518	-0.0087249	0.00078328	-0.0043432	0.027785	-7.649e-05	0.0289	-0.047626	-0.013346	-0.011482	0.0076707	0.023173	-0.04353	-0.041657	0.082622	0.058285	0.014066	-0.082828
-0.0092908	-0.00083901	-0.048147	-0.038304	-9.5424e-05	0.0052269	-0.026066	-0.0096157	0.0057608	-0.01172	-0.007576	-0.010017	-0.014286	-0.0089168	-0.01341	-0.030043	-0.017981	-0.016281	-0.0069363	-0.0072563	-0.026052	0.0038609	-0.026329	-0.036394	0.025222	-0.0073174	-0.0043474	-0.017539	-0.02595	-0.012785	0.007476	-0.023745	0.020542	0.012061	0.016604	0.0084833	0.027408	0.034151	0.030081	0.0097617	0.026947	0.51304	0.028074	0.055441	0.044362	0.014433	0.051598	0.036611	0.027568	0.022491	-0.027245	0.012363	0.025279	0.043213	0.022201	0.02524	0.008506	-0.03339	0.0061279	-0.0026379	-0.00046947	0.024346	0.022183	-0.010318	-0.0027086	0.021623	0.0040505	0.010739	0.0066539	0.025023	-0.0037198	-0.020943	0.0037655	-0.041118	-0.032003	-0.020078	0.0021663	-0.034589	0.0039164	0.0050252	-0.0010135	-0.023972	0.0075184	-0.0080203	-0.024088	-0.028397	-0.031801	-0.015869	-0.088339	-0.039546	-0.023502	-0.022054	-0.036544	-0.025598	0.016804	0.027665	-0.013917	-0.0090891	0.0057384	-0.068203	0.010418	0.0033008	-0.0012229	0.028285	-0.0080304	-0.048179	0.00069298	-0.010927	0.010892	0.033584	0.035577
0.012137	0.010751	-0.017756	0.014106	0.011778	-0.0022554	0.0043747	0.0025992	0.0046892	0.017077	0.0028162	-0.0095962	0.0030674	0.01037	0.0021898	0.011822	0.0038387	0.0011186	0.0027662	0.0032915	0.0043329	-0.0070916	-0.0048679	0.055772	-0.0072572	-0.0023396	0.00032928	0.0013054	-0.0088514	0.0044657	0.0026204	0.0059238	-0.02133	0.004687	0.017709	-0.0054415	0.17401	0.026674	-0.0056308	-0.036062	-0.00013042	0.016412	-0.0075469	-0.00071295	0.0024971	-0.027848	-0.037444	-0.039421	0.082091	0.015464	0.01439	-0.057097	-0.038498	-0.049209	0.025226	0.012631	0.0054056	0.0070397	0.012882	0.0019317	0.0058731	0.0069704	-0.018833	0.016969	0.010466	0.02067	-0.026885	-0.011754	-0.0048882	0.011987	0.028313	0.0040785	0.0032951	-0.0077106	-0.014515	-0.019298	0.016452	-0.066513	-0.049508	-0.031866	0.019969	0.0041002	-0.01404	0.0098472	-0.03641	-0.0063867	-0.029774	0.0086752	-0.042625	-0.01496	0.11291	0.4831	0.060933	-0.011479	-0.0079402	-0.0081909	-0.017228	-0.01828	-0.034825	-0.0012177	-0.00019113	-0.0061344	0.00083662	-0.034688	-0.016476	0.00054535	0.000179	0.0029754	0.0087465	0.011687	-0.001225
0.032731	-0.022667	-0.010648	-0.0074761	-0.050347	-0.077247	0.021944	-0.010477	0.0078364	-0.0042675	-0.010976	0.0075306	-0.028912	-0.028451	-0.0254	-0.014179	-0.018506	-0.0074522	-0.029609	-0.053966	0.00035681	-0.0091165	-0.015278	-0.029372	0.0144	-0.031311	-0.020128	-0.0020067	0.010646	0.007357	0.0064492	0.0082813	-0.037662	-0.0073958	-0.010788	0.00071958	0.0040332	-0.024812	-0.018682	-0.017672	0.0029561	-0.020262	0.012354	0.027699	0.014392	0.03049	0.016771	0.016059	0.01102	0.011522	-0.17716	0.0071351	0.018849	0.026305	0.0099318	0.016663	0.019605	0.0038233	0.016985	0.014322	0.047539	0.032079	0.022347	0.46975	0.019044	0.02815	0.03316	0.01295	0.043545	0.031733	0.020658	0.015222	0.017165	-0.021735	0.011988	-0.002357	0.0042849	0.071684	-0.045581	0.014435	0.020062	-0.014807	-0.0031749	0.011856	-0.014169	0.019858	0.010597	0.0090356	-0.029831	0.00037481	0.0047697	-0.00094643	0.0015476	0.016088	-0.03066	0.00080643	-0.0072925	0.062091	-0.022249	0.044873	-0.0032307	0.017155	0.032801	0.012663	0.037124	-0.041983	0.056153	-0.032073	0.0086682	0.043765	-0.012166
-0.017684	-0.026427	-0.012588	0.011445	-0.06607	0.015824	-0.020962	-0.018381	-0.0092364	-0.019495	-0.026036	0.01669	0.0057886	0.00014185	-0.0078771	-0.018764	-0.017011	-0.011437	0.018725	0.00089882	-0.027967	-0.016845	-0.012662	-0.10387	-0.0015333	0.0071996	-0.024392	-0.028451	-0.024652	-0.025331	-0.0065266	-0.024321	-0.028216	-0.014025	-0.029576	-0.021738	-0.052066	-0.029934	-0.043801	-0.010768	-0.012265	0.023138	-0.02466	-0.029383	-0.024178	-0.00845	-0.020695	-0.0071203	-0.012244	-0.041694	0.011303	-0.003766	-0.0023251	-0.01947	-0.02094	-0.011516	-0.016498	-0.0099446	-0.018292	-0.0064437	-0.0065378	-0.00434	-0.032758	0.0040095	-0.026501	-0.027466	-0.0069898	-0.040549	-0.0019111	-0.0016374	-0.011794	-0.010339	0.0065725	0.0044185	-0.021646	0.017331	0.015098	-0.035076	0.059808	0.020795	-0.0083971	0.00042843	-0.064831	-0.012672	-0.00025344	0.010511	0.00084675	0.010882	-0.019299	-0.020692	0.044579	0.049849	0.046206	0.029759	-0.0027522	0.0070043	0.028452	0.031112	0.44187	0.11978	-0.0043938	0.0062642	0.034444	-0.055682	0.0051104	-0.075667	0.031667	-0.028996	0.012999	-0.004037	-0.0078145
-0.0064445	0.00562	0.010422	-0.00073357	-0.0076917	0.0034224	0.014211	0.0023237	-0.012284	-0.0015543	0.014363	-0.026011	-0.0063462	-0.0044487	-0.012105	-0.0053849	-0.013974	-0.0021003	-0.0042174	-0.0086743	0.0009704	0.0094605	0.021577	-0.004942	0.0029706	-0.00058698	0.0017311	0.0038961	-0.001246	-0.015362	0.007479	0.014161	0.0042006	0.0026633	-0.0053429	0.0044409	-0.0020094	-0.011184	-0.0017677	-0.0055816	0.030272	-0.00019785	-0.004527	0.021134	-0.012492	0.0076877	0.0082525	0.011907	0.00092073	-0.056987	-0.049498	0.019149	-0.011362	-0.0089628	-0.0061092	-0.0039336	0.013838	0.0065536	0.0029256	-0.0065558	-0.0098046	-0.021814	-0.01185	-0.032666	0.49332	0.0037733	-0.052866	-0.013611	-0.0025125	-0.023094	-0.025477	-0.0085009	-0.0014235	0.00089098	0.00054964	0.016081	-0.0049696	-0.020801	-0.020563	0.00063051	-0.012992	-0.02262	-0.0044458	0.007159	0.0098675	-0.0050236	-0.0090904	-0.000504	-0.0021379	0.0012839	-0.0035054	-0.0078567	-0.0037414	0.0011653	-0.0066874	0.018889	-0.004306	0.020666	0.02374	0.0090903	0.00051694	0.0099185	0.010194	0.015441	0.010145	0.002528	-0.016071	0.0046051	-0.0015447	0.0011029	0.00072971
-0.0073602	-0.0065142	-0.0040429	0.0044033	0.0069447	-0.0063108	-0.069952	0.044036	0.42142	0.030608	0.023625	-0.070797	0.0034713	-0.038299	0.020453	-0.0062347	0.018651	-0.016004	-0.015805	0.0049417	0.0030692	0.013785	0.019169	-0.00035582	-0.0047799	-0.02018	-0.001918	-0.022481	-0.024385	-0.033956	-0.0054007	0.028803	0.0080624	-0.0057191	-0.02225	0.0015889	-0.011512	-0.005009	-0.021565	0.0041083	-0.0043249	-0.01427	-0.0028656	-0.009054	-0.007285	0.0030639	-0.0062705	-0.011638	-0.0040191	-0.018243	-0.024705	-0.013756	-0.0090204	-0.015615	-0.0038557	-0.007437	-0.017126	0.0058128	-0.017717	-0.013014	-0.019219	-0.015191	-0.011588	-0.014522	-0.0013255	-0.01429	-0.0019627	-0.012115	-0.0019733	-0.0090158	-0.0023521	-0.010697	-0.031277	-0.012718	-0.014775	-0.019283	-0.0034726	-0.014971	-0.009942	0.00023892	-0.015808	-0.0079898	-0.0026902	-0.036486	-0.015871	-0.0076629	0.0042499	-0.023454	-0.058997	-0.017442	-0.012087	-0.0072282	-0.0086852	-0.0089611	-0.026543	0.010728	0.016353	0.014129	-0.022563	0.011271	-0.0046619	-0.0093868	0.0012972	-0.02544	0.021387	-0.061025	0.031589	0.011589	0.0045204	-0.023069	-0.030297
0.0011192	0.044882	-0.0060179	0.013233	-0.016093	-0.023705	0.0042947	-0.012957	-0.01153	0.012246	-0.013965	-0.0083844	0.0097921	-0.050439	-0.0045268	-0.067227	-0.0099055	-0.024022	0.035067	-0.013708	-0.040752	-0.031811	-0.0059729	0.006162	-0.0098476	-0.026541	-0.018108	-0.0012535	-0.023009	-0.0036948	-0.0014483	-0.013164	0.028613	0.0074999	-0.001978	-0.027451	0.0049137	0.0066959	0.024067	0.032237	0.037834	-0.0066904	-0.0049858	-0.0011267	0.0033564	0.0080622	-0.0013673	0.010406	0.01364	-0.010079	0.0046107	-0.0026448	-0.0044397	0.0071392	0.023897	0.03687	0.060674	0.42227	0.051609	0.031355	0.013303	0.012038	0.0013541	-0.022247	-0.011731	-0.004609	-0.026499	-0.012932	-0.001958	-0.0062294	0.0037597	0.0086185	0.012071	0.022176	0.0021222	-0.018798	-0.0044296	0.0069685	0.0028233	-0.0048224	-0.0019753	-0.011976	-0.024348	-0.013882	0.0018082	0.00064403	-0.003518	-0.011172	-0.028759	-0.024098	-0.011018	-0.012525	0.003794	-0.023285	0.0035222	-0.012642	0.002458	-0.0092933	0.0071575	-0.020139	-0.0035951	-0.0028052	0.016917	0.01265	-0.022104	-0.020668	0.038839	-0.028207	-0.00044496	0.018788	-0.008834
-0.024057	-0.019284	-0.024641	-0.0074523	-0.016602	-0.0039663	-0.022777	-0.012186	0.002864	-0.013309	-0.0045822	-0.033694	-0.015033	-0.0049392	-0.018495	0.0012447	-0.015228	-0.018558	-0.014459	-0.024082	-0.022767	0.0063359	0.0075692	-0.015599	-0.020901	-0.0287	0.077047	0.42351	0.010473	0.01812	0.0074498	-0.030369	0.016924	0.016716	0.048927	0.0013993	0.023604	0.017151	-0.0154	0.011225	0.0032552	-0.025411	0.0013119	0.0011296	-0.0089052	-0.0050572	-0.010273	-0.00068445	0.003077	-0.020968	0.011009	-0.0052225	-0.0049836	-0.0051217	-0.010315	-0.0024429	-0.011854	-0.0058192	-0.012564	-0.0075072	-0.019386	-0.0050366	-0.012344	0.021343	-0.01375	-0.016639	-0.025255	-0.009536	-0.011419	-0.0092843	-0.017012	0.00093757	-0.011266	-0.00147	-0.023571	-0.011977	-0.011968	-0.01705	-0.0050211	-0.017273	-0.020296	-0.018011	0.019542	-0.0064528	-0.0041106	-0.014488	-0.0083284	-0.014783	-0.080718	-0.034242	-0.015162	-0.015591	-0.0073526	-0.016955	0.0053303	0.010265	-0.017576	0.016938	0.033835	-0.026135	-0.011726	0.0044516	-0.02409	-0.0099297	-0.0091473	0.0013665	-0.023074	0.019118	-0.0097508	0.029861	0.023026
0.0057853	0.0033169	-0.0088881	0.0011637	0.004012	-0.0023837	-0.0092208	-0.0082633	0.0019762	-0.001469	-0.0067816	0.0067778	0.001205	-0.0023775	-2.882e-05	-0.0015782	-0.0042644	-0.0056945	-0.00030505	0.0054335	-0.00073683	0.0046147	0.0055069	0.0017643	-0.00029663	0.00087542	-0.0026947	0.0079032	0.0011749	0.0025068	0.0046385	0.005431	-0.0084224	0.00010757	0.0028378	-0.00017459	-0.02322	-0.011411	0.0076773	-0.0011616	-0.026615	-0.012055	-0.0046857	-0.018678	-0.0066977	-0.0079708	-0.010107	-0.016446	-0.0056617	-0.0038493	-0.028766	-0.0048244	0.44859	-0.014346	-0.0097637	0.0019392	0.0057072	0.0078676	0.00070692	-0.0052971	-0.0014253	-0.010367	0.00015661	-0.02181	-5.0272e-05	-0.00055358	0.0034363	-0.016885	-0.023393	-0.006726	-0.0042595	0.006181	0.00030303	-0.012475	0.0005054	-0.011026	-0.02661	-0.035264	-0.03058	-0.0041582	0.0037671	0.01416	0.01148	-0.0046604	-0.0093341	0.0064154	-0.011106	0.0038818	0.0067133	0.0039631	0.0072987	0.0090049	0.0089296	0.0080718	0.0053141	0.010146	0.0032833	-0.0023762	-0.0009106	0.0023157	0.001016	-0.0015326	0.00373	-0.0031796	0.00011265	0.0017936	0.012305	0.001455	-0.0022225	0.0031649	-0.0073101
0.0015195	0.0023627	-0.0004159	0.0021267	0.0022596	0.0054204	-0.00011107	0.00045352	0.0048328	0.00041799	0.0034944	-0.016749	0.0051717	-0.0025757	0.0037694	0.0023505	-0.0048814	0.0012361	0.0060665	0.001742	-0.0014284	0.0041832	-0.0022647	-0.0062192	-0.0037164	-0.0090196	-0.0040571	-0.007225	-0.0011438	-0.0080791	-0.010948	-0.019504	-0.019317	-0.004342	-0.032865	-0.026896	-0.038613	-0.00454	-0.0044414	-0.033708	0.093384	-0.046978	0.028321	0.39915	-0.03443	-0.010394	0.00011548	0.010781	0.03847	-0.05963	0.0087947	0.002125	0.015456	-0.0064581	0.010911	-0.0047362	-0.0037493	-0.0065911	0.0052155	0.0016622	-0.0070751	7.0896e-06	-0.011956	-0.011681	-0.029466	-0.0056704	-0.018907	0.00055432	0.020976	0.0037203	0.018307	-0.010676	0.023177	-0.0079028	-0.0054771	-0.03831	-0.021339	-0.0070802	0.032621	-0.010653	-0.015276	-0.016119	0.044645	-0.0059573	0.0062923	-0.0042153	-0.017827	0.010956	-0.0048422	0.042556	-0.000908	0.093266	-0.023221	-0.011423	-0.0002359	-0.0052935	-0.0024308	-0.010077	0.0088472	-0.0097853	-0.0006132	-0.0060095	-0.0095074	-0.0075696	-0.00045107	0.012606	-0.0028361	0.0087846	0.0010461	0.0078529	0.009151
0.015328	0.0021426	-0.007191	0.025276	-0.0050665	0.00817	-0.022705	-0.0049216	0.011296	0.0017349	-0.0032088	-0.10854	0.0091709	-0.042891	0.0027204	-0.013492	-0.020363	-0.025311	-0.01252	-0.031754	0.022778	-0.015846	-0.019847	-0.062176	0.0086593	-0.033514	-0.015471	-0.042231	0.0060504	-0.016315	0.017162	0.023906	0.012003	-0.00073461	0.013261	-0.00088686	-0.0046797	0.010369	0.0074806	-0.014294	0.0016089	0.022614	-0.014722	-0.017442	-0.017237	-0.022649	-0.003281	-0.01002	0.0054168	-0.042938	0.022223	-0.0098589	0.0054894	0.0095891	-0.00076453	-0.0022018	-0.015595	-0.0021646	0.0023309	0.00099458	-0.0054476	-0.012001	0.0082272	0.041465	-0.01419	-0.01429	-0.026009	-0.0060601	0.001313	0.01238	-0.006376	0.0090083	-0.0043234	0.024155	0.029232	-0.0041852	-0.0084676	0.019009	-0.0027862	-0.033937	-0.039189	-0.041053	-0.028215	0.0066238	-0.00095084	0.0071678	-0.00014813	-0.023871	-0.069764	-0.061055	-0.018492	0.0037639	0.0024095	0.034416	0.055597	0.024981	-6.9365e-05	-0.0046168	0.030482	0.0024145	-0.0093523	-0.00083791	0.0053572	-0.011941	0.0068452	0.37359	-0.018797	0.0092864	-0.011131	-0.028049	-0.032448
0.012263	0.024614	-0.0012938	0.02658	0.0034456	-0.017055	-0.057746	0.02694	-0.039269	0.032924	-0.00048743	-0.052637	-0.00061681	-0.030611	0.032801	0.40078	0.028659	-0.024128	0.0094423	0.033201	0.0060415	0.023386	0.004452	-0.018166	-0.0076375	-0.0061878	0.020901	-0.018766	0.0070582	0.013967	0.022998	-0.039023	0.0053115	0.0051425	-0.0096243	-0.0041681	0.00018256	0.014821	0.0065011	0.010339	0.025971	0.0073515	0.0031345	-0.0020969	-0.021424	0.0033574	0.0049254	-0.0076798	0.0030782	0.012663	-0.023029	-0.0040995	0.00097386	0.0017493	0.0040528	-0.0018921	-0.002749	0.038471	0.005793	-0.002946	-0.0093795	0.0092342	0.011982	0.0075607	0.0031116	0.003542	0.00039245	-0.013558	0.0005976	-0.00010026	-0.0021427	0.0024619	-0.018564	-0.0052266	0.0010052	-0.020049	-0.01034	0.0080057	-0.01088	-0.010726	-0.019129	0.002657	-0.03145	-0.011603	-0.016274	-0.006333	-0.027048	-0.016251	-0.031702	-0.03321	-0.013331	-0.012692	-0.013107	0.0054727	0.0024633	-0.032444	-0.014975	-0.01572	0.018775	0.00049168	-0.0037808	0.018048	0.0077872	0.013927	-0.0028442	-0.027267	0.015462	-0.0013384	0.0051119	0.0015038	-0.030203
0.014509	0.0040766	0.0095656	0.0037418	-0.031305	0.018337	-0.054266	-0.0021144	-0.010108	-0.00027909	0.013134	0.011755	-0.011387	-0.00071375	-0.0031743	-0.0059426	-0.0028111	-0.018441	-0.023908	-0.0072613	0.0070583	-0.012659	-0.03354	-0.035738	-0.016823	-0.012393	-0.0085849	-0.010741	0.0054698	-0.01121	-0.012722	0.034954	-0.016006	-0.0072125	-0.021756	-0.015041	-0.010926	-0.010301	-0.035634	-0.017083	-0.014436	-0.0058897	-0.021822	-0.0088138	-0.019734	-0.023068	-0.0080829	-0.010985	-0.0063521	-0.01264	-0.0020788	-0.0053286	-0.011219	-0.0032884	-0.0031311	0.0011271	-0.006584	-0.013993	0.0068539	-0.0018869	-0.0013551	-0.0024674	-0.0048433	-0.047363	-0.0034877	-0.0056779	0.013235	0.0077883	-0.0014003	-0.0081983	0.0097095	0.00041062	-0.0017086	0.010533	0.0012765	0.023052	0.0069075	-0.015133	0.0056145	0.0074337	0.0043409	0.010119	0.019938	0.011652	0.003997	-0.0040058	0.0055015	-0.0012168	-0.0058647	0.0097552	-0.0023745	-0.0030538	-0.0031954	0.012221	-0.0046085	0.028054	-0.0052945	0.011452	-0.027023	-0.0078835	-0.033202	-0.0090746	0.015251	0.017273	-0.015245	0.0070466	0.02312	0.026223	0.068556	0.37257	-0.15942
-0.033282	-0.0011433	-0.014114	-0.0026441	0.025294	-0.001075	-0.040151	-0.0022649	-0.018721	-0.001354	0.0045094	-0.028021	0.0015279	-0.0014339	-0.0011143	-0.027993	-0.0081575	-0.010285	0.0055819	-0.011559	-0.0059139	-0.0059881	0.0096257	0.015766	0.0023067	0.028314	-0.0064076	-0.0044633	0.014379	0.0037178	0.0062968	0.00076125	-0.014357	-0.003364	-0.0037969	0.0096267	-0.0063073	-0.0010659	-0.013905	-0.0012618	0.00052855	-0.020818	0.0063682	-0.0010258	-0.0098675	0.0045177	0.00997	-0.009379	-0.0065714	0.001564	-0.01163	-0.0068854	-0.0024123	-0.0044279	-0.0037286	-0.0076425	-0.015763	-0.0053775	0.001965	-0.0036098	-0.011012	0.011256	0.0011528	-0.012329	-0.017514	-0.0023114	-0.0019706	-0.0067153	0.002025	-0.020521	0.0049848	-0.0099649	-0.02892	-0.0033328	-0.0020439	-0.0063578	-0.00050186	-0.021422	0.024352	-0.0094655	-0.0064546	-0.0035698	0.0034744	-0.0013497	0.004772	0.010563	0.019016	-0.0022616	-0.067605	-0.0096751	0.017119	0.025267	0.019717	0.028564	-0.0054088	0.011051	0.021177	0.022068	0.012077	0.045902	0.0089029	0.012301	-0.04313	0.38658	0.050387	-0.014379	0.025162	0.037893	0.026868	-0.04194	-0.030821
0.0073284	0.0043214	0.0069321	-0.0066862	-0.0037771	0.0062856	-0.00095527	-0.00032439	-0.0033837	-0.010687	0.0052316	-0.0065937	0.012503	-0.0048826	0.0088837	0.0059398	-0.00031783	-0.0089618	-0.0066555	0.004263	0.0041972	-0.0024909	0.013734	-0.004259	-0.01094	0.00066796	0.004294	0.0078194	-0.0080199	-0.0014884	0.0046776	0.017353	0.018157	-0.0023519	-0.0025276	0.0031776	-0.02233	-0.0362	0.016069	-0.0011123	-0.018291	-0.0038488	-0.014279	0.020389	-0.0064371	0.0068207	0.0045015	-0.016108	-0.015169	-0.014939	-0.023015	0.025012	0.0062743	-0.011017	-0.010518	-0.0052634	0.0054888	0.009301	-0.0014075	0.0012093	-0.0020883	-0.012439	-0.0061821	-0.00553	-0.0021379	0.00736	-0.013913	0.38419	-0.028976	-0.023803	-0.011624	0.006969	0.0060663	0.0023413	0.017262	0.0018934	-0.024695	-0.034505	0.033562	0.00048748	-0.010624	-0.022943	-0.055675	-0.0013221	-0.037495	-0.012741	-0.0041801	-0.015219	-0.0093681	0.00522	-0.016985	0.0028337	0.0040671	0.0058061	0.011184	0.0035512	0.015191	0.015629	0.0072184	0.0019998	-0.0088286	-0.001872	0.019418	0.00048015	0.0090545	-0.010858	-0.0045427	0.0087253	-0.0094009	-0.0095134	0.00087247
0.0083508	-0.00012491	-0.0089208	-0.010326	-0.011119	-0.0056846	-0.040541	-0.0058776	-0.016362	-0.0090341	0.012373	-0.012263	0.0057782	0.0026028	-0.010719	-0.020851	0.049722	-0.1361	0.34808	-0.0078027	-0.017617	0.01318	0.028393	0.030919	-0.032774	-0.056442	-0.006787	0.0018653	-0.0075461	-0.0098136	-0.0063076	0.022749	-0.0097432	-0.0024311	-0.0063339	-0.0027039	-0.0046007	-0.011142	-0.0065434	-0.011191	-0.0091939	0.00937	0.0075883	-0.0053163	-0.0072614	-0.0044239	-0.0057337	-0.0054425	-0.0023897	-0.013051	-0.013684	-0.0027901	-0.0059531	-0.0063934	-0.005386	0.00039556	-0.0057191	-0.036003	-0.0086737	-0.0095564	0.002175	-0.0019873	-0.0012374	0.023479	-0.00038598	-0.010149	-0.0071977	0.00097591	-0.0024433	-0.0042755	-0.014003	-0.0010114	-0.0036498	-0.0060026	-0.0018432	-0.010756	-0.0022286	-0.001771	-0.02491	-0.0062764	-0.004538	-0.0020832	0.002521	0.0031631	-0.00024394	-0.0070584	-0.00079098	-0.0014461	0.0047723	0.012511	-0.0055769	-0.0070948	-0.0050183	-0.0098899	0.001541	0.016728	0.0040712	-0.031548	-0.015042	0.014786	-0.017394	-0.025132	-0.016155	-0.0076649	-0.0075481	-0.008838	-0.033974	-0.025975	-0.020118	-0.0078322	-0.048883
7.297e-05	-0.0022063	-0.0091117	-0.006813	-0.0028839	0.0054322	0.00046903	-0.0013832	-0.0086333	-0.011478	-0.016589	-0.0083635	0.0064482	-0.0030511	-0.0053093	0.00014855	-0.00040807	0.0018181	0.0050806	-0.0078877	-0.02097	-0.016973	-0.011835	0.001524	-0.0035233	-0.030612	-0.0052885	-0.026348	-0.029639	-0.013992	-0.0096152	-0.033978	-0.019836	-0.00021886	-0.010278	0.38495	0.0030917	-0.0064884	-0.028398	-0.0010803	0.013806	-0.031976	0.011583	0.0059671	-0.003801	0.014345	0.0056721	0.0047496	0.0029691	-0.00083605	0.016528	0.005195	0.0064951	-0.0052916	0.0023659	-0.00045571	-0.004431	0.010682	0.0010245	-0.0046213	0.0053416	-1.3151e-05	-0.0028805	-0.0016354	-0.0031514	0.0016503	0.0024817	0.00051319	0.005907	0.0019337	0.0036127	0.0057303	0.0036385	0.0022856	-7.7589e-08	-0.0037665	0.0012913	-0.0092872	0.011195	0.00022947	-0.0079258	-0.024029	0.01338	-0.0089106	-0.0070256	-0.0021103	-0.0067842	-0.008965	-0.032475	-0.032621	-0.0047133	0.00013586	-0.0050161	-0.016687	-0.0033024	0.0036162	-0.011195	0.00042702	0.0099862	-0.0093692	0.011255	-0.0052059	-0.0097783	-0.010316	-0.011807	-0.0095648	-0.011071	0.0024677	-0.00036959	0.027495	0.025531
-0.0054811	-0.0013976	0.0096742	-0.0075622	0.039567	0.011499	-0.0063263	-0.010058	-0.031426	-0.010246	-0.010731	-0.051568	0.0014095	-0.007073	-0.00030959	0.016516	-0.015187	-0.0045198	-0.011645	0.0030494	-0.010141	0.010422	-0.00017756	-0.020589	-0.018637	0.00076734	-0.0062657	0.0064948	0.024469	-0.0057002	0.019153	0.36651	0.032342	0.010599	0.024156	0.021824	0.018709	0.017953	-0.031534	0.016238	0.0099577	-0.01363	0.011986	0.021185	-0.00037608	0.013245	0.00012892	-0.0017437	0.013531	0.029206	0.0087176	-0.0012603	0.0046147	0.014404	0.0037212	0.0074258	-0.0052182	0.0046976	-0.0015495	-0.00089191	0.0082921	0.01594	0.010508	-0.0024861	-0.0060858	0.01062	0.0072051	-0.015026	0.00089958	0.021104	0.031954	-0.0019371	-0.0039968	-0.013895	-0.016449	0.0022248	-0.013138	0.018124	0.035885	-0.0059233	0.0012718	-0.0055753	-0.015024	-0.00047239	-0.0070038	0.0010515	-0.01551	0.0012943	-0.0026408	-0.012926	-0.00096245	-0.006874	-0.00095283	-0.0078125	-0.0059278	0.018656	-0.017481	0.0059535	0.033788	-0.040375	-0.00042331	0.014492	-0.019064	-0.0059215	-0.018206	-0.039586	0.0093475	-0.023556	-0.00040415	-0.014348	0.021111
0.014011	-0.0069852	-0.023559	-0.0069849	-0.0044206	-0.0028599	-0.015547	-0.0010563	-0.016662	0.0049565	-0.0079791	0.025072	-0.0073127	-0.0070378	-0.01382	-0.010335	-0.0026081	0.0086272	-0.014935	0.011858	-0.0063235	0.012283	0.0075199	-0.056318	0.0093967	0.016436	0.0029492	0.013643	0.0043263	0.0010772	-0.0068156	0.029526	0.014244	0.0050435	0.0086321	0.0035734	0.019638	0.017898	0.029542	0.0092631	0.0059721	0.0062034	-0.0053748	0.02052	0.01044	0.0058329	0.022579	0.012148	0.0085905	0.015843	0.018701	0.0039988	0.001405	0.0097566	0.020483	0.012577	0.0075147	0.00085277	-0.0049787	0.0076362	0.012813	-0.0011279	0.022316	-0.032346	0.00078401	2.0542e-05	-0.0041608	-0.0028166	-0.012937	0.0015225	0.037093	0.0083453	-0.0054052	-0.0099318	-0.0062428	0.00033475	-0.0084378	-0.0052892	-0.0032154	-0.0091687	-0.01261	-0.019868	-0.018088	-0.0090898	-0.0074643	-0.012859	-0.020978	-0.033176	-0.059326	-0.017801	-0.00030314	-0.017842	-0.0066766	-0.0093347	-0.021566	-0.012061	-0.02187	-0.065792	-0.085623	0.3482	0.0054197	-0.016082	0.0020547	-0.02855	-0.015251	-0.0074101	-0.031846	-0.029304	-0.0094191	0.0102	0.0079522
0.0057526	-0.00071972	0.014404	-0.0026959	0.0015704	-0.0038221	-0.0041989	-0.011913	-0.014656	-0.0045469	-0.0097955	-0.027671	-0.012306	-0.0073786	-0.0074244	-0.0057447	-0.013672	-0.00030914	-0.0061029	-0.0078732	-0.010416	-0.0068574	-0.0040082	0.0017731	-0.0028054	-0.0050521	-0.010819	-0.0038697	-0.0016364	-0.0096259	-0.0064559	-0.00041551	0.0013496	-0.0041591	-0.011177	-0.016283	-0.018293	-0.038049	-0.024099	-0.013867	-0.013284	-0.030943	-0.011247	-0.014222	-0.017477	-0.021997	0.36108	-0.025164	0.012607	-0.034149	-0.0069782	0.0013046	-0.0061912	0.0038971	-0.013242	-0.00088539	0.00059773	-0.0035959	0.0014942	-0.0055617	-0.0083784	-0.023103	-0.019287	-0.0066564	-0.019471	-0.012275	-0.021945	-0.011782	0.00096007	0.0026663	-0.0068404	-0.011188	-0.0019406	-0.0099827	-0.016413	-0.023289	0.010534	-0.030776	-0.017602	-0.010775	-0.012939	-0.0085132	0.0051665	-0.0076199	-0.017158	-0.0063803	-0.020647	0.013137	0.0023761	-0.013298	0.0049104	0.021781	0.0012219	0.0008138	-0.0096501	-0.010988	-0.0028377	-0.0017215	-0.0033036	-0.015695	-0.0046957	-0.013434	-0.0081202	-0.016531	-0.0053033	-0.012935	-0.0009275	-0.0018303	0.0012437	-0.0027173	0.0047179
-0.011096	-0.016438	-0.0076214	-0.0026529	0.0032116	0.012131	0.011729	-0.00088653	-0.0082483	-0.0053825	-0.0066003	0.0045178	0.0015503	-0.010595	-0.00087401	-0.022686	-0.004369	-1.5248e-05	0.0022363	-0.020726	-0.012542	0.00086339	0.0010024	0.04041	-0.003167	-0.022266	0.35732	-0.079209	-0.020382	-0.011553	0.0040976	0.0040083	-0.0037147	-0.0020825	-0.0029599	-0.017806	-0.0047991	-0.0037482	-0.018131	-0.0023525	0.0042391	-0.011081	0.0041566	0.00101	-0.0032315	0.0060809	0.0043685	0.0023227	-0.0015451	0.0069278	0.0040805	-0.0008599	0.0057991	0.0074468	0.0021635	0.00068249	0.0091144	-0.00020909	0.0026177	0.0035972	0.0078277	0.0010697	0.0030977	0.0086099	-0.00026128	0.00051358	-0.0072081	-0.0015081	-0.0042526	0.0032432	-0.0052375	0.001416	0.00062608	-0.0018375	-0.00018141	-0.0069438	0.0010039	0.0014286	0.003814	-0.0095901	-0.012528	-0.0018988	-0.0076822	0.007445	0.00013893	0.00030567	-0.00095724	-0.0058529	-0.036028	-0.023365	-0.00095504	-0.0031696	0.00035696	0.021282	0.0034775	0.00066035	-0.010341	-0.0033667	0.013074	0.0028388	-0.0051358	0.00076593	-0.015023	-0.0070388	-0.0040243	-0.0050019	0.016045	0.0039411	0.0056236	0.013734	0.0095938
0.0022323	0.0060256	-0.00044064	0.00052983	0.0039175	-0.0016791	0.00044261	0.004796	-0.00011782	0.0035895	0.0012806	-0.0029858	0.0028476	0.0015851	0.0047264	0.0018935	0.0028505	0.00065859	0.00053012	-0.0022747	0.0011437	-0.0012493	-1.4013e-05	-0.0024365	0.00068933	0.00033788	-0.0031745	0.0012189	-0.0035595	-0.002785	0.0024111	-0.0025047	0.0027934	0.004419	-0.0042724	-0.0025057	0.013119	-0.010757	-0.0010883	-0.0080903	0.0021488	0.0019633	0.006213	-0.003934	-0.0035985	-0.0045086	-0.0078878	-0.013223	0.019899	0.0016484	0.00063172	-0.0074482	-0.0069237	-0.012014	0.00093948	0.0050765	-0.00088548	0.00062927	0.0020575	0.0038946	-0.0016729	0.00086033	-0.0055193	0.0026292	0.00020899	0.0020197	-0.006309	0.0071133	-0.005085	-0.0015535	0.0011973	0.0014494	0.00073171	0.0022243	-0.0073429	-0.0076289	-0.01621	-0.0094825	-0.013954	-0.0080563	0.0043734	-0.011029	-0.0095427	-0.01433	-0.010382	-0.004348	-0.02353	-0.010884	-0.022663	-0.031354	0.36509	-0.051016	0.0024428	-0.00020877	-0.0093799	-0.0022041	-0.0054952	-0.011811	-0.029097	-0.026168	-0.0073919	-0.00061147	-0.015976	-0.010935	-0.0044097	0.0087784	-0.0012251	-0.0024921	-0.0054361	0.0024604	-0.00051359
0.0068674	0.0049779	0.0099342	0.0028923	0.013735	0.0071259	0.014169	-0.0053842	0.0022284	0.0018937	0.0048265	0.012236	0.01002	-0.0012645	0.0023104	-0.0020448	-0.014588	-0.011802	-0.0013528	0.0042537	0.0036851	-0.0011836	0.000674	0.0067769	0.011936	0.014784	0.0074089	0.015969	-0.00041482	-0.0059374	0.0055141	-0.0018285	0.0056719	0.0016827	0.010888	0.0008072	0.010064	0.0059178	0.0076358	0.00043861	0.0045074	-0.00044422	0.010597	0.0061374	-0.0029856	-0.011166	0.012667	0.0077386	0.0046411	0.0099241	0.0148	0.0075863	0.0016218	0.0042465	0.0039845	0.0014065	0.010686	-0.00057793	0.010328	0.0077248	0.0073611	0.00058081	0.0062713	0.010498	0.0030175	0.013661	0.0052497	0.0096452	0.00052583	0.00029822	0.0044982	9.5904e-05	0.0080506	0.0065085	0.0078866	0.0074367	0.0094518	-0.0013277	0.0062012	0.0060037	0.0041461	-0.0091561	0.004	0.0017765	0.003849	0.0042631	0.011809	0.00038802	-0.0094133	-0.015976	0.0033852	0.00031419	0.00091375	0.0021659	-0.0027735	0.011386	0.0054994	-0.0075489	0.011637	-0.006327	0.32615	0.026179	-0.062866	-0.029836	0.00047886	-0.0080004	-0.0039128	0.0048578	-0.012429	-0.021466	-0.15625
0.018134	0.0079975	-0.003604	0.018518	0.0041248	0.0071295	0.00026641	0.00042537	-0.0064724	0.00083732	-0.012409	-0.0062694	-0.001876	0.0068326	-0.0067025	-0.0087749	0.0011573	-0.00071587	0.0072555	0.0043306	-0.0077011	-0.0066203	-0.00010809	0.009628	-0.0046614	-0.010078	0.010509	0.010999	0.0039211	0.010296	0.0055564	0.0046979	-0.0052492	0.0031244	0.0044196	0.0014408	-0.0047384	0.0091172	0.08293	-0.0073538	0.015131	-0.0071281	-0.014439	-0.0073722	-0.00039554	-0.011218	0.017904	-0.0058434	-0.013083	-0.029681	-0.058637	-0.025805	-0.01335	-0.0094802	0.0091228	-0.0069763	0.0097639	0.012004	0.0059149	-0.0016321	-0.0012879	-0.014412	-0.010215	-0.034567	0.016162	0.010242	0.32874	0.0081109	-0.0032552	-0.018996	-0.010027	-0.023701	-0.018208	-0.0044123	0.0045789	0.0059969	-0.0035919	0.010297	0.0029273	-0.016553	-0.0072472	-0.02419	0.039305	-0.0022166	-0.002655	0.0014473	-0.012863	0.0072421	-0.032664	0.0021279	0.0057186	-0.0021841	-0.0037358	-0.00021509	-0.021249	0.012733	-0.0030622	0.0041807	0.024778	0.0036746	-0.0080313	0.0012374	0.0006335	-0.010538	-0.0186	0.016493	0.012064	0.016826	0.0062213	-0.016854	-0.0026997
0.0097216	-0.011168	-0.0047611	-0.0064519	0.0030548	-0.016917	-0.0038664	-0.0062115	-0.011017	0.0042213	-0.0097437	-0.039847	-0.024223	0.0019981	-0.013675	-0.017233	-0.01068	0.0037414	-0.0075337	-0.031809	-0.015257	-0.0088511	-0.012691	0.0096843	-0.02329	-0.0095589	-0.0075625	-0.026528	-0.023242	-0.032368	0.0035084	0.0050929	-0.0048404	0.0075263	0.0032025	0.0005211	0.020667	0.0068726	0.3131	0.018455	0.0038303	-0.047302	0.023142	-0.0038928	0.00021956	0.0020775	-0.0029592	-0.0020613	0.0061775	0.0046526	0.03969	-0.00098683	-0.0029068	-0.0011814	-0.0043316	-0.00025534	-0.017835	-0.040879	-0.012229	-0.0099951	-0.0095777	-0.01323	-0.010496	0.020585	-0.0054238	-0.013321	-0.06943	-0.0094965	-0.007534	-0.0024553	-0.0081097	0.00036007	-0.024257	-0.0062465	-0.01836	-0.030062	-0.013482	0.011038	-0.024881	-0.019535	-0.020404	-0.0033868	-0.0083309	-0.025687	-0.015452	-0.0083729	-0.0094843	-0.01402	-0.017655	-0.019401	-0.009372	-0.011669	-0.0018275	-0.0031709	-0.0023103	0.020294	-0.011172	-0.0082169	0.031752	-0.027302	0.0010976	-0.00033054	0.012996	0.0064655	-0.0061223	-0.042706	0.015039	-0.006739	0.017107	0.031638	-0.0049099
0.011298	0.0086569	0.014935	0.0043953	0.0055534	0.0031303	-0.0056692	0.013764	-0.0053907	0.01796	0.014223	0.0060532	-0.0036634	-0.0043542	0.01226	0.009455	0.0052921	-0.0044754	0.0092924	0.0047327	0.0039496	0.0030572	0.0073076	-0.0059765	-0.0018879	-0.020844	-0.0070456	-0.0045591	-0.012322	-0.0031232	0.0066108	-0.0038022	-0.00079977	-0.00097523	-0.013635	-0.012093	0.0062341	-0.0044058	-0.011914	-0.0063571	0.009993	-0.039688	-0.0035911	0.0019129	0.34118	-0.010257	0.0049018	-0.0064156	0.0057714	-0.033432	-0.01266	-0.0017768	0.010176	0.013082	0.0072292	-0.0029979	-0.0019347	-0.01011	-0.0054546	0.01052	-0.00095493	-0.0017012	0.011138	-0.013639	-0.0012134	0.0067731	-0.0119	0.0031567	0.0028547	0.0094299	-0.0044062	-0.0043046	-0.0061754	0.01292	-0.0032134	0.011081	-0.002787	0.0045194	0.020132	-0.014673	-0.010699	-0.022054	0.0066125	0.0065343	0.0063956	0.0037457	0.01109	0.0013671	-0.035513	-0.013451	1.6759e-05	0.00027032	-0.0030667	0.0024859	-0.0067982	0.0078099	-0.0085401	-0.013797	0.020561	-0.010738	0.0074385	0.010373	-0.0024608	0.0018365	-0.0016207	0.00024765	0.0027726	0.017436	0.012579	0.014556	0.017013
0.013924	-0.02677	0.002085	-0.010623	-0.00044202	0.0056783	-0.0074458	-0.00031066	-0.031354	0.011013	-0.0025585	-0.0046431	-0.0094113	-0.013258	0.0055759	-0.017072	0.014056	-0.00073862	-0.04705	-0.013386	-0.007332	0.019848	0.33813	0.011544	-0.016209	-0.014189	-0.016302	-0.02592	-0.015979	0.0058951	-0.0024784	-0.006014	0.011152	0.0042626	0.0057443	0.00024946	0.0047176	0.0032595	-0.0096097	-0.0089981	0.0046779	0.011734	-0.00084485	-0.0028008	-0.012375	-0.0060137	-0.0077511	-0.013365	-0.0031492	-0.010088	0.00092499	0.0036567	-0.0047437	-0.010626	-0.0041714	-0.0085131	0.0019669	0.0056184	-0.0045463	-0.015054	-0.009512	-0.0079703	-0.0049896	0.019216	-0.018476	-0.0066748	0.00059406	-0.01195	-0.0029553	0.00035161	-0.01962	-0.013491	-0.0078619	-0.00084217	-0.010135	-0.0060729	-0.0097637	-0.0098613	0.002974	-0.015557	-0.0088011	-0.0073223	0.001755	-0.019283	-0.0037511	-0.0075872	-0.0029781	-0.0059363	-0.0057353	-0.0075391	-0.0064406	-0.0030404	-0.0049672	-0.0085901	-0.016395	0.0020657	-0.0088765	-0.012017	0.0086557	-0.008996	-0.00064282	0.022687	-0.017788	-0.0091861	-0.00050671	0.0055205	-0.0064444	-0.0052731	0.0024203	0.028436	-0.0041038
0.0039734	0.010143	-0.00407	0.0034505	0.0015525	0.0014737	-0.00013389	-0.0044236	-0.0022084	0.0070689	0.0049191	-0.0045132	0.0040259	-0.0068611	0.0011436	0.017937	-0.0016441	0.0035849	-0.0032232	0.0058674	-0.00099972	-0.0078615	-0.0044212	0.0097288	0.0021093	0.001866	0.0012802	-0.019939	0.012723	0.013703	-0.02077	0.023524	-0.01883	-0.0028219	-0.021435	-0.014625	-0.0041268	-0.0078696	0.0082776	-0.014206	0.024325	0.0080493	-0.051889	-0.045424	-0.015196	-0.0072729	-0.012487	0.0064675	0.0049354	-0.0052866	-0.017259	-0.015189	-0.0071005	-0.0040048	-0.015491	-0.0036936	0.005325	0.013481	0.0084231	0.0058789	-0.0072518	-0.0002405	-0.0018596	0.005271	-0.0056218	0.0029436	-0.05939	0.032386	-0.0020704	0.0049604	-0.010604	-0.0029375	0.0097428	-0.0086349	0.0057403	0.01316	-0.010052	0.01787	0.0085939	0.0061621	0.012234	-0.011278	0.32516	-0.0060839	-0.0030311	0.011833	-0.0035566	0.0044723	-0.033091	-0.029866	0.0076418	-0.00054306	0.00072892	-0.020383	-0.011517	-0.018907	0.0090214	-0.01587	0.036313	0.018448	0.0029272	-0.0045142	0.0063115	-0.0054661	0.0023058	0.0015432	-0.037871	-0.012205	0.007904	-0.012314	0.011277
-0.0088883	0.018068	-0.0089361	0.0087443	-0.00028971	0.0037683	-0.0061843	0.0047904	-0.0030046	0.0004365	0.011386	0.0010498	-0.0080409	-0.0030829	0.0063031	-0.0023256	0.0009632	0.0035669	-0.0059219	0.0099982	0.0080666	-0.0019475	-0.0018678	-0.011752	0.0047811	-0.0079231	-0.0075725	-0.0051101	-0.0083939	-0.0019667	0.0034124	-0.0024277	-0.013015	-0.006171	-0.010708	-0.01813	-0.02723	0.011768	-0.015966	-0.0070689	-0.022795	-0.013798	0.33691	-0.035047	-0.009933	-0.0087875	0.00076415	-0.0082841	-0.0027546	-0.015903	-0.0078598	0.007521	-0.0058669	-0.009665	0.0040768	0.0074297	-0.00035446	0.0071911	0.0073498	-0.0033153	-0.0035543	0.0010323	-0.0010462	-0.0020832	-0.001015	0.0022239	0.0023925	0.018153	-0.010026	-0.0046003	0.0050762	0.0091598	0.0058029	0.010618	0.0077227	0.012276	0.0089363	-0.027	0.013328	-0.013369	-0.0067915	-0.017429	0.044676	0.016624	0.0079114	-0.0055023	-0.029993	-0.00057351	-0.0081005	0.0042248	0.00088933	-0.00041833	0.0062678	-0.01289	-0.00089366	0.0074415	-0.011699	-0.003986	0.0094931	0.010992	-0.0077303	0.0046579	-0.0072709	-0.012522	0.00059019	0.007733	0.01072	0.0040519	0.0064397	0.0048684	0.0071721
-0.00039025	-0.0017903	0.0042098	-0.0052111	-0.00068267	-0.018061	0.0032012	0.0018654	-0.0084604	0.00038619	-0.0099577	-0.0030181	0.01062	0.0084758	-0.0083771	-0.002597	0.0077304	0.0061175	-0.0011017	-0.0051592	0.0009297	0.00024729	0.0019372	-0.011924	-0.0020081	-0.016929	-0.0063272	0.00031724	-0.009909	0.0035329	0.011867	-0.0043795	-0.0043857	-0.0018409	-0.011967	-0.017832	-0.01273	-0.0046923	0.0044782	-0.006039	0.0018022	-0.013201	-0.0042208	-0.015331	-0.0036178	0.33319	0.0076871	-0.0072461	-0.0031585	-0.039405	-0.050477	0.0029143	-0.0087887	-0.010501	-0.0060008	0.0037164	-0.0034639	-0.010916	0.0049667	0.0027576	-0.010263	-0.0014503	-0.005386	-0.037205	-0.016922	0.0051215	-0.0033281	-0.010203	-0.0070002	0.024716	0.017535	-0.0020935	0.014447	-0.013499	0.00043183	-0.012593	-0.0040963	-0.040309	-0.0045937	-0.00032987	0.0021711	0.011215	0.0034215	0.011868	0.0033076	0.012324	0.010226	0.0018087	-0.013161	-0.014067	0.0021042	0.01462	0.0046443	-0.0019295	0.0063058	0.0065555	-0.010886	-0.0012723	-0.0031385	-0.0070175	0.0098165	0.0049852	-0.01521	-0.0098613	-0.0040037	0.017987	-0.0042071	-0.0062177	-0.0026997	0.0093181	-0.0063884
-0.0048017	-0.017405	-0.0019658	0.0009981	0.019543	-0.0051908	-0.004997	0.0037044	0.0088247	0.0063246	-0.005902	-0.0049837	-0.025658	-0.0037272	0.00020752	-0.022617	0.0015422	-0.0090256	0.0072126	-0.0014984	-0.013097	-0.00090027	0.0070356	0.0009138	-0.0018446	-0.012322	0.0021924	-0.031244	0.33382	-0.0011023	0.012824	-0.03613	0.014541	0.010394	0.013616	0.012477	0.012408	0.0060202	0.0027196	0.016787	0.0065287	-0.0073638	0.012028	-0.0023529	0.0015945	0.0084011	-0.00058738	0.0066447	0.00044387	0.001752	-0.0089821	0.0070616	0.00068228	0.0076881	0.0042062	-0.0023782	-0.0087816	0.0074248	-0.00065563	0.0014962	-0.0020593	0.0023345	0.0017771	-0.010413	0.00086986	0.0030231	-0.0093514	0.0076857	-0.0053024	0.0018867	0.0066694	-0.012734	0.00058262	-0.0075615	-0.0066654	-0.010915	0.00019813	0.0040407	-0.00018494	0.0031243	0.00095856	0.0018145	-0.0096107	-0.01239	-0.010359	-0.011595	-0.011816	-0.0039055	-0.035578	0.0024942	-0.0019125	0.00065531	-0.0021995	0.01635	0.0097583	-0.0052318	-0.012041	-0.008533	0.022011	-0.010886	0.0014485	-0.0071149	-0.0081544	-0.022413	0.0031539	-0.01704	-0.0016537	0.0142	-0.0080535	0.011983	0.0059725
0.012868	-0.0065416	0.00056682	0.0057136	-0.0014365	-0.005311	0.0031181	0.0078758	0.0052842	0.011578	-0.0049848	-0.0040333	0.002494	0.0026931	0.0082278	0.0056631	0.0012179	-0.0062076	-0.0010652	0.0057029	0.0045041	-0.0020615	-0.002262	0.0041308	-0.0029889	0.0027487	0.00043949	-0.0027863	0.0053633	0.010963	0.0045345	0.0096531	-0.0029126	0.001804	0.0035319	0.0069097	0.017423	-0.011448	0.011536	0.00045997	-0.015569	0.0087256	-0.0097571	0.0068226	-0.0044643	-0.0053583	0.013633	-0.015366	-0.0025197	0.0060774	-0.0053847	-0.0014263	-0.0019713	-0.0069513	0.0088408	0.00048897	0.0020794	-0.00014819	-0.0014694	-0.0039171	0.00061703	0.0023608	0.0073424	0.013211	-0.0037295	0.0088344	-0.0062761	0.021314	-0.0058838	-0.0029771	0.0030688	-0.0080831	0.0022603	0.0017258	-0.0028965	-0.018687	-0.020437	-0.0421	-0.016055	-0.00099531	0.0082363	-0.0028469	-0.0013161	-0.028067	0.33796	0.00098674	-0.028971	-0.0020997	-0.016127	-0.0058914	-0.0021985	-0.00076455	0.0043472	-0.0059521	-0.0038415	-0.0019297	-0.00035149	0.0019333	0.0048364	0.00050243	-0.002126	0.00042035	0.0063981	-0.004666	-0.0014511	-0.0030749	-2.8721e-05	0.011496	-0.0031402	0.0022866	0.0050326
0.0054811	0.0059786	-0.0017387	0.0036926	-0.0032586	0.0099377	-0.0054421	-0.0012528	0.0040714	-0.011433	0.0012772	-0.0073995	-0.0070903	-0.0050504	0.00036641	0.00062544	-0.0010934	0.00035094	0.0035252	-0.0047202	0.0041545	0.0077804	0.0074631	-0.00098545	0.0042548	0.00075772	-0.0052048	9.6356e-05	-0.010825	-0.0078035	0.0026197	-0.0095645	0.005045	-0.004169	-0.010835	0.0013511	0.017102	-0.0033359	-0.0021539	-0.022199	-0.033616	-0.027226	0.00090717	-0.00067871	-0.019864	0.0043932	-0.011249	-0.0024145	-0.00043439	-0.0029423	-0.009404	0.004649	0.0040809	0.33875	-0.013748	-0.0054244	-0.0079385	0.0048737	-0.010881	-0.014408	-0.013914	-0.0010974	-0.00038239	-0.01524	-0.0028024	0.0044244	0.0048094	0.001435	0.0043066	-0.014607	-0.033559	-0.0090792	0.006496	-0.0038051	-0.0045633	-0.0043183	-0.0055589	-0.0078785	0.0063956	0.00016682	0.0060906	0.0066863	0.0033293	-0.010172	0.0041984	0.0054972	-0.0073437	0.0055898	-0.0022755	0.013155	-0.0014092	0.010668	-0.0069726	-0.0099104	0.0033983	0.0030121	0.0021836	-0.0018485	0.0088104	0.0033931	0.00050405	0.00070548	0.00080258	-0.0022983	0.0071427	-0.006251	-0.0048069	0.0098253	0.0015457	-0.0007783	0.00228
-0.022723	0.0093725	-0.002131	-0.00011538	-0.0095518	0.0080615	0.00023573	-0.011073	-0.0071368	-0.011609	-0.0070786	-0.0075019	-0.0080618	-0.0076135	-0.011288	-0.011277	-0.0067615	0.0047317	-0.0055894	-0.0063369	-0.013154	-0.0044977	-0.0048374	-0.0040528	0.0023222	0.00058882	-0.0080004	-0.0049145	-0.0064278	-0.018624	-0.01114	-0.0045318	-0.012463	-0.0017868	-0.0014887	-0.0059938	-0.0071899	-0.005366	-0.0076008	-0.0051951	-0.0001686	-0.0199	-0.0055787	-0.006034	-0.013214	-0.0048956	-0.0064955	-0.00016747	-0.00057945	-0.0096534	-0.029872	-0.00083335	-0.011492	-0.016999	-0.014384	-0.0030357	-0.013484	-0.0027811	-0.015254	-0.0035493	-0.017014	-0.0249	0.32672	-0.01231	-0.0069431	-0.0111	-0.0043801	-0.00080286	-0.0014532	-0.020335	-0.038363	-0.017277	-0.0072753	-0.0050292	0.00092741	-0.0044164	-0.019362	-0.016117	-0.020851	-0.00069109	-0.013337	-0.0031777	-0.0038726	0.0029911	-0.0070999	-0.012662	-0.011647	0.0018644	-0.0065569	-0.0032749	-0.0024076	0.0060085	-0.010193	-0.01323	-0.0047265	-0.00023252	0.00072446	-0.0076397	0.0092898	-0.014494	-0.00030062	-0.00035683	-0.0039833	-0.0081254	-0.010479	-0.014189	0.0024049	0.0090623	-0.0096351	-0.0029987	-0.0032753
-0.014566	-0.023093	-0.0075605	0.0079888	0.049626	0.007002	0.024355	0.0086499	-0.02036	0.02801	-0.02124	-0.032798	-0.0097521	0.019903	-0.0043189	-0.0041819	0.0023308	0.0048801	0.020788	0.0097426	-0.010687	-0.0034134	0.0021428	0.004219	0.0018123	-0.012447	-0.010265	0.019112	-0.0023222	0.024046	-0.012994	-0.0051466	-0.0090578	-0.00081023	-0.0037923	0.011245	0.01128	0.0038411	-0.010429	-0.0058923	-0.010559	0.015239	-0.011813	0.0093169	0.00087927	0.0052751	-0.00045435	-0.0041688	0.0014871	0.0083221	0.017484	-0.0036935	-0.011521	-0.0021439	-0.00334	-0.010827	-0.019239	-0.0098173	-0.015066	-0.0072692	-0.0082025	-0.012932	-0.0013936	-0.010847	0.013503	0.010608	-0.016196	0.016219	-0.0098244	-0.0019354	-0.021412	-0.0060802	-0.0021775	-0.0066075	0.0047666	0.014736	0.0066571	0.0027406	-0.015036	-0.013581	0.0036141	0.016475	0.032368	0.0042233	0.00088824	0.0016003	0.018535	0.0064757	-0.0010047	0.019222	0.0072563	-0.0008783	0.0023891	-0.0024622	0.0079741	-0.011688	0.0019511	-0.039121	-0.012899	0.023906	-0.0057937	0.0033923	-0.038344	-0.029556	0.013264	0.022036	0.29664	-0.010944	-0.0041711	-0.0081079	-0.0026176
-0.0083405	-0.0027607	0.017441	0.00068658	0.0058931	-0.0029513	-0.0049777	-0.0075412	-0.0094933	0.00081904	-0.015285	-0.01063	0.0042608	0.01756	-0.0026856	0.0021465	-0.0060408	-0.077167	-0.028882	0.0087076	-0.0064083	0.00081635	0.003624	0.045049	0.29315	-0.087771	-0.0104	0.0022529	-0.0034346	0.0029567	0.000108	0.0082681	-0.0096835	-0.00047647	-0.0033649	-0.0083924	-0.0024787	-0.0082605	0.0072143	0.0042432	-0.011827	-0.014102	-0.005686	0.002747	-0.0058021	-0.0065501	-0.010554	-0.0086605	-0.0024104	-0.010613	0.001482	0.00067364	-0.0035196	-0.0033867	0.00036335	-0.0005024	-0.0059718	-0.0026266	0.00069303	-0.00095849	0.0050489	-0.0018479	-0.0057139	-0.010963	-0.0032383	-0.0058919	-0.0017887	0.0045923	0.0022823	0.0048293	0.0042221	0.0036225	-0.0019438	-0.0017504	-0.00085104	0.0023235	-0.0016208	0.0045171	-0.0045252	-0.0043698	-0.0055295	-0.0036073	-0.0059458	-0.003067	0.0010729	0.0042063	-0.0022708	-0.0031856	-0.00098869	-0.020215	-0.0030068	0.00010982	-0.00093812	0.0016077	0.011963	0.016019	-0.0036325	0.00037959	0.0043459	0.0021445	-0.015135	-0.015367	-0.027478	-0.0015606	-0.015363	-0.022318	-0.0078041	-0.015089	0.00070437	0.0045927	-0.0022341
-0.012464	-0.014299	0.00070499	0.0012227	-0.016176	-0.00073998	-0.0062419	-0.0044592	-8.9325e-05	0.010169	0.0085383	0.0012358	0.011008	-0.015861	-0.0018155	-0.0040234	-0.0021312	0.0064769	0.0070167	-0.0077394	-0.027262	0.0024037	0.010435	-0.0090898	0.00045279	0.010961	-0.021783	0.0087104	-0.01991	0.020447	-0.024567	0.0047443	-0.0034758	-0.00019862	-0.0002296	0.0068542	0.0097963	0.0022763	0.0032678	0.011482	0.0091329	0.0011912	0.011742	0.011216	-0.0053179	0.001976	0.0033918	-0.0065374	-0.0024204	0.0026379	0.010785	-0.0021283	-0.0018151	0.008243	0.0081273	0.0061052	-0.0012057	0.0028806	0.0096587	0.0046862	-0.00015614	0.010112	0.011333	-0.014411	0.004584	0.0095771	0.0025905	0.00014057	0.0011285	0.013104	-0.026061	0.0075142	0.012079	0.010727	0.0223	0.005367	0.0086566	0.011736	-0.0010665	-0.0050639	0.0056478	0.015254	0.016625	0.008894	0.0080245	0.016423	0.0027063	0.0047398	-0.046151	-0.0080772	-0.0029043	0.00010495	0.010673	0.30371	0.022035	0.0036885	-0.008435	-0.022679	-0.024563	-0.014964	-0.0067623	-0.0057943	0.0045264	-0.026654	-0.00034337	-0.037371	-0.0088624	-0.004417	-0.0038263	-0.0092547	0.0019038
0.00063471	0.0018995	0.0059989	0.00055182	-0.0033477	0.0024903	-0.00085435	-0.00021548	-0.0055171	0.0021725	0.0034422	-0.018155	0.0081515	-0.0013176	0.0020121	0.0037505	0.004648	-0.0030503	-0.0047616	-0.0022725	-0.012164	-0.0035989	0.0064472	0.014556	-0.00056463	-0.00011936	-0.0075941	-0.0027387	-0.006905	-0.0042733	0.0050671	0.0057872	-0.0026078	0.00093569	-0.0058299	-0.0081756	-0.010133	-0.0085249	-0.010687	-0.012437	-0.024587	-0.020493	-0.00099592	-0.025942	-0.00060797	-0.0031815	-4.5962e-05	0.31156	0.0087972	-0.010532	-0.0086252	0.0076887	0.0041115	-0.0054618	0.0019265	-0.00017009	-0.0048797	-0.0081895	0.0024033	-0.0035371	-0.0059568	-0.012342	-0.011938	-0.0062458	-0.010422	-0.0027514	0.0074582	0.0095361	-0.0083117	-0.0053025	0.0022508	-0.0049254	0.0012375	0.00086612	0.0025192	-0.018705	-0.0039269	-0.021497	-0.01332	-0.0080881	-0.010102	0.0033395	-0.0052076	-0.02253	0.0045345	-0.0033167	-0.017803	-0.0096023	-0.0052402	-0.0074522	0.0080578	0.0039872	0.0015405	0.012087	0.0010422	0.008623	0.0056018	-0.0025357	0.0019237	-0.0055814	-0.001877	-0.0042929	0.0045805	0.0019387	0.0028486	0.00017007	0.0018599	-0.0015341	-0.0076452	0.0060794	0.0020702
-0.0090812	-0.015365	-0.013356	-0.0033918	0.0017784	-0.017247	-0.025354	-0.013054	-0.03018	-0.0034644	-0.016797	-0.025469	-0.011996	-0.027982	0.0029713	-0.025683	-0.0076088	-0.0094506	0.0034698	-0.026925	0.29674	0.013793	-0.0060047	-0.0083169	-0.0020041	-0.00097867	-0.00085588	-0.0051483	-0.0039664	0.0025411	-0.0079387	-0.0047179	0.0033026	0.0065301	0.0078793	0.0046836	0.0028913	0.0015839	-0.010217	0.0059927	0.0009367	-0.0037509	-0.0042759	0.0018393	-0.0039625	-0.00091362	-0.005533	0.0065736	0.003054	-0.0044121	-0.0025575	0.0022356	-0.0012473	-0.0052255	0.0039016	-0.0032212	0.0041674	0.0082159	-0.0045468	-0.001093	0.002335	-0.0029441	-0.0024481	-0.014332	-0.0035335	-0.011436	0.0059109	-0.0038546	-0.00098382	0.00096643	-0.0064716	0.003351	0.01061	0.010135	-0.0056422	-0.0038464	0.00031679	-0.0022203	-0.026355	-0.0022119	-0.017482	-0.022076	-0.00010786	-0.016799	-0.0051728	-0.003881	-0.0031656	-0.0028882	-0.032463	-0.016132	-0.0077591	-0.0030496	-0.0093755	0.013378	-0.013422	-0.018054	0.0090088	-0.0074133	0.0063968	-0.011517	-0.0013093	-0.017495	-0.0061565	-0.0089559	0.0011835	-0.043991	0.011737	-0.014206	-0.008506	-0.0046361	-7.954e-05
-0.010104	-0.0077721	2.9759e-05	0.0027972	-0.00028771	5.4964e-05	0.0014771	0.00059016	0.0012273	0.00095323	0.003692	0.0029456	-0.0043838	-0.003625	0.0020215	0.0052864	0.00094449	0.0023436	-0.00051762	-0.00013747	0.0061727	0.0017168	0.0050842	0.002815	0.0011875	0.00040337	0.001428	-0.0017891	0.0029846	0.0020015	-0.0030345	-0.0018016	-0.0049798	0.0053666	0.0036147	0.0019816	-0.0018057	-0.0049341	-0.0038273	-0.010845	-0.014948	-0.010738	-0.0086459	0.0073598	0.0025373	-0.0034104	-0.0014385	-0.0034419	-0.0002138	-0.0032395	0.0031299	0.0026869	-0.002856	-0.009319	-0.012173	0.3135	-0.029961	-0.011375	-0.014642	-0.019203	-0.020918	-0.011464	-0.0035769	-0.0017974	-0.00025617	0.001958	0.0011927	0.00080993	0.0019145	-0.011416	-0.017434	-0.011669	-0.0075205	-0.0050851	0.0021556	0.00043534	-0.0031856	0.0012097	0.0039841	0.0022273	0.001686	0.0032711	0.0016419	0.001145	0.0048226	0.0035679	0.00050955	0.0058251	0.003788	-0.0034558	0.0027204	-0.00077086	-0.004699	-0.0041113	-0.00042357	-0.0012169	0.003261	-0.0031176	0.0056952	-0.00062169	0.0030422	0.0028897	0.0037701	0.0010209	0.0043227	0.003953	0.0024107	0.0049557	0.0092453	-0.0038698	0.0008621
-0.0014969	0.0069751	1.0987e-05	0.0059804	0.0061616	-0.001372	0.0033036	0.00016906	-0.0036342	0.014494	-0.0030199	-0.0077039	0.001268	0.0026784	-0.0014103	0.0066356	-0.0029856	0.0030851	0.0016399	0.0021897	-0.0010499	0.0087784	0.0082401	0.0065741	0.0016024	0.0046181	0.0027267	0.0074638	0.0050865	0.0043328	0.00093199	0.018438	0.0069153	-0.0033764	0.0066108	0.0040666	-0.017553	-0.014063	0.012018	-0.0033143	-0.02568	-0.0032857	-0.0089868	0.016752	0.013918	-0.0093696	-0.023868	-0.011431	0.0015328	0.017967	0.0046608	-0.00046064	-0.00092676	0.0013023	-0.00065174	0.0039297	0.007346	0.003402	0.013024	0.0079102	0.0068722	0.014737	0.02124	0.0066618	0.0012136	0.010309	-0.0037316	0.00052144	0.018222	-0.0063252	0.014053	-0.010186	0.0040868	0.0037787	0.009553	-0.044145	0.28745	-0.094858	-0.047624	-0.0012308	0.0089342	0.017029	0.012328	-0.039916	-0.013129	-0.001256	0.0056609	0.0097472	0.010731	-0.028423	0.00032645	-0.037487	-0.0032644	-0.0016389	0.0042569	0.0069807	0.015919	0.0075125	0.0039153	0.0071706	-0.00757	0.007554	0.0081751	-0.00090999	0.0092326	0.012974	-0.0048621	0.0050103	-0.0030248	-0.00054138	0.005169
0.0059568	-0.0021432	0.0025617	0.0029193	0.0059028	0.0077819	0.0052579	-0.0010549	-0.00081845	0.0048104	0.004496	0.0090561	0.012233	0.0058317	-0.00051978	0.0012126	-0.006305	-0.0010849	0.0027731	0.00055392	-0.00097754	0.00041866	0.0033963	-0.022874	0.0019774	0.00067519	0.0095677	0.0042479	0.0068974	0.0029305	-0.0048437	0.0086123	0.0012968	0.0028152	0.0058264	-0.0010343	0.0036487	-0.0016101	0.0061066	0.0056676	0.0032157	-0.0018846	0.0051609	-0.018764	0.0021621	-0.0056953	-0.0042177	0.0010598	-0.0071305	0.0024372	-0.00097224	-0.0074372	0.0044523	-0.0071339	-0.0075451	0.00019571	0.0079362	-0.00021316	0.00085892	0.0037976	-0.0077493	-0.0047605	-0.0077752	-0.017108	-0.0046307	0.0040266	-0.0037965	0.0027107	0.3012	-0.021237	-0.0085552	0.0090205	0.013286	0.0017656	0.0044943	-0.019465	-0.045223	-0.059387	-0.031792	-0.0089786	-0.010372	0.00066257	0.0046872	-0.01663	-0.0057624	0.012547	-0.0022396	0.0058949	0.0024158	0.0069252	-0.002747	-0.0032453	0.011519	0.001116	0.0062865	0.0029553	0.0043666	-0.0013676	-0.0001684	0.0079005	4.636e-05	0.00073249	0.0053391	-0.0029647	0.0056065	0.00069065	0.0050951	-0.00167	-0.0015231	-0.00065169	-0.0013184
0.0048792	0.019517	0.014095	0.001993	-0.016408	0.0097928	-0.0078541	-0.006888	-0.010124	0.0018061	-0.012056	-0.028753	0.0051698	0.019369	-0.0010254	-0.026178	-0.0015611	0.004552	0.0047776	0.013718	-0.010963	0.0071421	-0.00092003	-0.016039	0.0030015	-0.0031834	-0.010071	-0.0026248	-0.015885	0.0050152	-0.014788	-0.022129	-0.0097008	-0.00132	-0.012729	-0.011467	0.00011797	0.0036559	-0.0074684	-0.012679	0.013961	-0.033879	0.00088992	0.017376	-0.0016417	-0.010463	0.0042747	-0.0065807	-0.00043077	0.2492	-0.14488	0.00094854	-0.0085137	-0.010003	-0.0017277	0.0027155	0.0040298	-0.0070178	-0.010557	-0.0044297	0.0031165	-0.011235	-0.023007	-0.050387	-0.00078911	-0.011082	-0.02166	-0.0073486	-0.0074706	-0.00025258	-0.0052192	-0.013094	0.00016047	-0.0024849	-0.0010814	0.0036463	-0.0088453	-0.004792	-0.0016707	-0.021219	-0.025819	-0.013306	-0.0083618	-0.021665	-0.005147	-0.011126	-0.0050867	-0.0048174	-0.042416	0.0010152	-0.0093849	-0.003108	-0.0079671	-0.0019641	-0.0003032	0.0099793	-0.014605	0.0015439	0.020104	-0.014371	0.0055488	0.0040964	-0.0094009	-0.015421	0.010478	0.02158	-0.0063563	-0.013854	-0.0026719	0.0051608	0.0094714
-0.0094653	-0.019006	0.00236	-0.00047628	0.0084278	-0.012832	-0.019593	0.0033588	0.016153	-0.00053513	-0.00091331	-0.0037726	-0.0098635	-0.0064036	0.0071155	-0.020893	0.00011943	-0.0086306	0.0010548	-0.017824	-0.01429	-0.015188	-0.015246	-0.012698	-0.0033296	-0.003479	0.0013712	-0.026716	-0.013353	0.30121	0.015125	0.0017983	0.011096	0.0060907	0.0016856	0.0041881	0.0059702	0.006699	0.0066144	-0.0038608	0.014969	-0.0080265	0.0065416	0.003162	-0.002657	-0.0028634	0.0056556	0.0049262	0.0018076	-0.0080534	0.0095064	-0.0020563	0.0012701	0.0065653	0.0011549	-0.001486	0.0011083	-0.010702	0.0041941	-0.0047954	-0.0032141	0.00057236	0.012159	-0.0031119	0.0065207	1.1806e-05	-0.0093474	0.00097633	-0.0042802	-0.0026858	-0.006028	-0.0020914	0.0020074	0.002233	-0.0072447	0.00056553	-0.0023919	0.0021245	-0.017575	-0.012293	-0.0042785	-0.0019376	-0.016321	-0.011838	-0.012389	0.0025613	0.00089237	-0.0092928	-0.0042533	-0.0032786	-0.00093533	-0.0046782	-0.0016848	-0.022424	-0.0050423	-0.0094108	-0.002329	-0.008721	0.019256	-0.0070835	0.00012	0.0097014	0.0056399	-0.0028666	-0.0036876	-0.0050779	-0.020132	0.0048544	-0.0023468	0.0074602	-0.012756
0.013079	0.026988	0.0085736	-0.0018077	-0.0017111	0.012587	-0.0019951	-0.00053373	-0.0038794	0.018165	0.0068158	0.0080867	-0.01229	-1.1533e-05	0.0014259	-0.014726	0.0070766	0.0080426	0.0078276	0.0082481	0.021162	-0.0084881	0.0045664	-0.011916	0.0043268	-0.0090529	-0.0062475	-0.0010844	-0.010599	-0.0010029	0.0026875	0.001714	-0.0029147	-0.00088295	-0.0093177	0.0026795	-0.0023988	-0.0037719	-0.00071209	0.010029	0.0162	-0.0087147	0.0075833	0.0028982	-0.0041278	-0.014728	0.013244	-0.00013053	0.0011324	-0.012407	-0.0095182	0.0069489	-0.0021331	-0.0051825	-0.0013196	-0.0015001	0.0016531	-0.0052426	0.0055225	0.00023482	0.0040855	0.0089281	-0.00098237	0.0050694	0.0095038	0.015964	0.0035235	0.012461	0.0086439	-0.0025145	-0.008642	0.0014028	0.0021201	-0.0029021	-0.00037459	-0.0056578	-0.0028978	0.028329	0.026606	-0.0024439	0.013411	0.28494	-0.010189	-3.0433e-05	-0.0023226	-0.00025011	-0.013314	-0.008362	-0.081258	-0.034495	-0.0043452	-0.0010525	-0.0039827	-0.028638	0.0022255	0.011482	-0.0033059	-0.016927	0.0029233	-0.0030546	0.0063238	0.002417	-0.0029625	-0.0046951	-0.0063886	0.010514	-0.0097972	0.015901	-0.0046794	-0.0013496	0.016701
0.012844	0.003552	0.014111	0.0014065	0.0099182	-0.0008275	0.0037729	0.0003709	0.013337	-0.0018438	0.0070152	-0.0021097	0.015485	-0.0076398	0.0083976	-0.005278	-0.002079	0.00013551	-0.0003351	-0.0019511	0.0028102	0.0081261	0.017638	-0.021992	0.0027275	-0.0059223	-0.0081939	-0.0063094	0.0047487	0.00056161	0.011782	-0.00089528	0.0033271	0.0014588	0.0027	0.0018835	0.022329	0.0050283	0.011895	-0.0069387	0.022712	-0.015636	-0.014227	0.0038955	-0.0080421	-0.013141	0.00058212	0.0164	-0.0010397	0.011547	-0.0035147	-0.013219	-0.0023293	0.0055368	0.0066205	0.002118	-0.0005402	-0.0038737	0.0068374	0.0062523	0.0092764	0.012129	-0.006636	-0.010464	-0.011982	0.003063	-0.0023442	-0.0015211	-0.012404	-0.01058	0.0020039	0.0060545	0.0080129	0.0027711	0.0069103	-0.0082893	0.0057383	-0.054852	-0.062402	0.0097088	0.0012899	-0.0041543	-0.0011395	0.2821	0.0052437	0.0031215	-0.018411	-0.011953	-0.022156	-0.031145	-0.0025856	-0.032399	-0.0070217	-0.013283	0.0024523	-0.0076771	-0.0038404	0.0054188	0.018136	-0.0040504	-0.0042681	-0.0040901	0.008427	-0.00081863	0.017039	-0.019215	0.0014012	0.0037476	0.010792	-0.0088426	0.00050353
0.28388	0.0056956	-0.0007969	0.0052297	-0.0090825	-0.010796	-0.0069175	-0.0081723	-0.0027503	-0.01157	-0.0053358	-0.041353	-0.0055321	-0.033088	0.00099104	-0.020572	-0.0011538	0.0036871	-0.0056412	-0.0078351	-0.0098479	-0.0025871	-0.010396	-0.0032306	0.0066447	-0.0025926	0.0086064	0.01225	0.0035334	0.0015907	0.015194	-0.012593	-0.0022188	-0.0017103	-0.00085592	-0.0042244	-0.00095529	0.00056727	-0.025124	-0.0027825	0.005745	-0.00095658	0.0026259	-0.0052349	-0.012831	0.0032255	-0.010965	-0.0034908	-2.5461e-05	-0.0050658	0.01427	-0.004814	-0.0013905	-0.0051091	0.012842	0.013405	-0.0019821	-0.024918	0.022153	0.022265	0.004886	0.0095786	0.016673	-0.02441	0.00033125	-0.0034421	-0.010016	-0.0041181	-0.0020805	0.010792	-0.011885	0.013961	0.013543	0.021461	0.0051002	0.017182	0.0079422	0.0024842	0.0095919	-0.0019837	-0.0040058	-0.0088102	-0.00074785	-0.016734	-0.0071377	0.005708	-0.017251	-0.0091038	0.012447	0.00029849	-0.0038201	-0.0035994	-0.0013127	0.0038411	-0.014934	0.011748	-0.019606	-0.018832	0.0057625	-0.011004	-0.0035259	0.0069339	0.0097757	0.022814	-0.004086	-0.03024	0.020907	-0.0045451	-0.0022275	-0.019479	0.0022306
-0.01038	-0.010811	0.0035957	-0.0069841	0.0010407	0.010535	0.0026641	-0.0028845	0.00092572	-0.013299	-0.0083206	0.0095852	-0.0016242	0.0020636	-0.0018529	-0.0076348	-0.0024682	-0.0023348	0.0025492	-0.010934	-0.0042589	-0.0041871	-0.001405	-0.024343	0.010776	-0.011624	-0.0029311	0.00074286	-0.0042469	-0.018292	-0.015082	0.0033191	0.0029986	0.0013529	-0.0079225	-0.010487	-0.011976	0.0007793	-0.017673	0.014944	0.27102	-0.00987	0.011866	-0.0669	0.0015045	-0.0082867	-0.0058408	0.003557	0.017426	9.1503e-05	0.017165	0.0035623	0.01012	0.029387	0.024535	0.013036	-0.0071495	-0.027392	-0.0010053	0.0062182	-0.000744	-0.0013536	-0.0097409	0.0078918	-0.013145	-0.0054171	0.0065628	0.020885	-0.023647	-0.023277	0.0073329	0.0046123	-0.010123	-0.0038218	0.01745	-0.0053006	0.0087897	-0.037004	-0.046535	-0.0090182	-0.0044474	0.0046983	-0.01008	-0.038423	0.0096978	-0.0036139	0.0088873	0.0028834	0.032117	-0.0027382	-0.003431	0.014663	-0.00026745	-0.00024697	0.0043916	-0.0061431	-0.012817	0.010569	-0.0086002	5.9097e-05	-0.0029686	-0.00082159	1.8365e-05	0.0022763	0.0060472	-0.0027415	0.012789	0.0075554	0.002391	-7.744e-05	-0.0044214
0.0075744	0.0043735	0.0069812	0.0072758	0.0016551	0.29011	-0.019227	0.010436	-0.0034094	0.0048038	0.011285	-0.029981	-0.0013545	-0.0084168	0.0038857	-0.0034549	-0.010108	-0.010052	-0.0061356	0.0079904	0.015066	-0.0027582	-0.0096048	0.00012148	-0.0058793	-0.0088197	-0.0076701	0.0020683	0.004431	0.012412	0.0022177	-0.018554	0.010704	0.00090206	-0.0095719	-0.0034084	0.0028751	0.0068645	0.012177	-0.00098228	-0.0048769	-0.0042593	-0.0048141	-0.0039856	-0.0033651	0.020445	0.0041908	0.0002892	0.0015065	-0.00083075	0.00037938	0.007435	0.0055136	-0.008921	0.004254	0.0030746	0.0067298	0.012741	0.0078418	0.0012425	-0.0048882	0.013628	-0.0004773	0.048188	0.001833	0.015082	-0.0035159	-0.0053465	-0.00085357	0.0091063	-0.0037317	-0.0018723	-0.01081	-0.0052445	0.006465	-0.0069518	0.0037312	0.0038222	0.0069432	-0.010965	-0.00046236	-0.013039	-0.0028086	0.0049799	0.0039744	0.009878	0.014539	0.0069515	0.0094018	0.0030818	0.00094924	-0.00065577	-0.00082393	-0.0017998	0.011402	0.010505	0.0026872	-0.014707	-0.0091077	0.0063662	-0.011779	0.0058801	-0.013743	-0.001155	-0.0076967	-0.026467	-0.0093833	-0.0077135	0.00063531	-0.0067995	0.00023737
-0.0038752	-0.030236	-0.001205	-0.0011155	0.0046175	-0.017276	-0.018639	0.0016895	-0.030073	-0.00058844	0.29193	-0.027788	-0.00052543	-0.0098646	-0.0061111	-0.013984	-0.0035945	0.0042118	-0.012742	0.0043867	0.0026323	0.011446	-0.0063942	0.0029931	0.0089685	-0.015981	0.0054575	0.0028987	0.002585	-0.0011003	-0.0089092	-0.0013739	0.0045647	-0.0026804	0.0036829	0.013068	-0.007759	-0.0023651	0.0068818	-0.0059851	0.0091004	0.0046682	-0.0081965	-0.0017465	-0.0066434	0.0092669	0.0044068	-0.0034414	-0.0019683	0.011306	-0.009517	0.00085676	0.0033736	-0.00062216	-0.002236	-0.0037287	-0.0096409	0.0085072	0.0032922	0.0015968	0.0044187	0.0043496	0.0033789	-0.0012536	-0.0093316	0.0014929	0.0077079	-0.0064695	-0.0025471	-0.0023854	-0.0011315	-0.0037743	-0.0053271	0.0021996	-0.00088507	0.00032148	0.0014055	0.00011483	0.0046513	0.0048663	0.0036072	-0.00010421	-0.0056715	-0.0079024	0.0030124	0.0022755	-0.01609	-0.0021192	0.015023	-0.012413	0.00089083	0.0054948	-0.0062315	-0.0063459	-0.0045643	-0.0048267	0.0084508	-0.0021096	0.010108	0.0083899	-0.0046879	-0.00024792	0.0054743	-0.010742	0.00059507	-0.0054752	0.017119	-0.0050754	-0.00062566	-0.01127	-0.0059125
0.0026869	0.00066373	-0.0053284	0.0031065	-8.5246e-06	0.0024317	-0.00073348	0.0016423	0.00095613	-0.0010392	0.0056728	-0.00061548	3.8672e-05	-0.0016682	0.0026576	0.002891	0.00027221	-0.0021693	0.00085902	0.0041295	0.007139	0.00023707	-0.00028519	0.00090006	0.0014813	-0.00067577	-0.00025815	0.0010572	-0.00011678	-0.00010045	-0.0031661	-0.0021548	-0.00075014	-0.0081465	-0.0024703	0.0013896	-0.0026676	0.0048	0.0010482	-0.00017844	0.0063127	0.012855	0.0051781	0.021941	0.0011443	0.0001764	0.0014372	0.0031315	0.0032893	0.0023391	-0.0049396	-0.0084463	-0.0021726	0.0039901	-0.0087729	-0.0081073	-0.0015368	-0.0031981	-0.0016113	-0.0044249	-0.0012924	-0.0017585	0.0066723	-0.003475	0.00090358	0.0055486	-0.0012529	-0.0012494	0.026859	0.0011977	-0.0073737	-0.01246	-0.0055411	0.0001939	-0.01033	-0.0088586	-0.00093928	0.013956	-0.00046024	0.0018506	-0.0043943	-0.0069321	0.0014228	-0.00050474	0.002701	-0.0081444	-0.014571	-0.0089887	-0.0068487	-0.0028385	-0.019775	-0.027567	0.29234	-0.013735	-0.015923	-0.010295	-0.0080292	-0.0082422	-0.013199	-0.0069485	-0.0016815	0.00034481	-0.010778	-0.0094407	-0.0079406	0.00042253	-0.00052278	0.0035608	-0.0026913	0.0051598	0.00032162
-0.0067136	-0.012007	0.013201	-0.00040822	-0.0040408	-0.016351	-0.010002	-0.002276	-0.0081668	-0.011225	-0.011228	-0.014551	-0.019517	-0.012419	-0.00053203	-0.00027086	-0.0056903	-0.0047139	0.003486	-0.011607	0.012912	-0.002763	-0.01639	0.015185	0.00012389	-0.0053134	-0.006244	-0.0085622	-4.925e-05	0.014247	-0.001411	-0.011838	0.02067	0.00026825	0.00020773	-0.0062163	-0.0075351	-0.014018	0.014936	0.021666	0.018	-0.0042427	-0.019523	-0.012108	-0.0066298	-0.013793	-0.015088	-0.002509	0.00065984	-0.0039409	-0.02164	-0.01766	-0.0043337	-0.0049775	-0.010965	-0.0046295	-0.0034937	-4.5617e-05	-0.014765	-8.5025e-05	0.0015152	-0.010653	-0.0015611	0.043009	0.0053598	-0.011834	-0.0074085	-0.030322	-0.0053845	-0.022238	-0.01481	-0.017599	-0.0069139	-0.015934	0.010676	-0.0050148	-0.0068641	-0.14549	0.22079	0.0013329	-0.013543	-0.0031214	0.0035853	0.028467	-0.0077813	-0.012949	-0.020437	0.00804	0.017232	-0.010721	-0.0064346	-0.0051471	0.0028941	0.0083408	-0.0010772	0.0058108	-0.024321	-0.012743	-0.045046	-0.00015868	-0.0027493	0.0066874	-0.0020399	-0.019173	-0.014936	-0.0024432	0.015434	0.0069449	-0.0070666	-0.010275	-0.0050945
0.0070239	-0.0020376	-0.0060634	-0.0014523	0.27274	-0.011045	-0.0058023	-0.0048992	-0.0078538	-0.0070916	-0.010253	-0.01451	-0.0013772	-0.014624	0.00086953	-0.0093605	-0.0061775	0.0040162	0.0015742	-0.0064629	-0.0074054	0.00028032	-0.0056011	-0.026514	-0.003983	-0.0071472	-0.0011222	0.0076713	-0.017984	-0.012718	-0.012741	-0.025911	-0.0087342	-0.0054687	-0.010724	-0.0051515	-0.011304	-0.0067213	-0.0067567	-0.01915	0.00068798	0.0044639	0.00069069	-0.0037099	-0.0030899	0.00021802	-0.0051144	0.0037055	-0.0078385	0.0070374	-0.014874	-0.013727	-0.0018466	-0.0038365	-0.011334	-0.0016772	-0.013363	0.012956	0.0014207	-0.004173	-0.0058377	-0.0025946	0.00081593	0.020025	0.0031499	-0.00076183	-0.00019194	-0.00077851	-0.0011054	0.0028029	-0.018918	0.0058932	-0.0037523	0.0019494	0.011556	-0.0022158	0.00074633	0.01089	0.010177	0.0022702	0.0068634	0.0014195	-0.0116	-0.0048744	0.0053707	0.0077789	0.0063693	0.0042796	0.0059414	-0.001676	-0.00014826	0.0031443	0.00094597	0.010086	-0.0025705	0.0026473	0.0089317	-0.0019277	0.015365	0.010535	-0.012329	-0.0025125	0.010959	-0.016791	-0.00056647	-0.012964	-0.045842	0.0046359	0.005373	0.018975	-0.01147
-0.0039522	9.3774e-05	0.0075391	-0.0029958	0.0037728	-0.0015639	0.0068349	-0.0031206	-0.0011482	0.00085663	0.011244	-0.0012972	0.0027268	0.00057707	-0.0023278	-0.00082962	-0.0009334	0.00011851	0.0039146	-0.0024351	-0.0061654	-0.0064607	-0.0087388	-0.029583	0.0020534	-0.0053421	-0.0032522	-0.022092	-0.012028	-0.011712	-0.0078495	-0.015005	-0.024263	0.00077289	-0.030409	-0.018943	0.26708	-0.0073854	-0.032889	-0.0070186	-0.0016116	-0.02054	0.00799	0.023885	-0.021542	0.0036739	0.0012137	0.0016865	0.0056572	-0.030566	-0.010901	0.015318	0.01348	-0.0092494	-0.019278	0.0018872	-0.0074229	-0.0052831	0.0018805	-0.0048014	-0.00018008	-0.0020823	-0.00083414	-0.0027692	-0.0066259	-0.0055302	-0.0059073	0.0055224	-0.0085933	-0.0099112	0.0097011	0.0053873	-0.0074258	0.0019984	-0.004063	-0.005719	0.012276	-0.020932	0.015923	-0.012879	-0.0082826	-0.0021034	0.004311	-0.02637	-0.0132	-0.0096171	0.014876	0.011791	0.0035584	0.00093039	-0.0028301	-0.05673	-0.0015979	-0.0032517	0.0022029	-0.0013862	0.004407	-0.0019906	0.020179	-0.0069674	-0.0001437	-0.0032124	-0.00046658	0.0044372	-0.0049907	-0.00036948	-0.0016465	-0.0021491	-0.00046951	-6.9427e-05	0.0083446
0.0010364	0.0020117	0.0088093	-0.0063747	0.0044078	0.018273	0.0054522	0.0024063	-0.013733	0.012206	-0.0079539	-0.013249	-0.0095073	-0.0071822	-0.0019025	-0.0027309	0.0039552	-0.0011689	0.0010236	0.005017	-0.0078425	0.015233	0.0053486	-0.00083007	0.00042227	0.0013305	0.0041753	0.0011615	-0.0071513	0.011284	-0.0061204	0.0054148	0.0047332	0.0014296	0.00048458	-0.0021089	0.008786	-0.0059509	0.009449	-0.002333	0.0062444	-0.013471	0.013362	0.0050087	0.0055884	-0.023061	-0.0053176	-0.0002848	0.0032203	-0.014614	-0.028074	-0.0021216	-0.0047728	0.0023074	0.0018437	-0.00042168	0.006514	-0.0057928	-0.0037493	0.00038818	0.004693	0.0056552	-0.0090966	-0.012187	-0.012228	0.00077774	-0.0033229	-0.0080149	-0.0054155	-0.019921	-0.0033468	-0.0063762	0.007659	0.0031021	0.0011475	-0.012036	-0.0053935	-0.01591	-0.022635	0.2775	-0.00068958	-0.01027	-0.0056768	-0.028559	-0.009476	-0.00573	-0.016473	-0.0096846	-0.020335	-0.027241	-0.0051692	0.0039473	-0.00085973	0.0030766	0.0042605	0.013585	-0.0023807	0.0017102	-0.0097682	-0.0017242	-0.0035532	0.002605	0.006807	0.0019088	-0.0025398	0.015469	0.011933	0.0011662	-0.0062029	-0.006751	-0.0014768
-0.0018145	-0.0048469	-0.0028737	-0.0011975	-0.0083125	0.0055016	-0.00069106	-0.0061874	-0.010412	-0.0055411	-0.0060556	-0.012251	-0.0080728	-0.0024574	-0.0038572	0.0017992	-0.0037735	-0.0040712	-0.0055556	-0.0081095	-0.0040766	-0.0031837	-0.0036613	-0.020827	-0.0020729	-0.0037449	0.002172	-0.0074822	-0.0076722	-0.003226	-0.010133	-0.00058849	-0.013221	-0.0068307	-0.0092565	-0.0069619	-0.0077594	-0.002791	-0.00064035	0.00031477	0.0032579	-0.014529	0.00011955	-0.0060341	-0.0075177	-0.013896	-0.010474	0.00029775	-0.0033295	-0.021528	-0.026812	-0.00023131	-0.0058717	-0.0073385	-0.0010439	-0.0025158	0.00032478	-0.009582	-0.0041225	-0.0054758	0.012798	-0.012616	-0.01052	-0.018638	-0.0044808	-0.0087135	-0.015864	-0.0050015	0.0030944	-0.014825	-0.012183	-0.013079	-0.0011848	-0.0072302	-0.0095733	-0.0089865	-0.0027405	-0.0053618	-0.0053149	-0.024426	0.2721	-0.04254	-0.024682	-0.010276	-0.0093722	-0.011538	-0.014327	-0.0073704	-0.044533	-0.020809	-0.016243	-0.0077871	-0.0064635	-0.0077731	-0.013608	-0.0027046	-0.0032516	-0.011854	-0.010106	-0.01054	-6.1109e-05	-0.0034679	-0.0059637	-0.002766	-0.011787	0.002931	0.003202	-0.00023656	-0.0090422	-0.010802	-0.00074677
-0.0093525	0.0055819	0.00012776	0.0030796	0.0085472	-0.0027629	0.0065406	-0.001429	0.00015143	-0.0004148	0.0018486	-0.00097451	0.00056055	0.0022139	-0.0071131	0.0013887	-0.0041107	0.00033755	0.0031878	-0.0035301	-0.00048801	0.0024022	0.0026533	-0.0041033	-0.0010763	0.00026942	0.0015397	0.002439	-0.0010618	0.00037169	0.00087732	0.00012997	0.003843	-0.0011839	0.0038213	0.00037546	-0.0045173	-0.0082532	0.00051684	-0.0080819	-0.035853	-0.0077606	-0.0099004	-0.017584	-0.0026889	0.0064517	0.001749	-0.010982	0.00049264	0.0021544	-0.0048809	-0.0073191	-0.0028757	-0.0031137	0.2749	0.001335	-0.013669	-0.0067902	-0.010116	-0.00086764	-0.011752	-0.016199	-0.002968	0.0028121	0.0021707	0.0028656	0.014137	0.00025467	-0.0048101	-0.011809	-0.017193	-0.011339	-0.0063373	-0.0021065	-0.0039714	0.00030149	-0.018503	-0.016056	-0.0044342	-0.0039839	0.0038897	0.0093629	0.010544	-0.0077077	-0.008349	0.0013301	0.011025	0.0013908	0.016527	-0.01313	0.00047068	-0.026432	0.0062979	0.00024131	0.0070374	0.0054759	-0.0027145	0.0027463	0.014088	-0.0033725	0.0015625	0.00017749	0.0052831	0.0031448	0.00016483	0.0021871	0.0002926	0.006447	0.00012415	0.0018729	0.0022914
0.011096	-0.00085444	-0.0052106	0.0034179	-0.00040298	-0.0034228	-0.002393	0.0014857	0.0077919	0.0041334	0.002769	0.006427	0.0062931	0.0036055	0.0020827	0.0019709	0.0016805	-0.0036391	-0.0013765	0.0066222	-0.00068777	0.0011894	0.0036781	-0.00066884	-0.0018164	-0.0037193	0.00093097	0.0021838	-8.9e-05	0.00617	0.0034075	0.0015742	0.0042341	0.0022724	-0.0041808	0.0029747	-0.011383	-0.012459	0.014145	-8.0259e-05	0.0015869	0.0016085	-0.00093979	-0.00059638	-0.0027205	-0.0053215	-0.0020588	0.0049399	-0.016926	0.0038253	0.0084573	-0.0050933	-0.0067519	-0.0029464	0.024707	0.00079247	-0.00061243	-0.00062086	0.0093074	-0.0035449	-0.0012236	0.0065541	-0.0083707	-0.0026828	0.0024449	0.0035654	0.009924	0.0051222	-0.011535	-0.00010856	0.0071621	0.0067622	0.001083	0.0089012	-0.0016359	-0.0041625	-0.027906	-0.003392	-0.0026248	0.00054321	-0.005963	-0.010936	-0.019884	-0.0031798	-0.0041951	-0.0037656	-0.018157	0.27445	-0.042187	-0.016527	-0.004229	-0.0099592	-0.0023934	-0.0088605	9.3673e-05	0.002069	-0.0011687	-0.0072021	-0.0066197	0.0083402	-0.0030754	-0.00030107	-0.0034336	-0.0019213	4.0448e-05	0.0066941	0.0027229	0.0040328	-0.0023829	0.00040817	-0.0020908
-0.017801	-0.00050346	-0.0085097	-0.00675	-0.0036815	-0.010704	-0.0065	-0.0061776	-0.0023459	-0.0011751	-0.0077851	-0.019461	-0.0076425	-0.0048919	-0.0024997	-0.00938	-0.00021217	-0.0021965	-0.0069741	-0.0074468	-0.008171	-0.0053152	-0.00054334	-0.0050589	-0.0022815	0.00018322	-0.0024745	-0.0059833	-0.0037182	-0.0076952	-0.0067984	-0.0071884	-0.012219	-0.0027008	-0.00043953	-0.006202	-0.0012908	-0.0073647	-0.0029056	-0.00019325	-0.0025146	-0.017722	-0.0066496	-0.0080925	-0.0040215	-0.0041493	0.0047095	0.0053088	-9.6895e-05	-0.013443	-0.013435	0.0018413	0.0041945	-0.011483	0.0039519	-0.0023729	-0.019697	-0.0090566	-0.018776	-0.0042898	-0.0071799	0.2641	-0.0032352	-0.021642	0.0051756	-0.005798	0.0017871	0.010537	0.011348	0.0037124	-0.058473	-0.010324	-0.010213	0.00070679	-0.015269	0.0035544	-0.0076785	0.005547	0.0035366	-0.02252	-0.0081002	-0.012788	-0.002924	-0.004325	-0.00059851	-0.0048144	-0.0038497	-0.0025673	0.0024003	0.0017711	-0.00041575	0.0013111	-0.0029265	-0.01361	0.0016021	-0.0080426	-0.0090721	-0.005309	-0.0093643	0.00096371	0.0073725	0.0008228	0.010644	-0.010674	-0.012265	0.0012265	0.0038765	-0.0070025	-0.0011193	-0.0026949	-0.0018919
0.0095987	-0.0021558	-0.0073227	0.011916	0.0098206	0.011383	-0.02167	-0.0041671	-0.021718	-0.015819	-0.0006894	-0.0015751	0.01149	-0.01198	-0.0012108	0.0022178	0.0034903	-0.0075111	0.015367	-0.0060364	-0.0033395	0.0010768	0.0065888	0.009359	-0.0082185	-0.010588	-0.0085013	-0.013514	0.00080541	0.008377	-0.0062153	-0.009593	0.0037331	0.0025136	-0.0031256	-0.0063764	0.0088496	0.0053155	0.0074648	0.020139	-0.0048516	0.0007596	-0.00052766	0.0080749	0.0045725	-0.0020335	0.003646	0.0055003	0.00067809	-0.00012329	0.021135	0.0055891	0.0020431	0.0012262	0.0057935	0.0060418	0.0056617	-0.007193	0.0078443	0.0035119	0.011492	0.002501	0.010822	-0.031042	-0.0067375	0.0064688	-0.01084	-0.0077673	0.0018517	0.0063754	-0.0061774	0.0061498	0.00099232	0.0034184	0.0025298	0.011707	-0.0021684	0.0042884	0.011739	-0.0060864	0.0045006	0.0050545	0.012955	-0.0061877	-0.00036917	0.0067682	-0.00054111	-0.0012296	-0.037814	-0.0091423	0.0040068	0.00018855	0.0029628	-0.00035659	-0.00078588	0.0037574	-0.01373	0.25733	-0.031431	0.029087	-0.010785	0.027514	-0.017853	-0.034301	0.00030972	-0.0063154	0.019576	0.001195	-0.0033015	-0.017876	-0.013322
-0.015827	-0.00026857	-0.0030954	-0.002307	-0.0032032	-0.0022441	0.005866	9.4749e-05	0.0010406	0.0026717	0.0033238	0.010841	-0.006548	-0.0045565	-0.00065754	-0.0020474	-0.0026789	-0.0035464	0.0041466	-0.0030096	-0.0038703	0.0018751	-0.00041034	-0.018745	0.00071981	0.003761	0.00081731	0.0015735	-0.0018542	-0.0024495	-0.007423	-0.0057429	0.0007665	-0.0010758	-0.002197	-0.001439	0.0012184	0.0026453	0.0011509	0.0030852	0.013712	-0.019734	0.0022318	-0.0087107	-0.01188	-0.019541	-0.0052554	0.0024472	-0.0073748	-0.010445	-0.0097547	-0.0060628	0.00052834	0.0014053	0.0045006	0.0048431	0.013649	-0.0033346	-0.0017859	0.0023345	-0.011881	-0.026039	-0.00060457	-0.013966	0.0030905	0.0018371	0.0057782	0.010284	0.0088046	0.26377	-0.042426	-0.01799	-0.0067379	0.0080253	-0.0064138	0.0051002	0.0049881	-0.021775	0.0038265	0.008968	0.00036699	-0.0036712	-0.0053859	-0.00048099	0.0054631	-0.0084612	-0.016781	-0.0033122	-0.00089949	-0.0060069	-0.00087366	-0.0056273	0.0036191	-0.017614	0.011558	-0.0010811	-0.0066214	-0.0042011	-0.0084059	-0.0016375	-0.0016051	-0.0016247	0.016548	0.015191	3.899e-05	-0.0083038	0.0054203	0.0092124	-0.005179	-0.0057044	-0.012614
-0.010559	-0.012993	-0.00718	-0.0062702	-0.0011609	-0.0062953	0.003355	-0.0024103	-0.0073464	-0.0012313	-0.0065803	-0.031348	0.26583	-0.019452	0.0098396	-0.0099565	-0.0053288	-0.0010147	-0.0032188	-0.0010422	0.0018315	0.00024257	0.0054633	-0.015115	-0.0033487	-0.0016393	0.00010906	0.0040825	0.014098	0.0038791	0.0046065	-0.013727	0.010498	0.0035661	-0.0033341	-0.0045588	-0.0030002	0.011171	0.012802	0.016577	-0.00265	-0.0044051	0.0059982	-0.0057877	0.0013869	-0.009431	0.0076275	-0.0057175	0.0015134	-0.0073524	-0.0094733	0.0040414	0.001282	0.0090774	0.0025312	0.0078439	0.007032	-0.020814	0.01027	0.0075396	0.0053121	0.0058418	0.0091968	0.0086075	0.0068312	0.0052319	0.00065171	-0.00761	-0.0050619	0.0047653	0.010511	0.0016517	-0.00036782	0.0005772	0.0025508	0.0042563	0.0038443	0.0065125	0.019602	0.0071983	0.0040882	0.0065055	1.5429e-05	-0.011871	-0.0021978	-0.00050612	-0.00036222	-0.0055169	-0.00091789	-0.0024313	-0.0015566	0.0044538	-0.0014538	-0.013801	-0.010497	-0.011302	-0.0037016	-0.016261	-0.0045251	-0.0045794	-0.0075136	-0.0071642	0.0014121	0.00026383	-0.0083093	-0.014739	0.010057	-0.00093626	0.00043869	0.012499	0.00038802
0.0053294	0.0013919	0.0059666	0.0050917	0.012574	-0.0027718	0.0049877	0.004704	0.0086761	0.00067462	0.014323	0.0034523	-0.0013687	0.009443	0.001092	-0.0045989	-0.019825	-0.17533	-0.016719	0.0047689	-0.00066385	-0.0069434	0.0054853	0.0064069	0.0096547	0.19158	0.0034395	-0.003764	-0.0044728	-0.0032289	0.0062115	-0.010691	0.0055408	0.00030493	-0.0047042	0.0039107	0.0019653	-0.0016196	0.0042002	-0.011891	0.012744	-0.015358	0.0017741	-0.0017081	-0.0011992	0.013982	0.0047443	-0.00060875	-0.00040178	0.0039225	0.0093233	0.0011743	0.0020797	0.00098154	0.0019938	0.0022114	-0.00044159	-0.001236	0.0051327	0.0050171	-0.0055745	0.0025368	0.0067017	0.0076631	0.0018565	0.0084015	0.0058713	-0.0024304	0.0037835	0.0014606	0.0092387	0.0050508	0.0039325	0.0050641	0.0069199	0.0092156	0.0022177	0.0057371	0.0093112	0.00057164	0.0012369	-0.0029714	-0.00036811	0.0014826	-0.004391	-0.0029213	-0.0044163	-0.0048552	-0.019894	-0.012665	-0.0034205	-0.00072772	-0.0030851	-0.0052033	0.0015948	-0.0023432	-0.0050028	0.0037551	0.0013918	-0.009492	0.005553	0.0096282	-0.0079418	-0.015236	-0.0022092	0.008622	0.0147	-0.0018765	0.0082446	0.025805	0.05916
0.00081274	-0.0052273	0.0032746	-0.0045852	0.0052417	0.010133	-0.0051403	0.0027238	0.0067773	0.0036463	0.0019135	0.0036987	0.0014279	-0.00068529	-0.0050238	0.0049366	-0.00041969	0.0003093	0.012534	-0.0067421	-0.013891	-0.010315	-0.0079041	-0.028614	0.0055695	-0.0040188	-0.011929	-0.037665	-0.021097	-0.010481	-0.003677	-0.021222	-0.010033	0.0020937	0.25979	-0.013752	-0.0013882	-0.0042958	-0.0162	-0.0067429	0.002176	-0.023068	-0.00035593	0.011487	-0.0034736	0.0043582	0.0018178	0.0019205	0.0036039	2.6921e-06	0.001806	0.0047136	0.0012207	0.0042804	-0.0056255	-0.0015445	-0.002996	-0.0032772	0.00012005	-0.0015596	0.0066686	-0.0007427	-0.0018154	0.0002688	0.0054371	0.0051746	0.00036764	0.0068667	-0.004154	0.00090024	0.010971	-0.00018636	0.0044725	0.0023095	0.0037543	0.00021057	-0.0038886	-0.004112	0.0019724	-0.0015882	0.00083774	-0.00027893	0.016411	-0.009612	-0.0037663	0.00065475	0.0065973	0.00061927	-0.017227	-0.010291	-0.00039398	-0.0045766	0.0016698	-0.0055655	-0.013189	-0.008677	-0.0041745	-0.0019393	0.0039894	-0.0086121	-0.0048673	-0.00052329	-0.0084313	-0.00065502	-0.00144	-0.013104	0.00473	0.012895	0.0092086	0.0098884	0.0087872
-0.022581	-0.0077988	0.017716	0.012813	-0.0072397	-0.017125	-0.0021597	-0.0030196	-0.012849	-0.0053345	-0.0025372	-0.016216	0.0060475	-0.016013	-0.00048153	0.014528	-0.0051056	0.0078606	-0.0091795	0.001668	0.0046683	-0.002085	-0.00015466	0.00089211	-0.015791	0.0087933	-0.00053716	-0.0091973	0.0056583	0.0087681	0.0018197	-0.017804	-0.0047486	-0.0014288	0.0067867	-0.0072182	0.00038268	-0.0055709	-0.018143	-0.0042718	0.0095901	-0.0038618	-0.0083514	0.0010181	-0.0042814	-0.0016126	0.0029183	-0.0064881	-0.0035139	-0.0011104	0.011541	-0.0060363	-0.0030293	-0.0018825	-0.0039461	-0.0028965	-0.019066	0.0068639	0.011474	-0.0019389	-0.0084572	0.00016484	-0.0022732	-0.00027423	-0.0077023	0.0043787	0.0003713	-0.00077467	0.0001834	-0.0014734	-0.0063236	0.010128	0.0065209	0.015685	0.014084	0.0096169	0.0017917	0.015219	-0.0055461	-0.0089761	0.002183	-0.0082769	0.0082451	0.0034459	0.0034635	0.0082536	0.00045053	-0.0013586	-0.0024836	-0.0069965	0.0013898	0.0019331	0.010093	-0.019763	0.024515	0.24816	-0.00068816	-0.010346	-0.01578	0.0096997	-0.0023581	-0.017893	0.010151	-0.010663	0.012217	-0.030336	0.0042853	-0.0097479	-0.0076073	-0.013831	0.0082191
-0.00892	0.0037713	-0.00092017	-0.00024185	-0.0014364	-0.012443	0.0038563	-0.0030312	0.0056021	-0.0020578	0.00014434	0.0030268	0.0038151	0.0049712	-0.0050043	-0.010103	-0.0033623	0.0035378	0.0058149	0.0031318	0.0077225	-0.0040158	-0.015806	-0.0071492	0.0035182	0.00045903	-0.0024907	-0.0036936	0.004227	-0.011683	-0.010335	-0.0098271	0.00025859	0.0028648	-0.0028618	0.0025608	0.00041051	0.0043699	-0.00022233	-0.0024497	-0.0031148	-0.0034769	-0.0064972	0.00068618	-0.0050978	-0.0075434	0.0055708	0.0037883	0.0029538	-0.0055102	0.0042374	-0.0015907	0.0016719	0.0002235	0.0010916	0.00042398	0.010543	-0.0033618	-0.0024618	0.0054992	0.0060186	0.0016155	-0.0027647	-0.0038967	-0.0012209	-0.0044381	0.00055814	0.0061003	-0.00055085	0.00019395	0.009393	0.0045397	0.0085669	-0.0016177	-0.0022017	0.003886	-0.00424	0.0016505	-0.009285	-0.0021316	-0.0015083	-0.0035846	0.002476	-1.5785e-05	0.0015076	-0.0026791	0.0043336	-0.0024848	0.0024378	-0.015953	-0.0067695	0.0014886	-0.0018235	-0.00082118	0.0082323	0.014123	0.000337	-0.035782	-0.0042052	0.00049546	-0.060726	0.24421	-0.045416	-0.0084855	0.00040713	-0.0105	-0.011259	-0.014441	-0.011791	-0.0069749	-0.028532
-0.0086455	-0.014685	0.25366	0.0044787	-0.00070429	-0.010143	-0.007847	-0.0045559	-0.0018187	0.0054821	-0.0055469	-0.015052	0.00066154	-0.017524	-0.0028201	-0.0068851	-0.0054597	0.0014248	0.0033067	-0.0080622	-0.00012465	-0.0048619	-0.0042614	0.0029746	-0.015703	-0.0059639	0.0056534	0.010804	0.0013095	-0.0067384	0.015552	-0.0050916	-0.0018242	2.5518e-05	-0.00022419	0.0060439	-0.0016807	0.0019773	0.0044241	-0.011335	-0.0024178	0.026956	0.0090951	0.0013725	-0.0065638	-0.00073486	-0.0086373	-0.0038015	-0.00050875	-0.0033623	0.0061949	-0.00046003	0.0066089	0.0010811	0.0021446	0.0016488	0.00073713	-0.0029827	0.0031769	0.0018709	-0.0026707	0.0033437	0.0037711	-0.00050488	-0.0042274	0.0011199	0.0043028	-0.0045752	-0.00045293	0.0031966	-0.016891	0.0062304	0.004327	0.0083182	0.012666	0.00316	-6.0019e-07	0.0098428	-0.0061696	-0.0063743	0.0017234	-0.0061116	0.0014333	-0.011673	-0.00011154	0.0026409	0.0038431	0.0040613	-0.010843	-0.0068456	0.00096967	0.0099076	0.0051998	-0.0076658	0.0041484	-0.029735	0.0061751	0.0017149	-0.0031641	0.018596	-0.0056347	0.001045	-0.00073978	0.005106	0.0034675	-0.00896	3.3664e-06	-0.010215	0.00010599	-0.00038083	0.0030511
-0.0011915	0.0017391	0.0026486	-0.0049592	0.0002418	-0.0069542	0.0045666	0.0019577	0.0036403	0.00081431	0.0050436	0.0090154	-0.0097165	-0.0001535	-0.00053303	-0.0050369	0.0019582	-0.0061355	0.0075473	0.00022164	-9.5557e-05	-0.0013653	-0.00084021	-0.011223	0.0068168	-0.0065337	-0.00060444	-0.010647	-0.0071593	-0.0086839	-0.0029478	-0.0063821	-0.010012	0.0041876	-0.0091131	-0.0016136	-0.018291	0.25682	-0.010505	-0.005305	-0.011847	-0.018538	-0.0062759	-0.0062564	-0.0015885	-0.0016404	0.0086844	-0.0025859	-0.012668	-0.0012306	0.0022159	0.0007089	0.0025989	-0.0019945	-0.0035839	0.00095519	-0.0086472	-0.0018202	0.0024618	0.0025734	-0.0055141	0.0076994	0.003213	0.014996	0.0073773	0.008218	-0.0050867	0.011899	-0.0040885	-0.00083152	0.0022507	0.0042787	0.011417	0.013498	-0.0027319	-0.0063988	0.0072018	-0.030748	0.00096236	0.0084014	0.0054866	0.0024404	0.0041972	-0.010313	-0.004467	0.00034816	0.00018509	0.013286	0.0030532	0.0019897	6.4851e-05	-0.0097136	0.012132	0.00010602	0.0064419	0.0060939	-2.4702e-05	0.0028284	0.011843	-0.001864	-0.0011704	-0.0039948	0.0051974	0.00038337	0.00093886	-0.0046064	-0.0010783	0.0049752	0.0041323	0.0039452	0.0049881
-0.014718	-0.0094203	-0.0065317	0.0081398	0.0118	-0.0054224	0.008074	-0.0026284	0.00048398	0.0017582	0.0026137	-0.020217	-0.015713	-0.016697	-0.0015878	-0.0015218	0.0050883	-0.0045192	-0.0032807	-0.00048986	-0.010221	0.0008074	-0.0015934	0.0039319	-0.0028461	-0.0030952	-0.012156	0.00053505	0.0017913	-0.006528	-0.0084061	-0.0029089	0.0020289	0.00065468	0.0010057	-0.00037624	-0.0016872	0.003285	-0.0088125	-0.012834	-0.006575	-0.010293	-0.0044514	-0.0025259	-0.0024666	0.0039911	-0.0055157	-0.0029494	0.005412	-0.0053273	0.0041034	-0.0029138	-0.0022854	0.0040527	0.0043127	0.015076	0.23905	-0.046474	0.00021627	0.0049225	-0.00052116	0.0055297	0.0043965	-0.01008	-0.0078079	-0.0030231	-0.0016332	-0.003739	-0.0052739	-0.02509	-0.0060326	0.0064802	-0.0016808	-5.1887e-05	0.002371	-0.011748	-0.0039218	0.020148	0.0082601	-0.013284	-0.0071759	-0.0031116	-0.0036116	-0.0046394	-0.00079536	0.0038849	-0.0037936	-0.0011286	-0.0016797	-0.027486	-0.002448	7.5363e-06	0.0054652	-0.0058283	0.027377	0.0072251	-0.010522	-0.0085176	0.0048723	-0.0033822	-0.0050518	-0.014336	0.016036	0.0020238	0.0052114	-0.010999	0.013146	0.0070495	0.0093461	-0.0029801	-0.007405
0.0011918	-0.020213	0.010058	-0.0040054	0.016808	0.0029322	-0.0049381	-0.0012245	-0.004298	0.005698	0.004347	-0.0026813	-0.01482	-0.00095131	-0.005222	-0.0018135	-0.0023943	-0.0094984	-0.0037455	-0.0091232	-0.010177	-0.0046598	-0.00019035	0.02252	-0.008414	0.0040128	-0.0085358	-0.009836	-0.017625	-0.0028246	-0.013927	-0.0093425	-0.00734	0.00046194	-0.003849	-0.0070554	-0.00026828	-0.00091373	-0.026359	0.24664	-0.019302	-0.0092368	0.00045631	0.016205	-0.0035816	0.0021539	0.0013723	0.0031774	0.0027262	0.00074977	-0.010705	0.0023338	-0.001789	0.012316	0.0055923	0.0053903	0.0011674	-0.019319	0.0010806	0.009098	0.0044613	-0.0026057	2.1551e-06	0.0027181	0.0018373	0.0027524	0.0082177	0.0062634	-0.0044909	-0.0016724	0.00116	0.0053398	0.0028654	0.0045059	0.0077342	-0.0074354	-0.0011276	-0.0042011	-0.020616	-0.0026788	-0.0037182	-0.0087378	0.012383	0.0033471	-0.0032667	-0.0034305	-0.0018737	0.00091717	-0.011564	0.0061524	0.004652	0.010082	0.0015347	-0.011888	-0.0046902	0.0027919	-0.0043262	-0.020175	0.016164	-0.0017594	-0.0014041	0.0016318	0.0071456	-0.0018316	0.0034099	0.012694	-0.0016767	0.0047744	0.0019746	0.0064828	-0.0030629
-0.00013189	-0.013982	0.0032389	0.00089146	0.00026605	-0.015382	-0.012117	0.0025568	-0.012166	0.01035	-0.010489	-0.020205	-0.0080351	-0.012889	0.0011273	-0.033858	0.00048971	-0.0044765	-0.0042811	0.2406	0.0071465	0.0060758	-0.0030912	-0.0047475	-0.012577	-0.0091342	0.0092267	-0.0012778	-0.0063071	0.0055263	-0.0091	-0.0068698	0.002804	0.0027005	0.0067897	0.00072187	0.0013159	-0.00062978	0.0078629	0.0064993	0.0070309	-0.0052054	-0.0049458	-0.0036909	-0.0075913	0.0028416	8.8871e-05	0.0027343	0.000807	-0.016395	0.0061255	0.004572	0.0001786	0.0065267	0.0045887	0.001777	-0.0026356	-0.0018174	-0.0067072	-0.00090413	0.0060984	0.0017982	0.0050063	0.023876	0.0016683	-0.00035061	-0.0056717	-0.0023849	0.0041661	0.00312	0.00067728	-0.0021383	-0.0048633	-0.0025487	-0.0021634	0.001793	-0.00068691	-0.0042201	-0.0032722	-0.0076025	6.673e-05	-0.0093539	-0.0038315	0.00071611	-0.0052101	-0.0040724	0.0078171	-0.0060154	-0.0095698	-0.005296	-0.00036174	-0.0012468	-0.0032784	0.0066304	-0.01228	-0.0011105	-0.018256	0.0070063	0.0026692	-0.013094	-0.0036414	-0.0044431	0.00086487	0.0057591	-0.00086393	0.0019968	-0.0073903	-0.0098324	0.0018868	0.0035268	-0.00635
-0.02038	-0.014616	-0.015266	0.0027011	0.0012744	0.0099888	-0.0011297	0.0018317	0.0072904	0.0066499	0.0013052	-0.01195	-0.0064731	-0.021346	-0.0057229	0.0057905	0.0013224	-0.00063073	-0.0032423	0.0028431	-0.014805	0.0002037	0.0024243	0.0053276	-0.0038682	-0.0028637	-0.0040785	1.8125e-05	-0.00016698	-0.0058413	-0.00063565	0.0056162	-0.0077815	-0.0017238	-0.0043755	-0.0050721	0.0076631	-0.0054897	0.012248	-0.0035996	0.0059156	-0.0048376	-0.0044647	-0.0073949	0.0024862	-0.0074189	-0.0012875	-0.0040884	-0.0052648	-0.00090014	0.00079452	0.0037888	0.0018043	-0.0056297	0.0043222	0.0010748	-0.015089	-0.011781	-0.00059865	0.0089483	0.00037789	-0.0058443	-0.0037256	-0.0057591	0.0011512	-0.0052116	0.014834	-0.0071919	-0.0035508	-0.0049551	-0.03049	0.01035	0.23978	-0.0037873	0.01238	0.00077408	0.0023497	0.0074647	0.0081872	-0.011423	-0.0091789	-0.0060044	-0.01091	-0.0083054	0.0019116	-0.0010382	-0.0031723	-0.0043265	-0.0064913	-0.016889	-0.0046993	-0.0017819	0.0026171	-0.018083	0.00092831	-0.014637	-0.0071114	-0.002749	-0.0059075	0.00022191	-0.0037351	-0.0091036	-0.0025062	0.01539	0.0041608	-0.0078263	-0.001013	-0.00048537	-0.0020916	0.00052375	-0.0049573
-0.0015185	0.0046479	0.0050887	0.0003714	0.0023215	0.0021626	-0.010523	-0.0020395	-0.0097427	-0.0051037	-0.0025341	0.0017397	0.003582	0.005871	-0.0029265	-0.019486	0.23613	-0.033973	-0.051306	-0.006813	0.0053951	-0.0036686	-0.014048	-0.018149	-0.0051417	0.00077618	0.008002	0.0080149	-0.00038517	-0.0045776	0.0023992	0.0040861	0.0024819	0.0019764	0.0058175	0.0058944	0.0060288	-0.00064888	0.009061	0.0031306	0.0026335	0.0046109	0.0017012	0.0079319	0.001173	-0.0026522	0.012199	0.00016061	-0.0002018	0.0070829	0.0017844	0.00041034	0.0033272	0.0047048	0.0046134	0.00030554	-0.0022056	0.0062136	0.0025728	0.0029228	0.00062529	0.0011268	0.0052349	0.0066227	0.0075017	0.0075688	-0.0033283	-0.0025095	0.0023884	0.0019845	-0.0011605	0.00098451	0.0016211	0.0026423	0.0038054	-0.00049388	0.0023598	-0.0020005	0.0053668	-0.00060966	0.0070327	-0.0026036	0.0058602	0.0020808	-0.0017899	0.0049673	0.0010647	0.00037995	0.008955	0.0046157	0.0027384	0.0025148	0.00084356	0.003204	0.0054506	0.0053005	0.0026307	-0.0016551	0.012086	0.00051149	-0.0063817	-0.0014992	0.00078034	0.0014005	-0.00051998	0.0019175	-0.00024744	0.0020994	-0.0042313	-0.014471	-0.023746
0.00068508	-0.003345	0.00074308	-0.0050056	-0.0021819	-0.012453	-0.027854	0.2427	-0.026964	-0.013655	-0.0099806	0.0018984	0.00022843	-0.002548	-0.0095186	-0.019436	-0.01808	-0.0068688	-0.0062153	-0.0096101	0.0017011	-0.0099542	-0.0025652	-0.0047202	0.00056812	-0.0053555	0.0011829	0.0055362	-0.0028854	-0.0072887	0.0010071	0.0021435	0.002183	-0.001655	0.00084641	0.00060395	0.0055381	0.00010512	0.00090788	0.00032126	-0.00020323	0.00098302	-0.0031601	0.0023533	-0.0064329	-0.0032972	0.0016568	0.0012499	-1.0639e-05	0.0055792	-0.0014962	-0.00013542	0.0014004	0.0014195	0.003287	0.0015726	0.0040114	0.00034552	0.0066831	0.0024674	-0.001347	0.0020555	0.0060016	-0.00056223	-0.0019347	0.0055353	-0.0024494	0.00090916	4.0993e-05	-0.00057784	-0.0047646	-0.001705	0.00081595	-0.0019626	0.0031996	-0.0011569	-0.0010069	0.00068165	-0.0017706	-0.0010956	0.0044294	0.0024675	0.0032032	0.00084394	-0.0041854	0.0021023	-0.0024381	0.0024624	0.0068718	0.00065823	0.0036771	0.0013124	0.00036902	0.0022678	-0.0023763	0.001558	-0.00078499	-0.00019888	0.0065246	-0.0012851	-0.00377	-0.0027921	0.00039314	-0.0020127	-0.0026034	-0.0015656	-0.0063612	-0.0088518	-0.012879	-0.0071939	-0.013125
0.018164	0.011078	-0.0061312	0.0063387	-0.0045518	-0.0092132	0.0099843	0.0030412	-0.007475	-0.0033142	0.015649	0.018866	0.00030008	0.0026558	-0.0027492	0.014964	-0.0024718	-0.0078206	-0.0052143	-0.0033098	0.0017973	-0.0023845	0.0030534	0.0096659	-0.0010609	-0.0081725	-0.0036865	0.00023349	0.0062138	-0.00055279	-0.0043718	0.014335	-0.00068758	-0.00017256	-0.0058694	8.203e-06	-0.0093793	-0.001483	0.010724	-0.0012917	0.003608	0.005076	0.015668	0.0055908	-0.017391	-0.010154	0.013109	0.012466	0.00069858	0.0010626	0.001716	0.00046589	0.0062764	0.003777	-0.0028073	0.0014569	0.0037773	-0.0033282	0.0061262	0.0010661	0.00016538	0.0040223	0.007274	-0.0075016	0.0025429	0.0047862	-0.00075043	-0.0057507	-0.0030324	0.0060059	-0.012951	-0.0034769	0.00047785	0.0042644	0.0086112	0.001687	-0.0040335	-0.018288	0.016212	0.010307	0.001228	-0.013073	-0.0099678	0.0044898	0.009645	0.006893	0.23074	0.00050151	-0.060995	-0.00034566	0.0099978	0.0063301	0.0050626	-0.018585	-0.0010346	-0.0026963	-0.0048901	-0.013826	-0.0055367	-0.0047331	-0.014291	-0.0061895	0.016141	-0.018567	0.0099391	-0.0074137	-0.0081822	0.0098013	-0.0035793	-0.0061136	-0.0011249
