-0.20875	-0.19698	-0.20417	-0.22042	-0.29983	-0.2165	-0.21799	-0.22615	-0.208	-0.22331	-0.22561	-0.21704	-0.24855	-0.2755	-0.31871	-0.26362	-0.22795	-0.21581	-0.23079	-0.41778	-0.11393	-0.23275	-0.20422	-0.17394	-0.18014	-0.24017	-0.21192	-0.16137	-0.19105	-0.2542	-0.4674	-0.53397	-0.51139	-0.26027	-0.16766	-0.15689	-0.1705	-0.18394	-0.17393	-0.1131	-0.060258	0.064522	0.39479	0.1367	-0.09788	-0.1334	1.9177	0.57241	0.023251	-0.099483	-0.14395	-0.15236	-0.19003	-0.1872	-0.18174	-0.14721	-0.13286	-0.062649	0.24068	0.66275	1.1522	0.080534	-0.10829	-0.16174	-0.16679	-0.17037	-0.20099	-0.19228	-0.17747	-0.14362	-0.060428	0.13858	2.4042	0.17864	0.029922	-0.083567	-0.20073	-0.18032	-0.18443	-0.23636	-0.38145	-0.58499	-0.5803	-0.57638	-0.28034	-0.17556	-0.195	-0.19403	-0.20264	-0.19474	-0.18088	-0.23215	-0.3011	-0.20117	-0.20718	-0.21361
0.054845	0.054283	0.052858	0.048251	-0.020157	0.047172	0.047443	0.053573	0.052313	0.050454	0.045459	0.034538	0.012738	-0.075734	-0.12033	-0.062633	-0.015778	0.047772	-0.042446	-0.31527	3.3309	-0.017961	0.012016	0.030786	0.044063	0.054434	0.0497	0.040956	0.044232	0.023379	-0.032371	-0.03992	-0.017152	0.034539	0.04272	0.050689	0.053622	0.055084	0.052561	0.043003	0.043152	0.055272	0.045264	0.062358	0.052404	0.052574	0.11742	0.070912	0.057256	0.056724	0.054174	0.055457	0.050792	0.052176	0.061982	0.053623	0.055955	0.062641	0.046522	0.079946	0.10335	0.05945	0.054664	0.050625	0.049725	0.053795	0.050961	0.049335	0.049502	0.051109	0.055674	0.069642	0.13532	0.037665	0.060927	0.039013	0.042692	0.046515	0.037643	0.028958	0.032098	-0.0018054	-0.00042241	0.00048888	0.031427	0.040312	0.045242	0.050313	0.052591	0.042934	0.028417	0.036089	0.038455	0.039692	0.052167	0.040815
-0.25841	-0.15065	-0.18574	-0.11286	0.26799	-0.050923	-0.037185	-0.28043	-0.16434	-0.13534	0.004939	0.08591	0.13858	0.12616	0.20356	0.16438	0.066665	-0.015065	-0.12476	0.33314	0.061078	-0.1514	-0.24134	-0.35462	-0.18291	-0.039775	-0.15185	-0.068869	-0.073347	0.037975	0.29422	0.37789	0.24927	0.19383	0.14068	-0.057856	-0.056265	0.082837	-0.13373	-0.015789	0.043326	0.15597	0.27812	0.034944	-0.17574	-0.33885	0.076401	0.18973	0.1881	0.022845	-0.10979	-0.1731	0.00096245	0.019273	-0.17355	-0.21822	-0.020935	0.30954	0.22631	0.13563	0.1059	0.26067	0.073983	-0.23645	-0.24113	-0.089903	-0.10994	-0.012679	-0.15914	-0.093546	-0.071445	0.063754	0.099277	0.25676	0.23534	0.11443	-0.027428	-0.020874	0.1713	0.11264	0.19146	0.322	0.47641	0.44173	0.22365	0.092212	-0.087625	-0.081234	-0.081927	-0.10591	-0.13149	0.058509	0.23488	-0.1007	-0.11967	-0.097921
-0.33556	-0.089914	0.02101	0.50228	-0.06511	0.38135	0.32636	-0.32934	-0.18929	-0.04874	0.15072	0.33665	0.1556	0.083977	-0.019268	-0.015078	-0.040617	0.13447	-0.15033	-0.074357	0.070593	-0.12074	-0.17411	-0.023232	0.098337	-0.042171	-0.01713	-0.04401	-0.041814	-0.075961	-0.038608	0.019678	-0.02655	-0.13228	-0.08834	-0.06031	-0.16675	-0.15103	-0.17589	-0.078647	-0.062979	-0.07364	-0.060374	-0.17225	-0.14826	-0.13509	-0.063442	-0.085932	-0.098961	-0.069969	-0.094402	-0.14335	-0.19969	-0.2423	-0.26583	-0.080278	-0.11668	-0.13949	-0.052744	-0.047778	-0.15485	-0.086993	-0.092073	-0.096049	-0.13672	-0.17709	-0.13625	-0.098536	-0.077609	-0.082127	-0.13655	-0.11644	-0.11702	-0.011386	-0.049783	-0.059694	-0.060234	-0.15843	-0.066773	-0.031806	-0.17119	-0.030428	-0.027349	-0.08853	-0.063384	-0.067265	-0.071811	-0.071682	-0.031882	-0.0037012	-0.029138	-0.14573	-0.17963	0.14043	0.16011	0.55536
-0.0085088	-0.0064329	-0.0014463	0.0058926	0.60629	-0.011925	-0.0011384	2.797e-05	-0.011605	-0.013096	-0.02751	-0.043668	0.024464	0.15069	0.67769	0.40696	0.073913	-0.0097866	0.0060386	0.31053	0.067856	-0.099042	-0.054448	-0.013543	-0.032567	-0.01245	-0.012028	0.031959	0.023754	-0.011316	-0.18281	-0.31733	-0.14235	-0.018509	0.001201	0.013637	-0.076328	0.042311	0.0052553	-0.017898	-0.012059	-0.0011663	-0.041919	0.0020872	-0.0034837	-0.00051967	-0.0094983	0.047257	0.022033	-0.012286	0.012286	-0.036342	0.0079767	0.0016161	-0.030747	7.3077e-05	0.017064	0.015147	-0.058312	-0.029413	-0.048624	0.010778	0.014399	-0.016119	-0.013531	-0.012903	-0.0074868	-0.01644	-0.015717	-0.011504	0.0044487	0.014109	0.0085449	-0.053446	-0.0085234	-0.013846	-0.021587	0.0047826	0.0084228	0.007201	-0.028589	-0.13016	-0.29984	-0.28337	-0.0052561	0.031271	0.020198	-0.0060577	0.025451	0.018953	0.021418	0.064534	-0.040374	0.011352	0.017313	-0.022693
-0.055101	-0.14628	-0.18985	-0.1661	-0.084283	0.04663	0.014106	-0.20475	-0.09943	-0.14094	-0.10603	0.16723	0.26708	0.1488	0.060839	0.13555	0.22479	-0.34192	0.64675	-0.011957	0.060417	0.31936	0.25719	0.13344	-0.064576	-0.19272	-0.04677	-0.047419	-0.049082	-0.019731	0.073014	0.047495	-0.0064808	-0.11356	-0.051493	0.012221	-0.042992	-0.037312	0.026347	-0.033681	-0.01009	-0.005231	0.043243	-0.05415	-0.058286	-0.0033695	-0.0078132	-0.045913	-0.07159	-0.037932	-0.065349	0.076351	0.014181	-0.045562	-0.046719	-0.014796	-0.095926	-0.14776	-0.053322	0.01367	-0.052161	-0.068143	-0.054235	-0.017889	0.075614	0.08684	0.035884	-0.0094826	0.040131	-0.071539	-0.019582	-0.018568	0.04938	0.06615	-0.035001	-0.030321	-0.062822	-0.097106	-0.078647	-0.022784	-0.073429	-0.053976	0.02669	0.004671	-0.078126	-0.030778	-0.058548	-0.010902	-0.12016	0.013046	0.095655	0.058017	0.19028	0.015848	-0.23078	0.015949
-0.1526	-0.024543	-0.084336	-0.1502	-0.047553	-0.30398	-0.17483	-0.089216	-0.011553	0.040559	0.21758	-0.027742	0.098083	0.017499	-0.00042854	0.021016	0.19557	0.5064	0.16049	-0.059176	0.009344	0.027001	0.12605	0.22488	0.27794	0.20654	0.057559	0.037793	0.025357	0.014036	-0.013807	-0.016114	-0.0014383	0.018408	-0.010612	0.0048864	0.00788	-0.0086416	-0.022619	-0.027391	-0.022222	-0.0056779	-0.02693	-0.0023654	-0.040502	-0.047402	0.0026395	-0.02249	-0.0034786	-0.021448	-0.013262	-0.017605	-0.050947	-0.046991	-0.094197	-0.038144	-0.03116	0.070017	-0.016066	-0.018145	-0.011957	0.03101	0.0012594	-0.099367	-0.10245	-0.11578	-0.083283	-0.057399	-0.050971	-0.020203	-0.018621	0.03919	-0.0014419	-0.029542	-0.036782	-0.022511	0.006402	0.013864	-0.037769	-0.041437	0.012578	-0.030789	-0.025883	-0.037822	0.02776	0.00069587	-0.0059838	-0.029998	0.027158	-0.0093507	-0.018388	-0.037032	-0.0022086	-0.018617	-0.017414	-0.055062
-0.011794	-0.019367	0.046433	0.032578	0.016546	0.078775	-0.024709	0.59279	0.051962	0.078968	0.040838	0.068942	-0.058551	0.020699	0.022618	0.040883	0.18483	0.028221	0.10965	0.076142	-0.0021764	0.047535	0.085242	0.015091	0.0071666	-0.038056	-0.092402	-0.046941	0.016293	-0.030895	0.035754	0.032443	-0.013273	-0.020005	-0.023526	-0.088019	0.0088107	0.049621	-0.08246	-0.044646	-0.098776	-0.065089	0.011117	0.016284	-0.04987	-0.053051	0.033801	0.041391	-0.0089414	0.075581	-0.022585	-0.053918	-0.044848	-0.0361	0.027891	-0.071232	0.05791	-0.063096	0.051783	0.031017	0.10455	0.02023	0.06146	-0.01584	-0.059865	-0.063702	-0.037476	-0.024134	0.004169	0.088549	-0.02523	0.077476	0.054952	-0.047839	0.031706	-0.036428	-0.0011172	-0.077989	-0.027148	-0.071353	0.073429	0.027682	0.0734	0.046564	-0.0041391	-0.0050492	-0.053165	0.0085289	-0.0091292	-0.10039	0.031979	-0.017942	0.041923	0.055294	0.033536	0.24223
0.0090106	0.016913	0.01701	0.0032718	0.0077874	0.0016824	0.0012251	0.0015971	0.0047602	0.0094294	0.015847	-0.013313	-0.00022917	-0.0013739	0.0016514	-0.001944	0.01653	0.0052984	0.0044451	0.017719	-0.0035069	0.0086904	0.01071	0.013057	0.011262	-0.0060153	-0.0018943	0.024701	0.019193	0.0051751	-0.018877	-0.0086415	-0.078542	0.0025689	-0.0072786	0.0059973	-0.01069	0.00062749	0.011629	-0.026929	-0.039778	-0.1263	-0.5385	-0.041409	-0.0045514	0.018439	-0.018657	0.0063899	0.0093822	-0.0041075	0.02671	0.0042455	-0.0051721	-0.0053481	0.017316	0.01041	0.0088985	-0.012383	-0.00012458	-0.014018	-0.032164	-0.024937	0.0062525	-0.0021919	0.0047509	0.004554	-0.0030254	-0.0059941	0.005226	0.0021135	-0.0080825	0.02386	0.14325	0.58466	0.098524	0.031053	0.016412	-0.0085735	0.0036378	0.0029048	0.05908	0.15583	0.0032609	0.003004	-0.0067131	-0.0080573	0.0075251	-0.0033412	-0.00067028	0.011402	-0.015129	0.0069964	-0.015479	-9.3393e-06	0.0063487	0.0036538
-0.022616	0.03608	0.07713	-0.0012834	0.040167	0.077403	-0.034658	-0.0062132	-0.072818	0.035571	0.044053	-0.011441	0.018877	0.0055005	-0.012615	-0.01008	-0.0096398	-0.0069694	-0.020482	-0.028118	-0.02114	0.070235	0.051375	0.041209	-0.039236	0.035219	0.022992	-0.012533	-0.061514	0.2154	0.056002	-0.0025405	0.061867	0.13077	0.54364	0.06734	0.1589	-0.070901	0.058861	0.078305	0.036371	0.081147	-0.00030989	0.070078	-0.009457	0.036871	0.026956	0.042348	0.020903	0.014559	0.018484	0.025867	-0.024359	-0.030511	-0.070861	-0.036086	-0.016563	-0.075871	-0.081773	0.048577	0.012138	-0.023431	0.0053567	0.049132	-0.088732	-0.045964	0.044177	0.0030464	-0.044401	-0.016184	0.021016	0.02455	0.028815	0.044866	-0.018277	-0.017799	0.025479	-0.012023	-0.037267	-0.056721	0.039282	-0.04278	-0.089289	-0.055516	-0.032037	0.016723	-0.078508	-0.019616	-0.10741	0.051034	0.029325	0.068711	0.0084813	0.02888	0.0046463	0.12903
-0.010605	0.018336	0.014533	0.0087049	-0.44407	0.020963	0.009759	-0.01645	0.0022798	0.0024834	-0.0015111	0.019942	-0.025815	-0.10664	0.018877	-0.0090533	-0.0057009	0.0036691	0.023662	0.40398	0.033488	0.10947	0.0075577	-0.0076264	0.031771	0.012762	0.025997	-0.0058744	0.0065186	0.032496	0.12409	0.17411	0.078002	0.0079767	0.0028569	0.010536	0.023794	-0.01353	0.01097	0.0063183	-0.0029116	0.010597	0.019849	0.013354	0.0049569	0.010066	0.011264	0.020092	-0.005541	0.010539	0.014038	0.016198	-0.0026634	-0.0018027	-0.0010054	0.0082157	0.0029337	-0.002231	0.039771	0.019907	0.011458	0.010014	-0.0027596	0.010543	0.012626	0.0077993	0.0042567	0.015784	0.01181	0.017492	0.0054191	0.022417	0.009339	0.018395	0.014109	0.014144	0.02427	0.0075117	0.013812	0.013308	0.0096202	0.0044586	-0.058169	-0.064396	0.0032541	-0.0058302	-0.0010047	0.012987	0.006273	-0.0076061	-0.032707	-0.069368	-0.27831	-0.038693	-0.0062935	-0.04051
0.027941	-0.058665	0.010772	-0.018668	0.058723	0.36412	0.16379	0.059242	-0.028805	0.10517	0.17716	0.19817	0.1076	0.014681	-0.018597	-0.0074751	-0.032787	0.15374	0.0028106	-0.0098419	-0.014231	-0.0091716	0.045619	-0.012759	0.026908	0.0069914	-0.00084446	0.00022	0.0015967	0.0051697	-0.018294	-0.023369	-0.024751	0.0069165	0.029948	-0.011851	0.019818	-0.010889	0.048059	0.0055339	-0.012649	-0.0086355	0.0059319	0.0061042	-0.0099642	0.022046	0.0046458	-0.0034218	-0.041685	0.0042556	0.023137	0.045758	0.027829	0.028691	0.059409	-0.0067941	-0.011112	0.013216	0.038977	0.0073558	0.037134	-0.0033172	0.0019525	-0.017068	0.01425	0.034806	-0.022506	-0.011547	0.02606	-0.012287	0.034357	-0.0089503	0.035669	-0.021133	-0.003905	-0.014957	0.040774	-0.019861	-0.030586	0.015667	0.054383	0.0080979	-0.015486	-0.0039688	-0.023883	-0.035756	-0.026266	0.023081	-0.036053	-0.079812	-0.075222	-0.029256	-0.0019744	-0.11814	-0.10344	-0.34618
-0.030811	0.01754	-0.028302	0.04847	-0.0026191	-0.036965	0.027821	-0.018549	-0.022522	-0.00068139	-0.019966	-0.013568	0.0072199	0.017618	-0.01347	0.023301	-0.0073594	0.046189	0.017761	-0.027815	-0.0079767	0.022295	0.018653	-0.039529	-0.045972	-0.036423	-0.02343	-0.029819	0.00076602	-0.025541	0.0017943	-0.02967	0.0088389	-0.0075794	0.0004386	-0.0095902	-0.030781	-0.026216	0.0060046	-0.0063215	-0.0032035	0.0056975	-0.0090802	-0.018366	-0.0039022	-0.046242	-0.020265	-0.037071	0.047626	-0.022554	0.0039857	-0.0043633	-0.034664	-0.035321	-0.039267	0.04012	-0.0038377	-0.0041853	0.019402	-0.043169	-0.031503	0.085584	0.025747	-0.0031178	0.031232	-0.021893	0.021598	0.0070927	0.043417	0.13669	0.59546	0.064701	0.02281	-0.033638	0.041444	0.12186	0.039356	0.02669	-0.058339	0.023048	0.0086279	0.052504	0.0079066	-0.043019	-0.033178	-0.020863	-0.066158	-0.080678	-0.035693	-0.029251	-0.047231	-0.043576	-0.011157	-0.006411	-0.030927	0.049998
0.038157	0.025554	0.024198	0.023413	-0.011653	0.0024698	0.012267	0.040958	0.025795	0.027806	0.032101	0.0038456	-0.017083	0.003792	-0.0048456	-0.012155	0.01707	0.047593	0.01666	-0.023966	-0.010578	-0.022619	0.0073225	0.016197	0.0056723	0.01778	0.0024768	0.013079	-0.002393	-0.017982	-0.032495	-0.086526	0.1446	-0.049045	-0.020774	-0.029194	0.010757	0.0079205	0.00089375	-0.0037597	-0.020272	-0.0079336	0.44348	-0.0051249	-0.00055597	0.012919	-0.030512	-0.044208	-0.01821	0.0026867	0.016573	-0.0054757	0.010947	0.032426	0.036514	-0.0029292	0.0081418	-0.0095701	-0.027899	-0.08222	-0.24156	-0.033041	0.0040735	0.0065931	0.017831	0.0044156	0.0083845	-0.00039461	0.010619	0.0084633	-0.0068016	0.0033028	0.13982	0.32634	0.010373	-0.001929	-0.029628	0.010474	-0.021359	-0.020646	-0.0055611	0.066596	-0.055938	-0.05706	-0.01516	0.0040108	0.010312	0.0052005	0.0094407	0.0063199	0.0045553	0.0057614	-0.01902	0.018716	0.015754	0.019068
-0.0043243	0.0024849	-0.0039726	-0.0099018	-0.025718	-0.0021352	0.0016465	0.0040397	-0.0082985	-0.00032167	-0.0039475	0.026093	-0.0058259	-0.0007301	-0.015398	-0.012219	-0.016238	0.00025488	0.015148	-0.038083	-0.010517	-0.010243	0.027345	0.019296	0.012098	-0.023884	-0.0085694	0.01349	-0.0045211	-0.017394	-0.04115	-0.10036	-0.016391	-0.042286	-0.012668	-0.018223	-0.00012748	-0.0042946	0.0059543	-0.019709	-0.017183	0.014787	0.19466	0.006131	-0.020243	-0.011627	0.011934	0.11404	0.0069395	-0.036603	-0.016842	0.0073236	-0.0067953	-0.0052391	-0.018228	-0.010739	-0.023571	-0.012435	0.040305	0.13701	0.32419	0.046921	0.0032494	-0.018175	0.015321	0.027645	-0.0075054	-0.011716	0.0051282	-0.0011568	0.028924	0.049086	-0.54251	0.22603	0.035208	0.033839	0.01149	-0.003151	-0.0049209	-0.0039255	0.00087635	0.013115	-0.084002	-0.084827	-0.0032227	0.0078221	-0.0158	-0.0091458	0.003144	0.00033109	0.00087188	0.018661	-0.0069019	-0.0017568	-0.0044675	0.0034609
0.012709	-0.021429	-0.043986	0.014198	0.021474	0.024707	-0.04956	-0.034239	-0.034474	-0.01874	-0.0054163	-0.022671	-0.023231	-0.0048039	-0.00020989	-0.062912	0.01226	-0.018518	-0.0040041	-0.032592	0.0040676	-0.017678	0.010713	-0.03231	-0.027691	0.017107	-0.019352	-0.014866	-0.038058	-0.026736	-0.010774	-0.022071	0.016347	-0.019869	0.034347	-0.06662	-0.040455	-0.028789	0.0010112	0.0059273	-0.026306	0.0068668	-0.028588	-0.0098948	0.054834	-0.0073262	-0.023453	-0.03336	0.0042226	0.030162	-0.074319	0.015288	-0.0098777	-0.032455	0.01343	-0.000564	-0.015914	-0.010272	0.087921	-0.057212	-0.082776	-0.028904	-0.034018	0.053022	-0.020529	-0.00069725	0.051977	0.0017817	-0.019686	0.024629	-0.099462	0.51519	-0.0415	-0.041997	0.02263	-0.0028839	-0.020447	-0.028994	-6.5281e-05	0.020174	-0.028751	0.02114	-0.012331	-0.015863	-0.0292	-0.023727	-0.045536	-0.055949	0.021678	0.0036754	-0.0042724	-0.044857	-0.050394	-0.01935	-0.035152	-0.045716
0.016315	-0.0029731	0.016911	0.031595	-0.043343	0.070531	0.0011586	-2.7634e-05	0.032122	-0.05493	-0.011406	0.018522	0.082076	0.012876	-0.022983	0.021567	0.048897	-0.068394	0.036142	-0.044687	-0.020208	0.020029	0.03694	0.018174	0.023883	7.2073e-05	0.029016	-0.021475	-0.013839	-0.0066304	-0.012241	-0.03996	-0.0012912	-0.0022358	0.02221	0.0018207	0.0020558	-0.0085212	0.048643	0.021265	-0.029389	0.020128	-0.018934	0.015423	0.064371	0.084103	0.0014284	0.038516	0.023126	0.0044184	0.029209	0.01017	0.018118	-0.0084458	0.067836	-0.04888	0.088263	0.46871	0.043009	-0.0025738	-0.026911	0.045977	-0.0096913	-0.025367	-0.016795	-0.00037225	0.032109	-0.0013349	-0.077221	0.0048884	-0.0060391	-0.016547	-0.0051669	-0.0065333	0.010322	0.022817	-0.02118	-0.034275	-0.010027	-0.011609	-0.0057266	-0.014183	-0.060636	-0.046317	-0.00045047	-0.037435	0.0078585	-0.02144	0.012398	-0.00093413	-0.046465	-0.1039	0.022819	0.0076072	0.026633	0.10216
0.0095473	-0.026089	-0.011104	-0.030575	0.0085502	0.032365	0.026161	-0.047553	-0.026557	0.011189	-0.05309	0.015965	-0.023307	-0.0027055	-0.0084522	-0.0036305	-0.0022689	-0.02591	-0.041193	-0.014546	-0.0066291	0.022252	0.08849	0.033853	-0.0087257	0.054885	-0.045734	-0.059937	0.48273	-0.042147	0.020276	-0.0082737	0.0056662	0.14756	-0.025871	-0.070269	0.0097861	-0.043559	-0.028806	0.01254	-0.0023016	0.017528	0.017181	0.010004	-0.012191	-0.0053147	0.0004016	-0.010628	-0.007791	0.01717	0.022414	-0.017709	-0.0043754	0.0087608	-0.036427	0.014437	0.023936	0.0070917	-0.03922	0.016407	0.0027291	0.0087579	0.0091219	0.023181	-0.0031793	-0.012499	-0.0091719	0.014745	-0.0091246	0.00045157	-0.018968	0.025626	0.0089605	0.0049803	0.02777	0.0045974	2.6307e-05	-0.02464	0.012333	0.020002	0.008119	-0.012115	-0.034176	-0.003513	-0.011356	-0.0099121	-0.012454	-0.013584	-0.031998	0.01175	-0.036822	0.024385	-0.0027873	-0.0081106	-0.024961	0.035882
0.44021	-0.035989	0.048827	0.038148	0.010441	0.013943	0.0036007	-0.10107	0.011453	-0.022337	-0.011955	0.00065924	0.020442	-0.00019662	0.011684	0.033378	0.002497	0.10629	0.00081842	0.016597	-0.0016435	0.034023	0.060359	0.025498	-0.029354	0.0095558	0.020163	-0.015845	-0.045419	-0.023383	-0.00022186	0.010657	-0.0013918	-0.0018104	-0.0075115	-0.045481	-0.022672	-0.0065188	-0.054304	-0.024497	0.0074039	-0.024018	0.011694	0.0091642	-0.011323	-0.037601	0.026244	0.0090505	-0.012411	-0.010901	-0.058986	0.024758	0.004019	-0.034913	-0.061571	-0.036128	-0.025343	0.0023792	-0.035727	-0.015323	0.059864	-0.022419	0.010488	-0.055747	-0.039389	0.01147	0.0090531	-0.0088053	0.035847	0.002568	-0.012529	-0.0069883	0.027559	-0.022846	0.020408	0.023039	0.061181	-0.022154	0.040341	-0.0029077	0.06888	0.036511	-0.02468	0.061099	0.013268	-0.0015159	-0.039505	-0.035044	0.01587	0.017686	0.0073571	-0.016489	-0.011675	0.022689	-0.0073095	0.077702
-0.069307	-0.073295	-0.021703	-0.024919	0.0076921	-0.012818	-0.0064092	0.013068	0.0010825	-0.0097621	-0.0097882	-0.00993	0.015363	-0.0055785	-0.00075843	-0.010542	0.071563	-0.019221	-0.047152	-0.034839	-0.0033994	0.030953	0.022833	-0.0046975	-0.066252	0.0098698	-0.046823	0.022867	-0.024335	-0.013832	-0.015241	-0.0034973	-0.015938	0.0012296	0.0014123	-0.041481	-0.01286	-0.0035756	0.00084116	-0.0009238	-0.016959	0.020563	0.020385	-0.019268	0.0095793	0.015624	-0.019397	-0.023891	-0.0099772	-0.024111	-0.0021069	-0.013316	-0.016581	-0.027575	-0.049446	0.025238	0.0074834	0.0069593	0.039856	0.035986	-0.035638	0.039633	0.022824	-0.00017937	0.085815	0.022597	0.035364	-0.038574	0.0017175	-0.013668	-0.059725	-0.029533	0.016666	-0.0073223	0.0066171	0.026748	0.44093	7.6907e-06	0.014605	-0.0093488	0.003513	0.033764	-0.036109	-0.0089859	0.00043829	-0.0061232	-0.0086656	-0.021229	-0.018049	0.030643	0.032072	-0.023223	-0.035	0.007573	0.052965	-0.013086
-0.00012986	0.010875	-0.0074114	-0.010985	0.012073	0.0095562	0.0028752	0.0074036	0.0091672	0.0047974	0.0031588	0.0078241	0.013676	0.00060975	0.00085525	0.004455	-0.0099154	-0.00055576	-0.00025171	0.012317	-0.0072354	-0.0016028	0.0025045	-0.0044995	0.011087	0.013257	0.0056853	0.0051161	0.0031234	0.0015754	0.0055153	0.0069826	0.048965	-0.0034268	-0.00122	0.0066097	-0.00064546	0.010024	0.0080326	-0.0057067	-0.011197	-0.01803	0.050116	-0.0040194	-0.0027908	0.0096379	0.45818	-0.10165	-0.035788	-0.0040774	0.027312	-0.00019089	0.010807	-0.00068833	0.0048634	0.012444	0.021215	-0.0025054	0.00090824	-0.071153	-0.14658	-0.0011198	0.0046556	0.011007	0.0038795	0.0010018	0.0085137	-0.003597	0.012516	0.015111	0.002222	-0.0076049	-0.071159	0.010529	-0.0091076	-0.0097385	0.015374	0.011276	-0.0058429	0.0065346	0.012417	0.02679	0.0069216	0.0062221	-0.00072592	-0.0025884	0.0045717	0.0058535	0.0051297	-0.00033851	-0.0048624	0.0063422	0.0074097	0.0045624	0.0066967	0.015981
0.00051099	-0.00010677	-0.0060676	-0.0028611	0.0099828	-0.0041644	-0.00078751	-0.0058215	0.0024008	-0.0013851	-0.0080825	-0.0010267	-0.0067472	0.0055094	-0.0025671	-0.0044745	0.0036459	0.0011637	-0.012975	-0.020952	0.002375	-0.0021728	0.01669	-0.015621	-0.0079113	0.0026605	-0.015112	-0.11783	0.0023818	0.45618	0.0016793	-0.018312	-0.0015698	-0.024277	-0.1359	-0.11795	-0.065039	-0.0081279	-0.0096648	-0.020475	-0.012974	-0.00087173	0.0013595	-0.0037932	0.0068281	0.0020983	-0.00099109	-0.0054275	0.0034679	0.0037123	-0.0019217	-0.00046088	0.010815	0.0041881	0.0033751	-0.004428	0.0045235	0.0065612	-0.0063599	-0.0030645	0.003297	-0.00063321	-0.0039963	-9.1112e-05	-0.00092535	0.0048117	0.0022771	-0.00068376	0.0067713	0.0012635	0.0019565	-0.0019756	-0.0015937	-0.00014142	-0.0086754	0.00065923	-1.4531e-05	-0.0021785	-0.001526	-0.0091984	-0.0031279	0.0063425	-0.00041946	-0.009998	0.013275	-0.013524	-0.0023661	-0.0021314	-0.0018492	-0.0053999	-0.0055462	-0.0042959	-0.013743	-0.0056762	-0.0043487	-0.0036656
-0.050667	-0.02381	-0.0014514	-0.007586	-0.036222	0.018027	-0.00094805	0.0020361	-0.03208	0.007803	0.019801	-0.0020091	0.034785	-0.0010065	-0.011518	0.0064079	-0.01815	-0.015801	0.0088158	-0.042344	-0.011661	-0.0012669	0.050471	0.045363	-0.015994	0.0044598	-0.037671	0.02354	-0.011693	0.0038308	-0.033559	-0.042479	-0.030943	-0.037614	0.022266	0.0085967	0.0026344	0.00049908	0.010878	-0.0016421	-0.047598	-0.0060752	0.0076131	0.018706	-0.024579	-0.016096	0.00044156	-0.0027963	-0.021326	0.040523	-0.0076549	0.0096343	3.075e-05	-0.019317	0.016974	0.024041	0.014922	-0.025697	0.018233	-0.0077743	-0.014516	-0.0035085	-0.026199	0.034111	-0.023557	0.0035723	0.015126	-0.015759	0.072866	0.011746	0.019579	-0.013136	0.016502	-0.02146	0.023254	0.025027	-0.043494	0.0049154	0.42064	0.013119	0.057475	0.01734	-0.020513	-0.064648	0.17542	-0.0062364	0.010192	-0.02187	-0.023399	0.009302	-0.013101	-0.026018	-0.0082935	-0.0017601	-0.0051945	0.023704
0.0033386	-0.022172	-0.0024055	-0.0013961	-0.014924	-0.016999	0.016795	-0.028365	0.00031928	-0.040919	0.034987	0.012703	0.011871	0.00236	-0.017494	0.0065374	-0.029518	0.0075158	0.033408	-0.013927	-0.006846	0.0024814	-0.060415	-0.00015688	0.029594	-0.035735	-0.033374	-0.012238	-0.0070848	-0.0039677	-0.0091799	-0.0073026	0.0040552	0.0052198	-0.0046083	-0.01805	-0.0039408	0.0064566	-0.029863	-0.0018662	0.0012857	0.01051	-0.012524	0.017189	0.024184	0.038194	-0.0071917	-0.002983	-0.0077977	-0.019286	0.00078252	0.041736	0.0048281	-0.020094	0.031019	-0.023978	0.043355	-0.048918	-0.017504	0.010445	-0.027008	0.075536	0.45245	0.057206	-0.037546	0.018972	0.034674	-0.0021664	-0.033402	-0.055439	-0.013856	0.01103	-0.0044921	0.00023905	-0.0030336	0.010087	-0.018925	-0.0072642	0.028351	0.025617	-0.018264	-0.029871	-0.029705	-0.006517	-0.0092575	-0.029697	-0.02241	0.025663	0.014121	-0.0056807	-0.020225	-0.030262	0.0055201	-0.00717	-0.0062845	0.012182
0.0062527	0.013041	0.0063686	-0.0036177	-0.016989	-0.0054745	-0.0022745	-0.0061681	-0.0025636	-0.0041296	0.0047434	-0.0049947	-0.0045219	-0.0021036	0.00026687	-0.0055279	0.00015719	-0.004372	-0.012256	0.0066205	0.0033131	-0.013984	-0.011182	-0.0050178	-0.013043	-0.0017234	-0.0020535	0.012933	0.01118	-0.011054	-0.0080781	-0.0065311	0.0003875	-0.010933	-0.00067936	0.0020571	-0.0067215	0.006861	0.0099014	0.0015646	0.0024303	-0.0011701	-0.0023495	-0.0091481	0.0037172	0.0015909	-0.0041579	0.0027333	-0.0069828	-0.0025496	0.0021053	0.0038958	0.0087935	-0.0011005	0.0094136	0.010512	-0.00053136	0.0032915	0.0096389	-0.003058	-0.0090331	-0.00059386	0.0024449	0.0034506	0.00025705	0.0095065	0.014858	-0.04061	-0.017311	-0.00016942	0.0084008	-0.0051338	-0.0022736	-0.0081639	0.0001974	-0.011875	-0.0082944	-0.072533	-0.11247	-0.053271	0.0029703	0.010838	-0.0048563	-0.0087372	0.28394	-0.28338	-0.076195	-0.014323	0.0034853	0.0076086	0.054676	0.13318	-0.015673	0.0027239	0.00097782	-0.01366
-0.021986	0.38196	0.038017	0.024958	0.007663	0.040523	0.00069479	-0.061962	-0.052464	-0.0064395	0.0021263	0.0049807	0.0094787	0.0025834	-0.0046781	-0.01402	0.064726	-0.016256	0.0043013	0.019643	-0.0053021	-0.013555	0.040977	0.019948	0.025215	-0.011536	-0.025086	0.00015	-0.0041531	-0.018095	-0.0001668	0.0078305	-0.014219	0.0051959	-0.019971	-0.031055	-0.044885	0.0085597	-0.018764	-0.010055	-0.0053406	0.0071572	0.013764	-0.00567	-0.029504	0.023625	0.0037267	-0.039279	0.0047874	-0.042862	0.028318	0.0053055	0.001083	0.019788	0.047531	-0.077431	-0.00775	-0.0044673	-0.017265	-0.0041475	0.048622	0.0027021	0.024132	-0.05762	0.017417	-0.020744	0.0061398	-0.029463	-0.018769	0.05364	-0.013185	0.029582	0.027781	-0.013607	0.0097393	-0.0035497	0.060223	-0.018656	0.044105	0.018373	0.011423	-0.0078978	0.0042498	0.014224	-0.0073899	0.013967	-0.031491	0.041578	-0.012635	0.020565	0.027414	0.023349	0.029029	0.011774	-0.024132	-0.013218
0.0068149	0.0086254	-0.036357	-0.015365	-0.0081458	0.037137	0.0053897	-0.014852	0.06663	-0.0053578	-0.011565	0.038713	-0.01583	0.0046683	-0.004344	0.0099709	0.023453	-0.0048531	0.00046278	0.00053632	-0.0059387	-0.026598	0.013871	-0.053757	0.027895	0.0097913	-0.0781	0.36956	-0.0099167	0.07714	0.022034	-0.0017235	0.0021142	0.10651	-0.061592	-0.0011713	0.01373	-0.028761	0.019765	0.011473	-0.010364	-0.0080281	0.011362	-0.032807	0.0024373	0.0069144	0.0023411	-0.0052222	-0.0080005	0.010734	0.003031	0.017252	0.0029316	0.0051607	-0.013447	0.021939	0.023252	0.0008508	-0.024582	-0.0078249	0.032251	0.0014474	0.0062412	0.00034161	0.0075402	0.017053	-0.00026059	-0.0099003	0.007657	-0.017271	0.011772	0.025511	0.019648	-0.0067696	-0.00060354	-0.0017992	-0.020911	-0.0032423	-0.0063425	-0.040184	-0.021064	-0.01204	-0.020802	0.024782	-0.00044344	0.023281	-0.032847	-0.066604	-0.00048436	0.012953	-0.013355	-0.0077645	0.0080222	-8.6537e-06	-0.024901	0.051669
0.02485	0.022411	-0.021576	-0.013682	0.030926	0.0042495	0.0012226	-0.010232	-0.018309	-0.02479	0.019095	0.00080845	0.0025801	0.00081319	-0.00098507	-0.0019896	-0.052857	-0.014169	0.0019446	-0.012996	-0.0033661	0.052964	-0.0024461	0.051955	0.0046599	0.039831	-0.020609	0.019803	0.025988	0.017548	-0.0019164	0.0044501	0.0012061	0.03725	0.020847	-0.0072239	-0.0050869	0.012505	0.0075154	0.001453	0.032695	-0.0071694	-0.004648	-0.0060724	-0.0049261	-0.022338	-0.014703	-0.0021736	-0.02929	-0.023644	0.009191	0.039724	-0.00032012	0.03245	0.01398	-0.073058	-0.013423	-0.055958	0.37135	-0.078736	-0.0010555	-0.0033322	0.0075602	-0.027976	0.0065774	0.0070761	0.0054228	0.036406	-0.022578	-0.0051855	0.0044993	-0.063114	0.0065026	0.000525	-0.0068276	-0.0067218	-0.017074	0.023393	-0.018132	-0.028888	-0.0011488	-0.013379	-0.023649	-0.03176	-0.004995	0.0020085	0.047269	-0.040059	0.032533	-0.010132	0.036365	-0.0055708	-0.011651	0.017731	0.0035368	0.042983
0.0080681	0.050933	-0.030642	0.029007	-0.0072656	-0.021061	0.0085691	-0.039394	-0.024088	0.0046348	0.00014841	-0.0073211	0.016882	-0.001337	-0.0069934	-0.0086833	0.037249	-0.020998	0.0010187	-0.0066668	-0.0050768	-0.00096145	-0.031762	-0.022223	0.027244	0.0010471	0.0015257	-0.0117	0.01065	-0.001521	-0.022513	-0.018456	-0.0085945	-0.021705	-0.00027502	0.016533	0.01187	0.040181	0.035019	0.018938	-0.016137	0.0035483	-0.0033164	0.00025272	0.020462	-0.066131	0.0033947	0.025041	-0.046091	0.39273	-0.031758	0.027972	0.026258	0.0098598	-0.022464	-0.0050498	0.036821	-0.021357	0.0083906	-0.010075	0.000551	-0.017611	0.018034	-0.047233	-0.0022107	-0.0095286	0.017729	0.00073806	0.012759	-0.019234	0.011149	-0.030737	-0.015738	0.0059117	-0.0013828	-0.012559	0.031853	-0.0036161	-0.037132	-0.010414	-0.0065616	0.0031545	-0.027229	0.0029478	-0.0069046	-0.0009826	-0.011465	-0.0036459	-0.015443	0.00017475	-0.01926	-0.035499	0.0097609	-0.0061816	0.00094806	-0.012131
0.026419	0.0098328	-0.029243	0.01505	0.040671	-0.0053107	-0.012076	-0.023775	0.017496	-0.0089558	0.036207	-0.0062247	0.017603	-0.018959	-0.0046788	-0.0054359	-0.042976	0.016906	0.0089659	0.019855	-0.0035634	0.0066019	0.0032982	0.02816	-0.0041164	0.030169	-0.013649	0.018636	-0.0021858	0.00069045	-3.1787e-05	0.0031617	-0.0013025	0.0038143	-0.016617	-0.01895	0.014357	0.013426	-0.014119	-0.0048916	-0.01635	-0.020586	-0.0039362	-0.026412	0.033501	0.026564	-3.8282e-05	-0.031736	0.020151	0.021671	-0.0022892	-0.0067256	0.00018267	-0.0084481	0.088844	0.0075267	0.004292	-0.021	0.053562	0.36944	-0.12972	-0.031631	-0.024048	-0.01968	-0.0069271	-0.018954	0.031499	-0.011132	-0.013569	0.023971	0.025043	-0.011604	-0.016547	-0.018075	0.018233	-0.0062568	-0.024097	-0.023956	0.0059197	0.013693	0.0024732	0.010765	9.7547e-05	0.018793	-0.025293	0.001407	-0.026789	0.0049396	0.0034843	-0.020161	0.03441	0.0087356	-0.021009	0.0074071	-0.01197	0.02402
0.0085368	-0.0072675	0.020676	-0.0069097	-0.0081785	0.01088	0.027133	-0.029744	-0.046745	-0.003184	-0.021474	0.026733	-0.0051218	0.00015445	-0.0010357	0.012052	-0.015995	-0.015569	0.055111	0.013571	-0.0043362	0.034291	0.016817	0.021002	0.022743	-0.013819	-0.033552	0.01796	0.0077945	0.013853	0.0082532	0.0017747	-0.022362	0.017894	-0.004779	-0.0054285	0.024975	-0.02341	-0.0063783	-0.012957	-0.01871	-0.027159	0.0141	0.043976	-0.021613	-0.019783	0.0083703	-0.020481	0.018679	0.0092306	-0.033445	-0.0077984	-0.016418	-0.045562	0.015194	0.0013349	0.0079293	0.011508	0.013725	0.014902	0.011846	0.0036032	0.010979	-0.0076908	0.031436	-0.005882	-0.0087238	-0.031803	-0.0096363	-0.0036277	0.030672	0.041862	0.01898	-0.0034633	-0.011615	0.013591	-0.04295	-0.01642	-0.0067463	-0.025304	0.012272	0.0093807	-0.016093	0.035831	0.0075828	0.037273	0.011185	-0.0015688	-0.013913	0.019542	0.018732	0.03651	0.04207	0.030836	0.37026	-0.10963
-0.022004	-0.020806	-0.019558	0.017619	-0.0053885	0.031317	0.012108	0.046386	-0.018088	0.0026747	-0.0090176	0.011218	0.022576	-0.00070448	-0.011041	4.4295e-05	-0.022599	0.036309	0.0014007	0.011597	-0.0086571	0.02697	-0.026449	-0.002873	0.011614	0.009414	0.005319	-0.00089848	-0.0025142	-0.0057119	-0.0098874	0.0027927	-0.015005	-0.026681	-0.0017203	-0.037321	-0.021643	-0.013382	-0.014906	-0.010446	-0.0111	-0.032484	0.010899	0.017574	-0.0071638	0.012141	0.013348	0.020701	0.049807	0.02612	-0.002685	0.0041308	-0.010773	-0.0060975	-0.022438	0.0071827	0.024301	0.0096501	0.0192	0.015636	0.0017775	0.0087682	0.011894	-0.0064468	0.014626	0.036099	-0.035384	0.0031275	-0.036224	0.022558	0.018027	0.0046372	0.015919	-0.012156	0.015998	0.011216	-0.022769	-0.027087	-0.010144	-0.0073978	0.034331	-0.0062084	0.01197	0.013806	0.0011121	0.033013	0.028992	0.0043822	0.040926	0.38611	0.01546	0.039983	0.002179	0.03421	-0.060445	-0.022254
-0.0037468	-0.026551	-0.010817	-0.015102	-0.0091956	0.033509	0.011445	-0.039467	0.012799	-0.011809	-0.023292	0.026931	0.00013225	-0.0049257	-0.014344	-0.004414	-0.0092027	-0.026356	-0.042158	-0.013281	-0.0070726	0.029028	0.067262	-0.0011024	0.022681	0.010721	-0.017501	0.018637	0.010624	0.028879	-0.010311	-0.02577	-0.010362	-0.048421	0.029684	0.040304	0.057092	0.3589	-0.081778	0.0084783	-0.018564	0.02119	-0.0077569	-0.008702	-0.0020757	0.0018396	-0.009123	-0.0031903	-0.047873	-0.04041	0.022525	-0.019449	0.045725	0.038785	-0.042158	0.021838	-0.010264	-0.011232	-0.015662	0.0008902	-0.005333	0.022523	0.0075604	-0.050894	0.019023	-0.031131	-0.057326	-0.0001448	-0.038222	0.031766	0.010223	0.044092	0.009059	-0.0055007	0.0075178	0.0067412	-0.013812	0.0035193	-0.010561	-0.0045831	-0.011464	-0.0037587	-0.011158	0.0060905	0.0045692	-0.0017686	-0.008302	0.020092	-0.0071355	0.025532	-0.0029125	-0.029477	-0.020328	-0.003912	0.019545	0.014987
-0.050114	-0.033026	-0.01955	-0.034784	0.029572	0.0016192	0.0078014	-0.015484	-0.059555	0.0099949	-0.021716	-0.0068143	-0.018046	-0.0012079	-0.0022251	-0.0062648	0.0083168	0.043918	-0.0248	0.023361	-0.0014714	-0.011411	-0.0053483	-0.017803	0.0046793	-0.00021061	-0.025093	-0.020217	-0.011101	-0.022179	0.0023803	0.0026531	-0.00033534	0.01298	-0.038472	-0.017352	0.016079	0.033034	-0.048981	0.014406	0.010865	0.014839	0.010161	0.0089404	0.013266	0.049874	0.0083957	0.037254	0.093143	-0.0082453	-0.0088092	0.35519	0.042657	-0.033305	0.063694	-0.022657	0.017501	-0.012927	-0.028264	-0.024854	0.0034514	-0.042129	-0.038358	-0.004885	0.0081055	-0.021436	-0.0064477	-0.018825	0.020673	0.011827	-0.0068245	-0.019436	-0.0011464	0.0067298	0.013036	-0.0077318	0.009272	-0.030617	-0.0050362	0.015158	0.037398	-0.015913	0.037628	-0.0053691	-0.020408	-0.0077009	-0.031138	-0.027256	-0.021493	-0.0078884	-0.018758	0.0024014	-0.023045	0.0082744	0.029018	0.058887
0.030912	0.015921	-0.0070428	-0.019088	0.0026631	0.034264	0.0098758	0.015745	0.019171	-0.0075463	0.0090662	0.0027487	0.017261	0.0045749	-0.013734	-0.0082105	0.011923	-0.022376	-0.012371	-0.022738	-0.0047596	0.02816	0.01252	0.033287	0.024884	0.0074421	0.0063129	0.030961	0.005338	-0.008037	0.0023811	-0.0038493	-0.0030849	-0.024079	-0.012311	-0.02112	-0.018421	0.027686	0.0047059	0.0056001	0.0041417	0.010238	-0.0080745	0.038881	0.010249	-0.0097177	0.014474	0.0073097	0.35827	0.026619	0.026896	-0.071939	-0.0085282	-0.015135	-0.069717	-0.011956	-0.015111	-0.040628	0.012033	-0.020385	-0.039201	-0.023947	0.0049496	-0.032131	0.045039	0.028751	0.017161	0.0069577	-0.010674	-0.060828	-0.010964	-0.0046542	-0.017721	0.0040775	-0.014078	-0.011996	-0.011283	0.044017	0.0018976	0.0076199	0.00070602	-0.036499	0.010557	-0.027076	0.023893	-0.026374	-0.014544	0.047858	-0.051533	-0.033941	-0.011624	-0.05342	-0.026092	-0.010673	0.0011811	0.0026387
0.01345	-0.040113	-0.011771	-0.038194	-0.0064765	0.014856	-0.013625	-0.059417	-0.025297	0.025091	-0.01343	0.04135	-0.034412	0.00015825	-0.0037167	0.00095832	0.0022565	0.016929	0.014634	0.0037135	-0.0054878	-0.022483	0.00010211	-0.035514	0.012726	-0.0037494	-0.0097173	-0.034017	-0.02727	-0.013125	-0.0039108	-0.011401	-0.014778	-0.013558	-0.031813	0.016965	0.0083622	-0.013277	0.052578	0.0033815	-0.020351	-0.0029551	0.0057604	0.018915	0.0040771	-0.063449	-0.012958	0.015184	-0.003645	0.013819	0.36178	-0.013478	0.00058904	-0.029808	0.025646	-0.045702	0.028451	-0.016304	-0.0022595	0.01354	0.010883	-0.015771	0.0086448	-0.0029584	-0.030555	0.025754	-0.011796	-0.0014916	0.041815	0.0094595	-0.01078	0.052568	0.0074058	-0.019419	-0.0099565	0.0062486	0.012428	0.0014184	-0.016414	-0.030111	0.016022	0.023321	-0.0059757	0.014068	0.015479	0.030585	0.026154	-0.018286	-0.019691	0.0042187	0.043695	0.011414	0.0033752	0.015978	0.0085599	0.046858
-0.006912	-0.018872	-0.02992	-0.0063245	0.0047537	-0.016733	-0.021617	-0.032823	0.021821	0.0016783	0.01011	0.023358	0.055814	0.0051309	0.009648	0.013216	0.036954	0.014202	-0.028629	0.026084	-0.0014969	-0.031038	-0.0079048	0.002766	-0.035414	0.019388	-0.0068435	-0.016202	-0.0059792	-0.011209	-0.003972	-0.0092088	-0.012521	-0.022422	-0.014381	-0.019239	0.010171	-0.01413	-0.020179	0.035893	0.009928	6.778e-05	0.019062	0.042995	-0.021625	0.35562	0.00061303	0.0082675	-0.025909	0.059	0.036205	-0.067367	-0.0185	-0.016649	-0.038501	-0.018493	-0.0053671	-0.056894	0.033336	-0.023474	0.044302	-0.019295	-0.0097572	-0.010971	0.019339	0.00060709	-0.0039876	0.0015714	0.015769	0.004658	0.01381	0.0086029	0.0096336	-0.0055723	0.034138	0.017461	-0.032637	0.0071385	-0.0076245	0.0068135	0.020855	0.027642	0.026899	0.055578	0.008296	-0.0022813	-0.0050829	-0.019023	-0.019974	-0.01487	-0.01191	-0.012555	-0.0054903	3.8674e-05	0.025391	0.022455
-0.0061068	-0.013901	0.0066423	0.014409	-0.016205	-0.0023611	-0.0019959	-0.0062743	0.014953	0.0076199	0.012056	0.037397	0.051014	0.0034032	-0.0057096	-0.0030951	-0.0047645	0.00049546	0.026722	-0.012089	-0.0062437	0.014083	-0.039779	-0.017306	-0.0070466	0.038398	-0.034802	-0.02184	-0.032519	-0.0215	-0.0075057	0.00050416	-1.8941e-05	0.014332	-0.013024	-0.038662	0.0023083	-0.049229	0.012905	-0.0089401	-0.0093964	-0.027392	-0.017968	0.050079	0.0053291	-0.0051578	0.0064792	-0.0072787	0.011134	-0.012048	0.0059325	0.030267	0.051538	0.3545	-0.082719	-0.0081057	-0.010653	-0.01699	-0.036164	0.032316	0.0012051	0.0023355	0.0075157	-0.026619	0.0030631	-0.023463	-0.0042384	-0.0074851	0.00023072	0.015578	-0.0034805	0.035334	0.005153	-0.016777	0.0058676	0.012693	0.0059391	-0.016774	-0.0025937	0.019394	0.016233	0.0025972	-0.0037477	-0.050512	0.011363	-0.0098783	0.048318	-0.032016	-0.018451	-0.0071559	-0.0040583	0.0019512	0.0068807	0.011427	0.046521	0.045174
-0.048777	-0.023117	0.0419	0.0012857	-0.0012357	0.014893	-0.012247	0.0020163	-0.012686	-0.016474	0.017444	0.022266	0.015797	0.00084458	-0.0023439	0.0023779	-0.0073452	0.048103	0.0041396	0.00057628	-0.006262	-0.010874	0.026607	-0.029084	-0.0090463	-0.0095076	0.013513	-0.001892	0.0058696	-0.015219	4.0293e-05	-0.0035126	-0.0013073	0.021824	-0.031944	-0.016726	-0.01208	0.051196	-0.016919	-0.011643	1.345e-05	0.0035617	-8.0549e-05	0.01182	0.0082747	-0.015067	0.0055877	0.00059224	-0.01879	-0.014347	0.0019475	-0.012487	0.0048456	0.00023846	-0.01824	-0.0047353	-0.0053072	-0.0037255	-0.0092214	-0.011736	0.039086	0.0037139	-0.019375	-0.040656	-0.0089338	-0.0308	0.37748	0.003793	0.022945	-0.021578	-0.0030332	-0.012687	0.016049	0.0036526	0.014324	-0.017237	-0.033613	0.042038	-0.021347	-0.00068249	0.013669	-0.0076033	-0.0017453	0.017136	0.0070895	0.028657	0.0082822	0.014919	0.006449	0.029869	0.0091513	0.019982	-0.020341	0.011285	0.0073493	0.0090267
-0.015094	0.0015359	-0.0017322	0.01463	-0.006844	0.03168	0.004982	0.033115	-0.0093941	0.0016459	-0.019158	0.0082342	0.01767	0.0013908	-0.0027242	0.0065005	0.037919	0.0084817	0.0080475	-0.0090631	-0.0088427	0.011199	0.014178	-0.0019905	0.016328	0.021254	0.0063939	0.0038078	-0.014023	-0.0064481	0.00017422	-0.024859	0.014635	-0.014329	-0.0335	-0.0085905	-0.021784	0.0020916	-0.063572	0.010705	0.38071	0.018481	-0.016327	0.020715	-0.0065916	-0.024083	0.0080084	-0.022026	-0.020844	0.023939	0.018761	-0.014221	-0.0076864	0.0072953	0.022055	0.038339	0.010529	0.017569	-0.0055078	0.029747	0.0054555	0.0067698	0.0015718	0.017843	-0.0069942	0.0047692	-0.011664	0.019543	0.010792	-0.010628	-0.0060352	0.024301	0.003943	0.018114	-0.0098872	0.0036228	-0.00085047	0.03232	0.019033	-0.0055051	0.023665	0.0048734	-0.01045	-0.011266	0.011929	-0.0026846	-0.028533	-0.021751	-0.026636	0.010703	0.018146	-0.013029	-0.0060172	0.0021788	0.020825	0.011503
-0.011956	0.012331	-0.031767	0.0073139	0.00062382	0.034734	-0.014813	0.0034033	-0.02025	-0.0073671	-0.047879	-0.0047694	-0.0027967	0.0027185	0.0013653	-0.0061825	-0.00038443	-0.0032018	-0.011654	-0.0077693	-0.00017076	-0.0263	-5.1409e-05	-0.00081707	0.00059303	0.041349	-0.00072129	0.0057218	-0.0094346	0.011003	0.0010391	-0.0016736	0.0084513	0.0020764	-0.071638	0.096313	0.042619	-0.0017358	0.00020873	0.0024112	-0.029104	-0.011523	-0.014572	0.34914	-0.031188	-0.030958	-0.019017	-0.043937	-0.027367	-0.02544	-0.049023	-0.017059	0.00018326	-0.041363	0.002989	-0.006447	0.006199	0.001303	0.007618	0.010785	-0.027774	-0.011625	0.0052659	-0.034085	-0.029523	0.019136	-0.0025922	0.0075688	0.042231	0.003924	-0.0020929	-0.0047155	-0.010939	0.018468	-0.013567	0.00044078	0.025042	-0.023257	-0.021476	0.019907	-0.0029557	-0.010814	0.0020129	-0.014659	-0.020329	-0.017922	-0.013297	-0.033988	0.0072361	-0.0030265	0.0078418	0.0024713	-0.0028757	-0.0023439	-0.039566	0.012364
0.0056125	-0.017172	0.0073181	0.035696	-0.0078987	0.038685	-0.0021394	-0.005498	-0.035596	-0.00023048	0.0087063	-0.014769	0.010489	0.00534	-0.0047764	-0.0023977	0.029846	-0.015839	0.027232	0.0023923	-0.0037301	-0.0053292	0.0020069	-0.037966	0.016494	0.0075978	-0.0096226	-0.0044103	0.011169	-0.0024589	0.0012273	0.008124	-0.022379	-0.0025157	-0.01268	-0.0006584	0.021739	-0.019273	-0.018418	-0.011588	-0.048985	-0.023406	0.0047129	0.002678	-0.0039949	0.0060475	0.00065128	-0.016039	-0.024272	-0.0017185	-0.023988	0.029065	-0.0084595	-0.0018519	0.039888	-0.019608	-0.010006	0.0063362	-0.0090132	0.028454	0.0090682	0.0012313	-0.002357	-0.014062	-0.018888	-0.015655	-0.047456	0.012335	-0.012444	-0.031019	-0.011817	0.026187	0.012714	-0.0086992	0.016454	0.027655	0.0098834	0.36357	-0.030202	0.003521	0.012862	-0.0034001	-0.012572	-0.015614	0.03888	-0.036784	-0.01171	0.018826	-0.022218	0.021023	0.011945	0.025346	0.020189	0.013823	-0.0028741	0.028434
-0.00076577	0.0079019	0.0046809	0.0096149	0.020819	0.014404	0.006421	0.0026981	0.0048702	0.0023661	0.0016758	-0.00079206	0.014719	0.0070209	-0.0080215	0.0039131	-0.0034567	0.0072909	-0.0028862	-0.019895	-0.00807	0.00085792	0.013831	0.0079281	0.017168	0.0070516	0.0099162	0.011247	0.00851	-0.017672	-0.033217	-0.086657	0.40812	-0.069047	-0.037448	-0.0068819	0.0070571	0.0017587	0.0056605	-0.010817	-0.033683	-0.054306	0.093362	-0.009816	0.0018642	0.016154	0.048731	-0.0031232	0.001741	-0.00025484	0.010086	0.0075483	-0.00075091	-0.0022137	0.01103	0.016148	0.0097958	-0.013687	0.0038092	0.0061563	0.033537	-5.9148e-05	0.00081973	0.004958	0.0089665	-0.0038786	-0.0053574	0.0073825	0.0062953	-0.0051282	0.0019655	0.007715	0.017311	0.074557	-0.01669	-0.014712	0.0088153	0.010338	0.0044902	-0.0092169	-0.011069	0.03998	-0.052158	-0.0423	-0.00089402	0.0057922	0.0087794	0.015086	0.0064776	0.003821	0.0068229	0.018907	0.0051468	0.014538	0.016548	0.0046808
0.0014673	0.0013335	-0.0046414	0.0089044	-0.078405	0.010055	0.0061549	-0.00027614	0.0028205	0.0053516	0.0020812	0.017595	0.026139	-0.064355	0.37383	-0.11754	-0.020909	0.0059638	-0.0085948	-0.1084	-0.011601	-0.003793	0.003704	0.0071832	0.005194	0.0045762	0.0036308	0.0029602	0.0057852	0.0034408	0.00072214	0.0043525	0.0028026	0.0018713	-0.00095623	0.0031116	0.0090827	0.0061668	0.0039199	-0.00033689	-0.0014585	0.0023756	0.0015079	-0.0019573	0.012844	0.0029267	0.012339	-0.0037113	0.015059	0.0056448	0.0018888	0.0057054	-0.0053199	0.00021729	0.025915	0.00024815	0.00081881	-0.00043991	0.0010397	0.006655	0.023778	0.0094955	0.010174	0.0028884	0.00058976	0.0015796	-0.0020295	0.0025133	0.0017343	0.0065053	0.012204	-0.0038627	0.01916	0.0021636	0.0051898	-0.0062484	0.0012811	0.001077	-0.0051503	0.0015138	0.0034758	0.0013314	0.014566	0.013306	-0.0039287	0.00021773	-0.00169	0.010951	0.00043086	0.0052977	0.0045225	0.00092826	0.0032993	0.0045961	0.0056391	0.015126
-0.0077343	0.025568	0.0013409	0.024281	-0.017589	0.043032	-0.0021115	-0.010856	0.018997	-0.0024017	-0.024454	-0.00034808	-0.016428	-0.0082813	-0.0064793	-0.00729	0.013086	0.033261	0.027816	-0.0075913	-0.0059552	0.0056261	0.01441	-0.020896	-0.030421	0.0047485	-0.04269	0.011685	-0.009301	0.0014849	-0.0046697	-0.013708	-0.0026063	0.011201	0.017862	-0.020756	0.0085164	0.014592	-0.035213	0.0016954	0.015348	0.024268	-0.0027076	-0.0074497	0.027435	0.0089395	0.0081967	-0.0081856	0.015835	0.015022	-0.040468	0.016279	-0.011259	-0.07253	-0.035607	-0.036113	0.0056083	0.0075855	-0.030068	0.028956	-0.0056529	0.016296	0.015196	-0.0041564	-0.00674	-0.0076432	-0.017052	0.015324	0.027286	-0.020621	0.018737	0.024886	0.0053668	-0.0029639	0.012816	-0.0047736	0.0028136	-0.017002	-0.036477	0.033507	0.024428	0.0058138	-0.0097422	-0.01673	0.050281	-0.0060727	0.33655	-0.026824	-0.020008	-0.04305	0.038534	0.047951	0.0010557	0.0064614	-0.030945	-0.00089294
-0.009206	0.02789	0.010896	-0.011274	0.0040949	-0.0035386	-0.010689	0.018902	-0.0051198	-0.0058024	-0.020775	0.062035	0.02869	0.011801	-0.0020582	0.020492	-0.0067296	-0.0092608	0.0010446	0.0069482	-0.0016811	-0.0058713	0.0092655	-0.0092001	0.020607	0.031241	0.0052862	-0.0017438	-0.0037022	-0.011609	0.010122	0.0075464	-0.0020907	-0.015113	-0.010236	-0.019688	-0.013495	-0.010813	-0.019902	0.033281	-0.012525	0.039207	0.004806	0.021631	0.34708	-0.015805	0.002779	-0.0031128	-0.026972	-0.02158	0.0014159	-0.0086313	-0.028615	-0.021248	-0.058917	-0.005398	-0.0054152	-0.034766	0.0044488	-0.0070839	0.013549	0.018146	-0.018228	-0.00064294	-0.023775	-0.023317	-0.030127	0.001079	0.019113	-0.018663	0.0040415	-0.027823	0.0070458	0.018621	0.014292	-0.0025927	-0.0085308	0.0062564	0.019487	0.010432	0.020084	-0.0016123	0.015525	0.0042009	-0.0093692	-0.0053184	-0.03799	-0.0087108	0.0060317	0.0071499	-0.001456	0.021185	0.0083306	-0.00025885	0.018597	-0.0078427
0.012989	0.039643	-0.0022434	-0.036957	-0.004904	0.010551	0.012145	-0.035451	-0.040885	-0.024145	0.025836	0.034392	0.0004925	0.0023718	-0.0017137	0.0012469	0.044674	0.044737	-0.01694	0.01918	-0.0051096	-0.00018222	0.0077929	-0.032566	0.0089583	-0.017672	-0.03456	-0.043906	-0.017547	-0.0081384	0.0042537	-0.012363	-0.017797	-0.013368	0.016646	-0.0065896	0.0012515	-0.0073413	0.022464	-0.010434	-0.032536	0.015896	0.010931	0.004067	0.010402	-0.0018908	-0.0036485	-0.014786	0.033505	-0.0098658	-0.016871	-0.022889	0.015809	0.008164	0.049376	0.31489	0.061926	0.0014481	0.055764	-0.016002	0.031496	-0.0028942	0.015989	-0.010054	-0.022631	0.014129	-0.0059558	0.0082929	-0.015105	0.012611	-0.031813	-0.0096705	0.010936	0.0041722	-0.0034421	-0.015006	-0.012547	0.0045151	-0.019814	0.00021195	0.017403	-0.014726	-0.0018836	0.023876	-0.0045276	0.023946	0.026397	-0.043122	-0.0367	-0.016391	0.011959	0.028833	0.01009	0.0099889	-0.0070304	0.058844
-0.029498	0.0010911	-0.010105	-0.013411	-0.019442	-0.020278	-0.0158	-0.026244	-0.0013938	-0.014858	-0.012057	-0.0073923	-0.026043	-0.0059756	-0.0021811	-0.0098625	-0.019946	-0.048348	-0.0066844	-0.01861	0.0096726	-0.017267	-0.013118	-0.0065598	0.00027721	-0.014795	-0.017189	0.014961	-0.0060358	-0.0079936	-0.011729	-0.021832	0.0058953	-0.017525	-0.012422	-0.009223	-0.0063554	0.0012772	-6.7275e-05	-0.007749	-0.012253	-0.02168	0.00011909	-0.023163	-0.013548	-0.0060067	-0.017808	-0.023882	-0.010764	-0.013877	-0.019863	-0.030917	-0.014992	-0.0085006	-0.0036647	-0.012851	-0.0016149	-0.003729	-0.0087069	-0.0082871	-0.023444	0.0019272	0.0038501	-0.0037394	-0.020511	-0.0053514	-0.0037662	0.0046031	-0.0019882	-0.0030102	-0.021511	-0.019563	-0.011436	-0.031534	-0.0046907	-0.013703	-0.021199	-0.012011	-0.048973	-0.040621	0.33363	-0.0055601	-0.039735	-0.042076	-0.044722	-0.012531	-0.019581	-0.01085	-0.031499	-0.0091522	-0.011633	-0.029083	-0.0042117	-0.015318	-0.0087942	-0.01482
0.019361	-0.018716	-0.040069	0.0055281	-0.040751	-0.0086838	-0.012484	0.018996	-0.030565	-0.0016315	0.0068189	0.022145	0.012924	-0.01068	-0.013544	-0.020392	0.0094598	0.025514	-0.068905	-0.010565	-0.0033006	0.044853	-0.018783	-0.0099956	0.0080325	-0.02492	-0.01506	0.017252	-0.014166	-0.0056848	-0.0057035	-0.0034191	-0.013406	-0.036337	-0.027554	-0.0017446	-0.016559	0.010293	-0.011631	-0.0072102	0.0010024	-0.012112	-0.016171	-0.00069253	-0.012506	0.01175	-0.0084294	0.0069632	0.0029959	0.022884	-0.0031323	0.0021667	-0.0076689	-0.0013322	-0.056616	-0.030748	-0.0029257	0.070525	0.020754	-0.014853	-0.042958	0.026398	0.011265	0.0094507	0.022465	0.011234	-0.005049	0.013667	-0.0053927	0.0050759	0.0026712	0.0096384	-0.0058037	-0.013793	0.0018967	-0.0039035	-0.01339	-0.0033815	0.039394	-0.0064713	-0.0022665	-0.01122	-0.041546	-0.026614	-0.064123	0.065128	-0.043368	0.047292	-0.066341	-0.056211	0.0050368	0.27877	-0.0096596	-0.00066878	-0.022911	0.0055947
-0.0083915	0.0084951	-0.0070973	0.033019	-0.0038526	-0.01668	0.0051964	-0.00066547	-0.03374	0.0049728	-0.0047953	0.012699	0.021315	-0.0035748	-0.0040506	0.0018289	0.012212	0.014412	0.015053	0.0087251	-0.005633	-0.019286	0.0057278	-0.01001	-0.00041457	0.018914	-0.0035543	0.014954	-0.0048475	0.003915	-0.0095943	-0.016401	-0.020948	-0.0089452	-0.0025846	0.001338	0.01135	-0.00050977	-0.0037414	-0.0090047	-0.020989	-0.021498	0.0099576	-0.011099	-0.0078099	-0.0010094	0.0094254	-0.0038774	0.006639	-0.0095032	0.004363	0.015747	-0.0044354	-0.00323	-0.014162	-0.00010246	-0.0070971	0.0033056	-0.012238	0.015825	0.0093207	-0.0043633	-0.003418	0.024287	-0.0064075	-0.0074023	0.00098468	0.33527	-0.012097	-0.0037977	-0.0039793	0.0041314	0.0099069	0.0028593	0.0029549	0.0054409	0.028761	-0.033386	0.00043817	0.0018149	0.00253	-0.012017	-0.0050447	0.016144	0.027902	-0.01455	-0.022736	0.023165	0.011156	-0.0079644	0.0065893	-0.012914	0.016103	0.0069135	0.020183	-0.0077666
0.0024336	0.038914	-0.012227	0.018066	-0.011909	0.010539	-0.00015614	-0.0071722	0.011968	-0.0089273	-0.003786	0.0060477	0.043449	0.0030307	-0.0050045	-0.0076833	0.014149	0.012573	0.0055333	-0.019946	-0.0054427	0.018196	-0.0075534	-0.0091741	-0.003477	0.0045295	-0.0021661	0.005307	0.016817	-0.00080754	-0.0064466	-0.0024374	0.005928	0.01799	-0.030473	0.00020302	-0.00035119	0.0016063	0.016254	0.0061564	0.0071367	0.013548	-0.019553	0.018169	-0.002077	-0.0041429	0.020099	0.31097	-0.024563	-0.040122	-0.018101	-0.021283	-0.0034287	-0.001405	0.030093	0.021279	-0.0030462	-0.037592	-0.010588	-0.015047	-0.1022	-0.0043894	-0.00082091	-0.0066459	-0.0035268	-0.010303	0.00036536	0.0069339	0.022172	0.0050445	0.0069807	0.010753	-0.016849	-0.024159	0.0004696	-0.0075122	0.012658	0.013036	-0.0060991	-0.023317	0.013245	0.028357	-0.0072263	0.0014256	0.0046606	0.01366	0.0025512	0.0083303	-0.0039499	-0.0040191	0.0256	-0.010582	0.0102	0.0060342	0.015968	-0.0066898
0.028784	-0.00047798	-0.00076889	-0.006231	-0.019192	-0.053826	-0.002532	0.050413	-0.011127	-0.0043246	-0.037839	-0.01514	0.26865	0.015175	-0.017633	-0.01285	0.067904	-0.041548	-0.13224	0.018874	-0.00029529	-0.034641	-0.0099313	0.015753	-0.0061785	0.0083845	-0.0086569	0.0080692	0.0086348	0.0092503	-0.0053659	-0.00029821	-0.011423	0.017124	0.0052545	0.0031053	0.021311	-0.0013794	0.019751	-0.010314	-0.0076197	-0.014465	0.011929	-0.019273	-0.016995	-0.052495	-0.0075582	-0.030042	-0.016227	-0.024973	0.02418	0.022494	-0.0010438	-0.026843	0.02266	0.00035223	0.0025533	-0.026122	-0.0018759	0.0089065	0.016698	-0.024752	0.0087406	0.015712	0.0056047	0.010791	0.00044595	-0.023356	0.013919	-0.022933	0.018988	0.025641	0.0068359	0.0086979	-0.01303	-0.010415	-0.028246	-0.0053055	-0.026519	0.022872	0.014489	-0.026446	0.0042871	-0.0088674	0.00065159	0.0039908	0.033006	0.019566	0.020132	-0.0020264	0.0036613	-0.015007	-0.012229	0.001096	0.011928	-0.008439
-0.023044	-0.024099	0.0055684	0.021295	0.041626	0.029319	-0.01137	-0.023841	-0.026236	-0.0031757	-0.014898	0.037624	-0.043308	-0.0029058	0.0035926	0.00493	0.0013444	-0.04879	-0.059687	0.026783	-0.0053987	-0.0034865	-0.022371	0.28388	0.0035368	-0.019364	0.021696	0.040513	-0.019793	0.014007	0.01156	0.0089956	-0.0087695	-0.035668	-0.016074	0.0046631	0.0011146	-0.023234	0.0036849	-0.0042521	0.0022504	0.0037145	0.021137	0.0031785	0.013649	-0.022121	0.011394	0.031965	-0.015934	0.014587	0.0052132	0.0074232	0.0084236	0.022895	0.0081497	0.026554	0.0058886	0.014687	-0.01834	0.00077536	0.025072	0.005954	0.021637	-0.00025832	0.0032227	-0.0014608	0.016633	0.013807	0.011649	0.021839	0.013693	0.0346	0.02316	-0.0044773	0.0145	0.0049903	0.013553	0.026623	-0.030593	0.010084	0.018618	0.024402	0.047799	0.047219	0.012017	0.00010956	0.031753	0.016623	7.9795e-05	-0.0076788	-0.050322	0.021188	-0.030638	-0.0041579	-0.012727	0.018835
-0.0025398	-0.028009	-0.020096	-0.0087442	-0.0041682	0.015971	-0.0038901	-0.031181	-0.0025782	0.0087796	-0.0070475	-0.006517	0.035205	0.00092754	-0.0042975	-0.0039548	0.0059549	-0.009478	0.012651	-0.0019767	-0.0029793	-0.014667	-0.014389	-0.010589	-0.0090917	0.03449	-0.014171	0.012867	-0.00054456	0.0034114	-0.0056159	-0.0089228	0.0042008	-0.0010371	0.0099805	0.00028099	-0.0047784	-0.0021553	0.0094241	0.0045362	0.0072589	0.015137	-0.0022769	-0.015026	0.0086021	-0.013182	-0.0030459	-0.0034981	0.042079	0.0074776	-0.023068	-0.016704	-0.010361	-0.017677	-0.024795	-0.017569	-0.01172	0.013397	0.0038142	-0.0041492	0.014612	-0.0138	0.046769	0.042749	-0.0037213	-0.028636	0.010611	0.0016746	0.084419	0.29857	-0.077419	-0.046233	0.00073776	0.0085921	0.0030494	-0.0035007	-0.018922	0.031066	-0.028112	-0.0081403	-0.017125	-0.0040386	-0.0009137	-0.010981	0.0081824	0.005621	-0.0020821	-0.0057199	-0.011784	-0.0036918	0.01497	-0.0074215	0.00039126	-0.0026823	0.0055946	-0.020622
-0.0022581	0.022426	-0.0086103	-0.044507	0.0046837	0.014033	0.0066233	0.015312	0.023259	-0.017361	0.010506	0.0040845	0.0095536	0.0040311	0.0012881	-0.0056326	-0.0029619	0.01084	-0.0028966	-0.0071017	-0.00011693	-0.015769	-0.0022665	0.012241	0.0059305	0.0085628	-0.023247	-0.0051159	-0.0018377	-0.0027622	0.0036684	0.014518	0.010706	-0.012668	0.0060762	0.0028405	-0.010504	0.0066908	0.003103	0.002372	0.00016602	-0.00084392	-0.0037649	-0.0036925	0.0012201	-0.014594	0.0040346	0.0032198	-0.0018989	0.010091	-0.0082097	-0.0016907	0.00051742	-0.010272	0.018414	-0.00036866	0.00096886	-0.022638	-0.008858	-0.0025832	-0.0033306	-0.018045	-0.015736	0.014712	-0.0042595	-0.010213	0.016593	0.0051767	-0.0019279	-0.015096	-0.054422	-0.016879	0.0016656	-0.019024	-0.026703	0.32536	-0.022115	-0.018493	-0.01941	-0.02434	-0.0089853	0.0049116	-0.0078531	-0.017555	-0.021919	-0.016487	0.010972	0.0051879	-0.0079577	0.00077778	-0.016103	0.015251	-0.0093321	-0.0057991	0.0017148	0.010342
-0.0037715	-0.0073976	-0.0085849	-5.9649e-05	-0.0039166	-0.0062819	-0.003917	0.01932	0.00173	0.018438	0.0037579	-0.015175	-0.012731	-0.0013077	-0.0047595	-0.0051644	-0.018653	0.0046952	0.023977	-0.011744	-0.0038239	0.0032695	0.022229	0.0027622	0.0089405	0.0075453	-0.010852	0.029611	-0.015571	0.010875	-0.005043	-0.00096094	0.0044581	0.00076599	0.017658	-0.02297	-0.0091199	0.0037735	0.0064957	0.0024412	-0.0029028	0.008004	0.0017093	-0.01578	-0.013042	-0.012312	0.00068175	0.029204	-0.019957	0.0078447	0.021819	-0.026434	0.0007763	-0.017572	0.01702	0.0021671	-0.013377	0.0024686	0.010423	-0.014872	0.0084025	-0.016948	-0.0014548	-0.025631	0.015712	0.012393	-0.0032559	0.0015433	0.013531	-0.0032124	-0.025644	-0.018888	0.014495	-0.010994	0.00055729	0.0099667	-0.0095039	-0.011363	-0.036905	0.31762	0.019676	0.011182	-0.013834	-0.036431	0.0046257	-0.019103	-0.038515	-0.024565	-0.021968	0.014074	-0.00586	0.017207	0.0049003	0.007414	0.027656	0.020992
0.0073176	-0.017592	0.0038902	-0.0066757	0.070617	0.0029497	0.0034961	-0.0111	-0.0073241	0.0060328	-0.0011139	-0.0038001	-0.0063384	0.014457	-0.0023038	-0.010395	0.018363	0.01287	-0.014851	-0.048076	-0.0055859	-0.052013	0.01253	0.0058227	-0.0041193	0.010774	0.0081585	0.012812	0.009802	-0.0079896	0.081618	0.25901	-0.0017993	-0.066317	-0.019666	-0.0067031	-0.012843	0.022208	0.01063	-0.0025712	0.0033609	-0.0040702	0.007462	-0.002745	0.0064912	0.025066	0.0042829	0.0081124	0.00041659	0.012756	-0.0041292	-0.014132	0.00798	0.0064152	0.039419	0.0043925	0.010066	-0.0017821	-0.0082508	-0.0016071	0.021295	0.0015835	0.0015616	0.011427	-0.0080439	-0.00085749	0.003345	0.01284	0.013397	0.0065572	0.025772	0.013504	0.0064015	0.021856	-0.0072571	-0.020611	0.0015887	-0.015989	0.0062487	-0.010233	-0.0012663	-0.026415	-0.10135	-0.097052	0.0046024	0.0018763	0.013427	0.0064403	-0.0081654	0.0097285	0.021325	-0.0064288	0.026542	0.010343	0.010183	0.0035593
-0.0018485	0.014792	-0.024816	-0.0117	0.002401	-0.00032916	-0.0057604	0.0065256	0.022331	0.0007084	-0.013653	0.0097381	0.011854	0.0038412	-0.0085513	-0.002637	-0.01226	0.006099	0.0052491	-0.020414	-0.00515	0.01013	0.0014536	0.0047426	-0.0034943	0.001056	0.021111	0.0013684	-0.011554	0.0093964	-0.0062748	0.0019825	0.012323	-0.011794	0.0051667	0.006613	0.0083725	-0.013033	0.012991	-0.00017873	0.010629	0.0040975	0.0022972	0.0072034	-0.014811	-0.027101	-0.0042632	-0.017735	-0.0017992	-0.0068178	0.010149	0.0028171	-0.0024757	-0.010696	0.0070679	0.013906	0.0038903	-0.015095	-0.014769	-0.016933	-0.0068753	-0.00845	0.0039721	-0.0044925	0.016753	-0.0054666	-0.0063608	0.002606	-0.011244	-0.015445	-0.026939	-0.025826	-0.0075839	-0.048898	0.32297	0.000489	-0.013815	-0.0052079	-0.019333	-0.017594	-0.019577	0.0058438	-0.022901	-0.034464	-0.010918	0.00043905	-0.0036462	0.0052059	0.0030162	-0.0077368	0.0018166	-0.0063616	-0.009028	0.0028723	0.015227	-0.0081969
-0.040331	0.00048732	0.01205	0.0026577	0.01574	-0.012963	0.0013233	-0.017149	-0.011473	0.014735	0.0078415	0.0079038	0.014742	-0.0051665	-0.0048276	-0.0059681	-0.016154	0.030578	-0.0053704	0.024817	-0.0045202	-0.0018192	0.0098052	-0.0072094	0.037642	0.033512	0.0021084	-0.010823	0.0084773	-0.004265	-0.0039114	-0.0062166	0.00057488	-0.0078359	0.01496	-0.010746	0.0092821	0.017578	-0.010994	-0.010743	-0.0052403	0.011503	-0.0030655	-0.011403	0.020278	-0.010715	0.0078376	0.0085935	-0.0033289	0.0071552	-0.040292	-0.01934	0.0057414	0.011609	0.042259	-0.037346	-0.037868	-0.0079375	-0.026709	-3.0288e-06	0.013996	0.016895	-0.011862	-0.0043107	-0.0032898	0.30158	0.01135	0.003764	-0.013135	0.030324	-0.001829	0.0028449	0.020572	-0.013097	0.010264	0.00038677	-0.0025138	0.00396	-0.0007832	-0.022847	0.0024162	0.0205	0.001563	0.0041521	-0.016452	-0.010157	0.0060989	-0.021842	-0.0083618	-0.023748	-0.004825	-6.7572e-06	0.0057021	0.0075068	0.018742	0.05369
0.0048835	0.010722	0.0016406	-0.0054014	-0.01244	-0.008852	-0.0072763	0.0070148	0.0012198	0.0028066	-0.0038498	-0.020353	-0.049931	0.43136	0.06625	-0.032372	-0.020608	0.01179	-0.052431	0.0080254	-0.028538	0.039249	-0.0092475	-0.0025578	0.0065023	0.000642	0.0059419	0.00035198	-0.0013688	-0.0070544	-0.019544	-0.02267	-0.01593	0.0038358	-0.0038157	0.0029227	0.0054144	0.0035235	0.0059277	0.0046948	0.00039937	-0.008694	-0.0056413	-0.0042129	0.00030815	0.0083355	0.015071	0.0045374	-0.0064894	0.00080096	8.8057e-05	0.0041565	0.0012115	-0.0010334	-0.0076768	0.00103	0.0049219	0.0074806	-0.000395	0.034757	0.0085663	-0.0083941	0.004554	0.00066161	0.0064381	0.011914	0.0038998	0.0086692	0.011226	0.0026642	-0.004403	0.0048746	0.014488	-0.010268	-0.0022926	-0.0027962	-0.0014276	0.0020871	0.0021572	0.00040143	0.00082128	-0.018472	-0.014101	-0.012329	0.0036453	0.00011756	0.007582	-0.0035295	0.003304	-0.0025966	0.0040993	-0.0054482	-0.014102	-0.0062	0.0045295	-0.014821
0.0037313	0.013217	0.0049517	0.013568	-0.0068658	0.005074	0.0026887	0.012019	-0.0083596	0.0018067	-0.018378	-0.0086051	0.0030126	-0.0017405	-0.0047914	-0.013622	-0.01243	0.0047487	0.022711	-0.016171	-0.0013069	-0.015089	-0.0061555	0.0092046	-0.011044	-0.0075798	-0.0096601	-0.014178	0.01276	-0.0066902	-0.011502	-0.0035477	-0.00058097	-0.01677	0.0059703	1.9623e-05	-0.013062	0.0025298	-0.0056595	-0.0018366	-0.0057459	-0.0055527	-0.012419	0.005824	0.01543	0.0093332	-0.0002549	-0.015834	-0.01052	-0.014513	-0.018825	0.014923	0.00023818	-0.002318	-0.0080409	-0.011608	-0.00056647	0.0036998	0.004023	0.013062	-0.016539	-0.011148	0.011128	0.014072	0.022552	0.021693	-0.011141	-0.0083997	-0.0043766	-0.020156	-0.0093445	-0.003641	0.00052978	-0.00657	-0.0063868	0.013255	-0.0018942	-0.010382	-0.08642	-0.0079404	-0.00068971	0.00088709	-0.010987	-0.025949	0.18865	0.23013	-0.048781	-0.025125	-0.031069	-0.0221	-0.03442	-0.023385	-0.018798	-0.001988	-0.024563	-0.0025863
-0.001472	0.0049862	-0.0096828	0.0030917	0.00065517	-0.026257	0.013023	-0.05321	-0.020154	0.30729	-0.018515	-0.0031609	0.0097822	0.00098658	-0.00037054	0.0036007	0.0059768	-0.040716	0.0099997	0.0057001	-0.0031449	0.0097281	0.011628	-0.0066456	-0.0078697	-0.0040727	0.011891	0.0031142	-0.01953	-0.0045347	0.00085879	-0.0015017	-0.00081289	0.0041782	-0.013231	-0.0079184	-0.0035627	0.0085331	-0.020294	-0.0052195	-0.00091875	-0.0090938	0.00053454	0.0065265	0.0062826	-0.0026997	0.0042672	0.011237	0.0096277	-0.012673	-0.025785	-0.008879	7.2056e-05	-0.0057723	-0.015593	0.016296	0.0077159	0.025484	0.030163	0.0075343	0.00060813	0.010734	0.01923	0.025736	0.0092562	-0.012111	0.015718	-0.012781	0.0044014	-0.026962	-0.0085702	0.0014208	0.0065871	-0.005031	0.0031301	0.023412	-0.0094326	-0.0045745	-0.0062668	-0.011358	0.0043519	-0.0028442	-0.0092228	0.010924	-0.0024766	-0.0027814	0.001852	0.012964	0.019234	-0.0014074	0.0067748	-0.0045996	0.009415	0.0040675	-0.011422	0.02752
-0.012199	0.0050561	-0.0077078	0.0060975	-0.0072903	-0.00032926	-0.0033189	0.0061781	-0.0027182	-0.0020339	-0.014452	-0.0093036	0.014459	0.0061207	-0.002118	0.0012307	0.010842	-0.0091913	-0.00092219	-0.0089698	0.00045891	0.0017682	-0.006954	0.0041136	0.0076342	0.0053026	0.022217	0.0049926	0.0075716	-0.0014601	-0.0077517	-0.011328	-0.0057704	0.0074416	0.01102	-0.0015959	-0.0089149	0.0089832	0.0064217	-0.0014737	-0.0018592	-0.020228	0.038638	0.011288	0.0094316	-0.00015677	0.0022326	-0.020414	0.028415	-0.013551	-0.0053613	0.020858	0.0033475	-0.010927	0.0026278	0.013249	-0.0029362	-0.01187	-0.0093008	0.0033863	0.033376	-0.0098603	0.017816	-0.013343	0.017838	-0.019794	0.0037765	0.01151	-0.020055	-0.012063	-0.021789	-0.018722	0.010707	-0.038562	-0.038253	-0.022548	-0.03427	-0.00082564	-0.0068855	-0.018845	-0.027056	0.29811	-0.06678	-0.05691	-0.023832	-0.00084682	-0.0031663	-0.0081899	0.0017866	0.001232	0.0017324	0.0038243	0.0051112	-0.0046166	-0.014148	-0.0041654
-0.020784	-0.011408	-0.001901	-0.013263	-0.0093829	0.036047	0.0019785	-0.027215	-0.0020393	-0.021145	0.004445	0.032203	-0.0025558	0.0035627	-0.011835	-0.0045308	0.026438	-0.0051573	0.012842	-0.017328	-0.011653	-0.0036225	0.0087134	-0.0071143	-0.0025869	-0.021898	0.0044426	-0.012866	0.0023891	0.0087564	0.0035799	-0.0018466	-0.0058103	0.019704	0.016309	0.0075591	0.018207	-0.0026304	-0.0082626	7.7885e-05	0.013392	0.025958	3.8645e-05	0.0015257	-0.010349	0.0098718	0.0074105	0.0037256	0.038908	0.024949	-0.0018197	0.00084572	-0.016362	0.0072516	-0.016585	0.01152	0.019168	-0.011006	-0.01331	0.0066697	0.0057198	0.0098382	-0.0081715	-0.0084965	0.015859	0.012191	-0.014829	-0.0086257	0.011459	0.0083566	0.0086833	0.0084931	0.020975	0.00033934	-0.0011586	0.015208	0.0066956	0.009037	-0.00048086	0.022243	0.041932	-0.0007014	-0.017846	-0.021382	0.01367	0.034504	-0.021947	0.027355	0.28822	-0.048003	0.027071	0.046253	-0.00052064	0.022865	-0.0036358	0.015614
0.011295	-0.0055721	0.0073028	0.0016155	0.0049406	0.014251	4.8522e-05	0.012348	0.026647	0.015152	0.001478	-0.020206	0.011839	0.0027586	0.0012663	-0.0027957	0.0037996	0.0048854	-0.0098801	0.0029944	-0.0019519	0.01977	0.014319	-0.004726	0.0095191	-0.0040254	0.015315	0.014353	-0.0057374	-0.015778	0.0011759	-0.010916	0.014725	-0.045233	-0.04432	-0.016365	0.0054816	-0.033897	-0.006271	-0.0086303	-0.037389	0.29808	-0.042402	4.9838e-05	-0.040944	-0.0084037	0.00451	-0.024948	-0.017825	-0.0014324	0.00011922	0.0031036	0.001282	0.01467	0.0057315	-0.010719	0.003865	-0.017964	0.011506	0.014279	-0.0048557	-0.0098015	-0.00062222	0.0007157	0.0023285	-0.010071	-0.0050396	0.020964	-0.0059456	-0.0055799	0.00216	-7.7378e-05	0.0032796	0.015837	-0.013003	-0.0055151	-0.01688	0.0023434	-0.0052217	-0.015433	0.012647	0.023131	-0.0099191	-0.0018457	0.0024661	0.0022214	-0.0049734	0.0080956	-0.0103	0.024415	-0.021589	0.0047841	0.0068128	0.0053011	0.020384	0.0061469
0.012632	0.0055116	0.0015379	-0.0036293	-0.0044627	0.029723	-0.0043587	0.011439	-0.013309	-0.011727	-0.0082665	0.0061436	-0.031407	0.00078847	0.00632	0.0032678	0.017448	-0.089339	0.01114	-0.0023008	0.0012273	-0.01205	-0.0018322	-0.0098949	0.0087714	0.26582	-0.015388	-0.0077489	-0.030414	-0.013902	-0.0064424	0.0049126	-0.0068148	-0.043801	0.0089172	-0.02927	-0.024796	-0.012258	-0.011808	-0.017322	-0.015309	-0.0007904	0.0010949	-0.023351	-0.041012	-0.0058374	-0.0029582	0.018545	-0.017178	-0.0070694	0.013548	0.028002	-0.0022438	-0.029076	-0.049944	0.031372	0.015612	0.0075336	-0.014491	0.0013936	0.0040113	-0.0079489	0.01975	0.014928	-0.00037638	0.0074343	0.021476	-0.019508	-0.02763	-0.023514	0.032351	-0.016625	-0.00010453	0.0046315	0.00055565	-0.0028967	-0.017163	-0.0037835	-0.00069263	-0.0013916	-0.0022126	-0.0025645	0.021349	0.0084077	-0.0084708	0.01154	-0.0078594	0.0084605	0.014138	-0.01856	0.011628	0.012528	-0.0030638	-0.0090023	-0.0049731	-0.021702
-0.005376	-0.021697	0.016228	-0.031743	0.0063297	0.0093895	0.0059588	-0.033953	0.010992	-0.021982	-0.01169	-0.008179	-0.016921	0.0043415	-0.0020854	0.0056642	0.012911	0.024757	0.012637	-0.0016397	-0.0054736	-0.025929	0.010177	-0.02656	0.0017043	0.0015024	0.0049385	0.023166	-0.010415	0.0021755	-0.0051624	-0.011322	-0.0090594	0.028476	0.0037299	-0.019913	0.0031757	-0.028147	0.00018712	-0.0018746	0.0092053	-0.007871	0.0047035	0.027283	0.0088378	-0.0061602	-0.0028614	-0.003581	-0.035876	0.0053466	-0.01212	0.019271	0.0011649	0.0012985	-0.02418	0.022942	0.0066092	0.0015612	0.044032	0.0038251	0.0060584	0.013508	-0.016793	0.014354	0.007195	0.019627	-0.01513	-0.018708	0.014386	0.013395	0.018498	0.021991	0.0096455	-0.0030112	0.0034759	0.0030077	-0.0026268	-0.024775	-0.015278	0.014846	0.011828	0.020738	0.0081494	-0.013269	0.022397	-0.00061026	0.0081486	0.27615	-0.039248	0.0027615	0.0017627	-0.03818	-0.00069907	0.0068009	0.0008503	0.046248
-0.0034557	-0.0084377	-0.00016139	-0.0044488	0.043265	0.007175	-0.0027055	-0.022302	-0.007416	0.0029678	0.003795	0.0098167	-0.062685	-0.024515	0.016467	8.0694e-05	0.15584	0.00075685	-0.093793	-0.055384	-0.010851	0.18934	-0.051254	-0.041411	0.0067835	-0.0048881	0.0066295	0.0066459	-0.0012249	-0.0082052	0.0014951	0.0039273	-0.00095701	-0.0076732	-0.00027053	0.0048509	-0.0080112	-0.016175	0.023006	0.0034517	-0.009769	-0.018522	0.0080617	0.0068998	0.015516	-0.0011033	0.0064375	-0.012016	-0.023579	-0.021124	-0.0034595	-0.0017136	-0.005894	0.0051062	0.019418	-0.024324	-0.005651	-0.0099627	-0.011733	0.016386	0.0049839	-0.012025	0.0035443	-0.0037319	-0.012336	0.013353	0.0083293	0.014107	0.00020984	0.0088057	0.0066825	-0.0176	-0.011013	0.0027364	0.00084824	0.013142	-0.050473	-0.0056729	0.0034728	0.020851	0.0020491	-0.0061445	0.0030977	0.0087833	0.027124	0.0024933	0.0052327	0.0023238	0.0053008	0.0039572	0.0035773	-0.041876	-0.038296	-0.0099909	0.0057766	-0.021968
-0.03783	-0.0028876	-0.0078252	0.025499	0.0070716	0.036673	0.001979	-0.0616	0.25657	0.015569	-0.025801	0.0057796	0.01715	0.0036113	-0.0038257	0.0048912	0.0092264	0.0053846	-0.010578	0.017167	-0.0051371	0.0086824	0.00044384	0.0057506	0.027593	0.018333	0.0106	-0.049736	0.0067389	-0.0075703	0.0057334	-0.0012349	-0.020171	-0.021049	0.02057	-0.0062842	0.005451	-0.011939	0.039741	-0.010412	0.0039807	-0.025481	0.012066	0.007847	-0.002154	-0.025981	0.0027984	-0.0073	0.0050054	0.0019242	-0.016689	0.027124	0.01722	-0.027212	0.029316	-0.0021179	0.0036668	-0.022812	0.010945	-0.0073616	0.028461	0.032937	0.0047777	-0.023791	0.015069	-0.01717	0.0025622	0.021954	-0.0033194	0.00074656	-0.00069679	0.023316	0.018542	0.005721	-0.016474	-0.012662	0.0078975	0.0039467	0.015048	0.00098794	0.015701	-0.011636	0.021116	-0.003997	0.0059497	0.017164	-0.02752	-0.013398	-0.019975	0.0034921	0.015307	0.040568	0.01257	0.010702	0.011066	0.013258
-0.001621	-0.016047	-0.0070099	-0.020427	-0.022142	0.016107	0.0026514	0.0019994	-0.012232	-0.00022796	-0.021359	0.02562	-0.024427	-0.0027456	0.0019728	0.0072862	0.007623	0.023602	-0.050359	0.016124	-0.0031694	-0.043996	-0.00078286	0.037648	0.013403	-0.022231	-0.0092231	-0.0028458	0.010768	0.00066929	-0.0014461	-0.015035	0.0058768	-0.0065351	0.0062008	-0.0027268	-0.006422	-0.0090289	0.0064424	1.0397e-05	-0.015361	0.020797	-0.010179	-0.0081361	-0.0029372	0.0039913	0.0067069	-0.0064755	-0.0027423	0.011333	-0.028914	0.00983	0.0059944	0.018797	-0.023678	-0.014634	0.0089639	0.02824	-0.011592	-0.0072469	-0.0043448	0.018637	0.0070651	0.012966	0.02	0.0059492	-0.0012503	-0.0012857	-0.0050217	-0.018201	0.013774	-0.0071989	0.00043242	0.0048058	0.0036716	0.018828	-0.029252	0.0059556	0.0037323	0.015744	-0.0023138	0.0058801	0.014728	0.00059352	-0.010435	0.019622	-0.029927	-0.015012	-0.0282	-0.010014	0.25904	-0.055896	0.0075494	0.0030059	-0.017079	-0.02207
0.0044043	-0.00032587	-0.0017608	0.0013137	-0.0014522	0.00044641	-0.00021984	0.00063198	0.0051379	0.0015894	0.0042712	0.0036666	0.0058292	-0.0021024	0.00093827	0.0047705	0.0033857	0.005086	0.0075571	0.0040994	-0.0012791	-0.0010086	-0.00032627	0.0044616	0.0013505	0.0064139	0.00043448	-0.0064382	-0.0056677	-0.0011291	-0.0050392	0.00073419	-0.0035439	-0.018081	-0.019459	-0.019297	-0.01587	-0.0075308	-0.024522	0.29035	-0.019327	-0.013344	-0.0092048	-0.0076618	-0.032576	-0.034492	0.0035301	-0.0097486	-0.0030238	-0.014521	-0.0083207	-0.005513	-0.0010477	0.0032117	0.010855	0.0045864	0.0029443	-0.0013769	-0.0012141	0.0032845	0.0046163	0.0055124	0.0020819	0.00035996	0.0076888	0.0069347	0.0049004	0.0041375	-0.0032996	-0.0020572	0.0021751	-0.00014931	-0.0026629	0.0038718	-0.0037517	-0.0052602	-9.8797e-05	0.0030678	-0.0011764	-0.0037717	0.0051629	0.0029082	0.0006742	-8.2339e-05	0.00040491	0.0037579	0.0041089	0.0047384	0.0042192	0.0010675	0.0029799	0.0065605	0.0015186	0.0040226	0.004258	0.0052409
0.033485	0.0074964	0.01139	0.0051726	-0.0097926	0.01061	0.00036362	0.0055212	-0.029147	0.0033709	0.011374	-0.02508	0.0097325	0.0036587	-0.0052299	-0.00043767	0.0072159	-0.0090035	-0.0019329	-0.0052846	-0.0022265	0.0081545	-0.018955	0.015149	-0.0029109	0.0073856	-0.013187	0.0080293	0.00096341	0.002929	-0.0047485	-0.0037958	-0.0023168	-0.014676	-0.0029423	0.0018762	0.0049956	-0.0092227	0.015628	-0.0019772	-0.00019086	-0.0024248	-0.0076734	0.00020995	-0.013627	0.017961	-0.0089764	-0.009319	0.0047887	0.0045655	0.017906	0.025551	0.0043635	-0.014984	-0.0027105	0.0060499	0.016385	-0.048925	-0.0096712	0.0081128	-0.030978	0.2692	-0.059628	-0.012974	-0.0054899	-0.002111	0.0083913	0.0028208	0.021415	0.0044164	-0.043887	-0.0059626	0.00053875	-0.0012561	-0.0014697	-0.0016747	-0.024969	-0.0072738	-0.018678	0.0064183	-0.01223	-0.00019157	0.0040542	-0.023881	-0.0016252	-0.002917	-0.0067532	-0.010151	-0.0010063	0.0020929	-0.014918	-0.01986	0.018209	-0.0013122	0.0036014	-0.0013381
0.029114	0.028943	-0.013354	-0.018257	0.0090563	-0.099929	-0.036355	0.014082	0.022003	-0.0016132	-0.0039909	0.23967	-0.028043	0.0043214	-0.0052198	0.0046242	-0.0073045	-0.025705	-0.012883	-0.016736	-0.0029513	-0.027783	-0.00326	-0.018418	-0.0055598	-0.001539	0.012451	-0.016138	-0.0026591	-0.0025695	-0.0040819	-0.0047299	0.011075	0.014286	0.021388	8.0278e-05	-0.0049165	0.0027842	0.0023353	-0.0045978	0.0040838	0.01549	-0.016146	0.0079836	-0.040308	-0.0053554	-0.0043673	-0.0028044	0.0078278	0.00053911	-0.02429	0.013926	0.002757	-0.016988	0.017885	-0.015439	0.0047562	0.0029566	0.0019313	0.010256	-0.014128	0.01998	-0.016718	0.033315	0.010517	-0.0008178	0.0010106	-0.0016488	0.015596	0.0040247	-0.0019203	-0.0018648	0.0047867	-0.0011881	-0.015857	-0.009211	0.0044127	0.02591	-0.0019507	0.012167	-0.010535	0.00573	-0.018254	-0.014019	0.011787	-0.007793	0.012954	0.0046891	-0.0097639	0.022853	-0.024016	-0.01381	-0.028575	-0.0072666	0.0011906	-0.0016643
0.020571	-0.0060055	0.020311	0.0058681	-0.016875	0.019375	0.01117	-0.0042542	0.013795	0.0040502	-0.021344	-0.017166	-0.048876	0.0089611	0.0032328	-0.045689	0.16583	-0.0025427	0.029531	-0.011146	-0.0010324	-0.1452	0.007317	0.0078891	0.0011473	-0.042955	0.007992	-0.017595	0.0097666	0.008288	-0.003802	-0.005546	0.01854	-0.0026223	0.020681	0.023356	0.005352	0.0034605	0.020754	0.005835	0.0046058	9.3645e-05	-0.013785	-0.0088308	0.0041876	-0.012743	0.0048858	0.012485	-0.010927	-0.028271	0.0038972	0.02377	0.014632	0.0058226	-0.076987	-0.0060375	-0.0026842	-0.013077	0.04989	0.038765	-0.034941	-0.0061376	0.01104	-0.000978	0.025767	0.037739	0.0084224	0.0015292	-0.01904	-0.00024466	0.0069855	-0.027069	-0.0094476	-0.013099	0.008933	-0.0018651	-0.034831	0.0046064	0.020821	0.009192	-0.0019629	-0.0042379	-0.0055575	0.010537	-0.020424	-0.01327	-5.0216e-05	-0.029724	-0.0081478	0.024327	-0.044154	0.013541	-0.03028	-0.0079162	0.018263	-0.024231
-0.0053604	-0.024795	-0.033264	0.22938	0.0028291	-0.05994	-0.037883	0.0071866	-0.0052703	-0.0038896	0.0075561	0.0084618	-0.0095186	0.0035461	-7.678e-05	0.0096436	0.012043	0.0025248	0.01875	-0.0031872	-0.0039877	0.010243	0.028054	0.0035168	-0.019657	0.0042219	-0.020677	0.011764	0.014872	0.008639	0.0055789	0.010777	0.0053394	0.022457	0.01736	-0.0072261	0.0095975	0.01117	0.0080472	0.0058497	0.00055464	0.020716	0.001021	0.011983	0.009403	0.0044312	0.012276	-0.0062157	0.013999	-0.015438	0.03887	0.02811	-0.00046844	0.00085734	0.0035907	0.03711	0.0090494	-0.0010756	0.011488	-0.0097686	0.018518	-0.0062198	0.0034782	-0.038121	0.016738	0.022873	0.00073713	-0.028019	0.0060257	0.0045187	-0.023707	-0.0060178	0.0061128	0.004161	0.0014912	0.037384	-0.012273	-0.011318	0.0060144	-0.010166	0.014245	-0.012574	-0.0015276	-0.0040207	-0.0050379	-0.0027837	-0.0064456	0.031654	-0.002296	-0.015284	0.019999	-0.0061163	0.021687	-0.0031592	-0.018301	-0.059374
-0.0074499	-0.011854	0.015775	0.015391	0.0056334	0.0051918	0.0026027	0.0074448	-0.027351	-0.014706	0.0043965	0.013061	0.0070127	-0.00048823	-0.004018	-0.0060326	0.0057063	-0.027022	0.0085707	0.0097593	-0.0070739	-0.0017216	0.0088431	-0.041275	0.026507	0.0063368	0.23533	0.039162	0.027144	0.015706	0.0005137	-0.011095	-0.017597	-0.006417	-0.025016	0.0067771	0.011361	-0.0042405	0.0046871	0.00083211	-0.0064284	-0.010307	0.015184	-0.0055812	-0.0052944	0.0063729	0.003503	0.0036892	0.0097607	-0.00028572	-0.0053743	0.013272	0.010683	0.0039516	-0.0028673	0.0083087	-0.0015938	-0.024737	0.017802	0.010744	0.0073111	0.016264	0.01953	-0.0047172	-0.0047523	-0.011567	-0.0052299	-0.014479	-0.031973	0.024853	-0.00051693	0.023447	0.018444	0.00088869	0.0014901	0.033701	0.024996	-0.018837	0.013406	0.013567	0.023396	-0.012895	0.007968	0.0067879	0.014671	0.014512	0.023419	-0.020337	-0.021632	-0.019643	0.021097	0.014159	0.021992	0.0022455	0.001106	0.014085
0.0064559	4.2528e-05	0.016253	0.012894	0.013466	0.0072804	0.0016522	0.0082313	0.0050823	0.0035669	-0.0052949	0.014015	0.0044635	0.00024753	-0.0078167	-0.0075361	0.0017624	0.012407	0.00769	-0.0029621	-0.0064035	0.012841	0.005324	-0.0015702	-0.013966	0.035602	-0.026376	-0.031633	0.0063798	0.028407	0.0087935	-0.0036899	-0.0092064	0.02304	-0.053327	0.22698	-0.011632	-0.029907	-0.035376	0.0046302	-0.0056497	0.0097967	0.019227	-0.070217	0.011808	0.013444	0.0048795	0.0029926	0.027296	0.0046469	-0.013677	-0.0050406	0.0067046	0.013266	-0.0023852	-0.0042656	0.0044201	-0.0020346	0.014622	0.0029041	0.014393	0.0060263	0.0091813	0.0015176	-0.0086361	0.0027291	0.0085612	-0.0087498	0.00058336	-0.0035336	-0.0054339	0.03129	0.010587	0.0016289	0.0088037	0.0026516	0.012721	-0.012823	0.00082979	0.016888	0.015736	0.010233	-0.0046202	-0.0081402	0.0019788	0.0010471	-0.0024114	0.013313	-0.015879	0.017022	0.0079455	0.00165	-0.0033005	0.0024555	0.0037892	0.0097403
-0.00031516	-0.0041844	0.0047797	-0.0066741	-0.058059	0.0073673	-0.0015067	0.0011103	0.0023475	-0.0036041	-0.0035652	0.019151	-0.036816	-0.021204	-0.00095507	0.0042024	0.009058	0.017303	-0.072586	0.057687	0.019797	0.01477	-0.0032033	0.017565	0.0044276	0.00046631	-0.0049284	-0.010848	-0.010241	0.0013095	-0.004429	-0.014649	0.00012067	-0.0027344	-0.0071166	0.0043854	-0.014859	0.0034153	0.0089918	0.0028542	0.0087851	-0.0064371	-0.005819	-0.0065369	-0.0014906	0.0038193	-0.0081433	-0.0010418	-0.00086004	-0.011893	-0.0011342	0.013251	0.0019951	-0.012772	-0.04034	-0.0031635	-0.0015351	-0.015102	0.014413	0.021876	-0.02506	-0.031246	-0.005185	0.0085095	0.0023246	0.0057599	0.019369	-0.0093463	0.0035948	0.0037887	-0.0014358	0.010869	-0.0019375	-0.0011144	0.0071644	0.0038205	0.0042956	0.0024779	-0.007601	0.0039855	-0.0087964	-0.010804	-0.035773	-0.033722	0.012805	-0.0083822	-0.00098322	-0.0045354	0.010054	0.0015115	-0.043935	-0.027855	0.21234	0.00062996	-0.0078731	0.0011292
0.0077714	-0.053224	-0.017687	0.0010472	-0.061457	0.0042385	0.0044179	-0.032662	-0.017144	0.0056193	0.03429	0.0068447	-0.016837	-0.029309	-0.03283	0.013593	0.061637	-0.01442	-0.0044043	0.018082	0.0038593	-0.054575	0.022238	0.0046345	-0.065613	0.036378	-0.0048052	0.015532	0.0047318	0.0021247	-0.0098676	-0.035642	0.0053492	-0.0031553	0.016233	-0.00033625	-0.033063	0.0076605	-0.00614	-0.0054713	0.0023054	0.0057214	-0.014802	0.0087676	0.029525	-0.0092715	0.0064536	-0.011173	0.033735	0.0062289	-0.023306	-0.038288	-0.0044579	0.033317	0.14998	-0.039799	-0.031005	-0.031703	-0.010754	-0.039316	0.0057798	0.010441	-0.0035095	-0.015532	-0.037318	-0.034069	-0.0053167	-0.0012891	-0.033595	-0.0043318	0.019092	-0.019003	-0.017165	-0.0067538	0.0080257	-0.0046059	0.015719	-0.024508	-0.0065702	-0.0016481	-0.010065	-0.003299	-0.0021186	0.000168	-0.0056158	0.026694	0.0075934	0.017156	-0.0044423	0.015707	0.00094133	0.027363	0.013372	0.0028418	0.0031353	0.010462
-0.0068089	0.019023	0.0025285	0.041451	0.0048029	0.01048	-0.00073333	-0.030596	0.0089762	-0.027544	0.0093049	-0.013379	0.010176	0.0046616	0.00083843	0.0095355	0.020398	0.035758	0.01358	0.0067609	-0.0041164	0.012936	0.013313	0.0042041	-0.0066568	0.0034332	0.0048715	0.0029376	-0.0054712	-0.0040618	0.0017385	-0.0022538	-0.01056	-0.0041516	-0.015713	-0.0043699	-0.00017066	0.041962	-0.0073238	-0.0049039	-0.016589	-0.0025093	0.0091139	0.023486	-0.0049277	-0.014732	0.0054049	0.0073131	0.019162	0.012228	0.0036651	-0.010802	0.00092125	0.022822	0.0010594	-0.017365	0.019824	-0.00081851	0.019486	0.0044843	0.023288	0.011754	-0.031007	0.22298	-0.0094102	-0.0059819	0.0021939	-0.023659	-0.0044797	-0.027655	0.00064802	-0.018498	0.0087559	-0.00012767	0.010632	-0.0074209	0.0049113	0.0025079	-0.016279	0.018574	0.013686	0.013135	0.00010177	0.02513	-0.01275	-0.00405	-0.0067184	-0.014931	0.0004464	-0.0015874	-0.0041433	0.0031707	0.0053128	0.0036949	0.0013594	0.0030058
0.031765	-0.036308	-0.0024429	0.021793	0.0074603	-0.0021921	-0.0025934	-0.0020824	-0.021826	0.0016722	-0.013157	-0.0046261	-0.006227	0.0026309	0.00082195	-0.0017454	0.001763	-0.054659	-0.0025095	0.0077448	-0.0014545	-0.016265	-0.012836	-0.022925	0.21003	-0.021698	-0.048828	-0.014224	0.0033089	0.0053352	-0.0044118	-0.0015615	-0.0027424	-0.0017353	0.017235	0.0087555	-0.010403	-0.0037379	0.017348	0.0058914	0.009494	0.0075509	0.009536	0.0047628	-0.0016605	0.024403	-0.00087915	0.0037756	0.008849	-0.012687	-0.014471	-0.012645	-0.0055432	0.0091389	0.029124	-0.0080477	-0.015672	-0.016675	0.001439	-0.0018366	0.002424	-0.0015529	-0.020306	0.017393	-0.015121	-0.025184	0.022182	-0.0040658	-0.0090466	0.0092712	0.017838	-0.00084092	0.0074159	0.00017863	0.020582	0.0047405	0.039327	-0.020902	0.0045747	0.0056319	0.00080845	0.0086367	0.0062913	0.007894	0.013698	0.0078539	0.021313	0.0057334	0.001215	-0.0021639	-0.0016633	0.010323	0.0041591	0.0012714	-0.018571	-0.0032139
-0.00014013	-0.0055857	-0.0078463	-0.01459	-0.0060565	0.0024021	-0.00012959	0.0011219	-0.0016967	0.0016474	0.001516	0.0041639	-0.0041874	-0.00065633	0.00024772	-0.0015756	0.00028719	-0.0015995	-0.0078697	0.0015247	-0.0012296	-0.0022858	-0.003493	-0.00077918	-0.0013266	0.0040499	0.0019772	0.000841	0.0012798	0.002115	7.6314e-05	-0.0029082	-0.0024475	0.0056969	0.001891	0.0020142	-0.0013516	0.003351	-9.5954e-05	0.00020009	0.0013989	0.0033519	0.00037787	0.00031917	0.0021731	0.00083312	0.0011812	0.0020005	-0.0005437	0.00076397	-0.0017897	-0.00097138	0.0023007	0.0030661	-0.00034618	-9.8216e-05	0.0013221	0.0054294	-0.0017098	0.0012899	0.0045489	0.0036838	0.0028512	0.00015967	0.00064299	0.0017901	-0.001488	-0.0026825	-0.0021713	-0.0011403	0.0014319	0.0017744	9.1534e-05	-5.9903e-05	-0.0021622	0.0044199	-0.0043488	-0.0013013	0.003195	0.00024958	0.002565	0.0017914	0.00010334	0.0013477	-0.0038237	-0.0080884	-0.0061131	-0.0027627	-0.018649	-0.025539	-0.023518	-0.014561	-0.012061	0.24955	-0.031457	-0.054998
-0.0046086	0.014181	0.020828	-0.0016464	-0.041162	0.0040316	0.0015803	0.0070844	-0.00068282	0.0055068	-0.0060139	-0.016674	-0.0084983	0.0079454	-0.028161	0.22171	-0.0033418	0.0010534	-0.025851	-0.072161	-0.0063429	-0.022479	-0.0039044	-0.0033446	0.0091039	-0.0044489	0.0065839	-0.0065302	-0.00019633	0.00081368	0.0033769	0.013785	-0.00090814	0.0043222	0.00043149	0.0061018	0.0054286	0.00034662	0.0030182	-0.0025169	-0.0056207	0.0015278	0.0015711	-0.0041314	-0.0072973	0.0014857	0.0018658	0.0024832	0.0013417	0.004015	-0.00048044	0.012416	0.00042357	0.0020086	-0.0056091	0.0019376	-0.0023027	-0.0099419	0.013565	0.013638	-0.0081367	-0.0087823	-0.001253	-0.0010336	0.0058803	0.014548	0.00051562	0.0031821	-0.0017641	0.0070219	-0.013294	0.021188	0.001128	0.0011586	0.0003057	-0.0011809	0.0022134	0.0014524	-0.0078762	0.0038184	0.00018536	-0.0012787	0.0056606	0.0053938	-0.0034962	0.0013585	0.0026044	-0.0062104	-0.0022932	-0.0013636	-0.0087679	0.010456	-0.019995	-0.0031212	-0.0022636	-0.01122
-0.021751	-0.0072096	-0.0028971	0.0005106	0.020343	-0.0083409	0.0044205	-0.0052847	-0.0031001	-0.011781	0.0034273	-0.0081148	-0.013614	-0.0080232	0.0065041	-0.0022306	-0.018817	-0.017506	-0.070248	0.0085502	0.0042626	-0.0011595	0.18714	-0.022655	0.010052	-0.011086	-0.0045404	-0.013609	-0.046152	-0.017372	0.0025983	0.0044303	-0.0023907	0.0014729	-0.013647	0.0024247	-0.0061496	-0.041673	0.011117	0.0014989	0.0025422	-0.019469	0.0024887	0.0010183	-0.0025703	-0.0048014	-0.0022342	0.013449	-0.0012168	0.015955	-0.0052089	0.0032975	-0.0036992	0.016056	-0.012837	-0.010285	-5.7618e-06	-0.0068871	-0.001363	0.0030938	-0.018119	0.018785	0.026939	0.0019176	0.0016077	-0.0069538	-0.010825	0.005029	-0.013807	0.0070483	-0.0093682	-0.016926	-0.0040083	-0.00049182	-0.002491	-0.00017536	-0.023836	0.0049157	-0.017398	-0.0051533	-0.0079716	0.0061643	0.0001436	0.016188	0.0075319	0.0023179	0.0074816	-0.0081866	0.0062618	0.0045866	-0.012498	-0.002459	-0.018822	-0.00099537	-0.00029489	-0.0046093
0.0099902	0.0025055	0.01307	-0.0071522	-0.0010181	-0.02292	0.0097536	-0.0076684	0.025765	-0.001979	0.18791	-0.015605	-0.00071101	-0.00013715	0.0024528	0.001315	0.0058231	-0.07823	-0.0088145	0.0018102	-0.0034467	-0.0068343	-0.0074128	0.0033153	-0.0039587	-0.015368	-0.0097385	-0.010539	0.0078107	-0.0031293	0.0061873	0.0026909	0.002949	0.022904	-0.029836	0.0067236	0.0040352	0.010101	-0.0043574	0.0011779	0.012032	0.0040252	0.0021692	0.025376	0.0086863	-0.0092777	0.0043827	0.0031734	-0.0061283	-0.0050625	0.0018458	0.022611	0.00082115	-0.022761	-0.033067	0.0053043	-0.0066267	0.0087398	-0.010487	-0.00053692	0.010611	-0.0084924	-0.01068	0.0064623	0.006135	0.011703	-0.0061995	0.01002	0.005311	0.0075991	0.0090007	0.013891	0.0060009	-0.0037863	0.011973	0.00053794	-0.00034264	-0.004504	-0.007437	0.0043246	0.0022859	0.0072667	-0.0063268	-0.0050341	0.0051226	0.014459	0.008863	-0.0032867	-0.0073898	0.015869	0.023317	0.0011993	0.0023819	0.0051739	0.0046224	0.0091379
-0.0078764	-0.010857	0.00060568	0.0034325	0.0028982	0.019248	0.0049558	0.0021408	-0.0022393	-0.0044754	-0.026005	-0.0032423	-0.0045604	-0.002071	-0.0027697	-0.0070563	0.011047	-0.011713	0.0029413	-0.012369	0.00024885	-0.0005739	-0.01087	0.034595	0.012058	0.017562	0.023018	-0.052067	-0.07534	-0.026786	0.0065401	0.0046836	0.016458	0.16275	-0.056161	-0.038058	0.015782	0.036352	0.018649	0.0030028	-0.01636	0.012987	-0.0024388	-0.021607	-0.0023908	0.01136	-0.00079789	-0.012032	0.0038524	0.0083891	-0.0092199	-0.023195	0.0027436	-0.011396	0.0052048	0.0015986	0.0068673	-0.014002	-0.0066392	-0.0059427	0.000698	0.0054305	-0.0057736	-0.0025154	-0.020293	0.0050575	-0.016472	0.010206	0.0085405	-0.0012487	0.006435	-0.0030205	-0.002663	0.0087396	0.0027543	0.0038335	-0.0057374	-0.0040081	0.00751	-0.0041082	-0.0045802	-0.011192	-0.033868	-0.017019	0.0086027	0.0044643	-0.012108	-0.0052333	-0.017353	0.0097222	0.0040358	0.014775	-0.0043756	-0.003711	-0.0048291	-0.0054632
-0.0014041	0.00079262	0.0089579	0.0077584	0.0023753	-0.0040339	0.0069262	0.0065963	-0.029215	0.0071595	0.0038934	0.0075065	-0.0029329	-0.001893	-0.0022647	0.0030727	-0.015042	0.016415	0.009455	0.0075733	-0.0031599	0.0020449	0.0040205	-0.0044395	-0.021366	0.01508	-0.018452	-0.0028136	0.015723	-0.0032312	-0.00030585	-0.0052484	-0.0051728	-0.021552	-0.031637	0.0035707	0.0017857	0.039438	0.18508	0.014955	0.031092	0.0092799	0.0039061	-0.011071	0.00092429	0.010289	0.0032798	-0.0084775	0.0049831	-0.017757	-0.035571	0.0021027	0.015568	-0.013846	-0.01952	-0.017881	-0.0067576	-0.0038027	-0.0069289	0.0099974	0.010979	-0.0061086	0.010737	-0.0021417	-0.024397	-0.0083523	-0.0095329	-0.0060071	-0.0075427	-0.0081466	-0.0021771	0.010758	0.011458	-0.00044298	0.0035154	0.0010217	0.0054459	0.0041079	0.0019267	0.0031543	0.0071583	0.004206	0.014152	0.013235	-0.0030348	0.0044826	0.0016659	0.0078804	0.0080661	0.0044426	0.0011323	0.006901	-0.00964	0.0079668	0.0073163	0.027285
-0.0012947	-0.015169	0.012169	0.00016272	0.0077747	0.001927	-0.003983	-0.01038	-0.030559	-0.0090796	0.014849	-0.0021808	-0.0017018	-0.00089009	0.0013574	0.0042781	0.00097271	0.023384	0.00027821	0.0089061	-0.001984	-0.0032601	-0.009757	-0.011054	0.011464	0.025489	-0.00012491	-0.014404	-0.0096189	0.0029134	0.0034842	0.0027346	0.0031287	0.015626	0.0078831	0.0071768	0.0027803	-0.003403	0.015324	-0.0045157	0.00084123	0.0031004	-0.00032421	0.0093652	0.013525	-0.019047	0.004327	0.0047853	-0.011707	-0.0013659	-0.010195	-0.023433	0.0030188	-0.0048532	0.031631	-0.017762	0.0096184	-0.0018998	-0.010145	0.0021679	0.013182	0.0071879	0.0091814	-3.1819e-05	0.18769	-0.025736	-0.0077675	0.0049082	0.010712	-0.0046445	-0.009013	0.010624	0.0053473	0.0024692	-0.0022365	-0.0025606	-0.02315	-0.0038461	0.0087689	-0.011369	0.015733	-0.010699	-0.0072351	0.021874	0.00073833	-0.011088	0.0033493	-0.011894	-0.0062461	-0.0037546	-0.01213	-0.0026396	0.0065414	0.001266	-0.017146	0.036432
0.0038118	0.0025543	-0.0063737	0.002743	0.0069111	-0.0019581	-0.0031224	0.0014873	-0.0032215	0.00057875	-0.00068751	-0.0047431	0.0012467	0.0018709	-0.0017335	-0.0025829	-0.0046435	0.0034989	-0.0058755	-0.015062	0.00028154	-0.010505	-0.0070401	-0.0012733	0.0034496	0.0031607	-0.00020148	-0.0038868	-0.0046233	-0.011571	0.1956	-0.083171	-0.01022	-0.01853	-0.0060369	-0.0067033	-0.0028219	0.0021683	-0.00022339	0.00028025	-0.0053631	-0.0093951	-0.0057548	-0.0029313	-0.0033949	0.00077509	0.0015553	0.0029985	-0.0057008	0.0016209	-0.0008107	0.0015941	-0.005059	0.0026128	0.0016127	-0.0026179	-0.00085505	-0.0026558	0.00042997	-0.00043509	-0.0011564	-0.0023067	0.0006078	-0.0012858	0.0017045	0.0019661	0.00042985	-0.0010797	0.0025136	-0.00068687	-0.0034357	-0.0062757	0.0029955	-0.0027503	0.0010877	-0.0016253	0.0034544	-0.0013789	0.0013361	0.0005509	-0.0048029	-0.0029137	-0.013909	-0.011341	0.0045055	-0.00038243	0.0034877	0.0031739	0.0025477	0.0038756	-0.0026713	-0.0033894	-0.0023904	-0.0010661	0.0016179	-0.0051102
-0.017693	0.0057384	0.0017323	0.0053708	-0.0013482	0.0054632	-0.0074241	-0.0028698	-0.0053545	-0.013789	0.0086021	-0.0087632	-0.012009	-0.0054923	-0.00054507	0.0011443	0.012062	-0.011108	-0.00707	0.0072407	-0.0015744	-0.0081461	0.0097782	-0.0096812	0.014512	0.013889	0.022989	-0.0036115	0.0096247	0.0016187	-0.005322	-0.0073356	-0.006166	-0.014685	0.018847	-0.0070535	0.012925	0.0085986	-0.0032366	3.8731e-05	-0.0051389	-0.0011882	0.00095775	-0.026757	-0.0077022	0.001594	0.00027868	-0.006201	0.015662	-0.014484	-0.019284	-0.0098128	0.0081153	0.018969	0.011143	-0.004889	-0.0068344	0.026016	0.018876	0.0062913	0.00031544	0.00026469	0.018849	-0.010962	-0.018585	-0.00048394	-0.016503	0.0020328	0.18192	-0.054635	-0.00018701	0.0052127	0.003814	-0.0064192	0.0080278	0.0023091	-0.0017745	-0.01166	-0.018964	-0.011943	-0.010467	0.0059306	-0.0087131	0.020079	-0.0094468	0.00098097	-0.014011	-0.0038311	-0.0019757	0.018941	-0.001963	0.0077019	0.001464	0.0041275	0.0045951	0.0055432
0.0025171	0.0061929	-0.00071381	0.0022897	0.0030874	0.00035892	-0.006811	-0.010496	-0.0075987	-0.0031591	0.00094395	0.0091287	-0.010282	0.00083186	0.0028279	0.0044662	0.0071637	-0.0032139	-0.0027201	0.005769	0.0024035	-0.0060595	-0.0047515	-0.0053581	-0.004282	0.0054627	-0.017007	-0.011518	-0.0036642	0.0019491	-0.0044218	-0.0013797	-0.0076911	-0.032677	-0.040149	-0.022771	0.18085	-0.026362	-0.0095015	0.00092934	0.012113	-0.010261	-0.0051744	-0.02678	0.0065519	-0.0089461	0.0019145	-0.00017763	0.012478	-0.006248	-0.010148	-0.016079	-0.002266	-0.0016964	0.0057159	-0.0098348	-0.0081123	0.0016049	0.0063563	-0.017805	-0.0011958	-0.00099568	0.00046068	0.00077452	-0.0015331	-0.0085085	0.011368	-0.0096705	-0.018643	0.0028017	0.0021228	-0.0023538	-0.0032951	-0.0045297	-0.0028396	0.0045188	0.0036855	-0.013194	0.0039479	0.0079899	-0.0067585	0.007885	-0.0059531	-0.003692	0.0039174	0.005737	-0.0051311	0.00066376	-0.0052347	0.0066423	-0.00053992	-0.0016782	0.0058098	-6.532e-05	-0.015679	-0.0017971
-0.020452	-0.025032	0.16589	0.0024653	0.0015962	-0.025512	-0.0084117	-0.021173	0.0017587	-0.0011658	-0.013172	0.013474	0.012774	0.0023618	0.00060582	-0.0099074	0.0040261	-0.0036683	0.0085004	-0.0006491	-0.0001544	0.011101	0.0030171	-0.0017546	-0.0036882	0.0026015	-0.020387	0.016843	-0.00032204	-0.0014791	0.0042512	-0.0051097	-0.00071567	-0.0048476	-0.010734	-0.011382	-0.0050818	0.0056179	-0.0059471	0.0010434	-0.00049687	-0.0025257	-0.00069045	0.012007	-0.0085552	0.0035355	0.0043101	0.003991	0.0088229	0.015583	0.0012079	0.00026347	-0.0078054	-0.0050015	0.0081307	0.0011617	0.0065136	-0.00043344	0.016103	0.00067724	-0.0097298	-0.005631	0.0011886	-0.0081679	-0.0055052	-0.0050808	-0.019097	0.0040577	0.0012456	0.0041233	-0.0014251	0.0020111	-0.0042176	-0.0074733	0.013161	0.0082798	0.00020373	-0.0058121	-0.0036412	0.0015943	-0.005746	0.0031925	0.0061575	-0.0080432	-0.010943	0.0026224	-0.0087369	-0.011079	-0.003791	-0.0038935	0.0066969	0.011066	0.0048285	-0.00028153	-0.024541	-0.017244
-0.0098777	-0.0023805	0.0041678	0.0069007	-0.0053268	-0.0038152	-0.0014886	0.0040526	-0.0092844	-0.0016321	0.0026172	0.0015303	0.0025038	-0.00074993	0.0012809	0.00059578	-0.00053573	0.0035292	-0.00092971	-0.0055921	0.0029524	0.0054183	-0.00026576	-0.00077571	0.0027053	-0.0009288	-0.0080785	0.0037125	-0.0014226	-0.0049635	0.003547	-0.0039146	0.0003087	-0.0011519	0.0042565	-0.0074589	-0.0061672	-0.024879	-0.018515	-0.00011862	0.00095686	-0.0021751	-0.0013625	-4.1764e-05	0.0051372	0.00045078	-0.00086712	0.00079891	0.0017997	-0.0046108	-0.00075967	-0.026042	0.17307	-0.030673	-0.0076627	-0.009207	-0.00091793	-0.0068212	0.0023185	-0.00029226	0.0018006	-0.0020397	-0.004057	0.0029444	-0.0069695	-0.00639	-0.0052061	0.00015085	-0.0046493	0.0044193	0.0042864	-0.00099158	0.001408	-0.00020126	0.0018118	0.0012566	0.0020552	0.0029285	-0.001752	-0.00342	0.0024914	-0.0015715	-0.0053808	-0.0002139	-0.0026177	0.0026961	-0.0022729	0.0012531	0.0093625	-0.001161	0.001553	0.00089429	-0.002852	0.00088759	0.0022364	0.0023057
-0.00072182	0.002129	-0.0044539	0.00099052	0.001477	-0.057588	0.14191	0.006668	0.0050747	-0.010865	-0.011185	-0.0023118	-0.0097288	-0.00059981	-0.00035677	-0.00028196	0.0088421	0.0047796	0.00475	-0.0006729	-0.003115	0.0049618	0.0026966	0.0092675	0.0024185	0.013109	0.00031591	0.0032341	-0.006995	0.0043364	0.0026546	-0.0021031	0.00054148	-0.00034792	0.0095998	-0.00060543	0.0091992	-0.00085368	-0.0031164	0.0021367	-0.0014432	0.0055576	-0.001659	0.01006	0.0035915	0.0057429	0.0039792	0.0033122	0.0015611	-0.00088572	0.0060599	-0.004243	-0.00049481	0.00025578	0.0031746	-0.0057175	0.0022339	0.0059476	0.0025141	0.0045613	0.0046578	0.0013968	-0.0048865	-0.0016179	-0.0011752	-0.0043239	0.0079646	-0.0035301	0.0077773	0.0028728	-0.011221	0.015578	0.0048023	-0.0024905	0.0037168	-0.0013305	0.00012404	0.0065352	0.00077519	-0.0017712	0.0076989	0.0016715	0.0035018	-0.0048318	0.0011835	0.00094492	0.00024735	-0.0024353	0.001438	-0.0021798	0.0040715	0.0069352	0.0039556	-0.00032128	-0.011695	-0.00079625
0.00099617	-0.0060962	-0.0059502	-0.00056778	-0.0041184	-0.0029876	-0.00095738	-0.010805	-0.0047068	0.00092319	0.0087723	-0.0030978	0.0020689	-0.00038419	0.0012602	0.0018259	-0.0035232	-0.002945	0.0015807	-0.00041757	0.00099452	-0.0017072	0.0018665	0.0004067	0.0021441	-0.0030513	0.0031689	4.2398e-05	-0.00078423	-0.00031418	-0.0028019	-0.0039463	-0.0022878	-0.0083187	0.0063158	-1.2809e-05	0.0005172	0.00023073	-0.0022399	-0.0024423	0.0050947	-0.0025254	-0.00014942	-0.0069592	0.00081871	-0.0025849	-0.0031398	-0.00043784	0.0010881	-0.018943	-0.016566	-0.011244	-0.0026342	0.005137	-0.0024101	-0.029148	0.13585	-0.022725	-0.0040551	-0.0035066	0.0019985	-0.013124	-0.014238	-0.014149	-0.0076335	0.00907	0.00046876	0.0036662	0.0013289	0.003756	0.0017591	0.00027972	-0.00050585	-0.0016603	-0.0011338	-0.0013501	0.0037441	0.0022877	-0.0032272	0.0045862	-0.0078065	0.0021503	0.0031724	-0.00032448	-0.0019031	-0.001975	-0.0029564	0.0010502	-0.0081842	-0.0036914	-0.0038683	0.0038386	-0.0013187	-0.002694	-0.00092632	-0.0050675
0.011669	0.0016711	-0.0031157	0.0012647	0.0023699	0.0024695	-0.0032331	-0.0074154	-0.0061167	0.0013154	0.0022961	0.00093636	-0.0039846	-0.0012676	0.0006329	0.0011265	0.0047897	0.0026871	-0.002671	0.002186	-0.00058523	-0.00019594	0.0074847	-0.0025728	0.0014971	-0.0024616	0.0022692	0.0033381	-3.1896e-05	-0.00022797	0.0013625	-0.00068035	0.00094887	0.0079026	4.102e-05	-0.00067173	0.0035442	0.004051	-8.1257e-05	0.00017212	-0.0015573	0.00098664	0.00074099	-0.0036476	-0.00038469	0.0037011	0.001067	0.0020376	-0.0068216	0.0038752	0.00013797	-0.0096723	0.0023197	-0.0039204	0.002517	0.0018038	0.00042919	0.0047096	0.00023351	0.004555	0.003868	-0.0048026	0.0073478	0.0062947	0.0067949	0.00010701	0.0029542	0.0043204	0.0058723	-0.0063128	-0.0027575	-0.0003735	0.0016691	-0.00082538	-0.0019397	-0.0028522	0.0027424	-0.0011658	-0.0025455	-0.0088806	-0.00031514	0.002349	0.070575	-0.068021	-0.0051792	0.00053826	-0.0011838	-0.0047961	0.0010009	0.0049595	-0.0032644	0.0045102	0.00093765	0.0012436	0.007145	-0.00039031
