-0.1779720619606673	-0.1853986590987937	-0.1950777454997711	-0.1868596012713432	-0.163828494342423	-0.1426594470955779	-0.125439701786161	-0.1718044967966194	-0.1815365406846131	-0.2002594057456854	-0.1765496661613541	-0.1801360990959041	-0.1862324829611924	-0.1515877037930368	-0.1687121028557647	-0.2551289508704013	-0.1633042729718387	-0.1735588715927032	-0.1681407397440506	-0.187491199977451	-0.1965472844123095	-0.2016625691942058	-0.2173452892819804	-0.2079498403389573	-0.2778515751821791	-0.2061231422311903	-0.1962313671611185	-0.2478366919654855	-0.1775053871867767	-0.2348000504245528	-0.1885399398447961	-0.192499962389378	-0.1769149909409499	-0.2685230531061674	-0.3611829969616055	-0.2888130657181843	-0.2634094099779123	-0.1944191110167642	-0.1777228681290695	-0.2164744284362792	-0.1473908461687385	-0.1462845157844959	-0.1949589902797757	-0.2583072098926306	-0.3508139582140083	-0.2802479630179995	-0.1567637025164698	-0.1589729618156391	-0.1550906398157517	-0.1334184209736441	0.01829965128500182	0.03316576807518862	0.5625266504905168	0.1762795928240759	-0.06313498112956749	-0.1020594438462298	1.404837666982145	0.6155787257697842	0.1567308909145396	-0.04811103236775901	-0.1283319372765921	-0.1558508414055372	-0.1607869245420679	-0.1638990542814652	-0.2186650416846043	-0.1945386138996877	-0.16249395315312	-0.1391729553790678	-0.02796547624926194	0.2174167214164401	0.6134524597009826	1.330532029082621	1.56879331056335	0.4683113806766978	0.1189648334006794	-0.09819015705004662	-0.1640860345726312	-0.1747108135438091	-0.164166588665218	-0.164573561109218	-0.1514881870769043	-0.1459814594038144	-0.1486365556801704	-0.1358643838174156	0.08117987632890103	0.3887934689426952	0.6796606677170973	0.2455278381176719	0.07372038833519091	-0.0224835509852495	-0.03312915886410558	-0.1826292457660175	-0.1625559995895351	-0.1977134186691223	-0.3605112129085981	-0.482268477822187	-0.2935056424324763	-0.2173616467756793	-0.176617387630525	-0.1451415506049616	-0.1451177372166796	-0.1970394878845956	-0.1505381774198538	-0.1678766637942536	-0.2536141447969841	-0.2368352679757924	-0.2322455555304114	-0.2073461056336359	-0.172575625631032	-0.1747637939791129	-0.1778344036263751	-0.217162764017576	-0.1546148885002813	-0.2068204534629774	-0.1422828737546997
-0.03724713396606851	-0.02557928769153033	0.2916734169969732	0.3892873259707019	0.1740260379999433	0.2976267455217694	0.6643717030861392	-0.06839249120304235	-0.0253487778962535	-0.08820517908718568	0.03772786970862766	0.1974835030158563	0.3198013866157582	0.2187029995218229	0.2443047627044178	0.199295604475673	0.01284423386546819	0.1347480962201424	0.144025620460337	-0.0125750413599491	0.05457979983892936	-0.1316133967759744	-0.01256868009571159	0.02302294326207946	-0.107140518328949	-0.0929018537900342	0.05017849803567155	0.1421167212936117	0.2433867046355255	-0.04652483246028814	-0.06570252463595135	0.08789115427223999	-0.02955602060683704	-0.1102682535943934	-0.1318030205560253	-0.1682892841079283	-0.2346705591035588	-0.198034644135137	-0.1566396901967639	-0.08541283444355016	-0.1405948774243655	-0.1754018089429039	-0.1881837406638965	-0.1691753824478026	-0.1846961219572108	-0.1311214145888348	-0.1215127267387737	-0.03140574309094743	-0.1392348919192279	0.05369320056126026	-0.02645789541515741	-0.02562156669022321	-0.00429681674736687	-0.0419938366702717	0.02809036228780694	0.01562296176693609	-0.03017044356152155	-0.08109247607383874	-0.186584972843689	-0.1754050855013935	-0.1737560565576019	-0.07545431795058893	-0.131147027187429	-0.009829369242470354	-0.208604181879025	-0.3089100479741345	-0.2650247080257064	-0.2676168750106419	-0.1825805815175454	-0.1933507803689158	-0.1283559036152841	-0.1423541407913848	0.008984144876590867	-0.1361040657859704	-0.1789108729037857	-0.2654005737054515	-0.243196616400458	-0.2457301283708829	-0.1322590359497005	0.03771087694341343	-0.06415610357142174	-0.03359092180250051	-0.10954834981026	-0.1544087774646628	-0.111220559765772	-0.08424482413633505	-0.08155657306557372	-0.02996217662094587	-0.08617201053075789	-0.08283535493442627	-0.09987092585541921	-0.07848249444009811	-0.01015969011340591	-0.07869960735683185	-0.1251051210658125	-0.2146736366901999	-0.122091427738423	-0.1055237841851704	-0.09269880824484132	-0.1087018285101914	0.1224077072022277	0.07643249140401491	-0.09533612728373977	-0.1038332402908209	-0.09378756724655797	-0.1790749892100847	-0.1958873318115928	-0.07759123133399648	0.2084783337789947	0.04776405552593182	-0.1019697131041107	-0.0272314792312597	0.1693643317463954	0.5550540908330038	0.4829176697222642
-0.1519324941525575	0.03313577045523792	0.01421984393155138	0.01099246845739397	0.04378348802383832	0.008489473342412814	0.0389962804841437	0.2246158388176168	0.4408047102556726	0.2884710327828487	0.2187085938310265	0.0632552651347124	0.00441415776279707	0.03161527971354828	0.03718002064884899	0.04940422991152001	0.03318257959113414	0.01800015814304728	0.03506990331327307	-0.01785555664810124	0.001963635418760022	0.1696776362497944	0.09457478172982345	0.08429343301755615	-0.1299279665813383	-0.01351172959121193	0.004478072941689676	0.02372746321588678	-0.003787789475118269	0.05634364692024077	0.03816875786232562	-6.857859333689183e-05	-0.03350668737462986	-0.153250366244345	-0.4623603880263425	-0.1098364874502016	-0.01692788590911391	0.02530258822215218	0.007238559996041705	0.002787964453110516	0.06909981074691861	0.05201530971274719	-0.06075777545322484	-0.09257545904995981	-0.1312048087567325	-0.09738914306003096	-0.06935076975429451	-0.01944996068631421	0.02455190466866744	0.03031687659452808	0.01436348863118834	-0.05214838144249811	-0.007344205644950109	0.009977358910155779	-0.1784048995899209	0.009953770134086916	0.05776666631934702	0.02027816714295656	0.02900348772935322	-0.01718985061682249	-0.009080983995816264	0.01956795971676208	-0.02283812667202698	0.0116737594492384	-0.01713820301168885	-0.03221159580558599	0.02273098384895346	0.01355903085078753	-0.02143716440419086	0.01188192129867863	0.03530317047568653	0.04235965807081651	0.08982761868370094	0.05595164621981338	0.01703306560671497	-0.004766515029091861	0.0120534562865689	0.02248965029125444	-0.004763139877730594	-0.01442430040935326	0.002110959061854028	-0.006382536331561267	0.05582068104196841	0.02413570731548501	-0.01064097571780633	0.0223391239367709	0.0168278693927074	-0.04969239035190499	-0.01674923406297514	-0.01618310705088219	-0.005406581415250728	-0.006106484416940733	-0.0225309296085488	-0.004359856398624567	-0.008132042590248507	-0.1384251813328256	0.08056004794955138	0.033363626880839	0.03970460099277933	0.05715767620569139	0.007261294579973933	0.05526953858398507	0.03914523490013884	0.04227165950856986	0.1085152692823197	0.1414400782526746	0.9205726376531347	0.1453006248964351	0.09184752333179363	0.1032488709542798	0.05570684205406249	0.007029631328873072	0.04713365031134789	0.04503488302750382	0.02804502161250086
-0.09382525812437011	-0.06995289778304209	-0.05198303529591742	0.04581149536416204	-0.01539612701419706	-0.01324529584022709	0.09798091591612373	0.02361131634906041	0.04092610788176916	0.03656504814616234	0.02491367455738891	0.02756955161289096	0.1655588272002743	0.001805670697496674	0.007768641238586469	-0.04871339527303047	-0.04334368968861203	-0.03650875998052507	-0.06554912375802024	0.001564485341762891	-0.004302449116576848	0.04035878595510699	0.04186282654248968	0.06329926466850809	-0.07981040962323263	0.01026036924057817	0.02478562918950386	0.02913498350134346	-0.05859862409163073	-0.1088994468110802	0.02288712158536348	-0.1334391780013992	0.06995718121780962	0.3308923630252204	-0.03615785590546139	0.2442951462495211	0.242833618899123	0.1218040911243875	0.03894026937170345	0.05776006565782803	-0.01468869653372458	0.04879446364854916	0.5850690005183912	0.4219791583983012	0.4781120807853987	0.1364596980549805	0.05046303678764554	-0.02550160790537769	-0.0517479983812937	-0.116031129246978	-0.1226571122408132	-0.00366198146375839	-0.03431787476462346	-0.04610843617868093	-0.01830620456118638	-0.01948064251809124	0.03936104692378035	-0.005859070603971801	0.02929227394060122	-0.04432132958848848	-0.1859165344107027	-0.1956529680602313	-0.1720139286720068	-0.05641961104252684	-0.1093853249362549	-0.1672008787904187	-0.2423747601300898	-0.1317048088802126	-0.1227795203994322	-0.03889108235947624	-0.01873904553130599	0.1062546161708161	0.1093845645922617	0.0005781051792925007	-0.01377813648051718	-0.07294762828699859	-0.129570988698695	-0.09666401006406219	-0.03408032531551192	-0.1307114107743352	-0.02116711864007438	-0.04019644745947576	0.03558478819464768	0.1372211592900978	0.007549385900211686	0.03252370217600906	0.05584879502673233	-0.0272168007344682	0.0532302024080443	0.003472802897437509	-0.01047172340787847	-0.05803201993346679	-0.04524356820165402	-0.008740448142002666	0.008084592352252373	-0.0009899032723771075	-0.008604920330505096	0.02512130566946572	-0.003619584407479667	-0.05246160306457012	0.04249624601681717	-0.0429022218919724	-0.06183902726409692	-0.01932514586149147	0.02340169115634159	0.004181324012943235	0.1280136583083876	-0.01429464676038529	0.05789810269886651	0.002945603986082873	0.007767547413257833	-0.09412053700083316	-0.08105589720154337	0.1125960024514076	0.0242040935434703
-0.02277166714810764	-0.1463398891055356	-0.0483261490799313	0.01661640137155442	-0.08327254715109272	0.01656308863460856	-0.002312960159845728	-0.0411505797014222	-0.05878565509535989	-0.06369664999520244	-0.02502799583993824	-0.002493778953430359	-0.01176054564160344	-0.08313735307236952	-0.04709114137044239	-0.03071871166897714	-0.03136279254243834	-0.02156689556489304	0.003985948468830775	-0.002426167583306768	-0.006744109773177111	-0.02402513381399915	-0.009359198837683142	-0.00248487264236878	-0.07838674296601808	0.009065941697921366	-0.02469903468891278	-0.01231893951251037	-0.02423150686640817	-0.06157086126757014	-0.02059083712787022	-0.05632831452576586	-0.007160405747189833	-0.06454767937075702	-0.02399754939318994	-0.07597694406021907	-0.03491099554670817	-0.01055363957799076	0.01273642096649262	-0.09447971029737832	0.125376429373228	-0.02407538675419273	-0.04873221343848663	-0.059323240374883	-0.08303102862915468	-0.1145952698268934	-0.07086843396323067	-0.05711983880583394	-0.03307813429404022	0.004656256947083152	-0.3069387086861302	-0.2182976001319252	-0.145610947671467	-0.1362958854938922	-0.1229156036038915	-0.08005685375971061	-0.05755607817744025	-0.1213541863806257	0.05633641907950332	-0.04520406588718852	-0.0309714719670897	-0.07417123708643832	-0.03178752614166228	-0.04083205193837552	-0.06231400861352931	-0.06258932075342245	-0.07988262413614759	-0.04926366896864349	0.02594305926141171	-0.00122656899897415	0.02082198809794738	0.07551588231513795	0.06589084026306545	0.01861347190301105	0.04238965501703628	-0.06831406895008196	-0.04540246519431789	-0.07859266775129418	-0.1046430577943315	-0.1119682103817658	-0.02199191415901133	-0.003483756008555823	-0.0753413888934634	-0.03056325968692986	0.0882430180554737	0.02920058529270856	0.08774581401094782	-0.1705776677561288	0.1825535333025662	0.120800823838468	0.07716678099189318	0.2822122504119162	0.449740481510909	0.2489535627969464	0.2413238983291999	0.08183198248006569	0.3008221059984982	0.1800698319234394	0.06747136692214321	0.1578257755227609	-0.009646863843447316	-0.004384262300998644	0.01628714833024465	0.03688089948556692	0.1334570286248297	0.06408693449871841	-0.1220400083970466	0.1551095586646239	-0.00877425278718728	0.06554779619452931	0.0698665962540017	-0.02954691062286802	-0.003803942401783993	0.02124085824110899	0.07652190899589435
-0.02015966727395461	-0.07094236648208867	-0.03891638158962746	-0.01307327635780661	0.03020128660150772	0.01394346402565601	0.02926156196827183	0.04946404149717293	0.06013976454200328	0.04975275736612356	0.01430065608375233	0.03723760516768731	0.1046897362509405	0.01820648911934092	-0.008297690402562868	-0.005573223713881773	0.005173354070659414	-0.01397220806103708	-0.04765677613583928	0.02616431872184195	0.01668097767491682	0.02899149682432043	-0.05657115812977465	-0.01054197233631915	0.9111141123607053	0.2280810024183029	-0.0007293533493037761	0.05048681791238606	-0.00251772278304075	-0.04903098893666726	0.01028114957040674	-0.04159339302680819	0.1445541857864104	-0.02420530435553198	0.09485625183758134	0.02532369151404936	-0.002049314436208793	-0.02192194131182282	0.06203246709115678	0.003023563798319615	0.07258004063921425	-0.0934828174342044	-0.03055203204972779	-0.05744656064357399	-0.06443205662336589	-0.05341763798874719	-0.06405039361656931	-0.07208444737844957	0.0347837941059886	-0.01407820791100342	-0.05373232493690908	-0.0329090353634842	-0.002994470707272574	-0.001611001562337788	0.01023026411354551	0.0679341086966772	0.05413383785733418	0.02034991617048051	0.0697080697087671	-0.0288130034069273	-0.02699083260812237	-0.04426625975173972	-0.02947208177820186	-0.03063005423563932	-0.002314960814331528	-0.03188969891619978	-0.003508774566845678	-0.01541888046143461	-0.05021249418910084	0.006779985867224641	-0.00668881539600451	0.06860043084014524	0.05944381134390184	0.02425477149026236	0.01500163113776064	-0.008326882247064595	0.004335235854673138	-0.0618891650989609	-0.03637477722274232	-0.0446510368889361	-0.001550566120301602	0.03643300006142298	0.02692801511048698	0.08599444646970214	-0.001088191916999547	0.02718041540143995	0.03024363588663478	-0.04261180780400978	0.01822012508731343	-0.009785140630168424	-0.01503141051182128	-0.04528866352759313	-0.01505927339494946	-0.01804064654477258	-0.02313979480055178	-0.01298398198925515	-0.005125492186514445	-0.004357418779796331	-0.02455114694651598	0.03242643981679943	-0.01751284491326626	0.009370722518752756	-0.02241115217637203	-0.02452837850901382	0.007764158793470837	0.01855723690617925	0.0438247324340857	0.02147471963309202	0.04210476596268102	0.07624089391508242	0.02343558891513874	0.05767280282861549	-0.0476293175079443	0.05334024577949385	0.02826597958695713
-0.05542373193486675	-0.04115060163338252	-0.07566824205122034	-0.07333802397890737	-0.03811129719022434	-0.01619091996595114	-0.1057184172463162	-0.02412245332236071	0.03445135962292101	-0.02899422266890451	0.001377654601681923	0.07559110791310884	0.1046501726649474	0.05108100509206796	0.009666876034428364	-0.06950825647216413	-0.04362521626754125	0.01189724418274962	0.2330945052072783	0.8162051549521613	0.317377247563041	-0.06350236290451865	-0.002701476438968055	0.02613140369000942	-0.01889495875938253	-0.03803332331275052	0.02705595473391249	0.08459883457128851	0.2005183365946145	0.07458924415440742	0.01593545279769501	-0.05646689985318731	-0.02440711675368585	-0.03944246436433328	-0.01466235823246891	-0.02098687136250527	-0.007777582558763255	-0.01174881011391902	-0.03083751497096652	0.01232696910751413	-0.03983932674885758	-0.006733927024353258	-0.01733074032990885	-0.008710976989489016	-0.00971741957478572	-0.005526436401352952	-0.01352872782967778	-0.03523768098255537	-0.02169272378664755	-0.01159807858081	0.007132325084336581	0.001740730725059245	-0.0004021935725185837	-0.00721247024533353	-0.01345366331100485	-0.01739394948156337	-0.00100303678572175	0.007269283868114187	0.005372673021689858	-0.02007462064305187	-0.0196533312501838	-0.009896422185090587	-0.05214098958758837	-0.05127042193499307	-0.05727667250223908	-0.01801404292272936	-0.03244353800673894	0.002360262542627976	-0.01547379987092334	0.01174147072273983	0.01178748240488109	-0.000737686372198507	-0.004746148886576929	0.002403521123676882	-0.005805796809114475	-0.009466703190211069	-0.01345572541074342	-0.01338530844475145	-0.0190461901962791	-0.06069993419223495	-0.02442746080741539	-0.03286633257586767	-0.01811437346373768	0.003169266422058256	0.0119232652484872	-0.006502257729550883	0.004158733245780065	-0.0009557624286456556	-0.008497807258547393	-0.01348385292464695	-0.02259175266144085	-0.0034348919942449	-0.005177597857197002	-0.008963053181667542	0.001063532202143185	-0.03197353691328007	0.003057421807162451	-0.01019578108549369	0.01494141759196485	-0.03343706483387033	-0.03162944157062762	-0.01617688088503023	-0.02882678055197276	-0.03838088302278687	-0.001822010124116174	-0.00226149619726756	2.294072815390449e-05	-0.01665938397461582	-0.0513528584913917	-0.04874675930828123	0.0200220610873782	-0.003352263526292782	-0.02859215379722201	-0.1024992762269327	-0.1124075254712648
-0.112852981813692	-0.1163419176078932	-0.05433275861054519	0.03077104784711379	0.04802654910596529	0.02721071222992287	0.03589816848471397	-0.02200133992761898	-0.008637231424412426	-0.02611805778915655	-0.02738455498708037	-0.02791791195249749	-0.04526374859912457	0.004119476346243618	-0.03739701619988897	-0.09590081196226583	-0.04411572695328187	-0.04525641119731891	-0.05181461304677216	-0.03217769348851145	-0.0245195199033742	-0.03582371452930232	-0.03075598772271799	-0.03613961160544667	-0.06744415459926489	-0.05883808075773003	-0.01770236246235208	-0.04387132743224729	0.01990770478237874	0.01818048805959985	0.02307269699562875	0.01171705648514705	-0.04779889617350399	-0.0635829828434268	-0.06040521536460358	-0.05163517133873631	-0.04841619517825566	-0.03101159717763561	0.01541009986314426	-0.03662822345817992	-0.03210546421750926	-0.0164602308055624	-0.05266527808221541	-0.0512146677501385	-0.06472041034204795	-0.03655099274089541	-0.0559034589543213	0.006884100776054819	-0.04241755112072686	-0.01954850787012583	0.07855156280558136	0.03325713439142809	0.02725158245486365	0.03396571549759171	0.07819793491040686	-0.0008185538944228064	-0.05534847250676173	0.01098020375012881	0.01282605956168468	-0.005203077338505015	-0.06639533025052011	-0.09232472988698429	-0.08153468643494885	-0.09668812227688824	-0.1145340357478704	-0.1410584942385686	-0.03192988909311963	-0.02061507432768857	0.0152117595622257	-0.0004946928389539114	-0.0844689330840782	-0.1530838776155185	-0.168846411708652	0.02435497875375049	0.02217282546209009	0.2022291104137765	0.1509488758260268	-0.01829674273102536	-0.07935797004123551	-0.08709780511114795	-0.04606091515803866	0.09445118739255659	0.4142071132884906	0.5746527461916531	0.08552501056764786	0.1437289383921891	0.08688606021699344	-0.03377390017186422	0.1124083061051931	0.1866803204610889	0.1684621041984365	-0.002201575715094785	-0.01171523720826367	0.007302132445094666	-0.05147377122032556	-0.1333731805613854	-0.04762630820779049	-0.0293918033442879	-0.00650236998629501	-0.007955572603268171	-0.03541514261672691	0.02439042061536399	-0.05968192275908869	-0.02763103682342456	-0.02680798016283329	-0.04744741296678855	-0.04518946971390234	-0.04614641738802584	-0.03368455828040533	0.01626964427300687	-0.03373402656962352	0.04789255784050737	0.03269241778805199	-0.02559044472873541	-0.01292926851921341
-0.02722469021536013	-0.01806525742850318	-0.03092521694216262	-0.02355572748450056	-0.003858791320153539	-0.02434588813342798	-0.04730120240845537	-0.03142252707406275	-0.1497976268269734	-0.09263493796234142	0.05308090743041067	0.009222670289556671	-0.01931080895485431	-0.02210545713716036	-0.006003031777374698	-0.008127473388491041	-0.01051120745752559	-0.009957317630277662	-0.03948299225144651	-0.04654662647240909	0.04528435298778095	0.2514072677709256	0.6230458632750594	0.3687606032854055	-0.07425214246901633	0.4167417103591323	0.0794250302967336	0.1227573491376262	-0.00363822151038744	-0.02233069045071586	0.007403863839005283	-0.01378997300855069	0.09822494374685146	-0.04670544398857351	-0.1231534459041113	-0.01655781886235606	-0.01318588865675207	-0.002713554042048279	0.005122689747721365	-0.0290614325164355	0.01476453114154576	0.009539657671527833	-0.04152355879970466	-0.04287988211727035	-0.06704304496334645	-0.04073141163955379	-0.025410385598972	-0.02885141298649401	0.01155674834670639	-0.008626011591403505	-0.005886749500667	-0.0234979774989001	-0.001764946510407613	-0.006021936270280572	-0.01212282477783767	-0.009115349630620849	0.0009105653918913845	0.002994816029424135	-0.0139311480054572	0.009936002377556251	-0.009907827591926315	-0.02593812629752888	-0.01298954625681695	0.006362591732115187	-0.0124273165092911	-0.05050753958535729	-0.03482109313964087	-0.01995064383998153	-0.002940338098002615	-0.004922885468663118	-0.004606398158103509	-0.02954907072894512	0.01055666252868186	-0.00982276684709167	-0.02135042613889069	0.009786191992944384	-0.04603730516785391	-0.01334155696395486	-0.0005212922371115577	-0.01759266509780945	-0.01119536130867235	-0.001666334925323749	-0.007236819571115165	0.02357284899536275	-0.001110080698701805	0.002396869249019986	0.001339588798794021	-0.02320874087783746	-0.01276298874207469	-0.00994650588291021	-0.01634445561228558	-0.01068122742505171	-0.02002391461507985	-0.02668377555545112	-0.0437335256419451	-0.04206384145893614	-0.04624322764971611	-0.03292976492764811	-0.002259360070430799	-0.04597192671890832	-0.007935392483875483	0.0151603283390873	0.01960682701883269	-0.02011914952364168	-0.03146046303218681	-0.01869527707610564	-0.1205351207784031	-0.03919966668016643	-0.03726490890306618	-0.0468054748132963	0.00279992463009102	-0.007699530476632323	-0.04098709583634182	-0.05629843560658868	-0.08109325274501498
-0.07146662885504343	-0.1075235034486748	-0.04514569077382829	-0.06152122034867718	-0.05667700126310652	0.00770394446643331	0.01185011612725969	-0.03179025918678544	-0.009229811035672693	-0.03808482781787978	-0.01706770738948924	0.003978116392946772	0.03097223820381335	-0.02318680209584521	-0.02335104016895264	-0.01936572019954026	0.1282790511239014	0.05086685396408279	0.009589747226327263	-0.01608187097024084	-0.06951306623426055	-0.04199351782228743	-0.04097910458434314	-0.02551853550549238	-0.02797063205997623	-0.02637632803382829	-0.009862272645459625	-0.1033666524456856	0.01279305018764192	0.2084967296154796	0.1830197324151543	-0.01525468120242057	-0.05629993074386649	-0.02877974199880164	-0.06626896076109359	-0.02539092519930154	0.06924460305110562	0.06701033710998031	0.3755307493894012	0.1918486167421496	0.5548230403478588	0.1496486335347922	-0.01382615614370057	-0.03309285795127379	-0.0687003419520256	-0.03486617308966732	-0.03468290481889583	0.04076024369244147	0.2047104506645782	0.06509201802285657	0.05085228298762122	0.01913963151993046	0.02890366455920662	0.02158490565497712	0.05925846662100462	0.03774720831933568	0.0006598292661273084	0.001322210416106167	-0.04478162845699846	-0.04818266450995232	-0.02647165234470517	-0.07235939284432656	-0.005386134186946371	0.1146314455717488	-0.09297963560232032	-0.09445886445938821	-0.02486842981923329	-0.05229441732991475	-0.02673225045714969	-0.03562840748317794	-0.04799413216971072	-0.04769664507255261	-0.002379999274102049	-0.06615556162867736	-0.05272671409426934	-0.09265353010180705	-0.07094333915984243	-0.04134163415016719	-0.05750765802373419	-0.05615456126323293	-0.04850527808820474	-0.02202689779863599	-0.0231664499751514	-0.04919823256522439	-0.03756053177077372	-0.02618827037162865	-0.02208774915273283	-0.03083754494732838	-0.03609460108239165	-0.02582739408241537	-0.03263464466186375	-0.0176687846535614	-0.02211990636350612	-0.02212736521908448	-0.03400024742698425	-0.05225041929087364	-0.03441767898434814	-0.03849262373010807	-0.02825971595834402	-0.02848535734537525	-0.06624278154526343	-0.07252464074725526	-0.03253759394036086	-0.02401252102981597	-0.02366503395671309	-0.03860843957854086	-0.06184998508066506	-0.03696140797592463	-0.02949145907988879	-0.03960740893433945	-0.02972469899876966	-0.09079705416311788	0.01330145543954999	-0.02742005902122333	-0.04920572580068766
0.008101886358356429	0.008656028419514159	0.009083454841823163	0.01185947631660283	0.01417613686278288	0.01825605830850817	0.007275693432401448	0.0110873041831528	-0.002918136660642182	0.01018606581228018	0.01029732219719281	0.01201911647186929	0.002655770327275735	0.007029724547658239	0.006155868406933582	0.005017887037386304	0.009442769313106178	0.00694613920930218	0.005417658307806049	0.005322729679085696	0.01078617500522638	0.01201225162613375	0.008515076952551439	0.003774215056670569	1.448210185901764e-05	0.00447357593621086	0.01173045503910758	0.006558789555362563	0.01556865585614148	0.005417195968497305	0.009797604136163563	0.005219444344672221	0.007909370550087124	0.01721135657084243	0.006379026263757448	0.007616069986638187	0.01419760001067813	0.01856489787822205	0.01410863285614932	0.01073988721469744	0.005791532166620804	0.01393051371609088	0.0146790776071912	0.02069236445970346	0.0181467090220237	0.01301863906165379	0.01210364403635395	0.01000452450499456	0.002219621617620585	0.01099842354613165	0.009372197138341695	0.009040497340074	0.004151248394918282	0.003452037445592129	0.007931328383206475	0.008723001277379601	0.005066089045010653	0.004575655871371933	0.003753041805864419	0.01228258240062027	0.01137758923786628	0.006102007382683217	0.007366524745676627	0.0066757266701933	0.01049239436376367	0.01023686722524085	0.0103603230064707	0.013128813190845	0.0195699020717097	0.01274278706783983	0.01196786118423969	0.004243717848210667	0.005973526266109171	0.009432275280980158	0.009317455537299282	0.00989181528568372	0.007165111897770441	0.004341007698149451	0.01216802417242406	0.01400158399013153	0.008164463904343991	0.006212071880618339	0.008725445342840267	0.01226631873871046	0.01001937710622879	0.005995104633937872	0.009953881468562071	0.01125242493535935	0.007663043949614107	0.0107542912648735	0.006431184496475909	0.005741197487242467	0.007372555396436898	0.00228728676829569	0.01071136388887629	0.002442895189180137	-0.1386523021610286	-0.01909974856982852	-0.034607862288397	-0.009390572894618305	0.01363166796901449	0.01669586704252399	-0.01587850882932189	-0.1250143268588995	-0.1518621028016348	-0.3741958577816698	-0.0133764762644089	0.7986317075570996	-0.1210441715209372	-0.06006255326687915	-0.01547948379182054	0.02047920432988184	0.02880005014704332	0.03313472457906927	-0.0268360034619252
-0.009201257339433522	-0.01330434554079341	0.01770335156208792	-0.005660792521290688	0.007398402738200068	0.0376465547409726	0.02629315223571995	0.0525606722853707	0.05197879229551373	0.03493743730092348	0.06585311846225662	0.0590552622115123	0.01043991533022418	0.04885355853854764	0.001228081437631787	-0.001944819847231571	0.008799530952432362	0.0009161178775848087	-0.02244443970442285	0.004399177562449588	0.02277147035897099	0.07423642042601078	0.0283802843358444	0.04106959864313953	-0.197293195884362	0.04876087663857185	0.006041233110531019	0.03934158186415062	0.001224251532037032	0.0448282749726855	0.007851018724057373	-0.03211929059575452	0.06638278891585443	0.0121091939408965	0.7603278629345338	0.02497549193158777	0.0168298836942463	0.02849634170133875	0.0125241448836188	0.06395621673540917	0.03735674575125766	0.02714458282608734	-0.09153863376704845	-0.08223769958892517	-0.07670677921671133	-0.0381218344086325	-0.08693107371039563	-0.01307974788175035	0.06713262114166602	0.01362679179563415	0.007932261776827369	-0.002598045298511094	0.01690394022729211	0.01679716832164845	-0.02519514725198556	0.00304323010406139	0.04449577174101991	0.0515335448400189	0.03230471683071976	0.01354608618346824	-0.02921585257284938	-0.0375936167087078	-0.0114695109681096	0.01554451939452567	0.01131737200808322	-0.05821196083167589	-0.0606128719779972	-0.05368746706947185	-0.04920644931895498	0.01042512200846084	0.05397539803395823	0.05377834476045181	0.06667144168468742	0.01974857291361072	0.01516781804205241	-0.005474714148604904	-0.02923231110892521	-0.05336745448811414	0.01259012047032068	0.006398712770760817	0.01803655562880134	0.01597293784911575	0.03487334584709669	0.05831851667386147	-3.792972937227064e-05	0.01912156608317441	0.05366098895921266	-0.03003227831565747	0.0226888475219836	0.005485898952772022	0.004178772911110117	-0.01578253285442791	-0.01383422420344659	-0.0144649905165484	0.007509203056098241	-0.03970762452969715	-0.01870843766400499	-0.01304105533084837	0.005130663059033335	0.03454955007019753	0.05128656076167776	0.03650838102328663	0.04885777589057687	0.01345804644827658	0.02006256482271097	0.04915014222337358	0.1516616469289973	0.01764791150456628	0.03572956591830658	-0.01026088341350537	0.03038594543314776	0.0288008896912126	0.03102782013893823	0.0323099560669981	-0.004715725663913129
0.001519058867873296	0.008051284473184166	0.006456290580401211	0.006377048778892936	0.006561718106033386	0.005218172554941045	-0.001364061821487453	-0.001090525207762308	-0.003227900879301421	-0.001973360128263495	0.001304312124024535	0.006598371405731426	0.00341332671701139	0.004225205958428659	0.004867899669313338	0.005710442882477144	0.004250180112920931	0.004860121873327501	0.0008656194848424236	0.0006994912945549842	0.004263804775653835	0.003119494203264089	-0.0009099893876768593	-0.005198414289177589	-0.009191099008586105	-0.0009447011777234434	0.002735449832268116	-0.001583598792555559	0.005254429228170899	0.002455330681946484	0.005591249724598879	0.004466498434811231	-0.005973064149842745	-0.003134796555716907	-0.01384060498948354	-0.001772700768947033	0.005108255930009054	0.01156869426067752	0.0095087792065979	0.0062348338770106	0.005742288189226227	0.008109067807704966	0.004731864392255888	0.003987464346239867	0.002552574646095443	0.0007804259584569647	0.003466016867320511	0.003383634962465261	0.005730964386249838	0.007625496125905115	0.003724985983262041	0.0002510719968129152	0.002261187794790793	0.004190525232563958	-0.002588207398864942	0.008392126886848076	0.00426895364437814	0.002241309782048282	0.003795230363394604	0.005340092556491356	0.007772281259384279	0.002843548029431943	0.001980194280341468	0.005135772075453161	0.00178648738679181	0.002979623994342365	0.004631782774842347	0.007547797074993805	0.007993177028419923	0.003259830827803368	0.005374234433753245	0.00142546370073459	0.0003527106980301597	0.004558875103861331	0.006222030160035748	0.004187564120260108	0.002415948554374367	0.002118538630466746	0.005255860958654347	0.005091582503107071	0.002526941809800567	0.005096793357247939	0.008876556141489066	0.007580449348693884	0.00768811527784516	0.003025371478611854	0.001961495317055193	0.0009541414341306182	0.005802641521634972	0.009291492939660752	0.01048949078417477	0.008506822708766829	0.01989492137190457	0.0304042773058754	0.03366100097032976	-0.01520257536255087	-0.04255211840270428	0.1615166626022376	-0.0312892883785407	-0.01458252973731794	0.00148748151056632	0.0003859544417616582	-0.04711812063646516	-0.2510542389167688	-0.5137222067822066	0.520693552845532	-0.03923325305650815	0.09342646088624362	0.09874834406767628	-0.04322386240994271	-0.04804720369669795	0.001339336402265778	0.00799043397472783	0.01596555566171591	0.01597685728294681
-0.01283323036801261	-0.003840218498159253	-0.01168896003655616	-0.001205812464351286	-0.008206003776988061	-0.01965206847815847	-0.03015176720861187	-0.0405935173126037	-0.07704415823963916	-0.2238173996277291	0.07911115691518206	0.05567700577055117	0.009013803113513477	-0.005927785928040261	-0.009531003660417189	0.002996210432804863	-0.004911895298837267	-0.008523582578119289	-0.02644804759256697	-0.04537130996999678	0.1331120122315517	0.6541249939983376	-0.3108446969450918	0.01157327266996041	0.01096386662441229	-0.1434285549845951	0.06975175826195905	0.07583716951396693	0.002536554914483177	-0.005575895032219837	0.001259628843344515	0.004909693522154859	-0.009065077856142724	-0.01720560041180989	-0.03197688910133813	-0.01462620267129631	-0.002412280976680219	-0.003589258780684879	0.0003417600869650965	-0.00426199286811384	-0.0009337747947141348	-0.006121430583262932	-0.002626084028630853	-0.008548958536905864	-0.009861420933943989	-0.01011320906946653	-0.005579059751193631	-0.01210145281314323	-0.005838523014869579	-0.0101972168130083	-0.009802719034762493	-0.006241962588281886	-0.005943741508281432	-0.008020615023571662	-0.01158429176771617	-0.007182827998545267	-0.01305195476429525	-0.0100556376249731	-0.01008544511787647	-0.007735041018206148	-0.007741663432420952	-0.01169358838079368	-0.0107528432584404	-9.000765783941113e-05	-0.007354877232181065	-0.01433064134075831	-0.005053078441046837	-0.007198744425086999	-0.003518210872859848	-0.0009875165358586839	-0.006570341540572035	-0.01227073640220817	-0.008834666420261747	-0.01197474249699578	-0.01121924361466258	-0.007496133637652715	-0.008921685634093311	-0.003930184153995936	-0.003519388896156881	-0.007694980943562212	-0.01243981385478706	-0.005214383020839245	-0.002618761208278913	-0.01106277042694932	-0.005300421840826139	-0.005679585475464522	-0.009082149441511918	-0.006091701925893328	-0.001838718706660852	-0.004571018713489679	-0.004914145599004897	-0.004977794281349365	-0.009799834992607316	-0.007523181594783453	-0.006883147210387248	-0.01221064643707576	-0.01296480793650196	-0.008327293951031057	-0.01166740373534934	-0.004800628077231988	-0.007783732744745759	-0.001551278061420996	-0.01019089718598545	0.0005144872234517942	-0.01129812359813735	-0.009771255726410858	-0.01137409704171623	-0.01362275828628607	-0.01946912628117894	-0.01039464376236275	-0.008729086469440961	-0.01254610122165268	-0.01031444683191689	-0.01795480504025789	-0.02025477467393582
0.004366908160810961	0.02003386392908277	0.02392378838918363	0.02662930986305698	0.01588159901002044	0.01787771673455004	0.07240735394599324	0.07049452128204914	0.006237242579206791	0.01670536659754635	0.0265213885452516	0.02138742303289963	0.02121329102043309	0.01705127939342761	0.01701478879992374	0.01229768599381197	0.01197175859388562	0.01585314393694099	0.01846569550109772	0.01881351727461293	0.01550151157484767	0.02140362411037094	0.01297944702932147	0.01232230944709533	0.0113013036564562	0.01271749873902183	0.03349358468963444	0.0237500307007739	0.009120391124774488	0.03062369952890904	0.02218767442197138	0.02159060136769883	0.002017638546153066	0.02398993589434553	0.002932188859710651	0.0103834880449735	0.02821021036629196	0.02301545685091895	0.01614758071830951	0.01971010514134653	0.01351681600083095	0.01390854402016486	0.01332833194216815	0.002061874573939522	0.004979518898157048	0.01373918383278095	0.01552731925766663	0.01581436586818243	0.01983168820600498	0.02012051168127536	0.01593517639431345	0.01461810305224203	0.0159224867893199	0.02009543801413986	-0.005695214596529269	0.01628793914285906	0.01296788359552477	0.02348679383466108	0.02458732613739683	0.01461460523888405	0.008282195012599991	0.01283141630619982	0.008916396805367136	0.01327225584067569	0.01200250200437748	0.01444877066761051	0.015527370079846	0.01678309176221844	0.007557247603778922	0.0212474345878354	0.007250352314840159	0.01483333788944826	0.007605800367918659	0.01437311095169965	0.01198739387406286	0.01691311234117946	0.003565713099245515	0.009497828881025717	0.007302948033262234	0.00835422334017423	0.01282037940339796	0.01314381680592382	0.02066107468468905	0.01972805347896448	0.01099023593782518	0.01289989702716647	0.02286922123852143	0.009329462796391016	0.01830457450435936	0.01556137787659681	0.01188632779255246	0.01950698829647899	0.01123419687383959	0.006623751109150096	0.02389615606271191	0.006900886673315399	0.01475637611275885	-0.009691010889194804	0.004663850160337573	0.002935317503092482	0.0151463034824124	0.005896305717657886	0.006145673299560962	-0.01282345615680966	-0.002802628232930557	-0.007202372665687577	0.006454624130838693	0.01790698967004565	-0.167336737835721	-0.1951567281412314	-0.0382455795123447	-0.03594285071534869	-0.1791529909639297	-0.3611318279784039	0.5814090925971194
-0.06420649463480312	-0.08632161813181026	-0.02053898224108399	0.02854806179664006	0.2217772912972817	0.08264081575048594	-0.08336381591564777	-0.003829055851456234	-0.01842785685329534	-0.009316314681158617	-0.02455256747549383	-0.04690444074385264	-0.04845136725225881	-0.04293048485897201	-0.04297970508688809	-0.09296578668045434	-0.07706972181725603	-0.0394781399694461	-0.05660341655330478	-0.01437450748957003	-0.01704931468381771	-0.006456721333333468	-0.02216515766193819	-0.01992201722299236	-0.007902199651508818	-0.003487105725598864	-0.02599007258708725	-0.04256157895655756	-0.03511323756095686	0.02065408280962757	0.02524189062996065	-0.01992324927470015	-0.02743645480241226	-0.01382278054286623	-0.02700912921781105	-0.007334236522918237	0.00653896051062377	0.04601352376601611	0.04135256990705258	0.01188044159153567	-0.008370527596169618	0.0268428646707522	-0.0008235487067404809	0.006864556852135245	0.01503072850394213	0.01238084444683008	0.006867888445680289	-0.0119541612509339	-0.03993501874002448	-0.01125641071903283	0.03442485587724102	0.02606547824425649	0.02612797318778166	0.01222047399681964	0.00612705542095286	0.005864173231208877	0.01448202482092377	-0.0123132574706217	-0.02528201234356379	-0.03777183885109885	0.005754926390445142	-0.03214763977656336	-0.04582896473103032	-0.05160027451191172	-0.05525741288914589	-0.04250916218559928	-0.036810451292706	-0.04809442595748806	-0.05535508079323713	-0.02722645663368061	-0.02239386228540894	0.007748554645864303	-0.0174310379794679	-0.03538298265478308	-0.04551835907415129	-0.07120934804219396	-0.0675913907682409	-0.04048749395486847	-0.05307769092063026	-0.07753704442936458	-0.02529900390091236	-0.06808185513222942	-0.04239075259085169	-0.07646185911242913	-0.02205969990574216	-0.03342849272991947	-0.01491736543092074	0.04815684319084715	-0.02224960696311221	-0.02368734747592843	-0.02527595226838162	-0.004549953748775279	-0.03660516827134686	-0.01303910761832463	-0.01649863894677979	-0.005248201557229118	0.007696907395772517	0.04425492553694111	-0.01165120499851	-0.03262110785587664	0.1120376208736732	0.313004638447703	0.06628680963800501	-0.004776421370641519	-0.0003240187475771742	0.03363148116744293	-0.02383844529441173	0.01124969188915883	-0.06495897541934975	0.02753837683868152	0.2253971184995812	0.4165958427443675	0.1463101936335612	-0.1633608092185426	0.0133970788151119
0.05282906071348006	0.06858584701509582	0.06713762132915405	0.07738258604877152	0.02357244050058614	-0.003429557276378386	-0.1216646645556164	-0.0631140961841767	0.04779274668896072	-0.02090293724029711	0.07961685774464781	0.2369133700763872	0.4415345616068161	0.1656600298478572	0.06706112736655928	0.06402194530899109	0.01561530370070765	0.02848386300234153	-0.09701431420510272	-0.03316703720007151	0.009390509957286243	-0.0387368068076215	-0.01467986169877729	-0.01771987049409068	-0.03557657007515494	0.02084220134931862	-0.1196979908323052	-0.1554703244727673	-0.1779108252448539	-0.1619454681545207	-0.07628232862326324	-0.0831687812416021	-0.04033568283635456	-0.0324761240669659	-0.03047563550515239	-0.03720696853555042	-0.02704825014313006	-0.02480477704854826	0.0162000007683429	-0.01306948489653746	0.02080967343831685	0.001361811878706978	-0.01410562108134385	-0.02406271744494941	-0.01426822815434555	-0.01324880913371348	-0.02344143369313896	-0.002118318680208497	0.008179392628030305	0.03161770277689004	0.01533397148984555	0.00957446259104278	0.004423072438088809	0.003957997507278199	-0.007857528815381973	0.02004841688499105	-0.007981239915743904	0.002193820738254135	-0.01462690040067077	-0.01044924240615126	-0.006643900178686292	-0.003911361792742809	0.01383906691388331	0.03855487249977445	0.02522559419267656	-0.02766482448237205	-0.001407181490954588	-0.01760633244592496	-0.01736676550588456	-0.009826735538895546	-0.00141985167247066	-0.016085790115076	-0.01634528080470116	-0.0245082620782628	-0.006949792031722042	-0.01328384639176481	-0.02899337085430117	-0.02057832156019693	0.04886247517950459	0.04163407491124531	0.04577775008130348	0.03146197554526769	0.03985387244190336	0.02018385477769927	0.007722320196506463	0.01353460911213649	0.00225957846539797	0.01317319757244407	0.0110868782663617	0.02122121460898428	0.01039185795039749	0.02341125308993485	0.02728166888414128	0.01791692729240818	0.01764228180238401	-0.001696287300281952	-0.003317318664773198	0.006962524103578765	0.01234839177320596	0.02046508838815837	0.05940394535212282	0.03461716078050209	0.01953094179857151	0.01643156797121224	-0.0158476811403497	0.004732256317922577	-0.02223644619718506	-0.008079857066618587	-0.09644712361037965	-0.02762888147129901	-0.0004111865285715627	-0.002629448642992282	-0.1010739574584897	-0.1861900896125401	-0.1738901424966278
0.02152840970512692	-0.0190420949357145	-0.02450859893167004	0.008475675348195847	-0.02024962191870747	-0.03247867592327692	-0.02466314305057193	0.2298423632298794	0.2530858933424209	0.4583278079638483	0.1370623205955977	0.04066925283959567	-0.0386957894782693	-0.01665159836926429	-0.02423955128503002	0.002707403261191838	-0.01523521761962107	-0.01470850202899855	-0.01810781348475669	-0.01310964092478728	0.03969256995598187	0.1476106415017822	0.04932458457498277	-0.07454662635437297	-0.02804857818451148	-0.0975420371177259	0.0126097596281589	0.05242504654724554	-0.03035862784251609	-0.0004024683803345461	-0.003189121283345344	-0.03083428046225203	-0.009864491460460624	-0.01083714797546566	-0.008088328662636262	-0.01190277409643496	-0.004205231657196767	-0.014141823247965	0.02173197653699223	-0.01784011035431838	-0.009088699967570011	-0.005812599196359839	0.004815728834684978	-0.005068087642180868	-0.007890453263874492	-0.01289802315826248	-0.009769424578984512	-0.05602997585260104	0.011581879234112	-0.01264850138402946	-0.01029038859913799	-0.01875302278267466	-0.009733173669876279	-0.01755307733720986	-0.01641040275331201	0.001634428430001592	0.01498460626781279	-0.005361984713141875	0.004628642610243055	0.00705432268428855	-0.04382330040220169	-0.004302324667770729	-0.00284697209006487	-0.0093434234414481	-0.03303323768728031	-0.01701626073263619	-0.01650775768911991	-0.02658818286074162	-0.002358465478362826	-0.001435446309438249	0.004284878564713159	-0.0223208719832116	4.994458010730235e-06	-0.007602466537139822	-0.006191597325043143	-0.02550465611659518	0.04969368648602018	0.001554608845643875	-0.007492246967357225	-0.03268597104349124	-0.009875208083119428	0.01077837130673248	-0.0337745288515312	-0.00475930031168113	-0.008576208608827903	-0.005184890575800578	-0.008974057678635525	-0.007312031541522482	-0.01806615961765885	-0.01699908165677977	-0.01399238035778769	-0.006008355762273153	0.006693676100866977	-0.003970038148077481	-0.006905016186844276	-0.03928855423522485	-0.02652437359968742	-0.004204933243145611	-0.02782104138502436	0.01456073190979388	-0.0003445043516390765	-0.02439565058596444	0.02541317673210629	0.02405264638982091	-0.02454904984712152	-0.02212300849880688	-0.3809466272286965	-0.03181650130095016	-0.03025903111940057	-0.01051726392473374	0.01021258085302214	0.008659614279068374	-0.01338219213605731	0.004019870265378329	-0.03780285910526028
0.008410006954767513	-0.0009595955639320634	0.007341846451367823	-0.0003580059822427036	0.003097249136995458	-0.005253055629903794	-0.004541597774018189	0.005278673249247271	0.2040245451157868	0.01109665835971388	-0.04132554907685972	-0.02598965982529734	-0.01189906240285672	0.0002301540160456518	-0.0009938361604936469	0.009273213028780886	-0.0008371366676684119	0.0005808791248014684	-0.005874134272731286	-0.008566011084511634	-0.03921978024182829	-0.1245925567424876	-0.3236676474132218	0.5658069134707466	-0.03866719163663535	0.09412539923755672	-0.005077552583373465	0.01525365490388957	0.0001917199341659219	-0.005251790720784151	0.00259580155077582	0.0227051901082694	0.02279588526659405	-0.00646912800320645	-0.01736549220872079	0.004431738687461858	-0.003532901963060614	0.005921918223404645	0.002803930564384563	-0.0009401423889391951	-0.004339681093088874	-0.0005605325182809011	0.001164630401622602	0.0021491385593943	-0.003230522169309093	-0.001530603023673296	0.008706347742523518	0.002086746788125505	0.007232119469746717	-0.008885609305650799	0.005952656402006967	0.005334376853518137	0.01425834981094632	0.007834958361270421	0.01880948523831586	-2.28265586590132e-05	0.008019483463866004	0.003667170190048073	-0.005264643859621371	0.009208477585610384	0.01228771970649571	0.008692428155031811	0.004788596579574911	0.008415579381582548	0.004435394843491768	-0.0002489202509746188	-0.00161579498215393	0.001780310622103041	0.009637760643184118	0.002754525957482567	0.005316448355761613	0.005474804571631685	0.006407296205755362	0.0009880911904691502	0.007631050607997503	0.01032149946435245	0.007465235934487095	0.0116047456436295	-0.0002401318688031598	-0.003023539870509686	0.003676160164918331	0.01061520788430224	-0.002048297926309582	0.002443414043430341	0.01051744849847237	0.002846942133652347	0.01031343137078811	-0.001405769716084115	0.0005578892718661036	0.004558925554507502	0.001064597872692822	0.003402544162051857	0.002724550728057631	0.005323479923945335	-0.003633425035532092	-0.002707651098591342	-0.001618314207424768	0.003590029505481099	-0.0002831598722317142	0.002382563870231771	0.002148102946214735	0.00445081965632171	0.008098014370082769	0.0005170965040429527	0.0003190931017271579	0.001254719627185657	-0.09220375602342167	-5.872964118166489e-05	-0.004040705761353379	0.00692981955263477	0.005713607447874709	0.002855950077116733	0.007438481059511826	-0.007891269084860826	-0.004454168864642633
-0.006173484350290811	-0.007107100007588711	-0.009479748775634744	-0.01216053204360972	-0.008958799673336008	-0.007778682487875328	-0.00588175825115102	-0.001914678811140439	0.06800614804024342	0.01294745997101344	-0.02837891697175305	-0.007983071624476121	0.005093702955920555	0.001782453080405819	-0.003698921046271493	-0.006252633032950862	-0.01196848293215492	-0.007773247032431874	-0.01392261039533235	-0.005619532903073826	0.005585530636577815	0.01623890301753085	-0.2495893806063146	-0.2785186691672888	-0.1587131167042535	0.4877549547748644	0.1295129429793043	0.0696038482719422	0.01226440334848181	-0.008160251514933622	0.003278741790102862	0.04481526015791198	0.1115916507387652	-4.700196124871078e-05	-0.0557962503257091	0.004879167406273184	-0.001318194056587078	0.007520293474115286	-0.01248968733317134	-0.004696697146654193	-0.01442085841371537	-0.005095902937692612	-0.00307418097565775	-0.006973567263705534	-0.02144072430293053	-0.01214541417788433	-0.007526480854079573	-0.007627172554425898	-0.00726969863740202	-0.003478225291451209	-0.00605016301766097	-0.007745237773139836	-0.01167683868308932	-0.01037431549498926	-0.01055111907136315	-0.007788051184535324	-0.01174880195813214	-0.008864804963214141	-0.007724457787510262	-0.01070430311138464	-0.01032351466429547	-0.007080006464967487	-0.004513753825987473	-0.007252654760303069	-0.007991005268716402	-0.007672479735366903	-0.009768783343861727	-0.006261485511409066	-0.01348970682632325	-0.00796844187775639	-0.01051326123408244	-0.01386795916368257	-0.01694448708128707	-0.008694908176811211	-0.005445200755860811	-0.002274016599319938	-0.001361265862946803	-0.005090900351454602	-0.006780548092289969	-0.00892780531397008	-0.005593134571402389	-0.007725342122104781	-0.01008334656105068	-0.003707476847875106	-0.01061441209606233	-0.008156508481177776	-0.01247193264080632	-0.007197720032689047	-0.01061197834207801	-0.008207727152904291	-0.009842418368047889	-0.007214413999560449	-0.006470077138253503	-0.008166181347561065	-0.008279627251117196	-0.005692646968079583	-0.01247068457678125	-0.008179986430754115	-0.003673604400844232	-0.005962587741283077	-0.00707329607973237	-0.01073883562048225	-0.008158883925110853	-0.02151418643360154	-0.01158501452733995	-0.01687215442624447	-0.006008715819825049	-0.01522229507279619	-0.01802799293345262	-0.01640036051708376	-0.01102466315182184	-0.009660718231973932	-0.01512321701426137	-0.02308432801230854	-0.02500484800522807
0.00400754354593609	0.003808966441625983	0.005744591551371755	0.00663754079256562	0.007309614210411271	0.009943104437900394	0.005225355006945893	0.001154245964144326	-0.004989552390225003	0.004358439433355275	0.0005558328397289544	0.00498471650006741	0.01122292645363569	0.007687306588834702	0.004922047493468966	0.007004361566843998	0.007581706869468554	0.00351211945731053	-0.002952897875251719	0.003329687115761886	0.01908931237214073	-0.04376020413021644	0.009598197390415045	0.0260989600316022	0.0197278674186716	-0.05321383977423189	0.5543145481023156	-0.1633897608798607	-0.07615811465297938	-0.02677023314076631	-0.0311938823511435	-0.1190050438995195	-0.03357041471788429	-0.02599572343213012	0.010115246722618	-0.01126774932091401	-0.01891277652831771	-0.01279636796940167	-0.0003538430049437982	-0.005016866042027964	0.009612329432603098	0.003212112024302972	-0.003626027659615143	-0.0004391473270464625	0.005583112909560903	0.002267791614977498	0.001937090839956107	0.004206709071400873	0.008246898927155312	0.004508317612220133	0.007308702584846549	0.004715924948569666	0.006060223039255211	0.006160465946302171	0.006343705649624823	0.002661358394152676	0.006335159313697528	0.004167731244285797	0.004045711020694042	0.00560121504636991	0.002644870158600315	0.00246358173442798	0.003082025091212666	0.009168452135635165	0.003601678160560206	0.006070799286925043	0.005358155176540493	0.004329812962766683	0.005288632252655468	0.005336230809230223	0.004199492615673982	0.005077994367546535	0.0005432321363720107	0.002012267820734061	0.001582159898164611	0.003334241243905902	0.002809980187840901	0.005029912068578439	0.0043734965939808	0.006461145275743334	0.004272628528850101	0.00383045922002185	0.003044504559973416	0.004553343482297537	0.003440937975001591	0.001644860719577659	0.005688954546005071	0.001874250129942463	0.003827781370691917	0.003062582314221969	0.002042680091189709	0.007540457301041479	0.003934812926265688	0.001646569568931437	0.005571974110653143	-0.0004559463821724794	0.001493236812615356	0.004871111678864436	0.001644580144435255	0.001723359669560371	0.00599777502779457	0.009221145233220072	0.004212686051369857	0.001421459627355635	0.005390630650247454	0.002051901642938098	0.0006078159493490639	0.008064064959826501	0.003616225380312371	0.005086151687148232	0.007569142031458969	0.009822596763343426	0.006874641831348119	0.004778136952127802	0.0008204714086212047
-0.01563285245410072	-0.01924522168533319	-0.01355239056223083	0.01807046221057209	-0.01428716759475993	-0.02046709415135728	0.01651499131218501	0.003150463567770573	-0.001804863611907428	0.01644401444187614	0.001231655631673099	0.00932914195655017	0.02034431272923857	0.02963203625151421	0.007555809877570718	-0.02544172894586256	0.0133778763863036	0.008597179710353025	0.01789151333757443	-0.003789144916985564	-0.001278275206937679	0.01002126629838473	0.002027118231923296	0.01027008860259658	0.001088291186165288	0.008407412281104188	0.01196196505060561	0.01251822157204292	0.01611826671852202	0.01189570972655188	0.02311675075644563	0.0134474433007833	0.005942285613397074	-0.001222743819157732	0.00343979446870472	-0.0002374455363714993	0.01467142284936666	0.02479821890837457	0.009787229961251521	-0.01305226142260955	0.03265785413114526	0.006134351996021223	0.001678864043413672	-0.0122673695238676	-0.02224951025396243	-0.04438988482875379	-0.07052769321742157	0.03569440666031084	-0.004341542260341447	0.01496053306521791	-0.1118377502407873	-0.06428258797078153	-0.04422735040859761	-0.02864042982151819	-0.04059992662673052	0.02300846661963965	-0.02500638243905247	-0.03707104571642653	-0.03309303486976618	-0.001226572570615156	-0.03758120184637747	0.01868136376985947	0.005153259236112865	-0.005533028581806953	0.0252342452969895	-0.01078275090192334	0.003209329244133835	0.0119409584167702	0.05501440684162504	-0.0009597475168162747	0.01162316296226082	-0.01294164971676776	-0.01129105580531277	0.003825912385625251	-0.02572450407617217	-0.001975460238113157	-0.01174864047069471	-0.01971499014532667	-0.01682356713413322	0.008456877642413398	-0.001659768636423004	-0.02518097905243154	0.02543669233336165	0.01702297976061816	0.03777045559303416	0.04559613391700364	0.0640949561450827	0.5290763980924962	-0.03982079687968733	0.0495711750128696	0.03310941474337253	-0.01224126541816	-0.05006065722655322	0.003139945080270951	0.04469596008742156	0.08817578070930476	-0.001643125991290479	0.01460232694367088	0.02529733560144205	-0.02092361670256384	0.0009061944122628929	-0.02488162212097517	-0.001290719961019326	0.01267109899945286	0.01547491435218085	0.01392544869542294	-0.005709405122476121	0.006367047552344941	0.01377501140500492	-0.001011738644993481	0.03810189333510731	0.002921530264350129	-0.01086636785187988	0.03311328744023603	0.008801493239986004
0.002450210891703763	-0.005073954715097394	0.002006768764254829	-0.02782956730997028	-0.01539360874571978	0.01788392666375782	-0.016232590878753	-0.003144163096545485	0.007141874483145575	-0.01838031410686977	0.03878484970637984	0.01267896691277936	0.07365203141161134	0.01097123282070208	-0.01328291130682397	-0.07451606040877373	-0.02384049351213553	-0.008046264808526018	-0.02151499694713632	-0.01577666475754248	0.02572983393866818	-0.04130717722443114	0.02664372840184114	0.002950608010434975	0.006052880321367822	-0.05535114229483012	0.102002714972029	0.009803711939061004	-0.01201079061433378	-0.0173154806736966	0.04602024585658802	0.4830385061066924	-0.04735368776941121	0.0545665557659668	0.004443113115675037	0.02609117611913874	-0.001616068686776608	0.008681841493817266	0.01611147393204595	0.08803398534979756	-0.01809726550637606	-0.01035103169607341	0.02280080804096719	-0.003285089887295385	-0.02997926228791292	-0.03554374565583161	-0.004126424711897084	-0.05876189805661401	-0.007511549722957768	-0.01084963170359799	-0.07143664792840249	-0.05615900373919356	-0.0358373935183092	-0.02498532030013507	-0.01260266030963867	-0.02605208273223606	-0.009458683914376617	-0.01461216319571724	-0.009323999810431078	-0.009132251651943618	0.02064638806466724	-0.01253860219786686	-0.0219892018701081	-0.004536715617318772	0.004657207611026826	0.00559200020144506	0.02711269297894547	-0.03057003244329941	-0.02001369717047662	0.01759743161618064	0.02897134850835625	0.01944820409069999	0.02939939433506994	0.005658686420343877	0.03693854119830615	-0.0234608735715637	0.009279018306700191	-0.01835127833394256	0.03242109994456839	-0.01400411179460784	0.03257285493202102	-0.01458115010398561	-0.003172782833191752	0.02401390412212732	0.01135353526074107	0.007387910550063767	0.005364902354599207	-0.02882870189791709	-0.006127830641848498	-0.01541814072683763	-0.01122625881320457	-0.01125589884896807	-0.01430430884816775	-0.01824720926204639	-0.02224980371271525	-0.04342814900548177	-0.01523333493241479	-0.002047293406711068	-0.007395234392958841	-0.0077074647773282	0.005668396370643488	0.009098113517277764	0.02550119092448768	0.007350101194220965	-0.002319503705411096	0.01405248365718721	-0.01248858165860376	0.004849825860586007	-0.02866056953976162	0.062542117630514	0.01761720133250513	-0.0013021873994491	-0.04853238699973483	-0.03221626085936961	-0.0368139511820796
-0.005544124267622427	-0.03836440917061403	-0.009151299208634405	-0.003817325620650444	-0.02151155784114536	0.02490303864919733	0.03517830016706286	-0.004653857488662524	0.0001922152773672312	-0.0009454975658620148	-0.001628354921795382	0.01563818397004125	-0.0136805224812619	-0.03190111935533449	-0.01645132388597252	-0.0718910064844626	0.006362115054591276	-0.01590292877182237	-0.01152396855693702	0.01942952475451956	0.001181798323723317	-0.01121876944424988	-0.013724657391405	-0.005033037336916056	-0.03132290534525789	-0.01678070944803832	-0.01663757436574172	-0.01855882252446051	0.00526782584813994	-0.01120546738732195	-0.004785585108164314	-0.05935083088646487	-0.01080723246340839	-0.0135325302298094	-0.03208156705516758	-0.01786634632492602	-0.01903700997321496	-0.02212674278927733	0.0109192630873143	0.05057790569709134	0.02597694084535582	0.005372318442781495	0.00530512362898561	-0.009707880392742318	-0.01870139496824199	-0.03886126618411743	-0.01666182432740643	-0.03823394589967029	-0.02997327478945132	-0.04245828825526791	-0.09200684351145219	-0.06027728316462693	-0.03517104803909959	-0.03616202317088678	0.004608350983342498	0.03154236553173715	0.007585247838580808	-0.02053079780371743	0.01489139159609763	-0.01838377121901615	-0.01606903544432126	-0.02871248983205883	-0.01006038218831556	0.03260676505906793	0.4867950984830179	0.05582944659577695	-0.09897749315757638	0.001402682748179476	-0.01819767130571852	-0.0004987201762515677	-0.02129032565976436	-0.02353351303070386	0.01048917282975819	0.000831211652620278	-0.002180918654195943	0.007583929388135518	-0.02856949296135381	-0.02014601055472513	-0.00155984725058221	-0.04862155369561995	0.04037570863264663	0.002477982994651532	0.02283081821493113	0.05380501281482841	-0.03835482651474707	-0.01108903473295949	-0.01966289919864108	-0.04202364395412835	-0.01467136908140211	-0.02145332168799161	-0.01785568807086986	-0.03604750858584192	-0.02670981655846686	-0.02458460914924521	-0.03365705117760783	-0.03515272846898833	-0.02164497030157312	-0.01513929059492646	0.004780578284464595	-0.02763685773594848	0.007584353498785794	0.00702160633852436	0.004541569264087494	-0.01322987023365658	-0.02236182033451476	-0.0188097534775075	-0.01117743142272879	-0.01601138002447623	0.001418199218820628	-0.01331256358271642	-0.005800197921464983	0.02579038555776648	0.01792862200589054	-0.001122682270105722	0.01777172501613821
0.06107163440260994	0.01789646721685461	0.05768924854408886	0.004795133168215759	0.02432831321088447	0.03083825400861468	0.008264658151361744	0.004269624469962565	0.0006464580862904151	0.001772449221506729	-0.002665132824664635	-0.01208728739981766	-0.009956060994584275	-0.02995745297372442	-0.01688305515663602	-0.02998536408086793	0.05052781181474639	0.0147873637535934	-0.009587807758508754	-0.02228148823866988	-0.009388843640456484	0.007581382136697849	0.002300589909356159	0.004508496867466346	0.0193570792045171	0.01746561185388666	-0.01283330631852703	-0.007669876141414153	0.002994881319441923	0.05436408979856652	-0.03741562577647043	-0.08572277191433328	-0.00914592647754155	-0.03302524795966992	-0.02505972974189385	-0.01844527990807721	-0.02822288867430969	-0.04481184487133635	-0.04469973955749838	0.4824395968603551	-0.1209426295424564	-0.01148461656350274	-0.01741619100418166	-0.01170541344930669	-0.005434899595785595	-0.01241149712286621	-0.009840651123135423	-0.01050049617842123	-0.05131909434587769	-0.05128710999986005	0.000919358796707818	-0.01095128612254347	-0.02210722805457178	-0.02430912891253216	-0.04812639997053419	-0.0464181252948999	0.002866059540464217	0.001476535462926058	0.009362697043144881	0.03154080031974423	0.02430663598034575	0.0007091868134447646	-0.01457745523755356	-0.01561877506276316	-0.05766375811263959	-0.009591580594888951	-0.009115283725087981	0.01289025930547431	-0.02908413587370336	-0.004019838022551082	-0.001308421871473041	0.008278034252294427	-0.0157949290231156	-0.005710267823482793	-0.01218396842486301	-0.0140059728749239	-0.001655591142315618	0.01940830038179487	-0.02895682868937464	-0.03258243024866596	-0.0128233591990926	-0.03416255105963262	0.01101193236863943	-0.002834135595955794	0.005267664070647517	0.010378477080001	0.005477064959070679	0.02815667899208007	0.01602608789595836	0.01864651425934109	0.01328651512592112	0.02881176399048525	0.02025830480168491	0.01155262110843159	0.01463023918598528	0.01211184157497225	0.008535075908761692	0.004818396574700325	-0.006261088526513765	-0.001924840640853443	-0.003652642305354305	0.008577570755535419	0.005273370547395655	-0.001222069627567869	0.002743020868465164	-0.0001480547498815567	-0.006939231174007998	0.0008422073087910559	-0.01477208506777287	-0.002785533474868606	-0.02163633828938857	-0.0383022428638527	-0.0387821844344117	-0.005007874580104816	-0.02797613693925886
0.01953686521840586	-0.002309599548140587	-0.0009461672695726381	0.00840246923513276	0.003494012793873769	0.006544207777764309	-0.01258316133173098	-0.01679376991068625	0.419850655667568	-0.2543351103529419	-0.1860287170593088	-0.04562946297387503	0.004936889245175792	0.001890699666123702	0.001474730021328041	0.004310689117927701	0.004049727940611141	0.00738572681430867	-0.0001701486892286698	-0.004213830958178726	-0.009399692386913598	0.03984834195633428	0.1272550601793637	-0.07108299392618644	0.007225650604688221	-0.02894280955398364	0.005927563849081598	0.004550003986795633	0.002074414695512184	-0.003674885338827492	-0.0007926475767362699	-0.005542246251059972	-0.00265759526465089	0.008818375678092049	0.01536507276795341	-0.001724780971546976	0.0006128805868774402	-0.00117173968414101	0.003461568220063561	0.003028880904761521	-0.006198379292480598	0.003989130175873374	0.005638026205285909	0.003927756544717458	0.007994929155373693	0.001981181857605296	0.003778920883853077	-0.001240213313738733	0.007154021477884945	0.007544577621910368	-0.003128506277406768	0.002644499381120158	0.005175208262905313	0.003707256582104313	0.01688906262006865	0.001647380409118267	0.008423382828674841	0.001060204496135824	-0.002357263489776009	0.006214369629056892	-0.004524996361477789	-0.002731140053280093	0.009987490505368903	0.005672066687153028	0.009359102405191024	0.001475447591145937	0.001511510719107571	-0.003840231744736958	0.006339645130792686	0.01069399886064621	0.003052607581277876	0.002891235036516583	0.002827492039826253	0.0006105119748113102	-0.0008609218043650429	-0.005134753938555985	0.006362484541061877	-0.001175295601875634	0.009021743967175007	0.00737101886746007	0.01103093289644735	0.005025020110821171	-0.003363985228170769	0.001456866111224371	0.002478853531997349	0.003108573303560784	0.00434932103578543	0.009598794484003257	0.002031251216796808	-0.0007022296056648522	0.003660505742080108	0.005320767671977291	0.003850262321001447	0.003226601934308636	0.002035130070186022	0.0127767102102335	0.0005590574934863327	0.0002814390535142396	0.0008713245094275261	0.004280591636483075	0.00149905630915607	0.0002566619489311364	-0.002935007283000468	0.01095782026368695	0.001107996328560494	-0.001266693996726401	-0.06041943164867126	0.005325059494885606	0.008137869632573491	-0.0001065236452051982	-0.002215301647772085	0.01082256142009234	0.00557838262412336	0.009466771908097622	0.0209809717321015
-0.02175229726868005	0.03021521774250266	-0.001402458367788747	-0.01379077325710638	0.01553571179775522	-0.02801520166686768	-0.01910120431126772	-0.005667564030060815	-0.01140695278552703	-0.007455523393854075	-0.02673782076536294	-0.03683929358697526	-0.09937462402340953	0.02649518497421161	0.01513841556303129	0.4666538699530149	0.002247463580082249	0.01319171989480006	-0.03765671047348849	0.0390529652109319	-0.01288952268358274	-0.01416832563490189	-0.006399468244182922	-0.008697460807876598	-0.004501718704318065	-0.01901260359119981	-0.001109870294880667	-0.01547650647170808	-0.01090892801962994	-0.004064555189957028	0.009988357319715707	0.02257397840164211	-0.01369981747049656	0.001471642106038131	0.008824254346419352	0.0006461214802243235	-0.003649242875157674	0.01032197225765672	-0.01827001580491866	0.02161128766278828	0.01878498145191547	-0.01040025610947315	0.0248916374972455	0.006704095407342559	-0.009553882090753849	-0.04649312412079905	-0.04301848739209611	-0.03508894258061768	-0.0198675564748887	-0.03288216350436757	-0.1083092661353519	-0.07706919462919661	-0.04454918409073944	-0.03446596666070195	0.007413487854598742	0.0187114884229299	-0.0141835342787756	-0.008241868538646445	0.0203388444000772	0.01358522698975533	-0.001237854407770037	-0.03040869957447059	-0.05538553140657329	0.02672486923398933	-0.007692769410953206	0.02227045615370018	0.01890367585886548	-0.01234929234608048	-0.04480247440897132	0.02641082895007778	-0.004438177678579741	0.01009116324113719	0.003993237196458865	0.01954824792076423	0.01065502952327344	0.0009113120994996944	-0.003250537952431759	0.009735230005141055	-0.02177005653911554	-0.05422264648002621	-0.009310167277345965	-0.05040423588776733	0.03920962222982974	0.03515904664034122	-0.0143105600289456	-0.0002880222604761914	-0.006243045618223188	-0.00680057300951442	-0.01199809631660146	-0.003698906959895036	-0.0004733287387823428	-0.02884929363807642	-0.0269577316568637	-0.01656363387119527	-0.01427505708764202	-0.004211718663612522	-0.02138725164953265	-0.006880275715948777	-0.01044564913177281	-0.01675263328297199	-0.03333930692976668	0.03512310351160877	-0.0002025172991736687	-0.0397923583549214	-0.01977129221691042	-0.02531068959982195	-0.0006330480918171775	-0.0260037779595537	-0.02602630120523928	-0.02985110328230611	0.03126268565441862	0.02402946182979963	-0.002298021902229824	-0.05969698803796547	-0.03890958472135388
0.005742019298609255	-0.00567461234826994	-0.001610864184942662	0.003132685876385743	-0.002618842215326904	0.005920433396729303	0.000196970532283303	-0.003591880524284194	-0.006426996411194063	-0.006253240537560499	-0.008613010532588117	0.0006994194184281789	0.001753290498114658	-0.003224692961075203	-0.001838615564312017	-0.002345943093804425	-0.0008797197972921812	0.001109754076411624	-0.00400872436190522	0.01076292739948269	-0.000198081287952641	-0.0128601505197484	0.003562063708004052	-0.00556807523104249	-0.03854222165090926	-0.1190618927330766	-0.03708965037116292	-0.06406276663118851	-0.01615725972337089	-0.008998794451932666	0.008792616622291955	0.05010488271969839	0.4736320537002419	-0.1513835193367599	-0.0328568033664124	0.03905248153301014	0.02527352991226308	0.01870828784353727	0.002418006485238852	0.0139759943493774	-0.004653540169342459	0.001184988945953595	0.005993911099206924	0.007062493101800684	-0.009491170793703619	0.005267781797552301	-0.002316835297456367	1.123549113136165e-05	-0.0005047696133028093	-0.003866851525109886	-0.001518992099580386	-0.001863776089910625	7.231968008821477e-05	0.002121069323317285	0.00665022667784955	-0.001150229438028424	-0.004188780558134187	-0.003687153553445308	-0.003585451458761396	-0.004238208549620473	-0.0009128666450251602	0.001688146472226296	-0.0005093219858959084	0.0003022886638277358	-0.003281762118334257	-6.920821799627243e-05	-0.005240208613910078	-0.002010364131191014	-0.001607899467640264	-0.001172337774013949	-0.003076647409872668	-0.0002907288796229006	-0.004914030368470197	-0.003517993554413183	-0.00247632339476234	-0.003901953697576744	-0.0001912446730638522	-0.000784097517344729	-0.001581410416025232	-5.261962279920842e-05	-0.003033633206092469	-0.0006747753721249372	-0.002247690522519014	-0.001175721190548269	-0.004463186246489734	-0.002263571909633409	-0.001024789929835059	-0.0006828789612767631	-0.004458533119083343	-0.0005203261364254163	0.0008608326457646036	-0.0006491156442015844	-0.0006482764951470302	-0.002723481383110913	0.002855032210672849	-0.002832268633359088	-0.004574801043887878	-0.001087398646131549	-0.006686152124821986	-0.005005865667505908	-0.004147021226083857	0.002119817664085919	-0.004383833589163537	-0.008185261058872923	0.001430697238362218	0.0004227700408444831	-0.006336433231276275	-0.008579039690983144	-0.005605877163433987	-0.004599549800648182	-0.003010914235247287	0.002172222584819321	-0.004939667342506682	-0.01071078598103896	-0.006791383794361167
-0.01674249481874198	-0.003535251316636488	-0.005221797175947	0.02021355546307227	-0.007701071296936506	0.01277852902639797	0.009634355659217796	-0.01843227435490516	-0.03628966868341794	-0.02948120350121724	-0.01606498437132432	-0.002046655816178554	-0.007284739913095124	0.01561880882709331	-0.01569080700477938	0.01953395427980924	-0.01642569767724834	0.0002674797929771402	-0.01414202016840893	0.01824612418461295	0.0102072326442371	-0.01622779074200972	-0.01314137339596199	-0.009092612047289051	-0.01568383316183582	0.01089432809967366	-0.007663401851240773	-0.005088119147587416	-0.0003279154397627516	0.002986469519617093	-0.001673382548011532	-0.0269481653869215	0.009707185111464553	-0.00222712266301937	-0.0202286913701436	-0.002910762514336317	-0.01004835066227025	-0.03079470701268154	-0.0017060608973431	0.003729764645733017	0.001257636928136712	-0.01911115594976849	0.005238589540658282	-0.001544778794396853	-0.004147344583631488	-0.01387174850228841	-0.0187865044168918	0.009470783256791416	0.0137666807370704	0.004926644745673338	-0.02027651896845955	-0.02064024527617052	-0.004179058061210765	0.0006879111897634359	0.00117916958731894	0.02259321452304641	0.01617155088841636	0.01146847721697641	0.002975084754541351	0.0114283135370311	0.01238824701353626	-0.01576703983051364	-0.009064378599104533	0.0144217403248991	-0.03210206782996327	0.005426569388408256	-0.03279252491052067	0.01020466168772265	-0.01619436547945229	-0.004848922939673123	0.01746729668477748	-0.001781287192535646	-0.001144100601705202	-0.004296834324930158	-0.006968435832930743	0.004221465025621188	0.02694668146896747	-0.003225499183573283	-0.01178133604318666	-0.03879962990640558	0.02012377019640268	0.003045939433367751	0.0299822852184286	0.01327903629085455	-0.0121642298826441	-0.01309325161648918	-0.01283222674368889	-0.01659814936905701	-0.02994146382843502	-0.03629004705755309	-0.02561834981504175	-0.05013502827387198	-0.06587999987856463	-0.03587738231062374	-0.05029400633990735	-0.02210963410591445	-0.009333446653761074	-0.03454028890663234	0.01946712424001108	-0.007862604692218004	-0.0131302319670547	-0.02889625040573656	0.02682283368318161	0.4123198999576697	-0.0102710360242398	0.1809483611066001	-0.05958205518565536	0.1559860242044219	0.003399752059961363	0.01230075394672341	0.01482398439248667	-0.01067043050367653	-0.02211356328043937	0.006488880679718615	0.02536139356895336
-0.01034274301161225	-0.00365564034470414	0.001892634080895132	0.003890174077937719	0.006564281406905834	0.00479137903184231	0.001360632496750018	0.003834791546671479	-0.0008226731295495482	0.0002006719110831442	0.004881605776486363	-0.0008173986037418164	-0.005588861192482545	0.0001288626695165857	0.003419436341022011	0.001908553902734765	0.00148250304974439	-0.001995461680308783	0.006301879397647868	0.009348693982535116	0.00421444926755764	-0.001842611940171167	-0.002563391503572947	0.003792333829926868	-0.01181047528873101	-0.03487550123098567	0.01418554730336433	-0.01278477285438793	-0.004467951990612382	0.002899623161897486	-0.005128005816726039	-0.03996036239296878	0.1451827957249227	0.4518105869986719	-0.04929217509762164	-0.1002933037173135	-0.06605318651077878	-0.02525666100302617	0.008726889569868749	0.01248469448167202	0.01373830857166822	-0.01107854929544599	-0.07979191275129394	-0.06894255644451344	-0.07102323718488088	-0.01936346259706295	-0.01708443172175898	-0.001356444032270762	0.005525479814384737	0.003112087351305455	0.01480953223410611	0.005984064581802795	0.00444420228133933	0.001411877462523448	-0.003366574466049183	0.0003851320016933169	0.01025963070420165	0.00177008485169562	0.01170755727900796	0.006323321026887044	0.002144736256706436	0.003563661153402358	0.0006519245700512625	0.005619657740448167	-0.00214227966282405	0.0005679887156218361	0.008587763455765974	0.003976882074169343	0.008374041409296946	0.009898938154253425	0.003427735560269278	-0.0008292484215913262	-0.00525853672070053	0.002022209040065039	0.00681894537940575	-0.00208034734181387	0.002883651261105637	0.0001467323547302526	0.003076954361253083	0.0004321860552842041	0.005126000990095414	-0.00322396253099746	0.01086251012235625	0.002755273143265838	-0.001315907510547632	-3.90651989005442e-05	0.001665912362810888	0.001057923498508309	0.000743255551731336	0.001241249386151743	0.001194078011378389	0.00668709381427022	0.005092953389001051	0.006417281953517128	0.004140573233886505	-0.0007141530351787111	0.001632697095422738	0.004742140188230177	0.002579447497815622	0.003159706140487873	0.004316574599979825	0.008637175400807129	0.005567832746713141	-0.007547371127363049	0.002376760554967149	0.002681297563036048	0.003890352756144892	-0.00137278988632551	-0.00639656372403123	0.002275728696032415	0.007713859331859454	0.005736517577570652	0.004004961058023403	-0.01410160559167142	-0.01835601469544877
-0.004816233725816288	-0.001942797071009573	-0.005268866421277166	-0.005045237571873653	-0.007045957629871292	-0.007118642388466215	-0.01114688969145552	-0.009947771055501558	-0.007090771150732687	-0.007765724066118487	-0.00693467578752768	-0.008508892002269234	-0.00465880990467711	-0.004135539120024277	-0.004974716404577537	-0.004869190735015931	-0.005172537672507466	-0.003654363980660109	-0.005772723682185716	-0.008681594406509768	-0.005609199411704098	-0.007299818809295257	-0.005389142284559875	-0.005931656893783849	-0.004076031802669144	-0.00636793504207172	-0.008431375467681017	-0.01184330300274738	-0.006157725910609774	-0.01026681379811627	-0.007759031097362323	-0.01351341736879134	-0.0112703194525494	-0.006117724690662955	-0.000798888580623755	-0.01056888914977195	-0.01250085998416241	-0.009348729116191213	-0.006944340832644279	-0.009592785868886967	-0.005592592366569002	-0.006307699524730911	-0.006423477391847164	-0.007000963542770722	-0.005835001094591529	-0.005173449185840263	-0.001617433516170575	-0.00801498262824271	-0.005412071038900687	-0.00466555127700428	-0.005113243497921577	-0.005057563490801154	-0.006294824832604718	-0.01127885713882419	-0.002744352841992073	-0.007248262725814727	-0.00967344027406203	-0.01073305106942334	-0.003923235971465175	-0.00559597088752921	-0.008281123552611801	-0.006239616321812029	-0.005028157234205747	-0.005465159259417851	-0.006385284651464129	-0.0001818928993264036	-0.002352422587021164	-0.006620008763730052	-0.00853574346685905	-0.002077612517368835	-0.00717113648312053	-0.0134223739760454	-0.0104488936081271	-0.006219818572335918	-0.005645553869709585	-0.005413274286300298	-0.006855310307644961	-0.003524306908013878	-0.00449812546170207	-0.001334279457544334	-0.01241784923350396	-0.006174287978835086	-0.006661042923012517	-0.005589008165308965	-0.01147157630622466	-0.008822037076194221	-0.01178526091400242	-0.003410503399304533	-0.009272446813888327	-0.009431215134741891	-0.007115265695950857	-0.01112395207502676	-0.005864738753571372	-0.01339632535956398	-0.03547174846372576	-0.03164050185211244	-0.2543062240019386	0.09721987882919218	-0.002703033403941718	-0.01105541514441749	-0.008489072059849969	-0.01242855134937491	-0.03196399548410701	-0.1356859207373514	0.3126241712955063	0.2128846952219098	-0.04180189428940081	0.09125774288112266	-0.004864771454499711	-0.02783354834653446	-0.04099790381688115	-0.01695708643072853	-0.01281453570266009	-0.01338806025005618	0.004634903254329782
-0.003259392445657629	0.0008279153888958365	-0.001668639923730831	-0.005025012588468735	-0.00516955151774662	-0.006481982392570965	-0.003204954033960385	-0.001023613623027452	0.001219336323535166	-0.001701944778303143	-0.001663188460279245	-0.0004907469672475973	-0.005011785139185807	-0.003173376685698254	-0.003912457895256852	-0.004540125489626564	0.001483457639562622	-0.002173324291849114	-0.001232747788912548	-0.004360670858510774	-0.002710831473605701	-0.004159751378908299	-0.001901657519964332	0.002319937521715828	-0.006023706263242844	-0.002585760499357924	0.005910391355937575	-0.007098723226715994	0.0005302508199811469	-0.0008367934658270862	0.003806767326597378	0.00832285814459202	-0.003252780017015055	0.003120982656827955	-0.02230216656870427	0.06555094777043424	0.04672922749621625	0.008434810000200826	0.003682082976049319	-0.003381744671696801	0.003930900745725727	-0.02242893291760909	-0.1047604009717478	-0.3017850173024325	0.3473088917149508	-0.028902204227587	-0.07250971420075233	-0.02431561203623564	-0.0008559756906716915	-0.0007882266766275767	-0.01227215766971251	-0.009008775519980505	-0.0008716841820693702	-0.003685336781690132	-0.00359380383790794	0.0008643098481060432	0.0001823644257732	0.001328620893390924	0.000490950178136185	0.002300376787353803	0.0004088569156651022	0.0003797233088587779	0.0001378967618108083	0.001380425995365466	-0.00234109793275735	-0.001553424720368236	-0.0009416997216115879	-0.001183071480517531	-0.001721997613260482	-0.002039671492358699	-0.004169538261226701	-0.004890966186845874	-0.001429924680564349	0.002345116334425155	-0.001797733669433741	-0.001743960226020036	-0.003060909715094916	-0.003640491324627031	-0.002479562942544132	-0.002889840548606284	-0.003900399185162231	-0.003965388272091759	-0.003128564887342184	-0.001178454117749067	-0.002853709885357349	-0.001385685244267936	-0.00306161839222793	-0.004246602345605718	-0.001119289489046083	-0.000636211787922535	-0.003486622055093353	-0.00107278133361514	-0.0004677852659401579	-0.002328843669045832	-0.006686031891635917	-0.01199612867025469	-0.005195880705438471	-0.004164475337506543	0.0006197811405516474	0.001593242563605771	-0.0008327099067637212	-0.003577282730060082	-0.001131142588603538	-0.001402681049290285	-0.007585058333956644	-0.004599162320926601	0.001901392347785201	0.0009775143529472835	-0.006429306182541306	-0.004372097935021913	-0.0009393266004845814	-0.006797434223012957	-0.002720369116520915	-0.006601775944568303	0.0006356328758177178
-0.02913164065381995	0.00251786901331229	-0.01212042260605329	0.008285981900131127	-0.01965563766581481	-0.003210074072165383	0.002886970518332465	-0.003310357839985435	-0.008428366503260972	-0.009544952034858832	0.0003746561435590291	0.002691211279797998	0.03281216143058217	0.008719311037828328	-0.02029892142151657	0.006084516564147358	0.001862286606162397	0.004229199907374947	-0.01255080782747567	0.005189644472002337	-0.02026546613392076	0.000921792002398864	-0.001318304925100916	0.002691066411261322	-0.02100073726124634	-0.003707919491867823	0.004427066576731863	0.01381193441708779	0.002143459169640702	-0.02182134598673431	0.006962101350939012	0.02650320527696432	-0.004078320620812106	-0.009684009531648774	-0.01189979480774393	-0.002906793324838693	0.01017302681720423	-0.0230083929090156	0.01013638836465347	0.008439990614588661	-0.006814428777383368	0.00110030658920331	0.005252175081912913	-0.003418877601641555	-0.003636560194722428	-0.003847818566974723	0.0005857314024462886	0.0173779328022927	-0.0004312115442217915	0.001483679602568347	0.000292751956895621	-0.00193367703691851	0.0199489841583063	0.02437584007554868	0.03676372882135853	0.01017707592407656	0.103828209951499	0.08753045109809524	0.372720217270768	0.02558123717311398	-0.008420153188641961	-0.01112563748729731	-0.0142747461051254	-0.01798936650928725	-0.004818542549802711	0.02235079765187741	0.01234390427074604	-0.04564586602594527	0.01183197495895564	0.02263125484088674	0.00567855962353314	-0.1531832015592434	-0.04588441777584146	-0.02978842850609038	-0.02915083834986567	0.002269265044832601	-0.02386896790856181	0.0002770295682302664	-0.01623372188440962	-0.008584461301907709	-0.002524452410816395	-0.01561722084328898	-0.03501005680698114	-0.02926518863666276	-0.0002993371063069181	-0.007728795611754444	-0.000151922625086185	0.02577792009699988	-0.01410553808890492	-0.002229386378101455	0.003061455873616825	0.02013030752687517	-0.005217439589581679	0.003135483933090963	0.02055223692641407	0.002060439308747904	0.01548320716761176	0.005413433149089283	0.0003022618132217627	0.006263795288833992	0.009443883129543857	-0.01083327788341008	0.008155091617501919	-0.008208912999888277	0.01118154504089738	-0.0006661307133710685	-0.004361490195442172	0.002328995034904598	0.007782672334753308	-0.002619299153093392	-0.008342045263240592	0.02709800694734417	-0.001849611016882385	0.03601753432814685	0.007747565458824849
-0.007016711740299366	0.003983174372119926	0.004468363848409489	0.005692592935314869	0.004857431806937111	0.006466517720599309	0.02747016860292776	0.0001631832989140921	-0.009269846931783895	-0.006486597846334449	-0.001075396063971545	-0.001478064977017634	-0.001425661789516243	0.004310360884542242	0.00122289241065173	-0.0007481707202901032	-0.0005929248797059796	-0.0005392764421738519	0.004125206160219934	0.001834912001758977	-0.0004838094867767025	0.001221495511972158	-0.004589627603873019	-0.005580926089407204	-0.01020135203236027	-0.003173434142161305	-0.003975396423883527	0.004544438698505139	-0.001025138524404765	0.0110028618238734	0.001629008873869313	0.001239557099634115	-0.002625176095493811	-0.006025251567154555	-0.01097458790239032	0.002645641251984656	0.008132314974567309	0.007773516597204141	0.001953047155495036	0.001893699188298401	-0.001635560360169961	0.001057672202343971	-0.004859477538787516	-0.005245720533961714	-0.003950714037277731	-0.0001049646946890944	0.004560336664790996	0.001881538937452519	0.003274886559066108	0.005202290089827211	0.005905308269608564	0.001641544328949119	0.001003803697263582	0.002197382881074076	-0.01077592759361162	0.00159000158037569	0.003667167520746118	0.002805399571136548	0.008839753603817224	0.00135772309656919	-0.004844850344292144	-0.0004104153225600119	0.001208007601850889	0.004016712375646467	0.0002012793565202516	0.0005548938340769803	0.002291988310168661	0.001930425654218779	-0.0102184826092201	0.006656998406132843	-0.00417471093778603	0.008206046711935708	-0.0007994922027626224	0.005921413357296858	-0.001627444701079345	0.001670486419197094	-0.00386684082957396	-0.002577008445775719	0.002382668282196393	-0.003303112057431448	0.004326043963601396	0.003130141705775344	0.003439584034269047	0.0017434537287839	-0.002808257252204605	0.001104596932635879	0.00832964448195371	-0.0009092846403959238	-0.002165475790174864	0.003548558374808944	0.0048280325375962	0.004159765998158127	-0.001783479638440286	-0.000553455302034202	0.004707618108466223	-0.006216750735357494	-0.007428706094853289	0.002849107747530832	0.003777210729062526	0.00117916936687377	0.004774153346203598	0.008703495319239711	0.01035548357214125	0.003840122238482216	0.02230168503727309	-0.04859983299709987	-0.04240876485723706	0.02031799081962775	0.3849373318888079	0.03609205791991073	0.007473394797126974	0.0007423713865491013	-0.04994723600794862	-0.1529901099489322	-0.05060958838809842
-0.007960511390043602	0.3807859805009898	-0.01490795744566717	-0.002216581845533614	0.00227316566469312	0.01547344649818688	0.02000048723718638	-0.007303039833568439	-0.01099113876477468	-0.008587708405789882	-0.01187499368785022	-0.009028614323716792	-0.01969675589456484	0.01374457498631846	-0.006004982360242483	-0.06472873081172688	-0.009113734324403476	-0.007380287472155238	-0.009226984759113576	0.02367510066943856	-0.01539176791369779	0.001259903047096346	-0.006899099279447468	-0.001740069338198843	0.0007269685551921914	0.0008693074715620145	-0.002626917038301689	0.00739741054264526	0.007643349485179841	0.01012204880022434	0.001870368843287142	-0.02670571209678587	0.004975839749786172	-0.00334892608081059	-0.01094880742863023	0.001452639297363376	0.01557696273163056	-0.003363515148775072	0.03882040835965297	-0.01287167371343453	0.04448557746099321	0.01093956775458638	0.008543462392122857	-0.008498308496470595	-0.01454298511500127	-0.01746236791189213	-0.01573568116132701	-0.009561589161684338	0.01544337235118676	-0.005281632846578922	-0.03583073955336594	-0.02987379434466623	-0.0216885529507533	-0.01701773454961457	-0.03133249497648269	-0.0365635801808251	-0.003256809922168549	-0.006802127659423327	0.01320967891109532	-0.01306132053553138	-0.004389008323404159	-0.01914742040667014	0.01211272725159208	0.02608010965129193	-0.02243419222472541	0.001821528101431117	-0.01470762941053317	-0.01926919551254261	-0.01878243972305709	0.007316140625792594	0.0177032812235517	0.01240609603570242	0.01132439531305596	-0.002187290097571144	0.02012499956150063	-0.02385689333525458	0.04010896529808153	-0.005773128731307735	-0.01583233113908189	-0.02486759611131729	0.0268543053658708	-0.01547291579853575	-0.004411953234248409	0.04931635294973408	-0.001720266044406107	0.01072991126151406	0.015488393943132	-0.01310494348852993	0.005325220103894033	0.003520985399553604	0.01066195050538985	-0.001415159065595697	-0.01681469115328673	-0.006816548422320424	0.0001297437160020962	-0.006092990470718404	0.0001499581609855098	-0.0006225948147220943	0.01935718322643011	-0.006158782801809367	-0.006525945769733876	0.0241177186914576	-0.01083266849995141	-0.0151416357127771	0.003201963182393858	-0.008732389602147379	-0.02925724970685504	-0.00897497649519194	-0.002237049105180655	0.0118763014961181	0.003126350361778212	0.05787854300602667	-0.006058085289352098	0.02841757135842225	0.01299957072947046
0.0004637690112991862	-0.005817588295006741	-0.0301002818716126	-0.001214820276694938	-0.006652157287175335	-0.02123365748187355	-0.04536917277277717	-0.01160867471855363	-0.004515053370903694	-0.02061785517232962	0.002508779291157685	-0.008802236740484722	0.03787771394076588	0.01291504577032599	-0.003014957451181183	-0.01235777172629159	0.011142196147747	-0.009481796368734844	-0.0505517040156999	-0.07685590097523863	-0.02407146101260341	-0.1027774803523832	-0.01315071219909826	-0.01439014488742855	-0.001076363049716843	-0.09583925913413617	0.06466784822871167	0.3446235530344251	0.04062302875588759	-0.02639639456136354	0.01229110962344088	-0.0637512920284084	0.02042896702876824	-0.02163888322001613	-0.00319936644851485	-0.007026306784519515	-0.01176622988787336	-0.006885806528502281	-0.001884724314705375	-0.004176663412003009	0.01609692358226296	0.00366308475117613	-0.009614307967169987	-0.008472885428638334	-0.01062450801964718	-0.01108692175996396	-0.007204323790768442	-0.00706206903791826	0.002999992230564717	-0.008380270888803911	0.005140359519767635	-0.007499614527107334	-0.01086727542484874	-0.01337180042235531	-0.01820018118511051	-0.0004238240637294936	-0.008101633909518777	-0.01585525964333453	-0.006349565773741418	-0.01607378747468097	-0.01048157834625377	-0.02168496282439026	-0.001199948325128948	0.004134733243751152	-0.003934941567137312	-0.004017878341856109	0.001202861843259385	-0.009421225143636414	-0.01236047805620243	-0.005911529764316501	0.003609276335849807	-0.01104901816555111	-0.009457088176438507	-0.006433090618330917	-0.003421360755612371	-0.01589471530679113	-0.002624193935440684	-0.005289247005582578	0.00875064577065564	-0.006326702449197393	-0.01848462898040273	0.002933193655377227	0.001457509055875282	-0.005776980154514983	-0.01151771083488125	-0.006293395431924254	-0.01396439887841957	-0.004434240908679651	-0.005502225281543918	-0.001936026848697065	0.001194769561725336	-0.005902332950152472	-0.001169510705592856	-0.004361887404707073	-0.009191767671151617	0.004580838314114479	-0.003243931994184702	-0.005785814788139881	-0.003755734791288175	-0.01531168026387054	-0.01992354484496476	0.01044448014418421	0.01430307588768063	-0.0003517013966725976	-0.01409595578515857	0.003034377087618565	0.02753019769950548	0.001009072252662347	-0.02843139307118693	-0.02029777065931288	-0.00102108861026254	-0.006627038550739425	-0.03495916033570661	-0.06231015250855543	-0.0510996198963317
0.008020312859718232	-0.0004380851963572402	-0.001537691600497764	-0.007191305882256293	0.004566175429133987	-0.01146860796686355	0.00906292988240316	0.3750917635542388	-0.06224822694853954	-0.1604987759314849	0.02026508763626772	0.0151163326569419	0.009776231655358406	-0.00887252426330646	-0.000670608226752547	-0.001103936630744049	-0.001038214117573634	-0.0006730604988764884	-0.0002177199965612427	0.003455030974012472	0.0002648956827089001	-0.0475346399219061	-0.01618161943460898	0.0008098684548547477	-0.0100160421043466	0.008553450267424769	-0.01074706024997233	-0.01128017758813564	-0.01131355645886806	-0.009780666490282888	-0.006417627148556817	-0.009836150136083166	-0.004112930804804509	-0.005394717852028726	-0.01091427832967239	-0.0006172701025508973	-0.001496698583468402	-0.002765404283509658	-0.005155263860312597	-0.007701505909052352	0.001482960258012636	-0.00334285508622059	0.0006957414433877946	-0.001257236736256561	-0.001487890376240701	0.001329783694127192	-0.0002637709004064547	-0.001754292674994354	0.01285289848873012	-0.002260525127758716	0.000464480505279131	-0.003038870680388095	-0.004442528562047326	-0.002838240160662306	-0.006783020334637641	-0.002696390470654718	-0.001846699291316803	0.002181320088662662	-0.004222764845431495	0.0005036769464645647	0.003503478357636152	0.001379858764036846	-0.002789949254935864	0.006038576946704624	-0.001939909601991282	-0.001362425695762565	0.0003494795011136293	-0.003376783130670879	-0.003112005605070534	0.004528731902070617	-0.004155977396244809	-0.005513994443173629	-0.00119889196977885	-0.008029905619698127	-0.0004514953083680722	-0.006609549307361981	-0.003479415707824745	0.004135463325887316	0.009556135813085452	-0.005718995950284638	-0.004641141584594604	-0.007401489221050566	0.006476736815932489	0.002122415606105771	0.003121833402235289	-0.0008443477337503023	0.001179688421396603	0.003939171116879894	-0.003886548387626294	-0.001696060855725258	-0.005063807680731078	-0.004159456050198265	-0.003715742312873103	-0.001210503219549286	0.003845824959163747	-0.004176054623194571	-0.002552011227692802	-0.001851875135027478	-0.006903846003227009	0.008466488767090339	0.001678287110989052	0.002363974892033214	-0.003654872971021534	-0.004061239655115057	-0.0005498116882367898	0.0001605495531734479	-0.01506338162647066	-0.004820677111098154	-0.00545755801451095	0.01220238873299215	0.003109224289513348	-0.003435342805635652	-0.002699874449431724	0.01168436275706227	-0.0269879627443975
-0.01772641915934216	-0.01975675695608934	0.009298240277317744	-0.01104156706555824	-0.005402831508125096	0.008576272156021332	0.02992561974623142	0.009596710622889889	0.006979326642476317	0.01121152728345709	0.01972163681326996	0.008070618110019035	0.03361114151059605	-0.002807902853205807	-0.0174713846232488	0.00382585274039129	0.01338667038899399	0.006375617730659507	-0.003433269987743187	0.01962738451162713	-0.005451718282923573	0.01012248791943637	0.002821905299486446	0.00112548710694637	-0.02452765796775168	-0.00493069587185902	0.003879163500605026	0.009975276835214495	-0.01212662602394433	0.008749774402340571	0.01299957768015934	0.01083365585982866	-0.005561084473385252	-0.01498971660538237	-0.03151086153804961	-0.005279016166225144	6.236469601460617e-06	0.007241101476259068	0.01224595193198583	0.004637587853753642	0.01011495638983959	-0.006700939098959875	-0.02801327122122737	-0.02428939628086633	-0.02183514596420279	-0.003786932443300255	-0.0283967889096188	0.03387705436677674	-0.02433931889514311	-0.01331022456055585	0.01539106360646619	0.006510956262464593	0.01265226895977824	0.00871996100060784	-0.0002393329319999098	-0.02288404901589408	0.007440332916600526	0.003912445533844453	0.0149816773207471	-0.02151178037561057	-0.01189677285286321	-0.008035301240220729	-0.01610976572846512	0.004044612159753437	-0.00156948364481474	0.009716775774125835	0.006879273017093109	-0.01092756345646013	-0.01843572545080486	0.004878317084961633	0.01112607470873712	0.02996116542562718	0.0191243754748535	0.01696284505607462	0.02665126496545841	-0.003289055190627784	0.001692796232775226	-0.03016960108835965	0.03191015413512611	0.0009477402461155576	0.01108176372223213	-0.01541625553737398	-0.001061123121229175	0.0457262086058084	0.01289285210265774	0.01288899348014507	0.01414509476547736	-0.06538500030811599	0.05951693774638499	0.00804439964096422	0.0004213484137143578	-0.032999226121653	-0.05076035666339444	-0.01388314283445855	-0.06351714190634834	0.3645028503592119	-0.04170976604662113	-0.008601574809394162	0.004167023484944781	-0.009560112289460271	0.005362232432752309	0.01675919961625305	0.01907834021562879	-0.005222023422328248	-0.0001581536303005362	0.009637565224463735	-0.01325230370272485	-0.003010888336108008	0.01291870908779219	-0.003397969956478245	0.008398768846517659	0.004491949398973251	0.0178701051753274	0.02658739938407029	0.0138555303732523
-0.007810448791669014	-0.0111612746952077	0.003393225778968071	0.005403925300428394	0.006042997396601943	0.006199147274583401	-0.0005549233500051181	-0.00504028823831997	0.005245859397365122	-0.003047575538682049	-0.0004016616990482492	0.004061059855357106	-0.009342476796745249	0.0006461208156373152	0.0003215397270740146	-0.003539887298102225	-0.001481400137578794	-0.001741240149921813	0.003180351357711381	0.0007336342411686564	0.003475755961746474	-0.001647245775404063	-0.002900116275570577	-0.003000579943881112	-0.01650619241972939	-0.01311598387279388	-0.003145237044437967	-0.007062000295286203	-0.005416284868189895	-0.00599756121994444	-0.01441134253006525	-0.03331242133265999	-0.02511933308963572	0.031961986069752	-0.03668105877894418	0.381454592979244	-0.004473890728132857	-0.05213172030944113	-0.006413716231258203	-0.002663928728899022	0.003124331371049963	-0.01757713643103195	-0.04026607013778805	-0.04022775665354418	-0.1168371977045012	-0.01874210329355324	-0.01653647089355001	-0.003144223202163874	0.005683942242614677	0.001209343596218495	-0.0003105124288306024	-0.001705197896986924	-0.002133562136531225	0.001750808149318456	-0.01275433814000086	-0.002988123880203927	0.002808779722230316	0.00658380573738367	0.0001693003487434221	-0.002419581441837127	-0.0002681681035078741	0.005084228266637916	-0.0009637764904349433	0.00180414657585891	-0.005653306824196923	-0.004593606570652197	-0.004103071170012954	-0.0005556599638393325	0.006444697518921839	0.001400323023023106	-0.0001437927719263765	-0.002493418362930929	-0.003994721647497997	-5.251609528814629e-05	0.0004041789926202846	-0.01353775182192904	-0.005511428204384245	-0.002225623345609514	-0.0006892282517646821	0.003448601122010861	0.00758187734242395	-0.001534881370215482	0.005696885458114215	-0.004045112142571506	-0.003631822394661326	0.002984602247983084	-0.005681342544398718	-0.002255965584835701	0.0005081182791471952	0.002819627844590014	0.0003485559030840678	0.002851567624712575	0.006985951092934876	0.001241113332414576	0.0001970390685125133	-0.0061349117844404	-0.0006854408075818063	0.0004629430239460649	-0.005696805837728769	-0.001282959147889025	0.002843766141842268	-0.0008939737701080557	-0.002432058718604951	-0.007082801147182688	-0.001243535476537841	-0.0009233411967332821	0.0005038995519113259	1.127201701772326e-05	-0.008064145632107344	0.005540256662359842	0.001271577400802076	-0.001762994318679983	0.003458606980261195	-0.008443848811320459	-0.002971748603916578
-0.0108986039405624	-0.02122871704759023	-0.004504577668613374	-0.005550374736488116	0.00364818310062362	0.01731699738627488	-0.03055177972663137	0.006097437566560048	-0.008519334312222779	0.00603922316411595	-0.01046403867539093	-0.002357421445409459	-0.03829983950867205	-0.001156208308734732	-0.007465755843471596	-0.01345468973879797	0.01411344903620152	-0.006165315720786056	-0.01790835103535356	0.0406717815525643	-0.02285989352839349	0.005283913927023767	-0.007604723481410934	-0.0008504928232220055	-0.007595189133100903	-0.001794001635020789	-0.003303797691444494	0.01044492988869672	-0.01301897674012862	-0.002343674357585214	-0.00103774386441874	-0.0153716835782678	-0.002972745569336999	-0.0004009260142881355	-0.02088792607290945	-0.007227826459466536	0.003317374258958273	-0.0006962457413908204	-0.01123264068741103	0.02973094608789708	0.0172627257845919	-0.006413524103009416	0.01862582890531284	0.004915737406985836	0.003879089808451227	-0.01553294128655499	-0.01392078518383603	-0.0176337719751823	0.02939290507037135	-0.01609108502008303	-0.05316966222922245	-0.03436215695593616	-0.01721073332418458	-0.0140796378034479	0.009729150796841904	0.01237129452244826	0.005422986668550704	-0.006472329264955798	0.01304341535240478	-0.0114988418757941	-0.0126393174522142	-0.026628856651625	-0.02677995616210216	0.02165977200810949	-0.01662464113034474	-0.0007620829051175949	-0.01747664589497823	-0.02799763444237923	-0.008483973361816034	-0.01047747367407145	-0.01283414188061244	0.003199796103311622	0.01175939235086448	0.004083078442314935	0.01034645957296112	-0.005336772009053648	-0.01231590130249683	-0.005421616817926753	-0.009843108086296012	0.3769866112213991	0.02714173496031289	-0.01022836337477719	-0.004796302569657821	0.04363854239947695	0.009910159944882592	0.01093956003786704	0.009357861936573579	-0.02055293408529512	-0.001083722829886991	0.001817340511731701	-0.005968286951570279	-0.002695249457325616	-0.01008593785522289	-0.007113935012576643	0.0007193222564554731	-0.01398288214543008	-0.007711342274912887	0.001207761511159107	-0.006160776832742101	0.01853617634934371	-0.01859665886789789	0.02258505821681336	-0.02308728848773618	0.01667351248315862	-0.002818338011827122	-0.0001623643513672716	-0.01039955790750786	-0.002656127916336376	0.00262622371193702	0.00347755613895756	0.005580324839718002	0.04408125923369591	-0.01888081171173336	0.002933710546861643	0.007318829437943561
-0.003090899614491521	-0.003042188571687902	0.004178777087110355	-0.01871067256285683	-0.002911823323778135	-0.01169408525068718	-0.009009580841612273	0.00210026732561616	-0.005220291291554878	0.004552556116885019	-0.005865311586557672	-0.004247837228582765	-0.01889298183352959	-0.009962868652269826	-0.002359781748198341	-0.02816484286341985	-0.01292962587309871	0.3888814064609067	-0.01823095291946501	-0.003370602882989258	-0.00322164438269084	0.003157914125768207	-0.003755338329498674	-0.002790181081660675	0.006241411963213223	0.0002810740256676711	0.0006225472929614251	0.007310153248235149	-0.008202194176031331	-0.01374294470283624	0.00302495717995085	-0.0007884489845566318	0.0007737223151505189	0.00537977307941262	0.000420045625795816	0.003944428376470206	0.005447315293685609	0.01081231279320041	-0.0006639266219968657	-0.01723842271546829	-0.0173090880533656	0.006188595565083763	-0.001092937198721347	0.002758765210084928	0.001529327566525787	0.0003274435974057278	0.002064020751571369	-0.002876123003088758	-0.006471811593314327	-0.007378973562995955	-0.005307125788971248	-0.007737321343724751	-0.003056041067060096	-0.0006832393234175503	-0.004713957419058737	-0.008267454634613286	0.004642645126162822	0.0008503230393500796	0.003709632413228848	0.01775228120968245	-0.009551318073445621	-0.001016104990418761	-0.01148234445244777	0.002315038673894428	0.004182249448341245	-0.00348418276289791	-0.01899030253091163	-0.001314427339100929	-0.001701716758434175	0.003536812233552633	-0.006199076215692623	0.006431482347893776	0.006223915208453629	0.006092510082921133	0.01754288814443364	0.00879835618302046	0.01149205666482782	-0.001542610097650165	-0.006908857234338996	-0.001948513156931544	-0.01171814537510854	-0.008404581843489533	-0.002879819999848038	0.01369049597604466	-0.002894639151369009	0.002378445194244211	0.005524911483900225	-0.003370658335241276	0.001929066674921682	-0.0006530615962533406	0.0002112082433796364	0.004211186208316965	-0.0007978695512089891	-0.002373404843694491	0.002090671743523116	-0.007236952585388771	-0.002986412929934941	0.001546168015549927	-0.002018210629115411	-0.003115769549019301	-0.006263030940860941	0.009796617987942034	0.00465214108997757	0.003512405430805902	0.0006245622749072362	0.001320623587387816	-0.001741200814750037	-0.00209687562501419	-0.004483666194324531	0.005103106973085922	-0.002354442811406306	0.008550257111955156	0.01694106180034208	-0.01578395349999922	-0.008642421956160074
