-0.085902	-0.057869	-0.085858	-0.056672	-0.074948	-0.067218	-0.076408	-0.058783	-0.088281	-0.10089	-0.1157	-0.085009	-0.080917	-0.063389	-0.04676	-0.067715	-0.040327	-0.043182	-0.04754	-0.050656	-0.058009	-0.073968	-0.069895	-0.07851	-0.072079	-0.10361	-0.081555	-0.080329	-0.083299	-0.057848	-0.076829	-0.052347	-0.066238	-0.05241	-0.044817	-0.072205	-0.080053	-0.057977	-0.08581	-0.042923	-0.073621	-0.069094	-0.069441	-0.072584	-0.11571	-0.057921	0.98964	-0.010895	-0.12351	-0.070386	-0.046504	-0.080032	-0.0767	-0.079084	-0.016372	-0.15195	-0.089142	-0.04818	0.58204	-0.10766	-0.14531	-0.091333	-0.082899	-0.044393	-0.049695	0.021331	-0.066635	-0.078664	-0.082822	-0.14009	-0.23199	0.25829	-0.3158	-0.22246	-0.20179	-0.036353	-0.061263	-0.046433	-0.06538	-0.090906	-0.065763	-0.051247	0.075981	0.065725	0.12904	-0.075616	2.8641	1.5133	1.1836	-0.12944	-0.020006	0.13121	-0.12115	-0.24568	-0.024437	0.41382	0.17001	-0.051989	-0.11231	-0.18817	-0.14956	-0.099875	-0.070089	-0.047441	-0.08405	-0.087747	-0.069134	-0.12719	-0.084721	-0.11702	-0.044376	-0.055759	-0.074595	-0.069617	-0.088873	-0.077905	-0.11136	-0.083988	-0.090512
-0.0022382	0.011648	0.01042	0.0021469	-0.0025101	0.0055096	-0.011391	-0.051719	-0.16423	-0.12611	-0.16686	-0.10962	-0.045455	-0.001882	0.013671	-0.002744	0.015121	0.023214	0.010591	0.024071	0.030722	0.020647	-0.0093489	-0.048977	-0.09743	-0.17195	-0.12452	-0.053032	-0.028317	0.036795	0.031797	0.017857	0.0057826	0.015401	0.011169	-0.096992	-0.17661	-0.061841	-0.030732	-0.025357	-0.010882	0.012712	-0.038296	-0.099342	-0.14819	-0.12183	1.5601	0.3364	-0.070758	-0.11063	-0.009722	0.011984	-0.009486	-0.019882	0.54922	-0.054244	0.036546	0.0027894	0.60508	0.025176	-0.11525	-0.03787	-0.0023527	-0.0052499	-0.0089157	-0.0038907	-0.018619	-0.048483	-0.046964	-0.088099	-0.096277	0.28494	-0.042131	0.29117	-0.00030005	0.0087377	-0.019304	-0.017959	-0.0049356	0.013627	-0.022399	-0.022682	0.0023368	0.06563	0.20863	0.28791	1.6278	0.78501	0.85173	0.35826	0.00708	-0.022889	0.016795	0.18413	0.088084	1.743	2.4179	-0.15021	-0.13238	-0.15169	-0.1742	-0.088457	-0.020589	0.0045107	-0.047697	-0.083896	-0.083123	-0.12207	-0.19903	-0.1329	-0.028068	-0.019304	-0.029225	-0.0020203	0.0080458	0.0089949	-0.065677	-0.094972	-0.145
-0.010101	-0.020301	-0.0096443	-0.015611	-0.01585	-0.014975	-0.022603	-0.03648	-0.069167	-0.066678	-0.078956	-0.053216	-0.029498	-0.0092356	0.0016684	-0.017555	-0.0076955	0.0034122	-0.0056999	-0.0042598	-0.010447	-0.011273	-0.020298	-0.039739	-0.050051	-0.081743	-0.066247	-0.040233	-0.027787	0.01742	0.0037941	0.0028208	-0.012587	-0.00091688	-0.0022034	-0.066996	-0.10674	-0.042743	-0.029888	-0.038407	-0.022152	-0.00617	-0.027638	-0.091426	-0.11543	-0.13417	1.5964	0.066455	-0.10521	-0.088293	-0.028005	-0.021285	-0.023506	-0.023969	0.13802	-0.056332	-0.01029	-0.014563	0.54896	-0.051518	-0.076196	-0.043133	-0.026571	-0.021707	-0.008986	0.010246	-0.014855	-0.025095	-0.029113	-0.061831	-0.11759	0.26524	-0.067537	-0.023717	-0.039826	-0.0049467	-0.0070778	-0.015163	-0.016432	-0.011636	-0.0090023	0.002395	0.020811	0.026093	0.084946	0.007607	1.384	0.85417	0.80818	0.015345	-0.0087459	0.044481	-0.029916	-0.043652	0.058131	0.46508	0.36914	0.010735	-0.038633	-0.077225	-0.06408	-0.029442	-0.023768	-0.017445	-0.037715	-0.037848	-0.012882	-0.042652	-0.073503	-0.055474	-0.012927	-0.010274	-0.025259	-0.0012468	-0.011728	0.0040277	-0.049456	-0.050062	-0.081051
-0.13709	-0.12098	-0.090194	-0.0829	-0.11383	-0.053034	-0.13038	-0.042664	-0.23759	-0.14413	-0.23096	-0.20725	-0.13285	-0.086375	-0.14998	-0.16258	-0.13957	-0.093671	-0.11658	-0.1034	-0.088335	-0.092404	-0.057729	-0.099275	-0.15674	-0.26343	-0.15923	-0.024125	-0.079832	0.0083591	-0.040887	-0.11948	-0.09244	-0.0339	-0.042365	-0.087099	-0.19682	-0.088899	-0.13749	-0.10582	-0.115	-0.11764	-0.091504	-0.16216	-0.23888	-0.20826	-0.41187	-0.25814	-0.19862	-0.15449	0.01671	-0.098703	-0.086577	0.18454	0.063611	0.16203	0.43068	0.073281	0.77019	0.33701	0.326	0.13328	-0.14956	-0.23655	-0.16668	-0.15183	-0.29816	-0.30464	-0.17202	0.10192	0.3634	0.4318	1.1616	0.25244	0.29376	0.14309	-0.17421	-0.2176	-0.18368	-0.14187	-0.17092	-0.15596	0.0212	0.34687	0.18503	0.073917	0.17243	0.044846	-0.10072	-0.17232	-0.032295	0.063385	-0.13149	-0.17667	-0.204	-0.43725	-0.5604	-0.31598	-0.1651	-0.17401	-0.12997	-0.079072	-0.13074	-0.15535	-0.12083	-0.066475	-0.059393	-0.12327	-0.14007	-0.095631	-0.065494	-0.074829	-0.11797	-0.088214	-0.084973	-0.035513	-0.14505	-0.063224	-0.12185
-0.097252	-0.12308	-0.058318	-0.15183	-0.10451	0.027897	0.12426	0.083292	-0.099139	-0.0049186	-0.045977	-0.019619	-0.0022665	-0.079376	-0.25098	-0.31781	-0.19052	-0.11512	-0.10799	-0.099854	-0.013973	0.1488	0.25329	0.29995	0.099293	-0.011396	0.049135	0.5383	0.61101	1.042	0.6515	0.21229	0.18304	0.46475	0.16976	0.16669	-0.048446	-0.054574	-0.00016212	-0.0041076	-0.046314	-0.04288	-0.063264	-0.10394	-0.11876	-0.1161	-0.0098728	-0.10485	-0.076326	-0.098343	-0.094411	-0.067725	-0.086857	-0.047373	-0.068954	-0.097	-0.037095	-0.08043	-0.055882	-0.067286	-0.076029	-0.086631	-0.076685	-0.08743	-0.085322	-0.1025	-0.026829	-0.067505	-0.089285	-0.096459	-0.11952	-0.083049	-0.14931	-0.057227	-0.08177	-0.064579	-0.045285	-0.074201	-0.072665	-0.048677	-0.065957	-0.098599	-0.03694	-0.052668	-0.061934	-0.041682	-0.011026	-0.027866	-0.010882	-0.046651	-0.044236	-0.077743	-0.097136	-0.11175	-0.12466	-0.0016623	0.029845	-0.12914	-0.096246	-0.0835	-0.090667	-0.064703	-0.055544	-0.070551	-0.03593	-0.050206	-0.014116	-0.079728	-0.045617	0.044191	0.056547	0.04096	-0.036249	-0.0050819	0.10614	0.14788	0.047902	0.11387	-0.019065
0.025187	0.03913	0.054647	0.022431	0.06313	0.050124	-0.0053501	-0.033658	0.034502	0.024299	0.073822	0.12824	0.062626	0.066247	0.034429	0.0064421	0.061866	0.017889	-0.02596	-0.015122	-0.0075274	-0.0032126	0.082329	0.36815	0.21939	0.070201	0.082351	0.36066	1.2296	-0.39247	-0.26983	-0.1324	-0.24999	-0.73015	-0.425	0.31119	0.080953	-0.026628	-0.13226	-0.24093	-0.078039	0.02861	-0.08379	-0.112	0.0059648	-0.063325	-0.016636	0.044832	0.034976	0.0056077	-0.059432	0.028333	-0.015615	-0.030603	0.043714	0.045274	-0.018172	-0.0031504	0.086788	0.028666	0.020691	-0.015568	0.0090167	0.0036528	0.0048379	0.017981	0.040377	-0.019045	-0.017565	0.027767	0.057324	0.057108	0.12552	0.020398	0.059836	-0.045506	0.016391	0.038129	0.022446	-0.018276	0.01604	0.0058241	-0.011068	-0.0029594	-0.013762	0.10475	0.083154	0.013981	-0.0048472	0.056104	-0.0037752	0.0051329	-0.017443	0.075507	0.097808	0.0093283	-0.015903	-0.054074	-0.014828	0.02867	-0.050771	0.042029	0.0072391	0.019185	-0.013137	-0.10265	-0.13935	0.18698	0.057012	0.15683	-0.087258	-0.11924	-0.019333	0.026367	0.0054809	0.086094	0.16876	0.18795	0.05422
0.10013	0.025811	0.022313	0.0056439	-0.073269	0.045707	-0.079172	-0.10973	0.024779	-0.0055443	-0.0055074	-0.063847	-0.11105	0.073582	0.029317	0.0089684	0.10106	0.023916	0.015133	0.0070061	0.031518	0.096806	0.031158	-0.012671	0.018017	-0.063849	-0.043534	-0.021565	0.091305	0.074013	-0.040818	0.012157	-0.021456	0.014919	-0.022631	0.019514	-0.06404	0.10442	0.050225	0.0071349	0.034842	0.03759	0.05563	0.002606	0.12564	0.031633	0.026016	-0.041816	0.044824	-0.015568	0.011182	0.0653	0.11079	0.039443	-0.20964	-0.0027808	1.3056	0.25976	-0.2672	-0.19685	0.075375	0.07152	0.15096	0.047292	0.042221	0.084628	-0.011649	-0.010101	0.10816	-0.010968	-0.017641	-0.05554	-0.058013	-0.094722	-0.016088	0.010607	0.043444	-0.07063	0.017606	-0.03255	0.023456	0.044181	-0.019862	0.032269	-0.0020116	-0.075457	0.074795	0.0026922	0.064411	-0.063282	0.059025	0.059879	0.0047069	-0.061703	-0.10724	0.010738	0.061787	0.15044	-0.024936	-0.005992	-0.13652	0.085404	-0.047399	-0.018056	0.050865	0.016108	0.085837	0.099917	-0.035255	0.045654	0.011223	0.074524	0.021804	0.063996	0.0899	0.12404	-0.0026025	0.10269	-0.017936
-0.035239	-0.0148	0.023471	0.032209	0.0080066	0.012523	-0.021501	0.014864	0.01232	-0.055915	-0.041808	-0.050443	0.0083236	0.014852	-0.01362	0.025813	-0.014784	0.053561	0.02896	-0.028106	0.016534	0.075404	0.034894	-0.017642	-0.0089171	-0.0072574	-0.019853	0.009655	0.055822	0.011274	0.0019498	0.0093699	0.028756	-0.042579	0.057262	-0.010545	-0.0087772	0.1187	-0.017816	0.045036	-0.03653	-0.0029763	-0.015382	0.021169	-0.047329	-0.037354	0.052197	-0.031807	0.016639	-0.014101	0.049358	-0.045329	-0.043357	0.010088	-0.041704	-0.12897	-0.11676	-0.02896	0.01074	-0.036531	0.03677	-0.084161	-0.044528	-0.011764	-0.014224	0.018685	-0.05726	-0.0042353	0.021052	-0.040777	-0.044235	-0.06037	-0.11902	0.0045841	-0.015895	0.14244	0.066211	0.082423	0.012399	0.0081412	0.0046292	0.11621	0.37441	0.19324	0.28935	0.21184	-0.11124	-0.063786	-0.011108	-0.053481	0.18827	1.0552	0.39435	-0.20694	-0.28249	0.10123	-0.031706	-0.033191	0.16103	-0.1731	-0.25632	0.11103	0.0019516	0.042097	-0.097849	-0.061387	-0.12065	0.063856	-0.00042368	0.063143	0.09491	-0.016494	-0.016922	0.056697	0.0012002	-0.0059062	-0.070859	-0.01703	-0.0036478
0.012465	-0.016982	0.0053187	0.038424	0.011911	0.10729	0.005004	-0.061395	0.0061728	-0.031171	0.0014311	-0.0089184	-0.040024	0.021077	-0.033853	0.030819	0.054189	-0.01012	0.031754	0.050265	0.020077	-0.038374	-0.0034424	0.047684	-0.041525	-0.049343	-0.0097878	0.0022114	-0.087902	0.061347	0.019523	-0.057857	0.047308	-0.021389	0.025434	0.024707	0.010052	0.0016541	0.044612	-0.018517	0.037285	-0.043503	0.032609	-0.0064835	-0.016311	0.012721	0.033511	-0.029847	-0.021906	-0.0027978	-0.080702	0.037085	-0.007951	0.023054	-0.12267	0.044548	0.039184	0.011621	-0.023171	-0.080587	-0.070067	-0.0067634	-0.0025651	0.0019322	0.057107	0.040242	-0.04569	-0.020029	-0.036461	0.045123	0.022014	0.005758	-0.15037	0.019147	-0.04266	0.06621	0.011073	0.029524	-0.015457	0.063103	-0.10277	-0.017869	-0.067577	0.039028	-0.090631	1.189	0.071661	0.016877	-0.10208	0.10489	-0.077111	-0.11593	-0.056827	0.042035	0.04713	-0.094273	-0.11499	0.0077811	-0.03396	0.0037519	0.00096221	-0.024141	-0.018939	-0.0021472	0.03659	-0.058647	0.035808	-0.030551	-0.042529	0.032723	-0.017531	-0.040229	-0.012477	-0.021551	0.021935	0.029326	0.034445	-0.018333	-0.0015762
-0.0068611	-0.019375	-0.0013934	-0.0010761	0.037715	-0.025043	-0.058363	-0.018728	0.036533	-0.045525	-0.065096	-0.080346	-0.029948	-0.023642	-0.05058	-0.07978	0.0018203	-0.029542	0.08232	0.011253	0.0091661	-0.020437	-0.040492	0.031279	-0.021566	-0.077095	-0.15518	-0.060314	0.028728	0.059269	0.11911	0.03205	-0.0062867	-0.04195	-0.029628	-0.073525	-0.023312	-0.089662	-0.0081699	-0.022711	-0.07686	0.019359	-0.02372	-0.10284	-0.034542	-0.12506	-0.16091	-0.17639	-0.13874	-0.067387	-0.074223	-0.032209	-0.050127	-0.01383	-0.085495	-0.061531	-0.089681	-0.038082	0.040137	-0.029805	-0.039139	-0.040737	-0.027383	-0.053869	-0.0975	-0.010449	-0.033787	-0.052213	-0.0063727	0.028183	0.050028	0.055679	0.11427	-0.041536	0.0029543	-0.026698	0.034009	-0.020351	-0.03944	-0.091047	-0.012198	-0.032106	-0.0011913	0.01065	-0.026975	0.013414	-0.023196	0.06905	0.094478	0.042844	0.038732	0.081349	0.062665	0.11928	0.19813	0.028144	0.10162	0.96104	0.31817	0.20227	0.068683	0.061036	-0.088319	-0.13974	-0.038031	0.026548	0.074248	0.17534	-0.099186	0.038447	-0.052223	-0.031078	-0.027265	-0.038973	0.025213	-0.02555	0.053092	0.013852	0.012615
0.16982	0.51947	0.38116	0.35214	0.030872	0.008388	-0.026785	-0.025431	-0.030697	-0.002933	-0.065291	-0.048465	-0.054464	-0.042366	-0.11795	-0.072774	0.24004	0.67747	0.16472	0.2219	0.074601	-0.013817	-0.041221	-0.001265	-0.081402	-0.10581	-0.10195	0.022395	0.0030114	0.063027	0.037294	0.013249	-0.012593	-0.025799	-0.0026541	-0.040181	-0.065932	-0.082288	-0.062748	-0.079806	-0.1142	-0.052953	-0.049869	-0.066859	-0.010357	-0.050393	-0.012142	-0.051122	-0.031019	-0.033415	-0.032811	-0.089578	-0.080303	-0.0020949	-0.043692	-0.077806	-0.023977	-0.060064	-0.019367	-0.054608	-0.021939	-0.052497	-0.073872	-0.11359	-0.09253	-0.023257	-0.10612	-0.051797	-0.05127	-0.036055	-0.036164	-0.042739	-0.036259	-0.031033	-0.0092669	-0.046191	-0.069766	-0.12711	-0.046889	0.20043	-0.025887	-0.084086	-0.0453	-0.048975	-0.050625	-0.075444	-0.020566	-0.0017094	-0.034946	-0.022442	-0.016002	-0.0087687	-0.085853	-0.04981	-0.040971	0.010748	-0.031093	-0.023416	-0.059749	-0.063658	-0.05984	-0.064164	0.11772	0.12135	0.051632	-0.096134	-0.060385	-0.054048	-0.048861	-0.058533	-0.086538	-0.049138	0.032762	0.079988	-0.0046207	-0.016302	0.0062232	-0.054436	-0.035525
-0.11313	-0.18784	0.071622	-0.019569	-0.026843	0.0015418	0.011019	-0.038064	-0.058104	0.038047	-0.073118	-0.037599	-0.03765	-0.013223	-0.049798	-0.093876	-0.12249	-0.13795	-0.065487	-0.1275	-0.074065	-0.016049	-0.041831	-0.049389	-0.0090659	-0.067209	-0.059964	-0.078377	-0.046302	-0.041476	-0.053196	-0.0077062	-0.010764	-0.074594	-0.0014484	-0.081669	-0.094219	-0.050398	-0.068723	-0.053641	-0.038472	-0.023994	-0.061754	-0.058307	-0.11952	-0.071097	-0.032377	-0.035606	-0.065783	-0.082034	-0.037899	-0.06252	-0.097032	-0.063048	-0.072204	-0.022324	-0.011038	-0.043455	-0.057617	-0.067691	-0.071295	-0.062591	-0.044239	-0.028895	-0.094253	-0.040842	-0.093866	-0.022956	-0.073287	-0.037482	-0.051736	-0.012597	0.011935	-0.0030643	-0.016226	0.018927	-0.03063	-0.074255	-0.088751	-0.018106	-0.035493	-0.02804	-0.068767	0.055349	0.0068687	-0.0046781	-0.00055879	0.024278	0.0102	0.042295	0.0096721	-0.018574	0.061897	-0.00060977	-0.009461	0.037015	0.0010349	-0.090142	0.047298	0.058049	0.048993	0.071436	0.29867	0.68157	0.34527	0.21815	0.15334	0.1815	-0.080386	0.23356	-0.049129	0.079952	0.27808	0.34599	0.18081	0.025988	0.15937	0.035705	-0.0053527
0.01746	-0.00057977	0.018334	0.012256	0.013197	0.022301	-0.051193	0.0041476	-0.047201	-0.021264	-0.034585	-0.021106	-0.029403	-0.045869	-0.014956	0.014506	0.0076057	0.0091975	-0.0039172	-0.0038027	0.012541	-0.008054	-0.0099433	-0.040845	0.017019	-0.039992	-0.056029	-0.010576	0.020883	0.095596	0.024236	0.031332	-0.034847	-0.045674	-0.022766	-5.82e-05	-0.05538	0.055541	0.01013	0.0023671	0.074172	-0.087844	0.01476	-0.026127	-0.052692	-0.055567	-0.007049	-0.042097	-1.5266e-05	-0.066291	-0.05496	0.058588	0.024228	0.017856	1.0355	-0.0012826	0.064207	0.047048	-0.30637	-0.0023333	0.043681	-0.034756	0.0017355	0.049155	0.011921	0.030919	0.00039408	-0.0044075	-0.019597	-0.022752	-0.040328	0.025439	-0.082183	0.054359	-0.013562	0.026612	-0.085296	0.0063649	0.038184	0.052159	0.086522	-0.039431	-0.015181	0.0019023	0.056064	0.051453	0.10802	-0.002882	-0.012607	0.035368	0.028435	0.054093	0.0068512	-0.084881	0.024283	-0.32337	-0.017168	0.056056	0.083326	0.064404	0.082383	-0.053295	-0.010022	0.025742	0.025361	-0.022292	0.010928	0.069701	-0.011462	0.023151	-0.041203	0.034989	0.0072619	0.042101	-0.0027422	-0.019373	-0.054959	-0.00028075	-0.018814
-0.0021355	0.018751	0.0076161	0.026203	-0.010495	0.014752	-0.029643	0.014043	0.036125	0.067578	0.0045434	-0.055949	0.0064924	0.028948	0.031666	0.0095663	0.016063	0.041387	0.011252	0.041645	0.037969	-0.0046486	-0.059979	-0.017372	0.0288	0.018272	-0.010413	-0.099296	-0.11807	0.073145	0.015571	-0.0068211	0.048856	0.056795	0.0016388	-0.0028733	0.0012115	-0.0050992	0.048888	-0.066348	-0.0018312	0.10416	0.0069952	-0.021761	-0.015589	-0.043679	-0.01312	0.0051368	0.066283	0.06075	-0.0025873	0.045436	0.031411	0.11444	0.01745	-0.026681	-0.040104	-0.004679	0.016806	-0.0073277	0.033239	0.011121	-0.0052036	0.022077	0.011474	-0.028199	-0.001617	-0.024451	0.038274	-0.01662	0.050429	0.0038352	0.045853	-0.07531	0.021374	0.054267	0.044213	0.027172	-0.027258	0.021175	-0.0061398	-0.048896	0.063073	0.057549	0.0038658	-0.034819	0.014826	0.030282	0.030315	0.016929	0.022619	-0.085716	-0.056164	0.045175	0.0082734	-0.009439	0.029031	-0.0010235	-0.089754	-0.047109	-0.086657	-0.095931	-0.0036743	-0.10942	-0.025296	-0.064989	-0.3023	0.0026657	0.12219	1.0173	-0.070356	-0.015454	-0.050472	-0.02778	0.015333	-0.013789	-0.065392	0.1766	0.12598
0.010554	-0.0090657	0.0082592	0.011728	0.0044196	-0.0071069	-0.047187	0.033811	-0.035338	0.01426	0.00094614	0.0599	0.022233	0.003523	0.04135	0.030294	-0.0042254	0.026164	0.0039007	-0.017815	0.022491	-0.029227	0.023747	-0.087514	-0.0028931	-0.004641	-0.017475	-0.0088417	-0.072416	0.059604	0.045074	0.069097	0.025751	-0.0048338	-0.0079669	-0.030343	-0.035184	0.039797	0.019225	0.030576	0.0062605	0.0096864	-0.00010476	-0.0065772	-0.021839	0.02844	0.0063631	-0.011079	-0.0050517	0.0046532	-0.028068	0.0090258	-0.0042662	0.051069	0.041152	0.082987	0.026378	0.02141	-0.0002368	-0.0035303	0.032822	0.034486	0.017929	-0.015023	0.033482	0.0019832	0.01467	0.044153	0.01429	0.0086921	-0.060308	0.016715	0.057205	0.040417	-0.039484	0.00079485	0.013531	0.057951	0.017519	-0.022749	0.0028276	0.020132	-0.011634	0.03173	-0.034577	-0.019438	0.038466	-0.020589	-0.013524	-0.0030611	0.026025	0.072842	0.0095167	-0.044362	-0.029729	0.0048328	-0.0069189	0.0090845	-0.049239	-0.10574	-0.0054963	0.0051629	0.0094995	-0.066376	0.015293	-0.02579	-0.01482	-0.10033	0.052326	-0.0048265	-0.10139	-0.086615	-0.061164	-0.042076	-0.13696	-0.214	1.0225	0.11553	0.03519
-0.10073	-0.0074118	-0.036162	-0.031898	-0.024309	-0.024161	-0.029776	-0.057459	-0.038718	-0.026942	-0.046766	-0.019775	-0.06465	-0.02791	-0.019576	0.0077177	0.0083845	-0.016205	0.28238	0.089485	0.10838	0.088273	-0.00085656	-0.070435	0.0042077	-0.0031072	-0.052476	0.0035408	0.084058	-0.11633	-0.025599	0.23953	0.21123	-0.05144	-0.05737	0.10466	-0.050741	0.030482	0.10432	0.10767	0.37407	0.62906	0.1276	0.042652	-0.018673	0.0071824	0.0076511	-0.043178	-0.060012	-0.017381	-0.010355	0.33179	0.083306	-0.018606	0.0069763	-0.031263	-0.064178	-0.034591	0.029338	-0.025141	-0.07853	-0.069812	-0.11029	-0.11715	0.032485	0.2006	-0.24659	-0.16505	-0.089611	-0.087064	-0.054665	-0.036419	0.0044464	-0.014304	-0.037437	-0.0070808	-0.081583	-0.10828	-0.12015	-0.091149	-0.039243	-0.07235	-0.06479	0.0069545	-0.02256	-0.027099	-0.0041634	-0.024444	-0.033015	-0.047069	-0.060502	0.007229	-0.016932	-0.043141	-0.032457	-0.010262	-0.0063245	-0.024883	-0.026413	-0.020282	-0.010038	-0.00081549	-0.015257	-0.0028356	0.019429	0.015659	-0.013375	-0.00528	-0.044733	-0.044969	-0.022327	-0.0097176	0.0082641	0.031397	0.0024657	-0.025576	-0.0096785	-0.014534	-0.03004
-0.023731	0.050134	-0.010395	-0.010011	-0.00057167	0.021901	0.0050715	-0.03549	0.11188	0.037193	0.044173	-0.030368	-0.042741	-0.051915	0.044764	0.0091137	0.030481	0.046778	0.018484	-0.03181	0.0026955	-0.027771	-0.051336	-0.059903	0.023656	0.0685	0.048662	-0.024261	-0.19007	0.0010991	-0.0095152	0.031085	0.025766	0.052263	0.086443	0.97108	0.18176	0.17485	0.065372	-0.061446	-0.043722	-0.072856	-0.02624	-0.042449	-0.011236	-0.017114	-0.0029958	-0.036141	0.012365	-0.039329	0.02253	-0.060576	0.00033632	-0.013838	0.031504	0.04109	0.0070993	-0.010923	0.034547	0.046038	0.031495	0.021233	-0.020834	-0.041289	-0.05292	-0.040405	-0.021223	0.011897	-0.028926	-0.03567	-0.034779	0.053593	0.14099	-0.066236	-0.039558	-0.045616	0.023532	-0.038509	0.010381	0.016583	0.028152	-0.040433	-0.0050085	-0.01372	-0.0092149	-0.0021832	0.024424	0.0072832	0.020519	0.024669	-0.016519	0.034439	0.039078	0.03201	-0.0072694	0.01035	0.029882	0.060008	0.070808	-0.044448	0.014394	0.022879	0.014438	0.087078	0.032843	0.020478	0.08137	-0.049034	-0.021725	0.0089714	0.010588	-0.0094979	-0.0033716	0.019075	-0.0054656	0.11325	0.031989	-0.025736	0.037272
0.051366	-0.010255	-0.070328	-0.010416	-0.03896	0.0004806	-0.028112	0.0080826	0.0056313	0.0035559	-0.010621	-0.00089581	-0.030076	0.0010373	0.032726	0.051987	-0.012035	0.0087596	0.040597	0.0017421	0.013701	0.030017	0.0081212	-0.052474	0.026497	-0.0054305	-0.061826	-0.017547	0.046158	0.081725	0.095071	-0.027044	0.038963	-0.034605	-0.014738	-0.015864	-0.048947	-0.05555	0.064304	0.06891	0.0074078	-0.034037	-0.0062621	-0.074992	0.96556	-0.002879	0.017995	0.044287	-0.062122	-0.026885	0.035878	-0.048807	-0.022304	-0.016393	0.054304	0.015981	-0.075485	-0.034849	0.046549	-0.00032615	0.085548	0.018702	-0.045727	-0.010642	-0.053362	-0.01238	-0.064493	-0.071283	0.02722	0.045637	-0.032004	0.021708	0.12243	-0.040818	-0.067245	-0.0024337	-0.017324	0.055583	0.001548	-0.044491	-0.0091572	0.027771	0.026914	0.0141	0.022606	0.030251	0.048409	-0.024272	-0.034248	0.007299	0.026763	0.022985	0.018869	0.038103	-0.023654	0.038843	-0.041708	-0.018885	-0.011438	0.025781	0.047029	-0.065056	-0.0053627	0.10271	0.051739	-0.0057086	0.048625	-0.040979	-0.069908	0.031189	-0.016108	-0.020822	0.00054647	0.05899	-0.015353	0.015486	-0.0086441	0.065946	-0.01095
-0.039539	-0.10134	0.052973	0.16237	0.817	0.26139	0.01248	0.041789	-0.01841	-0.069805	-0.012053	-0.010207	-0.012215	0.030515	0.051786	0.088371	0.050664	-0.14356	-0.026092	0.084234	0.042416	-0.014574	0.013473	-0.019814	0.0028522	-0.042954	-0.10767	-0.0232	-0.0043289	-0.041667	0.050589	0.045868	-0.030384	0.04945	0.019017	0.034093	-0.041234	-0.027531	0.080499	0.026348	0.023633	-0.036258	-0.028379	-0.084967	0.0055357	-0.073437	-0.014409	0.00020344	-0.074759	-0.0020219	-0.035077	-0.006557	-0.017614	0.015266	-0.033655	-0.0031443	0.0033417	-0.014165	-0.0031839	-0.023439	0.040136	0.015946	0.0088504	-0.0095521	0.011615	-0.025159	0.07861	-0.079904	-0.036613	0.026582	0.02766	-0.032618	-0.035443	-0.011131	0.0084679	-0.03202	-0.0028644	-0.035961	0.006492	-0.073941	0.00024325	0.01723	-0.010044	-0.0032922	-0.018014	-0.053225	0.037922	-0.022195	-0.021737	-0.075019	-0.034791	-0.0057452	-0.0016723	-0.04806	-0.028661	-0.0319	0.020521	-0.045916	-0.036341	-0.051254	0.012142	-0.033393	-0.0093498	-0.079176	-0.068973	-0.011732	-0.018169	-0.044795	-0.033003	-0.012187	0.05676	-0.079141	0.052929	0.17251	0.13106	0.046486	0.0044837	0.062743	-0.0076447
-0.036805	0.014234	-0.016204	-0.014224	-0.0091383	0.013386	-0.025812	-0.04972	0.019273	-0.024498	-0.0035653	-0.032145	-0.014692	0.020995	-2.3353e-05	-0.012882	-0.0065206	0.0068054	-0.019614	-0.0063807	0.0025026	0.016924	-0.017783	-0.0070606	-0.05856	-0.03457	-0.040103	-0.061808	0.057859	0.021214	-0.0009834	-0.022005	-0.030164	-0.068884	0.096469	-0.17465	-0.021388	0.85956	0.14245	-0.1124	-0.051773	-0.0015273	-0.034941	-0.086706	0.027692	0.0086903	-0.0011298	0.035917	0.040057	-0.037204	-0.13255	-0.0057307	-0.052835	-0.058673	-0.028494	-0.069206	-0.064465	-0.066807	0.02999	-0.02145	0.0031139	-0.008805	-0.030396	-0.0066551	-0.010609	-0.010213	0.021889	-0.0075969	-0.01049	-0.036787	-0.026048	-0.0045718	0.054525	-0.039947	0.014118	-0.053929	-0.036694	-0.010159	-0.0088033	-0.029109	-0.01207	-0.022308	-0.036678	-0.025019	-0.023722	-0.001262	-0.012085	-0.0051194	-0.0025009	-0.039998	0.028002	-0.095089	-0.042375	0.020124	-0.049994	-0.013203	0.021744	0.022516	0.00087734	-0.023634	0.003981	-0.012394	0.022453	-0.0023167	-0.017892	-0.020071	-0.050729	0.019915	-0.0010535	-0.02708	0.041487	-0.0062436	-0.0016215	0.0018004	-0.001626	0.035282	-0.0037835	-0.0062427	-0.0067182
0.0028487	0.029403	-0.0012484	0.024342	0.092214	-0.0082909	0.00069213	0.0020533	0.03112	0.016677	0.0024939	-0.0035333	0.01934	0.019188	0.0036274	0.022886	0.0088949	-0.016504	0.025613	-0.019045	0.025369	0.052162	0.032083	-0.00037345	0.040051	-0.010923	0.0044334	-0.019817	0.010149	0.097924	0.092967	0.028208	-0.0094219	-0.036062	0.025617	-0.018863	-0.029308	-0.03974	-0.025515	0.028662	0.038577	0.022168	0.016858	0.088992	0.013118	0.041546	-0.0086121	0.027727	0.86848	-0.026001	-0.039966	-0.010472	-0.026338	-0.012341	0.020336	-0.024105	0.012109	-0.024261	0.11119	0.077903	0.0020183	-0.0049581	-0.033929	-0.030362	0.0085181	-0.01482	-0.071098	0.0289	-0.038695	-0.013942	0.040679	0.025923	0.05734	0.013795	0.040575	0.062873	0.013957	-0.012492	0.014113	-0.043902	0.0241	0.0021135	-0.052618	0.029926	0.0089977	0.015373	0.058191	-0.011935	-0.022178	-0.022937	-0.0031185	0.0011214	-0.0050949	8.9084e-05	0.070678	0.034418	-0.059852	0.096759	0.02926	-0.0085886	-0.018025	0.013303	0.014137	0.069211	-0.0043286	0.0040256	0.047498	-0.014745	0.002095	-0.030318	-0.046591	-0.032988	0.020594	0.070694	0.039927	-0.02434	-0.0052419	-0.033789	-0.017581
-0.043945	0.0029186	-0.03545	0.0052112	0.009345	-0.010385	-0.0078314	0.049119	0.74872	0.17552	0.22621	0.096949	0.015213	0.0065469	-0.010346	-0.013484	0.0040851	0.0032117	0.062096	0.026458	-0.0040251	-0.02781	-0.0097793	0.026668	-0.013166	0.068664	-0.10709	-0.12843	0.028565	0.051087	0.084504	0.084098	0.010364	-0.018156	-0.031863	-0.12582	-0.053731	-0.054317	0.033061	-0.054823	-0.018207	0.022593	-0.040326	-0.031661	-0.04796	-0.089671	-0.02311	-0.065905	-0.04885	-0.043494	0.0062191	-0.0082472	-0.023134	-0.033307	0.044834	0.0067824	0.036323	-0.049927	0.0016697	-0.0057192	0.010429	0.033742	-0.019905	-0.049329	0.00056581	-0.0087531	-0.080588	-0.032258	0.0092143	-0.018457	-0.0036214	0.034138	0.071709	0.0030948	0.02498	0.013296	0.03722	0.01113	-0.021151	0.072141	-0.016788	-0.040809	-0.033287	0.059425	0.04125	0.025823	0.028462	0.014817	0.018211	-0.011601	0.011481	0.011921	-0.003445	-0.014177	-0.033543	0.0048574	0.04111	-0.10307	-0.001917	-0.0034635	0.022087	0.015903	-0.027997	0.0076079	0.00041579	0.046905	0.083543	-0.025358	0.14412	-0.080411	0.037046	-0.019576	0.00041863	0.012023	-0.010914	0.058119	-0.0067869	0.040657	0.19691
0.0070796	0.038756	0.029792	-0.00109	0.014382	-0.02617	0.016968	0.0069114	0.036615	-0.014307	0.021606	-0.015763	0.0027571	0.0010867	-0.0036768	-0.029753	-0.047363	-0.0011421	0.03173	0.051614	-0.0085308	0.016355	0.018488	0.012995	-0.0066552	0.019625	0.011638	0.0050427	0.0046568	0.021838	-0.03223	0.014679	0.014112	0.034646	-0.0062359	0.055139	0.023146	0.049552	0.058719	-0.029031	-0.021262	-0.0058381	-0.0048307	-0.010725	0.064907	-0.023	-0.028929	0.050765	-0.019608	-0.0080348	0.054196	0.027573	0.021928	0.032448	-0.074564	-0.031539	0.023689	0.0038243	0.011893	-0.012737	0.0065011	-0.033536	-0.018432	-0.013674	0.026572	0.021809	-0.0058259	0.0032317	-0.023398	-0.029792	0.023387	0.01507	-0.18367	0.86721	0.0087321	0.011871	-0.031868	0.0035288	0.055974	-0.011324	-0.00042765	-0.0048856	-0.015241	0.015007	0.034649	-0.050132	0.054066	0.038915	0.011632	-0.049317	0.060473	-0.030572	-0.005451	0.01162	0.044605	-0.023534	-0.092177	0.078886	0.039347	-0.0085666	0.0030283	-0.013884	-0.0042161	0.065675	-0.006906	-0.009153	-0.0073157	-0.030382	0.022799	0.06427	0.067221	0.028031	-0.00034549	0.0028825	-0.0065171	0.029451	0.0043008	0.0065553	0.010801
0.0064747	-0.0019971	0.01488	0.030558	0.0039386	0.012674	0.032166	0.0021424	-0.021412	-0.019228	-0.031338	-0.0074928	0.0076207	0.01812	0.018116	0.029822	0.00020109	0.0010852	0.025341	0.015412	0.011805	-0.01914	0.023343	-0.014621	-0.015667	-0.0012491	-0.014905	0.0030608	0.026339	0.015486	0.024984	0.021045	-0.00084901	0.0043935	-0.0089565	0.010016	-0.0030007	-0.010118	0.033562	0.015008	0.0078197	0.020269	0.015072	0.0082321	0.041924	0.055908	-0.27348	-0.026977	0.036613	0.04651	-0.030519	0.0024178	-0.0043757	-0.017619	-0.011813	0.03413	-0.01764	-0.0045469	-0.020201	0.028105	0.023803	-0.025243	0.0026826	0.003184	0.0157	0.039816	0.01521	0.035707	0.027691	0.0017177	0.012095	0.017683	0.080118	-0.0021326	0.014461	0.012325	0.015248	0.011099	0.02585	-0.0068032	0.014074	0.039207	-0.016452	-0.041991	0.011895	0.047322	-0.23641	0.7092	0.36171	-0.011839	0.012441	-0.0061442	0.0042112	-0.062512	-0.10489	-0.15509	-0.012001	-0.082524	-0.037051	-0.0082448	-0.0074381	0.041171	0.029015	0.0093809	-0.027118	0.0020607	0.0040497	-0.0035737	-0.0053031	-0.025634	-0.0083084	0.025384	-0.0046343	0.0068532	0.00060934	0.0094676	0.011572	0.0089557	-0.010518
0.020753	0.041926	-0.0090349	0.02364	-0.026401	0.014622	0.0019363	0.00075469	0.027579	0.027222	0.0022833	0.032341	0.0094753	0.01932	0.024254	0.028845	0.00079062	-0.057604	0.014037	0.02415	0.0057815	0.038489	0.01048	0.031388	0.026143	-0.0079449	-0.024951	-0.034697	0.058865	0.050559	-0.013422	-0.0027005	-0.0020577	0.0041792	-0.024265	0.0037724	-0.019667	0.060228	0.016627	-0.0011892	0.090322	-0.076255	0.04337	0.011754	-0.014307	0.01244	-0.012436	0.0066862	-0.0055488	-0.016671	0.041189	0.015112	0.012104	0.88158	-0.042549	-0.034767	-0.066576	-0.0053914	-0.018755	0.018526	-0.012868	-0.062267	-0.02557	-0.057443	-0.015075	0.046594	0.013206	0.020442	0.035665	0.015978	0.02157	0.0038127	0.00012889	-0.058299	-0.042872	-0.018221	-0.0023411	-0.018265	0.02763	0.038864	-0.020048	0.028343	0.020731	0.011456	0.012177	-0.025673	0.028647	0.0031168	0.024759	0.025714	0.016824	-0.016568	-0.013531	0.013656	0.014012	-0.014096	0.015489	0.0027675	0.0083491	0.054316	-0.0023911	0.016594	-0.01726	0.094805	-0.0056857	0.012192	0.027235	-0.0065303	-0.045994	-0.064652	0.030348	0.033711	0.015049	0.029515	0.025822	0.016731	0.0015919	-0.035959	0.0008187
0.012524	0.043083	-0.015029	0.011775	0.0023927	-0.024512	-0.0089387	0.0023096	-0.015138	0.011306	-0.010553	0.016349	0.02444	-0.026937	0.011607	-0.013834	0.061415	0.031663	0.068198	-0.033252	0.024426	0.016939	0.029758	0.040646	0.012939	-0.019575	-0.015554	0.00099699	-0.00026028	0.071746	-8.3093e-05	0.0026279	-0.0034329	-0.0075353	-0.015971	-0.049934	-0.025771	0.06311	-0.0032755	0.015092	0.0057388	0.0070003	0.012091	-0.017749	-0.047899	0.040561	0.0031716	-0.033265	0.013484	-0.010125	-0.0036488	0.022553	-0.0039457	-0.00097783	-0.048963	0.83012	-0.067886	-0.043766	-0.050372	-0.024054	0.079547	0.022758	-0.01292	0.0078258	-0.038344	0.040169	0.012234	0.0022711	0.046134	0.022384	-0.0013858	-0.02387	-0.042013	0.0092652	-0.032013	-0.016756	-0.023638	-0.0094196	0.032298	-0.034925	-0.013727	-0.02318	0.026713	0.0048742	0.067452	-0.031462	0.050559	-0.01428	0.0020024	-0.025931	-0.016476	0.045963	0.0098632	-0.047388	0.023953	0.017046	0.010569	0.031732	0.025093	-0.0047336	0.0074821	0.0020274	-0.035826	0.023195	0.045777	-0.019556	0.04304	-0.0074989	-0.027097	0.044976	0.027503	-0.0099295	-0.010429	0.052281	0.0098894	0.086067	-0.057999	0.0029817	-0.014847
0.030672	0.012056	-0.0083242	0.0083592	-0.0052035	0.014815	0.025496	0.028653	0.011185	-0.015947	-0.0029653	-0.019173	-0.011295	-0.025134	-0.013483	0.01805	-0.012561	0.015376	0.0010781	0.0050755	0.016644	0.013803	-0.030214	0.0076953	-0.055986	-0.016395	0.015039	0.0034368	0.022172	0.0082585	0.0014179	0.028243	0.0017116	0.015513	0.0011252	-0.02666	-0.012311	0.029119	0.028738	-0.021294	-0.0082241	0.020029	0.0012456	-0.024546	0.011147	-0.017136	0.022765	0.0045526	-0.061836	-0.071394	0.035651	0.0045604	0.036778	-0.034788	-0.055275	-0.0066804	0.054349	0.029993	-0.08408	0.824	-0.025598	-0.035939	-0.00080598	-0.00054306	-0.0063382	0.058638	-0.0074159	-0.031017	0.03281	0.047259	0.040007	0.0020498	-0.16725	-0.058253	-0.0010357	0.028973	-0.00097288	0.022794	0.0063266	0.020506	0.03216	0.010284	-0.042141	-0.031823	0.043798	0.014345	0.023483	0.0071895	-0.0028213	-0.013933	0.0052445	0.0075393	-0.0041885	-0.014967	0.028357	0.00047221	-0.01209	0.040447	-0.0041502	-0.019872	-0.02353	-0.01378	0.0032753	0.036316	0.042678	-0.028113	0.030757	0.009443	0.0081314	0.030769	0.026778	-0.032527	-0.010341	0.035928	0.042366	0.032923	0.03463	0.0095307	0.012846
0.0090874	0.010255	0.0018935	-0.0057801	0.011292	-0.0039776	-0.010875	0.00080496	-0.010593	-0.0074646	-0.0037187	0.014187	-0.0076608	-0.010138	-0.0013609	0.0063582	-0.0030462	-0.0084531	-0.0093724	0.009104	0.0040659	0.0066081	0.019019	0.0034469	0.00056504	-0.0071902	-0.0015208	0.0025824	-0.024769	0.0080254	-0.017178	-0.015394	-0.0063123	-0.0043235	-0.0030992	-0.018694	-0.015745	-0.018506	-0.0064485	-0.011571	0.030602	0.00057612	-0.00059855	0.017776	0.03517	-0.08724	-0.0016982	-0.015102	0.0045017	0.02411	0.0067766	0.0027065	0.0060475	0.002564	-0.027702	-0.0011276	0.022721	0.0023141	-0.0050554	0.0081283	0.0046753	-0.013304	0.01237	0.007043	0.004231	0.034392	0.023082	0.017308	-0.015041	0.0079916	-0.0076105	-0.015483	0.0151	-0.013171	-0.022336	-0.021969	-0.0023177	-0.0028095	-0.012802	-0.0051487	-0.011799	-0.036666	-0.021791	-0.018803	-0.02598	0.0060729	-0.012956	0.0041689	0.01673	-0.022255	-0.030334	-0.1345	-0.1014	-0.10211	-0.022625	0.047789	0.00011724	-0.21759	0.77822	-0.05356	-0.18117	-0.082998	-0.014754	-0.01874	-0.035362	-0.035946	-0.019132	0.04434	0.0042698	0.022627	-0.033167	-0.022038	-0.016107	-0.015141	-0.025985	-0.0010672	0.035643	-0.025148	-0.00077679
-0.005769	-0.020359	0.03589	-0.010091	0.060773	-0.010997	0.020164	0.042052	0.0085314	-0.010308	0.00090502	0.023063	-0.016913	0.0375	-0.07945	-0.019214	-0.0065373	0.030938	-0.048254	0.010546	0.0015109	0.0051843	0.032367	-0.0078969	0.01646	-0.029286	-0.011723	-0.06405	0.013253	0.022656	0.013518	0.03622	-0.015109	0.023927	-0.00010677	-0.0039102	0.020304	0.051924	0.0069255	0.031458	-0.050624	0.075449	0.0074058	0.010321	-0.0086912	-0.02377	-0.02473	0.022198	0.0082989	-0.003558	0.025697	0.0086359	-0.01189	-0.0062398	-0.039145	0.0060098	0.029714	0.017356	0.025715	-0.0045494	0.042593	0.020229	0.016692	0.066386	-0.020025	0.061168	-0.031277	-0.014012	0.012489	0.034981	0.044275	0.010385	-0.031041	0.0077205	0.0025461	0.0011047	-0.11648	0.011746	0.015438	-0.0061514	0.0088035	-0.025725	-0.055715	-0.013378	0.0061848	-0.079277	0.039642	0.025073	-0.012213	0.79757	-0.021711	0.067168	0.018902	0.0041507	-0.051154	0.033469	-0.14482	-0.039918	0.026836	0.0068449	0.057924	-0.01592	-0.032432	-0.02989	-0.039606	-0.018457	0.0066752	-0.011073	-0.020381	-0.0012563	-0.025376	0.020048	-0.0095708	0.01961	-0.0086042	0.012065	-0.0035273	-0.0054227	0.00072268
-0.033317	-0.014811	-0.0049034	0.0018989	-0.00034686	-0.023643	-0.010318	-0.0025833	0.060591	-0.021146	0.0092563	-0.042928	0.029074	0.014722	-0.0016436	0.0074611	0.0046972	0.064913	0.012783	-0.038315	-0.010686	0.0020747	-0.0098151	0.088732	0.012144	0.00095485	-0.00086461	-0.0014847	0.15132	-0.083129	-0.11717	-0.0046433	-0.024567	-0.049572	0.76022	-0.032364	-0.0079071	-0.071346	-0.031178	0.10673	0.045212	0.027351	0.016486	0.037126	0.017877	-0.014964	-0.013041	-0.014272	-0.023504	0.068611	0.037038	0.0001582	0.014543	0.031421	0.020322	0.0063242	0.018064	0.0057156	-0.020994	0.001605	0.027856	0.010316	0.018023	0.015794	0.0065991	-0.019376	0.030865	0.0012577	0.025147	-0.0045707	0.021596	0.0051896	0.050832	0.022788	0.0055651	0.0295	-0.037398	0.0096533	-0.033276	0.010521	-0.0029851	-0.023958	-0.028635	-0.061334	0.00081909	1.0793e-05	0.031911	0.0087224	0.016879	-0.0085334	-0.082209	0.018072	-0.010471	-0.0005918	0.052148	-0.013296	0.0016687	0.01596	0.0078433	-0.044709	0.072176	0.019335	0.018747	0.012514	0.0018758	-0.004904	-0.020413	0.02842	-0.050761	0.042516	0.0076304	-0.10345	-0.016549	0.0056445	-0.022754	0.06108	0.042109	-0.048324	-0.0030868
0.042678	0.060701	-0.021973	-0.017082	-0.07213	0.072281	0.069872	-0.027296	-0.03145	-0.0088202	-0.015236	-0.0078889	0.019269	0.088195	0.73753	0.02269	-0.025089	0.079151	-0.011301	-0.017455	0.062054	-0.02775	0.04213	-0.0033243	-0.021442	-0.010809	0.049491	-0.020388	0.045386	0.040585	0.10005	0.0022251	-0.086452	0.070886	0.024392	-0.019548	-0.046781	-0.024577	0.012514	-0.012295	-0.0032566	0.02645	-0.03852	-0.021157	-0.055351	-0.1022	-0.036433	-0.057607	-0.028484	-0.026024	0.00070273	0.020901	-0.029283	-0.021414	-0.0052019	-0.0089372	-0.022154	-0.021616	-0.0043355	0.003768	-0.070373	0.038572	-0.019029	0.019151	0.029204	-0.0025878	-0.041415	-0.038649	-0.0079848	-0.016315	-0.05928	-0.013435	0.027524	0.020541	0.030463	0.034624	-0.012687	0.031433	-0.026503	-0.051986	-0.00029759	0.030611	-0.0015038	0.042465	-0.017796	0.00078366	0.040159	-0.016188	-0.013613	0.066496	0.026672	0.000125	-0.043504	0.044177	-0.019897	-0.017472	-0.02335	0.0038225	-0.00055087	-0.022652	-0.035756	0.0075286	-0.017293	0.025063	0.012375	-0.003339	0.013335	0.024375	-0.012113	-0.029622	-0.015968	-0.0091654	0.00042306	0.038769	0.035984	0.00013198	-0.028424	-0.027894	0.0073834
-0.015042	-0.0043567	-0.038872	0.022844	0.053876	-0.012008	-0.0077537	-0.0079291	-0.165	0.78448	-0.040078	-0.020412	0.012087	-0.014384	0.0023695	0.0035848	0.0094062	3.6347e-05	-0.011876	0.028796	0.021846	0.0095425	-0.0045157	-0.022975	-0.017692	0.0019547	-0.060057	0.021195	0.029515	-0.010113	-0.0025879	0.010607	0.02767	0.022827	0.016586	-0.007941	-0.014894	0.028639	-0.00014126	0.021119	0.0079119	-0.015361	0.0098485	0.012778	-0.0029456	-0.033303	-0.015373	-0.0059537	-0.020054	-0.0014399	-0.0011333	0.010927	0.02036	-0.022345	-0.0072047	-0.013883	0.016443	0.018482	0.015229	0.015258	0.0049927	-0.027852	-0.0002167	0.014472	0.0038878	-0.010353	0.0053	-0.013355	0.026528	-0.055132	0.018542	0.014118	0.0087743	0.021402	0.04896	-0.0093196	0.003715	-0.0015348	0.028638	-0.010986	0.0051223	0.01489	0.073696	-0.026637	0.0052544	0.029506	0.013611	0.012798	0.0089796	0.014101	-0.019501	0.028484	-0.011232	0.037491	0.019873	-0.005908	-0.004216	0.011136	0.013981	-0.018784	0.0056195	-0.026084	0.00025936	-0.018489	0.027877	-0.01664	0.010572	0.017699	-0.0074203	-0.034587	0.0054439	-0.037708	-0.0042259	0.00023301	-0.016668	-0.0047534	-0.012859	-0.043456	-0.031363
0.006003	0.0051714	-0.002096	0.012795	0.0065496	0.0066942	0.033356	-0.018887	-0.021299	0.0013849	0.00065443	-0.0095427	-0.0011812	0.033016	-0.0012615	0.0081657	-0.0074492	0.01594	0.013691	-0.0061407	-0.012259	-0.031704	0.026926	0.01131	-0.007542	-0.010101	-0.033197	-0.011879	0.010338	0.0082953	-0.0031136	0.0016479	-0.012302	-0.0055843	0.010514	0.026748	-0.01026	-0.016713	0.027365	-0.013722	0.008935	0.0011801	-0.0046763	-0.024622	0.0011065	-0.011786	0.016334	-0.034534	0.0029829	0.015041	0.0023685	0.0089764	0.038946	-0.023159	-0.05818	-0.040399	-0.017468	0.0068562	-0.0018101	-0.051861	-0.010786	-0.014702	-0.0068086	0.025305	0.027347	-0.0067687	0.037844	-0.020775	-0.012217	-0.025439	-0.012932	-0.014227	-0.035156	-0.051563	-0.034058	-0.012464	0.023149	-0.039719	0.0033003	-0.014179	0.05177	-0.019485	-0.062149	-0.066899	0.75281	0.023001	-0.016006	-0.019717	-0.02785	0.019409	0.049852	-0.15911	-0.042586	0.027614	0.029344	-0.071405	0.0085758	0.023232	-0.0097665	0.0012195	-0.041665	0.014106	-0.019488	0.022639	-0.035865	0.052228	-0.019282	-0.036449	-0.0055824	-0.018823	-0.055237	0.021356	-0.0091513	-0.0048835	-0.039256	-0.022248	0.038855	-0.0028003	-0.0043308
0.0032761	-0.015719	0.011015	0.0023221	-0.0066479	-0.004229	-0.00028147	-0.010547	0.01129	-0.0020702	0.001555	-0.0072234	0.011852	0.024523	0.023751	0.015749	0.012348	0.039565	0.012223	0.016174	0.011618	0.015513	0.017991	0.0059404	0.0051744	0.01348	0.0051041	-0.0073814	-0.0017866	0.027513	-0.0038621	0.029261	-0.0037031	0.0081637	0.026467	-0.011515	-0.02388	0.0055547	0.0028166	-0.011315	-0.0046178	0.0023458	0.020225	-0.024185	-0.01695	0.0027172	-0.03726	0.16802	-0.063489	-0.036205	0.031877	-0.00053369	0.010676	0.018893	0.16402	0.031539	0.11462	0.043718	0.64302	-0.0060109	0.022524	0.044591	0.012265	0.0025401	-0.017054	-0.017194	0.0089693	-0.0033228	-0.0067528	-0.028313	-0.080116	-0.043867	-0.29721	-0.05855	-0.059596	-0.018924	0.0064497	0.026958	0.027293	0.017712	0.02802	0.0073922	-0.0098214	-0.01647	-0.0023164	0.013626	-0.056518	-0.03653	-0.008272	0.0047462	-0.01401	0.0017215	-0.0021669	-0.0012333	0.0635	0.024907	0.14857	0.019055	0.026407	0.016507	0.0074292	0.008304	-0.001152	0.032503	0.022045	0.025336	0.029505	0.039423	0.0078819	0.01935	0.011448	-0.0037596	0.022722	0.022149	-0.0014107	0.023478	0.013055	0.005882	-0.001382
-0.024703	0.014606	0.02449	-0.010812	0.0029953	0.029043	-0.016368	0.008136	-0.013455	0.021034	-0.0049031	-0.019772	0.014904	-0.023972	-0.0224	0.031823	-0.024486	0.025327	0.025946	0.044029	-0.0070861	-0.0059823	-0.0096373	-0.00062508	-0.0067978	0.014007	0.0089327	0.082095	0.013093	-0.027188	-0.0007733	0.011317	-0.023698	-0.019378	0.072504	0.022531	0.012331	0.012235	-0.0012299	0.017462	0.0090427	-0.012123	0.0079536	-0.02333	0.027166	0.0028079	0.020354	0.0035827	0.0028638	0.010213	0.011872	0.012241	-0.017904	-0.022648	-0.010178	0.0028103	0.00063054	-0.038235	-0.041023	0.016709	0.010663	0.025518	-0.0033776	-0.050075	-0.008558	0.0049729	0.017231	0.058654	-0.033111	0.011384	-0.0029325	-0.037101	-0.11462	-0.041924	0.020801	-0.049779	0.01853	-0.018438	-0.020856	-0.016481	-0.00033592	0.031906	0.11019	0.72592	0.027251	-0.035331	-0.043852	0.019399	0.042657	0.051671	-0.012423	-0.15028	-0.029119	-0.040468	0.03907	-0.027138	0.020761	0.024424	0.0068356	0.017914	0.044068	-0.014101	0.037786	0.0035545	-0.029004	0.024145	-0.01189	-0.018365	0.024601	-0.040047	-0.0093691	0.042107	-0.019545	-0.03126	-0.0096234	-0.0018009	0.0044834	-0.010193	-0.017971
-0.02237	0.0025075	-0.036572	0.0048327	0.019251	0.0050372	0.029956	-0.041244	-0.02833	0.021272	-0.02071	-0.0161	-0.0078905	-0.018872	-0.035814	0.021447	0.049812	0.0049612	-0.015255	-0.0012152	0.0070225	-0.0028433	0.0098072	-0.010528	0.027348	-0.022535	-0.020566	-0.013167	0.030619	0.0046586	-0.033415	0.004116	0.019594	-0.0034772	0.075617	0.015629	-0.0098574	-0.044241	0.019184	0.0015332	-0.014775	0.035083	0.0016831	0.0071534	-0.037062	-0.014143	-0.0091353	0.0079824	-0.0075144	0.012541	0.0052661	-0.01555	-0.0015793	-0.0048941	0.0039899	0.023077	-0.032594	0.024977	0.014947	-0.0011039	0.016949	0.029281	0.0093859	-0.0082078	0.021399	0.038512	-0.0099718	-0.017316	-0.0073389	0.026822	-0.019753	0.00032482	0.0006044	-0.042235	-0.0041885	-0.0044065	-0.029543	0.0048328	-0.01007	0.019764	0.026529	-0.028838	-0.082267	0.014696	-0.077841	0.026046	0.0089088	-0.0016663	-0.0077583	-0.0087319	0.75431	-0.079586	0.011827	0.022376	-0.00076963	0.05297	-0.043723	-0.028857	0.010798	-0.019851	0.035275	-0.016019	-0.044528	-0.0094394	-0.0025335	0.022923	0.025584	-0.03755	0.027921	-0.020973	-0.032396	0.01329	-0.00041963	-0.0015836	0.013403	0.027624	-0.01477	0.023015	-0.012643
0.016837	-0.013801	0.003123	0.00039543	-0.03938	-0.00084235	-0.02606	-0.00083419	-0.011933	-0.0094653	-0.017459	-0.035532	-0.00063758	0.027141	0.020037	0.0095624	-0.0025157	0.040544	-0.011562	0.020272	0.021759	-0.023665	0.021308	-0.027112	-0.012348	-0.031946	-0.054403	0.020202	0.010342	-0.0067373	-0.00018429	-0.0012674	0.0071288	-0.044754	-0.027087	0.006663	-0.02084	-0.040194	-0.076068	0.023186	0.010651	0.018093	-0.041474	0.0011716	-0.0096763	0.0093995	-0.0042854	0.019595	0.041074	0.01597	0.018087	-0.027729	0.030267	-0.014432	0.024113	-0.0099374	0.0038967	-0.002384	-0.016247	-0.011242	0.057327	0.0053421	-0.010227	-0.02549	0.010283	-0.01632	-0.022128	-0.023527	-0.030013	-0.011732	-0.0063313	-0.0027185	0.030198	-0.045275	-0.023034	-0.082323	-0.0033123	-0.012206	-0.011713	-0.0063558	0.0050747	-0.034688	-0.0084286	-0.0080029	0.02462	0.020037	0.0045048	0.011975	0.0041452	0.041715	0.030746	-0.049261	-0.017871	0.020305	0.013705	-0.0030704	-0.011879	0.026534	0.021602	0.00012821	-0.0065087	-0.024841	0.059639	-0.012418	0.030053	0.0079002	-0.028886	-0.019542	0.0022249	0.042989	0.74705	-0.01241	0.0098172	-0.0051497	-0.01533	-0.059076	0.061517	-0.032858	0.0027463
0.098844	-0.032321	0.01941	0.0041411	-0.0082722	-0.084813	-0.00086891	-0.025364	0.017827	-0.0096086	-0.012024	-0.038144	-0.0065677	-0.024691	-0.017134	-0.017731	0.028256	0.080688	0.030495	0.016358	-0.0068064	-0.00024573	-0.0069483	-0.0011667	-0.014656	0.0035735	-0.027176	-0.021292	-0.014327	0.053895	0.079445	0.023199	0.026327	-0.0011257	-0.022847	0.0096355	-0.0050446	-0.022535	-0.0041427	-0.018142	-0.0054089	0.14809	0.022386	-0.012919	-0.017093	-0.089983	-0.046683	0.0046227	0.017939	-0.047993	-0.028866	0.086666	0.083597	-0.0062562	-0.0099502	-0.025571	-0.0091637	-0.02958	0.044389	0.012057	0.01532	-0.017831	0.056298	0.019508	0.083592	0.067271	0.6069	-0.072964	0.021303	0.018297	-0.031452	0.029915	0.13193	0.0073923	-0.024815	0.02194	-0.072966	0.059161	0.025336	-0.025034	0.0028522	0.031374	0.053251	0.03624	-0.02038	0.036174	0.061788	-0.021876	-0.030722	-0.0075488	-0.0022496	0.0070772	0.014109	-0.028097	-0.010354	0.016457	-0.026342	-0.0063942	-0.017948	0.013203	0.018161	0.014899	0.050889	0.1303	-0.014467	0.012413	0.015478	0.031257	0.016555	-0.024983	0.015249	-0.0038864	0.0047225	-0.0049858	-0.033703	0.032638	-0.021489	0.020655	0.00085057
0.0076777	0.005461	0.0062454	-0.01729	0.032214	0.012731	0.014673	0.040936	0.00015225	-0.012628	-0.02472	0.0089594	0.019717	-0.043609	-0.0028467	-0.0040765	-0.0095674	0.03203	0.0063007	-0.0035063	-0.014762	0.027611	0.0088501	-0.010914	-0.033455	-0.011573	-0.030152	-0.042129	0.055372	0.032961	0.0013581	0.029488	0.0047036	-0.0018838	-0.032829	-0.020948	-0.021796	0.090224	-0.022542	-0.0066073	0.022316	-0.062676	0.069769	0.03251	-0.026511	-0.044325	-0.008339	-0.027185	0.024699	-0.055584	0.65702	0.0070261	0.083997	-0.067457	-0.0015742	-0.012269	-0.060183	0.1101	-0.012807	-0.053443	-0.02171	-0.003327	-0.0081151	-0.022025	-0.011529	0.0011346	0.0079697	-0.0066295	-0.00050743	0.012357	0.021161	-0.012481	0.037671	-0.04109	0.010139	0.013683	-0.00046141	0.0081188	0.012252	-0.02068	0.011788	-0.010743	-0.015141	-0.002234	-0.02957	0.045471	0.0094164	0.0090849	0.021975	-0.020182	-0.009923	-0.044038	-0.0037515	-0.020952	0.0023879	-0.015023	0.0080265	0.033479	-0.017583	0.018417	-0.016961	-0.0071913	-0.014229	0.021386	-0.0061719	-0.0025241	-0.034068	0.0066104	-0.0098664	0.0056826	-0.016166	0.025083	0.00056601	0.025872	0.013637	0.050405	0.03837	-0.011911	-0.013798
-0.042018	0.063734	0.058997	0.018605	0.017065	0.034606	-0.04378	0.018263	0.014526	-0.00466	0.018732	0.05843	-0.022372	0.036676	-0.0065456	-0.053854	-0.031625	0.032507	-0.013435	0.0041049	-0.040855	0.055086	0.012084	0.011372	0.030379	0.04258	0.053657	0.036486	0.14592	-0.16368	-0.24107	-0.052758	0.081041	0.53144	-0.065004	-0.055319	0.015034	0.01488	0.078114	-0.0080181	0.058362	-0.035194	0.01716	0.041542	0.047805	0.027964	-0.015939	-0.019955	0.033818	0.0043881	-0.0040146	-0.0019327	-0.029237	-0.023293	0.049258	0.029592	0.0090873	-0.05675	0.031142	0.013413	-0.01085	-0.018942	-0.02187	-0.041204	0.00608	-0.028539	0.056526	0.008088	-0.023777	0.011415	-0.057193	0.029539	0.087668	-0.027532	0.012573	-0.0058732	-0.0014484	-0.027749	-0.039855	0.017927	0.01924	-0.059776	-0.042271	0.029006	0.019993	0.047392	0.035848	1.6859e-05	0.0051259	0.016401	0.011791	0.041565	-0.0043568	0.045283	0.021363	-0.019447	0.0051807	0.050075	0.030446	-0.014629	0.011343	0.067463	0.024127	0.054225	-0.035776	-0.030131	0.01826	0.048082	0.032298	0.013991	0.032949	0.010262	0.0030699	-0.030738	0.038112	0.012249	0.038898	0.016333	0.020682
-0.032823	-0.024301	0.020523	0.043921	0.015841	0.0079764	-0.057991	0.02244	0.0043268	-0.0078181	-0.022345	-0.020187	0.020998	0.025153	-0.0023861	-0.013234	-0.0054517	0.025792	0.0048752	0.0086991	0.024531	0.037866	-0.040542	0.039095	-0.061813	-0.039603	-0.043279	-0.027271	0.023806	0.048631	0.014744	0.036323	-0.014904	0.029456	-0.014846	0.020331	-0.020747	-0.01284	0.010999	-0.049378	0.0074689	0.095148	0.004721	-0.032324	0.031768	-0.034217	-0.032315	-0.03136	-0.048736	-0.013445	-0.026828	0.075323	0.044004	-0.016245	-0.0013943	-0.012194	-0.043146	0.062062	0.041312	0.0048126	0.017062	0.01788	0.090193	0.016781	0.069772	0.0080376	-0.033548	0.64164	0.031063	0.035409	0.039545	0.024555	0.047572	-0.0078628	0.059012	0.025501	-0.040922	-0.0011672	-0.044128	-0.023077	-0.0052531	0.0034976	-0.00088215	-0.015259	0.013894	0.0042591	0.056969	-0.025904	-0.029852	-0.015823	0.0096147	0.014798	-0.01311	0.020938	0.00736	-0.0098235	-0.0092922	-0.0012354	-0.024779	0.014693	-0.064749	-0.045448	-0.0097186	0.037505	0.0038049	0.010595	0.0079617	-0.0014383	-0.015503	-0.0156	0.028338	-0.020938	-0.0013153	0.043418	0.0039397	0.034999	-0.018568	0.00076511	-0.025633
-0.058227	-0.026527	0.023081	0.0084001	0.03113	0.033557	-0.05438	-0.022164	0.0054164	0.030432	0.030044	0.018121	-0.028708	0.021872	0.012434	-0.028098	-0.0076881	0.10206	-0.016949	0.015363	0.0019612	-0.013199	-0.033418	-0.030407	0.029738	0.031805	0.050412	0.002433	0.0093438	0.010672	-0.0029292	0.014791	-0.045862	-0.052635	0.064757	-0.0030311	0.010311	-0.0265	-0.014917	-0.0054638	-0.019605	0.015332	0.0013348	-0.03124	0.044388	0.038932	-0.010886	0.0064342	0.0074698	-0.041744	-0.016191	0.067022	-0.019763	0.0069474	-0.01178	0.024663	-0.03687	0.021356	0.027546	0.044269	-0.019592	-0.019138	-0.0039497	0.020444	0.0011995	-0.023429	0.026333	0.0076786	0.0044039	-0.026925	0.022489	-0.0061852	0.044957	0.0041918	0.027523	0.0024679	0.025489	-0.038507	0.0039514	-0.0059808	0.010197	-0.051788	0.0035747	-0.034048	-0.0053731	0.038516	0.039492	-0.015359	-0.015066	-0.023358	-0.011648	0.018146	-0.011002	-0.036849	-0.0083385	0.013775	-0.00010991	-0.0052515	0.019039	-0.040895	0.040398	0.019577	-0.0024717	-0.1301	-0.04592	0.011235	-0.012924	0.052203	0.0065619	-0.0028999	0.012033	0.63124	0.071576	0.033078	0.081837	-0.018266	0.057191	-0.014433	0.0086656
-0.01135	-0.030186	0.0063184	0.013729	0.019619	-0.010315	0.0098312	-0.014496	-0.0069385	0.0079403	-0.011916	-0.012089	-0.038484	0.02098	0.016175	0.018898	-0.0018005	0.050454	0.04092	-0.0012571	-0.0017986	-0.028608	0.01576	0.024372	-0.019404	-0.024671	0.014606	0.0074029	-0.0055707	0.015306	0.0044942	-0.021548	-0.0089622	0.031113	0.042664	0.02577	-0.0067589	0.016543	0.04854	0.0017958	-0.013627	-0.004066	-0.007378	0.009707	-0.023194	0.013095	-0.0099145	0.027406	0.010806	0.0050819	-0.00034601	0.0021105	0.0052906	-0.026067	-0.018103	0.0016567	0.029638	-0.040283	0.0026994	0.01596	-0.012666	-0.026529	-0.0095808	-0.0075026	-0.018449	0.023703	-0.011169	-0.015896	-0.009406	-0.0067641	0.010986	-0.014637	0.02002	0.0097324	0.030816	-0.036346	0.023812	0.0098435	0.0082496	0.0061931	0.030136	-0.061854	-0.0087185	0.014539	0.021582	0.0032673	0.02757	0.0058521	-0.0017131	-0.045179	0.010024	0.10095	-0.021241	0.0055258	-0.012404	0.067843	-0.033587	-0.14584	-0.0037525	0.64937	-0.0021621	-0.075087	-0.030007	-0.038775	-0.06503	-0.026837	0.0050378	0.0015777	0.0036057	0.034346	0.0019084	0.0014805	-0.0045448	0.023299	-0.0019651	-0.0058613	0.068133	-0.043684	-0.014806
0.022965	0.0033354	-0.0034787	-0.0012207	0.04624	0.0060951	0.00537	-0.0047332	0.027508	0.012939	0.0065022	-0.0056875	-0.023708	0.013114	0.05571	0.0040616	0.027931	0.032619	0.028268	-0.02384	0.012242	-0.013103	0.015878	0.0023651	0.0064476	-0.0078373	-0.049103	-0.028118	0.053756	0.062399	0.063324	-0.010131	0.031257	-0.0060869	-0.014849	-0.010197	-0.02705	-0.0075841	-0.0022609	0.057531	0.026954	-0.0026942	0.018232	-0.02487	-0.059682	0.62702	0.017986	-0.037594	-0.082624	-0.0043472	0.015697	-0.0078634	-0.0046822	-0.020842	0.033364	-0.065032	-0.016146	0.014032	0.031755	0.026641	0.0046435	0.049083	-0.0036406	0.017775	-0.0084453	-0.025377	0.03454	0.0054556	0.0092608	-0.019947	0.028354	0.019107	0.09537	0.036012	0.0053651	-0.025583	0.015431	0.00083536	0.019983	0.0037491	0.012425	0.0049795	0.030934	0.023489	0.014548	0.0075117	0.032856	-0.023478	-0.0075476	0.021214	0.0088306	-0.029995	0.012085	-0.03898	0.011252	0.045022	-0.050034	0.023753	0.072433	-0.0081147	-0.025096	0.0092615	0.034293	0.029503	0.033563	0.0030978	0.0057687	0.010503	-0.0029951	0.030895	-0.018699	-0.037143	-0.0055975	0.030647	-0.0017605	0.075404	-0.016839	0.0023756	0.0044596
0.003353	-0.039048	-0.020311	-0.0035145	0.015675	-0.0038392	-0.069485	0.01339	0.029367	0.0036204	0.0008309	0.0065016	0.017706	0.00075644	0.01865	-0.024368	-0.043099	0.069367	0.0044434	-0.0074327	0.0026795	-0.010712	-0.029493	-0.024333	0.00098635	-0.030535	0.0094568	-0.013201	0.017967	0.051107	0.008575	0.028932	-0.021206	0.028504	-0.0063647	0.0032143	-0.015333	-0.040504	0.016079	-0.041959	-0.011877	0.027752	-0.013017	0.029663	-0.051672	0.0047409	-0.0035372	0.62162	-0.040266	-0.0014436	-0.002883	-0.0023555	0.0057524	-0.0056907	-0.032137	0.0065205	-0.020191	0.02385	-0.10668	-0.0092848	0.03001	-0.021529	-0.020695	-0.0069547	-0.023901	-0.018099	-0.037879	-0.013714	0.025845	-0.018443	-0.0027336	0.006395	0.098912	-0.024065	0.0062197	0.023749	-0.0017491	-0.033073	-0.039295	-0.035215	0.0018905	-0.0051582	0.0062311	0.017288	0.020089	0.02403	0.023879	0.0033878	0.013214	-0.013556	0.0026427	0.0019753	-0.0027427	-0.0069957	-0.0022037	-0.076629	-0.023938	0.070169	0.030143	-0.012495	-0.040597	0.025704	-0.0017544	0.0035609	0.0089711	-0.021339	0.0091477	-0.015429	-0.021219	-0.018425	-0.029491	-0.024059	-0.01024	0.019726	-0.017461	0.036766	-0.0039462	-0.0091455	-0.0061612
0.00096973	-0.020259	-0.06307	0.025131	-0.024802	0.031606	0.051853	-0.0045303	-0.04827	-0.034467	-0.010168	-0.012533	0.057175	0.021928	-0.025737	-0.063384	0.084806	0.027548	0.013667	0.023478	-0.013157	-0.024805	-0.021464	0.0014153	-0.037728	0.00088503	0.0032878	-0.01562	0.034212	0.0060825	0.0084947	0.013017	0.034337	0.013823	0.015921	-0.0019645	-0.054594	0.020666	0.056713	0.029808	0.0080879	0.033947	-0.0015869	0.018172	-0.014146	-0.050774	-0.031652	-0.0032734	-0.019053	0.03334	-0.021604	0.034426	0.06169	-0.0088311	0.039271	0.0025275	-0.019253	0.021899	0.016699	-0.00077954	0.029552	-0.020614	0.019135	0.044637	-0.042324	-0.003304	-0.0013536	-0.0084442	0.038978	0.013104	0.016611	0.010362	0.041096	0.025571	0.018201	0.014199	0.57327	0.0058754	0.06385	0.046013	-0.019364	-0.053556	0.02809	0.0045425	-0.024326	-0.019576	0.045947	-0.01491	-0.012708	0.065157	-0.00069993	-0.033115	-0.0094829	-0.021845	0.0018796	0.013305	-0.042631	0.0027194	-0.0048761	-0.022244	-0.010385	-0.018668	0.0012395	0.073051	-0.0096195	-0.02226	0.0024208	-0.018668	0.003531	-0.048093	0.007165	-0.0091676	-0.0052418	0.06413	0.012952	-0.021488	-0.015007	0.029475	-0.001005
0.0098763	0.010794	0.010391	0.0085128	0.0091393	0.007631	0.0037908	0.0039211	-0.00019322	0.00075651	-0.0019423	-0.0057274	0.0019556	0.0058687	0.0050359	0.0035513	0.0069212	0.0084763	0.010183	0.009727	0.0057532	0.004811	0.00027975	0.0017228	0.0012138	-0.00018278	-0.00063591	-0.0012345	0.00035814	0.0034433	0.0011859	0.0041105	0.0047604	-0.0014777	-0.00083208	-0.002397	-0.0043881	-0.0072693	0.0031866	0.0051284	0.0028878	0.0080046	-0.00074926	-0.00057563	0.005443	-0.012244	0.066563	0.019314	0.008717	-0.0047009	-0.01229	0.006395	0.0032939	-0.010055	0.024781	-0.00018753	-0.011623	0.00063811	0.032	0.0053044	-0.001835	-0.0028535	0.0046371	0.0075993	0.0095269	0.0098199	0.0089572	0.0092527	0.0063715	-0.0036249	-0.0061215	0.023182	-0.025171	0.026317	-0.00084189	-0.0097566	5.498e-05	0.0063827	0.0092104	0.0077141	0.0042864	-0.00034633	-0.014801	-0.025475	-0.00023991	0.053358	-0.061297	-0.45184	0.51582	0.038041	-0.00038268	-0.027626	0.0070246	0.014448	-0.021622	0.04653	0.055329	-0.0035535	-0.012793	0.012895	0.0097315	-0.0040993	0.010468	0.0094989	0.0079307	0.0050898	-0.0011545	0.0064304	-0.0016162	0.0012834	0.0013381	0.0022836	0.0040785	0.009521	0.0057081	0.0029007	0.0061889	0.00057477	-0.005408
0.024364	0.0054526	0.017877	0.030116	-0.018919	0.057196	0.038204	-0.0078745	0.0037477	0.0012163	0.019752	0.006726	-0.0060549	0.013311	0.0083501	-0.017604	0.033338	-0.010394	-0.0093048	-0.025812	0.039912	0.59458	0.082549	-0.054733	0.015932	0.026208	0.0051562	-0.030471	-0.064946	-0.00054297	-0.013194	-0.038798	-0.039657	-0.057546	0.0099074	0.010337	0.010935	-0.01297	-0.032197	0.025116	-0.014096	0.001943	-0.010175	0.013263	-0.021661	-0.010198	-0.019096	0.017649	-0.0498	0.017006	-0.010962	-0.029365	-0.046367	-0.022498	0.015534	-0.0021236	-0.018393	-0.030781	0.0027386	0.013125	0.0054559	-0.005029	-0.01882	-0.016612	0.0276	-0.049739	0.013611	-0.010767	0.029691	-0.016475	0.021689	0.0043954	0.032998	0.0058318	0.020681	-0.003947	0.020772	-0.013922	-0.0014234	0.015585	-0.013528	-0.0045054	0.016043	-0.00060067	0.018777	0.019759	0.023644	0.011105	0.0056679	0.012366	-0.0013895	-0.042872	-0.001155	-0.019399	0.022671	-0.003756	-0.015267	0.0038759	-0.0034128	0.041493	0.004693	0.013655	-0.0051741	-0.01188	0.0061886	0.034875	-0.045353	0.013951	0.042542	-0.025766	0.0063978	-0.0062308	-0.012188	-0.0039998	0.033655	-0.00041741	0.018026	0.052993	-0.0056483
-0.0043579	-0.034651	0.016426	-0.0039015	-0.00031059	-0.036494	-0.00037939	0.0068626	0.0059694	-0.025329	-0.010185	-0.021634	-0.00024083	0.0018474	0.0023633	0.045182	-0.011516	0.021653	-0.01346	0.042886	0.013875	-0.00033687	0.010064	-0.034542	0.0050114	0.0083115	-0.0318	0.00015302	-0.0041368	0.055135	0.013553	0.0048788	-0.0078281	0.0261	-0.024885	0.0067579	-0.024554	0.043381	0.029481	0.0025774	-0.02122	0.026105	0.0084978	-0.007487	-0.010029	-0.0049569	-0.029913	-0.012516	-0.019223	-0.015048	-0.0073931	-0.0067145	0.002374	-0.014762	-0.042209	-0.023543	0.031729	0.0070937	-0.039696	-0.022447	-0.0046147	0.022523	-0.0054945	-0.010719	-0.016138	-0.006391	-0.03183	-0.022219	0.014305	0.030005	-0.010105	-0.010808	0.040209	-0.014002	-0.020939	0.010456	-0.0073271	0.018482	0.0090636	0.019188	-0.016536	0.0092715	0.041964	-0.0062796	0.0053454	-0.0096633	-0.012308	0.0080041	0.05271	0.0049567	0.017478	0.09874	0.034807	-0.0033436	0.5791	-0.032549	0.0086441	-0.15508	-0.0097594	-0.047612	0.0085953	-0.013229	-0.0093051	0.017362	-0.042031	-0.045768	-0.0071294	0.037567	-0.035929	-0.012168	0.0021528	0.020863	-0.022734	0.02346	-0.017975	-0.0094743	-0.0012221	0.0076669	-0.015128
0.00797	0.023102	0.018805	-0.010736	-0.0046688	0.010068	0.010778	-0.0032459	-0.015599	0.0089534	-0.014141	0.034666	-0.0033909	0.029802	0.018114	-0.0063176	-0.025876	0.038109	0.004754	0.0061473	-0.003457	-0.0038188	-0.018669	0.0066735	-0.012204	-0.0072813	-0.018506	0.005937	0.016596	0.019219	-0.0039779	0.036603	0.0019867	0.017183	0.011254	-0.0076092	-0.0065263	-0.0010249	-0.0046731	-0.016926	-0.021173	0.012453	-0.0047336	-0.0055	-0.0052166	-0.0088806	-0.0032369	-0.00087557	0.006725	0.00071829	-0.007435	-0.019796	-0.0096333	0.013566	0.0052276	0.010997	0.01779	0.0082975	0.019935	0.0047047	-0.0088342	-0.005258	0.0031064	0.0024504	0.028727	0.02356	-0.0097683	-0.0088018	0.030759	-0.0073875	0.013119	-0.001986	0.0016485	-0.003529	-0.002306	0.013586	-0.0033424	-0.0090929	-0.010701	0.014497	-0.039681	-0.05431	-0.037349	0.0060546	-0.0048588	-0.003124	0.036965	-0.00098004	-0.0092674	-0.023478	-0.039976	-0.17557	0.58556	0.07462	-0.015441	-0.021214	-0.0068825	-0.040287	0.029727	0.014786	-0.0060554	-0.0716	0.0039848	-0.037491	-0.028309	-0.0071233	-0.00767	0.007173	0.0058804	-0.0045756	-0.00037883	-0.0020232	-0.0090046	0.0068744	-0.00064749	-0.0068069	0.0032888	0.008168	-0.017301
-0.00062148	-0.018883	0.0038208	0.0058072	0.014747	0.0089692	0.0057829	0.0095266	-0.00093311	-0.034034	-0.0081745	-0.028437	-0.022345	0.008093	-0.041552	0.015042	0.0074868	0.0062319	0.016252	0.055119	0.016739	0.027582	0.027696	0.018116	0.011483	0.008127	-0.0074982	0.030837	-0.022776	0.021408	0.051207	-0.028678	0.02208	-0.017994	0.01887	-0.017172	-0.0088136	0.0084923	-0.022401	0.0072505	-0.0037969	0.020739	-0.010272	-0.0057178	-0.028729	0.033951	-0.017937	0.0029943	-0.0015412	-0.014374	0.028577	0.025749	0.01788	-0.012309	0.017513	0.023165	0.0084592	0.0089342	-0.0053267	0.0043049	0.024589	-0.0077958	-0.00035946	0.00964	0.0043292	0.016331	0.0012006	-0.029122	-0.012874	0.026713	-0.0073328	-0.01223	-0.021388	-0.01225	0.03725	0.0076845	0.010347	-0.0068862	0.023936	0.048533	0.00066566	0.0019311	0.042831	0.037115	-0.0027618	-0.02906	0.047013	0.014728	0.025445	-0.028974	-0.01053	0.083959	-0.054234	0.57838	-0.04809	-0.073881	-0.026946	-0.071886	0.062717	-0.039845	-0.05007	0.020817	0.021246	0.0048147	-0.025165	0.037491	0.035743	-0.011155	-0.031618	-0.015094	-0.012975	0.027964	0.0098631	0.0027751	-0.0098501	0.012123	0.020413	0.020238	0.0091545
0.0085124	-0.00038387	-0.038014	0.022001	-0.056879	0.029468	-0.039048	0.58723	-0.048162	-0.004428	0.0034701	-0.0044277	0.010812	0.031284	0.0060189	0.018204	0.070274	0.018508	-0.0091808	0.02429	0.019874	-0.0069828	0.048118	0.023803	0.04204	0.024759	-0.021415	-0.018665	-0.013791	-0.01401	-0.019961	-0.0036415	-0.028793	-0.013083	-0.0011902	0.021437	-0.0093117	0.032612	-0.0033234	-0.0015432	-0.040999	0.068844	0.0047702	0.005578	-0.0087141	0.0053628	0.00042344	-0.014614	-0.0046367	0.015402	-0.018973	-0.00095425	-0.018006	0.0034969	-0.0041958	-0.018844	0.03384	-0.0075154	0.0094679	-0.014024	0.005246	-0.054695	-0.0017905	0.027465	-0.040577	-0.0088696	0.018425	-0.017389	-0.019266	-0.01496	-0.013697	-0.0055968	0.019516	0.0055366	-0.006728	0.01029	-0.0099133	0.012693	-0.0078681	-0.012457	-0.027198	-0.0026232	-0.01763	0.013051	0.013746	0.027822	0.011755	0.00074982	-0.0040307	-0.038331	0.022175	-0.016505	0.0034861	-0.0089736	-0.0057557	0.0073263	0.003975	-0.0021921	0.0060762	0.008176	0.029966	0.022465	-0.018491	-0.029848	0.045532	0.012022	0.061261	-0.002528	-0.012289	0.013013	-0.0070053	0.0036193	0.016068	0.03638	0.024445	-0.0046038	-0.011655	-0.046337	0.002769
0.0097188	0.0091813	-0.011156	-0.012972	0.018974	-0.017196	0.027095	0.021256	0.0037511	-0.0043092	0.005385	0.012177	0.013	-0.030108	-0.02362	0.0078899	-0.016651	0.018419	-0.014555	0.0061044	0.0058934	-0.011119	-0.016513	0.015309	-0.0056481	-0.006599	0.0067897	0.0046858	-0.087229	0.02742	0.019658	0.0037392	0.0062819	0.010075	0.0082326	0.03509	-0.0094195	-0.021286	0.022616	-0.014213	-0.006783	0.017166	0.011892	-0.026411	0.03243	0.017528	0.0052248	0.010548	0.019251	0.012409	0.0030167	-0.01208	-0.0095454	0.021896	-0.0058309	0.017646	-0.032404	0.0087246	-0.01009	-0.0044435	0.0085982	0.01016	0.0056278	-0.009985	0.00037883	-0.00090266	-0.029838	-0.014107	0.008032	0.010082	-0.0045007	0.00014694	-0.0085097	0.023573	-6.5198e-05	0.0054721	0.012708	-0.0063598	-0.0038424	-0.0073289	-0.0075986	-0.026063	-0.0063174	0.014731	0.017738	-0.0027957	0.016294	-0.00099234	-0.0091065	0.0036227	0.025314	-0.046581	-0.035232	0.0090574	-0.052653	0.011762	-0.0058979	-0.049251	-0.085581	-0.030906	-0.061958	-0.018238	-0.01077	-0.045917	-0.060736	-0.053257	-0.021702	0.58167	0.026426	-0.054568	0.019729	-0.058978	-0.012684	0.011401	-0.02041	0.010356	0.0371	-0.023578	0.0067787
-0.02428	0.012407	0.0011704	0.011444	-0.04441	-0.011086	0.021282	-0.031598	-0.014708	0.00083012	0.013826	0.06705	0.032056	-0.048575	-0.036977	0.55445	-0.038019	-0.019125	0.021144	-0.024833	0.048417	0.015503	0.04316	0.019026	-0.018848	0.012136	0.014822	0.0032788	0.027804	0.066868	-0.021988	0.0014411	-0.0096381	0.050274	-0.0042937	-0.021038	-0.0031639	-0.013278	-0.018292	-0.04596	-0.074975	0.042666	-0.025811	0.00097358	-0.03259	-0.013376	-0.010375	-0.0079039	-0.023453	0.0044132	-0.0025414	0.0043481	-0.0057349	-0.01961	-0.0007661	-0.020162	-0.003354	-0.015732	0.0045344	-0.0133	0.025101	-0.014286	-0.021123	0.025708	-0.047727	-0.029382	0.022008	0.00093865	0.030221	-0.012461	0.0046301	-0.0039982	0.024596	0.013986	0.018518	-0.021119	0.034706	-0.079427	0.021037	0.014465	-0.016474	-0.084361	-0.060336	0.0060067	-0.010972	-0.0067708	0.020426	-0.011948	-0.0071883	-0.0010325	-0.022362	0.013807	-0.0061722	-0.017827	-0.039752	0.0086845	-0.010812	0.044159	-0.0052861	-0.024479	-0.007753	-0.022256	-0.013157	0.044605	-0.000636	-0.017489	0.021545	-0.0053819	-0.05591	0.014352	-0.00013868	0.026795	0.0046266	-0.0027002	-0.011038	0.02557	-0.0022842	-0.015652	-0.0085469
0.035037	0.031887	0.0062201	-0.014029	0.020484	-0.020742	0.0067923	0.0076336	0.015308	0.00047157	0.0069978	0.0089037	-0.0016338	0.011016	-0.0030236	-0.0068577	-0.020567	-0.00026825	0.032664	-0.033037	0.0056781	-0.012197	-0.025209	-0.018598	0.013265	-0.010419	-0.024335	0.020243	0.0044803	0.050219	0.048959	0.03454	-0.0015869	-0.018131	-0.038483	-0.0060917	-0.011387	0.03581	0.023838	-0.0062869	0.047358	-0.056925	0.027475	0.060803	-0.0126	-0.043451	0.0024858	-0.011734	-0.029933	0.57403	0.010942	-0.004176	0.0024311	-0.016807	0.022817	-0.0020136	0.0079674	0.013632	0.046286	0.054363	-0.019901	0.012752	-0.0024367	0.018534	0.021948	0.0076841	-0.0050336	-0.0055235	-0.020578	0.012522	-0.011013	0.0037537	0.051446	0.0028626	-0.026626	-0.0083711	-0.052109	-0.031396	0.01463	-0.0027318	0.022264	-0.021623	0.0084497	0.017158	-0.006611	0.010564	0.027639	-0.016805	-0.010241	-0.0022396	-0.0046308	0.018216	0.0033494	0.017543	0.018144	0.016265	-0.017904	0.035442	-0.0090164	0.005287	-0.028631	0.021911	0.008211	0.053157	0.012801	-0.0045458	-0.0035797	0.0042925	-0.0076468	-0.018963	-0.0043185	0.0535	0.017407	0.025591	0.026509	0.0327	0.0017277	0.0081609	0.00086078
-0.019724	-0.014535	0.0049092	-0.0069415	-0.050155	0.016281	0.031097	0.026472	-0.053993	0.02471	0.006906	-0.017739	-0.011396	0.025386	0.011999	0.021157	0.00060433	0.042202	-0.0033803	0.019687	0.0121	-0.071659	0.0093717	-0.011443	0.024548	-0.00034413	-0.014587	-0.0084352	-0.046921	-0.0091925	-0.025814	0.00048601	-0.0094719	-0.0047603	0.041021	0.0081319	-0.015753	0.0087177	-0.0086941	0.01228	0.048901	0.0012153	-0.0019022	0.0039032	-0.038208	0.0060839	0.0077192	0.014317	0.02641	-0.0034866	0.031926	-0.029473	-0.033188	0.010651	-0.0053523	-0.0090108	-0.014145	-0.018793	-0.0030163	0.010719	0.017398	-0.0024513	-0.024965	-0.036973	-0.016323	-0.019906	0.00033046	0.028177	0.002991	0.016262	0.0080581	-0.01688	-0.0037735	0.011742	-0.0068193	-0.00025797	-0.039925	-0.017673	0.0055077	0.01572	-0.030068	-0.026642	-0.016369	-0.0060231	0.013066	0.013963	0.0029486	0.0014292	0.0004658	-0.0062386	-0.026127	0.017643	-0.012591	-0.017838	-0.010641	0.025338	-0.0056081	0.003605	0.029152	0.031856	0.035824	-0.012921	0.001864	-0.005258	-0.0056451	-0.0029836	-0.00091018	0.01924	-0.019033	-0.10244	0.01978	0.0044985	-0.0092236	0.00076409	-0.0036383	-0.022258	-0.067426	0.5598	0.046601
-0.058489	0.011242	0.034326	-0.016156	0.079042	-0.0085891	-0.04445	0.013491	-0.0013459	0.032328	0.025577	-0.022392	-0.034636	0.010324	-0.017067	-0.014825	0.0066744	0.043735	0.010458	-0.014066	0.016366	-0.017015	-0.014149	-0.059722	0.023079	-0.0043263	0.51208	-0.044164	-0.017213	0.022457	0.083891	0.019457	0.011503	-0.051132	-0.0084995	-0.077369	0.049381	0.0031895	0.005112	-0.02464	0.00063261	0.04666	0.0086078	-0.0097422	0.026826	-0.0044539	-0.0081052	-0.039561	-0.030243	0.00574	0.021508	-0.0053432	0.01643	0.01973	0.025638	-0.0022918	0.026809	0.00044471	0.0016817	-0.0077346	0.0025401	-0.024809	-0.021432	-0.028961	-0.040018	-0.030091	0.016565	0.024632	-0.033932	-0.020382	0.047916	0.011255	0.031093	-0.0029389	0.0036795	-0.035835	0.0064759	-0.052415	3.9662e-06	0.026656	-0.022507	-0.021327	0.0091101	0.0022522	0.029985	0.016537	0.013241	0.012335	0.015624	0.0032011	0.027404	-0.0030311	0.028388	0.0039277	0.028392	-0.0025075	0.0099594	0.0092695	0.017712	0.0022596	0.010159	0.068575	-0.039646	0.0083821	0.039364	0.0054776	-0.0034853	-0.00059052	-0.028254	-0.005994	0.033137	-0.079665	0.015396	0.012886	-0.016225	0.042358	0.0048178	0.010709	0.018667
-0.037386	-0.0076539	-0.0082357	-0.021815	0.022368	0.0058112	-0.02712	0.0067726	-0.11818	-0.032629	-0.0030999	-0.053117	0.029886	0.0059428	-0.017358	0.067633	-0.011379	0.042755	0.023135	-0.0092802	0.015367	-0.016991	-0.013073	0.002884	0.011583	0.00049773	-0.015708	0.012999	0.010201	-0.011984	0.061434	0.026846	0.024938	-0.016894	0.028767	-0.011403	0.0079397	-0.0020858	0.017924	0.017949	0.027508	-0.018085	-0.0039651	-0.005458	0.0079179	-0.016264	-0.0053557	-0.001569	-0.022664	-0.020697	-0.00029242	-0.0083551	0.0055657	0.028084	-0.02057	0.012698	0.02012	0.024552	-0.016311	0.0023409	0.02895	0.05087	-0.0081871	-0.023249	-0.017999	-0.045806	-0.031747	0.00409	-0.06008	-0.026174	-0.027848	0.0079537	0.042783	-0.0013936	-0.011272	-0.020831	-0.025718	0.033347	0.0079418	0.0034892	-0.012657	-0.0034864	0.0059183	-0.030737	0.0028591	0.018222	0.01585	0.006064	0.0079462	0.02292	-0.026381	0.010381	0.0094702	0.026812	0.02062	0.0030514	0.014994	0.032752	0.017428	0.014436	-0.011497	0.024752	-0.019191	0.072998	0.022036	-0.021949	0.008422	-0.010713	0.52405	-0.044795	-0.012535	0.01114	0.0089602	0.010442	-0.0036943	0.012312	-0.033987	-0.016135	0.022854
-0.019428	-0.0022525	-0.0042565	0.010615	0.0059864	0.0045626	-0.017725	-0.0018851	-0.01803	-0.0058274	0.015018	0.0016473	-0.0040128	-0.014821	-0.0023199	-0.0057928	-0.0088458	-0.010853	-0.012928	-0.013509	-0.014613	-0.0054334	0.010023	-0.010473	-0.027106	0.014255	-0.0043239	-0.0064405	-0.0038541	-0.0077479	-0.0015973	0.011136	-0.010568	0.0025705	0.0015828	-0.004412	-0.0031489	0.0089087	-0.0051988	-0.0070829	0.011961	-0.0133	0.0081154	-0.010993	-0.021589	-0.02922	-0.12515	0.053721	-0.025736	-0.026208	-0.00081482	0.0061699	-0.0018732	0.014793	0.14976	0.0047069	0.028764	0.0021159	-0.014635	-0.0052754	-0.027145	0.011177	0.0029862	-0.023037	-0.0074758	0.010711	-0.0056526	-0.0026916	0.0035283	0.0070112	-0.036007	-0.039235	-0.014838	0.0069956	-0.0215	-0.0069032	-0.020433	0.010888	-0.032723	0.01774	-0.00054247	0.016845	-0.017513	0.018686	0.057414	0.039806	0.038468	0.066053	0.04198	-0.021892	-0.043804	-0.037662	-0.0077792	0.057992	0.032522	0.49345	-0.058599	0.015076	-0.043096	-0.053434	-0.05436	-0.015169	-0.0066974	-0.021591	-0.019945	-0.018062	-0.016146	-0.026441	-0.012284	-0.0088656	-0.0050217	-0.0031863	0.015444	0.015321	0.0042977	0.014563	-0.0079937	-0.016499	-0.016112
-0.010662	-0.0098288	0.00019204	0.012998	-0.0051274	0.013461	0.0066687	-0.0090049	0.010691	-0.0035663	-0.0028132	-0.02063	-0.0059966	0.0096125	0.014634	0.010015	-0.027285	0.010502	-0.021595	-0.012882	0.0072869	-0.0058259	0.01673	0.0038534	0.0062088	-0.0054121	-0.016756	-0.0041645	0.00254	-0.0080264	0.0053754	-0.020888	-0.0089296	-0.017765	0.00091676	0.00025929	-0.010034	-0.015687	-0.010623	-0.072442	-0.040786	-0.022755	0.54442	-0.025464	-0.0031267	-0.016627	-0.0025648	0.0018369	-0.005345	-0.014669	-0.048908	-0.054581	-0.034266	-0.021335	-0.0072809	-0.0072213	-0.0074008	-0.035238	-0.010459	0.0017717	-0.0081085	0.003444	-0.015	-0.025831	-0.037168	-0.0097092	0.0052754	0.0045946	0.0075203	-0.015075	-0.013339	0.0074438	0.0058764	0.010892	0.0071372	-0.011173	0.018818	0.002157	-0.0016589	0.0010857	0.021842	-0.013031	0.0032002	-0.0030021	0.0024888	-0.013384	0.010323	-0.0079938	-0.0037368	0.006416	0.0012448	0.0036925	0.00040854	0.012909	-0.014191	-0.011161	0.0071449	-0.011531	0.0014722	-0.0064953	-0.0059492	-0.0054515	-0.0085399	-0.016199	0.013397	-0.001737	0.0021005	-0.018157	0.0057776	0.0013872	0.026279	-0.00734	0.0041227	0.020116	-0.0033691	0.017582	0.0085872	0.0023689	-0.0038774
0.003716	-0.00066605	-0.0058154	0.0040693	-0.03752	-0.013145	0.022292	0.016573	-0.023872	0.012889	-0.0068359	-0.011207	-0.028002	-0.024585	-0.0093926	0.0086237	-0.0024614	0.009445	-0.022609	-0.029593	-0.010176	0.022064	-0.019077	0.03234	0.0032088	-0.0040074	-0.0022273	0.0060866	0.0063625	-0.002138	-0.001411	-0.045559	-0.035311	-0.081724	0.00018348	-0.022986	-0.0057395	-0.10171	0.51888	0.004532	-0.0050094	-0.025572	-0.0054744	-0.010198	-0.050488	-0.00015917	0.00031648	-0.015372	0.019794	-0.029986	0.022122	-0.04425	0.00055234	-0.0139	0.0030787	0.00071319	-0.0086094	-0.0084322	0.010051	-0.014118	0.0095467	-0.0042796	0.0025089	-0.0093323	-0.0083579	-0.0054312	0.00038304	0.0069262	0.014967	0.026635	0.0033681	-0.0064807	0.0094777	-0.013752	-0.053909	0.0249	-0.042461	-0.034592	0.0060142	0.021	0.026339	-0.0010795	0.001074	0.0086553	-0.023197	-0.016746	0.0069695	-0.011546	-0.0077641	0.0046874	-0.024517	0.00072319	0.0086487	0.010074	-0.015124	0.0016862	-0.00081347	0.0039889	0.004332	-0.022445	-0.026247	0.035648	0.020081	0.0073558	0.0032978	0.0051831	-0.028461	-0.019802	-0.019782	-0.0095361	0.040729	0.017057	0.0031351	-0.016109	-0.0063889	0.0085577	0.0047234	-0.0063428	-0.0052881
0.022987	0.026908	0.013184	0.029982	-0.013201	0.01621	-0.0014826	0.011799	-0.0059998	-0.0091237	-0.0013225	0.010748	-0.038677	0.009087	-0.025974	0.02725	-0.033787	-0.012448	-0.030847	0.015125	-0.038182	-0.003514	0.0013097	0.025432	0.012035	-0.018894	0.015456	-0.011669	-0.0084221	0.042831	-0.018733	0.0050651	0.019854	0.0099029	0.012949	-0.012327	-0.011677	0.0068211	-0.035665	0.013251	-0.00073541	0.059154	-0.022293	-0.0075118	-0.010929	-0.034523	-0.026422	-0.01064	-0.023583	-0.02222	-0.004379	0.015364	-0.0043274	0.0053047	-0.034263	0.0095441	-0.0075839	-0.051939	0.01556	-0.011724	-0.02795	0.00078533	-0.0056376	0.029788	-0.016928	0.013243	-0.064327	-0.004587	-0.0079711	-0.0083774	-0.0064011	0.020068	0.067792	0.011518	-0.032322	0.015486	0.005638	-0.0019342	0.08432	0.038578	0.48982	0.12119	0.062891	0.0077142	-0.027183	0.036187	0.038665	-0.013672	-0.013259	-0.0070575	-0.017369	-0.051343	0.024442	-0.0083593	0.0013722	0.00094801	-0.00035929	-0.01002	0.0054726	-0.0013034	-0.0025602	0.038868	0.025647	-0.037404	0.025887	0.0038613	-0.014554	0.0072454	0.011302	-0.011014	0.0056777	-0.01312	0.022632	0.03516	-0.013077	0.023952	-0.0056693	0.033028	-0.00768
0.042994	-0.045251	-0.022738	0.041529	0.024225	-0.0087363	-0.013088	0.0089539	0.045606	-0.0090664	0.045649	0.034203	0.030098	-0.025512	0.025938	0.0031654	0.024008	0.022767	0.0091547	0.0038848	0.013808	-0.0047251	0.019068	-0.07543	-0.0030692	0.081688	0.0083467	0.46132	-0.14928	-0.046366	-0.023352	0.044923	-0.010162	-0.030675	0.019861	-0.071205	0.022189	0.038071	0.011568	-0.0036806	0.010584	-0.034181	0.015176	-0.002638	0.0021075	0.0018255	-0.019682	-0.00428	-2.861e-05	-0.041377	0.012172	0.057401	0.024986	0.01455	-0.0049348	-0.012082	-0.0022613	0.035526	0.026782	-0.0040384	-0.035217	0.00099734	0.011115	0.024727	0.0050678	0.033467	-0.028059	0.010833	0.039507	-0.010597	-0.017496	0.021343	0.085387	0.0019834	-0.00679	0.013767	-0.013103	-0.011765	0.023668	0.042626	0.0026494	-0.023406	0.012109	-0.024067	0.019701	-0.0019638	0.027135	0.0028811	0.0036833	0.043585	0.026856	-0.00077967	0.0093018	-0.022118	0.0030925	-0.0034735	0.0045952	0.041989	0.0052514	0.01604	-0.024518	-0.013091	0.01126	0.021205	0.026882	0.0084484	0.023356	-0.0048384	-0.012756	0.029948	-0.0030299	-0.026331	-0.0018761	0.032567	0.034053	0.032113	-0.013471	0.008491	0.027109
0.023654	0.007336	0.0058823	-0.014076	-0.022401	0.0038448	0.040663	0.0063326	0.0026757	-0.016938	-0.010274	-0.028807	-0.037473	-0.038076	-0.013168	-0.018425	-0.018652	-0.00025313	0.0050475	0.0014778	-0.01322	-0.013264	0.00092128	0.02304	0.021235	0.0082021	0.00064982	0.019105	-0.029808	-0.00042428	-0.0037543	0.015199	-0.00012482	0.00073891	-0.0052608	0.011507	-0.0015928	-0.005417	0.048769	0.014793	-0.053109	0.037924	-0.0009233	-0.0030053	0.035328	0.0096948	-0.009549	0.0034076	-0.0084282	0.027832	-0.0062237	-0.0040933	0.024568	0.03505	0.010104	0.0075325	-0.023393	0.02261	-0.0030613	-0.02796	0.0054592	0.002103	0.002263	0.010609	0.006493	-0.0060307	-0.00065552	-0.046758	0.0065312	0.015242	-0.036134	-0.049514	-0.069014	-0.038331	0.51333	-0.047646	-0.024432	0.010193	0.0033978	-0.0083359	0.0361	0.0095967	-0.015477	-0.024172	0.0029766	0.016651	0.031482	-0.0023045	0.0029879	-0.011276	-0.011526	-0.0043721	0.013454	-0.046121	0.020805	0.011641	-0.0071558	0.011743	0.012852	-0.022337	-0.013661	0.030979	-0.015614	0.037776	-0.027896	0.020723	0.017965	-0.016059	0.012398	-8.1159e-05	0.018277	-0.010032	-0.0066159	0.017635	-0.011955	0.031805	0.028538	0.017034	0.0054729
-0.016765	-0.010153	-0.0028524	-0.00086558	-0.073847	0.043244	-0.010409	-0.00015257	-0.038859	0.0019338	-0.0039305	-0.046897	0.01194	-0.03082	-0.0074015	-0.00788	0.0053291	-0.01468	-0.022055	0.0091447	-0.027144	-0.017737	-0.020344	-0.019861	0.0097542	-0.013806	-0.027153	-0.033731	-0.051204	-0.068344	0.010259	-0.014504	-0.037318	-0.00084404	-0.030235	-0.039527	-0.014223	-0.042085	-0.026336	-0.0087197	0.014233	0.0055148	-0.029644	-0.0094739	0.0056801	-0.020284	-0.0023515	-0.015927	0.042929	-0.00058594	-0.015503	0.033967	-0.019979	0.0035864	0.011211	-0.036588	-0.025015	-0.072123	-0.0016855	-0.0091171	0.01834	0.0020636	-0.012648	0.016786	0.02278	0.0072577	-0.0057144	-0.012106	-0.020579	-0.038878	-0.025419	-0.017747	-0.018711	0.0012679	-0.028577	-0.00057423	0.024085	-0.01789	-0.014707	0.0073925	-0.03068	0.015498	0.022646	-0.012458	0.0076057	-0.021368	-0.0091953	-0.0038501	-0.0036973	0.014264	-0.0021269	0.0051045	0.0066622	-0.0041545	0.014365	-0.02813	0.0099375	0.0011164	-0.015309	0.0043097	-0.021925	-0.048443	0.002261	-0.051457	-0.017083	-0.059948	-0.022717	-0.028525	-0.0026111	-0.025154	0.012698	0.0011871	0.00067188	-0.020938	0.046029	0.48558	0.10656	0.011708	4.9415e-05
0.0021639	0.0013195	-0.020442	0.0025159	-0.0066495	0.0088122	0.012223	-0.028673	-0.018347	-0.017454	-0.0070901	-0.010781	-0.0038022	0.01302	0.020705	-0.0080956	0.022359	0.020505	0.0053918	0.018808	-0.0022753	0.013878	0.00093657	0.0069609	-0.0038341	-0.014473	-0.012677	0.033414	-0.0010031	0.024543	0.035165	-0.0089413	-0.0016936	-0.0013399	-0.058493	-0.0042303	-0.020045	0.0045678	0.021111	-0.0057266	-0.011804	0.0020464	0.0056305	0.033736	-0.024018	-0.0013649	-0.01294	0.018914	0.00658	0.01672	0.0097122	0.0014174	0.025078	0.0092622	-0.03881	-0.020254	0.023741	0.038179	-0.00027169	0.0073737	0.012135	-0.0023001	0.011396	0.0033288	0.0026078	-0.0094351	-0.022754	0.034383	0.021363	-0.0096363	-0.016209	0.00029284	0.011479	-0.0046598	0.0085999	0.013559	0.0024373	-0.033162	-0.020366	0.02484	0.025041	-0.022234	-0.017365	0.011925	0.049335	0.01132	0.012891	0.0053047	0.0031972	-0.054513	-0.019867	0.060528	4.4642e-06	0.014432	-0.046533	0.053453	-0.0063793	-0.05076	0.083805	-0.051192	0.4754	-0.03174	-0.027749	0.0044189	-0.024313	-0.030496	-0.033398	0.043954	0.010849	0.03628	0.0033748	-0.037496	-0.0039661	-0.0031657	-0.011181	0.034903	0.0075517	-0.029907	-0.0032052
0.0087982	0.03216	0.019046	-0.0067233	0.013645	-0.046793	0.018251	-0.014262	-0.0066622	-0.0072399	-0.0019142	-0.028152	0.4958	0.0575	-0.023734	-0.031288	0.0032187	-0.0057225	0.0022302	-0.019433	-0.0061977	0.0073796	-0.036492	-0.010573	-0.010472	-0.0068816	0.0072674	-0.02423	-0.014171	-0.0060052	0.010712	0.011949	-0.029418	0.0088101	-0.01455	0.011508	-0.00019135	-0.0022209	0.025642	0.0029935	-0.017465	0.017813	0.0057373	-0.0023218	0.021085	0.020672	-0.0010112	-0.020393	-0.022027	-0.020862	-0.0077333	0.0028223	0.0011781	0.0042559	0.0052535	-0.011053	0.039799	-0.011855	-0.0086911	0.0072587	-0.0017752	-0.020946	-0.020896	-0.011402	0.018889	-0.012507	-0.0099709	-0.022586	-0.040391	-0.027438	-0.013518	-0.019599	0.0087177	-0.010387	0.019223	-0.013616	-0.049569	-0.037096	0.024605	-0.02635	0.049376	-0.063925	0.0066876	0.0042519	-0.010488	0.028122	0.013072	-0.0015157	8.7742e-05	-0.0053445	0.0029042	0.0076564	-0.00064142	0.013417	-0.0051629	0.0064368	-0.0060489	-0.015106	0.010816	0.012336	3.1487e-05	0.032841	-0.0055805	-0.0091335	-0.018818	0.024902	0.013834	-0.0078994	-0.033281	0.0087991	0.00029995	0.0090976	-0.016984	0.015151	0.014952	-0.0011237	-0.00015717	0.015865	-0.015733
0.0067685	0.002657	0.015887	-0.013478	0.027509	-0.012017	0.016211	0.0069458	-0.0073392	0.0060906	0.00092415	0.0022542	0.013017	-0.014828	-0.019578	0.018294	0.0059624	0.0029527	0.00030462	-0.011611	0.0088248	-0.0026094	-0.030083	-0.01331	-0.019247	0.011007	0.039035	0.00068324	0.028919	0.0072787	-0.00050627	-0.014183	0.0095365	-0.0022324	-0.014929	0.027091	0.0084759	0.024909	-0.014984	0.018713	0.0043362	-0.014266	0.0050431	-0.022908	0.0069582	0.024203	-0.0015703	-0.0051171	-0.029878	0.015401	-0.0065954	0.011799	-0.036597	0.0013227	-0.0075129	0.0062845	0.01068	-0.049978	0.0024696	-0.026968	-0.0092427	0.022952	-0.010584	-0.033862	-0.02149	0.020534	0.0028721	-0.011084	0.015029	-0.0070881	-0.018097	-0.012982	-0.026255	-0.023678	0.045293	0.4859	-0.010728	0.0081331	-0.0097469	0.02014	-0.0046682	-0.01543	0.0062687	-0.002187	0.005003	-0.033678	0.00029728	-0.0011153	0.010837	0.002317	0.00303	-0.04586	-0.029445	0.0013932	0.0046287	0.0049227	0.0077458	0.023124	0.015518	0.028427	0.0048262	-0.050316	0.0066394	0.0050372	0.00085846	-0.00037439	-0.0089355	-0.012295	0.017878	-0.026439	0.054252	0.0060465	0.0052987	-0.0035805	-0.0026032	-0.0012842	0.015144	-0.0035323	0.0022242
-0.023759	-0.019239	-0.011268	-0.016528	0.0031075	0.022206	0.45993	0.025347	0.0038866	0.0088454	0.0051393	-0.01748	-0.02471	0.045743	-0.035033	-0.0077106	-0.033912	0.044209	0.010572	-0.016431	-0.0049556	-0.021705	-0.030203	0.0073037	-0.027994	-0.0098202	0.018807	0.0085731	-0.0086282	-0.049615	-0.0026748	-0.00035323	0.0052347	-0.0072125	-0.020961	-0.0091897	-0.026783	0.021794	-0.026995	0.039034	0.0096681	0.030938	-0.010355	-0.010334	0.026678	-0.0021283	-0.0064085	0.04142	0.0023742	-0.0057259	-0.0029717	-0.019186	-0.003573	0.012932	0.025956	0.013961	0.03451	-0.014109	-0.0032711	-0.018726	-0.026073	-0.0022224	0.0070364	-0.052354	-0.0061391	-0.017842	0.021127	0.042336	0.021633	0.0057916	0.028044	0.0089316	0.02876	-0.0025868	-0.030431	-0.02164	-0.03774	-0.015157	-0.033492	0.044012	0.0060646	-0.023868	0.0014716	0.013079	-0.0033387	0.0025886	0.017627	-0.0075432	-0.00097718	-0.018138	-0.0065267	0.029093	-0.0089044	-0.0073873	0.010751	-0.011471	-9.3797e-05	0.033544	0.012031	-0.019001	-0.017795	-0.0034153	0.016013	-0.047292	0.01708	-0.022498	0.030941	-0.017193	0.015835	0.024063	-0.0021465	0.015019	-0.004942	0.014353	0.015269	-4.3932e-05	0.01711	-0.040251	0.0088478
0.04446	-0.007605	-0.014475	-0.0085287	0.017282	-0.0077475	-0.028066	-0.0496	-0.037718	-0.014714	-0.015276	-0.016895	-0.0034904	-0.0050045	-0.0089016	-0.0080779	0.016758	0.054934	-0.011075	0.023899	0.0074305	0.031987	-0.0077832	-0.050649	0.0053715	-0.0068352	0.014578	-0.015169	0.043907	0.012775	-0.043774	-0.032824	0.025103	-0.02426	-0.0040291	-0.010916	-0.026993	0.014046	0.017564	-0.0026378	-0.011689	0.011055	-0.005145	-0.012732	-0.027297	-0.015043	-0.0065916	-0.014451	0.0093644	0.025067	0.0070305	-0.025609	0.014899	0.0065864	-0.00080755	-0.034703	-0.061486	0.038593	-0.0069459	-0.010369	-0.016056	0.0046746	-0.0015908	0.015695	0.007792	-0.027403	-0.014562	-0.0078577	0.048004	0.0036501	-0.013224	-0.010278	0.001468	0.015615	-0.019115	0.017628	-0.0040816	0.0048289	-0.032161	-0.0068308	0.012412	0.0027683	0.022584	0.020242	0.016784	-0.0078758	-0.0014647	-0.0030987	0.0013227	-0.007009	-0.027368	-0.0049348	-0.0036662	-0.027723	-0.015451	0.011934	0.0098402	-0.043277	-0.017188	-0.02073	-0.0072833	-0.0079815	-0.024956	-0.081494	-0.043162	0.0057621	0.43588	0.005845	0.020229	0.096897	0.014061	-0.014791	-0.0058097	-0.024175	-0.0090115	0.02012	-0.00046152	0.020666	0.013338
-0.0086958	0.02195	0.025614	0.036616	-0.028043	-0.0039147	0.0058721	0.040897	-0.0052008	0.010817	-0.0091959	-0.013854	0.023215	-0.0093569	-0.0094407	-0.014942	-0.0084085	-0.0064114	-0.0022827	-0.01846	0.0051563	0.013903	-0.029219	-0.022714	0.049639	0.014841	0.018286	0.0074632	0.025466	-0.009987	-0.0010284	0.041697	0.041698	0.010764	-0.014084	-0.006035	-0.0041015	0.015265	-8.3622e-05	0.010574	0.0122	0.021859	0.0047403	0.017519	-0.017064	-0.030571	0.00352	-0.0034713	0.005717	-0.017015	-0.024908	-0.0030267	0.021585	0.01001	-0.010011	-0.035827	-0.056854	0.029346	-0.028508	0.0029682	0.070173	0.41881	0.062221	-0.0065978	-0.035574	-0.033973	0.0047301	-0.038168	0.061477	0.018312	0.03919	0.00015808	-0.034745	0.00924	-0.017814	-0.011753	-0.0076759	-0.042447	-0.0041169	-0.0049646	0.0081662	0.015226	-0.019359	-0.0047298	0.0093378	0.021115	0.013245	0.013867	0.011125	-0.025239	-0.013455	0.013187	0.0034861	0.0057087	-0.022673	-0.0074247	0.0051006	0.0090442	0.015196	0.031314	-0.009114	-0.013637	-0.019198	0.035498	-0.01384	-0.022781	-0.0095902	-0.0026712	-0.048343	-0.0042713	-0.00077027	0.021783	0.012412	0.036117	0.0045449	-0.0010097	0.0017507	-0.0093154	0.0063291
-0.0095935	0.018314	-0.01475	0.0012962	-0.0052951	0.009821	0.025294	-0.035126	0.00020705	-0.0015052	-0.0061921	-0.0031474	0.0063751	0.0062435	0.0044781	0.0067284	0.011559	0.014779	0.021049	-0.0043937	0.0067445	-0.017868	-0.0083308	-0.030087	0.44192	0.0057745	-0.036374	-0.026051	-0.041981	0.013043	1.9662e-05	-0.0021507	0.019009	-0.010493	0.0060437	-0.028526	-0.028003	0.019707	-0.0022353	-0.0062212	0.017512	-0.038125	-0.010295	0.0097142	-0.013632	-0.01691	-0.0082677	-0.0019729	-0.031263	-0.025712	0.011291	0.025473	-0.012599	-0.026672	-0.010511	-0.010747	0.011125	0.0051265	0.0051057	0.027813	-0.019251	-0.045544	0.00047646	-0.024323	-0.025929	-0.0002737	0.018547	0.048556	-0.018336	0.029043	-0.02709	0.021701	0.0063925	0.0083308	0.0061847	0.022545	0.013431	-0.041472	0.0078998	-0.01213	-0.0085219	-0.011604	0.01293	0.0025114	0.0037451	0.0066389	-0.0081499	0.0055859	0.0013177	0.0022711	-0.011329	-0.015243	0.0066802	-0.0021906	-0.0087432	0.013582	-0.0064151	-0.0018649	-0.014638	0.0053239	-0.0099918	-0.0031241	-0.0013109	-0.0010956	-0.0075864	-0.029072	-0.0011071	-0.0042169	-0.013506	-0.0062329	0.011663	-0.019846	-0.023908	0.025652	-0.020103	-0.011789	-0.0051382	-0.038015	-0.0052369
0.0061253	0.0099375	0.031675	-0.00279	0.0085619	-0.0052591	-0.028445	0.00092696	0.032218	-0.010338	0.0082259	0.007249	0.00084346	-0.0080289	0.0050604	0.024666	0.0078111	0.020289	0.0040798	0.0097278	0.011334	-0.026252	0.016564	-0.004944	-0.000742	-0.014909	0.012652	-0.00097557	0.036939	0.0041301	0.0050615	-0.0029205	0.010874	-0.018654	-0.063126	0.0080757	0.023097	0.047565	0.0045167	0.41742	-0.026188	-0.045219	0.046047	0.046939	-0.040641	-0.066781	-0.0042737	0.019028	-0.019591	-0.030179	-0.024282	-0.037066	-0.0033184	-0.009092	-0.008789	-0.010381	0.0091857	-0.033592	0.015912	0.019762	0.0024361	-0.015455	0.0043588	0.015393	0.010458	-0.029621	-0.013927	0.035244	0.0052127	-0.015188	-0.0099635	0.015663	0.02736	0.0049377	0.0061322	-0.017588	-0.016538	0.014872	0.014651	-0.0094133	-0.022613	-0.0056791	0.019375	-0.0083595	0.0072	0.0087044	0.011612	-0.0006763	-0.0084649	-0.017794	0.011436	-0.040333	0.00087084	0.00871	-0.0085572	0.00061367	-0.0040127	0.0043423	-0.0055341	0.0013268	-0.0090677	-0.0042716	0.0076362	0.031408	-0.0025909	0.010398	-0.0055973	0.029688	-0.020903	0.035817	-0.014218	0.024448	-0.0049482	-0.016088	-0.033235	0.035038	-0.00455	0.00323	0.00031809
-0.0095903	0.039393	-0.036929	-0.0042177	0.016261	-0.017851	0.020314	-0.011135	-0.013453	0.012008	-0.016832	0.00012485	-0.023377	-0.035811	-0.0092159	0.017565	-0.0035943	0.02986	-0.020453	0.015268	0.021963	-0.010969	-0.0069422	-0.027043	-0.017576	-0.00058193	-0.056423	0.015076	-0.014651	0.025462	0.010469	-0.020375	-0.0083261	-0.011082	-0.0062886	0.00046053	-0.017827	-0.0006122	-0.030716	0.0029045	0.0075334	-0.017917	-0.00058124	-0.019642	0.016769	-0.017581	-0.004972	-0.0039733	-0.0048428	-0.0098241	-0.006539	0.031361	-0.0066039	-0.0019629	0.011495	-0.0097026	-0.017995	-0.0028462	-0.004659	0.010318	0.0082012	0.026233	0.0061299	-7.6947e-05	-0.013578	0.014322	-0.013886	0.02871	-0.0034366	-0.015931	-0.0076164	-0.013462	-0.01048	0.008187	-0.018205	0.039241	0.017599	0.030545	0.0077607	-0.031998	-0.033754	-0.026618	-0.044538	0.0051581	-0.010149	-0.0079527	0.024023	-0.014031	-0.011155	0.0014791	-0.0064118	-0.042176	0.020916	-0.0080432	0.00014829	0.0088485	-0.0064115	-0.054969	0.018032	0.040071	0.016615	0.41972	0.00094301	-0.026742	-0.040895	-0.019201	-0.019299	-0.0068068	-0.017996	0.03257	0.011504	-0.020652	-0.012684	-0.016058	0.0089555	0.025624	-0.0012595	0.0065333	-0.0088185
-0.028146	0.009476	0.0039192	0.0030377	-0.019912	0.0041479	-0.036825	-0.028833	-0.0081125	0.009378	0.0087359	0.031311	-0.050602	0.41718	-0.056555	0.011402	0.0056518	-0.0053998	-0.031956	-0.0084937	-0.00026465	-0.014343	0.068358	-0.0072308	-0.012723	-0.0034945	-0.017656	0.020711	-0.036031	-0.0010531	0.013557	0.017979	0.0080001	-0.020922	0.00045216	0.014752	-0.0087928	-0.01437	0.012348	0.0073064	-0.047197	0.0094111	-0.0098045	-0.014035	-0.0014578	-0.0077004	0.00064736	-0.0061285	-0.0064203	-0.0044177	0.030622	0.0041315	0.013749	0.00018353	0.018097	0.0094584	-0.0314	0.0066948	-0.020044	0.018029	-0.0090985	0.023609	-0.0020312	-0.029605	-0.014534	0.015332	0.0094558	-0.012444	-0.0027327	-0.0082007	-0.036979	-0.0031638	-0.0032285	-0.00034404	0.016684	0.020695	-0.0077212	-0.017347	0.027697	-0.031101	-0.0071905	-0.03543	0.0019727	0.010124	-0.021034	-0.0089737	0.0013784	-0.00467	-0.00096885	-0.023018	-0.00026423	-0.0037101	-0.016681	-0.019016	0.0026871	0.001639	0.00084282	0.010292	-0.0054232	-0.011861	-0.013568	0.016146	0.0062015	0.014799	-0.01342	-0.013	0.0055998	0.0073908	-0.0074423	-0.0018608	-0.015362	-0.020956	0.016329	-0.031435	-0.011862	0.029718	-0.0059866	-0.019822	-0.01101
-0.0031448	0.011232	0.050649	-0.019607	0.016663	0.037165	-0.020115	-0.030355	-0.025866	0.016828	0.011128	0.035403	0.010952	-0.0088739	0.0092677	-0.0071864	-0.0056858	0.020215	-0.0016476	-0.005176	0.00636	0.014551	0.016281	0.40052	0.024816	-0.012427	0.018243	0.003598	-0.1367	-0.019349	0.0032316	0.021257	-0.0019029	-0.0036709	-0.026235	-0.013879	0.011391	0.032479	-0.011676	0.011513	0.039015	0.029438	0.007636	0.0034875	0.022009	-0.0023653	-0.0093532	0.012757	-0.0062374	0.0045195	0.011477	-0.0023222	0.013768	-0.0098682	0.02324	-0.026964	-0.0025958	0.018413	-0.00051429	0.0078146	0.013587	0.021356	0.0013239	0.0052654	0.0034109	-0.019056	-0.015247	-0.028157	0.018217	0.011438	-0.0052697	0.018974	0.036091	0.00039203	-0.020942	0.025772	0.0083908	0.004895	-0.013301	-0.00036981	-0.027487	-0.0063314	0.010659	0.011035	0.0079612	-0.015593	0.0094674	0.0084649	0.012021	0.002369	0.01781	0.013137	0.0066925	-0.02284	0.019581	0.0026702	-0.002529	-0.0056267	0.00042216	-0.0054194	0.00099758	0.028585	-0.003722	-0.0058553	0.025199	0.028311	0.044478	-0.018693	-0.0076015	0.0067822	0.014389	0.011333	0.012547	-0.0081655	-0.00018232	0.0037904	0.017073	0.0028833	-0.003829
-0.051306	-0.0041868	0.027274	0.018	-0.0097309	0.024375	0.0016512	-0.022951	-0.0025221	0.0056018	-0.0059448	-0.024969	0.023117	0.012938	-0.042828	0.036208	-0.0045174	0.040863	-0.00030366	0.0049161	0.001787	0.013493	-0.012668	-0.015721	0.043946	0.00094385	0.033882	0.0092747	-0.00089424	0.0060483	-0.0011956	-0.0050898	-0.011224	0.02875	-0.012291	0.0075608	-0.019041	-0.0065378	0.025112	-0.013249	-0.012254	0.038089	-0.0076538	-0.033813	-0.031935	-0.00066943	-0.0054772	-0.00040272	0.0036912	0.025539	0.0024468	-0.00080583	-0.011175	0.011861	-0.0081715	-0.00049204	0.01291	0.0087573	-0.0054248	-0.0086695	-0.027455	0.020494	0.010321	0.0018214	-0.0078688	0.0074265	-0.051116	-0.022947	0.0088298	0.011528	0.0079657	0.021038	0.028997	0.0017587	-0.0073273	-0.017046	-0.018048	0.40262	-0.00043669	0.0012964	-0.015247	-0.022518	-0.0068072	0.0088063	0.021663	-0.014773	0.013896	-0.0056395	-0.0062236	-0.023007	-0.014163	-0.022968	-0.01394	-0.0034916	-0.02733	-0.012598	0.0071007	0.016278	0.0083905	-0.010378	0.019817	-0.021792	0.016098	-0.0013017	0.0055666	0.016303	-0.0098767	-0.0028146	-0.041484	-0.022739	0.0063755	0.0090534	-0.0035044	0.047835	0.016003	0.016064	-0.011485	-0.0020521	-0.020814
0.0050478	-0.0019233	0.0012526	0.00040586	0.033889	0.0056154	0.0058663	-0.0093641	-0.004908	-0.0028386	-0.0039049	-0.018412	-0.006271	0.011694	-0.0015023	-0.0033728	0.0073807	-0.0011872	0.00084975	0.0098547	-0.0030156	-0.011355	0.0020111	0.00094923	-0.011485	-0.017973	-0.0072265	0.003079	0.011915	0.013893	0.025169	0.019895	-0.019128	-0.018022	-0.00083006	0.010196	-0.0024829	0.016192	0.0073671	-0.065322	-0.037953	0.008853	-0.0041957	0.40436	0.025135	0.0047767	0.0054702	-0.028575	-0.052172	-0.054635	-0.024323	-0.023508	-0.024085	-0.0016458	0.012198	0.006771	-0.0012648	-0.018762	0.017359	-0.00032445	-0.008604	-0.0027473	-0.0067414	-0.0025966	-0.014586	0.010803	-0.0067485	0.00099272	0.014665	0.022504	-0.0019547	0.0023624	0.013595	0.0029898	0.00050772	0.011245	-0.01229	0.029847	-0.0079296	0.015573	-0.00685	0.003363	-0.0055895	0.015921	0.013717	-0.0050306	0.0054701	-0.0025024	-0.0016193	-0.0075862	-0.0037024	-0.019115	-0.0067901	0.00061553	0.00043973	-0.0029917	0.0050343	0.013182	-0.0089134	-0.0029074	-0.02226	0.014234	0.014845	-0.0050182	-0.0037627	0.0024911	0.0088273	0.014404	0.001301	0.011291	0.0088604	0.015557	-0.002456	0.015294	-0.0055386	0.020723	0.0070752	0.010437	0.0015976
-0.0031389	-0.0009088	0.0029786	0.0088594	-0.0022754	0.0027894	0.00032225	0.0036897	-0.012611	-0.010235	-0.0013887	0.0139	0.0099553	0.00096425	0.0063867	0.0030964	-0.0070241	0.01274	0.00056094	-0.0010793	0.0051249	0.0004183	-0.00019897	-0.013528	-0.017994	-0.0013924	-0.0097261	0.0024958	0.0034963	0.0037063	0.009007	-0.0010293	-0.0033061	-0.0040742	0.0066716	-0.0039921	-0.0084935	0.0029887	0.0087266	-0.0032712	0.010272	0.011422	-0.0049635	0.0061816	0.0030305	0.0047845	0.0021766	0.0063954	-0.0014705	0.008412	0.0078968	0.0025322	0.0061995	-0.0043406	-0.013853	-0.00034125	-0.004601	-0.0059653	-0.020094	-0.026015	-0.0021139	-0.0080299	-0.0080044	0.0017836	0.0008833	-0.018839	0.0047895	-0.011697	-0.016958	-0.017486	-0.0098826	0.39463	-0.10572	-0.029509	0.018486	0.001549	-0.00070597	-0.012969	-3.0295e-05	-0.0016771	-0.004994	0.0061048	0.0010859	0.0024161	0.0025349	-0.0095237	0.042455	0.005655	0.028287	-0.0062771	0.00020155	0.0074552	0.0012154	-0.0029536	0.0041651	0.038168	0.027015	-0.018785	0.0038267	0.001223	-0.0080213	0.0065708	0.0032398	-0.0082578	-0.0039554	0.0018819	0.0029063	-0.0024606	-0.0052604	0.00038005	0.0029984	0.0061072	6.4653e-05	0.003073	0.0053711	0.0090082	1.3758e-05	0.0094488	-0.0097353
-0.0078289	-0.023208	0.0010368	0.00077156	0.00085257	0.0018013	0.0090125	0.015204	-0.01359	0.011493	-0.0089278	-0.0045982	0.020243	-0.0094999	0.0056859	0.0085668	0.0055111	-0.00093068	0.01337	-0.00098432	-0.0070279	0.026357	0.025043	0.01907	0.0063049	-0.023625	0.029895	-0.028119	0.00040609	0.015896	-0.0015978	-0.014952	-0.012752	0.0096095	0.010197	-0.0054507	0.0358	-0.0071856	-0.0060953	0.018043	-0.028382	-0.079685	-0.0084072	-0.014384	-0.0015759	0.0090884	-0.00052823	0.011699	-0.00041343	-0.0028912	-0.01209	-0.043177	0.010785	-0.01737	-0.0012207	-0.01846	-0.01623	0.0058304	0.016647	-0.015348	-0.01154	0.040563	0.0057277	-0.021288	-0.022883	0.37385	-0.012345	0.0065002	-0.010365	-0.010934	-0.014033	0.030036	0.030036	-2.6682e-05	0.01163	-0.022938	0.013108	-0.013108	-0.02985	0.018094	0.0015582	-0.014303	-0.022464	0.0046752	0.0066159	-0.0071035	0.00024561	-0.01153	-0.013907	-0.020386	-0.020621	0.0082927	-0.010735	-0.007131	0.0080487	-0.0084179	0.015797	0.0074652	-0.012937	-0.023016	0.0042942	-0.0017275	0.017446	-0.00675	-0.02025	-0.0069426	0.013164	-0.00094931	0.024235	0.016213	0.0086614	0.010463	0.012292	0.018345	-0.0071953	-0.00010348	-0.0018216	0.016162	0.019973
0.00032584	0.0074493	-0.0064194	-0.010054	0.0023338	0.011116	0.023649	0.0011786	-0.010492	-6.2825e-05	-0.015655	-0.026986	-0.0035321	0.016031	0.010153	0.0014451	0.001938	0.0116	0.015561	0.0087335	0.0086299	-0.0044599	-0.00036616	-0.015216	0.0085607	-0.032211	-0.065144	-0.017603	0.016255	0.018515	0.014862	0.025982	0.012376	-0.0013997	0.00064176	-0.072996	0.38573	-0.010421	0.0063684	-0.017783	0.0053611	0.015515	0.0031727	-0.0083381	-0.002654	-0.003968	0.0023046	0.0038875	-0.00013861	-0.0013707	0.0059232	0.010451	-0.004928	0.0067487	0.014697	0.0054674	0.013	0.0036893	0.0059309	0.0032526	0.0050842	0.00069548	0.0055808	-0.0095621	-0.00090529	-0.031304	-0.013793	-0.0027458	-0.0027076	0.010117	-0.01468	0.0082089	0.017781	0.0011972	0.0015217	0.0079021	0.02407	0.011875	-0.0017168	0.0081849	0.0041907	0.00078299	-0.0033955	0.0065338	0.0077417	-0.0017469	0.0099051	-0.0034722	0.0015079	-0.010457	-0.00057642	0.00011818	-0.0031339	-0.0073207	0.0013508	0.001335	-0.001405	-0.021898	0.0041441	-0.00066416	0.0030166	0.0025127	-0.0070221	0.010445	0.0076179	0.0080207	0.019875	0.012327	-0.022679	0.00028827	0.0050767	-0.0049456	-1.6178e-05	0.016584	0.013842	0.0057769	0.0097126	0.007627	-0.0096562
0.0019805	-0.022124	0.0075822	0.010871	-0.010076	-0.0070006	0.031188	-0.011791	0.0059426	0.00046306	0.014317	0.020572	-0.0069593	0.012008	0.031432	-0.019498	-0.020304	0.0082877	-0.0063894	0.019841	-0.0034846	0.005028	-0.014022	-0.0070203	0.0096788	0.0020792	0.015934	0.020325	-5.5766e-05	0.0037733	-0.013595	0.01914	-0.0092105	0.010821	-0.0083525	-0.0061829	0.00065781	0.0016725	-0.004495	-0.0010767	-0.0057369	-0.0035584	0.011015	0.0099122	-0.025252	0.0048153	0.0074398	-0.027154	-0.0034443	0.010178	-0.0011844	0.020992	-5.0059e-06	-0.0067577	-0.021682	-0.039145	-0.028233	0.015649	-0.015669	-0.0033192	0.37509	-0.071713	-0.014232	-0.0188	0.0071994	0.02393	-0.01346	-0.0050084	-0.016777	-0.0061835	-0.018676	-0.011005	-0.028407	-0.013616	-0.014685	0.010876	-0.015025	0.026569	0.0060179	-0.007053	0.022672	-0.00648	-0.015108	-0.0063315	-0.0094709	0.016558	0.0070529	0.0008603	-0.0016928	-0.016049	-0.011813	-0.018919	-0.00067722	-0.0042177	0.013058	0.025942	0.0058975	0.016619	-0.0065684	0.0088197	-0.0091432	-0.0020183	0.011462	-0.00040751	0.014214	0.0022662	0.01488	0.0015917	-0.0070822	-0.0030883	-0.028905	0.0095727	0.0039437	0.0089954	0.0023658	-0.0080288	-0.0054049	-0.01617	-0.0010916
-0.0072959	0.011714	0.020566	0.010589	-0.0035638	0.0014136	0.013718	-0.0038732	-0.085585	-0.01124	0.030985	0.35248	0.01151	-0.031819	-0.0092255	-0.046134	-0.017762	0.013187	-0.0058034	-0.0195	-0.00085424	-0.016742	0.00093635	-0.043063	-0.0019051	-0.0041484	-0.016261	-0.043381	-0.0094908	0.01558	0.010068	0.050372	-0.011825	-0.025746	0.031288	0.0021473	0.011257	-0.00012095	0.012274	-0.0024167	-0.021738	0.012206	0.0089086	4.3643e-05	1.9604e-05	0.00020014	-0.0059663	-0.011759	-0.0040439	-0.0081664	-0.0093008	0.010572	0.0037605	-0.007541	-0.0013601	-0.012902	0.026223	-0.016737	0.0099538	0.007843	-0.010773	0.0037737	0.0059704	-0.031422	-0.0014938	-0.00077531	-0.00091911	-0.002938	0.017025	-0.0083759	0.0060152	-0.012361	0.02168	0.0048118	0.015337	-0.0076515	-0.0013214	0.0205	-0.011438	0.0076984	-0.015056	0.025598	0.017426	0.012231	0.0096506	0.011358	0.010411	-0.0018195	0.0078083	-0.011925	0.0086447	0.014798	-0.023889	0.020421	0.0079971	-0.017924	0.016874	0.0099967	0.0063052	0.0061422	0.0073786	-0.0016391	-0.020526	0.012927	-0.026184	0.0052921	0.0057884	-0.0076409	0.011627	0.017485	0.02513	-0.018248	0.0040629	0.017827	0.0045747	0.02903	-0.022927	0.0028953	0.0093586
-0.042282	-0.013296	0.008118	0.019775	-0.042294	0.0082604	0.034413	-0.032309	0.0027329	-0.00087085	-0.0034396	0.017678	-0.0084225	-0.022042	0.0066688	0.0053034	0.33992	-0.10207	-0.012818	-0.019067	0.010768	-0.033202	0.0169	0.0067545	-0.010599	0.0048806	0.016915	0.0027429	0.0067154	0.025768	-0.0034267	0.0037188	-0.0029407	0.026282	0.0089135	-0.014401	0.00025389	-0.0034013	-0.0020892	-0.01312	-0.0042222	0.013158	0.0099753	-0.0058579	0.0038333	-0.012115	-0.0038225	0.033213	-0.0073466	0.0085517	0.017085	-0.028733	-0.0099963	-0.0063972	-6.7659e-05	-0.019892	-0.010044	-0.0083867	-0.0051049	0.016682	0.013016	0.012365	-0.012411	-0.039783	0.013135	-0.011622	-0.0094699	0.010154	-0.021862	-0.0055293	-0.024977	0.0093463	0.012285	0.01693	0.0086811	-0.001396	-0.042372	0.0046615	0.0030761	-0.024988	0.015318	-0.0053424	0.031153	0.0056998	0.0099264	-0.0065287	0.0052515	-0.00096869	0.00031521	0.0083675	-0.024194	-0.0053329	0.020915	0.0020112	0.0063067	-0.0059554	-0.005474	-0.0016664	0.0027736	0.0050359	-0.01024	0.01099	0.010831	0.0063276	-0.014026	0.018133	0.0037076	0.016544	0.010692	0.0083418	0.0038726	0.023082	0.0021527	-0.0038976	0.0023438	-0.0062744	0.0096614	-0.003229	-0.020151
-0.012581	-0.0057417	-0.022534	-0.012174	-0.032747	-0.0025952	0.01775	-0.010536	-0.01328	-0.003773	0.0042727	0.019616	0.016449	0.0028964	0.0055302	-0.0067239	-0.01867	-0.080488	-0.010591	0.34742	-0.0044257	0.0087381	0.010513	0.0097905	0.005642	0.013556	0.028361	-0.0062113	0.0035203	0.0022878	0.015379	-0.019488	-0.0043148	-0.011706	0.023639	0.0021947	-0.00046981	-0.0029989	0.006569	-0.0070685	-0.0075098	-0.023675	0.0061782	-0.0067179	-0.011574	0.015177	-0.0015332	0.0093429	0.00060966	0.01241	0.008425	-0.012732	0.0055994	-0.017787	0.0078599	0.017445	0.0091351	-0.025611	0.00026962	0.0051776	-0.01123	0.02132	0.003117	0.01211	0.0023135	-0.017257	0.00033422	0.0062687	0.0017116	0.0028156	-0.011126	0.0093187	0.028343	-0.015017	-0.0031159	0.0070788	-0.020435	-0.0018955	-0.011104	0.0094831	-0.0031126	-0.0090938	-0.012444	-0.011119	0.0065276	-0.0072233	0.0078394	-0.0055398	-0.0047787	0.00039176	0.0015166	0.010993	0.01081	-0.0302	-0.018806	0.0091498	-0.0049819	0.020272	-0.0019075	0.0056889	-0.014158	0.002463	-0.0081133	0.045676	-0.0078935	-0.0044126	0.00063912	0.0014303	0.0017677	0.0050011	-0.0023369	0.0085069	-0.0031112	0.0074629	-0.0031894	-0.0039631	0.0093596	-0.010709	-0.0017029
-0.0070515	0.0021986	0.0082425	-0.002911	-3.7868e-05	0.0059928	-0.0048632	-0.014018	-0.075024	-0.0085789	-0.017829	-0.022389	0.0069667	0.0055009	-0.008962	0.0058671	0.016631	-0.0069334	-0.00060261	-0.0013963	0.0047989	0.0086741	-0.0027183	0.0024437	-0.0034088	-0.0065701	-0.013995	-0.00056926	0.0054828	0.012105	-0.0037208	0.0024104	-0.0011524	0.00097105	0.0026056	-0.00077239	-0.00087573	0.00070968	-0.00087102	0.0030964	-0.0061789	0.0043129	0.0072086	-0.0021769	0.0033474	0.00084383	0.0033649	0.0078867	0.0031428	0.0016657	0.0080081	0.0078224	0.00013362	-0.0041564	0.0024296	0.0053023	0.0088981	-0.0097024	0.0010178	-0.00155	0.0018519	-0.0083637	0.0017068	-0.0042567	0.0090906	-0.011022	-0.0053613	0.0074511	0.0028694	0.0027386	0.0011047	0.0063046	-0.00017776	0.0010217	0.0010027	-0.0021601	-0.0083728	0.0094816	0.0020858	-0.0090416	0.0036286	0.0086007	0.005786	0.0025434	0.00068999	-0.0010796	0.0012903	0.0017732	0.0013654	-0.0027377	0.0024896	-0.0071196	0.0092845	-0.0065894	0.0053699	0.0075144	-0.006495	-0.0059829	-0.00089487	0.0074752	0.00053474	0.0041567	0.009421	0.0030612	0.0028571	-0.0063732	-0.0069546	-0.0027183	-0.040819	-0.031817	-0.0053453	0.00019853	0.0087436	-0.0040672	-0.0010183	-0.0054964	-0.0085863	-0.043004	0.35667
