-0.20707	-0.21319	-0.22058	-0.22514	-0.22047	-0.30082	-0.22472	-0.21839	-0.22946	-0.21076	-0.22623	-0.23412	-0.21875	-0.24248	-0.27126	-0.32794	-0.28004	-0.24214	-0.22625	-0.22561	-0.23189	-0.22404	-0.21697	-0.24526	-0.26635	-0.20709	-0.19131	-0.19694	-0.23683	-0.21706	-0.17224	-0.20173	-0.27027	-0.48231	-0.55648	-0.50562	-0.2706	-0.1805	-0.16215	-0.17283	-0.18415	-0.16172	-0.11808	-0.054965	0.079346	0.41714	0.12834	-0.084521	-0.13912	1.916	0.59558	0.034782	-0.095405	-0.15128	-0.14997	-0.18785	-0.18959	-0.19673	-0.15345	-0.13639	-0.065345	0.24315	0.68191	1.1727	0.086493	-0.096834	-0.15394	-0.17321	-0.18271	-0.1972	-0.19286	-0.17895	-0.12477	-0.050035	0.1428	2.2906	0.15349	0.019655	-0.084853	-0.17879	-0.18804	-0.20386	-0.2435	-0.38884	-0.60709	-0.59157	-0.58892	-0.28867	-0.1832	-0.19311	-0.20636	-0.2041	-0.1846	-0.24984	-0.31508	-0.21265	-0.21805	-0.21386
-0.30508	-0.19433	-0.16311	-0.10765	0.18333	0.25099	-0.042918	-0.059591	-0.26453	-0.16242	-0.16518	-0.011055	0.10009	0.173	0.18997	0.24141	0.22921	0.18593	0.078788	0.022414	-0.013067	-0.11326	-0.072368	0.21305	0.097246	-0.085898	-0.25866	-0.20671	-0.033732	-0.10562	-0.093102	-0.079829	0.023116	0.33327	0.34232	0.26483	0.28093	0.066956	-0.065162	-0.081938	0.022524	-0.1511	-0.041627	0.062431	0.19522	0.29268	0.063252	-0.1478	-0.31871	0.072235	0.1376	0.17406	0.089818	-0.087645	-0.22521	-0.054517	0.01653	-0.13391	-0.20186	-0.013872	0.22513	0.19611	0.1714	0.12128	0.26311	0.10678	-0.17508	-0.23078	-0.063608	-0.12982	-0.042356	-0.17822	-0.065455	-0.032054	0.070556	0.14352	0.28862	0.1966	0.092592	-0.070926	0.0082516	0.10163	0.1028	0.21607	0.26393	0.41164	0.47885	0.18991	0.055452	-0.10825	-0.11625	-0.11178	-0.087685	0.086382	0.33301	-0.070629	-0.14853	-0.096874
-0.2955	-0.078131	0.047021	0.41407	0.91809	-0.12713	0.31859	0.26309	-0.199	-0.17787	-0.058582	0.13648	0.2931	0.10904	0.052351	-0.078503	0.0016725	-0.044033	0.278	0.32087	0.11866	0.12957	0.11891	-0.14465	-0.082317	-0.11012	-0.053061	0.080823	-0.035805	-0.0082769	-0.015684	-0.019947	-0.041283	-0.044574	-0.032123	-0.047708	-0.023141	-0.069643	-0.060821	-0.11258	-0.13121	-0.14737	-0.073087	-0.045798	-0.054785	-0.071475	-0.08631	-0.12444	-0.1119	-0.024409	-0.066297	-0.079694	-0.056584	-0.094424	-0.12934	-0.1987	-0.24323	-0.20945	-0.05011	-0.062017	-0.045445	-0.038341	-0.011248	-0.062616	-0.096053	-0.088988	-0.095209	-0.11773	-0.14214	-0.14108	-0.069506	-0.036313	-0.097052	-0.080234	-0.072571	-0.037591	-0.039216	-0.038064	-0.081791	-0.058436	-0.099435	-0.058277	-0.02678	-0.072864	-0.058754	-0.11451	-0.12725	-0.038446	-0.058651	-0.069447	7.0634e-05	-0.0054602	-0.025075	-0.088011	-0.16441	0.14133	0.14332	0.45623
-0.013812	0.0026868	0.010573	0.016051	0.00128	0.50914	0.0017655	0.010133	-0.0018906	-0.0081925	-0.00096423	-0.0073695	-0.026555	0.048526	0.13549	0.81846	0.44034	0.11496	-0.013114	0.0024316	0.013908	-0.024496	-0.03191	0.079158	-0.060583	-0.032053	0.0035764	-0.010506	0.00404	0.002659	0.025961	0.016965	-0.010923	-0.16678	-0.27199	-0.12484	-0.012375	0.01035	0.020037	-0.077463	0.036794	0.00062774	-0.010989	-0.0026298	-0.0029153	-0.044226	0.00091693	0.0010178	-0.0046655	0.00015822	0.037365	0.036882	-0.0012142	0.014895	-0.022792	0.0018686	-0.00014242	-0.012843	0.0021253	0.01314	0.0064644	-0.045098	-0.013281	-0.044601	0.015402	0.025367	-0.0084242	-0.0093568	-0.0064234	-0.0060534	-0.015974	-0.0053942	0.0014295	-0.0021371	0.017819	0.010451	-0.058756	0.00079293	-0.012701	-0.011793	-0.0004523	0.0067974	0.017553	-0.038983	-0.12548	-0.27075	-0.26439	-0.0057376	0.025506	-0.002847	0.029943	0.026362	0.02095	0.053754	-0.062414	0.012463	0.027573	-0.0014767
-0.11741	-0.014949	-0.12777	-0.17018	-0.19442	-0.018018	-0.37703	-0.22124	-0.13337	-0.028263	-0.013507	0.02125	-0.15167	0.047572	0.0096747	0.0012937	0.019963	0.10429	0.32193	0.33483	0.25533	0.51443	0.43671	0.099614	0.058321	0.12705	0.20242	0.2058	0.10005	0.035043	0.051489	0.026705	0.025846	-0.0052433	-0.025533	-0.021842	-0.00040446	-0.0084758	0.031818	0.0094405	-0.025933	0.019081	-0.016868	-0.052943	-0.024672	0.0059978	-0.030532	-0.041455	-0.062395	0.0055722	-0.032586	-0.052742	-0.026258	-0.062339	-0.012279	-0.053811	-0.065078	-0.063837	-0.041581	-0.066214	-0.046	-0.030981	-0.020124	0.0076343	-0.032264	-0.026801	-0.057573	-0.078895	-0.084009	-0.10302	-0.033612	-0.053646	-0.015119	-0.02374	0.0041573	0.015426	-0.006015	-0.030853	-0.04135	-0.031328	-0.03176	-0.037267	-0.049852	-0.028888	-0.056013	0.0092255	0.0055265	-0.012644	-0.00898	-0.0028769	-0.018054	0.017778	0.0020226	-0.013528	0.0053023	-0.014947	-0.078624	-0.058357
0.015378	-0.011639	-0.0016737	0.0091821	-0.10962	0.085769	-0.0050475	-0.0019009	-0.023165	-0.044644	-0.033392	-0.028872	-0.024079	-0.0016449	-0.023706	-0.04769	-0.03602	-0.023492	-0.032436	0.026837	-0.015917	0.012858	-0.0067803	-0.2342	-0.073209	-0.027076	0.019881	0.056937	0.016013	-0.011513	0.032126	0.067083	0.10177	0.056049	0.023024	0.10859	0.65749	0.1146	0.070226	0.10374	-0.080986	-0.038119	0.087682	0.15826	0.10007	-0.0064786	0.076666	0.036379	0.038951	0.010329	-0.018842	-0.049782	0.014892	-0.030947	-0.027425	-0.0098986	-0.010758	0.044477	0.078834	0.062953	0.059002	-0.028968	-0.039169	0.035976	0.010725	-0.013346	-0.032039	-0.035226	0.020654	-0.078409	-0.035972	0.02399	-0.03369	0.006436	-0.021059	-0.023814	0.073672	-0.0043158	0.0095678	-0.048784	-0.0080397	-0.068556	-0.035505	0.010616	-0.044192	-0.097764	-0.18134	-0.01999	-0.016946	-0.082382	-0.012333	0.058719	-0.061595	-0.028206	-0.06169	-0.0093608	0.035264	0.11181
0.0075495	0.013292	0.0072856	-0.0037061	-0.0023213	0.0029785	0.005982	0.0041988	-0.0027156	0.0022576	0.0045558	0.01139	-0.0082182	-0.0020391	-0.0015844	0.0012061	0.005074	0.016364	0.0084303	-0.0090184	0.0052212	0.0066707	0.010051	-0.007236	-0.0059001	0.008506	0.0080551	0.009194	-0.0075945	-1.061e-05	0.021161	0.011854	0.0023007	-0.023601	-0.01138	-0.075501	-0.0099709	-0.0070379	0.0041213	-0.0070378	0.0063166	0.0093415	-0.021843	-0.03818	-0.12346	-0.49549	-0.050946	-0.0087673	0.019452	0.00036779	0.0090479	0.0073791	-0.008516	0.023513	0.0030499	0.0065908	-0.0096706	0.0092001	0.0069395	-0.0003156	-0.0096577	-0.002545	0.0042872	-0.013812	-0.02691	0.0085129	-0.0023237	0.010235	0.007871	-0.0040142	0.0041388	0.0050943	-0.00082482	0.0018673	0.031393	0.096174	0.58471	0.098775	0.03207	0.001704	-0.012636	0.0039472	-0.0017393	0.04845	0.14172	-0.0015554	-0.0052978	-0.0099039	-0.0068293	-0.007975	-0.009454	0.010741	-0.005791	0.0025466	-0.0093914	0.0029536	0.0048894	-0.0046547
0.0053347	-0.015136	-0.017517	-0.0092174	0.011686	0.4728	-0.032635	-0.020165	-0.0071867	-0.0069917	-0.0085975	-0.0013103	-0.019408	0.0078017	0.079888	-0.13575	-0.090473	-0.047279	-0.0073548	-0.014984	-0.0089211	0.012111	0.0080764	-0.12862	-0.13554	-0.036161	0.017062	-0.032006	-0.013964	-0.035677	0.0019725	-0.00018151	-0.037168	-0.14697	-0.21255	-0.084611	-0.03321	-0.01072	-0.0046181	-0.056177	0.0083144	-0.0037089	-0.0069265	-0.0049313	-0.01926	-0.01171	-0.021135	-0.0021027	-0.0070828	-0.02267	0.004291	-0.013974	-0.021594	-0.010325	-0.022951	0.0035285	-0.002205	-0.035578	-0.0092479	-0.0086083	-0.0083901	-0.038117	-0.01818	-0.03075	-0.018066	-0.0026879	-0.004911	-0.005175	0.00076068	-0.0053042	-0.026014	-0.009856	-0.018383	-0.0085705	-0.026534	-0.02513	-0.024578	-0.023429	-0.022298	-0.024993	-0.01261	-0.015684	-0.02616	-0.035561	-0.0047736	0.073946	0.068143	-0.015102	0.0080221	-0.022164	-0.016944	0.013099	0.042037	0.053127	0.25733	0.035252	0.00067191	0.050451
0.041774	0.028353	-0.0072227	0.046578	0.020904	-0.0089742	-0.0432	-0.011668	0.0020192	-0.023398	-0.0042558	-0.013738	0.00031044	-0.052683	-0.017349	-0.019678	-0.01773	0.034617	0.034586	-0.0069455	-0.0083176	0.044998	-0.008938	-0.044438	-0.015902	-0.02475	0.013896	0.016413	0.01576	0.00043236	-0.018383	-0.026078	-0.030652	-0.03676	-0.040471	-0.0071947	-0.033492	-0.023181	-0.018394	-0.0071345	-0.004085	0.035838	0.015467	-0.017266	-0.012234	-0.0346	0.014598	-0.0062177	-0.063173	0.011491	0.06789	0.067714	0.60626	-0.078156	-0.021388	-0.010313	-0.0015308	0.004791	0.010096	0.098555	0.12935	0.075212	0.014721	-0.054975	0.027997	-0.053038	-0.0089972	0.020083	0.0085415	0.0022327	0.02337	-0.0080561	0.0016076	0.0045671	-0.02617	-0.046103	-0.016854	-0.0037681	0.0064162	0.021881	0.0064238	-0.03783	-0.016058	-0.010562	0.021164	-0.028128	-0.032349	-0.011363	0.0026188	-0.0045448	-0.010198	-0.023373	-0.0084024	-0.041398	-0.010898	-0.012473	-0.020502	-0.010274
0.02675	-0.0077074	-0.0026163	-0.0041318	0.037204	-0.0018025	-0.024879	-0.0083507	0.0073152	-0.0071581	-0.019404	-0.017965	0.0156	-0.019751	-0.0080698	-0.033449	-0.001896	-0.037156	-0.005524	0.0094814	-0.021394	0.064175	0.01486	-0.030513	-0.0092797	-0.0069775	0.034865	0.041561	-0.016542	-0.0053502	-0.021788	0.0031322	-0.038419	-0.023652	-0.0053535	-0.0074342	-0.014653	-0.051653	-0.03905	-0.0039803	-0.01785	-0.027713	-0.014982	-0.018379	-0.013201	-0.019615	0.0068075	-0.006592	0.026946	-0.020068	0.0081956	-0.0079297	-0.025853	0.0010298	0.014755	0.0094787	0.010829	0.070916	-0.042714	0.076722	0.093994	0.063489	-0.0021788	-0.046505	0.13181	0.60235	0.0028646	-0.037144	0.0062382	0.0042672	-0.0075353	-0.0072017	0.012663	-0.0056229	0.030145	-0.011343	-0.029634	0.010373	0.01784	0.0068821	-0.024715	0.019906	0.038607	-0.022567	0.0067602	-0.032058	-0.049344	-0.038825	-0.070587	0.0012283	-0.023387	-0.03287	-0.036785	-0.060275	-0.012622	-0.015483	-0.0082677	0.033494
-0.030585	-0.018435	0.006719	-0.00061625	0.05566	0.023993	-0.055157	-0.0668	0.022076	-0.033663	-0.0026975	-0.011648	0.018402	-0.0086337	-0.0027266	-0.010195	-0.053696	0.0018172	-0.014974	0.013075	-0.0148	0.0055693	-0.021424	-0.012034	-0.023953	-0.019222	-0.029688	-0.018662	-0.0078369	-0.0059125	-0.035084	-0.023381	-0.020529	0.00033121	-0.0038093	0.0059072	0.0090794	0.0028076	-0.03714	-0.016065	-0.0032055	0.018078	0.0031255	0.016182	0.002697	-0.015628	0.00060924	0.0076201	-0.011704	-0.022649	-0.038249	-0.039447	-0.0022472	-0.01938	0.012438	0.0035767	-0.020897	0.022616	-0.042371	-0.029064	0.0033368	0.020355	-0.031061	-0.064223	-0.011507	-0.06032	-0.0015941	-0.010297	0.0021987	0.006476	-0.053458	0.0028298	0.17939	0.1405	0.56286	-0.025135	-0.039336	0.018076	0.042152	-0.028573	-0.043791	-0.061627	0.0052839	0.0068116	0.010785	-0.0090897	-0.032066	-0.010036	0.021761	0.036301	-0.069394	0.018369	-0.015027	-0.016535	-0.043071	-0.011251	-0.00098521	-0.007639
-0.038131	-0.033865	0.051166	0.030714	0.075068	0.034494	-0.018555	-0.0054529	0.56537	0.070542	0.0097552	0.023943	0.042935	-0.009666	0.014275	-0.0024423	0.015853	0.065861	0.0016736	0.038792	0.018104	0.044741	0.04563	0.03769	0.026519	0.02248	0.0084776	0.015131	-0.012354	-0.025462	-0.015075	0.00098223	0.0079788	0.019052	-0.0068279	0.002687	0.05656	-0.0094004	-0.019313	0.026158	0.015007	0.009819	-0.019526	-0.023934	-0.013667	0.0078702	-0.0041898	-0.041477	-0.045062	0.01655	0.023198	0.0070711	-0.011307	-0.023928	-0.070598	-0.0039294	0.0058831	0.084588	-0.039124	0.013717	-0.0037875	0.03978	-0.023452	0.077162	-0.009805	-0.023948	-0.0072887	-0.038678	0.018634	-0.029147	0.004186	-0.062085	-0.0092423	-0.01424	-0.017945	0.046048	0.00022219	0.00064828	-0.013303	0.014278	-0.012829	-0.014803	-0.050739	0.035617	-0.014065	0.0060962	0.049762	-0.038084	-0.061197	-0.01998	-0.018207	0.023604	-0.024353	-0.035874	0.020267	-0.00026028	0.0022357	0.0016679
0.028259	0.021385	0.02179	0.027238	-0.0076137	-0.0065401	0.015773	0.015081	0.027976	0.01903	0.020891	0.023492	0.0021277	-0.008688	-0.00087915	-0.013482	-0.014799	0.0076292	0.015625	0.010579	0.021947	0.015362	0.013711	0.0023345	-0.011396	0.002038	0.0064645	0.0017415	0.017266	0.0065898	0.0064145	-0.0069711	-0.016769	-0.032429	-0.0709	0.099431	-0.047346	-0.01983	-0.01791	0.00088882	-0.0013723	0.0043625	0.0019134	-0.010331	0.030429	0.39376	-0.0058735	-0.001748	0.01389	-0.059232	-0.050729	-0.021181	0.013702	0.010703	-0.0011296	0.0084497	0.028066	0.026789	0.0099065	0.0027401	-0.013948	-0.031847	-0.087297	-0.28612	-0.033826	0.0046175	0.0017385	0.011492	0.0018726	0.013639	0.0034382	0.0078453	0.0026456	-0.0020812	-0.0083122	0.14732	0.29696	0.0097898	-0.0076082	-0.016323	0.0059341	-0.015799	-0.021346	-0.0076604	0.03812	-0.058038	-0.057389	-0.0146	0.0066974	0.0097899	0.00029489	-0.0039254	0.00089315	-0.0018303	-0.015031	0.01563	0.016075	0.012529
-0.0070108	0.03991	0.043853	0.040873	-0.14136	-0.05558	-0.10422	-0.10936	0.022787	-0.028154	-0.010057	-0.032175	-0.098717	-0.063376	-0.0054092	0.015946	0.019974	0.04236	-0.032987	-0.044264	-0.047345	-0.068343	0.012132	0.045155	0.049529	0.042137	-0.0082684	-0.020839	-0.022448	-0.029948	-0.017474	-0.020735	-0.013631	0.025107	0.042712	0.0013304	-0.030029	-0.0091281	-0.031373	-0.033559	0.012048	-0.061746	-0.026834	-0.039297	-0.021275	0.0010408	-0.0066642	-0.029067	-0.027425	0.005007	0.013779	0.018681	0.0056287	-0.022196	-0.017669	-0.029274	0.0020391	-0.076969	-0.025427	0.013352	0.012392	-0.025737	-0.0099674	0.0016102	0.016955	0.015439	-0.026179	0.0060539	0.019684	0.0065996	-0.010865	-0.049177	0.015542	0.0058592	0.013914	-0.00051491	-0.0017718	0.03426	0.0091128	-0.019242	0.020753	0.0032073	-0.045976	-0.011318	-0.0031539	-0.034882	0.03118	0.0025203	0.051962	-0.039918	0.026912	0.043799	0.098817	0.049727	0.035072	0.12375	0.080396	0.4486
0.0030062	-0.0047762	0.0010558	0.0040628	-0.0064653	-0.022923	-0.0017547	-0.0021069	-0.003125	-0.012906	-0.0034126	-0.0083294	0.014735	-0.0079416	0.0025592	-0.019265	-0.014654	-0.010792	0.0047638	-0.0032585	-0.0060428	0.0036071	0.011405	-0.010873	-0.017286	0.016287	0.012995	-0.0010989	-0.021653	-0.0031899	0.0087109	-0.0052153	-0.017722	-0.039883	-0.088483	0.012105	-0.054412	-0.020344	-0.022518	0.00055348	-0.006327	0.0025315	-0.011679	-0.011112	0.027437	0.17645	-0.0010149	-0.0070729	-0.011511	-0.24864	0.11863	0.032292	-0.021029	-0.033138	0.0038973	-0.0072834	-0.00067261	-0.0070559	-0.012447	-0.017925	-0.012139	0.028428	0.13123	0.34699	0.028271	-0.0018948	-0.016636	0.0085003	0.01503	-0.0076844	0.0012262	-0.0011229	-0.012767	0.0087466	0.038597	-0.31002	0.17827	0.0057707	0.019384	-0.0066499	-0.0055366	-0.0053118	-0.013234	-0.010386	-0.0062771	-0.080905	-0.076761	-0.0058046	0.005937	-0.0075172	-0.0025854	-0.0047692	0.0085752	0.016062	-0.009331	-0.0053724	-0.0013883	-0.0099886
0.46065	-0.011905	0.01873	-0.0048524	0.12056	0.0070034	0.0088968	-0.0058028	-0.041731	0.043102	0.0037863	-0.019994	-0.0012791	0.039467	0.011256	0.0036899	0.038394	0.0043961	0.019994	0.018227	0.022345	0.045433	0.016508	0.047467	0.071751	0.038176	0.024185	-0.029605	-0.015859	-0.035386	-0.038437	-0.031063	0.0049796	0.0069325	-0.024398	0.0042738	0.042761	0.012839	0.00044592	0.010234	-0.030824	0.02471	-0.010075	0.017021	-0.025475	0.019094	0.052538	-0.0098833	-0.054974	0.018951	-0.015724	-0.043257	-0.0012987	-0.028617	-0.0099373	0.021938	-0.025883	-0.036733	-0.025403	-0.015596	-0.013606	-0.014069	-0.012967	0.074846	-0.033104	0.0070047	0.0079172	-0.0038972	-0.0047337	-0.015728	0.0044798	-0.0016251	0.0033321	0.0050347	0.024302	0.05003	-0.0012753	0.0062169	0.011847	0.0039447	-0.046644	0.0052411	-0.011764	0.056326	0.0061953	-0.0014208	0.047227	-0.0015142	0.0071334	-0.024074	0.00056769	0.025461	0.020003	0.010331	0.017513	0.017285	-0.0073933	0.025611
-0.013741	-0.016412	0.0049642	0.0064331	0.016891	0.010883	-0.015673	-0.029186	0.0050145	0.017126	-0.00090044	0.0044724	-0.0166	0.018212	-0.0073714	-0.021095	-0.00015904	-0.029594	-0.00094937	0.03006	-0.026616	0.019727	0.022132	-0.064998	-0.029225	0.00062458	0.039974	-0.0090868	0.018793	-0.017937	0.032921	-0.012614	7.517e-05	-0.01894	-0.011087	-0.018565	-0.0009876	0.012312	-0.013755	-0.0032855	-0.0040113	-0.022812	-0.0042256	-0.03157	0.0013954	0.017105	0.030531	-0.0086579	0.0038437	-8.7412e-05	-0.0020879	-0.0070224	0.022096	0.0036445	-0.0017139	-0.0026653	0.0070848	0.032575	-0.013399	0.022728	-0.0078807	-0.026018	-0.030886	0.02794	0.013586	-0.044283	-0.010874	0.0041309	-0.00041986	0.015959	-0.0030671	0.019061	0.074846	0.055536	0.00070071	0.029451	-0.011219	0.031768	0.032261	0.0065455	-0.0090578	0.46059	0.0022682	0.067768	0.020842	-0.0091275	-0.054928	0.13436	-0.051577	-0.0054415	0.026833	-0.020454	-0.032041	-0.040665	-0.023055	-0.0050526	0.019221	0.024558
0.05675	0.041491	0.0047989	-0.0056299	-0.00015541	0.020301	-0.003378	0.020387	-0.0035388	0.029407	0.010934	0.015388	-0.016124	0.026994	0.0027158	-0.028771	-0.0139	0.0020822	0.012367	0.038466	0.0014477	0.027863	0.018524	-0.056056	0.012102	-0.013527	-0.00014642	0.019234	-0.0022558	-0.016518	0.0056813	0.0029686	-0.012354	0.0096707	0.012293	-0.00079291	-0.0066474	-0.00096126	-0.03144	-0.0076635	0.024542	0.00047598	0.011317	0.019075	0.013377	-0.0094496	0.046079	0.030211	0.013622	0.015475	0.0065899	0.46096	-0.081321	0.024685	-0.02549	0.00033276	0.0068114	-0.040931	-0.02778	-0.017906	0.0083745	0.03837	-0.010303	-0.049654	0.0086409	-0.030962	-0.011179	0.028888	-0.0014323	-0.014189	-0.0029581	0.00074029	0.0050593	0.020875	0.0092287	-0.013309	-0.0058419	-0.0090984	-0.0023406	0.035772	0.026513	-0.013696	0.0082137	0.0071491	-0.010545	-0.026571	-0.024453	-0.0031983	-0.036666	0.014307	-0.055541	-0.01711	-0.026256	-0.052576	-0.025146	-0.0027725	-0.0038243	0.025828
-0.052598	-0.037563	-0.01691	0.0020644	0.027438	-0.0045044	0.045927	-0.0045853	-0.0081014	-0.007023	-0.0078571	-0.0022674	0.043449	0.0052902	0.0028155	0.00028777	0.0070696	0.027859	-0.028943	-0.010493	-0.030417	-0.095306	-0.065059	0.0043709	0.058098	0.06665	0.43525	-0.013018	0.022462	-0.048809	0.067416	0.0052984	0.03706	0.004222	-0.025598	-0.0074205	-0.00459	-0.0073787	0.024977	0.025046	-0.010691	0.022604	0.0071489	0.020512	0.0097249	0.010023	0.045821	0.012622	0.0080027	0.012305	-0.0043011	0.020938	0.013711	-0.0051872	-0.036241	-0.02039	-0.0050634	-0.053169	0.016444	-0.0047257	0.0048376	-0.033172	0.0055503	0.0019837	-0.014064	0.0082959	-0.0089617	-0.038271	0.018201	-0.0034799	0.038768	-0.020832	-0.021767	-0.016676	0.049218	0.016673	0.0091845	-0.016732	-0.0018897	-0.0073337	-0.024491	-0.021203	0.023056	0.0071248	0.0045859	-0.0048919	0.045622	0.002781	-0.0066115	0.036399	-0.0048242	-0.043986	0.00047798	8.6831e-05	0.011013	-0.00887	-0.049723	0.022347
-0.00043372	0.002924	-0.0050405	-0.0035462	-0.0068587	0.013628	-0.0035167	0.0013824	-0.007212	0.0023048	-0.001318	-0.006058	-0.0029558	-0.0060934	0.00052152	-0.0015882	-0.0081642	-0.0015031	-0.0032821	-0.0038523	0.00057218	0.001331	-0.0022761	-0.021463	0.0015722	0.010744	-0.016617	-0.010947	0.0030713	-0.012421	-0.096421	-0.021111	0.43094	0.000767	-0.018684	0.0028478	-0.026701	-0.12928	-0.10645	-0.051618	-0.0075493	-0.011055	-0.019501	-0.010467	-0.0053167	-0.00037805	-0.0056204	0.0032342	0.0038679	-0.0017876	-0.0020167	0.0015558	0.0047429	-0.002282	-0.0011015	0.0073107	0.0050428	0.0032505	-0.0062338	0.0022742	0.0010542	-0.0064673	0.00036027	-0.0032449	-0.0017593	9.8325e-05	-0.0026686	-0.0031309	0.0016299	0.00048951	-0.0016954	0.0039168	-0.0007268	0.00025806	-0.0021954	-0.0029492	-0.00044963	-0.0075826	0.00063563	-0.00045039	-0.0016428	-0.00049673	-0.0037943	-0.010189	-0.00021795	-0.001005	-0.0057977	0.0040262	-0.010842	-0.0019644	-0.0027304	-0.0050281	-0.005105	-0.0066661	-0.013205	-0.0048174	-0.0044395	-0.003564
0.0060573	0.005318	0.0046091	-0.0028706	-0.0067848	-0.012437	-0.00025805	-0.00046778	0.00054295	0.0062043	-0.0042669	0.0040644	-0.0040506	-0.0054494	-0.0033751	0.00011391	-0.0022173	-0.002596	0.0032665	-0.0046019	-0.0025758	-0.0021657	-0.0070654	-0.0075061	-0.010588	-0.0011784	-0.0017841	-0.010355	0.0044176	-0.0037263	0.0081441	0.0059848	-0.0054547	-0.0060496	-0.0066147	-0.0021218	-0.014093	-0.00032309	-0.0023968	-4.6335e-05	0.0055109	0.0063879	-0.00058032	-0.0017025	-0.0046365	-0.0036511	-0.010428	0.0030268	0.00046935	-0.0018069	0.0011512	-0.0014532	-4.7378e-05	-0.0033766	0.0012814	0.0069262	8.3846e-05	0.0045022	0.0084198	0.0016153	0.0041354	0.0036591	-0.0025552	-0.0079807	-3.5063e-05	0.0095889	-0.0024208	0.0033904	0.0064487	0.0091071	-0.041185	-0.019714	-0.0013628	0.011191	-0.004618	-0.00021127	-0.0063724	-0.001354	-0.0086237	-0.01181	-0.067719	-0.12079	-0.088135	-0.0020082	0.0081656	-0.0095075	-0.01121	0.34879	-0.23773	-0.021649	-1.1019e-05	-0.0056447	0.028848	0.10553	-0.02023	0.0011297	0.00067967	-0.0039602
0.0027669	0.0063475	0.0039837	-0.0095329	0.0068272	0.0010333	0.0070515	0.00076311	0.010481	0.006623	0.0032277	-0.00053253	0.013455	0.0061316	0.0010604	-0.0040459	0.0025996	-0.0062556	0.0044184	0.004695	0.001268	0.0081635	0.0066897	-0.00078138	-0.0066825	0.0093407	-5.4559e-05	0.0078415	0.0019024	0.010165	0.0062891	0.00066537	-0.0026406	-0.011421	-0.027913	0.033969	-0.021275	-0.0067785	-0.0011741	0.0015171	0.0038135	0.0049357	-0.0098232	-0.015272	-0.0074489	0.10776	0.00088028	-0.0091217	0.0042798	0.38283	-0.042423	-0.022624	-0.013661	0.014653	-0.0009275	0.0046216	-0.0016944	0.0050139	0.010626	0.014346	-0.0076266	0.012016	-0.016447	-0.022567	0.0092826	0.0045195	0.0094078	0.010186	0.003485	0.0022784	-0.00022833	0.0097496	0.0043348	0.0040306	0.0090237	-0.21155	0.074494	-0.0043806	0.0013371	0.011559	0.0054616	0.0016708	0.0052301	0.017156	0.026519	-0.016498	-0.013867	0.0010731	-0.0011052	0.0041669	0.0067814	-0.0011351	-0.0032183	0.012416	0.0084244	0.0020572	0.0082025	0.010276
-0.00042097	0.018749	0.011638	0.015278	-0.010556	0.0406	0.0047281	-0.0040013	-0.036867	0.0047568	0.0047742	0.028835	0.0022108	0.016124	0.0013217	0.0014995	-0.022393	-0.01211	-0.002633	-0.0028858	-0.011008	0.013368	0.013901	-0.0061646	0.030936	0.0020133	0.034723	-0.01765	-0.0027523	-0.044193	0.021119	0.0075287	0.010421	0.0046736	0.014618	-0.003337	-0.0036581	-0.0033273	0.0097359	-0.0071887	0.044455	0.0078278	0.0096864	0.0051626	-0.021481	-0.0017365	0.018374	0.021412	0.020653	-0.013726	-0.020329	-0.061483	-0.030852	-0.010216	0.0057798	0.014576	0.024658	0.0059025	-0.034214	-0.020071	-0.026543	0.42743	-0.057229	-0.0091334	-0.030156	-0.038639	-0.0071421	-0.0043282	0.029668	0.019065	0.0036178	-0.0062602	1.6668e-05	-0.007325	-0.028501	0.003703	-8.3984e-05	0.0098814	-0.0062465	-0.025115	0.0033875	0.0073439	0.0069827	0.0034577	-0.023674	-0.027955	-0.011479	-0.0024499	0.0020747	0.004856	0.010267	0.0065676	-0.00080454	0.0068594	-0.022058	0.0097923	0.012291	0.024559
0.045112	-0.0014892	-0.0064339	-0.048716	-0.15893	0.0045332	-0.029312	-0.013287	0.0057154	-0.019973	0.027335	0.015121	0.3941	-0.016899	0.0093034	-0.0023297	0.014252	-0.024523	0.059944	0.031956	-0.0031587	-0.016832	0.0033888	-0.013777	-0.026878	-0.015648	-0.00084564	-0.011229	-0.010844	-0.004072	-0.0053508	-0.004223	-0.0078766	-0.0040653	-0.0010416	0.0045298	-0.002327	0.0058959	-0.013792	-0.028558	-0.020661	0.010725	-0.015542	0.0032381	-0.0010283	-0.015781	-0.01769	-0.036328	-0.027745	-0.0034651	-0.016668	0.00093525	-0.0081666	-0.026703	0.020091	-0.012202	-0.03229	-0.031193	-0.033191	-0.0097438	-0.014747	-0.0021076	0.020826	-0.018875	0.038439	-0.014595	0.034834	0.0072627	0.028915	0.021644	-0.011504	-0.013945	0.017329	0.0099585	-0.022331	0.012701	-0.011329	-0.012555	0.0062649	-0.01069	0.0032475	0.013423	-0.0071266	-0.019477	0.02319	-0.032152	0.0084101	0.0015797	0.0047595	-0.011676	-0.011675	-0.0012427	-0.0078464	-0.0027805	-0.02176	-0.012706	0.014014	0.02513
-0.00983	-0.0016152	0.011749	-0.0075644	-0.020906	0.071441	-0.008188	-0.0049412	-0.0054279	-0.0060814	-0.0059625	-0.0011879	-0.022949	-0.020247	0.072657	-0.37257	0.27798	0.059007	-0.024159	-0.024343	-0.005005	-0.019385	-0.019323	0.067135	0.0072293	0.0012223	-0.0090223	-0.0023305	-0.0073043	-0.00047776	-0.011064	-0.014847	-0.003793	0.0086755	0.022153	0.0014558	-0.0031421	0.003449	-0.0025649	-0.014733	-0.011442	-0.0056889	-0.0035428	-0.0024034	-0.001166	-0.0072634	-0.0066223	-0.020742	-0.0087985	-0.014338	0.0059763	-0.016301	-0.0043626	-0.0011204	-0.001639	0.0012212	-0.0047279	-0.031563	-0.0016563	-0.0052524	-0.0097195	0.0062868	-0.0028648	-0.03579	-0.016807	-0.011615	-0.0083234	-0.0018361	-0.0025256	-0.0034361	-0.0035354	-0.003044	-0.0088215	-0.019068	0.010181	-0.029694	-0.0062501	-0.0097628	0.0039457	-0.0025893	-0.0070681	0.0055927	0.0051667	-0.012507	-0.0084525	-0.034606	-0.033412	0.0023574	-0.0033021	-0.015062	0.0001763	-0.0074012	-0.01318	-0.0030228	-0.041358	-0.0089651	-0.0097635	-0.028961
-0.0079106	0.00059679	0.022855	0.017123	-0.16767	0.017195	0.36505	-0.027956	-0.0022262	-0.023739	0.011957	0.045985	-0.039439	0.073481	0.013698	-0.0068226	0.011711	0.011262	0.035881	0.028107	-0.002503	0.09155	0.044654	0.0048743	-0.0072051	0.016693	-0.016753	0.014511	0.012763	-0.0053161	-0.0072132	-0.01648	-0.0033856	0.0033475	-0.010295	-0.011641	-0.015034	0.0069616	-0.016192	0.0084304	-0.023258	0.017149	-0.0045638	-0.024514	-0.020052	0.0070009	0.015427	0.00093966	-0.015657	0.0089215	0.0058254	-0.010843	0.025582	0.0054248	0.0018208	0.0053144	0.021173	0.0070617	-0.013356	0.0069236	0.023126	-0.011033	0.0039246	0.032495	0.0018464	0.0096833	-0.026191	0.0033301	0.025721	-0.012752	-0.019973	-0.0050758	0.017305	0.019255	0.043571	0.023701	-0.0168	0.020139	0.01092	0.00013502	-0.0034393	-0.010604	-0.025593	0.029907	-0.0022553	-0.008833	0.048964	-0.016976	-0.020165	0.01297	0.0031024	-0.018795	-0.0082365	-0.021121	0.0098122	-0.010267	-0.035394	0.043624
0.0075999	-0.0048898	0.0016539	0.00075628	-0.016196	0.0094818	0.0068365	-0.020607	0.030617	-0.0017098	0.0030862	-0.0014843	-0.0046794	-0.0098266	-0.0029585	-0.018685	-0.012163	-0.020896	0.01287	0.034796	0.0087819	0.018257	0.012328	-0.012051	-0.022129	0.00050152	0.0090398	0.0010636	0.00079952	-0.023531	0.0064813	-0.011713	-0.00010355	-0.0063052	0.0010372	-0.0086761	-0.015927	0.0067617	-0.024246	-0.0019499	0.039494	0.014616	-0.0020633	-0.012526	0.01234	0.012867	-0.0061547	-0.003271	-0.021545	0.0035972	0.015509	-0.014243	0.010279	0.023789	-0.0024184	0.005678	0.0072289	0.023608	0.0058497	-0.00317	-0.010112	-0.018749	-0.0047267	0.027002	-0.0069069	-0.020153	-0.020914	0.022976	0.015432	-0.023761	-0.0080345	0.010804	0.018436	0.0067705	-0.026176	0.031705	-0.0099705	0.035255	0.022762	-0.0015718	-0.014218	-0.067601	0.41078	0.043522	0.019793	0.0007485	-0.04853	0.064881	0.00051015	-0.043433	-0.0041095	0.0054849	-0.000135	0.01868	-0.011532	0.012004	0.044879	0.030954
0.001639	-0.0075743	-0.008316	0.01777	0.015282	-0.00042695	0.023113	-0.0027322	-0.023582	0.0074749	-0.02211	-0.012088	0.045899	-0.015807	0.00013322	-0.021735	0.010926	-0.00039457	0.028721	0.0028543	-0.0034677	0.025778	-0.0021779	-0.0076743	0.0289	0.02938	-0.019042	0.010333	0.017102	-0.043855	0.0082479	0.026011	0.028077	-0.0045829	-0.018353	-0.005544	-0.0083243	0.012534	0.05043	0.062944	0.40436	-0.068643	0.022098	0.0076994	0.034399	0.0014542	0.022659	0.011616	0.014952	0.0046653	0.0098466	-0.023265	0.0091023	-0.012395	-0.0045519	0.051603	-0.0038785	-0.014314	0.0096959	0.010672	0.018124	-0.043572	0.0022683	0.015975	0.025403	0.00077544	0.029752	0.0074587	-0.043602	-0.0098432	0.0036239	0.0069757	-0.0037796	0.011555	0.015789	0.013986	0.0058441	0.013429	-0.00051918	-0.0066664	-0.015112	-0.0014418	-0.031767	-0.0016813	-0.013737	0.00077657	-0.0031263	-0.033255	-0.037569	-0.0029612	-0.0030674	0.01497	-0.01031	-0.016938	-0.0034913	-0.0065618	-0.0069132	0.021984
-0.014052	0.01174	-0.0026419	-0.018726	0.031355	0.015783	-0.007128	-0.011926	0.0074472	0.022317	0.013158	0.0087292	0.018125	0.011742	0.0039548	-0.009503	-0.0020562	-0.017328	0.0043197	0.0055916	-0.0030605	-0.01688	0.03105	-0.024546	0.030702	0.017928	-0.017588	-0.008782	0.0074847	-0.0080529	0.013719	0.00015603	0.11648	0.0070478	0.00014488	0.013009	-0.1193	0.38989	0.0095009	0.034728	-0.047382	-0.011831	0.019619	-0.025566	0.028545	-0.0039352	0.034901	-0.013141	-0.0067504	0.0040129	0.014893	0.0019622	0.02588	0.042587	0.018228	-0.0099131	0.018537	0.010991	0.0066228	0.0039816	0.0087529	0.0079068	0.0062332	0.011274	0.0049841	0.029764	0.0026665	-0.0058406	-0.020692	0.0064119	-0.036215	0.0089184	-0.025183	-0.018112	0.020011	0.013885	0.011232	-0.011333	-0.012113	-0.0038701	-0.008323	-0.013735	-0.010969	0.0018445	-0.01201	0.0018997	-0.032096	-0.022948	-0.014991	0.0023726	-0.0024721	-0.0042083	0.012825	0.0014597	0.01259	0.0061132	0.024633	0.016629
0.0060899	-0.0040603	-0.022394	-0.039419	0.0085542	-0.0042586	-0.0093863	0.010783	-0.012718	-0.022479	-0.02603	0.022364	0.038109	-0.023288	0.0075021	0.002341	0.018719	0.030836	0.0099977	0.021767	-0.026023	0.023819	0.00085914	0.01753	0.013923	-0.00018528	-0.014292	0.0028035	-0.014983	-0.042216	-0.038478	-0.044084	-0.010814	-0.0031094	-0.021195	-0.011175	-0.029734	-0.0064201	0.00026532	0.0018796	-0.019014	0.0079969	-0.015184	-0.024809	0.01168	0.0073783	-0.021241	0.0070691	0.011801	-0.0090562	-0.0044552	0.020921	-0.041181	-0.010099	-0.032256	0.009343	-0.0071839	0.074403	0.39266	0.06887	0.038178	0.04325	-0.010745	0.018458	-0.00080799	-0.013646	-0.034668	-0.034583	-0.025623	-0.011091	0.012135	0.0051267	0.044376	0.019962	0.0022499	0.013124	-0.0063305	0.0074913	0.012881	0.017703	-0.028655	0.002552	-0.0090788	0.010551	0.0034562	0.0047346	0.033902	-0.0055314	0.0054955	-0.0058996	-0.038638	-0.0077703	-0.0050986	-0.0097194	0.016352	-0.0010711	-0.015274	0.04009
0.033441	-0.011036	0.010152	0.033529	-0.0020058	0.12819	-0.016179	-0.0029364	-0.011277	0.011283	0.041038	0.031564	0.0071208	0.028302	0.011166	0.0037828	-0.0096003	-0.015131	0.0081279	0.0028004	0.017794	0.0017788	-0.007733	-0.093025	-0.0437	-0.00238	0.041374	0.00412	0.050415	0.012783	0.0012434	0.010601	-0.018911	0.10957	0.31954	0.0078687	-0.099851	-0.046538	-0.014825	-0.0024781	0.012394	0.011186	-0.0098999	-0.014385	-0.028062	0.019465	-0.0049177	-0.00083825	0.021861	0.021182	0.0041276	-0.018554	0.01892	-0.00032342	-0.016063	-0.0003486	-0.012873	0.072399	0.01616	0.013865	0.0039617	-0.039886	-0.014105	0.059348	0.00024192	-0.0064725	0.00044986	-0.013833	-0.020068	0.006857	0.0035417	0.011925	0.012046	0.010761	-0.001651	0.032408	0.031826	-0.017997	-0.028008	0.014973	-0.028304	-0.026405	-0.026822	-0.010863	-0.053089	-0.058472	-0.06283	-0.01273	0.0083922	0.029756	0.014048	0.015075	0.0037839	0.0088047	0.032485	0.013412	0.0058327	-0.0014028
0.0046367	-0.00633	-0.014923	0.0064988	0.015599	0.0020651	-0.022773	-0.0093871	0.0010582	0.01013	0.0010705	0.033238	0.029904	0.02108	0.011533	0.0029079	0.022126	0.03341	0.035836	0.020204	-0.015294	0.012385	0.0011764	0.049009	-0.0063364	0.01299	-0.026205	-0.017258	0.0050467	-0.010662	-0.023547	-0.0049171	-0.0092149	0.0040572	-0.014584	-0.0027012	-0.017158	-0.0089097	-0.008592	0.0090138	-0.039128	-0.017896	0.044449	0.0062127	0.014092	0.012288	0.044558	0.049844	0.39088	0.0044827	-0.0012697	-0.016661	0.041871	0.02254	-0.059152	-0.024809	-0.037333	-0.0053221	-0.042792	0.008218	0.015249	-0.010453	0.010386	0.035614	0.01177	-0.018757	-0.0059402	0.0099048	-0.0026221	0.0019454	-0.024641	0.0029127	-0.0092517	0.0082838	0.00025985	0.015519	-0.002136	0.02062	0.024372	-0.025253	0.0050572	-0.013866	0.013578	0.027315	0.015268	0.0034391	0.041685	-0.0016844	-0.017177	-0.028554	-0.02097	-0.002093	-0.011125	-0.018979	0.02334	-0.0018784	-0.0087441	0.028429
-0.021377	0.008361	-0.0090412	0.0326	0.009822	0.0056033	-0.001569	-0.014698	-0.022741	-0.01156	-0.015014	0.028316	-0.032614	0.016278	0.0076585	-0.0047366	0.0078517	0.03095	0.019819	0.00048949	-0.0074406	0.0090215	0.013685	0.0041738	-0.0015297	0.011552	0.018836	-0.0071482	-0.022088	0.0035914	-0.020356	-0.0079921	-0.0049565	0.0020217	-0.0056461	-0.0057708	0.017477	0.0064289	-0.020097	-0.0048373	-0.028453	-0.0047292	-0.0085065	-0.0082082	-0.0026209	0.012614	-0.014604	0.011644	-0.018667	-0.00411	0.00036743	0.0036574	-0.019507	-0.0094168	-0.0068346	-0.006117	-0.0039509	0.04068	-0.0022494	0.038029	0.030829	0.013458	0.017699	0.012674	0.049248	-0.033709	0.386	-0.015319	-0.0048512	0.0050005	-0.0045159	0.01382	-0.028144	0.032011	0.0013372	0.017145	0.0026152	0.010526	-0.0095098	0.038564	-0.00085482	-0.0040014	0.020002	0.0089848	0.016912	-0.017843	0.015869	-0.0078876	-0.024825	-0.021355	-0.012844	0.00016015	-0.0037388	-0.0017761	0.0063477	0.0014228	-0.012065	0.021489
-0.016752	-0.0086316	-0.0015622	0.021859	0.03958	0.0027569	-0.021362	0.012327	-0.010378	0.023162	-0.01683	-0.017747	0.051567	0.032292	0.003234	-0.0066931	0.0011701	-0.0024124	0.027013	-0.031578	0.0051877	0.026228	0.0334	0.00092863	0.0053331	0.0035345	0.0061662	0.0074012	0.020845	-0.00085042	-0.006715	-0.024099	-0.020376	-0.0012634	0.0062378	-0.0023981	0.01554	-0.018236	-0.035839	-0.0010144	-0.020741	0.0011837	-0.0029075	-0.00053063	-0.01975	-0.010549	0.010613	-0.0044905	0.026711	0.0098762	-0.0037443	-0.013433	0.00082227	-0.0012234	0.021811	0.054009	0.37764	-0.066515	0.015969	-0.010867	0.0074902	-0.021486	0.015778	0.019421	0.0015505	-0.013975	0.0023862	-0.0040363	-0.029333	-0.0022361	-0.0018461	-0.0052148	0.00179	0.0061653	0.010928	0.013522	-0.0057673	-0.0058331	0.013716	0.019982	0.0038645	-0.017141	-0.0082019	0.010617	-0.0070384	-0.0034093	-0.024351	-0.0061067	-0.0056787	-0.021309	0.018662	-0.0036019	-0.011157	-0.003364	-0.0016925	0.0052637	-0.0039381	0.020405
-0.016399	-0.0076419	-0.0014361	-0.0096632	0.0076325	0.012091	-0.0020016	-0.0017157	-0.017898	-0.018782	-0.0026545	-0.0022269	-0.0018757	-0.025176	-0.0057762	0.0024561	0.0009016	0.046467	0.00587	-0.00051767	0.0055265	-0.0060118	0.0045623	-0.030659	-0.00436	-0.001011	0.0085354	-0.010877	0.010854	0.0016507	0.005354	-0.0090506	0.0027766	-0.0077638	-0.0068991	0.0047975	0.011482	0.0050418	-0.011335	0.021881	0.004207	0.011354	0.0071524	0.006748	0.01128	0.012883	-0.0048815	0.0034096	0.0090753	-0.0055743	-0.010038	-0.038623	-0.014681	-0.0024628	0.012877	-0.0032648	-0.023066	-0.035323	-0.021278	-0.005842	0.0050528	0.011004	-0.0041164	0.0086099	0.014991	-0.0052426	-0.040221	0.032384	0.024758	0.037531	-0.056526	-0.033044	0.025948	-0.010197	-0.010934	0.014814	0.0031336	0.023217	0.026307	0.37378	-0.032582	-0.012711	-0.011205	0.010702	0.0026706	-0.0067496	0.014341	-0.01088	-0.0070269	-0.016717	-0.037913	0.0059432	0.024609	-0.021872	-0.0070808	0.0021437	0.03556	-0.0041772
-0.027976	-0.014997	-0.0065033	-0.0035395	0.018845	-0.00034467	-0.0099961	-0.0049869	-0.0073169	-0.05926	-0.0029766	-0.018197	-0.0018003	0.009271	0.0032563	-0.0067076	0.011239	-0.016521	-0.0022061	-0.0019333	0.0087362	0.0050681	-0.0053794	0.015146	-0.013471	-0.012333	-0.044446	-0.023568	0.0068553	-0.035434	0.0087863	0.023843	0.030146	0.0050881	-0.00061979	-0.0025872	-0.024487	-0.016715	0.064971	0.061131	0.021383	0.36281	0.03917	0.035932	0.012243	0.0050383	0.012355	0.0027153	0.0020482	0.0035187	-0.0078177	0.01063	-0.010055	-0.023822	-0.029527	0.027032	0.0014735	-0.011783	-0.01294	0.0020006	0.0045904	-0.013866	0.011618	0.010888	-0.010347	0.02257	0.015276	-0.041655	-0.0081668	0.014487	-0.019053	-0.026107	-0.0073311	-0.0064442	-0.0067172	0.010366	0.0048564	0.00054371	-0.0074055	-0.016533	0.0073482	0.023811	-0.0086831	0.0037575	0.012264	0.0071775	-0.0095251	-0.0049749	-0.0089565	-0.001676	-0.003334	-0.00051069	-0.0066852	-0.011763	-0.0077294	0.0097054	0.033482	0.054972
0.0064662	0.0052465	-0.0094181	0.00013673	0.018874	0.023623	0.0035973	-8.1653e-05	-0.020146	0.028089	-0.038395	0.0044052	0.029209	0.0052008	-0.00057873	-0.017354	-0.0020649	0.0048878	-0.0078993	0.0021849	-0.0016744	-0.033495	-0.031934	0.024255	0.016411	0.031123	-0.011626	0.066131	0.025054	0.33321	0.070435	0.063213	0.038791	-0.0025195	-0.027583	-0.019994	-0.0044815	-0.023989	0.037143	0.056276	-0.0021517	0.0034697	-0.0025732	-0.026057	-0.0071661	0.0144	0.027459	-0.025263	-0.0052153	0.0018054	-0.0034958	0.022098	0.0024799	-0.024413	-0.014982	0.030431	0.0015157	0.042794	0.011996	0.0053502	0.0071694	0.037059	0.02782	0.017806	0.0070148	-0.0048701	-0.0067123	0.0094112	-0.012185	-0.0064273	-0.029289	-0.04291	0.022984	0.010222	0.013303	0.035762	0.0002192	-0.0044939	0.014694	-0.0077271	-0.028066	0.003726	0.020372	0.035175	-0.016191	-0.0088681	0.029277	-0.0017575	-0.0055474	-0.010846	0.0057893	0.0061973	0.0048565	-0.0039553	0.027501	0.0079348	-0.0032181	0.044132
0.0047571	0.00028771	-0.0034102	-0.0093875	0.0096619	-8.4246e-05	0.002708	-0.002844	-0.0058588	-0.019918	0.0066086	0.0061686	-0.0020963	-0.0024278	0.0011382	-0.0055787	0.00078802	0.0036327	-0.0034565	0.014437	0.0062454	-0.019737	-0.0057864	0.0060297	0.013087	0.065256	-0.021066	-0.015508	0.011961	-0.067831	-0.043889	0.37039	-0.017909	0.0012099	-0.0092539	-0.0077174	-0.01088	-0.0029033	-0.06891	-0.023515	-0.025157	-0.01039	-0.004902	-0.024632	0.00051886	0.0071863	0.0057067	-0.012202	-0.010649	0.0011451	-0.010339	-0.0025944	0.010408	-0.0012198	0.01401	0.0010168	0.013671	-0.0094626	0.021871	0.0050135	0.011629	-0.0032525	0.0098754	0.00097483	-0.0084259	-0.0080455	-0.002629	0.0077345	0.0065575	0.017671	-0.0046307	-0.0086396	0.01046	0.0029965	0.002753	0.0050368	-0.0028215	0.0075754	0.0030793	0.0023389	-0.014327	0.0019198	0.0052122	0.013528	-0.0061978	-0.011023	0.011557	0.00055107	0.002045	-0.013445	-0.00099065	-0.0031322	-0.014736	-0.023002	0.0031333	-0.0070133	-0.012011	-0.001428
-0.027029	0.012963	-0.00067148	-0.0094302	-0.004325	-0.0047417	-0.015113	-0.011981	0.006009	-0.019752	-0.00012898	-0.014895	0.0038675	-0.005381	0.0079305	0.0070904	-0.0029436	-0.0062733	0.0028873	-0.014262	-0.0090644	0.022264	-0.018855	0.0089432	-0.039601	-0.011812	-0.020625	-0.014133	-0.005151	-0.020776	-0.0051961	-0.0077463	-0.0059747	0.0013602	0.0045615	0.0032202	-0.043025	-0.040678	0.049484	-0.0053109	-0.026235	-0.029568	-0.0071309	-0.051395	-0.015648	-0.021621	0.36227	-0.014833	-0.043845	-0.018076	-0.013173	-0.028907	-0.026664	-0.036843	-0.0018465	-0.0048058	-0.0043575	0.0099396	0.010112	0.0084227	-0.00041134	-0.017262	-0.017903	-0.023189	-0.003335	-0.015563	0.0093014	0.0035598	0.012008	0.00054221	-0.019007	0.015438	-0.0033523	-0.010639	-0.012649	-0.023761	0.016103	-0.014214	-0.010364	0.0075229	0.0098535	-0.02338	0.006616	-0.008739	0.0028894	0.014782	-0.00050002	-0.010889	-0.025749	-0.034284	-0.0022368	0.0067094	8.6106e-05	-0.025645	-0.01412	-0.00459	-0.0024559	-0.0051719
0.0034628	0.016184	-0.0068186	-0.0003498	-0.023822	-0.067575	-0.061958	-0.022797	0.013556	0.00028722	0.0099166	-0.032395	-0.0018426	0.31363	0.027816	-0.0099068	0.0034434	0.1436	0.012032	0.016167	-0.042867	-0.043232	-0.047646	-0.097571	-0.013837	-0.043742	-0.0092546	-0.0011219	-0.041166	0.0042155	-0.012298	0.0064333	-0.0030563	-0.017769	-0.026032	-0.013183	-0.019376	-0.0070442	0.010294	0.0044493	0.0201	0.0018169	-0.0057128	-0.0074452	-0.011566	0.0020171	-0.014844	-0.0045824	-0.01559	-0.0065949	-0.019998	-0.022676	0.010164	0.014682	0.020092	0.013038	-0.011399	0.012696	0.010471	-0.005661	-0.0079867	-0.003057	-0.014278	0.0015529	-0.0072105	0.01075	-0.016899	0.010781	0.016838	0.01378	-0.0068754	0.0067741	-0.01154	-0.012952	-0.0042903	-0.003332	0.0010527	-0.013939	-0.0031556	-0.0029557	-0.0086964	-0.0097642	0.013716	-0.018265	-0.016512	0.0090155	-0.0040025	-0.0062807	-0.012524	0.0014619	-0.0015086	0.0039086	-0.0017389	-0.022066	0.0074627	-0.0051403	-0.030475	0.016068
0.0099389	-0.051406	-0.020934	-0.0056921	-0.00088668	0.062565	0.023876	0.010958	-0.015972	-0.0055786	-0.0063692	0.0066156	0.01627	-0.028963	0.023258	-0.018728	-0.26814	0.20857	-0.0042759	-0.0017235	-0.022034	-0.0061325	0.0021944	0.13011	0.033393	0.0084724	-0.014893	-0.025972	-0.0030611	0.00049827	-0.0035722	-0.00824	-0.0024957	0.0046912	0.013595	0.015255	-0.0014732	0.0099543	0.0034089	-0.012488	-0.0020849	0.0015673	0.0033212	0.027962	0.002226	-0.021524	0.0061953	-0.0027579	-0.015451	0.0039053	-0.0075243	-0.0039397	-0.0097762	0.0097498	-0.0034061	-0.0012985	-0.0034232	-0.018794	-0.0015973	-0.0079544	0.01599	-0.018795	0.0070459	-0.0055947	0.0077431	0.013184	-0.0046115	-0.0042607	-0.026897	0.0023267	-0.0060231	-0.0011852	-0.0024282	0.0057467	-0.033476	-0.020832	-0.0030357	0.004082	0.00096317	-0.020609	-7.4177e-05	0.024079	0.0061199	0.0049741	-0.015937	-0.055968	-0.054576	0.014032	-0.0082469	0.012323	0.0098725	0.012577	-0.0042084	-0.029092	-0.030887	-0.0028607	0.020203	-0.0079701
0.019126	0.0089648	-0.002433	-0.013724	0.0090336	0.028487	0.00095208	-0.018978	0.02038	0.0049607	-0.0039779	-0.0033976	-0.016747	0.041305	-0.012061	-0.0054222	-0.013857	-0.037961	-0.002468	0.00061271	0.017731	0.0079831	-0.0097482	0.013312	0.021083	-0.0095579	0.021823	-0.0026628	0.01965	-0.036644	-0.015279	-0.011826	-0.002602	0.0038995	0.0080502	0.0036907	0.019029	0.0011427	0.0091111	0.0041112	0.0089535	-0.0068795	-0.00248	-0.016571	-0.017999	-0.0056075	0.0031437	0.0069585	0.0042853	-0.0079004	-0.036272	-0.015159	-0.0089165	0.0083114	-0.0023891	-0.0020873	0.00028285	0.083975	-0.0058841	-0.00090819	-0.020441	0.018498	0.34164	-0.11277	-0.0049316	-0.021816	-0.019905	0.0052613	-0.026534	-0.0036113	-0.025856	-0.0015494	0.015369	0.0046803	-0.017897	-0.025359	-0.0091878	0.0067005	-0.00079647	0.01328	-0.0057515	0.011451	-0.0023267	0.0072467	-0.0075474	-0.0099743	-0.0053297	-0.0012769	0.0030355	-0.0028667	-0.009997	-0.0036249	0.0095409	0.0067152	-0.030281	0.0080198	-0.0080613	0.029335
-0.0012423	-0.020318	-0.010753	-0.027948	0.029683	-0.0010339	-0.01405	-0.021542	-0.022431	-0.021746	0.0091194	-0.028653	0.035277	-0.018123	0.0039694	-0.0066959	0.0099937	-0.0024868	0.0037232	0.010154	-0.010585	0.021117	-0.00083723	0.0061069	-0.0016329	0.017503	0.00022619	0.019402	0.0026445	-0.0014344	-0.015468	-0.004159	-0.0095851	-0.0015056	-0.013918	-0.010995	0.015554	-0.046809	0.01286	0.02489	-0.0068608	0.0061365	0.0031371	-0.023211	0.012127	0.0062206	0.018333	0.0042295	-0.046028	-0.010765	0.032338	-0.011974	0.013445	0.35192	-0.014901	0.0073031	0.002548	0.047715	-0.032397	0.038525	0.043311	0.010927	-0.0091	0.017914	-0.0024734	-0.032518	-0.0079523	-0.012657	0.014453	0.0093649	-0.0022713	0.019897	-0.0097617	-0.003057	0.0027951	0.0065154	-0.002658	-0.011371	-0.00091521	-0.0018352	0.000585	-0.01769	-0.028497	0.012636	-0.0018389	-0.014955	0.016767	-0.0030584	-0.0091896	0.019188	0.0053757	-0.0043983	0.0008735	-0.020852	0.0086195	0.010081	0.016349	0.030377
-0.019363	-0.00046388	-0.015712	-0.012955	-0.016854	-0.0020844	-0.024026	-0.016656	-0.017399	-0.006727	-0.01161	-0.016639	-0.0060141	-0.014872	-0.007744	0.0030597	-0.00346	-0.015532	-0.015615	-0.0091645	-0.037132	-0.0076166	-0.0091552	-0.026815	-0.022828	-0.019491	0.0010305	-0.0041234	-0.0075021	-0.0098227	-0.0074485	-0.014546	-0.0078788	-0.0096947	-0.0076963	-0.0024881	-0.033099	-0.0024094	-0.0044171	-0.010962	0.0035864	-0.0069801	-0.00852	-0.010456	-0.022703	0.00081627	-0.026983	-0.0090746	-0.012174	-0.018201	-0.013761	-0.013389	-0.013811	-0.018847	-0.014219	-0.0076944	-0.0071839	-0.01405	-0.016123	-0.002652	-0.0044496	-0.011982	-0.012536	-0.017518	-0.011367	-0.0032729	-0.0023135	-0.014094	-0.0025314	-0.0013166	-0.00052656	0.0010733	-0.0022664	-0.028451	-0.030193	-0.013082	-0.029064	-0.013385	-0.018919	-0.022359	-0.023619	-0.048908	-0.040155	0.3387	-0.0021083	-0.027361	-0.03251	-0.038599	-0.016301	-0.01248	-0.032602	-0.0075992	-0.006726	-0.04085	-0.023603	-0.014924	-0.014174	-0.0031381
-0.025654	-0.047377	-0.014862	-0.0125	0.03309	0.021004	0.0024248	-0.0070234	0.0042772	-0.021162	-0.024328	-0.015147	0.01528	6.1705e-05	0.011921	0.0060364	0.017261	0.00076817	-0.0084401	-0.0034433	-0.0030631	0.023002	-0.010519	0.027762	0.024436	0.0093192	0.018493	-0.0058045	-0.0032444	-0.009257	-0.028166	-0.015793	-0.0095657	0.009755	0.0023812	5.5859e-05	0.011498	-0.017991	-0.0051708	0.01626	-0.016821	-0.0020756	0.012314	0.016638	0.007335	0.010531	0.002461	0.012941	0.021675	0.01123	0.024103	0.034405	0.013146	-0.028782	0.32587	0.048398	-0.025963	0.069756	-0.021141	0.013851	0.0043037	-0.0048494	-0.018911	0.017021	-0.033543	-0.020509	-0.01162	-0.0099088	-0.034737	-0.003689	-0.029284	0.017252	-0.008695	-0.0025808	-0.018651	0.0087732	0.014413	0.0026023	-0.018494	-0.014849	-0.018203	-0.0014508	0.0006435	0.014647	-0.0096122	0.0069243	0.027604	-0.011664	-0.021401	0.0031937	-0.035977	-0.019747	0.0018158	-0.0092927	0.01227	0.009137	0.02187	0.042206
0.016956	0.019234	-0.0019758	0.014499	-0.0021438	0.00045616	-0.0012773	0.006471	-0.0093727	0.0025864	0.0050743	0.0018835	0.013164	0.027478	-0.0022561	-0.003789	-0.015928	0.0036348	0.0065503	0.0045939	0.027475	0.0032819	-0.005122	-0.012727	0.031107	0.011445	0.0038834	0.0018528	0.0088872	0.004133	0.004219	0.011387	0.00040226	-0.0019532	0.0011497	0.0095651	0.0049049	-0.0041398	-0.0040575	0.0027752	-0.0061743	0.013669	0.0045597	0.0054271	-0.00015143	-0.015236	0.0054141	-0.011931	0.013238	0.013645	0.34126	-0.03484	-0.04778	-0.026697	-0.017835	-0.0058726	0.0064093	0.030271	0.0026305	-0.0083972	-0.016582	-0.0034795	-0.012305	-0.093068	0.0014155	-0.015452	-0.0024959	-0.013237	0.0015311	-0.00047131	0.010782	0.018823	-0.00073121	-0.0063726	0.010103	-0.023958	-0.020252	0.0090862	0.004296	0.013745	0.0059388	0.0039242	-0.0054849	0.012745	0.014064	-0.0023779	0.0033043	0.0053903	0.0031816	0.00039643	-0.0060338	0.00013347	0.0056893	-0.0083318	-0.0058284	-0.0014628	-0.0016687	0.0090454
-0.01035	0.014803	-0.013457	-0.028257	0.014534	0.0094776	0.0024485	0.0025229	0.0058635	0.0064489	-0.013135	0.016065	-0.010518	0.0087553	0.0020129	-0.0014994	-0.0089527	-0.011715	0.0080076	-0.0081334	0.016297	0.00096172	0.0042901	-0.0055344	-0.0064071	-0.010693	0.010976	0.0013568	0.0006735	-0.009157	-0.002682	-0.00039791	-0.0032795	0.0045108	0.010399	0.0058808	-0.014275	0.00065618	0.0017247	-0.0039983	0.0028442	0.0003832	0.0036979	-0.0019493	-0.0051821	0.0020761	0.00045953	0.00092629	-0.015741	0.0032745	-0.0035254	0.0011497	-0.003699	-0.0020601	0.00996	0.0059722	-0.012574	0.010878	-0.0093872	-0.0050029	-0.0015307	-0.0077185	-0.011787	-0.0020216	-0.018241	-0.00924	0.018989	-0.0038634	-0.0048379	0.014559	0.0010838	-0.0083736	0.0088137	-0.051792	-0.029474	0.0015469	-0.015021	-0.022103	0.34988	-0.027517	-0.015387	-0.020036	-0.026027	-0.0075848	-0.00025591	-0.0064294	-0.018977	-0.013056	-0.0018773	0.0044092	-0.010956	-0.00088798	-0.0073874	0.010062	-0.007407	-0.0016658	0.0064535	0.0086616
-0.0013135	0.010518	-0.012714	-0.005701	0.013193	0.0056031	-0.0097443	-0.0045513	0.0031576	0.0073751	-0.0076073	-0.0021364	0.0094384	0.0066514	0.00081263	-0.011683	-0.0028958	-0.0097799	0.0060441	0.0023649	-0.0019772	-0.00068472	0.0045934	-0.01534	-0.0081273	-0.0024611	0.020949	-0.0026065	-0.016082	0.018216	-0.0032909	-0.0017958	0.0050612	-0.0042023	0.0036033	0.0021371	-0.0099261	0.0021794	0.00043098	0.0035024	-0.008716	0.006748	0.0014874	0.0042038	-0.0077774	0.012273	0.011724	0.0061264	-0.012705	-0.0024498	-0.0098292	0.0036557	-0.003786	0.0090943	0.005097	-9.7336e-05	0.0028774	-0.0024889	0.0051614	-0.00029164	-0.01468	-0.014895	-0.0073086	-0.0016725	-0.0053087	-0.0063152	-0.00089831	0.00818	0.016695	0.0099853	0.0035319	-0.0073274	-0.003354	-0.0044263	-0.023633	-0.020869	-0.046829	0.35061	0.0016209	-0.025976	-0.0082225	-0.024786	-0.033694	-0.014474	-0.0042976	-0.011826	-0.021769	-0.018193	0.00044252	0.012617	0.0022228	-0.0036024	0.0069672	-0.0054294	-0.0055997	-0.0010994	-0.0017866	-0.018971
-0.030877	0.0010428	-0.0085997	0.0094207	0.0036493	-0.011283	0.015112	0.010141	-0.0083896	-0.0092292	-0.0081177	-0.010882	0.01672	0.0093513	0.0024558	-0.0089902	0.0048003	-0.018156	-0.018023	0.0096734	-0.021042	0.014582	-0.0063111	0.0023389	0.021093	0.0037926	0.019376	0.0041452	-0.022283	-0.010053	-0.0075258	-0.003517	0.00036895	-0.0038352	-0.0034019	-0.011059	-0.010199	0.00057639	-0.010669	-0.0063103	-0.013529	0.011054	0.00088477	-0.0025371	-0.0054325	0.013585	0.0074553	0.012879	0.0022409	0.0061863	0.011167	0.021641	0.009675	0.0052425	0.014442	0.00040712	-0.0015398	-0.014663	-0.00046701	0.017837	0.018044	0.0035278	0.010062	-0.0035114	0.013447	0.014828	-0.0036644	0.015944	-0.014889	-0.019726	-0.0080305	-0.0074862	-0.0012327	-0.0037369	-0.0041476	0.012125	0.0017844	0.0032762	0.0064567	0.00060465	-0.01698	0.017197	0.0025231	0.016276	-0.0040582	-0.01183	0.013902	0.011857	0.012312	0.021045	0.0020452	0.34503	-0.0066141	0.027877	0.0057952	0.026473	-0.030332	-0.036091
-0.026249	0.012849	-0.004289	-0.020346	0.053563	0.01058	-0.010909	0.0045505	-0.04152	0.0049983	-0.01385	0.0041511	0.0039805	0.0014266	0.0037527	-0.0094467	-0.0077282	0.00095074	0.018257	0.011823	0.0055029	-0.0010309	0.0099451	0.048426	0.016219	0.0072828	-0.013769	0.018573	0.0093452	-0.016355	-0.0015241	-0.011858	0.00020257	0.0055578	0.0033717	-0.0037637	0.0017819	0.012151	-0.0031372	0.0020304	0.017515	-0.003438	-0.0087951	0.0035902	0.004708	-0.0001406	-0.0087729	0.013643	-0.0034338	0.011678	-0.0030325	0.013416	0.0081836	-0.030022	-0.0026538	0.024372	0.019994	0.071121	-0.00081438	-0.024947	-0.015304	-0.032048	0.008172	0.011733	-0.0052515	-0.00039047	-0.0046815	0.0026035	0.32701	-0.0093491	-0.0017015	0.017323	0.010782	0.0018195	-0.011109	0.018818	-0.0018487	-0.01777	-0.0095308	-0.010957	-0.017438	0.0022389	-0.015289	0.0013715	-0.0084446	-0.014577	-0.0087351	-0.01641	-0.0083457	0.002197	-0.00682	0.014631	-0.0084877	0.0078788	0.01072	0.0030947	-0.014798	0.01578
-0.020988	0.31912	0.027074	0.027392	0.019441	0.014266	-0.0029509	0.00023833	-0.024475	-0.010152	-0.0097121	0.011083	0.024319	-0.023641	0.0024826	-0.0038477	-0.010435	0.039903	0.0053496	0.018248	-0.034626	0.002377	-0.010821	0.020993	0.016359	0.024669	0.015296	-0.018692	0.0034178	-0.019811	-0.0097111	-0.0095447	-0.0038587	-0.00060664	-0.0037957	-0.0028161	0.025577	-0.0023557	0.004966	-0.0071096	-0.0027267	0.017308	-0.0021496	0.0026406	0.0062398	0.0054474	-0.0077596	-0.030297	-0.0082799	0.0073299	-0.015418	-0.010783	-0.0082591	-0.0013277	0.0086716	0.0065026	0.008656	0.062747	-0.032459	0.0078789	-0.00033332	-0.021413	-0.0065557	0.0381	-0.0081034	0.0014461	-0.029604	-0.022564	-0.043744	-0.014788	-0.0029972	0.011928	0.0051263	0.0026235	0.0024382	0.016576	-0.0036769	-0.0010345	-0.0066151	0.0029303	-0.00013442	0.0063768	0.0053371	0.0047078	-0.00067429	-0.017163	0.023622	-0.0047124	-0.012979	-0.0054425	-0.015229	-0.008691	-0.010541	0.0038398	0.023719	0.0032711	-0.002545	-0.022961
-0.010819	0.010304	-0.012923	-0.0078023	0.031691	-0.022786	0.022998	-0.0076916	0.037961	-0.021619	0.00031529	0.0022505	0.018349	0.006399	-0.0053301	-0.02704	-0.014891	0.037484	0.0081024	0.031573	0.027367	0.0036833	0.0072195	-0.03841	0.01719	0.004591	-0.026781	0.013933	0.023389	-0.01143	0.017999	0.0088789	0.011413	0.00029222	-0.0070984	-0.019259	0.0030862	-0.019251	0.0087458	0.028494	0.00049853	0.0016287	0.00059456	-0.00021295	0.0016503	-0.0076027	0.043485	0.01011	0.014414	0.0044999	0.0051609	0.012724	-0.00070886	0.015009	0.023752	-8.9982e-05	-0.0051551	-0.037907	0.0042716	0.02101	0.037182	0.0066857	0.0041375	-0.0032049	0.008391	0.028016	0.012089	0.022255	0.0055627	0.0066774	0.014852	-0.0012702	-0.0079004	0.013959	0.0032725	0.024721	-0.010665	0.0016094	-0.004509	0.0052968	0.011232	0.029265	-0.01023	0.048379	-0.0172	-0.04141	-0.040067	0.0040082	0.11649	0.013803	-0.065665	-0.044135	0.034847	0.27259	0.0017589	0.0034178	-0.037766	-0.017275
-0.0065052	0.01285	-0.0059287	0.0050781	-0.003528	-3.9196e-05	0.00014793	-0.0089205	0.016592	-0.0015671	0.001036	0.011374	-0.0035737	0.0074734	-0.0037192	-0.0019933	0.01859	-0.0043663	0.0035378	0.0021177	0.008414	0.01839	0.018561	-0.010133	0.0066073	0.0045076	-0.0093539	0.0090463	-0.010159	0.0101	0.02438	0.018145	0.00011789	-0.0061094	-0.011635	0.0046435	-0.090581	-0.017795	-0.018405	0.0064855	-0.016826	-0.040693	0.0062204	0.32686	-0.0028044	-0.011986	0.032168	-0.011713	-0.022614	0.0061301	-0.007801	-0.021351	0.0040135	0.017216	-0.0070792	-0.0081719	0.0032968	0.020836	0.01819	-0.0032144	0.015163	0.00067002	0.020355	0.0058365	0.0079239	0.00031714	0.0035246	0.013155	0.002597	-0.005842	0.016794	-0.0034622	0.003366	0.0010635	0.0011969	0.0065638	0.0080556	-0.0033996	0.0010998	0.0017748	0.024791	0.0082935	-0.0002586	0.015431	0.006264	0.0096523	0.0068836	0.0090214	-0.003788	-0.00088134	-0.0035329	0.0046108	0.0096911	-0.010642	-0.0018876	0.0049351	0.019161	0.017224
-0.0027021	-0.00089069	0.0038892	0.0048226	0.0039923	0.014362	-0.0036818	0.0011848	0.0030462	0.0059577	-0.0044347	0.0062853	-0.017242	0.0095057	0.0045676	0.00015321	-0.0033508	0.012764	-0.0040669	-0.0060364	0.0054922	0.0089625	0.0050338	-0.010397	-0.011759	0.002748	0.0095093	0.0098523	0.0095475	0.011098	0.0010823	0.0075564	-0.00032338	-0.0060911	-0.00032511	0.0076587	-0.0084157	0.0021043	-0.0055942	0.0088911	0.011159	-0.0066028	-0.0067756	-0.0051832	0.0009466	0.036487	0.0063513	0.0013481	-0.00072099	0.0061643	-0.0056451	-0.00017002	-0.015594	0.0020037	0.016841	1.998e-05	-0.0020876	0.0069478	0.0047474	-0.0024966	-0.0043429	0.0070086	0.0085578	0.030294	-0.010998	-0.0066283	-0.01653	0.014514	-0.0028611	0.0020471	-0.0019157	-0.0099509	-0.0020063	-0.0098942	-0.0063965	0.025641	-0.047584	-0.018243	-0.017002	-0.0084547	-0.0040802	-0.018162	-0.025896	-0.022847	0.32768	-0.061672	-0.055713	-0.019615	0.010971	-1.7649e-05	0.0070526	0.0069948	0.0018301	0.00072821	-0.010591	0.0017215	-0.014367	0.0041945
-0.015367	0.0014079	0.012457	0.011134	0.013332	0.0043164	-0.016131	-0.002116	0.00010257	-0.014436	0.0028677	-0.00063969	0.020311	0.0086068	-0.00035079	-0.015792	-0.0031262	0.0078229	0.0038524	0.014139	-0.011707	0.024156	-0.0026449	-0.011021	-0.00074887	0.013714	-0.0062465	0.0043027	-0.0071696	-0.017132	-0.020396	-0.0077003	0.00091838	-0.0035386	-0.014667	-0.005487	0.010725	0.0012687	-0.001783	0.0074864	-0.0010347	0.0040947	0.0013212	0.006785	0.016876	0.002157	0.012509	0.018761	0.0083573	0.0058057	0.0095385	0.038099	-0.013059	-0.016624	0.023923	-0.017239	-0.022194	0.0093887	0.0094114	0.015177	0.030547	0.0052776	0.01477	0.00044878	0.0061484	0.0057966	-0.0030403	0.00053607	0.0055302	0.0070877	-0.00078387	-0.01777	0.017288	0.013301	0.025355	0.022443	0.0034731	0.0025102	0.018649	0.023076	-0.00095984	-0.02288	-0.0006545	0.046818	-0.0047993	-0.011299	0.019684	-0.01056	0.011263	0.0072671	0.31888	-0.024287	0.017443	0.035725	0.0039276	0.020497	0.0059958	-0.027461
-0.010918	0.017905	-0.0041566	0.0071818	-0.03093	-0.0039503	0.007121	0.0053964	-0.016485	0.031185	0.006217	-0.010993	0.00063597	0.0092451	-0.0062824	-0.010662	-0.011764	0.013217	-0.0093581	0.028359	0.29486	-0.11208	-0.060169	0.016535	-0.018301	0.0035034	-0.0031505	0.022627	0.0073737	-0.026597	-0.028505	-0.026491	-0.01267	-0.010854	-0.020869	-0.0081214	0.00174	0.0045233	-0.019874	-0.0015164	0.0027361	-0.002258	-0.0070132	0.00058638	-0.0081365	-0.00085027	0.015563	0.015669	0.0023283	0.00035266	-0.015843	0.00541	0.008291	0.0068978	-2.2784e-05	0.0025903	0.0063159	0.027762	0.0041312	0.012619	0.023408	0.012822	-0.017088	0.023293	-0.0056717	0.011673	0.0008628	-0.0020064	-0.015115	-0.0026352	0.0025289	-0.015661	0.0021738	0.0029873	0.0098335	-7.1274e-05	-0.0054823	0.0076806	-0.011056	-0.00229	-0.016249	0.013252	-0.0074413	0.027344	-0.0012582	0.0057596	-0.00112	-0.011962	-0.023545	-0.011945	0.011924	0.018395	-0.020467	-0.011146	0.0089979	0.0017808	0.015414	0.014963
-0.00099919	0.0068353	-0.00064293	0.0028807	0.0018656	0.012494	0.0049719	0.0014736	0.0030246	0.00107	0.0028929	-0.00025919	-0.0040497	0.0068009	0.0066265	-0.0076538	-0.0022379	-0.0076538	0.0061495	0.0016603	0.0037126	0.0019953	0.0020361	-0.008108	-0.010887	0.0049424	0.0087766	0.010894	0.0027809	0.0048515	0.0083424	0.005326	-0.016108	-0.02553	-0.077271	0.34511	-0.052801	-0.027997	-0.0045078	0.0041299	0.005069	0.003854	-0.0072916	-0.026342	-0.030774	0.021634	-0.0074475	0.00045654	0.0078216	0.032171	-0.0077938	0.0020108	-0.0019286	0.0083497	0.0048409	0.0025839	-0.001549	0.0058739	0.0081374	0.0053295	-0.010407	0.00067777	-0.00029359	0.010659	-0.00043261	-0.0011875	0.0038726	0.0062449	0.0011902	-0.0045805	0.0013487	0.0031842	-0.0044815	-0.00011307	0.0064389	0.026673	0.030059	-0.0065197	-0.0089515	-0.0004875	0.0049157	0.0045107	-0.0026129	-0.0053011	0.010324	-0.030013	-0.02789	-0.0027899	0.0040169	0.0071359	0.0041608	0.0061448	0.0078715	0.012253	0.0039243	0.0066649	0.0090918	0.0029191
-0.025537	-0.0029599	-0.0046195	-0.0021694	0.026124	0.0055719	-0.0075442	-0.0060197	-0.019928	-0.015713	0.32674	-0.01032	-0.0064824	-0.004072	-0.00054586	-0.0041562	0.0030156	0.0036711	0.00016819	0.0032206	-0.015918	-0.0079992	0.0021278	0.021087	0.0047586	0.013874	-0.0076575	0.0080661	0.0040568	0.015383	0.0060506	-0.011248	0.002922	-0.0040323	-0.019932	-0.0033082	0.028359	-0.0049149	-0.0045098	0.011446	0.010032	-0.0082494	-0.0025267	0.0027433	-0.0089663	0.0068207	0.0053814	-0.0096214	-0.0053939	0.0070468	0.0030168	0.0051607	0.0010566	-0.021269	0.0079498	0.011819	0.0056646	-0.00011267	0.014838	0.00023813	0.014018	0.0046547	0.016036	0.015937	-0.013558	0.0129	0.0050644	0.00074931	-0.0030778	-0.0033241	0.0040435	0.00075671	-0.0079013	-0.00044989	0.0018768	0.014491	-0.0052758	0.011497	0.016022	-0.0029992	-0.0074352	-0.0016871	-0.0024753	0.014163	0.0052196	0.0026535	0.012175	0.0054802	-0.0035438	-0.0031785	-0.012104	0.0033714	-0.009961	-0.0050004	0.0060996	-1.3695e-05	0.0030172	0.0092145
-0.01884	-0.010575	-0.0058865	-0.0060121	0.01748	-0.0032681	0.00050498	0.00038339	0.0028932	-0.0097381	-0.00054229	-0.00071676	-0.0049929	0.016406	0.0031759	-0.00359	0.01823	0.0012869	-0.0013541	0.00805	0.0047506	-0.011352	-0.010944	0.0051666	0.012367	0.011302	0.01155	-0.0030157	-0.0036488	-0.0051361	0.0090257	-0.0042693	0.0093807	-0.00128	-0.0088473	0.0070723	0.0027223	0.013624	0.0092547	0.0015299	-0.0031594	-0.003115	0.0022985	0.001975	0.015724	-0.00045584	0.0037763	0.00085118	-0.0088178	0.0051165	0.013229	-0.0012996	0.0059842	0.0017677	-0.012119	-0.015448	0.00010027	-0.022738	-0.027962	-0.015896	-0.0047517	6.5513e-05	-0.0033436	0.019258	-0.052964	0.031064	0.010678	-0.018873	-0.017293	0.0028812	-0.0095598	0.056003	0.2163	0.18845	-0.12019	0.0034182	0.01025	-0.0084709	0.0042071	-0.011299	0.016408	-0.050799	-0.022829	-0.00352	0.0040799	0.0073627	-0.00041167	-0.006987	0.016852	0.00074326	-0.0083115	0.0035191	0.0077429	-0.009338	0.010833	0.001671	-0.003823	-0.0042579
0.015609	-0.02101	-0.0035924	0.012293	0.024212	0.0062313	5.7105e-05	-0.0068436	-0.016887	0.0015733	-0.0010938	-0.013265	0.010508	-0.0037617	0.0019472	-0.010026	0.0016631	0.0088074	-0.0022713	0.012165	0.010677	-0.00041499	-0.0049529	-0.01246	0.0042556	0.014102	0.014608	0.0048149	-0.00030748	-0.0036015	0.0066123	0.004635	0.0021701	-0.0046133	-0.001776	-0.011487	-0.0070497	0.001333	0.0018556	0.0094796	8.2662e-05	-0.0017553	-0.012447	-0.026391	-0.0026699	0.00091952	-0.013655	-0.018151	-0.0052305	-0.00024767	-0.012464	-0.017492	-0.0060077	-0.01765	0.0059246	0.0077248	-0.0082359	0.043815	0.0081849	-0.0040652	0.0037756	-0.0031535	-0.0028483	0.013529	0.0053829	-0.0014704	-0.01592	-0.0045874	0.0023968	-0.004074	-0.022261	-0.0093167	-0.021086	0.015861	0.019312	0.016246	-0.0051907	0.010317	0.020734	0.020801	0.31463	-0.021661	-0.0058258	0.022196	-0.0032385	-0.019964	-0.006085	0.030488	-0.030971	-0.0013464	-0.0054732	0.015742	-0.014168	-0.0030189	0.0088572	-0.0028751	-0.020755	0.0070175
-0.0077272	-0.0085097	0.02057	0.013647	-0.016553	-0.0054485	0.0042399	-0.0098832	-0.016823	0.006061	-0.011715	-0.0033291	-0.0011765	0.04482	-0.00020833	-0.0076827	0.006615	-0.00097006	0.0024481	-0.0020029	-0.017076	0.01645	-0.011303	0.010338	0.019811	0.0088669	0.023616	0.021109	0.0096044	-0.010279	0.0034092	0.0057846	0.00047698	0.0006708	-0.0076892	-0.013918	0.010699	-0.011774	-0.014434	0.0084651	0.0031945	-0.014561	-0.0084586	-0.018385	-0.019632	0.008806	0.0095704	-0.0057271	0.0028018	0.005791	0.0053083	0.013202	0.0099529	-0.013033	-0.017357	-0.0096301	0.0013505	-0.00047074	0.017536	-0.0016039	0.015822	-0.0024418	0.015411	0.010027	-0.00013635	0.011228	0.006384	-0.0047006	0.011451	-0.0048011	-0.0051173	-0.012499	-0.0061302	0.0075265	0.0094965	0.015426	-0.0083279	-0.0012564	-0.00049202	-0.023203	0.015331	-0.0053104	-0.024469	0.015544	0.011058	-0.00017937	0.020774	-0.0084313	0.0069708	0.0066535	-0.028662	0.0035237	-0.0026321	0.024263	0.015724	0.022084	0.29506	-0.079045
0.016505	0.00059627	0.015231	0.00080665	-0.0050896	0.0028563	0.0053929	0.0010572	0.0034044	0.016063	0.01277	0.0055347	-0.011658	0.0072085	-0.0011975	0.0016003	-0.0017915	0.0049416	0.005177	-0.003283	0.0079699	0.0048182	0.0059498	-0.019877	0.0043308	0.011562	0.0059249	-0.00069525	0.0014514	0.0089434	0.00020565	-0.0089429	-0.015336	0.0048613	3.9249e-05	-0.0089204	-0.03766	-0.035965	-0.022327	0.0053654	-0.019145	-0.00064463	-0.0036603	-0.020604	0.29982	-0.075281	-0.00053393	-0.021945	-0.0075952	0.0023581	-0.012736	-0.017826	-0.0025305	-0.011182	0.0017769	0.00018434	0.0096034	-0.0028653	-0.0048434	-0.002823	-0.0077426	0.0099195	0.012037	-0.0093757	-0.0095646	-0.0011413	0.0059516	0.0026077	0.0030692	0.0045986	0.0045863	-0.0042795	-0.0084967	-0.0085943	-0.00084973	-0.002449	-0.0027827	0.0054103	-0.00046474	-0.0094276	-0.0035796	-0.00053521	-0.01064	0.01422	-0.00466	-0.003021	0.0017535	-0.0036774	-0.0038385	0.002288	-0.0079263	0.01248	-0.011697	-0.0002335	0.0023083	0.004215	0.016453	0.0046562
0.0062115	-0.00429	0.0023211	0.00017852	-0.0061035	-0.0097583	-0.039196	-0.016118	-0.0020032	0.022739	0.0040666	0.29631	-0.018862	0.0061435	-0.0072397	0.00034625	-3.3425e-05	-0.0096829	0.0071964	0.009284	-0.0084892	-0.029032	-0.029981	0.0019832	-0.0019558	-0.0059645	-0.0022202	-0.013507	0.0013917	-0.0015285	-0.0046226	-0.0082335	0.0028577	-0.0067377	-0.012628	0.00025912	0.020364	-0.011251	0.0043518	0.0099863	0.012843	0.015482	-0.0039747	-0.0039703	-0.0044737	-0.00044199	0.012715	-0.012696	-0.023168	0.0054422	0.01074	-0.0083236	0.008504	0.026917	0.033502	0.0087234	0.0060695	-0.043308	0.0069692	-0.0047382	0.014951	-0.01253	0.014641	0.0066299	-0.003451	0.019087	-0.0126	0.004528	0.0080956	-0.0006752	-0.015584	-0.0010794	-0.0039224	-0.00065944	0.0090145	-0.00055582	-0.0042529	-0.0006892	-0.0092867	-0.0038272	0.016554	-0.00073215	-0.0014833	0.011376	-0.0068278	0.011162	-0.013551	-0.0056743	-0.0035279	-0.0088308	0.0027855	0.011914	0.0093987	-0.0091968	0.002613	-0.0042845	-0.00048322	-0.0040567
-0.0075248	-0.012317	-0.001517	-0.0034131	-0.0036851	-0.074536	0.013718	0.0044262	0.0071474	-0.0046379	-0.0032816	-0.0075508	0.0058479	-0.010914	-0.012786	0.0020069	0.013569	-0.0067253	-0.001889	0.0038921	-0.0018112	0.0023619	0.00342	0.013055	0.050558	0.00040694	-0.012098	-0.0060964	-0.0050714	-0.001926	-0.01069	-0.011042	0.0044719	-0.004846	-0.0021275	0.0021987	0.014047	-0.0056634	0.0063166	-0.013212	0.0013917	0.0057263	0.00037937	0.014115	-0.0057047	-0.017128	0.011247	-0.0099962	-0.0028269	-0.013038	-0.0046482	-0.0019829	-0.0061784	-0.00065564	0.0044823	-0.0035407	-0.011396	-0.028785	0.00069328	-0.0016215	-0.012401	0.012394	0.017395	-0.033286	-0.020426	-0.0088549	0.003443	-0.00059471	-0.0035455	0.0093992	-0.0074642	0.0029695	-0.001027	-0.0073353	0.012594	-0.0076247	-0.0097164	0.0010176	0.0048211	0.0088922	-0.010873	0.0046429	0.0092247	0.0022423	-0.0069111	-0.091073	-0.089465	0.013077	-0.017021	-0.0085229	0.0043345	-0.011061	-0.04602	-0.02822	0.25696	-0.0021843	-0.0056364	-0.017279
-0.0035792	0.016669	-0.0025297	0.0095766	0.0081012	0.0068727	0.0057498	0.0027635	0.017721	0.0056067	-0.0057621	0.0049119	0.0059042	0.015638	0.00075362	-0.010094	-0.002783	-0.011722	-0.00071499	-0.0056113	0.011896	0.0091917	0.0061043	0.0098924	-0.013668	0.0046768	0.010708	0.0086462	0.0059069	-0.0026968	-0.011257	-0.0054853	0.0048148	-0.0082105	-0.012829	-0.0061329	-0.010663	0.0074503	0.0062827	0.016006	0.01656	-0.0019794	-0.0016142	-0.0083538	0.0019881	-0.0038425	0.010071	0.014165	0.0034436	0.0059456	-0.0034594	0.0021576	-0.011774	-0.0052129	0.01258	0.011535	-0.0042141	0.014264	-0.0059887	0.012296	0.009557	0.00070158	-0.0014911	0.012033	0.0093606	0.017835	0.014556	0.008675	0.0076459	-0.0059664	-0.0033756	-0.00472	-0.016823	-0.008715	-0.0021279	0.010819	0.0012693	-6.7585e-06	-0.0012258	0.0068116	-0.0042277	-0.038201	-0.036888	0.009542	-0.0090298	0.0063421	-0.015787	0.16384	0.22669	-0.0074728	0.0011191	-0.007089	-0.045859	-0.10565	-0.0034377	0.0010829	0.004003	0.0073817
0.0046738	0.0050469	0.0049172	-0.00079965	0.0059942	-0.01121	-0.0040557	-0.0025259	0.006412	0.0087819	-0.0088519	-0.015067	0.0031879	0.016211	-0.0012409	-0.0012845	0.002307	0.0071404	-0.013158	-0.0047868	-0.028647	-0.020413	-0.0061916	0.0015058	-0.0069086	-0.010101	-0.02065	0.013127	0.28498	-0.017524	-0.0089157	-0.02171	-0.012108	-0.012313	-0.020041	-0.0027625	0.0030101	0.0021515	-0.028016	-0.0084766	-0.0090466	0.00047916	-0.0092494	0.010738	-0.0033468	-0.0014894	0.00058044	-0.020386	-0.006972	-0.0024889	0.0016127	-0.0022129	-0.017289	0.0010686	0.011645	-0.0052973	-0.025875	-0.031106	0.0073371	0.014142	0.015084	0.011164	-0.0021771	0.0087157	-0.002804	0.0021319	0.016524	0.0011094	0.0051127	0.0086964	0.0014173	-0.018239	-0.0013882	0.0046748	-0.0036989	-0.0030214	0.0033294	0.012939	0.0018466	-0.013466	0.0041154	-0.0080669	0.0066666	-0.0049406	-0.0047599	0.014711	0.0004683	-0.0067362	-0.011421	0.0038471	0.0044896	0.016969	0.0033182	-0.021382	0.0011808	-0.0027141	-0.01166	0.0023705
0.0034198	0.010606	0.014113	-0.022004	0.0085791	0.0028975	-0.010463	-0.0093873	0.0047864	-0.0034059	-0.0074444	0.0023865	0.0048157	-0.0017087	0.0027591	-0.0063852	0.012443	0.00031054	0.0090036	0.001836	0.012451	-0.0088609	0.0049427	0.0051467	-0.013717	0.0018954	-0.033459	-0.0068469	-0.01052	-0.011977	0.035054	0.0041805	0.0051541	-0.0050622	-0.0086647	-0.0047586	0.028917	-0.0066897	-0.017917	0.017567	-0.0073433	-0.013923	-0.0038756	-0.0037322	-0.00059279	0.0019386	0.021902	-0.0016271	0.0060209	0.0015073	0.0029797	-0.012821	0.0070496	-0.021759	-0.0065726	-0.00052118	0.0063584	-0.019367	0.007525	0.0037161	-0.0072038	0.00045929	0.0109	0.013851	0.0068366	-0.00071144	0.011655	-0.009023	-0.0041222	-0.0019789	-0.021499	0.010489	-0.012648	-0.0039941	-0.013453	0.011758	0.0047658	-0.0026476	0.00012392	0.0063636	-0.0019596	-0.0092188	0.022459	0.015435	0.0051071	0.0041519	-0.0045683	0.017414	-0.011903	0.28165	-0.0038353	-0.008459	0.013495	-0.02473	0.01002	0.010413	0.0013554	0.0262
0.003523	0.0073461	0.0011397	-0.00057762	-0.011156	-0.027797	-0.0056467	-0.0055068	0.0050911	0.0022194	0.0017438	3.0532e-05	-0.016842	-0.042754	0.36968	0.048238	-0.032711	-0.023032	-0.0039464	-0.0038852	0.01066	-0.0037548	-0.0042802	-0.043707	0.020828	-0.0057111	0.00093431	0.010858	0.0012617	0.0057121	0.002352	0.00056787	-0.0029479	-0.020481	-0.025387	-0.0095055	0.0032085	-0.0018295	0.0018979	0.0025201	0.0020908	0.0033354	0.0027209	0.0028511	-0.0037629	-0.0040198	-0.0029215	-0.0008265	0.0061266	0.0077926	0.0033053	-0.003952	-0.00025403	-0.00063182	0.0024227	0.00053075	0.00055322	-0.011489	0.0020317	0.004192	0.0055307	0.0012866	0.023937	0.0037794	-0.0055787	0.0024194	0.00016762	0.0053208	0.0080243	0.0037465	0.0065039	0.0062409	0.0022028	-0.00099581	0.0037477	0.01038	-0.0074265	-0.0006504	-0.00075352	0.00072839	0.000666	0.0026841	0.00024932	0.00057338	-0.010577	-0.012379	-0.011218	0.0017688	4.4397e-05	-0.001713	0.0022396	-0.0012513	0.005348	-0.0055111	-0.007573	-0.0039827	0.0057537	-0.0066806
-0.01118	0.00053981	-0.013642	-3.4574e-05	0.0075973	-0.011314	0.014656	0.0066843	0.0030904	-0.0087046	0.0048702	-0.0060296	0.01505	0.0098573	-0.0002983	-0.0082357	0.0038683	-0.0065802	0.002307	0.0033706	0.015614	0.00027275	0.00023274	0.0050402	9.1248e-05	-0.0024869	-0.00015566	-0.00088377	-0.0024081	-0.0072946	-0.0071129	0.0055624	0.0026353	0.001147	0.0046986	-0.0036406	0.01974	-0.0056038	0.0003657	0.010627	0.0032885	0.00074341	-0.00084644	-0.0032255	0.014726	-0.0037641	-0.00086296	-0.0053804	0.0069304	0.0081069	-0.0086659	0.012598	-0.0032571	-0.0078141	-0.0067205	0.0019291	0.009107	0.016409	-0.0029189	0.0056732	0.019303	0.0071527	-0.0061055	0.001595	0.0056963	0.0038629	0.0014276	-0.010918	0.0024658	-0.014781	-0.00035801	0.0033258	-0.0065406	-0.0041276	0.0092968	0.0055388	0.0023282	-0.004989	0.0094979	-0.016691	0.0066052	0.015356	0.0043457	0.0045341	-0.0023908	-0.020907	-0.020082	0.013191	0.011939	-0.018158	-0.016061	0.00018825	0.27837	-0.066959	0.017127	0.01112	-0.0091366	-0.043013
-0.0040468	0.022904	-0.0014247	-0.015657	0.0058741	0.0023266	-0.0072886	0.0069958	0.015226	0.003005	0.0059808	0.0064442	0.020293	0.010861	0.0070563	-0.0046262	0.007276	-0.0050302	-0.00018148	0.013702	-0.012503	0.0072766	-0.014173	0.018242	0.0017878	0.012212	-0.012678	0.0085697	0.016696	0.013745	0.010888	0.0044967	-0.0034083	0.0063805	0.0050557	-0.00015153	-0.01432	-0.0048164	-0.012067	-0.0080545	-0.013569	-0.0095858	0.02055	-0.00424	0.013661	-0.0023673	-0.0040671	0.27736	-0.056584	0.0052927	0.007604	-0.023978	0.0017308	-0.014281	-0.01077	-0.0060563	-0.0010001	-0.024012	-0.0042561	-0.0010288	-0.00035692	-0.0076293	0.0020061	0.0029274	0.0041409	0.0037456	-0.0099615	-0.015424	-0.012863	-0.011597	-0.014259	0.0059144	-0.010506	-0.0017178	0.0016076	0.0021597	0.0080691	-0.0017487	-0.0010288	-0.0010719	0.01691	0.008795	0.0013546	0.005406	0.0035587	-0.0066745	0.00082303	-0.0036691	-0.014488	-0.010093	-0.010893	-0.0077826	0.0045558	-0.0076894	0.0097934	0.0012081	0.0073848	0.014368
0.012978	-0.063253	-0.013835	0.0081216	-0.0028845	-0.061873	0.0016685	0.0010905	-0.04311	-0.016428	0.0058816	0.046719	0.015313	-0.03245	-0.016928	-0.021409	0.024102	0.067228	-0.014305	-0.022308	-0.014545	0.0081828	0.010499	-0.023471	-0.036131	0.0099626	0.0032958	-0.040847	0.033416	-0.016797	0.0072261	0.0054712	-0.00093344	-0.014143	-0.039296	0.00083602	-0.00024038	0.012305	0.0029816	-0.031981	0.0040543	-0.0051633	-0.0068904	0.0028814	0.001062	-0.015209	0.004314	0.025373	-0.010575	0.0044658	-0.015307	0.025857	-0.0032277	-0.025952	-0.047183	-0.0038925	0.039737	0.1886	-0.056812	-0.035397	-0.032082	-0.011045	-0.033058	0.0031026	0.0099692	-0.0096856	-0.021431	-0.038265	-0.045815	-0.0059214	0.0033016	-0.038924	0.0048192	-0.0032915	-0.017501	-0.016986	-0.009031	0.0056785	-0.0037444	0.0070774	-0.027188	-0.010973	-0.0043249	-0.0052169	-0.0017955	0.00075997	0.0045645	-0.0077273	0.026975	0.01912	-0.0031309	0.012825	0.00063606	0.036293	0.019323	0.0031897	0.0066713	0.012095
-0.014493	-0.0018984	0.021729	0.020674	0.010813	0.0084371	-0.0019368	-0.0070467	-0.0053985	-0.0097429	-0.0069686	0.0037551	0.0011482	0.0088588	0.00074065	-0.004161	0.0031738	-0.0091679	0.00087112	0.0053168	0.016009	0.036107	0.0067743	0.015003	0.011494	0.0042393	0.0060582	-0.0091659	-0.0042164	0.008324	0.0018186	-0.012291	-0.001127	0.0028668	-0.0071066	0.0053887	0.030037	0.0040249	-0.018429	0.0044585	0.001819	-0.012556	-0.0070299	0.0068181	0.00011504	-0.00035599	0.0028708	0.0077343	-0.011687	0.009838	0.0032942	0.013573	-0.00011187	-0.013686	-0.019454	0.0046489	-0.0058943	0.011541	0.0061702	-0.0035866	0.0056646	-0.012297	0.0050076	0.020797	-0.0043594	0.0009435	-0.015009	-0.004018	-0.0085067	0.27471	-0.003246	0.021265	-0.012453	-0.0076073	-7.2617e-05	0.011666	0.0048801	-0.0054433	-0.010978	-0.023753	0.00098029	-0.0091478	0.011348	0.0060929	-0.0051972	0.0035955	0.0017917	-0.00077195	0.0032576	-0.0067118	-0.011846	0.012953	0.0065798	-0.0038027	-0.0032077	0.0039042	-0.0086417	0.0015721
-0.0032136	-0.0064207	0.00026012	0.00050546	-0.063363	0.0059436	-0.045778	0.26682	0.00035654	-0.0045243	0.0024211	0.0062372	-0.022152	0.011025	0.0031054	-0.0038368	0.0042183	0.0068334	0.010036	0.0068758	-0.0064976	0.016998	0.020916	0.002433	0.0048066	0.01149	0.010588	0.009159	0.0055065	-0.0080563	-0.0095452	-0.0019738	-0.00016586	0.00091559	-0.0056281	-0.0041788	-0.0042848	0.0060325	-0.0024101	0.010012	0.0016342	0.0032648	-0.0018869	-0.0039127	-0.0046612	0.0051603	0.015323	-0.010145	-0.01137	0.0065088	-0.0023226	-0.014725	0.0084856	0.0078853	0.0029524	0.0021607	-0.0075299	0.0057522	-0.017433	0.0038478	0.0070511	0.00033245	0.015811	0.014819	0.0049433	0.00081603	-0.0017926	0.004527	0.0015064	0.0039752	-0.0044354	0.01141	0.0076245	0.011894	0.031142	0.015218	-0.0052266	0.011664	0.0056033	-0.0033574	0.0028577	0.0039089	0.0039715	0.020052	-0.00111	-0.0065942	0.022876	0.0029987	-0.00019487	0.0077459	-0.0081868	-0.0074	0.0044669	0.0090031	0.0083814	0.0026654	0.0010566	0.028271
0.018268	0.0082848	0.0049538	0.0025779	0.022063	-0.010257	0.0065079	0.00097017	0.010467	-0.0058737	0.017693	0.0032674	-0.02515	-0.0037888	0.00050664	-0.0074911	0.0052383	0.010974	-0.01018	-0.00095397	0.017258	0.0059912	-0.0019773	-0.0096776	-0.0031813	0.0025257	0.018901	0.0063783	0.0022583	-0.0030287	0.013291	0.0035411	0.0045997	-0.0047205	-0.0081556	-0.0050563	-0.013186	-0.0019439	0.0052145	0.0032579	-0.010095	0.01691	-0.0054275	-0.0058035	-0.0021695	-0.0075994	-0.0071833	-0.0032828	-0.00032273	-0.0064258	-0.012	-0.018264	-0.024261	-0.0023737	0.029428	0.0028721	-0.0024923	-0.015949	-0.0023532	0.0025119	0.00067163	0.0038682	-0.0067824	-0.018074	0.26083	-0.063145	-0.037439	-0.0093761	0.0082217	0.0074529	-0.0071918	0.030622	0.021446	0.025827	-0.023463	0.0052128	0.0007361	-0.0039897	0.0079156	-0.025902	-0.0093404	-0.021441	-0.0065152	-0.00069682	0.00081556	0.00046552	-0.012146	-0.012751	-0.0036428	-0.0044515	-0.00064847	-0.001449	-0.0044161	-0.0073648	0.011946	0.001717	0.0088653	-0.0030189
-0.020017	-0.017974	-0.0051875	0.01222	-0.018678	0.048816	-0.0045256	-0.00385	-0.0078704	-0.0010887	0.0035295	0.0061692	0.0045854	-0.020354	-0.00019034	-0.002821	-0.026097	-0.002093	0.0058085	0.010941	0.0056772	-0.0084802	-0.015237	-0.085726	0.24817	-0.031011	-0.037873	-0.0083342	0.0071993	-0.0030035	0.0052691	-0.0086137	-0.021729	-0.010906	-0.022048	-0.0026729	-0.010828	-0.019952	-0.0010927	-0.0054088	-0.017563	0.0091499	-0.0020697	-0.012196	-0.010737	-0.00029837	0.013106	0.0077247	0.0043147	-0.0017445	-0.027623	-0.014012	-0.001217	-0.0026321	-0.014147	-0.011124	0.0019851	0.02332	-0.011624	-0.0023081	0.0041639	-0.027566	-0.014879	0.01632	0.0086086	-0.00415	0.0021113	-0.0047795	-0.0032088	-0.0077261	0.0023827	0.0023955	-0.0022794	-0.0068514	-0.0062018	-0.0062712	0.0050738	0.0016367	0.0012613	-0.0059113	-0.0093515	-0.0077562	0.0059047	-0.0055542	0.0081952	0.0026497	0.0012041	0.011155	0.0026764	0.009256	0.0045327	-0.008274	-0.0012107	-0.020321	-0.02903	-0.0091621	-0.0040497	-0.0033548
0.0077206	0.013184	0.00017534	0.0049974	-0.012458	0.0034266	0.016761	0.012475	0.001191	-0.014125	0.00067796	-0.0073346	0.020574	-0.0025306	0.0064808	0.0032943	0.010444	0.016052	0.0098867	0.0035802	-0.012317	0.0017828	0.00043988	0.02815	0.018798	0.018805	0.019313	0.002924	-0.0075882	0.0077262	-0.005853	0.007915	-0.0078637	0.0062536	-0.0048553	-0.0044462	-0.0018353	-0.016381	-0.012401	0.00088036	-0.00814	-0.0015492	-0.005906	-0.0077849	0.00080294	0.0083046	-0.0024932	0.0021967	0.0062615	0.0047899	0.0038841	0.0072618	0.0014128	0.0046351	-0.004099	0.0033374	-0.014095	0.015837	-0.00058921	-0.0018146	0.00056949	0.012825	0.008007	0.012113	-0.0034667	-0.0025553	0.0067288	0.015178	-0.002392	-0.0047307	0.0057384	0.010041	-0.0086919	0.0022957	0.0088158	0.01418	-0.0019604	-0.00097135	-0.001994	0.014481	0.0035271	-0.0067596	-0.023021	0.010132	0.005131	0.20481	-0.17433	-0.013804	-0.0093839	-0.0030095	0.010955	0.0091661	0.0071358	0.012802	0.015788	0.0093515	0.0053734	0.018297
-0.013578	-0.0017469	-0.0023336	-0.0051524	0.0049824	0.016985	-0.0018828	-0.0050041	-0.009842	0.0092075	-0.0083007	0.011646	0.0068186	0.01807	-0.00012687	-0.0085602	-0.0031678	-0.0077875	0.014244	-0.006756	-0.0030316	0.0036219	0.0097111	0.011201	-0.0052516	-0.0046565	-0.0245	0.0019742	-0.0012845	0.0028675	0.0024017	0.0047654	0.0092149	0.003064	-0.008943	-0.0041247	0.0099014	0.014595	0.0089789	0.0098704	-0.01232	0.0062482	0.0013287	-0.016417	0.00030179	0.0042257	0.013969	0.010017	0.0049688	0.0032426	-0.0071675	-0.006816	-0.003108	-0.0030941	0.020347	-0.00049855	-0.011104	0.0036452	-0.013673	-0.0040933	-0.0025636	-0.0023041	0.015301	0.0060048	0.011687	-0.00077516	-0.0081001	-0.00089158	-0.0070864	0.0043977	0.26304	-0.018041	0.012891	0.013748	0.015222	0.01308	-0.0001466	0.00082012	0.0013096	0.03243	0.0066494	-0.015374	0.00027022	0.006723	-0.0030685	-0.013592	-0.0051126	0.017167	-0.023804	0.0077173	-0.0098901	0.0078551	0.0007565	-0.011959	0.0057312	0.0099071	0.0086808	0.01835
-0.0079723	-0.02126	-0.0074007	-0.00092673	-0.0079987	0.00077097	-0.0039948	-0.018547	0.010485	-0.0029572	-0.010289	0.0065987	0.011739	-0.0043068	-0.0017297	0.00012173	0.0040147	0.010961	-0.0057444	0.0075054	0.0029985	-0.016421	0.0040721	0.0094884	-0.0042167	0.0045321	-0.0036659	0.006754	0.023003	0.013461	-0.005014	0.0085397	-0.0023839	-0.0025988	-0.008071	-0.0057338	-0.0031388	-0.0065877	0.0003081	0.0055639	-0.0012935	0.010123	-0.0010825	0.002438	0.00093423	0.0051463	-0.0047726	-0.01311	-0.010358	0.00083324	-0.01443	0.01483	0.0096682	-0.021544	-0.02334	-0.0039942	0.0048742	0.011204	-0.0094123	-0.011935	-0.019769	0.014729	0.0053796	0.0089684	-0.010671	0.014102	-0.016805	-0.016843	-0.015903	-0.020956	0.013524	0.25095	-0.064445	0.0045562	0.020656	0.01411	-0.0065735	0.0134	0.016119	0.029044	-0.0078868	-0.0029167	-0.010386	0.0053422	0.0089204	-0.0070198	0.023113	0.0096567	5.3341e-05	-0.012294	0.01367	0.0082121	-0.0010143	0.011554	0.0035658	0.0078196	0.0093491	0.015182
-0.009371	-0.015042	-0.022198	0.021132	-0.016613	0.013928	-0.0172	-0.0035742	-0.00099674	0.0036284	-0.00084837	0.0017068	0.00070407	0.098525	0.027666	-0.011936	-0.075459	-0.14063	0.0014083	0.0094957	-0.02353	-0.011685	-0.017271	0.1242	0.026862	0.024866	-0.0027702	-0.022015	0.0083661	-0.010947	-0.0010226	-0.0037084	-0.0019878	-0.0090174	-0.012822	8.1513e-06	0.012614	-0.0042796	-0.0045959	-0.010591	0.00080332	-0.008368	-0.0037863	0.011545	0.014433	-0.015916	-0.0040423	-0.015296	-0.0073427	-0.0011244	-0.011679	0.011657	0.018199	-0.0041076	-0.025919	-0.012502	-0.0032355	0.050998	-0.0021895	0.0023187	0.0056147	-0.016225	-0.056183	0.010573	0.030051	-0.0095227	-0.0090892	-0.011062	-0.03353	-0.015995	-0.017388	-0.0092091	-0.00044639	-0.0045681	-0.01181	-0.0093093	0.0065106	0.0021314	-0.0069772	0.044403	-0.0041503	-0.0058033	-0.0086931	0.00037772	0.0014586	-0.033501	-0.028965	-0.01134	0.002649	0.0092687	-0.0027805	-0.014077	-0.0047284	0.035737	-0.017844	-0.0003842	-0.015066	0.010248
0.0019637	-0.0010233	0.00062551	0.0017056	0.0016946	-0.001757	-0.00052915	-0.00080391	0.0015317	0.0032558	0.0014209	0.0037011	0.0033681	0.0028998	-0.0004927	-7.4521e-05	0.0033388	0.0024252	0.0053501	0.0028272	0.0038363	-0.0012596	-0.00081876	0.0051458	0.00022834	-0.00065892	0.0029545	-0.00016337	0.0037954	0.0002556	-0.0039928	-0.0057765	-0.00095243	-0.0034211	-0.00043333	-0.0030528	-0.01608	-0.017379	-0.02084	-0.015686	-0.0088217	-0.02131	0.26615	-0.018838	-0.010819	-0.007218	-0.0064452	-0.02931	-0.030875	0.0038056	-0.0050358	-0.0030833	-0.013114	-0.007329	-0.0066076	-0.00075812	0.0011316	0.0099652	0.0051721	0.0020724	0.00067403	-0.0016841	0.0023591	0.0062812	0.0058222	0.0024482	0.00047229	0.0069207	0.0053255	0.0046667	0.0019307	-0.002037	-0.00059787	0.0018742	-0.00011733	0.00040495	0.002363	-0.0017373	-0.0048712	-0.0011167	0.0041431	-4.7224e-05	-0.0017831	0.0048249	0.0047587	0.0015949	-0.00032448	0.0011869	0.0030849	0.0039301	0.0014658	0.0012497	0.002389	0.0033377	0.0032785	0.0027682	0.0019021	0.0032583
0.012272	0.0015852	-0.0041731	-0.010051	0.0024057	-0.001462	-0.0024989	0.0085302	-5.1015e-05	0.0011027	-0.0067581	-0.0036853	0.00087414	0.0033956	0.0029328	-0.0027398	0.0011506	0.0073113	0.0045353	0.016277	0.0043429	-0.0052294	-0.013733	0.012656	-0.0049243	0.0069089	-0.040885	-0.013633	-0.0033662	-0.061388	0.23765	-0.001931	0.031931	0.006386	0.003033	-0.0038163	-0.0033524	-0.026969	-0.030218	-0.0040502	-0.015113	-0.0087509	-0.0033274	-0.018891	-0.0029526	0.0056742	-0.0094305	-0.010326	0.0026361	0.0011124	0.00014546	0.0029708	0.0077012	0.0062155	0.018101	-0.0031129	0.00064991	0.012463	0.0075025	0.011243	0.0067589	-0.0040144	0.0074266	0.00094427	-0.00916	0.0070515	0.010765	0.012073	-0.0062096	0.00096645	-0.0035634	0.0040687	-0.0037855	-0.0015883	0.016964	0.003813	-0.010275	0.0065848	0.0014396	-0.0018718	-0.010729	-0.014273	-0.011183	0.0013016	8.8347e-05	0.0036743	0.0054471	-0.0090159	0.0046053	-0.041301	0.011426	0.0071703	-0.0028556	-0.020803	0.0081109	-0.0014078	-0.0038516	0.00071806
0.012847	-0.013976	0.012311	-0.0023705	-0.018557	0.00057709	0.0050651	3.8446e-05	0.012141	-0.0021036	-0.002135	-0.027485	-0.046876	-0.042296	-0.0029744	-0.0029051	0.0027326	-0.0069521	0.13055	0.14699	-0.048213	-0.066709	-0.073221	-0.0015211	-0.017194	-0.016534	0.0027073	-0.031203	0.0024686	0.011152	-0.014766	-0.0044151	-0.0012376	-0.0020961	3.7228e-05	-0.00098611	-0.0035728	0.0051443	-0.0044141	0.0067139	0.0039539	0.0010892	-0.0022701	0.01001	-0.0012967	-0.0061191	0.0039747	0.00085198	-0.00077306	0.0010179	0.0032045	-0.0031648	-0.0041174	0.0025262	0.013569	0.007105	0.028365	0.011013	-0.0016513	-0.0061976	-0.015696	0.007972	0.0023183	-0.0034913	0.0080536	0.0064382	0.0020466	-0.012665	-0.0022416	0.014433	0.0080669	-0.0046011	-0.0023905	-0.005816	-0.0027579	-0.005664	-0.00011039	-0.0047819	0.0030797	-0.0022325	0.00062521	-0.0019736	-0.013044	-0.0057764	0.0060885	-0.0018625	0.00065433	0.00076957	0.012758	0.0010414	0.0034754	0.0084503	0.0023629	-0.0020727	0.00075062	-0.0013804	0.006084	-0.0096609
-0.015754	-0.0087221	-0.0058824	-0.012141	0.02102	0.0048893	-0.0050546	-0.006708	-0.0053286	-0.028423	-0.0080802	0.0044112	0.0034333	-0.0013551	0.0032303	0.0019956	0.0082979	0.0032032	0.00092394	0.021411	-0.0025668	-0.0029481	0.0024772	0.0084503	0.003963	0.0074242	0.013624	-0.0079188	0.0042024	-0.010082	-0.013253	-0.0099827	0.0014852	0.005716	0.005605	0.0020124	0.015125	0.0047952	0.0048634	-0.0082086	-0.007293	0.018868	-0.0074615	-0.0017692	0.0040557	0.0015569	-0.0041526	0.0064372	-0.015696	0.0017498	0.0085611	-0.008395	-0.0089925	-0.013023	-0.021254	0.0027632	0.0083215	0.029022	-0.0044644	0.0081298	0.00013875	0.0016677	-0.0091312	0.0090777	0.0091169	0.0083364	-0.003235	0.22634	-0.020944	-0.0071578	0.001345	0.0073757	-0.00073464	0.0058025	-0.0028188	0.0095207	0.0024213	-0.0056771	-0.00051108	-0.02137	-0.0034067	-0.0042629	-0.012354	0.004883	-0.0072178	-0.007052	0.018107	-0.0073998	-0.010515	0.0067904	-0.0041652	-0.012981	0.0011591	-0.011928	0.0086981	-0.00098245	0.0030841	0.0061155
-0.00041824	0.0032854	2.8681e-05	0.00037806	-0.0031282	-0.0014778	-0.0047303	-0.00098644	0.00027481	-0.00050796	-0.0021387	-0.001581	-0.0014198	-0.0030624	0.00015063	0.0010874	-6.5943e-05	-0.0054245	-0.0015258	-0.00095255	-0.0011228	0.0014813	-0.0020076	-0.00057755	0.001032	-0.0040641	7.0188e-05	-0.0044908	-0.0052434	0.00087489	-0.00093334	-0.00045296	-0.001529	0.00067981	0.0018364	0.00085346	-0.0084537	7.7523e-05	-1.9462e-05	-0.002761	-0.00062158	0.00040625	-0.0018066	0.00018112	-0.0017778	-0.0023962	0.00070742	-0.0031444	-0.0052847	-0.0022209	-9.9752e-05	-0.0075506	-0.0033146	0.001142	0.0024165	-0.001686	-0.00066102	0.0033007	0.0044418	-0.0008515	-0.0074827	-7.2614e-05	-0.0034103	-0.011353	-0.0075646	0.0012614	-0.021209	-0.0023168	0.006327	0.0039637	-0.0028903	-0.040633	-0.14269	0.1745	-0.0063795	-0.005914	-0.0060248	-0.0038723	0.027804	0.0053897	-0.021862	0.0028749	0.0028801	0.0064517	0.0025063	-0.0035629	-0.0022596	-0.0092229	0.0012377	-0.00035292	-0.00085974	0.00015217	-0.00045135	-0.0087767	-0.002488	-0.0020894	-0.0047754	-0.002843
-0.011313	-0.012489	0.0017745	-0.0070876	0.0057003	0.0073975	-0.0013067	-0.00026207	-0.00025841	-0.0027209	-0.0096978	-0.0014668	0.0008361	0.0085468	-0.0027412	0.0053715	-0.0018516	-0.0010377	0.0078949	-0.0027308	-0.0095698	-0.018932	-0.013483	-0.049302	-0.0076951	0.21357	-0.039279	-0.0071909	-0.0050807	-0.0022597	-0.010351	-0.044049	-0.017365	0.0021376	-0.0015022	1.5226e-05	0.0025632	-0.0044792	-0.0002146	-0.0047074	-0.0068253	0.0080959	0.0010456	0.0036098	-0.013473	-0.001707	-0.0013504	-0.0069627	-0.0034789	-0.0040444	-0.0089966	0.0019459	6.3308e-05	-0.0070118	-0.0014237	-0.002316	-0.0056936	-0.011235	-0.0018553	-0.0036226	0.0030655	0.0033481	0.0056426	-0.016783	-2.0256e-05	-0.00020957	-0.0043862	-0.0060889	0.002713	0.00075747	0.0041719	-0.0027132	-0.0071269	-0.0056901	-0.0055116	-0.0036533	-0.0042449	-0.0024189	0.0040141	-0.0066714	-0.0064905	0.0002083	0.0050388	-0.0068927	-0.00059211	-0.0036494	-0.0049035	0.00083191	-0.0012685	-0.0034888	-0.0095902	-0.0011862	-0.0010612	-0.011302	-0.010128	-0.0056989	-0.0029637	-0.013976
0.0037195	0.00019279	0.0095595	0.0068988	-0.0027859	0.0052168	0.0018772	0.0014628	0.0054756	0.0061167	0.0050982	0.00082401	0.004385	0.00057704	0.00085614	-0.0055079	-0.0021816	-0.0020686	0.0074629	0.0059132	0.010426	0.00067722	-0.0033272	0.00063323	-0.00028786	0.0065604	-0.016324	-0.010793	0.020042	-0.035647	-0.0037274	0.022111	0.033144	0.0069496	-0.0037293	-0.0039949	-0.02519	-0.03218	0.20387	-0.0035479	-0.04319	-0.051749	0.0040199	-0.0002517	0.0080211	0.0093995	-0.040068	0.00098489	-0.004289	0.0033254	0.0072049	0.017708	0.0069622	-0.0086465	0.0018018	-0.0017248	0.019696	-0.0051203	-0.0044672	0.0041894	0.0059241	0.0030589	0.0013706	0.0088173	0.0015091	0.0068327	0.0072937	0.0022317	0.0034627	0.015422	-0.0093213	-0.0029723	0.00039846	0.0013309	0.018283	0.006059	2.6216e-05	0.0076971	0.0023043	0.0075497	-0.0057115	0.00095279	0.012652	0.0062757	0.0068324	0.004347	-0.0055334	-0.00025285	-0.0069012	0.0063062	-0.0022929	0.008375	-0.0022568	-0.0081362	-0.00069525	0.0016673	0.008386	0.0059246
-0.00051689	-0.0063054	-0.0079894	-0.011085	-0.011479	-0.0058123	0.0035295	0.0010107	0.00042096	0.00033028	0.00058589	0.0025366	0.0045082	-0.00074669	-0.00022401	9.8988e-05	-0.00063643	0.0006346	0.00067413	-0.00014759	-0.0011408	-0.0030553	-0.003825	-0.0059409	0.00048358	-0.00078622	-0.0009227	-0.0022293	0.0021934	0.00051299	0.00066337	0.001754	0.0016365	-0.0013943	-0.0019219	0.00017803	0.0049078	0.002128	0.0016415	-0.0023669	0.0033351	0.0011336	0.0002784	0.0024473	0.0014992	0.0013941	0.0013751	0.00055393	0.0011486	0.001152	0.003609	-0.0021769	0.00099672	-0.0027498	-0.0025389	0.0010283	0.00046445	0.0010835	0.00090529	0.0020997	0.004751	-0.00041833	-0.00018729	0.0039296	0.0018846	0.0025363	0.00096725	-0.00036592	0.0015033	-0.0014711	-0.0047483	-0.0019175	-3.9843e-05	1.8298e-05	0.0029161	-0.0013137	-0.0019018	-0.0010049	0.0025125	-0.0019731	0.00094628	0.0025818	0.00015192	0.0024684	-0.00019524	-0.00064846	0.00024812	-0.0025039	-0.0081143	-0.0057341	-0.017364	-0.024644	-0.023148	-0.014084	-0.01186	0.23756	-0.030752	-0.047826
-0.0044373	0.00019388	-0.0016059	-0.0028637	-0.0027959	0.0080028	-0.0032493	-0.0037214	-0.014489	-0.0012769	-0.003729	0.0016869	0.0072046	-0.0052898	0.0023114	0.0068835	0.0026598	0.0033103	-0.0059743	-0.006135	-0.0071618	-0.0048913	-0.0016063	0.0062448	-0.0034078	-0.0031461	-0.009989	-0.0071765	-0.00016047	-0.032345	-0.01828	-0.0047507	0.00041233	-0.0044031	-0.0026176	-0.0045884	-0.021204	-0.023915	-0.02821	0.20274	-0.032456	-0.031859	-0.0001869	-0.0098089	-0.01357	-0.0052076	-0.015732	-0.00098421	-0.014948	-0.0015962	-0.0022898	0.0062669	-0.00049444	-0.015518	-0.017093	-0.0074773	-0.00027975	0.0043543	-0.012382	-0.010514	-0.01772	0.0010109	-0.010271	-0.011507	0.00099304	-0.004745	-0.0011938	0.0039988	-0.0077534	-0.0032092	-0.0037889	-0.0078502	0.0024199	0.00010784	-0.0027273	-0.0083675	-0.0018365	-0.0013192	-0.0014635	-0.010007	-0.0075149	0.0031218	0.0059333	-0.0094491	-0.0025735	-0.0049258	-0.0027632	-0.0034598	-0.0053625	-0.013671	0.0016106	0.0030136	-0.0083388	-0.0013845	0.006772	0.0016824	-0.007416	-0.001195
0.013248	-0.0063741	0.00028258	0.0032923	0.00064568	0.0098236	0.0012785	-0.0052085	-0.0046273	-0.020522	-0.0044764	0.010216	0.00093199	-0.007857	-0.0019249	0.0052302	-0.003762	0.0035987	-0.00051178	0.00042274	-0.035182	-0.035523	-0.02676	0.012121	0.0023805	-0.00098539	-0.013366	0.19919	-0.016065	-0.047209	-0.0044267	-0.0049841	0.0037316	0.0003326	0.0021905	-0.00059215	-0.006915	0.0047656	0.003024	-0.0094754	-0.0056475	0.0064749	0.00069817	0.0019554	0.0062018	0.003905	0.0047341	-0.0046578	0.0014674	-1.3685e-05	3.3968e-05	-0.0038178	-0.001516	-0.010691	-0.0040123	-0.0059032	0.0090109	0.013192	-0.015788	-0.010623	-0.010051	0.0018032	-0.004674	0.0013347	-0.0006627	-0.0092404	0.001408	-0.0025014	-0.01682	0.015745	-0.0030559	-0.0089453	-0.00086029	0.0011459	-0.0011928	0.0012033	0.0030351	0.0077371	0.0011694	0.0053485	-0.0059171	0.0050144	0.0029453	-0.0020249	0.0025207	0.0032271	0.0077877	0.0061031	-0.0013585	0.0023808	-0.0036057	-0.0045132	0.003204	0.00061649	0.0094371	-0.00011466	-0.012049	-0.0032144
0.013673	-0.0023777	-0.0057592	-0.0069882	-0.0048064	-0.0087894	-0.0057476	-0.0025997	0.0023008	0.0046206	-0.0031656	-0.002311	-0.0037507	-0.0049375	-0.0045385	0.0010548	0.0046421	-0.0072433	0.00072789	0.0066236	-0.010681	-0.0019077	-0.002833	-0.0030038	-0.0085162	-0.0068585	0.0079551	0.0011068	-0.0097533	0.0027818	0.0019954	-0.0014832	-0.0013921	-0.0031353	-0.0042855	0.0017861	-0.019078	0.003398	-0.0014358	0.0061267	-0.00277	-4.7983e-05	-0.0036084	-0.0086418	-0.0032751	-0.0042417	-0.01389	-0.0012365	-0.00093734	-0.0013998	-0.005218	-0.017103	-0.047242	-0.02768	-0.0070559	0.0011401	0.00419	0.012705	-0.028177	-0.020139	0.1938	-0.0023579	0.00016844	-0.011194	-0.023716	-0.03594	-0.01657	-0.0017398	0.0049215	-0.00095716	0.0050861	0.01563	-0.0048439	0.00021434	-0.012232	-0.0087034	-0.0004363	0.0029011	-0.0049316	-0.0028822	-0.0068918	0.0021719	0.0045597	-0.016862	-0.0013712	-0.002331	-0.0073228	-0.0039733	-0.0053261	0.0091794	-0.0059989	-0.0015239	-0.011581	-0.0037587	0.00015844	-0.0042518	-0.0011874	0.0010295
0.0010816	0.0022199	-0.0018613	0.0019507	-0.0018138	0.0064273	-0.0036888	-0.0012009	-0.0016339	-5.1482e-05	0.00065818	0.00034555	-0.0023062	-0.0011783	0.0012701	-0.0025	-0.005933	-0.0064267	-0.0028876	-0.00013468	0.00016338	0.00048259	-0.0021342	-0.010978	-0.0092296	-0.0073227	0.0014571	0.0010916	0.0012298	0.00055183	-0.0022591	-0.0033035	-0.0098945	0.175	-0.080326	-0.011415	-0.015252	-0.0036586	-0.0068604	-0.0023753	0.0025673	-4.335e-05	-0.00036005	-0.0022549	-0.0079643	-0.0052367	-0.0035484	-0.0029807	0.00040751	0.00092182	0.0012343	-0.0051113	0.0011584	-0.00051173	-0.00019092	-0.00039017	0.00064372	-0.000698	-0.00011831	-0.00060544	-0.0031028	-0.002127	-0.0021289	-0.002363	-0.0011079	0.0018315	-0.00027343	0.0005549	-0.001088	-0.00091313	-0.0036784	0.0010451	0.00058673	-0.0014139	-0.0039984	0.0015043	-0.0017357	0.00027564	-0.0025386	0.0024788	0.00045707	0.0013787	-0.00016372	-0.0054107	-0.0022486	-0.012496	-0.01089	0.00031699	-7.7694e-05	0.0025553	0.0017004	0.001077	0.00059431	-0.0026442	-0.00020878	0.00065263	-0.00083911	-0.0030002
0.0079711	-0.015328	-0.0015003	0.17148	-0.034015	0.0016823	-0.030369	-0.015399	-0.0056763	-0.0071125	-0.00095807	-0.008384	0.0071709	-0.010437	-0.0007952	0.0016971	0.003754	0.0082567	0.004686	-0.0010659	0.00121	0.0060076	0.0034152	0.0084513	-0.0076421	0.0072949	-0.0037543	-0.0016984	5.8605e-05	-0.00087304	0.0079512	0.0024498	0.0068561	-0.0016036	-0.005853	0.0012102	-0.00027973	0.011475	-0.00085452	0.0074228	-0.0053905	0.0085728	0.0010495	-0.0031599	0.0034709	-1.015e-06	0.0058612	0.013005	-0.0077348	0.0078324	-0.0034569	0.0023738	-0.015877	0.014989	0.013678	-0.0009006	-0.0052363	-0.0046431	0.013024	-0.0015792	0.0040597	0.0016692	0.015071	0.0018742	-0.0025052	0.0053445	-0.012	0.010529	0.016601	-0.012393	0.0021045	0.0028873	0.0072116	-0.0013877	-0.0039057	0.0027599	-0.0013309	0.0011136	0.019746	-0.0026443	-0.0075447	0.0017115	-0.00022666	0.0068048	0.00016763	0.0083833	0.012169	-0.00055282	-0.0041337	0.013722	-0.015953	-0.01017	-0.00028605	-0.00085059	0.0084181	-0.0025847	-0.017997	-0.025683
-0.027057	-0.0069278	-0.0042316	0.0057111	0.0030961	-0.0023221	0.006696	-0.0020445	-0.025416	0.1549	0.0026668	-0.01234	0.0096585	-0.0074339	0.0017912	-0.00066799	0.0051136	0.0091763	0.009269	0.0022247	-0.019238	0.0050255	0.0021051	-0.00027618	-0.0028324	0.00047782	-0.0051361	0.0079495	-0.008529	-0.020594	-0.005172	0.0054038	-0.0032455	0.0010248	-0.0022073	7.7398e-05	0.010114	-0.0073813	-0.00034567	-0.0029054	-0.0084442	0.021803	-0.0016113	0.0051523	-0.0028568	0.0012388	0.0062998	-0.0014512	-0.010853	-0.00029268	0.0034108	-0.0044742	0.0031493	-0.0019665	-0.00076303	0.0034291	-0.015628	0.0046259	-0.00021923	0.0039305	0.0025917	-0.00069999	0.0022483	0.0044922	0.0068896	0.00090208	-0.0025618	0.010699	-0.0090588	0.0033006	-0.010301	0.0023615	0.0030264	0.0046935	0.0034957	0.0040128	0.0013467	-0.0012382	-0.00088818	0.0014094	-0.0035307	-0.0050468	0.00011763	0.0014768	-0.0014144	0.0027194	-0.0011752	-0.0037346	0.0061206	0.00084863	-0.0015645	-0.0033071	0.0073432	0.0077421	0.0032083	0.00091711	-0.0037011	0.01204
-0.010084	-0.0028762	0.0010834	0.004283	-0.00082946	-0.0045272	-0.0017618	-0.0017784	0.00031229	-0.0081502	-0.0032875	0.0013115	0.0014418	-0.0022412	-0.0024213	0.00087992	-0.00074442	-0.0014762	-0.00030509	0.0040441	2.6113e-05	-0.00014638	0.0024468	-0.0031	0.0039507	-0.00084988	0.0020029	0.0026961	2.0979e-05	-0.01043	0.0020132	-0.0023336	-0.0029734	-0.0004449	-0.00084188	0.00023333	-0.0026656	0.0039903	-0.0031042	-0.0055294	-0.022861	-0.013599	-0.0012082	0.0013494	0.00016458	-0.00035665	-0.000349	-0.0002193	0.001019	-0.0013597	0.0023408	0.00044794	0.001321	-0.0025449	-0.025155	0.14703	-0.024247	-0.01084	-0.0067036	-0.00053462	-0.0021191	-0.0017332	0.0023195	-0.0017282	-0.00020375	-0.0022416	-0.00043449	-0.0047426	-0.007815	-0.005154	0.001029	-0.00084787	0.001323	0.0030124	-0.0031116	-0.00077756	-0.0016829	0.00045516	-0.0020873	0.0011095	-0.001398	-0.00083767	2.8396e-05	-0.0012312	0.0016594	-0.0051677	-0.00082044	-0.0029442	0.0001405	-0.0010442	0.0070474	-0.0024468	0.0010059	0.0017391	0.00057907	0.00030034	0.0036079	0.00044768
-0.010489	-0.01656	0.13721	-0.0096405	-0.00071801	0.0017089	-0.012081	-0.0032437	-0.016741	-0.0015585	-0.0021615	-0.0019363	0.0053526	0.0054019	0.0011069	-0.00058356	-0.0056532	0.00014742	-5.603e-05	-4.2939e-06	0.0034513	0.0027773	0.0041721	0.0063835	0.0022724	-0.00086034	0.0028726	0.0007322	-0.0011522	0.00084684	0.001416	0.0016662	0.0022829	-9.7091e-05	-0.0045642	0.00038273	-0.00042892	0.0012075	-0.0015602	0.00022785	0.0015449	0.0032885	0.00038283	0.0040481	-0.0035529	0.00058418	0.0017424	0.0024167	0.0014009	0.0013163	0.00158	0.0018263	0.0013338	0.0016911	0.00044299	-0.00093526	-0.0022508	0.0053424	0.0024339	0.0013254	0.0070891	-0.001903	0.000879	0.0023563	0.0014017	-0.00013822	0.00080225	-0.00038931	-0.0044454	-0.014718	5.5733e-05	0.0021047	-0.00040931	-0.00088928	-0.0042445	0.0030835	-0.0023564	0.0047976	0.0055794	0.00061049	-0.0014346	-0.00076432	-0.00057654	0.0044963	-0.0014536	0.0013236	0.00021601	-0.00037356	0.0031002	-0.0068457	-0.0092855	-0.0019253	0.0030094	0.0013393	0.0034534	-0.00065133	-0.015966	-0.007703
0.0047292	0.0017462	-0.00048115	0.0027656	0.0022884	0.0031627	0.0064794	-0.0014689	-0.0018728	-0.0010007	-0.0035879	7.9242e-05	-0.0015857	0.0052183	0.0012175	-0.0016639	0.0017096	-0.0041161	-0.0028916	0.013925	-0.012071	-0.08174	0.10833	-0.0011322	0.0017383	-0.0023981	-0.0014291	-0.0020466	-0.0041498	-4.572e-06	0.00081965	-0.0028067	-0.0019691	0.00088493	-0.0010491	-0.00098674	0.0023383	-0.013503	0.0040011	0.00098793	0.0045486	0.0024317	0.0014015	-0.0016754	-0.00069144	-0.00064982	0.009661	0.0085641	0.00043988	0.00081986	0.0036442	-0.00041184	0.005406	0.001282	0.0073861	0.00086142	-0.0026757	0.0071638	0.0037013	0.0049005	0.0044241	-0.0012096	0.0027703	-0.002554	0.0025734	0.0018457	-0.0027997	-0.0035701	-0.0034406	0.0075683	-0.004216	-0.0034305	0.0020955	0.0023725	0.0028822	0.0003839	-0.00083911	-0.0028068	-0.00060706	-0.0025742	0.00058102	-0.0047232	-0.00032716	0.0014545	0.00072402	-6.226e-05	6.2703e-05	-0.0014341	-0.0018892	-0.0034934	0.0025029	0.0026704	-0.0021009	-0.0031692	-0.0020019	-0.0012957	0.0037304	-0.011246
0.0030351	-0.0081408	-0.0015995	-0.00012519	-0.00049875	-0.002915	-0.0025298	-0.0017588	-0.0077205	-0.0011841	0.0015914	0.0060772	-0.0009575	0.0014558	-0.00079647	0.00095061	-0.00016218	0.0022917	0.00066438	0.0028725	-0.0015033	0.00014352	-0.0015734	0.0025915	-0.00029137	0.0006183	0.0014577	0.001004	-0.0049004	0.0017387	-0.00074118	5.551e-05	-0.00090717	-0.0015753	-0.0025904	-0.00097313	-0.007523	0.0047655	-0.001857	0.00079278	0.00098888	-0.0015721	-0.0023827	0.0040807	-0.0010357	-0.0013094	-0.0062813	-0.00056181	-0.0032445	-0.0020743	-0.0025471	-0.00040932	-0.021642	-0.015708	-0.0079177	-0.0011599	0.0072988	-0.0016413	-0.027554	0.1261	-0.0099578	-0.0016023	-0.00038198	-0.0025293	-0.011314	-0.015362	-0.014245	-0.0066282	0.0068243	0.00082951	0.0022432	0.00298	0.0022884	0.00065252	-0.00016821	0.0015108	-0.0003862	-0.0013748	0.0005385	-0.00078719	0.0007528	-0.0056128	0.0014243	-0.0067943	0.00010431	0.0036887	-0.00040191	-0.0028429	-0.0018102	0.0011465	-0.0039745	-0.0026568	-0.0021448	0.0016982	-0.00018659	-0.0022261	0.0014574	-0.0051159
-0.0005245	0.0015399	9.4104e-05	-0.0013708	0.0023367	-0.00011706	0.00071873	-0.00066947	0.0041273	-0.0028495	0.00041202	-0.00043637	-0.0037003	0.00039158	-0.00046796	-0.0012004	-0.00079152	-0.00070521	0.057112	-0.050435	0.003716	-0.0076489	0.0017709	-5.1852e-05	0.0018377	-0.0016658	0.0027691	0.00091206	0.0016082	-0.00057233	0.0021308	0.0023682	0.0009732	0.00045066	-0.001349	-0.0013261	0.0032955	0.00012634	-0.00087854	0.00041681	-0.0023323	0.00071985	-0.00064834	0.0005537	-0.00033867	0.00062828	-0.0012323	0.0028024	-0.0020212	0.00010298	-0.00056405	0.0025082	-0.0035661	0.0012641	-8.065e-05	0.00026832	-0.0067393	0.003113	0.0012362	0.002097	0.001908	0.00087749	-0.0019866	7.5158e-05	0.00022563	0.0013588	-0.0042256	0.0032041	-0.0019973	-0.00019378	-0.0043072	0.0029929	0.0012453	0.0021805	0.0017589	0.00052808	-0.0016326	-0.00035328	-0.0024861	-0.0016563	0.0013332	0.0027718	0.0024173	0.002852	-0.001459	-0.0032129	-0.00083477	-0.00040049	7.8528e-05	-0.0013462	0.0010579	0.0038504	-0.00094832	0.0014983	-0.00013072	-0.00017317	-0.0005237	-0.0010314
