-0.1423	-0.15096	-0.15078	-0.17207	-0.090886	0.28805	0.21271	0.11152	0.18384	0.20034	0.0027816	-0.17046	-0.14561	-0.13589	-0.057747	0.27344	0.59396	0.50665	0.22184	0.1132	0.16101	0.20413	0.61748	0.82195	0.273	0.04788	0.2207	-0.025549	0.14981	0.16537	-0.10419	0.0026778	-0.13602	-0.16504	-0.048787	-0.16395	-0.10526	-0.070956	-0.051322	-0.016265	0.071423	0.1156	-0.049749	-0.030626	-0.061605	-0.065589	-0.10605	-0.12731	-0.1351	-0.11587	-0.041067	-0.11037	-0.14681	-0.057636	-0.030507	-0.078157	-0.10586	-0.017764	0.041745	-0.012344	-0.060131	-0.081631	-0.051349	-0.098298	-0.095106	-0.12509	-0.054543	-0.16433	-0.030541	-0.022285	-0.0087904	-0.042219	0.038458	0.12644	0.12341	-0.042581	0.028677	-0.072376	-0.057083	-0.053257	-0.10469	-0.098994	-0.021364	-0.059021	-0.11642	-0.121	-0.042458	-0.033567	-0.001909	-0.025571	-0.075338	-0.033242	-0.11111	-0.083514	-0.06282	-0.046955	0.027055	0.14102	0.12974	0.11769	0.10096	0.024246	0.0027451	-0.029326	-0.17205	-0.082966	-0.12188	-0.12139	-0.088872	-0.033698	-0.07443	-0.091879	-0.057231	-0.089268	-0.14376	0.032589	0.097133	0.011398
-0.064848	-0.058094	-0.044363	-0.066358	-0.057069	-0.046732	-0.045671	-0.11076	-0.087889	-0.067265	-0.066868	-0.054134	-0.077054	-0.065966	-0.047282	-0.066238	-0.034064	-0.062687	-0.10398	-0.17763	-0.11347	-0.036115	-0.049433	-0.038012	-0.068115	-0.054399	-0.002746	-0.031588	-0.10784	-0.11952	-0.092708	-0.06297	-0.043041	-0.075041	-0.081751	-0.056054	-0.054589	-0.060981	-0.090217	-0.1428	-0.15771	-0.29176	-0.11853	-0.10069	-0.07996	-0.074826	-0.085244	-0.051065	-0.055512	-0.10342	-0.0095828	0.11033	0.36867	0.12342	-0.033354	-0.10486	-0.081992	0.43916	0.46615	0.12676	-0.045859	-0.10929	-0.085008	-0.05871	-0.064506	-0.058116	-0.058614	-0.053332	-0.082433	-0.11151	-0.083337	0.0039132	0.23365	0.49196	0.88407	0.24867	-0.037918	-0.11699	-0.098568	-0.045973	-0.041606	-0.048819	-0.059776	-0.049415	-0.074196	-0.093096	-0.030318	0.16686	0.52672	0.12891	0.0085691	-0.035293	-0.066735	-0.077293	-0.082386	-0.079081	-0.14465	-0.25903	-0.28626	-0.20897	-0.079863	-0.056424	-0.053932	-0.053105	-0.066747	-0.076233	-0.056057	-0.034413	-0.03452	-0.064045	-0.087743	-0.018223	-0.03332	-0.057642	-0.06777	-0.060117	-0.076548	-0.070389
-0.013536	-0.24047	-0.23106	-0.39541	-0.2653	-0.11753	0.0072349	0.029361	-0.0032673	-0.090379	-0.24652	-0.40702	-0.3151	-0.15056	-0.29622	-0.19397	-0.1096	0.025618	0.074507	0.13507	0.07878	-0.036305	-0.11713	-0.15709	-0.11082	-3.9181e-06	-0.15048	-0.043433	0.13678	0.12318	0.13738	0.06825	0.073817	-0.011078	-0.15442	-0.072093	0.022576	0.088188	0.15674	0.19438	0.19652	0.26351	0.1075	0.15038	0.11488	0.036876	-0.0098791	0.044498	0.085124	-0.1813	-0.083416	0.046869	0.15923	0.048338	0.040482	-0.089527	0.012793	0.014626	0.0050602	0.14822	0.09012	0.088151	0.056233	0.12651	0.077702	-0.033253	0.16869	0.29519	0.34033	0.21981	0.21586	0.26735	0.15002	0.082764	0.0082945	0.13155	0.18218	0.17675	0.11498	0.055028	-0.0035859	-0.12106	-0.059848	-0.030586	-0.22488	-0.10023	-0.0036085	0.10583	0.21751	0.18168	0.07631	0.013952	-0.10874	-0.17364	-0.063046	0.18013	0.23563	0.19139	0.20816	0.14944	0.30495	0.20689	0.11215	0.022554	-0.14669	-0.055236	-0.039416	0.042803	0.10661	0.25163	0.26763	-0.067073	-0.18903	-0.081971	-0.044493	-0.20127	-0.24607	-0.015228
0.16498	0.046582	0.022401	0.01319	0.0014384	0.029514	0.016777	-0.080305	0.0084653	-0.037683	-0.14137	-0.066316	-0.039466	0.011057	-0.060129	-0.021641	0.082704	0.060522	-0.084402	-0.10809	-0.092835	0.020437	0.056983	0.094039	-0.038408	0.033822	0.066424	-0.00062184	-0.095789	-0.085706	-0.011269	-0.017381	0.032608	-0.073037	-0.048504	-0.090956	-0.083842	-0.020085	0.0048786	-0.042509	-0.071032	-0.18012	-0.11966	-0.10581	-0.054416	-0.056526	-0.10707	-0.071277	-0.046879	-0.15693	-0.16654	-0.19897	-0.027201	-0.18211	-0.1916	-0.21205	-0.032529	-0.15909	-0.15375	-0.1784	-0.21715	-0.096723	0.036891	0.27692	0.16208	0.053057	0.36149	0.51928	0.20221	-0.0016248	-0.12707	-0.13673	-0.15136	-0.084781	0.026996	-0.064286	-0.10309	-0.084546	0.1932	0.38161	0.26406	0.079303	0.05281	0.17355	0.051311	-0.021069	-0.06464	-0.051311	0.1081	-0.059725	-0.071745	-0.078061	-0.10307	-0.01693	0.025331	0.049785	-0.030029	-0.10651	-0.13013	-0.14803	0.017704	0.066202	0.068144	0.0040874	0.05979	0.058182	-0.0024086	0.042138	0.050394	-0.027037	-0.18044	0.023493	0.03623	0.036698	-0.032693	-0.012245	0.014686	-0.042612
0.020456	0.00067013	-0.018847	-0.009845	-0.018388	0.019688	0.16206	0.48496	0.18477	0.056916	-0.00048963	0.0097982	0.042378	-0.020304	-0.0030362	-0.036794	-0.024537	0.092575	0.37425	0.11904	0.10148	0.021545	-0.031259	-0.06979	-0.0036422	-0.021966	-0.039709	-0.10294	-0.13893	-0.26183	-0.11553	-0.024752	-0.019545	0.0073268	-0.011911	-0.022012	0.015702	-0.012936	-0.027746	-0.077676	-0.17734	-0.38961	-0.15808	-0.035727	-0.05528	-0.010457	0.025167	0.00097522	-0.004574	-0.047848	-0.041075	-0.0043332	0.0058894	0.011172	0.041526	0.0023466	-0.0093357	0.021007	-0.039174	-0.011782	0.017037	0.020752	-0.00064365	-0.0090307	-0.0080916	-0.020012	0.059265	0.026486	0.013165	0.028081	0.035405	0.0047269	-0.013296	0.012593	-0.04792	0.015161	0.012721	-0.014635	-0.0083911	-0.015962	-0.022123	-0.021768	-0.017728	0.0016347	-0.026209	-0.0026734	0.011414	0.065721	-0.049606	-0.057483	-0.045804	-0.006278	0.0048872	0.036174	0.015173	0.0313	0.044908	-0.089801	-0.18796	-0.017732	0.088187	0.048257	0.001134	0.022875	-0.0128	0.0077482	-0.0028338	0.027662	0.10974	0.14172	0.5573	0.062831	0.067302	0.016162	0.024485	0.011703	0.11181	0.36101
-0.059758	-0.095853	-0.023996	-0.014782	-0.0081289	-0.11156	-0.038761	-0.12935	-0.20631	-0.19146	-0.11649	-0.048833	-0.056751	-0.024866	-0.021406	-0.124	-0.27371	-0.16608	-0.06526	0.040837	0.12945	0.27872	0.24341	0.10606	0.023283	0.092045	0.4285	0.3938	0.17136	0.0038651	0.13112	0.1205	0.055513	-0.00073636	-0.018065	-0.0081689	-0.0065906	-0.017626	0.011738	-0.025589	0.0080132	-0.081401	-0.030553	0.014456	-0.0015995	-0.036475	-0.020255	0.012466	-0.070183	-0.12052	0.029158	0.033454	0.12057	-0.037598	-0.022038	-0.0062441	-0.053026	-0.020683	-0.10388	-0.037764	-0.018205	-0.013484	-0.038007	-0.074012	-0.084977	-0.095309	-0.088283	-0.087783	-0.054296	-0.032726	0.018123	-0.039448	-0.061273	-0.099855	-0.053987	-0.019423	-0.038754	-0.025874	-0.050932	-0.017354	-0.019713	-0.0036688	-0.0060161	-0.012527	-0.062932	-0.034236	-0.048931	-0.039918	0.010233	0.076203	-0.007354	-0.028158	0.012569	-0.023383	-0.039414	0.008018	-0.0038343	-0.077441	-0.08625	-0.05601	-0.022463	0.021086	0.026451	0.017671	0.04134	0.057783	0.046141	0.091953	0.19865	0.11882	0.10358	0.2524	0.19387	0.074263	0.0024732	0.0016578	0.094998	0.1237
-0.030901	-0.10372	0.023471	-0.040188	-0.010095	0.044027	-0.031324	-0.074571	-0.012177	-0.046967	-0.092389	-0.090814	-0.039765	-0.044836	-0.0056591	0.017122	0.0031879	-0.041786	-0.071761	-0.07724	-0.0039756	0.0018814	0.041872	0.039378	-0.020665	0.041498	0.040755	-0.016643	0.010489	-0.07653	-0.0584	-0.023886	-0.035206	0.0053993	-0.0077411	-0.057117	-0.066706	-0.0070899	-0.03479	-0.060319	-0.083168	-0.081059	-0.064833	-0.090379	-0.091276	-0.056119	-0.034708	-0.020704	-0.085221	-0.03061	-0.033676	-0.14534	-0.17177	-0.010246	0.035551	0.0023177	-0.0031059	-0.093723	-0.067811	-0.029786	0.046602	0.023473	-0.016765	-0.11301	-0.068463	-0.044667	-0.066715	-0.037741	0.11323	0.1545	0.17076	0.13547	0.049773	0.020728	-0.024827	0.10951	0.29345	0.59789	0.2035	0.0017663	-0.037425	-0.063927	-0.044916	-0.0047686	0.13141	0.29494	0.2041	0.11908	-0.034336	-0.075347	-0.064725	0.070778	0.14527	0.010412	-0.048839	-0.094538	-0.10344	-0.15684	-0.094575	-0.11776	-0.063227	-0.085241	-0.11003	-0.084187	-0.0084935	0.032656	-0.016955	-0.035411	0.000815	-0.039644	-0.050906	-0.051554	-0.039941	-1.3048e-05	0.037973	0.035133	-0.023687	-0.018185
0.0004766	-0.035236	-0.041388	-0.0080618	-0.025172	0.027491	-0.027631	0.00071885	-0.012189	-0.040103	-0.024131	-0.045944	-0.038977	-0.04386	-0.0046248	-0.044538	-0.0077095	0.024404	-0.029795	-0.0030521	-0.025819	-0.055044	0.034394	0.010229	0.069009	0.023257	0.0065225	0.033654	0.026087	-0.013474	-0.044635	-0.011213	-0.061519	0.045569	0.0075817	-0.021406	-0.054956	-0.076714	0.011413	-0.063114	-0.059199	0.024372	-0.039089	-0.041186	-0.041945	-0.023001	-0.0081789	-0.054679	-0.063468	0.043305	0.035172	-0.002202	-0.055431	0.053068	0.075653	0.18761	0.094322	0.017796	0.024421	0.018975	0.092061	0.52114	0.20718	0.093878	-0.017907	0.01281	-0.047704	0.08639	0.074526	0.083492	-0.025925	-0.0899	0.017094	-0.010402	-0.014249	-0.030671	-0.040233	-0.14326	-0.033993	0.00064028	0.014843	-0.04444	0.065404	-0.016306	-0.024807	0.003941	0.0086222	-0.013333	0.027168	-0.026865	-0.073846	0.037904	0.018756	-0.048346	-0.046487	-0.058792	-0.03878	-0.057369	-0.019975	-0.0037738	-0.050452	-0.024116	-0.069303	-0.0099386	0.016496	-0.0063247	-0.035362	-0.00964	0.028587	-0.025796	-0.014452	0.0053722	0.0083973	0.0044569	-0.04534	-0.049558	-0.023452	0.0056324
0.0052239	-0.0015373	-0.0014269	-0.001066	0.00083466	0.0068046	-0.0036038	0.14527	0.027611	-0.010309	-0.0060434	-0.0094166	-0.011183	0.0051652	-0.03093	-0.027493	-0.024549	0.039129	0.19753	0.36611	0.16713	0.022275	-0.059907	-0.038985	-0.020177	-0.0071214	-0.031848	-0.040475	0.1152	0.18016	0.0056484	-0.015325	0.012493	0.012932	0.00084338	0.0055981	0.0017755	0.01323	0.017049	0.022934	-0.008986	-0.034601	-0.0095672	0.0044012	-0.0043279	0.0093539	0.0073187	-0.00028095	0.0047014	0.06209	-0.02442	-0.015329	0.031378	0.00076749	0.011233	-0.00562	0.0041919	-0.019958	-0.027667	0.01331	-0.010902	0.0014095	-0.00092662	0.0059433	0.004574	0.014239	-0.0037497	-0.0077248	-0.00073422	0.0097643	-0.0070245	0.0075538	-0.007568	-0.031642	-0.075125	0.0022476	-0.0026844	0.0043666	0.0023745	0.0030517	-0.01194	0.0084414	-0.011695	-0.0039904	-0.013018	-0.010805	0.004668	0.00053755	0.032695	0.0075459	-0.0073967	0.011057	-0.010561	-0.0047522	0.015045	-0.0030808	-0.0047813	-0.10618	-0.29058	-0.15053	-0.05863	0.0015806	0.020059	0.004864	0.0023876	0.012114	0.01119	0.0064439	-0.0094523	-0.062159	-0.14901	-0.0090383	-0.016311	0.0094127	0.0038676	-0.0037268	-0.0076353	-0.020593
-0.0056842	-0.012653	-0.032002	-0.0051452	0.029954	0.47748	0.074392	0.015882	0.041723	0.032462	0.0028654	-0.0066309	-0.01853	-0.010879	-0.0045079	-0.019146	-0.087657	-0.10085	0.0020598	-0.0045814	-0.017281	0.017099	-0.047781	-0.12983	-0.044689	0.014917	0.019447	0.018444	0.013571	0.03255	0.046391	-0.011489	-0.023058	-0.010138	0.031802	0.019765	-0.0067876	-0.047899	-0.00050419	-0.027607	0.018427	0.028175	-0.0083695	-0.0060942	-0.033405	-0.029727	-0.029276	0.0051681	-0.021607	-0.054664	-0.019041	-0.019307	0.0061075	-0.017564	-0.011701	-0.052198	-0.020467	-0.0036324	-0.013325	0.001248	0.035257	-0.01118	0.014474	0.023766	-0.0042317	-0.082258	-0.0023403	0.017101	0.0055234	-0.038809	-0.035516	-0.011044	0.001139	-0.0010539	0.016944	-0.027582	0.013965	-0.0026221	-0.029038	-0.018965	-0.046287	-0.071004	0.046707	-0.00072379	-0.028375	0.022208	-0.0012611	0.0015274	0.017648	0.010156	0.018832	-0.006733	-0.026022	-0.028216	-0.017445	-0.0039136	0.016471	0.038611	0.01147	0.028208	-0.021522	0.00043908	-0.023669	0.01216	-0.0020843	-0.0072527	0.0088299	-0.008292	0.011003	0.033582	-0.032174	0.0063001	0.0038071	0.030079	0.047025	0.051474	0.059466	-0.013959
-0.083201	0.0088823	0.013649	-0.03003	-0.013714	0.059181	0.022219	-0.060127	-0.029938	0.0087316	0.034142	-0.0047815	-0.0014984	0.0066766	-0.0014388	-0.066278	0.076643	0.069427	0.035575	-0.25865	-0.034512	0.044134	-0.039578	0.01447	-0.001227	-0.0030903	0.017003	0.02899	-0.020027	0.098714	-0.010501	-0.0028541	-0.00094442	-0.01171	0.00044302	-0.021994	-0.013584	-0.01153	-0.0099829	-0.012891	0.0011441	-0.020509	0.033785	0.017552	0.004165	-0.0031163	-0.0026985	0.00010955	0.0015506	0.024266	0.0037532	0.07054	0.25055	0.043952	0.025188	-0.022521	-0.010329	0.066163	0.028002	0.03153	-0.018978	0.00074045	0.0087707	0.017254	0.022129	0.011365	-0.0080926	0.0006035	0.01729	-0.032727	0.0038409	0.0019169	0.015746	0.016432	-0.061141	0.03413	0.0078351	0.0168	0.020414	-0.015713	0.0068972	0.0025587	-0.019467	-0.0052557	-0.018155	0.0022756	0.0060241	-0.0091413	-0.068087	-0.09363	-0.065249	-0.02084	-0.0087734	-0.017567	-0.012779	0.0059855	-0.030803	-0.087949	-0.037241	-0.067089	0.0040999	0.0017392	0.012117	0.0021012	-0.0063507	0.0075212	-0.0114	0.01969	-0.021453	0.0019843	0.010027	-0.0042916	0.0085115	0.0042468	0.0053266	-0.049494	-0.071154	0.027165
-0.0035045	0.017266	0.010797	-0.013886	-0.050132	-0.0062155	0.043224	0.01318	-0.010373	0.0063795	-0.024307	0.031202	-0.0078949	0.036153	0.017297	0.037307	0.0097781	0.0044832	0.004981	-0.01418	0.0085114	-0.016419	-0.043825	0.0054934	-0.033735	-0.041237	-0.030033	-0.011553	-0.053852	-0.0002032	-0.010227	-0.029896	-8.5126e-05	-0.0055612	0.006054	0.019104	-0.0050077	-0.016013	-0.044957	-0.038273	0.031859	0.034326	-0.0023636	0.080101	-0.0010004	-0.032605	-0.02411	0.0038744	0.0094693	-0.14627	0.015073	-0.045403	-0.0064003	-0.030324	-0.040654	-0.0074427	-0.015827	-0.040366	-0.047108	-0.039623	0.029704	0.020506	-0.00069227	-0.057425	0.041316	0.027912	-0.029577	-0.12356	0.031896	0.015295	-0.0049783	-0.046353	-0.0098444	-0.021802	-0.081603	0.0046947	-0.031424	0.0055011	0.003857	-0.023376	-0.024625	0.047698	0.0064967	-0.067583	-0.0008922	-0.0062158	-0.022703	-0.08986	0.21264	-0.037784	-0.029923	0.0014258	0.0065686	-0.044076	-0.08464	0.030867	-0.04997	-0.09018	0.01536	0.032113	0.0032741	0.01221	0.031756	-0.0097368	0.082612	-0.008666	0.015247	0.0081124	0.012522	0.0018138	0.0028866	0.013605	-0.010609	-0.050577	-0.00055325	0.0069226	-0.053637	0.0099128
-0.040896	-0.018716	0.017576	0.041592	0.0022769	0.055858	0.003971	0.020349	-0.015168	-0.017569	-0.022296	-0.0031592	0.013207	0.011046	0.0018781	-0.042422	0.010036	0.0053835	-0.017567	-0.036964	0.0072627	0.0029411	0.022931	0.02557	0.011903	-0.0093703	-0.0084096	0.0013282	-0.031464	-0.019714	0.0040472	0.043085	0.026232	0.0058601	0.012926	-0.002035	0.022166	0.31937	0.040477	0.14074	0.0039662	-0.067847	0.0061482	-0.0046367	0.057751	0.047613	0.0066783	-0.017965	-0.01498	-0.031576	0.016944	-0.00057695	-0.037774	-0.0016854	-0.0050189	0.013434	0.010514	-0.012231	-0.01798	-0.00028175	-0.00047678	0.046864	0.00049049	-0.011357	0.014144	-0.0093825	0.006775	0.0074172	0.00059542	-0.052177	-0.032835	-0.021532	-0.0064341	-0.010989	0.0094469	-0.014736	0.023406	-0.0019816	0.0040897	-0.023443	-0.037129	-0.0023062	-0.0084948	-0.035335	-0.0006461	-0.056079	0.011602	6.1485e-05	0.036678	-0.014428	0.011537	0.038321	-0.035933	-0.018947	0.0094911	-0.048488	0.001713	-0.029712	-0.0177	-0.018677	-0.0064169	-0.021262	-0.044754	-0.019083	0.0065458	0.032711	-0.011983	-0.0081553	-0.0028111	0.019636	-0.0081079	-0.023097	-0.021529	-0.033403	0.013474	-0.0086194	0.0017736	-0.014869
-0.018421	0.025163	-0.047776	-0.045591	0.0082254	0.019343	-0.077166	0.0020321	-0.022415	0.025055	-0.021109	0.015134	0.0022586	0.026095	-0.015803	-0.0066892	0.027896	0.02613	-0.015236	-0.00010815	0.0022866	0.004955	0.0098978	0.021066	-0.013401	0.035486	-0.027619	-0.016619	-0.019212	-0.010761	0.014662	0.024212	0.030214	0.35152	0.027253	0.016572	-0.020853	-0.014081	-0.019955	-0.008624	-0.002001	-0.0068175	-0.026615	-0.04015	-0.012854	-0.005068	-0.0025568	0.00049514	0.040889	-0.022162	-0.0037905	-0.0077881	0.013808	-0.001627	0.0022851	-0.0034983	-0.0044228	-0.0020642	0.009519	-0.035256	-0.030246	-0.030393	0.00042066	-0.0080738	0.0086633	-0.0031704	-0.018035	-0.004401	0.025204	0.013629	-0.0014963	-0.016966	-0.0016082	0.0095986	-0.011308	0.0047094	0.00090589	0.013557	0.0078173	-0.019673	0.0048213	-0.02127	0.0066714	-0.010911	-0.040214	-0.034221	-0.025365	0.0029286	-0.0050544	0.010434	-0.0081836	0.0081062	-0.045034	0.014102	-0.00043456	-0.0030848	0.018887	0.0064233	-0.00018133	-0.0030428	-0.016798	-0.0062322	-0.010481	-0.042309	-0.017273	-0.0064037	-0.00096007	-0.0093759	0.013101	0.0028807	-0.012238	0.015409	0.016299	-0.01861	-0.0034424	0.024015	0.0036501	0.0127
-0.00050313	0.0063107	0.0066327	0.0051981	0.0072875	-0.0044276	-0.011311	-0.036831	-0.020821	-0.006028	-0.0029481	0.0028143	0.0032057	0.0043854	-0.00050273	-0.001357	0.0052497	0.034509	0.0017877	-0.0054123	0.0055816	0.16535	0.21721	-0.14992	-0.055694	-0.070917	-0.19977	0.045763	0.020271	0.002154	-0.038136	-0.047273	-0.023076	-0.0051507	-0.014915	-0.0063489	-0.0039436	0.0018909	-0.0091325	-0.010878	-0.013435	-0.0024696	0.00048334	-0.0079956	-0.00063282	-0.0044934	-0.0067613	0.0078914	-0.00045891	0.0020915	0.0052422	-0.0011811	-0.0047809	-0.0029823	-0.003899	-0.0017465	0.0014099	-0.005159	-0.0030788	-0.0006112	6.1793e-05	0.00074771	0.00065336	0.0058639	0.003333	0.002407	-0.0015703	0.0022733	0.0041154	-0.0028077	0.0011497	-0.0016535	0.0012388	-0.015195	-0.0040565	-0.0055454	-0.0035109	-0.0012365	0.001759	0.00055051	-0.00095638	-0.0001882	-0.004094	0.00022347	0.0029699	-0.0038213	-0.0019929	-0.0076025	-0.00012281	0.0049721	0.0032369	0.0025395	0.00084461	-0.0070476	-0.0029778	0.00092887	-0.0067035	0.00032877	0.0039758	-0.0063338	-0.010176	-0.007722	-0.0064516	-0.0021588	0.0029401	-0.001397	-0.0016922	-0.022903	-0.056793	0.003572	-0.00095753	0.06033	-0.057416	-0.0085955	-0.0043476	-0.013724	0.01017	0.031363
-0.0025702	-0.03778	0.012657	-0.021092	-0.026632	-0.005051	-0.0037441	0.00528	0.0028425	-0.020678	-0.038196	-0.042978	-0.0046282	-0.014367	-0.0027027	-0.010377	0.019499	0.027387	0.031023	-0.0055174	0.0030761	0.0043668	-0.00010497	-0.017564	-0.008974	-0.0027352	0.014463	-0.012234	-0.024625	0.010717	-0.020708	0.0055717	-0.029691	0.018275	-0.01375	-0.01366	-0.010836	0.022192	0.013591	0.0046152	0.015906	0.012663	-0.011081	-0.036393	0.0048706	0.014147	0.00033165	0.0066261	0.028576	-0.00047523	0.0023945	0.008019	0.021872	-7.4556e-05	0.01078	0.01945	0.0021631	0.014373	0.016754	-0.021256	0.014878	-0.010832	-0.0088954	-0.025293	-0.013264	0.000955	0.0016358	-0.059352	-0.021546	-0.039396	0.011224	-0.016811	-0.0041602	0.0063435	0.022275	-0.0081898	0.020476	0.03674	-0.051548	0.042869	0.039961	0.068185	0.32245	0.073011	0.054209	0.01368	-0.014265	-0.012832	-0.03103	0.0092922	0.035107	0.031549	-0.011692	0.0025209	-0.014114	0.0020711	-0.014984	-0.0045563	0.00050083	-0.0043293	0.0053047	0.02396	0.0021841	0.057823	0.036081	0.0067963	0.057093	0.014393	0.028304	0.0062916	0.0082682	-0.0020467	-0.045945	-0.0023292	-0.015198	-0.00024905	-0.0005395	-0.020206
-0.043441	-0.019769	-0.014208	0.018672	0.024294	-0.014605	0.02155	-0.029588	-0.0098603	-0.018519	-0.020571	-0.049806	-0.0068839	-0.0079639	-0.013921	-0.0078145	0.0055623	0.012125	0.026397	0.014307	-0.0054767	-0.021883	-0.010153	-0.0019598	-0.0071351	0.010768	-0.021117	-0.024219	-0.013462	-0.0023308	-0.032135	-0.016992	-0.0038511	0.0081156	0.015154	-0.020195	0.00123	-0.037103	-0.022488	-0.0082621	0.010721	0.0075435	0.0035513	-0.019817	0.012954	-0.0080061	-0.0061427	-0.052072	0.00069123	-0.0025344	0.0258	-0.019524	-0.0031958	-0.0010865	0.007443	0.018182	-0.0033853	0.010989	0.0077403	-0.0068372	-0.01127	-0.019715	0.016234	-0.004975	0.0053999	-0.048141	-0.047358	0.0094165	0.020582	-0.021805	0.014997	-0.014555	-0.0014691	0.0032424	0.022515	-0.0035165	0.0005423	-0.02889	0.021245	-0.011667	-0.018791	0.012965	-0.0077104	-0.057969	-0.0016829	0.00349	-0.015305	-0.0094104	-0.0015176	0.0035037	0.027881	-0.0043512	0.011927	0.0212	-0.0055943	-0.01443	0.019374	0.016618	0.011367	0.0061611	0.022846	0.038734	0.032104	-0.00066478	0.046762	0.33273	-0.014671	0.0092689	-0.03448	0.0017431	-0.0058054	-0.020828	-0.0054028	0.05442	0.073789	-0.0035294	0.0075253	0.010376
-0.018047	0.018426	0.017793	0.0018289	-0.030704	0.011415	-0.023081	0.0018431	-0.011449	-0.013706	-0.019243	-0.0074295	0.0094703	-0.0087678	0.0052707	0.00048771	-0.0026758	0.0069362	-0.019752	-0.024851	-0.0065272	0.015724	0.0012389	0.041646	-0.030395	-0.015212	-0.013298	-0.042297	0.0076665	-0.0019251	-0.01474	-0.004838	0.024286	-0.0070684	-0.030205	0.0051205	-0.0014663	-0.014077	0.0090612	-0.011244	-0.0090509	0.032317	-0.0019936	0.015845	-0.00036783	-0.03601	-0.0041928	0.001569	-0.00078169	-0.038896	-0.0056348	-0.032074	0.003201	-0.0018811	0.0035142	-0.0056577	0.00018837	0.012896	-0.010362	0.023619	0.018888	0.032221	0.023071	-0.0059497	0.017919	-0.025275	0.00074194	-0.036121	0.00086517	-0.013671	0.034561	-0.0020304	0.0058753	0.0019899	-0.012152	-0.0063314	0.0015631	0.0045597	0.0094315	0.010107	-0.008151	0.018878	0.032608	-0.040123	-0.026196	-0.012217	0.018392	0.017721	0.044373	-0.0065048	0.030176	-0.017118	0.017543	-0.02589	0.34631	0.030084	0.03124	-0.015088	-0.0095736	-0.0097233	-0.051757	-0.0052241	0.016697	0.017117	-0.010076	-0.0067537	-0.0051449	-0.0046287	0.0016502	-0.0068469	0.0073885	0.0060354	0.027012	0.022413	0.0083677	0.013345	0.016474	0.016096
0.015392	0.01692	-0.018329	0.021406	-0.012401	0.0087295	-0.022896	0.0016199	-0.0023418	-0.0069068	-0.0026257	0.040575	0.0093404	-0.00041488	-0.0011545	-0.009767	0.031254	-0.019559	-0.014964	-0.01677	-0.007925	-0.019976	0.024245	0.032608	-0.02904	-0.0055336	0.0046489	0.0057835	-0.014491	-0.01134	-0.011786	-0.017512	-0.0014881	0.0054638	0.0026005	0.014168	-0.033293	0.018208	-0.010597	-0.0066542	-0.0074001	-0.030131	-0.0041768	0.0094688	-0.0070822	-0.0056536	-0.010196	0.010846	-0.019978	-0.049589	-0.021835	-0.0084152	-0.035259	-0.0016026	-0.0025661	-0.032014	-0.016074	-0.024445	-0.012244	0.042259	0.012195	0.027156	-0.01394	0.025873	0.0012123	-0.0023611	-0.024038	0.0079996	-0.019009	0.027372	0.013301	0.31298	0.031389	0.026862	-0.048324	0.02935	-0.061742	-0.065566	-0.0242	-0.020004	-0.018268	-0.0082943	0.043798	0.015283	-0.023132	-0.009136	-0.037633	-0.0020581	-0.023839	0.00061881	-0.017828	-0.035522	-0.025667	0.012593	-0.0073051	-0.051098	-0.015955	0.0036766	-0.021822	-0.015341	-0.005944	0.0077764	0.021768	0.024193	0.05738	0.017319	0.015042	0.0068895	0.014621	-0.010743	-0.028675	0.0097278	-0.024827	0.019077	0.019385	-0.0061311	-0.013035	0.0069173
-0.047241	0.0012514	-0.019229	-0.047639	-0.030518	0.0071696	0.010714	-0.062243	-0.018353	-0.0092174	0.024738	-0.032698	-0.027238	-0.0063256	0.0017405	-0.026142	-0.011067	-0.017945	-0.0032312	0.010269	-0.013433	0.018235	-0.012931	0.011325	-0.018252	-0.035308	0.010137	-0.04233	-0.020436	-0.020668	-0.00052717	-0.0094017	-0.048871	0.031005	-0.018572	-0.031358	-0.01031	-0.017708	0.0046546	-0.016461	-0.011287	-0.067118	0.0087248	0.2913	0.017298	0.0074285	0.0041108	-0.030097	0.023862	0.029633	0.016957	-0.024428	-0.084727	0.0047535	-0.0049282	0.048807	0.012624	-0.015055	0.0082931	-0.0028023	-0.01279	-0.038691	-0.017704	0.035841	-0.017627	-0.025919	-0.010893	0.01968	-0.011999	0.010985	-0.039232	-0.0087804	-0.0075342	0.0046769	0.027505	-0.014815	0.009333	-0.0045306	0.015562	-0.011557	-0.011319	-0.035377	0.0248	0.016043	0.0070154	-0.047978	-0.015209	-0.022393	-0.067146	-0.011929	-0.0085251	0.0026493	0.0070416	-0.020055	-0.00072822	0.014744	0.013815	-0.04998	-0.008253	-0.043706	-0.020907	-0.0021372	-0.012737	0.0068902	0.010213	-0.0097029	0.0083562	-0.0029028	-0.021145	-0.0052613	0.014504	-0.014444	-0.0057268	0.014917	-0.022679	-0.0046726	0.024172	-0.01421
-0.038913	-0.041876	-0.017474	-0.014709	0.0032305	0.010348	-0.038844	-0.014979	0.012223	0.0012052	0.015975	-0.017625	-0.018236	-0.01188	-0.066437	-0.0014522	0.0039741	0.00058321	-0.029991	-0.031092	-0.027596	-0.020985	-5.6077e-05	0.0082647	-0.012012	-0.00087425	-0.00016565	0.0086272	-0.00029975	-0.048522	-0.00096045	-0.0096818	-0.014838	-0.011323	0.0079269	0.0063548	-0.035416	-0.0043632	-0.0059387	0.010673	-0.027754	-0.019708	-0.0091541	-0.0027512	-0.023491	-0.0049948	-0.015532	-0.01413	-0.0032039	0.23529	-0.076894	-0.045232	0.014265	0.0004748	0.016963	-0.023771	-0.0024633	-0.025686	-0.0026294	0.017433	-0.021892	-0.016912	-0.018714	-0.011742	-0.016124	-0.0015836	-0.044143	-0.020737	-0.032437	-0.016255	-0.019275	0.0076966	-0.017409	-0.029017	-0.10659	-0.030155	-0.0088437	-0.0075617	0.002587	0.0024291	-0.03052	-0.0020549	0.012677	0.025762	0.014114	0.0046669	0.0089438	-0.024533	0.17419	0.038503	0.023652	-0.0048714	-0.046079	-0.0098406	0.0019945	-0.040427	0.027117	0.02616	0.030211	-0.065169	0.031659	0.0030161	0.0037938	0.0056896	-0.0081656	-0.00022238	0.0033854	-0.016985	-0.0026063	0.0092345	0.030572	0.011958	0.0099756	-0.0056043	-0.0040625	0.0067935	0.0077444	0.0087859
-0.021718	-0.0023517	0.020509	0.015483	-0.029797	-0.021303	-0.010897	-0.014954	0.04478	0.028003	-0.0012912	-0.011124	0.017319	0.020579	0.027506	-0.007525	0.0036037	0.018714	-0.011049	-0.00049394	0.0016459	0.037479	-0.0020369	-0.038647	0.0054869	0.33751	-0.064691	0.0082277	0.01626	-0.0073221	0.017025	0.020752	-0.0096939	-0.031143	0.032281	-0.018485	0.020875	-0.0075341	0.001127	-0.0079671	-0.0013409	-7.0782e-05	0.020164	0.035001	-0.006612	0.003578	-0.032992	-0.010524	-0.013993	0.00042114	0.0067319	0.0014318	-0.010723	-0.0087927	-6.3886e-06	-0.020008	-0.011884	-0.0063508	-0.014295	-0.0084663	-0.0013254	-0.0057683	-0.0085349	-0.00012349	0.017105	0.011039	-0.0073626	-0.018676	0.017479	0.011979	-0.016761	0.016565	-0.0038441	0.0012534	0.014053	0.017642	-0.010245	-0.024502	-0.012195	0.0077692	0.0015452	-0.0054806	0.019161	-0.019975	-0.013974	0.008203	-0.00061942	-0.027015	0.0082382	-0.0041205	0.037233	0.0067646	-0.011108	0.0017197	0.011321	-0.014592	0.0066339	-0.049479	-0.0060317	-0.005082	-0.0061391	-0.0014909	-0.027176	0.0015456	-0.0038492	-0.012773	-0.010166	-0.0071259	-0.018608	0.0062752	0.031353	-0.028136	-0.010203	-0.014032	0.0048729	4.0341e-05	-0.00037634	-0.0080423
-0.019455	0.010746	-0.00081671	-0.033064	-0.01085	0.028178	-0.0055467	-0.058768	-0.00075152	-0.012775	-0.012537	-0.0042525	0.0082975	0.0011913	-0.012811	0.020354	-0.021702	0.022042	0.017143	0.018064	0.0022015	0.0063418	0.0022504	0.010943	-0.013795	-0.003478	-0.0018129	-0.0088806	-0.033818	0.0010041	-0.022657	0.0022309	0.00015412	-0.016442	-0.011567	-0.023557	0.0064588	0.015639	-0.0022954	0.0092843	0.0052103	0.02683	0.0090714	0.021624	0.0036159	-0.0096279	-0.0078546	-0.005952	-0.014434	-0.039247	-0.039121	0.02542	0.0016776	-0.0039618	-0.0090893	0.018474	-0.004672	0.0024947	-0.0045396	0.00087117	-0.0074444	0.024572	0.0061521	0.015984	0.0034727	0.018258	-0.051463	0.0093896	0.00098862	-0.014481	-0.028284	-0.020697	0.0010466	-0.0046557	-0.011457	0.017879	-0.016585	0.0010284	0.0049733	0.020162	-0.021909	-0.024326	0.0050453	-0.027984	-0.0006081	0.0048897	0.030626	0.040213	0.032374	-0.0066951	0.014144	-0.005225	-0.007546	0.33685	0.0010239	-0.0042979	0.0087859	0.007605	-0.0050318	-0.017404	0.013128	0.026953	0.013555	0.0031417	-0.014428	-0.035729	0.025156	0.013666	0.019238	-0.0186	0.009951	0.0040316	-0.0011164	0.0023234	-0.0046006	-0.025179	-0.009149	0.012656
0.00084513	-0.00016569	0.00059053	-0.01564	0.013014	-0.022684	0.00078651	0.0060974	0.0071528	-0.012017	-0.017901	0.0053403	0.018008	-0.0033018	0.0090914	0.010158	-0.020343	-0.017969	-0.023965	-0.090831	-0.0064561	-0.018582	0.016067	-0.009861	0.0072971	0.0072074	0.0037184	-0.010669	-0.035355	0.29871	-0.033109	0.002419	-0.0016844	0.0099965	0.0038442	0.028903	0.022683	0.0052385	-0.019793	-0.0021345	-0.018462	-0.063863	-0.048999	0.010224	-0.01611	-0.0017888	0.0012874	0.0019807	-0.013291	0.015576	-0.0067011	-0.019614	-0.068092	-0.0022343	0.020253	0.0014625	-0.0067173	-0.0029938	0.014051	-0.015857	0.0022266	0.0037714	-0.0025028	-0.018635	-0.021015	0.0058439	0.022378	0.0021905	0.013391	0.026924	0.003987	0.00078605	0.0044628	0.0066914	0.028418	0.016899	-0.0021556	-0.030496	0.00048267	0.00041791	-0.0014036	0.0066556	-0.0045615	0.0084519	0.014046	0.0072806	0.014092	0.022766	0.032969	0.01717	0.009468	-0.0088472	-0.0042809	0.011355	-0.0011371	0.027712	0.01576	0.015289	0.0094007	-0.0093158	0.023087	0.0078078	-0.01214	0.0032917	0.013	0.0011268	0.0016896	-0.014354	0.011297	0.015494	0.048727	0.0024919	0.0074118	-0.0064641	0.021688	0.03196	0.022262	0.014094
-0.011044	-0.00025674	-0.0094839	-0.0018637	0.01582	-0.0039511	-0.011002	0.014525	-0.00089237	0.00022843	-0.017109	0.0022782	0.016684	0.0057833	-0.008693	-0.0049706	-0.027838	0.01809	-0.009983	-0.010449	-0.00815	0.0051057	0.0028533	-0.0035462	0.022008	-0.0041392	-0.0057851	0.0014179	-0.0075722	-0.018597	-0.029732	-0.0093382	-0.025805	-0.009713	0.017206	-0.0046389	0.0033544	-0.017585	-0.0051044	-0.024326	0.33215	-0.067906	-0.021607	-0.01875	-0.015839	-0.0039658	-0.0094083	-0.0049596	0.016106	0.020015	-0.0099098	0.0067351	-0.030803	0.0028218	0.017342	0.010602	0.0080511	0.0074632	6.561e-05	0.018204	0.0088819	0.0023509	-0.0011	-0.00083794	0.020434	-0.011375	0.013562	-0.0055629	0.0044789	0.0049414	-0.010748	0.0039103	0.0072969	0.0044129	-0.0040813	-0.00047037	0.015738	-0.0086689	-0.0021703	0.006476	0.011806	-0.0048774	-0.011604	0.029485	0.01114	-0.014323	-0.002124	0.021394	0.0058149	-0.0067622	-0.0047721	-0.0012402	-0.0052019	0.007797	0.014469	-0.014698	0.0046613	-0.025677	-0.014878	-0.013291	-0.010999	-0.02033	-0.016692	-0.0052944	0.0021365	-0.0061861	-0.024811	0.0076996	0.00075416	-0.0050127	0.0022999	0.0060852	0.014921	0.0026356	0.0016168	0.014693	-0.012384	0.016062
0.018503	-0.018084	0.003251	-0.0067356	0.0028127	-0.0077986	-0.006879	-0.031972	0.0032674	0.011733	0.0081878	0.028468	0.0061758	-0.020633	0.012424	0.018292	-0.029352	-0.015476	-0.0043032	0.017129	-0.019781	-0.0026525	-0.021028	-0.0035214	0.0007521	0.0051478	-0.023424	-0.012136	-0.012297	-0.0075364	-0.013881	-0.016134	-0.01125	0.014814	0.012721	-0.0047277	-0.0029239	-0.0017235	0.00093376	0.0023943	-0.0062046	-0.060441	-0.0090708	-0.02648	0.0034067	-0.012329	-0.024822	-0.02162	-0.015895	-0.017308	0.0065746	0.030641	0.00011227	-0.0022154	-0.01391	-0.010208	-0.0075871	-0.013954	0.0027887	-0.016762	-0.0016001	0.030966	0.011814	-0.013646	-0.021568	-0.03349	-0.026476	-0.03878	-0.031507	-0.012531	-0.017086	-0.0050528	-0.0095987	-0.018428	-0.0087771	0.00118	0.028665	-0.0050364	-0.006729	0.015302	-0.046633	-0.017669	-0.0067265	-0.010076	0.016767	0.0029477	-0.0022553	0.012691	-0.044383	-0.0046733	-0.0091561	0.0013458	-0.0078657	-0.026249	0.042309	0.019768	0.021709	-0.060693	0.0072227	-0.0095361	0.24959	0.10367	-0.0018902	0.0025426	0.0098196	-0.030908	-0.02629	-0.012524	-0.013765	0.028035	-0.093989	0.027833	0.0035332	0.027669	-0.049308	-0.01164	-0.0055448	-0.0085213
0.010867	0.0016495	-0.0033905	-0.018757	0.014493	0.0060674	-0.032485	-0.0056874	-0.0085713	0.0033719	0.0062395	-0.0076708	-0.01259	0.0019545	-0.015462	0.005892	-0.00050361	0.020519	0.0061501	-0.0037478	0.0016843	-0.025559	-0.011683	-0.0068463	0.0027264	-0.0091182	-0.00062547	-0.0013837	0.0070436	0.0061977	-0.014809	-0.0045748	-0.013591	-0.014161	0.012944	-0.026964	-0.025429	-0.013357	-0.0031034	-0.0026449	-0.0032017	-0.01905	-0.00078041	-0.02819	0.0062922	-0.0010687	-0.0034387	-0.0022789	-0.0086473	-0.004297	0.30996	-0.0071228	0.003226	0.009244	3.4946e-05	-0.022715	-0.0061913	0.0044504	-0.050871	0.0099	-0.017015	-0.023545	-0.021079	-0.00057963	-0.014435	-0.010867	0.0075055	0.045413	0.0055977	0.018804	-0.014841	0.018036	0.004119	-0.01017	-0.029267	-0.0026654	-0.00738	0.0002658	-0.0011017	-0.0025544	-0.030255	-0.021145	0.015525	0.016202	0.024464	0.0041897	-0.0020696	-0.007604	0.048733	-0.013506	0.031284	0.0010424	-0.026932	0.022133	0.0097274	-0.011212	0.010761	-0.0022851	0.006242	-0.017098	-0.0073031	-0.0097505	0.0054107	0.001677	-0.04379	-0.015532	0.0068698	-0.011249	0.0087338	-0.0022766	0.009692	0.0039275	0.0055292	0.0057301	-0.028373	-0.0087617	0.013919	0.0028841
0.0082558	0.0071502	-0.017042	-0.00063115	-0.033259	0.026226	-0.015325	-0.063595	0.02939	0.0055337	-0.0013678	0.0063223	0.009791	0.020699	0.0040565	-0.0004442	-0.0096432	0.027935	0.0051338	0.0055826	-0.0023832	-0.0056368	-0.0078617	0.041693	-0.001242	-0.0049339	-0.019023	-0.010921	0.05474	-0.0040814	0.0011869	-0.0042301	-0.011422	-0.0055104	0.028752	-0.01524	0.01577	-0.0047805	-0.01984	-0.0051126	0.0069969	-0.028212	-0.030103	-0.0025518	0.013024	-0.0042139	0.030775	0.28616	-0.0075262	0.014949	-0.0079551	0.0018794	-0.0029915	0.0020827	-0.00080971	0.011786	0.016295	-0.0018717	0.0090306	-0.036485	-0.015629	0.023491	-0.016599	-0.011112	-0.015527	0.004286	0.001174	0.038595	-0.0041277	-0.0080873	-0.0097191	0.0057501	-0.0071093	-0.0055971	0.01759	-0.018888	-0.021428	0.022328	0.0015536	-0.016376	-0.012657	0.025285	0.0044374	-0.021176	-0.0073272	-0.016406	0.0036332	-0.0036085	0.014636	-0.0070465	0.00226	-0.0089575	0.015945	-0.0054624	0.00087625	0.0070774	-0.0058523	-0.024884	-0.003609	0.0068705	0.015743	0.013356	-0.01982	-0.0010874	-0.0027723	0.044834	-7.6927e-05	0.002932	0.0066181	0.0043094	0.022207	-0.012866	-0.0039107	-0.0088008	-0.021128	-0.030723	0.032938	-0.019232
-0.013516	-0.021436	0.001114	-0.0044702	-0.0037343	0.01898	-0.055751	-0.03692	-0.003687	-0.032411	-0.019154	-0.0024572	-0.0017984	-0.0053296	-0.0084825	-0.0063278	-0.0010579	-0.01831	0.00053391	0.0085888	0.0071258	0.01584	0.0042009	0.016811	-0.011767	0.01223	0.0052736	-0.033787	-0.004692	-0.010053	0.0034436	-0.0025541	-0.00035417	-0.0021994	0.0025636	0.018521	-0.023823	-0.033916	0.016168	-0.012279	-0.023443	-0.013568	-0.0052698	-0.008266	0.0048042	-0.011085	0.0067442	-0.005359	0.010516	0.014006	0.0035794	-0.0098768	-0.0031371	0.010649	0.0011535	0.020922	0.0046777	0.008835	-0.011912	0.022844	0.043825	0.030604	-0.01502	-0.026677	0.010279	-0.0010302	0.26789	-0.10272	-0.00776	-0.035505	-0.019113	0.0092332	-0.0015926	-0.0074929	-0.011056	-0.01287	0.016193	0.0037114	-0.020809	-0.026883	-0.032077	0.014403	-0.019399	-0.014783	0.0042503	-0.023113	-0.0063074	0.0064198	-0.01466	-0.0054563	0.0027422	-0.017178	-0.02027	0.03834	-0.026068	-0.017821	0.0091581	0.0019335	0.00064115	-0.0025203	0.00053963	-0.0064625	0.01712	-0.04002	0.011055	0.01578	-0.0070142	-0.012531	-0.021773	-0.004454	0.0032474	-0.014774	-0.0020671	0.02172	0.0028329	-0.033135	-0.010205	0.0046866
0.0014511	-0.0052327	-0.034796	-0.027812	0.010894	0.019377	0.0094121	-0.072045	0.0038829	0.007136	-0.019608	0.0036426	0.010419	0.015869	0.03317	0.011387	-0.0049771	0.014098	-0.0043727	0.0081404	-0.0042319	-0.024324	-0.016299	-0.0039206	0.0049167	0.0078271	-0.019905	-0.0013021	0.013793	-0.012371	0.013811	-0.0046086	-0.031256	-0.0026025	-0.0095543	-0.0073606	-0.009252	0.025267	0.0030249	0.0012292	-0.0098033	-0.058154	0.0066256	-0.012428	0.012161	-0.00062898	0.0070884	-0.0046871	0.015777	-0.0026641	-0.0061933	-0.0077244	-0.025441	0.0049078	0.0051691	-0.033765	0.0061052	0.0013367	-0.0086095	0.015391	0.017587	-0.022799	-0.0094133	0.0070181	-0.021238	-0.01729	0.0080341	0.0062326	-0.020143	-0.02337	0.26689	-0.039978	0.012284	-0.00051671	-0.02551	-0.0071575	0.032697	-0.10638	-0.0071343	0.00078613	0.013652	0.0013992	0.0052578	-0.010076	0.00093952	0.00097853	-0.0022894	-0.031225	0.0067446	-0.011596	-0.019542	5.9051e-05	0.010496	0.014964	-0.019353	0.010183	0.0012942	-0.0034355	-0.016763	-0.0048717	-0.012722	-0.007774	-0.0026958	-0.0025914	-0.015802	-0.020372	-0.003394	-0.010046	0.0113	-0.033152	-0.0053514	0.0068766	0.0086455	0.0087315	-0.003596	-0.013736	-0.0092971	-0.0012775
-0.0043936	-0.025797	0.0073048	0.011547	0.024956	-0.0060816	-0.0025858	-0.011861	0.013402	-0.019862	-0.012968	0.024054	0.0019197	-0.0017032	-0.018551	0.026392	3.0951e-05	0.010548	0.014088	-0.014932	-0.0039618	0.0026044	-0.0027322	0.0063545	0.026446	-0.016026	0.0021007	0.0035008	-0.017772	0.00054206	0.0078788	-0.0075487	0.012458	-0.011808	-0.016811	-0.021686	-0.0092479	-0.021395	-0.01733	-0.012964	-0.0034703	0.0078196	-0.016201	-0.00075725	-0.011463	-0.00039211	-0.0049619	0.0095581	0.0059812	-0.004923	-0.021566	0.023089	0.017748	-0.00147	0.00010469	-0.028658	-0.011419	0.015347	-0.026042	0.0023575	-0.0034167	-0.0084997	-0.012168	0.024734	0.0050679	-0.014337	0.012407	0.0085874	0.027403	0.017479	-0.010153	0.02926	0.00097858	0.022584	-0.022404	-0.0074451	-0.0024855	-0.033751	-0.0047898	-0.014016	-0.015712	0.0013411	-0.0099416	-0.010571	-0.0039464	-0.025811	0.0053108	-0.021304	-0.0082544	0.029704	0.046186	0.28573	0.018849	0.004334	0.005131	0.042898	0.012998	-0.031166	0.0091604	-0.0063729	-0.0044055	-0.018398	-0.020339	-0.042981	0.011794	-0.006539	0.030339	-0.02436	0.0091264	0.0034951	-0.0089755	-0.012574	0.0031293	0.035225	0.0093542	0.0011395	0.026326	-0.0024812
-0.01224	-0.0021618	0.010879	-0.0025286	0.039137	-0.0025317	-0.04001	-0.026802	-0.032026	0.0015836	-0.02323	-0.022747	-0.0015404	-0.0040972	0.026538	0.010559	0.025443	0.028911	0.016513	0.032164	0.016652	-0.017954	-0.013159	-0.002265	-0.0031745	0.027616	-0.010454	-0.016605	-0.019271	0.002359	-0.0094029	-0.010882	-0.015312	-0.021188	-0.016954	0.0032515	0.018553	-0.0012824	-0.024779	-0.010333	-0.0048246	-0.16972	0.020873	0.034239	0.0055985	-0.0052983	0.0093588	0.011318	-0.0028594	-0.038791	-0.012712	0.013299	0.091535	0.0057289	0.0073246	-0.00060241	-0.0081822	0.000891	-0.033512	0.0092066	0.021392	0.04028	0.010021	0.0038403	-0.00054245	-0.0076658	-0.022136	-0.0095907	0.013215	0.0056764	-0.029337	-0.0053858	-0.0022731	-0.011522	-0.013119	0.010103	0.0030755	0.046538	0.0045514	0.036602	0.0032092	-0.005135	0.0081445	-0.029052	-0.005537	-0.0044138	-0.0026532	-0.034774	0.01168	0.024782	0.018859	-0.0010031	0.04443	-0.021436	-0.0025594	-0.010106	0.0015774	0.1857	0.028963	0.017578	-0.022383	-0.0030778	0.00050191	-0.020153	0.022316	-0.023109	0.014802	-0.012899	-0.0037784	-0.02291	-0.054461	0.010168	0.020756	-0.0056085	0.0034402	0.016838	0.0071905	0.010745
0.002703	0.0004048	0.0088773	0.036004	-0.017175	0.015792	-0.035805	-0.038355	0.010384	-0.024381	-0.0065884	-0.037198	0.017173	-0.0058103	0.014659	0.27503	-0.012509	0.012681	0.024222	-0.0060939	0.018913	-0.00097499	-0.020421	-0.035927	-0.021983	-0.0056584	0.007209	0.036169	0.00084749	0.0077754	0.047271	0.015054	0.0064861	0.020591	0.0078622	-0.0034528	0.016239	0.012346	0.043215	0.020338	0.0093201	-0.0091685	-0.012508	0.011792	0.011533	0.005866	-0.012732	-0.025051	-0.0027992	0.0077043	-0.0097151	0.0064937	0.0065076	0.0066786	0.00078944	-0.0090152	-0.0048007	0.014216	0.031687	0.026308	-0.018583	0.021129	0.0083359	-0.025738	0.0060171	-0.022045	0.00059246	0.034884	0.0016472	0.003094	-0.015097	0.016707	0.0058054	0.0064956	0.0021201	-0.027242	-0.0070185	0.016412	-0.0015274	0.0010922	-2.5404e-05	-0.0026768	0.0036242	9.2989e-05	0.0040101	0.0034519	-0.011048	-0.0080598	-0.0073808	-0.021984	-0.0124	-0.016551	-0.0039488	-0.026462	0.0015488	0.00014133	0.0019665	-0.012086	-0.012504	-0.015893	-0.020509	0.0062608	0.016065	-0.0156	0.0073444	0.013776	0.008037	0.011507	0.0098926	0.0011108	0.04365	-0.0023298	0.0065681	0.011947	-0.036054	-0.037818	-0.019779	0.015724
-0.025156	-0.0068529	0.033616	0.036989	-0.0021761	-0.019302	0.0056479	-0.041349	-0.0057507	-0.013685	-0.0077569	-0.0081778	0.026799	-0.0017636	0.010525	0.021963	0.0080919	0.022089	0.0050144	0.029215	-0.0034343	-0.014524	0.0025861	0.018435	-0.0059154	-0.0080458	-0.0020444	-0.0024637	0.013006	-0.007083	-0.0032922	-0.0087716	-0.031426	0.0082026	-0.00088221	0.0055767	-0.015096	-0.0045725	0.0020879	-0.00095133	0.00035622	0.019907	-0.0037977	0.012571	-0.016889	-0.0057505	0.019163	0.01469	-0.005504	-0.0075676	0.01403	-0.0039239	0.0028456	-0.0020319	-0.013613	0.0072554	-0.0017391	0.0096111	-0.0048909	0.003153	-0.019106	0.0077477	-0.0021381	-0.0026071	0.0083812	-0.0065421	-0.0007683	0.032028	-0.008841	0.0035176	-0.011259	-0.015327	-0.0046205	0.003247	0.0074169	0.00056623	0.023339	-0.0095985	0.00014826	-0.017313	-0.0033888	-0.0017201	0.030506	0.021742	-0.01547	-0.010057	0.0078263	0.015989	0.010114	-0.0069305	-0.0056624	-0.013802	-0.0097177	-0.022116	-0.013476	-0.018993	0.013234	-0.011379	0.0044847	-0.010025	0.032755	0.020758	0.0044427	-0.020581	-0.026458	-0.074701	-0.0018002	-0.025088	0.005166	0.02014	-0.008872	0.00034723	0.010789	0.0046329	0.28133	-0.025515	-0.0098632	0.037858
0.016645	-0.02336	-0.0010838	0.012526	-0.012749	0.019569	-0.012624	-0.0098301	-0.020659	-0.02741	-0.0058088	-0.004367	-0.0039404	0.014382	-0.0044535	0.0045093	0.012981	-0.029971	0.02411	-0.016779	0.0061749	-0.014477	0.036622	0.011973	-0.0038235	0.025291	0.016974	0.011772	0.002616	0.00091251	-0.033754	0.0004252	0.023116	-0.040866	0.0088062	-0.0065619	0.016724	-0.014205	0.001543	-0.006928	-0.024099	-0.017987	-0.0018491	-0.02391	-0.010254	0.0052714	0.0059061	0.0042936	0.29032	-0.0070763	0.0023251	-0.004656	-0.028089	-0.0058846	0.011456	-0.012913	0.033062	-0.0032599	0.011377	0.015271	-0.0020021	0.012656	0.01314	-0.00098875	-0.016403	-0.016195	-0.021588	0.02153	-0.017981	0.0091126	-0.020816	-0.0035142	-0.001115	0.012701	-0.011946	0.0051673	0.018787	0.0053179	0.012428	-0.014319	-0.0027395	-0.0063453	-0.012985	-0.016795	-0.00018716	-0.0042995	-0.010142	-0.00084131	0.0048044	-0.017848	-0.00089359	0.0048544	-0.029064	0.0083501	0.0025049	-0.000936	-0.0012967	-0.0052786	-0.014962	0.013999	0.0026509	0.0044182	0.004751	0.025862	0.01491	-0.011838	-0.01355	0.014563	-0.010132	0.0061969	-0.023604	-0.010593	0.010905	-0.033454	0.0058622	-0.00070126	-0.00061348	0.015208
-0.0055353	-0.014429	-0.025046	-0.0013996	0.028549	0.0061938	-0.0075112	-0.018191	-0.00081594	-0.013166	0.026611	0.014508	0.0065894	-0.01031	-0.00685	0.012998	0.011146	0.024083	-0.014641	0.0033211	-0.021782	-0.018858	-0.0086919	0.024862	-0.004938	0.016989	-0.067448	-0.057838	0.010187	0.0074608	-0.0071832	-0.0040582	-0.0033593	-0.027463	0.004773	-0.014351	-0.013505	-0.0033673	0.0066382	0.010602	-0.0061677	0.0061956	-0.006412	0.011346	-0.014591	-0.00027736	0.012928	-0.01613	0.013735	-0.0034032	-0.0052327	-0.0078366	0.0091573	0.0037513	0.00084042	-0.017688	0.0018898	0.01176	0.0053526	0.028678	-0.0048553	-0.0018741	0.015893	0.0027502	0.0052023	0.013928	-0.0033638	-0.024995	-0.0015104	-0.009275	-0.02534	-0.011505	-0.0060343	0.005781	0.00070655	-0.011969	0.025906	0.0056548	-0.0038836	-0.0045879	-0.015688	0.013457	-0.035986	0.033481	0.0044844	-0.0079193	0.0028333	-0.021112	-0.035927	0.008971	0.0086275	-0.017314	0.0054221	-0.0034894	-0.0022687	0.0020623	-0.0016456	-0.018187	-0.0044484	0.0095259	-0.015366	-0.030288	-0.0020621	-0.0042537	-0.010759	0.031763	-0.0073321	-0.0029356	0.24164	0.028532	-0.01881	0.11204	-0.061884	-0.030736	0.0044631	0.007803	0.017244	-0.02637
0.016511	0.0072863	-0.0077901	0.013425	0.0021547	0.0049449	-0.028256	-0.03375	0.029253	0.028613	-0.017631	-0.031138	0.017026	-0.01424	-0.0066279	-0.030068	0.23395	-0.051819	0.0033892	0.02022	-0.001402	0.0050094	-0.019629	-0.10409	-0.0095269	-0.010853	0.05427	0.0397	0.007236	-0.0053947	0.023015	0.012036	0.006953	-0.0023047	0.0017027	0.020389	0.0019136	-0.0075776	0.011403	0.0096874	0.023564	-0.012883	-0.013376	0.0071638	0.0022307	0.015599	0.024091	-0.0014958	-0.0073642	-0.00024328	0.00069176	-0.010023	-0.021583	0.0046725	0.016431	0.02385	-0.0053903	0.0020521	-0.0036059	-0.0071122	0.012612	0.017319	-0.032577	-0.025827	-0.051474	0.0049174	-0.0066384	-0.0030967	0.0077757	-0.0019474	0.0029922	-0.0074264	-0.0035714	0.0051275	0.007145	0.012245	-0.026432	0.0031792	-0.012871	0.029702	0.0091873	-0.0068415	-0.02804	-0.024403	0.015157	-0.0041526	0.0042296	0.008467	0.015661	0.007724	0.01529	-0.0036012	-0.0018715	0.013434	0.019676	0.040605	0.016651	-0.036551	-0.0032131	0.012114	0.016311	-0.012866	-0.0016969	-0.0062467	0.014708	-0.00023706	0.017051	0.0085767	0.037053	0.022282	-0.0022708	0.013189	0.0093469	0.019776	0.010096	-0.022132	0.015925	0.0037153
-0.014824	-0.0038893	-0.031659	0.0028764	0.0085402	-0.035184	0.0061778	-0.10876	0.0048338	-0.0027935	-0.022428	-0.00052097	-0.014688	-0.012239	-0.0064222	-0.008188	0.022117	0.01108	0.044889	0.026004	0.00011925	-0.012128	-0.026763	-0.0033262	-0.017665	-0.0092007	-0.017106	-0.0034064	-0.018164	0.00070169	-0.0003697	-0.0011866	0.0077042	-0.011825	-0.010806	-0.0083778	0.023698	0.0090679	0.022055	0.018813	0.0020262	0.037294	0.0045192	-0.0063031	0.0056634	-0.0045791	-0.01008	-0.0002025	-0.0042028	-0.0083483	-0.0068913	0.010681	0.02346	0.00060763	0.0068219	-0.023546	-0.00037737	0.0014176	0.0036384	-0.012631	-0.0075984	0.025075	-0.0014175	-0.0070888	0.0085469	-0.0051161	0.034103	0.031844	-0.018365	-0.0097051	-0.015367	0.012482	-0.0010579	-0.0013573	-0.0035876	-0.013388	-0.0084363	-0.0092784	-0.0061289	-0.025369	-0.028567	-0.031975	0.013146	0.0042398	0.015249	0.024437	-0.0048721	0.0044999	0.0019325	0.0023443	-0.029756	-0.0070041	0.011397	-0.011593	-0.0049101	-0.022504	-0.0031639	-0.027907	-0.0078253	0.019432	-0.0061948	0.0043095	-0.03597	0.011534	-0.018498	-0.0048837	-0.0010853	0.0047997	-0.011854	0.0041445	0.010591	-0.0047082	0.0133	-0.015929	-0.017551	0.23259	0.014096	0.073011
0.00055895	-0.011579	-0.018587	-0.019571	-0.007952	-0.011301	-0.0078012	-0.031627	0.012658	-0.012848	0.27014	-0.026839	0.019503	-0.014152	0.012951	-0.018403	-0.013622	0.0064406	0.014398	0.012336	-0.0030321	-0.0039346	0.019007	-0.0073618	-0.0092277	-0.0047677	0.020916	0.013911	0.025079	0.0068939	0.020861	0.0095317	0.0018764	0.012565	-0.012949	0.0059248	0.0011371	0.012243	-0.0042411	-0.0021844	0.012453	-0.028421	-0.008088	-0.022873	0.0011821	-0.012758	-0.0023525	-0.023896	0.0073868	-0.034274	-0.013845	-0.0061055	-0.0036386	-0.0072538	0.0030771	2.0291e-05	-0.0086123	0.0017174	0.0016512	0.0067057	-0.0046488	0.01264	-0.0028694	-0.014707	0.013296	-0.011042	0.026824	0.019904	0.029185	0.0026928	0.0073052	0.01017	0.0015192	0.0048135	-0.00283	0.0085256	-0.0014063	0.015395	0.0059047	0.0031316	0.016032	0.0098874	0.02749	-0.010399	0.0051566	0.0035794	-0.0028857	-0.013827	0.040691	0.0076797	0.0082158	0.0044527	0.010919	0.0076497	0.0096478	0.00622	0.0022401	-0.0099452	-0.00040017	0.028151	0.0051605	0.0089407	-0.027258	-0.022128	0.0012155	0.0096312	0.016281	0.0068799	-7.0574e-05	-0.005931	0.0035938	-0.018345	-0.0038276	-0.0061656	0.007674	0.0011123	0.0082867	0.0047358
0.023572	-0.0018349	0.0043719	-0.0045957	-0.0076262	-0.02846	-0.036001	0.098619	0.057859	0.033377	-0.015159	-0.011161	0.058175	-0.0037887	0.0049061	0.038865	-0.026005	-0.053694	0.0091929	-0.0017992	-0.016023	-0.01889	0.085278	-0.0034068	0.034936	-0.0066533	0.0071515	0.00082462	0.0052325	-0.03063	0.036196	0.027556	0.0029861	0.0044498	0.025554	-0.0017942	0.0018941	-0.0024204	-0.001316	0.00093441	0.00146	0.0060905	0.013009	0.074554	0.0058717	-0.00014018	0.040696	0.01022	0.0022381	-0.0072057	0.010002	0.032377	0.032606	-0.0017356	0.030762	0.006079	-0.0026935	0.059346	-0.015666	-0.011879	0.009684	0.016491	0.0058069	0.01414	0.0087792	0.0030782	0.033816	0.005953	0.012615	0.0094056	0.04336	0.0015372	0.002868	0.035203	-0.017359	-0.010639	0.0044527	0.01531	0.013953	0.0059516	0.015296	-0.0075948	0.013083	0.0014658	-0.0020625	0.016953	0.029416	-0.011121	0.05304	-0.026211	-0.021358	-0.010549	-3.8537e-05	0.028321	-0.014282	-0.0044913	0.068659	-0.0046793	-0.025712	-0.0044209	0.018414	0.015153	0.0058942	0.018071	0.0026948	0.025144	-0.0028165	0.0075026	0.0067226	0.017533	-0.074445	-0.0068202	-0.02496	-0.006541	0.019181	0.07005	0.09915	-0.041248
0.004602	0.0057808	-0.018678	0.0091066	-0.0099407	-0.023758	-0.0025903	0.0003072	-0.019766	-0.014432	0.0085426	-0.013941	-0.003283	0.0059517	0.011141	0.016362	0.0075401	0.00046844	0.00061514	-0.0050234	-0.011088	0.022683	-0.0035575	0.026511	-0.0052168	0.0010021	0.00090571	0.0070561	-0.016194	0.00038841	0.012219	-0.0028891	-0.017063	0.010454	0.014052	0.012747	0.0025688	0.0027499	0.0053782	-0.0057994	-0.01184	-0.0016466	0.0037316	-0.018079	-0.0061326	-0.00090755	-0.017689	0.014298	-0.0054811	-0.0014817	-0.0043562	-0.002715	-0.0079973	0.0098461	0.02476	0.0031993	-0.0019378	0.003967	-0.0076488	0.002181	0.2542	-0.068655	-0.025583	0.016541	0.017604	-0.011973	-0.015683	0.064389	-0.0013603	-0.015485	-0.040241	-0.022014	0.0046733	0.0065608	-0.02553	-0.012261	0.0021463	-0.005127	-0.02312	0.012375	0.0077934	-0.013721	-0.0033106	-0.0067977	-0.015845	0.0047171	-0.0089758	0.0011045	0.0046114	-0.0043346	-0.013278	-0.001196	-0.002995	0.0038724	0.0015913	0.0046211	-0.0070718	-0.0096434	-0.011822	-0.022531	0.018088	-0.0072516	-0.0065225	0.019556	-0.013437	0.0093349	-0.00127	-0.037493	0.012569	-0.010257	-0.0056006	-0.0095975	-0.011512	-0.0083641	0.0055866	0.0025546	-0.0015899	2.3986e-05
0.0040228	0.0039204	0.0076261	0.0017391	0.0031126	-0.0031238	0.016903	-0.017752	-0.0058048	0.0069673	-0.00037248	0.0028764	-0.0049519	-0.00023935	-0.0013478	-0.0004457	0.00018126	-0.023816	-0.024168	0.0054706	-0.012254	-0.035471	-0.040106	0.020119	0.015725	0.012025	0.017069	0.0062134	0.012453	0.0093201	0.01066	0.0078542	0.0048726	0.0031041	0.0028421	0.006815	-0.0010037	-0.0016429	0.0026787	0.00067577	0.010385	0.015052	0.0015733	0.0041155	0.0047681	0.0019649	-0.0038661	-0.0018041	-0.0023871	-0.00192	-0.0035981	0.0012604	0.0033459	0.001804	-0.003386	-0.00087943	0.00012003	7.6395e-05	0.00034189	0.0027493	-0.0051814	-0.0062673	0.0078742	-0.0033538	0.0050821	-0.0020606	0.00079953	0.0028515	0.0083908	-0.0046506	0.0032769	-0.0051138	0.0027091	-0.0036732	0.0017152	0.0035222	0.0040967	0.0053755	-0.0016758	0.0097326	0.0039225	0.011081	0.0040979	0.0016325	-0.00080608	-0.0018043	0.0011258	0.0065584	0.0025647	0.0023907	-0.001607	0.0058125	-0.0011427	-0.00035704	0.0013098	-0.00076201	2.8134e-05	0.0036057	-0.0024356	-0.0097758	-0.016407	-0.0094037	-0.0018711	0.00024889	0.0022983	-0.00030774	-0.010638	-0.027228	-0.061632	0.0046397	-0.036884	0.06433	-0.14592	-0.037539	-0.025058	-0.060898	0.09118	0.17898
0.0020139	-0.00028668	0.0039566	0.0034679	-0.00062232	-0.0022361	0.0016858	-0.0013975	0.0022526	0.0010724	0.00065809	0.0030791	0.0015914	0.001611	0.0015456	-0.0023531	-0.0002593	1.2988e-05	-0.0038443	0.002676	0.00078341	0.0030677	0.0026188	-0.00013323	0.0034619	0.0048995	0.0077293	0.0028341	-0.00053556	-0.0030095	-0.003698	0.00088484	-0.00067403	0.0012196	-0.00030536	0.0062238	0.0053167	4.8615e-05	0.0010414	0.0039573	-0.0055346	-0.0036682	-0.0050289	0.0019664	-0.0032104	0.0011507	3.731e-05	0.0031557	0.0029465	0.0044055	-0.0068506	-0.0021222	-0.0036713	-0.006111	-0.0053055	0.0016662	-0.0009252	-0.011911	-0.027161	-0.020019	-0.017458	-0.0086296	0.00038528	0.0040594	0.0019638	-0.0029313	0.0070156	0.0047912	-0.0056075	-0.011218	-0.020648	-0.02863	0.27554	-0.024976	-0.022984	-0.017375	-0.010775	-0.0049422	0.0041612	0.0090942	0.0028141	0.0039715	0.0025374	0.00075407	0.0052378	0.0044567	-0.0028958	-0.0077455	-0.009681	-0.0015193	-0.0018226	-0.0019605	0.0019581	-0.0013829	0.0023086	0.003179	0.00013919	-0.0017212	0.0018812	0.00076697	0.0045707	0.001748	-0.0011601	-0.0018894	0.0038704	0.0041448	0.002892	0.0054039	0.008038	0.0023837	0.00017528	0.0031495	-0.00023612	0.0038036	0.0043754	0.0017978	0.002096	-0.001003
0.00883	-0.0035005	-0.0072396	-0.00028489	0.0062896	-0.018256	0.017918	0.0024118	0.024918	0.025923	-0.01618	0.002667	-0.0060765	0.0028706	-0.010945	0.016337	0.00011426	-0.0070914	-0.0090299	-0.071915	0.0090431	-0.028761	-0.0095912	-0.0044231	-0.024106	-0.013172	-0.009765	-0.050312	0.23226	-0.020943	-0.016865	-0.0031244	0.011539	0.01488	-0.018363	0.032215	0.01915	0.014909	-0.0043532	0.0076126	-0.0028989	-0.036773	-0.011603	0.0085037	-0.025222	0.0018688	0.003472	-0.040053	0.00036478	-0.013761	0.0047904	-0.0028563	-0.00029922	-0.0035146	-0.0060311	-0.0040501	-0.0056059	-0.0099389	0.0035949	-0.031105	0.020963	0.00099241	0.0066782	0.0058896	0.00030384	0.0035106	0.0023811	-0.014654	-0.0013366	-0.0088406	-0.021364	0.0015638	-0.0030884	-0.0020478	0.007505	-0.014931	0.00054773	9.3875e-05	-0.021762	0.027049	-0.01776	-0.0060629	0.0033909	0.0076488	-0.014713	-0.005276	-0.0058702	-0.007424	0.00018085	0.002012	0.0029643	0.019718	0.0024067	0.031364	-0.013363	0.018142	-0.019695	0.00011015	-0.00023926	-0.0017266	-0.0055199	0.0068542	0.0016499	0.02822	0.0098183	0.00069003	-0.0054558	0.013673	-0.017463	-0.0037382	0.0099424	0.00032569	0.0041844	0.0093016	0.012715	0.022768	-0.016514	0.0060387
-0.00804	-0.012023	-0.020313	-0.0025921	-0.0062786	0.014009	-0.024366	0.012067	-0.0044014	-0.00088268	-0.0038585	0.0081976	-0.01159	0.012486	-0.022243	-0.0059507	-0.0029016	0.0027868	0.02179	-0.0030306	0.0064291	-0.012059	0.022305	0.012356	-0.030342	0.015751	0.0084767	0.0021019	0.015804	0.0023195	-0.0025268	0.00056021	-0.00067492	0.023922	0.0093949	0.017364	-0.0024495	-0.0069525	0.0041093	0.0064564	-0.0011271	0.014786	0.020569	0.015372	0.01367	-0.0058616	0.0035405	0.0086518	-0.0052182	-0.033276	-0.01904	0.0029393	0.017256	-0.0027741	0.0052463	-0.010536	-0.0028528	0.009805	0.0014099	0.0025102	0.011054	0.0044454	0.0040893	0.0037503	0.029749	0.012492	-0.010036	0.00071372	-0.0046119	-0.00097338	-0.0030872	0.0055987	0.0010729	0.01157	0.0029924	-0.005306	0.0063031	-0.037565	-0.0025002	0.0089958	-0.0024729	-0.025029	-0.032929	0.0074996	0.24735	-0.017997	0.00050717	0.0067679	0.0080415	0.0096781	0.005987	0.0044123	0.029676	-0.01489	0.0088165	-0.016402	-0.0066902	0.0064421	-0.0029041	0.011413	-0.0051637	0.016103	0.0040233	0.022798	-0.024285	0.00071839	-0.0020422	-0.0060159	-0.002371	0.0035454	0.0099556	-0.0083663	0.012367	-0.0072141	0.010608	-0.03105	0.004328	0.0098515
0.011629	0.00042046	-0.0043604	0.0080842	0.0055363	0.0037724	0.0017023	0.018005	0.001901	0.0034251	-0.00010737	0.0031999	0.0028536	-7.5648e-07	0.00012263	-0.0012862	-0.0078714	0.0042896	0.02913	0.032522	0.015033	0.012139	-0.003675	-0.0065991	0.010511	0.0038286	0.0072204	0.0021884	0.0062495	0.0059989	-0.0056097	0.0090942	0.011472	0.0027411	0.005066	-0.0052254	0.011757	0.0051244	0.0034936	0.00082927	-0.011213	-0.037428	-0.0085953	-0.0039787	-0.0077362	0.003621	0.0096079	0.00047047	0.0075435	-0.0029228	-0.01411	0.0099744	0.012438	0.0052928	0.0076662	0.0020301	-0.00070771	0.011567	0.00012174	0.0029067	0.0050261	-0.0029203	0.0047645	0.00051247	-0.0017847	0.0021395	0.0085376	0.011852	0.0021573	0.002624	0.0068738	0.010288	0.0011899	0.011151	0.003312	0.0061543	0.0082588	-0.0052018	0.00075857	-0.0014588	-0.0029078	0.0043375	-0.0010536	0.0082655	0.0043248	0.0025787	0.00133	0.021745	0.010848	-0.01228	-0.01179	-0.015129	0.0062005	0.0057297	0.0049693	-0.0084415	-0.013895	-0.080826	0.24618	-0.069231	-0.043585	0.0024077	0.0060671	0.013718	-0.002011	0.0061987	0.0045933	0.0053822	0.0042578	-0.014705	-0.036058	0.0092911	0.0084136	0.0057995	-0.00033133	0.0036169	0.00213	0.0053013
0.0031329	0.023946	-0.0051852	0.00041856	0.0076467	0.0016867	-1.0918e-05	-0.0013639	0.012728	0.0030679	-0.012128	-0.0067681	-0.010847	-0.00040353	0.00095425	0.00092244	-0.00012093	0.0093133	-0.0033452	0.0010909	0.0052511	-0.015723	0.0086119	-0.0028636	0.0041662	-0.013141	0.01017	0.01222	0.013242	0.0094478	-0.0041967	-0.0029978	-0.0012795	0.015791	-0.0054117	0.0011274	-0.0055542	-0.011407	-0.0059231	-0.011524	-0.0045299	-0.043531	0.24849	-0.034202	-0.010745	-0.011395	-0.0050324	0.012833	-0.0074097	0.0049487	-0.0062485	-0.0098953	-0.051896	-0.0029943	-0.0017015	-0.01764	0.0012699	0.0058481	0.0094608	0.022138	-0.011524	0.0020417	-0.0060546	-0.010429	0.0048739	0.0031929	0.0079572	0.0067005	0.01782	-0.010996	-0.030982	-0.011497	0.0029028	0.02656	0.00067885	0.0071938	0.012723	-0.0074974	0.0080818	-0.019689	0.0040431	0.01329	0.01694	-0.0030772	-0.009533	0.0087293	0.0044688	-0.00090064	0.0098552	0.0021365	-0.0271	0.0098411	0.004226	0.00067682	0.0055269	0.0059081	0.0039297	-0.02238	-0.0034816	-0.0068448	0.0050788	0.0068205	-0.001118	-0.0084317	0.016797	-0.003526	0.0028277	0.0082696	0.013869	0.012759	0.023907	0.0091332	-0.002774	0.012276	-0.0020509	0.00042988	0.015225	-3.429e-05
-0.0027523	-0.011675	-0.007713	-0.0095913	0.0043309	-0.005232	0.0032452	-0.0049488	-0.0069139	0.001571	-0.026116	-0.01893	-0.000518	-0.0012452	-0.01483	0.0091078	-0.01759	0.0045405	0.0072534	0.005006	0.010525	-0.0084345	0.0039806	0.0025784	0.015082	-0.0033793	-0.0016209	0.0038509	-0.0042274	0.013793	0.0045743	-0.011443	0.0060646	0.0078449	-0.014449	-0.0015878	-0.011624	-0.0048245	0.003276	0.0023028	-0.019538	-0.059831	-0.0042316	-0.0018062	0.0026039	0.018587	-0.00054014	-0.009521	-0.016735	0.046713	-0.0064057	0.0058677	0.023754	-2.8433e-05	0.003102	-0.0032341	0.0031998	0.0014223	-0.02081	0.012001	0.0076247	-0.022213	-0.011581	0.02023	0.010024	-0.010048	-0.010078	-0.0037485	0.00076187	-0.0064609	-0.014517	0.01059	-0.0036294	-0.0081145	-0.014349	-0.014419	-0.0052163	-0.0053307	0.023019	0.0017447	0.0032536	-0.012469	0.0083401	0.016375	-0.0072018	-0.00080255	0.012909	0.043985	0.0094247	-0.009407	0.019954	-0.01713	0.0033349	0.010571	0.0080797	-0.0072549	-0.0050358	-0.093552	0.001572	0.21901	-0.039194	0.0025111	-0.0082247	0.0036549	0.012342	-0.0060218	-0.0027426	-0.0030555	-0.014609	-0.0054203	-0.036018	0.0015838	-0.0030452	-0.0030488	0.00742	-0.023058	-0.0020419	-0.0070613
0.0069074	0.010968	0.0048388	-0.015691	-0.00068683	-0.010446	0.018684	-0.013342	0.0010019	-0.017086	-0.0022794	0.0086687	-0.0083086	0.0098816	0.0056365	0.0064886	-0.014058	0.024324	-0.020577	-0.0037065	-0.0027184	0.034052	0.070022	-0.075604	-0.012605	0.015293	0.11435	-0.20228	-0.026683	-0.00021595	0.030047	0.022038	0.024107	0.0005244	-0.0060675	-0.01188	0.015459	-0.0084433	0.019535	0.0064858	0.0078209	0.0045182	0.0082011	-0.024713	0.0035697	0.0031058	0.0023235	0.015933	-0.0043773	0.0083105	0.0038491	0.0055479	0.0057764	0.0003822	0.0018475	-0.007332	0.0039993	-0.0052994	-0.0084719	0.011708	0.00058604	0.020845	-0.010962	0.0045532	-0.0025202	-0.009433	-0.029166	0.0084392	-0.012505	-0.012623	0.004107	0.003885	-0.0024018	-0.0017106	-0.011335	-0.0040481	-0.010012	0.00090488	-0.011335	0.0010236	-0.0045823	-0.0036954	-0.014889	0.0010223	-0.0015325	-0.00014036	-0.00842	-0.019977	0.0068965	0.0011249	-0.0054091	-0.0011763	0.0031855	-0.012137	-0.013456	0.0022939	-0.0033853	-0.011981	-0.0023878	0.00046135	-0.0031079	0.0041462	0.005628	-0.0066883	-0.0031914	-0.0015027	0.00034346	-0.013827	-0.0036277	-0.0083264	-0.00746	-0.0044122	-0.012394	-0.0026445	0.0051281	-0.0047841	-0.012469	0.01739
-0.012057	-0.017059	-0.02085	-0.016784	-0.01377	0.0028724	0.025835	-0.033923	-0.00704	0.007176	-0.01929	0.0018923	0.0083285	0.016008	0.010186	-0.0035963	-0.010635	0.017824	0.027106	0.013177	-0.01941	-0.0023485	0.028276	0.030668	-0.0052276	0.009663	-0.0090188	-0.013678	-0.023301	-0.015525	0.010211	0.0070509	-0.01489	-0.025346	0.019289	0.23957	0.015318	-0.0020207	0.00020743	-0.0088006	0.0014515	-0.0078241	0.0014128	-0.0021854	-0.0044302	0.0047247	0.0051638	-0.016055	-0.0013914	0.0017772	0.015892	-0.0051927	0.0042348	0.0029514	0.011388	0.011177	-0.0003648	0.017266	-0.0071021	0.0053038	-0.027898	-0.0089173	0.027776	-0.012496	-0.0069426	0.0026756	-0.0011253	0.032025	0.00093531	-0.0032824	0.0028559	-0.0036013	-0.0068064	0.0035455	-0.008264	0.0091417	-0.030014	0.029089	-0.0055496	-0.0088801	0.017806	-0.02503	0.0054109	0.0054566	-0.010657	0.0014764	-0.0040997	0.012056	-0.0019786	0.010082	-0.003131	0.018118	-0.00097416	-0.0020505	0.0047237	0.012691	0.0023925	-0.016231	-0.00044184	-0.0097528	0.003724	2.0092e-05	-0.008773	-0.0045547	-0.0046863	0.0072481	0.018838	0.012882	0.0055881	-0.00011881	0.00099271	-0.0032791	-0.014056	0.0042715	-0.012791	-0.015705	0.00040522	-0.01657
-0.022116	0.006564	0.0073571	0.0049106	-0.00039114	0.014008	0.005575	-0.021375	-0.0063941	0.0071945	-0.004912	-0.010196	0.0062752	-0.001531	0.023165	-0.0029632	-0.018415	-0.00048643	-0.0078433	0.019634	-0.012723	0.0022309	0.0070078	0.034629	0.00043946	0.01465	-0.021997	-0.0093552	-0.0091444	-0.01799	-0.011334	0.0042947	0.0079637	0.00057387	0.00094594	-0.03394	-0.0103	0.017061	0.013131	0.013147	-0.00012558	-0.0098043	-0.0060414	-0.03331	0.0041811	-0.00018761	0.0089912	-0.016938	-0.0073248	0.02805	0.0088196	-0.001422	-0.0039535	0.0083173	0.020739	0.010096	0.0019065	0.0065484	-0.0053871	-0.0026142	0.0011033	0.0045696	0.022261	0.0065534	-0.0053764	-0.0014661	-0.0015902	-0.01634	0.0021251	-0.01364	-0.015985	0.039576	0.0020797	0.012981	-0.00096156	-0.0088621	-0.016219	0.0099906	-0.0050786	-0.022702	0.01409	-0.018875	0.00027061	0.0057228	0.02706	0.0094223	0.0022967	0.0039758	0.016148	0.0064227	-0.036812	-0.023542	0.0014704	-0.00056884	-0.024367	0.22672	0.01172	0.0055115	-0.0037273	-0.010376	-0.021305	-0.014432	-0.0082768	0.01549	0.0074241	0.0024813	0.012117	0.015153	-0.014617	0.013664	-0.014642	-0.0035784	0.019458	-0.013979	0.015237	-0.0040574	0.0080692	0.0062278
-0.014593	0.01138	0.015748	0.023175	-0.0039179	0.0049621	-0.00075039	-0.0086689	0.0078882	0.015979	-0.0092329	-0.0031168	0.0027049	-0.0060102	-0.0035555	-0.015454	-0.014546	0.0068877	-0.0031655	-0.0095795	0.0064502	-0.00394	0.0010184	0.019416	0.0088268	0.007406	-0.017593	-0.014116	0.0131	-0.0005202	-0.010245	0.00026398	-0.00085763	-0.00058764	7.1559e-05	-0.019493	0.0047026	-0.011455	0.014394	0.004238	0.013148	0.0029001	-0.007265	-0.019588	0.0083088	-0.0029774	0.0015561	-0.019918	0.0062133	0.0049473	-0.0034491	-0.0064419	-0.0083286	-9.628e-05	0.011909	0.0026922	0.0016588	0.013165	0.0087172	-0.0039233	0.010875	0.008711	-0.0097592	0.0025687	-0.011361	-0.0032948	-0.001275	0.011952	0.0047932	0.0050488	0.0068591	-0.008329	0.0015122	-0.0047583	0.0094044	0.0085854	0.0036809	0.0063924	0.010088	-0.0073734	-0.0049081	-0.0071305	-0.034214	-0.010645	0.0018776	-0.026593	0.00049823	-0.0011562	-0.00020142	-0.009589	-0.017195	-0.018267	-0.0068637	-0.021227	0.00075965	-0.027223	0.0029585	-0.0062079	-0.0027871	0.0082779	0.012514	0.015883	0.026728	-0.010883	0.0088173	-0.0098115	0.23947	0.0049385	-0.0062316	-0.0029026	0.0048987	0.0050178	-0.012304	0.0049419	-0.0074327	8.1432e-06	0.023039	-0.007463
0.007987	0.036422	-0.00093824	-0.0084219	0.004106	-0.0032431	-0.0068902	-0.012448	-0.0074191	0.0047137	0.01347	0.011838	0.0034263	8.8647e-05	-0.0068272	0.0094873	-0.0009188	0.012199	0.0020997	0.0084343	0.003123	-0.024509	0.0071921	0.014179	-0.0032758	-0.00021588	-0.0056289	-0.011386	-0.003692	0.0029597	-0.0087082	-0.0064103	-0.0019601	-0.0090448	-0.0073082	-0.0046176	0.018355	-0.013969	0.0033976	-0.00098952	-0.0041857	-0.010008	-0.0029815	-0.0045321	-0.0042621	-0.0036639	-0.011234	-0.0016581	-0.0061036	-0.0030129	-0.0083716	0.0013985	-0.0021458	-0.00015752	-0.006643	0.012028	-0.0024596	0.0048783	-0.009952	-0.0027571	0.013961	-0.0032068	0.0021216	0.0031991	-0.010443	0.0067401	-0.0064104	-0.00035521	-0.015026	0.0031299	0.019855	-0.0095478	-0.00036522	-0.0036831	-0.0062335	0.004323	-0.0051586	-0.0011161	-0.0015564	0.010289	-0.010501	0.00096035	0.006164	0.0053344	0.0014338	-0.0049793	-0.0062594	0.0075069	-0.0021154	-0.00030222	0.0082173	-0.0012364	-0.0052867	0.007622	-0.002871	-0.01991	-0.0077742	-0.0025976	-0.0048116	-0.014718	-0.043032	-0.02682	-0.0036609	-0.010714	-0.0042544	0.0022304	0.0038722	0.003243	-0.033711	0.23817	-0.037101	-0.015155	0.0025608	0.01477	-0.013214	-0.0044546	-0.028484	-0.010536
-0.012562	-0.016813	-0.014429	0.011054	0.22521	-0.020595	0.0047134	-0.00627	0.01897	0.026223	-0.0074203	-0.02897	0.015716	-0.0031147	0.011586	-0.00055867	-0.013651	0.016183	0.0026914	0.0049452	0.007098	0.01854	-0.0054972	0.0072328	-0.014635	0.002012	0.011953	0.0019227	-0.00063096	-0.00084993	-0.026	0.010242	0.02042	0.002071	-0.0034085	0.010786	-0.0086785	-0.0031805	-0.010172	0.0019869	-0.0040207	0.043521	-0.0045942	0.033115	-0.0072288	-0.004284	0.0073289	0.018353	0.011221	-0.022595	-0.0078982	-0.0022134	-0.0039705	-0.0021205	0.0018451	-0.0079903	-0.00052453	0.0069019	0.0041963	0.0036587	0.0086085	0.016733	-0.0071551	0.0075222	-0.00013861	-0.0047975	0.0049488	0.0097538	0.00017186	-0.028152	-0.0016911	0.01688	0.0036448	0.0090513	-0.0031425	0.0043682	0.016398	0.0056862	0.009748	0.011617	0.00046614	-0.015175	0.02133	-0.0031219	-0.0046621	0.00097724	0.0029469	-0.014679	0.023016	-0.0017786	-0.0022127	-0.023068	-0.010612	-0.0090911	0.0042832	-0.0005095	0.0073296	-0.021968	-0.0041459	-0.00064122	0.014775	-0.010308	-0.022736	-0.00060372	0.010379	-0.011304	0.0041837	0.0048576	-0.0091731	0.0060203	0.019388	-0.017905	0.0093646	-0.014584	-0.020852	-0.038905	-0.0073272	-0.00063966
-0.0098037	0.0095525	-0.0076984	-0.020915	-0.02256	-0.0024236	4.5292e-05	-0.0019363	0.030833	0.010828	0.005152	-0.0027013	0.00078815	-0.0046163	-0.00086725	0.0015348	0.0087558	-0.0045675	-0.033304	0.0066846	-0.005575	-0.026833	0.0092925	-0.004147	-0.01841	0.0014551	-0.040603	-0.033018	-0.00085254	0.011816	-0.017295	-0.0016832	0.0080721	-0.021141	-0.0057764	0.0057632	-0.013784	0.020882	0.0131	0.017124	0.0041692	0.03524	0.007616	0.0092907	0.0018065	-0.0037593	0.0013205	0.0013571	-0.0069382	-0.013385	-0.0064716	0.0067318	-0.0033497	0.0023008	0.0049179	0.00058182	-0.0046435	0.0070271	0.0081737	0.020154	0.0079843	-0.024518	0.01637	0.0063034	-0.0035998	0.015932	0.0090562	0.005196	-0.0033843	0.017136	-0.0052027	-0.0032933	0.0075698	0.026177	-0.011096	0.0011185	0.0075486	0.020043	-0.00418	-0.0061378	0.01347	0.0052166	0.02659	-0.0013401	-0.015699	0.0061782	0.003416	0.003687	-0.0071918	0.0034107	0.01447	0.0074975	-0.00614	-0.012299	-0.031171	-0.028882	0.003126	-0.0079516	-0.0052947	0.0035214	-0.0010051	-0.0018204	-0.015886	0.0070474	-0.0019258	0.017683	0.0090765	-0.0091258	2.1004e-06	-0.0072075	-0.043292	0.041999	0.18896	-0.014422	-0.024324	-0.050386	0.044891	0.076369
-0.024963	0.0038262	-0.0028039	-0.016107	-0.017355	-0.0080791	-0.00071629	0.0003858	0.016719	0.010685	-0.010639	-0.0003276	-0.010032	0.0086601	0.00042558	-0.015562	0.0050771	0.028765	-0.010081	0.014798	-0.0069171	-0.013234	0.015262	0.0079341	-0.016047	-0.018765	0.0050599	0.0076721	0.0045897	-0.0038051	0.018076	0.0093365	0.015456	0.017609	0.0061788	-0.0041603	0.007139	0.021608	-0.01532	0.0048049	0.0095489	-0.009179	-0.01581	0.025521	-0.009412	0.0094721	-0.0048242	0.0080917	0.022438	-0.015828	-0.0031688	-0.00036367	0.0065762	-0.0053673	-0.0019503	-0.0077819	0.0024459	0.016077	-0.0040281	0.010307	-0.0065915	-0.0053484	0.0060462	-0.013202	0.011962	-0.016572	0.014849	0.0022915	-0.0084237	-0.01021	-0.03945	-0.00086976	-0.0083841	-0.016129	0.010926	-0.00086003	0.015333	-0.075529	-0.025564	-0.0037006	-0.0072058	-0.0012737	-0.010431	0.0081439	-0.008596	0.2103	0.024599	-0.012073	-0.001383	0.0033702	0.013653	-0.0012546	0.011784	-0.011079	0.007521	0.00020492	0.019829	0.004129	0.00070664	-0.00060376	-0.0017738	-0.0082617	-0.00024309	-0.019258	-0.00023016	-0.00086927	0.030204	-0.0059351	0.0011155	0.0054265	0.00051234	-0.0035942	-0.0098645	0.012653	-0.0079399	-0.0311	-0.016266	-0.00084268
-0.010433	-0.036136	-0.0074859	0.021204	-0.0068583	0.0091132	-0.019992	-0.033126	0.0012783	-0.0062441	-0.020235	0.20282	0.029622	-0.009084	0.013401	-0.012996	0.0037576	0.034234	0.02063	0.016971	0.016836	-0.0011426	0.0028821	-0.0097032	-0.0095227	9.4685e-05	0.026755	0.0078333	0.02598	0.00717	0.00024486	0.0036726	-0.023508	-0.0016273	-0.0019347	-0.026437	-0.020826	0.0029791	-0.0083618	0.0072608	0.00028559	0.0083565	0.0029362	0.020064	-0.0037869	-0.0028275	0.00038341	-0.0368	0.0076231	0.00081693	-0.0066333	-0.0022643	0.00051271	0.0063218	0.0064504	0.016641	-0.0030879	0.017122	0.0081455	0.019387	0.0051976	-0.00442	-0.0014646	-0.0079248	0.0089155	-0.02046	0.00776	0.036693	0.033708	-0.0025457	3.5312e-06	-0.0060684	0.0024909	0.012246	-0.00027584	0.0083277	-0.011471	0.03697	0.010005	0.01647	0.016273	0.0039607	0.023057	-0.0039482	-0.011339	0.00078148	0.0077521	0.010046	0.028007	0.0086263	-0.00078697	-0.018909	0.014934	-0.012341	-0.0048967	0.0041504	0.0352	0.005592	0.0051644	0.018493	0.014729	-0.013098	-0.0097655	0.010679	-0.011629	0.018965	-0.0033194	-0.010052	0.00048355	0.0054693	0.024251	-0.016736	-0.00075814	-0.0033262	-0.01744	-0.020958	0.0044519	-0.0051154
-0.016289	0.0096761	-0.019246	-0.013015	-0.016778	0.013583	-0.0072463	-0.01805	-0.0010942	0.016254	-0.0023108	0.026328	-0.00079166	-0.0093288	0.0020986	-0.0013444	-0.0015777	0.013455	-0.0046527	0.012099	-0.021338	-0.011238	0.010696	0.0072845	0.019602	-0.016416	-0.027961	0.017897	-0.0096314	-0.0070182	-0.0015459	0.029219	0.21436	-0.025492	0.0013843	-0.0042099	0.017968	-0.048091	0.012666	-0.0040644	0.0037695	-0.033749	-0.0049851	0.013615	0.0017317	0.0047854	-0.005415	-0.010299	-0.021189	-8.0034e-05	0.0059014	0.001125	-0.016559	-0.00074348	0.0080405	-0.016513	-0.0096782	-0.0072708	0.0040286	-0.00044481	0.016807	0.0094617	-0.0059029	-0.006759	-0.029412	0.013089	-0.009986	-0.0020625	0.021991	-0.012436	0.005538	-0.012505	0.0024849	-0.0052099	-0.0045638	-0.0044327	0.008932	0.0025965	-0.020979	-0.0081511	-0.0010534	-0.0086356	0.023896	0.023639	0.0037166	-0.017636	0.0054552	-0.0046546	-0.0091582	-0.0037793	0.008604	-0.0048847	0.0017057	-0.0064751	-0.0097634	-0.016626	0.0050035	-0.00089463	-0.011216	-0.015184	0.0016526	0.010797	-0.014563	0.005386	-0.0041791	0.004655	-0.0048855	0.0019488	-0.0075235	-0.0127	0.0095742	-0.016201	-0.010369	-0.026832	0.025601	-0.013268	-0.0060225	-0.010768
0.014963	0.0087814	-0.027252	-0.0014524	0.011895	0.00088883	0.012875	-0.0019223	0.0033207	-0.012699	0.0007416	0.00895	-0.0042565	0.0028255	-0.0058362	0.015874	-0.0053965	0.00011342	-0.019741	0.0087387	0.00023458	-0.0086087	0.012899	0.0012043	-0.010064	-0.0011966	0.013165	0.0039886	-0.010912	-0.01648	-0.011492	0.0018963	-0.019904	-0.012138	-0.018646	0.016766	0.013949	0.010654	0.013065	0.014901	-0.010219	0.0038998	-0.017522	-0.00075711	0.011559	0.0028844	0.016689	0.021937	0.013872	0.041622	0.012446	0.00037563	0.0027983	0.0057242	0.014153	-0.0082413	0.011156	-0.0044333	0.0070006	-0.0053975	0.0024021	-0.027996	0.0038129	-0.0068367	-0.005409	-0.007336	-0.021034	-0.057815	0.2112	-0.02078	-0.015666	0.0087351	0.0022463	0.0047914	0.0077463	0.009791	0.02188	-0.043521	-0.021012	0.010263	-0.0059723	0.0074714	0.0043643	-0.0090091	0.0054107	-0.0058038	-0.0040651	-0.0031934	-0.021496	-0.014471	-0.006451	-0.022002	0.01441	0.005592	0.0038937	-0.0091945	-0.018082	-0.0016088	-0.0080379	-0.0097845	0.0012471	0.0097546	0.0078117	-0.010824	-0.003775	-0.020813	0.0021439	0.0056908	-0.007293	0.0071941	-0.013305	0.0051814	0.011665	0.025747	0.0056084	0.022458	0.0024183	0.0079389
-0.017681	-0.0081333	-0.0041159	0.00045417	-0.0042313	-0.0080653	0.0016979	-0.0013488	0.0055581	0.0070553	0.004661	-0.0058613	0.0067645	0.0088036	0.01159	-0.013006	-0.0020588	0.006609	0.0014153	-0.0029948	0.0088773	-0.002176	-0.00037437	0.015123	0.0041465	0.0068201	-0.022807	-0.0095236	-0.0077238	0.0054602	-0.0050092	0.012614	0.028519	0.00094722	0.010365	-0.011063	0.014786	0.020525	-0.010327	0.0089566	0.0040527	0.015415	-0.0071278	0.0018228	0.00049806	-0.0070488	0.0086323	0.0026447	0.021412	-0.0062757	0.0004868	-0.01932	-0.0063409	-0.0010002	-0.0034271	-0.028174	0.0013691	0.0097967	0.020016	-0.00067638	0.014041	0.010745	0.0020493	-0.0041271	0.0030152	0.016542	-0.009816	0.0015799	-0.0091598	-0.0032026	-0.0031663	-0.012577	0.0013156	0.011146	-0.0010971	-0.0035803	-0.02728	0.030662	0.010352	-0.013744	0.016754	-0.0089111	0.0017347	0.011103	0.0061637	-0.010948	0.013957	-0.010771	0.021436	0.0023764	-0.0039162	-0.016239	-0.00080457	-0.01038	-0.026582	-0.0029828	0.0047904	0.0059109	0.00028898	0.014855	-0.0099437	-0.0021222	2.1673e-05	0.0085365	0.0014912	-0.031219	-0.018955	-0.010602	0.010635	-0.0077339	-0.0048478	0.011016	-0.019484	0.22608	-0.014396	-0.0048234	0.0057794	0.023583
0.0054648	-0.0054499	0.019736	-0.013161	-0.0024735	-0.015317	-0.0086792	0.0042113	-0.025145	-0.0079505	0.0065978	-0.0076126	-0.012189	0.0010247	-0.01203	0.0042024	0.0085421	-0.019585	-0.0096239	-0.0048873	-0.0030736	-0.0010047	-0.014873	0.0031361	-0.0041689	-0.0076238	-0.0069923	-0.0089542	0.0073019	-0.0012915	-0.013879	-0.016099	-0.013707	-0.020057	-0.0035831	0.0053302	0.0144	-0.0026203	-0.019671	-0.011642	-0.0083316	-0.0093151	-0.0049436	-0.034367	-0.0068947	-0.011269	-0.0068764	0.0075854	-0.011473	-0.022633	-0.01335	-0.017533	0.0034927	-0.0085955	-0.010319	-0.01374	-0.0058253	-0.010541	-0.00041931	-0.0072442	-0.0024091	-0.0051066	0.020992	0.0031495	-0.0067904	-0.0027783	-0.026491	-0.0035414	0.011186	-0.023547	-0.0091972	-0.00052749	-0.0027774	-0.017915	0.0023198	-0.012383	0.0038193	0.0022734	-0.021671	-0.018194	-0.012136	0.0036738	0.0089576	-0.019009	0.015323	-0.014402	-0.0080249	-0.0094393	-0.02821	-0.011704	-0.008864	-0.012843	-0.0041816	-0.0036809	-0.0289	-0.016249	0.21253	-0.031692	0.00087459	-0.0081258	-0.038469	-0.023165	-0.013292	-0.0034447	0.0061937	-0.015874	0.0014464	-0.0064009	-0.0057961	-0.013832	0.0014378	-0.011476	-0.0015842	-0.0065014	-0.010161	-0.0031629	-0.022196	0.00099939
0.0054032	0.0032568	0.0091748	-0.029518	0.018733	0.001446	-0.0047152	-0.022281	-0.0040324	-0.0093247	0.014455	-0.00093896	-0.0047127	-0.0070025	-0.0095595	0.011982	0.014535	0.019028	-0.019593	0.0094785	-0.0031566	0.00028135	-0.0030977	0.0077191	-0.015746	0.0063339	-0.0056723	-0.0025672	-0.02594	-0.0065803	0.007252	-0.0013278	-0.0088072	0.019623	-0.0031199	-0.0013569	0.012359	-0.004328	0.00093984	0.00115	0.0034883	-0.012071	-0.0005334	-0.01227	-0.0004496	0.0015048	0.029059	-0.0086278	-0.015983	-0.009856	-0.0022631	0.013577	-0.0030044	-0.0014781	0.0029928	-0.0062522	-0.0085298	-0.009571	-0.00448	-0.0065089	-0.010845	0.011297	0.0089898	-0.01509	0.00028553	-0.033162	0.018434	-0.0086282	0.010267	0.0025776	-0.0066723	-0.0099313	-7.4336e-05	-0.0051806	-0.0064861	-0.0019252	0.0037197	-0.00077474	0.0060765	-0.020967	-0.0048203	0.029193	-0.042039	-0.0066987	-0.022801	0.0095446	0.0020277	0.026046	0.0050815	-0.0014805	0.012562	0.027057	0.010762	-0.010949	-0.015696	-0.017721	-0.0014653	-0.00026335	-0.012278	-0.0094745	-0.013496	0.00081729	0.0045936	0.21577	0.0024331	-0.01382	0.0061874	0.0081136	-0.0079269	0.004082	0.0073591	-0.0069211	-0.0050297	0.0030917	0.012794	-0.015385	0.022469	-0.020057
0.0044363	0.0085616	-0.024234	-0.0017302	-0.00098894	0.0081074	0.00034753	-0.039216	-0.018461	-0.021306	-0.002028	-0.0081882	0.010612	0.0054567	0.012945	-0.0043157	-0.0069051	-5.0325e-05	0.018421	0.0023431	-0.0054245	-0.0085144	0.0029988	-0.049929	0.21145	-0.012723	-0.019265	-0.019019	0.017374	-0.008482	-0.0069477	0.0029568	-0.018293	0.012833	0.022146	0.0065539	0.0022039	0.0068968	-0.01209	2.9682e-05	-0.013779	0.016024	-0.0062488	0.011044	0.0021063	-0.012974	0.0068577	-0.0059231	0.0020378	-0.019098	-0.012949	-0.0043303	0.0039854	-0.0090834	-0.0027537	-0.017689	-0.010791	-0.0075076	-0.0023038	-0.0030027	0.00068851	-0.014033	0.00071091	-0.013449	-0.0070927	0.0099214	0.004336	-0.0015809	0.0038734	-0.012622	-0.027049	0.024539	-0.001468	0.0047239	-0.0094434	8.8784e-05	0.024688	-0.0064298	0.0076058	0.010197	-0.0023097	0.0020082	0.0043828	-0.0038575	0.01256	0.0077136	0.0005139	0.0096967	0.01634	0.0088614	-0.00057551	-0.014043	0.0031673	-0.0075382	0.014233	-0.0014533	0.00019177	0.0036822	-0.013425	-0.010106	-0.0076455	-0.00040313	0.021406	0.017467	0.0061395	-0.0021723	0.0013023	-0.0088979	0.00095111	0.0055317	0.015867	-0.0027048	0.018216	-0.0021945	-0.0056107	-0.012464	-0.016205	0.0059486
0.0017434	-0.002039	0.0078124	0.0074441	-0.0053849	-0.0061507	-0.0035326	-0.006352	-0.0066	-0.011883	-0.0028008	-0.0012224	-0.0068163	0.0022383	-0.0088238	-0.0030734	-0.0096829	-0.0024838	-0.0023424	0.0036814	0.0036723	-0.010426	-0.0075681	-0.0039858	-0.0082162	-0.0086455	-0.0052761	-0.0023807	0.0033701	-0.004781	0.0053156	-0.0036826	-0.0099614	-0.0083751	0.00054691	-0.0078738	-0.013896	-0.0030972	-0.002399	-0.0036742	-0.0078812	0.0016209	-0.0034468	-0.004112	-0.0017407	-0.0017082	-0.0072096	-0.0014932	-0.012161	-0.040974	-0.012876	0.0001626	-0.019848	-0.0081145	0.22463	-0.02993	-0.0093048	-0.010521	-0.0046255	-0.0217	-0.037467	-0.016236	-0.018639	0.0058691	0.0066773	0.0031276	-0.00024093	-0.00336	-0.0095996	-0.014782	-0.015828	-0.013212	-0.0046072	-0.0030428	-0.0019142	-0.0052229	-0.0093925	-0.0022962	-0.0071244	0.0037187	0.00080958	-0.0074359	-0.00087435	-0.0015836	-0.0095992	-0.0042665	-0.0062848	-0.01545	-0.0020528	-0.016119	-0.0055634	-0.0019095	-0.014134	-0.0011888	0.0031982	-0.0094652	-0.0097188	0.002869	0.0040002	0.0027058	0.0023249	-0.0072744	-0.00060095	-0.0041351	-0.0063832	-0.0066345	-0.010517	-0.0070491	-0.0028838	0.0038342	-0.0027715	-0.0053897	-0.0047437	0.0027815	-0.00047948	-0.014849	-0.0086452	-0.002561
0.0001649	-0.0068964	0.021461	0.0061539	0.0088369	-0.015541	0.0095777	0.012151	0.003226	0.012171	0.0055342	0.01719	0.005024	-0.0024465	-0.011293	-0.022327	-0.00046696	0.0058815	-0.00082374	-0.018635	0.0005629	0.021633	-0.012204	0.0092839	0.017293	-0.008581	-0.012654	0.004772	-0.00041577	0.0040955	0.0020243	0.0037155	-0.027371	0.010943	-0.00081091	0.010749	-0.023226	-0.061845	0.20604	0.036881	-0.0020405	-0.031273	-0.0066507	0.0059468	-0.003277	-0.0058973	-0.0075807	0.015628	0.0016269	-0.025923	-0.0032014	-0.0030637	-0.010614	-0.0071733	-0.0095857	-0.020796	-0.0073495	-0.0051131	0.0063857	-0.0018463	-0.0023581	-0.0010942	0.014035	-0.0093521	-0.0034407	0.009497	-0.020842	0.0012344	-0.0021419	-0.017348	-0.0021291	0.0021967	-0.00057542	0.0016347	0.00050861	-0.001465	0.0045779	-0.00062428	0.0028048	-0.013585	-0.011347	0.014409	0.0030644	-0.020766	0.0021313	0.020692	0.0043899	-0.0030223	0.01858	-0.0040572	0.0033697	0.0080121	-0.017341	0.0079552	-0.010174	-0.002619	0.0037424	0.013886	-0.00014563	0.0016271	-0.009973	-0.0068444	-0.0097834	-0.0061839	0.0022899	0.0057912	-0.012458	0.00067526	-0.0036461	-0.0060419	-0.0059874	-0.0047017	-0.0012526	0.01104	0.00118	-0.001569	0.0055472	-0.007213
-0.00021278	-0.020882	-0.002519	0.013134	0.0061516	0.017146	-0.022766	0.0019345	0.0038795	-0.009969	-0.001764	0.0042633	-0.00078273	-0.0053612	0.0032284	-0.021248	0.0041406	-0.0055027	-0.014008	0.00098602	0.0016733	-0.0088145	0.0099257	0.024488	-0.0025764	-0.012787	-0.013324	-0.003565	-0.0025977	-0.009921	-0.013432	0.0012433	-0.026261	0.010007	0.00074071	-0.017269	0.21251	-0.037893	0.010012	0.010943	-0.0048565	0.008937	0.0042336	-0.0041116	0.0061542	0.014785	-0.0030309	-0.022694	-0.018845	0.0015598	0.0013891	-0.0064544	0.0088432	0.00064116	0.0080134	0.013612	0.0027548	3.8729e-05	-0.0041828	0.0057344	-0.0042439	-0.0062792	-0.019938	-0.0089283	-0.0079332	-0.016679	0.0078769	0.010014	-0.0032191	0.0032605	0.0042254	0.016794	-0.0036083	-0.0039959	-0.0065764	-0.0024216	-0.010778	-0.0057034	0.031669	0.0042212	-0.0036973	0.0055038	0.020491	-0.0066623	0.0033244	0.0063803	0.0023442	-0.0024005	0.012004	-0.0069853	-0.019413	0.0092422	-0.022735	-0.0042382	-0.0046354	0.0012646	-0.0098111	-0.0095569	-0.0080894	0.00061809	-0.00020517	0.0017222	0.0085803	-0.016091	0.0022796	-0.0094126	-0.016997	-0.010013	0.012349	-0.014218	0.0028726	0.0097467	0.0088091	-0.010044	-8.2976e-05	-0.023371	0.0077292	-0.0039223
0.018873	0.19844	0.010935	0.014758	-0.0033884	0.0088621	0.0027067	-0.015238	-0.013631	-0.027323	-0.015999	-0.01803	0.029736	0.014114	0.008535	-0.023927	-0.0071317	0.014061	0.018269	0.0070177	0.008571	0.0054728	0.0053998	0.020914	-0.014215	-0.0022595	0.0089675	0.0088278	0.016487	0.0013441	0.0010659	0.0086625	-0.011933	-0.0070739	-0.0080052	0.0039648	0.0035677	-0.0034823	0.0058329	0.0048119	0.0033475	0.0088208	-0.016681	0.0084231	-0.0036448	0.007381	-0.0020502	-0.031437	0.014509	0.02073	-0.008477	-0.0066622	0.012398	-0.001554	0.0046543	-0.026009	-0.0049135	0.0082829	0.0024274	-0.0045715	-0.00038792	0.020581	-0.0073239	-0.0027148	-0.0066077	-0.021699	0.0086339	-0.0033623	0.004315	0.0079815	0.0026467	0.0097437	0.0037784	0.011728	0.00053441	-0.00069788	0.016864	0.015644	0.0073564	0.0053149	-0.01864	-0.0048323	0.020435	-0.0060945	0.0068572	-0.00089469	0.0054645	-0.0021668	0.020286	0.01435	0.004653	0.012905	0.010188	-0.0098302	-0.019515	-0.0065928	0.017734	-0.0017949	0.0085314	0.015063	0.028917	-0.00043092	-0.029684	0.00039924	-0.027705	0.013162	-0.014906	-0.011832	0.017927	-0.016794	0.017533	-0.0052957	-0.0059681	-0.00039238	-0.010623	-0.018553	0.010859	-0.0081311
-0.013378	0.0086084	0.0036381	0.0044929	0.0036646	0.006419	0.0054555	-0.012901	0.0085389	-0.0053558	-0.00082553	0.010438	-0.013113	0.0037037	0.0028452	-0.00086107	0.0060001	-0.001642	-0.0017109	0.00096679	0.0042091	-0.012389	0.013108	0.005731	0.012345	0.0035744	-0.015808	-0.015775	-0.013825	0.008153	-0.011759	0.0033073	-0.0091666	0.01074	-0.0080955	-0.010831	-0.0026088	-0.0014051	-0.00036594	0.0031826	-0.0069142	0.0032932	-0.0056998	-0.0062599	0.0009787	0.0035302	0.0018355	-0.0014203	-0.009805	0.0079311	0.0020799	1.3423e-05	-0.0087393	-0.003213	0.0095343	0.0034957	-0.0022058	0.0022088	0.00023484	0.00087631	0.031065	-0.013602	0.0024036	-0.00065328	-0.0017892	-0.023607	0.0052419	0.0049865	-0.010808	0.0051723	-0.0019485	0.0019371	-0.002422	0.003498	0.0021864	-0.0038376	-0.0079216	0.0049445	-0.009622	0.01458	-0.0052996	0.0048778	-0.0073215	-0.0041693	0.0029313	0.0019509	0.012089	-0.016456	0.0092995	0.0013884	0.012678	0.014582	0.0156	-0.013505	-0.0012339	-0.019603	0.012929	0.0016968	0.00074544	-0.00019175	0.00038677	0.0099037	0.0050007	-0.020091	-0.017365	-0.019829	-0.017786	0.21864	-0.011834	-0.0091896	-0.0052824	0.016788	-0.01237	0.00085181	0.0091506	-0.011572	0.0080681	0.006197
-0.014333	-0.001893	-0.012755	0.014812	0.026884	0.01625	-0.0026723	-0.024595	0.014538	0.00072051	-0.0010179	0.0019953	0.0044737	-0.0039413	0.0017693	-0.0032651	-0.00548	-0.0013317	-0.0015451	-0.0061669	-0.0050053	0.015818	-0.0040146	0.0026534	0.0068479	-0.008254	0.0037942	-0.010886	0.0022912	-0.018245	0.0016189	0.0026965	0.0054894	-0.010787	-0.011135	0.0073924	-0.0030272	0.016859	0.016261	0.013776	-0.0090072	-0.0098495	0.0047863	-0.011959	-2.403e-06	0.0025926	0.0075349	0.0083947	-0.001315	-0.010066	-0.011335	0.01161	0.014256	0.00010058	0.0083057	-0.0091917	0.0012353	0.0019867	-0.0048431	0.012369	0.0049612	-0.021806	-0.013165	-0.016102	0.0010214	-0.0075417	-0.00026124	-0.028192	-0.0030974	0.20184	-0.015593	-0.035805	0.0024142	-0.0057085	-0.0032814	0.006273	-0.0051172	-0.030716	-0.015813	0.00044183	-0.0085218	0.020823	0.01572	0.017032	0.0063295	-0.0057011	-0.0051531	0.0075836	-0.0033455	0.0056687	-0.017209	-0.019177	-0.018616	0.0069112	0.0067311	0.0076135	0.021222	-0.0059184	-0.0079132	-0.0034011	-0.0026469	-0.0071323	0.0016622	-0.0017224	0.00043561	0.015298	-0.0034071	-0.0025078	-0.0076048	-0.0068897	-0.0038793	-0.012734	-0.013491	0.0081475	-0.0018159	-0.00054596	-0.0011156	-0.0037928
-0.011257	-0.0078276	0.003397	0.0048935	0.018323	-0.010278	0.014775	0.0043526	0.0022289	0.014693	-0.013511	0.0037354	0.0095417	0.0065765	-0.0053716	-0.018907	0.0061988	0.013959	-0.022823	0.0045088	0.0064941	-0.0069396	0.0055901	0.018817	0.0043342	-0.02281	-0.041477	-0.010221	-0.0031169	0.012881	0.19227	-0.0018125	-0.019306	-0.015613	-0.0025959	-0.013326	0.005949	-0.007216	-0.018119	-0.032581	-0.00074479	-0.01939	-0.0084694	-0.017044	-0.0091891	0.0015009	-0.0023722	-0.013825	0.021964	-0.0028968	0.0034177	0.0051123	-0.01093	-0.0024184	-0.008361	-0.00933	0.0020177	0.00063137	0.0038573	-0.00016252	0.0013227	0.0060314	0.014293	0.012987	-0.019413	0.019053	-0.0082626	-0.0069618	0.009679	-0.0017697	-0.015008	0.0064962	0.0049337	-0.0047034	0.0076383	0.0022671	0.0072916	0.0083294	0.0035307	0.002775	-0.028751	0.0076168	0.018979	-0.009304	0.018843	-0.016406	0.009072	-0.0028659	-0.0036726	-0.0002239	-0.016402	-0.0082469	-0.016189	0.012935	0.010032	-0.0042732	-0.0095265	-0.0043456	0.0023541	-0.0058854	0.0038363	-0.0075834	-0.016371	0.0038955	-0.0031556	0.0099165	-0.00031192	0.012785	-0.0076581	6.3699e-05	0.01444	-0.0083762	0.015009	0.000546	0.0015569	-0.0039342	-0.0064781	0.012077
-0.0013284	-0.0041372	0.012479	0.0096274	-0.002987	-0.0074818	0.016568	-0.00022557	0.0071709	0.00036922	-0.0056467	0.0060805	0.0084565	0.002694	0.0010799	0.0086998	-0.0028165	0.00032939	0.0047534	-0.0095156	-0.011562	-0.0019831	0.0058728	0.016104	0.006987	-0.024508	0.0055772	0.0007108	-0.0023779	-0.0075191	0.007075	-0.0056062	-0.013565	0.0088911	-0.0026432	-0.0028625	0.01358	-0.0055911	-0.0080833	-0.002759	-0.0011561	-0.0043445	0.023459	-0.004804	-0.0015459	-0.0050774	-0.012329	-0.0004639	5.7759e-07	-0.010052	-0.020224	0.0013578	0.013336	-0.0022081	0.0074002	0.0021399	-0.0022066	-0.011127	-0.0055648	-0.0089073	0.0069175	0.025425	0.00922	0.0010748	-0.009935	-0.0064247	0.0027608	0.0069895	0.0096449	0.011049	0.0087709	-0.0020883	0.002482	0.010328	-0.022126	0.017956	0.0069139	-0.0036005	0.0073868	-0.014687	0.0011915	-0.012041	-0.0084257	-0.00099756	0.0040593	-0.0059305	-0.0041222	-0.0064641	-0.015373	-0.0044982	0.19453	-0.051373	-0.029899	-0.010697	-0.02458	0.026421	-0.010646	-0.02612	-0.0074674	-0.024008	-0.0035566	-0.0090644	-0.010664	-0.0073463	-0.015443	-0.006219	0.006284	-0.0020303	-0.0050472	-0.012647	-0.002263	-0.0036162	-0.0054704	0.0025684	-0.0050321	0.017367	0.0069184	0.0008915
-0.016883	-0.028399	0.00326	0.18369	-0.036581	-0.0041485	0.008542	-0.0067075	-0.013155	0.018682	0.0032333	-0.043738	0.00186	-0.0097569	0.0037648	-0.029852	-0.0039504	0.0091681	0.0030332	0.0052385	-0.0068174	-0.0093416	0.0081448	0.0016496	-0.0080267	-0.0073038	0.0011613	-0.023679	-0.0044004	0.016992	-0.0032307	-0.0056503	0.01683	0.023904	-0.011775	0.0070738	-0.017075	-0.018944	-0.011214	-0.0054605	0.0056973	0.00091518	0.00059891	0.012994	-0.0096055	-0.00041037	0.0075419	0.0033744	-0.0085635	-0.0045235	0.0029773	-0.0028303	0.009151	-0.0051404	-0.0070158	0.0036001	-0.0026341	0.0037206	0.0038083	0.0035794	-0.010733	-0.015684	0.013679	-0.011798	0.004596	-0.029206	0.004903	0.012988	0.018385	-0.0020809	0.016448	0.0034295	0.0015277	0.0024103	-0.0099729	-0.0062879	0.03291	-0.0024415	-0.012639	0.0047449	-0.0093325	-0.0078895	0.0011036	0.00040339	-0.0056425	-0.0016103	0.0063864	-0.013337	0.010206	0.0071676	-0.0057242	0.00072251	0.0021799	0.020504	-0.013035	-0.0032802	0.0077338	0.0034068	0.0007133	0.0061862	0.0022252	-0.001869	0.00095686	0.025149	-0.0018973	-0.022268	-0.018568	-0.0047495	0.0044804	0.014927	0.0049097	0.0014969	0.0082432	-0.0067756	-0.041149	-0.0086667	0.00026971	-0.0084031
0.0014014	0.017047	0.0063417	-0.0092007	0.013329	0.0018677	-0.016724	-0.012111	0.0041926	0.0087589	-0.0037649	-0.0045408	-5.6259e-06	-0.0072019	0.0064046	-0.0017119	0.012594	0.00062165	0.0042216	0.0029361	0.0014962	0.003634	0.0047175	-0.012014	-0.00332	0.0012231	0.024761	0.0026538	0.0040357	-0.0031209	0.00037398	-0.00098869	0.0059416	-0.005048	-0.0034065	-0.027759	0.015337	0.004499	-0.0031851	0.0001971	-0.002043	-0.0061225	0.001924	0.0047734	0.0035253	-0.0095112	-0.002714	0.010872	-0.0032298	-0.0042654	0.001603	-0.0077988	-4.0055e-06	-0.0013995	0.016196	0.025184	0.011307	0.00071435	-0.0080055	0.0034658	0.0026625	-0.078793	0.19063	-0.024857	-0.0016527	0.0098303	0.010453	-0.0030599	-0.012306	0.0015458	0.0030712	0.015995	-0.00078324	-0.0020126	-0.0080465	0.0024994	-0.0081	-0.0032847	-0.012531	-0.0074539	0.0030861	0.0050305	-0.0060951	0.011642	-0.00070132	-0.014731	0.0057399	0.018852	0.017956	-0.0037752	0.0040527	0.0084362	-0.0031165	-0.0033436	-0.0013647	-0.015879	-0.014391	-0.001805	-0.0055779	0.0036902	0.012741	0.010338	-0.017984	-0.012915	0.0041582	-0.0059342	0.0082112	-0.0090922	-0.00030307	-0.006653	0.013688	-0.00023821	-0.014685	0.0048671	0.0025331	0.0047688	-0.0021516	-0.01254
-0.010696	0.00014342	-0.019391	-0.0076826	-0.012317	0.0014727	0.0002548	-0.00026619	-0.0078776	-0.0075745	-0.004855	-0.0027636	-0.0064806	0.0071436	0.002947	0.0023396	-0.011021	0.0068053	0.0021502	-0.013838	0.011507	0.00026793	-0.0055691	0.0014025	-0.012687	0.011953	-0.0062629	0.0062883	-0.0047917	8.1095e-05	-0.0012265	-0.0026632	-0.0076078	-0.0089296	0.0021557	-0.013171	-0.007015	-0.018365	0.00028174	-0.0017056	0.0016892	0.0018241	0.0013761	-0.016399	0.0069279	-0.0042364	0.20801	-0.028718	-0.013827	-0.015532	-0.014472	-0.0053759	-0.010939	-0.0038364	-0.0092363	-0.018084	0.0011812	-0.009877	-0.0039381	-0.0022795	0.0061885	-0.0045888	0.0013129	-0.011346	-0.010623	-0.0066381	-0.0096387	0.013511	-0.0091917	-0.0078057	-0.015226	0.0014708	-0.00019575	-0.01291	0.00081563	0.0070039	-0.0042528	-0.0028408	-0.0069434	-0.0020733	-0.0031373	-0.0078291	0.0045467	0.014486	-0.003816	0.0022547	-0.0072897	-0.0073903	0.0076415	-0.0081291	0.011775	0.0027695	-0.011831	-0.0024746	0.0063043	-0.0056557	-0.0058407	-0.0068946	-0.0034672	-0.0048435	0.0057793	0.00030872	-0.0065433	-0.028766	0.0033218	-0.0017108	-0.0063301	-0.0070083	-0.011637	0.0024685	-0.0039779	-0.0086777	-0.0016532	-0.0092069	-0.016203	-0.00054641	-0.0034556	0.001617
0.0045711	0.00088868	0.0024745	-0.0060963	0.0026056	-0.0022461	0.005702	-0.0015639	-0.0013491	-0.0044644	-0.014242	-0.010223	-0.0022269	-0.0055389	-0.0073001	-0.010961	-0.0053442	-0.013184	0.0030722	0.004954	0.0059902	0.0011879	0.0065287	-0.0021238	0.00033708	0.013223	0.0068218	-0.0016547	-0.00092691	-0.007346	0.0027002	-0.0038249	-0.0033831	-0.010405	-0.0050578	-0.0070655	0.0026106	0.008584	-0.0058019	-0.0040525	-0.0022785	-0.017213	-0.011944	-0.0024991	-0.003012	-0.0065389	0.0013226	0.00082734	-0.015951	-0.029866	0.016179	-0.0042507	-0.022446	0.0068519	-0.010478	-0.00010835	-0.0087015	0.022905	0.17493	-0.012778	-0.012422	-0.013856	-0.0050575	0.0060496	-0.0030018	-0.008052	0.011955	0.0041333	0.0062374	0.0019292	-0.010284	-0.0092795	0.0026264	-0.0073815	-0.11405	0.00053102	-0.012955	-0.00044206	0.0016168	0.0095727	0.0051165	0.0033229	-0.00097743	-0.009469	0.0036218	0.007475	-0.0019568	0.0054774	-0.0057673	0.0044121	0.0030475	0.0056329	0.0059985	-0.0019251	0.0048945	0.0050423	-0.0035481	0.0077853	0.0033047	0.0085678	-0.0073816	-0.0025141	-0.0091891	-0.0065619	-0.0090101	-0.0010655	0.00093654	-0.0012998	0.00021095	0.0031391	-0.0096167	-0.0035585	-0.0081146	-0.011859	0.010341	0.00045949	0.0054759	-0.010995
-0.0058875	-0.021359	-0.0077798	-0.022425	-0.011995	0.0017303	-0.017126	0.014647	0.0044852	-0.0026681	-0.017969	-0.028814	-0.011653	-0.00038255	0.2066	-0.019149	0.00019009	0.009202	-0.004064	-0.0010449	0.0012665	-0.00786	-0.0044953	-0.00080233	-0.013146	-0.02087	0.0036706	0.0034668	0.013562	5.214e-05	0.003585	-0.0059136	-0.0007779	0.0012032	-0.0039469	-0.0086669	-0.012191	-0.010136	0.015956	0.0019426	0.00048834	0.010346	-0.0041781	-0.010691	0.00047603	-0.00076941	-0.010551	-0.0059533	0.0049374	0.014139	-0.0097685	0.0063175	0.0011961	-0.0010095	0.0027501	-0.0029796	0.0020348	-0.0038888	0.0034563	-0.00055351	-0.01542	-0.0076073	-0.012635	-0.00092054	0.0059702	-0.0020028	0.0022699	0.0043244	0.014632	0.00097793	-0.016264	0.0071544	-0.0014012	-0.0026426	-0.010238	-0.00068434	-0.01406	-0.0015071	0.0012968	0.0029212	-0.011572	-0.0065778	-0.011862	0.010706	0.0081358	-0.011661	0.0014264	0.0042616	0.01206	0.004875	0.0099703	0.012856	-0.0025407	0.006017	1.9433e-05	-0.022004	0.012611	-0.0061352	0.0023445	-0.00022382	0.0016518	-0.00096644	-0.0021096	0.0087755	-0.010656	0.0083834	0.0011622	-0.00016481	0.0025048	0.013165	0.0021426	0.0042526	-0.0054622	-0.0080553	-0.002651	-0.00062782	-0.0042364	-0.00012197
-0.0077391	0.017005	0.0034189	0.0015368	0.0023628	-0.009991	-0.014975	0.01358	0.0020142	-0.0046789	-0.010382	-0.0077774	-0.0078069	-0.010213	-0.00064398	-0.0055815	0.0034313	-0.011437	0.015715	-0.017456	-0.0082388	-0.009309	0.0035691	-0.00048467	0.0014373	0.0054781	-0.00068568	0.0050518	0.018355	-0.0049521	0.00674	0.0079862	-0.0032756	0.01155	0.0055068	0.00033337	0.0071161	-0.0022329	-0.0044933	-0.0079296	-0.01091	0.0010408	-0.036151	-0.0070148	-0.0043437	-0.0043289	-0.0004886	0.023089	-0.015907	-0.023738	-0.0067829	-0.014045	-0.034311	-0.00023472	-0.00026169	-0.0030989	-0.0072901	-0.012131	-0.020298	0.18887	-0.023148	-0.012063	-0.011385	0.0066775	0.0063689	0.0021297	-0.008478	0.0019277	0.0028734	-0.016339	-0.017646	-0.039272	0.00061065	-0.0044867	-0.019272	0.010731	0.0031305	-0.0040604	0.0017828	-0.0016094	0.012633	0.0038638	0.013043	-0.011197	6.397e-05	-0.011131	-0.0045171	0.0063765	-0.0035846	-0.005349	0.0058058	-0.0027637	0.021234	0.00041114	-0.017418	0.014846	-0.008	-0.0013115	0.0021991	-0.005775	0.011533	0.0098344	-0.0092713	0.008172	-0.002711	0.001103	0.0058558	0.004924	-0.017341	0.00072479	-0.0097403	0.00087635	-0.0094822	0.0020523	-0.0034328	0.02529	-0.002163	-0.0083436
0.010132	-0.0025287	-0.0046328	0.0012045	0.0020475	0.0054531	-0.0034925	-0.0010724	0.011879	-0.0022968	0.0070818	0.00063136	0.0041336	-0.00078786	-0.0020643	0.0023811	0.010891	0.0048302	0.019063	0.0048635	-0.0062554	-0.011923	-0.013812	0.019204	0.0041344	0.0070381	0.01126	-0.013899	-0.0094839	0.0028618	0.008722	0.0084567	0.0045216	-0.0042558	0.0043694	-0.0023101	-0.0021618	0.0055363	0.0050466	0.0020951	0.0013461	0.0050001	0.00089993	0.001709	0.0037915	0.0019576	0.0068969	0.0010296	0.010247	-0.0065965	-1.2411e-05	0.0033371	0.00082161	0.0009263	0.0059147	-0.0043836	-0.0013048	0.0002734	0.0038464	-0.0053391	0.008362	0.0078506	-0.0040403	0.0079592	0.0033456	-0.00559	0.0040536	0.0049753	0.0035205	0.0070208	-0.00052348	0.0049265	0.0029617	0.0070912	0.0030662	-0.0039687	0.0032745	0.0065498	0.0022439	0.0077638	0.0029264	-0.0037988	0.0035614	-0.00034593	0.0047157	0.0048653	0.0032812	-0.00033275	0.0038787	0.0052473	0.0013271	0.0035007	0.0040289	0.0047933	-0.0011907	-0.00097332	0.010175	-0.0050294	-0.0032201	-0.0024482	-0.0057214	-0.0043291	-0.017633	-0.0034117	0.0028641	0.0056397	-0.0024453	-0.016645	-0.089784	-0.0028443	0.038885	0.17238	0.0038005	0.00063197	0.013534	0.0095764	-0.022962	-0.072085
0.011195	-0.018542	-0.0006031	-0.003081	0.0033343	0.009638	0.019558	0.0021658	0.0077279	0.0013204	-0.0072479	-0.012851	0.0015619	-0.0027427	-0.010329	-0.00090106	0.0072073	-0.004226	-0.0095327	-0.01502	0.01247	-0.0017804	0.0030644	0.010694	-0.00022468	0.001038	-0.015919	-0.00032228	-0.0090732	0.00010711	0.01225	0.0015774	0.00014891	0.017894	-0.0041398	-0.0048272	0.010042	0.0033248	0.022007	0.0079362	0.0044897	0.0094634	0.0022412	-0.015454	-0.0036985	0.0065397	-0.0015449	-0.014687	0.023293	0.0022335	0.0039561	0.003507	0.0066894	-0.0034474	0.0068348	-0.0013291	-9.7549e-05	-0.012428	-0.0086841	-0.015556	-0.0092126	-0.0085785	-0.0040104	0.0047728	-0.0098233	-0.0064343	0.012693	0.0046308	-0.018461	0.0061505	-0.016307	0.009419	-0.0037227	-0.0021775	-0.011372	0.010288	-0.013881	-0.019921	-0.011572	-0.0079304	-0.0031176	-0.0059958	0.011196	0.018613	-0.023257	-0.025287	-0.0090153	0.0069652	0.021316	-0.0013878	0.013979	-0.026775	0.19047	0.0056667	-0.0070874	-0.0065014	0.0090714	-0.012951	-0.0082635	-0.018818	0.01202	-0.0062236	0.0015831	-0.01668	-0.0078561	-0.0036835	-0.0011863	-0.016974	-0.0013994	0.0059227	0.0018279	-0.0091303	0.00043881	-0.0026039	-0.0036029	-0.01537	0.011664	-0.008847
-0.0056855	0.0045467	-0.002667	0.012515	-0.0010255	-0.008411	0.0082382	-0.013955	0.017687	0.014133	0.012029	-0.0076531	0.0062848	-0.004936	0.0027428	0.0086906	-0.0034089	0.01031	-0.017672	-0.0089863	0.0084356	0.0036023	-0.0016785	0.00043762	-0.010349	0.0055378	-0.0034246	-0.013046	0.0022348	-0.0050908	0.0050798	-0.011066	0.0047845	-0.0071358	-0.00048624	-0.0089454	-0.0031899	-0.0065139	-0.0076171	-0.0032027	-0.005272	0.0029749	0.0036205	0.016596	0.0084618	-0.0061032	0.001561	-0.0015438	0.016189	-0.018352	0.001946	0.0025923	0.0044392	-0.0062359	0.0031963	0.0041892	-0.0052471	-0.0038073	-0.030217	-0.015792	-0.0031619	0.0092642	-0.019883	-0.0010643	0.0096829	0.00093948	-0.013299	-0.0071422	0.00018306	-0.021803	0.0011241	-0.011789	-0.0045652	-0.011201	-0.038297	0.010373	-0.0001841	-0.023725	-0.017891	0.006619	0.0028556	0.0024958	0.016065	-0.019652	0.0011511	-0.0025635	-0.0048631	0.18329	0.0088352	0.0094457	-0.0065725	0.007125	-0.016562	-0.034594	-0.023948	0.0005374	0.0043857	0.01712	-0.0070002	-0.019374	-0.0076186	-0.012531	0.012507	-0.028084	0.0028191	0.0044245	-0.004942	0.01392	0.011056	-0.012167	0.003231	0.0046269	-0.0066708	0.0075072	-0.013486	0.0025138	0.015135	-0.017603
-0.0073633	-0.0070247	-0.0069921	-0.0015719	-0.015458	0.0094369	0.0056367	-0.01072	0.0029161	0.0027963	0.0090729	-0.00095093	0.0064109	0.0023395	-0.001911	-0.0020324	-0.019717	0.002352	0.0088187	0.0035731	-0.0034645	0.0056038	0.00085706	0.018603	-0.0059344	-0.011066	-0.0094241	0.0029769	-0.016959	0.002426	-0.0023751	0.0057257	0.0021096	0.013768	0.0083621	0.0026033	-0.0022093	-0.002858	0.0079481	0.0074107	-0.0024405	0.014297	0.019454	-0.0054618	0.0024828	0.01727	0.0052799	0.013511	0.0079508	0.0034112	0.015976	0.011056	-0.0081552	0.0054989	0.003945	-0.0065958	0.0021039	0.0041213	0.0057653	0.018843	0.0020656	0.0081763	0.013099	-0.012421	-0.011988	0.0054944	-0.0061668	-0.04404	-0.020762	-0.0040131	0.0012918	0.013598	0.00081198	0.0070781	0.0042669	0.00058667	-0.0077572	-0.0035781	0.011112	0.18325	-0.021838	-0.010274	-0.028729	-0.0019751	-0.015834	-0.0012831	-0.0032579	0.00072292	-0.0053513	-0.0065845	0.0075564	0.0050523	0.0026536	-0.014236	-0.018106	0.0021388	0.0173	-0.013964	0.00088072	-0.0037381	-0.015241	-0.0066075	-0.01768	0.0063209	0.014995	0.0019885	0.0050244	-0.01287	-0.00043145	-0.006006	0.015942	-0.014862	0.0050672	0.0040171	0.017789	0.010397	0.0058414	0.008487
0.0053327	-0.025317	0.17999	-0.032753	0.0013485	0.021657	-0.0029434	-0.030681	-0.014803	0.028677	-0.00058845	-0.015077	0.015608	0.003833	-0.0018832	-0.011863	-0.0052415	0.013664	0.022155	0.015127	-0.0032333	-0.01371	0.0099132	0.0015367	0.0048195	-0.0076749	0.001975	-0.00065231	0.012273	-0.0045475	-0.00033276	0.012665	0.01451	0.015869	0.0049639	0.011044	-0.00051747	-0.0004287	-0.0086687	-0.0013372	0.0015798	0.0077236	-0.0015066	0.0064123	0.0002404	-0.0075815	0.019202	-0.0017036	0.0013882	0.011611	-0.0027671	-0.013758	-0.0090619	0.0011387	0.0047655	-0.0040623	-0.003918	0.0069211	0.0062512	0.0055503	0.020605	-0.0013005	-0.0094156	-0.00039547	0.0075287	-0.0064485	-0.004385	0.0072815	0.021389	0.010589	0.0036885	0.01363	0.0034079	0.0077957	0.005077	0.01467	0.0052903	-0.023596	0.0022191	0.0059576	-0.0014804	0.011693	-0.004974	0.0077781	0.0041568	-0.0061988	-0.010551	0.0049336	0.0049329	0.0012552	-0.008702	-0.0018513	0.0010995	-0.001485	-0.0055282	-0.005731	-0.0058848	0.00026417	0.0009311	0.0078665	0.0068378	-0.00025045	0.0027395	-0.0068948	-0.0032247	0.008032	-0.016326	-0.001461	0.016376	0.0063714	0.010283	0.0085512	0.010142	-0.0027276	-0.025353	0.012362	-0.0031774	0.0047934
0.18275	-0.027371	-0.0089332	0.005581	-5.7913e-05	0.0098139	0.013261	-0.027765	-0.0010319	-2.4591e-05	-0.0037148	-0.0070714	0.0043315	-0.0080466	0.0054866	-0.014707	0.0012898	0.010124	-0.0065171	0.0020359	-0.0069963	-0.0077659	0.014852	0.025158	-0.0048366	0.011159	-0.017132	-0.0026915	-0.0066752	0.0091968	-0.0013266	-0.00073954	0.009535	0.011523	-0.0051379	-0.0073086	-0.011987	0.0088466	0.00010155	0.0070662	0.01141	-0.0023029	0.0048212	0.023685	-0.0072915	0.0039387	0.0096422	-0.011749	-0.0073787	0.0023574	-0.0053098	0.008869	0.027367	0.0032525	0.0039104	0.012252	-0.0050821	0.0025798	-0.0032992	0.024877	0.00018113	-0.0049944	0.0008475	-0.0020954	-0.002849	-0.012345	-0.011905	-0.016887	-0.010218	-0.0040021	-0.0080278	-0.014112	-0.0014781	0.0038063	-0.010108	-0.0073537	-0.0069431	0.0081213	0.003841	-0.013082	-0.020096	-0.0045291	0.0012564	-0.00068061	0.0040106	0.010305	0.0068272	-0.003345	0.00032952	0.0070428	-0.0048252	-0.0018958	-0.01781	-0.0035592	0.0026727	0.001113	0.0012124	-0.0044223	-0.0064704	-0.0097141	-0.0092759	-0.0056366	-0.0042108	-0.013052	-0.0030453	0.01101	0.010955	0.0077838	-0.0063153	-0.0070061	0.024814	-0.018331	0.003451	0.012418	0.011251	-0.0076254	-0.0034609	0.0097385
0.0034499	-0.0013872	-0.01181	0.0094913	-0.0017589	0.011748	-0.00058782	-0.001058	-0.0017598	-0.0049546	-0.0017174	-0.0070365	0.0044613	-0.0043838	-0.0021719	0.018386	-0.0062905	-0.0087825	0.00071143	0.0055969	-0.008467	-0.0015536	0.0068392	0.0087342	-0.0012865	-0.0067041	-0.0025834	-0.0067792	0.012706	-0.0048381	-0.0010989	-0.0028127	0.00051292	0.0018124	-0.00047598	-0.0082405	-0.0018555	7.854e-05	0.0053649	0.0042978	0.00084466	0.0014999	-0.0087621	0.0052426	0.010391	0.0056813	-0.0065532	0.004816	-0.0058447	0.018372	-0.00095242	0.017425	-0.013511	0.001365	-0.0036728	-0.0089364	0.00073732	-0.0029682	-0.017426	-0.019314	0.0014802	0.0022137	0.0050838	-0.0065351	0.00040359	-0.00023756	0.010821	0.009222	-0.012319	-0.017812	-0.011588	-0.023418	0.00022673	-0.0023502	-0.023011	0.19337	-0.012679	-0.010041	-0.0034352	0.00069391	-0.0012615	0.0030939	0.0076266	0.00096192	0.0070501	-0.0027401	0.0088554	-0.024341	-0.010031	0.0045943	-0.018576	0.0057317	-0.009571	-0.008535	0.006342	0.0014804	0.011769	0.0014057	0.0036416	0.015307	-0.0062239	-0.0098198	0.00022677	0.0091726	-0.0021849	0.0075358	-0.0057068	0.0010842	0.0019875	-0.0046224	0.002745	0.0055842	0.0018628	0.003059	0.0010863	0.0030265	-0.0049983	0.00080173
