-0.16572	-0.25547	-0.12649	-0.069462	0.11682	0.097323	0.28032	0.22603	0.26168	0.050417	0.040544	-0.1629	-0.17288	-0.14492	-0.10483	0.39924	0.4298	0.28303	0.64809	0.67111	0.51587	-0.040542	1.0465	1.7225	0.12159	0.1291	-0.1578	-0.13303	-0.25479	-0.12196	-0.16103	-0.088405	-0.043132	-0.21755	-0.42315	-0.22836	-0.028653	0.026154	-0.12065	-0.1338	-0.078414	-0.04992	-0.12814	-0.14362	-0.095435	-0.0079422	-0.070709	-0.14475	-0.08944	-0.020823	-0.029675	0.024398	-0.16463	-0.19893	-0.11704	-0.18006	-0.011116	-0.09071	-0.13317	-0.091858	0.021523	0.011693	-0.074622	-0.2821	-0.16979	-0.095338	-0.16077	-0.12805	-0.15257	-0.2094	-0.11375	-0.10643	-0.063	-0.090913	-0.14981	0.0050118	0.030765	-0.1668	-0.21742	-0.062665	-0.066982	-0.17379	-0.14871	-0.074422	-0.096624	-0.067967	-0.089022	-0.19054	-0.097282	0.038767	-0.099633	-0.12068	-0.074948	-0.11433	0.015255	0.062236	0.08852	0.1253	0.13383	0.18329
-0.075326	-0.13787	-0.12327	-0.10916	-0.12696	-0.062404	-0.12058	-0.11766	-0.089456	-0.13692	-0.16714	-0.18275	-0.13763	-0.16657	-0.14962	-0.098543	-0.13528	-0.17254	-0.063819	-0.059792	-0.078775	-0.094774	-0.073963	-0.069366	-0.10418	-0.068092	-0.098656	-0.0698	-0.080781	-0.067477	-0.04736	-0.036276	-0.12243	-0.2597	-0.42076	-0.28146	-0.14284	-0.10568	-0.067965	-0.10429	-0.041171	-0.10257	-0.1734	-0.12711	-0.081599	0.10453	0.08673	-0.074774	-0.16957	-0.11016	0.79765	1.1822	0.24499	-0.014985	-0.14904	-0.096671	-0.12268	-0.070183	-0.075285	-0.061984	-0.10036	-0.12122	-0.14891	-0.16131	0.067729	0.3833	0.95513	1.2225	0.21474	-0.013809	-0.10881	-0.15844	-0.11498	-0.059879	-0.064408	-0.057574	-0.11415	-0.13627	-0.1263	0.72782	-0.06317	-0.12636	-0.109	-0.10298	-0.085172	-0.19486	-0.39462	-0.39122	-0.2173	-0.15471	-0.11022	-0.048589	-0.075215	-0.10135	-0.10151	-0.052891	-0.050518	-0.05878	-0.091899	-0.096454
-0.067771	-0.01231	-0.048926	0.40679	0.2699	0.26473	0.014149	-0.025209	0.031112	0.79449	0.82889	0.33304	0.094393	0.63449	1.5461	0.22789	0.044206	-0.061953	0.0099085	0.05109	0.28929	-0.060853	-0.32112	-0.30261	-0.1998	-0.19986	-0.11164	-0.18637	-0.10045	-0.04285	-0.092118	-0.046607	-0.11723	-0.26936	-0.26511	-0.14226	-0.091956	-0.045767	-0.059954	-0.10772	0.0015083	-0.07944	-0.18565	-0.20777	-0.042059	-0.033831	-0.11216	-0.1484	-0.072566	-0.10814	-0.044228	-0.017991	-0.11065	-0.099929	-0.050459	-0.0023781	-0.0027597	-0.065289	-0.040786	-0.16154	0.02017	-0.073255	-0.12588	-0.13696	-0.10274	-0.15401	-0.0954	-0.072644	-0.084236	-0.076302	-0.11597	-0.22178	-0.1069	-0.026443	-0.072586	-0.07001	-0.012935	-0.14635	-0.1813	-0.069586	-0.12436	-0.099289	-0.13209	-0.043357	-0.080682	-0.10662	-0.22453	-0.25679	-0.15733	-0.18246	-0.17183	-0.060287	-0.13188	-0.097566	-0.16285	-0.27647	-0.18735	-0.18146	-0.15756	-0.24873
-0.058342	-0.02825	0.013899	0.013484	0.037022	0.053177	0.062883	0.1564	0.047539	0.17641	-0.0075357	-0.088618	-0.16378	-0.032871	0.20588	0.05189	0.13729	0.15003	0.069548	0.080729	-0.070035	-0.040998	-0.20925	0.13007	0.26442	0.11065	0.0038271	-0.0030128	-0.22218	-0.018856	-0.057559	0.15468	0.22221	0.55656	1.0041	0.42877	-0.18905	0.17924	0.1739	-0.0076213	0.20832	-0.024939	-0.032848	0.1639	0.29481	0.54104	0.047315	0.16038	0.1895	0.089244	0.20613	0.28026	0.020164	-0.03601	-0.2061	-0.068149	-0.13381	-0.052641	0.0542	-0.011632	-0.0037026	-0.35656	-0.64322	-0.62651	-0.10941	0.083201	0.065644	-0.081114	-0.060181	-0.25024	-0.31599	-0.30718	-0.18394	0.041369	-0.12632	-0.026553	-0.0012464	-0.088639	-0.13569	0.20582	0.15537	-0.036201	-0.028426	0.39971	0.10689	0.30011	-0.079079	0.19941	0.034438	0.14647	0.10336	0.10239	-0.12032	-0.033134	0.16187	-0.021478	-0.22813	0.18472	0.062126	-0.034713
-0.057188	-0.1246	-0.19912	-0.063354	-0.09196	-0.079502	-0.14566	-0.067563	-0.16052	0.037509	-0.15268	-0.080959	-0.0062148	-0.03892	0.034426	-0.081548	-0.17227	-0.091273	-0.095097	-0.12715	-0.012268	-0.01476	-0.11848	-0.083197	-0.15107	-0.189	-0.085147	-0.10102	-0.12359	-0.12846	-0.031694	-0.14992	-0.13083	-0.36095	-0.62527	-0.33562	-0.17505	-0.03723	-0.062554	-0.019875	-0.048152	-0.019314	-0.10767	-0.13267	-0.087622	-0.0034772	-0.090607	-0.14302	-0.071653	-0.0067129	-0.16893	-0.10892	-0.15941	-0.085832	-0.10292	-0.0044594	-0.0033883	-0.048785	0.03142	-0.13661	-0.12789	-0.12004	-0.12284	-0.24302	-0.14276	-0.081014	-0.1174	0.09808	-0.21857	-0.094083	-0.17019	-0.15058	-0.15149	-0.062509	-0.13847	-0.19173	-0.081914	-0.083709	-0.016871	0.11049	0.39292	0.021465	0.061392	0.7272	0.34137	0.64881	0.48932	0.091063	0.50702	0.40369	0.62347	0.50691	0.10797	-0.11699	-0.093316	-0.083258	0.32854	0.43384	0.038668	0.030998
-0.061003	-0.060682	0.09564	0.12432	1.1928	0.37697	0.35035	0.072537	0.11688	0.13307	0.12207	-0.058105	-0.082329	-0.073616	-0.48452	-0.10385	-0.10613	-0.028332	-0.1154	-0.21185	-0.21033	-0.17634	-0.28039	-0.14705	-0.073808	-0.066394	-0.07367	-0.018149	-0.020032	0.0060255	0.038511	-0.037738	-0.045803	-0.10699	-0.077518	0.0011199	-0.14377	0.041061	-0.054701	0.010602	-0.030408	0.071784	-0.071015	-0.13461	-0.032814	-0.020679	-0.0083066	-0.034038	-0.067963	-0.0033038	-0.077518	-0.0068987	-0.03112	-0.092257	-0.0028873	-0.045556	0.037998	-0.017182	-0.042876	-0.049078	0.0086882	-0.0026791	-0.059213	-0.094955	0.0054483	-0.051054	-0.066449	0.026088	-0.088638	-0.1107	-0.11267	-0.056481	-0.083178	-0.15824	-0.080611	-0.078379	-0.10598	-0.038124	-0.044871	-0.064848	-0.025867	-0.040192	-0.0082706	-0.067803	-0.035708	-0.057484	-0.099818	-0.085182	-0.14187	-0.056358	-0.024211	-0.03621	-0.038687	0.067117	0.43341	0.15653	0.12889	0.10452	0.23627	0.44147
0.079613	-0.01614	0.29609	0.10673	-0.048901	0.0054442	-0.046412	-0.035396	-0.088038	-0.034897	-0.043041	-0.0065873	0.017742	0.086976	-0.030941	-0.035417	-0.07236	-0.019401	0.002722	-0.038999	0.0008686	-0.13056	0.0015569	-0.022539	-0.0018495	-0.024668	0.025045	-0.019308	-0.0031083	0.016298	-0.034844	-0.062624	-0.051741	-0.053999	-0.15362	-0.042058	-0.023856	-0.022919	0.01105	-0.063131	0.09048	-0.029157	-0.032473	-0.078761	0.013433	-0.010067	-0.059866	-0.053403	-0.041352	-0.0088201	-0.038135	0.017989	-0.028584	-0.029588	-0.079362	-0.05327	-0.069754	-0.079541	-0.023707	-0.09451	-0.10749	-0.131	-0.12841	-0.12048	-0.096663	-0.082079	0.008469	0.012483	-0.23779	-0.12219	-0.22556	-0.19574	0.216	0.95988	0.56801	0.7225	0.52667	-0.0010821	-0.096007	0.024645	-0.029505	-0.093258	0.0048615	-0.035793	-0.02036	-0.086156	0.0053793	-0.039289	-0.064347	0.046291	0.020099	0.07682	0.18393	0.31259	0.15402	0.17881	0.047258	-0.00073485	0.072401	0.084611
-0.037434	-0.12813	-0.11898	-0.048254	-0.037331	-0.045851	-0.057453	-0.073326	-0.058609	-0.073228	-0.0807	-0.11136	-0.11199	-0.040502	0.0032772	-0.074728	-0.087831	-0.08446	-0.04493	-0.077027	-0.051361	-0.15909	-0.080847	-0.066061	0.13518	0.093979	-0.00029446	-0.12669	-0.13452	0.061509	0.33824	0.76665	0.50588	-0.1357	-0.3842	0.05128	0.57849	0.85218	0.24145	0.085243	-0.041688	-0.059382	0.10822	0.1759	0.066228	-0.055352	-0.03536	-0.039446	-0.039975	-0.044279	-0.066727	-0.073654	-0.065001	-0.056307	-0.078242	-0.061641	-0.043929	-0.057553	-0.045904	-0.055315	-0.10088	-0.090056	-0.038558	-0.12253	-0.072748	-0.067246	-0.068526	-0.080691	-0.10855	-0.027824	-0.07872	-0.079647	-0.063916	0.0075894	-0.017068	-0.064746	0.00131	-0.048097	-0.077047	-0.055371	-0.054195	-0.052451	-0.05307	-0.063016	0.0041113	-0.094061	-0.12763	-0.16774	-0.079584	-0.041957	0.019917	-0.019463	-0.078321	-0.073028	-0.044402	-0.065213	0.054089	-0.032348	-0.043083	-0.030483
-0.062174	-0.067607	-0.029964	0.00017857	-0.047811	-0.030947	-0.025698	-0.019763	-0.05777	0.0011798	-0.014368	-0.033165	0.2605	0.040417	-0.042699	0.041722	0.0017009	-0.0069797	-0.0052747	-0.020198	0.066781	0.10655	0.0042718	0.059302	-0.0023042	0.051447	0.24601	0.5243	0.71335	0.4144	0.15696	-0.0063214	-0.0082568	-0.062683	-0.11119	-0.0078865	-0.04928	-0.012132	0.034673	0.12598	0.96202	0.378	-0.11732	-0.077531	-0.070276	-0.0637	-0.07165	-0.10522	-0.17764	0.0028057	-0.066522	-0.020388	-0.049058	-0.076091	-0.13667	-0.22618	-0.083084	0.13173	0.32435	-0.14656	-0.13993	-0.093314	-0.093352	-0.13248	-0.076313	-0.015553	0.033464	-0.042851	-0.064717	-0.086075	-0.10585	-0.048622	-0.077486	-0.11863	-0.10007	-0.025802	-0.093574	-0.043677	-0.045757	0.018729	-0.019311	-0.0417	-0.059815	-0.052268	-0.045892	-0.048277	-0.01531	-0.030543	-0.042257	0.017164	-0.023922	-0.058907	-0.029223	-0.04919	-0.05274	-0.014528	-0.01222	0.009924	-0.017975	0.014859
0.53399	0.32419	0.058492	0.043326	-0.015772	-0.014101	-0.059677	-0.028811	0.047627	-0.021317	-0.025388	0.013872	0.059243	-0.069457	-0.064518	-0.0074948	-0.03295	-0.005413	-0.0070383	-0.060271	-0.011696	-0.039978	0.0073134	0.062167	-0.033916	-0.040871	-0.048021	-0.061488	-0.047863	-0.05319	-0.012813	-0.039885	-0.014443	-0.057997	-0.10498	-0.070089	-0.061327	0.045544	-0.034463	-0.053646	-0.0095617	-0.043271	-0.0046869	-0.040856	0.00083899	-0.05137	-0.024827	-0.075173	0.0014472	-0.017158	-0.073136	0.024787	-0.034013	-0.0013083	-0.041979	-0.066425	0.064274	0.34668	0.37761	1.0265	0.13467	-0.12425	-0.054108	-0.18567	-0.061696	-0.048109	-0.052405	-0.030035	-0.10097	-0.072273	-0.16909	-0.11462	-0.104	0.10586	0.16542	-0.1162	-0.28761	-0.11509	-0.0056339	-0.023196	0.015615	-0.079264	-0.034392	-0.0013555	-0.04446	-0.059776	-0.0038463	-0.011404	-0.050996	-0.023998	-0.060459	0.0091255	-0.21828	-0.020198	-0.02632	-0.092894	-0.011915	-0.07729	-0.048938	-0.041458
0.025213	0.031001	0.019966	0.041634	0.025594	0.01677	0.041317	0.0044908	-0.011881	-0.0014353	0.019654	0.02177	-0.00099859	0.017031	0.011207	0.0091108	0.036709	-0.0026032	0.033096	0.012483	0.040625	0.012645	0.026515	0.019927	0.00993	0.023096	0.020252	0.0043205	0.02873	0.022671	-0.030221	0.0025085	0.0091473	-0.0086464	-0.021057	0.010003	0.0010839	-0.014659	0.038493	0.020024	0.029489	0.020712	0.0071431	0.0089234	0.039407	-0.0028907	0.012635	0.013967	0.0020395	0.017133	0.048815	0.054019	0.019602	-0.0097029	0.0311	0.022208	-0.00031588	-0.0010095	0.0027093	0.019708	0.0092845	0.020508	0.0095431	-0.013376	0.045754	0.0081764	0.070186	0.040254	-0.015437	0.032912	0.0078902	-0.0027595	0.027742	0.031243	0.019986	0.0048274	-0.052214	-0.0043862	0.019658	-0.1618	-0.12836	-0.041847	-0.080154	-0.17758	1.3604	-0.040529	0.0043727	-0.038255	-0.0037204	-0.028508	-0.06447	-0.063487	-0.055679	0.020826	0.027686	0.030481	-0.037076	-0.055313	-1.0016e-05	0.0073293
-0.039482	0.04248	0.00027648	-0.10286	-0.0057374	-0.038736	-0.030467	-0.045909	-0.096471	-0.0070646	-0.032351	0.03695	-0.01157	0.0036797	-0.091078	-0.13553	-0.061525	-0.099567	1.2891	0.078154	-0.060896	-0.079325	-0.16758	-0.32076	-0.022038	-0.060222	-0.031616	-0.0030296	0.062406	-0.051809	0.034233	0.018162	-0.019733	-0.020257	-0.02809	0.061221	-0.025117	-0.05142	0.0014022	-0.033111	-0.022669	-0.0075564	0.019642	-0.040705	-0.0033792	0.041	-0.01851	-0.016979	0.006517	0.072448	-0.065289	0.0014018	-0.019204	-0.013519	-0.017007	-0.018903	-0.025463	0.0086474	0.027585	-0.027484	0.028233	0.01697	0.030317	-0.061826	0.021378	-0.084357	0.0080653	-0.020572	-0.021683	-0.0035986	-0.050908	-0.033542	0.030063	-0.013914	-0.017678	-0.0021461	-0.083888	0.021613	-0.021611	0.014916	-0.015927	0.020415	0.061667	0.014499	-0.0087928	-0.0075928	-0.050721	-0.0071347	0.0093769	-0.036218	0.027379	-0.064631	0.03242	-0.039706	-0.0032637	0.012926	0.022067	-0.054226	-0.021548	-0.018157
-0.060024	-0.068403	-0.011597	-0.024483	-0.0019017	-0.038678	-0.030359	-0.051009	-0.092889	-0.056799	-0.0037214	-0.065831	0.003599	-0.050613	-0.039521	0.019478	-0.037689	-0.050848	-0.027059	-0.022584	0.048469	0.3203	0.073282	-0.057081	-0.023686	0.044889	0.053786	0.059383	0.11849	0.050787	0.021356	-0.061149	-0.071184	-0.15535	-0.15405	-0.15858	-0.10945	-0.062892	0.039021	0.10536	-0.066151	0.0011389	0.23287	0.047472	0.023029	-0.042247	0.13816	0.26013	0.81799	0.4132	0.059249	-0.023767	0.0063417	0.067876	0.26837	0.31143	0.056662	-0.031903	-0.049734	-0.040496	-0.15642	-0.16524	-0.086891	-0.13504	-0.03836	-0.090961	-0.082037	-0.051227	-0.066212	-0.071213	-0.15054	-0.15431	-0.10393	-0.011829	-0.020528	-0.0070611	-0.039427	-0.086963	-0.096766	-0.07055	-0.080474	-0.043882	-0.069882	0.0091879	-0.046871	-0.050751	-0.12812	-0.10983	-0.098141	-0.096142	-0.037023	0.046847	-0.094945	0.014287	0.023307	-0.023669	-0.023328	-0.032696	-0.028195	0.027349
-0.0028444	0.070951	-0.032297	-0.0047414	0.12401	-0.0049736	-0.0061485	-0.036207	-0.25569	-0.099298	0.015307	-0.031554	0.073269	0.090976	-0.039191	0.067692	-0.029884	-0.02181	0.00086177	0.090154	0.076846	0.90667	0.27006	-0.27282	0.025277	0.22623	0.19102	0.094944	0.001095	-0.034835	0.0090402	0.062966	0.049621	-0.013283	0.041304	0.046479	0.050851	-0.029367	0.019488	-0.12004	-0.28856	-0.12408	-0.1157	-0.10711	-0.0088443	0.051409	-0.081194	-0.14455	-0.29048	-0.042199	-0.042789	-0.0012984	-0.01192	-0.085271	-0.19862	-0.067487	-0.022166	-0.039975	-0.067302	0.02733	0.058329	-0.020462	-0.18732	-0.084386	-0.024132	-0.088695	0.008955	0.0028352	-0.026106	-0.03593	0.015399	0.0028086	0.0053139	0.014523	0.0025578	-0.03827	0.035568	0.055237	0.030568	0.009571	-0.024632	0.031721	-0.0035994	-0.041463	-0.011255	-0.010442	-0.026249	-0.057522	-0.053862	-0.021478	0.051229	0.080696	-0.15495	0.017613	0.063045	0.033363	-0.0052916	0.04036	0.031663	0.065667
-0.0016774	-0.008714	0.0019168	-0.026381	-0.024531	-0.025343	0.012753	-0.018044	-0.046264	-0.0082313	0.030923	-0.0014799	-0.0027709	-0.0072427	-0.082493	1.0742	0.16507	0.099149	0.12399	-0.62202	-0.076921	-0.020118	-0.0096491	-0.06806	0.0070798	-0.019598	-0.0040501	-0.027095	0.002226	-0.0067867	0.004402	0.024103	0.012337	0.011066	-0.0045423	0.0065979	0.013157	0.023403	-0.012164	0.0052448	-0.010273	0.01028	0.0040334	0.048723	0.0063856	-0.073375	0.017713	0.009791	-0.010347	0.017093	0.0080196	0.016345	0.0025196	0.028402	-0.023588	0.022436	0.0086027	-0.0052808	0.0054195	0.0098234	0.0046581	0.018685	0.033476	0.0050149	0.051818	0.0041821	0.015274	-0.025672	-0.0013192	0.013331	0.0047148	0.0074363	0.034125	0.0047555	0.037736	0.016893	0.011289	0.02541	-0.015882	0.051167	0.046914	0.0091466	0.022863	0.015824	-0.0057644	0.051758	0.012455	-0.025774	-0.023268	-0.0080306	0.035063	0.0070041	0.0099996	-0.038478	-0.014655	0.026452	-0.0027422	0.028134	0.047996	0.010407
-0.01253	0.0041629	-0.040637	-0.042052	-0.24785	1.0695	-0.055818	0.0014287	-0.11675	-0.062618	-0.071472	-0.024328	0.0011014	-0.024411	-0.11492	0.017624	0.030667	-0.024131	-0.010527	-0.0017878	-0.020521	-0.002523	-0.018993	-0.015545	0.010628	0.01102	0.026605	0.0020023	0.016076	-0.01711	-0.025445	0.0029463	0.0026667	-0.0016428	0.0013968	-0.0022991	-0.025472	-0.0029136	0.012025	0.0039739	-0.020238	0.0049584	0.0023283	0.00048213	-0.0028107	-0.022863	0.00286	0.010734	0.0057423	-0.006274	0.0015745	-0.01442	-0.023972	-0.0052017	-0.01833	0.0048098	-0.017409	-0.011611	0.010276	-0.009729	0.0099443	0.0089788	-0.0038618	-0.00052689	-0.0047378	-0.010691	-0.024273	-0.019787	-0.015351	-0.0098529	0.0086516	-0.0055653	-0.017176	0.0097275	0.0037963	0.019715	-0.0075557	0.0093936	-0.031129	-0.0066828	0.02766	-0.011146	-0.00068761	0.0085379	-0.0018622	-0.0038012	0.0085423	-0.02405	-0.0039794	-0.013061	0.0035473	0.0026599	-0.0084957	-0.03621	-0.1267	-0.025447	-0.028384	-0.020788	-0.047024	-0.078737
-0.022157	0.08145	0.1361	0.064597	-0.32914	0.013147	0.012929	-0.0047726	-0.0087013	-0.0043965	0.011616	-0.089044	-0.021631	-0.094791	0.22463	-0.0019338	-0.010251	-0.011841	-0.018049	-0.015832	0.010694	-0.028089	-0.015855	-0.10619	-0.015961	-0.018768	-0.019539	-0.014629	-0.022141	-0.069342	-0.052809	-0.040905	-0.025808	-0.016076	0.011034	-0.040222	-0.025653	0.04931	-0.029227	0.014272	-0.022721	-0.012304	0.033074	0.06858	0.030977	-0.066773	-0.081992	-0.025323	-0.017185	-0.026931	-0.016927	-0.020378	0.014299	-0.012864	-0.049906	-0.042418	-0.02868	-0.024497	0.022962	0.023025	-0.050386	-0.076674	0.012069	-0.041357	-0.073296	0.025672	0.032715	-0.051976	0.064226	-0.048622	-0.032261	-0.020011	-0.095968	-0.26111	-0.06344	0.049625	-0.11608	-0.097317	-0.020201	-0.043505	-0.085757	-0.037239	-0.013541	-0.09023	-0.027562	-0.081811	-0.067923	-0.04763	0.08074	0.019505	0.03177	-0.066379	-0.041913	0.14941	0.14821	0.80437	0.21021	0.11467	0.077677	0.18879
-0.0016314	-0.0041085	-0.0048279	-0.0060618	-0.033152	-0.051507	-0.16239	1.051	-0.12776	-0.023049	-0.0010118	-0.01452	0.0045314	-0.006974	-0.011696	0.027875	-0.21119	-0.046152	-0.0099133	-0.033649	-0.019639	-0.016019	-0.014265	-0.037373	-0.0089698	0.002728	0.0020093	-0.014282	-0.0014402	-0.0039296	-0.0021459	-0.010267	-0.014155	-0.032196	-0.023675	0.0056766	-0.014246	-0.0027969	-0.0030562	-0.01195	-0.0079457	-0.003702	0.00071854	-0.0032197	-0.0010512	-0.0297	-0.011557	-0.0078656	-0.0090115	2.1702e-05	-0.013827	0.00040774	-0.0023025	-0.0053403	-0.0047395	-0.00268	-0.0040214	-0.0010275	-0.0061139	-0.010432	-0.013427	-0.001063	0.0033161	-0.0076908	-0.0034814	-0.019556	-0.025187	0.0029691	-0.010496	-0.0058644	-0.0070309	-0.0061385	0.0016001	-0.0083957	-0.0014593	-0.0058662	-0.004294	-0.0024474	-0.0097302	-0.017697	0.00010024	0.016458	-0.011836	-0.010874	-0.0044321	-0.024527	-0.01114	-0.044418	-0.040404	-0.018615	-0.0043406	-0.0050915	-0.0077294	-0.0057466	-0.030602	-0.0086138	-0.0053493	-0.038127	-0.036189	-0.0066589
0.00022162	0.01128	-0.036399	-0.041634	-0.19182	-0.072139	0.93672	0.070032	-0.27522	-0.042469	-0.015351	-0.015045	0.0086616	-0.021043	-0.02564	-0.026548	-0.0614	-0.044541	-0.034435	-0.041354	0.099549	-0.052123	-0.077749	-0.037146	-0.021599	-0.035101	0.0027629	-0.019665	0.076414	-0.033206	-0.036042	-0.00048095	-0.015607	-0.024755	0.013939	-0.004796	-0.035262	0.004707	-0.059269	-0.034656	-0.058851	0.059691	0.035689	0.066229	0.0017541	0.013112	-0.045631	-0.044138	-0.0015469	-0.060904	-0.0096975	-0.047059	-0.019893	-0.0042695	0.0024843	-0.061371	-0.026053	-0.029933	-0.064305	0.049797	-0.043008	-0.098308	-0.045887	0.028647	-0.041571	-0.00012537	-0.044716	0.022168	0.041381	0.013521	-0.049637	0.035404	0.042544	0.047306	-0.053606	0.078613	-0.078898	0.040192	-0.054643	-0.0018251	-0.048346	0.0034449	-0.016959	0.046852	-0.0079825	-0.010389	-0.021736	-0.018849	-0.030649	-0.00085869	-0.045521	0.076353	-0.0049857	-0.058787	-0.094524	-0.080671	-0.0065563	-0.028693	-0.070077	-0.039726
0.0080374	0.00098942	-0.0217	-0.014591	-0.079202	-0.03245	-0.0091288	0.0022158	-0.043056	-0.014926	-0.020875	-0.034907	0.0064771	-0.021497	-0.010317	-0.064933	0.033697	-0.01123	-0.020174	-0.045636	-0.012919	-0.016035	-0.020176	-0.032487	-0.033261	-0.049609	-0.016167	-0.0087161	-0.0078779	0.0047141	-0.018732	-0.0091476	-0.023872	0.011803	-0.032024	-0.020812	-0.021349	-0.019547	-0.0035482	-0.012115	-0.0058257	-0.014286	-6.8345e-05	-0.014695	-0.029586	0.009338	-0.00446	-0.019126	-0.026523	-0.0073451	0.0043874	-0.030993	-0.004116	-0.0026187	-0.0068468	0.010721	0.0040235	-0.016018	-0.018438	-0.030552	0.0032176	-0.030567	-0.026386	-0.013517	0.015697	-0.024872	-0.03183	-0.036982	0.016501	-0.048984	-0.016524	-0.018792	-0.025287	0.00065796	-0.025081	-0.021726	-0.029304	-0.0021649	-0.01003	-0.031395	0.0010332	-0.011156	-0.044296	-0.038867	-0.0027425	-0.049394	-0.003492	-0.020363	-0.051005	-0.033937	-0.015285	-0.016953	-0.038426	-0.030985	-0.064751	-0.036564	-0.063544	-0.049655	0.95127	-0.3402
-0.016705	0.030695	-0.075935	-0.011096	-0.23364	0.02057	0.19177	0.12505	0.8267	0.066785	-0.0239	-0.039364	-0.052467	0.12228	-0.14128	-0.011844	0.091853	0.081745	0.016751	0.0023591	-0.03063	0.14104	-0.037051	-0.21906	0.050235	-3.4625e-05	0.061086	-0.006695	0.0001214	0.060674	0.043212	-0.026002	-0.030182	-0.03844	-0.11884	-0.013514	0.00020893	-0.020073	0.055492	-0.043958	-0.041609	0.029912	0.038603	-0.025466	0.023204	-0.0016586	0.046265	-0.060443	-0.060735	-0.024779	0.021653	-0.022936	0.080002	0.027645	0.03813	0.033588	-0.026146	0.0024991	0.00022633	-0.054154	0.022305	-0.064558	-0.13939	-0.012297	-0.022257	-0.026578	-0.044449	0.046115	-0.078409	0.020086	-0.0063734	-0.070181	0.068896	-0.015181	0.065647	-0.02412	0.029615	-0.011841	0.02141	-0.029928	-0.0094019	-0.017349	-0.040619	0.078336	-0.00090561	0.0065618	0.054927	-0.054354	-0.069586	-0.004667	0.028268	-0.04315	-0.041797	-0.030773	0.012457	-0.00027905	-0.0071087	-0.037613	-0.0051478	-0.00092726
-0.013448	-0.015343	0.046227	-0.010939	0.081312	0.039791	0.071906	0.04253	-0.018458	-0.043165	0.027407	0.025804	-0.08478	0.039835	0.09753	0.018816	0.01607	0.03606	0.023326	0.013194	0.046971	0.089064	-0.024744	-0.038375	0.020203	-0.0037495	-0.063836	-0.011092	0.05497	-0.041422	0.014326	0.01133	0.013723	0.01623	-0.036044	-0.054082	0.06114	0.06852	-0.0091002	-0.016818	-0.0053256	-0.0066843	0.079227	0.05538	0.059941	0.20075	0.018017	0.080679	0.073056	-0.024235	-0.014406	0.093664	0.044264	0.016288	0.041657	0.010525	0.034136	0.0049769	0.12087	-0.033578	0.01144	0.035149	0.043309	-0.038059	-0.0090651	-0.01383	0.091311	0.06326	-0.1226	-0.0041525	-0.044387	-0.030609	0.0091732	-0.036711	-0.017407	0.054304	-0.011324	-0.046784	-0.0070671	0.14149	-0.0022199	-0.12312	-0.015405	-0.3159	-0.058304	-0.22076	0.72712	0.15452	0.10079	0.10955	-0.034939	-0.088291	-0.04626	-0.085589	-0.043792	-0.009768	0.005554	0.015082	0.037882	0.05723
-0.011711	0.037705	0.025313	0.0027231	-0.0021431	-0.072953	-0.066116	-0.019752	-0.12039	-0.033062	0.015269	-0.060504	-0.0052493	-0.068711	-0.23171	0.35025	0.17319	0.11072	-0.11945	0.68861	-0.038189	-0.10063	-0.32205	-0.21122	-0.048488	-0.036245	-0.057484	-0.029576	-0.020888	-0.0076203	0.0038928	-0.02376	-0.031333	-0.038513	-0.043076	0.0069147	-0.0036402	-0.015556	-0.051423	-0.026376	0.007918	-0.0073228	-0.021034	0.035212	-0.0048936	-0.00030785	0.0015479	-0.038755	-0.010256	0.011043	-0.094659	0.021848	0.039486	-0.0015325	-0.024228	-0.0085657	0.025167	0.015717	-0.013961	-0.0269	-0.061977	0.0031953	-0.083928	-0.0039808	-0.027805	0.028518	-0.048827	-0.064414	0.034345	-0.020156	0.030241	-0.044648	-0.024049	-0.0076161	0.02048	0.014625	0.0073247	-0.026837	-0.020903	-0.031567	-0.023418	-0.043663	-0.036073	-0.012407	0.010371	-0.040762	0.021265	-0.066121	-0.042925	-0.008389	0.015978	0.018804	-0.057865	-0.060546	-0.086916	0.010561	0.045026	-0.035031	-0.030783	-0.044323
0.005777	-0.023558	-0.030485	-0.02448	-0.13187	-0.041443	-0.03093	-0.01524	-0.1494	0.83482	-0.030469	-0.077329	-0.087037	-0.022413	-0.28108	-0.038319	-0.0094281	-0.019713	-0.010596	-0.018722	0.0074443	0.010115	0.10994	-0.022138	-0.071608	0.022823	-0.019713	0.038917	0.06717	0.02066	-0.030256	0.05969	0.038415	0.016042	0.024476	0.0031433	-0.0055622	0.01892	0.072618	0.010979	-0.074913	0.022471	-0.026772	-0.05378	-0.003673	-0.035368	0.067357	0.033675	-0.033128	0.028063	-0.0052387	-0.0022228	-0.013914	0.087443	0.013144	0.0024258	0.0039652	-0.02941	-0.0079028	0.051253	-0.031277	0.0028303	0.010883	0.060237	0.022847	-0.044572	0.037257	0.019647	0.023466	-0.036367	0.048885	-0.044993	-0.031395	-0.0040688	0.047305	0.01664	0.027067	-0.040397	-0.012682	-0.0033756	0.040764	0.029228	-0.032373	-0.027446	0.0004034	-0.032603	0.094806	0.031656	-0.041875	0.019227	-0.057323	-0.027389	-0.015332	-0.0096853	0.0062589	0.054574	0.0096884	0.076862	-0.033703	-0.061271
0.0061148	0.011928	-0.017974	-0.02077	-0.046359	-0.036645	0.014124	-0.0093245	-0.056268	0.0097582	-0.024937	-0.10367	0.04043	0.013998	-0.04134	0.00067101	-0.030693	-0.016282	-0.041433	-0.0021987	0.0049192	0.043715	-0.067354	0.029437	-0.031129	-0.050664	-0.10505	0.023083	0.015555	-0.059887	0.032472	0.02139	0.010929	-0.018132	-0.041937	-0.018321	-0.058626	0.030014	0.01051	0.030957	0.046653	0.04699	0.023157	0.013976	-0.0018986	-0.020991	-0.0234	0.081663	0.032906	-0.0043335	0.011208	0.0022674	0.011797	0.055313	-0.065424	0.033594	0.069863	0.087391	0.028543	-0.17226	0.83202	-0.016142	-0.030524	0.022644	-0.028886	-0.038257	0.017518	-0.015856	-0.077671	0.023854	-0.022586	-0.0045326	-0.026998	0.042774	-0.064295	0.027661	0.072763	-0.10724	-0.05926	-0.011201	-0.038397	-0.05029	0.036478	0.035549	0.0035473	0.0021386	-0.038794	-0.01635	0.01409	-0.065536	0.024567	-0.053283	-0.02389	-0.014048	-0.0014357	0.031217	0.015452	0.0039333	-0.021973	-0.0033823
-0.010762	0.0020704	-0.0065046	0.0014475	-0.0035281	-0.007662	-0.0013252	-0.0026027	-0.0054842	-0.0026215	-0.0015997	-0.010612	-0.0009747	-0.0053399	-0.00063549	-0.0026856	-0.0021941	-0.0019286	-0.006526	-0.0047923	-0.010127	-0.013923	-0.0049738	-0.044142	0.11463	-0.040075	-0.02832	0.0013484	0.0078382	-0.021397	-0.077776	-0.34385	0.77607	-0.032051	-0.090129	0.010069	-0.070364	-0.13638	-0.03203	-0.020684	0.0031534	0.0023953	0.0019493	-0.015449	-0.0083524	-0.013861	-0.0045669	-0.0099804	0.0028516	0.0027776	0.0066347	-0.009099	-0.010639	0.0033128	0.0043152	-0.0060843	0.0046325	-0.0065444	0.0011934	-0.012078	-0.011346	0.0072321	-0.0073469	-0.0047536	0.00080306	-0.0055835	0.0054347	-0.0024883	-0.0013348	-0.0047587	-0.0061515	0.0042979	-0.008776	-0.0065687	-0.0029635	0.00068694	0.0019509	-0.0013497	-0.0082547	-0.0055161	-0.0033677	-0.010001	-0.0050681	-0.014649	-0.012036	0.0006422	0.00016796	-0.0025333	0.010067	-0.028149	-0.036768	-0.015435	-0.0014147	0.0062199	-0.0045645	-0.0068388	-0.0049438	0.00033897	-0.0022241	-0.0045008
-0.005958	-0.0054993	0.0080601	0.008724	-0.0161	-0.011782	-0.013759	-0.033424	-0.065075	0.0035731	-0.012046	0.004538	0.004641	0.0030343	0.0028935	-0.060232	-0.27611	0.8236	0.028121	-0.05099	-0.0040899	-0.0026871	-0.0027628	-0.036122	-0.014733	-0.0056536	0.0010161	-0.0054872	-0.0046212	-0.00033854	-0.014448	-0.0042263	-0.0078387	-0.016746	-0.027043	0.0043102	-0.0018603	0.0050539	-0.0037144	0.0044754	-0.0063075	0.0026348	0.0025895	-0.0056729	0.0072181	-0.0074806	-0.018547	-0.011284	0.0079505	-0.0017548	-0.00053085	-0.015554	-0.016538	-0.0059691	-0.0035899	0.0037866	-0.0080904	-0.012412	0.0058401	-0.014817	-0.0028449	-0.0091262	0.0061013	0.0039993	0.0076841	0.0007148	-0.0036886	0.014142	-0.0223	-0.0043709	0.0005348	0.0025638	-0.0031777	-0.0097786	-0.017573	-0.0038005	-0.015574	-0.00080668	-0.0054806	-0.034903	0.0039173	0.0056936	-0.0064118	-0.0018229	0.002287	-0.011767	-0.014413	-0.025168	-0.025208	-0.027263	-0.013266	0.0020297	-0.00083768	-0.0071611	-0.010517	-0.0049973	-0.012894	-0.014256	-0.0074544	-0.0146
0.0153	0.005077	0.014862	-0.01791	0.011407	0.037771	-0.022699	0.10434	-0.14871	-0.01499	-0.0070749	-0.027211	0.022832	-0.00046406	0.0051717	-0.21839	0.71339	0.19729	-0.001526	-0.13694	-0.019372	0.0059131	-0.020736	-0.078434	-0.017878	-0.025846	0.0090049	0.0021683	0.0068606	0.0071154	0.018675	0.0054798	-0.0040223	-0.030285	-0.080532	0.0044998	-0.008756	0.011294	0.006696	-0.0031714	-0.011207	0.0033414	0.0033564	0.0017777	0.0034094	0.039894	0.007367	0.0085765	0.0093391	-0.0049145	0.011843	0.0027097	-0.025852	0.012219	-0.0064023	0.00051568	0.014861	0.020924	0.0014603	0.0025418	0.011366	-0.012929	0.0030357	0.003946	-0.025738	0.018872	0.0018761	0.028332	-0.016721	0.013356	-0.011358	0.039801	0.011751	-0.0051569	0.025743	-5.1811e-05	-0.0046304	0.021824	0.0021852	-0.028128	0.014154	0.010041	0.024814	0.027519	0.026169	-0.0068408	-0.010724	-0.035825	-0.035295	-0.0072841	-0.010898	0.02541	0.02022	0.016376	-0.016192	0.0081861	0.031612	0.013021	-0.050183	0.016724
-0.016143	-0.01148	0.010621	-0.035953	-0.0038066	-0.0026408	0.045313	0.0071521	0.0098064	0.016253	-0.0511	-0.11952	-0.053404	-0.0069823	0.10046	-0.010553	-0.0092368	0.00010844	0.022161	0.0064125	-0.017422	0.043341	-0.0097373	-0.029857	-0.012116	0.031002	0.0349	0.067404	-0.062443	-0.0081654	-0.058371	-0.053596	-0.0098318	0.0091329	-0.0020982	-0.036048	-0.14112	0.19577	0.010407	0.039929	0.080787	0.064686	0.011015	0.029501	-0.0035508	-0.034375	-0.044248	0.020649	0.023674	0.026171	-0.044789	-0.043753	-0.021101	0.070167	0.0096618	0.017833	0.07931	0.036799	-0.082288	0.071814	-0.029827	0.59388	-0.12023	-0.0099709	0.0076931	0.12873	0.069974	0.031621	-0.043445	-0.0091073	-0.034541	-0.029564	-0.0020633	0.075876	0.0074002	-0.0070367	0.016512	0.072094	-0.014951	-0.011087	0.011901	-0.040873	0.012432	0.065253	-0.0075077	0.011238	-0.0060828	-0.035275	-0.045497	-0.0031494	-0.013134	-0.0041898	-0.091413	-0.026725	-0.0273	0.020251	0.018017	0.013903	0.023817	0.018762
-0.01766	-0.084664	0.011368	0.024515	0.056249	0.0051402	-0.041628	0.0060269	0.025735	-0.05043	-0.043517	-0.064113	-0.060346	-0.037257	0.066357	0.018118	0.022527	0.0045987	0.050689	0.0085739	0.054079	-0.011757	0.012955	0.012826	0.012989	0.027983	0.017839	0.028025	0.043591	-0.019809	0.035402	-0.0093208	0.019821	0.045248	0.067007	-0.01085	-0.16849	0.13531	-0.0076414	0.017285	-0.042853	0.0062135	-0.060215	-0.031499	-0.061145	-0.060438	-0.0026489	-0.0053176	0.0077484	-0.0023562	-0.07779	-0.033922	-0.045486	0.039921	-0.015325	-0.018925	-0.086863	-0.012422	-0.011384	0.025295	-0.028675	-0.18233	-0.12034	0.51896	0.01487	0.031408	0.040719	0.068158	-0.060049	0.074962	-0.069028	-0.12658	-0.089261	0.082317	-0.038942	-0.0050093	-0.041981	-0.04596	0.0081717	-0.010655	0.035389	-0.0058679	-0.019233	0.0043046	0.0070554	0.0046598	0.036121	0.019908	0.017614	-0.017455	-0.0091254	0.04741	-0.12229	-0.025358	0.01677	0.010846	0.037728	-0.050598	-0.0043332	-0.026937
-0.019916	-0.035332	-0.012928	0.01184	-0.0011145	-0.011127	0.023777	-0.0027959	-0.026564	-0.047359	0.0055002	0.0033184	0.078295	0.021507	-0.0076974	0.01423	0.0029019	0.0026212	0.0080494	0.0094052	0.0049051	-0.027908	-0.038298	0.027495	-0.0091269	-0.016895	-0.011421	-0.009054	-0.0326	-0.013456	-0.046523	-0.03579	-0.016652	-0.014202	-0.022023	-0.014024	-0.036246	-0.10122	0.66902	-0.032242	-0.026982	0.00039505	-0.068034	-0.0065401	-0.0099936	-0.032918	-0.019174	0.029512	0.0023518	-0.036727	-0.047373	0.011077	0.031627	-0.031878	0.0086412	-0.027686	-0.016224	0.010016	0.0012783	0.022947	0.0050348	0.023162	0.020865	0.019717	0.020118	0.035115	-0.023357	0.0023802	0.037173	0.0142	-0.026541	-0.0068756	-0.028805	-0.0094814	-0.0066805	-0.010041	-0.0045102	-0.0013091	0.018108	-0.0022269	-0.018515	-0.029892	-0.045947	-0.013562	-0.022437	-0.021118	0.03431	-0.020098	0.0012851	0.0030546	-0.016469	0.052623	-0.0050926	0.01207	0.0036911	0.017227	-0.040457	0.018247	0.002988	0.030753
0.0048195	-0.00034068	-0.0096034	-0.031988	-0.038209	-0.0096351	-0.021668	-0.010491	-0.0026	-0.053694	-0.01841	-0.040013	-0.0015028	-0.005869	0.022775	-0.014669	-0.012728	-0.013952	0.0072936	-0.018861	0.0050006	-0.02708	0.019615	-0.061318	-0.018057	-0.0025158	-0.055276	-0.030149	-0.060725	-0.033262	0.018501	-0.0092837	-0.027028	0.012028	0.010014	0.046126	-0.022764	-0.042371	-0.036571	-0.024892	0.091751	-0.032087	0.053432	-0.0024118	0.050588	-0.065402	-0.010248	-0.0090557	-0.02985	0.023857	-0.020243	0.010909	-0.0059647	-0.019906	0.041682	-0.035849	-0.067131	-0.0088876	-0.062397	-0.0088117	0.0096657	-0.012573	-0.036482	0.067521	-0.0047496	-0.012686	-0.067874	-0.0059593	0.0040421	-0.011518	-0.009805	0.00081046	0.0080299	-0.034171	0.088923	0.0073348	-0.059908	-0.01055	0.024797	-0.040066	-0.047423	-0.038414	-0.044372	-0.071899	-0.0015285	-0.086206	0.0050123	-0.054581	-0.086954	-0.045289	-0.024777	-0.059782	-0.053165	0.050735	-0.013993	-0.14241	-0.079975	0.59225	-0.023199	-0.017537
0.010425	-0.030787	0.018225	-0.0014846	0.02317	0.01422	0.046328	0.037341	0.016845	0.032366	0.0077926	-0.020559	0.024355	0.033103	-0.022351	0.023601	0.029878	0.033955	-0.002402	0.018791	-0.04175	0.013574	0.0070718	-0.020754	-0.0040081	0.0096743	0.0014388	0.020393	0.0077204	0.0075357	0.0076668	0.043558	0.001263	6.5172e-06	-0.050045	0.0037925	-0.05705	0.015634	0.012261	-0.0071486	0.0021193	-0.014752	0.031037	-0.011342	-0.0096973	0.0092404	0.018622	-0.0014659	-0.021021	0.028598	0.05667	-0.0013347	0.046308	0.014355	-0.0038828	0.042592	0.018084	0.0045257	-0.029126	0.018855	-0.010724	0.028347	-0.053111	0.0074031	0.0024599	-0.0028784	0.0027271	-0.011581	0.005024	-0.027003	-0.030965	0.010828	0.0025968	0.024488	0.045135	0.0096231	-0.026274	-0.0070006	0.02699	-0.011143	-0.008347	-0.012358	-0.054298	-0.15499	-0.035265	-0.063057	-0.19496	0.012013	0.60301	0.067397	0.0062354	-0.071717	-0.02297	0.013931	0.024744	-0.070186	-0.042528	0.027201	0.0034731	-0.039005
0.018567	0.0062691	-0.015748	-0.010702	0.013156	-9.9872e-05	-0.055107	-0.0055625	0.032447	-0.026769	-0.023844	-0.026258	0.0095805	-0.012508	-0.10327	-0.0156	-0.0052784	0.00025796	-0.019183	-0.081683	0.62512	-0.05396	-0.10472	-0.088001	-0.011487	-0.0013435	-0.031423	-0.0031543	-0.032521	0.0027102	0.038389	0.0097866	0.0098191	0.027879	0.034839	0.0028402	-0.013348	-0.015404	-0.0072921	-0.023682	-0.024337	0.013408	0.031166	-0.0033013	-0.0041244	0.020061	-0.0072829	0.030445	0.0062261	0.025177	0.013522	0.016517	-0.018338	0.0092499	-0.08824	-0.012499	-0.0091688	-0.0038808	0.040396	-0.0014738	-0.018331	0.06656	0.014843	-0.014202	-0.0011231	-0.021778	-0.010335	-0.016494	0.012757	-0.017716	0.016719	-0.03816	0.00011372	-0.037625	0.021581	-0.02547	0.060431	0.0079244	0.015377	0.009657	-0.0043737	0.0024648	0.0062646	-0.02806	-0.0020203	-0.011364	-0.051887	-0.003955	0.028806	0.030664	-0.010738	0.036148	0.025745	-0.018719	0.0051484	-0.0036254	0.0041361	-0.0035426	0.012656	0.030684
-0.027113	-0.034734	-0.036077	0.65896	-0.058103	-0.016473	0.0024733	-0.0029786	-0.013126	-0.036062	-0.026868	-0.055851	-0.022159	-0.045544	-0.084318	-0.012613	0.011254	-0.0071133	0.045489	-0.014466	-0.006773	0.0093545	0.02047	-0.0070937	0.001446	0.0075958	0.0036639	0.0070106	7.8721e-05	0.0099236	-0.011598	0.0011026	0.0013889	0.0141	-0.002095	0.012025	-0.010692	0.017792	-0.010341	0.022252	-0.0075411	0.016251	0.010786	0.012534	0.012474	0.00056756	0.026515	0.0017723	8.7762e-06	0.022362	0.00037371	0.005904	-0.001717	-0.0081985	-0.024258	0.012615	-0.023702	-0.0020954	-0.036943	0.023005	0.014715	0.03256	0.030624	-0.025345	-0.015636	0.0048955	-0.0059024	0.022583	0.0016686	-0.0086844	-0.0090131	0.015202	0.0039636	-0.007433	-0.052188	0.0014815	0.0088591	-0.00056327	0.02267	-0.0037507	-0.0033763	0.015251	0.0084625	-0.0079721	-0.012247	-0.0031772	0.025374	-0.001972	0.0050894	-0.0018314	0.024285	0.0020216	0.018767	-0.019362	-0.04731	-0.038473	-0.019395	0.020391	-0.0093533	-0.018437
0.00040878	0.001835	0.020222	-0.02053	0.011209	-0.00085994	0.016417	-0.0066596	-0.026081	0.018793	-0.015283	0.036986	-0.020082	0.011007	-0.0003462	-0.010237	0.0094366	-0.00083991	-0.023621	-0.022227	0.029861	-0.0071677	0.0013949	0.029889	0.012122	-0.019689	0.003343	0.004562	0.0036674	-0.00097614	-0.0073199	-0.024277	0.0061384	0.0018899	0.011408	0.025589	-0.069123	0.012523	0.01784	0.017579	-0.014159	0.0034909	0.01943	-0.020702	0.016156	0.023336	0.014068	-0.0044093	-0.0047379	0.0099412	-0.011174	0.021353	-0.0093402	0.040222	0.04414	-0.079121	-0.0047398	-0.00097806	-0.019216	0.019712	-0.021935	0.0035153	0.019837	0.0080832	0.022907	-0.0050185	-0.025359	0.015437	0.0037986	-0.030653	0.013962	0.010786	0.0023928	0.0061575	-0.013719	0.0057733	0.0055846	-0.0056368	0.013074	-0.038903	-0.042573	-0.026555	-0.048539	-0.057217	-0.012088	-0.11552	-0.034508	-0.0036138	-0.072288	-0.035438	0.60383	-0.17897	-0.028235	-0.008313	-0.0088331	-0.0035979	-0.076424	-0.061227	-0.035724	-0.04135
0.0057253	-0.046628	-0.044433	-0.0089843	-0.0077803	0.002484	-0.0091743	0.005256	0.059414	0.052327	0.00018228	0.058996	-0.0009793	-0.021159	0.014037	-0.0070304	0.0047062	0.0040955	0.027445	-0.0012744	-0.05385	-0.0010438	-0.011913	0.030442	0.01274	0.0083383	-0.021805	0.030589	0.018844	-0.0084896	-0.0080869	-0.041208	0.008415	0.024995	0.052328	0.01673	-0.011002	0.05354	-0.042557	-0.018805	-0.0083568	0.012965	-0.0044345	0.018558	-0.014546	-0.018409	0.01778	0.023184	0.035157	-0.029681	0.013455	0.0084214	0.037412	-0.037742	-0.023897	-0.00096101	-0.083347	0.0096931	0.048207	-0.033545	0.054902	0.053593	0.013176	-0.0251	0.0016169	0.0084782	0.00063295	-0.016983	0.016575	0.01396	-0.001763	0.023366	0.036469	-0.030021	0.088211	-0.00094516	-0.067357	-0.03241	-0.018527	-0.027805	-0.056617	0.012965	-0.008209	-0.215	-0.0063977	-0.11867	-0.059306	-0.030799	-0.027849	0.028349	0.12184	0.5327	0.019038	-0.023569	-0.032103	-0.014439	0.045254	0.0030757	0.0087402	0.008402
0.019956	0.058234	0.032695	0.014674	-0.008874	0.0033999	-0.026139	-0.0012014	-0.017162	0.014068	-0.13202	-0.0024972	-0.03158	-0.002539	0.032771	0.029262	0.008856	0.013317	0.0026845	-0.033709	-0.012588	-0.0031729	0.008001	-0.005406	-0.011285	-0.032327	-0.0096531	0.0097314	0.0064096	0.018621	0.01376	0.070896	0.0088764	-0.047975	-0.10975	-0.065496	-0.092042	-0.035405	0.009622	-0.0064803	-0.0018172	0.048954	-0.056573	-0.0039273	0.0055394	0.43709	0.0034352	-0.00049099	-0.040138	-0.0041628	0.21055	-0.12117	0.067597	0.015416	0.015259	-0.029342	0.0224	-0.0061897	0.0048263	-0.01769	-0.0041352	0.020943	0.025872	0.07202	0.02349	0.05753	-0.15724	-0.10318	0.043665	0.035058	0.015593	-0.021224	-0.060262	0.063909	-0.031805	0.0023499	-0.043354	0.007171	0.06402	-0.026396	0.0021942	0.024878	-0.00048635	-0.034658	0.0052098	-0.010067	-0.044698	-0.041527	-0.064841	-0.0041188	-0.032013	0.024479	-0.016812	-0.00055319	0.020082	0.005727	0.032998	0.027731	-0.025653	0.02551
-0.029774	0.0026934	-0.011847	0.00097613	0.0012289	-0.017204	-0.017057	-0.015143	-0.049553	0.047201	0.0008619	-0.0076966	-0.0051101	0.0045923	-0.01224	-0.0062995	-0.010401	-0.010811	-0.022081	-0.014024	0.0039834	-0.015066	-0.040217	-0.038617	0.59252	-0.0088944	-0.016245	-0.00089926	-0.0039909	-0.01336	-0.030247	-0.042319	-0.12931	0.0024363	-0.070448	-0.039248	-0.0078153	-0.019822	-0.0084448	0.0064251	-0.010778	-0.011073	-0.013643	-0.0082424	0.0030719	0.0012258	0.00209	-0.016261	-0.01045	0.0070968	-0.01112	-0.014151	-0.029788	-0.00099261	-0.015798	-0.0065125	-0.0030978	0.0004422	0.011904	-5.7612e-05	0.01245	0.015905	-0.011998	0.019728	0.0046333	-0.018057	-0.00043375	0.0013892	-0.010421	-0.026571	-0.0015879	0.0307	-0.01229	0.009005	0.0028286	-0.024678	-0.042039	-0.0018049	-0.031424	-0.017799	-0.014488	-0.0073097	-0.010054	-0.0056746	4.6405e-05	-0.013115	-0.0071762	-0.00051987	-0.0006619	-0.0084235	-0.027221	-0.0091357	0.026948	0.0015328	-0.0090033	0.00047984	-0.01219	-0.0019377	-0.0050366	-0.0072983
-0.0037686	0.013406	-0.0099933	-0.0086393	-0.027087	-0.021617	-0.013398	-0.0078883	-0.0080359	-0.0025072	-0.030966	-0.012189	-0.010891	-0.010309	-0.020643	-0.026645	0.0066698	-0.0099264	-0.015117	-0.024596	-0.01595	-0.015546	-0.016446	-0.010592	-0.015629	-0.015939	-0.0041996	-0.018571	-0.0082031	-0.00043491	-0.0083303	-0.0072979	-0.014064	0.012221	0.015223	0.012309	-0.034522	-0.011788	-0.00023991	-0.019329	-0.013179	-0.0038909	0.015892	-0.0032957	-0.01466	-0.0074571	-0.0080678	-0.022021	-0.0039026	0.001419	-0.035025	-0.06005	-0.0029765	-0.018125	-0.023412	-0.00079577	-0.020934	0.006892	-0.014799	-0.019274	-0.019049	0.017711	-0.0045639	-0.0086615	-0.0083026	-0.012295	-0.034897	0.025857	-0.076927	-0.036936	0.0004769	0.021189	0.017636	-0.0027938	0.0022498	-0.010272	-0.012844	-0.037172	-0.077798	0.086117	-0.11352	-0.091864	-0.12392	-0.3141	-0.025203	0.4494	-0.0054319	-0.0071728	-0.043536	-0.04257	0.0092619	-0.042142	-0.028582	0.00039743	-0.0053823	-0.00603	-0.016582	-0.033366	-0.023348	-0.013644
-0.0099169	-0.014676	-0.019083	-0.0051983	-0.034983	-0.019267	-0.0055995	-0.005935	0.0045775	0.012617	-0.0020507	-0.0079757	0.011284	-0.0015938	-0.021883	-0.0028787	0.00020565	-0.0022309	-0.034824	-0.0031079	-0.0065068	-0.0052718	-0.0056037	0.0088468	-0.012159	0.026663	-0.026235	-0.0041009	-0.029594	-0.019839	-0.017803	-0.0068706	-0.011269	0.012403	-0.01716	0.0014444	-0.01645	-0.023043	0.028592	-0.026476	0.022243	0.0019118	0.011037	-0.032046	0.014704	-0.016763	0.0031972	0.013506	-0.015242	-0.0081267	0.0069375	-0.038406	-0.0037175	-0.051714	-0.0084079	0.0070479	-0.019363	-0.042341	-0.0069562	-0.018982	-0.037443	-0.0089354	-0.037414	-0.0077211	0.019118	-0.0012768	-0.033643	0.018165	-0.015914	-0.0023944	-0.027478	-0.044755	-0.023137	0.0070682	0.011048	-0.0087688	-0.076266	-0.029284	-0.10157	-0.019068	-0.027616	-0.0093522	0.56065	-0.10821	0.010731	0.014708	-0.0092264	-0.035648	-0.0006574	0.034884	0.01497	-0.049395	-0.065927	0.0032479	-0.012185	-0.022512	-0.053869	-0.029121	-0.00202	0.011444
0.0020274	0.021915	0.038862	0.021626	-0.055632	-0.025511	-0.026984	-0.005324	-0.010827	-0.030088	0.027996	0.45838	-0.04501	-0.030643	-0.10507	-0.019162	0.0059835	-0.0068233	-0.003899	-0.011752	-0.00013704	0.030304	-0.033022	0.031849	-0.0044923	-0.00054046	0.018742	-0.004826	-0.011769	0.02093	-0.064212	0.012247	0.011928	-0.02523	-0.018319	-0.081932	-0.21561	0.18434	0.022383	-0.0617	-0.016371	0.039603	0.06983	0.0099626	-0.0087297	-0.019706	0.014036	0.014151	-0.048377	0.0077152	-0.0067801	0.0002309	-0.007014	0.018724	-0.043174	0.0049133	0.051882	-0.013233	0.013782	-0.053658	0.0035436	-0.030782	-0.052105	-0.020706	0.00071202	0.0076089	0.010457	-0.011847	0.018053	-0.016978	0.054192	0.033443	-0.017627	-0.030365	0.010454	-0.0051341	0.031818	0.031072	-0.097463	-0.0031607	-0.0056322	0.016608	-0.012082	0.025533	-0.0018943	-0.011067	0.0058838	0.01133	-0.0010198	-0.018119	-0.056599	-0.028748	-0.035843	-4.5614e-05	-0.0005058	0.012105	-0.024132	0.050477	-0.0023118	0.0024867
-0.02151	-0.032334	-0.070058	-0.0078441	-0.12838	-0.0092667	-0.039312	-0.014226	-0.039121	0.025791	-0.02225	0.016129	-0.03168	-0.022572	0.048743	-0.0002835	0.0068951	-0.0023996	-0.017173	0.01447	-0.026163	-0.032952	0.012498	-0.043745	-0.011723	-0.024308	-0.0037426	-0.01925	0.0037221	-0.025154	0.015466	0.0048861	-0.0049855	0.033104	0.012382	0.018396	-0.0097239	-0.018605	-0.012729	-0.036562	0.021062	-0.014451	0.022125	-0.056222	0.015778	-0.014292	0.0083743	-0.0094132	-0.021535	0.019862	-0.015735	0.0064468	0.013987	0.075116	-0.0030858	-0.019697	-0.017673	-0.0073582	-0.011209	0.026352	0.0034208	-0.014949	-0.0069842	0.011355	0.012883	-0.041394	-0.014387	0.0042701	-0.013645	-0.007882	0.0229	0.00025551	0.015508	0.0371	-0.035616	-0.0056465	-0.014031	-0.027383	-0.0014021	-0.015576	-0.003057	0.0023833	-0.042752	0.0064414	0.00079104	-0.01941	-0.030396	-0.00785	0.010349	-0.0023102	-0.0017795	-0.017586	-0.0067175	-0.04706	-0.070849	-0.13572	-0.070228	-0.06679	0.13476	0.50338
-0.00277	-0.032385	-0.016412	-0.0099367	-0.027846	0.0010887	0.00068863	-0.011051	-0.0053486	-0.031977	0.010374	-0.014556	0.011824	0.037316	-0.0093589	0.0084253	0.0054876	-0.0040527	-0.012501	0.019173	0.006461	-0.0060316	-0.017785	0.015126	-0.0019365	-0.030916	-0.016243	-0.015154	-0.0057865	0.0072939	-0.022236	0.0029414	-0.0032247	-0.010109	-0.013058	-0.00016906	-0.0060202	-0.0087843	0.00095115	-0.01257	0.0035527	-0.029793	-0.027096	0.020296	-0.011565	-0.010394	0.0030439	0.030383	0.0035043	-0.038246	-0.0070283	-0.022759	-0.03077	0.020598	0.021349	-0.010493	-0.0095562	-0.001808	0.016524	-0.0026556	0.013601	0.030733	-0.029024	-0.038981	-0.0012705	0.03052	0.025063	0.021746	-0.054387	0.0012352	-0.085548	-0.059901	-0.010666	0.010717	0.019249	-0.0057296	-0.028075	-0.045433	-0.043412	-0.019274	-0.025144	0.5545	-0.043689	-0.089344	-0.0052152	0.0087649	0.031586	0.01176	-0.016463	-0.00035214	0.0050039	-0.055945	-0.0073337	-0.025134	0.059356	-0.0041484	0.0048358	0.012404	-0.0035367	0.0011342
-0.0061014	-0.022953	-0.02246	-0.008077	-0.0027636	0.0018298	-0.015138	-0.010336	-0.019341	0.021875	0.012376	0.0078403	-0.039752	-0.04739	-0.026129	-0.0022644	-0.01225	-0.015532	0.0050659	-0.012436	0.020866	0.061879	0.00030005	-0.0087465	-0.044392	-0.080313	0.0040413	-0.017659	-0.0010965	-0.006564	0.02298	-0.41323	-0.11331	-0.0065084	-0.0058733	0.088048	0.19672	0.26034	0.046847	-0.011055	0.023159	-0.011337	-0.040742	0.05667	0.06705	0.077487	0.00098168	-0.0014149	0.0010504	-0.023198	0.052471	-0.001607	0.0069676	0.023038	-0.016001	-0.0241	0.0030945	-0.0036163	0.017024	-0.023773	-0.0024607	-0.049828	0.034307	0.020595	0.0098414	0.0088309	-0.057541	-0.003123	-0.013386	-0.038545	-0.013513	0.024591	0.018452	0.0094235	0.0019715	0.0032439	-0.015201	-0.012638	0.0030299	-0.0078649	0.025683	0.00838	0.0019194	0.0017189	0.0055716	0.0094437	-0.049155	-0.02268	0.028495	-0.021099	-0.022776	-0.044956	-0.031726	0.0058378	0.0057718	-0.03542	0.016441	-0.0051638	-0.0091338	-0.0082243
0.011932	0.019227	0.010265	-0.018013	-0.012181	0.0013017	-0.02281	-0.013327	-0.0093354	-0.0086324	-0.037086	0.017534	0.0028506	-0.0022792	0.00095694	0.049775	-0.0044924	-0.059742	-0.0080039	0.067388	0.0097681	-0.032203	-0.007518	-0.0031347	-0.014534	-0.017088	0.0044552	-2.3333e-05	0.0021502	-0.0088457	-0.022605	0.017529	0.0034324	0.0038769	0.011249	0.013895	-0.0031354	-0.0029351	0.029354	-0.0056582	0.002928	0.032449	0.00070899	-0.0051092	0.061383	0.037481	-0.060402	-0.015948	0.0060264	0.019926	0.14398	-0.055401	-0.068193	-0.031832	0.00042314	0.0054374	-0.0048158	-0.0070793	-0.0094022	0.013683	-0.0082989	-0.010276	0.0050613	-0.041465	-0.035166	-0.091488	0.087391	0.48926	-0.17334	-0.0096579	0.085838	0.024739	-0.010355	-0.014567	-0.060139	5.8718e-05	-0.026128	0.0032411	0.023039	-0.12874	-0.032233	-0.017331	-0.017345	-0.0032803	-0.022847	-0.033831	-0.050299	0.00018552	-0.0085217	0.0068008	-0.025934	0.024264	0.036544	0.0097847	0.024563	0.003548	-0.0057558	0.008828	0.014285	-0.026232
-0.011086	-0.041556	-0.048486	-0.031163	0.00063036	0.0025041	0.020997	-0.0013613	0.0092369	-0.0018695	0.017277	-0.068768	-0.031513	-0.01406	0.02139	-0.012334	-0.0062259	0.00029708	0.023469	-0.011726	-0.048648	-0.0037536	-0.032739	-0.010525	0.02627	-0.020576	0.014885	-0.0041919	-0.020097	-0.053654	-0.03774	-0.010194	-0.016953	-0.03509	0.014232	-0.058632	-0.04617	0.027666	-0.0083147	0.015668	0.044802	-0.0085468	-0.0087667	0.035627	-0.024405	0.019994	-0.036976	-0.030905	-0.041167	0.13593	-0.0023455	-0.041388	0.03972	-0.0034308	0.013973	-0.051993	0.015703	0.0076015	0.049481	0.12544	-0.0087006	-0.074266	0.044224	-0.0085276	0.002092	0.014781	-0.0084188	0.025439	0.024727	-0.0068279	-0.029498	0.044466	-0.068473	-0.15463	-0.060246	0.020841	0.45154	0.050562	0.02799	-0.019617	-0.0037397	0.041352	0.053225	-0.074461	0.019853	-0.0045586	-0.0086713	-0.024014	0.0056077	-0.0085202	-0.0066472	0.047198	-0.087969	-0.0015177	-0.025018	-0.031192	-0.019321	0.016431	0.00029282	-0.00082734
-0.0046317	-0.012308	0.021901	0.0037783	-0.0083329	-0.00179	-0.008899	-0.010423	-0.011136	-0.018051	0.0037782	0.0049682	-0.013556	-0.0011504	0.0012832	-0.0057618	-0.0075138	0.0050762	0.003195	-0.017073	-0.029712	0.0028399	0.0060662	-0.022824	-0.0069184	-0.0066227	-0.029441	0.00041628	0.0049002	-0.0093728	0.026287	-0.030756	0.0020481	-0.0015405	0.01017	-0.025309	-0.02176	-0.0010564	-0.0012814	0.022658	-0.010653	-0.021367	0.0029004	0.015493	-0.017803	-0.016166	0.014375	0.0081086	-0.005539	-0.0019913	-0.0095205	0.006627	-0.0036549	0.011858	0.0018969	-0.0068194	0.00052286	0.0080875	-0.022275	-0.0049447	0.031437	-0.0026026	-0.016649	0.016338	0.016231	-0.038773	-0.0028331	-0.014066	-0.0034221	-0.002889	-0.003694	0.0048333	-0.00014697	-0.021127	-0.012507	-0.010088	0.00068673	-0.00018741	0.0033586	-0.0056996	-0.022195	-0.0091004	-0.051407	-0.033283	-0.0032995	-0.023802	-0.071843	-0.078221	-0.11039	0.53235	-0.035576	-0.058234	-0.013122	0.021672	0.0097151	-0.031935	-0.017642	-0.032406	-0.014057	-0.027619
-0.017484	-0.020828	-0.040587	-0.0015453	0.061089	0.0031691	-0.0065821	-0.0096496	-0.021407	0.010262	0.036167	-0.058368	0.078195	-0.014662	0.02534	0.0012708	0.0012144	-0.000198	-0.00353	0.023279	-0.030415	0.0080737	0.026416	0.027889	0.0010223	-0.026256	0.0050362	-0.0048826	0.014604	-0.030418	-0.0056826	-0.032398	-0.023852	-0.027776	-0.024891	0.026503	-0.056553	-0.024577	0.027937	0.033081	-0.0095328	-0.0061013	0.44009	0.093077	0.074259	-0.0010919	0.02382	0.043867	-0.16927	-0.00069555	0.060875	0.020003	0.042247	0.028064	-0.063655	-0.04483	-0.059907	-0.0081882	0.058135	0.0011014	-0.025948	0.027777	0.020069	0.040581	0.013347	-0.085999	-0.043099	-0.0027768	-0.010867	0.013159	0.030499	-0.11494	-0.00029273	0.0021115	0.012168	0.0019155	-0.0069061	-0.0059976	0.00010159	0.027647	0.03821	0.027233	-0.014798	0.039813	0.0028597	0.022652	-0.0031801	-0.018587	-0.01822	-0.012091	-0.012292	0.030189	0.0017448	0.0091516	0.0011032	0.02555	-0.023631	-0.046249	-0.0086543	-0.022349
-0.0017813	0.00048222	-0.02383	-0.0056636	0.029462	0.0075579	-0.043998	-0.013412	-0.025678	0.017139	0.021085	-0.046548	-0.021508	-0.0282	0.015797	0.0020099	-0.018494	-0.0072752	-0.0099994	0.0096719	0.0048169	0.012383	-0.023523	0.025607	0.0096137	-0.011264	0.018692	0.014198	-0.0085657	-0.015701	-0.019361	0.032056	0.013074	-0.028132	-0.034735	-0.0041814	-0.083473	0.041155	0.024516	-0.00030643	0.032972	0.031593	-0.007244	-0.026749	0.021266	0.04904	-0.035951	-0.0011615	0.047229	-0.024427	0.0061837	-0.0087495	-0.00045708	0.0082425	-0.034505	0.025384	-9.798e-05	-0.011588	-0.034356	0.066302	0.010422	-0.059569	-0.047864	0.027955	0.019446	0.014745	-0.032839	0.010752	0.010193	-0.004996	-0.032377	-0.020947	0.49054	-0.13169	-0.0067376	0.027636	-0.010552	0.00256	0.007473	0.019049	-0.01055	0.019608	0.014865	0.023019	-0.00064003	0.0017686	-0.0010929	0.0082886	-0.0015407	0.004524	-0.007801	-0.010871	-0.00071477	0.0034351	-0.033376	0.025665	-0.0078271	-0.0048907	0.0071503	-0.0082796
0.0070986	-0.0060713	0.0057671	-0.0060972	-0.012471	-0.022486	-0.016544	-0.012898	-0.0047903	-0.026006	-0.015697	-0.021065	-0.0096105	-0.01653	-0.027667	-0.018295	0.0032859	-0.043691	-0.010885	0.063053	-0.02087	-0.034106	-0.017974	-0.032421	-0.017513	-0.0085243	-0.001417	-0.004119	-0.030255	-0.002879	-0.00086179	-0.0032304	-0.015966	0.01417	0.046633	-0.01714	-0.024607	-0.0010914	0.027384	-0.017828	-0.016432	0.010064	-0.030322	-0.031492	-0.03497	-0.17472	-0.13418	-0.055068	-0.0072319	0.013411	0.46111	-0.084619	-0.13275	-0.03944	-0.0074507	-0.0082148	-0.0062366	-0.0084696	0.0031423	-0.017335	-0.016601	0.015615	-0.0042688	-0.002384	-0.03856	-0.11317	0.055309	0.067909	-0.038852	-0.06969	-0.050952	0.0021136	0.015039	0.0023619	-0.03188	-0.065381	-0.00059571	0.0098574	-0.041109	0.022546	-0.018634	-0.024148	-0.039394	-0.014683	0.0065886	-0.053781	0.06237	0.023658	-0.01513	-0.0077063	0.0049084	-0.0020523	-0.013046	0.0086726	0.0099676	-0.021452	0.0056854	-0.028626	-0.026976	-0.0031247
-0.0028284	0.0074955	-0.010499	0.0070054	-0.0094086	0.01584	0.013769	0.017747	-5.9857e-05	-0.0035647	0.021232	-0.027717	-0.007798	-0.0023108	0.014646	0.016147	0.0099644	0.015762	0.0069556	0.012631	0.001377	0.028382	-0.024773	-0.0070073	-0.0097555	0.014623	-0.0060222	-0.0048038	-0.015206	0.0029379	-0.014333	-0.0049947	-0.007423	-0.030897	-0.10824	-0.010486	0.0035704	0.02193	0.015864	-0.0061748	0.0011051	0.0054073	0.0054453	0.0094068	0.0066273	-0.02104	-0.0011032	0.0015422	-0.019208	-0.0023944	0.010036	0.027949	0.027965	-0.0022699	0.003433	0.025975	0.012757	-0.0059317	0.019614	-0.0099043	-0.010612	0.0011265	-0.014436	0.0040891	-0.0025479	0.0045985	0.015613	-0.00025053	0.027302	-0.0018513	-0.0062702	-0.034056	-0.015778	0.0083206	-0.018354	0.0014171	0.0097143	-0.016225	0.023268	-0.0041949	-0.025669	-0.016893	0.018446	-0.043927	0.0032415	-0.0092977	-0.14279	0.49302	-0.092947	0.033755	-0.00057704	-0.00093957	-0.0039461	0.0064177	-0.005458	-0.020816	0.033256	0.034371	0.0077667	0.010477
0.0095122	0.0023754	-0.00047904	0.0052184	-0.0083722	-0.004058	-0.010397	0.0044315	0.019848	0.0094407	-0.016451	0.0040706	0.0060624	0.0070604	0.00023268	-0.0022398	0.012573	0.013752	-0.013411	0.019754	-0.011811	0.0010385	-0.0027609	0.0050633	0.00070352	-0.0047531	0.00010888	-0.01492	0.0045716	0.005769	0.010606	-0.013335	-0.00072666	-0.00057688	0.028952	0.0070473	-0.0072152	-0.0038579	0.0065872	0.0082363	-0.026002	0.020166	-0.00024905	0.015347	-0.0059342	-0.0030278	-0.029737	-0.010614	0.024917	0.008532	-0.088234	-0.1859	-0.042765	-0.014453	0.015194	-0.0037567	0.02086	0.0054772	-0.001385	-0.001034	0.001186	0.0077682	0.016181	-0.0020394	-0.029306	-0.040714	-0.083749	0.051072	-0.044158	-0.0011205	0.022955	0.0084128	-0.013169	0.00187	-0.024374	-0.010964	-0.0028087	0.0028808	-0.010365	0.43916	0.026486	0.017694	0.0059871	-0.0060389	0.063819	-0.13482	-0.089891	0.0051314	-0.011471	-0.014711	-0.00248	-0.0054306	0.023704	-0.001683	0.0047425	0.0085183	-0.0091521	0.018949	0.0022616	0.0027791
-0.0078147	-0.0093118	-0.011401	-0.0067685	0.0081204	-0.016829	-0.01218	-0.0056379	-0.014768	0.019355	-0.0073193	-0.0070483	-0.025264	0.018462	-0.0040832	0.0096135	0.0023807	-0.00059333	0.0083764	0.0052454	0.014196	-0.10122	-0.043871	0.014392	-0.0029958	0.0037278	0.49563	-0.0057143	-0.060366	-0.014765	-0.032313	-0.024225	-0.0012767	-0.018217	-0.022915	-0.0062292	0.0048924	-0.015892	-0.021439	0.0092984	-0.048513	-0.029122	0.015788	-0.0033089	-0.0021011	-0.0094757	0.0071697	0.02799	0.027143	-0.044379	0.004774	0.0073416	-0.0078202	-0.03627	0.017925	-0.014882	-0.024975	-0.0057168	0.0075236	0.003465	0.074698	-0.0056613	-0.0011364	-0.015963	-0.014282	0.023461	-0.024689	-0.0086604	0.0066922	-0.0099186	0.018093	-0.017164	-0.019501	0.0074062	-0.030356	0.013336	-0.019054	-0.011882	0.016832	-2.5163e-05	-0.0012507	-0.0061772	0.0095534	-0.035507	-0.0055349	-0.015827	0.021848	6.0812e-05	0.0034037	0.028566	-0.0071663	-0.0076183	-0.0074311	-0.017424	0.007502	-0.0051489	-0.0076781	0.034262	0.0021984	0.0036691
-0.015357	-0.028757	0.0018019	-0.0052716	-0.010046	0.002507	0.015256	-0.00063566	-0.019779	0.015519	-0.040146	0.037115	0.0011142	0.01045	-0.0077687	0.0022718	0.0099678	0.00011516	0.00076698	-0.012143	-0.0098888	0.0023973	-0.02369	0.02798	0.013044	0.017538	-0.033217	-0.0068636	-0.064121	-0.0057371	-0.017798	-0.015703	-0.0073573	-0.0074333	0.0081101	-0.047368	-0.020768	0.044046	-0.016189	-0.032372	0.039208	-0.020203	0.033804	-0.027737	-0.044448	-0.054949	-0.031039	-0.009117	0.033532	0.027042	-0.02822	-0.071792	-0.020041	0.0016915	-0.030048	-0.043655	-0.00091842	-0.01637	0.0098697	-0.064358	0.024371	-0.02758	-0.053164	-0.080613	0.012144	-0.013917	0.016734	0.036144	0.11338	-0.013366	-0.038795	-0.070281	-0.0078944	0.010618	0.036933	0.0062663	-0.050498	-0.015469	0.42638	0.0030234	0.016047	0.0017834	0.023467	-0.053847	-0.0080329	0.026712	0.02532	-0.022041	-0.023156	-0.018569	-0.022969	-0.021177	-0.02654	0.014181	-0.0018761	-0.0051885	-0.015713	-0.052659	-0.018223	-0.0027319
-0.010026	0.0056259	0.0064471	0.012983	-0.016506	-0.0016811	0.007355	0.0058664	0.0052962	-0.0090914	0.024485	-0.0091441	-0.0070607	0.0015232	0.0075715	-0.010299	0.014048	-0.0012991	-0.010675	0.022233	0.011163	-0.018458	0.0078049	0.004231	-0.010061	-0.0030089	0.017052	0.0030065	0.012776	-0.019562	0.0068875	0.0084693	0.0025433	0.0087191	-0.013783	-0.022383	0.019168	0.00035916	-0.0088248	0.0063299	-0.0068297	0.02554	0.0020136	-0.011418	0.014094	-0.0043302	-0.016484	-0.02474	0.014501	-2.8586e-06	0.0015662	-0.015301	-0.030375	-0.0058841	-0.041401	0.0071323	0.0057677	0.0042083	0.010272	0.002638	0.0023594	-0.012515	-0.055193	-0.039983	0.48874	-0.043443	-0.016582	0.0025293	-0.044269	0.0068183	-0.045023	0.036743	-0.030151	0.0063093	-0.008989	0.016758	0.0005755	-0.0029738	-0.010781	0.013336	0.0022503	-0.0045496	-0.018337	0.0095454	-0.01146	-0.0027751	0.0012926	0.0062207	0.0021011	-0.0072079	-0.0014319	0.013819	-0.0022424	0.0061497	-0.012109	0.025334	0.014215	0.02248	-0.012206	-0.0057292
0.0069476	-0.010836	-0.016105	-0.028311	-0.067189	-0.0015441	-0.013328	-0.0084936	0.0045473	-0.040758	0.44489	-0.06112	-0.043962	-0.071775	-0.099359	-0.025882	-0.041308	-0.025892	0.014649	-0.0023643	0.004066	0.010592	0.015126	0.0013253	0.012807	-0.0055012	0.0041996	0.016605	-0.024099	0.017335	-0.0072629	0.030426	0.020217	0.023842	0.017791	-0.016514	-0.016367	0.020145	0.00090405	0.0027068	0.026854	0.0033868	-0.019136	0.0047065	-0.0027863	-0.012017	0.0032657	-0.00092524	0.0056125	0.028553	0.022173	-0.019301	0.017073	-0.0031545	-0.0022432	-0.0060918	0.0093752	-0.00083316	0.0094427	0.01243	0.0037309	0.0090039	0.0022399	0.012619	-0.019486	0.044672	-0.041805	0.045503	-0.017996	0.0096734	0.044904	0.0001484	-0.015541	0.074703	-0.044188	0.011804	-0.03575	0.0073201	0.048774	0.028037	-0.0086773	-0.0020871	-0.0014344	-0.0059927	-0.0078703	0.02978	0.022946	-0.013593	0.0089945	0.01076	0.031582	0.012177	0.022098	0.016438	-0.002871	0.00038568	0.011879	0.013696	0.01033	0.0065231
0.0056521	-0.0079152	0.016728	0.00017936	0.016348	0.015492	-0.014657	0.00076998	0.027788	0.04256	-0.0047799	-0.092366	0.037488	0.025383	0.033854	0.024022	-0.017621	-0.0012206	0.016198	0.034954	0.035039	-0.018577	0.010732	-0.0067309	-0.016106	0.00026595	0.00083996	-0.011033	-0.026107	-0.018645	0.016472	-0.0015618	5.9299e-05	-0.040252	-0.038252	0.013132	-0.094628	0.052512	0.018059	0.029495	0.020577	0.021803	0.065639	0.0016949	-0.0091249	0.0020397	0.0033507	0.042821	0.034777	-0.013852	-0.0012544	0.021963	0.011343	-0.0033098	-0.063906	0.027904	-0.036147	-0.020841	0.018119	0.00028043	-0.017134	-0.078143	-0.072703	-0.025421	-0.041186	-0.026689	0.028208	-0.0045257	0.042571	0.026681	-0.006144	0.39545	-0.010389	0.10531	0.0068205	-0.049332	-0.03796	0.088002	0.017504	0.018943	0.021049	0.044556	0.017238	-0.01372	-0.00074196	0.0068051	0.029753	0.0062659	-0.02906	0.0024418	0.0050191	-0.0064412	-0.054363	0.0080618	0.025271	0.0082264	0.0088712	-0.0030409	0.014255	0.013291
0.0017938	-0.0034545	-0.034453	-0.018263	-0.0012448	0.0030282	0.0020664	-0.0028667	-0.030663	-0.021556	-0.001293	-0.037925	-0.023366	0.053126	0.028909	0.0078763	-0.0075419	-0.0013214	0.010861	0.019614	0.0047709	-0.033602	-0.017633	0.016454	0.006042	0.00072628	-0.01951	0.012905	-0.052853	0.44171	-0.011938	-0.036717	-0.0032049	0.0079847	-0.00082368	0.025348	-0.052756	0.031345	-0.0028536	-0.001961	-0.10496	-0.026754	0.020597	-0.016602	0.0036506	0.011377	-0.0011839	-0.021221	-0.057454	0.047074	-0.0061221	0.014743	-0.0068026	0.006187	0.038898	0.049218	-0.013516	-0.021333	-0.041551	0.040749	0.053192	-0.019092	0.057073	-0.013047	0.019624	-0.022701	0.014813	0.010417	0.00011063	-0.0098285	-0.04693	0.013617	-0.0064606	-0.024173	0.013664	0.035339	-0.006957	0.017344	0.01069	0.0070539	0.0063337	-0.0061242	0.022543	0.0019494	-0.0035905	0.010371	0.020744	-0.001009	4.3443e-05	0.012089	0.00050976	0.018113	-0.018983	-0.010861	-0.022841	0.03076	-0.0082493	0.024364	0.0025884	0.021339
-0.0087877	-0.033146	-0.0072667	-0.016	0.00084684	-0.0043495	-0.032523	-0.005392	-0.0040197	-0.02511	0.0050951	-0.025549	-0.017209	0.033135	0.025301	-0.004974	0.00025748	-0.0010318	0.0044545	0.0046677	-0.0075447	0.0020321	0.013895	-0.01694	0.010467	-0.0003079	0.0026687	-0.0065215	-0.057237	-0.028985	-0.027366	-0.0069668	-0.0034931	0.016404	0.020824	-0.0051234	0.033562	-0.0051019	-0.00080212	0.016792	-0.094842	0.42731	0.016872	0.0023112	-0.025157	-0.012432	0.014732	-0.029474	-0.015439	-0.0090251	-0.012306	0.033319	0.0068628	-0.0071661	-0.015295	0.01786	0.054374	0.016402	-0.049324	0.020565	-0.0051828	-0.050343	0.036969	-0.018966	-0.017978	-0.0095874	0.020582	-0.016581	0.020406	-0.053521	0.015601	-0.027483	-0.019943	0.0040901	0.024413	0.038462	-0.018418	-0.0054659	0.011748	-0.0053008	0.012816	0.024308	-0.0024515	-0.020554	-0.0021269	0.0030482	0.0013574	-0.0099942	0.0022376	0.0097716	0.0016064	-0.0052326	-0.029135	-0.00072455	-0.0050126	-0.026108	0.0072394	0.014453	-0.0003849	0.0023215
-0.0027259	0.013083	0.02305	-0.017105	-0.031122	-0.0077046	-0.00035842	0.0033552	0.011372	-0.0041721	-0.0043136	0.017025	0.027415	-0.021977	-0.011423	0.0031005	0.0090869	-0.00096839	0.0101	-0.00040855	0.019362	0.019585	-0.011312	-0.0068959	-0.014384	-0.020169	-0.018454	-0.0050555	-0.029315	-0.017065	-0.01698	-0.025517	-0.0029626	0.00083346	0.014517	-0.035554	-0.038863	0.013556	0.0035003	0.43775	-0.043216	-0.039209	-0.033958	-0.0080214	-0.030169	0.0095032	0.0041249	-0.021474	-0.069828	-0.019172	-0.012099	-0.0072415	-0.02239	-0.027579	0.012639	-0.0087664	-0.0050289	-0.015102	-0.025505	-0.010737	-0.0050294	-0.028995	-0.0062575	-0.050657	0.0020144	0.016452	0.0027933	-0.0020641	-8.9221e-05	-0.0098186	0.0044392	-0.027718	0.015538	0.0086092	0.0039681	-0.0033072	-0.018237	-0.013054	-0.0022558	-0.013539	-0.013543	-0.0089872	0.00029918	-0.024571	-0.009323	-0.016572	0.016273	0.010911	0.0044853	-0.026033	-0.025793	0.013863	0.0069274	0.0048786	0.016547	-0.038025	-0.037926	-0.0044633	-0.0063043	0.022093
2.3572e-05	0.0043941	0.010254	0.0007492	0.018719	0.013746	-0.017715	0.0042615	0.021699	-0.0023007	0.0061069	0.002665	0.011385	0.011583	0.0075359	0.010607	0.0055384	0.010811	0.015891	-0.010128	0.01047	0.011104	0.010635	0.00050162	0.010737	0.0080191	0.0071625	0.010127	0.0071481	0.006241	0.0062016	0.007859	0.013348	0.0097129	0.0081531	-0.014461	0.03556	0.0068436	-0.018771	0.0053403	0.0077895	0.0041844	-0.0053865	0.03527	0.0050845	0.0096111	0.015196	0.021067	-0.011596	0.0038735	-0.047389	-0.092621	0.0069628	0.012208	-0.0050261	0.010149	0.018908	0.0061131	0.008753	0.0058475	0.021401	0.022646	-0.012907	-0.008902	0.0042928	-0.056414	-0.10076	0.16257	0.34778	0.036122	-0.09832	-0.018523	0.0035907	0.043979	-0.0026363	0.023802	-0.0021003	-0.05323	-0.13253	-0.023013	0.029634	-0.011683	-0.033032	-0.012308	0.0018162	0.032057	0.037629	0.0033762	0.0090975	0.01136	0.013789	-0.0095786	-0.0046762	0.0072213	0.0091427	-0.0080545	0.011626	0.0055141	0.0057971	0.013133
-0.0029645	0.032932	0.0028807	0.0061337	0.037287	0.0061451	0.011904	0.0053208	-0.0007965	-0.021975	-0.031715	-0.066032	-0.033945	0.0068826	0.035985	-0.011615	0.0026241	0.0032135	0.014558	-0.016404	0.0046629	-0.024783	0.021071	-0.010931	0.0030543	-0.023447	-0.023134	-0.014261	0.020719	0.032545	-0.012815	-0.024931	-0.012749	-0.010668	-0.040724	0.0031248	-0.016577	0.041486	0.017209	-0.011478	0.048079	-0.015677	-0.026484	-0.0084121	-0.011115	-0.040929	0.0047989	-0.003947	0.043848	0.037352	0.020746	-0.034537	0.0048543	-0.019737	-0.020192	-0.026437	-0.040064	0.0079571	-0.066715	0.041756	0.026701	-0.054581	-0.093929	-0.063736	0.028152	-0.015955	0.033799	-0.030718	0.087707	0.022726	0.35335	-0.094015	-0.0056966	0.034428	-6.6406e-05	0.015631	-0.003659	0.050828	-0.052981	0.011751	0.013035	0.039635	-0.0047063	-0.026536	-0.0063532	0.0032431	0.048767	0.0068505	0.019008	0.0084019	0.0067714	0.016509	-0.029822	-7.6548e-05	0.021139	0.0071937	-0.013845	-0.0064981	-0.0062941	-0.003235
0.0021191	0.042958	0.002407	0.0090846	-0.028619	-0.016719	-0.020038	-0.0095654	-0.041662	-0.035476	0.021033	-0.033714	-0.0081206	0.39946	-0.12033	-0.015799	-0.005873	-0.0097099	-0.0033209	-0.010554	-0.024105	-0.023904	0.009427	0.042419	-0.0064874	-0.0022613	-0.025385	0.012798	-0.022654	-0.043745	-0.0031829	-0.021656	0.00022438	0.013385	0.016271	-0.015852	-0.023365	0.041731	-0.014292	0.025812	0.0054184	-0.023563	0.0063747	0.030057	0.019334	0.0080498	-0.031452	-0.012772	0.045872	-0.019023	0.0080139	0.024152	-0.0016244	0.0080713	-0.026497	-0.0049657	0.0042641	-0.008843	0.039461	0.0033097	-0.036869	0.0013984	-0.010034	0.032521	-0.0061307	0.0011814	-0.0067128	-0.0058285	0.0067732	0.0077166	0.010136	-0.020207	-0.0017128	-0.035178	-0.042417	0.017536	-0.0086938	0.0067958	-0.0079368	-0.0050811	0.020713	-0.02534	-0.0020251	-0.010207	0.0022277	-0.0014276	-0.024186	-0.0078608	-0.009476	-0.0049666	-0.0015778	0.013809	0.013416	-0.028746	-0.015764	0.01667	0.029125	0.013642	0.012955	0.029183
0.0023837	-0.097225	0.012422	0.009435	-0.020234	0.0047994	0.0072858	-0.000371	-0.0023536	0.0094751	-0.009003	0.030776	0.003133	-0.0035285	0.032302	0.003035	-0.0073088	0.0042601	-0.0088098	-0.005092	-0.0017975	0.018331	0.0018485	-0.011579	0.017768	0.0221	-0.0001065	-0.0001129	-0.026009	0.016216	-0.0049202	0.0064	0.0018564	0.026852	0.04635	0.043206	-0.03777	-0.028466	0.031103	0.023561	0.0072197	-0.020578	0.027554	-0.0067371	-0.0074773	-0.0030859	-0.005999	0.0015421	-0.0036456	0.0069769	0.0027628	0.038553	-0.0095241	0.010006	0.047605	-0.027721	0.0053251	0.019657	0.035408	0.014299	0.0040559	-0.014132	-0.010537	-0.033036	0.01309	-0.0068722	-0.034866	0.010131	0.0024116	0.0051261	0.044306	-0.0088822	0.026203	0.017203	0.012602	-0.0077443	0.0090315	0.0080677	-0.0011655	0.0020572	-0.012832	-0.012602	0.020667	-0.030162	0.0042635	-0.010431	-0.027742	-0.02904	-0.0065131	-0.012553	-0.00089941	-0.068572	0.0011104	-0.051393	-0.0028885	-0.093319	0.38866	0.0067111	0.019649	-0.0098849
-0.00034576	-0.00069715	-0.0090411	0.0035998	-0.018652	-0.014646	0.024992	-0.0024425	0.0034067	-0.020566	0.010739	0.010647	0.012426	-0.019136	0.0069508	-0.0058784	-0.001637	-0.0077105	-0.0040613	0.0023198	0.0038847	0.0047212	-0.0073845	-0.010943	0.0063085	0.0061345	-0.0016642	-0.0077332	-0.0049895	-0.0022587	-0.013281	0.019422	-0.0014877	-0.01315	-0.0027817	0.016443	-0.012481	-0.018005	0.0045781	-0.0012827	0.0047849	-0.015205	-0.014085	0.0028009	-0.018175	0.0094908	0.0020761	-0.0073007	0.010853	0.01296	-0.0044775	-0.0055003	0.00076381	-0.013258	0.0090385	0.0071618	-0.0097847	0.0011703	-0.0090047	-0.016951	0.011286	0.01432	0.0086035	-0.0068986	-0.00055911	-0.0077252	0.019945	-0.0065738	-0.024413	-0.016597	0.00043269	0.0077559	0.018932	-0.019055	0.012054	0.015015	-0.0096732	-0.041521	-0.03045	-0.042795	0.41243	-0.018976	-0.018014	-0.11886	0.0080675	-0.012095	-0.04788	-0.006699	-0.045372	-0.013259	-0.0024705	-0.023247	-0.012552	0.01192	0.00046197	0.0092107	-0.0029831	-0.0063449	-0.017833	0.0014495
-0.00085114	-5.1187e-05	0.02568	-0.010375	0.0026652	-0.0027342	-0.0014767	-0.0049336	-0.00016165	-0.0023854	-0.0069217	-0.0044346	0.024174	-0.015344	-0.0068395	-0.0052688	-0.0012454	-0.0049504	0.010491	-0.0024877	0.0059126	-0.0024897	0.015252	-0.0060156	-0.0051854	0.0030928	-0.00030337	0.005907	-0.019717	0.0088273	-0.00067246	0.015199	0.00045268	-0.0040938	-0.026157	-0.044126	-0.04985	-0.014612	-0.017233	0.012732	7.9182e-05	0.019857	-0.060527	-0.044087	0.4154	-0.074321	0.0024773	-0.013042	0.0030106	-0.01067	-0.0032253	-0.019167	0.0046146	-0.0022003	-0.016577	-0.018136	-0.0010459	-0.00046569	-0.02447	-0.014735	0.0039812	-0.0095626	0.02299	0.010874	-0.0062518	0.043491	-0.0021744	-0.022069	0.020466	0.00091963	-0.0091329	0.0039064	-0.025527	-0.0131	0.00090074	-0.00088831	0.0092115	0.0028604	0.016003	0.016191	0.0173	0.0088756	-0.014327	-0.021796	-0.0088041	0.0028494	0.0084505	-0.0074944	0.0022935	0.006671	-0.0079993	0.013661	-0.011361	0.0045893	0.0084607	-0.030889	0.02351	-0.04741	0.0022088	-0.012166
0.0023301	-0.015496	-0.0054216	-0.017198	0.0021463	0.00028429	-0.0016662	0.0014401	0.012574	0.0080362	-0.025275	-0.049556	-0.049869	-0.012404	0.031683	0.017805	-0.0031468	0.0015642	-0.00081268	0.025086	0.0021568	0.095318	-0.050672	0.016057	-0.011462	-0.024047	0.0058932	0.020306	-0.033378	-0.018105	0.01261	-0.0014203	0.0027259	-0.023589	-0.0083967	0.031593	-0.086582	0.079113	0.0085626	-0.020239	0.0070846	0.013109	0.0019653	-0.027443	-0.0068063	-0.031055	0.032815	-0.0012901	-0.0063133	-0.018818	0.014051	-0.010029	-0.0073406	0.0048708	0.0052627	-0.001034	0.0054691	0.0065197	0.0063045	0.070027	0.0015516	-0.029588	-0.023908	-0.0020356	0.0050336	0.0027321	0.011015	-0.025045	0.021234	0.041945	-0.028868	-0.0070729	-0.065786	-0.048109	-0.024988	0.050818	-0.020917	0.038116	-0.010719	-0.012646	0.0033603	-0.0082206	0.018648	-0.053354	0.0094965	0.0007005	0.0092686	-0.023833	-0.016784	-0.0084994	-0.0077297	-0.031194	0.36036	0.030412	-0.0028783	-0.033258	-0.019773	0.0039301	0.0070155	-0.0040853
0.0023201	-0.0018431	-0.06254	0.01296	-0.10303	0.0077678	-0.016053	-0.0040448	-0.04823	-0.010337	0.0034275	-0.0046051	0.0026629	0.0059343	0.012912	0.0045123	0.0071156	-0.0017743	0.0005802	0.0044726	-0.0015201	-0.0025574	-0.038036	0.027832	-0.005979	0.0044013	-0.01137	-0.019974	-0.0062904	0.016249	-0.014881	0.00025839	-0.008586	-0.026513	-0.025819	0.025134	0.01333	-0.021394	-0.020253	-0.020941	-0.00035449	0.012507	0.011422	0.00646	-0.0085011	-0.0072932	0.0021366	-0.022915	-0.0083915	-0.0038302	-0.023427	-0.019094	0.017657	0.026858	0.0021962	0.010755	-0.0026355	-0.0008021	0.025921	-0.0049956	-0.0054736	0.014825	-0.022084	0.016087	0.017694	0.033121	0.010784	-0.0042523	0.0056573	-0.016673	-0.006899	-0.0018665	0.026333	-0.023358	-0.012497	-0.0175	0.0084685	0.030841	-0.0090062	-0.0020766	-0.0043391	-0.058268	-0.0039287	0.0012804	-0.006001	-0.025763	0.025925	-0.0062497	-0.0081004	-0.0087882	0.0017662	0.020066	-0.0027715	-0.048736	0.37506	-0.081208	-0.020497	-0.028196	-0.0052256	-0.014769
-0.0013707	0.022367	-0.023144	0.00067386	0.028147	0.009059	-0.014262	-0.00072745	0.0042367	0.042596	-0.018855	0.0085921	0.0068759	-0.0087841	0.0044806	-0.017504	-0.0028613	-0.00039514	0.015346	-0.0029204	0.015649	0.040392	-0.0063614	0.011093	-0.0078636	-0.016723	0.0091729	0.00020449	-0.048257	0.023919	-0.014489	0.01497	-0.0010726	-6.8472e-05	-0.026902	-0.030171	-0.039259	-0.055129	-0.014611	-0.012572	0.029358	0.0019506	-0.096214	0.37577	0.0024802	-0.048821	-0.013666	0.0041373	-0.027149	0.010013	0.0016465	-0.01146	0.04353	-0.018305	-0.013442	0.0078367	-0.00087078	-0.0075486	-0.013886	-0.0022142	-0.0055256	-0.029812	-0.0027871	0.016819	0.019128	-0.0068034	0.016427	0.0014876	-0.029785	-0.029272	-0.0023066	-0.0065132	0.013059	0.023801	0.0047441	-0.0063697	-0.033211	0.018847	0.015082	-0.0065077	-0.0071594	-0.013582	0.0085579	-0.00034395	-0.0085242	-0.0068299	0.0044215	-0.015627	0.0018207	-0.0094441	0.015083	-0.016393	0.014462	0.016327	-0.012364	-0.025202	0.010558	-0.014608	0.009774	0.033774
-0.0078697	-0.0050112	-0.021666	0.0035808	-0.017588	0.0046329	0.0039077	-0.0037098	-0.022751	0.0093586	0.015556	0.045204	0.020271	0.0020072	0.013774	0.0053762	-0.0049334	0.0059162	-0.0043298	0.0088676	-0.012441	-0.046512	0.037576	0.0095766	0.016812	0.00015088	0.0013679	0.016523	-0.0018002	-0.019018	0.37556	-0.058968	-0.0038595	0.0036056	0.00073245	0.0017451	-0.0665	-0.038438	0.0027912	-0.0044358	-0.058427	0.014187	-0.019739	0.016806	-0.0043218	-0.015802	0.015757	0.0050591	-0.014313	-0.015072	0.0060491	0.014889	0.011307	0.002426	0.020146	0.0096424	0.0061356	1.7808e-05	-0.025259	0.028814	0.0027025	0.027342	-0.048619	-0.040842	-0.0081168	0.016723	-0.02538	0.019209	0.00038956	-0.018762	0.0042357	-0.018062	0.011163	-0.0053946	-0.033851	0.021605	0.027107	0.029247	0.018513	-0.011459	0.011437	0.0084659	0.014007	-0.01949	0.006792	0.003715	0.015331	0.01873	-0.0022583	-0.018758	-0.010263	0.0071975	-0.0071507	-0.00387	0.0085803	0.030502	-0.0070134	0.00429	0.0009914	-0.013011
0.0021018	0.02057	0.058378	0.0084457	0.03127	0.0068052	-0.015893	0.00087126	-0.010689	0.019619	-0.01204	-0.0034361	-0.045757	0.024774	0.0084901	0.0068539	-0.0046617	-0.0070816	0.020387	0.0046474	0.02702	-0.0022616	0.017773	-0.0048877	0.0044144	0.0092914	-0.017227	0.029514	0.025966	0.0066664	0.0066605	-0.0024287	-0.003083	-0.016049	0.007153	0.00531	0.045529	-0.031464	0.0075296	-0.012456	-0.040266	-0.0027697	0.091729	0.0062497	-0.030107	-0.052798	-0.018515	-0.02995	-0.01543	0.010341	0.025404	-0.14243	0.026506	0.029137	-0.0060883	-0.003862	-0.028185	-0.016471	0.01375	-0.01593	0.024069	-0.062643	-0.027615	-0.046513	0.010866	0.32009	0.012442	0.032436	-0.019218	-0.022225	-0.013608	0.021677	-0.0033952	-0.025886	0.024456	0.0096402	-0.016512	-0.011712	-0.035981	-0.021063	0.0098725	-0.016567	-0.014455	0.01565	-9.149e-05	-0.0098951	0.0081893	0.0072618	-0.0030928	0.01946	0.0082879	-0.0054827	-0.0032167	0.033171	-0.03562	-0.044744	0.012877	-0.0093958	0.0096932	0.017118
-0.0043325	-0.0013392	0.023242	0.0044739	0.022371	0.0027553	0.003751	0.00085127	0.015203	-0.02664	0.0087428	-0.0053164	0.012123	-0.0066432	0.004161	-0.0051732	-0.0074309	-0.0029174	0.0078389	-0.0034889	-0.0096024	0.0042368	-0.027754	0.035696	-0.0049556	0.017476	0.024047	-0.017327	-0.003136	0.0045231	-0.0055407	0.011305	-0.002693	-0.0019436	-0.025469	0.018974	0.015793	-0.034908	0.0080232	0.013169	-0.015166	-0.0025155	-0.042458	0.0063095	-0.0035993	-0.0050369	-0.026481	-0.0074138	-0.016269	-0.0026879	-0.0022522	0.0081572	-0.040678	0.37501	-0.042234	-0.022947	0.0032546	0.00050631	-0.0020773	-0.013959	-0.023194	-0.018191	-0.019059	-0.032057	-0.012769	-0.033482	-0.01447	-0.00046721	-0.0097266	-0.030895	0.016265	0.005758	-0.0076284	-0.0096027	-0.026073	-0.001056	-0.011047	0.0030496	-0.005891	-0.00027299	-0.0011458	-0.0094196	0.029522	-0.030189	0.0044708	-0.0051525	0.002796	-0.0054931	-0.0022217	-0.0064088	-0.01425	0.037454	-0.0023896	0.035722	-0.017654	0.0037986	-0.0040265	0.017639	-0.011685	-0.028919
0.018028	0.044562	0.019943	0.0084754	-0.0077664	0.0056173	0.015914	0.0045238	0.015791	0.027482	0.0083127	-0.035142	0.33491	-0.023914	-0.012044	0.0024908	-0.0051151	-0.0019267	0.015383	0.0080002	-0.007636	-0.026313	0.031682	-0.0091048	0.015892	0.0037789	0.0070324	0.018941	-0.070223	-0.00083271	-0.01596	-0.0016538	0.0094119	0.014564	0.0038077	0.012365	-0.038343	0.10328	-0.028075	-0.043651	-0.045059	0.0042094	-0.027806	-0.0092744	-0.029059	0.022497	0.0021616	-0.0064191	0.021811	0.0083527	0.0067722	-0.0036229	0.0044296	0.010054	0.028372	0.027417	0.0096571	0.0094775	0.030144	-0.045157	-0.023549	-0.019867	0.018814	0.0021198	0.021285	0.050738	0.027455	0.0055929	0.0011728	0.00035291	0.024905	-0.04376	0.0059277	-0.013883	-0.021729	-0.0041837	0.022786	-0.015791	-0.013163	0.0063348	-0.011287	-0.0081172	-0.0058268	-0.00605	0.0024096	-0.001202	0.024507	-0.0062379	-0.012905	0.016541	0.011573	-0.013052	0.017783	0.01898	-0.0036859	-0.029281	0.0037688	0.016463	0.0099399	0.029669
-0.00012556	-0.025844	0.0080873	-0.0065802	0.0021919	0.0041127	0.024851	0.010942	0.022758	0.0027037	-0.019482	-0.050525	-0.06126	0.016907	0.021537	0.011771	0.015425	0.0095845	-0.011462	0.040299	0.0048568	0.047471	-0.0046453	-0.023449	0.019912	0.0065056	0.014887	0.015914	-0.010134	-0.049068	0.049214	0.013465	0.012482	0.003699	0.02477	-0.0017254	-0.12186	0.062693	0.0076009	-0.020411	0.031027	-0.02798	-0.021622	-0.012517	-0.023613	-0.025117	-0.027417	0.0079418	0.00012795	0.0082661	-0.017116	-0.0053419	0.009707	0.024792	-0.02676	0.0045764	-0.014431	-0.0031877	0.028805	-0.025248	-0.010824	-0.03799	0.2993	-0.070911	0.035797	0.017398	0.019312	0.0079073	0.0090628	0.0045167	0.015982	-0.035026	0.01691	0.057932	0.011706	0.0018535	-0.049601	-0.001573	-0.022422	-0.0032601	0.00096782	0.0032996	0.0025047	0.031695	-0.0014911	0.019061	-0.013008	0.0022546	0.00369	0.0078819	-0.011453	-0.00037099	-0.053576	0.0014663	0.037709	-0.015987	-0.021497	0.017217	0.0059517	-0.013039
-0.001516	0.011819	0.0089037	-0.0077539	0.0025673	-0.0013521	0.012763	-0.00064546	-0.026347	-0.028843	-0.0027066	-0.018379	-0.0001797	0.031668	0.0223	0.00041679	-0.0087784	0.0012858	0.0025336	0.01383	0.0073983	-0.014451	0.0074129	-0.0092714	-0.0045484	-0.016906	0.0032896	0.009683	-0.022978	-0.012504	-0.013727	0.0037363	0.0040765	0.0096261	0.016301	-0.03951	0.0013825	0.01382	0.0099227	-0.012345	0.020701	-0.0099091	-0.039954	-0.0064375	-0.017386	-0.033905	0.36279	-0.015982	-0.037825	0.016557	0.041707	-0.065972	-0.011224	0.016043	-0.029647	-0.025304	-0.01277	0.0013832	0.010572	-0.0089861	0.0062441	0.0063072	0.0091044	-0.015151	-0.002459	-0.023718	-0.0034863	0.01485	-0.034423	-0.014028	-0.020391	0.0050876	0.025897	-0.023887	0.012609	-0.0022727	-0.0014039	0.023117	0.0056991	0.0059855	-0.0022206	-0.012459	-0.0015208	0.013064	-0.00040696	-0.0056226	0.0040797	0.009572	-0.0042095	-0.011714	-0.0034984	0.00096591	-0.030762	0.013452	0.00031274	0.014294	0.025353	-0.0012261	-0.00076428	0.00077573
-0.0043688	-0.0046153	0.0023504	-0.0083362	-0.010954	-0.012726	-0.0061131	-0.013384	-0.0025812	0.0020018	0.012856	-0.021179	-0.0038861	-0.0069944	0.006448	-0.0095203	0.0020416	-0.0060277	-0.0019153	-0.029163	-0.016143	-0.056031	-0.05387	-0.004934	-0.027143	0.36308	-0.026731	-0.018098	-0.0071768	-0.018841	-0.0099672	-0.070593	-0.020595	-0.026568	-0.025315	-0.002502	-0.024514	-0.00065667	-0.0036834	0.0011422	-0.00021832	-0.00070339	-0.0079841	0.018193	0.0012046	0.02749	0.014152	-0.004045	-0.018442	0.010585	0.0019377	-0.017004	-0.0028602	-0.018703	-0.01165	-0.00088235	-0.0059926	0.0015136	0.0042022	-0.0048558	0.016062	-0.0157	0.0086024	-0.0075853	0.0013087	-0.01317	-0.019171	0.0026589	-0.014431	-0.0094993	0.01063	-0.0032514	-0.0016067	-0.013929	0.0094588	0.0038845	-0.0085233	0.010617	-0.01875	-0.010136	-0.0068035	0.016029	-0.03	0.0083018	-0.0012495	-0.011629	0.010214	-0.0038517	0.0048043	-0.0084151	-0.00083543	-0.013401	0.025279	-0.015204	-0.019625	-0.0050858	-0.016119	-0.016932	0.0023793	0.00079625
0.019693	0.0021608	-0.0023127	0.017391	0.0096019	-0.0034345	0.024528	0.0020342	-0.011941	0.00037804	-0.019153	-0.027234	-0.067976	-0.034648	0.023273	-0.0019441	-0.00060712	-0.0063943	-0.0011614	-3.0477e-05	-0.018216	0.0073188	0.006656	0.0053847	-0.0088547	-0.00030323	-0.012806	0.014943	-0.061633	0.031217	0.011243	0.0061774	-0.0024987	-0.0071072	-0.007484	0.014802	-0.0013809	-0.020904	0.0035628	0.018514	-0.085806	0.019819	-0.028384	-0.0004897	0.01942	-0.025137	0.003525	-0.01899	0.02333	0.012711	-0.014143	0.0059642	-0.010824	-0.0154	0.019387	-0.023632	0.036882	0.016542	0.31339	-0.10091	-0.029927	0.027269	-0.04637	0.019872	-0.0013586	-0.0069649	0.0096252	0.00094252	0.014734	0.018489	0.053078	-0.0051129	0.042312	0.019373	-0.023872	0.016474	0.0049309	0.022708	-0.01123	-0.014713	0.00067495	0.0093532	-0.00041191	0.0030195	-0.0020518	0.0091695	-0.03539	-0.028223	0.0086959	0.0021303	6.2497e-05	-0.01859	-0.0072389	0.0090965	-0.023918	0.0028481	-0.046661	0.031625	0.003526	0.0039718
-0.0036661	0.010208	0.022049	-0.0082517	-0.010458	-0.0069965	0.0018943	-0.008194	-0.0043805	-0.0077143	0.014871	0.032418	-0.0061988	0.010625	-0.0061788	-0.0074218	-0.010632	-0.0095623	-0.010908	-0.011621	0.0049685	0.010403	-0.0062499	0.0316	0.0065365	-0.011765	-0.0027798	-0.0071168	0.0059104	-0.027945	-0.019358	0.026193	-0.019086	-0.021394	-0.12161	0.32875	-0.063074	-0.020965	-0.017648	0.029894	-0.0050755	0.013635	-0.038979	0.0019684	-0.00076951	-0.02129	0.030342	3.5333e-05	0.021739	0.012871	0.02171	-0.016713	0.00953	-0.02409	-0.024094	0.023638	-0.0062065	-0.0072491	-0.0047528	0.0027885	-0.00085411	0.01458	0.011187	0.0064224	0.01189	0.011111	-0.013644	0.015429	0.018641	-0.010801	-0.021517	-0.022416	-0.028098	-0.014902	0.020966	-0.0096609	0.031657	-0.0019881	0.027569	0.014146	-0.010423	-0.0031978	-0.0076014	0.012633	-0.0041524	-0.0023926	0.031977	-0.010553	-0.00059245	0.020369	-0.015246	0.0087525	-0.0372	-0.019403	-0.031963	0.027663	-0.0032053	-0.014899	0.0018409	0.007513
-0.0056329	0.3239	0.018234	0.011528	0.0015129	0.0042214	0.0053351	0.0010771	-0.0026759	0.010309	0.010847	-0.026839	-0.062436	-0.035311	0.018703	0.0038003	0.0020741	0.0055179	-0.0030612	-0.0021109	-0.0054961	-0.0060732	0.010694	0.030108	0.01106	0.011428	0.013534	0.0049821	-0.0016545	0.0059924	0.021949	-0.0081181	0.0010515	-0.0098353	0.0059422	-0.00096268	-0.0076089	0.017612	0.033996	0.0017344	0.0086437	0.025802	0.018922	-0.020303	-0.014713	-0.022766	-0.0089881	0.031616	0.0032415	0.012018	-0.01917	0.029932	0.0036912	0.00012636	-0.0024373	-0.013932	-0.03447	-0.017925	-0.02763	-0.072957	-0.017563	0.0010922	0.011476	0.015685	-0.00255	-0.03524	0.019804	0.0060572	0.0018709	0.0028872	-0.038758	-0.01101	-0.003773	-0.020028	-0.0055202	-0.0056832	0.029589	-0.0035251	0.0097476	0.011029	0.0053225	0.027277	0.010948	-0.011711	-0.0021138	-0.0031269	-0.0040824	-0.018047	0.018635	0.0025216	0.0093561	0.011413	0.0025692	0.0021615	0.0022272	-0.071826	0.071178	-0.0058929	0.0089657	0.0090562
0.00075433	-0.023471	-0.060077	0.00095674	-0.026915	0.0022167	0.013318	0.0015526	-0.0051591	0.0069314	-0.0090569	0.0064154	-0.017475	0.023669	-0.0070236	0.019239	0.0021593	0.0056303	0.0085263	0.0095899	0.0077106	-0.0099157	-0.02299	0.012738	-0.0010597	0.012519	0.0070266	-0.006837	0.0027602	0.004952	0.011175	0.0063115	0.0023018	0.00042194	-0.0084949	0.017047	-0.00077782	0.0021872	-0.0072195	0.0022799	0.0065107	-0.0035755	0.0021516	-0.011339	-0.0039023	0.027396	-0.0027045	-0.0062276	0.007773	0.0043302	-0.012839	0.027039	-0.0079713	-0.029664	-0.017233	0.0097699	0.025546	0.0019861	0.0019597	0.0035072	0.007084	0.02243	-0.00082266	0.01399	-0.00069956	-0.0089247	0.0069108	-0.0010636	-5.3101e-05	0.0093704	0.0059652	-0.010458	-0.010164	-0.033954	-0.019786	-0.026528	-0.018071	0.0033122	-0.013597	0.015002	-0.005048	0.011309	-0.010294	0.0079149	-0.0029439	-0.0053331	0.032162	0.00041566	0.0013962	-0.010925	0.010848	0.0091201	-0.038434	0.34144	0.0036951	-0.063928	0.03307	-0.036772	0.0082192	0.0025387
-0.00984	0.0097184	-0.00035929	0.018124	0.0090025	0.0040431	-0.014945	-0.0013957	-0.027658	-0.011779	0.0052854	-0.01731	-0.015772	0.027454	-0.0059899	0.0064686	0.0027227	0.0047769	0.0072241	0.0097493	0.053339	0.0037025	-0.014552	0.01726	0.0095126	0.011736	0.00089206	0.0051758	0.039273	-0.054493	-0.017506	0.0092917	0.0059806	3.3961e-05	-0.004936	0.015853	-0.017049	0.046109	0.00021601	-0.021121	0.013486	0.018339	-0.011719	0.0066403	0.019375	-0.013972	-0.001761	-0.003385	-0.10667	-0.0099678	0.011892	0.0011432	0.017465	0.029479	0.30822	0.016493	-0.012714	-0.010294	0.010453	-0.0059461	0.021448	-0.028375	-0.029979	-0.041191	0.015858	-0.020367	0.014538	-0.00063603	0.0040084	0.019636	-0.0060001	0.008825	0.013622	0.013307	0.026057	-0.03256	-0.013232	0.016977	0.011506	0.022924	0.0094257	-0.0078486	0.0042939	0.0096094	-0.01007	0.032948	-0.0052957	-0.0096018	0.0045645	0.0057905	-0.0061891	0.032587	-0.022082	0.024066	-0.001597	0.030244	-0.01526	-0.010362	0.0072649	0.0048048
-0.0099741	-0.00080228	-0.010279	-0.0074365	-0.0049719	-0.0052569	-0.022729	0.00016032	0.027434	-0.018774	0.014715	-0.032301	0.010396	-0.0010512	0.032711	-4.2342e-05	0.0011274	0.0072261	-0.0085965	0.0077314	-0.0055218	-0.052534	-0.034529	0.035735	0.0029672	-0.010504	-0.0062898	0.042462	0.255	-0.030655	-0.042114	0.0074399	0.0046484	-0.00056739	0.014645	-0.013924	-0.029138	0.051397	0.0043749	-0.0099763	-0.18078	-0.023942	-0.036086	0.03941	0.015601	-0.011049	0.0059027	0.0033277	-0.0031725	-0.004991	0.013284	0.014518	0.010823	-0.01438	-0.045873	0.017509	0.00041515	-0.0065839	0.0094201	0.0053584	0.0021845	0.023032	-0.0034105	-0.037975	-0.013959	-0.015281	-0.014604	-0.0033559	0.013346	-0.031723	0.0013805	-0.0046168	0.0015762	-0.00025709	0.018979	0.013093	0.0028433	0.020213	0.046076	-0.0033429	0.0077456	-0.0025005	0.026865	0.0013674	0.0053922	0.017009	-0.0075284	-0.0086921	-0.014314	-0.00677	0.0017986	-0.033445	0.0049519	0.0046892	0.0080546	-0.036574	0.013496	0.050384	0.0078159	0.013417
0.0007478	-0.0089719	0.011515	-0.0076404	0.018376	0.0040994	0.0049918	-0.0035668	-0.0024185	-0.025128	0.0048341	0.010293	-0.04074	0.00027745	0.00060051	0.016989	4.3211e-06	-0.0038414	-0.023921	0.03843	0.014178	-0.11708	0.24652	-0.17148	0.00122	0.013727	0.00039582	-0.013424	0.022578	0.0038877	-0.042694	-0.0021262	-0.015112	0.0028477	-0.016443	0.023402	-0.04522	0.02743	0.019198	0.0025733	0.015802	-0.0077714	-0.0078377	0.03925	-0.010347	0.014485	-0.010104	0.0062934	0.0050115	-0.022795	-0.013805	0.020442	-0.029677	0.024252	0.0055064	-0.0050307	0.020801	0.01033	0.016826	-0.0086983	0.027584	-0.0045486	-0.013126	-0.025209	-0.0093744	-0.0059787	-0.0071969	-0.011081	0.0037961	-0.0028734	-0.03407	-0.0091477	-0.0036624	-0.047624	-0.014342	0.019659	4.3611e-05	-0.014101	0.014837	0.0090935	-0.0013676	-0.0039424	0.01712	-0.00018582	0.0019802	0.010918	-0.0026357	0.0095902	-0.0045707	-0.013429	0.0042568	0.021496	0.040402	0.010081	0.031917	-0.031051	-0.011644	-0.025977	-0.004594	-0.019567
0.00089125	0.0042324	-0.012155	-0.005873	0.0083805	-0.0028595	0.025861	-6.7617e-05	-0.020735	-0.0098204	-0.0052372	-0.0014679	-0.022249	-0.0048182	0.0020397	-0.0075129	-0.00018744	-0.0015948	0.0064558	-0.00083096	0.0027067	-0.019638	0.01075	0.012121	0.0046536	-0.0068311	0.014784	-0.0094375	-0.0061576	-0.025137	-2.5185e-05	-0.011193	0.0018803	0.015892	0.010962	-0.017163	0.012046	-0.0009827	0.015141	0.0019789	0.04952	-0.0088729	-0.018052	-0.020556	0.012339	0.0048272	-0.0067174	0.008204	-0.096695	0.00021791	-5.3879e-05	-0.02075	-0.0022626	0.010996	-0.053008	0.32003	-0.018041	0.0085619	0.042172	0.0030698	-0.017652	-0.01224	-0.01741	-0.0024081	-0.0098126	0.00080198	0.0078353	-0.0080425	0.0030423	0.0022593	0.019114	-0.02178	-0.014414	-0.0053523	0.0029286	0.0044981	0.010547	-0.010678	0.023018	0.0062476	-0.0065424	0.0033786	-0.011299	-0.014262	-0.0058873	-0.01634	-0.0019671	-0.027667	-0.024961	-0.0024689	0.034147	-0.013856	-0.0016248	-0.01034	-0.0088431	0.00014208	0.02068	0.0061684	-0.0087174	0.0026769
-0.0073892	-0.016573	-0.009197	0.0015207	-0.0065912	-0.0029093	-0.015166	0.0016429	0.011406	-0.012875	0.04148	-0.0077949	-0.0061888	-0.0069364	-0.026622	-0.0012983	0.0020763	0.0039604	-0.018313	-0.01272	-0.0046822	-0.019069	0.0046865	0.0090953	-0.013065	-0.011359	0.016138	-0.0084718	0.005518	-0.013648	0.026582	-0.023138	-0.015872	-0.00061781	-0.011228	0.018811	-0.0069884	-0.023905	0.011982	-0.0077533	-0.022066	-0.014454	0.02218	0.0055359	0.021302	0.085522	-0.0026595	-0.014495	-0.0032336	-0.0019893	-0.04947	-0.14482	-0.0053473	0.00036053	-0.0010231	-0.019146	0.014169	-0.0040826	-0.0059556	0.001817	-0.0064239	-0.010051	-0.004863	-0.010127	-0.0058144	-0.062944	0.26686	-0.064152	0.034052	-0.0039734	-0.033639	-0.012434	0.010221	0.0006609	-0.0043059	-0.003968	-0.011216	-0.00074772	-0.025551	-0.01959	-0.02308	-0.018743	-0.0015569	0.0027789	0.00023981	-0.011352	-0.022285	-0.0080349	-0.0083863	-0.010888	0.0042328	-0.002699	-0.0043787	-0.0092934	-0.024745	-0.024352	0.028139	0.021002	-0.01009	-0.0047532
-0.0009255	-0.0059055	0.0060501	0.00042555	-0.0026167	-0.00097005	-0.011618	-0.0024453	-0.01623	0.013796	0.0027242	-0.00050869	0.00030855	-0.0079339	-0.011455	-0.0051787	-0.0038723	-0.003222	-0.0033586	-0.002401	0.00030607	-0.010373	-0.003505	0.0093722	0.010207	0.0011124	0.0038842	-0.0039364	0.0078917	0.0053974	-0.0035163	-0.023841	-0.013629	0.0071802	0.0014083	0.0035975	-0.0032296	-0.0047233	-0.0049055	-0.0062966	-0.021112	0.030556	-0.012878	0.024444	-0.0044918	-0.011771	-0.0030723	-0.012594	-0.0021692	0.0056537	0.018463	-0.0038742	-0.027794	0.011785	-0.03315	-0.0065882	-0.00085307	-0.0038429	-0.018743	-0.0065305	-0.01771	-0.008288	-0.013406	-0.07281	-0.02242	0.0012321	-0.0073131	-0.016127	-0.041066	0.32015	-0.033966	-0.025002	0.0039302	-0.010006	0.014743	-0.010556	0.0088737	-0.0064349	-0.0027372	-0.0051896	0.0048547	-0.022654	-0.013656	-0.012908	-0.01101	-0.006677	-0.0074523	0.0036705	0.0048282	-0.00095777	0.0081581	-0.018414	-0.034155	-0.0039748	0.010066	-0.0024193	-0.0069427	0.0080429	0.013193	0.0064986
0.0024477	-0.0095414	-0.023263	0.0036345	0.011748	5.7827e-05	0.00050972	-0.0054697	-0.030261	-0.011404	-0.009963	0.0056985	-0.0012195	0.0013868	0.0050685	-0.0038093	0.0067155	0.0010239	0.002777	-0.0039643	0.01397	-0.028588	0.026824	-0.0022838	0.008319	0.0026979	0.0078905	-0.0050181	-0.014973	0.008104	-0.011275	-0.003134	0.0019865	0.0040571	0.022517	-0.0029357	-0.0016496	0.01654	-0.011892	0.020793	-0.0019193	-0.00030438	-0.032424	-0.05123	-0.013962	-0.04794	-0.031955	0.0062764	0.01301	-0.012968	0.014977	-0.058918	0.30746	0.024312	-0.024242	-0.014327	0.016087	-0.01132	0.0058894	-0.0073726	-0.010346	0.0029753	-0.018759	-0.012587	-0.0029261	-0.061491	-0.010982	0.016272	-0.043226	0.010714	-0.017479	-0.0076221	-0.0054253	-0.0076847	0.016883	-0.021039	-0.01366	0.0011172	-0.013938	-0.0052181	0.0037024	0.0049694	-0.0055912	0.018312	0.00038027	-0.006282	0.013805	0.003186	-0.011202	-0.0021097	0.00067558	-0.016334	0.01286	0.007526	-0.0092105	0.0050809	0.010834	0.00013846	-0.0095731	-0.018065
0.0034251	-0.019031	0.01245	0.00050702	-0.019045	-0.0093673	0.0034498	-0.0039402	0.0029781	-0.015975	0.0031812	-0.015554	0.00064733	0.012368	-0.0056382	-0.00057812	-0.0025057	-0.0024963	0.0028245	6.0344e-06	-0.016886	0.0045801	-0.0028342	-0.0077608	-0.00013953	-0.0087282	-0.016784	0.012006	-0.018378	0.015241	-0.0086637	-0.0021487	-0.006785	-0.020291	-0.010439	-0.0044035	0.0065305	-0.0084847	-0.028856	-0.013195	-0.018316	0.016627	-0.048336	-0.023905	-0.010197	-0.011182	-0.015542	0.29771	-0.068299	-0.038436	-0.0040421	-0.035949	-0.026258	-0.014079	-0.012253	-0.033384	-0.014546	-0.014888	0.0095164	0.011937	-0.024587	-0.012579	-0.012331	-0.016141	0.010376	0.0079216	-0.0023288	-0.0021394	-0.017847	-0.008003	0.0066392	-0.010935	0.0023004	-0.020369	0.00029418	-0.0022518	0.0096603	0.0072486	1.195e-05	-0.0070665	0.0017486	-0.029513	-0.020773	0.0058344	0.00033023	-0.0058866	-0.010011	-0.003097	0.0022815	-0.012079	-0.0024026	-0.0046147	-0.01222	0.0092645	-0.0019366	-0.013642	-0.0004123	-0.010056	-0.0064229	-5.5742e-05
-0.0082148	0.015441	0.0068836	0.012225	-0.0076923	0.0047475	-0.00073507	-0.0017828	0.0061562	0.0027219	-0.010464	-0.039427	-0.0061902	-0.002621	0.015312	-0.0066816	-0.0084803	0.00030771	0.015621	-0.0074988	0.010684	-0.0061534	-0.010362	0.014496	0.0087233	0.0035971	0.013834	0.0044702	0.011912	0.0038954	0.0053859	-0.0014081	0.00036187	-0.0021298	0.015969	0.019854	-0.0065027	-0.0027536	0.0093254	-0.0067534	0.022311	-0.048361	0.02601	-0.0030325	0.00036922	-0.021603	0.0092714	0.014994	-0.036009	-0.016194	0.01061	0.0085305	-0.006076	-0.012218	-0.008732	-0.0013831	0.2993	0.023042	-0.033348	-0.023727	-0.027501	-0.053438	-0.0093524	0.013618	0.00059947	0.010883	-0.0024442	0.0059293	-0.0074976	0.0025953	0.0097993	0.00094168	-0.0013543	0.00069875	0.019722	0.010976	-0.017516	-0.00047691	0.00031156	-0.0017197	0.0051031	0.0083446	-0.00019	-0.019284	-0.00034983	0.0010762	0.0011153	-0.010346	-0.011095	0.0022113	0.012655	0.043405	-0.015891	-0.019638	0.0016686	-0.0042433	-0.0057372	0.0097429	-0.0022995	0.0074386
0.0091284	0.0066715	0.014942	0.021286	0.024456	0.033634	0.051138	0.03162	0.0046227	0.026824	0.011668	0.0905	0.011341	0.023529	0.03403	0.023174	0.0012996	0.018602	0.021584	0.079789	0.027192	0.0090878	0.00071003	-0.0094861	0.027633	0.05694	0.00057431	0.0387	0.014083	0.0079589	0.013336	0.010655	0.021928	-0.00032025	-0.041677	-0.0046754	0.083257	0.0029157	0.013798	0.055664	0.019479	0.0086037	0.0058281	0.0063559	0.014387	-0.015425	0.010986	0.048175	0.042938	0.0024411	0.074178	0.0018175	0.018641	0.023336	-0.0018293	0.003147	0.013936	0.011374	0.016728	0.070297	0.022672	0.0068707	0.034132	0.063458	0.0080213	0.0042953	0.068949	-0.0013097	0.013807	0.032281	0.013098	-0.0022717	0.012266	0.0051613	0.0071247	0.024503	0.017894	-0.00099342	0.037551	0.056754	0.023835	0.021085	0.040352	0.008639	-0.0037837	0.098629	-0.016775	-0.031178	-0.0071073	0.020267	0.056728	0.008498	0.011854	0.005598	0.038437	0.01129	0.00066842	0.069868	0.063248	0.029358
-0.0029945	-0.0020259	-0.0025684	-0.0013149	-0.00289	0.0050843	0.013086	0.0033382	0.010438	-0.0025683	-0.010122	0.019733	0.0093197	0.02678	0.010357	-0.00050503	0.0025695	0.003076	-0.023461	0.0045838	-0.0013774	-0.026662	0.012623	0.0003894	-0.0097402	-0.013215	0.021577	-0.0083166	-0.0017016	-0.035666	0.007784	-0.0026879	0.0040973	-0.0013531	-0.0026873	0.008479	0.028048	0.0058766	0.0069848	-0.001342	-0.014477	0.001658	-0.030923	-0.016429	0.0095175	0.0029457	-0.023147	0.023283	-0.083698	0.28342	-0.0093262	0.025344	0.0057675	-0.0090529	-0.021471	-0.029065	0.0060983	0.008589	-0.003289	-0.0068158	0.012004	0.0065635	-0.0079197	0.014825	-0.0043618	0.013294	0.0073935	-0.010551	-0.002428	0.0064795	-0.016295	0.015125	0.029808	0.014611	-0.0010643	0.0036868	-0.067744	-0.0019373	-0.010861	0.0094695	-0.0054662	0.012172	0.00025375	-0.0029451	-0.0050567	-0.0025835	0.014759	0.0085234	-0.0091991	0.0043502	-0.0026344	0.0068069	0.033358	-0.007596	0.0071192	0.013255	0.0053873	-0.010689	-0.0025144	-0.015094
-0.0078209	-0.003254	-0.0038977	-0.00077917	-0.0068421	-0.0026413	3.5693e-06	-0.0007423	0.0055007	-0.0096976	-0.0017573	0.0099988	-0.024403	-0.011197	0.0093271	0.0035485	0.00073054	-0.00068474	-0.0051521	-0.012094	-0.0028957	-0.046216	-0.0059855	-0.0051537	-0.011049	-0.0084059	-0.024841	0.29212	-0.085052	-0.037584	-0.020889	-0.0026848	-0.0068083	-0.014762	-0.012531	0.0082434	0.02156	-0.008619	-0.00021642	-0.01328	-0.034019	-0.027682	0.0086294	0.0037329	0.0013812	0.01302	-0.0096735	-0.019537	-0.003447	-3.8787e-05	-0.012094	0.0076396	-0.003308	0.0075607	0.0011892	0.010929	-0.00062919	-0.021993	-0.02848	0.011588	0.0015031	-0.019058	-0.0026747	-0.00999	-0.0077161	-0.033602	-0.013705	-0.0071248	-0.0051957	0.00058664	0.0090999	0.006362	-0.0070609	0.0026578	0.0073594	-0.0064752	-0.0030931	-0.012588	-0.0093969	0.007948	-0.0014463	0.004597	-0.0093549	-0.0012941	0.0051292	-0.0074504	0.0095648	0.004516	-0.0037804	-0.0080539	-0.0084896	-0.0059541	-0.010116	-0.00068866	0.010006	-0.0094092	-0.0040906	-0.012152	-0.0094892	-0.0054706
0.0066329	-0.011319	-0.0082402	0.020879	-0.0017934	0.00073901	0.020198	0.00054331	-0.021195	-0.012236	0.032245	-0.02763	-0.00028783	0.0027356	0.0051785	0.00075707	-0.011925	0.00055513	0.0078715	0.0094391	-0.009137	0.0071178	0.0036218	0.01698	-0.00028343	-0.014193	0.027431	-0.0024581	-0.011754	-0.0069525	0.035259	0.0080087	0.0091129	0.001454	0.0055551	-0.020099	-0.019069	0.007777	0.0074792	0.0095692	0.0050573	-2.2421e-05	-0.020991	0.0089131	-0.0018025	0.040073	-0.021282	-0.0039162	0.016853	0.010995	0.011569	-0.0051365	-0.024252	0.014885	-0.0061816	-0.0088532	-0.0057059	0.0025823	0.014578	-0.026692	0.0057365	0.01049	-0.0077362	0.027496	0.00014892	-0.016111	-0.002893	0.021453	0.0049528	-0.0025218	0.03244	0.02494	-0.039701	-0.1146	0.24976	-5.4102e-05	-0.0063419	-0.031606	-0.013467	0.010726	-0.0054504	-0.0016209	0.0036276	0.03921	0.0060587	0.018	0.00225	0.018156	-0.0028231	0.0011599	0.0040216	-0.023625	0.0064666	-0.011029	0.003868	-0.012195	-0.0053658	-0.031552	0.013299	0.01554
-0.0081417	0.0030886	-0.02161	-0.0037225	0.012526	-0.0056721	-0.025598	-0.0022929	0.01852	0.0085505	-0.0046337	0.0019767	0.015891	-0.016559	-0.0095378	-0.0064634	0.0033179	-8.944e-05	-0.0032844	-0.013501	0.011567	0.014507	-0.014582	0.002947	0.0086907	-0.0034042	-0.0090712	-0.0056342	-0.010935	-0.019637	-0.00409	0.012843	0.0014765	-0.023893	0.0097664	0.0070087	-0.00073706	0.00021082	0.0022102	0.00027718	0.0062848	-0.020656	-0.0072768	-0.0031779	-0.0088681	-0.013272	-0.0075522	-0.0049101	-0.0090444	-0.0042872	0.020995	-0.0086733	0.010286	-0.0033043	0.021263	0.0015	-0.013992	0.0094057	0.0023448	0.0052269	-0.0054829	0.017647	-0.0039653	-0.0025746	-0.0085243	-0.018216	-0.0013392	-0.012422	-0.0046184	0.011652	0.0012274	0.038488	-0.033681	-0.072035	-0.044475	0.25254	-0.064973	0.0054205	-0.0010463	0.01069	-0.0063294	0.0075845	-0.0079494	0.029187	0.0043348	0.011057	-0.00033776	0.005403	0.0022099	0.00033805	0.0010514	0.0039357	-0.064414	-0.010091	0.0015674	-0.038371	0.0070719	-0.01911	-0.0022137	-0.0082545
5.3976e-05	-0.0035004	0.0097082	0.007009	-0.006218	-0.0025154	-0.0062925	-0.00013604	0.0062764	0.015752	0.0056544	0.0040089	0.010942	-0.010881	-0.0015585	0.0023818	-0.0026223	-0.00073384	-0.0092296	0.009186	-0.00067861	-0.01004	0.011286	0.0035077	-0.0019606	-0.0094423	-0.0022523	0.0022101	-0.0056247	-0.01265	-0.010423	0.0018706	0.00042959	0.01053	-0.0096835	-0.0081071	0.025995	-0.0079354	-0.0024338	0.0071172	0.010842	-0.006173	0.0046491	-0.012456	-0.0033765	0.013017	-0.017151	-0.001152	0.016729	-0.0027128	-0.0098114	0.0067518	-0.0060001	0.00088207	-0.0073932	0.0083875	-0.002066	0.0031475	0.002059	-0.013623	0.033269	-0.022521	0.0088188	0.0068237	-0.0035808	-0.00079589	-0.0087461	0.017879	0.0029684	-0.0048283	-0.049565	-0.060593	-0.016098	-0.021622	0.029151	-0.003123	-0.031412	0.25707	-0.020824	-0.0003341	0.014655	0.00046191	-0.01062	-0.023693	-0.0010663	0.005786	-0.0060326	0.0052212	-0.00062556	0.0019042	0.0095574	-0.0029435	-0.020427	-0.0067787	-0.014699	0.010533	0.0034598	-0.0037324	-0.00069544	0.015574
-0.002345	-0.041798	0.24547	0.00019232	-0.035933	0.0034776	0.0021404	-0.0016484	0.0011388	0.0094661	0.0045843	-0.025198	-0.011558	-0.0010917	-0.0049625	-0.0024299	-0.0012279	-0.0047353	0.0018438	-0.0044045	0.0029122	0.0084379	-0.010159	0.01551	0.0056047	-0.007378	0.0084591	-0.004387	-0.0028036	0.01367	0.018215	-0.0042467	0.0022051	-0.0035352	-0.012055	-0.0083153	0.011178	0.0018359	0.0041455	-0.018423	-0.0050709	-0.0019212	0.0069478	0.01398	-0.011591	0.0017916	-0.0013242	-0.016364	-0.014452	0.0068659	-0.0094417	0.018584	0.027539	-0.019092	-0.0012125	0.013804	-0.0087548	-0.0013901	-0.0026283	0.0012773	0.0064494	0.0157	-0.005186	0.0068862	-0.00096416	-0.043861	8.0382e-06	-0.0018505	-0.0016894	-0.002617	0.0050216	-0.0039259	0.0065264	-0.046415	-0.026793	-0.012535	-0.0042193	-0.0065204	0.0013434	0.0071854	0.0074596	0.013582	0.0064015	0.012346	0.0045365	0.013065	-0.0008311	-0.0015823	-0.0057835	-0.018497	0.0056818	0.025553	-0.0087151	0.0088061	0.011667	-0.057612	-0.018953	-0.0081732	0.0017143	0.0086869
-0.0077743	0.0053425	-0.0042759	-0.0037241	0.0089522	0.00024231	0.00085668	-0.00029343	-0.0046816	0.0022118	-0.002571	-0.0045286	-0.0047466	-0.0032703	0.0072168	0.00097412	-0.0048013	-0.0027238	-0.00033441	-0.0002306	-0.0029571	0.0092567	-0.012255	0.00074508	-0.019032	0.0024356	0.0018423	0.0046025	0.0017095	-0.0063873	-0.0025919	-0.008021	-0.00648	0.23475	-0.1143	-0.024363	-0.010659	4.3955e-05	-0.00070058	-0.0019316	-0.0067437	-0.0062893	0.011135	-0.0084234	-0.010683	-0.0080333	-0.0055729	0.0076861	-0.0010095	0.0020351	-0.0027884	-0.006366	0.0041108	-0.0078685	0.002766	-0.010094	0.0038914	-0.0015798	0.002983	0.00012794	-0.0057813	-0.0096281	0.0009108	-0.01037	-0.010308	0.0032578	-0.0051541	-5.8512e-05	-0.0013677	-0.0046697	-0.0025046	0.016331	-0.00050091	-0.015967	-0.0055559	0.016711	0.0038589	-0.0081552	-0.0018519	0.00017274	0.005357	0.0038444	-0.0086314	0.0063321	0.0025461	-0.0065397	-0.0057229	-0.012746	-0.0090636	-0.0059999	-0.0031027	0.0018734	0.00084475	-0.0012326	0.0095753	-0.0035373	-0.00021346	-0.0056715	-0.012864	-0.0083522
0.23106	-0.027569	-0.011616	0.0047164	0.0035485	0.0053353	0.0035372	0.00046011	-0.00094061	0.0014504	0.0021126	-0.0080006	-0.015366	0.0020481	0.0075478	0.0034161	-0.00089543	0.0012391	0.0086058	0.0069442	-0.002466	0.0022596	-0.0038088	0.0033433	0.012941	0.0042698	0.0060139	0.010341	0.011114	-0.0048058	0.0013466	-0.0052268	-0.0016482	0.0048491	-0.0042947	0.0015987	-0.0013076	9.7078e-05	0.010121	0.0043186	0.0025135	0.0031367	0.0071967	0.0034488	0.00058403	-0.0048445	0.0034298	0.0019714	-0.0032581	0.0056905	-0.00088824	0.0047176	0.0014996	0.00049055	0.0043907	0.0017691	-0.0033681	-0.021179	-0.040257	-0.066945	-0.012322	0.0030562	-0.0050767	0.0012035	0.0061769	-0.0026597	0.0061374	-0.0015122	0.0079901	-0.0018683	-0.00087866	-0.0018871	-0.0019279	-0.01994	-0.024244	0.005882	0.010778	0.0028143	0.0013238	0.0025271	-0.00053511	0.0041753	0.0022029	0.0015633	-0.0040082	0.0051527	0.0038362	-0.0023097	-0.0011995	-1.0584e-05	0.0018241	-0.00034758	0.0011493	-0.0053951	-0.0027866	0.0046124	0.00073588	0.00041198	0.0014586	0.011263
-0.0074868	-0.005262	-0.0010131	0.00040861	-0.002481	0.0027095	0.0022843	-0.0013028	-0.0065977	0.0055266	0.0048543	0.00070027	-0.013516	0.0059715	0.00088892	0.0029216	-0.0053681	0.00082123	0.00068395	-0.0018654	0.0050508	0.00034527	-0.00052402	0.0045298	0.00096066	0.0011463	-8.9983e-05	0.0091258	-0.009106	0.0021053	-0.004329	0.0018165	0.0015124	-0.0019648	-0.003367	0.0012925	-0.0015302	0.0022198	-0.0017586	0.0012354	-0.018511	-0.010106	0.00363	0.0019104	0.0021557	0.0024976	-0.0016681	0.0080599	-0.0028965	-0.0053558	0.0037029	-0.0038873	0.0074874	-0.002316	0.0026486	-0.00066731	-0.027041	0.19369	-0.029491	-0.037788	-0.024648	-0.010711	-0.0020126	-0.0012272	0.0010728	0.00053507	0.0010378	0.0037432	0.0021219	-0.00030551	-0.0048115	0.0040606	0.0051042	0.00084028	-0.0023108	-0.0022895	0.0084175	0.0014432	0.002567	-0.0011948	0.00036429	0.0020504	0.01211	0.0018477	0.0019368	-0.00054349	0.001774	0.0014777	0.00037314	-0.001156	-0.0017572	-0.0012543	0.0012949	0.0050365	0.0010955	0.0047252	-0.0068388	0.0019622	0.0048094	0.0048584
