-0.1147414220058057	-0.259259856561713	-0.2794038297749453	-0.3597126354394099	-0.1851068045622978	-0.1839137565646955	-0.06189549693312859	0.2099955866460982	0.1382082977462278	0.009492568904938464	-0.09652634674627218	-0.1935718206001529	-0.3273780074233461	-0.2466766569492133	-0.1477653731123724	-0.232908773711227	-0.1524865099463092	-0.1101519397834771	0.009014337651095753	0.1082909354915744	0.2105688662616579	0.09995477049841178	-0.06653443887790216	-0.06443415345588244	-0.1420339059956366	-0.05064520443200427	-0.0809568188353101	-0.1821676146551966	-0.01896823789805839	0.1833987819558952	0.2903336827325941	0.071608578726679	0.06237523110408701	-0.01088913904923641	-0.007761469132761906	-0.07291169678530193	-0.04707879883366931	0.01977076312682782	0.04927064059136026	0.1351308179147417	0.2217493494448534	0.2810908038563168	0.4169469295306918	0.2443432992037969	0.3063015359628595	0.1951490885761219	0.105846322394573	0.1086248881156511	0.03999264346248821	0.0642448629200621	-0.02095825832773867	0.1676156763072734	0.2276508802916967	0.1519987523823076	0.218762112406138	0.2073299369827656	-0.01270952922191865	0.01784450707367995	0.1759135544181961	0.1892982165506196	0.2995155761103707	0.1814704751721644	0.09403706053686035	0.04090822993116575	-0.005516353207026406	-0.02630890107901798	-0.04063740891221283	-0.0200992528686695	0.1365626976426454	0.2043327873267042	0.2114154582191344	0.2684205445182287	0.3254237713528814	0.2548014244203287	0.2411400136396644	0.01995614382170893	0.1729744489329298	0.2146715289814531	0.1515982665474739	0.003223040499766446	-0.2347672784612453	-0.3264952927815885	-0.3370429906737066	-0.3303065300822269	-0.3018013487279669	-0.211310406575284	-0.002433843697255858	0.08556346759411483	0.1046769008155497	0.1672492006897252	0.1984317228926816	0.1805996617847115	0.1119688896220768	0.02747881117751634	-0.01248967057544404	0.07522050803488629	0.1525699651657024	0.3155829710529302	0.3420691166472818	0.3346838950757249	0.2893408682728113	0.2999739725042994	0.1749421705616043	0.03421393825929679	-0.04366338295166211	-0.295272806333701	-0.1334971381368937	-0.127956060537558	-0.08088967676314053	0.00434223865905693	0.2272576354270474	0.2495479881071458	0.2645605272530526	-0.102898707827838	-0.1384322171470403	-0.08754406732497597	-0.0312365087667714	-0.1348201746843612	-0.087359427418741	0.03978873132968405
-0.05829263441145999	-0.05357374690832233	-0.04988680263463108	-0.05654598605842775	-0.05523562150944659	-0.05076136527657239	-0.04180187457418619	-0.09122548292006924	-0.08236344718513433	-0.07415493873518725	-0.0636968816379286	-0.05639577479586541	-0.05507250944010301	-0.08150208701486993	-0.05716194733709834	-0.05170028422665615	-0.0636554897631709	-0.04285609792033544	-0.04740650090162842	-0.08302173235473108	-0.1528111080486659	-0.09954284610123637	-0.03859138488216408	-0.06714517732437478	-0.03429387835551556	-0.06638570129497105	-0.05218429165729588	-0.01555871106591607	-0.04612869191598274	-0.1161659987184537	-0.1442288864792638	-0.08144270171933585	-0.05870487008044235	-0.04664988652210388	-0.06846263159424597	-0.07233394208463735	-0.06281237221099339	-0.05601338738225063	-0.0635479182470735	-0.08824281074864836	-0.1332740391701165	-0.1548703230450466	-0.3002275293527326	-0.1264591492655637	-0.1001367946382693	-0.07794378383108932	-0.07273598081282315	-0.08528595687966804	-0.0513236024721512	-0.04484977257416226	-0.08343556028631534	-0.004837712670978723	0.09917411031955738	0.3718766875810061	0.1234999813403081	-0.02165639753112085	-0.1066995959564546	-0.06515465802943067	0.4294763056338211	0.4710454947860311	0.1273225920019952	-0.05793805704902728	-0.1221113707877259	-0.09621698701988758	-0.06521254420387308	-0.06173176608014757	-0.06134983253437673	-0.06153364488493444	-0.04934621027370717	-0.09226582828190165	-0.1250928272545374	-0.08455865302550626	0.01111168382433562	0.2346691817716525	0.5081739979278816	0.8604971381972525	0.2520464608939866	-0.03525934764495337	-0.1117873140381923	-0.09652911538486453	-0.04739759278054685	-0.03188115212594871	-0.04462183095303498	-0.0576155239855727	-0.0348469732740802	-0.07504533633208002	-0.1002471219183988	-0.02283291263349771	0.1818956941184705	0.4742122248198408	0.1205189587647234	0.009663601211370257	-0.01949733341007112	-0.05990321255353558	-0.06313289106588081	-0.06818269280009434	-0.09025430957286122	-0.1426412058318893	-0.260329229410031	-0.2814905051996563	-0.2069514864064214	-0.06685739880861734	-0.05711793814000841	-0.05161439347359796	-0.04753309705582582	-0.06028689117186312	-0.07924203743366255	-0.04863326990768423	-0.0427414955437469	-0.03765780978842653	-0.07613768821535945	-0.1051350797291511	-0.07467963292144439	-0.01412138353390412	-0.03653245199536452	-0.05502587946057978	-0.07704435872787323	-0.05314085711997359	-0.06781826188649349	-0.06641362594555271
-0.1496924381181656	-0.2045256482084016	-0.09740212164512099	-0.1969759055320676	-0.1291010187866684	-0.1674666371809345	-0.000886294764428149	0.08343278242219217	-0.02207662624192862	-0.06038305649862432	-0.1153072169941814	-0.1487461853241203	-0.1815910453157301	-0.2041502214887969	-0.1223335995756509	-0.1175651865968032	0.01815460247486982	0.161516707841914	0.3320322931805004	-0.01283002617736586	0.04117366853269403	0.265426632850207	0.5365720308755175	0.5141515175602047	0.6149473461768789	0.1617889507761387	0.1752790992647685	0.6874077813770347	0.320900607185419	0.2125566420503962	-0.02675894005987535	0.2524139809986688	0.1996676592284596	0.07925970779252503	-0.0610673761909186	-0.01636094517473084	-0.1060389516761838	-0.03623277254457907	0.02662664192414725	0.005950826701778771	-0.02145718308158888	0.02226652223469232	-0.02846374835838127	-0.02571347874184813	-0.03463726914882658	-0.03659562252936673	-0.04452428409215601	-0.08416214904878687	-0.05000646962322802	-0.1186229714846377	-0.1633103649347133	0.06111048988280041	-0.05505212058111637	0.04801902658965743	-0.07536446609999164	-0.0748149184601951	-0.01757310119334827	-0.08160535944393699	-0.04340085580259068	-0.09150372363317416	-0.09071376528463834	-0.1036977271273058	-0.07216063603183132	-0.06591499209785155	-0.1291943517238763	-0.1393973002852421	-0.1534076307163992	-0.1456529177139033	-0.119820991841386	-0.08532389850075052	-0.07450352025615085	-0.01795908786916011	-0.08767428411558768	-0.05476594995045456	-0.09173546732869932	0.04757971745708871	-0.05948775765225692	-0.0747838238251088	-0.05876873040771896	-0.1062005087713977	-0.08411142631332887	-0.06691308542219547	-0.07663140410527515	-0.0663555460843723	-0.02514864698036909	-0.08168388853398424	-0.03201606980354318	-0.05748985538731835	-0.06578626072345145	0.003490046005038231	0.04334530995189177	-0.05739962217078511	-0.01987519579122135	-0.05286412368382524	-0.08242002517864602	-0.02264609982505589	-0.04554415257890428	-0.07762616353863355	-0.06279475075548892	-0.003508851675577883	0.007073758342367413	0.02773629437499335	0.01494408359103258	0.03950055086707448	-0.02270068295236167	-0.0797802348292235	-0.03071566419313289	-0.03770037674764753	0.03336097733048293	0.1261700254367655	0.04943061908370933	-0.0003779065856355423	0.07072196562880985	0.15638855732183	0.1138359594798278	-0.005378939848082299	-0.1718700206694192	-0.04926891343812819	0.0888766623550071	0.06853369112598087
0.03093973919810323	0.007091959782725329	-0.01780033559531728	3.188845280337589e-06	-0.006771072138276095	0.02790781277217525	0.13173375342558	0.450030303977368	0.4351810348849043	0.1584279621688156	0.05067514627982666	0.005689278860091193	0.01536897044277118	0.03102033416081254	-0.01192186599878733	0.0008877335971447011	-0.03338266232337596	-0.01397213461994739	0.0906306716145751	0.3449946963615874	0.1417977104133025	0.1145519680759336	0.02626960750202184	-0.02585000269136124	-0.04064284789895389	-0.001519978735605112	-0.01350153813317555	-0.02508925404150798	-0.09998705717326037	-0.1468136766389213	-0.2941130653052515	-0.1205423111369227	-0.02898906675449681	-0.01998439934236538	0.01063059568480448	-0.01303544218110524	-0.0234909218107266	0.02055688370101333	-0.02244055002141486	-0.03400188553943967	-0.07733438109150122	-0.1923259466111392	-0.4383134110977029	-0.1724343079478561	-0.06720445023499765	-0.0796535485149328	-0.02019929194977389	0.008890318875790417	0.0007716615343123947	0.005174235043001706	-0.06905640199096119	-0.05034517974377815	-0.01043792721470789	-0.007493375070590085	0.02470219423027579	0.04129144515058569	0.002701374673044716	-0.0110744837600897	0.01592618709734881	-0.03317161454345242	-0.003006084766344072	0.02111654397677283	0.02263113129098312	0.005930839487644239	-0.007532064008804387	0.005976691013938332	-0.02217188560069202	0.06651538640853982	0.02915289145201217	0.0192418240438936	0.0250450109727517	0.02465055276762875	0.009871026496253698	-0.003521158593233121	0.01413522024043646	-0.02532898142018261	0.02592264097535597	0.01832623930345118	-0.01242559573109723	-0.01113959390072146	-0.01802671208499294	-0.01951962042610686	-0.01561190250643188	-0.01555732295570326	0.007934830718685828	-0.02440311938257964	-0.00879303800372911	0.002389317235119102	0.08010160058305033	-0.09232229983265196	-0.06247997929249606	-0.05059458846882691	-0.01543492812891602	0.0002892670227347267	0.03608359740372773	0.02350843244818959	0.0275038114567963	0.03041841282005414	-0.1059910975136914	-0.2059541874383999	-0.0314695966251844	0.08915384939980645	0.05173586883319724	0.01475264848544415	0.03384295129520435	-0.01149288426615661	0.01051622198579474	0.005117790809566901	0.04192807305246697	0.1020417177801121	0.09219497293869292	0.7833280375554144	0.349923493659366	0.04317362989282579	0.08489050104577099	0.04147501066713417	0.03699324469264102	0.04133058652534467	0.1017042117351867	0.2005612563385368
-0.1340509750583634	-0.07516409294488528	-0.01325837493205876	-0.02253296754562229	0.01846269085068917	0.01509102323677478	-0.0286551173274183	-0.03969315330186652	-0.07452346806974849	-0.03325659027351295	-0.007051746269022258	0.003074205344568904	-0.01013508174910466	-0.04049634874012491	-0.05092829873308829	0.004140145461715797	0.005695009568683079	0.0040381025110951	-0.002309072597575621	-0.06194364920917657	-0.02838223349927058	-0.01781420322863556	0.006150958311978943	0.02433716001913278	0.02118102920772132	0.03581484331294282	0.07660286292631939	0.03640419823991732	-0.0403544259795133	-0.05104348596915639	-0.07361176475712113	-0.06558287744478852	-0.03318523900487548	-0.004153213628867865	0.03829511965370468	0.0203301294775428	-0.01181192027012072	-0.04806876662941125	-0.08856227322362399	-0.09784688915476226	-0.107009184571467	-0.06877590784449283	-0.07651340145900411	-0.06919709812426279	-0.08668115673591482	-0.05095611514405794	-0.05251808254738498	-3.594624892214619e-05	-0.05537891536681951	-0.1063585842976052	0.0861197312364264	-0.02221725284106857	-0.04998291227787154	-0.1051136623038431	0.08388289512459204	0.1433713208197865	0.4484389258470634	0.1252932131566125	-0.04991120482770055	-0.03820458660202534	0.03943452618578198	0.209677976683955	0.3634092177890932	0.2117785853852851	-0.03772974186043358	-0.09374635880444264	-0.08494108506983829	-0.1802233195943815	-0.1360839355886143	0.05843535221383667	0.1650999427168341	0.1632344815706094	0.05055092984141903	0.07189123503883858	-0.02698950054594156	-0.0211764653739097	0.04866689431076318	0.2032466727995443	0.1482092914966055	0.06349692411911029	-0.1154333643778959	-0.116920095684409	-0.08061070738750942	-0.116525464061647	-0.1852079394864195	-0.004318385145725409	0.1731939125711427	0.1264915204690824	0.04588244887364892	-0.06203777716517277	-0.08817538888716348	-0.05037772808706514	-0.02439454314775021	0.1111473638368947	-0.06291758747971191	-0.1085407609206382	-0.08748084620460934	-0.1460702393291592	-0.0975549693256119	-0.07080411462668561	-0.05187579348493965	-0.1076582625686079	-0.09750444813252172	-0.1097909680244362	-0.1606428346614031	0.0127902915358122	0.02687550303408023	-0.02530816496831226	-0.05309222277439179	-0.005319903683439913	-0.1059672755568945	-0.01821929321073682	-0.05652930223689713	-0.04499468341156995	-0.05679207292732168	0.02415711656630936	0.03507483015584157	0.00525936730659656	-0.03607100263401671	-0.0235158557131975
0.005713346083801251	-0.00501800262668618	0.001368934883880471	-0.00257223405815704	0.003324537641610008	0.004361048008879268	0.003172598089903045	0.06672714251210687	0.1773262355272115	0.04971644670480171	-0.006265566474549469	-0.01277944120065144	-0.005539017187629216	-0.01130982300704157	0.003989169991968201	-0.02607132981600863	-0.03685900330722858	-0.03704412902928696	0.01685272975082876	0.1976880785535583	0.4009024114023428	0.1956650238713225	-0.002528874432891405	-0.03561353219213962	-0.03426771529927332	-0.02041468295445598	-0.0009906903251817988	-0.0100020072661113	-0.03519953562889505	0.1118034572188911	0.2403002709603353	0.009210840474220191	-0.00629639298973779	0.01346039232231964	0.0107071829454644	-0.002283962204062263	0.01210150939264624	0.00243236086948631	0.009111406168646372	0.01213497318320968	0.02401467643407643	-0.01973426874963803	-0.06463523916249161	-0.01960322647171321	-0.00684855843524857	-0.006133210870482435	0.007589539292165414	0.00409475747825378	-0.0007131033840541859	-0.0001506218454260165	0.08353052906683174	-0.03258709640066718	-0.01694680776495122	0.01674930281129275	0.006725936934119255	0.01420367025559027	-0.006574020962992283	-0.0007407026725040034	-0.01680811891355885	-0.01925188569692482	0.01415452750615985	-0.01005277285299272	0.002441391601302048	-0.002343823463505596	-0.007499062000168199	-0.002376612837337162	0.005435640080257439	-0.00412663716156658	-0.006654686750130364	-0.0008059272968889526	0.00880624320848059	-0.006079636713876198	0.01241498698517314	-0.005631283529461858	-0.02736333558832879	-0.06937087447180476	0.003063477475319858	-0.004857084654502489	-0.001595696541706067	0.001830458890957866	2.714378770493295e-05	-0.02182796953571067	0.003167891106024079	-0.01518358150346616	-0.0002161482158386186	-0.007477934926430068	-0.009220387369761768	0.003118531156319699	0.01127140458111894	0.04000899255853626	0.00779138602795499	-0.02395589327442534	-0.005850569505305627	-0.01094511553180996	-0.005126832884670769	-0.0007868523564453049	-0.01649786499014218	-0.007515294312423735	-0.1081460474250724	-0.2732380521195469	-0.1625896383962329	-0.04211280299045154	-0.02334402599321951	0.006086793674597408	0.01422268556273264	-0.003666991206028932	0.00812832795831084	0.006904867684123519	-0.004166859262000701	-0.02671355387153165	-0.04407535527800389	-0.1573725185114153	-0.05759323524264229	-0.01986284521910047	-0.03129148967197756	-4.493409941981316e-05	-0.001099910560409206	-0.0073412352277769	-0.003252542379741958	-0.040820807197376
-0.03000890491125771	0.02304201682712545	0.02565537655227333	-0.04015253316619333	-0.03371644318223233	0.03152595404652486	-0.01233381823808461	-0.03379525410504756	-0.003434548732145028	-0.06042489606326722	-0.001619353396234528	0.02232572032914933	0.0004294530560983596	-0.02476234682222183	0.01362572792894368	-0.01069530875263822	-0.05019028237097604	0.05309346273709823	-0.0001858473381434665	-0.0128543679490253	-0.03473261403290036	-0.01962523770809943	0.002004715526764289	-0.03246971336553604	0.01749276538025224	-0.02955454784286007	-0.01414898440477135	0.0001801195410148434	-0.01143123231329953	-0.038623779513	-0.09048163932294399	-0.04521210954192235	-0.01916071773626029	-0.02605414706781845	-0.01834894809308639	-0.01092531460517424	-0.03168225579024093	-0.04696782290393252	-0.01395716138811031	-0.01552684652975502	-0.007843923974047559	0.008789048705900302	-0.01852445882820913	0.1010470615983309	0.05516693972682471	0.0285068410677467	0.0278702024391731	0.005070665676828073	-0.03960196730481174	-0.01828467839826381	0.0589918928816819	0.2776716419600317	0.1124593159301679	0.3515829805141273	0.07614403065758593	0.01627527579361838	-0.05509166961109729	-0.00580954234580106	0.1219565703487509	0.06389873342614638	0.0106580417849424	0.02289077341369718	-0.03376485973079742	-0.009448963554092849	-0.005033613718690654	0.01932059473217229	-0.02867913758020876	-0.02360763803109041	0.01019777924425356	0.01612044118567017	-0.03537243601547856	0.00931578733306423	0.00381342108818386	-0.00435058502899879	-0.05285738561715401	-0.1942806977777077	-0.03203251225901203	-0.01911558846313718	0.004465043787692418	0.07297708969152543	-0.003822082721047946	0.007042171457171425	-0.02169235425743991	-0.03613338356621075	-0.01256525685663705	0.007828516909076733	0.0174692263184449	-0.03970002377480528	-0.08690164672169939	-0.1362063882356794	-0.1537777340629672	-0.09922360279778247	-0.04283883041944773	-0.05726195389429005	-0.04798370764951699	-0.036118688766399	-0.03324783835380692	-0.05288795785593197	-0.1283858069576928	-0.03724879706639608	-0.04408699193177436	-0.002630653806151682	-0.001150878952626969	0.00971899895919898	0.002171467743604592	-0.01409392687416452	0.000498072627635927	-0.009451117478430341	0.001032151135213532	-0.01397408409817682	-0.01992450121652678	-0.02700920082788585	0.03917749601516513	-0.001443100791901604	0.009888050676943734	0.03614771704654849	0.000302437260019379	-0.03354569320339486	-0.01992201477139252	-0.008097609862323387
-0.04206132317524972	-0.03748278550633777	0.01892849337058559	0.03962407622243957	0.0132519414074111	0.02948661275695143	0.006015399663707446	0.05167613361584214	-0.009665698819607762	0.01687392484169455	0.01550717160333744	-0.01811703078306799	0.01539815032551984	0.03318852788671751	-0.00458339071786005	-0.008535205818860418	-0.01523932416744254	-0.003496487860320045	-0.01194623941831978	0.02834151011389534	-0.08849929616508041	-0.0009534318721521215	-0.04614386834984554	-0.02093808006875631	-0.01582468523012275	-0.01322798746342951	-0.01064295994774409	-0.1143353489086579	0.1757961635118171	0.03901700644681532	-0.07683858185722663	0.248998060876214	0.06834571064450307	-0.02456726719551477	0.01592563224290613	0.01262125377109797	-0.001258944118351703	0.03624731953423122	0.2669154393445431	0.2322501477997276	0.1686449499228239	0.04437729406084527	0.007651195107377592	0.03007714288859254	0.04963426731866807	0.0688410833243307	0.09090026995487648	0.04744787897551604	-0.02783751156838158	-0.03043737075982082	-0.008348151968856488	-0.0287208534552234	0.006796455645648211	-0.04838741333407504	0.002995287000408182	0.01130435333444106	0.08276915365112368	0.02268923001124921	0.01194033488261789	0.01507855846925872	0.001143019420019318	0.01143066696158237	0.003530280876083692	0.02720247844825607	-0.01240842746739169	-0.03796504442169469	-0.03638398610011921	-0.01968876861688295	0.004662631833513784	0.005297668035779454	-0.02274385995064941	-0.0236690267381197	-0.03085604410909366	0.0001346417896598436	-0.000267371762936205	0.03129928495457646	-0.002740143753821592	-0.007130167094940396	-0.009491185984703157	-0.00628580010633495	-0.0007032698099289346	0.0266379343456507	0.007420643879513637	0.02762327372328311	-0.0111422431445205	0.01172058628898075	-0.01379822916627483	0.01179757691731733	-0.006489144977301757	0.01043892386249264	-0.0209460982758388	-0.0493442937355657	-0.03277906366551098	-0.05546240142211671	-0.02540684669972827	-0.02838264496449595	-0.05467309858762991	-0.02030811186296619	-0.167382152514126	-0.0579843544813516	-0.04973109616428693	-0.01882634759483396	-0.01832030346852688	-0.04520802390942238	-0.0153884459952542	-0.01807307256919865	0.03607333847594384	0.007824482554343898	-0.02675662278870272	0.006273320347752984	-0.02575760926451475	0.07856025258884938	-0.02988637135778342	-0.03543013674858821	-0.0606737534041983	0.009466271185623841	0.002256949386490199	-0.000604752774198629	-0.01050060058882326	-0.02178858568558758
0.007933972672967599	-0.005149733295360042	-0.02281370824608334	-0.0155402408201231	0.01256462002221169	0.0004161207193508767	-0.0176474242346248	0.02109751971809196	0.008127217457985893	-0.03197959498908857	-0.007129759245168045	-0.03410863015912644	-0.01123988501359026	-0.01354092884838152	-0.0132741898921615	-0.0123268320914397	-0.007792793412086611	0.004601760174068259	0.02752844011255324	-0.01592727600008901	-0.005250972679926332	-0.03627414981371211	0.02040055603022262	0.02764154503359851	0.05236109922895239	-0.03699319195437207	0.009395280467786109	0.02453596625145745	-0.00301035955895016	-0.008671058306891887	-0.02233199968753163	-0.005711770819739159	0.008953856520820657	0.02390212556354879	-0.01446781774656903	0.0164420164841717	-0.005544046510634543	-0.02880070745023655	-0.01624115798906555	-0.01790196202169696	-0.01460032345308835	-0.01041465638554954	-0.02563264285157342	-0.02678090316630269	0.00475761725219367	-0.00404689474798987	0.005596880383183923	-0.001192748053175337	0.0006367678395994584	0.0003557649959058147	0.0280756417056461	-0.02433517498717092	-0.02165429340086803	0.001615418848295569	-0.00613844783020176	0.01438148739044064	0.06552366921825646	0.02549930605467565	0.009032545807305569	-0.007436739012131417	-0.03260439553669604	-0.01424558429897467	0.03295058673381606	0.02444141094097328	0.06433161474318078	-0.003904411452120773	-0.03818390774874172	0.03049029994407431	0.5619866686154883	0.02660978532910065	0.01294955871143907	-0.03546527521531998	-0.04376509567738773	-0.02626281938691491	0.01858958995069446	-0.00282754413408931	-0.02237042845986069	-0.02137953592377251	0.01552239377654255	0.05713795754666246	0.055442699608325	0.002238581017549837	-0.02297888674841414	-0.03010642603742879	0.01449142218648566	0.0006795736262384227	0.02385741665511369	-0.009508331937388105	-0.005536438933562104	0.03192323587361851	0.00400423988052108	0.006813137812718315	-0.006180704658702934	0.02248530298323459	-0.03274498211186212	0.01665474596688141	-0.02148259340911578	-0.0006895138392694684	0.003114611145896297	-0.02689630209547809	-0.01204753104966465	-0.002231965794705631	-0.0133318434129962	-0.02768962219730766	-0.008307457046156366	0.009526613968287819	0.03641418811793643	-0.008631484861978293	-0.02675430363889132	0.01169521108108559	-0.009229817810088302	-0.01354662032792457	-0.04180222585015738	-0.006558352804249601	-0.04241086926905419	-0.01850332377153645	-0.01755002886257065	-0.02329004208403143	-0.006570362010739859	-0.02622896254327109
0.008731852991894907	0.00768743814643446	0.001454112200504369	0.008236246480632089	0.003681634040792572	0.007725904847160927	-0.0007852731959255959	0.005788702047812349	0.01457019545274746	0.006495933141508846	0.009240014953011114	0.007038571142201221	0.005775305907947746	0.02085968239132291	0.008825938945039222	0.007696582138140963	0.008778549788465517	-0.001177456410290438	-0.01770965094873998	-0.005891068573762506	0.01508745921697882	0.0112824847710301	-0.009430191910700648	-0.004624427964677414	0.004026535927206294	0.005260950077252658	-0.02269576848211329	-0.06008326746409338	0.5006155772140255	0.07966781509302438	0.005149604892892038	-0.1888665489879751	-0.1016011266307296	-0.06220388767619085	-0.008657585319336174	0.007192919278094042	0.01038936730694282	-0.01606841344371991	-0.04726137220848837	-0.06227271135226425	-0.04871251539227256	-0.02748000942752185	-0.01566881884396535	-0.003042266716925344	0.01068262147178932	-0.009540460060860718	-0.01232941400009864	0.0007576620925120426	0.008704433943515862	0.008843233058787918	0.01302752264612898	0.009425006224261215	0.01233623926410226	0.009355191151028446	0.006606080104970345	0.01494798144268488	0.0140062994540668	0.005164744364374546	0.006327977772162004	0.001776531627850872	0.006682556302025206	0.01073828650470992	0.008346620146895443	0.004663676782922241	0.006058124918528744	0.01203864169737299	0.01277286311949302	0.01590376233032533	0.004918483356149097	0.007648051530801404	0.01494686712059231	0.009596204491333459	0.01013013778155565	0.004927350923375567	0.01002116172330468	-0.003553567219233625	0.005196609228141472	0.00611779954400413	0.006361590030410761	0.002246553857579812	0.0018546772213448	0.008265422061981449	0.005792647742286446	0.006532668821513545	0.004094519716305693	0.002706723321758727	0.002489299753159011	0.006683224655781999	0.004515388442032705	0.01229435607555052	0.009533704707830819	0.01357371683759143	0.004834056244742804	0.002494534607229583	0.008115720625496165	0.01161469457691396	0.009257281750346106	0.02283945828334918	0.009289927411474703	0.000100352920300938	0.006967208590321091	0.01097266407453104	0.007580545495869396	0.01067776849678857	0.01023680431947378	0.005353956573027309	0.005825544128153184	0.00691850755089634	0.004727310468641741	0.000850891905096861	0.01049521246067921	-0.0004893772521492402	-0.005166388618933929	0.0002977295351107805	-0.003345507479830903	0.004855901184195163	0.008030377733775807	0.00423365193650741	0.008391261488451544	-0.001249014028656076
-0.001268563829289627	-0.001254259983240307	-0.02980480485646391	-0.01744599019729761	0.000477609956957557	-0.02389069580983541	-0.03235721777809241	0.02911877790359549	0.008137962278517314	-0.0255807391063559	-0.02960743592642182	-0.02857396676123606	-0.01128294753886685	-0.01251643229501324	-0.02470124259875842	-0.01434109242005302	-0.03130773433039895	-0.005222472244826627	0.009252570209814032	-0.003729848796229185	-0.009221295386677118	0.01308082288376285	-0.004629520375113299	0.01202125675129052	0.003764291758844996	-0.01365531167118796	0.007001895934059909	-0.001443332109205687	-0.01626235041279557	-0.001977386352984036	0.0027259101138834	-0.008801954170307871	0.0006862077100354174	-0.01447990166510621	-0.02058890576075333	-0.008483372538351892	-0.01401800452658664	0.03908749416823475	-0.009083077177155306	-0.001517396610961051	0.005556648965830466	-0.01740854001208091	-0.01339666587956031	0.008561736533939684	0.02171690783140027	0.01083015009388084	0.01562903566425832	0.02883367731621801	0.009595368320561853	0.01152235598847024	-0.04704175271432737	0.03342157899996325	-0.0001922166617569608	0.02611303933560888	0.01666586926220458	0.03619274823772332	0.1436115790569821	0.02031365413615581	0.01029968061025922	0.01048306851480456	0.01317753488651218	0.0150228161609464	0.05952209109014121	0.01370646256403595	-0.006639268808362427	0.03443411326408613	0.0008111339384221742	-0.03868336310764878	-0.04426801933728339	0.007667322301518926	-0.03714306221880648	0.0368762741158323	-0.002403120583669279	0.008925438081462714	0.02244370576841851	-0.02164666253496417	0.0127214120947962	-0.009007903042372305	-0.002603510228669019	-0.02822249438357491	0.01325937291715403	-0.003265697674117591	0.0211607970566155	-0.0396477296778806	0.51050886547542	-0.0005006264380319105	0.01398718651210606	0.008454665756725361	-0.00547847732634362	0.01985026924317073	0.01591923209869706	0.0009785057965323034	0.01572495616930013	0.002397667408708201	0.01715478453472525	0.02439574425112807	0.01003976058448157	0.03459247006714738	0.01197847663749592	-0.001058459622477176	0.02136154868759517	0.0002099741613348309	0.002962199335279084	0.0119578701930131	-0.0006982108314164326	-0.01177035220288608	0.03609139744163949	-0.0159075000884432	-0.0290788575240568	-0.02116712840356563	0.005728408235361716	-0.004901325101739031	-0.01355527352124852	-0.02219294009776685	-0.03517996742744432	-0.006789354866680957	-0.01081592495556868	-0.0259877283863299	-0.006253945375722825	-0.01023722236910876
-0.0253151015757092	-0.02844613111395949	-0.02496028815311876	-0.007949257561820444	-0.01441868697792925	0.5234448748765428	0.05370245231960361	-0.02425262306251211	0.01951105747114596	0.05717704817881089	0.00948199197060672	-0.01261321384427036	-0.01505508484859384	0.001031045880018467	0.0159042379062529	0.001897036339436883	0.02213746900042822	-0.01748962659929722	-0.003181064688042798	0.03016192278740646	0.01604333365438376	0.009673894662453109	0.02982119556083225	0.02285776768455872	0.01936488893123934	-0.02198233241152114	-0.002738383110722738	0.02623665046444687	-0.007147581736640823	0.02573709458743662	-0.04584575602619731	0.01677409229285583	0.007749402520751921	-0.01540494159658506	-0.001276735467574101	0.02186798043670366	-0.003188467563777665	-0.02022604099587937	-0.007872959383019571	-0.01001380297627021	-0.004907620853714171	0.01479547851831942	-0.003420569979656866	0.01346663371761858	0.018348570283335	-0.003777704148591713	-0.01686312966411112	0.004811361105229821	0.003049982335593419	-0.01788160651184861	-0.03828848619070968	0.01071244729484631	-0.005776406411720083	-0.0003555702767543444	-0.001793168720556053	0.007877467099924786	-0.00233733712292743	-0.0112271546228548	0.02304615902949129	-0.001257229922031849	0.0002536236842282627	0.01563441556637209	-0.01021731057386598	-0.001078955573683262	-0.0007059856460754851	-0.001450057799233997	-0.02619736701479202	-0.04169200275589595	0.005802243581934064	0.001813603515836757	-0.0218765746662071	0.01572899281397618	0.0135443333676059	0.01317039958280073	0.02527461113254357	0.009282218167172418	-0.02335045470017016	0.01016991335812443	-0.00780898158242739	-0.03080502458818398	-0.02020099543245507	-0.03785465111751866	-0.02028764762389	-0.005526362137384946	0.01700656142611918	-0.009105247707939275	-0.01882458882796115	-0.0005401164736976937	0.002716201057025274	0.01367216220477326	0.01115382730432695	0.009604423085388119	0.01495684152119017	-0.01054713155173387	0.0005201966906592081	0.01367550647045656	0.007295292108445223	0.03496055414562294	0.06190022140830517	0.01036355039619625	0.01119281201438655	0.01582007136719814	0.008226476890135318	-0.02218425199828705	-0.01428178889239895	-0.002432830661496864	-0.02680947098080967	-0.006384273306486055	-0.01859197484367797	-0.03335369755881592	0.01975793674887591	-0.02053701319482414	-0.06329785660073621	-0.002814602412596808	0.02903258002239031	0.01646186835718748	0.0001403213081539333	0.01038697307216553	0.003597513517837648	-0.007261885078958245
-0.004612592425513272	-0.002544172386629822	-0.002754404876481603	-0.003403184794996606	-0.0007703074413404019	-0.006700750700626213	-0.008208459869545914	-0.005286261159501102	0.01080294138619721	-0.0006587693823459296	-0.0052102563795145	-0.001866138263321915	-0.004157690990633959	-0.007633974298491501	-0.008907735031071557	-0.01075400751457581	-0.021675087665914	0.001405568023672822	-0.01748000302621828	-0.03390540863039461	-0.002648579163774133	0.003077623066546408	0.1143828027388513	0.4234002808484836	-0.1940015289789175	-0.1015124343355561	-0.1079162631445258	-0.1895795905469808	-0.01313826334767784	-0.006393478390548323	0.005627415482656281	-0.01243097332460159	-0.03579579007352011	-0.02946370768777778	-0.02601872742489601	-0.03821994229507505	-0.01810311663626976	-0.01307038260870558	-0.01139412850574644	-0.007205351388281226	-0.009648495346776519	-0.008297202390829941	-0.005124634877285291	-0.004583522691930738	-0.01534129439273428	-0.007071902428937113	-0.009031660940656563	-0.01174419968665973	-0.005032923626337491	-0.008053290380930866	0.0009992202423644316	-0.006232628927175477	-0.007221189228513569	-0.003342121706025032	-0.009081367356134002	-0.009286068919977407	-0.01041505429069899	-0.00722053403667401	-0.01337600516234815	-0.00786920853237809	-0.007336810668562309	-0.00853606040261219	-0.006133672696413551	-0.005404832664427531	-0.005721007613550397	-0.005570637416441155	-0.00366808962236531	-0.00831243632321587	-0.005998841380146256	-0.004623683914575611	-0.008717420792766554	-0.007815756125564179	-0.007106401420845602	-0.007369850050137446	-0.01642179651352476	-0.01482630345153597	-0.009231009548501002	-0.00922883109921489	-0.00539550447993447	-0.004288560490145496	-0.006021090817548273	-0.007491008405354964	-0.004665897481792104	-0.005645801437077531	-0.007779350124189073	-0.00470821788944717	-0.01018632452027824	-0.008018025676938483	-0.009572909557155174	-0.01325305141928357	-0.005001679197230631	-0.006590972284236974	-0.005766729913164794	-0.007559396612457522	-0.007218612084142743	-0.01085743224932132	-0.005816115709234639	-0.01764068600976967	-0.009084465517257655	-0.0004241696007669842	-0.009473823865763557	-0.003854062005024737	-0.006340696317590404	-0.007481884440108759	-0.005928145567309445	-0.006360017312558615	-0.005992725837360486	-0.004758127405928551	-0.006787405475030124	-0.01407264766280404	-0.01021577614097756	0.004106094012459274	-0.006518201262592504	-0.003176672163910618	-0.01648090828075482	-0.004517411762393427	-0.007593955365576747	-0.00825444116067308	-0.01332579516110761	-0.01225859098095818
0.003158212437080104	-0.0005776853246785514	0.0003768971136979478	0.002742927213117396	-0.001013338271468034	-0.007202114981668166	-0.003659645433687653	-0.005348213749093946	-0.006574237078492239	-0.001978762185184806	-7.242969106958671e-05	0.0009872478608733725	0.001707095582548555	0.0007349641045467719	-0.0005511527036647592	0.001234662889308184	0.002411542007478159	-7.426680043583686e-05	-0.001806514516176149	-0.007845431603186294	0.002560958256068055	-0.006628183718667729	-0.007883123892228854	-0.0002225156394534615	0.002193871961521462	-0.001573522315930856	-0.00405486046125507	-0.01393462923442442	0.001564309026346468	0.003600579334376017	0.006343389644713438	-0.005706223551035862	-0.005326279666764554	-0.005666439114768584	-0.0004814466290105578	-0.002058534818746705	-0.000595785922604688	-0.0005836769190615973	0.001222497099255474	-0.001154823188446842	0.0006107459853926249	-0.0004039380000839302	0.006103615838305878	0.008122044228362695	0.001154947088606219	0.003085074154118035	0.0006151084469518306	-0.0001049853988038599	-0.002423067545103315	0.001826231967380494	0.006181970639578645	-0.003953053215291174	0.0005103686154637008	8.838131907623212e-05	0.0001892608426986123	0.0002998755922492139	0.0009760836847076285	-0.0008964560053077763	-0.002808184332019734	-0.00354510769512429	1.289327198769532e-06	-0.0018307930472987	0.0002804531963486842	-0.001668421759390024	-0.0006755313480972133	0.001040509465229775	0.001853680132772748	-0.0001490949359159181	0.002215827490261268	-0.00174501916401512	0.001564672224150416	0.0003948740950237328	0.00143388415365444	0.0001396511114524516	-0.002925959895009139	-0.005326608716368065	-0.001780071671737666	-0.001171508649276836	-1.597178529056953e-05	-0.0003988525581063582	0.004261812919485524	0.0009363081887981047	0.003224445851516184	-0.00168838991907103	0.0002257294693080011	0.0002003216008310437	-0.002228631211669373	-0.003227004252886901	-0.004532715109347895	-0.0006212926624938131	0.007006316341310786	0.001992871555421898	-0.001780336886808801	-0.004198159462043482	-0.01267703011291361	-0.0226166189986388	-0.03097584974259918	-0.01905534130951855	-0.01024558223108789	-0.009192576308668763	-0.03340414940254634	-0.1975878421556432	-0.1305191548529453	-0.05326957362462213	-0.02250782759631776	-0.001035334145296319	0.001510112483246946	-0.01100867165845465	-0.04310854750832005	-0.0716969396349703	0.4641799287189796	-0.009960287232569406	0.03065020770464412	0.05690687872189116	0.009058132040415168	-0.0050820789319954	0.002151948756129632	0.003150373815697622	-0.000829361194662296	0.0006334637811847616
-0.02300784478209191	-0.0217689985247641	0.02285008765665332	-0.03039956504698135	-0.01552517638218103	0.02658745315817172	-0.0308851119712032	0.03246208794667076	-0.01045113499754982	-0.01030269123731452	-0.01191673577888554	-0.02646736799881118	-0.01781793487185224	-0.002533930656017494	-0.01019191955168015	-0.02345402761091716	-0.01350616552661099	-0.01483990956135885	0.01348246947385085	-0.0141802449720234	-0.02653611898921116	-0.007375001132048154	0.03399925135299463	0.01341371331446574	0.02311280421362233	-0.01188022842755978	0.01225247475469224	0.03876366124490504	-0.01152926546977614	-0.001175858205348497	-0.03899133788916698	-0.01098191042177211	0.009672243024467496	-0.008051068614236585	-0.005743551243718296	-0.003105652732522279	0.02420087191031335	-0.01630371051003371	0.0009266310087234872	-0.004149895636197554	-0.006721104353216789	-0.02113512270155484	-0.01693818235375334	0.00479298943294157	0.00198021601724846	9.084494379867108e-05	-0.006764294052614033	0.008219958447165219	-0.02259390666403501	-0.01862807982488227	0.03753382235964443	-0.02185881034404343	-0.003974371355030115	0.005012998395834618	0.006634528683125208	0.007565261043790011	0.03212014327531171	0.007461092900178753	0.01177295431492402	-0.02177072480238914	0.01170421388468569	0.006468662769722354	0.03551478823876089	0.004731102612100139	0.0006261210087997355	-0.005268894389514273	-0.009737367167225883	0.468512391199632	-0.06634333677820058	0.001039650882283036	-0.01061431965006827	-0.01274509702899568	0.02305881193269292	-0.00463962430920927	5.198074157007673e-05	-0.02599619302729674	-0.004581036579023249	0.004604650534652159	-0.002720768491525725	-0.008067896893352879	-0.008165274390346769	-0.02343561972615115	0.02312845730417328	-0.03372890446995935	-0.009985744364989708	-0.01783306774725042	-0.02248377291223995	-0.0008473723466943524	-0.0006398380024166654	0.0004498760266676723	0.003902238603611789	-0.006413227393438859	-0.002342934335384995	-0.007766748808368609	0.01288467905397223	-0.005190662473397204	-0.02292886849826659	0.03333275186144317	-0.005050172903867488	-0.009759265504692768	-0.006756822758188606	-0.007178296250257708	-0.008715608566008459	-0.008258567945817842	-0.01720693586895196	-0.0187026816753062	0.02282684054069477	-0.001758089667875742	-0.02707394824574124	-0.04085399235026212	-0.00666854478507194	-0.008295045936452104	-0.05472777149516943	-0.02852954529480879	-0.06694468954335611	-0.008127624065822316	-0.02289934802795299	-0.04241704299536402	-0.02341341428824518	-0.04180304132337844
-0.005348377274070329	-0.006072482373158159	-0.006787404677743466	-0.006597233416891685	-0.01507037639180438	-6.651289545469481e-05	0.05061600953012464	0.1847407354121026	-0.00807936357971439	0.0282183278331646	0.03348624564473594	-0.00504711390240712	-0.004719750228474042	0.05780649632556516	-0.004676222487461289	-0.0008714500263307182	0.00285796139382014	-0.0005909623972981806	-0.00874157678882586	-0.02473481671296163	-0.05455633641538749	-0.03628457474615848	-0.01936396536712143	0.03042216192950089	-0.01692809732894103	0.03205085321386662	-0.01262492684577779	-0.02122016531126297	-0.007137781800157999	-0.0155297105132188	-0.04096745301589846	0.007827692821778325	0.02393576792660322	-0.01181124921411891	-0.00602606881188497	0.01256367884597872	-0.002442789457582067	0.002253679570678973	-0.007844525593749598	0.0009793163746392461	0.006715035104056742	0.006977983314237411	-0.003197838570652642	-0.00448302604943007	0.06935913715296796	0.00351579585514585	-0.00346362088598601	0.0313839992127906	0.01120355785735214	0.006322667814524141	-0.008621886838213509	0.009313875351837704	0.004173055840097095	-0.01216344454527972	3.058524582446313e-05	0.03066773444798022	0.02167473631764961	-0.003214364578129369	0.03730445220816953	-0.01049728951602999	-0.003246138520450055	0.004164724024626276	0.005100340172447489	-0.001872850274946201	-0.003497332977822547	-0.003904889289361515	-0.003051655558598361	0.04361506389405845	0.01068005572059752	-0.004044586747807825	0.02675831919327218	0.03357569018270858	-0.006150408773596237	0.001262180974683686	0.04475908246685763	-0.01649151985613542	-0.002460797870281108	0.005662918692359757	0.003531856149351819	-0.00322939254550428	-0.001902962911290909	-0.005173321163356366	-0.009414663864988912	0.009092086063654326	-0.001620278586671382	-0.008365806351896774	0.01956741981157904	0.03289896676321703	-0.009502660923572701	0.04605482766060108	-0.005620912584715267	0.005332802298547807	-0.005116055019890603	-0.0006069482807509305	0.02491376042096497	-0.01092488924138758	-0.007885075558871503	0.05341821852852244	-0.01682724665084144	-0.04998697718965821	-0.01813868334703084	-0.02307000418489212	-0.01137595055132318	-0.008845897195424342	-0.008397346527348623	-0.01120740246706151	0.01017079498958893	-0.0005621814755607331	0.002718320172165389	0.05635212358809934	-0.02372741535332479	-0.2629951165835573	0.1143269021727827	0.03123356911460023	0.1033736354115181	0.01096516056384266	0.03170474304451282	0.04098208144709167	0.09277066697569875	0.2652576163707525
-0.02850585375958119	-0.03819028858355216	0.0006773286229073785	0.00382696530802125	0.009032695645089602	0.01053271676585049	-0.00121398104328609	0.001591765183670587	0.01014474464143418	0.002522147806053119	-0.02061766145620705	-0.01238428675439059	-0.03875150608361618	-0.010712666547764	-0.02048067133707421	-0.02536292163776342	-0.01433070202266274	0.01162369483342209	-0.009285884751606006	0.006450738750835909	-0.001126521052185728	0.001084882512211989	-0.01910452395139727	-0.0106967060699155	-0.001831283466767852	-0.0280351479070342	0.01462429170122735	-0.01618569347125759	-0.00977854458035525	0.006056729229858736	0.004510352955605606	-0.01632059146666394	-0.009910649734869647	0.00426767796611489	-0.01183220719484239	-0.004959775328132325	-0.01308585114685518	-0.01249436062573593	-0.00779258563290636	-0.007726990794483242	-0.0003081671299130181	-0.006092831166570511	0.02792061568594149	-0.004820293338132008	0.002458923518334581	-0.002045629506382078	-0.01079807295924671	-0.02193896661202613	-0.04064154176605221	-0.009510884456190872	-0.03339137046682831	0.008032330013663909	-0.02330294414044365	0.009655248124943091	-0.01001197632539917	-0.01539695115876646	-0.03787112909373425	-0.02578668836238869	-0.001023025362868255	-0.0008502327995172185	-0.007903012709278671	-0.01253179404495353	-0.03137544913113505	-0.0357003085818184	-0.02602473390817233	-0.0161237114923822	-0.03613310740786497	-0.02375596627589263	-0.01828414017178924	-0.01270484434802499	0.009993507295692091	0.01433504463667619	-0.01347001939472866	0.001413747486173595	0.0106707140335313	0.02083309011130123	-0.01103321307921512	-0.005517035872863871	0.002939655678768092	0.008398011481820313	-0.02012032429230512	-0.03756125945045778	0.01643695163163659	-0.01281754749701914	-0.02613498977590958	-0.03074759516251191	0.009978459440673434	-0.01792411860796162	-0.004799987448582414	0.0004713465148652009	0.003999305744510578	0.02082440784793354	-0.001679549447793446	0.02598394017606586	0.01007088344722985	-0.006253521310950318	-0.001834129783654561	-0.002180027961070391	0.01880720813946713	0.009768282406667574	0.008350380049534048	-0.0005976222938087617	0.01432886219458402	0.01877597437139489	0.0001106199262229087	0.0671182072109594	0.4509046510015757	0.009696278799815668	0.002268475215815558	-0.03188628801313177	0.003129080393605387	0.0005603435683648396	0.01227741939238241	-0.012424850953267	-0.04234267271096324	0.05217869641331423	0.06188135399073364	-0.004688503822441213	0.01541973049068442	0.01058181414813013
0.004240351424268542	0.01078872270338438	-0.002067071879804134	0.02362141325302514	-0.008674513475994889	-0.007136461373990222	-0.001066496508221686	-0.01226087096003322	-0.01759189515157606	-0.009219177539553603	0.004952880743049894	-0.00909785205875557	0.00852808044099993	0.003088661321190049	-0.006550406819016304	-0.0014382197591183	-0.007082814300122343	0.01699602575939828	0.01241416502609525	-0.005166156746689647	-0.02044036523715677	0.01019060748361788	-0.01206549339798304	0.01306492608000654	0.03587612333926931	-0.01816517105932092	-0.002416049246277092	0.007642870233437369	0.007502604324889673	-0.008916308094051062	-0.0581951927273926	0.01364620144479104	-0.005140466692874113	-0.00419952572312355	-0.00479593405290269	-0.01215746199156617	-0.0006726358243210814	-0.01167891112112866	0.006159767623068886	-0.002705481732496929	-0.006540640097085534	-0.004079896615651381	0.02072818755107898	-0.01670890343912005	-0.02364441661569384	-0.01719743174567797	-0.004433420540718849	-0.02707157595734273	-0.004449972738074219	-0.03189228558123928	-0.0584034330804988	-0.05820974885176528	-0.03924263873393707	-0.05495149484119361	-0.008712365150493744	-0.01483123556682459	-0.06048848991580484	-0.03582008930248944	-0.030677385536559	0.01644726090823426	0.05590132430356417	-0.001966146978823498	-0.03005172529142734	-0.03836319639321847	0.003556466542077372	-0.01511349019084235	0.007797373407752052	-0.01282107025117979	0.03724576943569677	0.01151360146627466	0.05107497393606773	0.02760438649594231	0.4013682524903632	0.04967123001306182	0.03517922073343462	-0.07395586166973131	0.05747500402862536	-0.01308642114121717	0.03201258270422801	0.007369139264113272	0.0190492553504355	0.01775347870233886	-0.0007467003292742716	0.009540355976998253	0.03753526853794621	-0.01286420779560952	-0.04200163391891234	-0.02567144736459541	-0.03740035904723107	-0.03116457900431383	-0.008182609780882602	-0.03638924430363939	-0.01580685708357052	-0.009226586537715334	-0.0115997277113096	-0.01407109751543789	-0.02557986442417137	-0.01859081705825499	-0.04034408311651583	-0.02879551539342592	-0.03274248752000516	-0.007842226313209834	-0.002784883718640442	0.003359681452169273	0.02300938390954178	0.02423126465481088	-0.0007893658224024302	-0.002068149647622932	-0.009304734411312462	0.003123983848412926	-0.01311520541676045	-0.01966901858820755	-0.01364573091127938	0.007571197393898769	0.009142580226923441	0.009542637087770808	0.02263273485680527	-0.01857976096995504	0.003866092902529093	-0.00497994525792344
-0.002160614045026516	0.0002903939370673403	-0.009596148618909306	0.007830457107976059	-0.007205845948277442	0.02668780964728105	0.01894482216016531	0.01875450741661378	0.04499508147119888	0.02511426456176394	0.01906202543178348	0.005378532529178459	0.01270780599680136	-0.003643363605906988	0.001350115063959503	0.0074097454018357	0.0108506479923009	-0.002099931120875192	0.004551260755510214	0.01612209168978393	-0.01851963630275055	0.004917107149843829	0.03178584805174423	0.01094001948195799	-0.002430627147096036	0.0129171717859726	0.009523153968851932	0.02635253395848679	-0.01675293485524311	-0.004506342700090757	-0.002023056115949302	-0.05615889140385168	0.005863632848307065	-0.0105320395596439	0.05384433344037309	0.003041253600238061	-0.002061802334362822	0.01466712672649585	-0.06948320191332978	-0.05158680943816858	-0.01540594711544389	-0.01170736106870988	0.3777090430304949	-8.776616997201846e-05	0.007695238211959453	-0.002162903930477289	-0.02006033101946101	0.003376578652071238	0.0007047318656906413	0.01654994986815075	0.0525806328763397	-0.04053764103739423	0.00599376353889923	-0.01476088577755224	0.0003782403384936717	0.01496085224135926	0.01940323957738661	0.006997253169458097	0.01739674921087944	0.01447948215369272	-0.02798415625387057	0.007931186998122158	-0.01169235739135207	-0.02697564981702489	-0.01991538428729372	0.0203041373750519	0.00778795538644611	0.02131732080698803	0.01787095970042583	-0.01338663566575996	-0.02772777138049225	-0.01197932362222918	-0.0242737094623858	0.004956855091558059	0.0164996314000464	0.04313158735829112	0.01186651373466158	0.01817623538219346	0.004687350608115815	-0.01047491862987824	-0.02044841109212852	0.02065833217466057	0.004891417260138478	0.01901710995231038	0.0348404150212597	-0.005404650357731482	0.008329713285005334	-0.006041076911510841	0.0393364491204232	-0.003343167677964715	0.0005325021971392316	-0.03481283088187608	-0.02939479235430319	-0.02769068498772037	-0.0116639354217943	-0.03475176226991141	-0.03217007593966781	-0.01920657859923178	-0.1628509592144563	-0.03888821725528819	-0.02645260456980118	-0.007992043015092471	-0.007995317350833491	-0.01279530095446075	0.02266365552841006	0.0003024506296595142	-0.002863131957170893	-0.001915821324871449	0.01783327513912787	0.02096469497148128	-0.01560606977234486	0.08145497864499172	0.01661700930806688	0.005601910311829102	0.009958271156561661	-0.004374781043200607	0.01564065975021715	0.03031394325317676	0.01587666525730314	0.0140543138100511
0.0073025662186488	0.003977064820422449	0.006165331108664756	0.002730026073654039	0.003187491535912657	-0.001518423635766471	-0.006075627806592886	-0.004528424668199537	0.004297475221440962	0.006971022758966536	0.006767817510998701	0.006339690519815967	0.004946976998914825	0.005512592614727705	0.003632560019121995	0.005776529357366821	0.005478667435597687	0.008116469342565895	0.0005297788147452675	-0.001603740422039579	0.006102786677862728	0.0007517637096267518	-0.003212875456400255	0.009704557280580403	0.005840018645425282	0.0035040175886403	0.001237491457286022	-0.006111231272689726	0.01018048726548816	0.005063285967753809	0.007876427696020191	0.005145687618984899	0.007288816774730446	0.006652591922345378	0.004736765309299482	0.004903432927925117	0.004129565594868808	0.006996181577951351	0.008069766024786556	0.00930312613669218	0.007782973926403802	0.005816116161569419	0.004987290082659879	0.003003146602277286	0.01001320645186343	0.009187722229576031	0.00648893737894784	0.007976132347752457	0.007624055327148567	0.005881077856296314	0.002536970025324289	0.004667897522265864	0.009954940841990169	0.002545787346238384	0.006206879676245771	0.008740875444781812	0.004537851483619128	0.003811649486908995	0.006100155759830805	0.004167806039073811	0.003579719681432968	0.006437574070349289	0.005429495622330428	0.003872559749761373	0.007394887129275482	0.005149453430262095	0.003110993542975401	0.007244015062192778	0.006020957718406692	0.006075236904934797	0.005107914306597672	0.005483941180824666	0.003727450384123529	0.00665925660012043	0.007584995606824781	0.004540263857405849	0.005089816609993318	0.006658245673050489	0.007454806183594362	0.006387197265100494	0.003692802004001126	0.007761453137259067	0.004784942473838828	0.002628099913214465	0.001703731695758308	0.00345030265233604	0.003764063191815679	0.008457683221683009	0.006498573706825026	0.006794463323308889	0.006049283771501933	0.008779984624096841	0.004935907211995693	0.005200584211335044	0.002081285023502047	0.002651496428505808	0.002661804015147531	0.01230423110440304	0.00979849127175577	0.002969165391518352	0.005351996322051908	-0.01816889359532372	-0.0237664468842451	-0.023499544818054	-0.008200925693230712	0.003004229690586641	0.001881585514248755	-0.01760229959459495	-0.06407564507041424	-0.2289522556425092	-0.09933620292576599	0.01809395673772373	0.06809287375508671	0.3756695792728789	-0.02679162774035948	-0.01483839872683261	0.009600140478494565	0.02770107606795286	-0.00264998291407304	-0.02154973778676956
-0.00123659981496237	-0.002116634083122281	0.0002262958454673828	-0.0007721791911408672	0.00299508572713423	-0.02163276829421144	-0.04086415501990281	0.04295404503735954	0.01271437081800265	0.01497202052454206	0.01304734371495006	-0.0009025087509163065	-0.003549779341460888	0.02819716475119981	-0.0003424939752321662	0.002470556144777936	0.00500110832517599	0.006449877661782603	0.01071287495566418	0.01119983079291068	-0.007703048845032155	0.003689167159656659	0.008478333501889191	0.02684053211825297	0.005560380792838302	0.02155965635868247	-0.0003006990975545534	0.01032812848430939	-0.003436274449689205	-0.0001252715767782569	-0.01180227187777865	0.01412576382694915	0.01807967180441581	-0.0005355699243394488	0.0005404186241176074	0.007296463051743514	0.0006230149567896747	0.003002362656709815	0.0007114803152908468	0.004786810641134059	0.007463021397501615	0.001844386019653223	-0.00730745170527331	-0.002041220824497873	0.03610978041452474	0.001433305550230733	0.002233223618530621	0.02025120992660056	0.005645560400472166	0.004798002649019077	-0.0002274919206732232	0.007923870908248814	0.006258722959432903	0.0007516408791917965	0.005873670003879153	0.02226521813167921	0.01367853306522133	0.003503379715224708	0.02589381762041311	0.002172495291818215	0.005184581358894321	0.008650878952561634	0.00978452511712264	0.001869112657431017	0.004009638079369986	0.001956230536832961	0.002248668042733296	0.02355572508194178	0.009805967327369824	0.003073206508243377	0.01454724941567428	0.01739945120691188	0.002871560629450495	0.004464710157413852	0.02944416730465384	-2.253255480400189e-05	0.0005734622852393618	0.004665351833608068	0.007043144748289291	0.002286605516399886	0.002059769909799213	0.0002072424553672189	-0.002994670440442131	0.007480017397256724	0.00395949144700242	8.048398403515168e-05	0.01116943918473906	0.01971057558503077	0.0001963278666934142	0.02667510122167783	0.0008584313169026511	0.003371798702400222	0.002889796007876043	0.002742433443687185	0.015791314391682	0.002663922148118958	0.004746170811960664	0.03449901815023743	0.0004778488319755068	-0.009170239318883378	0.005156219923741053	-0.001278815240638333	0.008661173998763733	0.005784915042033351	0.007895751907620494	0.00438752846054336	0.03283118429122024	0.0217444809217151	0.03427788388998988	0.03474118828914781	0.003073251932571499	-0.01390335192904518	-0.0007508415035614932	0.001846915764485503	0.2745529073019918	0.07841559179434968	0.07079037573450218	0.1250863780516482	-0.2121036869466106	-0.1918576602533255
0.002276038020829846	0.03169740543678084	0.02072091952226474	6.113276123433059e-05	-0.008066135116808931	0.01079862823386808	-0.008412153650631528	0.0147220795087553	-0.008548197009013259	0.02385675362277274	-0.01718803700108253	-0.01448911890494569	-0.006237382477305901	-0.003172060638954663	0.002509696880677926	-0.0006317788430966528	-0.03036966010195946	0.003111942348929154	0.003150179981669711	0.003001079309033131	-0.01521143289275543	-0.01031388164763849	-0.0112818317149792	0.003863540774585783	0.008105817229388407	0.007539892162648576	-0.02656590740218073	-0.00179101273236996	0.005572224040813686	0.01357345069610771	0.01005915295250561	0.01324943638427951	0.003520360525734889	-0.01310244119402305	-0.02569662015266625	0.01739885640220567	-0.009680321533658862	-0.006489443717553694	0.008275150465299223	0.004178188564748781	0.003338314883018142	0.004432606114384773	-0.002882503722253502	-0.01553311738369314	0.006835309155264521	-0.008913956425966225	0.006348562809967396	-0.01318740629704713	-0.00308405586257956	-0.001119636811939467	-0.04048431939261809	0.0101311545456731	-0.02018192946746339	-0.01414667712600886	-0.02316382948964017	-0.02007114147146666	-0.1002524494337575	-0.02462428440201977	0.005933499262313017	-0.02137395965161075	-0.003214217914654946	-0.01824949289545195	-0.04739577477102065	-0.04298375087975384	-0.03688636911136345	0.01794991311086362	-0.004752800046563766	0.02277433112403872	-0.003471585610168834	0.01594100297097358	-0.0265770891351914	-0.001943355923176512	0.01445457616189094	-0.003752262016998979	-0.005711300597290213	0.006558199239654337	0.01028834388351261	0.04680166769462703	0.04396055147035236	0.01796390863538645	0.01245006591377351	-0.02294102981878086	-0.02199154696301503	0.002046026856131569	0.02050933769466935	0.01887044964095182	0.392570778730525	0.07231758982050544	0.00584639582256394	0.02432706901486521	-0.004841817537997912	0.03231013992725665	0.01226349488350279	0.01622021571144771	-0.008053317014481209	-0.0146079695628754	0.009307464523861476	0.002703732519603975	-0.02392751778732086	-0.01514542619054292	-0.01397812261446267	-0.006336852887943642	-0.005943484281321416	-0.003542378389077117	0.003180071049154289	-0.004136898962548939	-0.02339865104925008	0.007943671482690044	-0.01494621966452681	-0.009362549560674293	-0.002476698182660559	0.0196293843537126	-0.01770157440598343	-0.008216617971743429	-0.008044843446629606	0.00890325958201336	-0.02642240308034368	-0.03163044945978058	-0.002707104444112111	-0.01473880813193675
0.02152340909064957	0.02402969897392408	0.03259640783846048	0.03714326325850582	0.02707984699063565	-0.01207988688053669	-0.0186983418012955	-0.006852492360406181	0.07557002818351208	-0.006131196879285972	-0.03514510101514062	-0.01272714264493543	-0.0006089942204390747	0.01931562720528974	0.006841501737882599	0.00143454907485848	-0.05992565761013325	-0.1015184941102446	-0.1766498603008329	-0.0289409412916732	-0.04630542898535557	0.002785454239421714	0.2318161733395959	-0.08092863022630394	-0.1645224100895187	-0.06935762143175997	-0.002192254904341449	0.1681621732730793	0.03046251435509116	0.01934342483947046	-0.02809150905562037	0.02549102251176251	0.02911428957173135	0.02454374168386823	-0.004498765740853592	-0.01291130992078162	0.01567985721847346	-0.003335102795610582	0.01058162268982268	0.003296001177581229	-0.001026810073958302	0.02056654511872874	-0.01495398065896074	0.003978516680036154	0.01610204950794479	0.007955246975153141	0.01230935885975879	0.006807630317662812	0.01563306670259011	0.01293242297154026	0.01012549222396437	-0.006079360254651229	0.0158728143836562	-0.004881196866542943	0.009462904750711492	0.0136956321929329	-0.001046278073868064	0.01076438838893192	0.007175680647811669	-0.002791452823490788	0.01821030960282241	0.01128395503139058	0.007941924018131938	0.006309203423267131	0.005738844272468887	0.01170182021431123	-0.01091904121763775	-0.02261053166975796	0.0054192865223304	-0.02604811126180919	0.006234177021405066	-0.01054070481828241	0.02521260802755615	-0.002912672726425393	-0.004617667072710164	-0.01878601279772208	0.01486036037995177	0.009790341197383479	0.01025389466517556	-0.002378951799135737	-0.01025390109402252	0.002484693497455222	1.352619636721306e-05	-0.004645879748368253	-0.003878745593309322	0.01749582026546546	0.01324500448510593	-0.008403161524519075	0.01650794493379173	0.01626565524671125	0.001980932476522888	0.0008286051330853047	-0.000200751884378019	0.005202728334551371	0.00438008538566085	0.0123061871041297	0.01573889156784571	0.0115755292705634	-0.003801582582924329	-0.006481675910605333	0.005394555105534988	0.002029753618376629	-0.00198835967803908	0.006398509806950002	-0.01714022439545239	0.03295354098405732	0.009364313311558006	0.0004551958137029693	0.003669058246731347	0.02237306874768057	0.01369483461043688	-0.01658945752072933	0.005463587235466519	0.02269231509850771	-0.01539747317055418	0.02079619982558062	0.008851478013473546	-0.002652966795582318	0.0002849296789976954	0.003108726356699284
-0.04898002983146656	-0.04837348244397926	-0.01427544378611452	-0.01343149904770019	0.002410085613413537	0.004927046097370811	-0.03661501157525589	-0.002331111981839617	-0.0223626901579648	0.01184230731246453	0.000507090434159643	0.01219727068371418	-0.01977323493537507	-0.0204293988560378	-0.0100258954910059	-0.06660132618346555	-0.004744534670653331	-0.001563626605972868	-0.0008420846564190334	-0.02720798019324644	-0.03916163353214349	-0.02702754322619247	-0.01957935581450891	-0.006508005845941547	0.009621738097061121	-0.008725705301710879	-0.00274752536245054	-0.001557165803367413	-0.003173704220754061	0.004312289016078737	-0.06108586101654095	0.001175758650064737	-0.005559225451323886	-0.01550138231587172	-0.009952443616039449	0.01037013663106011	0.01193313065161584	-0.0336853055809756	0.003835906738551692	-0.00445817181440462	0.003581923243995673	-0.0270237691124698	-0.01972781510707636	-0.005001784190590075	-0.00406920727433792	-0.01157026448382271	-0.01430654610588048	-0.009145951820369459	-0.008674235685505419	-0.002654335880244601	0.3022064453173726	-0.09245979996000038	-0.05042658341182055	0.03157055917454736	-0.001098043948568131	0.01820461291512985	-0.0283165948551005	-0.002914868376804337	-0.02350413010534388	0.005978942431966289	0.02324888692734899	-0.02577124428167599	-0.0219168790659508	-0.02375413297354597	-0.02095287489551494	-0.02423069546637805	0.0003961341834420375	-0.05645043829076127	-0.02745098843382899	-0.04145843463129981	-0.01776533500280885	-0.01850934920005171	0.01696207171692767	-0.02029980875156952	-0.02693825774435133	-0.1017448010721506	-0.03392368566690544	-0.01445691243742239	-0.01078729889420381	0.003653823316641447	0.00117499963144984	-0.0380571033568376	-0.001105278071155704	0.01502262926273011	0.02800231631748362	0.01918796238919746	0.01107218094244067	0.01796537237192462	-0.01727334852263289	0.1428934524419258	0.05616969635343392	0.01779835730445559	0.01424308060018388	-0.03300982374429159	-0.007441120774141067	0.01742601397905525	-0.04153987043642816	0.03588636046876837	0.03029884115265581	0.02935061993078947	-0.07623699251026399	0.03649019849650533	0.01308796272493725	-0.001242065727683823	0.005918883772373146	-0.008918344711972795	0.003855911531810284	0.0100675918925902	-0.01583989693587937	0.006524227643656508	0.007040347353474619	0.03942568529353276	0.02063834907369316	0.01371582051602552	0.01416141510400698	-0.009756839562985918	-0.008927708403445435	0.009797569946802658	0.005486628570638992	0.01012107282139898
0.01935791868617875	-0.01543001189922938	0.007022967683400935	0.01622390537937178	0.003051467067772104	-0.004339976775599522	0.002737294697492175	-0.01741863084674009	-0.04035871827097848	-0.007742116207786374	-0.01347002260716154	-0.01903494423688962	0.001607634456607145	0.007925795309302057	-0.03673082451474609	-0.0007222275162020269	-0.01533024382673075	0.00381693466473882	-0.01471527615893617	-0.02096518159297064	0.04354585663156123	-0.01293338776886004	-0.02064778162016365	-0.01192630137617477	-0.01355093851708068	0.002605306902936539	-0.01121545615683268	-0.008147900460626576	-0.01223194141768476	-0.02265530857554968	-0.01857474201774682	-0.0008123967874329307	-0.009907712292882995	-0.01862257098870894	0.003797092954238456	0.01012276991549358	-0.001697554867289702	-0.02313536585448472	-0.003119699434621765	-0.008090362687615319	-0.009027045763498958	-0.01094688259327363	-0.02062143764282892	-0.0106264356240686	-0.02267793907685065	-0.02093848847070357	-0.01292298335108029	-0.02390409453130343	-0.01678550778776974	-0.01231527393308789	-0.01926827788838522	-0.02311352315312544	-0.001864865043076071	-0.03165602810052415	-0.008920463442478623	-0.008881526800356643	0.03695514214697519	0.0008033607537491323	-0.005269501295117127	0.0007069267912965288	-0.03107244439059221	0.01598269677417413	0.006379907834900182	0.002911952585752331	-0.01577431131752732	-0.01380539705319384	-0.01282704173500655	0.002521305828893997	-0.001939709045510262	0.01414064128698922	-0.001628708081609577	-0.01668666487288167	-0.01217610664400536	-0.01409535642985929	-0.01679317315900311	-0.002352709622118275	0.01282561794758101	0.01778180708491059	0.0006755364964005069	-0.01125068675174554	0.008497358221667478	-0.00184900810393729	0.00147884519483615	-0.003172787582321109	-0.003260045972839524	0.006657321419413069	0.007550285101847564	-0.001512160021205258	-0.007282887525328123	-0.01275339980774328	-0.007787160684946901	-0.02309824653003765	-0.01904521589234917	-0.0005414812297299074	-0.007471081289495363	0.01797446924610966	0.03370662676848879	0.003632773412654441	-0.1483269409030588	0.003587229070707176	0.001727498598190775	0.2914252723725996	0.1674456142569416	-0.006847013691096047	-0.0356576194400897	0.004491419169634031	-0.0004464901291887042	0.001725144975562822	-0.01103187530191524	-0.03685431438361501	0.1530625046753724	-0.07408941678383668	-0.02208545547277706	0.05782940145279116	-0.001747962511490406	0.014491079342802	-0.02108218074328571	0.02498196073866765	-0.009577315737931757	-0.001661443413786554
0.02262442055016375	-0.007120627239760913	-0.002237944714004801	-0.004850442202049996	-0.007483130868411618	-0.001967071826324977	-0.009042210669242507	0.01949299725338598	-0.007228858339144664	0.003199813483370348	-0.006126207648480878	0.0003677314507164162	-0.007895916763536062	0.004202292163414183	0.03681216418628553	-0.01163436510906316	0.01348006274200297	0.002586691787120642	0.0149713340309672	-0.006790753785973489	-0.008548812635777659	-0.007637146730408099	0.003568320501336477	0.01310655838213858	0.01535791295728322	0.001995384373521461	-0.0002369861004282098	-0.001728567094785608	-0.004702696228806791	-0.01348398359532987	-0.02203618337716764	-0.003056083052781694	0.005503705907711627	0.0008571769316709025	0.01195062809714282	0.03185957377538161	0.0004689100934381686	0.0297936452541607	-0.01273754621028429	0.0009088487395687851	-0.002236141084000345	-0.002082855980135987	-0.01203164695583385	0.006798727830912697	0.01217169432791871	0.01228724683753505	-0.000403498670271952	0.03519338611639922	0.4036707273224184	-0.01266009072097124	0.01666046276800223	0.01517617061620089	0.005925795326940452	0.003417834556691125	0.00290645594758388	0.01047587879967556	0.002388921145954713	0.02426968801167031	0.004744796252278902	-0.00693814038285814	-0.03095605151775085	-0.02647928784923485	-0.008238700545597326	-0.0004942971213018024	-0.001595584024448682	0.001485714281479839	-0.00932770655563901	-0.007987880361315735	-0.01788533970610413	0.008384496430913354	-0.005620070048871573	0.005361577782619641	0.01968487883533754	-0.005712168955992949	-0.0006796194443668463	0.005912690470238628	0.00142060200471828	0.005755007523234912	-0.01200319730263702	0.008692904049650788	-0.01819863326836068	-0.003067047856060689	0.006279314898800891	-0.01402732654674309	-0.02125818284125566	-0.01378062330436144	-0.002472220307034	0.01071252299837681	-0.01789050508484154	0.01078807387577919	-0.01101905596132202	0.0005601366427611303	-0.008906619521198166	0.01698574389633625	-0.01457413240938848	-0.002966798916233568	-0.006415555780549594	-0.008952105255515598	-0.02531591970351086	-0.01707852910260943	-0.008792723698841638	0.01082207539415693	0.00617743193903174	-0.002319639457686769	-0.003977939750810984	-0.002219979111053097	0.04010764566394937	6.089884929297482e-05	0.0003065432861717401	-0.009622640585977801	0.00780589790371983	0.001304504124624183	-0.02859153623358243	-0.006368659373200438	-0.0232247619798806	0.00748009426442304	-0.02082335445571524	-0.02852235065064748	-0.002757194298640201	-0.01927614779472669
0.00295157005481044	-0.002085599064554601	-0.008494992698403278	-0.01596621205503473	-0.03217552935482637	-0.004495481636517439	-0.02356739245024573	0.03899719498745698	0.01420047285075464	-0.005504531420936774	-0.022262171274943	-0.0204234442111746	-0.0262999801438266	0.008923527790254621	-0.02897639643078186	-0.009568489788419513	-0.003947478764050807	-0.00792541064899111	0.01390665555934861	0.002897113358416383	0.001667303555305611	0.00165406070170533	0.009007691714321166	0.01570942106064666	0.01160250337278433	0.008215096422497729	-0.001867901937070908	0.01396633183288292	-0.01818908192562151	-0.01125948326966567	0.02566180782188424	-0.01806804709146924	0.007756113906433509	-0.01337206751829873	-0.009798882141594663	-0.01852512048761989	0.001790520353187055	-0.02157754854636494	-0.008323458518632167	-0.008155197182382109	-0.005626012220260638	-0.0006540219744841337	-0.001314382481200143	0.002404087550575021	0.02015306132928139	0.009032862792980554	0.00529836763940976	0.02188573336748014	0.0005869980503168515	0.004721565923866635	-0.008214192458747794	0.02694809780870272	0.009486087677263133	0.02340355740264857	0.01223166081497487	0.0281856437998423	0.05683819632597163	0.009455277051564872	0.02593955380078797	0.01652136951114805	0.01124189285546823	0.017945625021556	0.01639622088917043	0.02024945858363167	0.01305231909305619	-0.02325337295350038	-0.01964143708826298	-0.007430730754351293	-0.0002235859333515535	0.01024727705668732	0.001313681236377185	-0.001196131685176347	0.01906504084239867	0.008017139409680412	0.01291340498126245	-0.00777925912512718	0.00942723869710149	-0.008365542390932377	0.01135542192170438	-0.01942411734731359	-0.01853186770403651	0.001957339469387814	0.03126269351917406	0.3822490009465465	-0.02277864673434234	-0.009586427259552542	0.01814301610537004	-0.008829687867263484	-0.01572015442454254	0.01532304767086342	-0.008379070858927102	0.01211989006142603	0.001627407531106681	0.002804945357579322	0.006494514220508193	0.01979405349618422	0.0003925216041962524	0.01643567283806681	0.01650793431214668	0.004819747826861719	0.01119757817209653	0.005178234789827415	0.00820911025776476	-0.01118637735558144	0.01055578633660429	0.04229580483740295	0.001354245615070214	0.007434804866551508	-0.01862417737490184	-0.02434240842791259	0.008841511560189129	0.008607267238439509	-0.01747145501104973	-0.0188398729556544	-0.02993672721390726	0.00978651879901306	-0.02980090502815316	-0.02321300043657459	0.00243224487024574	-0.01377384827456095
-0.005582933556780661	-0.01316312382842913	0.01275864615833538	-0.004656797676224668	0.3881477724838968	-0.01409937004396117	0.02435059646908079	0.02176760347380453	-0.00490950490162387	0.0143135042359878	0.009769942222023436	-0.01647947077512532	-0.02240720491234241	0.03808961252096404	-0.003720791753446992	-0.004228929132080512	0.01295977666238176	0.01203084306451869	0.02144047378522891	0.000725843364938373	-0.001758412254319386	0.005870204404534814	0.003721265829771198	0.01908741598563395	0.02752777467454713	0.005163229077245352	-0.002065862918442446	0.007256693875872543	-0.009802802544358736	0.003734564876173071	0.006701189586613971	-0.008046611155106196	0.008861998850930848	-0.001662028955715798	-0.002657286173627145	-0.007520532228167912	-0.003874218616045937	-0.006911252879569822	-0.0127640096966685	-0.006939179982801783	-1.112509009744388e-05	-0.003943872499954188	0.006714209731662794	-0.001653909819964739	0.03720314404100545	0.0002909515194018332	-0.002773127011795282	0.008930932852422245	-0.001527714901057597	-0.00202914469626626	-0.007544206159950803	0.02309015312309197	0.02570868300051166	0.01281692501718453	0.005893419296651647	0.00985433374946885	-0.003482420326307613	-0.01009480397983918	0.02650936507589002	0.0002944443357033784	0.00148279016608117	0.007902188265980934	-0.003585054955304376	-0.0171909232949033	-0.004320210095626469	-0.008631155854210096	-0.006537231783244576	-0.003303983672885721	-0.009006211493000255	0.004030934300281817	-0.01459811158690029	-0.005381961535907972	0.01840212150757136	0.004361521636900603	0.01494287612842418	-0.009419712197568514	0.002053573557450081	0.01002971375266293	0.000450693482395426	-0.01868924622088358	-0.01319202154556711	-0.01015112138298367	-0.01969920549852857	0.007184142259384177	-0.01020208018874335	-0.004329544787205677	0.0006736994400982101	0.00210649523420083	0.0001649132060784879	0.009373596669945075	-0.002709975230173152	-0.006833727653062388	-0.0005799144466059464	-0.02360807914333127	-0.008700572230149733	0.01170823105408718	-0.01451199521998664	0.0245960634224873	0.01271332161840315	0.0003349416104119834	0.00479981647090386	0.008250503285470907	0.0004219746782723527	-0.01253380927877897	-0.008023022742654987	-0.002709660911810347	-0.009474247616922725	-0.000975684516174507	-0.004690811984694989	-0.0109745343231318	0.005838222325150925	0.008044446267373858	-0.02905290308159017	-0.008822935384018545	-0.009172080879618355	-0.01155777227219465	-0.008532732646124148	0.000724608169438973	0.02077725974426807	-0.009178018188112197
-0.006444883262050134	-0.0002669574541746974	-0.00930451561633769	-0.02653582863389347	-0.00603590941246351	-0.01219804376456104	0.01220298256892966	0.02278987557703814	0.01387180618149879	0.02487212568362511	-0.006558650591778774	0.3755132796939198	-0.01327454534130549	0.02709147659403232	-0.03202200719999855	0.003658169025085626	0.02535207821201585	-0.00543975272076067	0.01712386660936737	0.008526733917139762	-0.002269609930914571	-0.004211176188026119	0.02240220176356379	0.01237339892212566	0.01651547226567745	-0.01104954894033827	-0.01315137617920385	0.02278603183716399	0.000749084860416575	0.01172806182647126	-0.01037304196604217	0.009245155572582044	0.01740306174282333	0.004648469762819825	-0.0142223638140266	-0.00263187105432502	0.0007567437697183768	0.000733479303977871	0.000211599879527732	-0.0002262982893402486	0.002346695173584407	0.01585671296003832	-0.004312291459286424	0.006797713136939741	0.01629180647023188	-0.003084000403800212	-0.003405116415859874	-0.006667420617033837	-0.005785998654153915	0.01037923257633815	-0.01674483540357781	0.001305485880989822	0.01361107595451729	-0.009079843685737544	0.002041751855549395	-0.003866828745075376	0.009682021875725717	-0.009101504965919084	0.004749918411903826	0.0144547831435799	0.01905342521982606	9.017968019673534e-05	0.004368723318053471	-0.00721893145398767	-0.008261634188157558	-0.006554733721976934	-0.007054920834203739	0.003416189967608538	0.01069517320883659	0.0005964511063996674	-0.008140943190160864	-0.003394720300701663	0.003351234359687655	0.007634317469999991	0.01359444551231701	-0.002111017865948294	0.006103344079325616	0.006741394112689864	0.01445647105268307	-0.0001868873327159332	-0.01525831683189368	-0.008127708532230132	-0.01634489778958556	-0.002628153837706061	0.006248487179510901	-0.002113857314564945	0.003883255008713373	0.0002719551656625422	-0.01354032987729992	0.01681341183829117	0.01403714343991204	-0.001491570056733037	0.007217693417337877	0.01671151186551334	-0.0159481000857365	0.01018218679025682	0.006011116713033273	0.0254851762782844	-0.01427182608664497	-0.002604612070039326	0.01075295261904012	0.01200734053447595	0.006352631882636234	-0.01192214784678527	0.006061471120573756	-0.002176021507218639	0.008281703940671693	0.0006821028057472496	-0.01077876369848379	-0.01374907292381863	0.009717343047517779	-0.01155423675254343	-0.02264261546372161	-0.01478079840773463	-0.03108596916707478	-0.005456809791438828	-0.00378937498521812	0.0005810647895240122	-0.0002897022183067356	-0.01794909067617992
0.00354743532569298	-0.006322725481245143	0.0009251492545425542	0.00654126182330026	-0.006407473300026272	0.01034548542505307	-0.003011336217258209	0.01044166464407301	-0.01713185440927606	-0.007983828088455802	-0.02232699071088848	-0.01408582759167257	-0.01591799575248575	-0.002148180981932386	0.04337252331828767	-0.005018686651027318	-0.01287412830401798	-0.009373408049635211	0.02409376800627671	-0.005190304918867002	-0.01880015467330865	0.01328321792283969	-0.00455336717014753	0.02147004701785033	0.02937982006324165	0.0004971075113728152	-0.002270539066912887	0.007671095533914883	-0.003698813429483831	0.001598400280801409	-0.02068189547575012	-0.007256397793031433	0.007024444905973457	0.001204448799819034	-0.01293528559175045	0.0046605754626064	-0.02367838379864722	0.00840758675723253	-0.003128594945274143	0.003477173659177791	0.001150360449685797	-0.01846045144185993	-0.01659180887862101	0.001596252565801614	-0.01448222866543174	0.008148564749853376	0.004488607007964806	0.02807380341678018	-0.01181780095740076	0.3691950757134763	-0.01241237636970972	-0.008462292187776808	-0.01251310297008218	-0.01120384009231353	-7.749678278840089e-05	0.01943884795120347	0.003837225279234991	0.0474988253058569	0.005625423441080785	0.00102583290163831	0.02072135004336241	-0.005861243775830569	0.01168824060289628	-0.002312862717035618	6.992826885587815e-05	-0.01152522540710529	-0.009056980134780027	-0.01146930223691282	-0.01436735005923679	-0.01736050432099547	-0.002307773516278614	-0.003190905949599387	0.01565736181218163	-0.0002532629370851168	0.003255068357944086	-0.01614340321823727	0.005557475088486081	0.009473138978624103	-0.00840048939957483	0.0003823714935924515	-0.01148071624929639	0.006317651479064629	-0.0115681009357411	-0.01952965900288242	-0.02581630072122297	0.001963472130790815	0.005606898979650921	-0.01801143206755984	-0.01137570112002651	-0.002633614532989602	-0.006056075780299545	-0.009871951197063543	-0.001652234694429088	-0.0140108135729953	-0.001407491510678982	0.004412200501545735	-0.002439800821132603	0.000565730264671398	-0.01915100273225027	-0.01503473566822557	-0.00681916606502088	0.004292585747809796	-0.0007192151913336074	-0.01085950663611263	0.00354575966157495	0.01830209891906612	0.008656640837083776	-0.004522361280810006	0.001410205857957452	-0.004123189276447174	0.0001837826609429342	-0.008334265776651948	-0.02350651155961597	-0.002798246237978568	-0.02122049005734341	-0.004194628281321177	-0.007084068380657849	0.007727731397418832	-0.006195965928190764	-0.007455658088989101
-0.01154614777656226	-0.01781797372438812	0.007324226163717595	-0.02688158989167387	-0.01354256202704942	-0.01149270116018119	-0.00479139340516356	0.01771439540501742	0.007699541128559326	0.003013310568018907	-0.007219113146596632	-0.02048203571894636	-0.01584947080609793	0.009273365251507784	0.001459863417138459	0.3751249331089861	-0.00974484661392064	-0.005435104958121523	0.01484931939069722	0.002780118091309797	0.005303737873313823	0.001013538046471212	0.002161352018026344	0.0170871545278209	0.0167099162920209	-0.01892933256956357	-0.006575449599603386	0.01049458704046595	-0.002008751390767938	0.003669981750613247	-0.005610321982010501	0.00490610031413322	0.008284976847207165	0.008034655974509256	-0.004735343303557452	0.004057080303588622	-0.002402539641534527	-0.01257790647691874	0.0007586923241051333	0.001023488415509481	0.002999433208709843	0.003040952316451323	-0.00141472366892358	0.0008057702273391935	0.01649140607260355	0.005698273448549472	0.005161120095843813	0.006011741424453786	-0.003350556978100862	-0.00332757056509679	0.05196537776388471	-0.006543811325222935	0.01203383429317148	0.006621957993492512	0.007958955283535199	0.01490483461787411	0.001555166233700405	0.003819385331235444	0.01206758372211276	0.007482519440587251	0.009756432013822085	-0.01542078605896576	-0.009459372101801478	-0.006529312553980313	0.003759338151376045	-0.01758504806776796	-0.004179829949912833	-0.008396867896065764	-0.008568733918077217	0.0161498280160994	-0.006889988844172541	-0.01380275363649518	0.01522447438444852	0.000879337947161261	0.00966565701654039	-0.007639321902809376	0.002342095456579999	-0.01569128330771981	-0.01035267832465413	-0.005676344363045989	-0.01016390502336083	-0.02493530339073336	-0.0079490397011798	-0.009859071076728756	0.001359898589140265	-0.009615355115011253	0.00306835468186735	0.004244871855387071	-0.0008816672804910561	0.01310875780696992	0.007649500938429899	0.01202075377355806	0.004203398783550015	0.008874426888689061	-0.007445421847886107	0.003236880418952812	-0.009762017664680687	0.02028618988675599	0.004311496300891103	0.003785411062947484	0.003570679522407229	0.0101120507957842	0.006344443576383864	-0.001811694757630163	-0.003771337419965862	-0.008746169599782604	0.01829301119779211	0.01130694238823198	-0.001378648162510022	0.0002937897495831287	0.007213170915527868	0.001153800552827151	-0.01125064906952513	-0.003436572681917009	-0.01743224734478734	-0.01163855918553476	-0.0004968411797735922	-0.004107017934624977	0.004018281165447778	-0.006557729723665834
-0.005176438166228052	-0.005453086294348054	7.082987041989279e-05	-0.0002534693970102738	0.004799491742384939	0.0001172286104045296	-0.006920266910638957	0.005582585713327873	0.008731711880794538	-0.003432051323398425	-0.006748077468809253	-0.01209094336906721	0.0035093035793016	-0.0001336632170269875	-0.0001454143952167388	-0.0030668895688108	-0.003087695127833011	-0.004048591514280656	0.01190422374733343	0.00341515343978256	-0.007278973913750287	-0.004977120487827716	-0.01259850818419582	0.00451055719380962	0.011285133291012	0.001881104580569209	0.00122671488221059	-0.000800597904079208	-0.01013706106335323	-0.007556057811278684	-0.01482444434058617	-0.05183325840892048	-0.01625227363048528	-0.0256321754283177	0.002547095054344798	-0.002312047830556208	-0.006803364013793197	0.001106237534569804	-0.02590203142857641	-0.02326442307642505	-0.02953340358644928	0.3683923375972015	-0.05241155224605223	-0.01182316423310155	0.002184307379400474	-0.007323233070331492	-0.00451155825307848	-0.007538843857193305	-0.003426947490211314	0.007800452088908455	0.01650649460859204	-0.02330195301423867	-0.007484714399295517	-0.0225390791827445	-0.002832987896142186	0.002299588084860343	0.001095810940104063	0.00481189755863071	0.002426745507280717	-0.0107397651426951	0.005645454258169315	0.005620993615148979	-0.002443210845932511	-0.009545129256664876	-0.007170503556204988	0.01143405049715688	-0.001213365716624727	0.006254627484453722	-0.004076631246055674	-0.005667198425785553	-0.006879648661956592	-0.01618586246015807	-0.005646588832872076	0.001028659261418826	-0.007223340038877236	0.008663286636266551	-0.0002158146821348997	0.004250963472464366	-0.005137758216126758	-0.009556362952998849	-0.0006295776548257249	0.004352057976902218	-0.006381072158811368	0.004716265759801749	0.01613183772700042	-0.00233485520923064	-0.00823823874946659	-0.002011505947583784	0.01622959400045569	0.0008679379643758957	-0.001226321533382118	-0.008526369391791791	-0.01031320417106831	-0.007698532672692158	-0.006003691071875047	-0.00512200187233559	-0.01713193265201582	-0.008822491365411007	-0.04191359012598216	-0.01411986834446788	-0.01739532973525496	-0.007130051552070376	-0.0074642334015311	-0.004918665036070418	-0.001734553940706545	0.01083983105361707	0.0102261370929526	-0.002830096809661936	0.008498281734475577	0.005051975406666864	-0.008410806862865152	0.01885257208443719	0.00395861624565104	0.001664346842756201	-0.001836150514106956	-0.002485329710248865	-0.01037882102308042	0.007055142260235424	-0.004139384166399853	0.0002044043798597437
0.009476172011168488	0.008501758876232264	-0.002842168486589219	0.005975028485371603	0.00601421891285213	-0.004613894974929531	-0.01030502781550751	0.01120102280466815	0.002426431520447622	-0.0224547849000207	-0.01304489689202532	-0.004803447505823925	0.0009694762633899629	0.03268334171088731	0.006383585412820071	0.01246700487062736	0.009969822972688402	-0.004306455843085576	0.007548043771010845	-0.00772790082766785	-0.01161016649357631	-0.002381701630376593	0.007460620464339786	-0.001982036748100637	0.008557696613567475	-0.01339327287403013	-0.01110647550102756	0.01741219600020283	-0.0001410650261422889	-0.006902735152995018	-0.01344552087178457	0.002077303270747393	0.002530835975458552	-0.02828547791317588	-0.00788211954992795	-0.01820836164990819	0.00839714081494365	-0.002899860515061933	0.002232889274330385	0.004124530318659087	-0.0009145714842234037	0.001567997922882469	-0.009184775656146683	-0.001857180977959567	-0.008541248972557289	0.001047221192310618	-0.001248797830802111	0.005669867544391903	-0.008521848315829679	-0.001610710381206161	0.01697320534683467	-0.034913704251953	-0.01863780902620957	-0.02288117478044027	-0.001992868749516435	-0.006575624656455256	-0.07841685917528926	-0.002990312979140189	-0.0005264118313044117	0.006140453708024048	-0.008340126939831152	0.003337943209939466	-0.03605887691216249	-0.01462998571969122	-0.002242055811280042	-0.005323429852131973	-0.007987155894501953	0.003667776603317507	0.0218825964640071	-0.0070195512828856	-0.02034293665090195	0.3438727866541749	-0.06713125592058936	0.01581228418567186	0.0005960452997753298	-0.01253015183442412	0.01066743710536904	0.00849126970980069	0.009633066856987105	-0.006885009118357407	-0.00376868324639044	0.01448413243585099	0.00395224806101593	0.01548125533726912	0.004225882027974856	0.00622331748020626	-0.03149674073611416	0.004982265643277467	0.003929491677822585	0.002175439450198819	-0.01420523875345434	-0.01142973308136823	-0.00575071591043471	0.001718970608889389	-0.004504235243303695	-0.00835749547839963	0.007568446846228784	-0.006053529289406031	-0.02591545984561379	-0.01292537024616497	-0.0005988145470943051	0.0005787857481633981	0.003810115385574477	0.009121424848393301	0.01501966883952123	-0.00956429035920069	-0.01165727747492417	0.01415621931267045	0.001309628301039127	-0.0136435663267934	0.002476551889243781	-0.005175387402017218	-0.02468495539828786	-0.002053682901975311	-0.02673608989379456	-0.009424173227242623	-0.005910384629469136	-0.01786467066179674	-0.01061337371750132	-0.01935676839143366
-0.04327897536903485	-0.001648323060689141	0.002000113498457275	-0.01240779053184613	-0.002498330878220058	0.03813613577626234	0.01905298717394424	-0.004680964808093963	-0.01040844196098878	0.0185353714845784	0.002685269763730676	0.01108173616958672	-0.001414426191183445	-0.001485259663217978	-0.001719779716861104	0.004155040775256366	-0.0412208784549136	0.02200462616303208	0.01806618486059277	0.00359907349944341	-0.2219119851810263	0.002678991965245334	0.02252281601947562	-0.0074132902699576	0.006370745807152859	0.006652698216830966	0.01566473597277781	0.002061575699835267	0.007591123246680672	-0.02689515391068042	0.257616935504933	-0.003696231187778603	0.000835614373971998	0.001818609243719683	-0.002752342249970549	-0.0001547253846564337	-0.004062091923874102	0.005165919145605259	-0.005299991252626948	-0.004385925333974797	-0.005025398061297741	-0.01221294970571224	-0.05317126338658783	-0.02255469821358951	-0.009431658939248329	-0.006589943481006793	-0.003860483194935968	-0.005329295452714268	0.008862051851857903	-0.001040276005078292	0.01904998703923241	-0.01120349006027464	0.003411440223714633	0.02241581373131161	0.003643667966935168	0.01266025116369155	-0.01116863111315974	-0.006091109153740566	0.006379008311940872	0.001746962816826684	0.008339716988186072	-0.01499020764617456	0.007563206356484785	-0.004312578475664307	0.003205591814609589	0.007303839957510088	0.01541052116206386	0.003999602847298722	0.01302505772064936	0.01824840908359338	-0.0001306914477474827	0.001225446184133123	0.008158008624607489	0.001430372900799452	0.01884884923746028	-0.01265937304936247	0.02909857168584606	-0.0005222887885733787	-0.00770147666083836	-0.00500689475845205	-0.003734823106367273	-0.01356249709033744	0.004564183492960699	-0.006372386700474662	0.003278230629800663	-0.017366478901717	-0.01582883979296679	0.006949621047614867	0.02004705044257814	-0.02571158426674041	-0.01287377683769002	-0.03667470200592258	-0.01930535385995692	0.001139416647639883	0.001348466552127348	-0.007881520742445528	0.01327727396371136	-0.007716775670913074	-0.0355075276798322	-0.01508828681763884	-0.04250734180424437	0.02682621050582731	0.01234072992888442	-0.008375531125849099	0.0143788677215405	-0.00479634557523989	0.003013024724892777	-0.009343245688102471	0.009586343064912668	-0.01243206994604012	0.008897358710104036	0.01790749018756115	0.03073571958236238	-0.00492883855744637	0.01078632156066432	-0.008734326148450496	0.01070947879815821	0.003678179062197256	-0.009347772570756278	0.01109979514213758
0.02045071520885114	-0.0003814211538887173	-0.01713642405778184	0.002343789215831578	0.004218209651715243	0.002009427567348883	-0.003668273799279516	-0.01163734298848585	-0.0102261089882355	-0.00445369408097583	0.008768987617983661	0.004973171808590093	0.008385179029438495	-0.009297821650194913	-0.004334197503133666	-0.01627875513200874	-0.0061176976831452	-0.007540305931079929	-0.003148236379922465	-0.01183124282547028	0.005318926448601411	-0.004101757814030175	0.02398005993263758	0.004860862683870395	0.003263017279210981	-0.004841090009230615	0.006917379998420854	0.02104620347169663	0.002305488367005661	0.001677753306322829	-0.02696966307736773	0.002473838097399262	0.01105728456024856	-0.01115766626670203	0.003613765492977095	-0.01532860623771446	0.003306292833582216	-0.001825653530953605	0.005553773511703567	-0.002308356004306433	-0.001476146286361836	-0.002357668357729177	-0.001938063412750641	-0.01459232614168756	5.974997212486527e-05	-0.0001979287865302775	-0.005873046587604937	0.005678495784952243	-0.01048933585687107	0.0193919117182643	0.02708355110118383	-0.0119451472016148	-0.01337127651031798	-0.001631029308679962	-0.00586617369695122	0.007137858084749077	-0.03805856779877245	0.005744341773366642	-0.01643576181105246	-0.01057115883178676	-0.003351399886110747	0.001164172045890718	-0.02617928873570067	-0.001327130745656122	0.004751039242026593	0.004579476841928068	0.01711546745699445	-0.005254116162710419	-0.02051912388298717	0.3566873896173599	-0.01336220371955067	-0.01700994713307747	-0.02421889062980009	0.000741865104012395	0.01797845285034238	0.01211286935829409	0.007282696505105545	-0.002976687878591169	0.01483488480856705	0.001578331408295051	-0.007927467855102868	0.01084271699210984	0.01171155240850975	0.006562516308730646	0.01165596205736879	0.002236225946185478	-0.02293619154179409	0.004087181847680214	-0.0005068010455090968	0.008065666164902103	-0.005445914168986215	-0.0004464903861271801	-0.0001992332436021394	0.007851417712952459	-0.001364801360018452	-0.0003388141835080461	-0.009114883913729922	-0.008882942550478419	0.0009197775799068135	-0.009456372863839099	-0.02341638314099227	-0.007787855752331804	-0.006748410607819496	-0.002998315763863166	-0.01513578314383578	-0.01014930374279182	0.01338584932126763	0.01345151756688275	0.01335589428598929	0.00238998400813535	-0.005671145895923414	-0.006502680982206488	0.005892648366335294	-0.001115086368104224	0.006732855868026233	0.002934951934755944	-0.001283889484388612	-0.002289696097490349	0.006122335915066001	0.003879382718027663
-0.0008556688188950182	-0.01727503786273222	-0.004830444593834631	-0.02099740975790173	-0.008661102312872935	-0.009482461532335932	-0.008726520400590113	0.02894196875947107	0.01005290248784223	0.009847834709061766	-0.003469728723101188	-0.01516655363194745	0.3431545656316222	0.03301339774630298	0.001428913533669134	-0.01138851884317588	0.01177027126019544	0.006003737248381502	0.01980761839393292	0.001710267417498389	-0.0008264822486540228	0.0004050784416985415	0.01655366911339215	0.02260657320177147	0.02283448736910531	-0.004937322585546834	-0.003469815179721899	0.02149937885702187	-0.005843348903920149	0.006578492657416612	0.01279087778893663	0.0001389764282958153	0.009602105652526784	-0.0002055732630317119	-0.001351090544798299	0.003035272335123454	-0.01070839415273203	-0.01201940311067178	-0.003265345238229532	-0.002485881491596863	0.004923588574808624	0.002703902819678234	0.003536636802176329	0.007183805214096938	0.02392447179663921	0.001755691843901597	-0.0001760552584656687	0.007606162020249071	-0.009249082688170584	0.005031948853023631	0.01117180414865086	0.009944939601161547	0.008297671065825237	0.01330597778920944	0.01220154825611823	0.0155283702688137	0.003853346703259076	-0.006144783337701173	0.02054294732492497	-0.001000992936550788	0.01063596250418311	-0.001172191875111637	-0.003961902966919334	0.003704282544339774	-0.01440029129169596	-0.008223074602819366	-0.01200772898120983	-0.01217841176289064	-0.004802491951666823	-0.003034695604754507	-0.002988235164544431	0.0005162652896943794	0.01177543845464264	0.004102689666541518	0.01392502744423122	0.006264826514490873	0.01160772335713163	-0.0006952272693793377	0.0025457005811477	-0.002135713234570414	-0.01715130878301345	-0.01516376681228723	-0.003963443488221732	-0.01204974804938208	-0.01444230257284083	-0.005955543584820333	0.003273129776912789	0.01158787575759211	-0.005797988305792683	0.01819746560039581	0.008846095850165582	0.001711481842172238	0.008137893341934248	0.00572782561563039	-0.008071734218876438	0.01982275484939652	0.001076724024293301	0.0329504322786264	0.01878138280614324	0.005823250455080676	0.01581209491877788	0.01162848350206577	0.008139053918124466	-0.001034981593906514	-0.006107395065172814	0.01453024186471122	0.02063279427060963	-0.007696363834574954	-0.01235817951309644	-0.008874981016521889	0.01094002427860088	0.00141588984090313	-0.01689133477234669	-0.01119332363635155	-0.01861057823754657	-0.003137971789907369	-0.01003614531434341	-0.01533804365130769	0.006086119637919076	-0.01288883200826608
-0.01511686693461628	-0.01106574037640774	-0.02054889475838387	-0.007096796069871522	0.0001276577433970724	0.01518307241982524	0.004159924075951557	0.0134263113143135	0.003539158638905451	-0.001784998065790302	-0.01317253060229834	0.004087388552658748	0.0005554881695155136	0.005403651182311196	-0.008254051863719927	-0.004357795577065743	0.0008670341851418175	0.002916324176346964	-0.004166332793370218	0.000802149135085484	-0.006030054084837466	-0.01133359983411237	-0.0287011603569645	-0.004948406751574303	-0.01138238346267043	0.0003712660937246292	-0.001738791981597759	-0.02587394332966506	-0.009098294236853214	-0.006275202593070524	0.02303195387624497	-0.00138096720499436	0.004901447216768308	-0.008865128195059749	-0.006036439177956069	-0.0004659720816550742	0.001105596805517499	0.001183786590394602	-0.01114490156763329	-0.005271100696774574	0.001038933267074877	-0.006029818536279588	-0.006047064146354241	-0.005115587286175061	0.007668889437723417	-0.001625146750270083	0.001058283898624952	-0.007181142468976423	-0.0004523526527907833	-0.004289179577836677	-0.009432882889855075	0.0104069023130571	-0.009886937458877698	0.0132446124864591	0.001775142560288173	0.009881373974331822	-0.0009216850589956481	-0.003410748717833383	0.006019527410402726	-0.003517166532071559	0.01370435199219357	0.01120754661513633	-0.009642747353992646	0.005868820220735874	-0.004313380295165297	-0.00922350482758617	0.0007616353461443085	0.01046183127395794	-0.01419145284749597	0.007075975105636484	-0.003826177284186688	0.0004146300710174147	-0.001712580994770744	-0.003916290821798754	0.01531231242134898	-0.01775054344105419	-0.007324324970718394	0.01058866115135638	0.001184805530784886	0.002934195107137279	-0.00228143436625276	0.003215882008158175	0.002149142496787952	0.007850083894607373	0.001264382696718842	0.002171955985362666	-0.0002233114107769143	-0.001127486631981704	-0.005597273507830266	-0.001142953504720225	0.002120282427616324	0.002862626036233457	0.00456691403446957	0.001580304895822925	0.01085949162707807	-0.0003436011055031141	0.006078814929470912	0.009934224280901058	-0.00784006265295467	-0.002334856521782268	0.01309522561215563	-0.003667714135842144	-0.03106517075639559	0.01577223667859106	-0.002559413371698906	0.001839140012239614	0.01546632504884595	-0.007806656967504749	0.01080144153144928	0.2628976989981976	0.01923384432223956	0.0007146394948229982	-0.08337911547149691	0.1742318944994372	-0.06392594629965348	-0.01578306310976395	-0.002938716310337001	-0.004767499563245961	-0.005378224008976871	-0.03812934490540388
-0.01227587562211583	-0.006731976996833219	0.004040759568873789	-0.009867446154543255	0.003150478975213195	-0.0003549252366613479	0.00770067289846712	-0.004665033899970024	-0.007055523029353069	-0.002670591885457173	-0.005828153150474526	-0.008952862088096869	-0.001484284330597557	-0.004841347009707064	0.0009355801802130041	-0.004987484115285865	-0.009279581300963608	-0.005980909355133946	-0.00582013828880369	-0.005165107224903287	-0.006750662642249929	-0.003651606918085329	0.00589418484182399	-0.000707653838147428	-0.003496307798554342	-0.01050054000518682	0.00244582745881017	0.0002629912472354052	-0.005674599028683684	-0.007743923791824209	-0.02436053582148945	-0.006540281354881156	0.002946024885522674	0.003619878132119209	-0.001129639323590877	0.004921072740084628	-0.009392801967807032	-0.00254746142478828	0.003359421323655352	5.127265717182557e-05	0.0009159498735432064	0.001032369046902383	-0.006636627378249413	-0.009689569919499361	0.005697489757731565	-0.002778939653757987	0.002990114318047415	0.01935834802330896	-0.008683985607124143	-0.01294029731291164	-0.00524734300834116	0.008461493210794608	0.008135992896312628	-0.003350032469866294	0.004320416297592552	0.01147132208031691	0.04375535434280585	0.001807981221497385	-0.008211798892072585	-0.01367268762263765	-0.01186183994730273	0.00623200156531402	0.01044501746504943	0.01063630989116198	0.004790444578189335	0.003271900386767303	-0.01518314397846948	-0.00721901943709449	-0.01343314377432177	0.01860245103109562	0.003990664652588659	-0.001194305081118197	-0.002797861570692133	0.0005832934881734226	-0.002615195281692293	0.006906347806431557	0.001010464642750738	-0.01241156903441861	-0.003651946693824475	-0.005801861265964904	0.001678888204950576	-0.01563108126107197	-0.004818883440694166	-0.02448494613335573	-0.02152278839191437	-0.003590986376990546	0.008097508674218585	0.004949556073483988	0.01365676129047524	0.009648885790470546	-0.008461294055620948	0.007199035879185339	0.008083855396179125	0.01345327080002988	-0.007017909609660338	-0.016630422379413	-0.008753352580617199	0.0112533944999093	0.002915095773789834	-0.01185927906588815	-0.005930846035516223	-0.000355015113820035	0.02288893139211559	-0.01525682305999768	0.3230080885807134	0.01844878873735403	-0.002553191320543705	0.006743100603593802	0.003219500999256998	-0.007367032665232376	0.01845374963547009	-0.01764971201915119	-0.01289380086358901	0.01233726173213223	-0.008323893873782356	-0.01169725205338423	-0.01757465255529574	-0.005123811615786712	0.0003467729450825337	-0.007722939928499881
-0.01492690160856805	-0.005652951166401092	0.004472676527054047	0.004395338987839174	-0.0131424942155858	-0.006261548299996754	-0.006758112133908241	-0.00147369334600716	-0.02277337651985552	0.0002709128448208827	0.007738000099477214	0.003508848420281529	0.002341747629550734	0.009992447242291083	-0.01113945176832164	-0.000339718732630907	0.005029964079618954	-0.002496065589660404	0.009671531209356708	-0.006731778383856987	-0.008818620957802217	0.001947336022189473	-0.008857999181131398	0.004126704296286325	0.008132224388951538	-0.007208512310110213	0.01656244788429064	-0.003747555548979176	-0.00317218723966176	-0.005887924573543639	-0.02955018048672189	0.001597159163528701	-0.01767685097646409	-0.00185188842181951	-0.0282569689555373	-0.003261579407832394	-0.0009116316695847083	-0.007679204258134374	0.006046642868490668	0.003913966552992587	0.003881252308761584	-0.01032182067626086	0.002335950027006562	0.004863727338143651	0.00208070963168181	-0.01118862219468524	-0.004136059992102339	0.0007114864103005194	0.009280498645687545	3.78309612869783e-06	-0.04351283839419868	0.02391147006834642	0.009121866145285266	0.00888861040556471	-0.008376039510889433	-0.005325791691378643	0.003041877149118681	-0.01142533159955803	-0.003756451406710768	-0.01891327478335143	-0.02225586430305702	-0.009864821125264076	-0.006846855513996527	-0.01504794884691069	0.006017396778118304	0.003225249429452858	0.001304421043134959	-0.01461820146744228	-0.000102312849568218	0.003459834560817471	-0.01837436163176242	-0.01024761641962941	-0.001498997824849658	-0.002960266641233598	-0.005302169372520805	-0.1161240264096754	0.02992834883063252	-0.00774683533099408	0.003897765525801733	-0.01963051210637748	0.0123616588621806	0.00298883533269157	-0.002794672691636242	0.005224838269833212	-0.01420339191214334	-0.01075307768789365	-0.01416993034087184	0.001659078974921174	0.2920626433945688	0.03018767933761755	0.009830674957956261	0.01973979627595925	-0.008489777269015621	-0.01348856341506844	-0.008012781083088264	0.02170389257368357	0.0008134397722963891	0.0138511761229335	-0.01134869739696765	-0.009192467010113456	-0.004841823756041021	-0.011435514611445	-0.005118885997103907	0.01522646734984147	-0.01821820012624473	0.0008669004393497106	0.005632708202831333	-0.007944713816685224	0.01150552635613978	-0.007299397518296987	-0.002652320721812244	-0.01415596995759933	-0.01054778098200388	-0.00418966812394109	-0.01102311574063184	-0.005743953602056531	-0.0216292066774789	0.0030013667294011	-0.01088110083109824	-0.00835224916730103
