-0.30508	-0.19433	-0.16311	-0.10765	0.18333	0.25099	-0.042918	-0.059591	-0.26453	-0.16242	-0.16518	-0.011055	0.10009	0.173	0.18997	0.24141	0.22921	0.18593	0.078788	0.022414	-0.013067	-0.11326	-0.072368	0.21305	0.097246	-0.085898	-0.25866	-0.20671	-0.033732	-0.10562	-0.093102	-0.079829	0.023116	0.33327	0.34232	0.26483	0.28093	0.066956	-0.065162	-0.081938	0.022524	-0.1511	-0.041627	0.062431	0.19522	0.29268	0.063252	-0.1478	-0.31871	0.072235	0.1376	0.17406	0.089818	-0.087645	-0.22521	-0.054517	0.01653	-0.13391	-0.20186	-0.013872	0.22513	0.19611	0.1714	0.12128	0.26311	0.10678	-0.17508	-0.23078	-0.063608	-0.12982	-0.042356	-0.17822	-0.065455	-0.032054	0.070556	0.14352	0.28862	0.1966	0.092592	-0.070926	0.0082516	0.10163	0.1028	0.21607	0.26393	0.41164	0.47885	0.18991	0.055452	-0.10825	-0.11625	-0.11178	-0.087685	0.086382	0.33301	-0.070629	-0.14853	-0.096874
-0.2955	-0.078131	0.047021	0.41407	0.91809	-0.12713	0.31859	0.26309	-0.199	-0.17787	-0.058582	0.13648	0.2931	0.10904	0.052351	-0.078503	0.0016725	-0.044033	0.278	0.32087	0.11866	0.12957	0.11891	-0.14465	-0.082317	-0.11012	-0.053061	0.080823	-0.035805	-0.0082769	-0.015684	-0.019947	-0.041283	-0.044574	-0.032123	-0.047708	-0.023141	-0.069643	-0.060821	-0.11258	-0.13121	-0.14737	-0.073087	-0.045798	-0.054785	-0.071475	-0.08631	-0.12444	-0.1119	-0.024409	-0.066297	-0.079694	-0.056584	-0.094424	-0.12934	-0.1987	-0.24323	-0.20945	-0.05011	-0.062017	-0.045445	-0.038341	-0.011248	-0.062616	-0.096053	-0.088988	-0.095209	-0.11773	-0.14214	-0.14108	-0.069506	-0.036313	-0.097052	-0.080234	-0.072571	-0.037591	-0.039216	-0.038064	-0.081791	-0.058436	-0.099435	-0.058277	-0.02678	-0.072864	-0.058754	-0.11451	-0.12725	-0.038446	-0.058651	-0.069447	7.0634e-05	-0.0054602	-0.025075	-0.088011	-0.16441	0.14133	0.14332	0.45623
-0.11741	-0.014949	-0.12777	-0.17018	-0.19442	-0.018018	-0.37703	-0.22124	-0.13337	-0.028263	-0.013507	0.02125	-0.15167	0.047572	0.0096747	0.0012937	0.019963	0.10429	0.32193	0.33483	0.25533	0.51443	0.43671	0.099614	0.058321	0.12705	0.20242	0.2058	0.10005	0.035043	0.051489	0.026705	0.025846	-0.0052433	-0.025533	-0.021842	-0.00040446	-0.0084758	0.031818	0.0094405	-0.025933	0.019081	-0.016868	-0.052943	-0.024672	0.0059978	-0.030532	-0.041455	-0.062395	0.0055722	-0.032586	-0.052742	-0.026258	-0.062339	-0.012279	-0.053811	-0.065078	-0.063837	-0.041581	-0.066214	-0.046	-0.030981	-0.020124	0.0076343	-0.032264	-0.026801	-0.057573	-0.078895	-0.084009	-0.10302	-0.033612	-0.053646	-0.015119	-0.02374	0.0041573	0.015426	-0.006015	-0.030853	-0.04135	-0.031328	-0.03176	-0.037267	-0.049852	-0.028888	-0.056013	0.0092255	0.0055265	-0.012644	-0.00898	-0.0028769	-0.018054	0.017778	0.0020226	-0.013528	0.0053023	-0.014947	-0.078624	-0.058357
0.015378	-0.011639	-0.0016737	0.0091821	-0.10962	0.085769	-0.0050475	-0.0019009	-0.023165	-0.044644	-0.033392	-0.028872	-0.024079	-0.0016449	-0.023706	-0.04769	-0.03602	-0.023492	-0.032436	0.026837	-0.015917	0.012858	-0.0067803	-0.2342	-0.073209	-0.027076	0.019881	0.056937	0.016013	-0.011513	0.032126	0.067083	0.10177	0.056049	0.023024	0.10859	0.65749	0.1146	0.070226	0.10374	-0.080986	-0.038119	0.087682	0.15826	0.10007	-0.0064786	0.076666	0.036379	0.038951	0.010329	-0.018842	-0.049782	0.014892	-0.030947	-0.027425	-0.0098986	-0.010758	0.044477	0.078834	0.062953	0.059002	-0.028968	-0.039169	0.035976	0.010725	-0.013346	-0.032039	-0.035226	0.020654	-0.078409	-0.035972	0.02399	-0.03369	0.006436	-0.021059	-0.023814	0.073672	-0.0043158	0.0095678	-0.048784	-0.0080397	-0.068556	-0.035505	0.010616	-0.044192	-0.097764	-0.18134	-0.01999	-0.016946	-0.082382	-0.012333	0.058719	-0.061595	-0.028206	-0.06169	-0.0093608	0.035264	0.11181
0.041774	0.028353	-0.0072227	0.046578	0.020904	-0.0089742	-0.0432	-0.011668	0.0020192	-0.023398	-0.0042558	-0.013738	0.00031044	-0.052683	-0.017349	-0.019678	-0.01773	0.034617	0.034586	-0.0069455	-0.0083176	0.044998	-0.008938	-0.044438	-0.015902	-0.02475	0.013896	0.016413	0.01576	0.00043236	-0.018383	-0.026078	-0.030652	-0.03676	-0.040471	-0.0071947	-0.033492	-0.023181	-0.018394	-0.0071345	-0.004085	0.035838	0.015467	-0.017266	-0.012234	-0.0346	0.014598	-0.0062177	-0.063173	0.011491	0.06789	0.067714	0.60626	-0.078156	-0.021388	-0.010313	-0.0015308	0.004791	0.010096	0.098555	0.12935	0.075212	0.014721	-0.054975	0.027997	-0.053038	-0.0089972	0.020083	0.0085415	0.0022327	0.02337	-0.0080561	0.0016076	0.0045671	-0.02617	-0.046103	-0.016854	-0.0037681	0.0064162	0.021881	0.0064238	-0.03783	-0.016058	-0.010562	0.021164	-0.028128	-0.032349	-0.011363	0.0026188	-0.0045448	-0.010198	-0.023373	-0.0084024	-0.041398	-0.010898	-0.012473	-0.020502	-0.010274
0.02675	-0.0077074	-0.0026163	-0.0041318	0.037204	-0.0018025	-0.024879	-0.0083507	0.0073152	-0.0071581	-0.019404	-0.017965	0.0156	-0.019751	-0.0080698	-0.033449	-0.001896	-0.037156	-0.005524	0.0094814	-0.021394	0.064175	0.01486	-0.030513	-0.0092797	-0.0069775	0.034865	0.041561	-0.016542	-0.0053502	-0.021788	0.0031322	-0.038419	-0.023652	-0.0053535	-0.0074342	-0.014653	-0.051653	-0.03905	-0.0039803	-0.01785	-0.027713	-0.014982	-0.018379	-0.013201	-0.019615	0.0068075	-0.006592	0.026946	-0.020068	0.0081956	-0.0079297	-0.025853	0.0010298	0.014755	0.0094787	0.010829	0.070916	-0.042714	0.076722	0.093994	0.063489	-0.0021788	-0.046505	0.13181	0.60235	0.0028646	-0.037144	0.0062382	0.0042672	-0.0075353	-0.0072017	0.012663	-0.0056229	0.030145	-0.011343	-0.029634	0.010373	0.01784	0.0068821	-0.024715	0.019906	0.038607	-0.022567	0.0067602	-0.032058	-0.049344	-0.038825	-0.070587	0.0012283	-0.023387	-0.03287	-0.036785	-0.060275	-0.012622	-0.015483	-0.0082677	0.033494
-0.030585	-0.018435	0.006719	-0.00061625	0.05566	0.023993	-0.055157	-0.0668	0.022076	-0.033663	-0.0026975	-0.011648	0.018402	-0.0086337	-0.0027266	-0.010195	-0.053696	0.0018172	-0.014974	0.013075	-0.0148	0.0055693	-0.021424	-0.012034	-0.023953	-0.019222	-0.029688	-0.018662	-0.0078369	-0.0059125	-0.035084	-0.023381	-0.020529	0.00033121	-0.0038093	0.0059072	0.0090794	0.0028076	-0.03714	-0.016065	-0.0032055	0.018078	0.0031255	0.016182	0.002697	-0.015628	0.00060924	0.0076201	-0.011704	-0.022649	-0.038249	-0.039447	-0.0022472	-0.01938	0.012438	0.0035767	-0.020897	0.022616	-0.042371	-0.029064	0.0033368	0.020355	-0.031061	-0.064223	-0.011507	-0.06032	-0.0015941	-0.010297	0.0021987	0.006476	-0.053458	0.0028298	0.17939	0.1405	0.56286	-0.025135	-0.039336	0.018076	0.042152	-0.028573	-0.043791	-0.061627	0.0052839	0.0068116	0.010785	-0.0090897	-0.032066	-0.010036	0.021761	0.036301	-0.069394	0.018369	-0.015027	-0.016535	-0.043071	-0.011251	-0.00098521	-0.007639
-0.038131	-0.033865	0.051166	0.030714	0.075068	0.034494	-0.018555	-0.0054529	0.56537	0.070542	0.0097552	0.023943	0.042935	-0.009666	0.014275	-0.0024423	0.015853	0.065861	0.0016736	0.038792	0.018104	0.044741	0.04563	0.03769	0.026519	0.02248	0.0084776	0.015131	-0.012354	-0.025462	-0.015075	0.00098223	0.0079788	0.019052	-0.0068279	0.002687	0.05656	-0.0094004	-0.019313	0.026158	0.015007	0.009819	-0.019526	-0.023934	-0.013667	0.0078702	-0.0041898	-0.041477	-0.045062	0.01655	0.023198	0.0070711	-0.011307	-0.023928	-0.070598	-0.0039294	0.0058831	0.084588	-0.039124	0.013717	-0.0037875	0.03978	-0.023452	0.077162	-0.009805	-0.023948	-0.0072887	-0.038678	0.018634	-0.029147	0.004186	-0.062085	-0.0092423	-0.01424	-0.017945	0.046048	0.00022219	0.00064828	-0.013303	0.014278	-0.012829	-0.014803	-0.050739	0.035617	-0.014065	0.0060962	0.049762	-0.038084	-0.061197	-0.01998	-0.018207	0.023604	-0.024353	-0.035874	0.020267	-0.00026028	0.0022357	0.0016679
-0.0070108	0.03991	0.043853	0.040873	-0.14136	-0.05558	-0.10422	-0.10936	0.022787	-0.028154	-0.010057	-0.032175	-0.098717	-0.063376	-0.0054092	0.015946	0.019974	0.04236	-0.032987	-0.044264	-0.047345	-0.068343	0.012132	0.045155	0.049529	0.042137	-0.0082684	-0.020839	-0.022448	-0.029948	-0.017474	-0.020735	-0.013631	0.025107	0.042712	0.0013304	-0.030029	-0.0091281	-0.031373	-0.033559	0.012048	-0.061746	-0.026834	-0.039297	-0.021275	0.0010408	-0.0066642	-0.029067	-0.027425	0.005007	0.013779	0.018681	0.0056287	-0.022196	-0.017669	-0.029274	0.0020391	-0.076969	-0.025427	0.013352	0.012392	-0.025737	-0.0099674	0.0016102	0.016955	0.015439	-0.026179	0.0060539	0.019684	0.0065996	-0.010865	-0.049177	0.015542	0.0058592	0.013914	-0.00051491	-0.0017718	0.03426	0.0091128	-0.019242	0.020753	0.0032073	-0.045976	-0.011318	-0.0031539	-0.034882	0.03118	0.0025203	0.051962	-0.039918	0.026912	0.043799	0.098817	0.049727	0.035072	0.12375	0.080396	0.4486
0.46065	-0.011905	0.01873	-0.0048524	0.12056	0.0070034	0.0088968	-0.0058028	-0.041731	0.043102	0.0037863	-0.019994	-0.0012791	0.039467	0.011256	0.0036899	0.038394	0.0043961	0.019994	0.018227	0.022345	0.045433	0.016508	0.047467	0.071751	0.038176	0.024185	-0.029605	-0.015859	-0.035386	-0.038437	-0.031063	0.0049796	0.0069325	-0.024398	0.0042738	0.042761	0.012839	0.00044592	0.010234	-0.030824	0.02471	-0.010075	0.017021	-0.025475	0.019094	0.052538	-0.0098833	-0.054974	0.018951	-0.015724	-0.043257	-0.0012987	-0.028617	-0.0099373	0.021938	-0.025883	-0.036733	-0.025403	-0.015596	-0.013606	-0.014069	-0.012967	0.074846	-0.033104	0.0070047	0.0079172	-0.0038972	-0.0047337	-0.015728	0.0044798	-0.0016251	0.0033321	0.0050347	0.024302	0.05003	-0.0012753	0.0062169	0.011847	0.0039447	-0.046644	0.0052411	-0.011764	0.056326	0.0061953	-0.0014208	0.047227	-0.0015142	0.0071334	-0.024074	0.00056769	0.025461	0.020003	0.010331	0.017513	0.017285	-0.0073933	0.025611
-0.013741	-0.016412	0.0049642	0.0064331	0.016891	0.010883	-0.015673	-0.029186	0.0050145	0.017126	-0.00090044	0.0044724	-0.0166	0.018212	-0.0073714	-0.021095	-0.00015904	-0.029594	-0.00094937	0.03006	-0.026616	0.019727	0.022132	-0.064998	-0.029225	0.00062458	0.039974	-0.0090868	0.018793	-0.017937	0.032921	-0.012614	7.517e-05	-0.01894	-0.011087	-0.018565	-0.0009876	0.012312	-0.013755	-0.0032855	-0.0040113	-0.022812	-0.0042256	-0.03157	0.0013954	0.017105	0.030531	-0.0086579	0.0038437	-8.7412e-05	-0.0020879	-0.0070224	0.022096	0.0036445	-0.0017139	-0.0026653	0.0070848	0.032575	-0.013399	0.022728	-0.0078807	-0.026018	-0.030886	0.02794	0.013586	-0.044283	-0.010874	0.0041309	-0.00041986	0.015959	-0.0030671	0.019061	0.074846	0.055536	0.00070071	0.029451	-0.011219	0.031768	0.032261	0.0065455	-0.0090578	0.46059	0.0022682	0.067768	0.020842	-0.0091275	-0.054928	0.13436	-0.051577	-0.0054415	0.026833	-0.020454	-0.032041	-0.040665	-0.023055	-0.0050526	0.019221	0.024558
-0.052598	-0.037563	-0.01691	0.0020644	0.027438	-0.0045044	0.045927	-0.0045853	-0.0081014	-0.007023	-0.0078571	-0.0022674	0.043449	0.0052902	0.0028155	0.00028777	0.0070696	0.027859	-0.028943	-0.010493	-0.030417	-0.095306	-0.065059	0.0043709	0.058098	0.06665	0.43525	-0.013018	0.022462	-0.048809	0.067416	0.0052984	0.03706	0.004222	-0.025598	-0.0074205	-0.00459	-0.0073787	0.024977	0.025046	-0.010691	0.022604	0.0071489	0.020512	0.0097249	0.010023	0.045821	0.012622	0.0080027	0.012305	-0.0043011	0.020938	0.013711	-0.0051872	-0.036241	-0.02039	-0.0050634	-0.053169	0.016444	-0.0047257	0.0048376	-0.033172	0.0055503	0.0019837	-0.014064	0.0082959	-0.0089617	-0.038271	0.018201	-0.0034799	0.038768	-0.020832	-0.021767	-0.016676	0.049218	0.016673	0.0091845	-0.016732	-0.0018897	-0.0073337	-0.024491	-0.021203	0.023056	0.0071248	0.0045859	-0.0048919	0.045622	0.002781	-0.0066115	0.036399	-0.0048242	-0.043986	0.00047798	8.6831e-05	0.011013	-0.00887	-0.049723	0.022347
0.045112	-0.0014892	-0.0064339	-0.048716	-0.15893	0.0045332	-0.029312	-0.013287	0.0057154	-0.019973	0.027335	0.015121	0.3941	-0.016899	0.0093034	-0.0023297	0.014252	-0.024523	0.059944	0.031956	-0.0031587	-0.016832	0.0033888	-0.013777	-0.026878	-0.015648	-0.00084564	-0.011229	-0.010844	-0.004072	-0.0053508	-0.004223	-0.0078766	-0.0040653	-0.0010416	0.0045298	-0.002327	0.0058959	-0.013792	-0.028558	-0.020661	0.010725	-0.015542	0.0032381	-0.0010283	-0.015781	-0.01769	-0.036328	-0.027745	-0.0034651	-0.016668	0.00093525	-0.0081666	-0.026703	0.020091	-0.012202	-0.03229	-0.031193	-0.033191	-0.0097438	-0.014747	-0.0021076	0.020826	-0.018875	0.038439	-0.014595	0.034834	0.0072627	0.028915	0.021644	-0.011504	-0.013945	0.017329	0.0099585	-0.022331	0.012701	-0.011329	-0.012555	0.0062649	-0.01069	0.0032475	0.013423	-0.0071266	-0.019477	0.02319	-0.032152	0.0084101	0.0015797	0.0047595	-0.011676	-0.011675	-0.0012427	-0.0078464	-0.0027805	-0.02176	-0.012706	0.014014	0.02513
-0.0079106	0.00059679	0.022855	0.017123	-0.16767	0.017195	0.36505	-0.027956	-0.0022262	-0.023739	0.011957	0.045985	-0.039439	0.073481	0.013698	-0.0068226	0.011711	0.011262	0.035881	0.028107	-0.002503	0.09155	0.044654	0.0048743	-0.0072051	0.016693	-0.016753	0.014511	0.012763	-0.0053161	-0.0072132	-0.01648	-0.0033856	0.0033475	-0.010295	-0.011641	-0.015034	0.0069616	-0.016192	0.0084304	-0.023258	0.017149	-0.0045638	-0.024514	-0.020052	0.0070009	0.015427	0.00093966	-0.015657	0.0089215	0.0058254	-0.010843	0.025582	0.0054248	0.0018208	0.0053144	0.021173	0.0070617	-0.013356	0.0069236	0.023126	-0.011033	0.0039246	0.032495	0.0018464	0.0096833	-0.026191	0.0033301	0.025721	-0.012752	-0.019973	-0.0050758	0.017305	0.019255	0.043571	0.023701	-0.0168	0.020139	0.01092	0.00013502	-0.0034393	-0.010604	-0.025593	0.029907	-0.0022553	-0.008833	0.048964	-0.016976	-0.020165	0.01297	0.0031024	-0.018795	-0.0082365	-0.021121	0.0098122	-0.010267	-0.035394	0.043624
0.0075999	-0.0048898	0.0016539	0.00075628	-0.016196	0.0094818	0.0068365	-0.020607	0.030617	-0.0017098	0.0030862	-0.0014843	-0.0046794	-0.0098266	-0.0029585	-0.018685	-0.012163	-0.020896	0.01287	0.034796	0.0087819	0.018257	0.012328	-0.012051	-0.022129	0.00050152	0.0090398	0.0010636	0.00079952	-0.023531	0.0064813	-0.011713	-0.00010355	-0.0063052	0.0010372	-0.0086761	-0.015927	0.0067617	-0.024246	-0.0019499	0.039494	0.014616	-0.0020633	-0.012526	0.01234	0.012867	-0.0061547	-0.003271	-0.021545	0.0035972	0.015509	-0.014243	0.010279	0.023789	-0.0024184	0.005678	0.0072289	0.023608	0.0058497	-0.00317	-0.010112	-0.018749	-0.0047267	0.027002	-0.0069069	-0.020153	-0.020914	0.022976	0.015432	-0.023761	-0.0080345	0.010804	0.018436	0.0067705	-0.026176	0.031705	-0.0099705	0.035255	0.022762	-0.0015718	-0.014218	-0.067601	0.41078	0.043522	0.019793	0.0007485	-0.04853	0.064881	0.00051015	-0.043433	-0.0041095	0.0054849	-0.000135	0.01868	-0.011532	0.012004	0.044879	0.030954
0.001639	-0.0075743	-0.008316	0.01777	0.015282	-0.00042695	0.023113	-0.0027322	-0.023582	0.0074749	-0.02211	-0.012088	0.045899	-0.015807	0.00013322	-0.021735	0.010926	-0.00039457	0.028721	0.0028543	-0.0034677	0.025778	-0.0021779	-0.0076743	0.0289	0.02938	-0.019042	0.010333	0.017102	-0.043855	0.0082479	0.026011	0.028077	-0.0045829	-0.018353	-0.005544	-0.0083243	0.012534	0.05043	0.062944	0.40436	-0.068643	0.022098	0.0076994	0.034399	0.0014542	0.022659	0.011616	0.014952	0.0046653	0.0098466	-0.023265	0.0091023	-0.012395	-0.0045519	0.051603	-0.0038785	-0.014314	0.0096959	0.010672	0.018124	-0.043572	0.0022683	0.015975	0.025403	0.00077544	0.029752	0.0074587	-0.043602	-0.0098432	0.0036239	0.0069757	-0.0037796	0.011555	0.015789	0.013986	0.0058441	0.013429	-0.00051918	-0.0066664	-0.015112	-0.0014418	-0.031767	-0.0016813	-0.013737	0.00077657	-0.0031263	-0.033255	-0.037569	-0.0029612	-0.0030674	0.01497	-0.01031	-0.016938	-0.0034913	-0.0065618	-0.0069132	0.021984
-0.014052	0.01174	-0.0026419	-0.018726	0.031355	0.015783	-0.007128	-0.011926	0.0074472	0.022317	0.013158	0.0087292	0.018125	0.011742	0.0039548	-0.009503	-0.0020562	-0.017328	0.0043197	0.0055916	-0.0030605	-0.01688	0.03105	-0.024546	0.030702	0.017928	-0.017588	-0.008782	0.0074847	-0.0080529	0.013719	0.00015603	0.11648	0.0070478	0.00014488	0.013009	-0.1193	0.38989	0.0095009	0.034728	-0.047382	-0.011831	0.019619	-0.025566	0.028545	-0.0039352	0.034901	-0.013141	-0.0067504	0.0040129	0.014893	0.0019622	0.02588	0.042587	0.018228	-0.0099131	0.018537	0.010991	0.0066228	0.0039816	0.0087529	0.0079068	0.0062332	0.011274	0.0049841	0.029764	0.0026665	-0.0058406	-0.020692	0.0064119	-0.036215	0.0089184	-0.025183	-0.018112	0.020011	0.013885	0.011232	-0.011333	-0.012113	-0.0038701	-0.008323	-0.013735	-0.010969	0.0018445	-0.01201	0.0018997	-0.032096	-0.022948	-0.014991	0.0023726	-0.0024721	-0.0042083	0.012825	0.0014597	0.01259	0.0061132	0.024633	0.016629
0.0060899	-0.0040603	-0.022394	-0.039419	0.0085542	-0.0042586	-0.0093863	0.010783	-0.012718	-0.022479	-0.02603	0.022364	0.038109	-0.023288	0.0075021	0.002341	0.018719	0.030836	0.0099977	0.021767	-0.026023	0.023819	0.00085914	0.01753	0.013923	-0.00018528	-0.014292	0.0028035	-0.014983	-0.042216	-0.038478	-0.044084	-0.010814	-0.0031094	-0.021195	-0.011175	-0.029734	-0.0064201	0.00026532	0.0018796	-0.019014	0.0079969	-0.015184	-0.024809	0.01168	0.0073783	-0.021241	0.0070691	0.011801	-0.0090562	-0.0044552	0.020921	-0.041181	-0.010099	-0.032256	0.009343	-0.0071839	0.074403	0.39266	0.06887	0.038178	0.04325	-0.010745	0.018458	-0.00080799	-0.013646	-0.034668	-0.034583	-0.025623	-0.011091	0.012135	0.0051267	0.044376	0.019962	0.0022499	0.013124	-0.0063305	0.0074913	0.012881	0.017703	-0.028655	0.002552	-0.0090788	0.010551	0.0034562	0.0047346	0.033902	-0.0055314	0.0054955	-0.0058996	-0.038638	-0.0077703	-0.0050986	-0.0097194	0.016352	-0.0010711	-0.015274	0.04009
-0.021377	0.008361	-0.0090412	0.0326	0.009822	0.0056033	-0.001569	-0.014698	-0.022741	-0.01156	-0.015014	0.028316	-0.032614	0.016278	0.0076585	-0.0047366	0.0078517	0.03095	0.019819	0.00048949	-0.0074406	0.0090215	0.013685	0.0041738	-0.0015297	0.011552	0.018836	-0.0071482	-0.022088	0.0035914	-0.020356	-0.0079921	-0.0049565	0.0020217	-0.0056461	-0.0057708	0.017477	0.0064289	-0.020097	-0.0048373	-0.028453	-0.0047292	-0.0085065	-0.0082082	-0.0026209	0.012614	-0.014604	0.011644	-0.018667	-0.00411	0.00036743	0.0036574	-0.019507	-0.0094168	-0.0068346	-0.006117	-0.0039509	0.04068	-0.0022494	0.038029	0.030829	0.013458	0.017699	0.012674	0.049248	-0.033709	0.386	-0.015319	-0.0048512	0.0050005	-0.0045159	0.01382	-0.028144	0.032011	0.0013372	0.017145	0.0026152	0.010526	-0.0095098	0.038564	-0.00085482	-0.0040014	0.020002	0.0089848	0.016912	-0.017843	0.015869	-0.0078876	-0.024825	-0.021355	-0.012844	0.00016015	-0.0037388	-0.0017761	0.0063477	0.0014228	-0.012065	0.021489
-0.016752	-0.0086316	-0.0015622	0.021859	0.03958	0.0027569	-0.021362	0.012327	-0.010378	0.023162	-0.01683	-0.017747	0.051567	0.032292	0.003234	-0.0066931	0.0011701	-0.0024124	0.027013	-0.031578	0.0051877	0.026228	0.0334	0.00092863	0.0053331	0.0035345	0.0061662	0.0074012	0.020845	-0.00085042	-0.006715	-0.024099	-0.020376	-0.0012634	0.0062378	-0.0023981	0.01554	-0.018236	-0.035839	-0.0010144	-0.020741	0.0011837	-0.0029075	-0.00053063	-0.01975	-0.010549	0.010613	-0.0044905	0.026711	0.0098762	-0.0037443	-0.013433	0.00082227	-0.0012234	0.021811	0.054009	0.37764	-0.066515	0.015969	-0.010867	0.0074902	-0.021486	0.015778	0.019421	0.0015505	-0.013975	0.0023862	-0.0040363	-0.029333	-0.0022361	-0.0018461	-0.0052148	0.00179	0.0061653	0.010928	0.013522	-0.0057673	-0.0058331	0.013716	0.019982	0.0038645	-0.017141	-0.0082019	0.010617	-0.0070384	-0.0034093	-0.024351	-0.0061067	-0.0056787	-0.021309	0.018662	-0.0036019	-0.011157	-0.003364	-0.0016925	0.0052637	-0.0039381	0.020405
-0.016399	-0.0076419	-0.0014361	-0.0096632	0.0076325	0.012091	-0.0020016	-0.0017157	-0.017898	-0.018782	-0.0026545	-0.0022269	-0.0018757	-0.025176	-0.0057762	0.0024561	0.0009016	0.046467	0.00587	-0.00051767	0.0055265	-0.0060118	0.0045623	-0.030659	-0.00436	-0.001011	0.0085354	-0.010877	0.010854	0.0016507	0.005354	-0.0090506	0.0027766	-0.0077638	-0.0068991	0.0047975	0.011482	0.0050418	-0.011335	0.021881	0.004207	0.011354	0.0071524	0.006748	0.01128	0.012883	-0.0048815	0.0034096	0.0090753	-0.0055743	-0.010038	-0.038623	-0.014681	-0.0024628	0.012877	-0.0032648	-0.023066	-0.035323	-0.021278	-0.005842	0.0050528	0.011004	-0.0041164	0.0086099	0.014991	-0.0052426	-0.040221	0.032384	0.024758	0.037531	-0.056526	-0.033044	0.025948	-0.010197	-0.010934	0.014814	0.0031336	0.023217	0.026307	0.37378	-0.032582	-0.012711	-0.011205	0.010702	0.0026706	-0.0067496	0.014341	-0.01088	-0.0070269	-0.016717	-0.037913	0.0059432	0.024609	-0.021872	-0.0070808	0.0021437	0.03556	-0.0041772
-0.027976	-0.014997	-0.0065033	-0.0035395	0.018845	-0.00034467	-0.0099961	-0.0049869	-0.0073169	-0.05926	-0.0029766	-0.018197	-0.0018003	0.009271	0.0032563	-0.0067076	0.011239	-0.016521	-0.0022061	-0.0019333	0.0087362	0.0050681	-0.0053794	0.015146	-0.013471	-0.012333	-0.044446	-0.023568	0.0068553	-0.035434	0.0087863	0.023843	0.030146	0.0050881	-0.00061979	-0.0025872	-0.024487	-0.016715	0.064971	0.061131	0.021383	0.36281	0.03917	0.035932	0.012243	0.0050383	0.012355	0.0027153	0.0020482	0.0035187	-0.0078177	0.01063	-0.010055	-0.023822	-0.029527	0.027032	0.0014735	-0.011783	-0.01294	0.0020006	0.0045904	-0.013866	0.011618	0.010888	-0.010347	0.02257	0.015276	-0.041655	-0.0081668	0.014487	-0.019053	-0.026107	-0.0073311	-0.0064442	-0.0067172	0.010366	0.0048564	0.00054371	-0.0074055	-0.016533	0.0073482	0.023811	-0.0086831	0.0037575	0.012264	0.0071775	-0.0095251	-0.0049749	-0.0089565	-0.001676	-0.003334	-0.00051069	-0.0066852	-0.011763	-0.0077294	0.0097054	0.033482	0.054972
0.0064662	0.0052465	-0.0094181	0.00013673	0.018874	0.023623	0.0035973	-8.1653e-05	-0.020146	0.028089	-0.038395	0.0044052	0.029209	0.0052008	-0.00057873	-0.017354	-0.0020649	0.0048878	-0.0078993	0.0021849	-0.0016744	-0.033495	-0.031934	0.024255	0.016411	0.031123	-0.011626	0.066131	0.025054	0.33321	0.070435	0.063213	0.038791	-0.0025195	-0.027583	-0.019994	-0.0044815	-0.023989	0.037143	0.056276	-0.0021517	0.0034697	-0.0025732	-0.026057	-0.0071661	0.0144	0.027459	-0.025263	-0.0052153	0.0018054	-0.0034958	0.022098	0.0024799	-0.024413	-0.014982	0.030431	0.0015157	0.042794	0.011996	0.0053502	0.0071694	0.037059	0.02782	0.017806	0.0070148	-0.0048701	-0.0067123	0.0094112	-0.012185	-0.0064273	-0.029289	-0.04291	0.022984	0.010222	0.013303	0.035762	0.0002192	-0.0044939	0.014694	-0.0077271	-0.028066	0.003726	0.020372	0.035175	-0.016191	-0.0088681	0.029277	-0.0017575	-0.0055474	-0.010846	0.0057893	0.0061973	0.0048565	-0.0039553	0.027501	0.0079348	-0.0032181	0.044132
