-0.09806381092846859	-0.1009039671942858	-0.1058513512449372	-0.1034055360059304	-0.09349463051124254	-0.07651980004813108	-0.108497309591545	-0.09911451656536932	-0.1066995381282627	-0.09404850510019078	-0.07068819394698989	-0.08659094546916871	-0.1231169611009672	-0.103007122377963	-0.1002750220957411	-0.1108220500231962	-0.0830469002622653	-0.09929690004782629	-0.1179642261711971	-0.1832454710325863	-0.1344819035069131	-0.11649082032366	-0.09977663761927891	-0.09052879469852164	-0.1163479784935253	-0.08788856179201533	-0.08594055974577128	-0.1405313502908573	-0.1583664915761492	-0.1801730296668879	-0.1642798442085937	-0.1568142709569602	-0.08738364262106765	-0.07190003219525917	-0.09926609965331958	-0.07047078877106305	-0.09634624272846638	-0.07656698988372261	-0.1218528210891803	-0.1605516237519038	-0.218375867901733	-0.3190476347494967	-0.447979913371098	-0.2005717878983355	-0.1222482415797693	-0.1103628399731574	-0.1286051793533412	-0.07310301171818069	-0.08735755548562889	-0.08602763671233075	-0.01385502399530907	0.06885342275513862	0.5320957550364009	0.3125469404269189	0.0538468999474108	-0.04348452402039127	-0.1046254504000265	0.87724150620511	0.3618211170340861	0.04758909102937268	-0.1263342094797555	-0.1597403293771067	-0.1302142397515505	-0.09723642572798137	-0.08572661295141623	-0.1393152662034254	-0.162046883812357	-0.1556215689138705	-0.05552806431318695	0.03124789015237413	0.3253889712389622	0.7582966202101381	0.5847903643679913	0.3205968610390752	0.04243814660881712	-0.1146721417814909	-0.1768872695370756	-0.1370595696795352	-0.1238548003330254	-0.1118252009810996	-0.1262629761025097	-0.1385985065618681	-0.1266805220238569	0.04517171225332944	0.1249834376746366	0.2474818782480056	0.8818755398127422	0.6074834040764648	0.006202808233976137	-0.05634847987406296	-0.06262365510062619	-0.1187019342795713	-0.1150299121293537	-0.1241509148636289	-0.181408291453823	-0.3564851081565439	-0.4026007677826833	-0.233900448560753	-0.1203507109582728	-0.095875384964154	-0.1011634308285078	-0.08302473844174652	-0.08591751623213208	-0.1056388849186989	-0.07247302990570917	-0.07460313905487043	-0.1313725818233576	-0.1492019195260869	-0.1302962344213721	-0.1190863601927489	-0.1064422571275865	-0.08045268473906388	-0.08741610383684778	-0.08241544833940254	-0.08133288413865683	-0.1019756703387141	-0.1148191017315874
-0.03594140222571312	0.002637704479581361	0.00053236320699725	-0.008595995741989743	-0.007683611582134784	0.08778332074761146	0.3311877841798095	0.4931063018352162	0.324934610013854	0.09764251065088531	-0.05373837932459379	-0.03620150726861484	-0.01268152710134063	-0.01339494003294808	-0.03693473604310867	-0.009007095424650427	0.02537872562429418	0.1432115532110254	0.4083189587835745	0.2891471796878075	0.1695810442628145	0.02883838426185191	0.00605491078354957	-0.03750430921022756	-0.07171634067250686	-0.003463097064647159	-0.05230747372184524	-0.1205078900955465	-0.2282907616273142	-0.3285618895345748	-0.2342176440994161	-0.09679335095021933	-0.0494518205389724	-0.02261840630246167	0.02359011342772738	0.0314451401429838	-0.01964932229013144	-0.0239962635225324	-0.08634364633538558	-0.1772864157953452	-0.2643159460624354	-0.5388760356282302	-0.3658205780544884	-0.1594804151592279	-0.08001214008751595	-0.03439587861431422	-0.02661784576751832	0.006235366276162783	0.01229965530416936	-0.001575485719030119	-0.05433190139937043	-0.06476523672981485	-0.1205077649825227	-0.008096386882150733	0.008070761400903544	-0.02096563351417205	0.006509443922170971	-0.01095721649284349	-0.009044705839350835	-0.05148461954844258	0.0507150496302034	-0.02610368589981482	-0.01931217479095426	-0.03867308355740286	0.0004011014306776828	-0.03853374604979134	0.04991010734510629	-0.03920309402225025	-0.01090293289334191	-0.01809234571869883	0.01173790108299991	-0.04494791740644392	-0.02510304334141978	0.003665335234098939	-0.02888318196788042	-0.001644656952434069	-0.004818787353815517	-0.01156714276703679	-0.01103030367423078	-0.0102762320441039	0.01624382101912863	0.02092554268133937	-0.004671426478727938	-0.01603089039294638	0.009178698567511029	-0.003664620019549525	-0.01741476113986629	-0.1065023220022575	-0.04651173298109282	-0.01817845161463037	-0.01119687022093872	-0.0135644572883465	-0.01611099771409883	-0.0206332635762884	-0.06434080046496275	-0.175770442192042	-0.258377943220669	-0.1082826744061207	-0.02277481479397237	0.0158026661262975	0.01579196853167172	0.007390464695032916	0.0009289083705158677	0.01813315747180848	0.02362210841611069	0.06934855866127941	0.05052024530947744	0.07761208545278854	0.6249628830983646	0.5665843088220663	0.3095291936970513	0.04324954408467876	0.02597638431858596	0.05575443143508226	-0.00833984786629228	0.4721331651285341	0.7838266693389351
0.3037805045641067	0.8477722356459955	0.2821228372113073	0.2512935367089379	0.006267526025643124	0.02171330354682292	-0.04639453585742483	-0.03344930668404214	0.03041272368077781	0.1845275500380834	0.1914895479964755	0.2221777317361464	0.5037933746091563	0.3789500751859963	0.1653188742365611	0.04952490303338369	0.02950403366936282	0.02126919703691173	-0.0647861009778976	-0.1356479164949819	-0.02002268490869902	-0.05136891597158029	-0.07037933797366647	-0.01614372094868719	-0.02785655345729388	0.003673269704011602	0.1186887689237406	-0.03421393571930739	-0.04367497475622538	-0.07304907027764598	-0.02495769615748146	-0.05226838486035015	0.02260924042684291	0.04449119880772163	-0.02701530203923657	0.02354751839791414	-0.0004545814188128912	-0.0127608801490764	-0.05364404599055859	-0.05899571095069202	-0.08390565971191874	-0.2032009886247479	-0.1141683133765846	-0.05928282765637077	-0.06897914482185176	-0.08020538250828062	-0.02375771598733347	-0.03072738536076317	-0.04647361767240847	-0.109228967714241	-0.08106166973922729	-0.06753901779324221	-0.06936508836661912	-0.06321472061186775	-0.05018469462186986	-0.05215412934755857	-0.0653844820966423	-0.05581388681246813	-0.06799201338813499	-0.1052219512754462	-0.03940473347574067	-0.09534460719338649	-0.08688181377119185	-0.1588867483116113	0.3447605105007313	-0.2238511245868577	-0.10845955567418	-0.08418478606170794	-0.06226600841777392	-0.06999506932400731	-0.04902541405156988	-0.01608755764170639	-0.04601122266147958	-0.04158032610279588	-0.01094060936498754	-0.04263504568325076	0.01101567539048239	-0.1229364841380804	-0.1509894455880837	0.08629326662990469	-0.1311329502599903	-0.07170547561724173	-0.02039572907206236	0.01033183465012906	0.008448698579542183	-0.02414300704329694	0.01566898370273205	-0.02218585654068473	-0.002019847984477957	0.001737269308047883	-0.01102855348460188	-0.02654151493498648	-0.03387501152090072	0.01294516125814636	0.02542178107436559	-0.06332313982736934	-0.1402139894235113	-0.06774111935464014	0.069876298333315	0.0430058716512132	0.02895575118551591	-0.1007369880231399	0.04393469469925838	0.1056404259207216	0.02557234662999221	-0.03003735636438087	-0.01588813249409283	-0.01877853344854719	-0.09688502912423452	-0.1010279020132946	-0.04304017804241433	-0.01309740057325741	0.0008531294682602121	-0.08033576881573717	-0.05826255666977028	-0.0546638410838691	-0.08927708521760748
-0.2233850566969252	-0.2968598498232126	-0.04239734432965653	0.4076820434813025	0.828467282014214	0.2036062060561946	0.120445641671309	-0.01604501812074172	0.00431904024430806	0.006721434858027367	0.2367394307225756	0.2145405853678846	0.01090086577763192	-0.02966119627553291	0.1100087168864379	0.2876450206264524	0.09641251685298266	-0.04852134207978014	-0.0465811547117365	-0.04368811307292002	-0.04962927302750767	-0.0447767468025977	-0.04059228592514522	0.05911628960804999	0.04757590159319885	-0.0304172085555041	-0.1470079876787872	-0.05614370660506135	-0.02838024030699179	-0.007306421900411632	-0.04980782912327732	-0.01058454713638548	-0.08772796664175055	-0.08794086956285824	0.005494875911809982	-0.01795805599929856	-0.01953138946424527	-0.03768040881114398	-0.03449836784894661	-0.02694060862178196	-0.01537139828241772	-0.04270763449313851	-0.0471221725289737	-0.02078507405350957	-0.03494957812944243	-0.05292125707087948	-0.04494675270423847	-0.04413770969305152	-0.06273384194678169	-0.02426277499013749	-0.05143151398928043	-0.03081735890991717	0.01771534340915204	-0.03501944947031416	-0.03257446445638142	0.001684938455722526	-0.04371770942312666	-0.05121979294790085	-0.02355056874039813	-0.03332551327314594	-0.01606953369842798	-0.03256327768605897	-0.08553375162213364	-0.03208802309013018	-0.07599964747498059	-0.07467104403080085	-0.04783546865886748	-0.03534523095776911	-0.02865647033910138	-0.01545147553393474	-0.02993182265849751	-0.03844199002637941	-0.02733748568305142	-0.05477564474366726	-0.04375262273238131	-0.09607413493362418	-0.05029736361504618	-0.1259013844905426	-0.09525865836338515	-0.105701885679381	-0.04564793685821606	-0.1176434454857013	-0.06701783912631097	-0.0405265064393921	-0.03825132193961812	-0.02681026796627846	-0.03585237234044611	-0.04565412876006233	-0.05309545839534401	-0.06580679038870382	-0.06811927038875694	-0.06271250864900052	-0.04650312066715381	-0.03975933934426583	-0.06211969196080139	-0.06392448839919926	-0.07832394601062685	-0.04799492009872262	-0.02517748995516061	-0.02571673970873069	-0.01070430412328249	-0.04285952303089021	-0.03204519246544433	0.03757011376992216	-0.01094631667516283	0.04463403129732629	-0.02087285649822507	-0.01073265095722479	-0.06895403583272852	-0.07463111663162518	-0.03940566526740157	-0.03785037354834141	0.1712418622036419	0.3548558829300136	0.4360068895967568	-0.02700215143758767	-0.06527845288701906
-0.07308620316025151	-0.1483657934138893	-0.006227084501941005	-0.03044571183941557	0.02073494274105228	0.04216788126911195	-0.1211759878354808	0.02374577408710996	0.07442043774454019	0.06909147438387653	0.02948948609381357	0.000623933573325978	-0.04688441010989485	-0.1491249803646205	-0.009423143133364958	-0.02463737178513305	0.07115214210490155	0.1137565220129819	0.05899412390219528	-0.1762608775765623	0.07697336806904186	0.1188483219877621	0.2609036460433159	0.178459196073243	0.2240600189265506	0.2164641753695679	0.7259317363753691	0.171669412093543	0.1110877430150341	0.0330758600328093	0.1801922153284946	-0.06571711259640955	0.4126210518883327	0.578042663903748	0.1196473179005263	-0.2519291290210895	0.02946149709086272	0.02672282874227011	-0.007228983507771701	-0.02325713690472844	-0.003200953219000797	-0.08309364957699342	-0.07125425635532442	-0.06160510145830886	-0.04930488813870416	-0.0491236715475468	-0.0185538244109873	-0.09000908883069532	-0.1082255239482894	-0.1055530405873215	-0.06975927598473865	-0.02967640695916808	-0.0111063428532672	-0.03757297519919607	-0.04789033372365147	-0.05624989542917719	-0.09680087263142276	-0.04151638574364649	-0.04781245561218553	-0.07849928922522131	-0.1180804451700706	-0.007581923271578369	-0.1046696110401414	-0.1446134583964311	-0.2435900805493136	-0.08706340320452632	-0.08813036001955502	-0.05749456724806884	-0.06870983236171337	-0.01958042168444641	-0.02977550510997203	-0.01299566360292669	-0.004918977890655814	-0.02265202568004873	-0.04295680452030774	-0.04663285508483479	-0.03696371838644253	-0.08461447348799345	-0.08509856550733516	-0.04566317368102785	0.02722535949788325	-0.02910423928803019	-0.01643266430743989	0.05917490953538886	-0.004236512965259843	-0.009892711756516539	0.0529136766898525	0.03494192375460656	0.01393175868574482	-0.01005103042541161	-0.04671727416164332	-0.03827841867517382	-0.02909168264406285	-0.008235492413851605	-0.008631790526620135	-0.048657565392219	-0.08173203500937286	0.01408466111617095	0.02368803050274842	0.04933437025450225	-0.008525850580271674	-0.06474674305031443	-0.005995313619545537	-0.02294933076305889	-0.01683696903781449	0.0193068477150176	0.03978499526038923	0.02705208667408902	0.02072434346159271	0.07373695325097958	0.01897352452359891	0.064086417272612	0.0480155268619388	-0.03178440886074457	0.04256835350295948	-0.0386463751278085	-0.01649085159247964
-0.1754270579696277	-0.148526886383734	0.001578201736343144	-0.07896218843731698	-0.07293713399771382	-0.02529352953756291	-0.1092403012593615	-0.03827127352575323	-0.07384152180551393	-0.07754233790085169	-0.0447351505168021	-0.07198462072360449	-0.09695171881703178	-0.01946119550383872	-0.0809303780010142	-0.02677239112071929	-0.07013820394513903	-0.07882581691489327	-0.075031506808653	0.05286867621517524	-0.06145372629288748	-0.04786525938017436	-0.08519974452957119	-0.04174927212744393	-0.07158138985976487	-0.05157139918346518	-0.06197589627432838	-0.04023219540100161	-0.003078228194564305	-0.02019961907722552	-0.05443380357637998	-0.04339416480448139	-0.05145433691394857	-0.08487015884937738	-0.07307151275094687	0.05742340090382936	-0.01335186573648237	-0.01310586355891142	-0.02947879796986972	-0.04544197520235754	-0.07484742775742062	-0.1546488733280868	-0.1075670424771908	-0.09191710809284857	-0.06085012345899318	-0.04661578133100351	-0.03271955785358965	-0.02040681628878339	-0.04061574880388388	-0.1124732367825747	-0.05125055809302646	-0.05230734590274012	-0.1008860936337599	-0.04412220773364627	-0.03185176658362731	-0.04732040124804576	-0.04978839255430807	-0.1010285155834185	-0.05095912278915788	-0.05564921481391418	0.02556744414568286	-0.004927857483171687	-0.09395262339868989	-0.04991376741317332	-0.009298511989454701	-0.1624559115726087	-0.1175029331395532	-0.01794673270059486	-0.0199693553930861	0.01544811884965819	-0.021308849123354	-0.02731645995673882	0.03550296402983768	0.03934355701894281	0.03889955985484909	-0.02278698869365068	-0.09418486911735435	-0.1198516151208373	-0.156564456317874	-0.08391035653144581	-0.04493757592285669	-0.09310732443453897	0.01138807101492813	0.07280505257302654	0.08433801642530817	0.05997033963186078	0.04772763726706277	0.0885127685662698	0.1487935464641336	0.1377398958696495	0.09937405051465613	0.08053091870535252	0.1381482858751727	0.2639188656603079	0.2472929334730484	0.111020075602259	-0.01116743591499773	0.2215875662994923	0.5740623251178611	0.3890414799723677	0.2596283414419467	0.09848399623155585	0.04966618189879774	0.1581942542520348	0.2108212429319833	0.1405246406976739	0.2969534028369299	0.2076946646798056	-0.05756323694550413	-0.1455757462206916	0.09389928591812118	0.350524058838863	0.10365660613295	-0.01961927594571001	0.04505163225954283	-0.02944915311463699	-0.01944673012931808
-0.1421010196856291	-0.2062237834122186	-0.03285606441962039	-0.06783983686528049	-0.02907682587076076	-0.03579010876650755	-0.06017262748448712	-0.04634235177118307	-0.03481187424683957	0.02287178762195485	-0.005994916522171976	-0.05703095103443191	-0.1340664743595923	0.2743479360112683	0.01436859290779914	-0.09502939798629717	-0.06822033744906074	-0.02930729191722173	-0.06436737402226703	-0.1097539816874334	-0.07311689101759024	-0.06707731619831306	0.0579800740337937	0.05594002221705133	0.004027621902467292	0.1685132380989104	0.1433614433410705	-0.01762786294320939	-0.1199590279229872	-0.1147431117180378	0.01143388183654745	0.1218470289017361	0.1021755130580474	0.02693104622575064	0.2373254103818233	0.6762805348487284	0.2384215822721355	0.2277662926611664	0.07752659156517924	0.07074828205361386	-0.03700935182184564	-0.2039237345824953	-0.1279951297030194	-0.07132153081126996	0.04508544349413983	0.1097424266748426	0.1250151733781685	0.2291551158688186	0.1137985973819237	0.08594195193201212	0.05459859035674811	0.006321463341551701	-0.06278600835473239	0.04773775436102339	0.05534711146249138	0.109805776129406	0.1103321296261654	-0.0352375126303695	0.02321543877297907	0.1121889964817525	0.1794071675473674	0.1895543608066313	0.008677390234142482	-0.005966424729410643	0.1708333846207295	-0.1867381633522396	-0.06262242616704322	0.03264743720657264	0.05903664973359603	0.01438080271371047	-0.02662124253499005	-0.07013282020735623	-0.0643214459941302	-0.04035425520181845	-0.07962636745185525	-0.0480048277404991	-0.1087179755819465	-0.1370373282730721	-0.05634755176282405	-0.07871665811375292	-0.03028562582571028	-0.09639586006889189	-0.06040069090437163	-0.08674130298089754	-0.0730227813060115	-0.06059214950022841	-0.09403953682401087	-0.07833233828269848	-0.08520043893680826	-0.05725699415066428	-0.05951432872569091	-0.05905640209937622	-0.06593791871914494	-0.05129285210975379	-0.07764371111644007	-0.1083911575209258	-0.1781468470934352	-0.07647612787783803	-0.06247776939997136	-0.02839231185536614	-0.01956555059825057	0.009155922775971957	-0.01840011518769809	0.01503950415449677	0.02377369937535391	-0.01607065280031057	-0.01739846048567878	-0.05594326020977006	-0.06894273866380614	-0.1085492074573845	-0.0603610610231818	-0.004569107757576203	-0.01877184039695007	-0.04892381865687057	-0.0567860529761061	-0.06772781476510495	-0.03398380948358821
-0.04858499550557091	-0.05167881673531011	0.219207013245522	-0.008862563699863482	-0.02201214715956799	0.002262529781316339	-0.01557908385345785	-0.04439979072276501	0.003197588045351698	0.004846874182941737	-0.01672060145621396	-0.04835739621004592	-0.07752836503124233	-0.05690736049590905	-0.05688613338481001	-0.02364172164831226	-0.04576495857769295	-0.02026508347533647	-0.05040198552166895	-0.07666821424262654	-0.05217802265568873	-0.04603279854880288	-0.04253048001514152	0.002441450617211447	-0.01723285325362969	-0.0274537951207717	-0.01915908293701123	-0.03955668579015978	-0.05656995282263002	-0.04736237162318296	-0.03889971614762688	-0.02735939641376268	-0.01720991944730831	-0.009473045987795017	-0.019565764743448	0.007375268332471108	-0.008501181611244232	-0.01177031050031418	-0.02518205863267743	-0.04320921056997746	-0.03107281000646994	-0.06588229493235927	-0.06268675687249903	-0.04534413014617476	-0.02974345536538388	-0.03421785571643976	-0.02298471278458559	-0.01230926946595746	-0.03668632088345086	-0.01639259097199306	-0.01482030065481087	-0.02996859333957424	-0.04657622081559426	-0.01891421968950776	-0.03541622995567963	-0.01534231714642434	-0.03736122432753709	-0.02290084704157236	-0.04638351223803382	0.00295964831769293	-0.01227861899179072	-0.07919471798482364	-0.1446794289981394	-0.1028440890959852	-0.07896733783185167	-0.2052413672150754	-0.1076582847453237	-0.07038287539991443	-0.04312662371603315	-0.02911992384808097	-0.04134308401002069	-0.03502551959747219	-0.02555877200332302	-0.0209437969611971	-0.05756400923348123	-0.01852792389003647	-0.03844640197455675	0.09013378243507449	0.3971770045904364	0.4259759384774873	0.5251799269537465	0.2482612574375329	0.06855141221943183	-0.01403333151922464	-0.01194638387593792	-0.004086351126371295	0.006667496054796949	-0.03855775135425792	-0.02442673052673283	0.003704510063929455	0.01412861956418183	0.1418974088292802	0.05030158878436756	-0.04924194140672754	-0.06834926780076292	-0.07228728389122047	-0.1022573964078211	-0.07661425486950789	-0.07706757565533369	-0.08145003680581199	-0.0708213426939087	0.1937052449306868	0.3001510431090514	0.2310687831813065	0.09408744276193316	0.01237356636682972	0.006051016473375407	-0.03038730514338289	-0.07135312279407134	-0.05925329725043058	-0.05374598507618668	0.03274385039622593	0.03014026243204868	0.03750684034587807	0.07972784808962087	-0.04264018755840847	-0.05790501466853556
0.00697940347673831	0.002522068725821934	0.001312427208934882	0.0005120636273140688	-0.00555078536405907	-0.006227216352267184	-0.02433543216407347	-0.006459157432916334	-0.01103403758976117	-0.01884108858037089	-0.01663211944340753	-0.007930667706759672	0.005991113959090641	-0.02077019623958029	-0.02128244547861993	0.002803243128975652	0.04402118443250314	0.05572888771852571	0.01152835020873172	-0.02487799454196199	0.01283539128762052	0.08150139311480384	0.2490899801130011	0.2481642203290909	-0.1212371553600373	0.5384734188619035	0.3130280057575644	0.04665230513461527	-0.004688540250039209	-0.01593627099047449	0.002742322838636752	-0.04117035870442778	-0.1620487667381422	-0.6621936427965806	-0.2365456909874071	-0.06358350790310618	-0.07907922496401643	-0.04466721071930611	-0.01640388673638891	-0.004881953252447624	-0.01006630344928763	-0.02354829836511621	-0.01104608724127543	-0.003189035077357004	-0.007781709446051259	-0.00600761426077103	-0.007538708553373976	-0.005875569764971594	0.008736200275049098	0.001866156436814224	-0.002231745730384502	-0.003151896830795672	-0.004815362517843392	-0.001452063007464982	-0.003701557979340144	0.004700828850889925	0.0001804624931110183	-0.001719807535140801	-0.003415810143371402	-0.000129556921637973	-0.0009562756296812764	0.003584675182597232	-0.001595462740845561	7.315380417254214e-05	0.003468959299639397	0.001199722826138491	-0.001712284674987724	0.00375809533326321	0.0006042852205083024	0.007264402028442826	-0.00385014449402722	-0.004988654811083594	-0.004550435972965493	-0.003095656042847629	0.002090243729450316	-0.001408534547363656	0.003368180666636403	0.001582403776328663	0.006936364830551427	0.00706201733299737	-0.0008596436351009079	0.001759070116572474	0.003004354497245646	-0.002576718866110655	-0.002504563595426922	0.000238197343062118	-0.007897724793366714	-0.004956361214064607	-0.001519752302480184	-0.002578855846121172	0.001975373664489093	0.002702387233396496	-0.001305021052554172	0.001532653654616117	-0.005410671580955251	-0.005987650514680121	-0.01418442449653977	-0.001145864400079952	0.0005586270034205188	-0.0035096103761046	0.000695737481378446	0.004133961032087381	0.0004215398985804166	0.00244443451276053	-0.001804901511620787	-0.005028368736345288	-0.003573847562247574	-0.00488528953937072	-0.003145133450418381	-0.006266334810532052	-0.01357006259294814	-0.009346304568973013	-0.002778098605013391	-0.003494361907126025	0.003987287174569068	-0.02332842871252814	-0.0130355458381599
-0.02111250025535355	-0.05008351880186517	0.02329874949101745	-0.08693763048482357	0.006449540383256216	0.009788837791086006	-0.005335089855464405	-0.0393987575272698	-0.03538938848694372	-0.01715348727581814	0.009540864506737166	-0.001760522968754034	0.005815506992607238	-0.01925170580340686	-0.0406608815263114	0.009851654411234765	-0.06398883049285953	-0.03609315007150427	-0.05911064159850065	-0.1339069660599847	-0.03745290001853332	-0.03984682787065581	0.007716749146326353	-0.003656110433099022	-0.009293873857711748	-0.008066833034148308	0.01513901831055667	-0.03083367130217105	-0.04829282873466208	-0.0505953728251186	-0.003434369529402514	-0.01107516492584977	0.009999612907811893	0.008411383306468252	0.002650727138883059	-0.01156985476444717	-0.01310618585088376	-0.002066270001118163	-0.02090257085865451	-0.001241571277147406	-0.02883010036571439	-0.0436959227673538	-0.03738217611948567	-0.03191769033911271	-0.01996738005341394	-0.02762479605324291	-0.03389574984084856	0.006254046918749865	-0.04556005484918634	-0.05321940544652611	-0.02401136319183828	-0.02746023644116919	-0.04268697242983069	-0.01996618744075094	0.03445636747163136	0.01742308117592534	-0.004089085629367854	-0.07994947243807321	0.03281116016566259	0.03913404807687602	0.06794758883075823	-0.0171541472067968	-0.05669201655387051	0.05334959918542933	-0.02519755210901791	-0.08101460302256203	0.02950874739831963	0.006213650964158757	0.1187536810063058	0.1086264730900627	-0.002081317687006302	-0.0556443554121931	0.01824658754652567	0.0551946793702739	0.1244335494675049	0.2104738444510717	0.8051774528805246	-0.06250090995172218	-0.03512712162856718	-0.007851930715481306	-0.007429195536690076	-0.1847752416910419	0.1096279835078793	0.1378602605411361	0.1042177374573143	0.05899821374489612	0.0006415874226168073	-0.03901443406957598	0.03100492846843232	0.03996070684572878	0.0577773946580008	0.01132794694753612	-0.01661695237235162	-0.001090644835183109	-0.00858995474655104	-0.05023711028576509	-0.05797637716488199	-0.04778794022698728	-0.07456780648543992	-0.05965803467050404	-0.02079495081840165	0.06568873150247863	-0.03975502323977274	0.03598032726277801	0.04576764957575234	-0.004314970363959387	-0.00434371271943426	-0.0101936319507353	-0.002879440752817118	-0.002503977361376871	-0.01851560082003766	-0.01555809001075155	0.009290663692769666	0.02724013803643153	0.02545682190453362	-0.01863305811807937	0.003755180427387592
-0.01054305873761707	0.005088948997565651	0.06847774756251564	0.02747474400960832	0.09872661051615797	0.01035119837645626	0.01609722101202151	-0.003774214656992014	-0.0008362192814262952	-0.06890889469918637	-0.009563175815055169	-0.01830293259068899	0.1120293102237406	0.006377562175638471	0.009560254896579506	0.02966302376322158	-0.02630251886018012	-0.02390724075750694	-0.002325658302199985	0.1669382652471229	-0.005415042070343497	0.03786656626467954	-0.02134732908729401	-0.05719451670819825	-0.0001837267523291663	0.01060482023691112	0.09364090179239042	0.05601286044290291	0.04677137052068822	0.05894823671734318	0.07783817944261684	0.08050926729016354	0.04120877357271247	-0.05242805821204732	0.02617095041909269	0.1602384735092482	0.03493807699842948	0.04389697657984101	0.04850940452428983	-0.04344762662452157	0.07726691441781362	0.3330283218001576	0.08827609875614768	0.1153952707423811	0.03149642537428962	0.01831879397170296	0.0753076951087486	0.0616683694298119	0.00154759422755166	0.00483020327289782	0.02054775548804885	0.05965317209729544	0.06910188648258421	0.04666221679540543	0.06026070420316468	0.0320550496414383	0.007746266551962958	0.1038877002674619	0.01003347152745392	-0.01133762326844182	-0.007861235053978607	0.009343794341575734	-0.1261072829071866	-0.05186215283904813	0.1210564036366543	-0.1577409290934871	-0.0304974340525611	-0.09858154970830001	0.01174168024238059	-0.0223821437142314	0.01816626409219302	0.08665881880812475	0.01908885931370576	0.0129470111727186	0.01662783526822084	-0.007676361220614139	0.04837748919999763	-0.03846669047752801	-0.05148385017974021	0.01544609418499116	0.1323342044936465	-0.04430923544018528	0.004577904141979825	0.04306691543964525	0.05420826605596393	0.002548239698631172	0.1305406458899495	0.04170283709918584	0.04261635981886951	0.01171439782510421	0.009051223758242424	0.03659195512838181	0.004296526216424769	0.01180411066678498	0.09219983776980398	0.07281396135305133	-0.1275932122416696	0.02628934118841249	0.01350791160537219	0.04270842747728636	-0.006216995783513718	-0.01082644605790359	0.008856577679334924	0.04965784541289524	0.00335577583668935	0.009362906739812615	0.05577562855969931	0.03571966864374254	0.01587012225464167	0.4277620468059245	0.02713788733942549	0.01210219206138446	-0.004471255214581546	-0.01065238993926481	0.05173061524766077	0.02584898501043111	-0.001188153652749529
0.002091335222265126	0.003899908457098551	-0.00251864412034861	0.001305088412300958	0.001824847075526172	-0.001238894096593956	-0.0007901892937457864	-0.004673696341639252	6.502190965241784e-06	-0.001277140219054699	-0.0001355767233177275	0.0004852653466037207	0.003152902968846791	-0.001269993078879903	-7.057358062794163e-05	0.00399454651551588	0.001864395935328628	-0.001021059025285868	-0.006579537873313192	-0.006813067160827933	-0.009179397006817722	-0.004232234759842766	-0.005736532257079896	-0.004543295925399819	-0.003796948508487776	-0.000334657706188704	0.001481654495536884	-0.006265489022139794	-0.008092915047265127	-0.005563276883801345	-0.05862420502530938	0.04465742755960544	0.005259780747661039	-0.009017038670576336	-0.01127724276606083	-0.033283571134998	-0.02219652657624518	-0.05343256655446051	0.7706825836037756	-0.1340439297486296	-0.04600428210526584	-0.03944392663771189	-0.02724175366883595	-0.03195962017757646	-0.006728816451222139	-0.02605486646961451	-0.03359249037196456	-0.03387473241496505	-0.01791100864188179	-0.02956636117827406	-0.008796546169911153	-0.008709551999502086	-0.00835356269415004	-0.00103984004233166	-0.003027336242372783	-0.008866026778895216	-0.01020457496776934	0.002410352830665787	-0.004840805509853083	-0.004143333504234424	-0.003996374795120916	-0.0006472631667488002	-0.0006907933847872246	-0.001532536331817821	-0.00346429167849447	0.0003105335089698171	0.000620169811302763	0.001220148176480969	-0.0009603442964753247	0.0009074900612787878	0.0002262016486545073	-0.0001596164290198786	0.001338141004702085	-2.845249113074354e-05	0.0005383929213874745	0.002767933723156892	0.004939855082993616	-0.002073776002048172	0.001977263028623407	-0.002962174975137402	-0.0007808205217748905	0.001515324877182093	-0.001717130101193419	-0.001767779767439441	0.0003197592047948076	0.0005635530337497208	-0.0002824905143310446	0.001976497108453146	-0.0004833008914117586	-0.001375468969945854	-0.0003846053907690981	-0.0008163427470574088	-0.002944923971412934	-0.001695310408413297	0.0001545506657027546	0.003788756040191845	0.005330561275834135	-0.002038588677739238	-0.006367491073071852	-0.004624862818708048	-0.004406830863290495	-0.003431451370622353	-0.002823123314186844	-0.002056624767548156	-0.001278813749356313	-0.001685695742411457	-0.004177984701562252	-0.0008982553608834985	-0.000349915867147231	-0.003403774719084237	-0.00337530687139862	-0.002906842005531064	-0.003366017940687834	0.003121851467758549	0.001957453883143024	0.0001173860282764069	-0.001443438354246595
0.006212933832785423	0.005808403977510045	-0.00213959756621768	0.0019623312059774	0.004049446471450698	0.0002397058915511737	0.007100807151088403	0.003001777309093125	0.009766759854313235	0.00707633318019003	0.00163441944636647	-0.002351622067224754	0.004650139980288047	4.76021738526511e-05	0.002228380064165593	0.007809695610410674	0.006747427156307994	0.01158689441402656	0.009446150706196484	-0.0005714710081636347	0.00458001050862802	0.00505961737230572	0.008854587538684506	0.003434396833850484	0.01032121358885141	0.001730551854775994	0.005095218755375951	4.834268995507784e-05	-0.002830520106341653	-0.01420683278882423	0.0001308885047708203	-0.001754295000535416	0.001928074343506852	0.008168343491474642	0.007750864889527976	-0.004491228259102202	0.005801750277805492	-0.005205175008486297	0.001394466430486812	0.0006080907990829854	-9.524094727496636e-05	-0.007429192632528245	-0.002306880352411225	0.006750839504867516	-0.001934833218026648	0.0001767046522424961	0.002044055087850766	0.003676007281244585	0.0009747579199662314	0.003559868188858302	0.007766970282958419	-0.002724344512119647	0.007782872751381755	0.006056091157601118	0.007504703102912771	0.007620198434806585	0.001725201048137658	0.006943820968345243	0.0100063857798596	0.00328080888843914	0.001796449201328618	0.001717306081765915	0.002955131561828656	-0.002328814020010547	0.006805564739981835	0.006698964030504006	0.0004678697283323118	0.003991915550847359	0.002536306072328976	0.004471838218174953	0.001515829741426748	0.009377489517138779	0.004072570284419219	-0.0003143189909317208	0.0003919788303459165	0.003294652891209312	0.005865463225192834	0.004046412481212022	0.004272836552196835	0.004141455897354164	0.003560003925748634	0.007064062784268799	0.0008829724013940057	-0.002196571104721265	0.001939272145068646	-0.0006202759611127556	0.007139061492267776	0.0003402742238959439	0.0003917322628171544	-0.0006022313070813925	-0.0001408678649135115	0.0101877364394788	0.01854376681425949	0.0134250951566689	0.005015909050417469	-0.003499394917088396	-0.01055648792685114	-0.005011660785975778	0.00107202400043744	0.03752874684599089	0.06431062316184225	0.03030385378963731	0.001938312793698985	-0.0106297302937668	-0.009406491879701419	0.7216813500463151	0.0308835404979384	-0.0247198419836883	0.004065837903301598	-0.008309186337701346	-0.0992331666430227	-0.2819276807962214	-0.1354001150283293	-0.033416328276443	-0.01532745442219203	-0.02855459429608687	-0.01394361911821544
-0.01808646839089393	-0.006349365965590163	0.006583758775166407	0.02468576526156078	-0.009608876476962038	-0.002289496434488454	0.002136254710402101	0.08545323565818932	0.0406299813305939	-0.00380453864459189	-0.036464094758732	-0.02423440831943236	0.001474962628203198	0.01055206594663705	-0.005251732680158595	-0.01611685891625967	-0.00530583622325693	0.07187236985454867	0.1543087571440856	0.4835799915385289	0.1973362031771464	0.1077862474407105	0.01932670985748629	-0.005280362576104483	-0.02207108762431994	-0.003713945741878562	-0.02394212707396494	0.06588838998574624	0.1418625794999844	0.1754374689485005	0.01485144349287222	-0.009521639807792396	0.005943334154524818	0.01410805670731665	0.00467603339688745	0.007928420058874067	0.008503947263398603	0.01009796865540958	0.005146275834822301	-0.01045257932352123	-0.01394988964501141	-0.07476810896025697	-0.05950488548026818	-0.01776663507426932	0.001263551502741456	-0.01031994498069079	-0.002015113878782221	0.007328543323918873	0.02427640265527536	0.008201996348585226	-0.006909313052880677	-0.00319108203465465	-0.01640931027602067	-0.007380565736147171	0.01229746347740995	-0.009346944391601213	-0.01024481979238951	0.03833543286647716	0.008416956452266628	0.01248405586610216	-0.07425962687879836	0.01093335667498935	0.001495025728304446	-0.005394387939746515	0.007661350164292707	-0.001300317009455898	-0.05701589469930172	0.01144994811882825	0.01541347502305612	0.008401114660969371	-0.01362185411638788	-0.00923722224326823	-0.02278741728609048	-0.004696372444637897	0.01348802567989363	0.004044855565681955	0.1139360651865678	-0.03311070865526252	-0.005164346623961788	0.005588937852631501	0.006339143641203701	0.005513907626465014	-0.01926439601678331	-0.001858739752201658	-0.00528162055803121	-0.01052761454773449	0.004949397544615781	-0.02523474876543849	-0.003324268945008739	-0.01562849085632725	-0.001490703956664083	-0.002433455919640564	-0.004718788699243767	-0.009054467736648215	-0.006443500322526338	-0.03973084882641312	-0.1962940781876858	-0.07637254099217987	0.01071306520520418	-0.01581884453151726	-0.01309381386689907	-0.001278102747273213	-4.454894506871022e-05	0.01155952385126906	0.0008705721739283408	-0.01614136884579511	-0.01102999670263269	-0.04337308997904824	-0.2035022522348498	-0.2163317141314203	-0.07469925784762001	0.003095809698645478	-0.00606267903039606	-0.001176254188043658	0.01462611223710806	-0.02950520035058963	0.003904326472449292
0.001802661043529578	-0.002867636899904217	0.000857365271600837	-0.001380744970724186	0.003867941162080412	0.003393378641831878	-0.0001152246975121766	0.001284768923677707	0.005940090870356124	0.005304183836812235	0.001722843646024329	0.005446564133435601	0.001684186509300519	-0.001296031898110793	0.002361780687459633	-8.127469285999229e-05	0.001598875221854221	0.004477708985289906	-0.00243612570035199	-0.00522311605948579	-0.00234491083611082	-0.001617545030977247	0.004840825127814837	0.001377657452487426	0.00516764785662501	0.003588143199873214	0.004393771226763674	0.003865126754124049	-0.0002379546408134873	0.001664563468201915	0.003882439234518875	0.0005551469144683137	0.004880697997114247	0.006668430831907603	0.00269156242361561	0.004484856143526029	0.00515113158361001	0.002711309780158924	-0.0003632193267145252	-0.001487001455909719	-0.004141840642899171	-0.004411305484259072	0.0009105503419420873	0.0008918447928993398	-0.002962769771778173	-0.003291728270922215	0.001790065819256241	-0.003003678121884538	-0.0001410709608627498	-0.002371661046044081	0.0004495802577979056	0.001197930626289159	-0.004386385050084983	0.0007693202210167794	0.004515342639604085	0.0006711790488611884	-0.004182068362473904	-0.001207673362556569	-0.0002235197341406227	-0.0004796109003636386	0.007100295510747152	-0.003570338442409667	-0.001565515895370417	0.009281623861649999	0.0008301674808832466	0.000407652790396314	-0.0003003606038295096	-0.005126399651183094	0.0001272567994235	0.002506225981990119	0.004662644879447812	-0.003075065924041399	0.009501828167313105	0.008900543433106358	-0.006733601068158049	-0.01010659278576321	-0.01816486955103207	-0.002647048243852507	0.002855886092439233	0.0003239941339055934	-0.005658682856856318	-0.001314142260587088	-0.01956902405615064	-0.04397560473991432	0.01261726102306815	0.01676301881062684	0.009745550634717161	-0.003053056870664954	0.02044971824072977	-0.01934419803434811	-0.07937725373566164	0.02299669808665223	0.09425996219266974	0.6970691781923222	0.01185080796685682	-0.02038207053207842	-0.02213809540065939	-0.05040822655819604	-0.2017596665267971	-0.09664593611413766	-0.05003363161337775	-0.01343369615168922	-0.005233419765694958	0.004928779380009811	-0.004813230574564605	-0.00846224396726232	-0.02143088361616404	-0.01357732977223776	-0.005339036014968958	-1.496243947016914e-05	-0.005401671765187685	-0.007567223998264904	0.004776266154236914	0.00468081145490003	0.004107221842760888	0.003070459332611695	0.003677583924071135
0.01575070227922978	-0.003018937471423268	0.01612395769903621	0.003586519567744541	0.00536807558983569	0.001468296547543805	0.002334283911349249	0.006220242473659281	0.007034417003699883	0.02627764945114042	0.001162446730635846	0.01338562830126834	0.009090241336154766	0.004772624011033684	0.0004548213771943363	0.002899997882610896	-0.04131057035728834	0.01697043071463903	0.007278240987608047	-0.005658825215852181	0.005955395019106329	0.004874528006566558	0.00703238701831548	0.0005755649127694258	0.01045810603138948	0.004049721381521286	0.001837345423986345	0.007143744545174504	0.01846942230577878	0.003783865045913005	0.003819257235925339	0.008870537765471089	0.0122873137748917	-0.004467312671320104	0.008579263691025808	0.01554183465353871	0.01126466229367576	0.003708875423914163	0.004576376150952499	-0.003493637330663945	0.005617243689122618	0.00799487769003656	0.009624280442120256	0.02052400518440337	-0.001177546234100794	-0.003081226094292234	0.02934180204543555	0.001720705697988294	0.01556010737041566	0.0003883329306010302	0.0004697795693100686	0.01209463296075459	-0.01268424517256962	-0.03218805257572538	-0.01305727626604196	0.008119916418296284	0.011643292523796	-0.0146443243245764	-0.01076836622764944	0.0002634131782547259	-0.01606031056986768	0.03102476883583799	0.02389253651200602	-0.00952158565021733	0.007304217964555619	0.01630774151418753	-0.007197733770080316	-0.004628698626759674	-0.006069344883308853	-0.02328601286832417	0.009208609211981312	-0.0188698958059422	-0.0318097598538302	0.05505866310601173	-0.06586588195695885	-0.03140734380211128	-0.001493847035673888	0.005553595477139422	0.01577209002635165	0.01083861959227439	-0.01966716654453501	0.00246904951483015	-0.005622341141834187	-0.01816566895602893	-0.09619853132090347	0.7101785900972716	-0.0735571682003959	-0.01308607695861107	0.01126095346986935	-0.06850704849239279	-0.02088464315626833	0.003867285148260646	-0.004673871545082846	-0.01723287249432644	0.01014745915601868	0.001514605227964819	-0.006984137228929761	-0.003063940041483404	0.01421597678049976	-0.003107249569280678	-0.001937880869829075	-0.01214974245461775	0.01059776595336941	0.01296331437912527	-0.004341337460211914	0.002765158288491273	0.0123599790909813	-0.002906619816974027	-0.003473438523620211	0.01985188633502926	-0.02737236336265621	0.001561189330347349	0.00943343691910802	0.01503162239893108	0.006379576867640434	0.00495081938562863	0.004187548094593136
-0.01072636673589954	0.02603432668120573	0.0403798696783293	0.01571279190849159	0.05275088858143408	0.02345911595621616	0.03324698075054199	-0.01613880650210125	0.04467603307751228	-0.0646229528887286	-0.0082975577796151	0.02467230001798664	0.07523984091294608	-0.01890434543952666	0.01470781220313301	-0.01652003753103164	0.007932102883757645	-0.006012240306444833	0.01671114623777509	-0.008625816650781652	-0.002924229982029023	0.0261687144189359	-0.01775088708971385	0.006348601435887315	0.0434283347773813	-0.01482410555681891	0.04618228009014164	-0.001692589982017011	-0.005334925837710755	-0.01644746856667862	0.0125844737750255	0.0301690341236382	0.01273141111442947	0.01689644014639536	-0.03555136848952875	-0.02105433970083312	0.005024081807200243	0.008174956552472308	0.002348679976561189	0.01388102717785313	0.0009018235458402404	-0.07262682186838616	-0.02578637881177499	0.05251199932496182	-0.005694141136174138	-0.006449640560982506	0.04281481168292358	-0.002658636818210939	0.008585733261941432	0.009691695185794037	0.008122037186539166	0.007721484330761965	0.007580318016671304	0.03945726413438384	0.05628881460779565	0.03788742661552821	0.0047082694302884	-0.04713761102890674	0.02933325958163201	0.06980712480206111	-0.02232262147476693	-0.04577648193433417	-0.04239638031171637	0.03519200946349825	0.0027800742462986	0.001572106199283979	0.03458499282076672	0.6000078601358569	0.1298870830107298	0.09063574757527132	0.06345961473345586	0.0773865366280827	0.0122072323473465	0.04165915196224578	0.03635217906366578	0.0763692688139888	-0.1022471181573062	0.0005308877711788596	-0.01796791829773001	0.01965138396448709	0.04301948305333777	0.02264030947375245	0.02427712481972839	0.05458112706713767	0.06294885416402043	0.02572840285697732	0.02548787373949672	-0.04354440389539894	2.086812886267279e-05	0.01030398493568138	0.001274313299239816	0.02743509771353528	-0.007615811001640404	-0.0005661677772496725	0.04832852347482898	-0.05182843809371415	-0.01597525680938661	-0.005099847914424529	-0.001492939979863634	0.00911474856627569	-0.01264767058078996	-0.004808067457565413	0.001293100659257954	0.06550628566832767	0.01547687105294614	-0.009013020487105705	0.03013611499924867	0.006158817732807622	-0.03802946595144507	0.05599954029376451	-0.02027123844217301	0.01590385514254843	-0.001118485447990405	-0.02491693354675635	0.02468895305821948	-0.03079118425240708	-0.01855814828481596
0.03552503071094731	0.0919795220603328	0.003792818240925995	0.03813059699866805	0.02465832130867486	-0.001493575438918729	-0.01867505538076967	-0.01732377469993586	-0.0003996577572930796	-0.0143289774512517	-0.02961325513797348	0.01530986843023514	0.02055117790014653	-0.02913540142120623	-0.009966418079696003	0.02075686021068212	-0.04074829598154923	-0.01711542152661444	-0.013269658501766	0.01874358683987254	-0.007304808349899219	-0.01488634375757665	-0.002048853846119384	-0.02401701724150814	-0.03351104400657428	-0.03077836019228333	0.009783639685428848	-0.01148896154628777	-0.01808460063743929	-0.02458675011456498	-0.006571032661928569	0.0122305143919231	0.005931392472034226	0.02310945773182434	-0.07859044092888885	-0.1601054231117561	-0.02305905423385626	-0.01662491771517972	-0.003539701118703106	0.05483495965352318	-0.001801202618265771	-0.0709915348085324	-0.02657569003956013	0.008587244747471117	0.00503723350128005	0.00155110516582083	0.04175794032861234	-0.005969843203461782	-0.03887732151727867	-0.02683003405711574	0.03190524673384471	0.02128422738613391	-0.007268955221267638	0.04078575902101301	0.04998269384624784	0.06132270564611932	0.07324121438606804	0.03520805115721879	0.03074489705449482	0.07991388108463157	0.0300705972795368	0.5935304527857388	-0.01530190138152707	0.06792739428175666	-0.08053375911231771	-0.0387470998820179	0.03903462341146596	-0.06585165391213588	0.08021961871790378	0.02677609189065276	0.01590065621434626	0.02060941134522722	-0.008896157569243588	-0.008869034331383916	-0.007431263689743044	0.01916806371375341	-0.03598845058966683	-0.0243442200098015	-0.007186462586610039	0.02040602943328191	0.05647080983311651	-0.01196006881068836	-0.005897950980571034	-0.01705945481572313	0.01923322393650258	-0.01547210052243189	-0.02144434703586619	-0.01014894214114192	-0.002680904776230284	-0.0116238274005259	-0.01098754709073865	0.009217903983205697	-0.002442786816637619	0.002149741897525067	0.03543443264470923	-0.01721024781232528	-0.03321473425819152	0.008283096406488763	0.002557456482263266	0.02151642711944185	-0.01308867909372979	-0.004591968805347714	0.01201976747803185	0.01119495928026933	0.03069814234589544	-0.004271758613228987	0.01090681426988512	-0.002671880214670339	4.645100403118705e-05	0.02161091175196775	0.01235922611198778	-0.0008304353220725495	-0.004200232015621749	0.01023205755590312	0.04543016725137281	-0.02384152933075095	-0.02771509885117702
-0.00713417348722931	0.003290052506888715	-0.004351267206564248	0.001506111137039917	-0.005468974281341434	-0.01578903804374356	-0.02744906884275536	-0.008442885580053069	-0.009722991156153922	0.001005055916612006	-0.007450370987446392	-0.00348518450993897	-0.003122643778488312	-0.000748144462674987	-0.0008526295441871419	-0.002660813779460066	-0.004089605217020293	-0.01567979931924346	-0.005217818686419344	0.007453818578414246	-0.001841477523381224	-0.006075367275076001	-0.00691584063149434	-0.002480389356898044	-0.001282001808151588	-0.004182119651445613	-0.006999079254260473	-0.0004978834177681481	0.000750275053149991	0.007992118393755342	-0.01162891805039118	-0.006231992859118931	-0.005677155746601818	-0.004739765911056274	-0.0001027730564652627	-0.004611317601099897	-0.004365194328327536	-0.006069714405423148	-0.004782488578253651	-0.006573147339047924	0.004866171265886405	-0.002865626840223301	0.01109571975095178	-0.0116547804688891	-0.002902924227802835	-0.004109951064368503	-0.0117787236133952	-0.00513373368419508	0.003698354745885073	0.00400093540893869	-0.0048553727417359	0.001345525363674309	-0.002815326046320663	0.002893796420091409	-0.000754430944366361	-0.002321345047733917	-0.002654174850766921	0.001073843649134296	-0.006128021897654692	-0.009150798061371533	0.001380967725970221	0.006125050584145014	-0.002571741093960789	-0.003739685718223311	-0.003294170122148876	-0.001313059802540557	-0.009233992369926291	0.007425592598989374	-0.003275364391768484	-0.0004028237830361554	0.006018022774645776	-0.0014020424366275	-0.01116003303706633	-0.005651598989815074	0.005504896120670263	-0.003378895951464996	-0.005646872909679381	0.005524484761741257	-0.001168409675281953	-0.005012677846064641	-0.004323052011590274	0.004214904338111424	-0.003515889162366535	-0.01131173383059347	-0.01190339853169007	0.002671632939126831	-0.006553288238378199	-0.008925450629897113	-0.01193227604575833	-0.01110747486565115	-0.01016807985750992	-0.008739766723364299	-0.004724444077907181	-0.02497188097182207	-0.03267200920658383	-0.02221874401429382	-0.06923504274846659	-0.04338979141513234	-0.09499697262040942	-0.02828806987762107	0.002591328703366349	0.001030567684695356	-0.009535913541934607	-0.007475241566181521	-0.02296701229933711	-0.02095839125900573	-0.04016057659239546	0.6627344762867868	-0.002584444505798003	-0.01843648649523854	-0.03643304546498476	-0.08186779627355606	-0.02356501428518917	-0.01492137459496943	-0.00865282623724861	-0.03659923805437974	-0.02330133304990646
-0.009219459579770644	-0.008146822025668273	-0.01697481579243666	-0.01347802609006116	-0.01203713352679267	-0.02033472721148945	-0.01384484499858549	-0.003689788007690261	-0.01522002010107503	-0.006845172577191211	-0.007577290838778674	-0.006525572096848284	-0.0194771297245627	-0.002931749499813638	-0.001529348292327794	-0.00870531868745344	-0.01246389787123618	-0.008912895081634349	-0.00697446309502199	-0.008815157345890876	-0.007799374611778166	0.0007101544617693414	-0.01040030364024887	-1.09689400406014e-05	-0.005608460300367132	-0.01086409318894984	-0.01336445907010522	-0.006388122522923462	-0.006979742616124841	-0.0002272086937236958	-0.01043429690143367	-0.01721024313142736	-0.001973331720001638	-0.01238281417983074	-0.007438401674344074	-0.01433223147569603	-0.0121968741510416	-0.0225429481302395	-0.01017783932177418	-0.005797357934144621	-0.01049906266083832	0.005656500522456047	-0.01290781806288273	-0.02313172647453867	-0.01966748566939141	-0.02065412027480104	-0.01863527517576354	-0.01419083695873958	-0.02740461336518437	-0.06064811213522023	-0.02413315923610541	-0.01761533653932069	-0.03612774669485518	-0.03528832136939422	0.6488970336091763	-0.03578016440933284	-0.03665320667161196	-0.04890897274616244	-0.03906876510029685	-0.07016962646746101	-0.06424502871244976	-0.02534871272309797	-0.0103779253784334	-0.01255048040127692	-0.003056762335128188	-0.0135835337468814	-0.01760305372445015	-0.01514284560709506	-0.03206038038354494	-0.03717961539455908	-0.02579673906110993	-0.01872756893645927	-0.02153286774134213	-0.01806776197598085	-0.01325980598136818	-0.009807776238193809	-0.02500288206365733	-0.007315720979042069	-0.006076952052179921	-0.009078292997993762	-0.003579072808971732	-0.005859138323349468	-0.002706589747033037	-0.01785681622060744	-0.02127856558247046	0.005609813904914879	-0.0214246550363915	-0.01313191574600731	-0.01597785474505018	-0.006233413842015653	-0.007641187562675541	-0.004183504799070152	-0.01602473980746542	-0.007977914196685601	-0.01665332091537473	-0.0006763777886381426	0.00187850553745379	0.0009453873190443665	-0.01333801105441126	-0.007310868623925815	-0.007246924124743678	-0.01592298068158341	-0.008012585888772437	-0.005889197941621223	-0.008400313976639333	-0.003973014390516388	-0.01490214104165244	-0.01084305610087647	0.004642977706955862	0.0005505021673067063	-0.007889906369616255	-0.007822803985218334	-0.008279194847714324	-0.01128577675736282	-0.005082987814702042	-0.002420759529519785	-0.01121434349904568
-0.002329312697107831	0.01322966516030221	-0.0189335440121676	-0.003994105831805884	0.02554768521643227	-0.01883240771536231	0.0007233372750246932	0.007688314495174238	-0.02463186824111394	-0.04755793013230055	-0.02764400486611898	-0.003455792677548128	0.008888773764863108	-0.01315429107692976	-0.01171399810431544	-0.01584329191648678	-0.01305905836274764	-0.007641410925888989	0.01745206191360766	0.007150303766913842	-0.009125939047237708	-0.004380889596707217	-0.04474003866574636	-0.01336921718517839	-0.02414854341781658	-0.005929958515450053	-0.02389749020845224	-0.005829933608234457	-0.02165187184525593	-0.02508349297553251	0.05191251291896835	0.1819771577167278	0.02557741137740677	-0.0410988279911624	-0.03585859195954786	-0.06186135085267281	3.948633427169391e-05	0.04731632324297633	0.08582677645705557	0.563035525855576	0.05611850767828355	-0.1038548466652052	-0.0341852614619081	0.01626835282613149	0.08198357568289531	0.04253823857090688	0.0002185392343067049	-0.02786852972849074	-0.05452999721081825	-0.0465794893307213	-0.001817328460001242	0.003558365577713432	0.005216484318033032	-0.02048909925122207	-0.02049941487418168	-0.03777500549428154	-0.03485192958515061	0.008613376192979354	-0.009733318726347549	-0.02080828269723441	-0.06758258017259823	-0.08943367645483204	-0.03968783263922077	-0.03156046805252035	-0.02281860876564748	-0.05117051661955508	-0.03608077279786744	-0.03425644722671919	-0.008757276960348488	-0.02499748688407942	-0.008152551171549423	0.004383092419190366	-0.001321661833666663	-0.009076361082630708	-0.008156446349326118	-0.02577767845652938	0.007052154057884306	-0.003914352207955275	-0.003787551863154946	-0.01831765702407984	0.007467730847127149	0.003319447638574998	0.003280830430991582	0.001008832879962998	-0.0002904400080453505	0.008302975979472911	0.0001092366858866237	-0.0009049570368047989	-0.003690865334718357	0.0009577177919805226	0.009591103707613626	0.002779865160608637	0.005718588629318197	0.0007352184099856058	-0.01301822594027843	-0.006673161202999742	-0.04345734136799465	-0.0103593622101144	-0.0002467097979629309	-0.003321138303880523	0.00277240897929746	-0.03080600295171776	-0.00873539082667122	-0.00633513667576693	0.01500422661065217	-0.001135176960770022	0.0007685184304657027	0.001657272535294829	0.02547899432442986	0.03240183228396339	0.0040415774337524	-0.01662557159100526	0.003126699282375267	-0.03088813003083777	-0.005044215370169294	0.013869137903684	0.02775615440459742
0.04401533685213356	-0.01442504803239389	0.01042323400524615	0.005925711827576992	0.02111925881455622	-0.001699318710820084	0.01155332313891482	-0.01181448535576694	-0.01014101654214176	-0.00143252986242874	-0.003138436489044883	-0.006363181903636344	0.007590663970155833	-0.04319047046244594	-0.01170289473903431	0.00535971297371356	0.008444829908902607	-0.003536893726071518	-0.01112393927151724	-0.00487121952618513	0.0005699848709078938	0.01170860657346596	-0.003260924397809041	-0.002930198449546328	0.01365372275320795	0.003778651810093376	0.04678854519564934	-0.0005460189614935892	-0.005758399452683045	-0.009398394942329004	0.008309734397534199	0.001609705523896384	0.01928804487566749	0.03332319051338604	-0.03909777159014539	-0.03511979101377995	0.02593040048223349	0.008667249347000458	0.002510365604795975	0.005257946030750989	-0.01235670918669369	-0.02740096888585749	-0.03684067767851074	-0.01341830553087471	-0.01934610497357136	-0.001485706839773691	0.03577227969103965	0.130456460843956	0.06776935991036785	-0.05966150582056989	-0.02985552917844326	-0.02084745575426862	-0.02316349083561151	-0.03511027964888813	-0.009011459365394622	-0.03080748905079858	-0.004951551690872572	0.007343942568186088	-0.0158753584191502	-0.04062015395353897	-0.05452245851140296	-0.07290937849894467	0.05212895371363718	0.5607734467606712	0.09848566429072005	-0.05855839234380026	-0.006478481411672214	-0.05253253726257807	-0.0239067547670671	-0.02236978595285128	-0.01163987885615096	0.01004354556280932	0.003679087790098163	-0.001864609135663649	-0.01731405408988022	-0.014655930389522	-0.02711956367984124	-0.01804490547715192	-0.02560733486551538	0.03900227593436443	0.05086744476283143	0.0136658125477417	-0.01788242024065248	0.01984046767104556	0.008998461208941723	0.004840757134230996	0.03654694758097444	0.0003517885968285818	0.002611127544243921	-0.01581076627311627	-0.02061857543274013	-0.0020508495169814	-0.01544045199718044	-0.009234941952613351	0.02159938345589024	-0.01381483835086734	-0.005986963621293381	-0.002406447894922685	4.624151124179368e-06	0.003082906643725683	0.007735667086094268	-0.003697713464501242	0.01386139486985948	-0.008318554642971959	-0.002907433277556245	0.004695028285404553	0.01729739258993017	0.01083074758260615	-0.008768272709439855	0.00363593720176051	-0.006155870444602577	0.01143899385486408	-0.001322585454304605	0.02029840095214632	0.01531868119208721	0.003330185720273744	-0.01372001373435121
-0.004540723140602677	-0.003273424077341115	-0.007411618272151308	-0.005689353793560843	-0.008927442121704552	-0.008127480089937697	-0.01148006701806974	-0.005609232964907529	-0.01514371275647325	-0.01618332177622017	-0.01141561818309418	-0.009644900837268593	-0.01461460768566105	-0.004581095518891341	-0.00632007692844949	-0.002759523558057316	-0.01219879231029162	-0.01246086059846928	-0.009689624043294353	-0.001834245757858527	-0.003790046592585829	-0.004786319150962245	-0.01430835617932553	-0.0103030455790946	-0.01660209411050261	-0.005297316023770771	0.003691358137610854	0.02656936066716674	0.007517124289802383	-0.00271911516606173	0.04509396980681069	0.5412176913376602	0.03866843857751237	-0.02031056271668574	-0.02054242664580852	-0.02838434449942349	-0.03268264372176598	-0.08973847753767107	-0.09899369535681145	-0.1736999553970122	-0.04737070220382843	-0.03720444904711118	-0.02219078479276091	-0.03684511863350898	-0.03158937498656985	-0.03774060547323488	-0.0295154674265427	-0.02240793895255239	-0.0152441107729187	-0.019494087286997	-0.0105790069949019	-0.01031278256595352	-0.01165006024566479	-0.01061351653354575	-0.01550768981087168	-0.009552890010845768	-0.009298423695481129	-0.01042201222912043	-0.006541596805072446	-0.003980732108485601	-0.00732278090400535	-0.006711907886599558	-0.001955165300541074	-0.001163975483009908	-0.006859576893535298	-0.0003703036725672856	-0.002835714592392019	-0.006713169391469312	-0.008673735001653263	-0.0008943914915191698	-0.006655669575188474	-0.01367827425594099	-0.005496826813727304	-0.004667063618289191	-0.007018357393569423	-0.00544384290514975	-0.006716442090602474	-0.00619288742547753	-0.002058934637235435	-0.006472522349612303	-0.006846710578402309	-0.003966155370558346	-0.004797977194213839	-0.00648775317934056	-0.009972872033132732	-0.006082430959943682	-0.01743024686347196	-0.007454107657579229	-0.004736918706554051	-0.004812681518683494	-0.006865852125988875	-0.003370969193722701	-0.002858014304273201	-0.004317746905033936	-0.0103939169273303	0.00333638316175467	-0.001621532309237834	0.000199796486089593	-0.004858439088197382	-0.003799497624499717	-0.005120284977978784	-0.007119357082521333	-0.009220429427053423	-0.007947907283589576	-0.00956473915308656	-0.005188587622721933	-0.01459331805178201	-0.004437336426764736	0.002711498939005153	-0.004191455326658862	-0.009158008854587918	-0.01569538543352536	-0.01681588371944133	-0.01122112412042829	-0.01042678630073893	-0.007987262144203254	-0.002018846202268722
-0.03090831074039102	-0.08767634391810583	0.01238708888834697	-0.05296255268363405	-0.01422058780934835	0.03792785512546931	0.03526851734216763	0.04186173944377883	0.1227738440934236	0.3644375561182613	0.2728951578051729	0.07719739674856221	-0.008118504966054521	-0.07897568078810689	-0.07548241501992069	0.004297372873885082	0.09368438910944467	0.07785653556674527	0.02485788563258943	-0.04409176006672352	0.01168067488208316	0.008932686310291982	0.002716206231275658	-0.06322871788618813	-0.1089011293576785	-0.04171495269445353	-0.01305796458317011	0.01464799026822479	0.01965211855625987	0.02285407924318971	0.02305142960610238	0.04480794941478208	-0.0113062337072098	-0.01593804404101068	-0.09509261004182024	0.02466356307237342	-0.002045899985972987	0.009809155201763984	0.01535342134538878	0.03397921215352246	0.02001963438729963	0.01510596996457625	0.01771033153496539	0.03733733443222428	0.01532669909731757	0.01071411676258254	0.02808494176655371	0.005182018214548726	0.02796534902891713	0.009890253873709776	0.007847391446330825	0.01003592622134242	0.01877706645340761	0.01891757030297229	0.03309823684763356	0.01878762953051965	0.01574184242184818	-0.0002062905214877419	0.01697043913761237	0.01179636148870436	0.02916038966975721	0.02114987516204623	-0.003226652825852907	0.0008538363790980186	0.01104106897128246	-0.03161361674807846	-0.00361020358064023	0.004310904697483922	0.003620561313820392	0.008341317179043729	0.008461574642420292	0.01855075397545629	-0.00485807684189613	0.002162074552599978	0.01069672683898988	0.01146390176943574	-0.002041540684268848	-0.01331375664815032	-0.0007682638112195508	-0.01956172182547886	0.03930517234988429	0.01895655318709352	0.0116576622926477	0.02860652841832025	0.0356070043329462	0.002990064394135144	0.03693925150862001	0.02020256564010559	0.01610248735481908	0.01312247659454784	0.02133737202755086	0.02608482500212793	0.003520397991884798	0.006351359385858497	0.0210434798550934	0.001962294789881575	-0.01166349687072117	0.014031038028262	0.01484788651881346	0.02209525378039348	-0.01469137720741018	-0.00549875103061507	-0.004331396068351541	-0.011225654392318	-0.0006001614587125955	-0.01815912274992617	0.02095975644065295	0.01246043356740217	-0.006961167311319933	-0.03118437871513067	-0.02319070433683131	0.009512600735839701	-0.03361633172168371	-0.05198808851623293	-0.09344748229724757	-0.03048925813356134	-0.01148335582530459
-0.003320505217094013	0.001037851476557182	-0.01388839884850267	-0.0002892212892866803	0.004808022893202189	-4.414505093060292e-05	0.00527160484577206	0.004912375575621477	0.006955760272688243	0.008742587886271309	0.006411227442424936	0.002898773948048554	0.005182783525515839	0.006445591412172931	0.002859016364243142	0.00742052703918197	0.001902371317258848	0.006479276245666071	0.004544877357431309	-0.00326190659421954	-0.001491185238498858	0.001538047667451083	0.006543513682062448	0.004477598555768517	0.00420009578488404	0.002049212441839847	0.001899967406333099	0.006916345318129895	0.002350830289084395	-0.004139094344551396	0.00398481835828349	0.004306946568901874	0.005355963955085916	0.005735046193658587	0.003266485896652947	-0.006720793909470212	-0.001353065868679495	-0.003430322327720207	0.001392093051684169	0.002046854402620242	0.004402079533999553	0.01022650354575561	0.01395624159401467	0.00597269777098555	0.001820258088300841	-0.002449896010353287	0.002941623823330803	-0.002511354990004935	-0.004433526771078679	-0.003448673295755058	-0.00382510018289554	0.005201416690458049	0.003569473527624791	0.005083437940023013	0.004555363940696193	-0.001852655377193885	-0.001051002882044736	0.002513901382431556	0.001004709550121465	0.002575026126367051	-0.003128629595169712	0.005182343354789685	0.004233992251805614	0.0006968416265938007	-0.0001101294358675413	0.001373125599268769	0.0007798450879503819	0.007903005620143393	-6.310580566040407e-05	0.001439601474765904	0.005132918901624223	0.006240788873519742	0.009529604400336178	0.004669362570517965	0.002689333001050954	-0.003147176449164023	0.0005749811093978467	-0.005538050823392334	-0.01242340366249025	-0.02138866697496058	0.0334762284690077	0.01490636922405329	-0.00441475184602204	-0.01724083977291051	0.008445736863057449	0.01277829626958073	0.007316368371366224	-0.003558188554115801	0.01031108351631361	0.005553178397055977	-0.006318521360619112	0.04370965928565752	0.04901047702751622	-0.012060958309188	-0.006789449439420851	-0.003297743013605829	-0.016951814416786	-0.06374670478115951	-0.1997874657450296	0.1749237794523046	0.4534458820554513	0.08079269216739099	0.01500458193702492	-0.003431897033918087	0.007593816369741266	-0.05932869524554447	-0.1598577896308871	-0.04058554821709755	0.003200762399928185	-0.003427227829759893	-0.01140848617918	0.01085497076037083	0.001525323668988213	-0.0003553196538877567	0.002795761271199818	0.002981592960381937	0.0006449042087390743
-0.005141481556651579	-0.0003382455157078798	0.001374367067117962	0.008549197646178399	-0.001301353580195625	0.003692932785103348	0.005283383203133247	0.004939254861200401	0.002703744144283341	0.0002994091732228117	0.004844274548115279	-0.001045719445431155	0.002675707369099071	-0.005708451060264213	0.001056746313940122	0.004423926533719292	0.007512117082635964	0.001501738215986963	-0.002088350989585216	0.003839868613057628	-0.002217083335321834	0.001449227007974252	0.002689749880473881	0.005832684206124865	0.002422103438064961	0.002155837643583105	0.0007408267726109894	0.00287147100413645	0.00150959789984153	0.0004161884386392788	0.005070171504303637	0.00248707434797468	0.003185009389507722	0.0006467798882480653	0.002410834229381088	-0.0004277658842296286	0.006993648516641975	-0.002160865066928883	0.0009727871777026277	0.001942222192711432	-0.0055510034492443	0.006036805594455481	-0.002763679964366587	0.004552737321155699	-0.001234964748761509	0.0001992797645436357	0.002940418691642071	0.004489367767804456	0.001018009394508079	0.004099080484056704	0.004108589486488473	0.005086653090591657	-0.005305563567071212	0.002033815207859484	-0.0005990845798945431	-0.00118562794190034	0.003933767399729043	0.006269937829091366	-0.003549393291659216	0.007588435192876047	-0.009805050245061259	0.005180240285865177	0.003216909122046134	0.01027439737988583	-0.002463617368347125	0.00260184796018795	-0.002512961623430634	-0.001080415368677909	0.001699054914346194	-0.005345046117874048	-0.00279291799827935	-0.0007778465651783868	-0.00296128407870643	0.003940951435028299	-0.01058113211168631	-0.01785502563863264	-0.0063760787878471	-0.001368188747131147	0.001925468681671188	0.006730038593373548	-0.004640365895479836	-0.0328641443139787	-0.03827392299705443	-0.07645572221739036	-0.02054899549351097	0.04302469505691885	0.005577138820991463	-0.01791611870815906	-0.01372296099572405	0.534569978205422	-0.09668961902865614	-0.01217862757071659	-0.01434286607408788	-0.01531804839469569	0.002728115855462338	-0.01715926972850655	-0.006912952323229323	-0.009619534158454771	-0.04404356140963874	-0.01555386648521926	-0.02128396345271895	-0.01008858379176492	0.008336488886139136	0.005859186292907805	0.005030492746614055	-0.0009864169459668094	-0.001969027186925452	-0.004545714522847235	0.003505076939544008	-0.006654704300588407	-0.001175912522883849	-0.01141088205135368	-0.005616996194475008	0.005432444929429531	0.00816588009788149	0.005712543722516047	0.001760390927059827
0.0004491637804306549	-0.001031287658728156	0.00257426614295258	-0.003643696578167075	0.003372260698965088	-0.003376904817846135	-0.002675889399498404	0.002933022738184254	0.001821101787863141	0.008055977612422053	0.002148129134690733	0.001111966267595266	-0.001328830453494053	-0.0003745822679663969	-0.002461360326215195	0.002691119953363192	-0.003032282262319208	-0.001746332803048092	-0.005301558167551447	-0.005780757842915664	0.002372211643734935	0.006600281528555085	-0.003224381202660946	-0.0001624017381527445	0.00124707784259641	-0.0001840761009663814	-0.004078462868062987	-0.0005114811144143076	-0.0002778128408948762	0.001420730641844848	-0.002208495677467064	-0.006069944276331931	-0.004307761965623688	-0.001261332332689827	0.001360116775848365	0.0008673442235563545	-0.002873806481585832	-0.005434287852478676	-0.002957374505028455	-0.006537268174692229	-0.007068646030930498	-0.01658250206462049	-0.04510142469406634	-0.03756429933404159	-0.01186049339899341	-0.01953669748312995	-0.008367273161984014	-0.0005115403828969107	-0.005867347218836546	-0.02461910885303247	-0.03805419144822646	0.5477789883320238	-0.04578774242513377	-0.03776229271098485	-0.008697200428944292	-0.01276569202010802	-0.009840572542337027	-0.0306894037076032	-0.01913005930740261	-0.01885690714930953	-0.00507985204374115	-0.007270193244411436	-0.006397115698402087	0.005806231290739556	0.005045542472263022	0.001062111933832789	-0.003030867929289249	0.004464012385952494	-0.005471473891437315	-0.007760686567247949	-0.009488628099689624	-0.007703263562849305	-0.001433977629194946	-0.002075675211400133	0.009673521628410757	0.007475309597597794	0.005168776490533316	0.003727825146787169	-0.0008065463112077723	-0.000271038619432718	-0.006088309288290988	0.004197359982646637	-0.002882671024986606	-0.003259826207735596	-0.004024984757876399	-0.01360310483328667	-0.005452042835377134	-0.00419726407125029	-7.507902362247044e-05	-0.004161696330468053	-0.006378817495955509	-0.001533130406242169	0.009356599674593753	-0.002676804015363117	0.000346061402426876	-0.007362103634355524	0.009254013005414173	-0.002006362051761395	0.002384668043571361	0.00179755605741571	-0.005621357313577418	0.003924611430901007	-0.001915144865493071	0.003921627544967338	0.004518681551831176	-0.00550342779856275	-0.00478708879288628	-0.004781378311208474	0.002739027521520477	-0.001292100975416941	0.0002671658259682846	-0.0002422315849676286	0.003546207564244239	-0.00305603737753005	0.001118663392546335	-0.002451894451316864	0.002015693985954476
-0.03470658963575496	-0.02989190329893767	-0.01374446175530654	0.04347690845798877	0.01862800123101131	-0.0119176959117449	-0.01783542017569206	-0.008170713188351114	0.02679542723362775	-0.04181322500342218	0.003632918037164102	-0.0148365786599444	0.02155002250924478	0.01306989695478476	-0.001546882274764162	-0.002796312938605669	0.00883024798094314	0.03363100703627268	-0.007546644978717282	-0.02133309241152941	-0.004232835560873422	0.0001943666811586693	-0.02406863922595827	0.01039496235515102	0.02935087554316497	0.003804098638238173	0.01415734836330196	-0.004417326907253881	-0.004008884690269996	-0.01095557402983201	0.0003511272121203009	0.005115826153364224	-0.0009948675495881716	-0.005141675068369092	0.01920444679028828	0.03436616763046706	0.01507916916455579	-0.009977443116079223	-0.002167665253950915	-0.008388954725929931	-0.002222344505693211	-0.01570772688179524	-0.02828102198761368	0.03943966080923159	-0.002785634850652442	0.001838421677480501	0.003456450478689446	0.005775580807657024	-0.02848131292648925	0.009334783544749134	-0.003323663095726209	-0.005099345024244136	-0.01280773098997742	0.00573451501010821	0.009130036400423173	0.01519474448746471	-0.007096455684416037	-0.03956379333740832	0.00240548600433839	-0.009841950087305483	0.0008594965273296504	0.0296886109665093	-0.01007115244337751	0.005722232095117396	0.0215109692229723	-0.03012298737421501	-0.005097676507770102	-0.05643813654846911	0.02991544104424818	-0.006383692443214282	-0.005716700651161803	0.01593745926549002	0.003679298160637093	0.01024533339293621	0.03795682171473702	0.04473982530494844	0.02284753030575104	-0.03128129692658975	-0.06864128979677042	-0.03930990652235473	-0.1541239287227956	0.4502543950571863	0.09604826572291339	0.05310759409068948	0.04635302780665086	0.01944218317701157	0.01960416188802847	0.01703363971779515	0.01108458498456298	0.05823709941004451	0.08908556764167651	0.06085667731427744	0.04281686221879885	-0.002058717182971586	0.02405076873989456	-0.01712716525666995	-0.02299427799372371	-0.01330752649399353	-0.01290493129728336	-0.007769412723099229	-0.02268064991031352	0.002186426803662571	-0.02178787459460705	-0.02372525475674018	-0.03179990879389798	-0.01795630740797498	-0.000897579455999978	-0.006041510682821332	-0.01339977889111455	0.001303494427707829	0.001107932389386053	-0.03128239961276661	-0.007923317041759338	0.01399214867881105	0.02013712122248462	0.007490399573964953	-0.01486045397706658
0.003649651884804896	0.005889698306948092	-0.01014183190728951	-0.002380169861621041	0.0009666844522022514	0.001007132199411172	-0.008666680788218015	0.00307628042665114	-0.001806568224033525	-0.02219951372163557	-0.01431930915325574	-0.01021944421724824	-0.01497134696057399	0.003767091257499372	-0.01333510491813147	-0.007832440664180334	0.01848987806140076	-0.0006344518027683185	0.004829900154375798	0.02191686806684579	-0.0009468025378605178	-0.003825503532569109	-0.002838895078166595	-0.002676870463355469	-0.01723613241918924	-0.007988641282268677	-0.02110276433273338	-0.003925229424627007	0.002357938113533272	0.008775577453794547	0.0008690211767523522	-0.0002281777890380179	-0.008201830808633809	-0.01133409435244695	-0.008836974057250029	-0.003313399130705127	-0.003544625504727401	0.003888205832931649	0.002579860280234233	0.008547526244967713	0.003742514092005623	0.0202731422462034	-0.000869799058642025	-0.01538714576004144	0.003703380284809093	0.01547236221273106	-0.000450700328087543	-0.004253599210747959	0.006476017285385105	0.02644803244326213	-0.003897107311374323	-0.02023036896714879	-0.0477307357913575	-0.03618523323034526	-0.02477099338719311	-0.00394049052799789	0.007752929542731611	-0.3084528417259404	-0.04548854013510811	-0.002504659146580969	0.02681453614956951	0.04563960771628629	0.01046700640360588	-0.009303578915805726	-0.01370624138915798	-0.004893326471109388	0.02020852440264433	0.006329007253528325	-0.01037524585225245	-0.00747209269993849	-0.02907009346469528	-0.09055017174150221	0.02016043641307362	0.001024053035978105	-0.01502953162067287	-0.007086663904919193	-0.01910902692285032	0.0043175898484304	-0.005787462913303983	-0.007645201688623854	-0.005280990369483096	-0.0236081963244161	-0.009651508645914894	-0.03157497272873776	-0.045628031170664	0.02104388893176096	0.3942577821393834	0.003083534115767064	0.02340943089967375	-0.01946053949010287	-0.02005994811693654	-0.006384623567989723	-0.008186712868751351	-0.0228566217476527	-0.027789902317369	-0.001231618119089869	-0.001082359647680043	-0.00129280429749039	-0.03385726047666048	-0.007584397606630285	-0.01938999959227265	-0.01733167621556145	0.001149666632142855	0.002501377255150391	-0.006124439846374845	-0.003027494645678573	-0.02401106241696623	-0.01207382835998393	-0.005021342089288328	0.009851358384576693	-0.007157536607831685	-0.01735008538575007	-0.01339966060428302	-0.0132112488670369	-0.01474279492154586	0.002193780835620915	-0.004699613094745586
-0.03140340827447062	0.02622984652370044	-0.02839583785295024	0.02489944726124017	0.006001936542866283	0.001154820021994128	0.003459863530827871	-0.002143167940986445	0.007635667529341777	-0.02695092037660645	-0.01455320084263181	0.01104471741094022	0.008248944063510379	0.01930785597807124	0.01511844454397298	0.001572445709464691	-0.01123637348703533	0.01790016729523759	0.01462968743427476	0.0418989785606248	0.03344282677432679	0.001343544385104016	-0.01080651040147928	-0.008539058402509091	0.004011628080312156	-0.01491577432807995	0.02872263152146644	0.01460554550743368	0.003421263511724109	0.02552083176162454	0.01226748244639284	-0.005430848621658033	0.02229398541113041	0.01008773638379943	-0.03479621362119686	-0.08438024237614145	-0.0210297009166953	-0.01130752500488157	-0.0002327571708204251	0.01450511069366658	0.01299604699399223	-0.004604783873845179	-0.002807660935207512	1.668526183839543e-05	0.008722045005944333	0.001036292048252637	-0.01174816812921567	-0.03511732123723233	-0.06756452698024074	-0.002164041412788693	0.008967341548109546	0.01312775123767315	0.003544145343340014	0.06276621615789005	0.042246885626161	0.02693152715980714	0.0145285765761168	-0.01526374572337177	0.03900375952674625	0.03436734627930031	0.4577247754427916	-0.1120000231312051	-0.03500083449791611	0.05133318377406758	-0.0490457899786936	-0.0539401641103733	0.004052012035366024	-0.04309368093445617	0.01777729051372336	0.003326000883876513	0.02736739533129251	-0.002530297627622165	-0.0009531440908188488	0.019304192047957	0.006176779560976792	-0.009905302499283612	-0.03973454896713002	-0.01471997070513374	-0.03719033480469004	0.02960739143973396	0.006134505175630394	0.01001416227892651	-0.01115394225996882	-0.03416441707055562	-0.002631234401169472	0.02025242664415784	-0.02546973238358876	-0.0151133380162809	-0.01905250864165785	-0.004409733514008547	-0.02821114836205068	-0.0008040745500841819	-0.01271742071645797	-0.009184862017800027	-0.006678537598707783	0.006544819548544165	0.002792595335026037	-0.001665293275482399	0.003763263508046232	-0.008114276023174128	0.008524098949567795	-0.004718810150013801	0.001238065867770869	-0.003769590815063532	0.00203813623627844	-0.007679001743318394	0.01415722937846999	-0.004436478298505858	-0.0248049056841091	0.001323773804155685	-0.01127939018104317	-4.722573399979703e-05	-0.01549929518116908	-0.0280072548683233	-0.02095045826669114	-0.006662271185669332	-0.01009725266933051
-0.03789830102655302	0.01534595712999106	0.05904902381697063	-0.004387064329166579	0.06342194457665139	-0.005160539857304164	-0.003218723006354515	-0.01611382890735362	-3.564895415300061e-06	-0.01089630010909287	0.02496285141049379	0.01437561327639663	0.05075395168551525	0.01784563901203863	0.007735262466801719	0.004724749244022402	-0.009205750319961088	-0.02191721134883974	-0.01840192266483396	0.0019752533850222	-0.02618385105792533	0.01946273663093474	0.004882034853886222	-0.006113773480018487	0.01254911177126894	0.004033007408056098	0.04418403646676966	-0.00221074848260625	-0.000191929676024795	-0.02369565320538387	0.009742555532162422	0.0174570443415047	0.01575318256640045	0.004382825295819143	0.01602486183797165	0.06376277258153601	0.001231352375070347	0.01718396210548255	0.004534020531474843	0.01792237738158237	-0.01159119797672941	-0.07757028381195906	-0.02987119648348092	0.03827371641181877	-0.005550229687111475	0.002054960691625903	0.02446062075150145	0.01254187852743121	-0.01326101494250659	-0.01230795968448151	-0.01696244077457782	-0.0003974297693812373	-0.001702780193236629	0.008637816145702734	0.02824519693352375	0.0008794426602218583	-0.007014326706379552	-0.01525308420333092	0.002792882973858528	0.01233894982220208	0.03681585360557572	-0.01576168149157337	-0.0486048555068939	0.01118751329285566	0.02279026870802678	0.4461345461541101	0.03259468424313163	-0.09528849320152787	0.02950286680590654	0.007522567123475782	0.00851151949603246	0.03052290630183764	-0.001387978502310298	0.007935503842098656	0.01115466769507628	0.009248250630743549	0.002861325390990422	-0.0447169504770309	-0.01605263448799812	0.02705867912744546	0.1208886743591372	0.00580524844961406	0.000119616256437673	0.03010193507698911	0.02391979619649508	0.003678140119090309	0.04029898905348243	-0.003253264261444464	-0.008323921165801053	0.01064280875830033	0.01412379360407856	0.03956958441420562	0.02080119045040298	0.005763653424149816	0.03681763905922705	-0.03243339879914717	-0.03753105671251447	0.007678824426948907	0.02781786793545319	0.01625833757570101	0.0003988611834155546	0.00313601099585782	0.01179228868786826	-0.01283207775247695	0.01084679533208737	-0.005460857826423545	0.02226942534243946	0.01434418366984755	-0.02042448082754583	0.005320090241542127	-0.002624515490407169	0.02022353264381771	-0.003709100064140229	-0.02904016661107319	-0.004343399955918449	-0.007775000396524729	-0.01335754519406153
-0.00228713690431431	0.0008717562701439699	-0.007962094510404076	0.003083362802355645	8.052285712087287e-05	-0.006023992685742292	-0.01188160056687951	-0.0005942406062520938	-0.006306888309149735	0.00177749345808973	0.0004357399971544349	0.0007432702189029632	-0.003701187177882189	0.0007446066620046803	0.000601701181992766	0.002109793660644556	0.001932237375428177	0.00563683723406375	-0.001087092304016894	-0.0006385329291918254	0.005516838394820712	-0.002628205768565298	0.0003414860235216772	0.0003665347872396692	-0.007228022137405055	0.0001454946371123453	-0.005277659632140143	-0.002845943202464478	-0.001664903838363124	0.0009751584840989863	-0.002411061160164314	-0.002273511418524461	-0.003723042983160983	0.0005966603941639744	-0.0004074377912968488	0.00585721321259284	-0.0006968608134588479	0.0004219307283984275	-0.003749047446358842	0.004966502660851709	-0.005522029701609325	0.003829332344756937	-0.006256345755607433	-0.01229490541922125	-0.01490930367062576	-0.01730415608708696	-0.0003677698170515958	-0.006871732566172828	-0.0003851421888886467	-0.05659094088762264	-0.005978883600701572	0.01348900544048442	-0.04864983776196939	0.4799972811854243	-0.02064390634450612	-0.03941310448753004	-0.01870056846021802	-0.07244797656941157	0.01283064853201228	-0.07675881978010717	-0.06063260739133623	-0.007073662238675922	0.006277786434775903	0.009820922484360096	0.005257750669559393	0.00358766668928171	-0.003051815525508762	-0.002355934401313212	-0.01300402205933915	-0.02572815247933302	-0.01549788829354668	-0.02557095781180983	-0.0291387775927895	-0.01263179355564912	-0.01056650363666276	-0.003691723496789913	0.01834157800496102	0.003244171226580001	-0.0005965365176196391	0.004001145863785849	0.005854410224876332	-0.006438801473980819	0.004491305494012391	-0.01895344398500766	-0.01098683258917971	0.01199631914608465	-0.0205463301871423	-0.02051914616745417	0.00513266158897376	-0.005142961544729195	0.001130351862111544	0.00733934963868792	0.002591039856924549	-0.0006265263986550701	0.004540460392865665	0.006506298065339948	0.01203395282609208	0.005506325490272179	-0.00200343606428083	0.0004117369191104688	-0.002757042661628223	-0.004289630924469162	-0.007323879723591299	-0.001481104102985615	-0.009268927688395889	-0.002026907839656789	0.002220013661755717	-0.004312478250038467	-0.001822591638675984	0.001936283792758583	0.001301311652533707	0.001119802419315836	-0.01027625636652216	0.003286922365767712	0.005224311545576418	-0.0007524185711893733	-0.003074039720110538
0.005735183874972976	0.01255862925028572	-0.02323834602908529	-0.05389642076339565	-0.04643904709064388	0.07583581885552526	0.09218042210519678	0.004236474503401855	0.005929007614008178	0.01263256190280113	0.009695126140557186	-0.0005664411399027945	-0.009153208735889779	0.009191645304683473	0.00156964888032734	-0.002347707131115167	-0.006116844179535154	-0.01381813728339907	-0.0181451973013452	-0.01195404084588492	-0.00896523825396316	-0.01053910118200812	-0.011123421445708	-0.003958294219884976	-0.008321086681685293	0.002139727643165867	-0.00158435869595969	-0.004984157167875199	0.0007813986019499958	0.002012662376412637	-0.002671706720674878	-0.006368024622513039	-0.002094896806472002	-0.007862107222496846	-0.0001970146456535395	0.006574708926598738	-0.0005183885862148665	-0.001388095251378158	-0.001674832620636163	-0.00476641578213994	-0.0004623102078248794	0.007951485007424253	0.004402452710335478	-0.009406552422066129	-0.0001598471171379378	0.0008907941067001336	-0.002716021182851172	0.001587876439301172	0.001534505400842075	-0.001900838082901332	-0.005599576911830774	-0.003964976054495614	-0.005162032712167523	-0.006166460915087217	-0.007850937955746198	-0.003311211242368862	-0.003938950647807208	-0.005855932307124833	0.0001040904006112104	-0.003993381808145442	0.0003876399085795054	-0.0009012724181750899	-0.004691806950399189	-0.0005247757193440846	0.003771888305871749	-0.005843180725014272	-0.002020864246836968	-0.005023580557564446	-0.005989709751763404	0.002751698595793879	-0.002835033261728088	-0.009119189767972779	-0.001560879736138521	-0.001169185411969502	-0.002564117250799341	-0.002959087580087018	0.0009866965479282599	-5.010326859770647e-05	0.001736128366760475	0.006430367030838977	0.00434667684232257	0.003424176275365959	0.0002822895621060057	-0.002337904119653693	-0.00459337232560683	0.003842995533012966	-0.007818303888567794	0.0002085529274520532	-0.0007367258482978271	-0.002117060219511752	-0.002661909564523835	0.0003942932186021744	0.002486346760854906	0.0009227075926649906	-0.01054878414224652	-0.00211087741107741	-0.00291092684740558	-0.00273340435951756	0.006095477476626011	0.001539581018792736	-0.001080483403758913	-0.008599657886962835	-0.01071365318059901	-0.06741714159467149	-0.06508229491678189	-0.01103035808651897	-0.004440397683211373	-0.001016605062743692	-0.01162695771717374	-0.02344854828664478	-0.003832958194613393	0.02836324792332681	-0.07959844435026589	-0.3038310602303506	0.3508004932496064	0.03359730745811645	0.001301558908554323
0.03708106656221467	-0.001778351186461268	0.01816651532397251	-0.006165217626741719	0.05189528178637581	0.01644501930421811	-0.00415102259655185	0.009139590525868357	0.007952645679194643	-0.0132473437977335	-0.003537819293561836	-0.00598947535346279	0.02150456166731205	-0.01094511056752962	0.004067660060547816	0.008203681808359325	0.02027242816194901	0.001095638485665516	0.01270663977625959	0.1007644503681497	0.01934293094127773	0.02495514652975294	-0.008628450316137097	-0.003585650380133387	-0.02000336602856646	0.002562942045088288	0.04834648913687845	0.01454036606901752	-0.004208364063611411	0.005593779376726666	0.01404599251650742	0.001570845665624721	0.01475200211506537	0.01021363468526374	-0.002710480109008268	0.08273969368429843	0.009189613385591744	0.005898996184112842	-0.005194336271774235	-0.001671990787814148	0.002388866729020718	-0.1511490253258424	-0.02004587381313103	0.009724701951041855	-0.007578225113306854	-0.005980981693902645	-0.002541910140505507	0.01673998783558517	-0.004097925557708082	0.009303338787148363	0.004053910794328973	-0.002699384165887251	0.01143415071970939	0.007265905385520225	0.01849375919377953	0.003693754328335132	-0.004763060349794793	0.03722219951194201	0.008159085464634022	0.007657651830515315	-0.0036419418620164	0.003734705461214359	-0.03285134206842267	-0.03054566645140837	0.02954341843866085	-0.05116376330468213	-0.01163998759818291	-0.03413152628886237	0.006234457818754244	-7.253135129976189e-05	0.01106986566456131	0.03985240363961898	0.0136238748987529	0.015106759550648	0.02678504489561755	-0.01672405166060747	0.02420244878458904	-0.02443567836301238	-0.01353382046855893	-0.008969274744144124	0.04735594908531183	0.00159039677964447	-0.005844878850937417	0.0008306046637088764	0.02343917429250957	0.01980178267294373	0.04547362507511982	0.03163587622766426	0.03003891022589832	-0.003230745549243201	0.000380662840542955	0.01836040644148682	0.002374436812099598	-0.02543313859607635	0.03263286177299635	0.05140298458109523	0.3778927677857666	0.04309752847930895	-0.1249874092457577	-0.0006651196638534869	-0.0302183284463572	0.001883341765102097	0.001293322038495173	0.01143909260670328	0.0448940856399366	0.004840020794820846	0.01715565252464258	0.03352779087422813	0.005363641126081627	-0.02507542210344675	-0.005397619664095685	-0.001725608388255011	0.004221193088961272	-0.006276558234024315	0.02760437429799202	-0.006723990517644902	0.001413389568829292
0.0008764440915753296	0.001930681183560022	0.03230321405251771	-0.001048909673121851	0.001878162198902565	0.00769342875964385	-0.02210699867859179	-0.009590188376240793	-0.006182765838388253	-0.03202203025836558	0.01012359233929745	-0.003333105878523399	0.02349683612976677	0.01312501600130796	0.003928530788049753	0.004362171399884773	-0.0006177851213349935	-0.006349835298080411	0.01071026617330633	-0.02412963427517755	-0.003355050790414271	0.0005991062500967829	0.01871891934224834	-0.005850562810972298	-0.01227186509153012	0.001353757178125618	-0.006425211509503277	-0.008858920915709554	-0.01413471926130483	-0.0228846804773358	0.002757167837599109	0.0105960741408418	-0.002423506460412279	0.0302469568907539	-0.04087536253276993	-0.07612577636128302	-0.009801064508938844	-0.002191479339997604	0.008719494462047127	-0.03271721353657538	-0.005746979079024477	-0.05416217629312331	-0.02262670454373062	0.01419908506568288	0.05822376154084086	0.08971558044348661	0.04646135785503714	-0.001705824590348312	-0.05802079894284034	0.4114789650110028	0.06000561338766564	0.02788887550307307	0.0216730447105508	0.04284225526862313	0.03589245808910075	0.04869382919600847	0.04708921768172515	-0.02358425722399349	-0.002256131048870436	-0.02220169361698626	-0.05893815066197437	-0.04635339752471913	-0.04460026250896737	0.03309617399403902	-0.01768117150712233	-0.01810352608824891	-0.04033202185248125	-0.03141441650971687	-0.03270194893437152	-0.02514200074277878	-0.01874878746539604	0.01980625752317375	-0.01767537617720837	-0.01648200879054986	-0.001210077774154581	-0.006015229550195022	0.02691208798812799	-0.005048923562938627	-0.03542119625002923	-0.007521554537703326	0.0203575464187136	-0.01756242655189203	-0.0008281343878266096	-0.01203652123510306	0.003998342646865912	0.006115783973418659	-0.01452340414300227	-0.01070340166661065	0.01981885130933717	-0.001076669903390981	0.007871214672275986	0.001017989676575963	0.006298850651608793	0.01204027840857621	0.009828439072614171	-0.001451063694976557	-0.01661423949437185	0.00578669139129595	0.02711959331714975	0.004084511306319238	0.01888855391241795	-0.008050824557103103	0.004037332694894556	-0.01876728765216896	0.001116049876331585	-0.0007901551756230247	0.01504887348768165	0.005881338045470927	-0.007441024526716121	-0.01227362573919334	0.003115102897754746	0.01552163925991707	-0.002351096030645197	-0.005380393171171768	0.004684255147663621	-0.004151373082008074	-0.0008159227916931316
-0.005385976729288318	0.0009743123240129091	-0.006102736666844202	0.008612361846408879	-0.002331340650393319	0.008903166218768525	0.001018242481930743	0.00243109640464073	-0.00186215657630344	-0.01069584144469229	-0.0001035474808265942	0.001718943614095532	-0.008115276619357712	-0.007906217976785953	0.003626383731825433	-0.01355470577767234	0.02051162964787568	0.001297147290246379	-0.003243075806398883	-0.005833580876159565	-0.004588178731412945	-0.005648223076839256	-0.002104705116171668	0.0001221441553226674	-0.002021925386892835	0.0004299165121690213	-0.0009060882712225006	0.003443643991227388	0.002125617365812635	0.002207801347404873	-0.003931343780418776	0.001512562928026107	0.0004831006567201871	-0.001038589967155947	0.01034859951418818	0.003398257482815359	-0.002720971444323996	-0.006581274088555062	0.0006242931619889142	0.005944480073851678	-0.0005053601427169526	-0.006237407306550639	-0.0005241911479251134	0.004700175111916003	0.0001574476491288966	-0.001472183477487379	-0.01168587871958774	0.009581615481946599	0.00609405105024643	-0.00929893076216956	0.002210756742837846	0.00470593982850892	0.0005508967927747737	-0.005066151665978243	0.006618848307952966	4.440410032834872e-05	0.00745525763335532	-0.002989125864870421	0.001732063598521347	0.0004250275946957014	0.02398568935478481	0.001245538342700246	0.01145831764300545	-0.004140035959556264	0.01656786452490664	0.01646983241312024	0.006058228985296437	0.003613105100165382	0.009666670822995346	-0.01582596315735341	-0.007139918885073772	0.003040765535629351	-0.01412124435645262	-0.003629752946673565	-0.02661976842710936	-0.01665356515853555	-0.01468619161359869	0.01309359399619191	-0.001003424725079347	0.00940450176225692	-0.006618060042495716	-0.007610443391886539	-0.000221710266874643	0.006185338184210959	-0.02892221619089319	-0.02097536956413718	-0.04336131375128171	0.002285918048675325	0.4602643387655684	0.001832077620497474	-0.01022953748699637	0.007570417693305805	-0.0279544140597028	-0.02642141289780193	-0.01884760199114306	-0.05935054509852978	-0.02767009362863564	-0.0126020048331474	-0.03386114044831103	-0.009627771358065107	-0.01863044051204447	-0.004575083446647368	0.004634406826199892	0.001660134702878582	0.008379396530217006	-0.002606292594693389	-0.0003419935494763513	-0.006676589220769773	0.001495319978743373	-0.002229874154393672	0.001017947803244556	-0.01222339154321658	-0.006986919035782247	0.009338403862972456	0.007201085358709025	-0.002074569410282634	0.001439739697963839
-0.01054850349903423	-0.007608750344207611	-0.01223166509675329	-0.0041582181219978	-0.01164306893967769	-0.0127240627990622	-0.003546398174267297	0.0003445330662409601	-0.004329834628128561	-0.01759174083338971	-0.006398480658563666	-0.004634972497258489	-0.009107134856191881	-0.003744597151732733	-0.005948583706457134	-0.01372271622939086	0.01688399180572159	-0.00456302424966131	0.003156722533405939	0.0067158522703242	-0.001115194597713702	0.00190710033089329	-0.006192774189163557	-0.006257909774358299	-0.005538810038898377	-0.006552985675605516	-0.004658795276963548	-0.001285205330612273	-0.007694076245222207	-0.00581210559132898	-0.004455765980842018	-0.008722687846696827	-0.005107255637907383	-0.007502005715066843	0.002447103427519265	0.0003531782225449981	-0.001794414696709085	0.002114922796780804	-0.00360718376027172	-0.005841595837177064	0.005349463098968505	0.01136232129234328	0.003221921986213777	-0.02091737900232508	-0.003370906207506562	-0.00512414221017351	-0.006546966092114853	-0.007327040683478918	0.001487240995673219	-0.001974388182110493	-0.006368039900838614	-0.002700889878155214	0.003610496841538607	-0.01373595376284522	-0.01447688275903734	-0.004805172167352633	-0.004443832186632061	-0.05245482885420591	-0.01269075462739197	-0.01326112318117349	-0.008671635353371752	0.001627651709655263	0.005441342961838259	-0.009828769330049409	-0.00351282847757575	0.006337950922418698	-0.003983342767844381	-0.01413583547472463	-0.02274255290129057	-0.03704998316992178	-0.01125470402653852	-0.0354078002533129	-0.01779790889829982	-0.02072777638846821	-0.07243967781421351	-0.01649382471316471	-0.03233554711759473	-0.003943412414517677	-0.01342836293513001	-0.001670819816104719	-0.00866382165782075	-0.01979606845157824	-0.03294823878506047	-0.0675560237011599	0.4403047657556537	0.04494242650866662	-0.03418888691875242	-0.008419767711154802	0.00836906614487712	-0.01154117854066797	-0.0369886000314319	-0.012333907649426	-0.01095135230251275	-0.02849378300381154	-0.008041537479862098	-0.007969749567327511	-0.00763592765401378	-0.0130121035827005	-0.02957991517614138	-0.02086221777091618	-0.01464379370818781	-0.002202786849319745	-0.001299197878369336	0.006315890963121469	0.001215420887237587	-0.001080112787584095	-0.008901765046963475	-0.009098280999752189	-0.01157146137056456	0.007515708828811445	-0.009338245333451836	-0.01171335287980524	-0.002261871656337476	-0.01531050189449265	-0.008534932778330317	-0.01799045392864971	-0.006210460110226509
0.004911720567011279	0.01126831061603789	0.005342630031349324	0.001941413354170419	0.005209977749655741	0.006827570532231543	0.0001414226545169725	0.007528613532792376	0.00725655478479841	0.01780809481165958	0.006064894828286844	0.009078394661378672	0.006909970597217991	0.0112854556170624	0.004628492825161328	0.005483982104647266	-0.001462631746293914	0.009500652217214052	0.005440209138143612	0.01533342032646466	0.0101338324142855	0.008528505632306171	0.01764786614474302	0.009697351767034554	0.01176921763433854	0.00550485210544809	0.000574759609720503	0.005794064705410312	0.001843916983587742	-0.00334615808239684	0.004944373029935473	0.01226419509613337	0.004256076688090206	0.004719854335770403	0.007442555693928363	0.009466594997820777	0.006098904549111714	0.004778678284964906	0.005048690030575589	0.007018800944004718	0.007076053058335012	0.004408921356203779	0.007804422116630197	0.00764226398683027	0.004737052070191842	0.005106303125175914	0.00990177832605472	0.007706870519216614	0.01213727364208981	0.01008514438454082	0.000790467849321356	-0.001591388111558383	-0.01043335125891226	0.00501766052664959	0.009129546408383747	0.003746366077421475	0.003936633198583206	-0.07959726117267235	-0.009201754498626842	-0.007748470779575198	0.002513023110473738	0.01089805247025964	0.008338378062463016	0.001048337031489994	0.003578270133618394	0.004969759760228639	0.008281973333964182	0.002987329212993511	-0.002318920160350654	-0.02482749786699353	0.008539950010927848	-0.002162115358250736	0.4441189563654726	-0.06211538496322412	-0.04659953325219976	-0.01394740147653239	0.02197110608950597	0.003356603243446041	0.01115745744454846	0.009006798045172184	0.007124134853074177	0.01060565361726143	-0.0003955742581996389	-0.03241286117597513	-0.00908616377507601	-0.0008119294721142173	-0.08836580650189145	-0.01203798382625083	0.004102208800105759	-0.001508999307903457	-0.003060203388712668	0.007612932359578775	-0.004672846031638467	-0.003290016243394161	0.0172916902037411	0.01232346651767986	-0.00234904986286588	0.007005551730651898	0.007599362059368022	-0.00467841990254018	-0.0008584148724519912	0.002666325280745562	0.004062090867415347	0.01504390774513577	0.002970633960437246	-0.001566799304597399	0.007687950556783218	0.01056506044644651	-0.0006204455105193578	-0.001777897613371237	-0.001631093042856505	-0.0006122396032538629	0.00126127343491177	0.005361065707720259	0.007829419460612554	0.007307287487609371	0.001463253143849888
0.01174487909973921	0.007509596636856813	0.00573252524929414	0.0009258187019247945	-0.003896049725906328	-0.001641134973149033	-0.03393681258399431	-0.009108828316001842	-0.001720223943910714	0.002156336130426059	0.009001909769811389	-0.0007311277896945908	0.01144345564113837	0.01227815605020932	-0.003587889812321569	0.01339081236590154	-0.009014893571289083	0.002570201239580897	-0.004679002165889972	-0.001033582646205673	-0.003052835408242922	-0.01328239002860324	-0.00931897131390833	-0.0001278164505314594	-0.004181902452273225	-0.003236410688886861	-0.009788782435457303	0.001050913269366247	0.01045988862717038	-0.007613182717896004	-0.0004301645489862424	0.01091495349538962	-0.004339722326507536	-0.01134416129259446	-0.01438390465334267	-0.007768984143454516	0.00165757217919968	-0.004969253243328471	0.002354174910158039	0.009327174257623326	0.005939552593164896	0.007212117725585549	0.002997800918380107	0.01819559122455644	-0.000518011690534015	0.001742427197666109	0.002654817705976406	0.006216391179673156	0.003893903493631266	-0.001995665161136331	-0.000119274182933743	-0.003322994059792641	-0.005204289581333934	0.002739224229321164	0.002798179456926232	0.009613918443515047	0.002309451427294503	0.003228360343043174	-0.003895598438645613	0.002161112200203712	0.005624979479810134	0.006285917727706103	0.005194849433366079	-0.006920524607681961	0.002806701520527008	0.004249525166106318	-0.003153549874539663	-0.001363979985955249	0.005061683107902582	0.0136540448571662	0.007192478351926087	-0.004082864487899489	0.006879547229113975	0.004394931456210716	0.009443441936502242	0.009752220797436371	-0.003171134453948543	0.0009916677245846871	0.000734628136195996	0.007438679545003541	-0.01079221129121409	0.009905366910483056	-0.0005463290469422224	0.006158245439028006	0.0009828416382230316	-0.001529941221701817	-0.00059581387740935	-0.003545849751180705	0.001867021422892232	-0.001804016217498603	0.002244697381104843	-0.00342022078513099	-0.008185719224956782	-0.04122191359203787	-0.00646660545817798	0.01475490974023364	-0.01905502009084064	-0.03520040290313332	-0.1286696677701718	-0.06997827385354261	-0.01205491812002577	-0.04929185649585367	-0.01425840097906976	-0.01655752263113153	-0.157389908724561	0.2507076561538201	0.008061862728950679	0.01864868105477173	-0.01832267980988139	-0.01188449007428059	0.04730877889904208	0.3206166029228029	0.06119226464613398	-0.003263928567014242	-0.02748213196461859	-0.005522162712444683	-0.004911816159677094
0.003345549980738571	0.01057348368732834	-0.004998094984346322	-0.002086139557237333	-0.002922954413273952	0.003233696930212446	0.009237326536296841	0.005799647056193587	-0.01002083513624684	-0.0008254692388219394	0.0006121485937376234	0.003607774700925488	0.005185796864875086	-0.007132964404155216	-0.0009677668231312959	0.003078416387353553	0.0009498889314730971	-0.00499464238073899	-0.01119481564863779	0.002356706901860006	0.002805713942370245	-0.007516453173886203	0.001669927122480435	-0.01154626233655022	-0.01059782102289765	0.001238334829568842	-0.001037237806360961	-0.005277253369134497	0.005623029984365822	0.004059632910083943	-0.007570002926905614	0.008368014186354047	-0.0290032355908723	-0.0281589868919109	-0.04130183292335982	-0.07631562470657591	0.45719361855721	-0.03448655220441228	-0.0008678973273454288	-0.01746375958081328	-0.004579845932190409	-0.001247854676439156	0.006146398876513305	0.003896717044267759	-0.004547360299007772	-0.01228726877448703	-0.01084060818009665	-0.03003422626309836	-0.01723270557708161	-0.003523833085791377	0.001872054687256626	0.0007943601445665141	-0.002742778566992519	-0.001465016281675854	0.002153224174312317	-0.01024485793701038	-0.01230211782407712	0.001104013415406018	0.009496538448912593	-0.00397507423966613	-0.001150780858945313	-0.009821815502539461	-0.006408536162706675	-0.01263382578587893	-0.02324001419924393	0.01307439845389901	0.0004726274809878704	-0.007455932498299097	0.002304294769943658	0.009778459843646203	-0.00125853248409267	0.00534111693587695	0.00167814058536505	0.0009053533099178945	0.001502685139265286	0.002879668531753865	0.002336330270475121	0.006834887904843832	-0.003723808045443741	-0.003581061345692161	0.004628055324764059	-0.005975448681329463	0.005348447232232802	-0.0008075272386150028	0.003029279008352901	-0.001293830837200392	0.005546142592886985	0.001930450718565245	0.004821905960815193	-0.005333177565389244	-0.007063514966834232	0.01090192953010954	0.003737664971792867	-0.003351303799661811	-0.002321128598549884	0.0009460224335118698	0.005589506757835597	-0.0004485173711682178	-0.001881544835247192	0.004508254823153594	-0.003907068460289298	0.006965783090651605	-0.004017657920872057	0.002614450774294249	-0.00206359179252878	-0.003321025088045451	0.004772556853361174	0.002281830313355831	-0.001749092051681808	0.0003384665812797027	0.001344253908905415	-0.003591731550365857	0.001943339218962535	0.00256929773959309	-0.003346701301979747	0.0168381062106249	-0.000515598838256871
